{"Input":[0.0,0.0,0.0,0.0,0.0,0.0,0.0,0.0,0.0,0.0,0.0,0.0,0.0,0.0,0.0,0.0,0.0,0.0,0.0,0.0,0.0,0.0,0.0,0.0,0.0,0.0,0.0,0.0,0.0,0.0,0.0,0.0,0.0,0.0,0.0,0.0,0.0,0.0,0.0,0.0,0.0,0.0,0.0,0.0,0.0,0.0,0.0,0.0,0.0,0.0,0.0,0.0,0.0,0.0,0.0,0.0,0.0,0.0,0.0,0.0,0.0,0.0,0.0,0.0,0.0,0.0,0.0,0.0,0.0,0.0,0.0,0.0,0.0,0.0,0.0,0.0,0.0,0.0,0.0,0.0,0.0,0.0,0.0,0.0,0.0,0.0,0.0,0.0,0.0,0.0,0.0,0.0,0.0,0.0,0.0,0.0,0.0,0.0,0.0,0.0,0.0,0.0,0.0,0.0,0.0,0.0,0.0,0.0,0.0,0.0,0.0,0.0,0.0,0.0,0.0,0.0,0.0,0.0,0.0,0.0,0.0,0.0,0.0,0.0,0.0,0.0,0.0,0.0,0.0,0.0,0.0,0.0,0.0,0.0,0.0,0.0,0.0,0.0,0.0,0.0,0.0,0.0,0.0,0.0,0.0,0.0,0.0,0.0,0.0,0.0,0.0,0.0,0.0,0.0,0.0,0.0,0.0,0.0,0.0,0.0,0.0,0.0,0.0,0.0,0.0,0.0,0.0,0.0,0.0,0.0,0.0,0.0,0.0,0.0,0.0,0.0,0.0,0.0,0.0,0.0,0.0,0.0,0.0,0.0,0.0,0.0,0.0,0.0,0.0,0.0,0.0,0.0,0.0,0.0,0.0,0.0,0.0,0.0,0.0,0.0,0.0,0.0,0.0,0.0,0.0,0.0,0.0,0.0,0.0,0.0,0.0,0.0,0.0,0.0,0.0,0.0,0.0,0.0,0.0,0.0,0.0,0.0,0.0,0.0,0.0,0.0,0.0,0.0,0.0,0.0,0.0,0.0,0.0,0.0,0.0,0.0,0.0,0.0,0.0,0.0,0.0,0.0,0.0,0.0,0.0,0.0,0.0,0.0,0.0,0.0,0.0,0.0,0.0,0.0,0.0,0.0,0.0,0.0,0.0,0.0,0.0,0.0,0.0,0.0,0.0,0.0,0.0,0.0,0.0,0.0,0.0,0.0,0.0,0.0,0.0,0.0,0.0,0.0,0.0,0.0,0.0,0.0,0.0,0.0,0.0,0.0,0.0,0.0,0.0,0.0,0.0,0.0,0.0,0.0,0.0,0.0,0.0,0.0,0.0,0.0,0.0,0.0,0.0,0.0,0.0,0.0,0.0,0.0,0.0,0.0,0.0,0.0,0.0,0.0,0.0,0.0,0.0,0.0,0.0,0.0,0.0,0.0,0.0,0.0,0.0,0.0,0.0,0.0,0.0,0.0,0.0,0.0,0.0,0.0,0.0,0.0,0.0,0.0,0.0,0.0,0.0,0.0,0.0,0.0,0.0,0.0,0.0,0.0,0.0,0.0,0.0,0.0,0.0,0.0,0.0,0.0,0.0,0.0,0.0,0.0,0.0,0.0,0.0,0.0,0.0,0.0,0.0,0.0,0.0,0.0,0.0,0.0,0.0,0.0,0.0,0.0,0.0,0.0,0.0,0.0,0.0,0.0,0.0,0.0,0.0,0.0,0.0,0.0,0.0,0.0,0.0,0.0,0.0,0.0,0.0,0.0,0.0,0.0,0.0,0.0,0.0,0.0,0.0,0.0,0.0,0.0,0.0,0.0,0.0,0.0,0.0,0.0,0.0,0.0,0.0,0.0,0.0,0.0,0.0,0.0,0.0,0.0,0.0,0.0,0.0,0.0,0.0,0.0,0.0,0.0,0.0,0.0,0.0,0.0,0.0,0.0,0.0,0.0,0.0,0.0,0.0,0.0,0.0,0.0,0.0,0.0,0.0,0.0,0.0,0.0,0.0,0.0,0.0,0.0,0.0,0.0,0.0,0.0,0.0,0.0,0.0,0.0,0.0,0.0,0.0,0.0,0.0,0.0,0.0,0.0,0.0,0.0,0.0,0.0,0.0,0.0,0.0,0.0,0.0,0.0,0.0,0.0,0.0,0.0,0.0,0.0,0.0,0.0,0.0,0.0,0.0,0.0,0.0,0.0,0.0,0.0,0.0,0.0,0.0,0.0,0.0,0.0,0.0,0.0,0.0,0.0,0.0,0.0,0.0,0.0,0.0,0.0,0.0,0.0,0.0,0.0,0.0,0.0,0.0,0.0,0.0,0.0,0.0,0.0,0.0,0.0,0.0,0.0,0.0,0.0,0.0,0.0,0.0,0.0,0.0,0.0,0.0,0.0,0.0,0.0,0.0,0.0,0.0,0.0,0.0,0.0,0.0,0.0,0.0,0.0,0.0,0.0,0.0,0.0,0.0,0.0,0.0,0.0,0.0,0.0,0.0,0.0,0.0,0.0,0.0,0.0,0.0,0.0,0.0,0.0,0.0,0.0,0.0,0.0,0.0,0.0,0.0,0.0,0.0,0.0,0.0,0.0,0.0,0.0,0.0,0.0,0.0,0.0,0.0,0.0,0.0,0.0,0.0,0.0,0.0,0.0,0.0,0.0,0.0,0.0,0.0,0.0,0.0,0.0,0.0,0.0,0.0,0.0,0.0,0.0,0.0,0.0,0.0,0.0,0.0,0.0,0.0,0.0,0.0,0.0,0.0,0.0,0.0,0.0,0.0,0.0,0.0,0.0,0.0,0.0,0.0,0.0,0.0,0.0,0.0,0.0,0.0,0.0,0.0,0.0,0.0,0.0,0.0,0.0,0.0,0.0,0.0,0.0,0.0,0.0,0.0,0.0,0.0,0.0,0.0,0.0,0.0,0.0,0.0,0.0,0.0,0.0,0.0,0.0,0.0,0.0,0.0,0.0,0.0,0.0,0.0,0.0,0.0,0.0,0.0,0.0,0.0,0.0,0.0,0.0,0.0,0.0,0.0,0.0,0.0,0.0,0.0,0.0,0.0,0.0,0.0,0.0,0.0,0.0,0.0,0.0,0.0,0.0,0.0,0.0,0.0,0.0,0.0,0.0,0.0,0.0,0.0,0.0,0.0,0.0,0.0,0.0,0.0,0.0,0.0,0.0,0.0,0.0,0.0,0.0,0.0,0.0,0.0,0.0,0.0,0.0,0.0,0.0,0.0,0.0,0.0,0.0,0.0,0.0,0.0,0.0,0.0,0.0,0.0,0.0,0.0,0.0,0.0,0.0,0.0,0.0,0.0,0.0,0.0,0.0,0.0,0.0,0.0,0.0,0.0,0.0,0.0,0.0,0.0,0.0,0.0,0.0,0.0,0.0,0.0,0.0,0.0,0.0,0.0,0.0,0.0,0.0,0.0,0.0,0.0,0.0,0.0,0.0,0.0,0.0,0.0,0.0,0.0,0.0],"Output":[0.0,0.0,0.0,0.0,0.0,0.0,0.0,0.0,0.0,0.0],"DLayers":[{"neurons":[{"Weight":[0.66508228316208451,-0.99957875628004722,0.079206945411491647,0.19743176186337683,0.33350468302774461,-0.022493139385475376,0.347047814795304,0.26062057877919664,-0.49214595905139391,0.36264168068889607,-0.719500123858219,-0.46602461601888046,-0.3309985214523033,-0.326828782598874,0.46231842900734321,-0.9338676281896735,-0.93281519223601328,0.4596337608339422,-0.96968683878410922,-0.913756807294561,-0.67977229211468826,-0.84140746893426754,0.24116714309955348,0.93213670977025143,-0.36082522587889115,-0.48181822173382072,0.24756710335964668,-0.023367550700608433,0.0977160404891316,0.90781531897737422,0.63138285355241175,0.47297199651271665,0.056879542328826867,0.3031026498894685,0.14623011422633664,-0.024713978648518202,-0.37911622569855125,0.21946854899612653,-0.55850025804643533,0.052354947688223304,0.48601078218129035,-0.92960487302839978,0.12657953059607163,-0.836907097993841,-0.37340729375062848,-0.60663154144148879,-0.25919505500197182,0.71563083385845216,-0.5930042902906445,-0.00915650511586876,0.23921674966775661,0.65611331102257286,-0.99013796122285447,-0.82837937298621023,-0.6661328015225626,0.70667429813494642,-0.65370171780404718,-0.17504867127865956,-0.977396789927686,-0.59852740010178063,-0.10111184003814674,0.57686567659343857,0.94964145540708744,-0.065940530070076012,-0.29999715941958,-0.060519546764213381,0.39083206345831606,0.54946237222732153,-0.86837204632739162,0.45732852791311618,0.89799265651870175,-0.38108104019476147,0.48778490651761408,-0.60992845548779162,0.07764868255595149,0.79537383923091642,0.51777313813463466,0.20203636502941902,0.40499806283274575,-0.85491077362322754,0.0907421065916969,-0.93194195066203456,-0.30932416688153713,0.30689540845663071,0.56967382485497453,0.23852544987505556,0.56817697946362988,-0.43251485630521314,0.87480776797738291,-0.46398600305616206,0.15115534986888773,0.048770189307988709,-0.65132408060660774,0.92442658167538538,0.54717037759123854,-0.09914897992236027,-0.27014187037485737,-0.87915478734260177,-0.67302603725019194,-0.69423941322334082,0.60200866106991124,-0.57038503306470112,0.37020788778094943,0.99932180345026855,0.24613413598674078,0.10852017351822936,0.24035639839263465,-0.0778988059972873,-0.65319031181428133,0.5681108010784307,0.34004799664954094,-0.35732459759215107,-0.57175264860119324,-0.58220227555474369,-0.74947571882488007,0.82311781487572833,-0.87906268326521975,-0.43872872481063413,0.35549663908569917,0.32105593398262555,-0.49369896040004629,0.46604893517962143,-0.45761425721348,-0.92367324648596028,0.15037556604965383,-0.54284184358215049,0.59353535743129227,-0.88326233154314682,0.348108882712251,-0.83499440543120462,0.36082741774657157,-0.1396669131422727,-0.88277469802777031,0.95263328307896544,0.37544466293204792,-0.80936379535559744,0.919622194915834,-0.32260444263117594,0.12866340211064714,-0.54592513690978528,-0.15082255851050028,-0.18952704136703491,-0.69364085732663094,-0.11962625203636766,-0.35741334332032748,0.097612986852234684,-0.80702872984438612,0.34746696955872092,-0.89561703656595992,-0.95850316665996949,0.31481973049920969,0.080523819700127383,0.90493055754570784,0.51272571343589846,0.5553315675609426,0.87863292166899565,0.020920502031650627,-0.14488952427398857,-0.46989215466654494,-0.31601057775132851,0.27573231201420179,0.64226738020883289,-0.534563949580567,0.20413844669430445,-0.5123494442144173,0.4091470103753484,-0.55754356624444179,-0.98947990452380852,0.045709973222441025,-0.130250808377867,-0.87804419308809756,0.44579510551215851,-0.5527994793619958,-0.76773049811261262,-0.88045432692414816,0.36438760969992151,-0.14038692235033351,-0.78652338114870868,-0.28172514274796712,0.98363468003628529,0.32753622034915547,-0.22136949944373663,-0.16935127422649007,0.27451858356339792,0.54121486588437806,0.18888365160156212,-0.97423473884083089,0.61396059841567674,0.50571150449370572,-0.39121278253906072,0.2529822970987215,-0.013824016793549068,0.123937068564788,-0.53187897965865161,0.69714606259816614,0.94510489280573318,-0.68769373171389747,-0.83442996993401553,-0.16453780893447706,-0.609563784491999,-0.99103225348099711,0.73511909355182159,0.92398969313315571,0.81689675050643118,0.85253777674051834,-0.8576016159996398,0.7452987752600102,-0.6312354652356521,0.60462335292465208,0.94306982073144519,-0.67448804000135887,0.84010499568660979,-0.972954595914555,0.11087001120246481,-0.319614417534142,-0.725287194701511,-0.25378853699834486,-0.27798085905517489,-0.19268539370628324,0.47548640634654388,0.80111877052165514,0.23850741434772843,0.7685651680308232,0.16389964016336,-0.61479758080784119,-0.65497347044524434,-0.43571839548448027,0.67194441970062646,0.390374444141227,0.98944024228930483,-0.45495385558109447,-0.66672811734803394,0.17141118281120954,0.16458428425927846,0.43664070844493841,0.20704633938476738,-0.34640699361749316,-0.75021698267674863,-0.94496597812742278,-0.14648291382309184,-0.11578559601483196,0.11340411198949633,-0.69939030460053608,-0.6912048927933,-0.37283590313644888,-0.63212841312965773,0.061988936300384316,0.1031593462001343,0.87880832742844162,-0.62903650227423591,-0.36214778728883146,-0.53643145576884577,-0.2276518974581975,-0.99623741535294685,0.30801104861684658,-0.86259288287842317,0.67358809787481466,-0.52851886094013178,0.9752909457195974,0.79878369709420194,0.039473434928559432,0.32768254928648588,0.97660419483510974,0.49120523803457861,-0.2817972727500821,-0.25014326779644158,-0.41062080832692832,0.0840747370776137,-0.60136639121983493,0.65726428323297958,0.38640537037812422,0.887549457087903,-0.60782911517090588,0.699026284133562,0.3026630884514484,-0.737132767092964,0.94154971555878864,-0.99841340538040424,0.13569863845393929,-0.029460778007964036,-0.61057405807570275,-0.7689645037841818,0.29284955667930168,0.94009632521313446,0.45914298084524596,0.71578961737257873,-0.12454765342387728,-0.40236302670201429,-0.081474321466625824,0.35838959522470348,0.13540567324282865,-0.21256195577446463,-0.30066050277122319,0.26308284991564362,0.11018266813372386,-0.51670576982046745,-0.077878361138458529,0.98703695041455186,0.87147861247485436,0.53699352198140393,-0.34131495437646048,-0.059628237532278631,0.0702137202351418,0.97244873734770754,0.43790507849208316,0.31164968726767678,-0.2118231501485329,0.25781426683897818,-0.26845041535256914,-0.96955727598143615,-0.39487746748834729,0.45480935622696267,0.35940868284525757,0.79007344543471625,-0.21413573818939541,-0.52755170619466885,-0.96084594864437634,-0.35387796086905426,0.91280578212477537,-0.42558021490721976,0.18069813967714932,0.13244762464074772,0.37930104107563434,0.81933049569806571,-0.0062300763121946141,0.63694258389852132,-0.64777440235380757,0.55499133027856762,-0.67922490354591281,-0.067139952940465861,-0.079107515085072966,0.526241288765446,0.071831380516212143,0.67701321918378266,-0.98038990189339492,-0.72533425629387338,0.84759035373460057,0.95900453997729562,0.23729599743955582,-0.38889121142630056,-0.86530547582791439,0.85427323396050991,0.86002744355240257,0.81636824077757464,-0.85352946717922085,0.32214650992404043,-0.71887336704827531,-0.352372027166361,-0.9964645341953563,0.43896820090663069,-0.20183338280852575,0.76322059648261431,-0.62356265570202962,-0.75071769009843359,0.43828630234966348,0.73427533485660113,0.90254477360404317,-0.52027227288124722,0.25767219311449313,-0.080907607488756819,-0.031138803358720057,0.9497728855115235,-0.93429634344498458,0.76356372831555253,0.18570570656364119,-0.87570711033218873,0.50504157389748916,0.27872869804442335,-0.28324235057609265,0.24167617049146264,0.17852597226320113,-0.12526880396775381,0.6480312937162962,-0.71882502349038846,-0.51973019331681081,-0.81108051948765314,-0.11060496611083158,-0.50065519358061961,-0.066255257495797831,0.81549087949818511,0.39094176021914079,0.92399096206016418,0.807112575418834,-0.23017355484430377,0.30784917404309342,-0.74940221745027336,-0.419326292080491,-0.96406174589137628,0.98818930889861156,-0.9500519796042014,0.3851394357090534,0.28785769421973156,0.0791713078874961,-0.93517845772913588,-0.35644202090634125,-0.78302207532479529,0.28899513151915518,-0.31458019479856836,0.782680610093605,0.36359720600936429,0.35675782633794373,0.82444632091766512,0.57032524168972165,0.9161357795429117,-0.33231873686067703,-0.10018596104354875,-0.21508534355791534,0.13445876079353447,-0.65527210834215954,-0.46886316708701808,-0.75331345328749788,-0.68900553821074106,0.8879728647358589,0.86419105057799772,0.060805457672479309,-0.54178662111134579,0.415465898073961,0.99060713592479332,-0.80682191243712875,-0.29565300573392445,-0.62410925916587434,-0.87634235428475882,-0.090167467058714229,0.90301968385606057,0.58761921319534038,0.5801240613591504,-0.10837116190622149,-0.20622592941216469,0.98437192616256508,0.96076238852029783,-0.79370328681250257,0.67441385596730463,0.634401341264323,-0.87172625533851156,-0.47751878131065462,-0.952851614427218,-0.76235970890259352,0.64275827754417358,0.14517010941410907,-0.027328278882116211,-0.72827750618023679,0.10962910489627584,0.14854151483091596,-0.30258381799915052,0.78428666749237419,-0.72739004517318218,-0.47836005244327712,-0.62757368368449329,-0.52554528812204737,-0.54585271726634943,0.62410366657381122,-0.34335043297305257,-0.6020550535070035,-0.96230818655449346,0.45397139175514289,-0.19007525322496671,0.67962229609471858,0.21075054547318747,-0.10925835655501967,0.45511164583969471,0.3866471631390262,0.44028607916100232,0.695306744284605,-0.73778961493530759,-0.420012512905529,0.027809021076098561,0.96289876241371908,-0.768039276249725,0.699971403321238,0.90384373623125425,-0.85481053909976523,-0.86476483701950169,-0.46528652006075089,0.4202490413655755,0.14587440860731266,-0.29596344115955914,0.81757754777445346,-0.014289322781511267,0.23816085804168174,0.46961567945294813,0.626184779045258,-0.64077245241067016,-0.62506259913792028,-0.51272168406877749,-0.80058016944703658,-0.050410047196974068,0.26467132999779253,-0.962472076510299,-0.6882251895443654,-0.35687048796418613,0.43273123560134846,0.25986034621478077,0.94157303867003561,-0.054903368025507486,0.61210247018006747,-0.811669710935871,-0.47509100170577456,-0.15838234180509223,0.601026400272281,-0.50635244814043512,-0.73904791462190822,0.109160437299479,-0.82678218596930719,-0.09235889189520799,0.76609802514598613,0.38288845046557879,-0.16432293698392944,0.31634354093873107,-0.29671308551761932,0.27486187325551265,-0.26269096939949832,-0.44112803295307235,0.3492502655597638,-0.68946067369052244,0.51216218318425222,-0.54382191018379378,-0.80251858374221186,-0.70448923097201122,-0.718888570889313,0.71603809376994054,0.57841990728789006,0.46823063561144779,0.31403718577420209,-0.01445504138919294,-0.8384254187524437,0.0015240218497458947,0.37346805183844084,-0.88500121323624681,-0.92589050527936334,0.6357041665519142,0.44195109207273975,-0.63487083960085677,-0.32561910214164252,0.12677124241682294,-0.32158930288701754,-0.079247199967153,-0.38191407890148182,-0.37586389266693215,0.81016238769989568,-0.78961734743305356,-0.85717702743465873,-0.27147695155417406,-0.66271094729318791,-0.666427212611971,-0.3241770920921942,0.13982219208954935,0.63920174755118864,0.36821018083403362,-0.27299950563954167,0.41704235571298859,-0.75560864236001324,0.12742316495972833,0.28099937098147321,0.1211601486993768,0.17620475551868078,-0.6504925036106689,-0.21588855665916976,-0.097973089710796754,-0.71097957003441614,-0.43915210870986437,0.6765659734031958,-0.63096753956329432,-0.11080865148026899,0.3826054238633278,0.096490419514705619,-0.081821118519558159,0.28142421938545265,0.71126173842291429,0.11302504088404823,0.87091624125415279,0.91958753388355841,0.074245180037918121,0.59334183605077762,-0.49749411013791994,-0.66291488691368838,0.8849838156648836,-0.92721547089853118,0.29447802635583936,-0.42834287017041017,0.47698592370235637,0.59711142657190164,-0.812277031974996,-0.44835947055758885,-0.94599971079546941,-0.45757204734607232,-0.088477845344914985,0.612038986111078,0.36528388567514897,0.80207612682230589,-0.48441312717479335,0.8683704230321434,0.95811121536330845,-0.89491669130274876,-0.51657933719296911,0.524095321318179,-0.36952374753054407,0.20669645266919232,-0.0858826702860569,0.9453827291472735,-0.34563703245745836,-0.96639855111315776,-0.012795914436129813,0.078229449260155418,-0.17800529216323294,-0.76688705047913219,0.077211208677483351,-0.56525507455936408,0.046764414779266537,0.54202283105907167,-0.50138755724829975,0.69011835832619961,0.87321988766697234,-0.93058272447929846,0.82060074099367519,0.670275341565849,-0.97352348313365289,-0.49133400409078876,0.23201183845848397,0.89944154764499584,-0.85155367564947981,-0.11377154808201434,-0.38236623275203918,0.75476319424564164,0.4981017645905268,-0.90901698866347647,-0.87743065640210671,-0.17655337423856993,-0.69652578220540928,-0.22695901348579628,-0.43222569042454739,0.037085881008340919,0.50078211748077628,0.40204833094126,-0.10003782953137431,-0.046563695672230655,0.78543241684578,-0.030940231415880953,-0.042811082230327223,0.4143801948122588,-0.87083445017730554,0.52701924160449731,-0.74724059400485854,0.068399741811863951,-0.94758182109686628,-0.40124320443777517,0.5412325083935785,0.16307711003491521,0.00014418829239168591,0.84473976066556744,0.7464751763020061,-0.67811408437700671,0.881557222866247,0.61557628894950089,0.031948590666031743,-0.14624331991478956,0.755271928736601,-0.516363819835877,-0.526089201460634,-0.77450711549003937,-0.75265691045329763,0.0054941922451808081,0.06624288347840443,-0.73734038450631334,-0.78364292056469387,-0.46401329965517546,0.49985671951428834,-0.97822120412170011,-0.4743167261939108,-0.010922599588950444,-0.65369034682106708,-0.87868607038570845,-0.15603628203088243,-0.30708778617302318,0.99587945779593634,0.27235603112371454,0.817516723097077,-0.80865267003358,0.7961929886584137,0.96437279319594282,-0.89310371125727128,0.14706770523780385,0.24838258663582735,0.852072582511265,-0.52404142894039,-0.80547815365971909,0.13368345896419298,0.57782513488914122,0.61272759950381128,-0.64172194555481987,0.67711619458958328,0.27730968141803036,0.96013896770781793,0.63327052054613386,0.044417944291801167,0.27295428061529725,-0.53203077173420732,-0.22369278698400258,-0.99062141077156241,-0.98680334817003612,-0.19724131990095661,0.51492844639109836,-0.077804076521566179,-0.72185467077505527,-0.035399144066217886,-0.64233390690867509,0.2386339112364845,-0.22023704751405729,-0.065077468317503787,0.83931462412668145,0.062185555725444833,0.85778337011941863,-0.17426226994686866,-0.49765486479627663,-0.43401783026476287,0.62434638367236894,-0.78350490926928118,-0.81968766116522607,0.18344206278372652,0.82255661386184231,-0.88662049914087193,0.85123329649271129,-0.080825790800538755,0.355326958166122,-0.89333230997125257,0.24622572876802912,-0.23991785442452779,-0.39839465003385893,0.54710310164238474,0.37440063728690176,0.74501552979695407,0.72578827558354864,-0.56933849191727981,-0.24237982194981531,0.127756150964534,-0.011291139298719884,-0.42415040099255291,0.75328691757902821,-0.11420684545962459,0.72005594043063748,0.85619032609099077,-0.12678179150763053,0.020296209035579212,-0.29357726652807431,0.78274708976165719,-0.72512662118539517,0.35424613689735818,-0.97245304331763327,-0.74767613911427377,0.28139457678487273,-0.0046897274463855321,0.45683080863991327,0.017668445602836296,-0.31976399492461421,0.59360901387110776,0.11759433248899613,-0.99399077472928477,0.010096466173462788,-0.57495877778854165,0.74858099722703031,0.81526151942799874,0.27474508167931116,0.22288070350088213,-0.98218455723588571,0.14939300769446093,-0.84104500191334863,0.72565572463239347,0.9225029931042823,-0.45623709655191613,-0.38738979976037041,-0.56066799283058755,0.84299996394803745,-0.47029215072760922,0.47540457289451948,-0.94617335542392611,-0.60992115205615816,0.3337750930030714,-0.15672548541646705,0.023089705045842429,-0.72244428178409315,0.92761047739889957,-0.96867879571797266,-0.96862850709288772,-0.81439707559272512,-0.52470492363195165],"Bias":0.37571052805320848,"Output":0.0,"Threshold":0.3935019715658864,"Type":"GT"},{"Weight":[0.12823851133149047,-0.96277088018263268,-0.069577517020319363,-0.066491218780396141,-0.521707223971238,-0.95848583567817036,-0.69807566222645145,0.59134345016970458,0.53526583431999475,0.45901252443856211,0.18289069700189434,0.20682666739766797,-0.0044450736625329937,-0.37067674536755157,-0.38233329652917258,-0.76479489065930006,0.49360587843396042,0.46424956129130424,0.23614800313308276,0.84738362387166533,0.40928143514752457,0.33017619155821215,0.066716190458608882,0.38766791503302189,0.65457838897340859,0.91647509248763093,-0.93448944712732429,-0.45518912582434207,-0.43292938891469007,0.2972264272613574,0.66713013717305392,-0.6928130405455889,0.24409269832265224,-0.9204930145854564,-0.66891809071829456,0.48743610665548409,0.69189233178826626,-0.50233571068492522,-0.37860838574292527,-0.75108174735264932,0.99688065843511409,0.57490434477799779,0.57795733612866951,-0.28192973336294747,-0.24050614435249296,-0.084040040189418963,-0.42419177686059467,0.017507262070433825,-0.15965109977854933,-0.71569850841336813,-0.63403659948801461,0.012311332864831822,-0.31368470718790065,-0.14454224060501075,-0.5193873739425966,-0.040845548287427771,0.3938911950187251,0.68814828511706938,-0.2621041402509921,-0.44931745922626809,-0.46013692182495114,0.76187424769712342,-0.99033398087617663,0.389655853337448,0.75686786312464061,-0.17077545689920684,-0.53133695224827948,0.81587886010104738,0.67713598891959337,-0.2675277754978872,-0.7838180776610123,-0.95249541986384212,0.0039500789735233775,0.69728386574298329,-0.47420639520241248,-0.31016880986754264,-0.85358393697700652,-0.86451261344575914,-0.6234132752862821,0.58987038703163641,0.71297160895214029,0.40324645880760923,0.95398711224737909,0.654556976004763,-0.031432107571248015,-0.3005468264690353,0.84407278236191385,-0.53191430239561677,0.49611480091517551,-0.62017238448382006,0.69897718015079258,0.055331256266371934,-0.6198939506988479,-0.22212305256264425,0.56191959863618,-0.98817986016542647,-0.40482958983854839,-0.76235826488694092,-0.7185689526230884,-0.16175646295852794,0.24358913593161347,-0.54544870161705128,-0.73927762021276988,0.20397775955683448,0.86805182596112218,0.68931157779382146,-0.76801648492366847,0.21844648114333232,0.55967333286985443,0.96943066267735822,0.74301550618513279,-0.40553938430060604,-0.088375289499934437,-0.862574573542259,-0.21162932050024594,-0.61975255777116522,0.48437420953268845,0.84859873300818667,0.26732634253209753,0.97776579623006554,-0.91874715542362406,-0.26331899793041824,-0.94114090359822888,0.52093063458843647,0.13165763306043002,-0.60914015565493151,-0.39374014381027789,0.29579601404061356,-0.32428549850559119,0.30927595603711716,0.18019007294447631,0.66796703108957367,0.9064385452803404,-0.49290839326237718,-0.64908378508364961,0.632870222270894,-0.70843724613470826,-0.91251504184329646,-0.25986715418280437,-0.45983872258096875,0.49066907236849383,-0.3623110350977215,0.7539606582158993,-0.73920385061726157,-0.28556485021746014,-0.64486679883900411,-0.3484040546922032,-0.39693923126763631,0.674559669883251,-0.12928995030433402,-0.51798886410798362,0.25806328666306255,0.22929147781305551,-0.32392866412360627,0.41797922384831088,0.46053582963558654,-0.68463035285688489,-0.23700884088734578,-0.34769805630096146,-0.75099035387439206,-0.81716373274902054,0.90109077044813468,0.60442738495973281,-0.55358926744833092,0.9953621271976093,0.725929135329057,-0.24052093841159761,-0.5594891680215901,-0.69736421513248437,-0.12017614260324097,0.26345798338924442,-0.73590071999277018,0.66765991955420934,-0.43822691423735904,-0.013079042086880209,-0.86104000772397971,0.0073776319657348245,-0.56760958748292623,0.43318424347470713,0.27793606430196022,0.15355756606606652,0.0060766581474229033,0.16937807349924841,0.713953671378062,-0.6723087558859534,0.52739835601644514,0.1983232680700362,-0.055593914378245318,0.60312772942852588,0.85322811633964446,-0.071786040939291029,0.44527032107360209,-0.84273697009437576,-0.49412153637694267,-0.5074558148660957,0.72320981497094494,-0.20201152153406829,-0.89325625863543534,-0.73168840712480643,0.22087956788990626,0.97643851767128265,0.4442973748987063,0.64477830410226167,-0.15773699113993767,-0.754644138158599,0.57583268525816156,-0.8839471344295643,0.64749248169711437,-0.42030897988952182,0.87146527593557965,-0.46491512491596637,-0.10210913564176724,0.35740496747074879,0.66573894893086472,0.81092027053745475,0.34771026035198488,-0.28995356116907373,-0.93759667823910553,0.99268576176496492,0.17840716297664083,-0.21213188497914554,-0.67563874771615429,0.804696068076741,0.076241829933711244,-0.75340513826972111,0.97756970253659869,-0.15023319802723509,0.24370813334533392,-0.72655282808772881,-0.57505929217443763,-0.327550588328182,-0.49228083225538993,0.1405006596541501,0.63239755324665348,-0.4263041901524664,0.72388866763743043,-0.0044840280918795744,-0.58737731240101965,-0.60803203778715431,0.48708393447430987,0.49096756171945832,0.044020509833479535,0.6801455294155262,0.43119605743847605,-0.9008967247330103,0.51657124912206609,-0.93774676925397793,0.521896844507147,0.69863960132870806,0.87874423520581058,-0.16846114730856435,-0.41180646299002993,-0.45279316159560956,-0.54431318796440642,0.83399305810872137,0.084735694380819654,-0.66543343787334552,-0.58660135072963371,0.31629083320325746,-0.4167833767909479,0.56320737235397444,-0.83844555161820988,0.88779715536525339,0.96975614920712827,0.50012099859310366,-0.57535509000316032,0.20412000557599588,-0.38808511960696668,0.4158218327983384,0.18144527970880517,-0.25459985633129245,0.034590132550611219,0.16009325169031194,0.17473495154396396,-0.514236899797915,0.53552970873915107,0.16192646471873226,-0.24708526593031607,-0.4984540019642813,0.46123957841714824,0.10031063486836414,-0.62809435633388089,-0.39435835201030522,0.43956858172992647,-0.63042790565194,0.084100459741475272,0.67659711124217,-0.086987759027158731,0.72922423003670955,-0.021381992391022848,-0.708985326676157,-0.38940887776641586,0.20002706171945997,0.86739573155874183,0.42970603025970328,-0.65561400617268584,0.23374419763392965,0.50976811047166959,0.67488634617761067,-0.53682493070923953,-0.4333140800862173,-0.28880583834313128,0.937874092225858,-0.16400009913556282,0.45016886082020069,0.675422554684534,-0.20894922651767228,-0.86008755669933168,-0.25125853263365966,0.89840922593065031,0.18801776654460364,0.55893611142362287,0.77691933641998068,-0.38756285951824992,-0.2969365209792445,0.5853403236648721,0.37043733818942559,0.58160041346289237,-0.76171656686892575,-0.54027235439991217,0.5707577804898647,-0.21679452490843579,-0.30801578020118914,0.97654138737197094,-0.75228483963398485,0.36267391329755722,0.037744618969850527,0.91666198704236279,0.62715669843701494,-0.30478422078526773,-0.5266597920687216,0.058285312288573622,0.40151827242296106,-0.22075439487619064,-0.86472467140514619,0.28807166278738139,0.60967555530819839,0.088842691895013065,-0.5558106710928542,0.33897379056502774,0.922068458479861,0.31193987527486861,-0.11038139979838459,-0.75532576616635816,4.0251761693624669E-05,-0.89573581837850424,0.0029210997758997138,-0.75914461806376676,-0.4538885860023501,-0.041329161748909,0.84366787823087908,-0.92269444136074485,-0.17190821802798109,-0.91526288116130183,-0.78838176642934876,0.10489821299207314,0.30284247701188666,0.11719578789416504,-0.78783550895184074,-0.86673214792587427,0.12702640338196716,0.29220673595192226,-0.44145922150530814,-0.94063211229659249,0.85346019773439519,-0.22195528225132977,0.074759515502843779,-0.868829185082032,0.677449305391614,0.66504842213590087,-0.14513900603407015,0.704831113435715,-0.8159933163858919,-0.81705782228012469,0.38381232013172112,-0.68314688731131468,0.37294882925830264,-0.2986372072708966,0.39208766370643289,-0.97363057824486432,0.47848858892847251,-0.57167960543729346,0.018862836537353152,-0.43630850568241836,0.72345797239032483,0.24906673992474876,-0.55628024998879066,0.19597737919351896,0.022710401575411855,-0.12783982564128926,0.35111354121524541,-0.72485512715059108,0.93471340832054306,-0.94318086465037465,0.6146729726412673,0.845686395115073,0.92321949727983188,-0.21277210964484705,0.758506357557376,-0.74035929643565757,-0.94835929151082377,0.68717596991321817,0.58356183282265528,-0.67627966388886773,0.504235397327801,0.0934159616443403,0.85102147369227443,0.65262331331736567,0.081740306728398576,-0.23580806247694794,-0.8455876544330212,0.7748593244584554,0.033735333957586128,0.96776593614731266,0.96269933970770771,-0.038334082829921547,-0.79262530654325392,0.10843213280124224,-0.84282220007983144,-0.43726979216433587,0.31311570448480347,-0.87031134165372293,0.65928686021793959,-0.847566532365776,-0.0086882542859242559,-0.25680326542668197,0.29850158016127609,0.18163714286947491,0.65266620072194659,-0.47065525710147582,0.82439551773685749,0.23477804019804022,0.46346268405367746,0.066477754184267365,0.808407021131556,0.10566821885559159,-0.1135781882859665,-0.71635176367887843,0.1914504250471715,-0.31146829031010542,0.70291220150092248,0.88628042809957663,0.60063054161175644,-0.18989917877591178,-0.91897788546931836,-0.27092181531289677,-0.74980927899005323,0.31815643669951543,-0.51092544454658662,-0.64941352170399091,-0.92010558020328437,-0.19797332221547762,-0.15861347185383246,-0.094080188821107233,-0.99454006459309718,0.69514709976275779,-0.40495252907506774,0.33017089745503425,0.89503055340379034,0.046171048677606068,0.4151160239312407,0.83142855988416287,0.45811348196962542,0.11146649164681625,-0.77509967134105962,0.5889587251418078,-0.012569596996796131,0.12704641936675012,0.76341227058480132,-0.53980417714445117,0.73659551690174063,0.087193413678181078,-0.52668750822855515,-0.72144885161959049,-0.0740157957533448,0.6367741695776461,-0.17733870268675439,0.63915563357954641,0.26573152712813186,-0.82153947503377656,-0.2840610031429962,0.43014580077964154,0.49279424803927274,-0.97811348502436346,0.29645683816469126,-0.09959765435177724,0.99655621405530548,-0.896191461429089,0.897550862234808,-0.059884904911688019,0.25781798654134291,-0.63537569932424265,0.54777287111979578,0.79060197099605667,-0.618040999219772,-0.34002058736049595,-0.785087996062398,-0.92104204367894771,-0.5545079058755692,0.34443066424896507,0.30212524826737364,-0.029849183293920563,-0.3555488574111596,-0.97800883929152449,-0.1204350819440722,-0.037810442055487281,0.55151600416354651,-0.92152864715155614,-0.74931299441927712,0.26222015277585953,0.93660445508389012,-0.52971489705597741,0.38439819560591049,0.50331508624521781,0.9200259581767144,0.87595441140046082,-0.64977298334696,0.87574950041051469,-0.75531128689428384,-0.96440430216696316,-0.63638483250345323,-0.87550797167956274,-0.15387467302096761,-0.60049535734602033,-0.43892889629999587,-0.60259382873894363,-0.01498023700666625,-0.86287662706471824,0.04397805828786365,-0.96519881718102785,-0.84505600102481249,0.41624474265437794,-0.33273890490305558,-0.62175489618524671,-0.76791522594537365,-0.74358924606050791,-0.14578833903455563,-0.24201574374084162,-0.10666245972116592,-0.95089705006726877,-0.34709093549619008,-0.19716977430375748,-0.94169080953192474,-0.605370235445616,0.39752719569836148,0.64014697290963818,0.32057986935627641,-0.354345782824953,-0.038086527510586443,0.07660877801319993,-0.44673781164304249,-0.37350804376113605,-0.67855226466364793,0.29852692563949473,-0.22401434426382852,0.21329235714547912,0.97418041013841539,-0.060871629072759129,0.14474039438401368,0.63445963414127926,-0.81208973415758912,-0.89358498570210532,0.59725664304441617,0.14295443852569648,0.708472586101141,0.44418665740833929,-0.043758436126521992,-0.86916767613457868,0.98838377277757217,0.8193321827889104,0.13311222108691567,-0.95972855107846133,0.34250232639839051,0.8560534165501843,0.49557010852525479,-0.14973426943166845,-0.66489789386507958,-0.92432496926017338,-0.41579819024344822,0.60426863730152536,0.99610508233127426,-0.24368928197943107,-0.93641678473745327,0.87985240802161968,-0.78012565326882788,-0.4947804117085321,0.0990281124129091,-0.76798753708972944,0.47828344976449544,0.86961821600311351,-0.05730200282172393,0.093776492911286882,-0.797806810493491,0.14240703784972758,0.29015737738933289,0.62190956930718833,-0.39137585665629054,-0.80652620634367977,0.40951908538561271,0.080506968815115737,-0.83668372073987674,-0.89116088668404192,-0.37640118663031663,0.020698119895857816,0.40752148274682531,0.53044236103559028,0.29176928535651847,0.70789484247001577,-0.6154038312916662,0.478666453845178,-0.26358038758094443,0.46954068609957617,0.4012543002149343,-0.7577200437699072,-0.025302139122645437,0.74936228140693262,0.79615426333442063,0.044036793543042983,0.58050701188878484,0.46088980113197575,-0.30376230520371456,0.4607279335431419,-0.32999950429890279,0.53522698606142172,-0.34624049502715493,-0.8085280655922964,-0.20458883289461435,0.67293451338677412,0.62681466696169907,0.071151938788197908,0.24291832523556348,-0.80776740927610891,0.016081321060695368,-0.74298269475949119,0.6795113294755627,0.94393017186966266,0.94550849308516294,0.30819405443416631,0.55087505818851057,-0.589684283635432,-0.13255715422917025,0.69865227988858347,0.53552757461347034,-0.59043933013008876,-0.26016880164862088,0.33413198279874956,0.55021831511995678,-0.55425011625245679,-0.50157008017486426,0.50863245386100953,-0.3397899164537852,0.98831640416212208,0.33815885071556961,0.057612298083311086,0.16035655474306856,0.27420567081971359,0.381792815114275,-0.57605989211055442,-0.27715306509153592,-0.52793826792758813,-0.14497486788079836,-0.098497168672502591,-0.41281620991081752,-0.44381526226355472,0.1272478961047008,-0.45267281795510689,0.43619445731686168,0.97869177254787265,-0.10157590597010027,0.40505426582184351,-0.68862919215514751,0.16724709941411722,0.94475039371510516,0.2272370980248028,-0.17621286268169659,-0.050803895132059185,-0.86932382307449529,0.44961043840721737,0.078063847067795622,-0.18647609240677027,0.37067922594523023,-0.39584292443275587,-0.26601879730169603,-0.24579329846696615,0.77397847723866742,-0.051450109133240815,0.65950002691685228,-0.58121063866708922,0.24813194118818824,0.51580487122563867,0.10766316070578208,0.017022875611215307,-0.929433199078512,-0.28428914411193185,-0.545488538940199,0.87793229142107643,-0.91288388516422547,0.35035386045945521,0.67150558515987624,0.27545838909012188,0.40635092854795557,0.023569588094749298,0.34977399201587495,-0.77751576051931626,-0.65758198437168358,0.67627893466329148,-0.01195626799573948,0.8955954312792026,0.84735368417918389,-0.25068626145398537,-0.83630355952135449,0.84120529882665973,-0.742131462200606,-0.26490920235631482,0.45655132106344742,-0.40612077312829009,0.28156159319056273,-0.35432105434794026,-0.62269760883538872,-0.37624980293971011,-0.23814126999962204,-0.53981984990640541,-0.37800196203310132,-0.56185849875298255,0.50620024255765617,-0.97689894818556444,-0.73644137742763449,-0.98785413056046434,-0.99933796143128439,0.81401764685940814,0.60810160525520407,0.60586732048814529,-0.965863306990761,-0.23948227159654828,0.071483055162934142,-0.10171442017970347,-0.29356932653746071,0.012220496783135691,0.50857161428247188,-0.34169561850917324,0.91577684363153611,0.75150411052233734,-0.78005905811677645,-0.52456292487893386,0.70379305058335562,-0.26778193901655356,0.64685611969179291,0.448320786211789,0.616003182072194,0.20764115183038689,-0.11740615503741715,0.41559672049041685,0.52422741126465955,0.70811712914524472,-0.012876125524228498,-0.84938785007660644,-0.96217638904330149,0.95636180599982,0.76830729691698552,0.12056491995256623,0.89071170747778927,-0.616516036268564,0.36069359181481114,0.73962379793618982,-0.74594308377520324,0.9984298748888214,-0.46005968817512488,0.26783688052922344,0.362232706212547,-0.30638207835442482,0.69631718830034006,-0.24358884535897005,0.14697373991225554,-0.35664921223961243,0.54774934730853386,0.95002256564331355,0.51863095188449648,-0.072015622198588966,-0.625033375632499,0.51703111991148032,0.85079523262139189,0.796234423665439,0.37499119871062747,0.87157743325064774],"Bias":0.1609377307635442,"Output":0.0,"Threshold":-0.2821343742693469,"Type":"O"},{"Weight":[0.46887575251463604,0.86511180124483622,-0.73942845535437973,-0.92814772526181666,0.42623960665717703,-0.24170882592057288,-0.3438680685795229,0.35074479056091273,-0.30695266663420606,-0.049194056097974094,0.35674827888456556,0.33884479493780284,0.18615099377285269,-0.95538077827327916,0.064567384340133233,-0.057143777635481105,-0.1500091353198556,0.371869598688497,-0.78110036104037439,-0.39496039896968771,-0.41232753005452805,-0.31509898571069306,0.676950129995565,-0.37511742272186904,-0.62926731707028449,-0.2762554335763005,-0.23294031817137278,0.53777961923637407,-0.59208009745556867,-0.72217529626664489,0.33076328101137809,0.359981389883897,0.46439851190168341,-0.97788534079579881,0.78581492499719141,-0.03274716484953983,0.73848762723546835,-0.60942992084167424,-0.24994450027586171,0.10070810238863719,0.14948593133570903,-0.53769431521077371,-0.49718567845280548,0.032674654867814228,-0.51771504828599979,0.99562596203555631,-0.44151403589244653,0.0081260353364637286,0.73250095580355312,0.8648544311825439,-0.69045460675398573,0.4314917500277477,-0.024982742511193614,0.28900207732291988,-0.83685210060181658,0.65388776625221956,-0.98674546647199679,0.065339169961092611,-0.22349177776998458,-0.15561281617526562,-0.94341919801357166,-0.77065835277114914,-0.76741276903423139,0.7017492985826681,0.70217870441366859,0.53176497739356243,-0.14473742067103154,-0.82735643946908244,0.30658235322059241,-0.98185473446820615,0.74065199575417306,-0.86687501327454808,-0.8141495659081962,-0.70690132570774356,-0.11479612771179347,-0.42764965930378512,-0.50668767490735633,-0.75743707910060742,-0.31608566889357087,0.09881581696626536,0.43124280051851777,0.820456874007572,-0.7417487086456962,0.43775082493096162,-0.37700781057449423,0.28610682454244551,0.371289178436291,-0.69409244307041751,0.407283213644886,-0.50362802692857944,-0.63219904696205587,-0.44355620185078876,-0.53063882446411947,0.080956334285883391,-0.64241474617385064,-0.7466562407774181,-0.57264991224401163,-0.93295077883310185,0.68958220243900181,0.50245265360104507,-0.97538689150260149,-0.86014197527437564,0.12933003303098029,0.00806786446276487,-0.73601754928753593,0.0090131661896655172,0.61008613026239267,0.053683322879338323,0.28709354590954889,0.34792479236979262,0.98528742277309644,0.9444788950236882,-0.2559410195126855,-0.979376136315696,0.85846845799054416,-0.74379791912799609,0.024004336923362846,0.37888816109806678,-0.60445753745942266,0.1574118138092625,-0.14434007003174168,-0.97860987902554208,0.40204689344486544,0.58278206576722769,0.24228904174747368,-0.72290870208428648,0.64038660407084347,-0.76261838607611987,0.17552878948651662,-0.85625784790900439,0.89624747442838149,-0.85679998009316627,0.58025903840561355,0.7656243414458,0.36565260326753024,0.36218575032529687,0.3763032133580666,0.44500070411944792,0.74451351759234141,-0.56390085749509788,-0.51045656274559748,0.8330277720620054,0.96118149299229561,-0.77858521313340645,-0.99310383200324315,0.33666257296533442,-0.47509948652009454,-0.75876773929166041,0.50888791610900685,0.73809875023462757,0.19140322096245513,0.46245654461088431,0.60412174072308544,0.77956396191360611,-0.46811117533040753,0.50774997729237659,0.33029336683931454,0.52563484177255759,0.099723278591280468,0.090745861218658214,0.81145613585200915,-0.86126008017978639,0.20482938746215282,-0.48063672496035542,-0.93414183935809036,0.11071161046191659,0.88802235614881964,0.10751023614197515,-0.68881044382639711,-0.28803922621907629,0.80836678194271716,0.64278128214309982,0.6188746889209723,0.37996994628569575,-0.59568556751854973,0.11186574078717536,0.83593666359593,0.00054940860744072525,-0.86715807340441187,0.49596769385783362,0.28653576564348104,-0.013335186063002416,0.032307249043279911,0.6613853269542499,0.44983415466259891,0.056170042164702921,0.67659978693192813,0.18396151260657306,-0.011950601829192881,-0.62015324813320916,0.27195249091459089,0.65929723654840944,0.12154594395381675,-0.98189432918182307,0.75134590442820726,-0.91488033575698746,-0.63626299688418531,-0.90747323674497815,-0.81777300164931133,0.81777772345476674,0.12586956290801502,0.46792094105292154,-0.9576172111358574,0.8676491160260742,-0.56180894307876417,0.52472073516096951,-0.60327535942349364,0.680246812608208,-0.8652839212982375,-0.11315354663559867,0.70802465533280035,0.82705214937545923,0.8287160968541708,-0.33122959096507615,0.9892636220852209,0.16257494649038415,0.19339738422697289,-0.29170493469187286,0.094960688191913389,0.96273737492167266,-0.69881359147784006,0.58044295738471807,-0.046118163990843189,0.86210647684620068,-0.65559311008806953,0.41850170279783278,-0.29492824491808572,0.22093104907354855,0.97451974310657,-0.023373038053220621,0.81314356197283766,0.94993618268051,0.85762651397736112,0.66258558149569924,-0.78668826156607286,-0.62869344820673267,-0.13024322508379968,0.76703095006152566,-0.93869046910604947,0.832877091519943,0.728681729048808,0.68516675414758121,-0.48167418571267007,0.3089405653574227,0.47026649465331177,0.49586085532599167,0.78383506358779742,-0.16402922904306522,0.09275834173558202,-0.87351792998310085,0.39631178853861604,-0.77118153906016684,-0.5551256521395993,-0.59454917656003925,0.58490223185387546,0.668045667311198,-0.75604859402219238,-0.63814727619204081,-0.84172249764284235,-0.17995886885559134,0.61191135952803832,-0.44181132104332155,-0.71400535884965466,0.27424075606942211,0.97195152657663053,-0.57257178918112617,0.22238977543189645,0.37350693828123943,-0.0021782512786696906,-0.25031886959928967,-0.843233368286506,0.25656197045769635,0.016923130963427541,0.7499864086275857,-0.95776109348878313,0.33020184204457415,-0.73885103396086538,0.51335487957734371,0.50821734010624575,-0.73172153706276866,-0.08618512707119115,0.18699596272175945,0.98302912897571415,-0.65622226225967628,0.88004737295212565,0.03760552035533149,-0.89417279134233152,-0.57661060084430993,0.56455940872643118,-0.084796332328019822,0.372672036929369,0.57657376191419263,0.264904768329535,0.28102953232872746,0.19425597283721713,-0.27043572779299491,0.50771832117238935,0.035063175500865643,-0.96299711333727334,-0.93163644752075725,0.9610265553747428,-0.65023337940230652,0.086639937053732546,0.054093889451629427,-0.87706336000797491,0.010631000628057403,0.58466574344069966,-0.059795169653275596,-0.48364055924287092,-0.72489085315023127,0.36713556869287767,-0.8541817687704143,0.58905848049980514,-0.094564318235295042,0.023647390782668903,-0.49892117013173232,0.59550929702609279,0.13572998584049287,-0.0937266243126833,0.761066132113834,0.57021121893553584,-0.89165245457163655,-0.78768552829869354,0.74805043206925059,0.75805649336336944,0.29937848788657156,0.54187549582769889,-0.0016224612489447283,0.84736689824953992,-0.5092084046961779,0.63335488440159471,-0.656493076894662,0.55251542597660586,0.38556229853330287,-0.49923501000704013,-0.24849849904351798,-0.57822376144035892,0.788512801653013,0.995853993108428,-0.2940453157266813,-0.95683891277613065,-0.31826463496231688,0.49421306582829594,-0.75591756392080223,-0.71441584113725265,0.82375647165987476,-0.9690984720220317,0.90363068129105062,0.94439598775673472,-0.59030395075227315,0.90380183370029643,-0.37351831531781626,-0.44433955310114637,-0.045483458342721432,-0.78439962527919538,-0.077666114586249974,-0.27445721965025049,-0.42491167943222063,-0.6595081261636262,0.58925874046481153,-0.95692037695875409,-0.15421159991724956,0.56491532808398615,-0.036235210502629733,-0.28427460616653533,-0.82185051628474637,-0.12105844128926212,-0.39589251456590951,0.84829267759262239,-0.88646978553685818,-0.82973049200593052,-0.23819724481468893,0.98454376355956486,0.250766869285501,-0.95440386047326209,0.93293033164596662,0.21892190781371756,0.11792721046038308,0.72521139109749877,0.80446936553552251,0.25780959485928046,0.069695602203577567,0.41352544092271731,-0.014946064918742546,-0.81362154186406244,0.56325121389853361,-0.43921395271979924,0.84757098362202332,0.12476818362472961,0.45248136830166047,-0.47250754082226548,0.24450436106161416,-0.26314401219745354,-0.96875143701618138,0.10127051784716105,0.35220453066388357,-0.14441057580728575,0.94235866560710535,0.33225175334711177,-0.06551444300707171,-0.6728059005331275,0.94596287372799726,-0.928835575901361,0.17949829678027812,0.065431491502295949,-0.41606822163614826,0.48401181515493047,0.24855760217111447,-0.602070875746231,-0.32518126923832169,0.92124133274016962,0.95398897349554534,0.99529122700695472,-0.56621760901353213,0.44673181439132048,-0.22272126806095302,-0.60965727298038885,-0.20435746209898845,0.33068792118257279,-0.86335224046527981,-0.023639970004390911,0.14262447466264688,-0.43898788766888336,-0.427787678981101,0.91684704037236375,-0.3810843794518543,0.324690694140592,0.17330966106304419,0.24151840444724931,-0.61161687579546908,0.65608453781161669,-0.38309961342397125,0.34023292099136532,-0.44038240212964935,0.72294854080441806,0.65047087876613763,-0.41415554537165705,0.18674720413365736,-0.66426562409115286,0.5195775448901474,-0.22366404078140112,-0.35696226980395723,-0.48333134897208369,0.15020552610522395,-0.18462071343540248,-0.035481758432221483,0.025979382463721272,-0.38475732756068803,0.7558203957769184,-0.19808340780347744,-0.861782453424196,0.49415603209946118,-0.31072898689225736,-0.640588422138518,-0.668380064735366,0.20165017768817498,0.46781989627881904,-0.053719815357457762,0.5487267168,-0.71768441410627426,0.79096647528510844,-0.94146072722108132,-0.93607568085942217,0.93849523502331933,-0.89958207630532894,0.026500927762361674,-0.21758923689722515,0.83134391802891339,-0.8549570040101917,-0.17480296184066821,-0.52738887841226012,0.086149939375999351,-0.13679148263148566,-0.87547058373478737,-0.53224856896896311,0.5692242666004339,-0.22392429747801473,-0.70684941099344256,-0.36024551110353575,-0.0092139202212979648,0.47811452694149431,0.14076921396924613,-0.36448740976140248,-0.60825652284932163,-0.087146586313446323,-0.45201449769177215,0.72276470285037753,0.64486674202832706,-0.59970245864228455,0.24771539785327176,0.43170981501774386,0.295938592076273,-0.49957195413278971,-0.49873261502884914,0.31491224761815378,0.56171229135324818,-0.40245874850193913,0.58860706006577568,-0.96908502186140277,0.42914496615023584,-0.60137947583635309,-0.020342291807915219,-0.625771328166952,0.13548802823549511,-0.38096104533456315,-0.57622759676362745,-0.861933753761432,0.57183877312198228,-0.51646266901700877,-0.10001188986935275,-0.98026065015246189,-0.13114599004906882,0.57004972154742561,0.73459529957482372,0.062355767033228544,-0.71202721759305676,0.71868338515920727,-0.12506020633739429,0.81066406509404265,-0.19602492227965263,0.032760168440993956,-0.81080040419977173,-0.079186265859373967,-0.88337409863405592,0.59941560057895982,0.19852494830196954,-0.38655420550450414,-0.67753756729771275,0.29826635601849594,0.83043683452086381,0.69757491894884727,-0.510605703345782,-0.31370995394592638,-0.49373377463488549,0.15771403171015624,0.83644410494549393,-0.1229480412429888,-0.16347904464391946,0.605694669115215,-0.35254645783107097,0.82333254666222844,-0.95209472857047561,-0.73135417640737921,-0.72658215776392354,0.9123796131053844,-0.7040311129316833,-0.065015201487119867,-0.3698268166602714,-0.41516544130405664,0.97546512213324432,0.85556135692426993,-0.96197047874423236,0.10505478508074526,-0.52716401709577254,0.069426708421402944,-0.57918973340615154,0.23606311028639931,-0.0957321362084393,-0.63188297051558406,-0.71972774421783525,-0.73650907573127611,-0.35963696025295039,0.86551019124011985,0.55599543152190534,0.66278333759996266,-0.63932406419856658,0.86650579183665377,-0.36519323306400014,0.65294031037620281,-0.015802091926244131,-0.53475114215852282,-0.41635092367248189,-0.36098607040987635,-0.985991386690173,-0.18122810320054558,-0.8168994988393502,0.63999073935672213,0.87958595663289818,0.25172056502277057,-0.16436410516703692,0.021518883771039027,-0.69116071364430742,-0.98372399759652274,-0.58978965021194407,0.2444890114685935,0.42972381945220933,0.3739467344125485,-0.7170436525331082,-0.5916052188685188,0.85655215748425206,-0.62839822127874856,-0.6647596986334583,0.897797076449635,-0.60598544618393546,0.8568654688339985,0.96025445636373685,0.75785632699628191,0.13232097734339582,-0.681477392875346,-0.30560755371377224,-0.65794602067114138,-0.21084394548593272,-0.85743886737964992,-0.6514698805527156,0.0066266749085051356,-0.2559999955147505,0.88788009336585183,0.86226695583307511,-0.016416516628310326,-0.45693305668278272,-0.72722810168155849,0.64274621598550408,0.923502658458195,0.95180621135598342,0.43356690576000462,0.68239357633627651,0.76469785522888312,-0.95982849968589312,-0.88981852908144632,0.51818178338845344,0.962437568680587,-0.13620878948653525,0.26158802316598034,-0.020627966160247087,-0.66286995898134538,-0.83715841026844384,0.60468773385728136,-0.3005444208628239,-0.84363348588516629,-0.37396832992041873,0.15543074913110153,-0.640535950493317,0.833321411084999,-0.41671730085123204,0.5867610851241094,0.031037880122213569,0.79735827948775062,-0.4073789796826332,-0.31074539633036841,-0.46531296962188229,0.50058779376586326,-0.18593986061678261,-0.026310315367910227,0.92529669447117335,0.52823521407704577,-0.29838503352291185,-0.99332038033442593,-0.63512936683144861,0.89134663943729675,0.507829070327724,0.36212199943238965,0.62450565706217,-0.18042668801752232,0.56857905051139135,-0.52841202566791889,0.90024643852386921,-0.018629983076187774,-0.8356353136876763,-0.616720200337805,0.11684763390424086,0.80071887271512243,0.53086524434893634,0.42186340290208507,0.65580742603903985,-0.031243573888784078,-0.30399887231364792,0.79376666424505726,0.78254135874218367,-0.11603381210753407,0.041675649602746431,0.74787719582574308,-0.30049482421041224,0.84859022630778613,0.3872455933071885,-0.34632336224723764,-0.54305730738819447,0.87620320631014337,0.73485358326456207,0.43066226338532859,0.52075811965426344,0.53222317785593831,-0.90707121924826462,0.80120003679823137,-0.74827108706732792,-0.44676361300366169,-0.29885746785386347,-0.37675796327030192,0.7689879689221214,-0.28731562676248867,0.98933419398466782,0.23791671043164875,0.2690762413055991,0.70454416456843916,0.44149134980584093,-0.1948869303776356,-0.10839802264626977,-0.72256021840617068,0.30605653361699381,-0.079910682085859913,-0.62183626816693516,-0.0080761951431986851,-0.31725179558491884,-0.92138061901618751,0.096155063293946477,0.2219759366577379,-0.486995921697,0.797247042785048,0.31734767384703627,-0.68410320565295557,0.57626638914284589,0.14106053260204407,-0.89400253905635441,0.18817700500980811,0.65084164387120014,0.97251138881431487,-0.733826289295138,0.48599267121683465,0.65743992554835973,-0.57454022186554043,0.88962486800254548,0.73493078245545307,-0.58082682200745994,0.521233888585695,0.53220553255277014,0.1690635914770251,0.11059454321423291,0.44341788135628118,-0.12497781129785711,0.404353584816844,0.86157132958135163,-0.51881380123962362,-0.62512389506451971,-0.18729032258842621,-0.83684065278472408,-0.1978020734143453,-0.0658909385399385,-0.20644086422698613,-0.23518340859337869,0.36464150639467013,-0.91729991413527168,0.43719935996327519,-0.72128310646921545,0.8636956768407,0.82421347490708041,0.59831803878690959,0.53520700174160629,0.35775657713308773,0.016074918217991906,-0.21873217086248667,-0.086479995905645188,-0.94872404585998693,0.66951614602912035,0.59973443467157639,-0.77740408562934216,0.41653866852472476,0.69796636034639847,-0.96141807872868057,0.51477636653686709,-0.48452525887849052,-0.38399003976210488,-0.39515109052655806,0.4756331539133718,-0.84258008554697972,-0.10701872180542849,0.025302751467238531,-0.078472295812551066,0.53375222465663785,0.45388826050511016,0.11400727839861403,-0.70715158093122377,-0.97257725380946758,0.41773192557400646,0.89686569846089259,0.73440415027290773,-0.42287277496553621,0.044597158229256591,0.94915106564255014,0.90671823262549855,-0.982621185939117,-0.94869641864145937,0.5388005224702882,0.37673746020381221,0.74930104881026827,-0.25036913959792312],"Bias":0.0050707627111444076,"Output":0.0,"Threshold":0.53583134642608066,"Type":"GT"},{"Weight":[-0.6110862985304959,0.46473172934014895,0.5848381331119864,-0.70610431614616154,-0.63566455926544241,0.84591894775904664,-0.66146383325637492,0.082349335347464928,0.70871235835771651,-0.99632383417166948,-0.98131018363931688,-0.67907591009469515,0.045435803032217455,-0.021243645353821873,-0.5007164978891222,0.89372679120568876,-0.65950144299282765,0.28940799287027119,0.18443928341587973,-0.36131585406200767,0.36044181527590463,-0.59400116586778362,0.66269341514571267,0.049013843782718218,-0.58411662400891851,-0.637275129387749,0.53950751225441118,-0.57320847295839739,-0.48703769710242639,0.92754202425831089,-0.68384481439545974,-0.59077795017081214,0.31449437668290658,-0.0850167670683082,-0.88857001154151283,0.70014192848472945,0.1464184192691084,-0.68701933170064322,-0.8834846899302139,-0.8012714757589956,-0.658240404752195,-0.64628311509559078,-0.75114153313969334,-0.34753391628504449,-0.916870028673145,-0.29599976134300221,-0.0061983810766592529,0.59368791179437563,-0.26642402041071284,0.0160849778987863,0.54720248307436825,-0.68275303285697153,0.66564599921258449,0.35091807011091991,-0.8868026197360841,-0.25011575280228432,0.1994953626764451,-0.21934347982487804,-0.82942146194606159,0.49610636359830684,0.61134360293454659,0.25451530295168762,0.0033121155590341033,0.76877357194608709,0.12510319618745855,0.85768419264707907,-0.33241157761421591,0.86601406981517282,-0.76716756809836606,0.46928257097922388,0.045472231714740505,-0.19887687182001623,-0.90569179733548866,-0.98417708230399392,-0.26438848966005651,0.055315776288190753,-0.8506469055314767,0.092472292991574986,0.623113209206198,-0.28149263154784804,0.093529604418915516,-0.6956132080851184,0.59141606725352636,-0.80612956397520819,-0.648311401553597,-0.46675664534175615,0.98656680899978,-0.87263184314250564,0.80046040369219162,0.82707066406825125,-0.53229240120029653,0.39829796012411728,-0.74696631717820017,-0.68608451526895375,-0.004983286841299053,0.15749868338811149,-0.079985736440860544,-0.79530875235577525,-0.83120430392734912,-0.87635370151901326,0.35132905577836981,0.84356150815429232,0.89300705301249728,-0.82400783143192891,-0.22534905989903448,0.74740480386996866,-0.12291990738498043,0.61688411450799752,0.28993366020262878,0.33755420909149303,0.027299816732900131,-0.097056496002272008,0.28123290384245708,0.38795735751649241,0.8119592544678409,0.25332178699473,0.91039183266013479,0.49452444002708629,0.43333915408390533,-0.87233244482070782,-0.2231017207834412,0.00908161467364133,-0.57074405838304387,0.694257089260154,0.70322194076293243,0.067306951185365657,-0.77680213645883,0.16500764860073461,0.7850808034581509,-0.54442399858703094,-0.19941532481434537,0.43141964424001966,-0.75462441507476585,-0.9259758423669151,0.9411146957153057,0.38328978809681247,-0.057941265431205397,0.321204794254715,-0.56261727472889111,0.75941848091754061,0.95532255943646771,0.96323881296591773,-0.44808428056914557,0.90930192168303858,0.46975555013388187,0.86507429828172289,0.028217059107598412,-0.960178310033017,-0.011285972321073512,0.24241266969703729,-0.39515516599414646,0.70323190498316279,-0.595390022078245,0.84298932824423045,0.010842392226142059,0.21701289164694626,0.75398048793616723,-0.28810484487940785,0.194308264737161,-0.26187354757537767,-0.15199882404506152,-0.018401158516482059,-0.10165471448640093,-0.689075543400401,-0.21778226421111369,-0.57330822785073343,-0.85760674153343153,0.564946729487249,-0.040378851834861028,-0.23788942221453852,-0.5094018650750638,0.56750225395313569,-0.49788138200430265,-0.16595969729403021,0.34080019562542446,-0.8712463783432014,0.037250238953740446,-0.35744448860988232,-0.18769922209330797,-0.63483821350840763,-0.66093880527696514,0.38105929800358568,0.0071052205781942327,0.82745465069425039,0.019375373618386395,0.41542571616146046,-0.3602507777326977,0.89283135668040781,-0.78012894223450169,0.72833904005975414,-0.29738990557258477,0.088236029300948621,-0.38440377283115118,-0.22624324924603256,0.89253067965271449,0.56152295673336972,-0.59190767146270151,-0.43713112661481424,0.92940106146475354,0.88223688112676,0.35255825535979041,0.42451958238357657,0.088948025875234982,0.052894994641139635,0.94734809126115782,-0.26739502757200739,0.74867244285935186,-0.83465051363904519,0.32571707401690869,0.37078846822063832,0.72727615420114067,0.611474640020856,0.97735970931936045,-0.37565470830335035,0.726672489068784,0.91213740311196889,-0.24682217568476786,0.56908355307256964,-0.8206610050148615,-0.62446049629918321,-0.10726746083575649,-0.070079202330708135,0.25002773210873258,0.81469492605640315,-0.27119848936386337,-0.76973168774029788,-0.44152154468070787,0.81708582435598864,0.050479737599603711,-0.82455782025333391,0.52802929027379919,-0.14677413420135813,-0.6037686209211911,0.81181798959701224,-0.1441128520034779,-0.59509721286366568,0.043190279529984242,-0.73967530426554162,-0.73994815477167641,-0.25192488182891387,-0.037363421189302311,0.98320328536592572,0.027650907182903452,-0.52629738465244758,-0.36689123714663613,0.58495579035252132,-0.46176067947492033,-0.9526904839802024,0.20602249177453225,0.77285603469836339,-0.6910648018545773,-0.734598414383176,0.42627569587262149,0.21856000610560178,-0.29561881175992022,0.80258274348572956,-0.6706420866170163,-0.1995262574402272,-0.81528993454542475,0.12231458915505307,0.77327871358640432,-0.19780414421009093,0.61425919533439877,0.57763789481373407,-0.9373782099864344,0.16845703645071808,-0.46199394970293806,0.7834121160131936,0.76234502753352051,-0.27902388445987547,0.431827111370781,0.91590924789938577,0.22396991132943422,-0.22745194995191503,0.18804456022942651,0.49348430637898122,0.79779911683769855,-0.17717292028347631,0.052195400489585195,0.45772430834254452,0.15269521863790939,0.61407464072763673,0.2741492596800203,-0.35363580349536416,-0.5666687863723695,0.26874082082358225,0.16245066940898573,0.52155439207402732,-0.68438068203832059,0.8935902858588799,-0.46955122634281926,-0.46757490163090404,-0.93741675696215443,0.022035331941226186,0.12430032767555692,-0.735168476000041,0.453495473346438,0.14462257509335064,-0.36076989321073977,-0.65013568133587751,0.41569023365885494,0.54501099071698778,0.65286381479951727,0.60209726849668532,-0.29792013917952781,0.40639418987855047,0.723447931335982,0.25972129323506787,0.095365642614367252,0.92730099145663014,0.9607129627655786,0.24486851098242612,-0.67699390495056,0.45057467951000418,0.68037422033044237,0.43766428643728805,0.62338352185831569,0.42924292452132468,0.920947127007389,-0.36290975956381755,-0.80181183004836176,0.34459927926985512,0.28624305421777213,0.42185887900267677,-0.29003007164692046,0.77352092451114252,0.123890508023971,0.28050865385705076,0.61341460031150585,0.098888274328265469,0.13883947401253483,0.29242810108346312,0.94107445419816038,-0.15529267543707634,0.18354822564104023,-0.76578997390614356,0.23539130680048434,0.068428331086611532,-0.36651710577612606,0.58778848805827488,0.70157513148224682,-0.322669232880077,0.879146900437375,0.50929867453374833,0.37186001537919977,-0.99785351473738138,0.592804448023813,0.20916312942708057,0.75680490944385759,0.80448713284194806,-0.80119960326757267,0.65715609754303284,-0.6920955002736745,0.52707752004595354,-0.71146718911429274,-0.33805674283674764,-0.083190960382665949,0.82785467283234682,-0.666728731089611,-0.76610541379363528,-0.2639063327870827,-0.6992192467205316,0.65059966344879927,-0.81086847223847569,-0.37013525858993424,0.15467504279440039,-0.69481979110036962,-0.91930202297833841,0.95271425878289817,0.53039324587694991,0.14811793954489658,-0.13202081254311876,0.38661233307170323,-0.16677671818378229,0.0056252824168770022,0.14568513498906285,0.93324155124520958,-0.24913171410985838,-0.65156037018241375,-0.9909772300119406,-0.55897953201037809,-0.174456861417022,0.21435365882439245,-0.41928788526881855,-0.459084625104016,0.57625485890370554,-0.53954610905588885,-0.1177610550624137,0.17978386123654613,0.07226681666088608,0.34904557715591306,0.39628606913438347,-0.11032933001887488,-0.73392858949207174,-0.82561872705147543,0.69923514439688772,-0.69011510940739662,-0.95031936417814311,0.79024969310977011,0.78847765493601452,-0.46445795309937465,0.75533317483744267,-0.10393915283677128,0.14731944545512993,0.420847083172224,0.30961106825136164,-0.12601013114955748,0.82722762777806613,-0.72888009936030962,0.34512339408748011,-0.93695801260739475,-0.18282179216985675,0.77782401385615763,-0.29552128226287722,-0.30648715342697092,0.50895008515052031,-0.90791027802411017,-0.30239587198123141,0.84111749745957431,0.5860020940126861,-0.32049004282825161,0.73536456969350794,0.12029602523906903,-0.6284271798228972,0.52689241316490454,-0.2940716716898939,-0.3314446943492837,-0.77876771836484215,0.97551440679259338,-0.750742110307674,0.86452746105591183,-0.36994788021312464,0.4409818506990475,0.047262159198178985,0.921727532950103,0.1214113622537867,-0.89851352055487854,0.42605412771275925,-0.5277116627095787,-0.90888150637451626,0.19339036810835375,-0.65853365494801364,-0.80073761232231633,0.17177107845049866,-0.57777336732380713,-0.21519497140086955,-0.11697783466287788,-0.085753125644173991,-0.68754567563885161,-0.43470494050286007,0.69680054797641955,0.544264171525959,-0.86637914221099543,0.40722055798732704,0.61587935668224436,0.67367005798670931,0.817274136849341,-0.088731236797166629,-0.30335972239419806,-0.52530018683769752,-0.63462421700108063,0.19169567813710109,-0.42132327818373372,0.74418231972687987,-0.30908968174322027,-0.191918781116567,0.87243006046508909,-0.33696075870513953,0.28526540626085617,-0.45231750675119342,-0.79599544862098781,0.2500974369468621,0.42734409329823408,-0.297687717386376,-0.21514925230999907,0.05523694309184185,-0.88402658369579656,0.6792765127864091,0.66726245622488789,0.46905088539656759,0.68872919757325635,0.62751220521866913,0.70738448049285663,-0.79594934535955519,0.38002004492097535,0.74973247700824053,-0.59893372449974236,-0.44177039546974489,0.93118792862221034,0.39336928836692558,-0.70876179063169364,-0.37948377913771375,0.012220519134877492,0.23435830848028805,0.91570426380061742,0.667169777521477,0.2991086059711448,0.67909689744892388,0.60765698626994014,0.971085625221527,-0.75086622021667015,-0.019976986115787639,0.30102276536683681,0.037360719888173376,-0.75516870094238253,-0.58432725378513672,0.33018150149387376,-0.15116784356123203,-0.4331037474019005,-0.5362013753206476,-0.32092685733033666,0.30658909646169707,-0.087129225529324839,-0.23609162505534087,-0.47837719436659348,-0.79179803924253123,0.54213994720119052,0.12364149239083822,0.3242083025743292,-0.95731167400130612,0.51826361684047784,0.92032226311057908,0.23711832251265566,0.23153311490618303,-0.44122002899703572,-0.55030417467947312,0.16547416717068952,0.55113207015727272,-0.76880526066236443,-0.37372102372987243,-0.28394508701001531,-0.24817529751368581,-0.48802344803140657,0.61189693660097988,0.470901680398221,0.02033560630881023,-0.41186609184922,0.63349652692372749,0.20013611819601437,0.32145614611052731,0.9564847457020007,-0.56532582294443889,0.9080582987088982,0.064038218960183774,-0.97017829072204342,0.86456217284526782,0.54491250614864406,-0.208238720059506,0.259630519086323,0.14785932849527306,-0.90123595711832682,0.23366375278386461,-0.31421738225697415,-0.826613128570194,0.18582895453359419,-0.43027172071406233,0.13994637138207738,0.15652015905665243,-0.46548904500225979,0.38874792884511311,0.29077664869407965,0.83869284989251425,-0.65323823720833207,0.96955771137474,-0.83577884819162029,0.55349052164400492,-0.52284699143974434,0.67276037469169148,0.29786243908939064,0.82960682354383486,0.72670569025292331,-0.5369855112102746,0.0629619327666992,0.72285941369964712,-0.68778661018600062,-0.021959703891519321,-0.23476810671145473,-0.59152680616431252,-0.58396912439911119,-0.27018138173510386,-0.066276245781349136,-0.28567775072794305,0.18452050778294005,0.5752519492876027,0.12696431722816282,0.45455645604736938,0.27474426816904185,-0.20799893895536611,0.35209695964683635,0.91470609415076021,-0.43467040752743857,-0.87977271242056632,-0.12408807413842905,-0.34185197592799177,0.84762588508782255,-0.94985364701126407,0.3717248222658992,-0.80594809577145987,-0.65690386931267752,-0.047646753512158413,-0.1912112828303181,-0.618223497000627,-0.0012633688753765863,0.88053515920440439,-0.0051557603316175569,0.66005652661437941,-0.34128963171564491,0.72201715350244988,0.37928109354306061,0.91569310236521673,-0.511799662146624,-0.85316779504211981,-0.67284374063501307,0.45185801873535758,0.7105754915208442,0.69129115934078167,0.55887883508525737,-0.69556372226009322,0.60614640014532317,0.37869565439349767,0.51767593506615417,0.30453653182114315,0.00055036181609628807,0.70057708150734055,0.95090210901149652,0.088370790746235661,-0.58151123234141211,0.69751063254545942,-0.16889793852758497,0.39224548190471042,-0.746518844154905,-0.0076690278983065057,0.55204061817007166,0.41856470071643809,-0.68784265438459935,0.23575994849007576,0.52702307306557106,0.26863347844622726,-0.96102312531369882,0.46580706698159086,-0.71211266131704332,0.650922896643599,0.65197626391983421,-0.2733813925987954,0.0078851669132174763,-0.24370673543014879,0.42243800797613246,-0.1791923670932615,-0.61593842861053461,-0.052253489406897446,-0.55384541049313052,0.30047579123660728,0.72828179864598519,0.22416206878803766,0.99270386155354973,0.96462850038177728,0.686059001221349,-0.87646096473394941,-0.62778725690571,0.61283244174571361,-0.5317825090753765,0.62800866534375055,0.065705744114567408,0.14215959568608533,-0.81078952402378879,0.27225377702724829,-0.19662019805825326,0.14658821893231394,-0.16306378187754367,-0.018251945738797983,0.71594394869913536,-0.30483763353193066,-0.80528359618283973,0.76822133072103438,0.91366106360855559,-0.61117852461113531,-0.42689538440988184,-0.663603951066548,-0.43667458390662195,0.57578388535221292,-0.38161359139793255,0.78073981720057306,-0.53706464988042812,-0.72340405300418109,-0.545223633546952,0.11991548916321038,-0.24288333777472532,0.89599065198376338,-0.816185572099027,0.11264696163714257,-0.013258285826658032,0.82323998111451047,0.41848917231824678,0.49439991474822159,0.6068166557731185,0.21075482816004884,-0.43364938182460583,-0.74658948543788373,-0.90111223417386055,0.66150209012511285,-0.60027843136353343,0.18540252194991452,0.776297606889297,0.11191980732228599,0.54432823674023534,-0.61663663276314573,0.26989827177948239,0.93354389627163481,0.66402104295046116,0.544546992305921,0.54893328647545225,0.8088217386085641,-0.018276724507229739,-0.18470460790428547,0.73803987947201355,-0.94881822352708234,-0.76793983521309672,0.14174482838331948,-0.22613091823930429,-0.13827882108198425,0.805530824607951,0.21197307259401915,-0.097129381306995347,0.51062027668143639,0.13790586736887037,-0.56466188168370257,-0.79725447660184212,0.21301710848371364,-0.54376119773078768,-0.66635278643404727,0.80811992697795854,0.20422614002797107,-0.86485526983852279,0.23929282335531563,-0.69201579722204054,0.7439492329694094,-0.72788456814730751,0.81408319334224011,-0.75512967107590734,0.73432823816981552,0.82877666402085526,0.033527706765349816,0.10264584566589717,0.677129626589422,0.13767945819426303,0.11691415175651859,0.47225768373918614,0.61754471045804427,-0.34790775522026596,0.92828789256899058,0.96422934623632084,0.90787295899720533,-0.0325601012597606,0.30706427679726123,-0.22780487883268152,0.87804601661769954,0.61961666430328821,-0.60812400216615015,-0.906958526422716,0.77437466372473851,0.46512290298245984,-0.7815222469072427,0.15595439502780997,-0.053152889038041648,0.50133764441187378,-0.64889163600694932,0.087390683632060276,-0.85052520867927239,-0.67694289268783425,-0.92897044398308282,0.60680510178525238,0.49824688420549357,0.630523124072013,0.25256935146291243,-0.093254152728828671,-0.9580860649971692,0.560577899478645,-0.48975394875265377,0.80989632467268791,-0.7090829255567318,-0.98609841986843316,-0.17703447732005012,-0.56732608124954909,0.44069193789767658],"Bias":0.0010730228391816015,"Output":0.0,"Threshold":0.3707659097252255,"Type":"O"},{"Weight":[0.31372515080204472,-0.34418078947075681,0.014994176111647009,0.55292353246031489,-0.61919386574029633,-0.93325226052350008,0.9909525369251857,-0.85959920839387882,-0.28969743768204814,0.42746176776823669,0.45940746062407617,-0.0772961168909893,-0.82172302753744786,-0.35413565968821553,-0.14813959232910517,0.61958642938155051,-0.84787945256004082,0.7914870096330936,-0.63312121184222458,0.43599410980753328,-0.17150277000456246,0.54160301831625546,-0.34730560302143249,-0.28781373998514087,-0.59826970035129678,0.550467840186538,0.94330414195698875,0.27906067961783182,-0.63368401007432673,0.644642370587514,-0.50592484628126255,-0.418983272471923,-0.812907007435759,0.25921755668670754,-0.75219246593871736,-0.47696747047685434,-0.96354281295255884,-0.78101382021839438,0.22657054161027565,0.97894163521888744,-0.93166686731002613,0.57438451497554055,-0.86193623340778813,-0.7791841010466144,-0.94055724513742944,0.21591376243900218,0.37874618004017796,0.44391097242194738,-0.72297678828378054,-0.74069797561536443,0.81071991138659416,0.27145413973902077,-0.85363578510174332,-0.63799328712653058,0.81283077216373323,-0.318981049265238,0.038991916011549492,-0.86384670150645393,0.805884802157937,0.34485355873818208,-0.43157991647328248,0.830777367032495,0.79408767344154774,-0.88756270701417828,0.033714976643079417,0.59447061158459191,0.78299315822450122,-0.941065648077552,0.059034914271456615,0.9639005516487642,-0.3800570421759305,0.44120408801417987,-0.92695436949234189,-0.57619574460023815,-0.7766338394845993,-0.98534865071314792,0.98995966743210317,0.70496166902825319,0.68570176078272138,0.79418059102919913,-0.39659624611800359,0.43196321624888256,-0.36714266816486729,-0.32699971800995975,-0.95179116304581568,0.11640087799932848,0.6375463840726513,-0.41479963595736757,0.56397860849461456,0.57930267768879551,-0.28558406526482855,0.54642843247690631,-0.0044317166341616386,0.9017976480078872,-0.13743838068909867,-0.72948597871208842,0.1919356594755946,-0.18118103415760259,0.88154269190576984,-0.611801297223103,-0.77892116819458135,-0.53409820587099444,-0.15207430215183379,-0.48398346848971374,0.53104166152469889,0.24155860638318519,-0.18589441486908795,0.70627190997184808,0.76850258268811855,0.81861868818226213,-0.52542608581736039,0.059153485605099,0.7191729832995557,0.62783289217754867,-0.58589524430497331,0.23653131641286021,-0.24003210442142192,0.90924561904242529,-0.86757513222637361,0.61316549434008327,0.98895729053251324,0.30611019921773586,0.89396982681656711,-0.10794340684448528,-0.2657726664402395,-0.296623444322787,0.79953499501549408,-0.97430454984973391,0.3204503927009415,-0.60880189417339947,0.53774720688245592,-0.636988144664554,-0.35035634429676288,-0.59383625471677459,0.19676818474976726,0.12734777579426196,0.053557925416882118,0.90524461861012717,0.18373765804978909,0.92229290302949629,0.71461964944127,-0.39972914122032427,-0.053050164623675011,0.14628993028136433,0.10526749217196717,-0.58552979425784657,-0.60965166083055156,-0.30110441069170107,-0.041926114373805987,0.2001943756827127,-0.30178136485711737,-0.88915367093363484,0.05891035034270508,0.16126134673192227,-0.81235476947033536,0.10533565287726729,0.79554257299543474,0.61489159642480851,-0.4187525196088257,-0.12831788795456192,-0.14944375080496247,0.0010548806754196438,0.21476192875521347,0.94039736685361586,0.67866265991640407,-0.80458571240519439,-0.3084083899429107,0.52177399886854647,0.65275736556051178,-0.34072676782530115,-0.86045069753213355,0.71007794687062409,0.51483665523810151,0.35419708320600773,-0.66876265204919627,0.75172311009453752,0.996424258684937,-0.44879239492527784,-0.00056615332167882161,-0.250719014671966,-0.8061770497850036,-0.14110526449098498,-0.3232070106655392,-0.50343923713240735,0.26347253157918926,-0.34307880482779762,0.89662425867124662,0.46819360250057357,-0.36132559150519111,-0.061759221396296853,-0.62341103638681161,-0.10114102489368107,-0.98304587881222638,-0.062571252725353119,-0.87526436237397809,-0.71243246212249267,-0.68352918312117883,-0.500298698200052,0.18541674138299039,-0.6542677584356944,0.27024293005012112,0.56093259880362667,-0.9621894354755941,-0.90795082920601167,0.40335647314943207,0.86905223497611106,0.25079857290293955,0.457891194363074,0.29021664489536392,-0.094539901751344982,-0.983768888741624,0.59622145332220078,-0.1894605188581443,0.800975138694502,0.32154344176945437,0.63750500354799677,0.3693123531384917,0.17083683152256385,-0.55505963766717337,0.41120498413741818,0.092059795321924515,-0.033501841143472974,0.42234393741113319,0.089400998358335815,0.80153334271234156,-0.17887638284772467,-0.53795226455570766,-0.4847276250295004,0.28648981418762814,0.577409152210415,-0.46624364958435466,-0.85303867694597635,-0.988365646446294,0.60767368860900106,0.63880242157671718,0.13512517564703019,-0.35650586074055446,-0.23113659081567853,-0.033079081696029328,-0.54973242178081183,0.91347823520818638,0.8356663788834896,-0.82022419190976037,-0.19088116064243071,0.10853508259567203,0.4542099546893546,-0.75686220161470685,0.24958344094901505,0.034950457063946151,-0.26102806593339334,-0.12777273176599888,-0.23508750844518073,-0.67498870923881826,-0.061200035764463263,-0.099934781482412846,0.17058292551458951,-0.039123817830869843,0.045831966700885428,-0.43508472872669096,0.58403170648218683,0.949337649135542,0.54900078268209507,-0.26298147079673662,0.19908308945553521,-0.12912937026896018,-0.060829297667755418,-0.0857996750091201,-0.32624136671714549,0.69199770022742346,0.83644084764478766,-0.15859907127851577,0.93830619935798742,0.79659189879735559,0.92707958022462189,0.40606281552746093,0.38622395898505296,-0.0452142362693391,0.33278747849761858,0.88286435039847355,0.82136044642951356,-0.023848002321947368,0.030110083068772258,0.3281185726300434,0.85386239823599452,0.79715368701012512,0.84716074068432712,0.50516827241758266,0.60996746812479918,0.63112650841061324,0.87503569846741658,0.24184219736691667,-0.49854826298474719,-0.023603944118881573,0.35861890267516433,0.93481981565003269,-0.5987487517291441,-0.92996401522772576,-0.57344509781033037,-0.001531624235926021,-0.3914686396678298,-0.66068548320824538,0.83631346087731118,0.86326425935293749,-0.18817306458399308,-0.88249405840527917,-0.92721351558678478,-0.688424212712992,-0.26422473428036308,0.658040694267508,0.66650293425959672,-0.40813088389492169,-0.83669670803318574,0.96547011284412354,-0.75379625184172594,0.41329350853957864,-0.91616431759491768,0.43794493071639207,-0.087748106144251353,0.72930248069078774,-0.55544011087875822,-0.17931489608218656,0.71084409007376248,0.84068782713296253,0.4401135763340227,-0.066149181717144873,-0.34396941975875267,-0.58169638671991242,-0.62171122833234782,0.31886634850821755,-0.87637383811006964,-0.94866744007387549,-0.64518212137985143,0.49892721907185728,0.61550584929785968,-0.98517875093276552,-0.72892958006306063,-0.055965601958318428,-0.78131571588167725,-0.54968015968319039,-0.18856451715741518,0.27850937530328956,-0.10864517470292988,0.2639879343397859,-0.80123080071119168,0.22348235790779925,0.76741279231729587,-0.78033047392048427,-0.37247281212940475,-0.65496115137588284,-0.020801059911400573,0.9297921224170328,0.87185840721794328,-0.38628345699342126,-0.334160309440531,0.64952231182228881,-0.85048107376810211,-0.61849659942951829,-0.86613193241233566,-0.90473353346098839,0.010548769966954724,0.74305552744448911,-0.61974826856504583,0.41053280113755392,0.22100590831646971,0.97288986992691173,-0.45302645976330452,0.29616736913852737,0.49038001871219838,-0.024900686473073759,0.91179701448967543,0.19187809675553724,0.35758459119013725,0.8371057989248567,-0.30374476467433609,-0.54466687075079734,-0.2612026544572798,-0.42575861580006713,-0.55334597153279275,0.9771346812961319,0.47767078712474126,0.12162712920532894,-0.26344383473668426,0.060697157429855854,0.70573055031976217,-0.96582167826864018,0.027007659909784636,-0.43530463540707931,-0.78101071612025175,0.25081435509529632,0.46048607931494995,0.50294345128487028,0.10049992804438804,-0.3541768735061292,-0.68761415811610138,-0.33881704664734053,-0.70449174414598,-0.74277079931589352,0.79972776761265829,-0.30145326131091138,-0.649061583284783,0.059784322539244,-0.35830709867100563,0.29355680583676175,-0.8725548660720488,-0.26690153091535973,-0.070578821036302863,0.11378044966318665,-0.076651789749344709,0.58849358260095752,0.67996591035275067,-0.049494141735832275,0.38751653460204438,0.48001376282424374,-0.94152114770446027,-0.28946610553630914,0.876705170085982,-0.26092794456562396,0.58523360573930372,0.53857003270581827,0.35876859834360358,-0.27261209221212757,0.981353591187556,0.0984080215442963,0.3368537078317505,0.25554998370611576,0.91439100350923419,0.64347589697850682,0.050503357337090819,0.18989464882290674,0.88014760095632993,0.6353895597324658,0.047098637114790565,-0.4984823700499173,0.806217208880101,-0.24741925310688989,0.68617996512268664,0.25234983221271534,0.64291810693355189,-0.47612183702929028,0.69842681414374463,-0.239519794583097,0.84755287824550307,-0.3637351265008259,0.28389665078553217,0.30998522290493608,0.73563761903701241,0.86019096330748446,0.14187660633673732,0.30395077835021111,0.46514713646152389,0.83112938182015406,-0.66269868736281,-0.88879780466146663,0.43798499854187711,-0.090613277205551637,0.12618705729310731,-0.86304544883922,0.47766350883881725,-0.92189912587492684,-0.62504027440447374,-0.85930962248673182,-0.44330664651622376,0.41548190285241321,0.98796405502965867,-0.76082313794681022,-0.39449394792061948,0.95873989162907935,0.011537790303834616,0.36870451987195041,-0.82569053109068913,0.74838534078951247,0.43678328322096882,0.85673765412379876,0.11405232088363372,0.16392178608287208,0.5812609622167707,-0.36753791587778273,0.095892125785300569,-0.14025519189436697,-0.688948558964277,0.078271930142432417,0.97995301474814911,0.95756468314564069,-0.8072677291032242,0.025942638528506569,-0.23528183262575503,-0.50691977027194568,-0.56372668992901531,-0.84203736523261175,-0.40775688756618506,-0.59502987451619926,-0.44684275120815392,-0.55849705662508353,0.11600573086925117,-0.64733294008641173,0.51570276427813933,0.054173857464536027,0.21922721118630245,-0.56316748334242384,-0.00036190869303509066,0.16236226920148464,-0.79676789594663677,-0.30260842121327686,-0.46442070671563068,0.58930841581398086,0.71027136813396186,-0.99044725810664114,0.58468573474543439,0.38037771004269727,0.39235820173861374,-0.52663767967682229,0.4724874428810959,-0.30600278838817158,0.12460285198157786,0.10831392188943639,-0.75302164105373515,-0.48501814598451282,0.28348963534621968,-0.36848562460787854,-0.92032446289450143,-0.95873276421741249,0.21639637007210236,0.74895768880329916,0.98005311609248313,-0.061289187083621133,0.54078716949596406,-0.093569823118657719,-0.68745656390090315,-0.52174449503503018,-0.036213445028389545,0.27788140078907897,0.93168286091260744,-0.026681360335406551,0.16985699123230622,0.959607019070353,-0.54453278498003854,-0.83669566774586945,-0.57567844799518508,0.78516657314503868,-0.81775589278794636,-0.28472834233414768,0.799655661359269,0.10177464089439,-0.26253951725668251,-0.50620608008755652,-0.079053441565043028,0.068413072763203214,-0.87813140306534776,-0.14432608715459988,-0.84094857836186354,-0.69097063582901408,-0.85147018397761054,-0.76167601661834683,0.9694516849561835,-0.89027224848525233,0.37563275283930486,0.41229842156744489,0.75309862045249842,-0.80382019691347151,-0.84497196452923673,-0.0916225105019391,0.29057853403062489,-0.90483435658031808,0.20733811948790126,-0.35821399481883925,0.30630264445501504,-0.76390892582196224,-0.75420452549783723,0.46205546495600391,0.04042910367270424,-0.97742260339549869,-0.12879520101882294,-0.74705755652257122,-0.72613288868504244,0.12939887965535693,-0.55143670903120034,0.42467780011923884,0.30317315054273847,-0.89268996794367672,-0.17256703235794185,-0.057697857756958279,0.49901043041563148,0.93052518783627325,0.15297806502924211,0.836833758203701,-0.5023002868994606,-0.089148636948852167,0.10238446858822577,-0.021994340709407971,0.0898591531859055,0.67996858604250876,-0.82479928798265723,-0.66898483301931289,-0.090839008377324323,-0.11978708120053032,-0.20876987241616932,0.54968724006306713,0.77904080589257219,-0.9063046616065803,0.3388530599599951,0.0091883856845965534,-0.640541030857964,-0.41147536431042264,-0.92559970958419135,0.65875703778991335,0.51818675339137521,-0.92469432108322824,-0.67560595584828687,-0.19045422933551215,0.00086587341542629218,-0.76927693596541735,0.86955110862364582,-0.442868907676483,-0.53187868442939534,-0.22919249498713412,0.780002756873147,-0.68234722627436151,0.73347952018188289,-0.089422299568272329,-0.032962979298533396,0.36595458833778027,0.34401038165390974,-0.69583667800567894,-0.52280766960364189,-0.0092486059336218084,0.77171485674181717,0.4580786211686575,0.11766467621441216,-0.86724359023722053,-0.034891191886221612,0.93799210010934253,0.18725200425239838,0.83686297518986419,0.18914245543495867,0.69641960630957955,0.23831222776244965,0.021609107508142062,-0.2730163015765214,-0.80620026393150923,-0.926973648800968,-0.53199062660894847,0.39504546923332173,0.36850052576907932,0.10497122495666669,0.08525286479166376,-0.075930296944421855,0.312147996533731,0.26112194837123248,0.48714250488539346,0.666058373947655,0.14813773527189053,-0.42336850726202524,0.21299405079940056,0.83012346729176278,-0.42686586846917207,0.052777476167668341,0.090757055250349009,0.8246864414888837,-0.12626016518392608,0.15004112950993753,-0.85016568230938427,0.63652391528548857,-0.65650177172222257,-0.53126704438182848,-0.54062987656361883,0.60773992194223214,-0.70057138553847154,0.95745098169774323,-0.98872206359576531,-0.56489216562588329,-0.098146714781479308,-0.5555991877594959,0.821724303915037,-0.98093454026660631,0.85159946971181755,-0.71838878873660639,0.67542759686495535,0.89053408843024362,0.16450697424100105,-0.62031476554475484,-0.39703277144442906,0.11569691967018736,-0.41504232744455444,0.80004244521262236,-0.97185149321884456,-0.53717946565578667,0.84447362220123112,-0.81044607833514271,0.65107821144679479,-0.00019352231183718998,-0.18568609197888808,0.4937237265956233,0.70997855891938255,0.30530394069166106,-0.29573978963109654,-0.56645276284145785,0.49791416642158953,0.04316793849839267,0.33294750905267312,0.6474282879603227,-0.77527402098070552,0.41099402839829868,0.19804095346389383,0.23330309485704781,-0.94701950249589029,0.29038212461880508,0.60125715872331387,-0.86068732657501812,-0.99107654438869863,0.28851996189380064,0.76674199791939091,0.60874338755791235,-0.52727394156496687,-0.51011706679599222,-0.66667248106872312,-0.068573744533850692,-0.92662501192028868,-0.30591128454818917,0.73742749436638666,0.60736850398004449,-0.29666011002690534,0.99608630221154837,0.72560852101333839,0.78601422383730035,0.657831420496959,-0.62226989940845867,0.26858070505251208,0.98293636738459411,-0.46770797551968507,-0.2305988237404259,0.20024048872303241,0.29891469622911637,-0.42043909030986909,-0.663828662440101,0.23321817546767099,-0.511183754313357,-0.70291895824620454,-0.58841901253369588,0.86085033829363544,0.23025232657336273,0.36389385925787215,0.668123454632295,-0.57482973512952673,-0.82539683944796993,-0.2675787896232581,-0.64152675338160559,0.50525213754980458,-0.79938051467732552,-0.040802067164705164,0.38628786447750768,-0.31217042604096717,0.72556653093805845,-0.28337293550529186,0.3197410885802196,0.17393015286602553,0.057487042181886286,0.22488085423823487,0.68423901111084917,-0.23922476509549878,-0.17509013282837818,-0.371007740670353,0.083163212092203648,-0.10992584429212186,-0.74997344554866363,-0.4895184438161172,0.38622316736086421,0.41572856829302784,0.23910442704293153,0.82576582945220445,-0.58874285574478236,0.726172609127207,0.99034569365454173,0.33008686189078112,0.057413459316554227,-0.87499662250047394,0.15008712520361278,-0.07107630142526529,0.1581962002246623,0.35210901002963491,-0.79645297853110963,-0.61707087076132694,0.49016330274295217,-0.16968796549816057,0.24996297445612167],"Bias":0.44021954361359567,"Output":0.0,"Threshold":0.75561737397481565,"Type":"GT"},{"Weight":[0.83805604923425991,0.64835278347523551,-0.509207122264992,-0.51555740950422246,0.17147598144201376,-0.26868670213440743,0.049019997030971568,-0.54360760261472674,-0.54285218545368508,0.57651262710639861,0.965291653277954,0.59071454805820922,-0.35555179014594845,0.54197969126607282,0.72587223617633445,-0.38570862327968169,0.32733008746399084,-0.77594711295140306,0.36340968839982973,0.30341048785644142,0.36436485003883246,0.88300751330471017,-0.90737106181093075,-0.92580303360046956,0.89919553552716758,-0.98098028310620244,0.17910474686841701,-0.51218848000848127,-0.37659016595063272,-0.16974085763550403,0.82951586406189759,0.40821839748333133,-0.53833665537570452,-0.011715970007570447,-0.99627289222379811,0.040556408018132858,0.12307632906505667,-0.58147871987031718,0.65125184769334821,-0.64274378337093807,-0.089719629422630939,0.98808818822171918,-0.55260070765046432,-0.94027450165724125,-0.16041851190869627,-0.72718142146579057,0.46316269480770578,0.15109759063976705,-0.25414394738811252,0.15468893673023626,0.13940127526382043,-0.40119506809916117,-0.80544047002002617,0.890656397627041,-0.2958200091010984,-0.65254484054285322,0.45549415492242862,0.40396482981926057,0.64018549753361642,-0.085294283034882637,0.20903295195150792,0.21599449320509773,0.71265459373251283,-0.44678593820276946,0.444801581764967,-0.048785361018397547,0.74300001922203229,0.0650332696107371,0.74331666284395226,-0.074434888118149189,-0.48131949896054321,0.15421134939147688,-0.8196055841723483,-0.80967759518403448,-0.40576119879528938,0.095905666749880492,0.15981823958448052,0.5490306562506736,0.33339553528157784,-0.74670492659635135,0.62424571189295763,-0.138403992698716,-0.16047381058357368,0.73590119077633187,0.9002730431502094,-0.94168747027483191,0.45390815122700678,0.68504125982757713,-0.40747326212351825,-0.70451688333624829,0.96570706272763529,0.90758910165521745,-0.74948188883693978,0.24632108548950454,-0.33564951891808281,0.2069340656543775,-0.78202374129650354,0.85732334566177959,0.21866493449484228,0.79068552972315131,-0.51237902069109442,0.59758333889654991,0.52440598724615106,0.27189275681594982,0.30328691811453873,-0.170243401625307,-0.17255571725431632,0.064348749380721132,-0.6697169955213168,0.70095056467733841,8.4429979363656593E-05,-0.23516446083558931,-0.65670116322892769,-0.32943308834425783,0.74640187981836581,0.63329909026310738,-0.4741496231752213,0.951995361573992,-0.35134621725946025,0.454302136997833,0.051091696159491176,0.45138492316537765,-0.31707320423660484,-0.69368834499907139,-0.98003032662907164,-0.23429640626269224,0.0028283311998603547,0.57311563872411642,-0.003699154594773033,-0.88542480668305645,0.65501574876486124,0.80969113428596928,-0.063767541229616642,-0.59441075920798381,-0.33033518275727292,-0.32396993847748728,0.705393731456899,-0.78639766144864154,0.5298444263310379,0.0958832330516927,0.38175506302237283,0.42949874858814235,0.5467314517808759,0.70086603504645917,-0.5582011759086517,-0.72314429270249991,-0.4800383250601768,-0.11001730296295942,0.88053693709920022,0.57481534619574215,0.54396292406318847,0.1693580142079657,0.85803725144734477,-0.35357533458321139,-0.16679851066637716,-0.0013052448636410967,-0.088743668556559671,0.067207516202334089,-0.43286493301059348,-0.97552760829009466,-0.76568300033252823,0.48303772671289635,-0.61436100938094829,0.82421553871790676,0.82590020998655833,0.429319421494994,-0.021766227214488308,0.97436455589456694,0.66038187717105346,0.706357438446189,0.22075468963978565,-0.3541549403938255,-0.41954044551567193,-0.077975647094648173,-0.938132041570792,0.75586308155016191,-0.95359825480431237,-0.08484116852508912,-0.1694117156646269,0.028164015164675198,0.10582700376670202,0.24101060826378437,-0.83393985863492814,0.38535135397005421,-0.39273277083073405,0.16489398021478857,-0.53893900594624644,-0.26868282736683397,-0.71930236775395573,-0.48994904686228791,0.079274975731631267,0.76192213211298088,0.84180656533772436,0.64712030843231838,0.16051789566898619,-0.55989390498022262,-0.75880970887784371,0.51086190552956512,0.39294460853233215,-0.46100203714380134,-0.93067535754790309,0.72020822750414171,-0.11984746536232879,0.096301486760518279,0.8166950018222886,0.75120324816145156,0.76991947496771784,-0.62151165288943411,0.89159902878645758,-0.72732229844076668,-0.7534663731946919,0.68286670869349819,0.77800799057726189,0.8870815000902309,0.84797679346426236,0.73878317500407953,-0.72709379379036543,0.36765894031508778,-0.99106631287888913,0.42131129904711212,-0.69777744202771108,-0.11969339620307712,0.75265569181770819,-0.63059388037332975,-0.38405915693568959,0.67563449995388947,-0.057703778174567864,-0.26548739069396976,0.55172433403866572,-0.8222221554360456,0.22289037249185628,-0.74678276234622243,0.21433020998459784,-0.25422209094009457,0.36217077698659655,0.40348615050478193,0.27854054480723128,0.34208348781898779,-0.32926955974161137,-0.13621813903386618,0.13378674450041109,0.1493090391854332,-0.025814798672597297,-0.87657251296405336,0.20550789227965655,-0.29295959896080176,-0.33946983066362785,-0.50894432026378078,-0.30557799027561117,0.993074300695711,-0.324355929309668,0.66680921458956288,0.71282329164111213,-0.41455221987075741,0.07905761947811471,-0.15244284186160323,0.69511625761870122,-0.22168009598817681,-0.41362425145396231,-0.0894309045232045,0.940354444058777,-0.093416299714435033,-0.48386812092916487,-0.39043721202315634,-0.48654328542134878,-0.39552763029724713,-0.48238789731747839,0.87507404101783137,0.19129229392450875,-0.0188440596772563,0.63113819045533337,0.22689506701514828,-0.73350369685026984,0.46461565860762061,-0.84416436257034744,-0.72121989993435331,0.91501678848407086,-0.99537429073610073,-0.2382533886648032,-0.12336331611655807,-0.555290245243949,0.5756728870680895,0.16885413982386427,-0.59387423870799794,-0.74771814409071491,0.17349657005327593,-0.99627135135059774,-0.53750160920317358,-0.72137433743168333,-0.74272054142445354,0.77913857567083955,-0.36853172367835962,-0.486019436496319,0.40980507825026524,-0.20511511350288761,-0.56386366745636973,0.41871428602315219,-0.524797096161543,-0.23868345340652553,0.47227198233468087,0.6228232242273275,-0.96895950146436671,0.97065888623272012,0.2941912278971594,0.28693289183403037,0.654712187431153,0.44786443489038591,0.68993048169181237,-0.83332440994369072,-0.38579884655112345,0.41781589687700194,-0.28951173987682521,-0.85569937241063421,-0.45283236329109983,-0.48454646695616954,-0.88731465017763644,0.980018195221209,0.64434743376651193,0.70480006500370806,0.37172894290263248,0.81087382315233059,-0.37102050444624413,0.84427532872384192,0.55284288271928339,0.85984452062279193,-0.59595764688959241,-0.9692779374165823,0.48806682484600078,0.68047706535108254,0.56890195029270929,0.39684088732900141,-0.42112675841018871,-0.98206153697430232,0.80594501588770417,0.2118452243562067,0.17673061377216626,0.86155611503010432,0.25291526562204364,0.56490033798147943,-0.404455299211878,0.61994636972432327,0.5866518284132014,0.51226190548029815,0.39701961604739522,0.34877099485545,0.1286727050918493,0.37502845068230689,0.23950529854721636,-0.083005094473718247,0.35367738937664656,0.97195544045975224,0.35067640354422686,0.46653580361350244,-0.14384228044368433,0.15556762793826295,0.12200204381812459,-0.31577357431676872,0.17792326406479034,0.26104305044796461,-0.66645143398384166,-0.89139501791978026,-0.26225562033348515,-0.75210800615703133,-0.51436555828636776,-0.50994736212768932,-0.83067894951937671,0.60009542414922989,0.10584347560342564,0.53963433184643939,0.37474424595699846,-0.73807397426016352,0.41596767372263954,-0.83544300814878336,0.66879761715829267,0.39593604504872859,0.7021358938432,-0.52585573099826266,0.66446567683688629,-0.67956064719686315,-0.22695580321688011,0.19219807963455007,0.7098779146139873,0.74370383133352913,-0.12660882767597625,-0.38525955862610578,0.96689582009189567,0.20510246288268941,0.36207130801029097,-0.81844204050416225,-0.41895716424051538,0.52336180513881236,0.89176076086785683,-0.587600427487679,-0.84673744200111245,-0.18412892761832519,-0.9985694549971118,-0.38063221582240991,0.6135001879248303,0.46731642469173129,-0.030684382669015034,-0.27535962559066696,0.49866585782666961,-0.76607932651698563,0.29805592275134096,0.89146079909590115,-0.9191036857287882,0.67731906691441268,0.75101457617758516,0.96438471365924217,-0.2782308791197049,0.902671428817637,-0.28305004224323205,0.50122370687370366,-0.27282281558626464,-0.24725297849963093,-0.24688425392233032,-0.45718302366192592,-0.074779927299721133,0.13177428400692265,0.010892889001822514,-0.029464641134005338,-0.45510251794713669,0.44919406364168696,0.7660390337770987,-0.34935328846301572,0.91754378607382248,0.27190548799555075,-0.18336270851239689,-0.91856860505350335,-0.39491917630420958,-0.77585804684826087,-0.41784958607417044,0.70338074430049435,-0.73451021720399623,-0.80203632302677086,0.42998365379403514,0.92201281009335667,0.38671862631417747,-0.32494299268580179,0.56776774561394372,0.75749868562328571,-0.75538130977907281,0.562599022203404,0.99640018539335584,0.14956031839808465,0.40317455278857356,0.600698701385734,0.76306151820489276,-0.76378529135314066,0.53048318509500625,-0.072365996927193366,0.701779642469147,0.62175859632983743,0.61239791550319544,-0.22778248890665476,0.17037112227192666,0.91393630295709538,-0.48504292149331557,-0.43794001473017968,0.84871896861527063,0.65439782694652571,-0.19483572160584653,0.02609686554693471,-0.36806813458356452,0.9762497958616585,-0.9572512600371853,0.51870292775272531,-0.62198149581532058,0.067227207621199644,0.573752132045921,-0.10007561282258276,0.61489941953443894,0.409094690070066,0.73613393247878822,0.28330836039190571,0.39820330189457315,0.19506555851319132,-0.14399822435527956,-0.22680727216732097,0.89398500458057273,-0.58070881552095932,0.55634437806734083,0.50507489708488573,-0.35067956445304654,-0.078590187746374954,0.93962398913671452,-0.64858672565249109,-0.89083160315213339,0.27692888922846359,-0.81347582061471224,-0.043779485879363256,-0.87035316781622973,-0.15237200779485144,0.0860929070441485,-0.62537346995685872,0.10904841968279724,0.94131443507099266,0.033113256577920754,0.90746163339701558,0.18215926419112796,0.18311249612975517,-0.82153683007766343,0.81658633231026412,0.89285970800223746,0.64874436596815677,0.90360879893582724,-0.66573331116965662,-0.79806569209232259,-0.58838321947883032,-0.52483517142237868,-0.80311974967043831,0.51919113868809819,-0.040138809960400132,0.66132614000762169,-0.20178363993846982,-0.28313018208515373,-0.3254422961387049,-0.30919230883437782,0.64640428668186267,-0.40345314210441574,-0.52294511838021929,0.33038259266427838,-0.53783500871520262,0.92228476466717424,0.93384126198191253,0.05295600604869239,-0.41285706889483009,0.7167622836850408,-0.072378185145733034,-0.093982320788308191,0.13423658680833717,-0.75838502205833092,0.67027622678795651,-0.3937634156987832,-0.092487890782061918,0.46636341207957055,-0.93285176154824523,0.5663249523222097,0.041170013156333014,0.09931137138014258,-0.42932114863270948,-0.98283850959634333,0.19653637157591822,-0.92637958001642473,-0.57683150357419233,-0.379831976899799,0.64224971627921323,0.22257269417055542,0.36753922298901676,0.0016908342957919623,0.99607929214652591,0.447146344672491,-0.453982145736917,-0.63830496819610938,-0.52656424116648937,-0.77038987715281071,-0.085079078602175728,-0.035659270377671005,-0.99334142682763815,0.20271561676762795,-0.6379925700081478,0.79530802033623127,-0.96602355314699162,0.20990146613209576,-0.94545319627293067,-0.30965628163407383,-0.84553324330855772,0.654216809968565,-0.67454555988057774,0.82745593638506532,0.073668484144689739,0.70598886148351658,-0.72724254137242328,-0.37693475809736865,-0.90281345271636426,0.55342375512859954,-0.7284149875531043,0.33547028868248235,0.75483722042051948,-0.6219621787881302,0.99090335750528769,0.29937798217841333,0.72991049742787639,0.37962086423282554,-0.78946940870465221,0.33799912237469065,-0.64949100355128342,0.88463429030246765,-0.45522145156526073,0.8676129308844045,-0.62741481728265747,0.091565585737845664,-0.46613601523737236,0.38162442128249652,0.79037822400703017,0.12433868745543933,-0.77289059887309119,-0.0048281904332471036,-0.3821704193866674,-0.80735422708436577,-0.77505700512559017,0.4090940889013438,0.87202888954059632,0.24110127950138471,-0.15875376954616688,-0.37964752753248787,0.98467794153125865,0.82221775307423328,0.55236034400405376,-0.040868455563144973,0.27872604703471349,0.16885234190563314,0.032144675046272893,-0.82559805029332545,-0.20215587839584606,-0.57427374905639972,0.45068906873962333,-0.036288678662985879,-0.602243879624756,0.86339629481704738,0.177962719080021,-0.64339141391375632,0.43970030333832849,0.83757674593365594,-0.55560561295394117,0.87738221039873654,-0.15811593511985425,-0.7881660260204999,-0.24885185027907222,-0.71418541516837919,0.12933705566885745,0.31927504032816506,-0.80475237118301557,-0.046104855856907018,0.77432781633656833,-0.37732150935443187,0.7005565030037223,-0.13288377976644961,0.93408426685914592,-0.53042127449550724,0.67816768897612,-0.71606202456916779,0.57750952550094092,0.098121125762407266,0.0125548318086913,-0.96085877481887993,0.63105008035481447,-0.381863853606332,0.54091846223032025,-0.60659973258459932,0.581439907002002,0.1879462875369686,0.64794129209962736,0.11766111856217548,-0.36362394847144558,-0.26349705749354191,-0.90855123657200076,-0.67811676565470025,-0.253371617409108,-0.12635250814554863,-0.02528934088781911,0.17140225189337613,-0.65164835315740122,-0.57607476812604574,0.14780369268162347,0.87761408224590776,-0.150900505553419,-0.82316000518536192,0.67537765888281986,0.52895178484215954,-0.63839500892832646,0.59055739203028257,-0.57521029681675617,-0.25472013198524718,-0.82899507453152677,-0.95515745969263721,0.81317687212171819,-0.29100049580028303,-0.48221741033821247,-0.29145013182025875,0.094182593791830624,-0.48064469615027527,-0.492019399298364,0.34045110658763494,0.48642549779565331,-0.59063545036624909,-0.61343017854421877,0.41030123476418723,0.50136612332489627,-0.36041016520951419,-0.95933000881193675,-0.36444958828596846,-0.96919724297206722,0.18137801447016094,-0.92313094200712209,-0.542330616406319,-0.481513407771249,0.8130695697912339,-0.98902804078023321,-0.15090195096605549,0.12905605609019102,-0.83503907957814594,-0.52521529399101408,0.78510632029972338,0.14760225412789838,0.98815026832192687,-0.89191566030118408,0.47456114249050668,-0.55976686745871174,-0.470072002834674,0.087564156431501811,-0.77128885675747361,-0.11123812250384974,0.99889467004635124,0.40603077477125021,-0.5665885631770774,-0.37757895066290115,-0.053085134389384246,-0.41957111117410062,-0.50673765433334639,0.69397126310224233,-0.445394762533435,0.345493345216612,-0.53113617307093752,0.62049949104920932,0.15441168572493441,-0.68121614338886749,-0.21870396948359161,0.78901147646317793,-0.064188213117508316,-0.47585471182868572,-0.18804575278798386,0.16879532866589508,0.57615755804635471,-0.056223806951299221,-0.42000129186548352,0.94195409349256853,0.31897055279415593,0.30205932739286651,0.80728853904050246,0.63644744392319,-0.89787005395529329,-0.54171099585560667,-0.66886183371248742,0.83543806981082913,0.61001819912810729,-0.12483503954710208,-0.018593149268344579,0.399255734122943,0.018951721498254557,0.01243654965070847,0.31598065947926635,0.55349587488616625,0.59838219946174986,0.81898958227550123,-0.079542638771022967,0.87496865628052911,0.72118423307369661,0.36886672133992737,-0.90976857669175071,-0.96921045750808454,-0.0023355511959342059,0.46551326777111424,0.2459085752469993,0.95703099246929912,-0.10100693539763192,-0.56459008509506936,0.51020746515607807,-0.31070954413651936,0.87903773313343414,0.42787007076100914,-0.42062923331774271,-0.59194052945447184,0.86234525957254,-0.42792174426276319,0.058367766467094309,0.084146613294326988,0.73821059648795551,0.69102700086823987,0.0794547563788736,0.53775949568383374,0.74856100918192459,0.6174343645653847,0.64087958477478457],"Bias":0.031336733154643671,"Output":0.0,"Threshold":0.77809934121468072,"Type":"O"},{"Weight":[-0.87647441163494921,-0.714672987682127,0.91590950913536806,-0.79280010927133271,0.82034211643987431,0.36492637189334554,-0.83336829852003991,0.22399752411246185,0.36165688855650691,-0.25205789099077597,-0.27344727342643182,0.22028342924093988,-0.214708822879339,0.49956240528242774,-0.76366894448346878,0.55195410808173662,-0.63097367697906381,0.76726917771961034,0.16173567537299155,0.75998829806222967,-0.1384399114821292,