{"Input":[0.0,0.0],"Output":[0.0,0.0],"DLayers":[{"neurons":[{"Weight":[-0.024266535893206733,0.30085051539393631],"Bias":0.2135233256097526,"Output":0.0,"Threshold":0.8424591537762709,"Type":"O"},{"Weight":[0.9094815887089267,0.87339072948013929],"Bias":0.33233909976311915,"Output":0.0,"Threshold":-0.71524667586909918,"Type":"GT"},{"Weight":[0.99060367699274965,0.06764856589382913],"Bias":0.96174521928734391,"Output":0.0,"Threshold":0.67694631809226535,"Type":"GT"},{"Weight":[-0.16799944647029017,0.82399977456033224],"Bias":0.67429198076682728,"Output":0.0,"Threshold":0.2620902817054141,"Type":"GT"},{"Weight":[0.55408098388187632,-0.42770892308452579],"Bias":0.77425473638542686,"Output":0.0,"Threshold":0.10828536008870479,"Type":"GT"},{"Weight":[-0.9220507982755316,0.043449432143685143],"Bias":0.075991782395165311,"Output":0.0,"Threshold":-0.93468365582389923,"Type":"A"}],"output":null,"numNeurons":6},{"neurons":[{"Weight":[-0.10045735961778898,-0.80280118426438474,-0.62976271921292071,0.34732021780094141,-0.48155982628537336,-0.092560615433641066],"Bias":0.95317988700847134,"Output":0.0,"Threshold":0.2760157898422404,"Type":"O"},{"Weight":[-0.95620240408750368,-0.73097563196484727,-0.091425048695609468,0.88231831690404483,0.797552057913296,0.59253111043597162],"Bias":0.7355129200664875,"Output":0.0,"Threshold":-0.74329890671339771,"Type":"A"},{"Weight":[-0.34028685388168639,0.57383462114903827,0.89596809209136674,-0.92431826466895561,0.0803887052835844,0.2926949101000535],"Bias":0.73446130041706437,"Output":0.0,"Threshold":0.25163712876459449,"Type":"GT"},{"Weight":[0.39605812514017247,0.11978937830766169,-0.51695232070840536,0.31526958258602283,-0.47674932958406829,0.25046629237498452],"Bias":0.88337193237774625,"Output":0.0,"Threshold":0.71382333185236124,"Type":"A"},{"Weight":[-0.14546870447018589,0.67817252533425232,0.70218116869320213,-0.31538082301401571,0.24140284594213723,0.20714904750098895],"Bias":0.92383601885467581,"Output":0.0,"Threshold":-0.15281745193191684,"Type":"GT"},{"Weight":[-0.85369818092030392,-0.23743876080840767,-0.623509528405736,-0.35608243679445351,0.95963437015173692,0.42627330563323262],"Bias":0.61870368272937071,"Output":0.0,"Threshold":-0.11712463764339902,"Type":"O"},{"Weight":[0.73059297154219494,0.58403216050194207,-0.57346460343034222,0.39101715031592976,-0.25188087823422667,0.52755969927066926],"Bias":0.98902612039308346,"Output":0.0,"Threshold":0.79165649963154294,"Type":"O"},{"Weight":[0.97419557952051772,-0.95349544610525272,0.47638457104395354,0.1147513911662397,0.86344342113632866,-0.71864156411897462],"Bias":0.31809536615297912,"Output":0.0,"Threshold":-0.44068046260656812,"Type":"A"}],"output":null,"numNeurons":8}],"OLayer":{"neurons":[{"Weight":[0.39967029280945204,0.87299032456846459,0.653701448651823,0.64679843915942981,0.40046337498373508,0.45901735707140406,0.67286873453895968,0.628672274587989],"Bias":0.25861892954382065,"Output":0.0,"Threshold":-0.72981777867759479,"Type":"OT"},{"Weight":[0.53561544722673271,0.14690826095031029,0.28904208088714728,0.66268894386602983,0.68923723450360685,0.765593540745598,0.82492953949837455,0.75856680737741611],"Bias":0.40899942554952551,"Output":0.0,"Threshold":0.14844244632331768,"Type":"OT"}],"output":null,"numNeurons":2},"NumLayers":2,"Breedibility":0.59068838348178587,"Mutibility":7.5514658622217663,"Repetition":0}
