{"Input":[0.0,0.0],"Output":[0.0,0.0,0.0,0.0,0.0,0.0,0.0,0.0,0.0,0.0,0.0],"DLayers":[{"neurons":[{"Weight":[-0.39744639880836319,-0.11679863702356752],"Bias":0.893576236392174,"Output":0.0,"Threshold":-1.2365892544559154,"Type":"A"},{"Weight":[-1.6907785042146122,-0.57644127598099471],"Bias":0.19329353326153642,"Output":0.0,"Threshold":-1.1766514345894807,"Type":"O"},{"Weight":[-0.26612072357261585,-0.02350586560718057],"Bias":0.01528094663064971,"Output":0.0,"Threshold":0.45774035642749666,"Type":"A"},{"Weight":[0.39276864165103464,0.77971067129620852],"Bias":0.4587461005238565,"Output":0.0,"Threshold":0.80915369247512592,"Type":"A"},{"Weight":[-0.62573177815681869,0.137075810291374],"Bias":0.45096969392661457,"Output":0.0,"Threshold":0.82684523697329926,"Type":"GT"},{"Weight":[-0.15989302507829531,-0.503075660324225],"Bias":0.53731757427440852,"Output":0.0,"Threshold":0.16093569349541129,"Type":"A"},{"Weight":[-0.011598983784950796,-0.43298572787688383],"Bias":0.32960842052922046,"Output":0.0,"Threshold":-0.50502663408640147,"Type":"GT"},{"Weight":[0.44115727330961141,0.2177490695462323],"Bias":0.72630337484940111,"Output":0.0,"Threshold":0.0021121671898812859,"Type":"GT"},{"Weight":[0.55179080861354746,-1.6295840645346718],"Bias":0.43203487602040869,"Output":0.0,"Threshold":1.0866418457993503,"Type":"A"},{"Weight":[-1.6722008547150533,-0.47721530146767166],"Bias":0.81242983081025533,"Output":0.0,"Threshold":-0.79792963331468847,"Type":"A"},{"Weight":[0.11418585298312169,-0.11679863702356752],"Bias":0.893576236392174,"Output":0.0,"Threshold":-0.5248723330557683,"Type":"O"}],"output":null,"numNeurons":11},{"neurons":[{"Weight":[0.45936927732982175,-0.0851928944863346,0.65244997043742337,0.33923118600586016,0.99243437451889471,-0.1128034093942509,0.91735345074783714,-0.689068967448114,-1.2858274128687697,0.062581433478082316,0.16949360336619129],"Bias":0.2353598569684475,"Output":0.0,"Threshold":1.8605974185562682,"Type":"A"},{"Weight":[-0.84993216295257779,-0.78002951493488126,-0.70589469452663078,-0.025734219712081466,0.52282527439427806,0.57591467330973345,0.54620244332878032,-0.1609493373711357,1.7799442297685633,0.81083758771924186,-0.48437785135320288],"Bias":0.59479775400590051,"Output":0.0,"Threshold":0.22140157326189858,"Type":"A"}],"output":null,"numNeurons":2},{"neurons":[{"Weight":[1.1772993394067972,-0.90024831793282567],"Bias":0.83361992360261272,"Output":0.0,"Threshold":-0.68982758963938229,"Type":"O"},{"Weight":[0.48097211144909824,0.31430328931394186],"Bias":0.023740356333432886,"Output":0.0,"Threshold":-0.52010587953035992,"Type":"A"},{"Weight":[0.054905534281817048,-0.3262375236145395],"Bias":0.01528094663064971,"Output":0.0,"Threshold":0.3232329982906732,"Type":"A"},{"Weight":[1.6249126976471917,0.076544922812164268],"Bias":0.47113144466240492,"Output":0.0,"Threshold":0.014005472657273255,"Type":"GT"},{"Weight":[-0.35087924513541124,-0.90024831793282567],"Bias":0.40566406045372788,"Output":0.0,"Threshold":-1.5009583381474756,"Type":"A"}],"output":null,"numNeurons":5},{"neurons":[{"Weight":[-0.77187563235493184,0.48899787826882579,0.71340994814569592,-1.8376815560449296,0.85428108116811186],"Bias":0.23517027228845761,"Output":0.0,"Threshold":1.0152945811931486,"Type":"O"},{"Weight":[-0.1432782738205409,-0.5136352053441271,-0.17533754844932692,-0.963899947220413,-0.42475402281840985],"Bias":0.803620467802333,"Output":0.0,"Threshold":0.985168503124811,"Type":"GT"},{"Weight":[0.4688052427227633,-0.71684307312445861,-0.747834384323952,0.695027875106329,-0.70146406340713807],"Bias":0.22204676699919942,"Output":0.0,"Threshold":0.745568701413259,"Type":"O"}],"output":null,"numNeurons":3},{"neurons":[{"Weight":[0.14232135105054888,-0.6440724142101,0.33201151845604715],"Bias":0.59989896886977323,"Output":0.0,"Threshold":-0.72178893663072441,"Type":"A"},{"Weight":[-0.14630162489893922,0.31430328931394186,-0.051011303929151652],"Bias":0.22695427864182474,"Output":0.0,"Threshold":-0.51582910423904149,"Type":"A"},{"Weight":[-0.48558740235659636,-0.45983184662639714,-0.26612072357261585],"Bias":0.5969545639105861,"Output":0.0,"Threshold":1.0822688523131743,"Type":"A"}],"output":null,"numNeurons":3},{"neurons":[{"Weight":[-0.13254027237768298,-0.11679863702356752,0.11418585298312169],"Bias":0.91131490162169326,"Output":0.0,"Threshold":0.16244141392523492,"Type":"A"},{"Weight":[-1.4087704082060468,-0.69456905857406981,-1.8133701941992018],"Bias":0.003321354278978591,"Output":0.0,"Threshold":-0.88964894734772337,"Type":"O"},{"Weight":[-0.2381474678931513,0.313697871432499,-0.26612072357261585],"Bias":0.22906918764536696,"Output":0.0,"Threshold":0.99116640584132,"Type":"A"},{"Weight":[0.39276864165103464,0.63502104831161965,-0.039874122962297004],"Bias":0.51375263464346188,"Output":0.0,"Threshold":-0.59801732427348253,"Type":"GT"},{"Weight":[-0.3681266683820294,0.26607684943176657,0.17811874378384965],"Bias":0.45096969392661457,"Output":0.0,"Threshold":-0.1344367056779735,"Type":"GT"},{"Weight":[-0.87255653220813556,-0.71398452423232817,-0.87255653220813556],"Bias":0.23436710901296098,"Output":0.0,"Threshold":0.44131962323622753,"Type":"A"},{"Weight":[0.3751410291880094,-0.08900843634689623,-0.88591233682162707],"Bias":0.602098183753946,"Output":0.0,"Threshold":-0.044694346163745208,"Type":"GT"},{"Weight":[-1.4431368761896795,0.329801792199631,0.36164739104530191],"Bias":0.077311371489107314,"Output":0.0,"Threshold":-0.21816925208231866,"Type":"GT"},{"Weight":[0.088872611913305033,-0.052356008100838416,0.93044878958279675],"Bias":0.12895482691421864,"Output":0.0,"Threshold":-0.34342955534506103,"Type":"O"},{"Weight":[-0.19163469466922559,-0.46159857695996692,1.9424524344235903],"Bias":0.47573582710499679,"Output":0.0,"Threshold":-0.0047045187115224629,"Type":"A"}],"output":null,"numNeurons":10},{"neurons":[{"Weight":[-0.3375448956329119,-0.63642908010465515,0.99120562476627794,0.0074936948693327746,0.38260400272328587,-0.1128034093942509,0.052838831640704909,0.6919207976627727,0.31885429114049968,-0.6264484904829638],"Bias":0.21520303036794206,"Output":0.0,"Threshold":-1.2149353358964135,"Type":"A"},{"Weight":[-0.85777243359841981,-0.11741891555367919,-0.70589469452663078,-0.11825231235392966,-0.033411536148475252,0.48171729820627596,-0.7838590772747337,0.73790416784486923,-0.61384537006441753,-0.13687052537541394],"Bias":0.59479775400590051,"Output":0.0,"Threshold":-0.57782504967312565,"Type":"A"}],"output":null,"numNeurons":2},{"neurons":[{"Weight":[0.12015720229603216,-0.90024831793282567],"Bias":0.89619990293690921,"Output":0.0,"Threshold":0.78332114535538544,"Type":"O"},{"Weight":[1.3086400121956321,-0.44235097160206688],"Bias":0.003321354278978591,"Output":0.0,"Threshold":-0.88964894734772337,"Type":"O"},{"Weight":[0.70119415256250373,-0.046464291917609181],"Bias":0.2277608566115428,"Output":0.0,"Threshold":0.99116640584132,"Type":"A"},{"Weight":[0.49666582804483644,0.10844468295501761],"Bias":0.87482471292597452,"Output":0.0,"Threshold":-1.0412171199178402,"Type":"GT"},{"Weight":[-0.068063130401104274,0.48226286563196352],"Bias":0.40566406045372788,"Output":0.0,"Threshold":-1.5009583381474756,"Type":"A"}],"output":null,"numNeurons":5},{"neurons":[{"Weight":[-0.14686758357419985,-0.59816626463931344,0.65835862358024277,-1.4722017103211031,0.15048907995246771],"Bias":0.990038443817775,"Output":0.0,"Threshold":-0.349547569220675,"Type":"GT"},{"Weight":[-0.872365096990189,-0.52183227259518217,0.87358818057625953,0.40960787535161147,0.527542351990725],"Bias":0.53174448090453841,"Output":0.0,"Threshold":1.6693523822675238,"Type":"A"},{"Weight":[0.397660819067462,-0.5257570329242186,-0.50697755394828392,0.86862388223811227,0.53461084155580529],"Bias":0.29552827154776468,"Output":0.0,"Threshold":0.0050760451727900752,"Type":"O"}],"output":null,"numNeurons":3},{"neurons":[{"Weight":[-0.016442842090708593,-0.90024831793282567,0.70119415256250373],"Bias":0.18022041729661656,"Output":0.0,"Threshold":-0.38357065868730222,"Type":"O"},{"Weight":[-0.872365096990189,-1.6543733699500436,-0.70589469452663078],"Bias":0.59479775400590051,"Output":0.0,"Threshold":-0.57782504967312565,"Type":"A"},{"Weight":[0.70119415256250373,0.47693306881791608,0.36452008987056095],"Bias":0.18022041729661656,"Output":0.0,"Threshold":0.099277557851410167,"Type":"A"},{"Weight":[0.87564103625511813,-1.9644948281182417,0.33201151845604715],"Bias":0.5355152067660891,"Output":0.0,"Threshold":-0.39239372051898092,"Type":"GT"},{"Weight":[-0.24859043501717523,-0.78376003856945786,-0.35087924513541124],"Bias":0.40566406045372788,"Output":0.0,"Threshold":-1.2557452234931967,"Type":"A"},{"Weight":[-0.35288686027768384,-0.427460579400631,1.068853059990263],"Bias":0.59479775400590051,"Output":0.0,"Threshold":-0.27456728841623629,"Type":"A"}],"output":null,"numNeurons":6}],"OLayer":{"neurons":[{"Weight":[0.0353208366014626,0.22639861247800225,0.29486105162411042,0.22639861247800225,0.13085972453973244,0.55440126664675826],"Bias":0.76236477203777286,"Output":0.0,"Threshold":1.3091840051622987,"Type":"OT"},{"Weight":[1.5600737722404645,0.79923021690884144,0.26585453900781209,0.96873663504083485,0.49190428526695085,0.79923021690884144],"Bias":0.36966263333785471,"Output":0.36966263333785471,"Threshold":0.70631539575118341,"Type":"OT"},{"Weight":[0.49424459901370321,0.11594272410308137,0.5657635135882364,1.4501376838656785,0.49424459901370321,0.84027964893741514],"Bias":0.049970288318568042,"Output":0.049970288318568042,"Threshold":-0.61785723577153751,"Type":"OT"},{"Weight":[-0.12815444270528587,0.015060420155087684,0.251088761841454,0.49769808599268928,0.26934240177243129,1.2851451785700139],"Bias":0.66993234989695827,"Output":0.0,"Threshold":0.50547691551292173,"Type":"OT"},{"Weight":[0.69324077837785747,0.33331916263947226,0.21367176213007036,0.51327997050866481,0.46394971733165424,-0.7923485798725618],"Bias":0.968004926442171,"Output":0.968004926442171,"Threshold":0.0,"Type":"OT"},{"Weight":[0.52700089361844626,0.2753363807105163,-1.1742108218251777,0.45924747075617661,-1.4408157074082717,0.60990533656901924],"Bias":0.91580239306939881,"Output":0.91580239306939881,"Threshold":0.4446580104737814,"Type":"OT"},{"Weight":[0.54125590187788752,0.39592501004036751,0.61608148627732018,0.7149575241911027,0.61608148627732018,0.25177971611347966],"Bias":0.37869110441705728,"Output":0.37869110441705728,"Threshold":0.85326445608086177,"Type":"OT"},{"Weight":[0.89882692829651145,0.64208674158066825,0.44948078573191574,0.74770072230496476,0.62519815569985571,-1.3862217680486952],"Bias":0.17407285569891,"Output":0.0,"Threshold":0.0,"Type":"OT"},{"Weight":[0.33275496556086231,1.1268404638985361,0.2919509461112092,0.22848440321557428,0.38603570679483734,0.73539877251507679],"Bias":0.12998523662331757,"Output":0.12998523662331757,"Threshold":-0.044597451130206411,"Type":"OT"},{"Weight":[0.11077530314716291,0.57340937926127078,0.11077530314716291,0.57340937926127078,0.11077530314716291,0.57340937926127078],"Bias":5.9836078463045917E-05,"Output":5.9836078463045917E-05,"Threshold":-1.8201843126770967,"Type":"OT"},{"Weight":[1.414779724280713,1.254947492505865,1.414779724280713,1.4225707181834482,1.414779724280713,0.518417372609683],"Bias":0.013508709619524289,"Output":0.0,"Threshold":0.49919327581263762,"Type":"OT"}],"output":null,"numNeurons":11},"NumLayers":10,"Breedibility":0.89286928060132509,"Mutibility":3.7574630165943939,"Repetition":0}
