{"Input":[0.0,0.0],"Output":[0.0,0.0],"DLayers":[{"neurons":[{"Weight":[0.77665711602971754,-0.56222785104169881],"Bias":0.92506807713074057,"Output":0.0,"Threshold":0.1890570065886979,"Type":"O"},{"Weight":[0.4355967964211464,0.49048567213606353],"Bias":0.51416462683778474,"Output":0.0,"Threshold":0.84155320834440794,"Type":"GT"},{"Weight":[-0.78375264619651841,0.13633432897568415],"Bias":0.92435265701466829,"Output":0.0,"Threshold":0.809599083293974,"Type":"O"}],"output":null,"numNeurons":3},{"neurons":[{"Weight":[-0.5528275242786983,0.83834229262468507,0.21231314875758867],"Bias":0.0085521875920482847,"Output":0.0,"Threshold":-0.40007807658988892,"Type":"GT"},{"Weight":[-0.83777973327682342,-0.7959533872995308,-0.61000202484894639],"Bias":0.48814854933328394,"Output":0.0,"Threshold":0.21250041118473764,"Type":"O"},{"Weight":[-0.47746773365767103,0.27231860220074589,-0.94343691363159421],"Bias":0.081975018643762457,"Output":0.0,"Threshold":-0.56439751366358137,"Type":"O"},{"Weight":[-0.96705803273574353,-0.31884226497208806,0.37224055285204227],"Bias":0.75558926945346838,"Output":0.0,"Threshold":-0.29739599828487073,"Type":"O"}],"output":null,"numNeurons":4},{"neurons":[{"Weight":[-0.27779687860878038,-0.30680226455759363,0.22031215355746084,0.021545297476251283],"Bias":0.38063056784711341,"Output":0.0,"Threshold":0.43620410768138435,"Type":"O"},{"Weight":[-0.905549675647891,-0.19235352901385797,0.049561876361054309,0.94508700070208262],"Bias":0.44415467392846691,"Output":0.0,"Threshold":0.069011437738785264,"Type":"GT"},{"Weight":[-0.57476071760745751,0.50113134016335537,0.88413792005001468,0.19075255104841318],"Bias":0.97374240773438592,"Output":0.0,"Threshold":-0.85590242587770449,"Type":"O"},{"Weight":[0.96551633764315226,-0.7231247600741334,-0.060429721167511177,0.9504360710039903],"Bias":0.36995936062650725,"Output":0.0,"Threshold":-0.30158109744153039,"Type":"GT"},{"Weight":[0.17988702383818431,0.70602739309241414,0.27819664696147511,-0.03777881061554831],"Bias":0.66744749884467924,"Output":0.0,"Threshold":0.73910935350652285,"Type":"GT"},{"Weight":[-0.48666791873363213,0.642194384076723,0.24545155663297119,-0.98769551049344961],"Bias":0.24997174425514962,"Output":0.0,"Threshold":-0.21344573433205752,"Type":"A"},{"Weight":[0.99982398189596089,-0.71945553446163213,0.11857536673479498,-0.19773355042456348],"Bias":0.65601546347887041,"Output":0.0,"Threshold":-0.6559518923312202,"Type":"O"},{"Weight":[0.020670133652477586,0.71102011655970487,0.81812361526215616,-0.3114602958371212],"Bias":0.10181158226999063,"Output":0.0,"Threshold":0.5721206593197401,"Type":"O"},{"Weight":[-0.39587082546012048,0.73682406020202862,-0.31388558694808072,0.5952077035769856],"Bias":0.30963184326404325,"Output":0.0,"Threshold":0.31438115719444171,"Type":"GT"},{"Weight":[0.27825792845257463,0.090210074135200158,-0.54137580308195943,0.49498863727552289],"Bias":0.89952261787817,"Output":0.0,"Threshold":0.29304626923661969,"Type":"O"},{"Weight":[-0.89686179202835159,-0.23152363450803032,0.90198543849493629,-0.28983465362798172],"Bias":0.87290114111867789,"Output":0.0,"Threshold":-0.029616259052239479,"Type":"O"},{"Weight":[-0.99501902470133219,-0.95929403321784645,0.060744188754234554,0.039516271576060108],"Bias":0.041682020314821051,"Output":0.0,"Threshold":0.098483581141793911,"Type":"GT"},{"Weight":[-0.90067534004369532,0.68503118105467,0.077132022044217222,-0.7903166575312226],"Bias":0.66324012245202446,"Output":0.0,"Threshold":0.10767779830269413,"Type":"A"}],"output":null,"numNeurons":13},{"neurons":[{"Weight":[-0.33612137350073146,-0.31068086545480456,0.14691995184259488,0.24864166940033514,0.26813773730217372,-0.10571970469584675,0.20261851335066303,-0.39489607950434835,0.92697393099170822,-0.79837821088655769,-0.045089365469799081,-0.52612955659913341,-0.47094750938515528],"Bias":0.91085819709620353,"Output":0.0,"Threshold":0.23929960152101684,"Type":"A"},{"Weight":[0.88734122639863811,-0.65707501194303619,-0.724622815253503,0.72883540612125552,-0.89476206847222617,0.44912934696726936,-0.6325376027415216,-0.57931147635882319,-0.87451350869355426,0.39542057802687425,0.73626619146031613,0.066837449123541573,0.087032339576181186],"Bias":0.538326294412057,"Output":0.0,"Threshold":0.99676106870023584,"Type":"A"},{"Weight":[-0.82877719720302956,-0.71407662458441989,0.053244162841348051,-0.66655539286628152,0.045349022394674372,-0.52469459153930409,-0.69270217311228721,-0.86476620233839663,-0.72587338729103723,0.73460832039574553,0.47605779183844932,-0.84387902349414257,-0.42256602292068585],"Bias":0.50360298925247182,"Output":0.0,"Threshold":-0.668751539973892,"Type":"GT"},{"Weight":[0.90184439295057417,-0.12814347871027118,-0.53007098963953136,0.85088693716138919,-0.38202632981446866,0.82870134656722716,-0.1467220839796225,-0.32459996702363714,0.82751138360589338,0.12355726963074751,-0.25183699617713551,0.26215274830449037,-0.320290859472142],"Bias":0.1654630443851757,"Output":0.0,"Threshold":0.655977100439359,"Type":"GT"},{"Weight":[0.031676277067361529,-0.96915401516908506,0.052880999191143085,0.11708797938986122,-0.90945903440446552,-0.62923886656260064,0.70883273412884806,0.14698942338441937,-0.57206500674228422,0.73349955712142378,0.539616286074564,-0.5451942703431446,-0.49507543560819489],"Bias":0.46992158911652937,"Output":0.0,"Threshold":0.55023525448061306,"Type":"GT"}],"output":null,"numNeurons":5},{"neurons":[{"Weight":[0.19490983672203022,-0.695909836653578,0.83089749367483778,-0.84828549337027848,-0.53197971290535284],"Bias":0.233222627655241,"Output":0.0,"Threshold":0.71784839067507922,"Type":"A"},{"Weight":[0.049195688706448158,-0.57157663794773472,0.67637648185546351,0.76227920677619021,-0.75520821043998387],"Bias":0.15538071289443445,"Output":0.0,"Threshold":0.45260958254924488,"Type":"GT"},{"Weight":[-0.59850383670930929,0.56685272490924821,-0.48937815124605694,-0.43432902984057042,0.012922897475270041],"Bias":0.31609192970958161,"Output":0.0,"Threshold":0.78092497856399279,"Type":"GT"},{"Weight":[0.201519844216071,-0.306393658419323,-0.84661592396284269,0.4458797469017467,-0.89834495116879465],"Bias":0.10174607583402939,"Output":0.0,"Threshold":0.88215578341956991,"Type":"A"},{"Weight":[0.081284369379880081,-0.856975220077194,-0.36014492733410791,-0.78931034998470473,-0.80709402906107441],"Bias":0.22847023942902231,"Output":0.0,"Threshold":0.54792365783263164,"Type":"A"},{"Weight":[0.72571159886462222,0.11482687113565712,0.814145586366833,-0.72095769910186425,0.84010654866700363],"Bias":0.60599365858640231,"Output":0.0,"Threshold":-0.014202597557661402,"Type":"GT"},{"Weight":[-0.42435371383296033,0.71442012242713016,-0.638609660621085,-0.28486435827094331,0.82124495730793334],"Bias":0.42078005122988488,"Output":0.0,"Threshold":-0.67885517500287629,"Type":"GT"}],"output":null,"numNeurons":7},{"neurons":[{"Weight":[0.88933722902524159,0.29869226613021094,0.762832785846122,-0.00498849060618714,-0.2062945725425587,0.76513547206536658,0.88366069453007579],"Bias":0.86004168068060727,"Output":0.0,"Threshold":-0.7722942525391906,"Type":"GT"},{"Weight":[0.90654917941733693,0.3595577577872005,0.62124787160253514,-0.38144190301254483,-0.26219833095660355,-0.17702285255166836,0.1352904113639567],"Bias":0.72871890278939111,"Output":0.0,"Threshold":0.44713316832069921,"Type":"GT"},{"Weight":[-0.30730139245619131,0.59464862225328041,-0.41936522322677316,0.50812554988457148,0.87347418855571846,0.40120366374086758,-0.96120327662732608],"Bias":0.07483772145343838,"Output":0.0,"Threshold":-0.99141224473314926,"Type":"A"},{"Weight":[-0.39093274874190465,-0.30872906246629034,-0.56386133169935149,0.72783273632071577,0.82746672994804882,-0.93271978568878011,-0.82275569151283967],"Bias":0.75853376125848559,"Output":0.0,"Threshold":-0.79308507535284622,"Type":"A"},{"Weight":[-0.092794308016446558,0.36556211084386431,-0.19451075708237978,0.03583980865582815,0.99697893904381385,-0.1109082266273481,-0.39983373060814742],"Bias":0.20134013341802179,"Output":0.0,"Threshold":-0.52140744054755539,"Type":"A"},{"Weight":[0.75822754286147076,-0.50503803114641366,-0.16489736696933274,0.61557995882610783,0.60649238508497,0.787666450621405,-0.99567642574928539],"Bias":0.70051690596179894,"Output":0.0,"Threshold":0.797794754522757,"Type":"GT"},{"Weight":[-0.84174935139797136,-0.9921901649759105,0.3535384602628362,-0.36767124401762674,0.82196876072416492,0.33178938987282541,-0.042945083716393023],"Bias":0.38032710663058195,"Output":0.0,"Threshold":-0.99446536367501381,"Type":"A"},{"Weight":[0.77200493578426765,0.84892170915795573,-0.30093111018693591,-0.47554331574381481,-0.98335331025689532,0.51231171819954724,0.31099618054507122],"Bias":0.24526022991410468,"Output":0.0,"Threshold":0.8956490880323803,"Type":"O"},{"Weight":[0.77187823260756128,0.56438466327469083,0.86232719517421308,0.66451947515109533,0.44471303953077318,-0.58624388770491065,-0.58434903090090906],"Bias":0.13326066878310436,"Output":0.0,"Threshold":-0.15344716941632663,"Type":"O"},{"Weight":[0.45676933622768584,0.17349056954192491,0.75115004589369061,-0.809488260564156,0.7075328741723359,0.50495746289610743,-0.54358138914386811],"Bias":0.62169016181570025,"Output":0.0,"Threshold":-0.79854836678064822,"Type":"A"},{"Weight":[-0.98268507327078147,0.0004686736503935762,0.21455439981750885,0.97329528814800792,-0.82040694952961379,0.44795377061141367,-0.80952935656976388],"Bias":0.57624915734690108,"Output":0.0,"Threshold":-0.20943816202200863,"Type":"O"},{"Weight":[-0.40828817030800885,0.78038413533027473,0.90270819976120642,0.2375199004251137,0.29466885248882174,-0.27406937688312932,0.86462803784042042],"Bias":0.77862393100681893,"Output":0.0,"Threshold":-0.62993731751569426,"Type":"GT"},{"Weight":[0.03535339424170246,0.74812107661185834,-0.60088654914912143,-0.1264806734986979,-0.88741467189389034,-0.069649378801532727,-0.15350125644053392],"Bias":0.70841624387931834,"Output":0.0,"Threshold":-0.90470754909548323,"Type":"GT"},{"Weight":[-0.72293921593713539,-0.15710027569769894,-0.66634903413539237,-0.20663594231318494,-0.38382317283368816,0.63240707276035435,-0.73247672511845674],"Bias":0.98678691498319937,"Output":0.0,"Threshold":-0.61026781406731712,"Type":"A"},{"Weight":[0.96886153610835857,0.5968098461613105,0.49101636674768123,-0.63954408077501879,0.71569136097826591,0.56146136930280433,0.73053164814157956],"Bias":0.39554046764762163,"Output":0.0,"Threshold":0.75373319524979832,"Type":"GT"},{"Weight":[0.808881067581885,-0.88655136753178732,-0.46554983242673326,0.7094343233431849,-0.680046077203027,0.46395549292860344,0.36062153678416348],"Bias":0.16005845934155324,"Output":0.0,"Threshold":0.82243689374180362,"Type":"GT"}],"output":null,"numNeurons":16},{"neurons":[{"Weight":[0.035812576783733709,0.56684522589987385,0.62526135175733888,0.25937554159172604,0.4438970230724183,-0.67248658401541717,-0.97874352986865842,0.18121285186205657,0.61224129452008813,-0.64995411953421034,0.25425595941685886,0.74599475075769928,0.41428251537228122,0.82563402123080287,0.018227926929587464,-0.90809475439977583],"Bias":0.741382666743073,"Output":0.0,"Threshold":0.3256523056540882,"Type":"O"},{"Weight":[0.2420358416820112,0.26129001577444844,0.20617429083500724,-0.26553730027076661,0.007559493187609824,0.485211963059945,0.17940868492210688,0.54781716482146514,-0.28589189345291438,-0.17382493017885131,0.12817691551902188,-0.41968332483418441,0.88788827782864133,0.678643366172278,0.74283265496736051,0.52522997210045808],"Bias":0.40140841268068572,"Output":0.0,"Threshold":0.24981045501763488,"Type":"GT"},{"Weight":[-0.738137966831279,0.064378272306350182,0.71215501553945015,-0.9026494794071882,-0.091920226389505075,-0.40723017901518854,-0.23205052559825151,-0.738182582304898,0.15182737547523686,0.80322548132539984,-0.308194308219568,0.71749683968606259,0.96703922747030813,-0.35126155165548506,0.43341895445874845,0.21605498959126648],"Bias":0.18249579108436395,"Output":0.0,"Threshold":-0.66345350335512943,"Type":"GT"},{"Weight":[0.31922696545684104,-0.34596524543406687,0.7539867738978876,0.95620893591838374,-0.26550649863924203,0.43197880705445019,-0.91022952595270679,0.50126384873933338,0.44658497369223504,0.57616935324676766,0.32707216233344383,-0.64153413830396444,0.30063899247936859,-0.022214634354326239,-0.99211562936758424,0.093885439957438713],"Bias":0.00021489895890229333,"Output":0.0,"Threshold":-0.49685969087149,"Type":"A"},{"Weight":[-0.4671000183872413,-0.8314128144790478,-0.25695191754817587,0.26793111454133461,0.16952916056361475,-0.44891785897729819,0.33085689010604141,-0.48301325621223695,0.087284150108361686,0.91425072909996408,-0.92371742610061425,-0.17563737890479964,0.94183510166678353,0.6876020295022065,0.30837669517303662,-0.65753191274475864],"Bias":0.12890207959753558,"Output":0.0,"Threshold":-0.91468803766867524,"Type":"O"},{"Weight":[-0.14253850194743764,-0.26802519581654349,-0.26300954458443893,0.94111788735777047,0.094584235499885039,-0.92894259743808894,0.9946186928984796,-0.48131287213476043,-0.58260896177152588,-0.662858384970044,0.15131173103643197,0.40230947053167476,-0.3501771513140654,-0.25640039716679619,-0.035982827207065575,-0.13706433174063654],"Bias":0.50646871025975271,"Output":0.0,"Threshold":-0.36337739246123346,"Type":"A"},{"Weight":[0.29186863512353445,0.52527676174662852,0.29420031015491127,-0.1159004439208193,-0.76746685093616451,-0.79325585663004583,-0.38206891267656762,0.830760873309691,0.25182965269863122,0.96832413271457152,0.82971531051663461,0.93911583020310652,0.82035664879733539,-0.57114142532047885,0.61918389127551754,0.85793507837594263],"Bias":0.81933499258911935,"Output":0.0,"Threshold":-0.6260535030747082,"Type":"GT"},{"Weight":[0.72498739544534474,0.93758151071964835,-0.50502769113752422,-0.79307561823775785,0.6868007083827633,0.92407846307571906,-0.20478715058639047,0.16433919973873495,0.395053259746662,0.025544058543417632,0.68584191737968558,0.026603731339147188,-0.99737170105677642,-0.56640298737511174,-0.46526316249056865,0.603700737284357],"Bias":0.068758411830644309,"Output":0.0,"Threshold":-0.87310965912095717,"Type":"GT"},{"Weight":[-0.95187979887792828,0.016582675751569995,0.91440710840486317,0.096152271188866476,0.71089204852976462,-0.85424906101741316,-0.34843454526198775,-0.23618804069058413,0.60050944453129051,0.27180929680904808,-0.78929427349441417,-0.58542690360240024,0.65031960450593362,0.56171574795698553,-0.22966393000896271,-0.750013570650487],"Bias":0.10477588237485656,"Output":0.0,"Threshold":0.72840755187366513,"Type":"O"},{"Weight":[-0.5278129300697767,0.66997880007605015,-0.64617151098613235,-0.94833775001966292,-0.20261517129960244,-0.90625856067345412,-0.92582651550221562,0.15550596507056894,-0.6013003623119092,0.64663737437065572,0.80009862445299451,-0.96267311412965562,0.35042117179856691,0.75732805149505289,0.0023558721888604908,0.2559815995655868],"Bias":0.57580007592951887,"Output":0.0,"Threshold":0.22666030899931691,"Type":"A"},{"Weight":[-0.89408772433832651,0.33649210228421356,-0.33001396215055789,-0.2455482875209061,-0.63212395162886192,0.598959636687748,-0.012557088403290645,0.73037712915352415,0.081770177503009411,0.20942910723827271,-0.44987822577817282,-0.42328382582556634,-0.28228369834007866,0.24264638602856845,-0.94966390586908156,0.64853540884728333],"Bias":0.58163489381858846,"Output":0.0,"Threshold":0.96754786044710683,"Type":"A"}],"output":null,"numNeurons":11}],"OLayer":{"neurons":[{"Weight":[0.23033651580584072,0.7518854470699492,0.61932222248023483,0.94582129081050925,0.096418811518893949,0.11691262252485037,0.37355983181556679,0.85590475790943243,0.11638369696046398,0.78547211167657383,0.30202658674774069],"Bias":0.48437746962736244,"Output":0.0,"Threshold":0.46739882531920396,"Type":"OT"},{"Weight":[0.54383118056870583,0.15154206154474154,0.79506536889591506,0.52866946977035578,0.875265385897488,0.96506293628600559,0.33830098683866716,0.21186411995993187,0.65935972782753394,0.59607052644531733,0.16868293526055428],"Bias":0.85233341243692362,"Output":0.0,"Threshold":0.62747127498847954,"Type":"OT"}],"output":null,"numNeurons":2},"NumLayers":7,"Breedibility":0.064334847994304653,"Mutibility":6.8193500474185456,"Repetition":0}
