{"Input":[0.0,0.0],"Output":[0.0,0.0],"DLayers":[{"neurons":[{"Weight":[-0.92952709967714131,-0.16610668514208249],"Bias":0.93296934381731289,"Output":0.0,"Threshold":-0.59729828107976279,"Type":"O"},{"Weight":[0.24404994176889303,-0.59884705422392448],"Bias":0.086798315908200252,"Output":0.0,"Threshold":0.81314113960282,"Type":"O"},{"Weight":[-0.48354467120186645,0.66141842708988974],"Bias":0.59112908951525067,"Output":0.0,"Threshold":-0.42935299567382457,"Type":"A"},{"Weight":[0.16240441154800561,-0.99846877017918456],"Bias":0.49895085883277973,"Output":0.0,"Threshold":0.58813389744057032,"Type":"GT"},{"Weight":[-0.1656827019367752,-0.63041656959355652],"Bias":0.7438815192989453,"Output":0.0,"Threshold":-0.030921474113558174,"Type":"A"},{"Weight":[0.56765596036224442,-0.14841839305517188],"Bias":0.20475161737052333,"Output":0.0,"Threshold":0.52460188862150625,"Type":"O"},{"Weight":[-0.85641348494981118,0.75847227208245183],"Bias":0.34943257893874896,"Output":0.0,"Threshold":0.53873051634930569,"Type":"GT"}],"output":null,"numNeurons":7},{"neurons":[{"Weight":[-0.25474629888997707,0.34624886109784658,0.8692455104874659,-0.65591604432832262,-0.33426646484726408,-0.77725601511879638,0.40840538377333685],"Bias":0.45262319708830828,"Output":0.0,"Threshold":-0.00687726447678975,"Type":"GT"},{"Weight":[-0.79299306207941522,0.8793318927657473,0.63780252292649942,0.3188247207174193,0.011164207947982572,0.902988407715684,-0.62695218558746957],"Bias":0.13024246559023972,"Output":0.0,"Threshold":-0.25174620759289068,"Type":"O"},{"Weight":[-0.01617642213412394,0.69841044987477852,0.49250234872684923,-0.8704851525232592,-0.067844288920911169,0.44800810117647427,0.3058490749941436],"Bias":0.29970329361953923,"Output":0.0,"Threshold":-0.20177687807091366,"Type":"GT"},{"Weight":[0.029428371241981336,0.6124434697499701,-0.28000479018315894,0.92284971052913445,-0.46310492579969809,-0.62406271073225084,-0.052482104419023776],"Bias":0.087019070092131875,"Output":0.0,"Threshold":0.67194771565121958,"Type":"A"},{"Weight":[0.63854318840361346,0.78843225389180349,-0.83612361635832289,0.67377588975884761,-0.13070336130014779,-0.52381255036397489,-0.6154447168183721],"Bias":0.15534723045087756,"Output":0.0,"Threshold":-0.91100296420557558,"Type":"A"},{"Weight":[-0.16823201168711857,-0.73285484068694284,0.941272398429584,-0.51675654738990429,0.649524281569535,-0.44443737503347797,0.82461329029156516],"Bias":0.72398512238822188,"Output":0.0,"Threshold":0.26283363917043134,"Type":"GT"},{"Weight":[-0.43080724749286065,-0.71201391365007216,-0.93085279265924026,0.15983068671069606,-0.30244186860622924,-0.8036737375909806,-0.28596055008748572],"Bias":0.93434133982953682,"Output":0.0,"Threshold":0.1460213796915586,"Type":"A"},{"Weight":[-0.30401481376216505,-0.98759855469111291,-0.3827138721862407,-0.71469124905517845,0.37746786623143957,0.27491855727272041,-0.46431732059657449],"Bias":0.86194161784925571,"Output":0.0,"Threshold":-0.9036171794420188,"Type":"O"}],"output":null,"numNeurons":8}],"OLayer":{"neurons":[{"Weight":[0.03873479647502992,0.34757594501021127,0.92907146593978229,0.21631921372204982,0.013139110064664441,0.22516764710897935,0.52631431376855553,0.47182408462829145],"Bias":0.20216084700178394,"Output":0.0,"Threshold":-0.95881882540826635,"Type":"OT"},{"Weight":[0.27477459482605315,0.78098073917486743,0.63426598936052336,0.583202511809395,0.7669888100433111,0.4154027930532595,0.7757256099841211,0.73630932939066984],"Bias":0.77723885829431882,"Output":0.0,"Threshold":-0.583711631402239,"Type":"OT"}],"output":null,"numNeurons":2},"NumLayers":2,"Breedibility":0.029259521993463638,"Mutibility":9.8262107138644019,"Repetition":0}
