{"Input":[0.0,0.0],"Output":[0.0,0.0],"DLayers":[{"neurons":[{"Weight":[-0.12434588937291219,0.22825726085726975],"Bias":0.750339946127655,"Output":0.0,"Threshold":-0.15573285946423787,"Type":"GT"},{"Weight":[-0.34827339758550441,0.88104102801580031],"Bias":0.4330414158445976,"Output":0.0,"Threshold":-0.2770012278468354,"Type":"GT"},{"Weight":[-0.51837503794505024,-0.50547570805320319],"Bias":0.60018853871160582,"Output":0.0,"Threshold":-0.56285208489878669,"Type":"GT"}],"output":null,"numNeurons":3},{"neurons":[{"Weight":[0.20198306450712639,0.660046795690454,0.12826349312824359],"Bias":0.62019163631843011,"Output":0.0,"Threshold":-0.053975565384130723,"Type":"O"},{"Weight":[-0.51325184223859188,-0.43716310264410596,-0.059422347256644789],"Bias":0.62077426985873574,"Output":0.0,"Threshold":0.30448921551205649,"Type":"A"},{"Weight":[-0.93244602807445731,0.15919335473291266,0.46005358521829059],"Bias":0.61447933298278568,"Output":0.0,"Threshold":-0.44714999266301747,"Type":"A"},{"Weight":[-0.56149380447412556,0.56419693891154454,-0.54835688162052854],"Bias":0.5554764617958462,"Output":0.0,"Threshold":-0.88249683840316573,"Type":"A"},{"Weight":[0.26084939169737015,-0.18554502082315508,0.74050862842263121],"Bias":0.081211935300944338,"Output":0.0,"Threshold":-0.90181723465296315,"Type":"GT"},{"Weight":[-0.97941426885287008,0.32200605204422311,0.48221157793058622],"Bias":0.695384021240931,"Output":0.0,"Threshold":-0.94313544917066372,"Type":"GT"},{"Weight":[-0.085357017389199236,-0.98820829949723943,-0.70070268525774715],"Bias":0.56590314841172806,"Output":0.0,"Threshold":0.9250621115439861,"Type":"A"},{"Weight":[0.65462456767196975,-0.084479311054795656,-0.79744461821273183],"Bias":0.26909323701127119,"Output":0.0,"Threshold":0.14438861661794997,"Type":"GT"},{"Weight":[0.81224214230302816,-0.0010966318664590977,-0.21662164396449068],"Bias":0.96045347441008944,"Output":0.0,"Threshold":-0.9584306268759214,"Type":"GT"},{"Weight":[0.60577146224946321,0.49231057311050153,-0.62134718039135783],"Bias":0.68369123371489871,"Output":0.0,"Threshold":-0.13408453861907335,"Type":"GT"},{"Weight":[-0.22737425948836573,0.32124652775062551,-0.26590751822381631],"Bias":0.17388355833193453,"Output":0.0,"Threshold":0.2077101800626657,"Type":"O"}],"output":null,"numNeurons":11},{"neurons":[{"Weight":[0.550995404622981,-0.72341008797446738,-0.37269491905937668,0.84297311950613429,-0.39757175017035185,0.60747252153580655,-0.77955863195450914,-0.042283555046787276,-0.099278822121805888,0.70963687017077437,0.13500869839219781],"Bias":0.46668640545880719,"Output":0.0,"Threshold":0.43940191782983107,"Type":"O"},{"Weight":[0.31331013483615133,-0.97548480656719061,-0.75274329434742371,-0.80822433010126671,0.054776057626482126,0.76890048513603415,0.24865226133198118,-0.84071811420876441,-0.91653030268686375,-0.6199017379525591,0.54168789579611643],"Bias":0.22362396317702904,"Output":0.0,"Threshold":-0.99516997905223159,"Type":"O"},{"Weight":[0.098684823652116962,0.34324287126923114,-0.50004632561469742,0.7664749546751729,0.85863487695280227,-0.85935403167240043,-0.51759554702676625,-0.086948368273185736,-0.0977193438903053,0.47706637320903428,0.2442964302582184],"Bias":0.73613714693865606,"Output":0.0,"Threshold":0.83576299801271547,"Type":"GT"}],"output":null,"numNeurons":3},{"neurons":[{"Weight":[0.395115193163564,0.778019039322631,-0.98031482751495891],"Bias":0.037981805874957614,"Output":0.0,"Threshold":-0.051424109400913173,"Type":"GT"},{"Weight":[-0.33406721676423551,0.48489231499139795,-0.26737291285180159],"Bias":0.877072656469919,"Output":0.0,"Threshold":0.43989166870708191,"Type":"GT"},{"Weight":[-0.16253814946978268,-0.084889769128006776,0.82694868968191959],"Bias":0.53795912980006966,"Output":0.0,"Threshold":-0.47046505821424772,"Type":"GT"}],"output":null,"numNeurons":3},{"neurons":[{"Weight":[-0.80695257978837587,-0.46450799026736428,-0.13155167369709894],"Bias":0.30794175914858551,"Output":0.0,"Threshold":-0.87903920415744152,"Type":"O"},{"Weight":[0.40593947908186329,0.47728049265094125,0.251113317558129],"Bias":0.74048734537348493,"Output":0.0,"Threshold":0.97692351740641681,"Type":"O"},{"Weight":[-0.39587132930563357,0.50552700995724975,0.22108643605424391],"Bias":0.34044728769941596,"Output":0.0,"Threshold":-0.8287550089083402,"Type":"GT"},{"Weight":[0.56751674766070992,-0.25474183319822968,0.52711463697585959],"Bias":0.020384324724033627,"Output":0.0,"Threshold":-0.42479849952496518,"Type":"O"},{"Weight":[0.5691308973213336,-0.43452419640241385,-0.75659867038791939],"Bias":0.60760927647706553,"Output":0.0,"Threshold":0.67391962449714526,"Type":"GT"},{"Weight":[-0.79747178442658473,-0.56836441511677782,0.11160854395088206],"Bias":0.7672103814628024,"Output":0.0,"Threshold":-0.807545959859875,"Type":"O"},{"Weight":[-0.74016854993075532,0.41682798248567993,0.91209699349109874],"Bias":0.66879202689453587,"Output":0.0,"Threshold":-0.0052427318902885222,"Type":"O"},{"Weight":[-0.97178973349360276,0.84110227825171424,0.28993359314740336],"Bias":0.83102613539948411,"Output":0.0,"Threshold":0.26335882687166279,"Type":"O"},{"Weight":[0.15722862917800837,0.25291963678454965,-0.7192117263186778],"Bias":0.17814900454978877,"Output":0.0,"Threshold":-0.20513364868477624,"Type":"GT"},{"Weight":[-0.10561418305412595,0.27452517406760024,-0.23644347173927513],"Bias":0.14402448206396051,"Output":0.0,"Threshold":-0.7375259742781175,"Type":"GT"},{"Weight":[0.58170287012201871,-0.437382134346935,-0.55413981413195834],"Bias":0.65243926255611673,"Output":0.0,"Threshold":0.80843016216923957,"Type":"A"},{"Weight":[0.71037611258699374,-0.90718259984030514,-0.20948513886401668],"Bias":0.22626711345569561,"Output":0.0,"Threshold":0.48054630843947937,"Type":"A"},{"Weight":[-0.48127705486550792,-0.64481351508051787,0.27267456998707473],"Bias":0.0411636717809195,"Output":0.0,"Threshold":0.071994807139036623,"Type":"GT"},{"Weight":[-0.69099438269203273,0.93328763727717456,0.3888886689156707],"Bias":0.22914552885533568,"Output":0.0,"Threshold":-0.055373017701959709,"Type":"A"},{"Weight":[-0.42153594429676233,-0.44545905731872609,0.27533627640238789],"Bias":0.3056557650238535,"Output":0.0,"Threshold":0.09484338764792466,"Type":"A"}],"output":null,"numNeurons":15},{"neurons":[{"Weight":[0.66347817362448114,0.49194940295626849,0.11804449191225902,0.1865570331861065,-0.79518844550251422,-0.58044445541708,0.55968514529973512,0.61687595146562713,0.10399185079335786,0.65462305427278533,-0.1708940957537359,-0.74035770806500578,-0.11155821248495867,0.560973977465636,-0.6709119415240884],"Bias":0.94632028413299485,"Output":0.0,"Threshold":-0.51237247489037574,"Type":"GT"},{"Weight":[-0.027516209067551516,-0.44133823432090608,0.27084417700341168,-0.04258849566922919,0.586953414411728,-0.84109148887968221,-0.885773912018991,-0.65846032493676077,-0.20166391423049565,-0.90499927797587554,0.69278293787165679,-0.019381770407493119,-0.5043373436221561,-0.39657905204062305,-0.25396010757142684],"Bias":0.49429898266415062,"Output":0.0,"Threshold":0.068071980526704337,"Type":"O"}],"output":null,"numNeurons":2},{"neurons":[{"Weight":[-0.28311526881675947,0.91669665785352539],"Bias":0.057313999187813137,"Output":0.0,"Threshold":-0.80190686220391971,"Type":"O"},{"Weight":[0.94354818712153854,-0.026778751065385877],"Bias":0.062729736353610524,"Output":0.0,"Threshold":0.31702849982167991,"Type":"O"},{"Weight":[0.64227001398907513,0.042380969059830985],"Bias":0.46244248396830751,"Output":0.0,"Threshold":-0.31437891224137454,"Type":"A"}],"output":null,"numNeurons":3},{"neurons":[{"Weight":[0.20073000304434915,-0.87654086103501772,0.30251053827931662],"Bias":0.160528276656069,"Output":0.0,"Threshold":0.66240117916017827,"Type":"A"},{"Weight":[-0.90197302815596248,0.78410132964332646,0.51640036493372188],"Bias":0.0536226909857349,"Output":0.0,"Threshold":-0.075833583285954589,"Type":"O"},{"Weight":[-0.967419762149183,0.89403970860598592,0.09026115252182873],"Bias":0.46069878361220418,"Output":0.0,"Threshold":0.88187021570367286,"Type":"O"},{"Weight":[0.96873635657538493,-0.23373880853584911,0.856583996143464],"Bias":0.16385226611227369,"Output":0.0,"Threshold":0.26639046159870478,"Type":"A"},{"Weight":[-0.86625047440931691,0.12256458267688965,0.73774020221910452],"Bias":0.85816868434574856,"Output":0.0,"Threshold":0.75968791812643777,"Type":"GT"},{"Weight":[-0.40881979298257259,-0.8661054665530592,0.20357924383300322],"Bias":0.93748057863557743,"Output":0.0,"Threshold":-0.26229398383865782,"Type":"GT"},{"Weight":[-0.31232072474077377,0.082557920870630963,-0.40660869954461637],"Bias":0.051228447841121093,"Output":0.0,"Threshold":0.4351513951249194,"Type":"O"},{"Weight":[0.48853754461209176,0.43479593444373271,-0.61130811814745334],"Bias":0.21128473301012291,"Output":0.0,"Threshold":0.95235626490430736,"Type":"O"},{"Weight":[0.99386028432932694,0.35588961157756371,0.68681681048442456],"Bias":0.89714554273390468,"Output":0.0,"Threshold":-0.028339551774943038,"Type":"A"},{"Weight":[0.032905996326779013,-0.11159104160572916,0.49015412036802347],"Bias":0.38746630884123329,"Output":0.0,"Threshold":0.27803603246716596,"Type":"GT"},{"Weight":[-0.91543598515700364,0.76858663548183936,0.50260211923280829],"Bias":0.80374939451168725,"Output":0.0,"Threshold":0.16871110450882051,"Type":"O"}],"output":null,"numNeurons":11},{"neurons":[{"Weight":[-0.98512431373127007,-0.031202700469271608,0.61130985925500736,-0.4938543264259837,-0.67641767192465141,-0.022888896066178055,0.0013979738584710163,0.58697926233847586,-0.24423985520575189,-0.023715704690532621,-0.93324870054295694],"Bias":0.2774884916271495,"Output":0.0,"Threshold":0.20816073436670041,"Type":"O"},{"Weight":[-0.37592279742282014,0.065229246888882125,-0.72843443822508414,-0.43918697928971934,0.047781682595508954,0.080388341136457556,0.87884426111301606,-0.89361198241524953,-0.85865707223241083,-0.89254708909082558,-0.7671886616233683],"Bias":0.91562285689433243,"Output":0.0,"Threshold":0.94594637581424157,"Type":"GT"},{"Weight":[0.57037543392292012,0.72234725380425679,0.10829881723425296,0.88577829016641629,-0.54684565195201229,0.092482492836416935,0.51314203791000979,0.85059372514979625,-0.46532611104907751,0.59525284664484335,-0.32839598056319913],"Bias":0.21631724118083587,"Output":0.0,"Threshold":0.81292440780109,"Type":"GT"},{"Weight":[-0.31561364527587482,0.16523556838055867,-0.17047861831750658,0.36693209380234221,0.8638729792385702,-0.61176010063465691,-0.4074721561779604,-0.84815650379665031,-0.11797831213007602,-0.02784179990544999,-0.84429966930500211],"Bias":0.28264285963151736,"Output":0.0,"Threshold":-0.099898042203811016,"Type":"GT"},{"Weight":[-0.35069352916939817,-0.63307488226940622,0.37993724661876321,-0.0092183444691907347,-0.50742832082669642,0.51365006087052179,0.23727423289663821,0.38304394501403161,-0.72476750366611753,0.055530518784900437,-0.66373613274830212],"Bias":0.66214855744603485,"Output":0.0,"Threshold":-0.12843734870126347,"Type":"GT"},{"Weight":[-0.78508260789564,-0.075747115107135429,-0.15496355069566684,-0.9075308674515834,-0.76858934190524242,0.13388869312307272,0.46299524487135713,-0.47072054514229322,-0.74991805420718993,-0.686308570991414,-0.24858489830446659],"Bias":0.72563708840200547,"Output":0.0,"Threshold":0.098121206787471285,"Type":"GT"},{"Weight":[-0.044367523418910579,-0.1806784352197677,0.38705592061721528,0.97057026483610753,0.12434023810752679,-0.11250491771497993,-0.29320832914356532,0.73025100758776584,-0.20461027985653388,-0.61228976939445812,-0.54466598878831884],"Bias":0.51466667629530027,"Output":0.0,"Threshold":0.44451600939245711,"Type":"A"},{"Weight":[0.44212877770984954,0.48187321167526448,0.72430632669679185,0.43256793656971676,0.020970002757837065,0.14538561512966902,0.93067169512187675,0.68181902108798687,0.57799701652396329,-0.10671520564086512,-0.1067762948138529],"Bias":0.749945429502961,"Output":0.0,"Threshold":0.33737471575726508,"Type":"A"},{"Weight":[0.4858314373930131,0.73031563718352266,0.50147901172818565,-0.424798640154674,-0.062508755858293158,-0.16760592496376761,-0.83496860267360162,-0.063153345167242622,0.427342531935937,-0.76582456741753246,0.13464463415306277],"Bias":0.39055919665403627,"Output":0.0,"Threshold":0.73114988055599384,"Type":"O"},{"Weight":[-0.337800803751592,-0.1553876386747638,-0.010771561884680559,-0.88040853146482656,0.491794470926651,-0.14966628754030276,-0.38990616769991171,0.33100364419212736,-0.56674240369663686,-0.64591018326855743,0.076477013098298116],"Bias":0.19104342730298798,"Output":0.0,"Threshold":0.693549890394113,"Type":"O"},{"Weight":[-0.57155014833973261,0.52567612497400307,0.11620168812396084,0.91597801163605319,-0.39836162207571862,0.96950434845383482,-0.19908171156378543,0.51349127689073393,-0.64308453846866476,-0.2635601168794372,-0.44895966045975672],"Bias":0.11780435131760517,"Output":0.0,"Threshold":-0.32886492615978463,"Type":"GT"},{"Weight":[0.085239697287436439,-0.5267440474251025,-0.14274821763054851,-0.39347923705050686,-0.57294834757826685,0.53830944259572278,-0.80960536366775882,-0.41381773185628362,-0.010861567226639748,0.83627535953944332,0.27288403607573547],"Bias":0.670605931277669,"Output":0.0,"Threshold":-0.30549397799442241,"Type":"GT"}],"output":null,"numNeurons":12},{"neurons":[{"Weight":[-0.7131067159181026,-0.21494877022455855,-0.19681119881421849,0.19760823910944547,-0.32487897217500905,0.032397014569676023,-0.507666600173184,-0.09938975102239743,-0.034306648203314583,-0.65408289509549877,0.11305958596666324,-0.95731144396463008],"Bias":0.87780770234661532,"Output":0.0,"Threshold":0.49258956662034131,"Type":"O"},{"Weight":[0.46243694306464722,-0.22125006943068004,-0.0890510837030835,0.68037252113240421,-0.35799957735370824,0.34149824378150434,-0.61199712455831334,-0.088938759681274543,-0.97846455265696375,-0.32860875936625933,-0.17349428505333805,-0.63629928307435446],"Bias":0.67466876268138587,"Output":0.0,"Threshold":-0.72595620421970086,"Type":"O"}],"output":null,"numNeurons":2},{"neurons":[{"Weight":[-0.86920895933602427,-0.70422163219387723],"Bias":0.55189882617066555,"Output":0.0,"Threshold":-0.45148911627544513,"Type":"O"},{"Weight":[0.995184064840518,0.475818625407209],"Bias":0.46181773136454529,"Output":0.0,"Threshold":0.092159504113793145,"Type":"A"}],"output":null,"numNeurons":2},{"neurons":[{"Weight":[0.7157438051494508,0.594790296906042],"Bias":0.36727525823157059,"Output":0.0,"Threshold":-0.58606983096621457,"Type":"GT"},{"Weight":[-0.47221512788544184,-0.28419382510902075],"Bias":0.36254418704777219,"Output":0.0,"Threshold":0.36309487948338265,"Type":"O"},{"Weight":[-0.13276352273894637,0.79015322811443045],"Bias":0.52393821744431657,"Output":0.0,"Threshold":0.060098298387647749,"Type":"O"},{"Weight":[0.96987047836644136,0.43253017749289524],"Bias":0.45894535559180444,"Output":0.0,"Threshold":-0.71167655368879279,"Type":"GT"},{"Weight":[0.18164503675962102,-0.010212399070250056],"Bias":0.434587362424744,"Output":0.0,"Threshold":0.66763136566971959,"Type":"GT"},{"Weight":[0.54024082493979519,-0.079683698285223772],"Bias":0.12019203888261321,"Output":0.0,"Threshold":0.0018341504045921147,"Type":"GT"},{"Weight":[-0.76090083818924648,0.32905420862559892],"Bias":0.048388342861266968,"Output":0.0,"Threshold":-0.25389873713902139,"Type":"O"},{"Weight":[0.091399759096745289,-0.86730665288274489],"Bias":0.15353965347331933,"Output":0.0,"Threshold":-0.31119067329503164,"Type":"O"},{"Weight":[-0.20930910166786476,-0.96678464718478951],"Bias":0.35288248041313258,"Output":0.0,"Threshold":-0.27447271406393159,"Type":"GT"},{"Weight":[0.98685691691323041,0.097035786647831926],"Bias":0.980414600102424,"Output":0.0,"Threshold":0.62338950933115067,"Type":"O"},{"Weight":[0.3506406100237,-0.091889295769803828],"Bias":0.38262234506319387,"Output":0.0,"Threshold":0.47711528254538554,"Type":"GT"},{"Weight":[-0.69545123385984975,0.34904531405728556],"Bias":0.8003247127869747,"Output":0.0,"Threshold":0.11793893068932879,"Type":"GT"},{"Weight":[-0.908591750035338,0.952386744298221],"Bias":0.03504950321980263,"Output":0.0,"Threshold":-0.19318658029343308,"Type":"A"},{"Weight":[0.91712189508468,-0.61651196918287876],"Bias":0.15686295049118948,"Output":0.0,"Threshold":0.61780803772518789,"Type":"O"},{"Weight":[0.34587654440937404,-0.033354160391424859],"Bias":0.2193013775252278,"Output":0.0,"Threshold":-0.6800988883153064,"Type":"O"}],"output":null,"numNeurons":15}],"OLayer":{"neurons":[{"Weight":[0.52579818364502773,0.796826012337965,0.8114924658143392,0.73596418962625987,0.72093028515620639,0.72755846461633145,0.86268275783522186,0.17429972587819198,0.85644849802202,0.2995215045751638,0.092624656433530461,0.096186641182837374,0.68299121208628233,0.64338131092646222,0.45662637821241581],"Bias":0.542993379543998,"Output":0.0,"Threshold":-0.0097487741195358222,"Type":"OT"},{"Weight":[0.69791641631066637,0.55604323351571483,0.48553811827932397,0.18653413708626021,0.67731128571429811,0.8856310108143981,0.52815474873788415,0.21864884077508415,0.65772471607556782,0.85393711312391662,0.017245276373459621,0.14773008513624319,0.42268789393021161,0.33370819284287662,0.64666609496188632],"Bias":0.58178202229634957,"Output":0.0,"Threshold":0.85572877100469957,"Type":"OT"}],"output":null,"numNeurons":2},"NumLayers":12,"Breedibility":0.47274700620805238,"Mutibility":7.2004058105872968,"Repetition":0}
