{"Input":[0.0,0.0],"Output":[0.0,0.0],"DLayers":[{"neurons":[{"Weight":[0.66858699576397751,0.502788411221834],"Bias":0.41289525591437481,"Output":0.0,"Threshold":0.47772220497844842,"Type":"A"},{"Weight":[0.60838552685844971,0.41957239127698],"Bias":0.49218177259535612,"Output":0.0,"Threshold":-0.49301399732614587,"Type":"GT"},{"Weight":[0.22134843711804061,-0.81807606053449033],"Bias":0.43088897570543411,"Output":0.0,"Threshold":-0.019503900790356053,"Type":"O"},{"Weight":[-0.53667236377330141,-0.46535515620622558],"Bias":0.85013971377636288,"Output":0.0,"Threshold":-0.13616224524386331,"Type":"O"},{"Weight":[0.08884719251135699,0.84006499864164041],"Bias":0.24334066465652579,"Output":0.0,"Threshold":0.51840427448898752,"Type":"GT"},{"Weight":[-0.88027748273698492,-0.25291159714242051],"Bias":0.35474400657915695,"Output":0.0,"Threshold":0.87658702250411125,"Type":"GT"}],"output":null,"numNeurons":6},{"neurons":[{"Weight":[-0.57751517909463268,0.20834826082379943,0.96755911035815212,0.64908309497362149,0.16635816598607142,-0.36535121191542186],"Bias":0.50337302149430518,"Output":0.0,"Threshold":-0.825210132554737,"Type":"GT"},{"Weight":[0.57761360266134776,0.83555050559134714,-0.74413719854510263,-0.70294416262905313,0.94578116338037943,0.385158824448082],"Bias":0.78492122086925487,"Output":0.0,"Threshold":0.98168623865660576,"Type":"O"},{"Weight":[0.74882266239673956,0.2726245346817302,0.89177680848714747,-0.12128808215320487,-0.19098190366801895,0.076982498670454369],"Bias":0.46808100327294366,"Output":0.0,"Threshold":-0.85992784838188807,"Type":"O"},{"Weight":[0.78068831552783413,-0.77713040391780919,-0.85525620163197458,-0.055691173326080277,-0.46599698740336903,-0.93762650896684574],"Bias":0.20099410656885902,"Output":0.0,"Threshold":0.882490791325686,"Type":"A"},{"Weight":[-0.32429424781552246,0.26354438637548333,0.55258559787300676,0.72912677690811767,0.60397628722897556,0.46196709501648653],"Bias":0.080125516317843232,"Output":0.0,"Threshold":0.16891947722477815,"Type":"A"},{"Weight":[-0.13463062240492116,0.98590398812010138,0.20455583473879649,0.50148113514365678,0.523467077186083,0.50122410780807214],"Bias":0.020924607301561444,"Output":0.0,"Threshold":0.66526405544265366,"Type":"A"},{"Weight":[0.26069788693482887,-0.20973043758875246,-0.5963834620064048,-0.6679344208296083,-0.082227151413553926,-0.54734636589295527],"Bias":0.601616400108494,"Output":0.0,"Threshold":-0.42543660962276003,"Type":"A"},{"Weight":[0.46758658786657575,-0.32139340430563007,0.89658680320558459,0.98011609259066923,0.50713273999613373,0.40074769379605896],"Bias":0.0037780785950729989,"Output":0.0,"Threshold":0.94127689112968593,"Type":"A"},{"Weight":[-0.89558794018607024,-0.36955667676849135,-0.95918903963602564,0.48946985299208662,0.49670438491585867,-0.89134014113402937],"Bias":0.961416322254304,"Output":0.0,"Threshold":-0.41129710311596146,"Type":"GT"},{"Weight":[-0.51193572278690325,-0.320263297911856,0.34387065113702353,-0.41190430913674847,-0.91219447875031945,-0.95233438813701943],"Bias":0.051941996464478779,"Output":0.0,"Threshold":-0.96756619353199669,"Type":"A"},{"Weight":[0.55993003843348943,-0.1945960918416251,-0.05587993285426867,-0.33788847054256521,0.36230334097626776,-0.53965091590753334],"Bias":0.98827731422534082,"Output":0.0,"Threshold":0.93362817537674125,"Type":"A"},{"Weight":[-0.4946824519404594,0.18843250451070839,-0.62101359321783,-0.59484158064929837,0.741571673537405,0.27562046622653513],"Bias":0.22453881857196745,"Output":0.0,"Threshold":0.47139161008940617,"Type":"A"}],"output":null,"numNeurons":12},{"neurons":[{"Weight":[-0.75038988085016134,-0.35278218814767065,-0.63548234972892437,0.359469019975266,0.029549916754267141,-0.70441817897577685,-0.22553536492657633,0.97856630337357819,0.85649875125684716,0.74922477023174272,0.47227656956402425,-0.13094357267531734],"Bias":0.13213708025037174,"Output":0.0,"Threshold":-0.70656874389693547,"Type":"O"},{"Weight":[-0.7728983088270287,-0.8909117308868616,0.010512724523671309,-0.23788743337517951,0.50133304926628852,-0.859200102211535,0.82896348453544244,0.59146367646356279,0.89042340167352152,0.51603630861082872,-0.297054162852957,0.36804006731512029],"Bias":0.88077416544816189,"Output":0.0,"Threshold":0.75000450236257377,"Type":"GT"},{"Weight":[-0.35561430610512118,0.084563931023964631,-0.97474684704781833,0.093359818259887317,0.91593634147007774,-0.28296528816361227,0.15491568397493832,0.038750591240241467,-0.664195688750686,0.95017020448584588,0.92847299060247512,-0.12336915178381333],"Bias":0.19053243528610675,"Output":0.0,"Threshold":0.47173055981832118,"Type":"A"},{"Weight":[0.69813449527050109,-0.12867937103318022,-0.78202589684260349,-0.09145599049118161,0.79457069458187124,-0.28581984447586345,0.84001353561878833,-0.70620205193115493,-0.48601571074035749,0.4407574438679765,-0.986155929968765,-0.2838001303764992],"Bias":0.79983429787672788,"Output":0.0,"Threshold":-0.42713002321642357,"Type":"GT"},{"Weight":[0.21562048290652244,0.73838117054588215,-0.90283070965801859,0.26524085889814464,-0.56628527146125462,-0.69545033233959708,0.44004001628609374,0.18279343106914006,0.20283823423219763,-0.69888968006656027,0.80260312734292971,-0.87714037060604444],"Bias":0.030973115950344649,"Output":0.0,"Threshold":0.81423391765646358,"Type":"GT"},{"Weight":[0.65911578138317717,-0.46067392428436965,-0.70545399640940787,-0.94672293166943033,0.19190532583366396,-0.44350999148725995,0.36284746339677248,-0.62917348771783221,-0.343109747089031,-0.32551813978958788,0.20788251059496893,-0.18927785250790316],"Bias":0.7282403431498633,"Output":0.0,"Threshold":-0.0015955548740902706,"Type":"A"},{"Weight":[0.84426747907151811,-0.47204317127915246,0.58353217299260762,0.31390464832722426,-0.561783141718145,-0.4420274679744744,-0.92968424499485836,-0.5420038665374759,-0.16031951185330726,-0.93753720491078552,-0.29873690488689436,0.80886260876844762],"Bias":0.48871577786687564,"Output":0.0,"Threshold":-0.65208710434478112,"Type":"A"},{"Weight":[-0.54728543178517619,0.62665553047631661,0.2004408641720381,0.22889536583279044,-0.31076038596721384,-0.91111333198431566,0.41927697389352925,-0.90177550301969778,-0.85124851150961989,-0.18006450830961787,0.0078870714678834532,0.035685282682853418],"Bias":0.064058349963304756,"Output":0.0,"Threshold":0.97478449436593084,"Type":"A"}],"output":null,"numNeurons":8},{"neurons":[{"Weight":[0.73434603481290217,0.93144506864782661,-0.20467980494940644,0.29711401196993609,0.73816902643915683,0.27067140362722397,-0.93650735539221552,-0.80540631236760241],"Bias":0.53247204680576554,"Output":0.0,"Threshold":-0.6501445312286469,"Type":"GT"},{"Weight":[0.8063073203928337,-0.35859079070323652,-0.0013241185812857554,-0.77804225626310441,0.10265936241609015,0.22565636980610732,0.798209612629474,0.57641435115431172],"Bias":0.97966826333648915,"Output":0.0,"Threshold":-0.54685889582469072,"Type":"O"},{"Weight":[-0.60466149104976163,-0.11307948507046303,-0.90939310468239387,0.071379716075667982,-0.23027897031525102,-0.5315863031575393,0.48968778107766425,0.97123888552712223],"Bias":0.24129022343144296,"Output":0.0,"Threshold":0.45942247261266339,"Type":"O"},{"Weight":[-0.50439429911989453,-0.61123956582101047,0.76929591864780333,-0.082525607702567061,-0.5328599398643058,0.31346257976883213,0.43554736228452406,0.90714473179874233],"Bias":0.7733691398861674,"Output":0.0,"Threshold":0.22341809199350798,"Type":"A"},{"Weight":[-0.029958055834266382,0.99870487675010455,0.10821378841447354,0.1803518748750686,0.85671141969818221,0.51374196191958243,-0.68997675212564724,0.012620646046763587],"Bias":0.6774167943175029,"Output":0.0,"Threshold":-0.014710550203318963,"Type":"GT"},{"Weight":[0.13499109639552939,-0.12710894463914862,0.91740274518607312,0.88909260085275987,-0.011734798556070215,-0.074528269970104227,-0.896792981259894,-0.0733839772052057],"Bias":0.069425288154475989,"Output":0.0,"Threshold":0.73944552835982547,"Type":"A"},{"Weight":[-0.42027987279942253,0.25184563046872877,0.53663216509699452,-0.29563639885542747,-0.9696498131238156,0.84023416593681755,-0.85754131193158278,-0.64881631808765994],"Bias":0.99096442712050137,"Output":0.0,"Threshold":0.81880003345143049,"Type":"GT"}],"output":null,"numNeurons":7},{"neurons":[{"Weight":[0.67293455296798355,0.40312349442538037,0.49586983048164746,-0.61690202290979312,-0.626299718686519,-0.93797126595767744,0.49759726808294524],"Bias":0.93179557096762378,"Output":0.0,"Threshold":-0.71097703544002822,"Type":"A"},{"Weight":[-0.12418595614106671,0.56480037447288645,0.641121392902509,-0.31586968028725576,-0.64292484691502749,-0.0062485872796962912,0.25062525470304547],"Bias":0.42791451021466148,"Output":0.0,"Threshold":0.85635570616291634,"Type":"O"},{"Weight":[-0.84872213604334845,-0.040762334615347132,-0.67873437594563435,0.34335009443729653,0.90226289997914011,-0.35994404384863748,-0.71702074712003616],"Bias":0.66819848104761848,"Output":0.0,"Threshold":0.17552735524975105,"Type":"O"},{"Weight":[-0.44712343134317706,0.22647389081608219,-0.33811899104068011,-0.98052796254890406,-0.031622571419748745,-0.21648078328765966,0.59664089353598693],"Bias":0.14113616437704124,"Output":0.0,"Threshold":0.59619532925830931,"Type":"A"},{"Weight":[0.60251034358633238,-0.57160237737540265,0.1944174143459729,0.71109085935684424,-0.80038677565771466,0.70723766400815813,-0.72715801919212475],"Bias":0.95484889995066868,"Output":0.0,"Threshold":-0.1160106272976895,"Type":"A"},{"Weight":[-0.10912635089323221,0.81223533619764976,-0.18923601703217069,-0.25479849626067957,0.68702658437519637,0.13746229239621308,-0.22425048575934511],"Bias":0.4939034550888014,"Output":0.0,"Threshold":0.49578686221306534,"Type":"O"},{"Weight":[-0.74030150554156937,-0.94074962983874122,0.078678875732551737,0.53515223531758049,-0.4854059477734407,-0.50378519925465115,-0.19806812992229506],"Bias":0.23200928710028962,"Output":0.0,"Threshold":-0.52895788873031635,"Type":"GT"},{"Weight":[0.36017628263690338,-0.76518595952782131,-0.023580810531778639,0.050587440864456559,-0.44430420195884268,0.053287711019296066,-0.15618677770541364],"Bias":0.5020808877898757,"Output":0.0,"Threshold":-0.079065540376615492,"Type":"GT"},{"Weight":[0.67142864580798367,-0.98027352522140065,-0.17007108832247139,0.00068481639059484768,0.60862167673586942,0.55127774018388132,0.48669319482831896],"Bias":0.63375643949664962,"Output":0.0,"Threshold":-0.690600956646074,"Type":"A"}],"output":null,"numNeurons":9},{"neurons":[{"Weight":[-0.65478989233020224,-0.858739091483289,-0.11693388648188388,0.45346794158847442,-0.89899370162700942,0.27241404227559179,-0.11900258954567955,0.99152113683126919,0.86680249304827417],"Bias":0.30429344312487794,"Output":0.0,"Threshold":-0.727215931623809,"Type":"A"},{"Weight":[-0.15031465289663273,-0.50494374032362543,0.7874721758009271,0.35799511399026734,-0.4655858210593396,0.82635089607273737,-0.72091922942591791,-0.8126895543246947,0.8633396387395168],"Bias":0.71660314673399694,"Output":0.0,"Threshold":-0.83654419651094092,"Type":"A"},{"Weight":[0.33620763446027768,0.43227515063820182,0.49517205799704977,0.76695394644837545,0.831317136451284,0.83165769178031834,-0.99484866112230752,0.93332868438834726,0.52457611892585465],"Bias":0.29170694076069953,"Output":0.0,"Threshold":0.94633789497722776,"Type":"O"},{"Weight":[-0.81295109997175219,0.38400191505625936,0.044839688597638018,0.95968933448180993,-0.010612784889812016,0.98313568205718682,0.13718122715930511,-0.97819209842858468,0.099819040903737319],"Bias":0.18570186020140622,"Output":0.0,"Threshold":-0.59801383763459226,"Type":"A"},{"Weight":[-0.13681044855006525,-0.1004761751277727,-0.24866537621648302,0.21925842585938909,-0.54483725575024133,-0.88816085685424551,-0.09339060452458943,0.167908966619479,-0.792923665509058],"Bias":0.90788264894293746,"Output":0.0,"Threshold":0.27085823811164977,"Type":"GT"},{"Weight":[-0.58682741345224321,-0.24816900270440104,-0.72827453898651273,0.75865780178394993,-0.76063603477582153,0.91221002392108086,-0.013724000665230676,0.7957201254534163,0.43614305622696087],"Bias":0.34120047248024515,"Output":0.0,"Threshold":0.15248648084350233,"Type":"O"},{"Weight":[0.61423319932736142,0.5052114313026943,0.06765232750570975,-0.72730809437451327,0.6901311886916548,0.93993556077589069,0.56412872046424478,0.17917032175658751,0.42859846233790666],"Bias":0.099468502262359718,"Output":0.0,"Threshold":-0.77336207487311315,"Type":"GT"},{"Weight":[-0.24734414566650248,0.2680167007576752,-0.80325563196244443,-0.64600245777797072,0.92965776563140456,0.49170392402061441,-0.87822140561333928,-0.82951521725836919,-0.22136249729495611],"Bias":0.044167086502614937,"Output":0.0,"Threshold":-0.65707968857934684,"Type":"GT"},{"Weight":[-0.99517870321645341,-0.66891706067552659,0.43833004238006196,-0.37421787081948382,-0.0530179785811426,0.43306527726029292,-0.73028291190521932,-0.42843469624800362,0.69758765152543212],"Bias":0.457553888418504,"Output":0.0,"Threshold":-0.58506487290610787,"Type":"GT"},{"Weight":[0.25584434450410509,0.72980016457373287,-0.0844235103970503,0.70888110376376712,0.72919498837049812,-0.25480024109352389,-0.16309763731579186,0.26594612480418112,-0.73709325899234657],"Bias":0.73084844496606316,"Output":0.0,"Threshold":0.51870089420988263,"Type":"A"},{"Weight":[0.32597967392112115,-0.54025903322746,-0.60338844573283035,-0.56022686677064137,0.19952580016084284,0.85469738387255811,0.010331387636406062,0.4578983906926114,0.4377808181744911],"Bias":0.70207576765775481,"Output":0.0,"Threshold":-0.2113639946148563,"Type":"O"}],"output":null,"numNeurons":11},{"neurons":[{"Weight":[-0.401563587319834,0.42659372763083958,0.082030574829331862,0.33375575921207468,-0.54522654299867646,-0.88833660161510886,-0.73939700365969774,0.60184338390913017,-0.62030774849481307,0.23691269486998798,-0.36825040046509838],"Bias":0.3224397005152142,"Output":0.0,"Threshold":-0.991509580980758,"Type":"O"},{"Weight":[0.20739159323619288,0.753405894503652,0.52103282116401606,-0.63055189309201753,-0.13869544590762603,-0.17679471810199074,0.47819629194130947,-0.86577004094876819,-0.30947084087388166,-0.12199478602129724,-0.71850138703291366],"Bias":0.83593743426536093,"Output":0.0,"Threshold":-0.18405567583816856,"Type":"A"},{"Weight":[-0.15808849789113202,0.26476760314068182,-0.861397752939443,0.46473018381033565,0.60739994077356529,0.10081053343639268,0.90109112947298731,-0.84855220226969208,-0.22967389748882219,-0.61659215652225174,0.80323082525433542],"Bias":0.6723416553215783,"Output":0.0,"Threshold":-0.33591698777671763,"Type":"GT"},{"Weight":[-0.86951479495946071,-0.43915729897057509,0.85007987676657726,0.73485710738918608,-0.81441805223674424,-0.092617554167573127,0.43734492009381992,0.75700015423679734,-0.070090818717186726,0.93152287925198807,-0.517442856690587],"Bias":0.536176993761294,"Output":0.0,"Threshold":0.33648954068147091,"Type":"GT"},{"Weight":[0.56746351931591688,0.12670605216487593,0.48497442923717871,0.76299054676806111,-0.56556935169062084,0.48521458985526794,0.79765857141355923,-0.99374430905736255,-0.10141199925048836,-0.28939429218386964,0.86575579078204734],"Bias":0.6415772562108828,"Output":0.0,"Threshold":-0.24940642213886902,"Type":"O"},{"Weight":[0.40439410852472957,0.386462857661053,-0.48120664361920518,-0.11440084600560406,-0.0018866993495666885,-0.46438989157992877,-0.98826137929608182,-0.44816325253255818,-0.17614121976128835,0.068609813260198479,-0.42037302135507248],"Bias":0.58712511536997047,"Output":0.0,"Threshold":-0.2074476709624043,"Type":"O"},{"Weight":[0.047095248497601251,0.66708093260744628,0.041613352504378816,-0.10933544584984679,-0.52445650683923462,0.57102918092675,-0.96613990281063122,-0.44693982389147385,0.52957361542134251,0.84560529414825392,-0.38705501444034979],"Bias":0.57035684565564471,"Output":0.0,"Threshold":0.38590290927603044,"Type":"A"},{"Weight":[0.18079660887867055,-0.033937041197874135,-0.99655656004164206,-0.55859732514181981,-0.055572509791502966,-0.65016222076963737,0.010053146169545663,0.10641604387500139,-0.63931043196437431,-0.90882370057926687,0.34351370499632961],"Bias":0.061810324928634953,"Output":0.0,"Threshold":0.939957603318597,"Type":"A"},{"Weight":[-0.36184237681415043,0.77380558558451273,-0.34278148102703571,0.99384156893652009,-0.69650302114733631,0.9967273254863579,-0.18275231131480649,0.3436219661234049,-0.32697432177466074,-0.83025319726683811,-0.93202466421389241],"Bias":0.77924446565063876,"Output":0.0,"Threshold":-0.42945800182850008,"Type":"O"},{"Weight":[-0.47707920869676357,-0.98840994340759236,-0.91877064291330546,-0.13384259498391421,-0.81717280988449825,-0.54654045800983,-0.85848103829588784,-0.31546319616747237,0.89058724040658555,-0.96086968712549181,0.086102069861303115],"Bias":0.93029996237265877,"Output":0.0,"Threshold":-0.697719845780041,"Type":"A"},{"Weight":[0.10970440605175887,-0.7130226407726401,-0.43984776010729731,-0.43515097370145422,0.80409881463465227,-0.72127976069286459,0.20998383509460084,0.38628236781166975,-0.5748411843436031,-0.099253401206458647,-0.38719626627266235],"Bias":0.90480565414987768,"Output":0.0,"Threshold":-0.63166122214480358,"Type":"GT"}],"output":null,"numNeurons":11}],"OLayer":{"neurons":[{"Weight":[0.015420310672102641,0.43941942762556457,0.94711923177685553,0.98431707871347529,0.88224232517287249,0.47776093821868343,0.20741315614777298,0.651970664808513,0.60978195891239773,0.67346124661781881,0.61295602825142259],"Bias":0.40929249087781294,"Output":0.0,"Threshold":-0.73290310135712056,"Type":"OT"},{"Weight":[0.41965393043107069,0.54658659479887528,0.032808700126041056,0.26124772721028316,0.35053142968124312,0.570863340315811,0.99515186389682431,0.7237538773211436,0.32718434200025365,0.42313409709517569,0.67688569830585532],"Bias":0.251529811532949,"Output":0.0,"Threshold":-0.89706052695264138,"Type":"OT"}],"output":null,"numNeurons":2},"NumLayers":7,"Breedibility":0.569994244524275,"Mutibility":8.9638361702504739,"Repetition":0}
