{"Input":[0.0,0.0],"Output":[0.0,0.0],"DLayers":[{"neurons":[{"Weight":[-0.067675207307410987,-0.84405323064143456],"Bias":0.81807933553032541,"Output":0.0,"Threshold":0.006005405916834905,"Type":"O"},{"Weight":[0.64090479614255247,0.45295081820942035],"Bias":0.61278732708319428,"Output":0.0,"Threshold":-0.97545091853265231,"Type":"O"},{"Weight":[0.21986427540884551,-0.87953853880965083],"Bias":0.747167917316392,"Output":0.0,"Threshold":0.62938018684712249,"Type":"O"},{"Weight":[-0.63782216498526845,-0.26764460013604008],"Bias":0.28269522883123493,"Output":0.0,"Threshold":0.42868308510104336,"Type":"GT"},{"Weight":[-0.076666945161608491,-0.88492893049722954],"Bias":0.26863710967294735,"Output":0.0,"Threshold":-0.29542180024805564,"Type":"GT"},{"Weight":[-0.92137019565392764,-0.23168365016192369],"Bias":0.2895688276223693,"Output":0.0,"Threshold":0.91821282772264112,"Type":"A"},{"Weight":[-0.786773923219542,-0.20658632517167661],"Bias":0.96594819192120251,"Output":0.0,"Threshold":0.64134304395008046,"Type":"O"},{"Weight":[0.28838744167629043,-0.55757210802173807],"Bias":0.73836080578079488,"Output":0.0,"Threshold":-0.40635968717111259,"Type":"O"},{"Weight":[-0.11140205902578405,-0.5553902958312027],"Bias":0.090521988035422746,"Output":0.0,"Threshold":-0.061960177524928085,"Type":"A"},{"Weight":[0.27781055275248856,0.39018557378565222],"Bias":0.39769653668519878,"Output":0.0,"Threshold":0.4276611504273774,"Type":"GT"},{"Weight":[0.44710445238608143,0.50216550589639952],"Bias":0.22209675992936676,"Output":0.0,"Threshold":-0.7340662524728413,"Type":"GT"},{"Weight":[-0.50424595107522141,-0.87702158320556467],"Bias":0.73784969222631758,"Output":0.0,"Threshold":0.82459793091965738,"Type":"O"},{"Weight":[-0.76889075700607656,0.35528063511256158],"Bias":0.36282253189143843,"Output":0.0,"Threshold":-0.606485673508833,"Type":"O"},{"Weight":[-0.37998627609572666,-0.762636462115979],"Bias":0.25115747016442824,"Output":0.0,"Threshold":-0.15685370385500308,"Type":"GT"},{"Weight":[0.29128212541867149,0.96915177673527586],"Bias":0.90419418127471307,"Output":0.0,"Threshold":0.5370427214247373,"Type":"GT"},{"Weight":[-0.46930585450926138,0.8439870294388323],"Bias":0.18493859431936341,"Output":0.0,"Threshold":-0.71917536003476723,"Type":"O"}],"output":null,"numNeurons":16},{"neurons":[{"Weight":[0.87517506530283717,-0.37823459756478417,-0.82018655157656717,0.84061877887724845,-0.77735176020178565,0.93995290991848,-0.59407046464927049,-0.34739224722021828,-0.016295291956651626,0.89988692146720684,0.77814784030343775,-0.23184803558133918,-0.97794482855961884,0.24275613727176382,0.60673335036576415,-0.66081091606095943],"Bias":0.3094238402831479,"Output":0.0,"Threshold":-0.45361511290707396,"Type":"GT"},{"Weight":[0.66236388621030551,-0.47109557384210432,-0.12853299785802747,-0.12684242107292751,-0.050172041193662233,0.87523538985999083,-0.49659478221861403,0.16864330236271177,0.28670586146726545,-0.18301496802969602,-0.60271589905150047,-0.094435686755196979,-0.11403066809942511,-0.069146405006361378,0.796982555089976,-0.66200595007371432],"Bias":0.80818402618550877,"Output":0.0,"Threshold":0.02510247799805481,"Type":"A"},{"Weight":[-0.58337614619330325,0.72691315632635412,-0.48397390613517438,0.97916494681461008,-0.46687334285437748,-0.26590386185138665,0.37123184901253869,0.808845205609149,-0.270600144877378,-0.7195738701706631,0.69391008917890029,-0.36714529728849665,0.0668334616659365,-0.282266695183826,0.74390006612236614,-0.12771593738706594],"Bias":0.49418111168508472,"Output":0.0,"Threshold":-0.94069378634015743,"Type":"A"},{"Weight":[0.87085331132209554,-0.78038483195956088,0.36973266274190164,0.011204476007821261,0.81221627295586107,0.8662447598139964,0.03555663723291673,0.86985520686481854,-0.30552860782739177,0.53403942684365413,0.051565658790788456,0.57533451196520335,0.87033209012371116,0.82813874624117223,0.17914023631212311,-0.874699586944049],"Bias":0.91477978225554324,"Output":0.0,"Threshold":0.94085030022116856,"Type":"GT"},{"Weight":[-0.33123883480729482,-0.94373361391189214,0.98181327897208426,-0.23819659009491867,-0.023121052432396007,0.17021356111867986,-0.86492483125297581,-0.16596369639316747,-0.4066543594965033,-0.81642924659719185,-0.96551248243335286,0.57978502362025208,-0.69425812815048649,-0.628034258088113,-0.82556611943317859,-0.886095496772833],"Bias":0.10954451612641314,"Output":0.0,"Threshold":-0.14010205638599677,"Type":"GT"},{"Weight":[-0.48647164948585986,-0.60854511224131336,-0.4383037031806557,-0.571487041456386,-0.60318118734433368,0.86716847348360737,0.62844786123765994,-0.023883703175878013,0.12442105362397668,-0.764240668045469,-0.68967173280644778,0.4772550866367552,-0.93193654480014765,0.54100163585553018,-0.59529591938261683,0.684006972556937],"Bias":0.0658340533570545,"Output":0.0,"Threshold":0.12989184499247553,"Type":"A"},{"Weight":[-0.88242399035134533,0.75604931486586546,-0.61428969661439292,0.99315672693455437,0.41194269778763071,-0.38935685408737364,-0.41182299396573707,-0.97028528338777142,-0.37586138834052785,-0.34640011859424419,0.88527112541965725,-0.55965831110238018,0.66776512082096429,0.79364475458564454,-0.35058028500088506,-0.68215060498665581],"Bias":0.23321953985524344,"Output":0.0,"Threshold":0.97975555573578721,"Type":"A"}],"output":null,"numNeurons":7},{"neurons":[{"Weight":[0.0074949422886105913,-0.49882738315445713,-0.81758421604409082,0.051886945055745051,-0.52615925507906791,-0.13301110227266844,-0.22091349969660562],"Bias":0.84597462548221214,"Output":0.0,"Threshold":-0.78349172639823128,"Type":"GT"},{"Weight":[0.97658098581087827,-0.53813748645509474,-0.63021701044878786,-0.46548276369715236,-0.26959699917100233,0.89080083784218922,0.43206743822994986],"Bias":0.17069862045845885,"Output":0.0,"Threshold":-0.57269174446011506,"Type":"A"},{"Weight":[0.84757273543978706,0.067686909375566484,-0.50777136604663509,0.14160586574189638,-0.66063365231297611,0.12966678530427944,0.83617597950444367],"Bias":0.79479129090662637,"Output":0.0,"Threshold":0.8208985337153536,"Type":"GT"},{"Weight":[0.35226424194512157,-0.90095538967333522,0.88875620900129726,0.021162410742213211,0.94023418284032223,-0.743523923095094,0.9345233202607014],"Bias":0.98059494047453388,"Output":0.0,"Threshold":0.15728759772949275,"Type":"A"},{"Weight":[-0.091170112644867088,-0.2574047135456487,0.94737473919399773,-0.73656594275336984,-0.17942380028749994,-0.36172301525330314,0.98683155001459255],"Bias":0.35609242429774834,"Output":0.0,"Threshold":-0.13628803712143006,"Type":"O"},{"Weight":[0.78773163807938418,0.896080768153109,0.59392118388503845,-0.44664262488793705,-0.064957401745467172,-0.48792870225754043,0.81278937161564335],"Bias":0.77914529888850881,"Output":0.0,"Threshold":0.14120001911241562,"Type":"O"},{"Weight":[-0.77700586979138009,-0.97113959815871886,0.36506184533474123,0.32906983016481151,0.49226493504469515,-0.75770486414325655,0.8560205501765108],"Bias":0.42779425272149696,"Output":0.0,"Threshold":-0.53074283177533321,"Type":"A"},{"Weight":[0.75751050364110173,0.76757620729858811,0.70461805383889842,-0.75677828386275947,0.55510203892137022,0.66342331546518174,0.39659124910672722],"Bias":0.88144048344410975,"Output":0.0,"Threshold":-0.15278411198071396,"Type":"A"},{"Weight":[0.47871251054048192,-0.3808831020169347,-0.23012344875844357,0.16151848070394176,0.63936458744079083,0.59250012766220617,-0.053650777346291943],"Bias":0.30933242212484235,"Output":0.0,"Threshold":-0.58917125528174041,"Type":"A"},{"Weight":[-0.43573210501844628,-0.49638550937938758,-0.32244142020234906,0.29062342890101645,0.88152640819620642,0.367906385738359,0.25091453513638795],"Bias":0.43895311580922136,"Output":0.0,"Threshold":-0.40837031342478947,"Type":"A"},{"Weight":[0.80909094158983363,0.30185338496316849,-0.44210281709307003,0.9109407001691594,0.69554513725244682,-0.644327992873419,0.37350221135350981],"Bias":0.461942015430863,"Output":0.0,"Threshold":0.68368889609523531,"Type":"O"},{"Weight":[-0.52303842991731986,-0.38607051381192659,0.75973187142970588,-0.16744505202744392,0.3142386043044918,0.68168784802858151,0.25074030330904773],"Bias":0.23001621860545884,"Output":0.0,"Threshold":0.64828839648900949,"Type":"A"},{"Weight":[0.89589820238570594,-0.73128175490129821,-0.50989361037960912,-0.38147144316764148,0.98676306707168138,0.43592809021283319,0.45013131781021659],"Bias":0.98618443123352917,"Output":0.0,"Threshold":0.25305552047353963,"Type":"GT"}],"output":null,"numNeurons":13},{"neurons":[{"Weight":[0.50522441999298728,0.70282099614982541,0.090014637955471238,-0.18364944596944816,0.80628144778603761,-0.99904752895191662,-0.72521381486450032,0.78540770326992859,-0.99992464901875922,0.04912598433397989,0.88780499430736759,0.33451706233179063,0.66729541945610915],"Bias":0.75375221239111956,"Output":0.0,"Threshold":-0.27715993638949465,"Type":"A"},{"Weight":[0.9976847828355081,-0.23586409736232092,0.2748558936989195,-0.19307720623588059,0.64126711694582694,-0.32624416441016091,0.575189995381604,-0.98771553811976476,0.71071427534833287,0.664723614540288,0.98625978221477,-0.83620589917348975,0.38716851751653875],"Bias":0.61290626954888283,"Output":0.0,"Threshold":0.090551674408163724,"Type":"GT"},{"Weight":[0.95448224710043628,0.028025843681779617,-0.6169835336585453,-0.91549645965709181,-0.75248378643416047,0.59471348747364872,-0.81334872348855658,0.22174042520194334,0.34720508304760095,-0.62455378362189684,-0.2054458135764328,-0.6124363218492066,-0.91681947601811009],"Bias":0.92374268124054315,"Output":0.0,"Threshold":0.78969656573128721,"Type":"A"},{"Weight":[-0.11620471073137816,-0.28210338730462986,-0.811195738991348,0.32775162315357087,0.19356295894531672,-0.43329261589483015,0.78066292534613191,-0.18472145785797456,0.98509095655059953,0.22442710642909031,-0.23562425851618138,0.46599789078626686,0.96840873545427286],"Bias":0.2940531877307469,"Output":0.0,"Threshold":0.692998580025974,"Type":"GT"},{"Weight":[-0.31535626729734068,-0.36575256305083287,-0.94009201225828942,-0.5518535988181148,0.47225225925084774,0.20427590431844625,0.33040761078261194,0.88521372800935694,-0.43994257526469538,0.15030580579783107,-0.21415414624575252,-0.565269459302197,-0.45640229361895579],"Bias":0.63652764104145,"Output":0.0,"Threshold":-0.71674545561743219,"Type":"O"},{"Weight":[0.12570146709946053,0.68560509229339894,-0.43326032228454031,0.99306278209810273,0.66833487929233115,0.60044919727391055,-0.080505641680446285,0.65086508572607538,0.75852808903834223,-0.68014420367784068,-0.29393417122491367,-0.54269277422814288,0.20358428461644068],"Bias":0.56053043462360763,"Output":0.0,"Threshold":0.23474718594679012,"Type":"A"},{"Weight":[0.85566031460448178,-0.8469323231125867,0.6762843032722754,0.98961218492575553,0.4426768717554756,0.85356768632939439,-0.335674551006255,0.16406748265217408,-0.29047913862880281,0.48014029137796738,-0.26874092187208165,-0.0366012519395916,0.78338482127682529],"Bias":0.092060268899453929,"Output":0.0,"Threshold":0.46373905868443616,"Type":"GT"},{"Weight":[0.74696228734541792,0.11615075036704109,0.83687318760756091,0.79222247786457767,-0.74615703278507894,-0.57079479637127128,-0.14738382499077535,0.26821058069738118,-0.95436920642590584,0.057798550956788729,-0.65389234835928878,0.75460689456882279,0.64408207947578378],"Bias":0.798506891261091,"Output":0.0,"Threshold":0.46970675767851378,"Type":"O"},{"Weight":[0.47746259229139548,0.98234283923280552,-0.83075871869491358,0.60358613385054571,-0.62089911597822756,0.78277686740401053,-0.39667109045976356,-0.32520051595065769,0.89908311930442375,-0.10901498473669169,-0.881288503241394,0.40594050772764745,-0.83499648693715989],"Bias":0.0037087015824898619,"Output":0.0,"Threshold":-0.40809112200890252,"Type":"GT"},{"Weight":[-0.96683416281213708,0.074023929459053991,-0.60387963224383057,-0.22160216710604827,-0.27166447894259566,-0.97061115315678115,0.46402135466412703,-0.84580807194384189,-0.021031220919001486,0.38285911240748088,0.910110251004859,-0.36069177294182209,-0.95933809036358175],"Bias":0.11993261851367197,"Output":0.0,"Threshold":-0.038687535113975192,"Type":"A"},{"Weight":[-0.09154338859559194,0.46873287459310742,-0.43189226576680889,-0.53088283423841132,-0.79491843459891087,0.84319374842717953,0.66251357535948674,0.23857638111271726,0.54311844359297234,0.097847232174988474,0.30822875504765135,0.025232009601421659,-0.11756956629341914],"Bias":0.96182394724424181,"Output":0.0,"Threshold":0.671663018256269,"Type":"O"},{"Weight":[-0.92498905161627987,0.0748042390098815,0.081415101923707461,0.905473658771009,-0.22717985661103385,0.51810275042341214,-0.56089039312717059,-0.73609241551537641,-0.20181526159952173,-0.16378453009006777,-0.92720435044132377,-0.94084030293898668,-0.19326998768060932],"Bias":0.17026300224022148,"Output":0.0,"Threshold":-0.93658924006698152,"Type":"A"},{"Weight":[0.49843719997370484,0.54494830246313863,0.35528979420442591,0.6306830917627938,-0.85464139229368485,0.60160831110626845,0.51968852873877092,0.26790815185192418,0.087009480729237892,0.79605121901074949,0.90069006425360687,-0.50787848816620118,0.20635248776821069],"Bias":0.24207432905308637,"Output":0.0,"Threshold":0.742023591763351,"Type":"A"},{"Weight":[0.60485313907491656,0.3951523235976474,0.88710972475219041,0.98494226717620259,-0.74729047238234914,-0.57393982846939,0.569993886430745,-0.85064780938003581,-0.85337570442509636,-0.064872495394606378,-0.35663403400994559,0.14053802105623206,0.42869687566007342],"Bias":0.35134132781594124,"Output":0.0,"Threshold":-0.051012074132921206,"Type":"O"},{"Weight":[0.41820478738202005,-0.31545209061142621,0.85860710072266266,0.27716406401114729,0.82519058269690282,-0.79339591823210753,0.1753612706322974,0.33900681759184542,0.96719478208906706,0.64328841895018163,-0.69854911402731623,-0.6771510963687446,-0.28113755317457839],"Bias":0.8283463976477955,"Output":0.0,"Threshold":-0.83244923727235254,"Type":"GT"},{"Weight":[0.30754160662532859,0.44451968811662851,0.65760851169825,-0.99401533184294366,-0.84171718956982589,-0.97772389882138178,-0.40334941279299064,-0.62153588404019167,-0.072249988593277512,0.22369626873344942,0.99405374936482582,0.40772365518273956,-0.104815861724697],"Bias":0.21150840363069828,"Output":0.0,"Threshold":0.1534881443499998,"Type":"GT"}],"output":null,"numNeurons":16},{"neurons":[{"Weight":[-0.4447148267387947,-0.89932938939860529,0.85946572518882614,-0.23143577400196147,0.65372648912189835,0.61407070076748294,0.42536450197238684,0.46706902164363723,0.22130381838479257,-0.11198420315607646,0.40804629652204283,0.63162180717644367,0.76375447668309993,0.94097510443114452,-0.25293805787942281,-0.840527187492944],"Bias":0.3403519686965048,"Output":0.0,"Threshold":0.41354642222334931,"Type":"GT"},{"Weight":[-0.50402002339438534,-0.76207015885136564,-0.840814214591316,-0.56996977961155115,0.37998304859734283,0.98235915321035272,0.63774684008105975,0.99020458524590571,-0.823748048778506,0.39633119823240265,0.52117776382769354,-0.53772913410222578,-0.80198589144367072,-0.8096913503528067,-0.75668012246334926,-0.62548503960738189],"Bias":0.44073155403171271,"Output":0.0,"Threshold":-0.38838850026409538,"Type":"A"},{"Weight":[0.7783579033698691,-0.44417767666474806,-0.038783188927352052,-0.55182439533612893,-0.54384738465018911,-0.20136279482457917,-0.48356733959334314,-0.59364378060849554,0.017215223990946646,0.5575027575518483,-0.61663453309640037,-0.62420646270001612,-0.54797934254071645,-0.48358680144119393,0.95246508203095992,-0.089072403539471517],"Bias":0.688320635672808,"Output":0.0,"Threshold":0.92326443405973935,"Type":"A"},{"Weight":[-0.7721956529525088,-0.79717866927253955,-0.41569755012900456,-0.78941180267809508,-0.19096334427174336,0.69638722468930636,0.60303509077198569,0.99460285575809093,0.830885742712247,-0.45030561808976605,0.061585386312373626,0.50239626108780333,-0.90776808183070645,0.23333927301379817,0.32209874332048871,0.77013188915798991],"Bias":0.39276492660528278,"Output":0.0,"Threshold":-0.45568758084237926,"Type":"A"},{"Weight":[-0.899868544610156,-0.12080052780024732,-0.63939916884498627,-0.25752473122325015,0.69362799063959535,-0.58026908644487574,-0.97593821770322431,-0.41847259710471735,-0.47295881596997325,0.076370813453742678,-0.84355933351607959,-0.22205479872508663,-0.11858550604366953,-0.068716001263221721,-0.58110693636401878,-0.1364480904938877],"Bias":0.14972341440139497,"Output":0.0,"Threshold":0.32334322637102719,"Type":"GT"},{"Weight":[-0.44886629164631769,0.71014776300180138,-0.73816486994650443,0.955139982958855,0.78825113167439176,0.59736809348564968,0.53353185790289748,0.087344089563630559,0.37931676738863662,0.82770029587098415,-0.20562507827096854,-0.14612424799526308,-0.16467571685308391,0.61563358065468887,-0.81792569384813574,0.30123526710143095],"Bias":0.50157226785159315,"Output":0.0,"Threshold":0.015266731388525447,"Type":"O"},{"Weight":[-0.775007483910307,0.038341181836249856,-0.193270712715234,-0.2589262003353453,-0.61873739800357141,0.70542703136123108,-0.04874022959207195,0.76803074254096981,-0.49564293050004304,-0.19758078744522334,-0.039471616055570362,0.66351795134298408,-0.6900221634144067,-0.1354686036405473,0.48114532440954139,0.47513841207844132],"Bias":0.98169054835182179,"Output":0.0,"Threshold":-0.79998113764449075,"Type":"A"},{"Weight":[-0.536935752507735,0.55818713622083294,0.81469699545516494,-0.80455627935219387,0.31313881059789045,0.50880344189182081,0.66489083397429938,-0.15695206083215404,-0.81768594394330207,-0.24789133586356943,-0.58465919391469057,0.84788142603257732,0.13319189759585629,0.85505959012315591,-0.616866909254746,-0.94793831508045],"Bias":0.096236215017845961,"Output":0.0,"Threshold":-0.636891120410008,"Type":"A"}],"output":null,"numNeurons":8},{"neurons":[{"Weight":[0.26061621041065836,-0.22955228259300453,-0.59084755582308746,0.0040174461919895588,0.54638132059312483,0.75435653736552066,0.065924090829642526,0.687146119627704],"Bias":0.64444879751859641,"Output":0.0,"Threshold":-0.5464804282162713,"Type":"O"},{"Weight":[0.76251273498056116,0.91110035027894209,-0.13059198350207507,0.12597690575103132,-0.26004434994423964,0.027999713564291463,0.951105836756111,0.55706973353264377],"Bias":0.018339053270564905,"Output":0.0,"Threshold":0.0058555919704286344,"Type":"O"},{"Weight":[0.84386397984058781,-0.58681057700273143,0.10070305275763528,-0.55094281842510351,0.26079219545274607,-0.45178741749924956,0.81931712889080732,-0.7716580754014003],"Bias":0.64944575012170047,"Output":0.0,"Threshold":-0.2746925392535946,"Type":"GT"}],"output":null,"numNeurons":3},{"neurons":[{"Weight":[0.26595104405002251,0.053530252563548389,0.065078477871175142],"Bias":0.19088057996280519,"Output":0.0,"Threshold":0.14350944903842614,"Type":"A"},{"Weight":[0.63859320554816779,0.30591166219949334,-0.8556312033234309],"Bias":0.69794242628754233,"Output":0.0,"Threshold":-0.85415669058177468,"Type":"O"}],"output":null,"numNeurons":2},{"neurons":[{"Weight":[0.47727420668922094,0.041063650530326949],"Bias":0.86996093060353819,"Output":0.0,"Threshold":-0.18717489307149077,"Type":"O"},{"Weight":[0.084552578201774781,0.65414976917866141],"Bias":0.63179862482091342,"Output":0.0,"Threshold":-0.57791293579056535,"Type":"A"},{"Weight":[-0.55071891637086823,-0.04942804996363262],"Bias":0.34307327323736309,"Output":0.0,"Threshold":-0.30764440414851735,"Type":"O"},{"Weight":[0.53774190206906847,0.16587964313378542],"Bias":0.23988142853597247,"Output":0.0,"Threshold":-0.95150332383415814,"Type":"GT"},{"Weight":[0.23018340171788979,-0.78867683736080152],"Bias":0.012466602033221443,"Output":0.0,"Threshold":-0.72484998624997676,"Type":"A"},{"Weight":[-0.087495144497368088,0.86859521310245391],"Bias":0.98444343636950638,"Output":0.0,"Threshold":0.693901221591002,"Type":"O"},{"Weight":[0.57749819130520252,0.14722350991667413],"Bias":0.19502067900962228,"Output":0.0,"Threshold":-0.54479842937774881,"Type":"A"},{"Weight":[-0.40045651812127631,-0.39984711930148636],"Bias":0.021295249937705346,"Output":0.0,"Threshold":0.18735856338746779,"Type":"A"},{"Weight":[0.32311066534515037,0.62858416681577645],"Bias":0.78923609842976372,"Output":0.0,"Threshold":0.21275955215690637,"Type":"A"},{"Weight":[-0.84050702761882312,-0.27256709396493023],"Bias":0.43904919104606344,"Output":0.0,"Threshold":0.37281430716291736,"Type":"GT"},{"Weight":[-0.83929242931273418,0.33852868077276677],"Bias":0.804279813917484,"Output":0.0,"Threshold":0.60200373297650545,"Type":"GT"},{"Weight":[0.34476821792534,0.66491694174004579],"Bias":0.32500286694849045,"Output":0.0,"Threshold":0.83856208335541282,"Type":"GT"},{"Weight":[0.18293847245301048,-0.46699356914823575],"Bias":0.0653170547752255,"Output":0.0,"Threshold":-0.68340354072088538,"Type":"GT"},{"Weight":[-0.16286805559083264,0.97802508807649147],"Bias":0.27223133541281863,"Output":0.0,"Threshold":0.99653088347824792,"Type":"O"},{"Weight":[0.39911866299766985,0.51726303459949],"Bias":0.848829882614701,"Output":0.0,"Threshold":-0.30414512348554334,"Type":"A"}],"output":null,"numNeurons":15},{"neurons":[{"Weight":[0.94319919447563549,0.17018906360966576,0.73621655895198534,0.0019449442634102629,-0.37243051285502993,0.703503232311226,0.39120001457221809,0.15588888859184874,-0.97379004162447058,0.4829252341217013,-0.1171034742692036,0.34823733444709204,-0.63727473078168684,-0.76899642812507063,-0.7526910899918019],"Bias":0.87879334896746708,"Output":0.0,"Threshold":0.40677651828470479,"Type":"O"},{"Weight":[-0.12211786029958997,0.06071320272084009,0.42665149663884727,-0.97608014381308117,0.8998008225577887,-0.027077379183414102,0.0079186484254517818,0.36137414600764128,0.87503984099023036,-0.84584420632843127,0.51755278628205548,-0.29770394428526237,-0.91056787963517372,0.73186963504733038,-0.018951586922142463],"Bias":0.2380582053391534,"Output":0.0,"Threshold":-0.29672671402652129,"Type":"GT"},{"Weight":[-0.656405765403251,-0.85412580932216986,0.9666800983094983,-0.64789850108693281,-0.51335281436953362,0.86138904414204376,0.37755985203085463,0.95992490274828157,0.17626685750496893,0.56093231195627358,0.28534171417604282,0.73975831770326861,-0.9063281490962618,-0.088618881576051411,0.0045386767035995972],"Bias":0.641621123832474,"Output":0.0,"Threshold":0.73035066515689284,"Type":"O"},{"Weight":[-0.12107704771732775,0.10658915019900964,-0.94413343022769947,-0.44922978638169814,0.016692743178779605,-0.42033359614216426,0.97317820646482434,-0.72072099275920587,-0.14485695685486166,0.73579440207024771,-0.30296379993807704,-0.3786683089000491,0.25056586379677331,-0.57381783592226809,0.089074533939861936],"Bias":0.8269368814429906,"Output":0.0,"Threshold":0.13103837898515089,"Type":"O"},{"Weight":[0.87043656728716412,-0.68538698027161271,-0.023846390202569956,0.19952856292926174,0.5753795595724972,0.35865696629446792,-0.10273523167834395,0.57471325554638786,-0.43382005134309642,-0.994556263086645,-0.11664933437325495,-0.86427921050427448,-0.467579964300422,-0.6095896529078435,-0.334865041698732],"Bias":0.0022090575668071667,"Output":0.0,"Threshold":0.28929521715701334,"Type":"GT"},{"Weight":[-0.8699194527556745,0.54158847617990735,-0.24623199470631405,-0.31164718899486921,-0.48895390307947711,0.71647828059106988,-0.788031428487986,-0.77775099723495122,-0.500855754828479,-0.13648211589850584,0.84129738334626769,0.85269817283968352,0.99054106510735163,-0.76793517021831836,-0.526537096838717],"Bias":0.90840332112666378,"Output":0.0,"Threshold":0.069361749137454548,"Type":"A"},{"Weight":[0.47834340877753839,0.2359747440721722,0.12531074421727598,0.13906443078958636,-0.56778968198587643,0.31497562272240204,-0.26533534157338334,-0.31901453636540777,0.58116118217872514,0.1528131012585075,-0.17393410539903403,0.1510454365755643,-0.69619486233973638,-0.59033440872576759,0.91502456456191117],"Bias":0.55965260907991443,"Output":0.0,"Threshold":-0.64711653145361525,"Type":"A"},{"Weight":[-0.7472115656115168,0.075536569615610213,0.33008339830212452,-0.96378983555538111,-0.24590330023593424,-0.33895745423573881,-0.70514427856781714,0.78374849296349491,-0.91220144038656792,0.91654864787894708,-0.91356963753400822,-0.41992420955557574,0.050889261556272054,0.045952275416791567,0.76006310841071567],"Bias":0.83657067121778184,"Output":0.0,"Threshold":0.66785909126878673,"Type":"GT"},{"Weight":[-0.63682311290727145,0.94781715839533931,0.2167315167452821,-0.77490463376739283,0.81032317029792966,-0.54869794498602764,-0.57060809599729634,-0.42513566670247149,-0.083389840127616119,-0.73056788357466829,-0.78695804802093561,0.78685714154823549,-0.70288236937619852,-0.45424315633915513,0.40614660196292524],"Bias":0.61990422132420553,"Output":0.0,"Threshold":0.67109836296695213,"Type":"O"},{"Weight":[0.74707737879225866,-0.55536621043242806,-0.14485688933397498,0.15606568854118963,0.61179376794574492,0.79962139986437808,0.27895027365486613,-0.5050446044211484,0.48880856134407619,0.93729120769411844,-0.77784960799750391,-0.32537604371336104,0.12450718187005594,0.19837451316340571,-0.601577793062468],"Bias":0.074666322709371485,"Output":0.0,"Threshold":0.87759958201907551,"Type":"A"},{"Weight":[0.45935653823397893,0.85647498530171573,-0.053207313666682368,0.98265153401654748,-0.71330085942209742,-0.92759582490082637,0.20157475499509589,-0.52856496001061282,0.1848963374201657,-0.73380715527283358,-0.36248701455187377,-0.34613926398853739,-0.96030470727025752,-0.0655564652129805,-0.30426744944614703],"Bias":0.6506873428126273,"Output":0.0,"Threshold":0.92202181784530257,"Type":"O"},{"Weight":[0.38016182015657507,-0.49174692737485604,-0.58529915455044212,0.537171326362142,-0.59842762611733169,-0.29300410872930854,0.53463173310022416,0.21273010932501876,-0.951721934113522,0.14379242674624196,-0.067784458896044855,0.40748109501203572,0.038273243717045172,0.40108043998530157,-0.5768453560661736],"Bias":0.41081613321360955,"Output":0.0,"Threshold":-0.0055740070555238084,"Type":"GT"}],"output":null,"numNeurons":12},{"neurons":[{"Weight":[0.77714071459003753,-0.69466572706339214,0.26315285277699718,0.46575021206669054,-0.082266696301413089,0.921672058255259,-0.4819067499981759,0.7606143456700325,0.55741877321033684,0.040742189176726243,-0.35615417517542569,-0.9700382188754334],"Bias":0.94074224212241464,"Output":0.0,"Threshold":0.069573862510534865,"Type":"A"},{"Weight":[0.36030226310729152,0.28743010167378469,-0.18173577831207577,0.43558939473498121,0.25705620705012988,-0.88063957396924475,-0.60203424682935436,-0.32521439871062263,0.1166011854617862,-0.91917368998712567,0.8162310103961411,-0.85339736000327271],"Bias":0.25823257782414211,"Output":0.0,"Threshold":0.57200161347724576,"Type":"A"},{"Weight":[-0.59613954303606387,-0.45535635643422434,-0.57748875607619465,-0.47661900402820623,-0.75433206639919992,-0.692282889826355,0.76645111514555808,0.2663973552484053,0.89758981712981589,-0.17886009448154833,-0.018728751697916886,-0.33535618117794219],"Bias":0.1504001725234092,"Output":0.0,"Threshold":0.60345000662070236,"Type":"O"},{"Weight":[-0.999659074470242,0.48142530418998808,-0.47067793480617831,-0.38133579882855334,0.24181361461142711,-0.62188965297392085,-0.7104673738174454,0.72561447402723811,0.0782553544632417,-0.59938928978489214,0.44827444546309975,-0.32975479882664738],"Bias":0.39314151899569738,"Output":0.0,"Threshold":-0.70934100528682631,"Type":"O"},{"Weight":[-0.90735217924572165,0.043178817743053106,0.64219832962481227,0.22955118735765628,-0.70058887205114073,0.662142077769219,-0.40180320497686195,-0.61843518755325821,0.2194741271526898,0.4586004235123286,-0.76447720442175737,-0.091948643369576255],"Bias":0.0040607168358102056,"Output":0.0,"Threshold":-0.47056842943214272,"Type":"A"}],"output":null,"numNeurons":5}],"OLayer":{"neurons":[{"Weight":[0.49574401299270987,0.88936582947586007,0.18726337430405587,0.75874199986399249,0.77412255563499521],"Bias":0.91263468932017433,"Output":0.0,"Threshold":0.81397715155686123,"Type":"OT"},{"Weight":[0.92382060174076841,0.14926147980115445,0.71750724349054851,0.52040063614044363,0.47207108441371054],"Bias":0.28221300490303569,"Output":0.0,"Threshold":-0.6704569056958225,"Type":"OT"}],"output":null,"numNeurons":2},"NumLayers":10,"Breedibility":0.49174419766838856,"Mutibility":3.4157066016531115,"Repetition":0}
