{"Input":[0.0,0.0],"Output":[0.0,0.0],"DLayers":[{"neurons":[{"Weight":[0.39570335550033642,-0.29688628776785281],"Bias":0.12599178968276445,"Output":0.0,"Threshold":0.79732552207881846,"Type":"A"},{"Weight":[-0.78324351403081949,0.54269675935744155],"Bias":0.80567992469560357,"Output":0.0,"Threshold":-0.67651306543336853,"Type":"GT"}],"output":null,"numNeurons":2},{"neurons":[{"Weight":[0.73562891023961308,-0.80670443261354441],"Bias":0.42794076326672953,"Output":0.0,"Threshold":-0.12109804811007252,"Type":"A"},{"Weight":[-0.25086668564512704,0.78247406370121708],"Bias":0.19157140943760584,"Output":0.0,"Threshold":-0.670487951799523,"Type":"GT"},{"Weight":[-0.13042395148911698,0.90209489078358507],"Bias":0.8276690150739946,"Output":0.0,"Threshold":0.083779311312259783,"Type":"GT"}],"output":null,"numNeurons":3},{"neurons":[{"Weight":[0.76127651602089241,0.27538583207660627,0.41320441077146886],"Bias":0.056275725856551773,"Output":0.0,"Threshold":-0.75359398115128,"Type":"O"},{"Weight":[-0.15692521033665408,0.95437295546493162,0.39615145390674072],"Bias":0.42346853503187587,"Output":0.0,"Threshold":0.87512510403763744,"Type":"GT"},{"Weight":[0.99349983641575079,-0.59284229930156951,0.68957532555310774],"Bias":0.44767461412012327,"Output":0.0,"Threshold":-0.50394041720029914,"Type":"GT"},{"Weight":[0.65184959892735328,0.83673428363946,-0.66666424724583717],"Bias":0.16425253644783633,"Output":0.0,"Threshold":0.17406511128603719,"Type":"O"},{"Weight":[-0.72619833784466536,-0.82890543287103313,-0.04698205741447492],"Bias":0.17605099602418534,"Output":0.0,"Threshold":0.26107585907963843,"Type":"A"},{"Weight":[-0.40420048004211878,-0.29768616161201439,-0.34639838307462556],"Bias":0.070483785621115833,"Output":0.0,"Threshold":0.93659634047029372,"Type":"A"},{"Weight":[0.53991616961542344,0.5112710434530261,-0.016882488511913683],"Bias":0.48006642166528218,"Output":0.0,"Threshold":-0.00418854877547759,"Type":"GT"},{"Weight":[-0.69299538279557382,-0.037462829163979194,0.16409903446403287],"Bias":0.76276667172218049,"Output":0.0,"Threshold":-0.59108643494131341,"Type":"GT"},{"Weight":[-0.49920497718230122,-0.99799698032345485,-0.0053256554553870374],"Bias":0.60062733925908218,"Output":0.0,"Threshold":0.75706150697407382,"Type":"A"},{"Weight":[-0.38728817756627137,-0.19709682986005062,-0.647691916044658],"Bias":0.59285303186292437,"Output":0.0,"Threshold":0.87576559180196634,"Type":"O"},{"Weight":[-0.017813800842414518,0.95997751409186871,-0.41461274093697442],"Bias":0.17119137811064319,"Output":0.0,"Threshold":0.86316759458890535,"Type":"GT"},{"Weight":[-0.40683773970549819,0.64478890627845609,-0.2387434603826811],"Bias":0.55433832833279773,"Output":0.0,"Threshold":0.37655622948732054,"Type":"O"},{"Weight":[0.65798437020647538,0.40040252516064911,-0.55109131315308213],"Bias":0.052306593885788039,"Output":0.0,"Threshold":0.93774899185530325,"Type":"O"},{"Weight":[0.296522729236876,0.60621305909297107,-0.17388130220299647],"Bias":0.22662124094861619,"Output":0.0,"Threshold":0.430433034165964,"Type":"GT"},{"Weight":[0.27200401354208775,-0.84148776477272047,0.090222096112660174],"Bias":0.58286728969908663,"Output":0.0,"Threshold":0.41182365147947503,"Type":"GT"},{"Weight":[-0.619524700855615,-0.92795140618828653,-0.13038597774244193],"Bias":0.77145992208805858,"Output":0.0,"Threshold":-0.15593900492225726,"Type":"A"}],"output":null,"numNeurons":16},{"neurons":[{"Weight":[-0.23344238625533989,-0.92533773692573318,0.519836659785284,0.14135182003553576,-0.91140093044908765,0.12390529416683377,-0.0972855864545729,0.92052462553629866,0.25363912352064583,0.64320048626661319,-0.640482942406313,-0.49245214950873151,0.080225926861272154,-0.19502678010381142,0.87907241605179032,-0.0706822360263589],"Bias":0.770828518909788,"Output":0.0,"Threshold":-0.74803813674861475,"Type":"A"},{"Weight":[0.9161500278469874,-0.57038543632737615,0.44151546966355082,-0.94956944647690722,0.49561940668878118,-0.83066581973371367,-0.20986135220614324,-0.51782079856741281,-0.37327214673779541,-0.46200752000417911,0.5838887941017229,0.080273965876677053,0.67815751148302,-0.73231946012578875,0.056013937599963481,-0.8856256375488013],"Bias":0.26312145603034715,"Output":0.0,"Threshold":0.25940582447657634,"Type":"O"},{"Weight":[0.14343097672957506,0.44095642745539382,-0.12720916845240127,0.875091897731224,-0.12838385399821395,-0.16318975629433513,0.038061809278122062,0.04068825442376,0.2860306167444357,-0.077230006957999434,-0.905989543025377,0.35654902381661768,0.068112315176107135,0.1116643902434336,-0.67421700836821319,0.84638173964171748],"Bias":0.44792461416121787,"Output":0.0,"Threshold":-0.250445183948821,"Type":"A"},{"Weight":[0.62584522954460475,-0.029454602873630172,0.67953453477450387,0.43240313205514247,-0.60511095524072223,-0.31745651332543068,-0.6692566385815184,-0.063216832961522432,0.18217581751857689,-0.36138607159321479,0.25194492715035793,0.77193885192830991,-0.21310943142190084,0.84616627257604449,-0.23914184479002926,0.017856065657854112],"Bias":0.32986802902532186,"Output":0.0,"Threshold":-0.27591005865294022,"Type":"GT"},{"Weight":[0.85244325308708624,-0.68198906056675546,0.57719531821887726,0.068103802887771181,0.27659461054792378,-0.11641787510198443,-0.41820153706623314,0.76827971021099006,-0.8890591123556062,0.51283326862046186,-0.85001750097145212,0.046005541014487644,0.713724412356375,-0.3534920822612439,0.24868271464886271,-0.097586264413588808],"Bias":0.10341714327382723,"Output":0.0,"Threshold":0.39914256911684881,"Type":"O"},{"Weight":[-0.92185446616348554,-0.55663720823667817,0.69963786643912917,0.256563434031123,-0.97299950894573684,0.22876394690422525,-0.44445451835377819,-0.89855751297369479,-0.76307679003247841,-0.8140567628732216,-0.77210949350712332,0.63237444573658264,0.41042301450410068,0.5528908202205276,0.58662383239093419,-0.38920108945537407],"Bias":0.93637779258954235,"Output":0.0,"Threshold":0.40421892721402408,"Type":"O"},{"Weight":[-0.60822188044349745,0.15846569377857525,0.23973312426346033,-0.61711764178104589,0.55667370118045889,-0.94792220832217589,0.63128237502243478,0.63026978989609972,-0.58508580624362727,0.59195128948984266,0.38291276776367461,-0.077606815880912741,0.417474496838392,-0.94227550222644374,-0.964346950391469,-0.83760591262840012],"Bias":0.251548356959386,"Output":0.0,"Threshold":0.024785614118345834,"Type":"GT"},{"Weight":[0.061612378368904992,-0.11641357052904254,-0.4747542680589269,0.23508396895373426,-0.72780486788964127,0.11547234752935932,0.092801505277306545,0.43397316170575712,-0.81226763772418142,0.49085913109167439,-0.94719662235453572,0.46217768707414048,-0.57483070417066606,-0.39582942211806282,0.74190246441490126,0.82335937946259952],"Bias":0.3757902641667939,"Output":0.0,"Threshold":0.8919964380990697,"Type":"GT"},{"Weight":[-0.056220081660999024,-0.3552282882645858,-0.52979556914875081,0.2961059223376708,-0.39433636394996957,-0.157126708495024,-0.7757318172490838,-0.22796795341557263,0.53392648302667145,0.7910767294424943,-0.47222689188654854,-0.68017258293934757,0.876368651108988,0.089012173045897938,0.65462370433594275,-0.27825624415569766],"Bias":0.68413532557158518,"Output":0.0,"Threshold":0.78329193442281886,"Type":"O"},{"Weight":[-0.73701577667939278,0.31354677319226171,0.83844898121359246,-0.33558804883416188,0.21006271951369138,0.57123690497653412,0.6797186637668492,0.072570277877417516,0.1009197086565754,0.17845433539638964,-0.65677541944048157,0.23434604342763593,-0.15768000537421556,0.2848677087039071,0.0099727497482545446,0.77434960649085682],"Bias":0.36633771349039751,"Output":0.0,"Threshold":-0.75264831807122023,"Type":"O"},{"Weight":[-0.3998979443683745,0.088608493604049321,-0.050901108910749254,0.89750212053652023,-0.31687834175158214,0.1403995869403703,0.43640530874785283,0.099885358521661416,-0.60483759902642931,-0.81854421590387083,0.14579839312741458,-0.54282443856020668,-0.23781856533038362,-0.27662896051845931,0.1629948835647641,0.30170297869560447],"Bias":0.24176657211117753,"Output":0.0,"Threshold":-0.91878823140579657,"Type":"A"},{"Weight":[-0.80606072433575093,-0.61882981500533862,-0.350161327677854,0.3248019806690523,-0.335588084690081,-0.44895546857684637,0.85643628279512574,-0.38760228379983563,0.9341041021673494,0.0079836533442063512,0.54774784694786549,0.71172205252187426,0.11694191215417436,0.776029277488603,-0.11926850216429145,0.74880204477757306],"Bias":0.35346309531175674,"Output":0.0,"Threshold":0.08953793537315817,"Type":"A"},{"Weight":[0.41896331981707519,0.13919100078716454,0.34706447010257491,0.026873224893060151,0.0012718029326162315,-0.39730479540177843,0.19119473835043363,-0.99296624352827956,0.91080457806159021,-0.4625995762006378,-0.51719166502225755,0.1462626346136735,0.519292604885666,-0.61744002235002815,0.54549704703758328,0.040598956886957846],"Bias":0.0014781155630378591,"Output":0.0,"Threshold":0.011678402317538113,"Type":"O"},{"Weight":[-0.79374518608383149,0.38096702349417239,0.69927395912784807,-0.59940203446867035,0.24645624693783758,-0.5468865812508793,-0.22036299771646178,0.606812499280466,0.62693835917252039,-0.85873221646003994,-0.4090770345223495,0.3311839058674797,0.18867589169585886,-0.39802242647764385,0.84196795143278691,-0.1766332691426544],"Bias":0.0635771411767123,"Output":0.0,"Threshold":0.61420181049695322,"Type":"O"},{"Weight":[0.15344908514686351,0.3806395811869947,0.41875394313538167,0.45994403840040043,-0.039834079816860185,-0.90189584572887782,-0.32452589195432413,-0.13995998824944719,0.15294618585749817,-0.96968739850897689,0.826323236723581,0.55295604120611963,0.37018015252900316,0.39240705240164281,-0.42128462364025632,0.082532960959958365],"Bias":0.9248864603810415,"Output":0.0,"Threshold":0.85351506380993647,"Type":"GT"},{"Weight":[-0.52285226179419653,-0.98205339907764144,-0.97284667704852612,0.72050972921797529,-0.0027185357188426592,0.745407519743502,-0.49044645973036366,0.026570150175397354,-0.64451441198797632,0.92697419874694864,0.16801160209253971,0.37880893348660738,0.519480578377601,0.500090088462499,-0.38879695925339913,-0.18063892711915025],"Bias":0.55595406869237962,"Output":0.0,"Threshold":0.23398927237558612,"Type":"GT"}],"output":null,"numNeurons":16},{"neurons":[{"Weight":[-0.47249799476587118,0.41651404295885658,0.83561006972361829,0.077683113551551067,-0.77199107118509291,-0.3426376270794485,0.52772973642113141,0.77075573185959634,0.13277203083633074,0.93687225828732934,0.092768078713104163,0.12895243760615235,-0.048045894619098813,-0.70698387720947331,-0.27439669159911417,0.25645718735477757],"Bias":0.98336709476232864,"Output":0.0,"Threshold":-0.028082706978583106,"Type":"O"},{"Weight":[0.510460155788092,0.33240153236892145,-0.30112581993505627,0.74748950719250806,-0.15745246138305052,-0.86106722283226778,0.40988319525955391,-0.42318203785604891,-0.63826175250032069,-0.43395243884713969,0.25915535598022649,0.85206759062226289,0.08495716475181149,0.50966441142822816,0.86914615187288546,-0.35743300028025776],"Bias":0.789630358009427,"Output":0.0,"Threshold":-0.0047327969245299683,"Type":"GT"}],"output":null,"numNeurons":2},{"neurons":[{"Weight":[-0.14283329674174697,-0.98754386137590922],"Bias":0.41066153739144168,"Output":0.0,"Threshold":0.75226664391917486,"Type":"O"},{"Weight":[0.37289599393163619,0.72992672851771434],"Bias":0.76042702876051282,"Output":0.0,"Threshold":0.86525123327283715,"Type":"O"},{"Weight":[0.6772272478217386,0.0036652181314608167],"Bias":0.82534047487440543,"Output":0.0,"Threshold":-0.70908179679377092,"Type":"O"},{"Weight":[0.039960348531585352,0.3183278200767598],"Bias":0.36142019338971942,"Output":0.0,"Threshold":-0.54445752526841007,"Type":"O"},{"Weight":[-0.92312239246588312,0.49542845575857369],"Bias":0.44640857747123047,"Output":0.0,"Threshold":0.26456985122737003,"Type":"A"},{"Weight":[-0.13568543555945412,-0.71206117082017528],"Bias":0.77973768291051393,"Output":0.0,"Threshold":-0.066249283992801458,"Type":"GT"},{"Weight":[0.68633476397317594,-0.11240311018768844],"Bias":0.412415491143435,"Output":0.0,"Threshold":0.71941485056626375,"Type":"GT"},{"Weight":[-0.094507558780958664,0.1902589696414112],"Bias":0.43393882384241506,"Output":0.0,"Threshold":-0.74215141578677646,"Type":"O"}],"output":null,"numNeurons":8},{"neurons":[{"Weight":[0.60153747471121022,-0.66995445157864808,-0.78863775487460086,0.41265739659436856,0.24913692439400448,0.78576120677672379,0.071450733147305781,0.97371106453878387],"Bias":0.34445441204330624,"Output":0.0,"Threshold":-0.28789597530285638,"Type":"A"},{"Weight":[0.9072851803653339,0.2037075418996194,0.061676955810597608,-0.054424522004287934,-0.28697702953916837,0.39353401977267771,0.88362270215694916,-0.17820020819930368],"Bias":0.43876467153372462,"Output":0.0,"Threshold":0.60405063051919017,"Type":"O"},{"Weight":[0.69974571359331983,-0.16327856674943053,-0.79445589976127073,0.023056825633652894,0.21654790510262731,-0.0894844117991088,-0.65015816392850045,0.38953933789839007],"Bias":0.5144499403026187,"Output":0.0,"Threshold":-0.15969898093477775,"Type":"GT"},{"Weight":[-0.09329716865592505,0.37139673082688673,0.25142533949177032,-0.11339792381664642,0.63762191479914909,0.30166095369572793,0.39019896620428141,-0.73230870148740179],"Bias":0.55269519591363858,"Output":0.0,"Threshold":0.1292520505978037,"Type":"A"},{"Weight":[-0.76489609701786943,-0.85776297648333155,0.23110505809593249,-0.28335950816206612,-0.57748622893238732,-0.8336418614879445,0.29590480881552433,-0.66449790199496683],"Bias":0.46809472677674829,"Output":0.0,"Threshold":0.23473111225046736,"Type":"O"},{"Weight":[0.32333295015773406,0.93854001766934059,-0.51943021012443591,0.0640564742796386,-0.6640753520951026,-0.33286851613450258,0.44389941005217814,0.23578873520520924],"Bias":0.48058353852507824,"Output":0.0,"Threshold":0.90551086510788226,"Type":"GT"},{"Weight":[0.5688840265240912,-0.5269389373841411,-0.791977401260276,-0.44449897270859173,-0.033610459432755813,-0.59969899598495058,0.30622189878775824,0.301613131678483],"Bias":0.53972257186645767,"Output":0.0,"Threshold":0.26683433412892482,"Type":"A"},{"Weight":[-0.87522210500911912,-0.82316329647934217,-0.95976798001666,0.83516628054676867,-0.66122344167028713,0.88081566005983192,0.53728871584743665,0.37332833855102227],"Bias":0.39169272193298338,"Output":0.0,"Threshold":0.593554599021354,"Type":"GT"},{"Weight":[0.904581657566401,-0.918439343068022,-0.72204661915174062,0.0789759909170568,-0.38158660818896561,-0.075312007253669211,0.95905520951331369,-0.43692465519389356],"Bias":0.80299597876285944,"Output":0.0,"Threshold":-0.271198323588445,"Type":"O"},{"Weight":[0.18742898255001242,0.83196334765849789,-0.49009384284265983,0.78067536781573454,0.40025886725646392,0.45457171576776156,-0.46788309303479414,-0.97744277025453874],"Bias":0.41287036259326637,"Output":0.0,"Threshold":0.52999744728673126,"Type":"O"},{"Weight":[-0.36946798086607269,-0.23111846075911002,0.97415131562117085,0.6035286521555524,-0.073958736413139256,-0.894177696152673,-0.20833716039002742,-0.3094059644776424],"Bias":0.73890633729235566,"Output":0.0,"Threshold":0.93429220651010625,"Type":"GT"},{"Weight":[-0.2342290646555969,0.27005333698822809,-0.9349525817367027,0.74586611136135927,-0.83797519832755218,-0.82470395826953646,-0.73750432894448947,-0.97406544861107391],"Bias":0.600675443001406,"Output":0.0,"Threshold":-0.560264203492675,"Type":"GT"},{"Weight":[-0.43358648216053214,-0.72137977076758619,-0.71026176061027768,-0.7378308124550762,0.14021474408927129,-0.56544608276590991,0.72692544093678024,-0.71063448288973163],"Bias":0.89480073931384863,"Output":0.0,"Threshold":-0.453971309333095,"Type":"GT"},{"Weight":[-0.92120034430231912,0.88389554893779365,0.31105005941868297,0.38299006940004887,-0.48135236300591022,-0.47211231080447896,0.92429638557336125,-0.251345002675124],"Bias":0.56225771296874516,"Output":0.0,"Threshold":-0.0055484874199835995,"Type":"GT"}],"output":null,"numNeurons":14},{"neurons":[{"Weight":[-0.73340082994354927,0.93332018187889842,0.34612580218637634,0.8887418191361901,-0.88823495148133247,-0.146704133668311,0.16498853972413974,-0.33949233095137976,0.779993269490075,0.089082595933732855,0.96984754315104682,-0.85338368585956459,0.38680394896622933,0.74688082176581061],"Bias":0.53521003878452356,"Output":0.0,"Threshold":0.52357278416099617,"Type":"O"},{"Weight":[-0.73587129811564056,0.18779951435876988,-0.95057536705889523,-0.96492425723230668,-0.49424825026385871,-0.59311741152457775,0.325408177136168,-0.75930784584922151,-0.91185267172374418,-0.78226444347867019,0.9778027948820045,-0.42146567880244257,0.51583607099756412,0.18032220340348884],"Bias":0.79919226877353722,"Output":0.0,"Threshold":-0.29132431200301473,"Type":"O"},{"Weight":[0.23852191504022197,0.48764634294791442,0.71402752851789242,-0.22433370455369991,-0.9885305329172549,0.45683899775931563,0.937995506887322,-0.10713452850800684,0.79497392466057737,0.68556483540943114,0.74130834068232609,-0.40928312363535313,0.032228380456673159,-0.20903832335445952],"Bias":0.19393814550430427,"Output":0.0,"Threshold":-0.17308022555572922,"Type":"O"},{"Weight":[-0.8437544916960199,0.92053497625539782,-0.46747814978821117,-0.36419004777641506,-0.77618166793891308,0.063563164353167251,-0.19294901853098953,0.26429240464432741,0.39364294772671671,-0.996870107016,0.60575947659358353,-0.6233538266380102,-0.35033509151560027,0.67906610000835088],"Bias":0.40557961324489655,"Output":0.0,"Threshold":-0.77453581372952829,"Type":"A"},{"Weight":[-0.73806271643287624,0.087829190347264149,0.773791818308547,0.9642013064418925,-0.30447319769508818,-0.75851299835299746,-0.77359539027027568,0.89313426329434586,-0.721219198182793,-0.056154943097454932,-0.17621011853972921,-0.59716446166726034,0.60510141756623115,-0.21545487046961434],"Bias":0.36894726537584666,"Output":0.0,"Threshold":0.63567412208564311,"Type":"GT"},{"Weight":[-0.16473674781841075,0.22576355665259229,0.40205280641189439,0.047717458125072276,-0.78444144073149258,-0.82605582560694579,-0.90130170476683491,0.62776797014650332,-0.50842879782823325,-0.0072967275079790167,0.71838087063207334,0.63924018882179645,0.65675059783121137,-0.10443884511684945],"Bias":0.32588969605317791,"Output":0.0,"Threshold":-0.89828621777626039,"Type":"A"},{"Weight":[0.49667497840555153,0.20004006996752696,0.21969329389729225,-0.1402935772856202,-0.33981158879576789,0.66085395759942656,-0.31932895645467979,-0.28263808380935251,-0.8914036456921155,-0.55748629083739887,0.62837739457766406,-0.2832649835773115,0.6088726681698452,-0.28228336120130648],"Bias":0.45031329684439736,"Output":0.0,"Threshold":0.793097255655144,"Type":"GT"},{"Weight":[-0.87189625383908687,-0.720754397902989,-0.058536938884545552,0.68518494706842348,0.996426139025216,0.67823897752828843,0.10564541914763181,-0.27334897791657081,0.62125131796172417,-0.36321655677781278,-0.34079992693886157,0.0404216810317811,0.47360216056630117,0.91660986510878883],"Bias":0.67181694306052142,"Output":0.0,"Threshold":0.64213017264480243,"Type":"GT"},{"Weight":[0.67744787674278384,-0.054404316961022242,-0.6589806874557308,0.2879874698296131,-0.62539168243547516,0.23580141003979435,0.19536557802714666,0.29259195192372051,-0.35973664436477082,0.87691208667909359,0.42988069887733121,0.54535529601637056,-0.11683506896571957,-0.67083240005692113],"Bias":0.18567557175908031,"Output":0.0,"Threshold":0.098577275452472857,"Type":"O"},{"Weight":[-0.12467591190928402,-0.837076431995759,-0.658535301060665,-0.61803482501676066,0.4699269665730777,-0.38992138411380417,-0.90998433479572849,0.42770484482296967,-0.50921074697245416,0.2268710272511798,-0.76521808596570884,-0.11683363426329271,-0.22934343862782392,0.045237137491459557],"Bias":0.46737112312920909,"Output":0.0,"Threshold":0.031253229841242187,"Type":"O"}],"output":null,"numNeurons":10},{"neurons":[{"Weight":[0.88150544365938077,0.0638409336394821,-0.96164526742028322,-0.2484598729053791,-0.39386429190349964,-0.85578235092376465,0.20771316634850259,0.86396111122516972,0.96597091432938864,0.16499875679844933],"Bias":0.21596245617417734,"Output":0.0,"Threshold":-0.58907788041470477,"Type":"A"},{"Weight":[-0.67072417385444238,-0.33024149310320683,-0.056738112613902478,0.43867373673183552,-0.86310697713080187,0.028478891136347731,0.3638639111834876,0.54756547955217094,-0.97841115434580073,0.3713537940622092],"Bias":0.26105128333952804,"Output":0.0,"Threshold":-0.045178023653653462,"Type":"A"},{"Weight":[0.18127602626628989,-0.5014002087998205,0.43844388026671666,-0.90468379059093251,-0.56195079840810536,0.26094006898856725,-0.907156255984286,-0.33049491109815188,0.78379815713679335,0.25806725735686126],"Bias":0.78764728307148779,"Output":0.0,"Threshold":-0.2739589648665669,"Type":"O"},{"Weight":[-0.19995801346374584,0.89329509385549233,-0.21772408635249552,0.75363972678484381,0.079972973596292074,-0.88476360770164231,-0.51427646284656436,-0.53221183062168387,0.31231209231182566,-0.028051347950497338],"Bias":0.5122571738959556,"Output":0.0,"Threshold":0.68752345800750114,"Type":"A"},{"Weight":[0.94882115952150015,-0.017484847930020118,-0.78711076629679222,0.72452035067813492,-0.58520236312653984,-0.083771723361579578,0.76181306492621692,-0.0747034768921805,0.29551019673026641,-0.78006904794837773],"Bias":0.29765663123580471,"Output":0.0,"Threshold":0.16507438065720462,"Type":"GT"},{"Weight":[-0.35291480941368025,-0.67840519113391884,0.24590761691606958,0.68051649754891008,-0.505596881036459,-0.987825226033025,-0.28215315997700818,-0.83843538390399674,0.0935535086754493,-0.58021816731440745],"Bias":0.071172276544930538,"Output":0.0,"Threshold":-0.47548764128027837,"Type":"O"},{"Weight":[0.66134785099949123,0.019203790938110924,0.90745441005912353,0.49833428417254905,-0.12925501639454393,0.023009833890483639,0.35250779769965812,0.66140944448365335,0.62811003980604463,0.55112730830494649],"Bias":0.9802121790033822,"Output":0.0,"Threshold":0.85014556434477939,"Type":"O"},{"Weight":[0.79695853488378154,-0.99552888795525252,0.58485621334279714,0.55768188068535263,-0.60388268558489289,-0.39024810418032485,0.97219744043992717,0.60498014539712119,-0.59896989427458958,0.095302896152857183],"Bias":0.35470524959019628,"Output":0.0,"Threshold":0.10139305661497314,"Type":"GT"}],"output":null,"numNeurons":8},{"neurons":[{"Weight":[0.98641703556590576,0.49983510863959563,-0.78167686694379745,0.81120228665471183,-0.10140867768852445,0.17644534687346097,-0.17812419923866363,0.47099378447560303],"Bias":0.14558266575708179,"Output":0.0,"Threshold":-0.13315964170413075,"Type":"A"},{"Weight":[0.18124038501700404,0.82445679736531186,-0.832570840526638,0.77613373183465273,0.086637161246797614,-0.69556547826880843,-0.57489977477812193,-0.59843917777689137],"Bias":0.057846772045757049,"Output":0.0,"Threshold":0.95306683515807,"Type":"A"},{"Weight":[0.579045817525613,0.87078876275140271,0.42853479852366017,-0.42084569503592595,-0.62430911167725411,0.20912258383311452,-0.67817489322189939,-0.13479671680126187],"Bias":0.753083088320253,"Output":0.0,"Threshold":-0.53347808613138181,"Type":"GT"},{"Weight":[-0.5879287764373835,0.69894176567855371,-0.38433924195558727,-0.21661175052477594,-0.60045138774460716,-0.7731020379686272,-0.31095382306303543,-0.70363047379238086],"Bias":0.75081492855717191,"Output":0.0,"Threshold":0.10070827514897486,"Type":"GT"},{"Weight":[0.64469329716856283,-0.13053355651466808,0.35396727982627568,-0.35628198290070612,-0.8693762663143576,0.327638257913123,-0.86127734270937617,0.38213921914908067],"Bias":0.99564836686274427,"Output":0.0,"Threshold":-0.33246994872226843,"Type":"GT"},{"Weight":[-0.7104331919506347,-0.4047364939026239,-0.28947162129425985,0.65727959184780693,0.43432234806675574,0.61399841570015923,-0.99565586214682822,0.071444577570745987],"Bias":0.92582606194812156,"Output":0.0,"Threshold":-0.67487826369464321,"Type":"A"},{"Weight":[0.7857064878501494,-0.30457494980868649,-0.062634180329104033,-0.33123848788963561,-0.66617007910561288,-0.49100188561296176,-0.76129899488822506,-0.19509270610059271],"Bias":0.36620935628479784,"Output":0.0,"Threshold":0.89649688307964093,"Type":"O"}],"output":null,"numNeurons":7},{"neurons":[{"Weight":[-0.72641638793350027,0.22122980198880182,0.67526344474184485,-0.67501374831190974,0.56515629289911884,-0.32077010316810112,0.68240210166312854],"Bias":0.93076839434484415,"Output":0.0,"Threshold":-0.94231952910419536,"Type":"A"},{"Weight":[0.040738269240007861,0.45239371268655815,-0.25337807333719825,0.19565343586525574,0.74437996593507938,-0.673645759315065,0.029329178868480577],"Bias":0.84699100761068569,"Output":0.0,"Threshold":-0.58695470708746211,"Type":"A"},{"Weight":[0.083345147819884655,0.38737073558725915,-0.65622473957772587,0.10101378620649398,-0.17023178244486067,0.078896893225096576,-0.26432431175574861],"Bias":0.32829841660722087,"Output":0.0,"Threshold":0.72509438997371789,"Type":"GT"},{"Weight":[0.617658758823601,-0.7492465315150314,0.42397398195414526,0.78433285783246753,-0.36097760701597559,-0.56753095824622124,-0.30112740690872419],"Bias":0.44154974000600622,"Output":0.0,"Threshold":0.15372820159128317,"Type":"O"},{"Weight":[-0.78403175751866394,-0.029143525766741264,0.86268172965509893,0.98691279626773332,0.81217892505795641,-0.72684657654112517,-0.12247515335794312],"Bias":0.2464327715553496,"Output":0.0,"Threshold":0.19499874636297987,"Type":"A"}],"output":null,"numNeurons":5},{"neurons":[{"Weight":[-0.019259924543676862,0.60318310912846729,0.97238187956268984,-0.98663106327253913,0.789748062281752],"Bias":0.98344949864943021,"Output":0.0,"Threshold":-0.30888631628308738,"Type":"A"},{"Weight":[0.037585613335289814,0.37313587049634006,0.33552755896725112,-0.079952595792688708,0.49854711140438313],"Bias":0.79038894818648187,"Output":0.0,"Threshold":-0.95699628347391086,"Type":"O"},{"Weight":[-0.26329616935145861,-0.10612866054574431,-0.14498051216126442,0.83971445674063383,-0.18084864839019657],"Bias":0.0567616462040514,"Output":0.0,"Threshold":0.47284629404211709,"Type":"GT"},{"Weight":[0.19716473398598131,0.8287294264085262,0.6162504663766597,-0.084889540022653309,0.87329690105900959],"Bias":0.63376838929661006,"Output":0.0,"Threshold":0.39653008542793339,"Type":"O"},{"Weight":[0.82467704304711753,-0.14529872226775564,0.66647376896183652,0.75325701001717571,0.8629704978610252],"Bias":0.16390580412182296,"Output":0.0,"Threshold":0.98466156981171182,"Type":"GT"}],"output":null,"numNeurons":5}],"OLayer":{"neurons":[{"Weight":[0.329297318276622,0.25767274259481243,0.043430429903525129,0.38092462969055613,0.64746566798885619],"Bias":0.72082257723474064,"Output":0.0,"Threshold":0.34074581709725121,"Type":"OT"},{"Weight":[0.25223574705991697,0.072020005933949721,0.22347613248204631,0.074621230864255331,0.50471243332359583],"Bias":0.30288082142494654,"Output":0.0,"Threshold":0.041376050115272428,"Type":"OT"}],"output":null,"numNeurons":2},"NumLayers":12,"Breedibility":0.88132717268603256,"Mutibility":8.9948374633653252,"Repetition":0}
