{"Input":[0.0,0.0],"Output":[0.0,0.0,0.0,0.0,0.0,0.0,0.0,0.0,0.0,0.0,0.0],"DLayers":[{"neurons":[{"Weight":[0.11418585298312169,-0.11679863702356752],"Bias":0.893576236392174,"Output":0.0,"Threshold":-0.837034683133026,"Type":"A"},{"Weight":[-1.5681868142300224,-0.4583134933879196],"Bias":0.38326571224409423,"Output":0.0,"Threshold":-1.4636539218312381,"Type":"O"},{"Weight":[-0.26612072357261585,-0.17391442957982159],"Bias":0.17464087911631954,"Output":0.0,"Threshold":0.99116640584132,"Type":"A"},{"Weight":[0.39276864165103464,0.77971067129620852],"Bias":0.4587461005238565,"Output":0.0,"Threshold":0.80915369247512592,"Type":"A"},{"Weight":[-0.62573177815681869,0.48226286563196352],"Bias":0.27422689472987638,"Output":0.0,"Threshold":0.26479925367273355,"Type":"GT"},{"Weight":[-0.51622477864321548,-0.71568612415142641],"Bias":0.38584234164368475,"Output":0.0,"Threshold":0.99160455306601,"Type":"A"},{"Weight":[-0.011598983784950796,-0.43298572787688383],"Bias":0.32960842052922046,"Output":0.0,"Threshold":-0.50502663408640147,"Type":"GT"},{"Weight":[0.36164739104530191,0.2609068631478153],"Bias":0.868227569790663,"Output":0.0,"Threshold":0.59844414789622857,"Type":"GT"},{"Weight":[0.57088897988096066,-1.6295840645346718],"Bias":0.43203487602040869,"Output":0.0,"Threshold":0.91437026807776212,"Type":"A"},{"Weight":[-0.21797646871673709,-0.47721530146767166],"Bias":0.81242983081025533,"Output":0.0,"Threshold":-0.79792963331468847,"Type":"A"},{"Weight":[0.11418585298312169,-0.11679863702356752],"Bias":0.893576236392174,"Output":0.0,"Threshold":-0.5248723330557683,"Type":"O"}],"output":null,"numNeurons":11},{"neurons":[{"Weight":[0.45936927732982175,-0.0851928944863346,0.65244997043742337,0.33923118600586016,0.99243437451889471,-0.1128034093942509,0.91735345074783714,-0.689068967448114,-1.2858274128687697,0.062581433478082316,0.16949360336619129],"Bias":0.2353598569684475,"Output":0.0,"Threshold":1.8605974185562682,"Type":"A"},{"Weight":[-0.84993216295257779,-1.2172014424424624,-0.915534063435874,0.14747379820210549,0.52282527439427806,0.57591467330973345,0.502493848152223,0.77255526110416051,-1.7609205636013861,0.81083758771924186,-0.629168854620852],"Bias":0.59479775400590051,"Output":0.0,"Threshold":-0.57782504967312565,"Type":"A"}],"output":null,"numNeurons":2},{"neurons":[{"Weight":[-0.85770812530895146,-0.79207988108605143],"Bias":0.89882356948164455,"Output":0.0,"Threshold":-0.80151919429261209,"Type":"O"},{"Weight":[0.48097211144909824,0.31430328931394186],"Bias":0.023740356333432886,"Output":0.0,"Threshold":-1.4346138068636012,"Type":"A"},{"Weight":[0.054905534281817048,0.66964851630369582],"Bias":0.01528094663064971,"Output":0.0,"Threshold":0.27586884343804252,"Type":"A"},{"Weight":[1.6249126976471917,0.076544922812164268],"Bias":0.88785109756880021,"Output":0.0,"Threshold":0.014005472657273255,"Type":"GT"},{"Weight":[0.41979422917114295,-0.76974650380189824],"Bias":0.40566406045372788,"Output":0.0,"Threshold":-1.2981756510204523,"Type":"O"}],"output":null,"numNeurons":5},{"neurons":[{"Weight":[-0.77187563235493184,0.77391013259715891,0.90258829360948334,0.674379547207793,0.80597386872674048],"Bias":0.85310878504678089,"Output":0.0,"Threshold":0.30039793080668803,"Type":"O"},{"Weight":[-0.42475402281840985,-0.963899947220413,-0.42475402281840985,-0.963899947220413,-0.42475402281840985],"Bias":0.803620467802333,"Output":0.0,"Threshold":0.985168503124811,"Type":"GT"},{"Weight":[0.4688052427227633,-0.71684307312445861,-1.1848108373511632,0.695027875106329,-0.083426610925666389],"Bias":0.22204676699919942,"Output":0.0,"Threshold":0.8519635232407432,"Type":"O"}],"output":null,"numNeurons":3},{"neurons":[{"Weight":[0.14232135105054888,-0.6440724142101,0.42685660215879628],"Bias":0.59989896886977323,"Output":0.0,"Threshold":0.29507642904998566,"Type":"A"},{"Weight":[-0.14630162489893922,0.31430328931394186,0.19153429437034497],"Bias":0.22695427864182474,"Output":0.0,"Threshold":-0.77359709459058812,"Type":"A"},{"Weight":[-0.48558740235659636,0.60331910969844049,-0.26612072357261585],"Bias":0.5969545639105861,"Output":0.0,"Threshold":1.0822688523131743,"Type":"A"}],"output":null,"numNeurons":3},{"neurons":[{"Weight":[-0.13254027237768298,0.26438221068325563,0.25516262359691905],"Bias":0.91131490162169326,"Output":0.0,"Threshold":0.66217946245436532,"Type":"A"},{"Weight":[-1.4087704082060468,-1.5135866922855314,-1.8133701941992018],"Bias":0.003321354278978591,"Output":0.0,"Threshold":-0.88964894734772337,"Type":"O"},{"Weight":[-0.2381474678931513,0.313697871432499,-0.26612072357261585],"Bias":0.22906918764536696,"Output":0.0,"Threshold":0.99116640584132,"Type":"A"},{"Weight":[0.39276864165103464,0.71713421480596728,-0.039874122962297004],"Bias":0.51375263464346188,"Output":0.0,"Threshold":-1.7727118524595684,"Type":"GT"},{"Weight":[-0.3681266683820294,0.26607684943176657,0.17811874378384965],"Bias":0.45096969392661457,"Output":0.0,"Threshold":-0.1344367056779735,"Type":"GT"},{"Weight":[-0.79338594691054243,-0.71398452423232817,-0.87255653220813556],"Bias":0.23436710901296098,"Output":0.0,"Threshold":1.5520749285593978,"Type":"A"},{"Weight":[0.28234717682113275,0.19827902838507616,-0.88591233682162707],"Bias":0.602098183753946,"Output":0.0,"Threshold":0.24669984273924506,"Type":"GT"},{"Weight":[0.75206830015036663,-0.32564136307949265,0.51981719002119131],"Bias":0.868227569790663,"Output":0.0,"Threshold":0.36215683078028116,"Type":"GT"},{"Weight":[0.20943385413123006,-0.56897253977086981,0.93044878958279675],"Bias":0.14713574335777002,"Output":0.0,"Threshold":-1.5837547125219156,"Type":"A"},{"Weight":[-0.19163469466922559,-0.20887433968431982,0.54876042741758768],"Bias":0.47573582710499679,"Output":0.0,"Threshold":-0.32631082941140543,"Type":"A"}],"output":null,"numNeurons":10},{"neurons":[{"Weight":[-0.3375448956329119,-0.63642908010465515,0.99120562476627794,-0.039897375293028281,0.17932721212474961,-0.1128034093942509,0.13133833563483241,-0.32182449955578174,0.31885429114049968,-0.6264484904829638],"Bias":0.20848408816777359,"Output":0.0,"Threshold":0.16922962580305967,"Type":"A"},{"Weight":[0.064832200093582343,-0.11741891555367919,-0.70589469452663078,-0.025734219712081466,0.52282527439427806,0.38751992310281841,0.54620244332878032,0.73790416784486923,1.6996378804089676,-0.13687052537541394],"Bias":0.59479775400590051,"Output":0.0,"Threshold":-0.57782504967312565,"Type":"A"}],"output":null,"numNeurons":2},{"neurons":[{"Weight":[0.12015720229603216,-0.82643894499700465],"Bias":0.89619990293690921,"Output":0.0,"Threshold":-1.8666674941157306,"Type":"O"},{"Weight":[-1.8133701941992018,-0.19013288463006398],"Bias":0.003321354278978591,"Output":0.0,"Threshold":-0.88964894734772337,"Type":"A"},{"Weight":[0.70119415256250373,-0.02350586560718057],"Bias":0.2277608566115428,"Output":0.0,"Threshold":0.99116640584132,"Type":"A"},{"Weight":[0.60079931775145212,0.10844468295501761],"Bias":0.861798328283149,"Output":0.0,"Threshold":0.4547511957142274,"Type":"O"},{"Weight":[-0.068063130401104274,0.271787887041824],"Bias":0.46323535484878131,"Output":0.0,"Threshold":-0.54814246229275243,"Type":"GT"},{"Weight":[0.077661477298318127,-0.28876359657792539],"Bias":0.84026803953585594,"Output":0.0,"Threshold":0.16093569349541129,"Type":"A"},{"Weight":[0.139303712704826,-1.0749976127757681],"Bias":0.23095193143512677,"Output":0.0,"Threshold":-0.3347601102826932,"Type":"GT"},{"Weight":[0.043607861988063878,-0.46148898008348838],"Bias":0.3005307900256155,"Output":0.0,"Threshold":0.365342462023414,"Type":"GT"},{"Weight":[0.43735869167715252,0.21305472856064078],"Bias":0.56772949718531662,"Output":0.0,"Threshold":-0.63491111138598588,"Type":"O"},{"Weight":[-0.26612072357261585,0.043849897591327271],"Bias":0.01528094663064971,"Output":0.0,"Threshold":0.99116640584132,"Type":"A"}],"output":null,"numNeurons":10},{"neurons":[{"Weight":[-0.14686758357419985,-1.2226147673663752,-0.53885077337680887,0.48899787826882579,0.642709296321361,0.13458781486125093,-0.66719153298399947,0.96904204179022546,0.35392512676954507,-0.33974230351845841],"Bias":0.6126043580531163,"Output":0.0,"Threshold":-0.5263654503628451,"Type":"A"},{"Weight":[-0.872365096990189,-0.89934597171346931,1.8539461567317814,0.40960787535161147,0.52636308259161324,0.38343784574346518,0.54620244332878032,0.73790416784486923,0.43679096337258394,0.81083758771924186],"Bias":0.53174448090453841,"Output":0.0,"Threshold":-1.5357730703129309,"Type":"GT"},{"Weight":[-0.15780874337433312,0.043849897591327271,-0.26612072357261585,0.21932177162697622,0.36315682547313943,-0.0048744455584671595,-0.31942687128643821,-0.051600047876872154,-0.26612072357261585,-0.33974230351845841],"Bias":0.3690097760963299,"Output":0.0,"Threshold":0.99116640584132,"Type":"A"},{"Weight":[0.1229505290384174,-1.2226147673663752,-0.53885077337680887,0.77971067129620852,0.51773896898619776,1.5062737872387628,-0.13721144566648241,0.874376356543217,0.37334688421028983,-0.33974230351845841],"Bias":0.4587461005238565,"Output":0.0,"Threshold":0.80915369247512592,"Type":"A"},{"Weight":[-0.872365096990189,-0.14431857347689503,0.63265662390396793,0.40960787535161147,0.527542351990725,0.19096101817719685,0.21387675420328822,0.73790416784486923,-1.6708236633198446,1.918637022338173],"Bias":0.46869120780317636,"Output":0.0,"Threshold":0.89906492032998475,"Type":"GT"},{"Weight":[-0.352618949884837,-0.57151892030798779,0.88348485384298725,-0.278134225298713,0.52518381319250151,0.34032035099357372,-0.38509027322758471,0.42383903494283515,0.35392512676954507,-0.28986177932930257],"Bias":0.30920782596359858,"Output":0.0,"Threshold":0.011998641775920355,"Type":"A"},{"Weight":[-0.14686758357419985,-1.2226147673663752,0.65835862358024277,0.30558150741531581,0.642709296321361,0.13458781486125093,-0.66719153298399947,0.96904204179022546,0.35392512676954507,-0.33974230351845841],"Bias":0.6126043580531163,"Output":0.0,"Threshold":-0.11562912823428828,"Type":"GT"}],"output":null,"numNeurons":7},{"neurons":[{"Weight":[0.14232135105054888,-0.6440724142101,0.14232135105054888,0.14232135105054888,-0.6440724142101,0.14232135105054888,0.14232135105054888],"Bias":0.59989896886977323,"Output":0.0,"Threshold":-0.72178893663072441,"Type":"A"},{"Weight":[-0.872365096990189,-1.6543733699500436,-0.70589469452663078,-0.025734219712081466,0.52282527439427806,0.57591467330973345,0.54620244332878032],"Bias":0.59479775400590051,"Output":0.0,"Threshold":-0.57782504967312565,"Type":"A"},{"Weight":[-1.8751884232625311,0.64611010749177555,0.70119415256250373,1.6956768742276713,0.64611010749177555,0.70119415256250373,0.70119415256250373],"Bias":0.30611775527061791,"Output":0.0,"Threshold":0.27586884343804252,"Type":"A"},{"Weight":[-0.872365096990189,-1.6543733699500436,-0.70589469452663078,-0.025734219712081466,0.52282527439427806,0.57591467330973345,-1.3394387044661857],"Bias":0.59479775400590051,"Output":0.0,"Threshold":-0.57782504967312565,"Type":"A"},{"Weight":[0.70119415256250373,-0.90024831793282567,0.62071081186677812,-0.871897810544771,-0.90024831793282567,0.037815185514192634,-0.51392183243945322],"Bias":0.65224381496768624,"Output":0.0,"Threshold":-1.5009583381474756,"Type":"A"},{"Weight":[-0.872365096990189,-1.6543733699500436,-0.70589469452663078,-0.025734219712081466,0.52282527439427806,0.57591467330973345,0.54620244332878032],"Bias":0.59479775400590051,"Output":0.0,"Threshold":-0.57782504967312565,"Type":"A"},{"Weight":[0.70119415256250373,-0.93755182276074855,0.59000550226308657,-0.079130267906761864,-0.55027619681799611,-0.33923840806318373,0.47881685196366941],"Bias":0.5969545639105861,"Output":0.0,"Threshold":1.2514185864717784,"Type":"A"}],"output":null,"numNeurons":7}],"OLayer":{"neurons":[{"Weight":[0.0353208366014626,0.22639861247800225,0.29486105162411042,0.22639861247800225,0.13085972453973244,0.55440126664675826,1.06969363199067],"Bias":0.76236477203777286,"Output":0.76236477203777286,"Threshold":1.3091840051622987,"Type":"OT"},{"Weight":[1.4502142165788516,0.79923021690884144,0.26585453900781209,0.79136525131359936,0.034812344487203474,0.79923021690884144,-0.41448568292636678],"Bias":0.36966263333785471,"Output":0.0,"Threshold":0.031479852870795688,"Type":"OT"},{"Weight":[0.49424459901370321,0.11594272410308137,0.5657635135882364,1.4501376838656785,0.49424459901370321,0.84027964893741514,0.30509366155839229],"Bias":0.049970288318568042,"Output":0.0,"Threshold":-0.61785723577153751,"Type":"OT"},{"Weight":[0.48096740244932817,0.76791523386161553,0.719670452396232,-1.6694415247391172,0.26934240177243129,1.4770655773938941,0.48096740244932817],"Bias":0.66993234989695827,"Output":0.0,"Threshold":-1.4448799413837865,"Type":"OT"},{"Weight":[0.46394971733165424,0.33331916263947226,0.21367176213007036,0.39863443998556325,0.46394971733165424,0.33331916263947226,0.46394971733165424],"Bias":0.968004926442171,"Output":0.968004926442171,"Threshold":0.0,"Type":"OT"},{"Weight":[0.52700089361844626,0.2753363807105163,0.52722756228280609,0.45924747075617661,0.93155657636539857,0.60990533656901924,-0.23866358864524573],"Bias":0.91580239306939881,"Output":0.0,"Threshold":0.0,"Type":"OT"},{"Weight":[0.54125590187788752,0.39592501004036751,0.61608148627732018,0.7149575241911027,0.61608148627732018,0.25177971611347966,0.61608148627732018],"Bias":0.37869110441705728,"Output":0.37869110441705728,"Threshold":0.85326445608086177,"Type":"OT"},{"Weight":[0.89882692829651145,0.49793702480287161,-1.8502957708436512,0.74770072230496476,0.62519815569985571,-1.3862217680486952,0.44948078573191574],"Bias":0.17407285569891,"Output":0.0,"Threshold":0.0,"Type":"OT"},{"Weight":[0.33275496556086231,1.1268404638985361,-1.1288822978403803,0.22848440321557428,0.39202192164586025,0.53407686903796958,1.8423673472564515],"Bias":0.12998523662331757,"Output":0.12998523662331757,"Threshold":0.8833804944918402,"Type":"OT"},{"Weight":[0.11077530314716291,0.65449312278278771,0.11077530314716291,0.57340937926127078,0.11077530314716291,0.57340937926127078,0.11077530314716291],"Bias":5.9836078463045917E-05,"Output":5.9836078463045917E-05,"Threshold":-1.3651382345078225,"Type":"OT"},{"Weight":[1.414779724280713,0.518417372609683,1.414779724280713,0.518417372609683,1.414779724280713,0.518417372609683,1.414779724280713],"Bias":0.013508709619524289,"Output":0.013508709619524289,"Threshold":0.93967025677658178,"Type":"OT"}],"output":null,"numNeurons":11},"NumLayers":10,"Breedibility":0.89286928060132509,"Mutibility":3.8071093072623992,"Repetition":0}
