{"Input":[0.0,0.0],"Output":[0.0,0.0],"DLayers":[{"neurons":[{"Weight":[0.4631372310515201,0.70505488184516085],"Bias":0.82361817398277026,"Output":0.0,"Threshold":-0.71557668071034208,"Type":"O"},{"Weight":[-0.8698288252902352,-0.087268261745231349],"Bias":0.32046692134834215,"Output":0.0,"Threshold":0.80168000878844414,"Type":"GT"},{"Weight":[0.67763473963254817,0.3668087652729865],"Bias":0.333538590620057,"Output":0.0,"Threshold":0.84691974560121064,"Type":"O"},{"Weight":[0.2751753731980805,-0.9444083370940799],"Bias":0.48514108289272573,"Output":0.0,"Threshold":0.97686039375926381,"Type":"O"},{"Weight":[-0.44110832616738432,-0.05027613558353676],"Bias":0.80736976946115946,"Output":0.0,"Threshold":0.38103119767319,"Type":"GT"},{"Weight":[-0.99473822675400336,-0.038097506872423692],"Bias":0.09840011414997285,"Output":0.0,"Threshold":-0.52842991684024687,"Type":"GT"},{"Weight":[-0.57663267412066121,0.3515327481327265],"Bias":0.2131836787858902,"Output":0.0,"Threshold":-0.17558205322156756,"Type":"O"},{"Weight":[-0.082096657288305772,-0.24642251210586286],"Bias":0.77116834361626219,"Output":0.0,"Threshold":-0.41605275842177342,"Type":"O"},{"Weight":[-0.46877124042658658,-0.77709199058687872],"Bias":0.75140387320490731,"Output":0.0,"Threshold":0.43149116888246086,"Type":"GT"},{"Weight":[0.34275446755008515,0.5713114331342799],"Bias":0.80882223872878689,"Output":0.0,"Threshold":-0.78028960003531056,"Type":"A"},{"Weight":[0.17029347977148995,-0.46013185263617518],"Bias":0.62532764562653731,"Output":0.0,"Threshold":-0.32988781683607393,"Type":"GT"},{"Weight":[-0.99184571532152854,0.025132738531163306],"Bias":0.13460868556732716,"Output":0.0,"Threshold":-0.4009572828192996,"Type":"A"}],"output":null,"numNeurons":12},{"neurons":[{"Weight":[0.14512907534145242,0.71777229742974613,0.3590900140623981,-0.1451415052382003,-0.054929206173368363,0.66106455850464507,0.28703943513661595,0.30180705725299523,0.49967705574802918,0.22814052422910022,-0.91698546144970949,0.13888342359051267],"Bias":0.511565717641062,"Output":0.0,"Threshold":-0.14814570506482649,"Type":"A"},{"Weight":[-0.22657912700743374,0.94179718473078555,0.99262596480205,-0.66369316338733453,0.66250129819964121,0.81120346570909185,0.31499034739797488,-0.57039843945316893,0.83239220773446942,0.70480628018491265,0.7233256812781681,-0.634931629819298],"Bias":0.81538077714637891,"Output":0.0,"Threshold":-0.62276456254663159,"Type":"O"},{"Weight":[0.51664350904368028,-0.23977220861230614,0.33263142143033048,0.15321682866346875,-0.27737343650188923,0.6116446552852377,-0.14370208333418802,0.18360627823677206,-0.17274631428194526,0.64093055838762347,-0.69724234645126493,0.054778842746642811],"Bias":0.4433394248799139,"Output":0.0,"Threshold":0.69068181965997533,"Type":"GT"},{"Weight":[0.527063226572733,-0.69321704175938714,0.38420506025860324,0.60811915835743735,0.7556353214921594,0.56041975345482109,0.76476461848465938,0.83334375910150993,-0.049610997573291418,0.48296132007751674,-0.55127474272217358,-0.24426118854631726],"Bias":0.98183400415900812,"Output":0.0,"Threshold":-0.30119590009618358,"Type":"O"},{"Weight":[-0.77582240420199111,0.7676048841176577,0.05575032581377324,0.36587112320860432,-0.45924969783949188,-0.21842940022164462,-0.5689252314944403,0.74863420415140414,-0.77466959588912765,-0.23423939581692191,-0.19482246888560359,-0.80069906720924144],"Bias":0.20772049958245853,"Output":0.0,"Threshold":0.13675145764683908,"Type":"O"},{"Weight":[-0.28052849335620578,-0.38802739809641029,-0.60595893096456255,-0.056077647049016154,0.83265427259386249,-0.52045694669729892,-0.31159296646322726,0.22067577029609856,-0.88374241948302013,-0.97735605993185,0.38202790002433018,0.70562183191330252],"Bias":0.066956504279261683,"Output":0.0,"Threshold":-0.16046768620632015,"Type":"O"},{"Weight":[-0.58876307662053173,0.43422910218789668,0.72109535928866608,-0.4720552612431605,-0.853755854933409,-0.75153827841930942,-0.29562857993674863,0.73983288497656252,-0.54426633917925238,-0.708185290316206,0.15417760431495384,-0.45742518569222895],"Bias":0.15939539771498898,"Output":0.0,"Threshold":-0.74085484758990572,"Type":"O"},{"Weight":[-0.50730378204365434,-0.016052655883157931,0.82598706512990738,-0.77741010104185437,0.48424104949656921,-0.38215053658101267,0.60870474325898327,0.95407188961006328,0.37392583227433535,0.90393993579966014,0.93194114599932965,0.37284437910320439],"Bias":0.4522823958901141,"Output":0.0,"Threshold":-0.17959234778750333,"Type":"O"},{"Weight":[-0.96901209325017967,0.75960347045194521,0.95509677843893726,-0.73902030183888057,-0.11936758417606706,0.62329628906366241,-0.60505092544716366,0.3719583947080925,-0.74884296336623046,-0.50535772112447663,0.038799433055706059,0.70833055661447841],"Bias":0.83691491179024569,"Output":0.0,"Threshold":0.014806348837356246,"Type":"O"}],"output":null,"numNeurons":9},{"neurons":[{"Weight":[0.080089651551139382,-0.64639471734240406,-0.18151834708709194,0.13226833619748629,-0.40191002488225236,-0.74540394439613633,0.57123271449060775,0.067878798613268329,-0.26341997332098893],"Bias":0.598325254674221,"Output":0.0,"Threshold":-0.47746399300054831,"Type":"A"},{"Weight":[0.086220071225529576,0.0669655073745947,0.25990908698174592,-0.1282807784752365,-0.940290429601581,-0.081138907503867014,-0.039277932624927688,-0.97690157172125835,0.42353257836007169],"Bias":0.23969005851060621,"Output":0.0,"Threshold":-0.10095365257046821,"Type":"A"},{"Weight":[0.7599537767283403,-0.46756671856509835,0.64045175800121,0.5734949384692567,-0.078488061706762785,0.66803618225643235,0.90698877764259878,0.34135168480749783,-0.17729581341952821],"Bias":0.713573829603183,"Output":0.0,"Threshold":-0.25858442497373763,"Type":"GT"},{"Weight":[-0.15419247707081607,0.58967666262280038,-0.92787484495335948,0.97098336972807686,-0.23777393448994214,-0.84018710248180994,-0.91428084993468639,-0.089525602333958079,-0.0031903986833944908],"Bias":0.569830661439258,"Output":0.0,"Threshold":-0.32000002885237339,"Type":"O"},{"Weight":[-0.61673069215227416,-0.40584940715034,0.89085108548908076,0.71911517750430631,-0.38737982296728518,-0.532300379840797,-0.790302056255891,0.49047174839790525,0.79867143034873134],"Bias":0.64930703102113074,"Output":0.0,"Threshold":0.37657379795637624,"Type":"GT"},{"Weight":[0.052782508103541334,-0.057879240744690988,0.53490042385407743,-0.48543578082948724,-0.6887537635344797,-0.45091704113917286,-0.66973514792962707,0.3491912066699896,-0.14036611753532949],"Bias":0.98279908624608026,"Output":0.0,"Threshold":0.48671005549221769,"Type":"O"},{"Weight":[0.5748835539328323,0.33216891779199659,-0.689288927563135,-0.6030630728244144,0.67069299783124259,-0.95807803932487878,0.093525813936035068,0.94686224029719,0.26420612831795875],"Bias":0.26562809816823718,"Output":0.0,"Threshold":-0.0755404965372479,"Type":"GT"},{"Weight":[0.7501202736748942,-0.51136573055357,0.53621993751089081,-0.40191161790951696,-0.393774711710296,-0.39725107345602062,-0.22492128993613705,0.88671179296761371,-0.30824620989535295],"Bias":0.70877625360562291,"Output":0.0,"Threshold":-0.66120083754006809,"Type":"O"},{"Weight":[-0.29539293157653557,0.34984252664718896,-0.97627112361428847,-0.907670689238082,0.22108195732398051,-0.35224383899580863,0.963123261445725,0.39705899329719085,0.58155931699162322],"Bias":0.6256413080848946,"Output":0.0,"Threshold":-0.1932627843661526,"Type":"GT"},{"Weight":[0.88052590232366967,0.38112327334523355,0.78525858176185681,0.41333383015046538,0.36676424293162496,-0.94952192015457992,-0.2414381537779412,0.6972608811674923,0.89926694282296438],"Bias":0.569759524227008,"Output":0.0,"Threshold":-0.13255566551003403,"Type":"O"},{"Weight":[-0.94870008013616325,-0.38151244417834673,0.22941670670612563,0.7860972093353501,-0.035559529455173544,0.38184050721202067,0.511432269826267,-0.36202337004338547,-0.68313716104400213],"Bias":0.8478852160497965,"Output":0.0,"Threshold":-0.32311038548271653,"Type":"O"}],"output":null,"numNeurons":11},{"neurons":[{"Weight":[0.93249440609127954,0.27765143489355754,0.78848602286935132,0.69212543298123652,-0.20509524559839407,0.34943697524696449,-0.3255208862598617,-0.693884621231763,-0.74727314000356626,0.38551299571316361,0.68674197359324529],"Bias":0.448189850173979,"Output":0.0,"Threshold":-0.60797528857736627,"Type":"A"},{"Weight":[-0.52522235388179417,-0.29981926330356823,-0.91174106854560832,0.33485015357604725,0.4490180380870672,0.95176527181256809,-0.99761118646599878,0.34343409647393697,0.17674526161362661,0.16199529457930256,-0.036502483783523776],"Bias":0.98925253981223915,"Output":0.0,"Threshold":-0.86162653931492317,"Type":"O"},{"Weight":[0.11388490773452674,-0.53305500910294012,0.10570982848559964,-0.80492438925659493,-0.303035709682403,0.32368399683557636,-0.35555210539864007,-0.50903166109185283,-0.77169605240770434,-0.45654844979594855,-0.11426317603991515],"Bias":0.35940028650658218,"Output":0.0,"Threshold":-0.047465287171055234,"Type":"A"},{"Weight":[-0.44597999399806371,-0.39454744029536259,-0.26112617424741674,0.18405837341400719,-0.91780611589448813,-0.30275039528624637,-0.43176445338491559,0.91621166230934281,0.84995747397186117,-0.31559268958661363,0.17040302426107368],"Bias":0.20434715608337295,"Output":0.0,"Threshold":-0.54678700191284857,"Type":"GT"},{"Weight":[-0.40507808951897456,0.096972846936887527,-0.55161525707301462,-0.81166297142005661,-0.22369615231812753,0.96288865849510241,0.18062054467416394,0.73636642272414943,-0.39993983572346153,0.18696508658442884,-0.72464588597633217],"Bias":0.10992542612828567,"Output":0.0,"Threshold":-0.47408808836438138,"Type":"GT"},{"Weight":[-0.73187259758444156,0.75183169625319157,0.22227427606576788,-0.99025740939670126,-0.033114634469670542,-0.6035321986319182,0.87221935292343578,-0.3536490087181558,0.058392973178249305,0.67728642918043136,-0.7210668328781924],"Bias":0.51995404275132062,"Output":0.0,"Threshold":-0.51535596443123932,"Type":"O"},{"Weight":[0.35982191532841973,-0.10819631447465919,0.96454956148031612,-0.498802757588589,0.75371712434744331,0.43164341171814286,-0.15602868104168619,0.94088644485030626,0.85237663837726074,-0.051514861197916262,-0.21297769817196657],"Bias":0.25273506355133607,"Output":0.0,"Threshold":-0.476356540562751,"Type":"A"},{"Weight":[-0.79680165918395,-0.73664607607603361,-0.69576857830200745,-0.15742114379881936,-0.4879385230540943,0.32008765932176619,0.14503382432508927,0.53763826263027181,0.063443549006918232,-0.81664593369543825,0.38188002416020261],"Bias":0.9779271748745475,"Output":0.0,"Threshold":0.96873026200045376,"Type":"O"},{"Weight":[-0.463841103233323,0.90617240681600408,0.52251531021786635,-0.11455241409808044,-0.82608309938855617,-0.35725627204275517,-0.9001717720647211,-0.46454435748259743,0.627189697058494,-0.43224891155597239,-0.48174921259365472],"Bias":0.8258605528743288,"Output":0.0,"Threshold":-0.4346606933673195,"Type":"GT"},{"Weight":[0.65971060686731275,-0.19013669676619427,0.48582154348763706,0.72404640248233754,-0.7726346285886293,-0.19695176426179323,0.69249172540963244,0.68794345515218724,0.15456434067085587,0.42106073276189188,0.8575368862867061],"Bias":0.97188311441423514,"Output":0.0,"Threshold":0.32897551419631371,"Type":"O"}],"output":null,"numNeurons":10},{"neurons":[{"Weight":[-0.52784400923542862,-0.39297368209481875,0.47151171344868453,0.027488905017957511,-0.43491353487359058,0.59143964927244919,0.58934045796717538,-0.097574199595290331,0.38793390541706879,-0.12926867610275217],"Bias":0.7440010261461143,"Output":0.0,"Threshold":0.36193731397480577,"Type":"O"},{"Weight":[-0.32327632947046137,0.694863258718915,0.038232353068065064,-0.86116118256988061,-0.23377377783589706,-0.19620239324690886,0.37966094649381049,0.72544005081310869,0.66500282039167491,0.25302992027859667],"Bias":0.56312469139840671,"Output":0.0,"Threshold":0.95335172766510012,"Type":"GT"},{"Weight":[-0.75996268669141587,-0.5839492089971664,-0.80569983590659677,-0.792480324298367,-0.68217356441643717,-0.93167380938850053,-0.9887933791562884,0.93389681397653035,-0.34123496121784436,-0.31545871790287028],"Bias":0.53169714777343768,"Output":0.0,"Threshold":-0.70639842036478151,"Type":"GT"},{"Weight":[-0.13051269488898698,-0.36838486342150012,-0.10890739369620914,-0.35317838906924165,0.1818796858107111,0.87752683222178685,-0.12380655581308835,-0.49397510220016122,-0.43895413933273131,0.70900221481407166],"Bias":0.8899865038180661,"Output":0.0,"Threshold":0.26752829796985178,"Type":"O"}],"output":null,"numNeurons":4}],"OLayer":{"neurons":[{"Weight":[0.052518764069545441,0.83428213551374253,0.65797418014052056,0.56880585782639959],"Bias":0.77471786028459566,"Output":0.0,"Threshold":-0.15607309767793542,"Type":"OT"},{"Weight":[0.23004053171260308,0.26401927846671047,0.85711237921245043,0.051229744707806849],"Bias":0.783591943692226,"Output":0.0,"Threshold":0.17752818492126102,"Type":"OT"}],"output":null,"numNeurons":2},"NumLayers":5,"Breedibility":0.094609663400151617,"Mutibility":6.0335121425024756,"Repetition":0}
