{"Input":[0.0,0.0],"Output":[0.0,0.0],"DLayers":[{"neurons":[{"Weight":[-0.76409500453811841,0.38336011133313186],"Bias":0.58304742471456872,"Output":0.0,"Threshold":0.37292527657604091,"Type":"A"},{"Weight":[0.36692315683091209,0.74516250134686124],"Bias":0.86416448599852835,"Output":0.0,"Threshold":-0.7042169034035024,"Type":"O"},{"Weight":[-0.60010676765819393,-0.39365372452589392],"Bias":0.74907396442679408,"Output":0.0,"Threshold":0.45446050607341365,"Type":"A"},{"Weight":[0.58537104985926813,-0.24035492736862738],"Bias":0.19538542777085,"Output":0.0,"Threshold":-0.87364305177407486,"Type":"GT"},{"Weight":[0.848090073954356,-0.964458220156123],"Bias":0.11905629705593748,"Output":0.0,"Threshold":0.83660188728785234,"Type":"A"},{"Weight":[0.67130469422382522,0.20740202730866245],"Bias":0.75668209500456329,"Output":0.0,"Threshold":-0.52448370984032922,"Type":"GT"},{"Weight":[-0.67889511849679762,0.34670720870918931],"Bias":0.46848855422273677,"Output":0.0,"Threshold":-0.30717549487351231,"Type":"O"},{"Weight":[-0.44742598265755268,0.33954785407499777],"Bias":0.13257034920741354,"Output":0.0,"Threshold":-0.75349825888569388,"Type":"A"},{"Weight":[-0.58659698468940191,-0.72847181918494019],"Bias":0.73975868324737937,"Output":0.0,"Threshold":-0.18805858082513258,"Type":"O"},{"Weight":[0.40581146646561633,0.80973065076848993],"Bias":0.24705847876475121,"Output":0.0,"Threshold":-0.40908818385055667,"Type":"GT"},{"Weight":[0.45568733916417103,0.54460525305224827],"Bias":0.5269358430648855,"Output":0.0,"Threshold":0.544626159381413,"Type":"A"},{"Weight":[0.56094058768867538,0.84262476854148538],"Bias":0.49705403321285452,"Output":0.0,"Threshold":0.199090424086475,"Type":"O"},{"Weight":[0.666895899766542,-0.9815865796904949],"Bias":0.796011890655389,"Output":0.0,"Threshold":0.30558213838636045,"Type":"GT"}],"output":null,"numNeurons":13},{"neurons":[{"Weight":[-0.58320232833884766,-0.85402729169187475,-0.39544122544836308,-0.03833779880699599,-0.27866051405605885,-0.31328369924485855,0.32636732250748546,0.041970825307988943,-0.18755724010409658,-0.08493496155596103,-0.42194745336749939,0.20672104237914135,-0.89192421543035849],"Bias":0.532936556512926,"Output":0.0,"Threshold":0.42750160416006183,"Type":"A"},{"Weight":[-0.15010520077781062,0.053768715380583289,-0.94373351472603784,-0.9442131085992852,0.16549936224031234,-0.80428696973448943,0.2183935191567957,0.33333841354275978,0.34052857725905655,0.93961575438250589,0.60845465055129244,-0.596374632602732,-0.768882341109627],"Bias":0.029748543645138174,"Output":0.0,"Threshold":0.886188141948631,"Type":"A"},{"Weight":[0.52963946318702748,-0.29169226497956191,-0.17819501048801234,0.1551242904528623,0.022610747265913871,-0.73598003794251943,-0.31135044680505547,0.54114684254915768,-0.048057328000691409,-0.63450073620048386,0.86256779910184811,-0.48788584977755595,-0.65642079881225746],"Bias":0.54160242320113,"Output":0.0,"Threshold":0.90836598999256546,"Type":"A"},{"Weight":[-0.2784080297119953,0.4379491063011573,-0.062608238804437333,-0.18724229893984379,-0.69259520233263971,0.55378913905182348,-0.72516691299395952,-0.86207536368727466,-0.5173818825359372,0.60425588283886011,0.26869415318066914,-0.25168740574814724,0.32977704998561042],"Bias":0.12295034486937818,"Output":0.0,"Threshold":-0.96358478160741967,"Type":"O"},{"Weight":[-0.63370422023986661,-0.7052723205207253,0.45540622223886018,-0.706138398827118,-0.43007902076005888,0.75577059050824991,-0.64333562722584958,-0.62922164687384929,-0.05999198325909301,-0.46603211968486763,-0.80399098890088083,-0.30411010715370534,0.35828788036400822],"Bias":0.80633756090250686,"Output":0.0,"Threshold":0.015439263552166179,"Type":"GT"},{"Weight":[-0.070500430218177118,0.84724418858403538,-0.52432754986189656,-0.00387760577903949,-0.75039528019279023,-0.758228746595899,-0.67360835227817684,-0.070098861153283551,0.050482086860799275,-0.79328819587514188,0.68448858367488186,-0.497552661922552,-0.052831150150313574],"Bias":0.94264819330659144,"Output":0.0,"Threshold":-0.60503544174369217,"Type":"A"},{"Weight":[0.87161751038935853,-0.69481847048495826,0.27719563724342533,0.99620468495236925,-0.95214141623682413,0.14954026702304382,-0.53168906715311537,0.43382490679334146,-0.76430669788471739,0.030138017623749569,-0.53410822876454711,-0.22215106767702431,-0.63363908819558057],"Bias":0.72610485540987213,"Output":0.0,"Threshold":0.68193357609302441,"Type":"GT"},{"Weight":[-0.36438264528493519,0.29219736591549467,-0.31250278200605081,0.48436747839877731,0.97936417813383236,-0.42904059469189521,-0.82307702341260247,0.026818910160483284,-0.30917693037035732,-0.73148570569766946,0.43148247219225505,-0.5748974241199426,0.33670767784896666],"Bias":0.46854806759792755,"Output":0.0,"Threshold":-0.22780018450124198,"Type":"A"}],"output":null,"numNeurons":8},{"neurons":[{"Weight":[-0.31427110885934489,0.6236030364519,-0.75069810298769646,0.65210969357383886,-0.36629529547239437,-0.20264969449613696,0.49215222964629168,-0.29118870584815215],"Bias":0.751053680084205,"Output":0.0,"Threshold":0.440199375823233,"Type":"GT"},{"Weight":[0.51046402077677844,0.35491580299796344,0.46928474375479146,0.18789913327801,0.47200439286977258,-0.2565672938975353,0.93180297358511155,-0.11476948583255033],"Bias":0.19947398696070257,"Output":0.0,"Threshold":-0.5132892245954318,"Type":"GT"}],"output":null,"numNeurons":2},{"neurons":[{"Weight":[-0.24623178934968626,-0.28758854851480042],"Bias":0.82691178788752839,"Output":0.0,"Threshold":0.082745194473650863,"Type":"O"},{"Weight":[0.6324562912958005,0.787600808678009],"Bias":0.12710370222437367,"Output":0.0,"Threshold":-0.295544196989175,"Type":"A"},{"Weight":[-0.7265471288592309,-0.92675336307229161],"Bias":0.1092379978435291,"Output":0.0,"Threshold":0.49740465241363491,"Type":"GT"},{"Weight":[-0.11930495180157244,-0.76017465943478735],"Bias":0.072889833745029678,"Output":0.0,"Threshold":-0.0085681108797751888,"Type":"GT"},{"Weight":[-0.16382590688943208,0.26423223142709223],"Bias":0.067327254483163013,"Output":0.0,"Threshold":0.668223129896551,"Type":"A"},{"Weight":[-0.58760290666837378,0.83954810157397208],"Bias":0.46896648521952633,"Output":0.0,"Threshold":0.28463677050761726,"Type":"GT"},{"Weight":[0.7509462473685603,-0.47292685810147173],"Bias":0.34936744410049519,"Output":0.0,"Threshold":0.26542109682477133,"Type":"O"},{"Weight":[-0.59787665847590032,0.10952782589454568],"Bias":0.32257053503886357,"Output":0.0,"Threshold":0.21106370641433805,"Type":"GT"}],"output":null,"numNeurons":8},{"neurons":[{"Weight":[0.62352224002756285,-0.863713436696545,0.77856577829391038,0.058323998962679875,0.18555381763053769,0.61188527411403382,-0.8858265955400777,-0.83466818129395515],"Bias":0.32374128621245796,"Output":0.0,"Threshold":0.63828627282673789,"Type":"O"},{"Weight":[0.21299865013593744,0.89840481006466077,0.51540509449104088,0.66360897368919525,-0.9518443080372383,0.37653920025403576,-0.21565992115794677,0.84544424519196348],"Bias":0.94098583466419294,"Output":0.0,"Threshold":0.40512140766024657,"Type":"O"},{"Weight":[-0.41460285913879186,0.16381362646995748,-0.93594396483895559,0.71205006293582263,-0.27485964460059054,0.99882924882640567,-0.44833332879856852,0.26673128188901174],"Bias":0.73647725523285434,"Output":0.0,"Threshold":0.14815241012170557,"Type":"GT"},{"Weight":[-0.93876861964295089,0.89430615533809465,-0.28621517787045575,-0.442196629681716,-0.56945953730934273,0.390698034032573,0.66590580375208785,-0.12103839363951162],"Bias":0.65089749807999353,"Output":0.0,"Threshold":0.29573809136438095,"Type":"GT"},{"Weight":[0.27533073875835667,0.28383565940141475,0.4197997615764848,-0.076390256675141988,-0.13502594229533613,0.91327744997724769,-0.88921453658920457,0.0074478113127163662],"Bias":0.28430918663940818,"Output":0.0,"Threshold":-0.39688881924231018,"Type":"O"},{"Weight":[-0.6487739564146725,-0.4193549609833187,-0.96814674510068577,0.90687162983551228,-0.96720853399821027,-0.15791361739761831,-0.36853534838582175,-0.5158542378413743],"Bias":0.21579303555925983,"Output":0.0,"Threshold":-0.30130662643411504,"Type":"GT"},{"Weight":[-0.010771431965181339,0.34904342906039365,0.27163602610660531,-0.029405341963006808,-0.57063156718883268,-0.75007412151902642,0.97928655053455682,-0.77566055197997974],"Bias":0.255439514413215,"Output":0.0,"Threshold":0.19388949088467727,"Type":"O"},{"Weight":[-0.89689013683092322,0.1602044595220147,-0.8787195123167334,0.42429807615666559,0.66534125463354454,0.69918112861885739,0.049763773591147628,-0.83801084423345085],"Bias":0.87893726251969917,"Output":0.0,"Threshold":0.88652855338832759,"Type":"O"},{"Weight":[-0.050804028311187417,0.29962238310818673,0.48227385221155072,-0.46145261333391657,-0.3158118106964099,-0.00853462983320217,-0.6764538426308212,0.585563274373097],"Bias":0.1545791766394764,"Output":0.0,"Threshold":0.44636546049563469,"Type":"O"},{"Weight":[-0.17356653333342006,0.81936905664362436,0.506883100842537,-0.20424490524653574,-0.092823941303800769,-0.16841278465856463,-0.3755793484745451,-0.28878636299110316],"Bias":0.90651392326993585,"Output":0.0,"Threshold":-0.39906015498519881,"Type":"GT"}],"output":null,"numNeurons":10},{"neurons":[{"Weight":[-0.98659751330809553,0.19683706397043405,-0.67727758394427484,-0.042229119242275653,-0.0333757186463921,-0.43257180202406448,-0.019212402412301117,0.81914086026099553,-0.47246448298565319,0.71520229089781751],"Bias":0.31616419242516353,"Output":0.0,"Threshold":0.34487662154476934,"Type":"A"},{"Weight":[0.63962366880831478,0.42188319443812744,0.11083445610051716,-0.75551902165427753,0.67929232152145924,0.18696902002532456,-0.62253199267319026,-0.82960551689826212,0.16201578600426009,-0.059448222657408671],"Bias":0.73584098263450015,"Output":0.0,"Threshold":-0.13648930291481751,"Type":"A"},{"Weight":[0.46964550273010763,-0.43404944028428266,-0.70520182545539078,0.69492148034969414,0.60778878424679339,-0.095315368424782235,-0.8846655231363445,-0.13760039915218969,-0.42389212195942744,-0.55312933658861063],"Bias":0.0097465822518554429,"Output":0.0,"Threshold":0.06940805542720857,"Type":"A"},{"Weight":[-0.42465568679601684,-0.53764424730913907,0.28542839888736066,0.56425042337004583,-0.2899572501377935,-0.24910278862766119,0.46407176203284028,-0.32075951868703567,0.09309058687327923,0.14194402058699354],"Bias":0.99690349446465421,"Output":0.0,"Threshold":0.79865212915402473,"Type":"O"},{"Weight":[0.75925316650385655,-0.8383669661536659,-0.5833599663262069,-0.048108463663658341,-0.89167628711633207,-0.72014326449490307,-0.73751029313426009,0.35629249287596554,0.33249523459584229,0.74099613760644389],"Bias":0.074378039256845621,"Output":0.0,"Threshold":0.89870249940953328,"Type":"GT"},{"Weight":[-0.0858509391946024,-0.13810974831604853,-0.927464034840215,0.3833421256315625,0.67882212655563934,-0.66005746026526091,-0.77351552470285234,-0.91977439956729035,0.31591968485895527,-0.34722161262632423],"Bias":0.89057680586845467,"Output":0.0,"Threshold":0.87023714039020106,"Type":"GT"},{"Weight":[-0.18895563538603283,-0.3932911001114599,-0.057655991547580804,0.7641569188629076,-0.25301095203171065,-0.24337958555825967,0.98705686255686775,0.47277341246268406,-0.6704616945565034,-0.77170025174119516],"Bias":0.61555339331531589,"Output":0.0,"Threshold":-0.9950578003167444,"Type":"GT"},{"Weight":[0.67240660296399457,-0.20471768975477558,-0.55148088678320906,-0.92259524572761509,-0.4823640675667506,0.27554281860382429,0.86118283442276666,0.56834756609441128,0.93495237032647815,0.10822374052751052],"Bias":0.99164031305892408,"Output":0.0,"Threshold":-0.48540598875163404,"Type":"A"},{"Weight":[0.3760919288620781,0.73980624728827094,0.098536888649005852,-0.20192633997738657,-0.92364695850929568,-0.73231588896937472,0.85050225623441034,0.30906978031111404,-0.10259966882998109,0.95200434324890582],"Bias":0.308067191069977,"Output":0.0,"Threshold":0.69134710481918749,"Type":"GT"},{"Weight":[-0.52579214075849956,0.10344863361839607,-0.88683405978923391,-0.10583502291973448,-0.3984717216335571,0.84942076907000541,-0.52110856516338355,0.11707691015539547,-0.1187036750459595,0.85777934913420084],"Bias":0.24630374472881841,"Output":0.0,"Threshold":0.086897072888397181,"Type":"GT"},{"Weight":[-0.49043701285982366,0.64572094131527513,0.53340164550272828,0.42424248411517707,-0.93399974188487966,0.27064495825704415,-0.5247778503805296,-0.30706377528005457,0.18998074121306685,-0.082978771572457061],"Bias":0.68922345186081879,"Output":0.0,"Threshold":-0.46760815357212354,"Type":"O"},{"Weight":[-0.91068887659846287,-0.54772317248756208,-0.83356775568498664,-0.4455383161294918,0.37499814684269861,0.32560958728455452,-0.82834921722689137,0.6535989687096323,-0.04816553045444448,-0.90746188485411083],"Bias":0.85551318845502711,"Output":0.0,"Threshold":-0.16663809268113136,"Type":"GT"},{"Weight":[-0.77458120825448129,0.37538632907689845,-0.0039183013159401255,-0.70708469753483527,0.64514002653078173,-0.053185649706602868,-0.96358375668692575,0.851177068357904,0.6024258703004689,0.57544067063156545],"Bias":0.060270152548453838,"Output":0.0,"Threshold":0.53635731643827511,"Type":"GT"},{"Weight":[-0.891716306047382,0.32992871121034434,0.56014626871801276,0.12092833366288261,0.76850702649378544,-0.45184099928095983,0.83526611879247525,0.43497676655416229,-5.5786687906732172E-05,-0.12556643231099771],"Bias":0.088774846908065891,"Output":0.0,"Threshold":0.21806408288798485,"Type":"A"},{"Weight":[-0.31349887666921078,-0.87071850843295384,0.59119742204956593,-0.67255378266449728,-0.786974966426834,0.80927216392442214,-0.065076971456910007,0.46268259056968736,-0.54835108553448275,-0.667027859327862],"Bias":0.74597927729877611,"Output":0.0,"Threshold":0.42581186183998915,"Type":"GT"},{"Weight":[0.39677312383277952,0.81758157946988086,-0.41079088412727738,0.95924539769033224,-0.27223294334124443,-0.21104863016449316,-0.12712468725029597,-0.1528533618677656,-0.14234545461011372,0.63839024009108092],"Bias":0.93527768223326546,"Output":0.0,"Threshold":0.62687244435161,"Type":"GT"}],"output":null,"numNeurons":16},{"neurons":[{"Weight":[0.47826960146346575,0.77963998111879451,-0.7748965163598287,-0.88768701482922163,0.012842484290172571,0.99574921559344476,0.91506435811289788,-0.32481718171612228,0.13561994076502507,0.58549351412127426,0.0866509126902795,-0.45118604993968553,-0.41024319986358432,0.53236216983402251,0.3801811409090558,0.76990067948116947],"Bias":6.2983483105424551E-05,"Output":0.0,"Threshold":0.9173912871244323,"Type":"GT"},{"Weight":[-0.1796054165715377,-0.49733642698141578,-0.32336161533527152,-0.1142822029601234,0.15710414627432084,-0.22728109649721584,-0.31357305837495858,-0.79965774146824042,0.32942197859726008,0.75344722473688763,0.15953266255535775,0.14079302369653854,-0.57200380674191,-0.91585227470651842,-0.85708949475413632,0.69407780407652153],"Bias":0.89491172502511729,"Output":0.0,"Threshold":-0.47337810950045384,"Type":"GT"},{"Weight":[-0.038534951879892011,-0.6481269452013666,0.40588994063711259,0.999177357647185,-0.77905796830498519,-0.47384856337394965,0.12294060044127544,-0.35111073514032676,0.16394406238754469,0.6919064096603107,0.98182297590273571,-0.80321367401779331,-0.16414598755731527,0.61308536660535506,-0.86856606782812906,0.49127237475070745],"Bias":0.95126407730917639,"Output":0.0,"Threshold":-0.78665380030248955,"Type":"A"},{"Weight":[0.19790309024877059,-0.55220751722911721,-0.6241811195501038,-0.98949948325264248,0.62641682970636381,-0.96730354193938128,0.96410576671553116,0.83372900860092092,0.7814716998401432,-0.031180965263015108,-0.4070623593437776,-0.84250666286913056,-0.367925821974839,0.97903326013080461,0.65490569530749032,-0.28913771607407263],"Bias":0.6264335003804572,"Output":0.0,"Threshold":0.23196478990463762,"Type":"A"},{"Weight":[0.42221630756846457,0.932065819824145,-0.73927949217114575,-0.59667939254859437,-0.056734518640085364,-0.87778187770293181,0.39587901690782934,-0.058723249034361567,0.75547283503947449,0.71208358589191156,-0.90428791144131115,-0.81059565200032468,-0.31416043560680024,0.77092004137622194,0.38631276524919678,0.55175638038281183],"Bias":0.58391499825935578,"Output":0.0,"Threshold":-0.41657952052381797,"Type":"O"},{"Weight":[-0.70020251101823638,-0.57047648428495812,-0.82835133039781417,0.32511736141756054,0.27950783552579017,-0.15357092588840562,0.57493036546508336,0.58081396509931138,-0.51988120401272608,-0.51286157663579168,-0.70278928368482241,-0.37446884455833063,0.60646789595785922,-0.10238274098484905,-0.88313910545927432,0.74460621352521994],"Bias":0.072512881864101111,"Output":0.0,"Threshold":0.79063648487936544,"Type":"A"},{"Weight":[0.17223365286934825,0.94452103690454781,0.84523827575391075,0.18738357079559173,0.28647861456800189,-0.41783284974183554,0.050202776701284,-0.21225977279816743,-0.90371794388802629,-0.5652974804701737,-0.96808284053955362,-0.42320652605183728,0.25142841565023566,-0.049891230673478559,-0.905905834821009,0.011608338920217166],"Bias":0.35134873415871931,"Output":0.0,"Threshold":0.1678928151577212,"Type":"O"},{"Weight":[0.23873645357728771,0.40662239464308247,0.27779084270717147,0.012751337146736373,0.18608332759983992,-0.37551500013820593,-0.93338112809387086,0.075581552495985083,-0.22533900440919166,0.44483830940203661,0.25920263783037784,0.29904833915599077,-0.82767408519409325,-0.75774255243956234,0.67519048167168649,0.06482206148319973],"Bias":0.95654330679985844,"Output":0.0,"Threshold":-0.37478773266765647,"Type":"GT"},{"Weight":[0.83978852761899514,-0.95723725480830169,0.25849519542348348,0.0383518254562988,0.52388458443986463,0.20048580653988096,-0.098689877008409185,0.55895487617652628,0.72305450575568453,0.57826940230013313,-0.66333648267357448,-0.99754988262315736,0.953077904858197,0.244478593694269,-0.62138988385973026,0.2585627815027548],"Bias":0.18202765154746717,"Output":0.0,"Threshold":0.13424843043752407,"Type":"GT"},{"Weight":[-0.42652788312478357,0.64249192487564488,0.68173405839211032,0.42195410673597555,-0.853030829621959,-0.01351730805519843,-0.074584092979591385,-0.15925545578787823,0.7965183303675234,-0.27799663938488656,0.74252363002976574,-0.30418447838359719,-0.25905885699161274,-0.94382658644757544,0.57622236086811052,0.37992947752584211],"Bias":0.19919294733516543,"Output":0.0,"Threshold":0.0736893844202577,"Type":"O"},{"Weight":[0.1680106651820292,0.83691651133676825,-0.038829596731266749,0.37124337692337267,0.88702684402793031,0.4779602654641309,-0.3339495828067649,0.76207506505869094,0.85625179105263749,0.74274186172650281,-0.88339144777664513,-0.49660633015288336,-0.79000528240110968,-0.41666658195511747,-0.81585594584041088,-0.29049115501832734],"Bias":0.55618275215671531,"Output":0.0,"Threshold":0.623776876192436,"Type":"O"},{"Weight":[-0.80635397313458568,0.34017522742048617,0.36171967133959743,0.47092419931242441,-0.0078472015484455978,-0.69672996303845658,0.87981734605497552,0.10818965551824758,0.33094752269375488,0.65208713181879707,0.32599788500275362,0.13949933142377963,-0.587994357844812,0.94143653565153318,-0.46430333632244886,0.96796866644544932],"Bias":0.13449201320041532,"Output":0.0,"Threshold":0.78816094984680463,"Type":"GT"},{"Weight":[-0.26713338041078921,-0.3318451635222161,0.81361668222286587,-0.18807938983108821,0.69454459785229739,0.33132107245331682,0.94088620596606576,0.66994718586557878,-0.971689744373639,-0.6479162302091328,0.20899269413621757,-0.1498683323850242,0.60545546124012,0.039961029328387708,0.45170650139996155,-0.32920828290712473],"Bias":0.10876911650820129,"Output":0.0,"Threshold":-0.6004298900256072,"Type":"O"}],"output":null,"numNeurons":13},{"neurons":[{"Weight":[-0.315587680933805,-0.33365592050070686,0.76916921686808082,0.63502807199723466,0.96675290026085126,0.76569652080801154,0.25927679252777097,-0.039931745286999151,-0.5670391407641765,0.57451318883081581,0.130230450597699,0.18064346545405846,0.65729774518743989],"Bias":0.70798734142816966,"Output":0.0,"Threshold":-0.62375800294045269,"Type":"O"},{"Weight":[-0.3404563159404585,-0.34387883466849051,-0.656102063439834,0.31426030970842594,0.43982347726813681,-0.51484026038778963,0.63870256097926881,0.27426450852037615,-0.19242970887219055,0.28927653762012556,-0.54172997574402482,-0.750237770262285,0.38541526411912186],"Bias":0.88920963596981473,"Output":0.0,"Threshold":0.38127498532704773,"Type":"GT"},{"Weight":[-0.24502309656004565,-0.58911920971661769,-0.55660846063709279,-0.46323953637072796,-0.082380898800855917,0.82598440992924593,0.858943594088286,0.34017057872385281,-0.092341428665603242,0.67811642665328287,-0.7261939042835468,-0.33448146532032708,-0.32418454313845585],"Bias":0.62361808615905145,"Output":0.0,"Threshold":0.87282132258304457,"Type":"GT"},{"Weight":[0.13549753051972832,0.91684073811249844,0.49458665703171245,0.78371161724613592,0.17929997955416327,-0.260423737233702,-0.16569339538258193,0.12542726664125325,0.44271922458089852,0.13088693336159313,-0.49220226262332978,0.70315855867376487,0.12435169942879663],"Bias":0.67678860373645489,"Output":0.0,"Threshold":0.30086621004197106,"Type":"A"},{"Weight":[0.76822257822762363,-0.2585997382451779,0.87972704827772785,-0.93774487960047315,0.34031677820734529,0.97368800638880948,0.26543504570863913,0.67321073434930789,-0.29421965186214988,0.16282573303339337,0.5960742726903755,-0.74193438922145138,0.57935610952757122],"Bias":0.22982676570761332,"Output":0.0,"Threshold":-0.054862424756801885,"Type":"O"}],"output":null,"numNeurons":5},{"neurons":[{"Weight":[0.48284540720416486,-0.66148501618834443,0.6700055234460186,-0.15487086873262695,0.23242818109338553],"Bias":0.17305350404840592,"Output":0.0,"Threshold":-0.575017556815882,"Type":"GT"},{"Weight":[-0.93772501355862481,-0.907465976154183,-0.52435687069052683,-0.61635909723879723,0.13961365313251206],"Bias":0.059938827091799506,"Output":0.0,"Threshold":-0.848483824566232,"Type":"O"},{"Weight":[0.18870412846501178,0.88288245484367123,-0.63084017049094665,0.49084259918464468,0.60395002952029464],"Bias":0.0032052109032893604,"Output":0.0,"Threshold":-0.73239549143817062,"Type":"O"},{"Weight":[0.93039755194000784,-0.42302076864196952,0.44764784325270346,0.64163109596894641,0.32236078955343028],"Bias":0.94056930343646994,"Output":0.0,"Threshold":-0.21858621026323466,"Type":"O"},{"Weight":[0.62159668822847147,0.054262438814277968,0.78861485365248041,0.20562078207992984,-0.86651702358690885],"Bias":0.94417738632493531,"Output":0.0,"Threshold":-0.28446774617045545,"Type":"O"},{"Weight":[-0.57508953547807851,0.18556236810309923,0.351541614323641,-0.2076429250685698,0.49871992203347382],"Bias":0.40083598131352849,"Output":0.0,"Threshold":0.55369686314542632,"Type":"A"},{"Weight":[-0.34081153028682409,-0.864170242969026,-0.799396309442537,0.17167021947524985,-0.62722887779922643],"Bias":0.94378063778569021,"Output":0.0,"Threshold":-0.41594433151927979,"Type":"GT"},{"Weight":[-0.021123683089913654,-0.18908880799500683,-0.36180258559147016,-0.93689381933626426,-0.68053247764731406],"Bias":0.86704459593959371,"Output":0.0,"Threshold":-0.26016798906967414,"Type":"O"},{"Weight":[-0.24102440347942727,-0.42068571756625817,0.93356913045680578,0.228444330966307,0.50414371467388408],"Bias":0.48507143672791841,"Output":0.0,"Threshold":0.017447365921664688,"Type":"O"},{"Weight":[-0.59874578174145232,0.848180741466666,0.4897706874132951,-0.23084926336577594,-0.73758382477685058],"Bias":0.19189427755395616,"Output":0.0,"Threshold":0.29266233103939443,"Type":"GT"},{"Weight":[0.33625513144594388,0.54520936428811839,0.00887566386204011,-0.62318130052796628,0.76099779445724458],"Bias":0.482375201062474,"Output":0.0,"Threshold":-0.93158380544352526,"Type":"A"},{"Weight":[0.55056309632517542,-0.6781086603543296,-0.52438510373438951,0.49764034827129933,0.30042718271744773],"Bias":0.770397301656379,"Output":0.0,"Threshold":-0.29066077074532432,"Type":"A"}],"output":null,"numNeurons":12},{"neurons":[{"Weight":[-0.18302983333497766,0.64090679941741135,0.98401893069223456,0.7885813958889718,-0.94584311635505558,-0.1707414086771856,-0.0991067099846465,-0.13931809418802993,0.55818688196976984,0.059454994769513138,0.080418442879067,0.84753905788415063],"Bias":0.51381696644882535,"Output":0.0,"Threshold":0.74678505200277323,"Type":"O"},{"Weight":[0.613762051152886,0.71821489311671582,-0.82617000808295327,0.57796796112226689,-0.84146840164506265,0.14867842902833522,0.76198170043620361,-0.732265543999274,-0.35364369505720383,-0.39853363828665278,-0.1611090885294178,0.21221041968660914],"Bias":0.07931948363749286,"Output":0.0,"Threshold":-0.9035612777357741,"Type":"O"},{"Weight":[0.1954846550689473,-0.275256087666031,-0.85387277316948063,-0.37295201065621897,0.29035680894290877,0.26153252285976547,-0.664913100500085,-0.61175368009682451,-0.5651254456327881,-0.13146831427303529,0.82728167987767687,-0.41463353224780108],"Bias":0.34825141371612039,"Output":0.0,"Threshold":-0.22582894993286065,"Type":"O"},{"Weight":[-0.55662059902987471,0.583952515657969,0.80004555210473272,0.47035427925659079,0.86725466366263793,-0.80404721237907517,0.29749930943245967,0.0454267086672721,-0.87677493406309515,0.76885945944528067,0.86647155129652076,0.011731450451412913],"Bias":0.77209296346273881,"Output":0.0,"Threshold":0.89962041559611472,"Type":"A"},{"Weight":[0.4579960398646053,0.888982464973341,-0.11942021228346052,-0.620391498608697,-0.92351689372375467,0.189428067388678,0.0031248806059010702,0.54842146697846306,0.597487796841882,-0.11246781335792869,0.46632883160669769,0.49873457546286964],"Bias":0.45696949048757995,"Output":0.0,"Threshold":-0.56639611887112085,"Type":"GT"},{"Weight":[0.12962654658110187,0.15051576688444046,0.15828442208389026,0.510842789668051,-0.022462085365532937,-0.2691152283312358,0.93486194775200537,0.92265739195172558,-0.21963195140456407,-0.68450504806102486,-0.24811282206704505,-0.080296677574653488],"Bias":0.787152602238186,"Output":0.0,"Threshold":-0.52417269606337547,"Type":"GT"},{"Weight":[0.40101200267719661,0.17107433274904002,0.96834992243365847,-0.019372265329292166,-0.18840802562814579,-0.55214332675195454,0.13207206089611726,-0.63121880992838131,-0.47381764532710313,0.3371662857649691,0.64580185462059536,-0.71955944351831425],"Bias":0.88189107081009588,"Output":0.0,"Threshold":0.045508567730667332,"Type":"GT"},{"Weight":[-0.82587136366678,0.1132725342704321,0.56922488127333337,-0.566496082845375,0.0049290563934152277,-0.09173419610212287,0.87705563142758591,0.34944311592236305,-0.50628838385748132,0.091484639836235268,0.72683174522911742,0.55534244447729664],"Bias":0.18700641029840634,"Output":0.0,"Threshold":-0.64749934833846023,"Type":"GT"},{"Weight":[0.2302316265321484,0.67113302260224383,-0.34833170070700892,-0.19147748881554114,0.17573039660962783,0.64727483487095439,0.014417298610516497,0.41655535130601162,-0.96064949872002448,0.69284530342223372,0.61144031798999776,-0.89224939602066267],"Bias":0.954023927894432,"Output":0.0,"Threshold":-0.8447740473061679,"Type":"O"},{"Weight":[-0.566013232602744,0.44710531572210849,-0.37757105770407762,-0.84243938878292191,-0.044958112316652254,0.72622505842066609,-0.71383105065386321,0.75489862391487628,0.8207304970457826,-0.65278214200063711,0.24225691856921508,0.77411940869601414],"Bias":0.95465404491622652,"Output":0.0,"Threshold":0.503241623520498,"Type":"A"},{"Weight":[-0.88028715685023329,0.96881742680855909,-0.20305202771120334,0.5010391159453611,0.4709262850093312,0.13319500681627308,-0.716108405830389,0.71276839809155479,-0.53638446821662811,-0.026662264497327743,-0.0340317990789338,-0.59315524184757618],"Bias":0.19199190530553084,"Output":0.0,"Threshold":0.87646029557867922,"Type":"O"},{"Weight":[0.60438421815837928,0.96707148801864662,-0.297679263305701,0.352105346672286,-0.20007541459057265,0.42620732981069354,0.78135165142889673,-0.11733049811671045,0.4475235684996115,-0.45217554478541738,0.084847535977534735,0.38801241544448417],"Bias":0.47657935902317022,"Output":0.0,"Threshold":-0.49963870015909834,"Type":"GT"},{"Weight":[0.66409204186130877,-0.31156574809531018,0.099616219801649558,0.19284255159685507,-0.75847781391743474,-0.59037052122427636,0.83205750111120635,-0.59168124273032008,-0.6373786160896433,-0.547697899186843,-0.18666211477791059,-0.925781784078936],"Bias":0.42428475079326178,"Output":0.0,"Threshold":0.8667081044366155,"Type":"O"}],"output":null,"numNeurons":13}],"OLayer":{"neurons":[{"Weight":[0.10049185627163008,0.88640005648434161,0.736758530483003,0.5676251522114617,0.86748226865543154,0.44962402128131318,0.98471718793023244,0.72942104131422059,0.49814002285624853,0.12075576098670986,0.34299677300406467,0.50470900838482613,0.99866576818687181],"Bias":0.91694702064476308,"Output":0.0,"Threshold":-0.38963242917770169,"Type":"OT"},{"Weight":[0.96059827830670319,0.732747446621185,0.0606255191660605,0.48126358980371786,0.62056904268477531,0.68142018452352848,0.086987292900209914,0.61646161350256834,0.0064212405152717792,0.45190486332956,0.13908829732755584,0.53537937464908669,0.6936240488167964],"Bias":0.42968952629235085,"Output":0.0,"Threshold":0.060400664368830931,"Type":"OT"}],"output":null,"numNeurons":2},"NumLayers":10,"Breedibility":0.25842032500469142,"Mutibility":8.4609976217434735,"Repetition":0}
