{"Input":[0.0,0.0],"Output":[0.0,0.0],"DLayers":[{"neurons":[{"Weight":[-0.21924398197757267,-0.82005322436804573],"Bias":0.21181252422361285,"Output":0.0,"Threshold":-0.5762230672762837,"Type":"GT"},{"Weight":[0.54785471015975562,-0.41610732926805843],"Bias":0.56822012158493518,"Output":0.0,"Threshold":-0.30686700591205945,"Type":"O"}],"output":null,"numNeurons":2},{"neurons":[{"Weight":[-0.30799359470046761,0.79531860621428052],"Bias":0.63560461608488328,"Output":0.0,"Threshold":0.95479991703983391,"Type":"A"},{"Weight":[-0.60419507119999971,0.53092728533359579],"Bias":0.39477669233213025,"Output":0.0,"Threshold":-0.866715919630004,"Type":"GT"}],"output":null,"numNeurons":2},{"neurons":[{"Weight":[0.31481811279189686,0.27635581338608445],"Bias":0.98979879356445688,"Output":0.0,"Threshold":-0.7579585796957643,"Type":"A"},{"Weight":[-0.93014293393592484,0.1254260670977766],"Bias":0.698968114656847,"Output":0.0,"Threshold":-0.72565379726032442,"Type":"A"},{"Weight":[0.96053463824118235,-0.52211894258955449],"Bias":0.089014560025657788,"Output":0.0,"Threshold":-0.58363936589268939,"Type":"GT"},{"Weight":[0.4762511353363521,-0.34940026856465278],"Bias":0.93256965788666613,"Output":0.0,"Threshold":-0.1530780178276254,"Type":"GT"},{"Weight":[-0.20476426007447962,-0.99204889312016264],"Bias":0.85531242650715278,"Output":0.0,"Threshold":-0.56662073711241634,"Type":"A"},{"Weight":[0.57630600807084986,0.70546168214895844],"Bias":0.86366800957530176,"Output":0.0,"Threshold":0.9218571139135664,"Type":"O"},{"Weight":[0.26497709996298752,-0.43424205409094785],"Bias":0.87289188796323347,"Output":0.0,"Threshold":0.73678007616511554,"Type":"O"},{"Weight":[-0.29173098145599058,-0.0852723438689822],"Bias":0.40855831113111152,"Output":0.0,"Threshold":-0.74930346698933448,"Type":"GT"},{"Weight":[-0.078799837771244274,-0.59675607485545612],"Bias":0.73360490414016177,"Output":0.0,"Threshold":0.010629103058310739,"Type":"GT"},{"Weight":[0.21944633648705034,0.65460993938828349],"Bias":0.878177683743731,"Output":0.0,"Threshold":0.65265852196731533,"Type":"O"},{"Weight":[0.70239049648046048,-0.20473203119110878],"Bias":0.71883596373667757,"Output":0.0,"Threshold":-0.740552239464853,"Type":"O"},{"Weight":[-0.48187407082034,-0.963590100856307],"Bias":0.48134839324343409,"Output":0.0,"Threshold":-0.936013460595167,"Type":"O"},{"Weight":[0.31262076241551934,0.72757322002554925],"Bias":0.32510103905811022,"Output":0.0,"Threshold":0.68679865807611429,"Type":"GT"},{"Weight":[-0.029237368623370941,0.1096284455198927],"Bias":0.082170136776831992,"Output":0.0,"Threshold":0.4648116554435397,"Type":"A"},{"Weight":[0.47810552757145164,0.67979084406038315],"Bias":0.54457143579822564,"Output":0.0,"Threshold":-0.15222094820450105,"Type":"O"},{"Weight":[-0.956124957630469,-0.73655422764669831],"Bias":0.04703900220200373,"Output":0.0,"Threshold":0.40309776896755106,"Type":"O"}],"output":null,"numNeurons":16},{"neurons":[{"Weight":[-0.8276073983067681,0.949780917703072,-0.20795269692686977,-0.015591838404346182,-0.950384034286432,0.67850781077449573,-0.14956242225578167,-0.017062415376800307,0.32451764136763178,-0.95047007079723755,-0.67898388797369968,0.16039981421101829,0.38932562171915808,0.19632914811201821,-0.29482933939193812,-0.62613959965581989],"Bias":0.82619556962800933,"Output":0.0,"Threshold":-0.36370342102074221,"Type":"O"},{"Weight":[0.90322014545240448,-0.27015283064458184,-0.66419900565603707,-0.59418740151179372,0.37972114159712622,0.80656253537468725,-0.719491812269898,-0.72252136083437191,-0.96209543708809442,0.95595487950181346,-0.060833513299391379,-0.535759680222608,-0.032963834252657288,0.78583783041026345,0.43494179120051757,0.804728224316951],"Bias":0.13125130866246826,"Output":0.0,"Threshold":0.77348408744367025,"Type":"A"},{"Weight":[0.66165740260000216,-0.59202361087874678,-0.688243703771496,0.49044667207191078,-0.99665094818763944,-0.23075261815951795,-0.48478763386830109,0.16566720798875542,0.40774854151892875,0.18274481463373862,0.17822747732430114,0.26862150582886374,0.69382204380530033,0.656197766147646,-0.90259558004447982,0.61170653515109163],"Bias":0.56021673724065379,"Output":0.0,"Threshold":0.11199087701364927,"Type":"O"},{"Weight":[0.43518664847835276,0.85693258925198235,0.58916643196212426,0.40808826517690355,0.83459478981541224,-0.25828740571545783,-0.38507795770889053,-0.37811045971611068,0.59073927280993166,0.4323030064964215,0.38026322488685288,0.50550196995283569,0.41306249071520867,0.77940623731324743,-0.84166476914736665,-0.66974692729755625],"Bias":0.345221930809888,"Output":0.0,"Threshold":-0.85245650161637765,"Type":"A"}],"output":null,"numNeurons":4},{"neurons":[{"Weight":[-0.19117155819720197,-0.32446961445942035,0.68902897587466472,0.13794787793324695],"Bias":0.37610803887998129,"Output":0.0,"Threshold":0.44389801819058972,"Type":"GT"},{"Weight":[-0.18984167193520893,0.87917484104594912,0.013386347803001453,-0.44201463528071283],"Bias":0.01980124740852101,"Output":0.0,"Threshold":0.578510765721328,"Type":"O"},{"Weight":[0.432140851128912,0.54984989648212212,0.885490648860806,0.53262145609251288],"Bias":0.72699278394085953,"Output":0.0,"Threshold":-0.56941100702127956,"Type":"A"},{"Weight":[-0.10783339203700115,-0.69123424901218822,-0.36755409201958872,-0.036954451835227407],"Bias":0.88255357131480872,"Output":0.0,"Threshold":0.33335433962445443,"Type":"O"},{"Weight":[0.79057208625160724,0.33183558300688659,-0.92178402651184421,0.83265260878608216],"Bias":0.30674487366655134,"Output":0.0,"Threshold":-0.250117988907787,"Type":"GT"},{"Weight":[-0.21440691138357246,-0.70733430735177094,-0.91127656209807684,0.91560029048267766],"Bias":0.95570073740356631,"Output":0.0,"Threshold":0.43257355430748945,"Type":"GT"},{"Weight":[-0.24171323247333673,0.88357480377125308,0.54155631388610059,-0.19179805423682464],"Bias":0.086104663594674627,"Output":0.0,"Threshold":-0.620373455165128,"Type":"GT"},{"Weight":[0.60303221345089009,-0.72016022574163985,0.7367583982351974,0.13985641307190824],"Bias":0.31373393224260487,"Output":0.0,"Threshold":-0.74013303394435581,"Type":"A"},{"Weight":[0.53697207827911342,0.30629611588376393,-0.41775404914177677,-0.97377570391342771],"Bias":0.12125440785719753,"Output":0.0,"Threshold":0.65736766842071326,"Type":"A"},{"Weight":[-0.51641397621315621,0.0711044785897734,0.058319934670962366,0.86499655147315768],"Bias":0.15626548703586007,"Output":0.0,"Threshold":0.51495254482838915,"Type":"GT"},{"Weight":[0.5347481880033147,-0.883672266678732,0.29271714123558118,0.36073398234356846],"Bias":0.19859113600039441,"Output":0.0,"Threshold":-0.76784135111041429,"Type":"A"}],"output":null,"numNeurons":11},{"neurons":[{"Weight":[0.56415289666697055,0.054712231296446284,-0.73755662037877212,0.94566454503017694,0.011475629178562961,0.67960065122675184,0.54323459721320988,0.38733594277283917,0.4204748377299285,0.022019533450724341,-0.0081319897473473048],"Bias":0.8291577626155493,"Output":0.0,"Threshold":0.14772016561949633,"Type":"O"},{"Weight":[-0.40711533250618509,0.17621558912853505,0.74857262510274192,-0.12526237411669566,-0.49416703800399187,0.81028432017671148,-0.418708866657088,-0.89254348394113758,0.52327255882475177,-0.20407161545198022,0.74948254402237136],"Bias":0.97339803957072923,"Output":0.0,"Threshold":0.62644371605778282,"Type":"A"},{"Weight":[-0.21650325004779886,-0.39569495217674178,0.85187469974713148,0.84161586260498311,0.66401202215999922,0.75910105917560922,0.062017402640551979,-0.59054006943038673,-0.30522843045425996,-0.0648521622944866,0.54075909896789076],"Bias":0.86496269650057078,"Output":0.0,"Threshold":0.64528451191507485,"Type":"GT"},{"Weight":[-0.94364855016751614,-0.31579884668616526,0.32323564650641551,0.73197716229221654,0.60213171346212346,-0.79709992175786748,0.39349082735995333,0.10581984236176119,-0.77981316800220546,-0.60374641865666323,-0.71598885614238161],"Bias":0.86245130228924161,"Output":0.0,"Threshold":0.39904282074377073,"Type":"A"},{"Weight":[-0.56159155376329628,0.26761428651754476,0.3233732275307985,0.90163151635864358,-0.96334351550943387,-0.35647638298407031,-0.32579521244661658,-0.76940500632366393,0.25883397425470595,-0.553339801520733,-0.748479588305801],"Bias":0.36721929040142304,"Output":0.0,"Threshold":0.79432546198103826,"Type":"GT"},{"Weight":[0.041538093258411665,0.33516264769023407,0.48953921463784728,-0.88285654917492373,-0.988180319307456,0.67258495309976163,-0.61355322255452782,0.12127959454491716,0.93994873899032771,0.38995725400278219,-0.91771741254148886],"Bias":0.2524853838852073,"Output":0.0,"Threshold":-0.59417069311913606,"Type":"O"},{"Weight":[-0.8457030192230377,-0.082948035599173991,-0.93785787510585872,0.83992773147296518,-0.70887234700325519,-0.46556054822428178,-8.6131040046983883E-05,0.28878374737165113,-0.22114886679740103,-0.449233209923484,0.040060396790532582],"Bias":0.16103772500578209,"Output":0.0,"Threshold":-0.15571195686036346,"Type":"A"},{"Weight":[-0.40436820797825612,0.70373265897097659,0.295248636647709,-0.51627066895192053,0.071053006719356868,0.40885998700226656,-0.48904212167907607,0.12389507522987904,0.33781713449294548,0.12720708322115573,0.61610836564382],"Bias":0.31938912408397957,"Output":0.0,"Threshold":-0.0837302226963128,"Type":"GT"},{"Weight":[0.144937483195652,-0.16877728615364865,0.16616013188201939,-0.17842047716417372,0.068920616558250325,-0.99819049704735652,0.058648859178018223,0.84653022412514789,0.3686673503223189,0.42512720284290945,-0.85346288785965319],"Bias":0.17111609232198266,"Output":0.0,"Threshold":-0.12843033025433789,"Type":"GT"},{"Weight":[0.028504873639207739,-0.13491642807373611,0.87081917974670375,-0.47385249495220022,0.59605447137544609,0.11192424554001737,-0.38949856040510283,-0.40972819617471107,-0.1303755120050048,-0.91343956948883809,-0.70873323954117173],"Bias":0.73061762178811129,"Output":0.0,"Threshold":0.896723766297439,"Type":"O"},{"Weight":[0.6586030198534033,0.056517486486824919,-0.61814469360660051,0.17021951366691829,0.8987312050996028,0.051916653314566547,-0.778900247895578,0.58789899134444956,-0.12851412227773765,0.60746035380636354,0.34362649467942608],"Bias":0.22327199728380517,"Output":0.0,"Threshold":-0.55125384756887974,"Type":"O"},{"Weight":[0.21499076076549978,0.6849223867454205,-0.91384570110302688,-0.87256176437836219,0.96139941642126037,0.328750775814406,-0.10886518941673692,0.56178079385393331,0.58289270316385322,0.25029238697620687,0.69527539969201912],"Bias":0.68816665685184608,"Output":0.0,"Threshold":-0.0353526426643844,"Type":"GT"},{"Weight":[0.2892634124910754,0.24263757432002461,0.31699617501208383,0.77543883248019907,-0.825356195133811,-0.087582118850006774,0.62011145317000871,-0.74222754116273837,0.41678864435143242,-0.34462982106238127,0.010655151685073576],"Bias":0.0748862489475339,"Output":0.0,"Threshold":-0.72663243986975046,"Type":"O"},{"Weight":[0.30096146059267292,0.0016650450423662761,0.20460088048344519,-0.35174201678100137,0.94892924928522171,-0.041917536427228494,0.61658814764422742,-0.92561523705982385,-0.24622109450689567,-0.52941193595966884,-0.25565958873166683],"Bias":0.77335866530116582,"Output":0.0,"Threshold":-0.20093026254369423,"Type":"O"},{"Weight":[0.690722821602003,0.60044212900122729,0.8700162548897864,0.35448913385834968,-0.20430217832527226,-0.91953920382984877,-0.0728510958481818,-0.9211228042473657,0.86479474225304775,-0.45242760072109645,0.037726521043910888],"Bias":0.501844815677891,"Output":0.0,"Threshold":-0.82299421114055171,"Type":"A"},{"Weight":[-0.1972205039100817,0.091841366650462788,0.830616697590154,-0.56127638768464161,0.95884692247903291,-0.70230629141549872,0.057643005651255609,0.89181055728896086,0.6191849585711886,-0.2681217367146731,-0.21147772167412457],"Bias":0.38890507788812045,"Output":0.0,"Threshold":0.93829655597838413,"Type":"GT"}],"output":null,"numNeurons":16},{"neurons":[{"Weight":[0.947973911160591,-0.16958013743608266,-0.77744791786067557,-0.079458823464558848,0.30390642457823569,-0.33990911317053674,0.11880442133117673,-0.90210220352844439,0.41604510201888395,0.6692458412932446,-0.926515198744142,0.39063359302963763,0.74769304820694638,0.18905781823632206,0.10582094271938361,-0.15354481067207865],"Bias":0.87182631291068458,"Output":0.0,"Threshold":0.052232120676074231,"Type":"GT"},{"Weight":[-0.78926678504295034,0.92485837355482314,-0.97818418218669678,0.58790413271072517,-0.27927584540065187,0.14931731538349638,0.30937551814568021,-0.97285997586923645,-0.9025278118916451,0.82198746307845572,-0.60549187409015925,-0.59712645066768233,0.27466056043033515,0.21296368782080882,-0.72410904230741269,-0.46902045908804074],"Bias":0.97103807887576432,"Output":0.0,"Threshold":0.72747877832850383,"Type":"A"},{"Weight":[0.69019836778296084,0.778741092783744,0.69077426320443591,-0.62268188019408,0.40555515904238221,-0.26970419160542275,0.68881765552275709,0.39009160007820076,0.23024465759761847,0.56913155110978131,0.56313175268617077,-0.45716996186281089,0.9941640836159531,-0.045330032727369123,-0.94428453638417853,0.54522551714686007],"Bias":0.9223354416537729,"Output":0.0,"Threshold":0.71707307720420554,"Type":"A"},{"Weight":[-0.42312401692528467,0.978521252040994,-0.64494053164727083,0.8170202843924147,0.23067492210803317,0.95341113766348506,0.65719810112249022,-0.836327643057484,-0.15834722721872258,0.69265514597886013,-0.48024535713728767,0.72522334369142694,-0.57586448526748668,-0.39010351635054846,0.12756870506683771,0.57125139216485032],"Bias":0.19726354917383918,"Output":0.0,"Threshold":-0.42497910718665416,"Type":"GT"},{"Weight":[0.96548570923762667,-0.87670384155432868,0.88526264572761149,-0.24713014636520769,-0.992264201860998,-0.57478804307747078,0.24641737167090985,0.4235495125984538,0.024417931225345437,-0.48486713575425888,-0.37737669207964869,-0.40843287082781682,-0.87263488158240676,0.47429763314979972,0.14812546183733524,-0.69654049710209509],"Bias":0.55222206961001363,"Output":0.0,"Threshold":-0.70868302123094118,"Type":"A"},{"Weight":[-0.29155045249105915,0.10265279193532317,-0.053805877945295476,-0.752834721818955,-0.81590769291664833,0.076392772643078477,0.26425793918979257,0.947326647093206,-0.94011197143239522,0.75026792974689416,0.17640132418666096,-0.42775847317080873,0.38100599049637374,-0.12666176777643234,-0.45498548934933986,0.59300321088778007],"Bias":0.45664899119019925,"Output":0.0,"Threshold":-0.850036480394209,"Type":"O"},{"Weight":[0.54247321725938158,0.068382114669486,0.48058760654208604,0.43833710273650339,0.41781736743534792,-0.2786095311299942,-0.034339912251727611,-0.29210702250344073,-0.958415091484047,0.39711170801758378,0.96450331805483591,-0.2439357429947405,0.32377434630122703,-0.96935300946671188,0.65187502496497474,-0.1527253143269221],"Bias":0.35463954943913945,"Output":0.0,"Threshold":-0.31517050709350525,"Type":"O"},{"Weight":[0.056267078992103731,-0.25147577433449952,0.18412194316467362,0.97323513821383711,0.42565314491542666,-0.97625773026433671,-0.050462026638194,-0.57931925895592162,0.45292477237662521,0.66765282194486486,0.61598965926840421,0.60316623170076233,0.014741362545053177,0.97588162076467722,0.71219801330575627,0.97631566784173052],"Bias":0.13473863440320763,"Output":0.0,"Threshold":-0.21192045333419016,"Type":"A"},{"Weight":[-0.078006253148432014,-0.48496946342520858,0.738365148072301,0.92389005698444793,0.765979349038554,-0.42287661713681957,-0.95933916324718815,0.96129668641895838,-0.64751768514864039,-0.46419690990084639,0.22016112004414254,-0.1775655896298427,-0.82412020667647956,0.80388464955793915,-0.81939088265383186,0.17584389782317164],"Bias":0.794124537983036,"Output":0.0,"Threshold":-0.44423151921677939,"Type":"A"},{"Weight":[0.30846982510223508,0.092507782900942387,-0.7949488557851635,-0.97237117820064123,-0.54212184182467027,0.91981978198505,-0.90309138591545235,0.07165172000958199,-0.7477235434333438,0.91492661969499967,-0.027239166212845205,0.34038128393719963,-0.923968430573106,0.70867691315183268,0.482926579417161,0.69232015204258268],"Bias":0.97639764006081864,"Output":0.0,"Threshold":-0.713176669885021,"Type":"A"},{"Weight":[0.086283608845567142,-0.54247931043732878,0.54075406889466293,-0.67700164237851357,-0.174256410996549,-0.65817368666556375,-0.18543660509653231,0.090818029870660053,-0.52930489952177973,-0.22088085032109212,-0.16277004739398604,-0.964168148564253,-0.36642152274326495,0.87304430588755955,-0.7971167786964759,-0.71024202262528335],"Bias":0.16238497112057404,"Output":0.0,"Threshold":0.92728536619212731,"Type":"A"},{"Weight":[0.4913983202964991,-0.024126937158464892,-0.58884433684351123,0.470032544094153,-0.70445129773786819,-0.32345441883590742,0.49351701396215569,-0.985802744508629,-0.49229581956392893,0.98159630642346862,-0.61189218219923425,-0.77864116140578,0.94855039843756261,0.537566497240945,-0.4070029642465538,-0.24189050460322317],"Bias":0.35023302135534262,"Output":0.0,"Threshold":-0.91915481720080361,"Type":"A"},{"Weight":[-0.46015276734724303,-0.45377950903669906,-0.9781862837160874,-0.72787257364386349,0.14002573543229407,0.46426978402969882,-0.41890939344601213,0.69761889646650244,-0.94568905976865858,-0.55977103047062227,0.9912227741401749,0.25709406345016045,0.46813151075883375,-0.399720479454715,-0.062510932824812335,0.91279690289534487],"Bias":0.66322465784066575,"Output":0.0,"Threshold":-0.2263617805328042,"Type":"GT"},{"Weight":[0.7563270808925513,-0.65987849731923942,0.38228286541173367,-0.93724817919416736,0.25494506035696018,-0.35063487959589573,-0.77064007416863,-0.31246217913574642,0.35938378673018134,0.76821818983565,0.75814232498320855,-0.68894052863537358,-0.75772422540826923,-0.999509152490417,0.69721747874152729,-0.20181887606243551],"Bias":0.18615891886230507,"Output":0.0,"Threshold":-0.22055946533594256,"Type":"O"},{"Weight":[-0.57172035545656474,-0.99896001582916827,0.0096048433378361359,0.614684432099892,-0.34985339145634947,0.46555225293410579,0.752841000795756,0.21497841003117077,0.45814359069715421,-0.71891710614735127,-0.13558373839388777,0.69672325192798079,0.71711192360013343,-0.64131853805916317,-0.47070408727540824,0.0027199583140760466],"Bias":0.093660823113127067,"Output":0.0,"Threshold":0.19129738639634913,"Type":"A"},{"Weight":[-0.8886456898826387,0.50369490147740348,0.96946558447995479,0.92784462120749267,-0.026127993607021865,0.32188155470503566,-0.67492917723717594,0.73440402221605372,-0.50164235918859135,-0.98558105434550958,-0.40860030120639146,-0.55748977444949088,-0.27723950859030688,-0.32490446014558172,0.20812164396425786,0.67923798629978582],"Bias":0.24724892119283273,"Output":0.0,"Threshold":0.9609181764353617,"Type":"A"}],"output":null,"numNeurons":16},{"neurons":[{"Weight":[-0.87933282781361266,-0.24225175717950415,0.14984062879804552,0.49050158052262921,0.7382637936334423,-0.044504163341831493,-0.335226462844399,-0.069886587127059044,0.35737394232180619,0.78028829292407642,0.35661568183294295,0.71981862546867625,-0.736078496433831,0.11065634950560348,0.76033794030562873,0.71401100080181423],"Bias":0.76987692330492519,"Output":0.0,"Threshold":0.65252297355445243,"Type":"A"},{"Weight":[0.74332929716600538,-0.25875967240834591,0.0669881939268616,0.53897571495686458,0.28040029680375023,0.87289518111985887,-0.60935139917272674,-0.88987497887102651,-0.10668496932214358,-0.65835484008228162,0.48289285436407331,0.7182573670140735,0.75381827575798066,-0.78030612868271121,0.97609729504962328,0.65380632116170889],"Bias":0.42612871826911752,"Output":0.0,"Threshold":-0.24882383097374058,"Type":"GT"},{"Weight":[0.58670025998107167,0.86913852340967324,-0.023369054786567135,0.28802722426505162,-0.46586579804581862,-0.93802095760499171,0.76593084436186165,0.43254169236521317,-0.9941681334721707,-0.33816990178924516,-0.016946640339189509,-0.49006449593699747,-0.82612902197340921,0.58344136811021774,-0.1142765591453186,-0.44090467618820472],"Bias":0.89344024746373307,"Output":0.0,"Threshold":0.26770504390248334,"Type":"O"},{"Weight":[0.15926185816492042,-0.29361900328361384,0.38579701184565063,0.34521385158654949,-0.0051082661399190626,-0.31652712603869249,0.072735809289261613,-0.68853535581777592,-0.91065392918449539,-0.60522329462935365,0.046341025292100865,0.92405150920341328,0.57683859419861738,-0.85371905698148487,0.80271827886007641,-0.51107041049332846],"Bias":0.069794772690997819,"Output":0.0,"Threshold":0.86226224427216791,"Type":"O"},{"Weight":[-0.011702470021183822,-0.68370804920965245,0.10246617118942838,-0.11875070404203175,-0.139990618517618,-0.70238698586001391,-0.50165633601213633,0.44987363901449073,-0.66248174927312964,-0.52393842280094438,0.98412279970204586,0.74577429785662064,-0.89654269390578512,-0.707477041849623,0.86472506023232132,-0.30774976560275524],"Bias":0.33011509586596632,"Output":0.0,"Threshold":-0.60254153125106424,"Type":"A"},{"Weight":[-0.7091739246198786,-0.036554066015665451,-0.62652884918569063,-0.42686069171263868,0.81051744325576236,-0.77401777020377,-0.12761975039151485,0.83574405118624873,-0.33832382147122353,-0.10187102486466571,0.26978271187738639,-0.37014219554613448,0.27239213337767504,-0.58560849101543822,-0.89814706421370949,0.87183168384797483],"Bias":0.21099265628074884,"Output":0.0,"Threshold":0.55477671956400232,"Type":"GT"},{"Weight":[-0.35318368084411306,0.78745345575150727,-0.29990700134071846,-0.062375139474112141,-0.29552197516687306,0.29999512634239867,0.98255727439306551,-0.87214974354587016,0.50067050638639854,0.625314207573102,-0.96839620963129969,0.79407971668712785,-0.88810946694021553,-0.47279470016844322,0.7799405934195689,0.27162819135544269],"Bias":0.21912778784480308,"Output":0.0,"Threshold":-0.51180070709055325,"Type":"A"},{"Weight":[0.38077892287670584,0.98502777562710819,-0.74844032700566587,-0.73740445065191218,0.39114070096571962,-0.33913201854523833,0.61976367729705,-0.39844429837467349,0.92946251199090035,-0.35554713446439579,0.66338685604901371,-0.62229537480617658,0.90203783330602472,-0.46482982321867244,0.9532280028579887,-0.63508513552839174],"Bias":0.30081939478442976,"Output":0.0,"Threshold":0.99129249481078818,"Type":"GT"},{"Weight":[0.83914222234820124,0.14991813113443467,0.26622318954496793,-0.54425232091185283,-0.76603938022909657,-0.69884034511579218,0.47645866706802448,-0.64338051883661207,0.15625357262615747,0.21747039268606827,0.969170808312097,-0.99291234509689374,-0.66054195568922069,0.0943079363062549,0.096310432113851624,0.96963492965774378],"Bias":0.92884517224917429,"Output":0.0,"Threshold":0.48923997510654849,"Type":"GT"},{"Weight":[0.74310775973978815,0.083332851102264988,-0.3078081129620821,0.42869622233728705,-0.044930771945477822,-0.94416034265615068,-0.083771576678274,-0.31450299467635479,-0.77382210212471991,-0.94003351495602794,-0.73745168407328976,0.18248247503418591,0.65223584121662925,0.060403467184120541,-0.232705446068526,0.14114645456017297],"Bias":0.33712509709276495,"Output":0.0,"Threshold":0.44428203601589522,"Type":"A"},{"Weight":[-0.89398445323760833,0.22091037604068889,-0.36159595072343759,-0.95973843799891811,-0.37262509827158652,0.58021702877255954,0.55387245656637119,0.85464908036154186,-0.54920646015052055,0.4616467987474272,-0.33004022870680327,-0.2646072373095002,0.40517800832408385,0.466992011511229,0.25369174184915227,0.73129737271522044],"Bias":0.72598910132701933,"Output":0.0,"Threshold":-0.6707721257911865,"Type":"O"},{"Weight":[-0.03147492931758749,-0.68725409856403907,0.18551048319112065,0.57681265034564433,-0.3000466866884598,0.3437914724199993,-0.2157200822679885,0.43801223181095544,0.982635237268468,0.313690640178365,0.036020076850438523,0.098411324479808715,0.82622287600590982,-0.01201201743074321,0.29458809378304895,0.061338092229020827],"Bias":0.21661520200623907,"Output":0.0,"Threshold":0.38145429239676071,"Type":"O"},{"Weight":[-0.81157628810572269,-0.41234835535862874,0.55708245213938989,-0.127497710812603,0.18724082093091721,0.75884152704795893,0.51892941888371924,0.65685430339391082,0.35708148561282155,-0.43717471111434264,0.33803285767232666,-0.61801392055024107,-0.90476669832354728,-0.3317622809353109,-0.21173818139905956,0.36995740484909967],"Bias":0.81970165009596463,"Output":0.0,"Threshold":-0.32524995381257027,"Type":"A"},{"Weight":[0.57278694332241409,-0.20300689861318419,0.66586826772702312,0.64332283644160393,-0.2263353016350117,-0.89675402869319265,-0.28387318471626993,0.52601884516236319,-0.94427958128241807,0.77472942032605852,-0.39939608164103518,-0.50849481462896562,0.30649458165582949,0.920363553296944,0.51046199980679063,-0.96930350408391264],"Bias":0.86628423997493653,"Output":0.0,"Threshold":-0.69162906831671911,"Type":"GT"},{"Weight":[-0.46642138784118992,-0.57224068305093823,0.21336760474991406,0.9739983528731383,0.26437517407553979,0.075446013862009165,0.93467229648245143,-0.88998620858880984,-0.55052053348651175,-0.56582915343615647,0.39193431259688655,0.091268632603468666,0.045946036486861311,-0.43534147154322894,0.25370335916695341,0.53530119151589517],"Bias":0.15241743025948173,"Output":0.0,"Threshold":-0.069366486775393824,"Type":"O"},{"Weight":[-0.83463530374441075,0.74151824216429063,0.23801634797734039,-0.13157807529511773,-0.69273249837231476,0.79187738280365116,0.0345895285879213,0.64315893158463711,0.12579991488056252,0.064718045790082793,0.94814286425157579,-0.32577723140166009,0.23686897765699261,0.42805647590572782,-0.394875657928584,0.7388364615565336],"Bias":0.7420049615865596,"Output":0.0,"Threshold":0.98511812416143629,"Type":"GT"}],"output":null,"numNeurons":16},{"neurons":[{"Weight":[-0.83864352099534289,0.56519933304060221,-0.71495090039211828,-0.0168363750059327,-0.747649961033673,-0.69722551838365643,-0.7408495269440345,-0.34512281340785456,0.42139778911201181,-0.16008437618617172,-0.4449237945698778,-0.56577755956248266,0.57027746484162167,-0.20953060090985642,0.92657157309659366,0.049471404426485024],"Bias":0.49564455053566236,"Output":0.0,"Threshold":-0.46413733133307533,"Type":"A"},{"Weight":[0.49951871274948062,-0.23319196385945751,-0.30894085639572744,-0.48921901662331962,0.73083095752207139,-0.65402613098454943,0.393713648148679,-0.32060717247454784,-0.41810598337003307,-0.88539053866890749,-0.55697833493211224,0.10519810910578729,0.99542665621052806,0.19832420125525641,0.21769863144387427,-0.56427108150174421],"Bias":0.17928780763376867,"Output":0.0,"Threshold":0.66058409105082228,"Type":"GT"}],"output":null,"numNeurons":2},{"neurons":[{"Weight":[0.69049070574831717,-0.273225121327315],"Bias":0.16070880701798423,"Output":0.0,"Threshold":-0.66784754612848518,"Type":"GT"},{"Weight":[0.19277290496638647,0.0659142043748471],"Bias":0.021078500440846429,"Output":0.0,"Threshold":-0.56018149785705906,"Type":"A"},{"Weight":[-0.93882952767369776,0.332997883359435],"Bias":0.49968313775010553,"Output":0.0,"Threshold":0.47416701422732649,"Type":"O"},{"Weight":[-0.68725560451264289,0.011892920365507213],"Bias":0.37731393537359031,"Output":0.0,"Threshold":0.83746988830970126,"Type":"GT"},{"Weight":[-0.88310154801379026,-0.727615277621716],"Bias":0.61216541734159247,"Output":0.0,"Threshold":-0.34722922805102041,"Type":"O"},{"Weight":[-0.036305622680255036,0.80265375124414162],"Bias":0.1324099968804093,"Output":0.0,"Threshold":-0.17688403566222827,"Type":"O"},{"Weight":[0.13891199097917972,0.24045827996007085],"Bias":0.17213184487639546,"Output":0.0,"Threshold":-0.5588115689152906,"Type":"A"}],"output":null,"numNeurons":7},{"neurons":[{"Weight":[-0.29985064934000871,0.97333868591736006,0.13177858951118709,-0.35530301665668518,0.710386563888931,0.71621885277154806,0.1233616951496162],"Bias":0.59160029962267746,"Output":0.0,"Threshold":0.73129085951079187,"Type":"A"},{"Weight":[0.093590254938970441,0.75237405800836821,0.51037156885041468,0.85313638106600209,0.67934853242679893,-0.20010585347195428,-0.32428997909849977],"Bias":0.51129158610072523,"Output":0.0,"Threshold":-0.1160870120469886,"Type":"GT"},{"Weight":[0.42293084199676795,-0.90452703316906791,0.44735073458745644,-0.42202343299147832,-0.48040127823147982,0.01555029582956354,0.6488579803373935],"Bias":0.33780724477852103,"Output":0.0,"Threshold":-0.71642313605007857,"Type":"A"}],"output":null,"numNeurons":3}],"OLayer":{"neurons":[{"Weight":[0.53778222554260036,0.98496715304673055,0.56316586656643353],"Bias":0.030579296420598076,"Output":0.0,"Threshold":0.27075347549782763,"Type":"OT"},{"Weight":[0.381171970805699,0.9856084436111191,0.97946964762148891],"Bias":0.60193932270721506,"Output":0.0,"Threshold":-0.5582131052195155,"Type":"OT"}],"output":null,"numNeurons":2},"NumLayers":11,"Breedibility":0.99160594259929191,"Mutibility":9.378613996961441,"Repetition":0}
