{"Input":[0.0,0.0],"Output":[0.0,0.0],"DLayers":[{"neurons":[{"Weight":[0.035958614217098159,-0.88632279722314455],"Bias":0.62469624570789573,"Output":0.0,"Threshold":-0.42530022162259568,"Type":"A"},{"Weight":[0.4728208968754955,0.90708571249017755],"Bias":0.17645598164594545,"Output":0.0,"Threshold":-0.18288625785284035,"Type":"O"},{"Weight":[0.54687939097493854,-0.50638695317617943],"Bias":0.095107408284725345,"Output":0.0,"Threshold":-0.039773194137855059,"Type":"O"},{"Weight":[-0.23025106323428968,0.60002731746063909],"Bias":0.012896980164990286,"Output":0.0,"Threshold":-0.11872416181430415,"Type":"A"},{"Weight":[0.87723751779517045,-0.38169327675443759],"Bias":0.21515913131421391,"Output":0.0,"Threshold":0.93312531659990794,"Type":"GT"},{"Weight":[0.45101260601124382,-0.94726642311889042],"Bias":0.65309514973922411,"Output":0.0,"Threshold":-0.32267478868489841,"Type":"GT"},{"Weight":[0.88208645530142193,-0.27084571973925725],"Bias":0.70457527772736517,"Output":0.0,"Threshold":-0.8923355168161613,"Type":"GT"},{"Weight":[0.44456924611915333,-0.040609256383315313],"Bias":0.82527290416195653,"Output":0.0,"Threshold":0.34694242493572758,"Type":"GT"},{"Weight":[-0.56420792851793022,0.89428010950529957],"Bias":0.80119298109840276,"Output":0.0,"Threshold":-0.97709598018652577,"Type":"O"},{"Weight":[0.15342638602174186,-0.62404494901376073],"Bias":0.0925067710189646,"Output":0.0,"Threshold":0.973416139359314,"Type":"O"},{"Weight":[0.011631749575786176,-0.93663816849544557],"Bias":0.84787844207504692,"Output":0.0,"Threshold":0.061968649300732023,"Type":"GT"},{"Weight":[-0.42697910472144329,0.66312555580545474],"Bias":0.89251606021659269,"Output":0.0,"Threshold":0.40381567338659224,"Type":"GT"},{"Weight":[0.32769876547516263,-0.6564549722971651],"Bias":0.42839467917959889,"Output":0.0,"Threshold":-0.74719778296872874,"Type":"A"},{"Weight":[0.39511291328590031,0.86107455932585264],"Bias":0.26829056780240057,"Output":0.0,"Threshold":0.83113973253925322,"Type":"GT"},{"Weight":[-0.086954754817744132,-0.1975538908492559],"Bias":0.410304256440282,"Output":0.0,"Threshold":0.23338524402742519,"Type":"O"},{"Weight":[0.24222617840498043,-0.22970196801689546],"Bias":0.313970424381071,"Output":0.0,"Threshold":0.790348809580481,"Type":"O"}],"output":null,"numNeurons":16},{"neurons":[{"Weight":[0.51997476793824449,-0.4993370829612655,-0.14240960317776055,0.26443396660705748,0.031647693380549409,-0.1907867967108203,0.08462767912290417,-0.59583937218219007,-0.19197244904561547,-0.7594830783826686,0.78205033474697283,-0.094313521447737483,-0.15421569307996691,0.51901657065330842,0.64787919337296818,0.60476410370541922],"Bias":0.11146384669070311,"Output":0.0,"Threshold":0.958506840727528,"Type":"GT"},{"Weight":[-0.404341566099013,0.94454515163998365,-0.93311992424219847,-0.37865656305973255,-0.31543149627532413,-0.15759849928207625,0.63386259583470528,-0.12199797533545549,0.96175493577576943,0.154957273581511,-0.83964378472401,0.16274547398218209,0.96016502471648391,-0.023826507396915234,-0.27249031014390768,-0.089430243284176217],"Bias":0.96829563331245239,"Output":0.0,"Threshold":-0.69865694581468452,"Type":"GT"},{"Weight":[-0.52356802370565381,-0.27314185829513793,0.31510936157550168,0.77151989879623051,-0.030902165468270966,0.88363321911712789,-0.46902207539836971,0.97409869543001926,0.803549567146017,0.0575386416434956,0.99144646571550821,-0.69368636174764775,0.394470677429098,-0.083640520034190508,-0.21191494595814261,0.22447104203722954],"Bias":0.85636827529238924,"Output":0.0,"Threshold":0.084217465987530285,"Type":"A"},{"Weight":[0.27020707180267528,-0.51109948172750863,-0.64086578909348035,0.92300677295914235,-0.86330493253809626,0.97160556724835445,0.28083447007501239,-0.32257127124935914,-0.64111830417118887,0.046334043632417006,-0.41194533017088908,-0.9692824724918615,0.65454217123544878,0.64095555787950542,0.10177885326639696,-0.85765500127228678],"Bias":0.48386085894138592,"Output":0.0,"Threshold":-0.11797545157278676,"Type":"GT"},{"Weight":[0.41100747483363725,0.35109008911582179,-0.067629440253427917,-0.3228768400488779,-0.96642335316465389,0.77966386069528,-0.708906389637341,0.29408734584883195,-0.037883422355113279,-0.44417791368634341,-0.82192165116868987,0.44691892221892204,0.66891941226502849,0.53213627614646042,0.45214822955995249,-0.50610098173194606],"Bias":0.22340748190107174,"Output":0.0,"Threshold":0.31022582776389357,"Type":"A"},{"Weight":[-0.7344416741907791,-0.46530237023965565,0.76408324565928576,0.41065708799783934,0.93135770733065792,0.29051811494422991,-0.65434022324827512,-0.34692118705572617,-0.67379753788644337,-0.19042379231677567,-0.50915862597020278,-0.012652083305945659,-0.5276349561883299,-0.63251921703690628,0.58757769762891232,-0.46719213736578458],"Bias":0.54310116336825354,"Output":0.0,"Threshold":-0.609046589866768,"Type":"GT"},{"Weight":[-0.80043342979645049,0.41916374043522575,0.723361952567176,0.99848651373688435,0.63306415343334166,-0.26053714019271412,-0.23987977078178888,-0.48906148061578231,-0.11980203544711789,-0.17588213001186126,-0.35211046475549718,-0.82453914164776876,-0.25209580885809652,-0.97328579424567785,0.48316380124686464,-0.38039532461222042],"Bias":0.0504236514914891,"Output":0.0,"Threshold":-0.67380031276205565,"Type":"GT"},{"Weight":[-0.69549711826047722,0.553626481701446,-0.42275935431139511,0.51098301844251481,-0.14746233641517456,-0.13974262454535003,-0.12774336157727212,-0.27887852642632954,0.43316445985490665,-0.32101040953817328,-0.267464674202476,0.68521081641559056,0.9127696360986538,0.23539967240551471,-0.228244463553766,0.314906088781965],"Bias":0.87028429371783711,"Output":0.0,"Threshold":-0.90726775857958375,"Type":"O"},{"Weight":[0.80456628594760149,-0.89043645183110443,0.81027217992128442,0.20862143263622254,0.89129206812535045,-0.18680950356033141,-0.6129590266444529,-0.61212917352660057,0.35278990322388237,0.31432904783372256,0.567906350627498,0.71033355952721722,0.058688937248051604,0.69075070446857745,0.95228338798148715,-0.42931748108440893],"Bias":0.94519600921552438,"Output":0.0,"Threshold":-0.41219365802230018,"Type":"GT"},{"Weight":[-0.83276257982140522,-0.66890605151136684,0.85445853874760613,-0.801035191771125,-0.49712414503894942,-0.12826757371810618,0.6031143332846064,0.21328955479585079,0.59293871074586113,0.29877851777653142,-0.842445374858773,-0.99933291785387923,-0.21479326915684774,-0.0326229441131572,0.24436653835902295,-0.17952227787092434],"Bias":0.81514481912140957,"Output":0.0,"Threshold":-0.7317436480576841,"Type":"GT"},{"Weight":[0.26960734616481108,0.77795860812904249,-0.060264030033845471,0.24170156067316492,0.6414888443618495,0.32910449631936128,-0.36037361172976606,-0.62753689225182718,-0.11341514024576878,0.037940150610143386,0.26365563658236324,0.14712743142020304,-0.667681540207789,0.994719078296199,0.93115910744814157,0.21761271553934214],"Bias":0.49321942892541148,"Output":0.0,"Threshold":0.12348820600821088,"Type":"A"},{"Weight":[-0.0028737499392003521,-0.88300303410878545,-0.90990918544582522,0.39902691747947916,-0.94729810671289361,0.95725528986996755,-0.33879700831081577,-0.087350228376384,0.69380349744754077,0.82614571220527666,-0.80528091583646877,0.19992032609876259,0.47652886457579624,0.016848444480844049,-0.44038045426848366,-0.47138249011309],"Bias":0.83538303516590173,"Output":0.0,"Threshold":-0.98700652876263784,"Type":"O"}],"output":null,"numNeurons":12}],"OLayer":{"neurons":[{"Weight":[0.18320966427363905,0.38106047938627213,0.56580626571821335,0.34470781141179979,0.58014571041806862,0.65265388630919807,0.8897428782143364,0.54151410029340263,0.82581718257899261,0.34380755682653169,0.33683485274055736,0.81636920003982694],"Bias":0.10042998385635669,"Output":0.0,"Threshold":0.034476921444049534,"Type":"OT"},{"Weight":[0.48031344380244306,0.43068262535644819,0.12887611618678835,0.45213169765292283,0.4120605031084551,0.3152952707909491,0.23680237039774768,0.28206084309241775,0.62242288078294272,0.91453080480663607,0.54660371669875629,0.8329023704085976],"Bias":0.31857951139965074,"Output":0.0,"Threshold":-0.81443654178382663,"Type":"OT"}],"output":null,"numNeurons":2},"NumLayers":2,"Breedibility":0.35851882368257215,"Mutibility":4.50982163404572,"Repetition":0}
