{"Input":[0.0,0.0,0.0,0.0,0.0,0.0,0.0,0.0,0.0,0.0,0.0,0.0,0.0,0.0,0.0,0.0,0.0,0.0,0.0,0.0,0.0,0.0,0.0,0.0,0.0,0.0,0.0,0.0,0.0,0.0,0.0,0.0,0.0,0.0,0.0,0.0,0.0,0.0,0.0,0.0,0.0,0.0,0.0,0.0,0.0,0.0,0.0,0.0,0.0,0.0,0.0,0.0,0.0,0.0,0.0,0.0,0.0,0.0,0.0,0.0,0.0,0.0,0.0,0.0,0.0,0.0,0.0,0.0,0.0,0.0,0.0,0.0,0.0,0.0,0.0,0.0,0.0,0.0,0.0,0.0,0.0,0.0,0.0,0.0,0.0,0.0,0.0,0.0,0.0,0.0,0.0,0.0,0.0,0.0,0.0,0.0,0.0,0.0,0.0,0.0,0.0,0.0,0.0,0.0,0.0,0.0,0.0,0.0,0.0,0.0,0.0,0.0,0.0,0.0,0.0,0.0,0.0,0.0,0.0,0.0,0.0,0.0,0.0,0.0,0.0,0.0,0.0,0.0,0.0,0.0,0.0,0.0,0.0,0.0,0.0,0.0,0.0,0.0,0.0,0.0,0.0,0.0,0.0,0.0,0.0,0.0,0.0,0.0,0.0,0.0,0.0,0.0,0.0,0.0,0.0,0.0,0.0,0.0,0.0,0.0,0.0,0.0,0.0,0.0,0.0,0.0,0.0,0.0,0.0,0.0,0.0,0.0,0.0,0.0,0.0,0.0,0.0,0.0,0.0,0.0,0.0,0.0,0.0,0.0,0.0,0.0,0.0,0.0,0.0,0.0,0.0,0.0,0.0,0.0,0.0,0.0,0.0,0.0,0.0,0.0,0.0,0.0,0.0,0.0,0.0,0.0,0.0,0.0,0.0,0.0,0.0,0.0,0.0,0.0,0.0,0.0,0.0,0.0,0.0,0.0,0.0,0.0,0.0,0.0,0.0,0.0,0.0,0.0,0.0,0.0,0.0,0.0,0.0,0.0,0.0,0.0,0.0,0.0,0.0,0.0,0.0,0.0,0.0,0.0,0.0,0.0,0.0,0.0,0.0,0.0,0.0,0.0,0.0,0.0,0.0,0.0,0.0,0.0,0.0,0.0,0.0,0.0,0.0,0.0,0.0,0.0,0.0,0.0,0.0,0.0,0.0,0.0,0.0,0.0,0.0,0.0,0.0,0.0,0.0,0.0,0.0,0.0,0.0,0.0,0.0,0.0,0.0,0.0,0.0,0.0,0.0,0.0,0.0,0.0,0.0,0.0,0.0,0.0,0.0,0.0,0.0,0.0,0.0,0.0,0.0,0.0,0.0,0.0,0.0,0.0,0.0,0.0,0.0,0.0,0.0,0.0,0.0,0.0,0.0,0.0,0.0,0.0,0.0,0.0,0.0,0.0,0.0,0.0,0.0,0.0,0.0,0.0,0.0,0.0,0.0,0.0,0.0,0.0,0.0,0.0,0.0,0.0,0.0,0.0,0.0,0.0,0.0,0.0,0.0,0.0,0.0,0.0,0.0,0.0,0.0,0.0,0.0,0.0,0.0,0.0,0.0,0.0,0.0,0.0,0.0,0.0,0.0,0.0,0.0,0.0,0.0,0.0,0.0,0.0,0.0,0.0,0.0,0.0,0.0,0.0,0.0,0.0,0.0,0.0,0.0,0.0,0.0,0.0,0.0,0.0,0.0,0.0,0.0,0.0,0.0,0.0,0.0,0.0,0.0,0.0,0.0,0.0,0.0,0.0,0.0,0.0,0.0,0.0,0.0,0.0,0.0,0.0,0.0,0.0,0.0,0.0,0.0,0.0,0.0,0.0,0.0,0.0,0.0,0.0,0.0,0.0,0.0,0.0,0.0,0.0,0.0,0.0,0.0,0.0,0.0,0.0,0.0,0.0,0.0,0.0,0.0,0.0,0.0,0.0,0.0,0.0,0.0,0.0,0.0,0.0,0.0,0.0,0.0,0.0,0.0,0.0,0.0,0.0,0.0,0.0,0.0,0.0,0.0,0.0,0.0,0.0,0.0,0.0,0.0,0.0,0.0,0.0,0.0,0.0,0.0,0.0,0.0,0.0,0.0,0.0,0.0,0.0,0.0,0.0,0.0,0.0,0.0,0.0,0.0,0.0,0.0,0.0,0.0,0.0,0.0,0.0,0.0,0.0,0.0,0.0,0.0,0.0,0.0,0.0,0.0,0.0,0.0,0.0,0.0,0.0,0.0,0.0,0.0,0.0,0.0,0.0,0.0,0.0,0.0,0.0,0.0,0.0,0.0,0.0,0.0,0.0,0.0,0.0,0.0,0.0,0.0,0.0,0.0,0.0,0.0,0.0,0.0,0.0,0.0,0.0,0.0,0.0,0.0,0.0,0.0,0.0,0.0,0.0,0.0,0.0,0.0,0.0,0.0,0.0,0.0,0.0,0.0,0.0,0.0,0.0,0.0,0.0,0.0,0.0,0.0,0.0,0.0,0.0,0.0,0.0,0.0,0.0,0.0,0.0,0.0,0.0,0.0,0.0,0.0,0.0,0.0,0.0,0.0,0.0,0.0,0.0,0.0,0.0,0.0,0.0,0.0,0.0,0.0,0.0,0.0,0.0,0.0,0.0,0.0,0.0,0.0,0.0,0.0,0.0,0.0,0.0,0.0,0.0,0.0,0.0,0.0,0.0,0.0,0.0,0.0,0.0,0.0,0.0,0.0,0.0,0.0,0.0,0.0,0.0,0.0,0.0,0.0,0.0,0.0,0.0,0.0,0.0,0.0,0.0,0.0,0.0,0.0,0.0,0.0,0.0,0.0,0.0,0.0,0.0,0.0,0.0,0.0,0.0,0.0,0.0,0.0,0.0,0.0,0.0,0.0,0.0,0.0,0.0,0.0,0.0,0.0,0.0,0.0,0.0,0.0,0.0,0.0,0.0,0.0,0.0,0.0,0.0,0.0,0.0,0.0,0.0,0.0,0.0,0.0,0.0,0.0,0.0,0.0,0.0,0.0,0.0,0.0,0.0,0.0,0.0,0.0,0.0,0.0,0.0,0.0,0.0,0.0,0.0,0.0,0.0,0.0,0.0,0.0,0.0,0.0,0.0,0.0,0.0,0.0,0.0,0.0,0.0,0.0,0.0,0.0,0.0,0.0,0.0,0.0,0.0,0.0,0.0,0.0,0.0,0.0,0.0,0.0,0.0,0.0,0.0,0.0,0.0,0.0,0.0,0.0,0.0,0.0,0.0,0.0,0.0,0.0,0.0,0.0,0.0,0.0,0.0,0.0,0.0,0.0,0.0,0.0,0.0,0.0,0.0,0.0,0.0,0.0,0.0,0.0,0.0,0.0,0.0,0.0,0.0,0.0,0.0,0.0,0.0,0.0,0.0,0.0,0.0,0.0,0.0,0.0,0.0,0.0,0.0,0.0,0.0,0.0,0.0,0.0,0.0],"Output":[0.0,0.0,0.0,0.0,0.0,0.0,0.0,0.0,0.0,0.0],"DLayers":[{"Neurons":[{"Weight":[-1.004843972053759,1.2023486303874984,-0.33095856305722071,0.068588234050473276,1.602208589949742,0.37404712772650983,0.19171353531615498,0.53551543249539835,0.2968190348983365,-0.065801308520976987,0.073775795963022861,-0.18461353020941007,-0.036216132970860251,-1.5654131693604463,-0.44972539620926866,0.44209060682110296,1.4142909941330046,-1.8826596978505421,1.0039268690179695,-0.54369645684198309,-0.52674841858760846,-0.57716783256138116,0.637555402301976,1.3203080330604258,1.5539993348317216,1.5730428907894729,-0.19175622752134508,-0.26599934740292253,0.5513720547553953,1.3530108962920546,1.6387334333913093,-0.31766600481764279,-0.14617550840452331,-0.061947614914713345,-1.2773377077082815,1.1302899812023575,0.2634530957938187,-0.77519286460019321,-0.10539539539467406,-0.3860513309824985,-0.031290459375943019,0.77125256768602535,-0.70490005258710875,1.227718444181475,-0.69726627818181464,-0.25658206933018857,1.4023000222641509,1.6200087552983353,-0.49381090454470494,0.015612779395430459,0.34593580376633243,0.5043133602032035,-0.081884550900144681,0.98942775977283137,-1.3580197763433772,-0.17672895098301997,-1.2388758624968472,1.6070770719587231,0.065180934995962753,1.3296881706126444,-0.78876909370942472,1.1201133239642314,-0.46275339390279413,-1.4748755113570371,-0.3400636319089867,0.84165372831823948,-0.057429162346492091,-0.44724393257432565,-1.0031345104254217,-0.15875397376774525,0.80949567575449866,1.8654973059266329,-0.64692085918361353,-0.22739403017583371,1.7636111861856705,1.5788981968438711,0.29768332979839568,-0.27516150206298884,-0.36509822215423837,0.97364242420235747,-0.085658439474952663,-0.54369632831946779,-1.3041627422460183,0.041043265858219657,0.77119665855716679,-1.9040675526038127,0.50194148463287469,-0.27993698384609861,0.943704073141977,0.56062577039032524,0.56818086261310641,0.90327937477420983,-1.6189771385951792,1.1646890880841248,-0.781625070973125,-1.1218719496959224,0.48379576995046492,-0.37807910813860551,-0.27947256401156662,0.41628925303406528,-0.30496356656307511,-0.061563410824892806,1.6738092205132402,1.146598236237931,-0.47178709249561046,0.90108413384346475,0.032313263845295315,-1.3867733475690582,-1.3473610430390623,0.23513961314928711,-1.1763005902414681,-0.32826547991869304,1.113939975907067,0.90403505219443658,0.47824244316585496,0.39549771630538078,0.30295306365143171,0.074548856273549124,-1.6073099577833478,0.678232935402098,-0.67056099077247122,0.92226237567246994,-1.6567290479581474,1.8943542837604666,1.6987198235926777,-0.64427690517356484,-1.4861789827636345,-0.45702171067568559,0.94142684596045956,-1.0300872379297332,-0.9171006281590558,0.15920751083605333,0.82417504917064222,0.38171969008559925,0.044592770302944312,0.022053241972836424,1.399036108701972,-0.84660643039750272,0.55227846035519779,-1.7434008888927757,-0.98679436882342886,0.090811238666442584,0.259026124262729,0.55184143155433318,-0.86565307847487416,1.2143395911968962,1.1382826748947998,0.75156426937023824,-1.3789255075989875,-0.96710789714339551,-1.4908767936243101,-0.80812462902275151,0.60704002278253455,-0.37160050131059008,1.2836356904747133,-1.991047848011855,-0.58827856769239473,0.91193532520529574,-0.5104059076450792,-0.721640561117265,1.139424213738844,-0.33148661550669312,-1.0003767455929782,0.56161200657294164,0.63940914608501365,0.20536413891490746,1.3742901475049045,-0.39367892739534327,1.1943837977919651,0.066219174799611508,-0.92536388206079789,1.2847172273466412,-1.264319243551046,0.66388643657038271,1.3598806985467116,-1.9420553762195889,1.7355173526962835,0.016180525541389823,1.1230802301227683,-0.66863041835486114,-0.99849006671792773,0.065402138744035124,-0.0957244458122759,-1.5407304016597245,1.9183338563508978,1.4980141685800694,-1.4074386485886941,0.65586309817426969,-0.30279158929661587,-0.30652425359307056,0.18724735091188502,0.68495615324236292,0.40807343013960562,-0.76570071384618976,1.0596349793763995,0.23722658038010192,-1.889299660869548,-0.22521133493394852,-1.1485393946750739,-0.95173043646211719,-0.94686189803614362,1.1732912022496067,0.583040577630997,-1.0799315902776696,0.54741810194562079,-0.45522153226511469,-0.24153283423803695,-0.645872074480109,1.537213768594532,-0.13783870736967718,1.0802033148953014,0.87629184612766176,-1.597266828021521,-0.7469113295650629,-1.6036521194519717,-1.1915672399064374,-1.6117813417742872,1.7049454351444475,-0.54778447026746657,-1.3336192191183049,0.88460781868063287,-1.0461925693843117,0.84732951170174831,0.95566385296062883,-0.50172920827834355,-0.671537162746815,0.43066306292575912,-0.057622418765734262,0.726864218119003,-0.24638802260778575,-1.7223772390151293,-1.7322589322492754,1.6452403772367354,-0.30668311673527726,0.23158056020344642,1.3802164398972954,0.65329556104414888,1.1322124275063223,-1.1321107722502717,1.3282943830491485,-0.31977831680317337,1.127527740144882,-0.51532780638594355,-0.13230270681718959,-0.61473213583917,-0.92636213401628764,-0.80877352264187,-0.078731239809995079,-1.3326077029726504,0.63316083612966567,-0.10133345100974361,-0.043542544377754622,1.0503405386487197,1.2330157604222258,0.09163281232660303,1.5095447101674717,0.58578650738010252,0.21899110089009211,0.83283363414594591,1.2126537962900095,-0.92289360562474176,-0.54114185205713938,0.74617835448411229,0.72824735880282121,0.056003186717827391,1.6204810606411106,-0.60453508915590826,-1.1424747373143391,-0.0014940304688615402,0.63149689629795125,0.8741560088815894,-0.21662335014744821,-0.62590270239203361,1.5794051306226313,1.4588244647992887,0.40997128440531505,-1.0221273313103021,0.14138456027775548,0.156358200198206,0.16928978863932243,-1.80790558634694,-0.2197604036632741,1.3148869067965481,-0.13929268817384388,1.5927824543755418,1.9582564681574035,0.73016902678304785,1.5110912525612354,-1.5217850820728509,-0.25376849774589455,-0.022960270765684632,-0.26739702106797925,-1.9383787736009708,0.92438592641818629,-1.0479231742433846,1.2521774326461264,-0.99135757988265,0.23177536769132445,-0.47022718492440285,1.4022707470703266,-1.9181850831574692,0.46981050747903541,-1.4377315377060937,1.8091801844114346,-0.88295524345455578,-1.9744448792070359,0.5838691509371674,-0.49847374972816261,0.39409567899727072,0.84111129060206524,-0.10507051171388963,-1.4425993615028445,-0.70647286749746319,-0.737384574802073,0.37791426999666455,0.372486122817202,0.89539256826759916,1.5069874411015714,-0.53876685718191641,0.35552648114279439,-0.5819136409464678,-0.15394216783062653,-1.0488675493043229,0.23950462320945712,0.33233095185990641,0.46471195596489689,-0.33449008238245281,0.22397872309618566,-0.277803194853782,1.3961311490339363,1.5958593774567635,0.80351467770688,0.59478967400039662,-0.38125104325002945,0.31599383420124372,0.63555484132808515,1.8506037517686393,0.525770376028901,-1.8417838624873124,-0.50567069623766969,-0.017213253020263043,1.231514477337019,0.5802894153540441,0.97805482760638052,1.5386396476713196,-0.2791022842092391,0.090324828676099422,-1.5186141099634645,0.414335605881333,-1.7584451044716152,0.58353596580379463,-1.575303474243406,-0.7842370638550431,-0.0337104480870582,0.98136827454415043,0.00046219024828753064,-0.26765689173138552,-0.564412378303113,-0.18636424274968089,-0.7650008233101111,-1.4272936207369407,-0.71660742103895525,-0.27867240276140137,-0.77762871421034818,0.90461183022087011,-1.0016516814947369,-1.4259210300752525,-0.045548374914297446,-0.62688978278398966,0.77359671461097745,1.2120692819413121,1.2963389583380609,0.28500793142477421,-0.84015643643407489,-0.594018147603617,0.40651945928415278,0.73044616010166785,-0.0013324162339018817,0.46172766327472758,0.17529582706060998,-0.15702116621868734,1.1625558683474342,0.27132741281358852,1.4777971913469012,1.5568607950382218,-0.29274057107057455,0.48315782706602711,0.10348781054652675,1.3237040468136332,-0.062028360117553971,1.5035217302872097,-1.7169334468336,1.0633702627678265,0.24355127999724424,0.11433971110407265,-1.3244983364476348,-0.40249608347774291,-0.48138738399436115,-0.31675684262068204,1.1436180095857091,1.1596516441365943,1.1305626757119609,-0.9735556910622658,-1.2682064508713267,-0.75091413493920744,-0.20897961255238107,0.470663652673291,0.61989059690439163,-0.996748224957478,-0.98932037502737269,-1.8478066343105428,0.22911664714529956,1.5223264952759847,-0.73654866485695769,1.3038912971056491,-0.31989806363143342,1.3402286317852461,1.9424713905632829,1.6621907426333942,0.25820179225793194,-1.2636654764710298,-1.5142737419876613,0.2464239030361286,-0.81694909316345532,0.65135131224587139,-0.11065798909899693,0.47647286024944535,0.040422097798633594,0.082086388991254644,0.266788303510653,0.77183046032917813,-0.9022141317381589,-1.0948555483924483,-1.8816534913525234,1.4639333744831071,0.66131946521872631,0.55469691499820772,-0.85042585751527255,-1.2851265983270719,1.3684432876149395,1.5478814819584978,0.84964004291670392,1.5498465623473035,-1.1845747910833797,1.456066637977989,-1.2414723591606469,-1.4741325897509849,-0.035684376040326704,-1.5051390742579598,-0.93030623110491151,-1.0799455126079303,1.0677465039365746,-1.0071116196956074,-1.0665676626686786,1.1557333186062673,0.1077702120448325,-0.22498372760964389,0.7940276315044158,-0.71202240964026287,1.4347752467425423,-0.7203707991728423,0.46664757629234688,1.2747197687973828,-1.3264812954359135,-0.28936395263386139,0.9321115489267332,1.6905214505691646,0.7327658357872654,0.21014790526132465,0.054417432311185454,-0.96355658348815365,0.26491630369094954,0.848125863283931,-1.881385788266261,0.676357866125086,0.61011698591062657,1.5428225582199278,0.66343073484647608,-0.72307884648963994,1.7428819070304193,-0.61348662879946014,0.5685207073430163,1.5105506756857738,-0.13591486019456131,-0.40866534844211566,1.9969003889695278,-0.92642531330996447,1.5764094067627608,0.74301776531176544,-0.013258849275202364,0.4387296547915448,0.38694628370841788,0.46795190240626772,0.62798776693082781,-0.49370087799322837,0.12398024747333514,0.78282743771051866,-0.31637573070655378,1.9974736757564702,-0.985723452112043,-0.58827265825279818,0.68085982216562124,-1.222992775101623,-1.9085994548670013,0.95127102450992507,0.81062480218478417,1.5016577632639825,-0.44129918400535212,-1.1412792289123308,0.23756471730087769,-0.63723719408268642,-0.42637017642691855,-0.76345940680390179,1.16315396566487,-1.6627651991614911,-1.9293756000368743,-0.15055309910458914,-0.97064969454456573,-0.19774209565843548,0.63061114024369713,-1.8344810529772571,0.52288360094254727,-0.917071269320823,-0.55216344794540939,0.89277567616327469,0.44311217518668267,-0.13113041321333974,0.26408000582087787,0.02757743467929652,-0.16790378310023424,0.02417007182918951,-0.48952954518593694,-0.059068343629626652,1.6219468003241095,-0.17627331470055371,-0.08675616988163623,0.18187373791908545,1.9408538080476476,0.088232453511568568,-1.2359740674663216,-0.46307418102182418,-1.1665919829004405,0.41046278093031729,0.84522960001846292,-0.30564400730917424,0.84065207459062907,0.69163347970938749,0.44017194069542415,-0.22966058418895619,-0.61993350583125528,-0.71572297863037893,1.4423690156277127,0.31991408213607375,-0.1288829846907793,0.67527194259468093,0.372464599851116,-0.97442464469857781,-1.193250377667467,0.014709468006486759,1.4386694428691031,-1.6732432915238866,-1.0402100547404074,0.60482643502989153,0.440813168925339,-0.77129219239531133,1.2074349521228276,1.0084279325768104,0.95281739575861346,0.73095518105242174,0.7995562883091889,0.49329854291551678,1.4432835520446687,0.0940906648030927,0.70544634792276018,-1.2443995913464576,-0.21482579952679845,0.090072359000366475,0.5048218604665351,-1.3597049896417675,0.38571247939202685,-0.092568625739108956,-1.8874017055553392,1.2239933945650252,-0.38488135784160415,-0.93992214414287467,1.1087965104304238,1.6000732097993367,-0.29185454666497168,1.2017558550935963,0.0355217614321075,1.5358613913580128,1.1125486770703219,1.7684530838245771,-0.058542782235212032,0.47630464680320805,-0.33380010553346962,-1.73529418545556,-1.2107108175804422,0.15516895502100531,-0.73612903862635126,0.49431013478632552,0.13203197630682606,1.1792499614782865,-0.52320930106714791,-0.5873821340908213,0.24140499423046941,1.1180194185548553,-0.53043740081155555,-0.305352673094913,-1.3927840685438291,-0.71124908826837729,0.25366497144739375,0.43625889090536896,0.97770669263680787,-1.8380108921965634,0.4667484669409015,-0.59173637692717329,0.66242277649704229,-0.29010443682321563,1.0626090954789673,-0.22084336726499887,0.61271450418082085,0.93735923568595148,-0.581580876177913,-0.73990657479847144,0.97545053300466933,-1.7450426853005974,-0.36549099086108194,-0.44542426729827378,-0.43944693842877025,0.53499543319223231,-0.88263433141756542,1.3514290168422409,1.6422948489279,-0.58002306367504564,-0.29958510838801433,0.41000884650741187,-0.40783190280563741,0.01421363355555285,0.652685802023963,1.122349204086861,0.44903721401888763,0.81822790709241655,-1.0317386719545996,0.061100448160944731,1.6169596778307853,0.79933140929757229,-0.399422907456487,0.39725402481726091,0.9800101513881283,-1.7813841885800399,1.24417054284664,-0.71964088954014738,-1.2182222042317605,-0.52031112701942284,-0.39960481693251287,0.25906259823081212,-0.61327351751424075,1.1856792406170531,1.6559802646078077,0.45131188067552708,-1.5925018077681314,0.59834757720325127,1.3097889662300184,1.9818091187541413,-0.077355499415358242,-0.056300423387097787,-1.3417664986763924,0.17015722751159093,1.60538125345734,-1.2931459047395861,-0.49351474380517135,0.735620276413681,-0.21736349792562593,0.36371493635872143,-0.49976148168081641,-0.087814117822709648,-1.0041055285883904,1.230293502672712,-1.81428109287018,-0.16680778105128913,-0.1325334702304255,-0.38226530811854875,1.4391994045298544,1.3802371078078808,-0.92002838613466742,0.23414976994940581,0.33170164482276426,-0.76756607869992322,1.7951770312130346,-1.9443751014510053,0.59523850336831341,-0.19552175804004246,0.66252422515022991,-1.8665841724102312,1.9199681859090778,1.8653116914747803,1.9307161885922386,1.4458823629868602,-0.75608344875339162,-0.56037576988356919,-0.11403183981236378,1.3648688417695785,1.2446628879963715,-1.6865589663789415,0.084782742861906429,0.53528152710538413,1.0663761622581518,-0.4679580411359936,1.9090261999094049,0.4800508565875008,0.8960727373585442,1.1666819770665291,-1.8500783545198285,1.3259612989267153,0.70781391184950793,-1.9851094409754078,0.56160833992138892,0.65769673404865481,-0.823882869828438,-0.52824054380025154,0.12560403036618753,0.051375365839980258,0.94890183394257988,0.45813319760287774,0.84526617198528253,-1.3976471365418504,1.4228461028183093,1.8703306652001714,-0.8541935199791173,1.6170412020837151,0.071457290589556577,0.42797243355681752,0.2863319623525985,-0.53465479194869048,-1.0543884764976241,0.090955936392282943,-0.95125202138399179,-1.787075273593457,-1.3348319825703894,-1.4445391928053177,-1.467743569737181,-1.577558865573983,-0.28704195948645572,-0.44557226642022146,-1.5964933240769865,-0.512471446074765,0.82056337307233518,-0.749505322186137,-0.53766496004274322,0.61703791591200874,0.47963731478882826,-1.683106083275334,0.16451973382594032,-0.84121533697061956,0.57771705122631012,1.050039592168287,1.9045347128550216,0.50536998664278987,0.75182725803546013,-0.21801026877859336,-1.4142407399668548,0.056254613239436591,-0.46675380061695054,1.7445348276498423,0.67535095227665787,0.2458852292019339,-1.0200761552062241,0.26746489585724875,1.0113457144523719,-0.62624966393569548,-0.87404859665504131,-0.93607511321831272,0.6185581815504535,-0.834508442010036,0.16477296229674154,1.1896973490667051,1.0531570269042425,0.045763965717406818,-0.79779806232446393,0.38305605919242652,-0.71153731362965766,-0.61267390596339188,0.5241672706437146],"Bias":0.37731669806924961,"Output":0.0,"Threshold":0.11033533611816138,"Type":"O"},{"Weight":[-0.69292693826971907,0.15130986373466904,0.95603709715350393,0.33630889204158843,-1.6976401674084554,1.4561622033157211,-0.97612942521280122,1.4499582060146881,1.4830831366774313,0.37431012570927757,1.9779264517025679,-1.0666013243918313,-0.9908902493728744,0.50363456458022571,0.84124515058530736,0.86941669269903388,0.14015779970919617,0.29370383316336429,-1.3007220343224342,-0.25937996653811085,0.014641844979902646,0.85272307230170019,-1.8441793284584671,0.4397677832177227,-0.94037613658244712,1.0956254541387902,0.2635435745168565,0.94235611960401577,-0.24732301605275037,-0.14556428517474052,0.30274155750067044,-0.67389479031502031,0.038150238880491905,-0.28787340169754622,0.88623034995339356,0.061515196255182425,0.33870962743587318,-1.0388504282949185,0.7873609824047243,1.2774826722995949,0.15151974286489178,-0.55712484501168358,-1.1399501539487158,0.98422885805841842,-0.17170102064111315,-0.42104984688155811,1.2665096525528981,-0.68577511547402259,0.681354223398424,-0.028964339768963177,-0.46153021479795225,-0.15019021636262325,-0.73128740639951417,-0.29063653739609063,0.063074901729391453,0.7197366920158903,-1.6109369053599945,1.8375570624310322,-1.3656722956177183,0.83607875035893131,0.30244141909588651,-0.31334325581385691,-0.12696074036694327,-0.64598108545646238,1.013009143533655,-0.6677218859166475,-1.3622715540054586,-0.30744995202750436,-1.462967911485102,1.5395379474105027,0.86624675191298461,-0.771708389637856,0.69109224439111072,-0.16676740001421425,-0.42205047381133848,-0.004526142964384583,-1.9841300696060666,0.19173521814553818,0.091401216616575187,-0.24662855372141523,-0.80306501630836391,-0.0305771521447291,-0.19902319936036272,-0.22638869016728758,-0.20960025277726282,0.049518979410416941,-1.7307916468618398,-0.49452576986659297,-1.5613602697589308,-0.12158866226514264,-1.03509743466745,0.82671059840438443,0.30594829730639095,-0.011641151191429389,1.024341469641934,0.08739616074012424,-0.12151394542726404,-1.0185249634609908,-0.62417040608086183,1.9926013760234236,-0.079448172401453937,0.16384306849284949,1.7908136787781555,0.48868468705969148,-0.09919610918840438,-1.8850681743980702,-1.1008119331810264,-0.53477784038278176,0.43565707548719396,-1.1635869998315289,-0.960829849802344,-1.6465371640615805,-1.3541319013359638,0.957967069446094,-1.9920772574805084,1.4551091904077258,-1.00896530138979,0.23747464034166754,0.2313521573173169,-1.8015069290071293,0.44581508611032156,1.3817357352849728,-1.5215497927374904,1.2373384941223706,-0.72859913364440465,1.1285281116908528,-1.120817942135417,0.44200089501310191,-1.448082554828414,0.24781547638020274,0.62702588005304549,1.1752429656569117,0.37137499934592044,0.10199749214194412,-1.5067756248203925,-1.7444864645341816,-0.37317005149003579,-0.16783411324131503,-0.39959277976285323,-0.18070176904122426,0.23975466296065348,0.91852542605764476,0.033338688192024034,1.6338791566127346,-0.28575153196498349,-0.40185767890739155,-1.392072053343091,0.035307765954783077,0.48197370510640258,-0.68152095316048755,0.67131739834413973,0.58902517326289927,1.0919471211228271,1.0145094520479949,1.1292014918236886,-0.09116679527385485,0.013923688332514561,1.620965497391748,0.34174823870032467,1.083685014901536,1.3868962504839972,-0.15557323496582609,-0.21079077492140386,1.1771264426303687,-1.4385485553362165,0.69460823605517308,0.57852867784841377,0.75594909244959663,-0.670986361182754,-0.385081487246827,-0.0782526797048062,0.49967866879872913,-0.63747852232189772,0.33315654582754728,-0.6964391449915428,0.17544425906983407,0.12366141111981865,1.0206760241950053,0.71389997257530613,0.25873431482293396,-0.77823565732838385,-1.7305981087175189,-1.0202281712648589,0.90136076831322187,-0.535737944085029,0.85950330591737456,1.5833563113507609,-0.51069929817956827,-0.73544980588717435,-1.9859834555471239,-0.8746564429600987,-0.8263833355121839,1.549573901830974,-0.67317257899473071,0.953312427804878,-1.2575308714329876,-0.34412711569911436,1.2451299555809841,-1.2653954419473688,-1.1085615341318515,1.1695711068043693,-1.1071329187169359,1.8296866732787747,-0.75498324853338228,1.2274162337311618,-0.30142662365172362,-0.98478432597774079,-0.17677063431490453,0.1464859249344963,0.68125968581428986,0.25068023949146284,1.4168915759071112,-0.910771600394869,1.8892817589870106,0.54000184033982312,-1.2683006841920086,0.35665977110930713,0.76241877431162575,-0.37689194752690014,0.5451914466313047,1.1659654613137498,1.7032572588432848,-1.4521445778441358,1.2701356873242817,-0.6521666341704162,0.5279890739023636,-0.00605832506253301,-0.13171571468659815,0.18404209901766944,1.2169104023333222,-0.74903182813386993,-0.58317609903550516,-0.20469040753305451,-0.44487849457416606,0.64500604693079655,0.82868165787919357,-0.0712726618262346,0.52622423435189081,-1.9616872761220145,-0.95782822252150079,-0.0026770241343530982,0.81547602210914549,-0.82287003857828456,-1.075708517374335,-1.7163573725690866,-1.0096082533754447,0.44998282942687295,1.5461793968203383,0.90921691009272676,-0.52569034494549982,0.03486023379250458,0.56311422333266314,0.73679393843598362,0.71556052785160051,0.69117511960747091,0.022667112537970324,-0.26301905105962364,-0.34082306357345377,-1.3321477813970519,-0.50630368147106086,-0.30643841356950036,0.24654176380338808,-1.2138212808472204,0.60382767887964262,1.2259211154775325,-1.5376549435489135,-0.681616828162976,0.070602995376383593,-1.4411140326136323,-0.27683265194149342,0.81167520317792663,-0.11259774962095448,-0.056912860903562977,-0.66839987908881149,1.9020153078725635,-0.27537506319367094,0.549779406825462,-1.3702002496552654,0.12241783338929781,-0.73220334143014787,-0.057234340374001436,0.63257906917635909,1.575738206308213,0.0085841016883887455,-1.3223357180295678,-0.61199349853432006,0.78829634579197561,-0.35566470020248775,-0.12655065074868069,-1.8491492866767334,0.20014414945624037,-0.16127990080219679,0.83341508461827163,-0.33307576090240654,0.17968323813695772,-0.68464619605087029,-0.32601112724561765,1.3738946146352729,0.58164253974409885,1.3790816326528237,1.6503561174731498,0.84089614321101824,0.8762707895954468,0.41449273885902616,0.9741836124328821,0.76549297699960572,0.038839192147757329,1.3729205962144402,-0.037343461549535051,0.619442223219407,-1.6487209255102653,1.1645312566145005,0.67333662820669682,0.42661529945637733,-0.12605093482901619,0.509084765466437,-0.38014257146517877,0.54465461471929877,0.23770545340967619,-0.14339275653166356,0.16934608162292103,-0.85565234294890069,0.1844573683033035,-0.21547804317226538,0.34730561167072704,-0.91234056017400023,-0.17627806461701251,0.1272918086043987,0.52879742278195785,-0.65950699563260751,0.18612888473335085,-1.4861584377876289,-0.47934742119962348,-0.3031545594698975,1.4701658759592873,1.2770589968548431,-1.119921555332803,-0.368717709569006,0.098941842838629085,-0.5630527666998002,0.92558655227085673,0.1312888293207104,0.901263541961677,-0.096193453696963083,-1.7140450364509807,1.2550712778489435,0.070454550939823779,0.13109087641634543,0.019629024796859223,0.1457546997868362,0.50549044014661482,0.242979744562404,1.1049450729530979,-1.5002521474134518,0.3724080165599597,0.37134469317800578,0.68146074501865561,-0.38301277644141241,-1.0387228643701985,-1.1432066787566071,-1.6512486066907872,-0.98736312894337053,0.11761860089265674,0.24551149003464312,-0.17975150783243837,1.758403138610722,0.41954868725479971,0.046357308215860815,0.73163840301876792,0.80968821310540107,1.0564479897992909,1.7342252599700472,1.49137248011137,-0.32057605652165422,-1.2148917108843529,0.963988983521233,0.40382574948194683,1.4036165983040081,0.0813676278718597,1.8115974440293376,1.8795107146163987,-0.2907474018749111,0.51099843625491426,0.5242696658355509,0.81679915773766076,1.6273520829283408,0.85003891207745252,-1.209113932777715,0.094508559557831509,0.0023537737894389742,0.15760097310766608,-0.60940002911230551,0.057166117380976045,1.566019504361795,-1.0497191164000297,-1.6248656300012327,-0.2400090580293951,-0.87628134264562607,-1.0448883464768941,-1.4025740546186334,-1.0505709289808622,-1.4427990221617739,0.46919585973248867,0.10801074865917276,0.619362588328944,-0.61504960368156891,0.89859868459128167,-0.46381206226712657,-0.31162586543319093,-1.4742400189741702,-1.1435435554681082,0.838165362231976,1.6496276723452041,-0.31494848165425871,0.4344119359433708,0.22961727773287211,-0.165381164832684,0.45909138431584751,-0.24850547796994293,-0.43627641463478861,-1.021667921916612,-0.43501275891205893,-0.24023375013621226,-1.5778726568768167,-0.50097637181215759,-0.51332151017306438,1.3915808961687519,-0.69520216249288169,-0.67518235413598948,-0.0015669358388571836,0.7933549055798701,0.045505265726477617,0.15433117206977631,-0.82630954104303833,0.7876263348328072,-0.77131696290863538,1.2006691020303539,-1.6223929876565901,0.611223724518774,-0.63018117408742258,1.8686017747356565,-0.60345904629591218,-0.4042725699391555,1.2011829308239663,-1.4501442929381248,-0.17707669277539317,-1.7498137111541878,1.4285820626786827,0.41414620230720445,-0.691376453798632,-0.37329303342187453,-0.26184059877510879,-0.18334458691049105,1.8196324612105417,-0.011582525452404541,-0.081501984042669423,-0.29572256668271613,1.1103293998680679,-1.0651989835618059,1.4889704210166683,-1.5551068985625669,0.086879441787898248,-0.9903904294352105,-0.11389479139535452,0.12132498482071108,0.34203721319420133,1.0061422511381759,0.36641948966608373,0.78888253066171066,1.2870959124666306,0.043124302776122447,1.5308132951757,0.057054898728176262,-1.1212826558022213,-0.8736120764508899,0.75535272679075272,0.12273240095131666,0.35572952805353764,1.7007414510942724,-1.9361411682032705,-1.8694154470550899,1.5564502512833336,-0.093031730666211343,-0.28768927019253,-1.6430740317530344,-0.261681110341652,-1.1778348423204545,-0.42883930757995203,0.57697625228994354,-0.21576876139304074,-1.1016448713381051,1.8677745535354013,0.38230873024535467,-1.5512614111519232,1.0296637362473011,-0.6722678073785584,0.92117548311183972,-0.98551108189765879,-0.64099754492798711,-1.088841125061196,-0.48863798030123018,-1.0617971748539641,1.0110872252895902,-1.3113658611249952,-0.42083347049580588,-0.26040124940238951,-1.7918552792593163,-1.1674177717265755,-0.93901076978588627,0.51430825867271834,-0.16125168938248025,-1.9153119492881521,0.11305134702150305,0.91073668324888546,1.1159026593043948,-0.0601230350428367,0.43681758031864082,0.25796407065231597,0.68420489530245754,1.3316426053441328,0.0411532452865872,0.3112825720157858,-1.2235383480896886,0.6287255157311914,0.26939036430296959,0.57591533446095911,-0.76632340940009969,0.11434498868008597,0.17235986799528141,-1.2923320435417498,1.6920948939826781,0.34771729850220362,-0.50530242996566344,1.131388479439257,0.258169341254127,-1.3376525171451048,0.87192664913601514,-1.35066321089429,0.48789320077439824,0.031292187180971848,0.55536371867887846,-1.1393337290936145,-0.19079319333132941,0.57266272910528937,-0.91217908957608929,0.86254914181665765,-0.36784556944288571,-0.14290871570953567,0.18486546304361684,1.1248606960870609,1.7965701146966637,0.56989305187361,1.0402807656397488,-0.26731319322633418,0.98080172901079132,-0.47722826908679139,-0.67612453853034893,0.5463534717198244,0.56239327552276719,0.61877102963063479,0.029200173666095453,-0.52065242618352747,-0.58942914280604575,-0.12075846586930249,-0.051450263267126983,-0.41589435488725757,0.85974960132097455,-0.82081361618862192,-1.3162280481937241,-0.15056854586609109,-0.55554056344287217,0.78528667295728771,-0.39449068456631653,1.1378802826789931,0.86402459555245581,-0.18881682594717342,-0.632956987308784,-1.0038573109795608,-0.53871897959090709,0.91167130130886642,-1.2110643141023183,-0.80472734887373054,1.2770557083548306,-0.74027844197828263,0.15868075288464428,0.13890616637225445,-0.28381563643171259,-0.377510574007179,-0.36498009091132627,-1.9073273483232256,-0.2279024050900052,-0.49239433300327251,-0.46163933559397208,-0.58541575235334031,0.27354799553546083,-0.52649994475138373,1.2721700210298432,0.85804883339053428,-0.0477509549131796,-0.98053959150823744,0.18287578022615275,-0.137591931101676,1.487739002093551,0.31475542407238644,1.6545416369982606,-0.58232264237099041,-1.110961274761223,-0.613203840085957,-0.055875776827277512,-0.44854533121355106,0.19924113485468445,1.146026877288719,0.89399643831141118,-0.94841910314206923,1.6447302494872038,0.18859188713764441,-1.9049083012644705,-0.27873018082683287,0.3988928002693074,-0.586020962206443,-0.82886948381963632,0.70754948372838522,-0.47140795602295921,0.6341759449030161,-0.20086322641040355,-0.013729900377283999,-0.020436223523768948,0.00087294681038369015,0.52253580279560841,0.94017180987463511,-0.2918878241115383,-1.2446042649655622,0.89257803507734934,1.1809836949106973,-1.3677440694557708,-0.55738837396837226,-0.51341727269395077,1.2527720968632088,-1.2099059132069412,0.21280440698042724,-0.75831783924901042,0.862080300628245,-0.039533337421963494,-0.61173857497597983,1.7427538967424789,-0.42705397467457407,1.2462105924478781,-0.33478925113323577,-1.4242452659757088,0.37639179067056144,1.5191233831081183,0.66649521231488107,-1.5595313839425944,0.1759448229223235,-0.33061305989510748,-0.34805007947052369,0.14742880744450124,0.46860980459307788,1.4525975535868656,0.45873464991279639,-1.1789994685347189,-1.2223065955559678,-0.38767302519999114,-0.44335423744905467,-0.24732129648524648,0.31730091493451074,1.0285965982583043,0.85570873441440476,-0.949644520389682,-0.14517051267678416,-0.21229875944545423,-1.0655624693222925,0.07747379027538645,0.1796178366821225,-0.7882754256894231,-0.12895585553817485,-1.2881473986376766,1.1955598160603826,-1.9797172155136789,-0.43188687713438967,-0.457791941613677,1.9746696743996206,0.26305447624207234,1.0078880204855873,0.88096147164747185,0.045526065884868849,-0.60037052854978168,0.22381447780273264,-0.74839145985639688,-1.2265895433847742,0.58359303631987114,-0.75233112403765845,0.27287762924108916,-0.3973050023829563,-0.020176491037134592,0.18596849987735917,0.90342952073711436,0.26225989187517107,0.28485778373326176,-0.44925041198759225,1.963045090419727,1.088986792381148,-1.2862842145564879,-0.50059547158917206,-0.49866146244741771,0.2454526556518174,-0.34387686957785712,-1.642250370067661,-0.62648310494911064,1.2614604156750535,-0.77351439128327848,0.26971175254774815,-1.1877590524092125,0.79891784246960551,-1.304677102390992,1.0691538236946205,-1.24777824489762,1.0035409096433914,0.398663037642214,-1.1729050181679916,1.283152312902661,-1.0336616096927465,-0.14970427101129513,1.9674464631674096,0.57619142652311872,1.1991235889490337,-0.13105694070245696,0.70932622566322134,0.93567514683355357,-1.7533083035393191,1.63568515197173,0.83927485851537176,0.37411839066730757,-0.30654666206881021,0.29297424866490729,0.56759344172551929,-1.2226661430866035,-0.01971089933985426,-0.17334926782564697,-1.7940409629577963,0.63535852459717979,1.0197918642608179,0.98779020195047318,0.71181138125798271,0.89422535924117574,1.0887825154181487,-0.12145282892577947,1.0707359715927094,-0.14331899450315111,0.078156104622408629,-1.6813411878800677,-1.4488141794916309,-0.65771035668219957,0.242227342092538,-0.29747442966646021,-1.039962407336553,0.74912446791090737,-0.39605702757651778,-0.79686234090331109,0.87578222382617288,-0.5828814114597074,-1.800081204962809,-1.425366680801551,0.22426689647802475,0.50726074469613858,-0.49769327575674588,-0.088032544834343557,-0.39652429749096008,0.660386302495788,-0.337940153008299,-0.2680856590243455,-0.10481474739723584,-0.50511593758948892,-0.77289866598923629,0.42596809192954938,0.51182548092224778,0.42104553914380216,1.3291349401779529,0.10138703280327732,0.30177929106195583,-1.4836044327745235,0.42123085876634847,-0.30966371777917434,0.98071708296459015],"Bias":0.68353466766527138,"Output":0.0,"Threshold":1.9731194544458388,"Type":"GT"},{"Weight":[1.0648809806745878,1.7946018184510066,-1.4065721221997274,-0.92799389405548283,-0.21120700482800925,1.6897859674365194,-0.617948513503861,0.0044256634448774507,-0.48575231996319884,-0.21553715235345861,0.6808553431643285,-1.3322476722915879,-0.38951312239208224,-0.57878211388773382,-0.18330033580227767,-1.2441144923585787,1.8088549225632358,-0.21748339767450631,0.47805860008954015,0.25821822497910718,-0.11025136062421437,-0.835286991826858,-1.1924245621508103,1.9198391809686268,-0.73298899584123345,-0.61058023467970024,-0.66094121317646759,0.17175714586477575,-1.9903049934610282,1.8310058507281384,0.56471351883477217,0.81692217194246419,1.4688370560616426,-1.2802581373975883,-0.52389834727185058,1.1077598887997493,-0.91763370619976592,-0.086989425521586464,0.35631543394122989,0.08908896431750124,-1.4315151507998376,-0.46565768821051295,1.0172635260176675,0.17605996885153474,0.77256175794379534,0.76206689642838521,0.36337920760893239,0.24104135774124469,0.36902849346819733,-0.65945405683454794,1.4320595321161953,-0.62212330038758146,0.45718253378625151,-0.49247666751298136,0.89988403250457916,1.3457142707638976,0.47103908214300816,-0.47269767265426821,0.93881311683232049,0.84563911838719585,0.72460962985042021,-0.54127825135779262,1.2543907441452102,0.834121863746141,-0.082455500998746323,0.24540803687917678,1.0146087156340213,0.22762206859310252,0.78043583516922632,0.6014425366192323,-0.1868687291131908,0.35474981470873168,1.0913302912802112,0.68489786676959918,-0.56129598876521736,-0.27007011429875627,0.33833836005690437,-1.2709039654607319,1.2406500444562532,1.1191126206513089,1.4470070715659564,0.5030025818864825,-0.8507752068577219,0.69339554399813874,0.34871651388179337,-1.0076033000058424,-0.16915752839723486,-0.98429160993983822,0.49035591189300431,0.49631898383824169,1.3700386841641921,0.78939174059284456,-1.2850203302583274,-0.58263146997551973,0.070825540493626882,-0.43607366597534392,0.635183210054332,0.93837680990732109,-0.297773912105604,-1.0918426826092613,-1.2864288013830914,1.385200027090125,-1.1802061922756053,-1.945356924061364,1.2054651985901712,0.76953566389602424,0.7538411704899467,-1.4943367948263591,0.19754263944118228,0.9547711009880393,-1.5035802719665599,0.29183679116788014,-0.034038754545170136,0.9412897177407471,-0.19037452255858778,1.2501884039375877,1.3936704473540515,-0.29903515259057351,0.33955985350517448,-0.50663593248773187,-0.64258842339859723,-1.9038219861238366,-0.076537186079405684,-1.2704319000572115,-0.1033864643804317,0.586360640864056,0.049387243599345432,1.2911560215480422,-0.56995239857116364,1.4068394249336977,-1.1940412666620879,0.54363177648914585,-1.870460104136942,0.046934671721856391,1.0405628862979648,1.132665325483617,-0.63136577728733689,-1.2012439762247933,0.930204230793847,0.18229707595977382,0.983773702282353,0.89191028796691008,1.4416324216600658,0.49473037780017148,-0.08406711839328862,0.301011418383603,-0.51613322576327869,-0.38063080801101296,0.51181211160114592,-0.88959751692116129,-0.98517839283923547,1.4324281697312502,1.1373546492016664,1.0463408446519009,0.40511613254731793,0.21932578748991993,-1.0875795931031833,-1.7018113955002274,0.78084126870070647,1.3011910018051003,0.82405123478921671,1.7054785432785184,-1.7739547769417776,0.63803578408898853,-0.41600579322129749,0.34399074797704388,0.46212031160949274,1.9861099030757834,-0.55129965706716166,-1.3294931181378165,-1.3814786986361625,-0.59540005327457479,0.70981996300854722,-1.3245348182155445,-1.0964628788691597,0.97878875594064074,-0.36759957176055746,0.011282630270013083,-1.0065433729936104,0.64876937244495814,-0.73159137704949428,1.7436147684900161,-0.86590352135985327,-0.35389663947461947,-0.70883835006218332,-1.615716242983805,0.4449783574999211,-0.71144675962228643,0.27753864975065856,-0.17404315256236264,0.31347723412955064,0.28076994788317605,-0.53696478835165717,-1.4819458683402957,-1.6901510579931323,-0.38458952605006724,-0.24189634171697291,0.74430348106860356,-1.7887061144172709,-0.14810921695228163,-0.63721542001332354,0.24212623119453269,0.22507564456030976,-0.69658797359866464,0.9281795252484043,0.58638339211277368,0.9166398688296975,0.6011945375246901,0.8329546384520996,-0.62176196212962354,1.0188925200579186,-0.16692807245041633,1.1082832282313038,0.14823431924368921,-0.41340552071958747,0.29925006429513462,-1.3478260886206153,-0.070526321451424678,-1.040525747016317,0.074447543394960292,-1.1464024927217524,-1.6780176515122958,1.933029102130341,-0.025119318638518129,-0.976399838098511,0.96559505475887319,1.7608261479813727,0.50274411702539967,-0.18908477424775938,0.55461256883787557,0.32143461775974574,0.848368856796119,0.60104889171246834,1.9967589545979907,-1.738831937191464,1.2621185273221314,0.61056684610649459,-0.9655467397372921,-1.3788832162408546,-0.16644334102349512,-0.90028469539260714,-1.4062117316789049,0.90609595669950149,-0.48506197683846175,1.6293236875810306,1.4702012648201555,-0.79471750571146493,0.024684242915680832,-0.548628325829575,0.97876769815514209,1.5184138243870873,-1.643266934735359,-0.53613284162065611,-1.0817174162648748,-0.375851110402428,-0.89133185886236066,-0.029117214617970677,0.99095635499485946,1.6201760506351366,0.35609591303211446,-0.080634232193264932,-0.27545852075585087,1.1838464005505824,0.92089248584624972,-0.31371884714519549,1.3457923805554364,-0.65563820780295079,-0.61072972771279965,1.9468562807640324,-0.40681993130446403,0.20866462132365649,-0.86111511982097988,0.37612847928592391,-0.79511790422029693,0.87975405428954589,-1.594568256099973,-0.37961257752827959,1.2916966797396059,1.7478852922785495,1.1542277015770508,0.26969217574181342,-0.31775238608013157,-1.63746487006427,1.373614789626382,0.32782029442736893,-0.0026423055690909525,0.83831578625287673,0.8439412957221557,0.052676090966224262,-0.75880526404162341,-0.5037778730056145,0.014526134363620602,0.34191803740211629,0.82066306789436538,1.7288999949716497,1.5067989768026391,1.0254227994750325,1.2224962828785631,-0.69794061393381135,-0.72506777453894267,0.53241090965807958,-1.1825005586410411,-0.46440367142874917,0.22494878849845362,0.78035492004436224,-0.01377529931374084,1.4436375992110173,-0.60177271131042986,0.48453999240162782,-0.26047990522680786,-0.56690159885534153,0.85055475139550629,0.024706783516785263,-0.4034481719239188,-0.50099190897936552,0.45231671745531088,-1.2628364261532372,0.84702209607683043,0.06053647146017694,-0.901944687696727,0.12530517257997081,-0.81448258468391488,-1.5680397542044706,1.6211712302738666,-0.76405907054613476,-0.11524498002382222,0.26122735313197,-0.62455240293617931,0.61727123456880051,-1.5635910302231046,0.13329220868130731,-1.9122021607645798,0.010197346336300317,-0.59209361806929506,0.94307633347021236,-0.88897416502655213,0.90757540562542882,-1.2571592457858656,-0.23078079894354853,-1.4875628461537711,-1.1056733928181572,1.9255677703421412,-1.7697648051054054,0.14707467711860056,1.3454644453289602,-0.41486587842920131,-0.12582745844740534,0.29953690166563574,0.913629969076081,0.43408536838092138,1.6553947830830675,1.1101301683746723,0.52372692052463043,-0.57654660709448924,-0.28226035855233683,-0.69461206658492425,-1.9343050382725453,-0.437195777165329,-0.54545545009684537,1.031959654312562,-0.32574338760494426,-1.1611533504497043,0.70176439951256131,1.3258413757783556,0.58253534907476767,0.42854113470403987,-0.37665267213091846,-0.055700663503120085,0.36259856371330024,0.5380048540132143,-0.55069078462251553,-1.1375590144365835,-0.87993497608342908,-0.78812674723098963,0.17164614702404193,1.0429552377255447,0.065789465357451338,0.61655839143795732,-1.1312649394996766,0.61185087359807322,0.398785986221063,-0.47224814027794348,1.1044260184766845,-0.011592018423411954,-1.1306976693805935,-1.1745970522050184,1.009231617212869,-0.48297669109095676,1.5475252510304332,-0.71358423728313958,1.1177815520064265,-0.69618509742253709,1.0836856365029663,-0.14407797371641459,1.0924423761164968,-0.15558408292114012,-0.50170287699517924,0.097574890636641043,0.397926002218117,0.24553657919542715,-0.74120572523270067,0.58933015409069145,0.066799382870341484,-0.589027919149505,-0.39402739171839568,-0.28012611782416991,-0.32141833990801749,-1.0961029613692559,1.8738239611842782,0.051154350885727617,0.40857822871584359,1.4933225649843562,-1.0248086974899549,1.5465340500448521,0.63742616334284019,-1.6745762674485223,-0.30605077850914131,-0.16623681418888125,0.29628270964773717,0.88573701720951936,0.27723080025856889,-0.08275513427003614,-0.46152946460189065,0.21528725801747628,0.9015962924000791,1.4046318900793007,0.94675465810427184,-1.2972287923550367,-1.8701795655629503,-1.2098865171414825,-1.1848568931151446,0.056003943840489331,1.9976135846216296,-1.732588579753688,-0.96937715981068417,0.10497238850444618,-0.23244876776062834,0.47621571566907955,1.9362260865449095,0.82199202981870245,0.56413960209541936,-0.77623017110220616,0.38229177875085346,1.2920804150831331,0.9052891670285208,0.98342865838596072,0.19763989848906149,0.586944681865603,-0.6624853595450918,-0.023821174876681228,0.8587249751276238,-0.014831325781045665,-1.1533084037337535,-0.84800377248227765,-0.36750294320169052,0.03194331286099894,0.954069715088266,-0.94207461129039272,1.2840979375336774,0.93893004659979151,-0.62791209417763727,-1.4255355393632947,1.150849905866594,0.575645334355368,-0.12645020699571952,0.81090344641219991,1.2048645639814737,0.63306845800628353,1.4358430287967636,0.2901161015802603,-1.0980537412526279,1.9153845160805547,1.6359630020502785,0.41185362122252112,-0.36913079133682447,-0.28257536389053589,1.3457590857733781,-0.013995972468515916,1.8087420183274623,0.11842291571941374,-0.05570407006554931,0.78165351263324423,-0.59100211290078108,-0.77425973432802575,-0.82207214777454363,-0.074848688725817319,-0.91339642503922636,0.77606425004827972,1.4611610600078295,-0.750706873696219,0.95643120586709562,-0.60390443798059923,-0.84826533332153464,-0.20231494039088396,-1.6834893932954824,-1.1303498207150726,0.011126688686724284,-1.9560329224709574,-1.3277564660309611,-0.025417138252135874,-0.931294196718975,-1.1965145744367105,-0.3687514841411037,-0.60339939017007094,1.0242607032527498,0.027646531014993286,-0.9129687257036303,0.31668323534008036,-0.81902041044971918,0.46668686925744973,-0.91624758737918333,-0.70501458957093521,0.65309195902808215,-0.77382913639524742,0.7651554936380851,-1.8596537894847123,1.0308964993017242,-0.40931581200999939,0.1433658963736919,-0.77251971872975278,-0.75069414766072029,0.44119741924225253,-1.1990878038104103,0.064081476612554755,-0.68674832696714927,-0.69002330335323847,0.83987367378541911,1.2218905460191381,-0.72149506224505366,0.5697121056165928,-0.43998489721095413,-1.715691966803601,1.07610649199975,-1.1577227279347007,-0.43244004781937229,-0.23546201761251404,0.92725998858328,0.083610647396934468,-0.66874719724582843,-0.54131251843241623,-0.02618051694062562,-0.2223713652800636,-0.19992141722386864,0.64474803751555654,0.94989444266534173,-1.1097236764546128,-0.31696935135031545,1.2619542829980861,-0.51429884811597815,-1.8070144536006332,1.6870660431157174,1.035615827439174,-0.62672231934346367,0.68982949605669353,1.0995710934975982,1.0249604727257791,0.30321764909171861,1.0030624561491712,-1.0003959084862824,0.62580978899533379,1.0543730859897904,-1.1975773529603973,-1.1481508179856261,1.5551747416868689,-1.8295699841480562,0.1518329076769655,0.781212780057086,-0.23613650054258129,-0.48917634878485694,0.2180832321924675,-1.399161622456059,-1.1216976862036145,-1.6858370824185371,-0.047049316599522495,-0.1743183909795798,0.53694092227934886,0.37433823774305081,0.38796078602606804,-0.70891647353252241,-1.3439061843528908,1.3992092989614278,0.17889163619301382,1.8030934947557253,-1.7223985752660775,0.35103865637353648,-0.17213437434850931,-0.075713167758990729,-0.92273855880961686,0.54883489373975491,-0.38617951970602366,0.76541312353937574,-1.0994242667683514,0.8794876724735311,0.661359461332373,1.9478676970805355,0.74697821165359768,0.25865049951646979,1.5627789327701454,0.61446745819067217,0.53699492164937013,-1.3887723830476275,0.75869490462760192,0.13110959349717466,-0.13581576879872737,-0.25268842105413247,-0.047914363349748024,0.32371331926491731,0.82785096151188542,-0.70999475229065623,0.086316245182564644,-1.5002995689866596,-0.93287396553990343,-1.0472404659014385,0.2272625642153018,0.2480226318575548,-0.29147672995501067,-0.95537984136276877,1.2451770948223662,-0.36532992308916534,-1.2094956725880017,-0.67109096733438367,0.44375644234018291,0.734092877588278,0.3848763035278342,-0.31885356238058465,-1.7746310549670044,-0.35457969911719356,-0.15243128787373705,-1.5895029919173118,-0.089462108486081493,0.33799470371473339,-0.63057120453127258,1.0376010663051165,-0.23263090789906263,-0.1802683895583504,1.430662991213921,-0.40655382892887743,0.66693293462364611,1.4921730314344974,1.0390133760119849,-0.31760319244004931,0.078945206514999922,-1.0849323477991542,0.21140047841830095,1.7851273211581296,-0.84291340286979144,-1.7696717808813192,-0.18889941733638493,1.6881028095670523,0.41379503465201489,-0.98116219112703673,0.46261532160575269,1.2251310922322474,0.79526168051886437,-0.34349781167875504,-0.23204454254919865,1.0172332707023304,-0.28926954629923696,-1.8863702061988275,0.33450774817471746,0.38541453617411409,0.14430737595274445,-0.95835297413821241,0.7022874837635491,0.99993611662645643,1.0410754080121756,-0.49857433373042115,0.26172147493889625,-0.85826936443612245,-0.75837367543950762,1.2572354940964075,-1.0627563140589076,1.5064807587799061,0.46396296760626593,-1.0501744463342124,-1.1853749822757091,-0.66090315620507623,1.7468029184950531,-0.18220876922468138,-1.8937052674096568,0.43236937580274848,-0.662632271024693,-1.9020123406788392,-0.43033198007863582,-1.17176256523084,0.9461329338122777,0.033454536805155533,1.0486859558509516,0.87152937374614625,-1.2387803808035238,-0.56948215447807793,0.39547001123217385,0.26228215349923484,-0.22423419365405131,-0.43468836156404034,-1.8013866207568845,-0.14771506236468671,0.21574120512965189,1.5404790302461382,0.53469753150581278,1.6400767283552917,0.30337980426914363,0.31167772333681487,-1.0261183451051443,0.18055865456376141,-0.31400355804432345,1.1362076416314615,-1.5015874092940182,-1.3239970539342598,1.509124874840083,-0.92141729356787039,1.4515739863047257,0.49811188620427238,1.3112567380588764,0.1361847087934861,-0.70638991832099385,0.80202885661368661,0.6872077391888981,0.042386800419719317,-0.82740974371666542,-0.89017603494700781,0.51740594884259883,-0.22853897429468995,-1.0225308539872884,-0.76086900595561469,-1.1205833997207617,0.25468586117713032,0.29933616571797556,-0.2640372983361769,-0.28585772322763581,-1.5846781244430124,-0.035522702166588482,1.4067785960653696,0.321665492618361,0.23382707860975011,-0.84857959432926933,-0.25908921019131737,-0.628139483062041,0.1259094672863883,0.26237670437543503,-1.6821230844045632,-1.1394932498873645,-1.2576938137680729,-1.1207880448181127,-1.371194253382829,0.22105292520534858,-0.31385046723943688,0.95235861270303523,-0.24410121247363326,0.2075505266932538,-1.3877895229439203,1.4451445599296804,0.41270819884385368,-0.79366358685943461,0.4907314472322965,-0.67109863281766813,-1.5753076763708647,1.933273771746677,-0.42503603567603793,-0.53891243903847053,-0.25695454434349885,0.30308930124300038,0.80246550720299847,0.50183315132829964,-1.7047336752082845,1.1335922289330478,0.32325978499057673,-0.26669383713355943,-1.4608739798240709,1.3309322182698793,0.40948444548271795,1.3448350817639545,-0.7184591734402157,-1.0147449376595881,0.34044348206708225,-0.48950146696972729,-0.18820981755343363,1.7515781446134571,-0.10308600553687937,0.37709440881151057,1.5353097345378761,0.99253452429200273,1.1261662650509581,-0.61320279660318167],"Bias":0.65069941321886116,"Output":0.0,"Threshold":-0.77428343648756082,"Type":"O"}],"Output":null,"NumNeurons":3},{"Neurons":[{"Weight":[0.53647068586967461,-0.958716069678178,-1.0555012147200764],"Bias":0.8085467684122486,"Output":0.2895162395618468,"Threshold":-0.37525836713997007,"Type":"GT"},{"Weight":[-1.7984217441633446,0.81541257575872006,0.27604792045016113],"Bias":0.29556541205177334,"Output":0.0,"Threshold":1.1648656572982974,"Type":"A"}],"Output":null,"NumNeurons":2},{"Neurons":[{"Weight":[0.48870749910767552,-0.11153096617736424],"Bias":0.2737149473506561,"Output":0.0,"Threshold":1.0131407617652513,"Type":"A"},{"Weight":[-1.1399243822867367,0.28144471309181762],"Bias":0.70583958900660027,"Output":0.0,"Threshold":-1.2187251594004804,"Type":"O"},{"Weight":[1.9580129142655118,0.071863583322550828],"Bias":0.45650349060609163,"Output":0.0,"Threshold":-0.25434723042619756,"Type":"A"}],"Output":null,"NumNeurons":3},{"Neurons":[{"Weight":[-0.42650915760384372,0.91964115478255049,-1.0268488022973057],"Bias":0.18642433787995219,"Output":1.0,"Threshold":-1.6535644008096142,"Type":"A"},{"Weight":[0.61646978073589032,0.069825680260465428,-0.81485021245426048],"Bias":0.39305958146837516,"Output":0.0,"Threshold":-0.45316564033421014,"Type":"A"}],"Output":null,"NumNeurons":2},{"Neurons":[{"Weight":[-0.4762853656319368,0.55751072447013228],"Bias":0.41933954992300809,"Output":0.0,"Threshold":1.4865973310017013,"Type":"O"},{"Weight":[0.032341688134687949,1.034329261857762],"Bias":0.26060797030134497,"Output":0.26060797030134497,"Threshold":-0.22914902780070542,"Type":"GT"},{"Weight":[0.87650344337523123,0.1552658091090926],"Bias":0.35182567469395032,"Output":1.2283291180691816,"Threshold":0.96114052457788057,"Type":"GT"},{"Weight":[-1.8348116650408188,-0.078410641166689055],"Bias":0.519893761617082,"Output":0.0,"Threshold":-0.43991042511446188,"Type":"GT"}],"Output":null,"NumNeurons":4},{"Neurons":[{"Weight":[-0.578655978002891,-1.2036747439781552,-1.1123490319419243,0.9571539167809251],"Bias":0.68342376625324774,"Output":0.0,"Threshold":1.781222194331336,"Type":"O"},{"Weight":[-0.054331920134989442,0.42462741806974952,-0.85203293657490664,-0.615599456995539],"Bias":0.10683408587528817,"Output":0.0,"Threshold":-0.45645688821396641,"Type":"O"}],"Output":null,"NumNeurons":2},{"Neurons":[{"Weight":[-1.4108737220106988,0.51476606071042652],"Bias":0.47115251211037512,"Output":-0.42495514918989719,"Threshold":-1.5470292510218124,"Type":"GT"},{"Weight":[-0.32992593628380029,-0.49740438675387044],"Bias":0.28377220769588474,"Output":0.28377220769588474,"Threshold":-0.19837938630877972,"Type":"GT"},{"Weight":[0.41233718405831665,-1.8321915715151427],"Bias":0.5322480548789017,"Output":0.0,"Threshold":0.45090529288988912,"Type":"A"},{"Weight":[1.5599262211168774,-1.1740554399667564],"Bias":0.35511574538197171,"Output":0.0,"Threshold":-1.243940103447037,"Type":"O"},{"Weight":[-0.27623241731316855,-1.029335147226579],"Bias":0.87813209410669846,"Output":0.0,"Threshold":-1.080804874692487,"Type":"O"},{"Weight":[-0.41714141816699013,-0.50173622579394661],"Bias":0.46863469697558774,"Output":0.0,"Threshold":0.81795369592399991,"Type":"GT"}],"Output":null,"NumNeurons":6},{"Neurons":[{"Weight":[1.2903130777600746,-0.17555784503724925,1.8966877553130908,0.44849472636054022,0.12666588748184304,0.9215995361226843],"Bias":0.93573364845278373,"Output":1.0,"Threshold":1.9866376146611935,"Type":"O"},{"Weight":[0.035658008435581756,0.38794054274933437,0.43012847063215232,0.90504084158181364,-1.3380086408306493,-0.71223735120717313],"Bias":0.44733958153395892,"Output":1.0,"Threshold":-0.093569537277205711,"Type":"A"},{"Weight":[-0.13964985270968169,0.79459639861928133,-0.25147498289948567,-0.9877687200657761,-0.97766224247294575,-0.049737605798750834],"Bias":0.93573364845278373,"Output":1.0,"Threshold":0.87626837167845739,"Type":"O"}],"Output":null,"NumNeurons":3},{"Neurons":[{"Weight":[-0.66687170354038083,-0.041772616115292927,1.3343046601977804],"Bias":0.40144171770729203,"Output":1.6939737617897794,"Threshold":0.3054740138144576,"Type":"GT"},{"Weight":[0.57981827610080194,-1.0538322720927336,0.21181046134410919],"Bias":0.68300344078643116,"Output":1.0,"Threshold":0.21620346103618093,"Type":"O"},{"Weight":[-0.14813896692780604,-0.535507834669661,0.17063098985032688],"Bias":0.44091325786007252,"Output":0.0,"Threshold":0.45355138429314884,"Type":"GT"},{"Weight":[0.92197526196109836,-0.24435200274193281,0.0534473276014662],"Bias":0.32556746075869392,"Output":1.0,"Threshold":-1.4230399650628864,"Type":"A"},{"Weight":[0.17199057921248753,1.4269353024197615,0.81019313305097873],"Bias":0.48915562020051556,"Output":2.7262840556712558,"Threshold":-0.72510374464332306,"Type":"GT"}],"Output":null,"NumNeurons":5},{"Neurons":[{"Weight":[0.22842981269509988,1.6469688930767445,-1.035630605034378,-1.8498676232294495,0.43132473096825164],"Bias":0.91209023115788135,"Output":0.0,"Threshold":-1.7800294681359219,"Type":"A"},{"Weight":[0.6242844670192732,1.9560099113527731,1.8584926761027858,-0.14030803653425908,-1.0607145722306868],"Bias":0.54935933954518257,"Output":0.0,"Threshold":1.2832028676211849,"Type":"GT"},{"Weight":[-0.056708644970788868,0.62843919213418986,0.593736932525638,0.56654431759503909,1.0818613622831634],"Bias":0.41962149543437244,"Output":0.0,"Threshold":-1.5614694485261429,"Type":"O"}],"Output":null,"NumNeurons":3},{"Neurons":[{"Weight":[0.5792987326136434,0.38092224695995563,0.54046185991748308],"Bias":0.45583296000530615,"Output":1.0,"Threshold":1.6684786191529031,"Type":"O"},{"Weight":[0.10437596597815692,-0.75115379872250432,-1.272798997477069],"Bias":0.46812352344539176,"Output":0.0,"Threshold":-0.012729874817994258,"Type":"O"},{"Weight":[-0.96910939608659086,-1.6736497262835735,0.96649432035543836],"Bias":0.1602600795031805,"Output":1.0,"Threshold":0.31918801009617193,"Type":"O"},{"Weight":[1.1410578671568343,0.429579278125096,1.3918093374892182],"Bias":0.49770772107770095,"Output":0.0,"Threshold":-1.7848849201562742,"Type":"O"},{"Weight":[-0.3254432600813662,-0.39753456909560347,0.25940885977326378],"Bias":0.74826991837391155,"Output":0.42282665829254534,"Threshold":-0.38810986391646307,"Type":"GT"},{"Weight":[-0.02492241841970122,0.30292846080771452,0.19741578851706149],"Bias":0.37911962688859535,"Output":0.35419720846889413,"Threshold":-1.6691622695276338,"Type":"GT"}],"Output":null,"NumNeurons":6},{"Neurons":[{"Weight":[-0.70342429108145854,1.1751081718542085,1.2158240368254285,-0.14747525292796793,0.0949531021038783,-1.8520025298699909],"Bias":0.39915506257636246,"Output":0.0,"Threshold":0.61496421816524327,"Type":"GT"},{"Weight":[-0.50911756164320487,1.12338420509984,0.35974162926885356,1.0699633973702669,1.5186236368113306,0.0047352099813220416],"Bias":0.24732779769568136,"Output":0.0,"Threshold":0.75881093012550194,"Type":"O"}],"Output":null,"NumNeurons":2},{"Neurons":[{"Weight":[0.51675949567232049,0.58872442335316344],"Bias":0.48235084301901554,"Output":0.0,"Threshold":-1.9458204395816756,"Type":"GT"},{"Weight":[0.372458615688355,-0.7707974822066247],"Bias":0.50758203701469207,"Output":0.0,"Threshold":1.5967865230500635,"Type":"O"}],"Output":null,"NumNeurons":2},{"Neurons":[{"Weight":[-0.6117283274881673,1.3736336032737202],"Bias":0.86211874841811076,"Output":1.0,"Threshold":1.0715224608180685,"Type":"O"},{"Weight":[-1.3074123576783632,0.69753208951909662],"Bias":0.403767473747147,"Output":0.0,"Threshold":-0.66325708416442253,"Type":"A"},{"Weight":[-0.9279158421951188,1.1992610917423205],"Bias":0.928629531491841,"Output":0.0,"Threshold":1.1392309643045211,"Type":"O"},{"Weight":[-1.148852128441253,-0.21860886394860124],"Bias":0.63823058363666307,"Output":0.0,"Threshold":-1.2945557829432914,"Type":"O"},{"Weight":[0.51999692987110191,0.268111155353897],"Bias":0.88673222525358764,"Output":0.0,"Threshold":0.38426476269227683,"Type":"A"},{"Weight":[0.57621416828535232,-0.086086484367184468],"Bias":0.182280665115584,"Output":1.0,"Threshold":1.5296773442671063,"Type":"O"},{"Weight":[0.91810242749313,0.70741796340207475],"Bias":0.43228801581183829,"Output":1.0,"Threshold":1.3912614935037033,"Type":"O"},{"Weight":[-0.4719295332957954,0.065445400793812974],"Bias":0.726619691391333,"Output":0.0,"Threshold":1.0202651633975401,"Type":"GT"}],"Output":null,"NumNeurons":8},{"Neurons":[{"Weight":[-0.88584452159301952,-0.99185872694563992,0.12498791285906355,-0.64347857627713989,-0.8688582566363543,-0.7678056956582372,0.66595072516517284,-1.9001103341114289],"Bias":0.25881538218142253,"Output":0.0,"Threshold":-0.082021283955323154,"Type":"GT"},{"Weight":[-0.4377936720558413,0.73762840323039724,-0.32787278077000415,-0.48802503718786178,1.6709838843303659,-0.4877747703810571,-0.9755576583443013,0.77410452522994233],"Bias":0.22812895161478267,"Output":0.0,"Threshold":-0.0030795917860604316,"Type":"A"}],"Output":null,"NumNeurons":2},{"Neurons":[{"Weight":[1.3131628983249715,0.10958304243841355],"Bias":0.6015219151049489,"Output":0.0,"Threshold":0.38033494668318912,"Type":"GT"},{"Weight":[0.41349539383710138,-1.5684337632419902],"Bias":0.82855492636028438,"Output":0.0,"Threshold":1.9024125877313374,"Type":"GT"},{"Weight":[-0.46929408166059017,0.59651456149132676],"Bias":0.63602752460214651,"Output":0.63602752460214651,"Threshold":0.11663743486471345,"Type":"GT"},{"Weight":[-0.45279136916911444,-0.51238738862443123],"Bias":0.69086637193843092,"Output":0.0,"Threshold":0.59667684933947251,"Type":"A"}],"Output":null,"NumNeurons":4},{"Neurons":[{"Weight":[-1.1032982762152539,1.4445033778643719,-0.696443123834414,0.2004546588056042],"Bias":0.33258134468113137,"Output":0.0,"Threshold":-1.4319966730810685,"Type":"O"},{"Weight":[-0.9331900739561515,-1.7855692970499253,-0.99181799824992689,-0.97314905513690264],"Bias":0.73518252610521206,"Output":0.17384824566217894,"Threshold":-0.7653757715669347,"Type":"GT"},{"Weight":[0.84896137686034134,-1.6592153774850142,-0.5000435595866497,1.2043797905361244],"Bias":0.68178530930624592,"Output":0.0,"Threshold":-0.873422473733801,"Type":"O"}],"Output":null,"NumNeurons":3}],"OLayer":{"Neurons":[{"Weight":[-1.6145776958952989,0.71436767300179449,0.3570229617678668],"Bias":0.71678712485208518,"Output":0.84097869156122029,"Threshold":-0.078269894842446008,"Type":"OT"},{"Weight":[-0.27449995012697759,0.33948078063059633,-0.53261072679078714],"Bias":0.68146285399862694,"Output":0.0,"Threshold":-0.41604945408927724,"Type":"OT"},{"Weight":[0.21491225865432628,0.16058055598315812,0.97003512164579486],"Bias":0.35247812937129197,"Output":0.38039477731642135,"Threshold":0.58293484830434172,"Type":"OT"},{"Weight":[-0.78715946468858033,1.3925298823241747,1.777128865954992],"Bias":0.90492022312475384,"Output":0.2685684615265258,"Threshold":-0.0063870963715728923,"Type":"OT"},{"Weight":[-0.43630492614410121,1.8278407993856076,-0.34297942567574685],"Bias":0.53576104494487442,"Output":-0.29951705384092142,"Threshold":0.34555764122085347,"Type":"OT"},{"Weight":[-0.088434091784077545,0.85015879890423207,1.8323819040471605],"Bias":0.14924144751822643,"Output":0.0,"Threshold":-0.86587704455753656,"Type":"OT"},{"Weight":[-1.2176311794750538,-1.4022855705825079,0.52739782050596451],"Bias":0.11074738675297582,"Output":-0.13303749961018077,"Threshold":0.56015807788826444,"Type":"OT"},{"Weight":[1.128622107092137,1.5401363482420036,1.1684928625675353],"Bias":0.37646085646770006,"Output":0.0,"Threshold":-0.2248213983722131,"Type":"OT"},{"Weight":[0.48237136168515837,1.0236052307410191,0.48139252457665221],"Bias":0.079811082258732569,"Output":0.25776305587368864,"Threshold":-1.9602151810937631,"Type":"OT"},{"Weight":[-0.92877539942449672,0.51481082029166192,-0.7972951993471864],"Bias":0.28065008044331341,"Output":0.0,"Threshold":0.79846310559588618,"Type":"OT"}],"Output":null,"NumNeurons":10},"NumLayers":17,"Breedibility":0.696401761916202,"Mutibility":2.1265172760054103,"Repetition":0}
