{"Input":[0.0,0.0],"Output":[0.0,0.0],"DLayers":[{"neurons":[{"Weight":[-0.87468199100097732,0.3482081779968963],"Bias":0.68427944028949339,"Output":0.0,"Threshold":0.27079650166947233,"Type":"GT"},{"Weight":[-0.26516954520026664,0.54345611228768531],"Bias":0.79076467863785316,"Output":0.0,"Threshold":0.36662362300167961,"Type":"A"}],"output":null,"numNeurons":2},{"neurons":[{"Weight":[0.5337830640067267,0.82490457213712143],"Bias":0.73680783423446483,"Output":0.0,"Threshold":0.47205397881197464,"Type":"A"},{"Weight":[-0.24605993798284789,0.0996068381236898],"Bias":0.052838966740685965,"Output":0.0,"Threshold":0.28738418607385091,"Type":"GT"},{"Weight":[0.459546737121207,0.65654223629112463],"Bias":0.24165428301396513,"Output":0.0,"Threshold":0.099819633690556339,"Type":"A"},{"Weight":[0.95918976280800516,-0.50685888924955336],"Bias":0.23111003927472515,"Output":0.0,"Threshold":-0.59929294353318074,"Type":"A"},{"Weight":[0.80939934719791606,0.37637380155565858],"Bias":0.30036147139052,"Output":0.0,"Threshold":-0.76475143328530315,"Type":"GT"},{"Weight":[0.80492834225526466,-0.43821950230664553],"Bias":0.80585763315011638,"Output":0.0,"Threshold":-0.34420479058483838,"Type":"GT"},{"Weight":[0.69203611914628937,-0.33121794151664613],"Bias":0.047997022069989251,"Output":0.0,"Threshold":0.41431572354133972,"Type":"A"},{"Weight":[0.071007108814552009,0.010924271312972658],"Bias":0.96519508956242128,"Output":0.0,"Threshold":0.47431904472146141,"Type":"O"},{"Weight":[-0.86147083568455229,-0.892593143457823],"Bias":0.91101038451819227,"Output":0.0,"Threshold":0.87239508557710566,"Type":"O"},{"Weight":[0.82360941535961318,0.74536703608248711],"Bias":0.66160013138391083,"Output":0.0,"Threshold":-0.42488457049470607,"Type":"GT"},{"Weight":[-0.56728800971400362,-0.37692467187388085],"Bias":0.26807500201653456,"Output":0.0,"Threshold":0.76369264664300374,"Type":"O"},{"Weight":[0.68640522830486539,0.90801779874973831],"Bias":0.75382716197233046,"Output":0.0,"Threshold":0.18068491070563203,"Type":"O"},{"Weight":[0.8806538683737879,0.37902213278181018],"Bias":0.45161164712701535,"Output":0.0,"Threshold":-0.78610356002398929,"Type":"A"},{"Weight":[0.96809080381323154,-0.58153063551594064],"Bias":0.66894868745885261,"Output":0.0,"Threshold":0.31226210636657759,"Type":"GT"},{"Weight":[-0.23435670474281381,0.38990123634687684],"Bias":0.097394372847580526,"Output":0.0,"Threshold":-0.31081252885554567,"Type":"O"},{"Weight":[-0.26941649348913527,0.73982179013072591],"Bias":0.96437728682736745,"Output":0.0,"Threshold":0.16711631378490305,"Type":"A"}],"output":null,"numNeurons":16},{"neurons":[{"Weight":[0.41475773854868381,-0.87014762352693253,-0.74700063874339717,-0.78118444969001433,-0.55728363830469718,-0.6316523643357923,0.73905700852119227,-0.3741431219382878,-0.26189526042989236,0.35788786288252467,-0.25119036261513378,-0.56984133951824223,-0.28124394374026168,-0.9541021273257686,0.20625281669490636,0.80097449002832855],"Bias":0.93860613086195943,"Output":0.0,"Threshold":-0.051472060871996017,"Type":"A"},{"Weight":[0.9022156754053271,-0.48735606599941667,-0.60871678665686246,0.54011073454288339,0.74703962809734026,0.530359484967943,0.36567866819243816,0.702482026397475,0.58308027898104875,-0.84937722927396053,-0.17744940574162146,-0.76461849397263415,0.20927119777038283,0.039890028089233684,0.65317797830941993,0.24355588026510361],"Bias":0.47194398728755488,"Output":0.0,"Threshold":-0.80917176083157383,"Type":"O"},{"Weight":[-0.95194687878338013,0.18206688770189272,0.69310419014333946,-0.66572088732650547,-0.84556849992162009,-0.68060310170082516,-0.15278172034434123,-0.1123742168361201,-0.20209483159803546,-0.38752195536509249,-0.83564160663431586,0.023294776223271516,0.25816654193129696,0.20348208220837735,0.6720602976493818,0.29943059631596813],"Bias":0.530721544069574,"Output":0.0,"Threshold":0.040846866574532757,"Type":"O"},{"Weight":[0.6700739425933333,-0.48843862371912161,-0.79166622077658133,-0.52550415393221384,0.054299578095925775,0.54923817121853968,-0.82382365168250338,-0.48549011605116077,0.4216498054664814,0.82599355318862644,-0.1020271126655988,0.69496725066330622,0.50969919679206754,-0.69356746817639447,-0.88329694740627751,-0.87697833165385686],"Bias":0.29729463080749596,"Output":0.0,"Threshold":-0.6546158267439417,"Type":"O"},{"Weight":[0.58420951132858612,-0.653162346525659,0.59077925821336885,0.81951452876418573,0.28885267176146279,0.98701810789621347,0.357284421267586,0.13485710189438291,0.2148533133859063,-0.35573127742657962,0.20127618601605118,0.95456892994910891,0.70542325997046351,0.14324670664185971,-0.755211820711946,-0.28272222647570178],"Bias":0.74069922172496994,"Output":0.0,"Threshold":0.17963872113248275,"Type":"A"},{"Weight":[-0.16984048307400218,-0.24488420842442857,-0.48873825207759547,0.5661606754018742,-0.86786101985157516,0.64550954133528726,-0.989239092445578,-0.8970815403839022,-0.298884549317362,0.10457520890262687,0.968684898674807,-0.73122761851699447,0.85350441553327461,0.870764568853548,0.34074299844947781,-0.77427049622604183],"Bias":0.085048403164860051,"Output":0.0,"Threshold":0.6364611250518174,"Type":"O"},{"Weight":[-0.69531881515650018,-0.87308290967395663,-0.067264601153910433,0.068926073177217537,-0.87720064999405323,0.94096429131038684,0.540221777064829,0.8703232756211996,0.075063512229855883,-0.52971107816775842,-0.6581150561841741,0.25177157495718988,0.19822629224426405,-0.54549097341741015,-0.40432725399934094,-0.89811380016529641],"Bias":0.63138138578803338,"Output":0.0,"Threshold":0.071570901699164372,"Type":"GT"},{"Weight":[0.18148728654789145,0.88351963361889108,-0.64744918031964882,0.19086841688997505,-0.948346853697834,-0.31132757724790255,-0.94748700733645219,-0.10258218790524741,-0.106750046884059,0.16739558250056374,-0.99868371197892525,-0.934059032673975,-0.52284398466481086,-0.12249825574573979,0.2619707031464068,-0.95457081773996855],"Bias":0.26385782717906769,"Output":0.0,"Threshold":0.8218940132399527,"Type":"A"},{"Weight":[0.9807824725195684,-0.806016049257487,0.98594672465042521,0.65108025337154063,-0.40328374384124005,-0.10256372955747123,0.36528165329493661,0.24602792050970157,-0.90417531919860061,0.049745550402321641,0.038230851310412796,0.37750595592777519,0.081903853026173937,-0.4314492090751646,0.3302415475855775,-0.15125455202127552],"Bias":0.58349973176768966,"Output":0.0,"Threshold":-0.99980855965977933,"Type":"A"},{"Weight":[0.27839695256128766,-0.53255694896567474,-0.62257554923304148,-0.94936953622352771,0.9163116067258229,0.044055155498932651,-0.34215840340692477,-0.564475556167064,0.77214846283763106,-0.064542776935055279,-0.25185518164739717,-0.37180909438608639,-0.12690245366045388,0.58317237933314048,0.97912404219579141,-0.73268605150873123],"Bias":0.43740367863206364,"Output":0.0,"Threshold":-0.768639011200815,"Type":"O"}],"output":null,"numNeurons":10},{"neurons":[{"Weight":[-0.60941350115901483,0.017585745555155793,0.98504056548003138,0.27559138055685506,-0.84684600906765373,-0.92263911381486763,-0.030665843296174819,0.98668947675576879,-0.790047705541387,-0.10095474734015518],"Bias":0.32814183241135525,"Output":0.0,"Threshold":-0.31342959558285288,"Type":"O"},{"Weight":[-0.38876249426452558,-0.93934087126485111,-0.67858206186377534,-0.57351939220610981,0.37398287205676684,-0.16273496167861623,0.04695703137989949,-0.26681461616736585,-0.096217713829231319,-0.28005644459280021],"Bias":0.66053326551827285,"Output":0.0,"Threshold":0.28240589624382828,"Type":"O"},{"Weight":[-0.74599657475296244,0.64735597309067661,0.16761668406781585,-0.282570337076937,0.95360010906755932,0.19273432306606989,-0.77292136604568051,0.05889439073339775,0.44448273416817313,0.904218273658407],"Bias":0.19070956958025209,"Output":0.0,"Threshold":0.6751351564541157,"Type":"O"}],"output":null,"numNeurons":3},{"neurons":[{"Weight":[-0.6357747794295544,-0.861203168454209,0.058738228426658656],"Bias":0.10635659802069729,"Output":0.0,"Threshold":-0.46488314935233593,"Type":"GT"},{"Weight":[-0.24837475095334219,0.030414108666784182,-0.52536372864868663],"Bias":0.86675105610245418,"Output":0.0,"Threshold":-0.35795421123409377,"Type":"A"},{"Weight":[0.695115398939287,-0.89425275423296391,0.58040995690059383],"Bias":0.87692515406614413,"Output":0.0,"Threshold":-0.37818762258542127,"Type":"GT"},{"Weight":[0.070861418298846776,0.72572756918413917,0.53184190463826153],"Bias":0.42136716862272805,"Output":0.0,"Threshold":0.26261075458610933,"Type":"O"},{"Weight":[-0.086377725045372611,0.45710669898293294,-0.81051963978005559],"Bias":0.41406862550138895,"Output":0.0,"Threshold":-0.81219379315720586,"Type":"GT"},{"Weight":[-0.32395851347779786,-0.42146473909796434,0.2636037125548365],"Bias":0.35140307264002185,"Output":0.0,"Threshold":-0.45315889523046038,"Type":"A"},{"Weight":[0.90001430683769956,0.037214254512085695,0.25676842790877841],"Bias":0.77411597910063157,"Output":0.0,"Threshold":-0.44602793662158213,"Type":"A"},{"Weight":[0.80593903353714336,0.4630923305931931,0.58930725352340718],"Bias":0.23515190288198734,"Output":0.0,"Threshold":0.019917640844321641,"Type":"GT"},{"Weight":[-0.41436623754648783,-0.99933307757570089,0.10885812114405358],"Bias":0.12043382046764428,"Output":0.0,"Threshold":-0.47978414384638152,"Type":"O"},{"Weight":[0.25156024389507259,0.80964756049665043,-0.90315925139149611],"Bias":0.069601813363657242,"Output":0.0,"Threshold":0.57410866654203674,"Type":"O"},{"Weight":[0.42568696030680414,-0.37262137950054436,0.48754406836235153],"Bias":0.85408861462682883,"Output":0.0,"Threshold":0.75779428508029989,"Type":"A"},{"Weight":[-0.70836427468264673,-0.85563426178676738,0.815937127832294],"Bias":0.72883589785957514,"Output":0.0,"Threshold":0.90302846157133043,"Type":"GT"},{"Weight":[-0.58604237092008926,0.12524547713121653,0.67084016821851966],"Bias":0.79449274101969447,"Output":0.0,"Threshold":0.79853381533107437,"Type":"O"},{"Weight":[0.51869751769988681,-0.40235095536445775,-0.954920057186354],"Bias":0.692109981408394,"Output":0.0,"Threshold":0.54287894467957265,"Type":"A"},{"Weight":[-0.899591858451996,0.823147972032031,0.87996145239098067],"Bias":0.11257401160550025,"Output":0.0,"Threshold":0.73729138390034965,"Type":"O"}],"output":null,"numNeurons":15},{"neurons":[{"Weight":[0.16657335179232682,0.11447873064991028,0.13135512505255412,0.52137469291751026,0.64981330821747585,0.055554799295754541,-0.42553766790103992,0.047321038342696166,-0.36215307673539643,-0.3696115791656131,-0.18595695318000249,0.38510000211424195,-0.22340283553274482,0.47976739913214345,0.75076535611914719],"Bias":0.057201357119344806,"Output":0.0,"Threshold":0.94991242790124952,"Type":"O"},{"Weight":[0.35212416590756,0.28787222471454749,0.82356493213379989,0.17073528849088368,-0.99682841636092789,-0.84403705915624139,-0.39761030413099113,0.83264041404828448,0.75042093487010386,0.47900980826421169,0.44341589857051888,0.41486875313095223,0.29459824193948797,0.3630278126164469,0.034848608558461357],"Bias":0.86812411382241361,"Output":0.0,"Threshold":-0.10564237139450497,"Type":"O"}],"output":null,"numNeurons":2},{"neurons":[{"Weight":[0.18624655724793979,-0.38667296915625826],"Bias":0.7660812422475225,"Output":0.0,"Threshold":-0.97243767602948361,"Type":"GT"},{"Weight":[0.92138556387339976,-0.85804638259953181],"Bias":0.990896184924476,"Output":0.0,"Threshold":0.13864482014376894,"Type":"A"},{"Weight":[-0.43734609262894192,-0.76793155622106579],"Bias":0.44193755110815985,"Output":0.0,"Threshold":0.44620572796380414,"Type":"GT"},{"Weight":[-0.16339367030346472,0.62064582976542682],"Bias":0.072171856682827634,"Output":0.0,"Threshold":0.59559032441842852,"Type":"GT"},{"Weight":[0.57379828839274039,-0.64639385680034467],"Bias":0.36374796571384554,"Output":0.0,"Threshold":0.325984077214256,"Type":"A"},{"Weight":[0.014723925392480533,0.49348318925755247],"Bias":0.43655185933995611,"Output":0.0,"Threshold":-0.58659770273910727,"Type":"GT"},{"Weight":[0.27502358810744415,0.43077802119347175],"Bias":0.53671662906963225,"Output":0.0,"Threshold":-0.66550226214598041,"Type":"O"},{"Weight":[0.86437266127410006,0.1304775169726822],"Bias":0.3517918462640568,"Output":0.0,"Threshold":-0.70627560173453563,"Type":"GT"},{"Weight":[0.021064349459979845,-0.49977527069848743],"Bias":0.49225096334342422,"Output":0.0,"Threshold":0.41014693649958212,"Type":"A"},{"Weight":[0.75797405362034875,0.14358582819978977],"Bias":0.95272253870625168,"Output":0.0,"Threshold":-0.025365993392358531,"Type":"A"},{"Weight":[-0.86837089660967282,-0.44739278333605864],"Bias":0.16481230322495677,"Output":0.0,"Threshold":0.10365493600426937,"Type":"O"},{"Weight":[0.32184336954813608,0.48530542267733506],"Bias":0.19550656024157376,"Output":0.0,"Threshold":0.18734984807081048,"Type":"GT"},{"Weight":[-0.46324183021823029,0.73045924759025649],"Bias":0.08682243204061986,"Output":0.0,"Threshold":0.0656239590913169,"Type":"A"},{"Weight":[-0.33893289805340249,0.87676569813711835],"Bias":0.52191643394619058,"Output":0.0,"Threshold":0.57123588983492735,"Type":"GT"}],"output":null,"numNeurons":14},{"neurons":[{"Weight":[0.55368154940832481,-0.14259065508031782,-0.065135353275172114,-0.91740941345571048,0.59147924445172739,0.58589793582721517,0.95303098575818868,-0.57062420554953819,-0.83513750454184488,-0.7850345889036705,-0.60511626191675494,-0.80274693751835591,0.58251613172819661,-0.845396297446171],"Bias":0.80294090081143232,"Output":0.0,"Threshold":0.38637959230056945,"Type":"O"},{"Weight":[-0.64629875479559351,0.64182501083324894,-0.45788316356850933,-0.39810647694305817,-0.813049834134546,-0.49534318758889251,0.33329573941104845,-0.38590191229521387,0.30614149258758011,-0.68677892940434582,0.002283701674213494,-0.85634483530015915,0.85446088381785013,-0.67636668667028033],"Bias":0.31558663878384358,"Output":0.0,"Threshold":-0.69052017558855949,"Type":"A"},{"Weight":[-0.23405681933930927,0.27854275902665349,-0.27403044433986323,0.75730890909084536,0.92996094977947,-0.481856911667556,0.99463034793484506,0.95671177653442685,-0.39741630032538267,-0.92074774527957093,0.69960066289622369,-0.11675103526411161,0.34015092968016442,0.67568114291675441],"Bias":0.37319881858918763,"Output":0.0,"Threshold":0.11628933628848258,"Type":"A"},{"Weight":[-0.89546169242610307,0.84690284069948962,0.6614923787589615,-0.12953010626581038,0.74854975601125029,-0.31320751333292923,0.06224301041208348,-0.069077665949742156,-0.89587136260041567,0.884400840329193,-0.76977243030898856,0.50549898925493419,-0.35011216362477848,0.41638429109770075],"Bias":0.3648010358981793,"Output":0.0,"Threshold":-0.15200888465717849,"Type":"A"},{"Weight":[-0.087211200542380657,0.34378730149184694,-0.87488443678006733,0.98098861518362,0.312305640574687,0.54853247969808638,0.1942315032678803,0.039955822303870611,0.50903933099891963,-0.70942866183325115,0.23188849595928959,0.35275722823699807,-0.78474454618280032,-0.51632037689738],"Bias":0.212982400419648,"Output":0.0,"Threshold":0.43361665887460887,"Type":"GT"},{"Weight":[-0.48883374942877972,0.13674292580072905,-0.27330853989036219,0.25778916955822573,-0.052897077544078734,-0.56144525136865919,0.62479086016527885,-0.53238629947061944,0.1363881040068288,0.18687411639228188,-0.44258022282392728,-0.58178311753169776,0.0065700248845713327,0.91964226631431012],"Bias":0.57395885911488853,"Output":0.0,"Threshold":0.49584016273535797,"Type":"O"},{"Weight":[0.75423015363245749,0.309559983345475,-0.75605398312027283,-0.44974654840759304,0.28521836702023556,-0.28641604831741008,-0.25592223147671772,-0.09734749239745899,-0.58789873849037044,0.34876034844143333,-0.246742542482327,-0.15396064853014455,0.917752782310244,0.69634573240594277],"Bias":0.44504858713832152,"Output":0.0,"Threshold":-0.50318977073914828,"Type":"GT"},{"Weight":[0.56128402313277315,0.36045384516960655,0.39754527313520444,0.70126127158350371,-0.2435826543921524,0.53657513229948239,-0.78664400651429034,0.013921486220285988,0.52430145653165017,0.16670066032870703,-0.14707981429392464,0.63194643921775107,0.79803095981387,0.77694282111569435],"Bias":0.64069433260741382,"Output":0.0,"Threshold":0.79808695744634,"Type":"O"},{"Weight":[0.67220326777184536,0.55425324130535747,-0.87761938426532748,0.68009401656691637,0.35774385061009967,-0.27607054322775015,0.54248964625526663,-0.62912968808278891,0.85297772188343934,0.12735813442960295,0.33648911041044122,0.40997710051479613,0.050809830450829971,0.87476829200739425],"Bias":0.060747874928986596,"Output":0.0,"Threshold":-0.81210649656695622,"Type":"GT"},{"Weight":[0.34322574843802756,-0.86654041980697794,-0.91199261178820978,-0.89087741118430974,-0.16190896004527294,0.15720988631118549,-0.75934346754073323,-0.13267572882244164,-0.26465660066560681,0.036177053133108213,-0.67072882301673709,0.44553948587064607,-0.31938203299389317,-0.52235613135730663],"Bias":0.54977994856880041,"Output":0.0,"Threshold":0.17633503218010768,"Type":"O"},{"Weight":[0.39075860306190263,0.86099115519830549,0.74867654114434334,-0.539514317428467,-0.036971525771995785,0.44113665048085926,0.559469644240788,0.76652654482355642,0.55261274126945659,0.23910238372120185,-0.775929443433848,-0.77476687392907539,0.30900705014774904,0.73790284001170792],"Bias":0.91839939305484264,"Output":0.0,"Threshold":0.69854649701088034,"Type":"O"},{"Weight":[0.7270324503663147,0.20690890178406093,-0.56673838038311264,0.43413745771820539,0.78592157447055055,0.67587386987911247,0.65511762940097484,0.39605409297908384,0.26185668411751123,0.6397181729039727,0.93723264845890586,0.76970791060929555,0.055807972352862348,0.47893606008912254],"Bias":0.83394197506548,"Output":0.0,"Threshold":-0.65590493458132493,"Type":"GT"},{"Weight":[-0.47763165108749256,0.19296404216110893,0.60540069388477169,-0.05634191448629923,0.25781683542664013,-0.94939040855941848,-0.76993444085583762,0.5918538391552185,-0.51496258960802233,-0.6217526987296309,0.058828324106907623,0.04834127940625943,-0.84186462165874643,0.87296064890593317],"Bias":0.86579655849644754,"Output":0.0,"Threshold":0.5964775991609681,"Type":"O"},{"Weight":[-0.13013205124537092,-0.16549225345509697,-0.33257895118211345,-0.90167174344028889,-0.84293392200159556,-0.6000088199973147,0.0047577759273153622,0.17501585147111484,0.022165847486893576,0.32269726894921497,-0.03415223585169401,0.27959670465420777,-0.4072214432094346,-0.10603249031399958],"Bias":0.9647972746588277,"Output":0.0,"Threshold":-0.10362322074529864,"Type":"A"}],"output":null,"numNeurons":14}],"OLayer":{"neurons":[{"Weight":[0.92153236685392093,0.39157435781861394,0.97775665203936246,0.23821941215462025,0.37005407659805106,0.5136749881849042,0.58578707258486518,0.060008645085621926,0.06009118820544853,0.70159065849221813,0.89021648927136166,0.9827571078123325,0.1306577958775022,0.67203372142838025],"Bias":0.1634250433013891,"Output":0.0,"Threshold":0.34212449069233819,"Type":"OT"},{"Weight":[0.6872010657969867,0.22478450100160413,0.83903073092877434,0.22397625410183158,0.45769210693318962,0.7768018132898965,0.067333611225399,0.42731281622653494,0.0893026851533459,0.21124355411680582,0.83951708247862622,0.017747404527732824,0.15175098467234102,0.96261049013706412],"Bias":0.45856498016909,"Output":0.0,"Threshold":0.58614250160108439,"Type":"OT"}],"output":null,"numNeurons":2},"NumLayers":8,"Breedibility":0.53838593072182772,"Mutibility":7.2468111790934628,"Repetition":0}
