{"Input":[0.0,0.0,0.0,0.0,0.0,0.0,0.0,0.0,0.0,0.0,0.0,0.0,0.0,0.0,0.0,0.0,0.0,0.0,0.0,0.0,0.0,0.0,0.0,0.0,0.0,0.0,0.0,0.0,0.0,0.0,0.0,0.0,0.0,0.0,0.0,0.0,0.0,0.0,0.0,0.0,0.0,0.0,0.0,0.0,0.0,0.0,0.0,0.0,0.0,0.0,0.0,0.0,0.0,0.0,0.0,0.0,0.0,0.0,0.0,0.0,0.0,0.0,0.0,0.0,0.0,0.0,0.0,0.0,0.0,0.0,0.0,0.0,0.0,0.0,0.0,0.0,0.0,0.0,0.0,0.0,0.0,0.0,0.0,0.0,0.0,0.0,0.0,0.0,0.0,0.0,0.0,0.0,0.0,0.0,0.0,0.0,0.0,0.0,0.0,0.0,0.0,0.0,0.0,0.0,0.0,0.0,0.0,0.0,0.0,0.0,0.0,0.0,0.0,0.0,0.0,0.0,0.0,0.0,0.0,0.0,0.0,0.0,0.0,0.0,0.0,0.0,0.0,0.0,0.0,0.0,0.0,0.0,0.0,0.0,0.0,0.0,0.0,0.0,0.0,0.0,0.0,0.0,0.0,0.0,0.0,0.0,0.0,0.0,0.0,0.0,0.0,0.0,0.0,0.0,0.0,0.0,0.0,0.0,0.0,0.0,0.0,0.0,0.0,0.0,0.0,0.0,0.0,0.0,0.0,0.0,0.0,0.0,0.0,0.0,0.0,5.0,156.0,254.0,138.0,0.0,0.0,0.0,0.0,0.0,0.0,0.0,30.0,255.0,169.0,37.0,0.0,0.0,0.0,0.0,0.0,0.0,0.0,0.0,0.0,0.0,0.0,0.0,0.0,72.0,253.0,253.0,247.0,0.0,0.0,0.0,0.0,0.0,0.0,0.0,47.0,253.0,253.0,182.0,5.0,0.0,0.0,0.0,0.0,0.0,0.0,0.0,0.0,0.0,0.0,0.0,0.0,151.0,253.0,253.0,222.0,0.0,0.0,0.0,0.0,0.0,0.0,3.0,170.0,253.0,253.0,197.0,12.0,0.0,0.0,0.0,0.0,0.0,0.0,0.0,0.0,0.0,0.0,0.0,15.0,207.0,253.0,253.0,129.0,0.0,0.0,0.0,0.0,0.0,0.0,12.0,253.0,253.0,253.0,170.0,0.0,0.0,0.0,0.0,0.0,0.0,0.0,0.0,0.0,0.0,0.0,0.0,150.0,253.0,253.0,253.0,129.0,0.0,0.0,0.0,0.0,0.0,0.0,109.0,253.0,253.0,253.0,170.0,0.0,0.0,0.0,0.0,0.0,0.0,0.0,0.0,0.0,0.0,0.0,0.0,171.0,253.0,253.0,253.0,80.0,0.0,0.0,0.0,0.0,0.0,0.0,180.0,253.0,253.0,253.0,66.0,0.0,0.0,0.0,0.0,0.0,0.0,0.0,0.0,0.0,0.0,0.0,1.0,119.0,253.0,253.0,248.0,11.0,0.0,0.0,0.0,2.0,6.0,59.0,195.0,253.0,253.0,253.0,204.0,17.0,0.0,0.0,0.0,0.0,0.0,0.0,0.0,0.0,0.0,0.0,36.0,253.0,253.0,253.0,29.0,0.0,14.0,24.0,107.0,176.0,253.0,253.0,253.0,253.0,253.0,247.0,154.0,0.0,0.0,0.0,0.0,0.0,0.0,0.0,0.0,0.0,0.0,0.0,36.0,253.0,253.0,253.0,66.0,100.0,212.0,253.0,253.0,253.0,253.0,253.0,253.0,253.0,253.0,114.0,0.0,0.0,0.0,0.0,0.0,0.0,0.0,0.0,0.0,0.0,0.0,0.0,11.0,196.0,253.0,253.0,253.0,253.0,253.0,253.0,253.0,235.0,194.0,248.0,253.0,253.0,242.0,54.0,0.0,0.0,0.0,0.0,0.0,0.0,0.0,0.0,0.0,0.0,0.0,0.0,0.0,120.0,234.0,253.0,253.0,253.0,253.0,241.0,149.0,41.0,0.0,231.0,253.0,253.0,206.0,0.0,0.0,0.0,0.0,0.0,0.0,0.0,0.0,0.0,0.0,0.0,0.0,0.0,0.0,0.0,31.0,82.0,54.0,153.0,147.0,34.0,0.0,0.0,36.0,239.0,253.0,253.0,107.0,0.0,0.0,0.0,0.0,0.0,0.0,0.0,0.0,0.0,0.0,0.0,0.0,0.0,0.0,0.0,0.0,0.0,0.0,0.0,0.0,0.0,0.0,0.0,95.0,253.0,253.0,240.0,49.0,0.0,0.0,0.0,0.0,0.0,0.0,0.0,0.0,0.0,0.0,0.0,0.0,0.0,0.0,0.0,0.0,0.0,0.0,0.0,0.0,0.0,0.0,0.0,150.0,253.0,253.0,239.0,46.0,0.0,0.0,0.0,0.0,0.0,0.0,0.0,0.0,0.0,0.0,0.0,0.0,0.0,0.0,0.0,0.0,0.0,0.0,0.0,0.0,0.0,0.0,0.0,164.0,253.0,253.0,167.0,37.0,0.0,0.0,0.0,0.0,0.0,0.0,0.0,0.0,0.0,0.0,0.0,0.0,0.0,0.0,0.0,0.0,0.0,0.0,0.0,0.0,0.0,0.0,51.0,239.0,253.0,253.0,106.0,0.0,0.0,0.0,0.0,0.0,0.0,0.0,0.0,0.0,0.0,0.0,0.0,0.0,0.0,0.0,0.0,0.0,0.0,0.0,0.0,0.0,0.0,0.0,78.0,253.0,253.0,248.0,57.0,0.0,0.0,0.0,0.0,0.0,0.0,0.0,0.0,0.0,0.0,0.0,0.0,0.0,0.0,0.0,0.0,0.0,0.0,0.0,0.0,0.0,0.0,0.0,78.0,253.0,253.0,253.0,106.0,0.0,0.0,0.0,0.0,0.0,0.0,0.0,0.0,0.0,0.0,0.0,0.0,0.0,0.0,0.0,0.0,0.0,0.0,0.0,0.0,0.0,0.0,0.0,11.0,171.0,253.0,253.0,152.0,0.0,0.0,0.0,0.0,0.0,0.0,0.0,0.0,0.0,0.0,0.0,0.0,0.0,0.0,0.0,0.0,0.0,0.0,0.0,0.0,0.0,0.0,0.0,0.0,51.0,135.0,251.0,224.0,0.0,0.0,0.0,0.0,0.0,0.0,0.0,0.0,0.0,0.0,0.0,0.0,0.0,0.0,0.0,0.0,0.0,0.0,0.0,0.0,0.0,0.0,0.0,0.0,0.0,0.0,0.0,0.0,0.0,0.0,0.0,0.0,0.0,0.0,0.0,0.0,0.0,0.0,0.0,0.0,0.0,0.0,0.0,0.0,0.0,0.0,0.0,0.0,0.0,0.0,0.0,0.0,0.0,0.0,0.0,0.0,0.0,0.0,0.0,0.0,0.0,0.0,0.0,0.0,0.0],"Output":[0.12973769198193191,0.12552346170818038,0.090636482222405,0.15594181334241014,0.10751715165807659,0.074629501148782793,0.0716987964455447,0.09184635084001315,0.06848669474919275,0.083982055903462444],"DLayers":[{"Neurons":[{"Weight":[-0.54804200052658181,1.2023486303874984,-1.3043403869049346,0.32801042326167706,0.29746467588180858,-1.4373413191350835,0.61162947829248349,-1.27473878454172,0.2968190348983365,0.99973810976358957,0.073775795963022861,-0.1259109584638887,-0.036216132970860251,-1.5654131693604463,-0.11841732975798526,0.44209060682110296,-0.13829329150649405,-0.17100734400484283,1.0039268690179695,-0.54369645684198309,-1.7661097439779481,-0.57716783256138116,1.2032348435387177,1.1391901861127418,1.5539993348317216,1.8112106694892098,-0.19175622752134508,1.8118685632068052,0.5513720547553953,0.72984479122322288,-0.36376966459852156,-0.33824304586976772,-0.14617550840452331,-0.061947614914713345,-1.2773377077082815,1.1302899812023575,0.2634530957938187,-0.77519286460019321,-0.10539539539467406,-0.3860513309824985,-0.031290459375943019,1.6388125678705112,-0.70490005258710875,1.227718444181475,-0.016778807955454257,0.31061924915323935,1.4023000222641509,0.77310306708007248,-0.49381090454470494,0.015612779395430459,0.34593580376633243,0.5043133602032035,-0.081884550900144681,0.98942775977283137,-1.3580197763433772,-0.17672895098301997,-1.3105821119670673,1.6070770719587231,0.065180934995962753,0.047369055888883516,-0.78876909370942472,0.12065617295663832,0.71800490222778413,-1.4748755113570371,-0.3400636319089867,0.84165372831823948,-0.057429162346492091,-0.38709652995036559,-0.99692915331330856,-0.15875397376774525,0.80949567575449866,1.198274955767844,-0.54793978880529282,-0.22739403017583371,1.7636111861856705,-0.33818660107240384,-0.48344692144703449,-1.9466740283866757,-0.36509822215423837,1.0775372847344433,-0.26178740442813719,-0.54369632831946779,-0.0579782220572132,0.041043265858219657,0.77119665855716679,-1.9040675526038127,0.50194148463287469,-0.27993698384609861,0.943704073141977,0.56062577039032524,0.56818086261310641,0.90327937477420983,-0.71229210063456194,1.1646890880841248,0.5698424906329449,-1.1218719496959224,0.96510295335441043,-0.097441534557119791,-0.27947256401156662,0.41628925303406528,-0.30496356656307511,-1.2640284317669126,1.80882407343426,1.146598236237931,0.51331371595711417,1.43542897488709,-0.3601378736779689,-1.3867733475690582,-1.3927452614089684,0.61243117908594735,-1.1763005902414681,1.6704949753687228,1.1863382333825987,0.90403505219443658,0.65315213736759148,0.39549771630538078,0.30295306365143171,0.67521287066639069,-0.48260148870102104,0.678232935402098,-0.67056099077247122,0.92226237567246994,-0.28318533966466108,-0.701703806734506,0.52702573222435345,0.1228743428936574,0.71050178691418941,1.9341364334962035,0.94142684596045956,-0.78089670448372916,-0.9412765068718123,0.15920751083605333,0.82417504917064222,0.38171969008559925,0.044592770302944312,0.022053241972836424,1.399036108701972,-0.84660643039750272,0.55227846035519779,0.14125485445431174,0.945542772613712,0.090811238666442584,-0.58644801871220031,0.55184143155433318,-0.86565307847487416,0.064909827925688557,-1.1431133121452821,0.75156426937023824,0.030204286725588246,0.38830581791154373,-1.4908767936243101,-0.80812462902275151,0.41538268067659012,-0.37160050131059008,0.66561410415205324,-1.991047848011855,-1.7839419468231228,0.91193532520529574,-0.5104059076450792,-0.721640561117265,-0.74582127062409242,-0.33148661550669312,-1.0003767455929782,0.56161200657294164,0.63940914608501365,0.00089877098840596137,0.48724219505081034,-0.39367892739534327,1.1943837977919651,0.066219174799611508,0.1882075435427053,1.2847172273466412,-1.264319243551046,0.66388643657038271,1.0080365137678304,1.8677899892757601,-1.5377113146417361,0.016180525541389823,1.1230802301227683,-0.66863041835486114,-0.99849006671792773,0.065402138744035124,-0.0957244458122759,0.45035638727729987,1.9183338563508978,1.4980141685800694,-1.4074386485886941,-1.0417947751897363,-0.30279158929661587,0.84910330757224162,0.18225550451808409,0.071124524842539838,0.40807343013960562,1.07723730573302,1.0596349793763995,0.23722658038010192,-1.4521102242343282,-0.22521133493394852,-1.1485393946750739,-0.95173043646211719,-0.94686189803614362,1.1732912022496067,0.583040577630997,-1.0799315902776696,0.54741810194562079,-0.45522153226511469,-0.24153283423803695,0.22987944949635142,0.00801544916257979,-0.21984488511936912,1.1018306771303625,-1.8289729747124821,-1.597266828021521,-0.7469113295650629,-1.6036521194519717,-0.83020753405532233,-1.6117813417742872,1.7049454351444475,-0.54778447026746657,-0.71273441925306535,0.88460781868063287,-1.2054603897912062,-0.48126180952240794,0.95566385296062883,0.43246498895079838,-0.671537162746815,0.43066306292575912,-0.057622418765734262,0.726864218119003,-0.24638802260778575,-1.5448269830294081,-1.7546553784071723,1.6452403772367354,1.3522963800245416,0.37380617036195751,0.09314078190044528,0.82556903400717718,1.1322124275063223,-0.92141045025284218,1.3282943830491485,-1.0585561557945591,0.630268789189993,-0.638120608974907,1.2450575601519351,-0.61473213583917,-0.92636213401628764,0.017639438629913684,-0.2519215177154176,-1.3326077029726504,0.63316083612966567,-0.10133345100974361,-0.043542544377754622,1.0503405386487197,1.2330157604222258,0.09163281232660303,1.5095447101674717,1.900153595907685,0.21899110089009211,0.051128895045783995,1.2126537962900095,-0.92289360562474176,-0.54114185205713938,0.74617835448411229,0.72824735880282121,-1.6087034696753619,-0.083892856492028,1.3967704677007955,-1.8347745089953647,-0.0014940304688615402,0.39979159198691683,0.8741560088815894,-0.21662335014744821,1.9654252510356836,-0.3449313316237792,1.4588244647992887,0.40997128440531505,-1.0379578384340078,0.14138456027775548,0.156358200198206,0.16928978863932243,-1.1744218329476162,-0.2197604036632741,1.3148869067965481,-0.43324907982407557,1.5927824543755418,0.51073243133617563,1.4517189354876612,1.5110912525612354,0.60524664071079881,-0.25376849774589455,-0.022960270765684632,-0.26739702106797925,-0.89426180715405468,0.92438592641818629,-0.45680272321067883,-1.1006943504794942,-0.99135757988265,0.23177536769132445,-0.47022718492440285,0.77660890836907837,0.76329920523022277,0.46981050747903541,-0.064402257471532789,1.8226003109349871,-0.88295524345455578,1.4575848530314792,0.5838691509371674,-1.209146164222223,0.39409567899727072,0.84111129060206524,-0.10507051171388963,-1.4425993615028445,-0.70647286749746319,-0.737384574802073,0.37791426999666455,0.372486122817202,0.58543458142570914,0.023322073753607508,-0.53876685718191641,0.35552648114279439,-0.5819136409464678,-0.15394216783062653,-1.0488675493043229,0.23950462320945712,0.33233095185990641,0.46471195596489689,-0.33449008238245281,1.3390571881733169,-0.277803194853782,1.3961311490339363,1.5958593774567635,0.80351467770688,0.59478967400039662,-0.38125104325002945,0.31599383420124372,0.63555484132808515,1.8506037517686393,0.525770376028901,0.3034311827753815,-0.50567069623766969,-0.017213253020263043,1.231514477337019,0.13730243556192243,1.188812551642215,1.9887317437626102,1.37003649183085,0.090324828676099422,-1.5186141099634645,0.414335605881333,-1.8862724750704469,-1.8129621426635245,-0.28064132100524897,-0.7842370638550431,-0.0337104480870582,1.3469611159437549,0.00046219024828753064,0.69609818546851088,-0.564412378303113,-0.18636424274968089,0.61279513808563113,-1.4272936207369407,0.28481026326438535,-0.27867240276140137,-0.729964665206125,0.90461183022087011,-1.0016516814947369,-1.4259210300752525,-0.045548374914297446,1.509280329341665,-0.47284785866404322,1.2120692819413121,1.2963389583380609,-0.6706311305382433,-0.84015643643407489,0.4914643295047697,0.40651945928415278,0.73044616010166785,-0.0013324162339018817,0.46172766327472758,-0.11216771328457065,-0.15702116621868734,1.1625558683474342,0.27132741281358852,1.4777971913469012,1.5568607950382218,-0.29274057107057455,0.48315782706602711,0.37266084727780485,-1.8797260950690722,-0.062028360117553971,1.5035217302872097,-1.7169334468336,-1.2174785960226919,0.24355127999724424,0.11433971110407265,1.7476119379269015,-0.21646833878078886,-1.6218188440528787,-1.4277288221883255,1.1436180095857091,1.1596516441365943,1.1305626757119609,-0.13029091956248881,-1.2682064508713267,-0.82539702502800494,-0.65596010473368693,0.45685641824064271,0.61989059690439163,0.10271891118153897,-1.094863833438076,-1.8478066343105428,0.22911664714529956,-0.42107808097315863,-0.73654866485695769,1.3038912971056491,-0.31989806363143342,-0.072866260340840761,-1.5002645344940315,-0.84482668845207742,0.25820179225793194,-1.5729245966025132,-0.22401287237646197,0.35136438955171195,-0.81694909316345532,0.65135131224587139,-0.11065798909899693,0.47647286024944535,0.040422097798633594,0.082086388991254644,0.266788303510653,0.77183046032917813,-0.9022141317381589,-1.0948555483924483,-1.8816534913525234,1.4639333744831071,0.47451642364008184,-0.62229470285693878,-0.15462547157873657,-1.2851265983270719,0.37587710208067548,1.6678659430089713,0.84964004291670392,1.5498465623473035,0.43506140002750859,1.456066637977989,-1.2414723591606469,-1.4741325897509849,-0.035684376040326704,-1.5051390742579598,-0.02055590321335754,-1.189056867341421,1.0677465039365746,-1.0071116196956074,1.7664590405260485,1.1557333186062673,0.015371891677087302,-0.22606259137114115,0.89418871835534874,-0.71202240964026287,1.4347752467425423,-0.7203707991728423,0.46664757629234688,1.2747197687973828,-1.6971475908985116,-0.28936395263386139,0.9321115489267332,1.6905214505691646,1.1222511682840861,0.21014790526132465,0.054417432311185454,-0.15461197191153336,0.26491630369094954,0.848125863283931,-1.881385788266261,0.66968957506549576,1.2228314090626462,-0.69816676839169434,-0.0718981745056333,-0.72307884648963994,1.7428819070304193,-0.61348662879946014,0.5685207073430163,1.1016809382018078,0.43341911324924753,-0.40866534844211566,0.14952359211002292,-0.0900828754948837,1.5764094067627608,1.9354820064899894,-0.013258849275202364,0.4387296547915448,1.1223450597014022,0.46795190240626772,0.62798776693082781,-0.49370087799322837,0.12398024747333514,-1.674346674082031,-0.79818042125468169,1.9974736757564702,-1.4317978375739409,-0.5851608152975778,-0.12852224247926958,-1.222992775101623,-1.9085994548670013,-1.5873783247486588,0.81062480218478417,-0.60353508782737664,-0.44129918400535212,-1.1412792289123308,0.23251366877870822,-1.9977166093875265,1.3672281631115957,-0.7630229853106324,1.16315396566487,-1.6627651991614911,1.9564710743522604,0.19947593678865047,-1.4139781517041745,1.8586807846364941,0.63061114024369713,0.33396456155183385,0.52288360094254727,1.6203070895840912,-0.55216344794540939,0.89277567616327469,1.0286967971980043,-1.3644007292410363,0.26408000582087787,-0.55005108218176813,0.091530329590444826,0.02417007182918951,-0.48952954518593694,-0.059068343629626652,1.1937604994192999,-0.17627331470055371,-0.015495233388374739,0.12218831019577947,1.9408538080476476,0.088232453511568568,-1.2359740674663216,-0.46307418102182418,0.79560065377095035,0.37093724676917172,0.84522960001846292,-0.30564400730917424,0.84065207459062907,0.69163347970938749,0.44017194069542415,-0.22966058418895619,-0.61993350583125528,0.46307765285840397,1.4423690156277127,0.31991408213607375,-0.1288829846907793,0.67527194259468093,0.30622850825989895,-0.97442464469857781,-1.193250377667467,0.014709468006486759,1.4386694428691031,-1.4950223506870783,-0.34197731238881923,0.60482643502989153,0.440813168925339,-0.77129219239531133,1.2074349521228276,1.0084279325768104,0.95281739575861346,0.13681366394125583,0.7995562883091889,-0.10273816333252515,1.3953349084571634,0.0940906648030927,0.70544634792276018,-1.2443995913464576,-0.21482579952679845,-0.74430571205183194,-0.56320871718377274,-1.3597049896417675,0.38571247939202685,0.47232018417146532,-1.8874017055553392,1.2239933945650252,-0.38488135784160415,-0.4676395386772414,0.56402531944402723,1.6000732097993367,-0.29185454666497168,-0.74295838304933093,0.0355217614321075,1.5358613913580128,1.1125486770703219,1.7684530838245771,-1.3046528209488155,0.47630464680320805,-0.33380010553346962,-1.73529418545556,0.792686042744986,-0.14037566084141176,-0.73612903862635126,0.49431013478632552,-0.24589903089238335,1.1792499614782865,-0.12839915050584794,-0.5873821340908213,-0.36934908975954994,1.1180194185548553,-0.12227047147335046,1.3953086991772561,-1.3927840685438291,-0.71124908826837729,0.25366497144739375,0.43625889090536896,1.4451197610213979,-0.4125817159249362,0.4667484669409015,-0.59173637692717329,0.66242277649704229,-0.29010443682321563,-0.912302460014961,0.2438302027847758,0.61271450418082085,0.93735923568595148,-0.581580876177913,-1.0584250223745708,0.97545053300466933,-1.6043759526705257,1.3457187262110963,-1.9485420584439031,-0.43944693842877025,0.58125740830983319,0.49882661667597805,1.3514290168422409,1.5469411793383499,-0.58002306367504564,-0.29958510838801433,0.41000884650741187,-0.40783190280563741,0.01421363355555285,0.652685802023963,0.53994161381383488,0.70706437654190912,-0.45840594974170368,-1.0317386719545996,0.061100448160944731,1.6169596778307853,0.79933140929757229,-0.399422907456487,-1.4199138914327669,0.9800101513881283,0.10129695298508212,1.24417054284664,-0.71964088954014738,-1.2182222042317605,-0.52031112701942284,-0.39960481693251287,0.25906259823081212,1.9559972323272366,1.6294248754295637,-0.76127088198497472,0.45131188067552708,-1.5925018077681314,1.3267907869661184,1.3818415493619822,-1.2055681213762464,-0.077355499415358242,-0.056300423387097787,1.257058694612728,0.17015722751159093,1.597421010186626,-1.2998770047127319,-0.49351474380517135,0.735620276413681,-0.21736349792562593,0.45682889244371511,1.3404380676059229,-0.087814117822709648,-1.0041055285883904,1.230293502672712,-1.81428109287018,0.27054996229209927,-0.1325334702304255,-0.38226530811854875,-0.14105489949744898,1.7678657955340418,-0.92002838613466742,0.23414976994940581,0.33170164482276426,0.19627997567703925,0.79087753533111149,0.14064606471948615,0.59523850336831341,-0.19552175804004246,-0.14905192058023631,-1.8665841724102312,1.9199681859090778,0.833279756285846,1.9307161885922386,1.4458823629868602,-0.75608344875339162,-0.42099655419183368,-0.11403183981236378,0.254064922339313,1.2446628879963715,-0.67300434535043507,0.084782742861906429,0.53528152710538413,-0.98751335730194745,-0.4679580411359936,1.9090261999094049,0.4800508565875008,0.26779255987740697,-1.8747283927512952,-1.8500783545198285,1.3259612989267153,0.70781391184950793,-1.9851094409754078,0.56160833992138892,0.65769673404865481,1.5445992180819621,-0.52824054380025154,0.12560403036618753,0.014467833104761296,0.94890183394257988,-0.25136470806382816,0.84526617198528253,-1.3976471365418504,1.4228461028183093,1.8703306652001714,-0.8541935199791173,1.6170412020837151,0.071457290589556577,0.42797243355681752,0.2863319623525985,-0.53465479194869048,-1.0543884764976241,0.090955936392282943,0.029243114417997873,0.50832059035770749,-1.3348319825703894,-0.28047240676850327,-1.467743569737181,-1.577558865573983,-0.28704195948645572,-0.44518379535156472,-1.5964933240769865,-0.512471446074765,0.82056337307233518,-1.0867243144133707,-0.63335404515812077,0.61703791591200874,0.47963731478882826,0.089441373054609308,1.5761873943329263,-0.84121533697061956,0.57771705122631012,1.050039592168287,1.9045347128550216,0.50536998664278987,-0.1639614078048437,-0.21801026877859336,-1.4142407399668548,0.48308938112253763,-0.46675380061695054,-0.96502596650506645,0.39988921339385658,0.2458852292019339,-1.0200761552062241,0.26746489585724875,1.0113457144523719,-0.62624966393569548,-1.01959461673144,-0.93607511321831272,0.6185581815504535,-0.834508442010036,1.0268180565062548,-1.622589653182118,1.0531570269042425,0.045763965717406818,-0.79779806232446393,0.38305605919242652,-0.71153731362965766,-1.132010902805259,-0.85130543767069722],"Bias":0.37731669806924961,"Output":1.0,"Threshold":0.11033533611816138,"Type":"O"},{"Weight":[-0.69292693826971907,0.19118656693761593,0.69230356937574422,-1.2078334141500915,-1.628406383622627,1.3381336961584789,-0.155612298240628,1.056837569715845,1.4597753318370494,0.37431012570927757,1.9779264517025679,0.49527103596263156,-0.9908902493728744,0.69735989286441358,1.9200335926935233,0.86941669269903388,0.14015779970919617,0.29904732202639206,-1.3007220343224342,-1.2516335655244224,0.014641844979902646,0.82870485683842776,1.2082831092217394,0.4397677832177227,-0.94037613658244712,1.0956254541387902,0.2635435745168565,0.15820176860233864,-0.10319933532886172,-0.14556428517474052,-0.48837255988659911,-1.3880344142150294,0.038150238880491905,-0.28787340169754622,0.87304405891245418,0.45032177234549153,0.33870962743587318,-1.630611464209208,0.7873609824047243,1.2774826722995949,-1.2798474264702981,-0.55712484501168358,-1.8005943707193222,0.98422885805841842,-0.21124266436905256,-1.8248087762970517,1.2665096525528981,-0.07988433264190542,0.681354223398424,-0.028964339768963177,-0.46153021479795225,-0.068179932356459388,-0.43532723814031438,-0.010572464210247823,0.46800505671091619,-0.16793969933313302,-1.6109369053599945,-1.1908785388529668,-1.223588768846164,-0.24432113289102964,0.30244141909588651,-0.29974818828648808,0.90219962831013278,-0.64598108545646238,-0.48878127545527239,-0.6677218859166475,-1.4433882318871971,-0.3767382474042188,0.44104197315920224,1.5395379474105027,-0.10851159510599051,-0.771708389637856,0.69109224439111072,0.24275206730288249,0.29862414297619766,-0.70064049566711029,0.52585542074779179,0.19173521814553818,-0.27600892448146314,-0.45748483437226456,-0.673949707118538,-0.0305771521447291,-0.19902319936036272,0.72095531686284531,-0.94841713223066981,0.049518979410416941,1.1913771581330228,0.49848138657327823,-0.27232788866552415,0.08584801484171678,-1.03509743466745,0.14301709825779169,0.30594829730639095,-0.10637870009301545,1.425916088244839,-0.14251009986852758,-0.12151394542726404,-0.284571642274114,-0.62417040608086183,-0.21118050378583977,-0.079448172401453937,0.3368350653267585,0.86919793410655011,0.6290807930527893,-0.09919610918840438,1.5225861219328762,-0.34347829132262708,-0.82291702312553172,0.43565707548719396,-1.1635869998315289,0.754289635104052,-1.6465371640615805,1.9740671478091119,0.99058501928373477,1.0474727505518839,1.4551091904077258,-1.00896530138979,0.23747464034166754,0.17347310666321458,-1.8015069290071293,0.41352982221608481,1.3817357352849728,-1.5215497927374904,1.4016184374989997,-0.61979123595150043,1.1285281116908528,-0.45216659765214606,0.096068640284272311,-1.448082554828414,0.24781547638020274,0.62702588005304549,1.1752429656569117,0.37137499934592044,0.11221985477289087,-1.5067756248203925,-1.7444864645341816,-0.36920586750514606,-0.16783411324131503,-0.39959277976285323,-0.10181005923743827,0.23975466296065348,0.91908732762983414,0.98410230494872863,1.6338791566127346,-0.80557571132927,-0.40185767890739155,0.48152381094730412,0.035307765954783077,0.86128856747471216,-0.68152095316048755,-0.2580721658661177,0.58902517326289927,1.0767416279189015,0.099826310684066777,1.1292014918236886,-0.09116679527385485,0.013923688332514561,1.7379333552615406,0.34174823870032467,1.083685014901536,-0.40222735442324886,0.21724354951514102,-0.20279376831351803,-0.731853803433941,-1.2700080170854962,0.80168169122267585,0.57852867784841377,0.75594909244959663,-0.745511709128279,-0.385081487246827,-0.0782526797048062,0.945519804463498,-0.63747852232189772,0.33315654582754728,-0.20021758447411353,-1.091803876260204,0.12366141111981865,1.0177975958296086,0.099511535884585056,0.25873431482293396,-0.57208992785936974,0.41631525029256711,-1.0202281712648589,-0.46444129779210375,0.033685789459238613,-0.13868686842670974,0.24494401376924657,-1.2001577289251879,-1.016530410238796,-1.9859834555471239,-0.59421220728858015,-0.98244078483109643,1.4447884724684008,-0.58479615817069819,1.0139633282124996,0.74729008632936456,-0.34412711569911436,1.6152393927868638,-1.2653954419473688,-1.1085615341318515,-1.1533535379699216,-1.1071329187169359,-0.95643351238373031,-0.75498324853338228,0.86750198743189766,-0.041667902563252909,-0.880120543308769,-0.17677063431490453,0.1464859249344963,-0.20722669964383167,0.25068023949146284,1.4205331741211187,-0.910771600394869,-0.43954428872400442,0.511531914095654,-1.2115002315079329,0.35665977110930713,-0.03963738749289053,-0.37689194752690014,0.5451914466313047,0.579006587173935,1.7032572588432848,-1.4521445778441358,1.3802479400207512,0.054876036036236364,0.5279890739023636,-0.00605832506253301,-0.13171571468659815,0.37354951394559732,1.2169104023333222,-0.74903182813386993,-0.58317609903550516,-0.64236261280247131,-0.44487849457416606,-0.60792803885784386,1.0250552627374674,-0.24625769177335669,0.52622423435189081,0.28929948435154185,-0.95782822252150079,0.71589654075928166,-0.32530071728420307,-1.1050886712944752,0.80368131622843508,-1.7163573725690866,-0.7344495396141949,-0.036923662209032926,1.22068706584195,-0.39065565440979821,-0.58335493066504363,0.11263782163739111,0.56311422333266314,0.48728618714252142,0.71556052785160051,0.69117511960747091,0.12575268611579793,-0.26301905105962364,-0.34082306357345377,-1.2878029978559016,-0.50630368147106086,0.30816671640221216,0.24654176380338808,-1.2138212808472204,0.60382767887964262,1.2259211154775325,-1.5376549435489135,-1.1565606352670868,-1.2905596323733031,-1.4411140326136323,-0.3988143812859497,-0.77322596626972118,-0.11259774962095448,-0.056912860903562977,1.6269057875624418,1.9020153078725635,-0.40682377778311429,0.64584810746644061,-1.3702002496552654,0.20916368567313098,0.82267796193374232,0.28426404632211827,0.63257906917635909,1.575738206308213,-0.0476874142845336,-1.3223357180295678,1.0324303577805081,0.71449628560532985,0.16130540061802856,-0.12655065074868069,-1.8491492866767334,-1.8132937940830802,-1.0696611212803568,0.83341508461827163,-0.98371173440651594,0.17968323813695772,0.0839730399120473,-0.67002590974794041,1.3738946146352729,0.58164253974409885,1.3790816326528237,1.1093041380445028,0.84089614321101824,0.8762707895954468,0.47950667636678873,0.9741836124328821,0.76549297699960572,0.026522933517826086,1.3729205962144402,-0.594264423285734,0.619442223219407,0.40605131928159444,-0.38915363350610882,0.67333662820669682,0.55238138577403273,-0.12605093482901619,0.509084765466437,-0.38014257146517877,0.54465461471929877,0.23770545340967619,-0.14339275653166356,1.84611654460715,-1.3235369405353148,0.1844573683033035,0.40072810656890656,0.34730561167072704,-0.76316529932779931,-0.17627806461701251,0.1272918086043987,-1.8077367124183741,-1.3931746554529176,0.18612888473335085,-1.4861584377876289,-0.47934742119962348,-0.3031545594698975,1.4701658759592873,1.3825130266521652,-1.119921555332803,-0.368717709569006,0.098941842838629085,-0.5630527666998002,0.92558655227085673,-1.8999989516567435,1.6429725823192727,0.28202666771133278,-0.845517802213094,1.6385237060666658,1.4287688375584637,0.13109087641634543,0.13064502651367582,1.4309874230208748,1.83292891077368,0.242979744562404,0.6576788016397872,-0.68846514691312588,-0.44974936570795,0.37134469317800578,0.68146074501865561,1.7709662801450894,-1.4427743737785026,-1.1432066787566071,-1.4149998256075196,-0.91986982386240324,0.11761860089265674,-1.7722624800038815,0.3610494723405776,1.8923068763186721,0.41954868725479971,1.111002093989403,0.17065959152330645,-0.19215771768575432,0.75722979704310822,1.7342252599700472,1.4093648020512726,-1.0490750220134273,0.82331576888603886,-0.256330448322152,0.40382574948194683,-0.24515418311922876,0.0813676278718597,-0.10014599566354698,1.8795107146163987,-0.2907474018749111,0.51099843625491426,0.5242696658355509,0.81679915773766076,0.999533231835595,-0.37486463895759758,-1.209113932777715,0.094508559557831509,0.59654238995953079,0.15760097310766608,-0.94746770264928593,-0.053225810701473086,0.081342085302500866,-0.7459720524006459,-1.6248656300012327,-0.010924554667866099,-0.87628134264562607,-1.0448883464768941,-0.89544791769955667,-1.3370191507679499,-0.7014203916259667,-0.87418190672322549,0.10801074865917276,1.7031716218698638,-0.1067897943345783,0.89859868459128167,-0.24483519687542471,-1.2139788675099745,-1.3615849164135685,-1.1435435554681082,0.838165362231976,-0.87236947886290472,-0.31494848165425871,0.4344119359433708,0.5652767608711855,-0.165381164832684,0.45909138431584751,1.760815303661309,0.86377359021048694,-1.3312906433456062,-0.15061444563354121,-0.69723485349548731,-0.40087818319284407,-1.2179228399032369,-0.51332151017306438,0.99980353587297888,-0.69520216249288169,-0.67518235413598948,-0.015357092404758965,0.5418103647147352,0.045505265726477617,0.15433117206977631,-0.79380755466120678,-0.74557257198988114,-0.77131696290863538,1.7555233537012356,-1.6223929876565901,0.611223724518774,1.6711069083172396,0.1963099219912533,0.16969302890255039,-0.4042725699391555,1.2011829308239663,-1.4501442929381248,-1.1157327066714562,-1.7498137111541878,0.021257777271679504,0.41712155864439993,-0.691376453798632,0.37702401403570213,-0.19449520584892671,-0.18334458691049105,1.8196324612105417,-0.011582525452404541,-0.081501984042669423,0.3071964636012896,1.1103293998680679,0.40892180924253629,-0.99979310174230163,-0.49309841052586484,0.049642608465926039,-0.94254278178285134,-0.11389479139535452,0.12132498482071108,0.34203721319420133,-1.9323898292763111,0.36641948966608373,0.78888253066171066,1.3064253082920911,0.043124302776122447,1.5308132951757,0.46106423970064941,-0.94146386088871581,-0.8736120764508899,0.75535272679075272,0.30582839357938063,0.35572952805353764,-0.95704022443715486,-1.9361411682032705,-1.8694154470550899,1.5564502512833336,-0.06001844911836951,-0.28768927019253,-1.6430740317530344,1.7170836737924646,-0.79307380931827876,-0.42883930757995203,0.57697625228994354,0.11504020954716976,-1.1016448713381051,0.28768492503449561,1.5402553396021275,-1.2062264627535004,1.0296637362473011,-0.6722678073785584,-0.011728175360990342,-0.98551108189765879,-0.81719003830439885,-1.088841125061196,-0.48863798030123018,-1.0617971748539641,1.0110872252895902,-1.3113658611249952,0.86955199338009193,1.1068580407215554,0.94331237065760076,0.31126864548365973,-0.7985752005495883,0.51430825867271834,0.39197518597456238,-0.14050519472942935,0.53843368335554076,1.6269374714474831,0.91210363009576856,-0.0601230350428367,0.43681758031864082,0.22407790864951932,-1.0569171342332462,1.2192442924717879,0.0411532452865872,0.3112825720157858,-0.06900642850935701,-0.57056916023078108,0.26939036430296959,0.57591533446095911,-0.48983198962632191,-0.17385984564204249,0.20624938516139058,-1.2923320435417498,0.1701729883617451,0.34771729850220362,-0.50530242996566344,1.131388479439257,-0.33172660417935185,-0.35461966546933155,0.7583930342091767,-1.35066321089429,0.48789320077439824,0.031292187180971848,-0.17101000909274911,-1.1393337290936145,-0.19079319333132941,0.723874631674902,-0.38982304077804164,0.86254914181665765,-0.36784556944288571,-0.14290871570953567,0.18486546304361684,0.23834405850541951,1.7965701146966637,0.56989305187361,0.1798565351601488,0.081908039711462433,0.98080172901079132,-0.47722826908679139,-1.107507091491567,0.28526580635121351,0.56885448426134988,0.5625290056464245,0.11034665377382909,-0.52065242618352747,-0.58942914280604575,-0.12075846586930249,0.90872448701817754,-0.41589435488725757,0.85974960132097455,-0.82081361618862192,-1.3162280481937241,-0.15056854586609109,-0.55554056344287217,0.71870170628242269,-0.99480431257446966,-0.0863025533437276,0.86402459555245581,-0.88300401762544234,-0.6820441848805846,-1.8732705227440551,-0.53871897959090709,0.80497825378201837,-0.60133662073811389,-1.6054462192605465,1.2770557083548306,-0.74027844197828263,0.29600248214591895,0.18887316343819671,-0.28381563643171259,-0.377510574007179,1.1487590424477863,-0.33631047874922571,-0.17646882230840907,-0.27098508389712556,-0.46163933559397208,-0.652349830865208,0.26581454661377113,-0.87610220344555667,1.0040283736980769,0.85804883339053428,0.13088740800823359,-0.98053959150823744,0.18287578022615275,1.6054897734920912,1.487739002093551,-0.39427075180889615,1.6545416369982606,-0.065434452893443878,-0.93305247739565211,-0.613203840085957,-0.55345917961255608,0.11494124300182856,0.23063878925844367,1.0355262933464378,0.5746876955438347,-1.0168764103515429,1.6447302494872038,0.18859188713764441,1.9102541235788977,-0.27873018082683287,0.3988928002693074,-0.586020962206443,-0.82886948381963632,-0.220065882648372,-0.47140795602295921,-0.57939353030146723,-1.3547797851985226,-0.013729900377283999,0.18646221896003112,-0.48785470355667848,0.52253580279560841,0.13622374382771024,-0.2918878241115383,0.0838804866223547,1.1970293629900688,1.0639285889095973,-1.3677440694557708,-0.11947300214994372,-0.63187283151621865,1.2527720968632088,-0.82693253497963215,0.21280440698042724,-0.73808130515489889,0.862080300628245,-0.20345251620907912,0.28344430508252427,1.7427538967424789,-0.42705397467457407,1.2462105924478781,0.8147028660470168,-1.4242452659757088,0.37639179067056144,1.5191233831081183,1.1879326343480186,0.65329571005576081,0.1759448229223235,-0.36344173810086394,1.1848514243889841,-0.026844819133959807,0.46860980459307788,1.4525975535868656,0.45873464991279639,-1.1789994685347189,-1.2223065955559678,-0.38767302519999114,-0.32597307587902663,1.3081161190327797,-0.023467946808537476,1.0285965982583043,0.85570873441440476,0.076477642206697616,-1.0212143319757723,-0.21229875944545423,0.13513946921847619,0.07747379027538645,0.28512540003656262,1.0550653487700341,-0.12895585553817485,-1.2881473986376766,0.55347380999171814,-1.3183658355001202,0.045553236289673116,-0.29892682439190194,1.9746696743996206,0.264727603767406,0.941596475868298,0.50658816774682514,0.045526065884868849,-0.74513511166248314,0.22381447780273264,-0.74839145985639688,-1.2265895433847742,-1.8992033749349431,-0.75233112403765845,0.23726236525215835,1.6375579627405656,-0.020176491037134592,0.22906813292982681,0.90342952073711436,0.26225989187517107,0.28359136927418738,-0.7874335365160422,1.0390836983169818,1.2490813369509213,-1.2862842145564879,-1.6224039958894272,-0.49866146244741771,0.34546360727188347,-1.2758447263743005,-0.40045345407000432,0.26421091694580906,1.2614604156750535,-0.46334556791155856,0.67614730758413066,-1.1877590524092125,0.79891784246960551,0.43642616385427591,0.855892790360228,-1.0569694722336576,1.0035409096433914,0.52834207822025858,-1.1729050181679916,1.283152312902661,-1.8427705428762224,-1.1544752005275689,0.021454951735890848,0.040018815225452253,-0.21638393882115231,0.37044363085957882,0.70932622566322134,0.75482315168087522,-1.6978797631794027,1.5969195449594034,0.0068422802755804812,-1.2187997900037093,-0.30654666206881021,0.29254421349267667,0.56759344172551929,-1.2226661430866035,1.5086702758021047,-0.17334926782564697,-0.5001671622383741,0.63535852459717979,1.0197918642608179,0.98779020195047318,0.71181138125798271,0.95004084657413923,1.0887825154181487,-0.12145282892577947,1.0707359715927094,-0.14331899450315111,0.078156104622408629,-1.6813411878800677,-1.4488141794916309,-0.65771035668219957,0.242227342092538,1.5232213416710594,-1.039962407336553,-0.67060313311899233,-0.39605702757651778,-0.70545760714703121,0.082957790271825038,-0.5828814114597074,-1.6937749914606801,0.91991629214953452,0.35218312654280248,0.024060445538803259,-0.49769327575674588,-0.088032544834343557,-0.53534280999346762,-0.40186247591714497,-0.11539603775152751,-0.27264328875352783,-0.10481474739723584,-0.43917215889892414,-0.97535459849280559,0.42596809192954938,-0.060160060302043294,0.42104553914380216,1.2556015305479997,-0.039332278798281717,0.0890320399813981,-0.47554208864671443,0.44993681283664738,-0.30966371777917434,-1.5627532119689291],"Bias":0.68353466766527138,"Output":0.0,"Threshold":1.8924077640594195,"Type":"GT"},{"Weight":[1.0648809806745878,0.526862508862681,-1.3846872358162363,-0.30614994340862611,-0.21120700482800925,1.6897859674365194,-0.61710043798298608,0.0044256634448774507,-0.48575231996319884,-0.21553715235345861,0.6808553431643285,-1.4216890816677776,-0.38951312239208224,-0.90406329878795111,-0.74989272968372922,-1.2441144923585787,0.47815556380811852,-0.21748339767450631,0.717823262660682,0.25821822497910718,-0.8291958732666429,-0.12546288647011991,-1.1924245621508103,1.9198391809686268,-0.639886707016214,-0.61058023467970024,-0.66275069735543513,0.48726760618727066,-1.9903049934610282,1.8310058507281384,0.56471351883477217,0.81692217194246419,0.97331638120734887,-1.2802581373975883,-0.52389834727185058,0.83417066039246068,-0.915076649941074,-0.086989425521586464,0.46758246618210453,0.08908896431750124,-1.4722838385746937,-0.687848406309241,1.0172635260176675,0.17605996885153474,0.77256175794379534,0.76206689642838521,0.36337920760893239,0.24104135774124469,0.36902849346819733,-0.65945405683454794,1.4320595321161953,-0.50709693937427236,0.45718253378625151,-0.25714507991304641,0.89988403250457916,1.3457142707638976,0.043952981030546567,-0.47269767265426821,0.93881311683232049,0.84563911838719585,0.72460962985042021,-0.2370498121052049,-0.44930970037789542,-0.63649293389415518,-0.082455500998746323,0.24540803687917678,1.0146087156340213,0.22762206859310252,0.78043583516922632,0.6014425366192323,-0.1868687291131908,0.35474981470873168,1.717970635610619,0.68489786676959918,-0.56129598876521736,-0.27007011429875627,0.33833836005690437,-1.292502653222765,1.2528411066156155,1.1191126206513089,1.4494713023833623,-0.065017230839011009,-0.72652815455874808,0.69339554399813874,0.34871651388179337,-1.0023751199407491,-0.16915752839723486,-0.98429160993983822,0.99648915650159542,0.49631898383824169,-0.086711717892616,0.78939174059284456,-1.1528566674038077,0.53067601055743074,0.070825540493626882,-0.43607366597534392,0.635183210054332,0.64049344500875349,-0.305555339812094,-1.0918426826092613,-1.2864288013830914,-0.86641778715020878,-1.1802061922756053,-1.0110525947581293,1.1009178946730298,0.76953566389602424,0.7538411704899467,-0.15841774742976655,0.19754263944118228,0.9547711009880393,-1.2713707309548608,0.19424711144866216,-0.034038754545170136,1.0451645530039277,-0.24110792495361894,1.2501884039375877,0.95071663798332051,-0.29903515259057351,0.5426828996331583,-0.54469818717087537,-0.91742564617536282,1.6360860763285712,-0.50332344951534791,-1.2704319000572115,-0.10062654632885899,0.586360640864056,0.049387243599345432,1.2911560215480422,-0.3269883862007355,1.4068394249336977,-1.1940412666620879,0.59010025450573378,-1.870460104136942,0.046934671721856391,1.0405628862979648,1.132665325483617,-0.99268030904591087,-1.2012439762247933,0.62618616904420144,0.22312395453115136,-0.982907481017945,0.89191028796691008,1.4416324216600658,0.49473037780017148,-0.08406711839328862,-1.4875494574604322,-0.51613322576327869,-0.4883913767349044,0.51181211160114592,-0.85576438757393691,-0.81795576346011645,1.4324281697312502,0.39604186937028629,1.0463408446519009,0.44171647643284695,-0.90074000977363444,-1.192400230650045,-1.7018113955002274,0.78762179894262085,1.3011910018051003,1.584630515232976,1.7054785432785184,-1.7739547769417776,0.63803578408898853,0.67439792540362,0.34399074797704388,0.46212031160949274,-0.90999535664915832,0.31550248447596196,-1.0587650750995523,-1.3814786986361625,0.40343050413917475,0.70999788549262943,-1.3245348182155445,-1.2182908666288903,0.97878875594064074,0.92881166710462959,0.039932467993317289,-1.0065433729936104,0.27162305385997665,-0.10647530276629869,0.41855799239992997,-0.29809526833616906,-0.35389663947461947,-0.70883835006218332,-1.1903261684000854,0.4449783574999211,-0.71144675962228643,0.27753864975065856,-0.23965773649497779,1.4142772291853452,1.5207766236368459,-0.53696478835165717,-1.3604471698131864,-0.75315085647308777,-0.38458952605006724,-0.24189634171697291,0.71051672646334252,-1.7887061144172709,0.052825551722932435,-0.63721542001332354,-0.63232740098112239,-0.309077105148615,-0.48014856152243379,0.9281795252484043,0.58638339211277368,0.9166398688296975,0.6011945375246901,0.30093580964064959,-0.28866656883091968,1.1288951538172061,-0.16692807245041633,1.1082832282313038,0.14823431924368921,-0.49305062214895479,0.29925006429513462,-1.1626819911357809,0.25884212286157626,-1.040525747016317,0.28027351306764114,-1.1464024927217524,1.0759703545253587,0.25848478475555264,-0.025119318638518129,-0.976399838098511,0.96753578832374676,-0.62692295847317348,-0.54402423029254388,-0.33610489558494527,1.8372363261120563,-0.22928209259170443,0.848368856796119,0.60104889171246834,-1.9321690238696379,-1.738831937191464,1.2621185273221314,0.61056684610649459,-0.39004819998054208,0.93356525103261934,0.791034581508038,-0.86554444976642,-1.5137004160851708,0.90609595669950149,-0.48506197683846175,1.5574918207980191,1.4702012648201555,-0.79471750571146493,0.024684242915680832,-0.548628325829575,-1.6779766137143488,1.5184138243870873,-1.643266934735359,1.2773082718613131,-1.0817174162648748,-0.375851110402428,-0.75720408019123031,-0.029117214617970677,0.756575867813005,1.6201760506351366,0.35609591303211446,-0.080634232193264932,-0.53176416691009143,-0.104262257974717,0.26487276762747114,-0.0078489598854673,1.7562222833541328,-0.65563820780295079,-0.55159406459498872,1.9468562807640324,-0.574408574995775,0.20866462132365649,1.1386882286233306,0.37612847928592391,-0.73529024147907751,0.982012749521155,-1.594568256099973,-0.37961257752827959,0.694822471563156,1.7478852922785495,1.2357508148860967,0.26969217574181342,-0.31775238608013157,-1.63746487006427,0.873456602391534,-0.8828746205581699,-0.0026423055690909525,0.83831578625287673,0.8439412957221557,0.0426210940807701,-0.75880526404162341,-0.20038077756780232,0.014526134363620602,0.34191803740211629,0.82066306789436538,0.36815911269195345,1.5067989768026391,1.9525696616398962,1.2224962828785631,-1.4925537023192987,-0.88340156330405217,0.5548473664194693,-1.1825005586410411,-0.43585356810868414,-0.31152437668561139,-0.49153428183212133,-0.01377529931374084,1.3906474937175619,-0.60177271131042986,0.79433912355189173,-0.26047990522680786,-0.56690159885534153,0.85055475139550629,0.024706783516785263,-0.29415802522724871,-0.69201272478886544,-1.1264103181317497,-1.2716790359801049,0.84702209607683043,0.06053647146017694,-0.30918769955806169,0.12530517257997081,-0.81448258468391488,0.41156683056781013,1.9447838905941621,-0.76405907054613476,-0.11524498002382222,0.2894381492116665,-0.62455240293617931,-0.38950335205975151,-1.8548943585971809,0.13329220868130731,-0.052758122818897579,0.30301071972930149,-0.59209361806929506,0.572563382830733,-0.26080088969823012,0.90757540562542882,0.31729493491225647,-0.23078079894354853,-1.4875628461537711,-1.1056733928181572,1.9255677703421412,-0.096452919178212887,0.14707467711860056,1.2157664202100911,-0.4017502484909492,-1.1445667776952342,0.29953690166563574,0.913629969076081,0.37199059891141495,1.6553947830830675,1.1101301683746723,-0.32436407202119366,-0.57654660709448924,0.23542711801614003,-0.69461206658492425,0.088639329228847874,-0.437195777165329,-1.0702234576783254,1.031959654312562,0.58899398454883789,-1.6744793782357497,0.70176439951256131,1.3258413757783556,0.58253534907476767,0.42854113470403987,0.19071648337544495,-0.055700663503120085,0.36259856371330024,0.5380048540132143,-0.55069078462251553,-0.86451103136153473,-0.87993497608342908,-0.78812674723098963,0.17164614702404193,1.0429552377255447,0.065789465357451338,-1.6596274392956996,-1.1312649394996766,0.61185087359807322,0.398785986221063,-0.47224814027794348,1.3317831416296695,-0.011592018423411954,-1.1737104549443478,-1.1745970522050184,1.009231617212869,0.98431000624984044,1.5475252510304332,-0.71358423728313958,0.9610924252810441,-0.69618509742253709,1.0836856365029663,-0.14407797371641459,1.0924423761164968,-0.32771658839608064,-0.50170287699517924,-0.76490049192910115,0.397926002218117,0.24553657919542715,-0.20861518922430225,1.2042947790256211,0.066799382870341484,-0.589027919149505,-0.49428333970601274,-0.32909465969032364,0.54980275898696984,-0.48241715339008578,1.6590472178808633,-0.22063216065086061,0.28272018478378658,1.4933225649843562,-1.0248086974899549,0.3934904199627155,0.63742616334284019,-1.6745762674485223,-0.89156696148755343,-0.16623681418888125,0.29628270964773717,0.88331377500822494,0.27723080025856889,-0.69547921254792022,-0.46152946460189065,0.21528725801747628,1.0411176732932765,1.4046318900793007,-0.53832456532267969,0.39433483982399142,0.40499386117094849,-1.2098865171414825,-0.9512176825437777,0.056003943840489331,-0.71019293400933636,-1.732588579753688,-0.96937715981068417,0.10497238850444618,-0.23244876776062834,0.47621571566907955,0.706066812717387,0.82199202981870245,1.8980293515594813,-0.51853023027932754,1.2056395176125876,-0.737670374446395,0.9052891670285208,-0.45957784096690735,0.19763989848906149,-0.602100107167894,-1.9291055127648198,-0.191694492912709,0.32782058838844685,-0.15530191789686307,-1.1533084037337535,-0.85372218063740157,-0.36750294320169052,0.77940457909340255,0.954069715088266,-0.94207461129039272,0.92040177316041727,0.93893004659979151,-0.5310612861138938,-0.83322043138706148,1.150849905866594,0.575645334355368,-0.12645020699571952,1.4593563673362864,1.8861853535688415,0.63306845800628353,1.5432579030949891,0.2901161015802603,-0.52086924267376622,1.9153845160805547,1.0521386395745265,0.41185362122252112,-0.95497844527848363,-0.28257536389053589,1.3457590857733781,-0.013995972468515916,1.8087420183274623,0.11842291571941374,-0.05570407006554931,0.64132977958830528,-0.59100211290078108,0.897289717347496,0.0095857614695957771,-0.060164736331493579,-0.91339642503922636,0.77606425004827972,-1.3225850385253248,-0.750706873696219,0.95643120586709562,-0.71876240386155255,-0.84826533332153464,-0.86090720764403561,-1.6834893932954824,0.29508411214108765,-1.5926191301982007,-1.9560329224709574,-1.3277564660309611,0.044778215021257339,-0.931294196718975,-1.1965145744367105,-0.3687514841411037,-0.60339939017007094,1.0242607032527498,0.027646531014993286,-0.96372942785372806,-0.10116459148757373,0.15431322071436471,1.1601822204702452,-0.91624758737918333,-0.031700714909430439,-0.33110977445315104,-0.77382913639524742,0.7651554936380851,-1.8596537894847123,0.524325667193311,0.76275104599201615,-0.843607821894627,-0.77251971872975278,-0.75069414766072029,0.28137443879683222,-0.85031672186700169,-0.39796141646707506,-0.68674832696714927,-0.39696126170314905,0.44100936802151119,0.827789654379319,-0.72149506224505366,0.21372546731202169,-0.43998489721095413,-1.4269129738336956,0.16650708154270577,-1.44463455558039,-0.76893672848536476,-0.23132669825867125,0.92725998858328,0.083610647396934468,1.5671656166981745,-0.47576144010562516,-0.02618051694062562,-0.2223713652800636,-0.19992141722386864,0.794119268094245,1.664731275134129,-1.1097236764546128,-0.31696935135031545,1.2619542829980861,0.32184248525735115,-1.8070144536006332,1.6870660431157174,1.035615827439174,-0.62672231934346367,1.435140350570502,1.8131137247258398,0.12782813893995648,0.56809766496996061,-0.1354587730651064,1.0383020076147758,0.62580978899533379,1.0543730859897904,-1.1975773529603973,1.42957522693536,1.5551747416868689,-0.42234420330372835,0.1518329076769655,0.781212780057086,-0.0033393731589146658,-0.48917634878485694,0.2180832321924675,-1.5967776777520613,-1.1216976862036145,-1.6858370824185371,-0.047049316599522495,-1.6438095120917118,0.890472400220389,1.6103375403258657,0.38796078602606804,-0.70891647353252241,0.04062970403611188,1.3992092989614278,-1.0731171531350001,1.8030934947557253,0.68479265397637734,0.35103865637353648,-0.17213437434850931,0.24393568673703608,0.022433950576202122,0.039983433646528621,-0.40862869429221782,0.93905383392193076,-1.6255298776670963,0.8794876724735311,0.661359461332373,-0.64694769051424128,0.50583098336481747,0.25865049951646979,-0.51243307930996318,0.61446745819067217,0.53699492164937013,-0.97977412258264329,0.18147986111300041,-0.0050541674741795273,-0.3896316934328673,-0.25268842105413247,-0.047914363349748024,0.32371331926491731,-1.2791999597820454,-0.70999475229065623,0.086316245182564644,1.1975785955775429,-0.93287396553990343,-1.1976067289698902,0.2272625642153018,0.2480226318575548,-0.25005487540951937,-0.47845837474548786,1.2451770948223662,-0.36532992308916534,1.0583886909570492,-0.67109096733438367,0.44375644234018291,0.04043658021392138,0.3848763035278342,-0.19455870785497073,-1.7746310549670044,-0.35457969911719356,-0.45464982206684051,-1.1800566255953426,-0.089462108486081493,0.468307894174153,-1.5195232534406349,-0.89737985229063133,-0.11894364433546725,-0.1802683895583504,-0.80739089791075824,-0.40655382892887743,0.66693293462364611,1.491479031970482,1.0390133760119849,-0.31760319244004931,1.6351356839924751,-1.0849323477991542,-0.59072031508518785,-0.39435868821775477,-0.84291340286979144,0.80146692264893415,-0.18889941733638493,1.5428790180292842,0.41379503465201489,0.24561113689356073,0.33057459045926796,-0.87397887132781515,-1.0285581957444352,-0.34349781167875504,-0.23204454254919865,1.0172332707023304,0.0053318035804922892,-1.8863702061988275,0.33450774817471746,0.38541453617411409,0.14430737595274445,-1.0507083288630044,0.7022874837635491,0.99993611662645643,1.7857239506140927,-0.711622224520716,0.26172147493889625,-0.85826936443612245,-0.75837367543950762,0.74947163776935632,-0.76675935627334257,1.5064807587799061,0.46396296760626593,-0.027574494493927126,-1.1853749822757091,-0.35877953174543165,1.7468029184950531,-0.87580741912862636,1.6258188838259406,1.4059441664283834,-0.13386712735840778,-1.9020123406788392,-0.43033198007863582,-1.2940834295209887,0.9461329338122777,-1.6829924079044687,1.892384679033118,0.87152937374614625,-1.2387803808035238,-0.56948215447807793,0.39547001123217385,-0.56956619516460516,-0.22423419365405131,-0.43468836156404034,-0.15143451194811353,-0.14771506236468671,-0.16001133698039288,1.5404790302461382,0.53469753150581278,1.6400767283552917,0.28116363064687511,0.31167772333681487,0.62787803571106782,0.18055865456376141,-0.31400355804432345,-0.75869858439951143,-1.5015874092940182,-1.3239970539342598,-0.47487822647157152,-0.20760165071468872,0.59113667094667277,0.49811188620427238,1.3112567380588764,0.10542852015894759,-0.70638991832099385,0.80202885661368661,1.1720586862284963,0.042386800419719317,-0.82740974371666542,-0.89017603494700781,-0.904644755136522,-0.22853897429468995,0.8527328338893817,-0.29122899993818407,-0.10033123292975654,0.25468586117713032,-1.7152976969793894,0.75568188668958935,-0.28585772322763581,-1.5846781244430124,1.2526632978327723,1.4067785960653696,1.8007975517775852,0.23382707860975011,0.64488502528745917,1.2907837514256983,-0.628139483062041,0.32747450818370449,0.26237670437543503,-1.6821230844045632,-1.7479738331157593,-0.34588080753846118,-1.1207880448181127,-1.7049236407992074,-0.46459686270952594,1.0915328567342519,0.95235861270303523,-0.24410121247363326,0.2075505266932538,1.8378985115005015,1.4451445599296804,0.41270819884385368,-0.79366358685943461,0.4907314472322965,-0.2090229770210679,-1.0907492391256379,-0.42080752786519349,-0.90657819570348519,-0.30992522469422257,-0.25695454434349885,-1.0008277497258167,0.80246550720299847,-0.96703166280269226,-1.7047336752082845,-1.0684361937774514,0.32325978499057673,-0.26669383713355943,-1.2755597062760775,1.3309322182698793,1.3722537268755275,1.3448350817639545,0.1043185841312515,-1.0147449376595881,0.34044348206708225,-0.1915833678523001,-0.17078569803231941,1.2868425112367667,0.67997074065728613,-0.538618252863464,1.5353097345378761,0.41412516423227519,-0.0685026535384834,-0.61320279660318167],"Bias":0.65069941321886116,"Output":1.0,"Threshold":-0.77428343648756082,"Type":"O"}],"Output":[1.0,0.0,1.0],"NumNeurons":3},{"Neurons":[{"Weight":[0.53647068586967461,-1.1213781051902929,-0.78249109665979222],"Bias":0.8085467684122486,"Output":0.562526357622131,"Threshold":-0.49029806185993285,"Type":"GT"},{"Weight":[-1.7984217441633446,0.81541257575872006,0.27604792045016113],"Bias":0.29556541205177334,"Output":0.0,"Threshold":1.1648656572982974,"Type":"A"}],"Output":[0.562526357622131,0.0],"NumNeurons":2},{"Neurons":[{"Weight":[0.48870749910767552,-0.11153096617736424],"Bias":0.2737149473506561,"Output":0.0,"Threshold":1.0131407617652513,"Type":"A"},{"Weight":[-1.1399243822867367,0.28144471309181762],"Bias":0.70583958900660027,"Output":0.0,"Threshold":-1.2187251594004804,"Type":"O"},{"Weight":[1.6875361947750376,0.71604185910711138],"Bias":0.45650349060609163,"Output":1.0,"Threshold":-0.25434723042619756,"Type":"A"}],"Output":[0.0,0.0,1.0],"NumNeurons":3},{"Neurons":[{"Weight":[-0.42650915760384372,0.91964115478255049,-1.0268488022973057],"Bias":0.18642433787995219,"Output":1.0,"Threshold":-1.6535644008096142,"Type":"A"},{"Weight":[0.52480008756965413,-1.4427571475704932,-0.81485021245426048],"Bias":0.39305958146837516,"Output":0.0,"Threshold":-0.68532153157765108,"Type":"A"}],"Output":[1.0,0.0],"NumNeurons":2},{"Neurons":[{"Weight":[-0.4762853656319368,0.99922772045533859],"Bias":0.41933954992300809,"Output":1.0,"Threshold":1.9770416673165938,"Type":"O"},{"Weight":[0.032341688134687949,1.034329261857762],"Bias":0.26060797030134497,"Output":0.29294965843603293,"Threshold":-0.22914902780070542,"Type":"GT"},{"Weight":[0.87650344337523123,-1.7384824621204671],"Bias":0.35182567469395032,"Output":1.2283291180691816,"Threshold":0.96114052457788057,"Type":"GT"},{"Weight":[-1.2603479313013832,-0.078410641166689055],"Bias":0.519893761617082,"Output":0.0,"Threshold":-0.43991042511446188,"Type":"GT"}],"Output":[1.0,0.29294965843603293,1.2283291180691816,0.0],"NumNeurons":4},{"Neurons":[{"Weight":[-0.6321461101212289,-1.2036747439781552,-1.1010873790317026,1.0437268702973603],"Bias":0.68342376625324774,"Output":1.0,"Threshold":1.0939386706305383,"Type":"O"},{"Weight":[-0.054331920134989442,0.42462741806974952,-0.85203293657490664,-0.615599456995539],"Bias":0.10683408587528817,"Output":1.0,"Threshold":0.99245504056683531,"Type":"O"}],"Output":[1.0,1.0],"NumNeurons":2},{"Neurons":[{"Weight":[-1.4108737220106988,0.51476606071042652],"Bias":0.47115251211037512,"Output":-0.42495514918989719,"Threshold":-1.5470292510218124,"Type":"GT"},{"Weight":[-0.32992593628380029,-0.49740438675387044],"Bias":0.28377220769588474,"Output":0.0,"Threshold":-0.19837938630877972,"Type":"GT"},{"Weight":[0.41233718405831665,-0.77204301709870027],"Bias":0.5322480548789017,"Output":1.0,"Threshold":-1.5708458049087066,"Type":"A"},{"Weight":[1.5599262211168774,-1.55007296407133],"Bias":0.35511574538197171,"Output":1.0,"Threshold":-0.39681263565868718,"Type":"O"},{"Weight":[-0.27623241731316855,-1.029335147226579],"Bias":0.87813209410669846,"Output":0.0,"Threshold":-1.080804874692487,"Type":"O"},{"Weight":[-0.41714141816699013,-0.50173622579394661],"Bias":0.46863469697558774,"Output":0.0,"Threshold":0.81795369592399991,"Type":"GT"}],"Output":[-0.42495514918989719,0.0,1.0,1.0,0.0,0.0],"NumNeurons":6},{"Neurons":[{"Weight":[1.2903130777600746,-0.17555784503724925,-0.11429642844679588,0.44849472636054022,0.12666588748184304,0.791408171256263],"Bias":0.93573364845278373,"Output":0.0,"Threshold":-0.75431562343347625,"Type":"O"},{"Weight":[0.035658008435581756,0.38794054274933437,0.43012847063215232,0.90504084158181364,-1.3380086408306493,-0.71223735120717313],"Bias":0.44733958153395892,"Output":1.0,"Threshold":-0.093569537277205711,"Type":"A"},{"Weight":[-0.13964985270968169,0.79459639861928133,-0.25147498289948567,-0.9877687200657761,-0.97766224247294575,-0.049737605798750834],"Bias":0.93573364845278373,"Output":1.0,"Threshold":0.87626837167845739,"Type":"O"}],"Output":[0.0,1.0,1.0],"NumNeurons":3},{"Neurons":[{"Weight":[-0.75842063257397174,-1.2285404443873746,1.3343046601977804],"Bias":0.40144171770729203,"Output":0.0,"Threshold":0.99226759664819919,"Type":"GT"},{"Weight":[0.57981827610080194,-0.21963145407830897,0.21181046134410919],"Bias":0.68300344078643116,"Output":1.0,"Threshold":-0.049561731540393783,"Type":"O"},{"Weight":[-1.4635487103199347,-1.0342750282125679,0.17063098985032688],"Bias":0.44091325786007252,"Output":0.0,"Threshold":0.1979944039534286,"Type":"GT"},{"Weight":[0.92197526196109836,-0.690040653339839,-0.47528506930697945],"Bias":0.32556746075869392,"Output":1.0,"Threshold":-1.4230399650628864,"Type":"A"},{"Weight":[0.17199057921248753,1.4269353024197615,0.81019313305097873],"Bias":0.48915562020051556,"Output":2.7262840556712558,"Threshold":-0.78722672937788973,"Type":"GT"}],"Output":[0.0,1.0,0.0,1.0,2.7262840556712558],"NumNeurons":5},{"Neurons":[{"Weight":[-0.00019187456937122538,1.6469688930767445,-1.035630605034378,0.15033867124018219,0.43132473096825164],"Bias":0.91209023115788135,"Output":1.0,"Threshold":-0.35471044707593297,"Type":"A"},{"Weight":[1.5366752946454452,1.9560099113527731,1.8584926761027858,-0.14030803653425908,-1.0607145722306868],"Bias":0.54935933954518257,"Output":0.0,"Threshold":1.2832028676211849,"Type":"GT"},{"Weight":[-0.056708644970788868,0.62843919213418986,0.096312267954373851,0.56654431759503909,1.0818613622831634],"Bias":0.41962149543437244,"Output":0.0,"Threshold":-1.5614694485261429,"Type":"O"}],"Output":[1.0,0.0,0.0],"NumNeurons":3},{"Neurons":[{"Weight":[0.5792987326136434,0.38092224695995563,0.54046185991748308],"Bias":0.45583296000530615,"Output":1.0,"Threshold":1.6684786191529031,"Type":"O"},{"Weight":[0.10437596597815692,-1.9407881907842999,-1.272798997477069],"Bias":0.46812352344539176,"Output":0.0,"Threshold":-1.6686736157483764,"Type":"O"},{"Weight":[-1.2025311832328005,-1.6736497262835735,0.96649432035543836],"Bias":0.1602600795031805,"Output":1.0,"Threshold":0.31918801009617193,"Type":"O"},{"Weight":[0.5366145221221329,1.083009598550789,1.3918093374892182],"Bias":0.49770772107770095,"Output":0.0,"Threshold":-1.8269458846692905,"Type":"O"},{"Weight":[-0.3254432600813662,-0.39753456909560347,0.25940885977326378],"Bias":0.74826991837391155,"Output":0.42282665829254534,"Threshold":-0.32508796902329845,"Type":"GT"},{"Weight":[-0.02492241841970122,0.30292846080771452,0.19741578851706149],"Bias":0.37911962688859535,"Output":0.35419720846889413,"Threshold":-1.6691622695276338,"Type":"GT"}],"Output":[1.0,0.0,1.0,0.0,0.42282665829254534,0.35419720846889413],"NumNeurons":6},{"Neurons":[{"Weight":[-0.70342429108145854,1.1751081718542085,1.2158240368254285,-0.14747525292796793,0.0949531021038783,-1.8520025298699909],"Bias":0.39915506257636246,"Output":0.29572938502014567,"Threshold":-0.64039414638671754,"Type":"GT"},{"Weight":[-0.50911756164320487,1.12338420509984,0.35974162926885356,1.0699633973702669,1.5186236368113306,0.0047352099813220416],"Bias":0.24732779769568136,"Output":1.0,"Threshold":0.76478329330672656,"Type":"O"}],"Output":[0.29572938502014567,1.0],"NumNeurons":2},{"Neurons":[{"Weight":[0.48342171752358465,0.58872442335316344],"Bias":0.48235084301901554,"Output":1.2140372736008112,"Threshold":0.271014107350092,"Type":"GT"},{"Weight":[0.48368198947686791,-0.7707974822066247],"Bias":0.50758203701469207,"Output":1.0,"Threshold":1.5967865230500635,"Type":"O"}],"Output":[1.2140372736008112,1.0],"NumNeurons":2},{"Neurons":[{"Weight":[-0.6117283274881673,1.7414076643723098],"Bias":0.86211874841811076,"Output":1.0,"Threshold":1.0715224608180685,"Type":"O"},{"Weight":[-1.3074123576783632,-0.049938221950986517],"Bias":0.403767473747147,"Output":0.0,"Threshold":0.95033532704707957,"Type":"A"},{"Weight":[-1.0129308650563149,1.5351075807284134],"Bias":0.928629531491841,"Output":1.0,"Threshold":0.44166666080321493,"Type":"O"},{"Weight":[-1.148852128441253,-0.16106065125738683],"Bias":0.63823058363666307,"Output":1.0,"Threshold":-1.2945557829432914,"Type":"O"},{"Weight":[0.37532431989496651,0.268111155353897],"Bias":0.88673222525358764,"Output":0.0,"Threshold":0.38426476269227683,"Type":"A"},{"Weight":[0.57621416828535232,-0.086086484367184468],"Bias":0.182280665115584,"Output":1.0,"Threshold":0.51199131762235961,"Type":"O"},{"Weight":[0.91810242749313,0.70741796340207475],"Bias":0.43228801581183829,"Output":1.0,"Threshold":1.3912614935037033,"Type":"O"},{"Weight":[-0.4719295332957954,0.065445400793812974],"Bias":0.726619691391333,"Output":0.0,"Threshold":1.0202651633975401,"Type":"GT"}],"Output":[1.0,0.0,1.0,1.0,0.0,1.0,1.0,0.0],"NumNeurons":8},{"Neurons":[{"Weight":[-0.88584452159301952,-0.4490424091690417,-0.79184950016990752,-0.64347857627713989,-0.8688582566363543,0.60338613791548945,1.5639639289881866,-0.41986114784137413],"Bias":0.25881538218142253,"Output":0.10499285104503153,"Threshold":-0.94939194448496778,"Type":"GT"},{"Weight":[-0.54994256249626283,0.73762840323039724,-0.27388033004192658,-0.48802503718786178,1.0023294971335353,0.79355964677806923,-0.9755576583443013,0.77410452522994233],"Bias":0.22812895161478267,"Output":0.0,"Threshold":-0.0030795917860604316,"Type":"A"}],"Output":[0.10499285104503153,0.0],"NumNeurons":2},{"Neurons":[{"Weight":[1.8370352312163614,0.10958304243841355],"Bias":0.6015219151049489,"Output":0.79439748150052336,"Threshold":-1.2326018545928421,"Type":"GT"},{"Weight":[0.45041495096539841,-1.5684337632419902],"Bias":0.82855492636028438,"Output":0.0,"Threshold":1.9024125877313374,"Type":"GT"},{"Weight":[-0.46929408166059017,0.59651456149132676],"Bias":0.63602752460214651,"Output":0.0,"Threshold":0.913495325908761,"Type":"GT"},{"Weight":[-0.45279136916911444,-0.51238738862443123],"Bias":0.69086637193843092,"Output":0.0,"Threshold":1.1827161431697737,"Type":"A"}],"Output":[0.79439748150052336,0.0,0.0,0.0],"NumNeurons":4},{"Neurons":[{"Weight":[-1.1032982762152539,1.4445033778643719,-0.68142674301351736,0.2004546588056042],"Bias":0.33258134468113137,"Output":0.0,"Threshold":-1.4688040526356723,"Type":"O"},{"Weight":[-0.9331900739561515,0.78998967637423878,-0.99181799824992689,-0.017204248354399709],"Bias":0.73518252610521206,"Output":-0.0061413184068418447,"Threshold":-1.4183683355424406,"Type":"GT"},{"Weight":[0.84896137686034134,-1.6592153774850142,-0.54369544356302157,1.2043797905361244],"Bias":0.68178530930624592,"Output":0.0,"Threshold":-0.873422473733801,"Type":"O"}],"Output":[0.0,-0.0061413184068418447,0.0],"NumNeurons":3}],"OLayer":{"Neurons":[{"Weight":[-1.5103633484689507,0.71436767300179449,0.3570229617678668],"Bias":0.71678712485208518,"Output":0.71239996551262652,"Threshold":0.30279762032572055,"Type":"OT"},{"Weight":[-0.27449995012697759,0.33948078063059633,-0.53261072679078714],"Bias":0.68146285399862694,"Output":0.67937799443177127,"Threshold":-0.41604945408927724,"Type":"OT"},{"Weight":[0.21491225865432628,-0.20581632955270646,0.97003512164579486],"Bias":0.35247812937129197,"Output":0.35374211298440261,"Threshold":0.68340628113392454,"Type":"OT"},{"Weight":[1.9434437025075049,1.3925298823241747,1.777128865954992],"Bias":0.90492022312475384,"Output":0.89636825372635909,"Threshold":-0.0063870963715728923,"Type":"OT"},{"Weight":[-0.78126874136797564,1.8278407993856076,-0.34297942567574685],"Bias":0.53576104494487442,"Output":0.524535692598831,"Threshold":-0.31807253119343104,"Type":"OT"},{"Weight":[-0.43319200089108051,-1.6575832831010144,1.8323819040471605],"Bias":0.14924144751822643,"Output":0.15942119424560802,"Threshold":-1.0341157480301875,"Type":"OT"},{"Weight":[-0.81774367337010045,-1.4022855705825079,1.0095214746587544],"Bias":0.11074738675297582,"Output":0.1193592689392429,"Threshold":0.012268108787139909,"Type":"OT"},{"Weight":[1.0024919422187628,1.5401363482420036,-1.5585053225785983],"Bias":0.37646085646770006,"Output":0.36700238876319524,"Threshold":-0.2248213983722131,"Type":"OT"},{"Weight":[0.48237136168515837,1.0236052307410191,0.48139252457665221],"Bias":0.079811082258732569,"Output":0.07352479661384316,"Threshold":-1.9602151810937631,"Type":"OT"},{"Weight":[-0.92877539942449672,0.51481082029166192,-0.7972951993471864],"Bias":0.28065008044331341,"Output":0.27748846327661486,"Threshold":0.79846310559588618,"Type":"OT"}],"Output":[0.12973769198193191,0.12552346170818038,0.090636482222405,0.15594181334241014,0.10751715165807659,0.074629501148782793,0.0716987964455447,0.09184635084001315,0.06848669474919275,0.083982055903462444],"NumNeurons":10},"NumLayers":17,"Breedibility":0.696401761916202,"Mutibility":2.1265172760054103,"Repetition":1}
