{"Input":[0.0,0.0,0.0,0.0,0.0,0.0,0.0,0.0,0.0,0.0,0.0,0.0,0.0,0.0,0.0,0.0,0.0,0.0,0.0,0.0,0.0,0.0,0.0,0.0,0.0,0.0,0.0,0.0,0.0,0.0,0.0,0.0,0.0,0.0,0.0,0.0,0.0,0.0,0.0,0.0,0.0,0.0,0.0,0.0,0.0,0.0,0.0,0.0,0.0,0.0,0.0,0.0,0.0,0.0,0.0,0.0,0.0,0.0,0.0,0.0,0.0,0.0,0.0,0.0,0.0,0.0,0.0,0.0,0.0,0.0,0.0,0.0,0.0,0.0,0.0,0.0,0.0,0.0,0.0,0.0,0.0,0.0,0.0,0.0,0.0,0.0,0.0,0.0,0.0,0.0,0.0,0.0,0.0,0.0,0.0,0.0,0.0,0.0,0.0,0.0,0.0,0.0,0.0,0.0,0.0,0.0,0.0,0.0,0.0,0.0,0.0,0.0,0.0,0.0,0.0,0.0,0.0,0.0,0.0,0.0,0.0,0.0,0.0,0.0,0.0,0.0,0.0,0.0,0.0,0.0,0.0,0.0,0.0,0.0,0.0,0.0,0.0,0.0,0.0,0.0,0.0,0.0,0.0,0.0,0.0,0.0,0.0,0.0,0.0,0.0,0.0,0.0,0.0,0.0,0.0,0.0,0.0,0.0,0.0,0.0,0.0,0.0,0.0,0.0,0.0,0.0,0.0,0.0,0.0,0.0,0.0,0.0,0.0,0.0,0.0,0.0,0.0,0.0,0.0,0.0,0.0,0.0,0.0,0.0,0.0,0.0,0.0,0.0,0.0,0.0,0.0,0.0,0.0,0.0,0.0,0.0,0.0,0.0,0.0,0.0,0.0,0.0,0.0,0.0,0.0,0.0,0.0,0.0,0.0,0.0,0.0,0.0,0.0,0.0,0.0,0.0,0.0,0.0,0.0,0.0,0.0,0.0,0.0,0.0,0.0,0.0,0.0,0.0,0.0,0.0,0.0,0.0,0.0,0.0,0.0,0.0,0.0,0.0,0.0,0.0,0.0,0.0,0.0,0.0,0.0,0.0,0.0,0.0,0.0,0.0,0.0,0.0,0.0,0.0,0.0,0.0,0.0,0.0,0.0,0.0,0.0,0.0,0.0,0.0,0.0,0.0,0.0,0.0,0.0,0.0,0.0,0.0,0.0,0.0,0.0,0.0,0.0,0.0,0.0,0.0,0.0,0.0,0.0,0.0,0.0,0.0,0.0,0.0,0.0,0.0,0.0,0.0,0.0,0.0,0.0,0.0,0.0,0.0,0.0,0.0,0.0,0.0,0.0,0.0,0.0,0.0,0.0,0.0,0.0,0.0,0.0,0.0,0.0,0.0,0.0,0.0,0.0,0.0,0.0,0.0,0.0,0.0,0.0,0.0,0.0,0.0,0.0,0.0,0.0,0.0,0.0,0.0,0.0,0.0,0.0,0.0,0.0,0.0,0.0,0.0,0.0,0.0,0.0,0.0,0.0,0.0,0.0,0.0,0.0,0.0,0.0,0.0,0.0,0.0,0.0,0.0,0.0,0.0,0.0,0.0,0.0,0.0,0.0,0.0,0.0,0.0,0.0,0.0,0.0,0.0,0.0,0.0,0.0,0.0,0.0,0.0,0.0,0.0,0.0,0.0,0.0,0.0,0.0,0.0,0.0,0.0,0.0,0.0,0.0,0.0,0.0,0.0,0.0,0.0,0.0,0.0,0.0,0.0,0.0,0.0,0.0,0.0,0.0,0.0,0.0,0.0,0.0,0.0,0.0,0.0,0.0,0.0,0.0,0.0,0.0,0.0,0.0,0.0,0.0,0.0,0.0,0.0,0.0,0.0,0.0,0.0,0.0,0.0,0.0,0.0,0.0,0.0,0.0,0.0,0.0,0.0,0.0,0.0,0.0,0.0,0.0,0.0,0.0,0.0,0.0,0.0,0.0,0.0,0.0,0.0,0.0,0.0,0.0,0.0,0.0,0.0,0.0,0.0,0.0,0.0,0.0,0.0,0.0,0.0,0.0,0.0,0.0,0.0,0.0,0.0,0.0,0.0,0.0,0.0,0.0,0.0,0.0,0.0,0.0,0.0,0.0,0.0,0.0,0.0,0.0,0.0,0.0,0.0,0.0,0.0,0.0,0.0,0.0,0.0,0.0,0.0,0.0,0.0,0.0,0.0,0.0,0.0,0.0,0.0,0.0,0.0,0.0,0.0,0.0,0.0,0.0,0.0,0.0,0.0,0.0,0.0,0.0,0.0,0.0,0.0,0.0,0.0,0.0,0.0,0.0,0.0,0.0,0.0,0.0,0.0,0.0,0.0,0.0,0.0,0.0,0.0,0.0,0.0,0.0,0.0,0.0,0.0,0.0,0.0,0.0,0.0,0.0,0.0,0.0,0.0,0.0,0.0,0.0,0.0,0.0,0.0,0.0,0.0,0.0,0.0,0.0,0.0,0.0,0.0,0.0,0.0,0.0,0.0,0.0,0.0,0.0,0.0,0.0,0.0,0.0,0.0,0.0,0.0,0.0,0.0,0.0,0.0,0.0,0.0,0.0,0.0,0.0,0.0,0.0,0.0,0.0,0.0,0.0,0.0,0.0,0.0,0.0,0.0,0.0,0.0,0.0,0.0,0.0,0.0,0.0,0.0,0.0,0.0,0.0,0.0,0.0,0.0,0.0,0.0,0.0,0.0,0.0,0.0,0.0,0.0,0.0,0.0,0.0,0.0,0.0,0.0,0.0,0.0,0.0,0.0,0.0,0.0,0.0,0.0,0.0,0.0,0.0,0.0,0.0,0.0,0.0,0.0,0.0,0.0,0.0,0.0,0.0,0.0,0.0,0.0,0.0,0.0,0.0,0.0,0.0,0.0,0.0,0.0,0.0,0.0,0.0,0.0,0.0,0.0,0.0,0.0,0.0,0.0,0.0,0.0,0.0,0.0,0.0,0.0,0.0,0.0,0.0,0.0,0.0,0.0,0.0,0.0,0.0,0.0,0.0,0.0,0.0,0.0,0.0,0.0,0.0,0.0,0.0,0.0,0.0,0.0,0.0,0.0,0.0,0.0,0.0,0.0,0.0,0.0,0.0,0.0,0.0,0.0,0.0,0.0,0.0,0.0,0.0,0.0,0.0,0.0,0.0,0.0,0.0,0.0,0.0,0.0,0.0,0.0,0.0,0.0,0.0,0.0,0.0,0.0,0.0,0.0,0.0,0.0,0.0,0.0,0.0,0.0,0.0,0.0,0.0,0.0,0.0,0.0,0.0,0.0,0.0,0.0,0.0,0.0,0.0,0.0,0.0,0.0,0.0,0.0,0.0,0.0,0.0,0.0,0.0,0.0,0.0,0.0,0.0,0.0,0.0,0.0,0.0,0.0,0.0,0.0,0.0,0.0,0.0,0.0,0.0,0.0,0.0,0.0,0.0,0.0,0.0,0.0],"Output":[0.0,0.0,0.0,0.0,0.0,0.0,0.0,0.0,0.0,0.0],"DLayers":[{"neurons":[{"Weight":[-1.9562150276993471,-0.63019769388725866,-0.28091672262219558,0.83996892456895156,-0.49594457959567417,-0.92940806920146946,0.07535462178073582,-0.056880602033855088,-0.87458589320866664,0.25470373325734563,0.21414695992793281,-1.8656151722490859,0.44388105174063375,-0.82394099832695955,-0.35959391056541068,0.58421573096267687,-0.6776279800932985,-0.14300745094189538,0.11821014860881741,0.16279769836123922,-0.13154873566541295,-0.22664235321648521,0.44983474523752687,-0.67106547217516477,0.34327521145610879,0.97122279343717843,1.616659251794526,-1.9392742570206869,-1.5284400615988134,-0.42006138172934837,-1.2065415881604615,-1.2471892471544224,-0.68623955183953023,1.6894575188352996,-0.22635366126259493,0.0679296544138015,1.7592932170998741,0.61374017159163019,0.837766063789728,-0.70663482668878452,1.4496861712307139,-1.3810405840077626,-1.107990851210426,0.687130616948535,1.7094059860712294,0.38390527590359813,-0.53582871078319316,0.751841294791523,0.80394478961135962,0.18113245357812025,1.0034055612065855,-0.68627824040174734,-1.4326309689472574,0.26115280687164177,-0.33159858507336282,0.10518782311360697,0.35290705708456549,0.384093027973591,-0.90352888726793634,0.82102002753923653,1.1103189500249602,-1.4645573913420351,-1.8054162374722846,1.1654725005689415,1.1306446516563393,0.51032399293516018,0.55157511800135239,-1.5652621703060634,-0.20080212531575922,-1.5516113264260869,-0.5786595933389197,-0.1543394900936817,0.13964174473175858,0.80844738593252718,0.048781603008116,0.042720680792056376,0.147123594836855,-1.1485927992781213,-1.089677173220402,-0.59941074585631071,1.9314295798220811,0.28809207100448742,-1.1337747346301446,-0.25437214889301552,-1.9734286572660453,0.41508994922744569,-1.0226048915752233,-1.9998387489467109,0.0014609210845416831,-1.1412877892801947,0.9284730030880185,-0.79324136036133452,0.668983803442206,0.89891754732183982,0.58526127719565357,-0.626749035844928,-0.17354651897845169,-0.20716906441709448,0.13471959875503348,0.93665257791832657,-0.69168456955425661,1.4547402837568615,-0.023979616362592049,0.15337898682494622,1.1242536367204754,0.57669969581845182,-0.11909936793106582,-1.3219060279996628,0.31916577653047445,-0.094980120237441845,-1.2333525052449446,1.1349504433765967,-0.58055953987900155,0.846517564191724,-1.5801959643513879,0.51748510170786166,-0.74937508831470057,-0.15492096138966963,-0.62690897742957286,-1.7650484981783892,0.086198064131288818,0.349344545206681,0.66679344165222409,0.12343791784878722,-0.74542574526063432,1.8692986796932756,0.37857041521108659,1.224156494123934,-1.9563019424473411,0.70554257723528091,-1.8203408083973176,0.081170779108614977,1.4824989770923271,0.51421073103054,1.1199462186172355,0.87218519992762489,-0.60248389967134419,0.39251523762592822,1.5064127144899278,-0.039288401272747867,1.6220036119325103,-0.64673048753604778,-0.5368619373938357,0.64685546310937747,-0.38690688153119152,-1.2325652964564811,1.3607271182633596,1.379905046606392,0.95785767734416649,0.616800488260016,-1.6011506428947442,0.5896155971985384,0.89138600532937229,-1.4061222911840874,1.937575485528249,1.3768439327258824,1.355250498021531,-0.4901622426504792,1.1613548684969044,-0.5966732371175536,0.53349240524507691,0.99566210759601637,1.0278589311185566,-1.0619929912788759,-0.3075963215319365,0.85722041821909167,0.11529847100158155,0.96135276078273946,0.75336971448425638,1.2870245181683975,-0.19278570529668854,0.23998551174997607,0.40037524692615278,0.46746513734919259,-1.2786425220680622,-1.8072549196925269,-1.0039309314470417,1.9425856880576284,1.8273143646434482,-0.9268006485895256,-0.45419406772320814,-0.0071585020083739792,-0.85965002874594632,1.050696560670946,0.61760384234022525,0.866543087580494,-0.33465646548879169,-0.99018613760833918,-1.0976952235669342,-1.6007598757747372,-0.090298048353515931,0.65340974168661492,-1.14343411063004,1.0553795844574365,0.097837054216227237,0.49557384592274856,-1.9216812476151071,-1.5599604358710164,0.71528067752499158,0.86698671936382832,1.4642315000943986,-0.63920096766175538,-1.4044305567650266,-1.2884248938823235,-0.727932801297767,-1.1123548986447764,-1.3002303909977109,1.6078991431779688,-0.46422553177188419,-0.087484165135530922,1.7264806720085817,-1.1524022706562662,-0.83530315516297859,-0.077547018510544269,0.49358470341823296,0.537500174995512,0.37355527764817481,-0.83092903850177713,0.25311689230292883,0.60937852117786129,0.69648024551552024,0.11182521381966071,0.69884466924650823,0.30795146036568533,-0.3098468744707511,-1.174286832648463,-1.178911151913419,-0.31733668517197322,-0.25894809619474612,0.60700161783350715,1.1809505909592613,0.14968116075727886,0.38893095436572611,-1.9108693021865884,0.22232682454508118,1.2745262803322914,1.3270448014731726,0.56110621304935948,-1.7176053187426206,-0.11177954338805002,-0.096828170398635921,-0.37470165692488749,-0.043712788732937852,-0.32037681821751263,-1.4940827151267242,1.588852206053609,-0.62165398520145276,-0.17383843528341936,0.54734045944518428,-0.96442789163646658,-0.95777533806756854,0.4941868197611472,0.19775478150882048,0.97437547751440468,-0.53469771107644659,0.375344760890745,-0.052605529340266077,-0.81832439024854664,-0.89158919960800054,0.83924255400933578,0.9731543802938678,1.1291561066774447,0.88707171747790281,1.1665405869328138,0.033653753003118875,0.92594215875768215,-1.2036755882220693,-0.18317120065128956,0.97176123318790042,0.053153970536381795,-0.46830644573471814,-0.45089193250792658,1.1189430240164247,-0.7350393389282,0.476738673856826,1.012486104939301,-1.7561231754253959,-1.3494332667204707,-0.80577927361860824,0.1355881827275163,-1.1252582497546722,1.758091272673612,1.4314318818186558,-1.004101439846727,-1.8413694407052219,-1.487915330444423,-0.80539527340112027,-1.30057022827704,0.71701285619848076,0.9418688765456289,1.1650481499568786,-1.4893427209413344,-0.2448399971448072,0.14961468412057247,1.7417988217164755,0.81748705302248093,-0.62049354517174526,1.1156918961162177,-1.2695537814015658,0.57688365996670132,1.1933792863010333,0.72409880738748122,1.1943338751766524,1.1337011685286189,0.20723372396069278,0.27610661754203347,1.097346545940892,0.81470626444309313,-1.3664049242466712,-0.57624814785143741,0.70370033474345706,-0.20866372777785347,-0.23371296829251245,-1.23145910130416,-1.77339749586461,1.6966518411533667,-0.39498008340363389,0.36721328383647522,-0.64454454711267928,1.4109744445471906,-1.2276454657444942,-0.2664943720523707,-0.28393259779966096,-0.6984996156294363,0.10751437121420837,-0.64323614205013535,0.83478809536192,-0.89851854410884835,1.1955853280125117,-0.522463526063349,0.63339373981971014,-0.37646520993507715,1.8143024952748954,-0.42814115175425127,-1.2323182227837126,0.3445242887995813,-1.602162174695247,1.2055642135467215,0.060265545509952834,0.40035708438970941,-1.7725717107637653,1.0444359383752735,0.71015421054798855,0.085811710461653687,-0.038485204062184919,-0.82787963507132578,0.80870559756118121,-0.60360052496711747,-0.43450953738508269,-0.32850270195212344,0.21106773904108822,-0.3202791317926158,-1.7278235553427708,-0.84269532507410982,-0.19315995541082698,-1.3933408323731698,0.024217714566838744,-0.44834059777126667,0.62328964919936347,-1.6313024571311205,0.55654559777985591,0.53266114673235521,0.58029402120983886,-1.0068428977424477,0.64739842929290536,0.47009686125847061,-0.48290100297094374,1.0122148846332986,-0.16879815150462008,-0.52716411441898159,-0.87153215095006487,-0.4495735761940356,-1.0730374651425092,-0.22467455930294222,0.86196741967553625,1.0142074078387615,-1.1337750647767213,0.028370120182467443,-0.46560784282191087,0.62614600831928946,-0.7007130998015465,0.32074388783459717,1.0572218331774796,0.61249212856054891,0.037398796509613211,0.046432476046696425,-1.4987308597186257,0.60015303203843207,0.66162227124982609,-0.72950023423391408,-0.95446065345521114,0.85751365817036174,0.83985848391422,1.0808076314073092,0.37867489754160621,-0.42882155367584041,-1.1132586426629025,-1.7724117393476944,-0.94165386769066273,1.0987310908263228,0.25382246554541521,1.5400803880335636,0.17299869944015445,-1.1890566624650063,-0.855962348569167,-0.068488857493381419,0.773226103657991,-1.7129035218213236,0.86130931547903877,-1.8160619809367051,0.67229547184998906,-0.54737287133344126,-0.67332026114376275,-1.3085550345985941,-0.85385652585937688,-0.15221382498378577,-0.65555573657879418,-0.2301170901535623,0.086118301231265487,-1.0260517667168991,-0.11762237740569875,-0.19556258721070474,0.508667451566396,1.1079493293575708,-1.3556891490498972,0.90220622621824709,1.0627251151309931,-0.71554760208378909,0.37314949621127441,1.6715872751882239,-0.66552230997376449,-0.1378848797818108,0.32313919427310545,0.14725437022152088,0.19151216929167669,-0.061231276980243221,0.21836958370095561,-1.7007424010432988,1.0962390156357962,0.4024652193311905,0.27859345651690082,0.51076834042534158,-1.89600236895308,-0.25981811833210211,-0.095140977574112329,0.82581191641549223,-1.8094800672538021,0.1344862928134325,1.5908564830156307,-0.36481780273132852,-0.37809538672589493,-0.90718884464920924,-0.66416558980204421,0.014048708695260703,0.071991097873834231,-0.0048635120351628591,-0.20406573973785425,-1.4325775520096429,0.48663304547622466,1.6680913177170287,0.90364223481325556,-0.31479849293935042,0.82672114056848045,-0.1364600351715739,-0.9359042492862345,-0.33754437496538481,-0.43902858087747765,0.26734377146829491,-0.7673396127146388,0.7601428054087529,1.2714616094117339,0.28918432085271178,0.28029413927287644,0.84172530977135773,0.26497754001290419,0.21876101497037381,0.78612489103624827,-0.031331040911064978,-0.28243036255353615,-1.2619480170598012,-1.4225947882154002,-1.2662475599284506,0.28719607107909217,1.3717634220941752,-1.1171613767255502,0.61261265939688891,0.20363855793517616,0.60633283602368682,-0.91921955855526938,-1.365176729562309,0.9758054143636512,-0.70694840677784443,0.99950401525688559,-0.68006732439625428,0.51712999423832162,1.3442290020614065,0.44345806606274946,1.3791363683432043,-0.96616813093594645,-0.26617302442039603,0.62770426104669652,-1.7276649436576594,0.82933242564524168,0.64130929677808168,0.056114864547208348,-0.0051619661995963018,0.94987179522862264,-0.65432391872947271,-0.94663011579966638,1.2079112688342781,-0.826577569742956,-0.20882539926507771,1.4331408010018714,-0.31331679076576469,1.0502079255181402,0.59213184461763979,0.13537403179117202,0.28014594050131081,0.7047200979221242,-0.3623019188466956,-0.81376983915165524,-1.6136222405422582,-1.0516126840615705,-1.0222791334339554,-1.0598826441261371,1.9904972854957439,-1.3180802554441988,-0.039818135108714015,0.788821107434957,0.44268659313334457,0.79562333961744947,1.0948890182631503,-1.4147749745355802,0.65276885988552524,0.62642461655262149,1.5696329695962521,-0.575488487168312,1.1446419689546534,-0.54335129129157922,0.39903716598592576,-1.2877332326637037,-1.0717046778051671,-1.4354538542383601,1.7089618424461044,0.10063471746409082,0.42927797418978153,0.90089010396082436,-0.088258561602914037,-0.94348992544388866,-0.86296757086878584,1.1397087830769404,1.2784947425091915,-0.46593436527342269,-1.6201010773052,-0.31398285495380085,0.37821299693463972,-1.4180063519635109,0.085089339972515388,0.99425280606106536,0.16685297429415069,-0.74881603138000519,1.1489140813721348,0.05524916949460712,0.042791272533494684,-1.285187984251039,-0.012241103842386636,-0.6072408308308761,1.4398789552226101,-1.5512899214175018,0.82050446559523893,-0.38878241970729188,1.2157353252245744,0.23331864573216016,-1.9178318632383982,0.13463250088255485,-0.066738035095267934,-0.5187063862191077,-1.0681157000680064,0.16365452770313915,-0.1359060817099671,-0.60069129550861722,0.376110836714878,0.13664192433312605,-0.93471594477757614,-1.5083219136033774,-0.34854719152140756,-0.44018018836629591,-1.5459233998185598,-0.60930532937887993,0.31468376718213953,-0.22637047070375216,0.92447540858968891,-0.29736136080073794,0.13896137237966114,0.855883637114141,-1.9673568513092383,-0.25460894510830245,0.42558740658014427,0.23954382456817847,-0.93766949462595828,-1.4677793586010948,-0.5001842835699547,0.57021356093123288,1.0628285334193601,1.5373218578925925,-0.87719472817945987,1.0526921620921517,-1.682318040953166,1.7906752916940838,0.87684046238513691,0.072662849944393759,-0.18554933191535505,0.20041504929102705,0.1050945893419416,0.29663561670884286,-0.84691982290098444,-0.20069787730495345,-1.000335908029385,1.1821993585593065,0.2378732758750548,0.99717308235456947,1.3856845935274307,1.0493685621561568,0.753498209059936,-0.40239785056476435,-0.4040587004227546,-0.3990138200572757,0.73140432867556127,-0.0009179757912261,-0.14221213485217277,0.14627120185004117,0.34942012599176731,-0.344017498355367,0.51295619388714275,0.30201791429374969,0.14173833988804305,-0.91106742150665609,1.2670168151459735,-0.4257317960382121,-0.84046908041484136,-1.3577732757468584,0.17926835783490369,-0.40173858469433082,-0.95843806933655307,-0.56704284614745659,-0.62811279978049583,0.4566346639565354,0.24092829954620837,-0.41175473176082822,1.5675159877014888,0.94376810200920713,1.0438281554001514,0.50304340478174536,-1.9698501191892894,1.414094171286721,-0.69152722353652452,-0.19123963717894593,1.0047959098614734,-1.138792596356381,-0.81656394117642828,0.34512940624036337,0.37710183783299378,0.28326621385443307,-0.85445056616070247,-1.0898228459245631,-0.49531787517262527,-1.3113011621457065,1.9148653950145773,1.1087211627088118,0.0044661148006404916,0.0054384106795482,0.39975418252758943,0.69608281492073232,-1.6644717900382688,0.16164339248167492,1.1540177069390274,-1.812892750284119,-0.26909619791856793,-0.14399999647296502,-0.75771457876903692,-0.68675558877259291,0.89448735904623167,-0.039669476467962039,0.86472003481570647,-1.8336799143970386,0.12966402719247361,-0.66060225891326652,-1.4822650661143777,0.65034827713405186,-0.25666739011959505,-1.1307386528378067,-0.48546403718142539,-0.43217612896871382,1.5875026749388792,-0.10656752488881699,0.133467433104975,0.10445241169280006,-1.9111520498577281,-1.5976620453166133,0.1222268241095481,1.759803969301192,-0.58645051372537882,0.26758177497777247,-0.36737635537224644,1.5915134789382637,-1.9224168199218887,-0.46805782451669575,-0.35881277242489173,1.3952649977967446,-0.85211152623040209,-0.60190546106985088,-0.89014885709162272,-0.616025354068738,1.6390630005109417,-0.4664233161445816,1.4611268692934547,0.550031448039241,-0.025924910155730427,-1.0082161943466477,-0.23310400713612517,-1.1836634181363803,0.28040892550740809,-1.5460546792233616,-0.3336679201264251,-0.70410087551181255,-0.49629260020579036,-0.39348170878062105,-0.062124107818642693,1.4208933561817481,-0.57445619933980341,-0.68221816545455627,0.98158157662562173,1.1173431776079084,0.38824954262853106,-0.36694110108862688,-0.016129947566022,-1.8332822899489116,0.044066271765188514,0.3140563454078773,-0.12179834308186477,-1.1385213542443333,0.594005227481949,-0.99963103281316856,-1.5185923611366154,0.71185524515428356,-0.68735909028321451,-0.98968312935423253,-0.51318532383334148,0.033287639395933433,1.1082497805395395,-0.68353181829840493,1.0155273885538463,0.26015552983626522,0.83979301784527149,-1.8455983474131665,1.115770317202327,0.5105297425810853,0.88215504564656233,0.42973910990624636,0.16156321568107201,0.95226088862505787,0.98030642372570309,0.062106464993037458,-1.0938556618494242,-0.036099980602087411,-0.22224308467574572,1.7289724888880609,0.53670182383465681,-0.0398899028263473,0.47528411377001756,1.5279518359005229,0.48673397398052465,-1.1544394731309449,0.025505633105293857,0.67632498530499863,-1.5960283801406754,0.17472267358649157,1.3407052919923816,0.99420265620304393,0.6389861952197442,1.2629994076038709,0.041252100859420493,0.85641780814920443,-1.9083454366346566],"Bias":0.32976175706502364,"Output":0.0,"Threshold":1.4298417267528558,"Type":"GT"},{"Weight":[0.43588866150746508,-1.0426328997326237,0.82900459078559852,-0.032641716316641256,0.74624882952601146,1.295191368458416,0.19051711363276336,-1.6461724860808684,1.1223438787843771,0.44487819966317621,1.5522601155341884,-1.1166033393053119,-0.24054300895218872,0.45483643354316544,-0.39846126288103934,0.55448504563164214,0.23998266283421899,-0.7466718545459079,-0.79566875230319289,0.9098838246007841,0.506211462666379,0.085141290950188964,0.658832419191933,1.2438463304609457,-1.4096649342261558,0.73237543948105321,0.26233767823425014,0.0882781396769119,0.61640184401366949,-1.3771437291880808,0.13695594488501356,0.18469359082388404,-0.72885736996720407,-0.49226694041502983,0.059932158356500675,-0.81870362992338075,-0.29953066832364106,0.702087863817817,-0.433166253101973,1.4259983019093045,0.37198330803808449,-0.6104499300059163,0.88782135717934985,-0.63148252613911526,0.35788952269580421,-1.5128353883006329,-1.3295062872718582,-0.5491699258938525,0.64944491100006019,-0.020922283100582931,0.025984489213264246,-0.46495117548152387,0.84920760842468945,0.6782125234269597,-0.8557494240141239,1.2899041284294355,0.22367481897756214,1.372896726882503,0.4290668938444307,-1.5426021234796392,-1.8326912968571723,-0.3845888294207811,0.52043455267308891,-0.04845448865017607,1.4200874489825628,-0.12863457860827188,0.3515237804276512,0.28179328815192828,0.838797339628822,-0.56230818299254837,-0.36594098916553941,0.034717508198605661,0.65653221432889453,-0.96787603896478,1.1722395155449581,-0.7552505614027617,0.1502078217571638,0.2712320230301617,-0.0033558852753396429,0.19301954011693112,0.76461941132537081,-0.13475848088728193,0.38405191706682185,-1.0720302008236589,0.71930192723837783,-1.4330061988127447,-0.45515543709283479,0.422400431904197,-0.60346116908110359,-0.865909149575005,-0.21124927988799724,1.6574354412301608,1.4929339082413047,-1.2092625712786163,0.045868934153518115,-1.4866998416775372,-1.7334356194983402,0.55921179920398234,0.078048888542944977,0.52782708337894979,-1.9043575021924253,0.36615442666286169,0.23433302787119645,-1.8161100260057068,-0.052671404230720975,0.575000730901957,0.20742850760343884,-0.68699845143395888,-0.37238982616569372,-1.1333983722764058,-1.224565932631756,0.35820483261650293,0.31650844516302851,1.925313867593796,0.5787526967836325,-0.35214331110573527,0.11851850949158826,0.0065390141711287875,-1.1148903216770338,0.87714912270994339,-0.75255198136556523,-1.4882675164790207,0.18279185620266558,0.81033180179555508,0.91023194552875664,-0.726507665462097,-1.7832748218361636,-0.37706791999613309,-0.88751091383747327,-1.1753851078336057,-0.21449843050306588,1.9892135262439092,1.3299724568286782,1.3305323063290029,1.3002127778251715,0.680716899540609,-0.89110474114590554,1.1042629846391563,-1.0614329183294591,-0.028472718563151034,1.1006492585234196,0.46190590351443084,-1.2841231936631368,0.86018099150570637,0.40796031024799084,0.90701631685114292,0.30926712197683148,0.4598370909038173,-0.54570889908313513,0.69819755651904158,-0.17416863815121747,-0.68018574392431685,-1.725724862760736,1.3006007109305826,1.3763461445348089,0.13311935594916324,-0.94287771493214079,0.09159824768621383,-0.97951512748046454,-0.15021167539535618,0.83259436271035914,-0.61221706243800789,-0.72695232309724789,-0.46122025393937721,1.5197104679046714,-1.4345089604307475,-0.0486823069158393,-1.422642968326175,-0.33914958907225312,-1.7163621726056384,1.1835403341956159,-0.79267264229369927,-1.1166513055174852,0.724069635720956,1.1122078407147005,0.11516845118202701,-1.456084033337461,-0.67199992483286186,-0.50248861801926448,-1.2258327511704024,0.9823852623730831,-0.33079641793425951,0.884131343515651,-0.13745180803232449,-0.21916002138478685,-0.80669438038333052,-0.97200381149165516,-0.2851138367713959,-0.20314296716765895,-0.061714736540668946,-0.44156462812869091,-1.5162062121165014,0.47919638820653609,0.1166781094468563,-1.0888245325017834,-1.2748992383828848,-0.617242264848781,1.1365967146757043,1.023087884310208,1.5052235010104362,-0.89926055581274467,-0.6544558385640642,0.025938172633032455,-0.49753558565747724,0.81513744910021213,0.831103534097133,0.13752194201371015,0.56792475458730607,-0.80125653594790791,0.34526381192042654,0.55291791565386461,-0.94096836770929793,-0.2924646105582196,0.34482124575929307,0.35288265037950239,0.82052656770621035,-0.16183655344035319,-0.15726645763836178,1.7705541978453074,-0.72968956210170388,0.42855700279078179,-0.50247019832137507,0.13776754207223071,1.1578806299520101,0.72658855408736889,1.5502156277886665,-0.6130975335321277,1.4204023924751219,0.31801921795961396,-0.34211797550884904,-0.11251466819667932,-0.86193354747348172,-1.7737502436031356,-0.84840321859736156,-0.89507667994828732,-0.2459080006209704,0.435499415651953,0.19956632433438948,-0.034681635924932452,0.59376589702151994,-1.7477325758653379,1.2308420041719645,-0.29386887014558016,-1.6950280851195698,-1.8882336336598888,1.2490929464106881,-0.90969210039271486,1.5146320907001534,0.66787961994664746,-1.9366131927522892,0.83836299478854637,-0.59090572674260222,-1.466214200233209,-0.96291604711315171,0.33241007958185387,-1.0426666597103078,0.81631560501587352,-0.048618185800380687,-0.01941778220288326,-0.41232372001387363,0.86923137813305074,0.63839695143438724,0.13575142209220281,1.7035003861894369,0.88289001345769025,-1.7082770595831223,0.059396037626730347,1.3478525892588555,0.75020002468964087,0.61833973540759857,-0.27602415026678895,-1.8037434256653038,0.098101851576055221,0.91650406498706616,0.31505131416298016,0.094602795933714234,0.68573644696070657,-0.53877843848372731,-0.35161638555657881,0.65755618531936189,1.0872331622780742,-0.43604979777524711,0.3830156902568923,-0.19552379004390619,-1.1067967383921131,1.4529706758693655,-1.6122090479415885,0.30269724162188227,1.7418972066333041,0.18904312802786996,0.14317182504719678,-0.74445447919166385,-0.99066614778277762,0.32639165330975839,0.54663575372967665,-0.24718669999725496,0.8122728605811822,-1.0603250325938336,0.46078611466138897,0.07852882150492102,-0.3085466983302248,1.9307085275327363,0.70527573987155945,0.75057049177147928,0.86243758041525154,-0.66603491393198944,-0.39090036791270716,1.598956318385413,-1.3443490596112557,0.45279852010465488,1.2536686916154198,-1.4114916624554861,0.3854892876455509,0.076659521123701446,-1.7618588263922645,-1.6688392980344777,1.1960144150983609,-1.3175315182321141,-0.62862802000186768,1.7412956504809185,-0.750396651565282,0.83844834325762863,-1.4527271755285223,1.0892124341314018,-0.9079451462756587,-1.7580762583567187,-0.71695982273293657,0.897992047899399,0.21653650286112167,-0.70299179512215393,-1.4750590508221924,-0.89387130140099735,-0.908699045882944,-0.42673433772369029,1.0265190601472365,-0.18357401349748209,-0.10837515673435738,-1.6792683506753614,-0.45749576690490157,1.8096235859252623,0.56377186978411475,-1.6575998742870899,-1.7847740965824455,1.9287393353547619,0.57002655722667761,-0.62293101646259008,0.0792828854542611,0.13460424455562814,-0.86737875954893118,0.6376295549038935,0.26903795969860533,-0.21110474234963994,-0.86246971826184071,-0.75179066442152986,0.64399200009368,0.092813995710021913,1.2584070354972066,1.2299201708426328,0.3309803908082013,0.0936416377985047,-0.046736299082048349,0.047053755282914889,1.2601708933991245,-0.75813341457629968,0.024514275614411662,0.87825591425795846,1.4215581097740486,-0.16793816190655073,1.4288086779375133,-0.87897096964482724,-0.36622547165780595,-1.5087084571892908,0.9383412054452771,1.3368992020082189,-0.48815585034929954,-0.31609847476633374,-0.98553049493838585,1.8890590089788004,-0.029066464877252729,1.6534582546724512,0.38071222527917126,0.69176306328352677,-0.64129663684465765,-1.8485012407640467,-1.1789734452864962,1.2675030614563743,-1.3998348616994147,-0.64627762781300968,0.51099879399919823,0.8687630038519335,-1.6384077051833308,1.4385579939121651,-0.39473031665884439,1.147299318526545,-1.7241216375139177,-0.16921494629663181,1.760622339211694,0.012348275637416251,-0.27009070677221314,1.1933143603700747,0.62698520097275512,0.0945542354583977,0.90626416967734924,0.0892515505472084,-1.7855391724899128,-0.84846495722232607,0.15144774607100875,-0.13745204039730691,1.0031574605978828,-0.31274236892943369,-1.6217140926149274,-0.0895799780681637,-1.6645226060247618,-0.61232631117446645,0.16444121797775912,0.91737935528153525,0.92740894513084049,-0.1087775027187437,-0.21770810439144639,-1.0018587964595569,0.53146372127240227,0.089860286583651527,-1.1986403182142602,1.5257950497445627,-1.358735771024997,-0.58511150762531283,-1.3643170688833655,-1.9375943038322006,-0.64080365497656344,0.15967730917487175,1.4138917678100484,1.9397277179824783,-0.609501179475105,-0.94075716790727482,-0.15586212530844015,0.90397710209511961,-1.5952223425708816,1.2190107904463126,-1.2132657446028969,0.74378976539885144,1.0611537597426928,-0.15571960985761807,-0.53009196488656651,-1.3296341818429689,-0.21069426867677565,1.3599534637108228,1.280919981785547,1.2512645717948976,0.95708689568894323,-0.26343385049301848,-0.36774288670520439,0.40010935063478981,-0.65785042517240466,1.2718401566482336,0.61821942221152171,-0.17696731825217937,-0.351957823313753,-1.0022905683364778,-1.190440442036111,-0.40556033998986729,-0.23797727294172033,-0.42795596571078343,1.0916443071754856,-1.0379664143433174,-0.18238649060129497,0.60390115021909652,1.4936568045493481,-0.29795270881054581,0.10966996434594967,-1.3909287119242031,-0.70185778765094375,1.0596314515264851,-0.833929355644588,0.099301421129750711,-0.068714497176353556,-0.043716396225484316,-1.2676919900196102,0.86043471976203589,-1.3664538279950871,-0.27084456489926412,1.8772749248320584,1.6979276610994374,-1.2421641331985476,0.21219521848310602,0.086558650753720878,-0.82943480733290076,0.5198330294898863,-1.3959475529361272,1.6753674278386717,-1.7905678412833102,-0.34845927560164569,1.7084375078363521,-0.065574240901309144,1.3790311121284176,-0.701193058258478,1.6494874356544984,0.32468380931519286,-0.27171536203397395,-0.038936001827037492,1.0300977393193627,-1.5573649776900955,0.68206325112006772,-1.214410630620276,0.17859066804224355,-0.54935590762149356,0.41881695711930145,-0.94983145545694581,0.41020187801225194,-1.0752450186178297,0.0027360615216828754,-0.29325247851933939,0.55839618600830265,-0.63992146036583986,0.23982359970617817,-1.0231219451050841,-1.6719332130960809,0.40660012754526731,0.40219739098204177,-0.6772510254184021,-0.39728719480209396,-0.32475280647692989,-1.4185605800797048,-0.93906358071653862,-0.48412735689623632,-1.9754735696946613,0.074321913567521491,1.1225800417003127,0.57820276942951732,-0.21848289526029768,-1.121999887340702,0.27124702477420082,0.38361244160151692,-0.095344686925106115,0.15458079030717836,0.779400341575686,1.102138165174084,-1.7956381729667252,-0.45544589518357337,1.1676572631893945,-0.84565334340820708,-1.9152129534237148,-1.4648792722564559,-0.52710292606013953,0.81215584036528865,0.98644823947203608,0.8101861951279854,-1.2475182066834616,0.036015400679789256,1.2005214575680538,-0.77023399750247323,1.9286621380265161,-0.773390601108964,0.012893943122072926,0.032910593800670629,0.15190172784584655,-1.7497814203378659,-0.45891854467751392,-1.0667146486540857,-0.31579734318228314,-0.81244514955867264,0.98639313829429121,0.095676174274743064,-0.62176709744230241,1.4451705903956529,0.61659685597596536,-0.40032677929863658,0.4249734256723543,-1.0562072410509955,-0.84327053142215347,-0.97125170813276851,-0.15746096645363655,-1.4717501279533609,-1.4924270415177694,-0.37526060978792286,-0.10492397155691369,0.22601039252523814,0.0093599259678670554,0.4370702423327929,-0.8452775546909671,1.0852501276346156,-0.013941624208326342,1.6854744589354258,0.99784133493712457,0.2505225698698883,-1.8736602626152616,-0.32930211458788361,0.99985073087729992,0.46858137757951446,0.11204155446590924,0.40332542192345727,0.48165065724479517,-0.20362625746225294,-0.29001578608994172,0.81045596042436352,1.3834999293943402,-0.52215643158282909,0.749872653162979,1.0037189978192185,0.82156739232836351,0.45695258162773805,0.40715355910693907,-0.60138300182362214,0.3431876796964497,1.3198656771890192,0.20608140677496867,-1.4519052838217026,0.31886442765540646,-0.24750404537073534,1.0135432784508649,-0.95953518848844577,1.4044295341728392,-0.044721025994383212,-0.53087048722937258,-0.68010342990984363,-1.1338274009217635,1.2390512671503475,0.60402510343306937,0.40562053189176162,0.6427136830253124,1.1653504721659007,0.49319428260470471,-0.5986595230119871,-0.75007431826092041,0.47530768088777908,0.3361142772738191,-0.073201625685650751,-1.7836052960639843,0.23785353821321537,-0.95194332893097011,0.8786307912686051,0.68345551503983115,-0.22738258364954167,0.6762831734615764,-0.86777529766213868,0.11398939986826245,-1.7983138746574121,0.24286672367847845,-0.30313825440972031,-0.21818005024370746,-0.96981536187426676,0.051286492695234054,0.0739180753351738,0.84142192399195492,0.21499341270653238,-0.54316501181720067,-1.4256270636923736,0.79356608064545608,-0.2143214512013697,-0.55374951974546982,0.094913306726626234,-0.82880698840776779,-0.67411395007470343,0.81019035904211467,0.16941053524236671,0.39811579063447011,1.5559279450941497,-0.042562938082294083,-0.23996604524551246,0.681639393177647,1.1048717513237483,-0.27879046196061674,-0.66953757902120126,-0.28775376201095232,-0.41083353288044849,1.6116744911352519,0.048781108133858608,-0.94651348959142978,-0.18333167684419616,1.1010214328304966,-1.8705176859491122,0.70595552156505548,-0.22974101322108931,0.93750417369301609,0.979001327873674,0.70861759535438251,0.30994102140420154,0.82910446558571627,-0.65828327085277216,0.49584658932678716,0.49644158431163132,0.063003242045176933,-0.47281184116043695,0.12879853748467662,-1.8057238607694039,0.706460590803279,-0.87341161398143119,-0.11497043229870976,0.30959918050076779,0.42669988746135479,-0.35867918392581832,0.17597025862241641,0.98980169509993932,-1.3030328412088719,1.7195939420348005,-0.71197125814481232,-0.85881303383913488,0.99178529576947239,0.20052496863483521,-0.9068157053118644,-1.0900883689010927,0.081373084883728658,0.96284966308756248,1.183465741194536,0.76926526346675361,-0.7029934389064989,-1.3906572365158505,-1.8789205867233316,-0.27950193437491633,0.10233605960492798,-0.00073934998397695573,0.95617394286961011,-1.7889585736156248,0.55850721968268369,1.1094603242163827,-1.2031704500332339,0.19454527934759192,-0.27374350362166,-1.4124759730941039,-0.31208966780085556,0.38283705205323038,-1.1338433358510227,0.50332993534148485,0.64130437392336526,-0.530245847315642,1.0304900688494043,0.026621921931683,0.90508090228368154,-0.45229664000323822,-1.2131587114246369,1.5779507926562573,-1.9374107680923356,1.305251465786831,1.0180441155182405,1.0023907665174412,0.98958508437014414,-0.575592621701347,0.6607123752058075,0.39441055258242913,-0.3355083774474954,-0.25147325464127279,-0.49950219807191854,1.1853241376510466,0.69862398398044712,0.073767244151684952,-0.01048549567837509,0.99711550772055768,0.25488335744239565,0.71866052724358642,1.629358464679382,-0.49493049078628654,1.3573739674675158,-0.33017741275493862,-0.11435537266747814,-0.95643406312746659,1.2762433082220346,0.61465803562414734,-1.0626234892116038,-0.45407040112375763,-0.030143467723458883,1.0353480309878234,0.05190044178250286,1.7029466515886349,1.9455419070765108,1.6046045439339265,-0.11355334618759971,1.0357853821645424,-1.1850424867286544,-0.74585200168780941,-0.66488617759425472,-0.78716750945298353,-1.3961946544685375,-1.2931174856112886,1.450172189367084,-0.44307021483931014,-1.8320194873176605,-0.54752188492450937,1.4177569576621787,-0.62014851444895713,0.40592715306435845,1.1444064731712715,-0.69877257186978725,1.3953604043439776,-0.98172079351810781,0.80444184594659818],"Bias":0.66740578396066841,"Output":0.0,"Threshold":0.38229572557951119,"Type":"A"},{"Weight":[-0.35815330541606683,0.028468466144273313,-1.4839928017388995,-1.74986520304804,-0.052586936241754645,-0.15040216636862708,0.688709811162534,-0.596220933804275,1.5325507089589026,-0.36049408016749385,-1.1554562147499325,0.38915755344282715,0.30740874717357058,-1.5499198434641213,0.44847476736105729,1.1370373177980246,-1.7309980298071159,0.33262283710029383,0.72784504281722251,0.64953364039621309,-0.33267073255622326,0.034550291502173147,1.5359064263924522,0.0635568951843572,-1.94868168791229,-1.9236064571531519,-0.72970079936713483,-0.12068781524775861,1.0557135101703583,0.46233174767686597,0.076583554072577442,-1.4676993915195107,-1.9047985765639686,-0.504441743020174,0.080263189077499852,-1.2400577733014049,0.37798437028098109,1.2566546459014782,-0.88933984639092345,-0.87020908138724462,-0.65043464260545314,-0.988589825801826,-0.97090511348606334,0.063476591134985924,0.41826460859933967,-0.06481212753095289,-0.24296574864674625,-0.67191615638878011,0.62302586671920779,-0.077610968648274881,-0.13296250912033147,0.42495968771398052,1.8056957683552501,1.7704389001105163,0.085919838438704488,-1.3814985097299788,1.7603441699223335,0.72943047887153467,-1.6825839077041409,-0.35541094832839953,-0.65489365289914125,0.86794732272063735,-0.42202371052560572,-0.49821501900358833,-0.096500401313649647,-1.6293550318243704,1.3231625009479642,0.19376610507898295,0.46730974617754573,0.12981026532585283,-0.10968472879281632,1.9010074715600385,1.6314549202245914,-0.18464922500292277,1.0704126227974951,0.060366700897164005,0.960129061229587,0.19241445567105642,1.4065964363546093,1.6286040486901088,1.3893547856199344,1.3422267322159498,-1.0334292459457317,0.67794670742435348,-0.7455158166682887,-0.51293777145895014,-1.3093346897516125,0.30952736144397752,1.2623654855472806,0.55853545475869848,0.64931219753311575,-0.96610495155495824,-1.5993975911286649,-0.502315835329851,-0.36088376928161997,-0.38273744066278736,-0.93294350939474224,0.41228571786185986,0.47529140940182446,-1.5969507971764312,-0.93523176151105747,-1.5203161665798706,-0.036480679077320111,0.11081366153006167,1.6205925557858278,1.3888886303821992,0.76508068538507468,-1.1437113309844609,0.773516555676943,0.022185501652856043,-1.0819948218213371,1.6801487615705231,1.8027588519280584,-0.85287334390584058,0.63924437139148083,0.056964683849779207,-0.65317925748097672,-1.1669087471286341,1.0620010671890958,-0.19741706419615857,1.2724748324940332,0.055991074562068588,0.933268034799615,-0.24250888680413907,1.8428172757699237,-1.0397480274735707,-0.41371968500955014,0.29165031215718495,-0.49973490238341695,-0.587527826061718,0.73755097970718109,-1.5372031813194989,0.74785999080532239,-0.17490790419974722,-0.26630847411465752,-0.1204696596229774,0.34816571434408683,1.1662797104410267,-1.0182512687946153,0.91179214926054319,-0.59206218339489691,-0.305092828839595,-0.076918428944402151,0.39076232132362787,0.23402965508268903,0.27977515304450673,-0.12801824888587854,-1.8617112458970917,-0.29231633796704581,-1.9043568614424937,0.39039950370341514,0.40649382844287596,0.33237286096316415,-0.606535944438789,1.2897314807817952,0.49790400336398932,-0.3626713801001531,1.0886727306473407,-1.642872607169148,0.71633413046107575,-0.22308824796548021,1.948102263709578,-1.5615504862794423,1.1293151206939087,-0.376593199733921,0.59524818642309318,-0.31027056832759503,1.4564412424603668,-0.82658339470000164,-0.26699304127460022,-0.40593535599677033,-1.359849827065994,1.0003875365293409,-0.3889316247724609,1.9342934358559054,-0.17242780428958482,0.57055205878361681,-0.626398268447443,0.19311557404842011,-1.5195270009808133,-1.1555845165418388,0.042732824468547925,-0.77661943599571637,-1.1689949371707602,-1.2798935653548191,1.9772350918395607,1.6707605624900945,-0.60137755917449365,0.19771414986734748,-0.74379136913632571,0.30095481490760806,0.073564918746037877,0.44286959732084963,-0.69284111619593625,0.26194213389509446,0.71765936665127961,1.9156245775127898,0.29768484579873505,0.096776719673971084,0.3329245915324075,0.81701313276636078,0.75630213361294107,-0.96782299083090528,0.66508584290979711,-1.7703624217632983,0.675328602863163,-0.032593895696380049,0.16788839836040914,0.82745904234585321,0.029758158153741832,1.2944014676820492,0.63913675049046847,-0.780934545575145,0.3227065784496751,0.82547606100583248,0.36808906210031778,0.2299697712203348,-1.0967069621851933,-0.65231054865397076,-0.51793395798557151,-0.22854786493282192,-1.2745625173861992,1.3916079399136865,-1.5908398887099884,1.4258491878518131,0.55694225560052346,0.87060828780318056,1.7391604705430384,-0.40534311086188213,-0.32089800294879728,0.53638381442818028,-1.7574252596858075,-0.18540401579132493,-0.15214635485417505,1.3666432012939564,0.041737722674379,0.14981108058846374,-0.2569271075804378,-0.46977683749039512,0.61252953792574338,-1.6149090013303369,-0.52089008061256736,-0.090642599241990918,-0.43068591991005745,0.032668427579416015,0.84705708518021594,-0.24306604711132418,1.2013086561119688,1.5762891293625763,-1.8239420632943242,-1.9243301357721585,-1.5880433721049343,0.22950145729874272,0.20144690955125122,-0.95675380758790007,1.7047327848639027,0.36743033880713871,0.71140551693337306,-1.6767858917251164,-0.62723412690106117,-0.0659357803249434,1.0743217817853772,-1.0847988571435208,-0.33996909553758459,-0.713380997401374,0.06994928589349822,1.3387048315902728,1.0176255032502235,0.45432951322492665,-0.38822345639961942,-0.45591408873717953,-0.0426393984372056,-1.2111257853503925,-0.67976096513669981,0.29416364910740578,0.44744129534941746,1.4664517280023786,1.6938520072465075,-0.34914133821144822,0.93162058616598165,0.97951509739642617,0.98723471158288167,-1.8032525721021242,-0.0042180044676201622,0.61614020705334382,-0.66114873926790829,-0.39119356143809558,0.50680259001408823,1.4036420012841195,0.99765168456251363,0.56059678856311224,-1.4737495926552218,-0.22392851404097325,-1.3110087752859148,0.43073908725322196,1.2700512405811115,0.42006333098749771,-1.3910283294464594,0.63390568952723658,0.81699445113399749,-0.62055846984524221,-0.72533956413792466,-0.6766971157289563,1.571084736180997,0.2346340856948341,0.79597399494290455,0.48076428221807077,1.8547621052035885,-1.2312958069291411,0.6271399403277389,-1.6784084773056249,-0.570895057437427,0.18626501146297195,-1.8319203089139984,0.277168337035537,1.9433841835443788,0.60312137687724154,-0.8847014991960962,-0.82156625311894649,0.3197149710355861,-0.61318706237393772,-0.96167501963032231,0.7412886557827183,0.3902093728027351,1.6375455584551886,1.1444310076275985,-1.2394432682727665,-0.21853924087180721,-1.135514818161212,0.069294466669342913,1.9117343332207457,-1.1147060092141414,-1.2249359205481298,-0.8610018309489833,-0.050701228867145925,1.0155831105148341,-0.1512454956077251,-0.2231430566046122,-0.39000520384405046,1.4063148402638337,0.53767836770866007,-0.881330916137123,0.27987094795325351,-1.3283231399874254,0.22600428654099453,-0.3257458439682358,0.56841497056578061,-1.4099280214158019,0.43011737914295756,-1.216928802859063,-0.89920611608831091,-0.67151509349770622,0.21503699487775441,0.18859781821862454,-0.86965113255179072,1.9405722152165006,-0.095343526497177478,-0.19613887006237118,-0.3832316330631505,-1.0525408759957835,0.55575028739671684,0.2350463318801701,0.58840130122304013,0.91562381336261689,-1.0332174564400769,-1.5878611279594996,1.2472749553840958,-0.82712711208477152,-1.6743450275037182,0.88616336727656342,0.96317452097459433,0.72540459999018569,-0.21576437084738376,0.28938294122432495,1.9385881889325511,1.3257079717357216,-1.4409693178911551,-0.74148693435894653,-0.56859032277417854,1.6220676431535126,0.007949610244459171,0.46169704266902856,1.5054962073944025,-1.3423207324660944,1.7159074338692741,-0.86688296959241062,1.4801656172984119,-1.1173418813996969,0.76529455872499152,-0.14203630953190677,1.0344842854116503,-1.9512719455879517,-0.86252993851086579,0.42830254407039259,-1.5394967270733309,1.353654406663801,-1.3710317273489348,-0.21558365952522607,0.52785273345512951,0.62131902511293013,0.80312267588596908,1.5973320908832047,0.33184955792231186,1.1186105213680353,0.01718193014021141,-0.50529554619125638,1.6805146614464532,-0.35384586548484021,0.34155531709154863,-0.85767933764066751,-0.79819385372745744,1.4416340707995157,-1.0222780060388743,-1.1703740700533958,1.2537515830498895,-0.53003370344174727,-1.1069022599174185,-0.34349827379616826,-0.56284995636104129,0.65957876651528224,-1.1286902032460506,0.535781168628382,0.3670777689512249,-0.77689994795743833,-0.93447630244050006,0.38651948905853528,1.7408047913298033,-1.2553492510949025,0.44107303509538665,-0.82082450148687913,-1.9662940334371728,0.1202141464723805,-1.5877058150189489,0.24361730593657932,-0.91269580503585546,0.685184444189959,-1.5027985034761811,-0.44632041381966348,-0.019989462578664352,-0.30197159587497435,0.29558854261207779,0.3355402978302634,-0.023033824760016919,-1.068543878881514,-0.61803609388556158,-0.54542774965308038,0.2166635721068193,-0.53482367895942828,0.10943524265169868,-0.06439509525168452,0.35627271437843927,-1.3045529906193507,-0.22745586452625266,0.084649268613557371,0.3289129898552377,0.38413578196621323,0.13287831624987459,1.0784455133035991,-0.33102009647107689,-0.23251519193679038,1.2922061399054741,0.47302495663660804,-0.98256576269984508,-1.5981590876347194,-1.4592062940165431,0.514971870703144,-0.978663593055058,0.68833330398813519,0.90607937746964362,-1.582281609802638,0.77709563298946971,0.83646862480624984,-1.4916383956985726,1.2203010745441079,-0.34897288882591426,-0.22682605989126808,0.07397456089336174,-0.061334075900415869,0.095504787795015034,-0.057182527173861075,-0.510121914895701,1.8942338549039486,-0.33400073011126397,-1.0951568135503478,0.49338736687478946,1.5205999345148913,0.90933467117572875,1.1250105067738381,-1.3849106968310245,-0.11471094510009783,0.95997135804964739,1.1256273104812145,1.5565030506667696,-0.88705171494778645,0.74924190842976879,0.058453433242837693,0.34418080833003895,1.2104768804163215,0.78174923902182569,1.8385671991103174,0.2630795819047278,-0.45953575263709556,-0.64320991683900819,1.4403930594867063,0.11047360958087893,-0.37903674243904506,0.47549993101297883,0.748503110021587,0.90832569429964038,1.0653302797376902,-1.4436851253005143,0.43963213448395577,0.65942167409741514,-0.49848556234085167,0.76360707393084049,0.16144076556034437,1.6662515418912522,-0.41538228507976271,0.90980947153168223,0.10220194147070982,-1.6156697793005359,0.36470236925627209,0.71387557159824078,-0.15791187815270946,-1.0284074554993405,-0.84559027679910481,-0.65644625943978152,0.79577532633942338,-0.85517247619813885,0.680463502500422,-1.6212472802127,0.76963902114408045,1.2742830366009303,-0.0425475922436675,-1.0227297633060859,-0.086238194995670592,-0.034920925883150516,0.77937559354089947,-0.699722704803442,-0.89720647597629954,1.1832122484645924,1.2044570866061641,-0.054419648393252695,-0.1513075840898358,-0.36825985763839442,-0.1591975084315973,-1.046162537786254,0.95084964807650518,-0.3178122911219543,-1.6975706534914536,-0.00075824919657702106,-1.2567428106820691,0.2923934661682373,-0.30580759851961692,0.726993233456797,0.908042518844848,0.58686726101993925,-0.17389669684857823,0.60373094892303025,-1.0334148199336672,-1.1422531414508135,1.1214725409365145,-0.36289305722475662,-0.45858389579625047,-1.8787194843770561,-0.56015296313266694,0.5045399435351321,-1.352259544354053,-0.17701368175318621,0.172847736707352,1.5272376497868625,-0.54866070931249333,-1.4272036605641263,-1.145485771422035,-0.2537190945603508,-1.0789598110499603,-0.48781733793454124,0.47826425832033354,-1.0150876562181337,0.40279935598503758,-0.56995241836176835,0.42710041181514979,0.071947405613934312,1.8691002092645972,1.469884781269303,1.2944763038747369,-0.14241263996420037,-0.27660829866147052,-1.294774213011737,0.54532086781473876,-1.2412730079336432,-0.95391884490564416,0.12449843535409233,-0.4253595081803806,0.97017470140483919,0.39554410632492232,-0.13921783765171597,-0.74645926465581136,-0.54914090458729337,1.4653547378459386,0.68810428431635,-1.4495746881931901,-1.2254167083769183,0.96548943173395907,-0.21870486727855387,0.80379422046420834,-1.0690812079441181,0.12824748928111385,-0.5087106213654442,-0.54163814655232145,-1.037925982399809,0.73376537986740731,0.729152762000707,0.46272381137252039,-0.23507230786377209,0.81228783857649578,-0.73143928066428709,-0.8904776139606152,-1.3275337099691544,-0.587173022603231,1.5502581165871852,0.13961387339030118,0.97108657521420927,-0.77265108319588527,-1.6244321631381438,1.251721738489215,0.63426147710264713,1.2258040193588493,0.11425205046043363,-1.6575925572112169,0.042976732385799687,0.34239733462237154,0.56380148351369508,1.320580725241723,1.1445496469477887,0.95633421380547867,-1.5588174478890455,0.24049850685777102,-0.75299243943439453,0.56733204779673008,0.24290672307736216,-0.10456048567857731,-0.62716021231709052,-0.63426250202314116,0.8859458623388532,0.31941626235815523,0.61584349992455079,1.8025300092075627,-0.9039793716449025,-0.036730175156486355,-0.25487359252519615,-0.291269769096407,-1.2899425790132688,-1.303098203289834,-0.85525925962964955,0.11558262280157421,0.54453484704463506,0.27562077658978335,0.39737353988626206,1.21189351908878,-0.35947168076386293,-1.6768510582283378,-1.429556927378083,-1.5030064152102016,0.50354540799991265,0.14350088413036466,-1.8634069542695801,-0.33194225296934243,-0.70929787341006934,0.33190401085624643,0.59085238065610279,0.15421523789605851,1.0820191349284811,-0.98043307987061934,0.878657489492864,-0.74325240903685441,0.13010888537484405,1.3933030513084042,-1.3608012457195675,-0.4079103779084563,-0.542920917037157,-0.20017992621296088,-1.1877551186772786,0.97519986190609642,1.6386533387185323,1.6708671840237765,-0.4497369893126828,-0.095560230359230391,1.5742320397748761,1.3700768851535754,1.3395013303214225,0.5738668628380944,-1.7045825196917088,-1.6207679825000316,1.0584461532579774,-0.79666398223334167,-0.61837586370221143,0.83599936430621857,-0.67540519087535866,-0.52644103929700381,-0.88205522991812557,1.367936062332213,-1.1102838365700021,-1.8990186117119243,1.2965861243645596,1.7130778896217596,-0.79999725185392878,-1.2234186387286932,-1.5958972191958671,-0.78459616693882084,-0.48176476009272262,-0.37930062209689086,0.6158423844129276,-0.24212567705760041,0.34992451097347066,0.72331825421346263,1.4976105855301074,-1.4417121277384983,0.884178189041176,0.68995462669523178,-1.0345873675830339,0.2963059443497591,0.97976154926221881,-0.25772762921612324,-1.4540329633532245,-1.0440144669178473,0.11389532411186742,-0.8429692382193027,1.7198417688346663,0.52897160850883074,-1.3232771405360091,-0.43461631078255186,0.25987972568423945,1.0467020753057219,-0.094329223080691471,-1.3241332281958931,1.129269804865713,1.31345189889588,-1.2152535930346948,-0.021517190370120121,1.1456818296670364,-0.53685854192269433,1.3113869239163525,0.38826348930050791,0.37735412380534861,0.58881896947921208,1.1668784585730843,-0.7579544016953812,0.060327687096003141,-1.0679758838694431,1.2480953509211983,1.9590009655612526,-0.061576221777723428,-0.58612686143542025,-0.12465315969877566,-0.77629723156629926,1.1870222739814884,0.16413658864988778,0.85940302140106306,0.92997428563480478,1.4427692440537592,0.23292300628168663,0.20632953062308002,0.51945139748018765,0.49192965849420017,0.011744744149849051,0.23375715233094874,0.66006659281443181,0.43568069508098106,-0.16450854584784647,-0.83836858106701106,-0.78078388668633236,-1.7835006880497097,1.3300733293081042,-0.19750731119324733,-0.85318213881849592,-0.41012225738266589,1.0775797439489188,-1.6436490787396436,-0.6170146209475339,1.0143213099866739,0.17563098770362839,-0.43986666106612737,-0.14773564536484685],"Bias":0.21908088364595588,"Output":0.0,"Threshold":1.81690675384221,"Type":"A"},{"Weight":[-0.7611236010031418,-0.7907475474247464,1.4056258254710707,-0.050793791148413592,0.54599349505547146,0.99359073070510773,0.1638104720803959,-1.0032843290843463,0.80422885101485475,0.66395456604371306,-1.1131530204383437,-0.3853494927218879,-1.955639833563771,0.70419420427838064,-0.52463614336430853,0.5253339514719948,1.0419920212784746,-1.1600958310900469,-0.189409685409353,0.48443482958921835,-1.1015578597325635,-0.69528050659935947,1.6242460699864876,-1.0169004458081445,0.974115498659498,1.2918594662527831,0.90569874015207474,0.526746179513515,-0.21451410568063811,0.47683209296168405,1.5156435610333658,-0.51473909919836514,0.27409845789619636,-0.058981963460790876,-0.63951368939108844,-1.6788426151866291,0.25829626988001797,0.73715968759045225,-0.68733976871582658,0.39552200743720034,0.17141195289991734,-1.1122081238367634,-0.16167996630500064,-1.6948485340433424,-1.3585036356740181,1.2613176122593308,-0.43820781188002211,0.18872856450673581,0.25493912131289909,-1.4456026253502827,-0.938161886559409,-0.47606453228558632,1.0537953819398749,1.6641517242715471,-0.9297922397636772,-1.3435270243061366,-1.3012186690704986,0.85743233135781827,-0.99382251035134428,0.74083356123520094,-1.9264683853492459,0.624108795367232,-0.93477806771862237,-0.26403223083542304,1.2073040964115895,-0.88902261423690554,1.5968490532003095,1.1735160108095963,0.17238145030592855,-0.34425215194665465,1.0492180525554429,0.54151026300605953,1.5011568886698954,0.40960127972513494,-0.022751812833711416,0.83215333653248535,-1.0972863338409393,1.6222387531875815,-0.79564403127676053,0.37381393572958821,-0.33761171482897889,0.478460760632035,1.8323803748154921,1.0840477547999692,0.79185797776647737,-1.7478504626768876,1.2494814178205476,1.7041607162468884,-0.14312237973470343,0.22662521007080805,0.16048929568402892,-1.2547547461021482,0.61243533930388983,1.5154308432319343,-0.84364894444292826,-0.54450280337804124,1.1018834538300912,0.37539101166494238,-0.31761767078080116,-1.8248652367968417,0.933182423437565,-0.32621727852440313,-0.036045316623545015,-1.2991222084030145,0.23200061852438408,0.66681769241896349,-0.29202161091008305,-0.092735563448041569,1.1704255953293412,0.13876112836355414,1.8927263803280545,-0.45561304616537557,0.71167430314779012,-1.2066685572297633,-1.8191816377542827,-0.32896311883126067,-0.63529191102613325,0.78398949410020835,1.1517870887889465,1.9177881590639188,0.34914542862499048,-0.4308756829383204,0.50174358311496037,0.89985921927721213,-1.2257304129776221,-1.0944088190302295,-0.67878796261678809,-0.62288451270334644,0.78575074802420586,-0.64094672102525219,0.41032450851533775,0.82138442379486953,0.4085453573654152,-0.897400363766309,-1.8426523152006102,-0.52724808758462216,0.25817440229383026,-0.374170071619642,0.26252264431096739,-0.0055806469198225184,-0.80891210064706953,0.17609909886429032,-0.21168080540917855,-1.15123661474848,-0.59200549432635574,1.5567107589713816,-1.1841031849310282,0.46516041846658673,-0.8960580345690522,-0.022654788579165364,1.8525531607924743,-0.54691593467579969,-0.18569349273373073,0.30203052714445183,-1.0812152512749726,0.35168466640249108,0.41409150064647726,0.51762681757920737,-1.210906745498491,0.9887336004896784,0.70635483446826908,-1.1033464293476876,-1.509295008848093,0.79222668402661056,0.45162325094063904,-1.0212824575236452,-1.3413929305959691,-0.22136526099469767,-1.3523094651067207,-0.81471641306519338,-0.89411773735063282,0.0012008349882443037,-1.0811241842252781,-0.81761591127962618,1.6201158853341435,0.43700923599885638,-1.1730852495753603,-0.8740114489914903,0.082311528656776822,1.0754197105185219,-0.7254807011808645,1.5163267010433259,-0.09437586464657266,-0.72313101390522483,1.114001081843861,1.0893699863643245,-0.449103028722621,1.8518951217885573,-1.0578395787430179,1.7915018591058916,0.43068780538761714,0.79363769422920294,0.005980470860833545,1.7766840997043456,0.33805064826181652,1.7258113043968619,-0.18851968002902325,0.81305311937492952,0.22775149542267958,1.8008641953584106,1.8579192403042315,-1.2090777080548358,-0.46380770268157867,-1.0502115154187308,-0.061898828512941817,0.71060131895849532,-0.31863652650203389,0.87162371486035362,-1.3728693180591192,-1.7372269834099463,-1.564771531467307,0.15700461967243107,1.8241945746467425,1.2583853412691437,-0.31145102428441795,-0.15842678172440589,0.14938115242374161,-0.79079848657865015,1.5559225322473433,1.970781734199627,-0.70946706585095587,0.64110795265991993,-0.83836506779811582,-0.7502897841624403,1.8442207629998313,-0.992611770980345,0.43288349287253025,0.155636744529771,-0.65378709429636628,1.1369824703489351,0.79500234815990645,0.738258098595896,-0.42029865757576124,-1.3834339590351359,-1.5019848083620819,-1.1070986572220449,-0.85787952041503945,1.3017416257885013,0.58419232330480231,-0.90961386678256739,1.7608112505454621,-0.37447508866874268,-0.86626002884761433,-1.8058452176888684,0.1554616103672708,0.70539289466356525,-1.8475513252651092,0.23736158303793609,-1.02688929393277,-0.10934337617798862,-0.13375476102053874,1.5240293701756884,-0.55847843296755029,-0.20432122011753792,0.8339237993741051,-1.0579511034572269,-1.7886355481057594,0.96902121928009244,0.31170924488068996,-1.8722692243160071,0.85802989958693754,1.7459928074958482,0.55206158037859077,0.48089482937049821,0.16439225206356134,1.795712109560013,-0.41791024357914464,0.25162403530051192,0.72653102442926309,-1.7481368108411024,1.1842546170504085,-1.24859054165361,-0.94573385762143136,-0.53930884252270161,1.5322550514397468,-1.3200327341072415,-0.64940854657879488,1.5604204607943166,-0.24757637617290962,-0.64036854118591569,-0.585612187551154,0.59644315698949768,-0.30336081902653023,1.8755216691063352,0.58784638838276582,0.062199509731586833,-0.61971301102066079,-0.64998023521619852,1.8623822759196078,-1.2555649034937679,-0.042373572495939982,0.25417771353580887,-1.9311327300645098,-1.0639390739095114,-1.8442981912960756,0.2341430066661645,-0.16008680786941509,0.2745341650557398,-0.6173524889710138,-1.418714478341264,1.1888367112622378,-0.078694368749248983,-1.1094210623341709,-0.7938656810642527,0.37565157673119165,0.028030015541254505,1.9481036998089887,1.1704675067078636,-0.53217094113685692,0.11275649541651678,0.27989198001096582,0.27943497629809888,-0.821076794676984,-1.1577451090131632,0.9883152316270003,0.76166760188605043,-0.59525427715631873,0.022794952626710274,-0.53008792574055852,-1.4938561206189247,-1.1790069319210046,-0.16629955795055629,0.15055926616795334,1.0995180975177874,-0.086609224829175213,-1.4414019153646203,-1.4583398287456202,-0.80524830278253567,-1.4779180596885397,-1.9548432975797185,-0.517962799648737,0.96415696989938482,-1.116079451104663,-0.890677008261288,1.3198876694403068,-0.056854411280355163,1.7551525867335278,1.4340370518313894,-0.19551349102776192,0.542275409001054,0.57565016535839542,1.0533978841516181,0.75959702197443568,-0.21564784012915406,-0.46334339047937823,0.47508862357357939,-0.26573888876742635,1.2707442833440119,1.0033462398002606,-0.49788240106037446,-0.23041146166176141,-1.3152873587400129,0.17271236827257666,-0.27372353816112671,0.6436900564672845,0.40149042890476538,-1.7870876946426404,-0.454119420821834,0.081916469187437,-0.51586201065958581,-1.4931462255740287,0.72693596162224949,1.1635441720315924,-1.1967796995129456,1.0204363982288336,-1.6072205862064011,0.21808176590971717,1.3339789711562817,0.55441220037378924,1.2823669735958647,-0.64034288220123525,1.0258733122730037,-0.57863202042813977,-1.3408146981805631,0.81620047186324385,1.2075123870547455,-1.4518621542732522,-0.63247721206046514,1.8027376345371535,-0.79922786857896844,-0.40064188018471092,-0.50906231557441051,-0.18383936871953277,1.8542059063232532,1.2273617383220055,0.93277801337315625,-0.1702865614417412,-0.34954640937482306,-1.9572228118578079,0.29408288132123794,-0.86314184654650372,-1.1915599103977717,0.494680498025697,-0.800078397057987,1.278567539192069,-0.79349749106611012,-1.1473211418592002,1.420643882032318,-1.5995744930578277,0.62135387147839838,0.90592259561693256,-0.19652941552760517,-0.42597223558741271,-0.32002454917879053,0.4430426351926488,-0.022461603406100261,1.033660957627248,0.47615759841918837,-0.986037875984813,-0.88411749701905884,-0.72373803086752919,-1.6064661515906762,1.8620998076452406,1.8045180699809071,0.025646490056834281,1.238213879632863,-0.12656095629863484,-0.036310817131917306,1.0362672484648727,1.511334148939389,0.2680801852923258,1.0809620353770266,-0.12219533836393398,-0.087656538043011212,-1.0602018102352515,1.670751738907188,1.4963094791101961,1.5881812849958341,0.46686220656468636,0.48599407658260041,1.2685917016438171,-1.0778025775578817,-0.88681647350975079,-0.80051242876821771,-1.2867084850029595,-0.1115830150021162,-0.78318416135292979,0.299746823636697,-0.61564110498439573,-0.00084462374473548429,-1.2998351041692473,1.7385616897319265,-0.82904711121998131,1.46577714917519,-0.58710621790360018,1.6947904730657073,-1.8104213344913076,-1.9954431988277674,0.30806182906756263,-0.77213164827419989,0.46389760946614444,-0.58907905503075053,0.39104940504350194,0.30134654003294559,0.38577289198794068,1.3430994289662221,1.0343155968162772,-1.2339590262779776,0.67911253065877242,-0.28795596504954424,-1.8251327256789118,0.97385709753017635,-0.15122020941400904,-1.5722675880288088,-1.0699604796571474,0.67301133585768336,-1.2609816239906855,-0.8129247825289545,1.23168637940273,-0.61265725321725817,-0.69515423229669882,0.03093320598403615,0.35265724097967954,1.6943464855171491,-0.86633811139796768,-0.30374125684785724,1.8546587881188179,1.0630586738991825,0.43001297756215218,0.94923132236545493,1.7411692271666457,0.59653667328295967,-1.7522778230497045,0.42720283308401852,0.22455565613413575,1.2285136749169388,-1.095456288706258,1.8286212849564016,0.72557978831491443,-1.0847208067237961,1.5205142570289385,-1.0125798876455892,1.1547259107021271,-0.9965029940924155,-0.15446488100777611,-0.354430464261412,-0.096093430228574972,-0.77005450614730575,-0.69910003184298986,1.2136279992822687,0.56540349222039987,-0.61006982187278092,0.34645514014244777,0.18522158065945138,-0.31673767665249192,-1.326155364199614,-1.2308084076413923,1.391147505208453,-1.2871503593805946,0.81506463643864935,-0.46414771779167824,-0.32368743049273374,1.6239379642642744,0.951457609865562,0.51488255826518037,0.69397200583199581,0.3287836808379665,-1.5201008634269706,0.894395462653784,1.4577385911055556,1.3128647968698597,0.46577790121816953,-0.332287225095689,0.085582810493923134,1.1069264375171282,0.11015505628201883,1.0540964487260656,-0.82990330961994041,0.050060939998394449,0.64715031843965409,1.801713397634082,-0.52644418157937212,-0.34738271233969487,0.35233850607291722,-0.63896273143213778,-1.3633399528280552,-0.830358582586217,0.75497987761859775,-0.17668828283282378,-1.2079195227510853,-1.6951295955549597,-0.86260906740213228,-0.42503528782401023,1.4752411001712273,-0.68260909369336864,1.0775883267994915,-0.57843762569988033,-0.66367397557705154,-1.0505563761343044,1.6152848171141394,0.88564501825517272,-0.786639652581252,0.26570367202661171,-0.079268927024336966,-1.0438094414043286,-1.7422313651732315,1.3594006539133381,-0.67402475079243285,-1.7322210873161541,0.2951524252485962,0.88266609510531,-0.867784695172582,0.52639237629547353,0.38695757109064488,1.5403832474445847,0.8701396809751818,1.4197210257033448,-1.7818376867947343,1.7071129119522466,1.1068367711765861,0.51690739976098177,-0.16237949960044557,0.69806220135561281,-0.547963126817701,0.53644348600997449,-1.393970306680524,-1.0451081874990407,0.81267913748169285,-1.2520134000306196,1.1939123231889273,1.3684448727259619,1.6661162486607752,1.5022419509488354,1.4858308823247586,0.86488918907236734,-1.776743741602052,0.84715667452996435,-0.35279593470170911,0.4663580369513286,1.1341241761735286,-1.8897508363657403,-0.17842088878328613,0.55038214441610367,1.1838324420078807,1.414944546024755,-0.080250338688609313,-0.1219129274235633,-0.20678695813137427,-1.1448312397789355,1.3741933067209056,-1.5076369985107796,1.028968540499438,-1.6247730830799663,-0.81114323358570384,-1.1552572403593255,-1.2076480885501186,-0.59430414652186636,0.90445868724699074,-0.85826919733466078,0.079099203496752146,-1.012055909499552,-1.9559551682118117,-1.6960643733367624,-0.485819104353813,0.57423235409624507,1.162093394977084,-1.5168715992555355,1.0224891964931107,0.017573838130372721,0.71594525813867582,0.50782205630458055,-0.83095145171086848,-1.306554772335363,-1.5881816295851867,1.7309428228675121,1.5769437775374127,0.96315887871345474,-0.491908451925935,0.15991273344559454,1.3652487168392393,-1.7492555546337998,-0.87231295051867552,-0.058556410511283463,-1.0356907225380143,-1.7610344103356053,-0.0807164209339378,-0.043394067344904919,-0.13044416631126965,0.24583780683848922,-0.68919822698887345,0.99133364097320986,0.64919879207117415,0.50408922365576814,-1.4115753226967414,-1.4376745845366616,0.40022145416597921,1.4544867181472885,0.43004335576204744,-0.17203955117664393,0.73281074628830467,0.2400589111447608,1.1631593307534218,-1.6937605420564117,0.037828852323735451,-0.28489923120820854,0.51958927350099626,0.47016542706180608,-0.064538923122239744,0.038486302848200427,-0.0069006509179717623,1.2441087659653785,-0.49783833441223879,-0.91763414415420685,-0.39490904351459311,1.1400639215205162,1.3884766378386302,0.86751096084132362,1.9710242207958477,0.38793010934625272,1.7180351632265536,-0.17377241802111854,-0.72321284988928247,-1.0036736107448459,1.5166121327861268,-0.43241314050080348,1.8965527060891283,-0.46803180743848527,0.54647078856195819,1.9287910293456125,-0.23848344596090423,0.24738548271003424,-0.033192528660033194,-0.613913254807197,0.085895439501180934,-0.23351614374365481,1.7404216452224282,0.26242799976022368,-1.2560873214416612,1.8542188330805947,-1.8412652312970093,-0.43724213665688511,-0.78943607713535235,-0.50499136303783931,-1.2930758536295386,0.92266521985985017,-0.82188563273376114,0.44768918646624745,-1.6031015479300441,0.25472067774027618,-1.3047240578125807,-1.809135876507096,0.67454899360870424,0.72227189816640314,-0.092875584159221342,1.2421293217884979,-1.5657170922801442,0.62236411851940887,-0.51646286552607212,-1.1620098176235378,-0.53934962606958559,0.58971705408288033,0.27098361508500934,-1.5905573179901378,0.093076506672928438,-0.43989994848127811,0.452749183146632,-0.46008445437070189,1.9994463231411976,-1.021222346937853,-0.26934843208610471,-0.6072281890582425,1.062255449156396,0.065968933545969888,-0.923166572080537,0.21957244187107894,-1.251303778612662,-0.39375940435784718,0.61148454370511907,1.5896684749003818,-1.2698143530962125,-1.2626991883212231,-1.5452579555778103,1.2907539660999339,-1.1015804294038474,-0.90584383650313338,-0.66082636626410307,-0.59487923355534633,-0.93044189500177366,-1.8683447571789589,0.03024987225898057,1.9990689083929496,0.27859081713417122,-0.68452617930459148,0.059059293231389046,0.53237644465896361,-0.50416866434000829,0.47159105933575418,-0.32020605556676451,1.5109753522607383,0.4720129934009224,-0.37686643487627913,-1.1608989602103796,-1.9763710871228815,1.1347965740760775,-0.602359751287084,-0.26657984883830865,0.12037603808642639,1.6945652867176406,-1.9678441397696007,1.3150294643431106,-1.7103344107560508,0.83684900159684417,-1.2998808935749722,-1.4966368766020224,0.24733782803981463,-0.43694687323269754,1.7379775064708563,-0.29621885823841154,-0.83053347681673861,0.11172462166832986,-0.42279773504603546,-1.1392380297832367,0.035473798418172553,0.98069080980216972,0.936380776692592,-1.9136253613576411,0.91168535573053888,-0.10041768853572092,1.7548171448310916,-1.3648177587263368,0.59350867690216225,0.9383671797990647,0.061000361252110613,-1.8488698768657026],"Bias":0.56805358853566157,"Output":0.0,"Threshold":-0.503835850629879,"Type":"A"},{"Weight":[1.4590056796832966,-0.43778670878977821,0.075686808710772047,0.25250420079217484,0.45348515289532276,-1.0073591522134555,0.19731644614241856,-0.4111637949995528,0.18176928264171322,-1.0501389741199738,-0.6251127638971028,0.61717886227051677,-0.393388726931712,-0.825796001742499,0.65239020187984686,-0.57110033629979018,-1.2428575664492594,0.21697440008491942,-0.84238978002331666,0.2718288514981182,1.0379797197123897,-0.6796579764595525,-0.15238669721659065,-1.443928059862893,0.96256556134615823,1.5116673538049996,-0.29045537407065525,1.4332303979588814,-1.4950050448509888,1.2086673580150433,-1.9533346667668479,-1.2641838543415926,1.9848374649811711,0.061432340210970438,-0.48002211119980642,1.1939208196447795,-0.16365513620602673,1.1213098890658426,-0.56870423796060687,-0.14153131756071535,0.45331131501743172,0.57924373381735927,-0.22278902876320716,-1.9215105883411647,-0.74150544973078991,-0.10612816685746807,-0.252716906486413,-0.91586123915196449,-1.3116250053567928,0.002252875886509631,-0.098271942743226925,-0.43144846448276586,0.56771781787635645,-1.5410865338244879,-0.35434448805374308,-0.69474071704071982,-1.936443341866342,0.69754318832305406,0.63985782914788358,-0.51732856711248343,-1.5701797360415477,-0.1819461985407147,-0.24892564472925172,0.52436055854397867,0.12595917010957347,0.078654197081296839,0.66429931794493413,0.666207021761782,0.22762555104104137,0.65545972187791923,0.77905009257562918,-0.37185228526722169,-0.44348810158141161,0.3329508352712498,1.0780378054259523,-1.0697652994601365,-1.2351819589897906,-0.24784681491919169,-0.014142659879545161,-0.41932792855249867,-1.0259890119607973,-1.4993937963151343,0.28679118039402685,0.93372389286929924,-1.724751535674907,-1.809931127265995,-0.43946853673060826,1.6395725997349118,0.16484728751347733,1.5122479277254306,0.74122723878418417,-0.10004656300882187,-1.2494613990417967,0.17667856491831074,1.2563852042687989,1.123402623555132,1.7753966859427264,1.0905840988692752,0.0025770170626122635,-1.5904750430912129,-0.80823606569703488,0.55369146473412023,-0.030610099449106351,0.93247676591038564,-0.93597859769872327,-0.11957325139994413,-0.4907550464806868,1.2487108112539682,0.16494471308074177,-1.171242326868811,-0.35843134408743649,-1.6153100187030203,0.81454412971019918,-0.35336884779546818,0.3691326407106279,1.3536350277036591,0.93143014431997684,-0.14878563921609211,-1.290247780871693,-0.36966327711458469,-1.7414302009816423,-0.50344390142869377,0.91130925367414439,-1.0006473263350304,-0.4309785731281055,-0.79180918018883517,1.428492477159478,-0.023960275586675905,-0.77194763849114434,-0.82212672607140924,-1.86771782854,-0.83670992489750962,-1.2235279973705895,-0.66608433363311192,-1.0151519581338633,-1.1857737652891194,0.90692466819049988,-1.9332181401239792,-0.70988581776460857,1.195608352867704,-0.26476925530692985,-1.0015215282335512,1.0572138994732936,-1.3119211081936588,-0.14040875907075079,0.33792875658857124,-0.94041951323878925,-0.98240155120492045,0.26931883779788324,0.18710921329311522,0.42991115917913192,1.0456781736787773,1.5204076159374824,0.65093245108189635,1.5798654513572648,1.3972208611188552,-0.47563793041947666,-1.6425639519666153,0.95363982345612719,1.644652305005422,0.74484320485258637,-0.19525993298518474,1.6537043450650315,1.0026038005028868,0.37707809655791058,0.083936334626719677,-0.36426572972641597,0.52364720661362973,0.95647344363689124,1.3386929063393933,0.94905569541689727,-1.6170740610068077,0.30236872672213644,-1.7082508558911509,0.40295031778651769,-1.5346014572002931,-0.8121340120267746,-0.71183804831022024,-0.09137481513497181,-1.5575863102253462,1.9505691639848841,0.46677673072280385,-1.6338476667338273,0.18134798024843812,-1.3999118094332106,0.26023826367349279,-1.5616271251633891,0.97592871029671691,-0.34666397718091679,-1.661364463931585,-0.29050866062310932,-0.10884195504306898,1.2851590798400152,-0.68287116600334241,-1.9431833885345531,-0.075483220664543715,0.25525652221648787,1.7680993898623156,0.78600296321604524,1.8326109144057199,0.36139167582681031,-0.393093282307076,1.3812824875960512,-1.3647466373465707,1.577314913266114,0.64383942943245165,-1.8517899382169312,-0.67912124978803157,-0.75067085528311828,-0.69156316420601815,-1.3102104958660017,1.4787369777815123,-0.84250041167384393,-0.14245753768676717,0.22392890705909996,1.238989117892163,1.7496471366610598,0.14274450491310287,0.924306852242121,1.6103500815156613,-0.88578698266567046,-0.36102677758830909,1.4105971825358443,-1.9682804085166568,-1.1527729328028906,-1.4751701129019121,0.20242540827133926,0.95845653254466923,0.96128885079468085,0.44214759508247825,-0.0587641066213902,0.36225045209855322,0.086586651432601025,1.0907231481236979,-0.62551965407352872,-0.37895137237685322,-0.69965350008553528,0.20518783582616029,-1.1601438909583464,0.83913279573392718,-0.49206819501336119,0.017865966082488249,0.71092226878317177,0.684677999901901,-1.0722001458970829,0.26782371488764134,-0.44150057414849309,-0.032310274444665055,-1.221112507964071,1.0780448672193952,1.4624209308356142,1.1532951477697564,-0.88791049068696348,1.286228419880489,-0.65251243237988676,-0.6076211885584617,-1.3096817093015098,0.46626273459580853,-0.08289154796733833,-0.089391862083874507,1.0700448449095918,0.028357253423127005,-0.394833677632191,1.1320476807337476,0.67605507498423334,-0.86013999341993586,0.64045973803869449,-0.04737498520285599,-0.97155646269806029,0.055907000813589847,0.77305719571796128,-0.7978596327816414,-0.78687616939976635,-0.533668958830493,-0.74266117727187742,1.6645613069015375,-0.68673615375847374,-0.2199239759798739,0.36530048097032136,0.80000932687981252,-0.692687386038102,-0.789217150206313,0.569860509862127,0.54222910969621907,-0.632050062824064,0.61521986621209424,-1.0510698030940582,-0.39126270911249456,-1.9507687818029751,-0.15598190013030294,1.7554256188475645,0.717225499028445,0.277721960692537,1.0341419563787719,-0.43803508739826974,-0.54234653457177173,-0.75581824721573776,-1.9080880432893002,0.59345411816307081,-1.0267386860338688,-0.50617221300777615,1.7254606055680015,-1.5463405882689825,0.43462053380656085,-1.2904551007274794,1.463373686868406,0.68579592915523557,0.69548737720841891,-1.1531333438601035,0.94528175790399849,1.4904421770435024,0.74308245198013356,-1.3553737510719215,-0.6478951537389751,-0.32242121137558527,-0.20267434520771455,-0.31183398948602103,-1.2226521725406181,-0.49768590298373527,-0.803872242012933,-0.22558960422202468,0.075163929758204184,1.9087638984940778,0.2532333391260686,-1.3373261798812663,-1.1216742206000139,0.29180900673000543,-1.5612322090013102,-0.024090060975444527,-0.678727739478753,-1.1975828978221785,1.6263678705442546,-1.5122509466075575,0.57610712122456509,1.1060725503687618,-0.97744498680226743,0.72694578463069437,-0.21240404723789741,-0.377748375003109,-0.278163659166621,1.855259593508793,-0.612317849264861,-0.0905704722230184,-1.0314456331690054,1.3323636349906978,0.9921726772990882,-1.0652855256643545,0.89234762220519936,1.3078369550909086,-0.18373622590849931,-1.3318937496896337,-0.75530676113223039,-0.20092769720110942,-0.17265957130475879,-0.11698343051457005,0.054134781308418506,1.0688183470949615,-1.7674445386591573,-0.62208701792270271,-0.048334199492043872,0.64827623667580825,1.1407678919568507,-1.3318495151269481,0.4694334075178177,-0.39814746677789259,-0.12954497279345287,1.1329484949856754,1.8957452401033348,0.26568993309777689,-0.62092409218704514,1.979538049539336,1.891605108925889,0.47523568872140531,1.086885543114918,0.92329731160928374,1.4239254684298883,-0.50980522227930147,0.49436864652408685,1.3598342479019587,0.23198578983172125,1.5950718184910118,0.31612998354999822,0.35439063506505414,0.61636746796610176,-0.23442597139367172,1.8604270759320012,1.3680442978479173,-0.56624481760256207,-1.0346515732978712,0.965571963677915,1.1556303981484986,-1.3143382926072638,-1.1355434093324204,-1.2197177313360004,1.7561647164431236,1.5475263481715351,0.78300772469165159,-1.2052198216343391,1.001399037894513,1.174862064036942,-0.27036254399938631,-0.75122170837187285,-1.8405069186540819,-0.4434517651998679,-1.2934645187544938,-0.89182826825037043,-0.20801787181199427,-0.7870083217298528,1.6002029476688255,-0.66294703570331781,1.1780019109384166,0.41452110019257327,-1.1832985473718953,0.15795710410827635,0.008814301345876463,-1.3030727744582449,1.0248960029537073,-1.9173259026917284,-0.48594366129764532,0.4469728006268725,0.258098080408805,-1.079585497893957,1.305859924902143,1.4182299689474656,-0.28384264129392933,0.11325197253062014,0.687041699274928,-0.3579864279811672,0.80719770994372553,0.44602119128500173,-1.3183019684247215,0.19256419976826944,1.0137819196161728,1.3050120991212373,-0.589247585548669,0.017517638400903923,-0.76764431724680793,-0.013690638362286012,1.542859483297383,-0.089629527303614287,0.31596805099050074,0.22054128559913544,-0.57710490053384789,-0.85145544173787591,-0.26369434578283429,1.5555904337929518,0.53035042366311413,0.26777428866726094,-0.95164842209418921,-0.71463812152605422,1.7868715371340076,-1.1337218857993008,-0.01336640510166362,-0.21641186541710611,1.0488416212838336,-0.69051731409994765,0.18904074383389258,-1.1573557235101963,-0.61940470273578763,-0.26457972371232685,0.65223874461475706,-0.88159866392686892,-1.6469814235563303,-0.31882737454292465,-0.31746003806123513,-1.1032755333479845,0.19603914310971238,-0.69207922494601415,-0.41920651608109782,1.5764871368075197,0.088612106902809851,0.76948922815243215,0.53781570181614513,1.2455643987029625,0.84526915980748329,-0.80096792187586785,1.0524649578390943,1.464937137190689,-0.11292050662297269,1.9414545912022958,0.12187409872276422,1.2843668345754813,0.36025341151293988,-1.4743795802231783,1.805637104346248,0.05739809528803369,-0.2058715793331487,-0.41821019336032234,-0.82567255376374693,-0.96145163428105951,0.69043917147928813,1.4481223632805618,-0.44946035484292568,-0.542607310480721,1.3088758379727956,0.88024938985716972,-0.55573542895993933,-0.735201229683683,-0.34287302491388894,0.21333551137397766,-0.23818956210193665,0.34469870493966104,0.21040970952365554,-1.3981897567390416,0.90593911228628787,-0.83564964255115459,0.55834276368173308,-0.26210459182602563,-1.430387587952608,-1.4058561676209123,0.96797108923019648,1.9437662437296317,1.3434673265290762,1.0054376660871496,-1.3128571823764859,1.1114967046824733,-0.904266019772862,0.42836272457072644,-0.92523323415090941,-0.87663285754464226,1.6581830119985077,-1.4770434531276317,-1.186653115902633,-1.7615476286791021,0.80954061020609935,0.33648561236284946,0.44332926973855563,1.8290563299455944,-1.1130237947744428,-0.18366799232720776,-0.012327106675285471,0.57544279135857035,-1.7425166367285496,0.20369371129371849,1.4843514913154539,-0.0080233842055423277,-0.57694498942091355,0.45941959436024504,0.78914032913238752,1.2097798451826813,-1.6548842283221354,1.9051225520228607,-0.81156579955088248,-1.1511397171538043,-0.92294064998763647,1.2474617265385861,-0.84462882687553253,1.0606704323645892,0.098112964965124685,0.29048353866230864,1.2935201447892561,0.60020351158464491,1.0535894870076281,-0.59968451508306164,1.3610979278390754,-1.1589982198360367,-0.41228952929949836,0.11012135544331825,-1.7375605719804581,-0.89268607035870007,-0.59223198307016744,-1.3610131532703589,0.19336662171099639,-1.4626639389724767,1.9202112238482623,0.37489721755259531,0.26044172153828749,1.4739967302763821,-0.95638968374412037,0.25258888595392426,0.8820779454578076,-1.462352325889446,1.1194272521508055,0.36330337792788786,-0.796607403455585,0.67836401589267781,-0.24428186256870704,1.2401510287263204,1.3081062840335567,0.54251465622452777,-0.82196759005168807,0.67349813816766169,1.176991708193436,-0.045745566508614166,0.93969195147030593,0.36892011871976771,1.5424381101235927,-1.8514414317214123,0.26935238729666561,1.4457989146214905,0.92238747557736356,-0.33480706360880608,-0.99262956389814128,0.0006784387445327722,0.21844010437766104,-0.14128147537879721,1.4390551724653018,1.88590221101693,0.5287906185392246,-0.0020440155649763536,1.0774525939847588,0.64988054458512012,-1.1602652329766494,-1.0792752518687747,-0.31451315913093891,0.05857509215819881,-0.0883203165842315,0.77495902393709826,1.7500566447852441,-0.08133900378893083,-1.7319219241533066,-0.014728525741171269,1.4427459907917055,-0.5643257343044159,0.30138746569929076,-0.550479079853035,-1.7811534739011683,-1.1004872299267385,0.0028318567669429404,-0.35414030512521993,-0.77192163223955856,1.2875873499026462,1.678398229032009,1.1549156294925678,-1.3055108111406493,1.6665997424473051,-1.5433747146946262,-0.55634459785946855,0.77512729855958717,0.57310948073193868,-0.67014829752508009,-0.82962798179575614,1.385726205718576,0.736240377061181,-0.48066025692068981,1.7712719281070271,0.29680183450542463,1.0205662006142393,0.15494817255178833,-0.50004318379799062,-1.1445171642790162,-0.49889561277762784,-1.5723156200592945,-0.40414884053363886,-1.7492524272525927,-1.8413336350775014,0.786096536221959,-0.22638129551970188,-1.8138158190128468,-0.32020402248958313,-0.33948744011087695,-1.6492379678642555,-0.16956993805690201,1.4799320984072668,0.28488294136001069,-0.77259830700820231,-1.3950882488373146,0.4914899384563276,0.88497025281422337,-1.3805384763425861,1.2999911193270193,1.0481558869438739,0.17533856545357907,-0.12903108817596504,-0.79913245690946122,-1.1217518500619343,0.34606135769552854,1.7934083304337265,0.17888739480585203,1.6212058456713363,1.4478997566960286,-0.17381772412863444,-0.9154530646817074,0.075890165323340475,-1.0864444557048587,-1.8772660046244347,-1.8824611361522512,-0.08560667540207817,0.25972244621241591,1.2937508315284507,-0.25116714224040837,-0.38788726571383281,-1.0257835141503175,-0.64634251566433476,0.92509538071467334,-1.5060088771889029,-1.9709490686519766,-0.084158111853948059,1.5133976209971112,-1.1801012843754615,-0.60349601897268257,-0.60084997983688959,-0.51388469458389319,-0.813801444514562,1.8029291070080031,-0.757410104739205,-0.97645616755193765,-0.14783484961271043,-1.0096758971967157,-1.0061718928656411,-1.9246405288226161,-0.99059204045185423,-0.5584338847259398,-0.49140098434472512,0.52697576141309721,0.863464537478734,1.9555736332924916,0.71312216609396151,0.50451858458319609,0.065383430737916831,0.25223959976678689,1.4885258169325653,0.41704492831697915,0.53732387583578189,1.0307067069368,-0.15019463346006862,0.04452187104361216,0.033769396149446074,-0.72208578825094083,1.5776254476875187,-1.7064323144529165,0.058085387832524954,0.33793356081607456,-1.1478203810508458,-0.75273148484975394,1.6076837906649728,0.17393142272435647,-0.60823385329369162,0.12544239574365423,1.528357116285878,1.5208283856142446,0.93461283246735727,-1.8286979030020061,0.16026098682237155,0.67630349969319248,0.235982426552094,0.21889608270437266,-1.0713533644707538,1.0501348390477405,1.2367840293966159,1.8263440503861497,-1.921647518836729,0.080992142067287248,0.78685724047215522,-0.53714099272021132,1.339285289561043,0.0746200688065122,0.0044085634892845338,-0.65377005583898629,-0.52493837733051651,-0.29199226400442069,0.5372207742357723,-0.40614452697622805,0.17636835303919796,0.68445458015634442,1.9960477147232965,-1.3012639355385973,1.4542984848163547,-0.3420261532002018,0.5485044059103843,-0.43001055698202018,-0.15115564536007858,0.39663271158776858,-0.72100937679456978,0.25151239371987177,-0.69295507260111933,-1.89699841658445,-0.6238018863945276,0.716913433613681,-1.7612202743819079,1.2989177486388561,0.4100919513311666,-0.6557647784500219,-0.091589188129449856,-0.9308899207650172,-0.17693567004843414,-1.5893670709754186,1.1817991059188726,0.38557930867447487,1.4092820317760491,1.2440321814473867,0.17886648163728736,0.5284338148908847,-1.4121465852540669],"Bias":0.012206582358203169,"Output":0.0,"Threshold":-1.9145806468625464,"Type":"O"},{"Weight":[0.56005845596405379,1.8059674928923917,1.026048685552575,1.6361881658631483,-0.7402491928251107,0.18387623419234356,0.857030743200812,0.88903051944503986,-1.3161603823845089,0.36935629805985659,-0.12665491641459747,1.6857471241083681,1.236802223714442,-0.39662156924448055,-0.31843105578722014,0.064154052205455336,0.56224938914953937,1.4535989628423,-1.3870712990812357,-1.2638829421549491,0.63319289480950358,-1.7087557686999233,-0.98812058413197312,0.59331029960574133,1.7306234723565277,0.11001411458012378,1.1773305997146903,-0.861329977801689,0.26199845143686895,-0.16062751885532745,0.88910389942540946,-1.9071202706113086,-0.29268303285594244,1.4111890631779978,1.5285704655240153,0.85294660817881662,0.17409090240210823,0.93778991277226709,-1.3907105575272396,-1.5631472354583196,-1.4129379556574571,-0.32222727794303907,-0.692210789859393,0.64714486647730007,0.095095894343729892,0.93933492709851607,0.48257343772918604,-1.8857947140400273,0.060741872554990195,-1.69390198760382,-1.8165671452025729,-0.14725056763144706,0.78558305408134288,0.41173209362278329,0.081609643102441787,1.1462824042636353,-1.417646943320356,-0.41152223311901204,-1.1588285822229594,0.063815747417423907,-0.20377471959394167,0.30029965112931079,0.92632370392155083,-1.2442436065730842,1.0307428105877445,0.47191612351309331,-0.24763255112228566,-0.084306698331752084,0.0733100315897307,0.89044429310152529,0.374256006616287,-1.7532493536142861,0.27097705391746807,-0.075681383756772247,1.6255186962082604,-0.13606884802508579,1.3047881681960023,1.4203110839218418,-1.0777595430043339,-0.37152259133128573,1.3160985025186551,0.58749114528181567,-0.63964868053835766,1.2474994804931336,0.9822916197508067,0.026337959961424622,-0.16390618410143354,1.5445106586183006,1.439606036729927,-1.65934395029179,-1.4044298117069667,1.9379382207700697,0.63395859610008021,-0.55006835169627721,-1.7198418470657626,0.0686615491605651,0.5825970631833931,1.6349491903721116,0.5965149489215178,-0.58048317515313763,0.11678133258446177,-0.83760582980719778,-1.5629813520065423,1.3318969427290823,0.9955331366488398,-0.31638984841628526,-0.41321753916014803,1.1759738154597457,1.0444948817810484,1.8409484847639446,1.713229140133238,0.016735310674055981,-0.1479832763541411,-1.4355540570968548,1.0450858664472289,1.4603636391363635,-0.10595380985455294,0.71494948245349776,-0.27124204685503717,-1.0854239440920874,0.74951100477460364,-1.20657941848346,-0.76191232575192691,0.29186617899307338,-0.88079522218592232,1.4627098419995557,-0.860852708509589,0.21518574280905811,-0.83180216459175682,-1.0297751366299461,1.0372446966530964,-0.4872309993893052,1.6288286166399852,0.81384671796758035,1.9358490407168163,-0.94943115811302836,-1.0065250764631317,1.44226487141208,-0.90545836598866547,0.030610493398555816,-0.60575703233748546,-0.74186287063260692,1.5356954725159775,-0.0348068922920185,1.6701040098770075,-1.8218385548141498,-0.4626253510185635,1.7005028667396411,0.21909399433950608,1.214651783562569,-0.060836086078004947,-1.0894348523996,-1.6816848794378736,-0.18579363738456456,-0.7004228874941909,0.46600125286076288,-1.8833659327977179,1.068044038055485,1.9134708877715612,0.79915143125723764,0.3798478226549214,1.1474769279116193,0.18500238386215751,0.20485511012601443,0.906726447356272,0.15773087654157125,0.37250072060734984,1.605690272341338,0.38569373189736789,1.5300509480433777,1.6931756901057322,-0.37041451706104667,-1.5145314780597257,0.27992684500288556,-0.48472197469543765,1.1985621374093749,-0.50905651157212284,1.4240524840653186,-1.8624439611390438,1.1510499683912143,0.44393567482192786,1.9045957494082839,0.37135873007185705,-0.1785392509731647,-0.99725659278792178,-0.019825434088625721,0.53731248544054688,-0.6575951551355399,-1.6042370803673922,0.90823067766997534,0.98276502032893021,-1.1992017883803705,-1.4604953133782814,0.65263624985359447,0.39945599362228812,-1.6365020347929105,0.84375597482722053,-1.4651421068539574,0.13182885299056268,1.9445374440143524,0.48701697089686852,-0.032300268314918723,0.89741257340526781,-0.94321053833384561,0.9683227403873218,-1.6358764151278309,0.68829197562686706,-1.4309310929062455,0.45182421024435088,-1.2836246896924566,1.92709523994806,-0.43491398243229562,-0.06810440033120313,0.25495828094657424,1.6389242055075823,1.0579324350671062,0.2851775651379384,0.39361590528578483,1.7643961458301152,-0.3919854226484828,0.9366885344203042,-1.0911051477729834,0.2645092849920081,-0.83320295599205552,0.55708844939111213,0.78334715300395485,-0.57767943412888778,-0.67011963141622011,-0.34527512376442315,-0.26029497304013693,0.1820813129572576,0.942278205855879,-1.0868878825972266,0.3304247203738464,1.3061596319573745,0.53989902303549409,0.30482729223155886,0.0057723609815688616,-0.30944445650533048,-0.050892169611012728,1.7598878631879984,-0.61843732866385825,1.4007653162818241,-0.17697666873083295,-1.7481992690582757,-0.59819995783825874,-0.32396832216715821,0.091519371736337951,0.77186186187708994,-1.4980761071192457,0.42942335383474051,-0.13237052510137226,-1.9289702698257614,-0.11554597221689572,-0.10456176332130385,-0.073460753109986232,-0.83620746193277073,-0.11424479545757404,-0.58135588354494239,1.3698687978879871,-1.2221139595946828,0.95654772348075523,1.0629183254497678,1.2026643656206617,0.67919197617061045,-1.9569175299056423,-1.1752857031185577,-1.4885863528999437,-0.94106660733980441,1.6231514698002261,0.080772273745747414,-0.22659000858040068,-0.85506124182374266,-0.64898049209685094,1.8790748323682114,-0.743475179534161,0.68839581435937225,0.1296375664554712,-1.2020439129332285,-0.13048097217943555,-0.15378329537519403,-0.38386437873535995,1.2124038307053988,-0.39117334335631382,1.1073918124229609,1.0644832696134614,0.64038166712987321,-0.59524306589516018,1.1137394980125779,-1.3888250931114077,0.501546568470796,-0.73015814215417874,-1.355112809387554,-0.70310348956990221,-0.78286039306915389,1.386241769132317,0.29257396529082857,0.99972371487964229,0.34805829932357124,-0.11757004809278066,-1.3897193835069051,1.8066900185340504,-0.44174949938512853,-0.535035307768283,0.074835262296178873,1.3426287579404068,-0.12556863675153296,0.11500667576445567,1.3483444151228035,-0.56293317049878322,-0.74320707411654618,-1.3200027380697441,-0.70484378128538094,0.43069137932299245,0.43702935540910293,-1.0146818677963139,0.61496695252832367,0.84509191608293532,1.7463467287581165,0.096840655010585086,0.78879808205589563,-0.17191323552835414,-0.50010945345280211,-1.90928630154081,-0.74479115323386669,1.8346391747866941,-1.3560542852413162,1.8200365527626299,-1.0006022597665909,0.43690903283977378,0.17988476817490762,-1.2628792437086251,0.15821283616333404,-1.0135453748579815,-0.1591056799020063,1.0817252579525696,1.4354295858346995,-0.34660576951997635,0.4298372578014793,0.70266876842630732,1.8566492646265074,0.41586681009077786,0.14636695671191768,-0.081100813150918549,0.734741011045287,-1.264197642572316,-1.0688756681368108,-0.56295448102194556,0.7759816249720668,-0.47779221575604391,-1.3928856492940736,0.66414785136661836,1.6334810311130625,-0.14609787154295373,0.14577831055306767,-0.44595069114832464,-1.044603074414078,-1.0087773990858242,1.8642504847907695,0.21205131067524263,-0.11519600176960054,-0.61238338919933111,-0.65904598993204822,1.0154665405934056,0.016420942738848421,-1.470344118527297,0.26120160439107654,-0.27117383399567285,-1.2115444742196913,-0.1677066731116299,0.601123170275764,1.5504448361114807,-0.68955093237041187,1.0676445281448048,-1.6408750180345377,0.99564736522531483,0.58621803977816267,-1.491140231253179,0.52413949394063764,0.95385129584644512,-0.208190956249922,0.27321383788865716,0.35171761286990622,0.080701606162105088,0.01519042935549586,0.17623293854942973,0.65003446151314836,0.32543885816141893,-0.35976532025251795,0.73270242020147958,-0.42964750740427865,1.1588378041790977,0.40118383672908914,0.31106720599861237,1.3416940361921181,-0.69505003592700243,-0.37318695353958153,-0.54221087599545348,-0.82251367290621324,-0.093562194189784176,-0.18131347288438748,-0.71066114089249688,-0.31424402925849138,-0.856787170682469,1.4436134227754609,1.0601839018916637,0.79016691762496116,-1.6634497920346678,0.57306407139313587,0.17242415350509077,-1.3127083235013803,1.7992787825871628,-1.4155319591125157,-0.7377550726466604,-0.3946962628488877,0.020545986490578372,-0.5067292051272082,-1.3732698817612929,0.91719303136560737,-0.022062635990820256,0.3792151484541666,0.46438900938825761,-0.066748748564509963,1.1197320330514256,1.7606179321932691,-0.47320452540796465,-0.43579511271593874,0.10833405615218616,-1.1956052892820934,-1.5809820758090272,0.10064492472477493,0.023053465596425071,-1.8337113279074948,0.40100691561866864,-1.8150541613879865,-1.6615773940745635,1.66162997221068,0.0446326770096237,0.48523375693952353,-1.6871519869599267,0.2006935124288749,-0.26399640239029964,-0.79990584246347851,-0.97437808987422758,-0.132192903259859,1.5734030546496636,0.66158139084539425,-0.63887514436565118,-0.7943129857509923,-1.8731436803346238,0.55562944084202393,-1.1677815444617448,1.6459864292507929,0.0942030750304475,1.0583287873576994,0.14175937238231251,-1.5321599572348221,0.9104257835589471,0.33534023088186071,-1.0831023711166821,-0.47272225718373528,-0.95290167394694958,1.0894199689335282,-1.4942927078783013,-0.5113148319121984,0.42731961255302653,0.232271015752233,0.1345974142358628,-1.0430921106799935,0.81459238371559994,-1.0826441883494353,-0.59455850950636346,0.75930032448810536,-0.134239851559624,-0.97320615586275527,-0.010947556705655281,1.4680786521491029,0.77258126007978856,-1.18576254285209,0.24739241145895452,1.7097749399066786,-1.5388136233849514,0.14757630550189715,-0.74997009651268376,0.27590183833423154,1.7920211664363839,1.8284958954101875,-1.0115015707032296,-0.0337270559050632,-1.5353112497997057,-1.3321967238244583,-0.57226644122147308,0.41192157806918095,-1.0924320021143332,-1.03232043563962,0.88527715713031441,1.7167587334833847,0.36758435441534232,-0.2329001139071305,0.3359302265271219,0.20940266931867357,0.73469205607412946,1.1864368413511834,-0.79191669020425381,-0.24692901049131955,-0.51037372951878868,0.39716617565804796,-0.97885238890482684,-0.23820598527705572,-0.727281437594109,0.17331060682111921,-1.9251558351913261,1.5261260641394769,-0.11920290876608475,-1.8070816787924067,0.44408603266071822,1.5197638773917053,-0.15543937969740451,1.9675801377592515,-0.012083443323887569,-1.6751574220485788,0.23758045453119298,-0.79136201683029628,0.10388071933010634,-0.903065444507201,-1.9591279960978441,-1.58463875930041,-0.18238559574053287,1.2358044549989535,1.014754806186424,-0.80194204244853085,0.97827801340179443,-0.031723179869224793,0.66370476906360354,-1.7599797955527807,-1.112112195748888,-1.7811898718500463,-1.7823512813925517,-0.59119425648413326,0.44632208647500837,-1.3784945771929316,-1.0265356409487016,0.84458485052203058,-0.042146029203266877,1.6131912430809772,0.53052626062674735,1.7965185641294896,1.6533090489233422,1.0462796869903244,1.029504574093818,1.2363356255164071,1.8339246436180194,-1.2238203656039297,-1.8163902814576356,1.2795561933300022,0.12068357650222428,-1.8873852956515669,0.089914645110217073,0.917573336007806,0.81663426329225031,0.8729675500062144,-0.45809805062212594,-1.4955657457446518,1.2175870140194136,0.033920354225635774,0.55211588672926437,-1.004060945009841,-1.2081012722142512,-0.073468684253035432,0.21838819711394075,-1.5956081261837893,-1.5558310912716347,1.5031746902983518,-1.6702441664739718,-1.6311773432563885,0.11731968732425946,1.0847472674607985,-1.7026459564001515,-1.5459353642286433,1.8944579828039081,1.175260333455056,1.5367456076372164,-0.80820251573259139,-0.3158133562262232,1.4579992068270218,0.56710801306540759,1.3074585736298277,0.77169829845216509,-0.96028996396823318,-0.083733622023711818,-1.303878785718176,-0.68110606831167053,-0.814014072921532,1.3035095219051045,-0.114337574743823,-1.4032262131849638,0.05670479780840898,1.6535291148598907,-0.46086948240914816,0.71920541614257072,-0.86275275557430131,-1.6328681854684224,-0.483425625024678,0.37553554697685687,-0.10896623838179104,0.017735611553762798,-1.0992754190691167,1.1088613528333888,-1.2937587300752096,0.088385140564472,-0.9282908499838276,1.5970289463163487,-1.2388081975461953,-0.54122479471435048,-1.522857574523826,-0.13520938496115129,1.2488204879913574,-1.7762094921321652,0.73698354919300568,0.64671093331263907,0.812604883691896,-1.1891385126808372,0.34892427099352918,-0.54717326469122129,-1.8510584215871331,0.80683179330398858,0.84980660809660646,0.64978107002087926,-0.70507884710332336,0.25488458678819459,1.0652271206794435,1.3201539904438677,-1.400072233472053,0.54823216914582629,-1.4862207488558352,-0.15372120002457929,0.031095980942992596,-0.28667811876473859,-0.56594408422985309,-0.40244887896033454,0.66309019080972775,-0.27296282270595562,-0.86426746431698576,-1.4715760683042816,-0.86899756247014626,0.67989514427254683,0.089467932511804626,0.85248530602664019,-1.5051283964445481,0.92989137346385586,-0.36753444297590021,-1.5940429491894519,-1.5886237209609821,0.11932687292309796,0.21346685952202726,1.5749775802600095,-1.9910296816337061,-0.36137233598221674,-1.9950302839256033,-0.64600281074922661,-0.06157421276977959,-1.8856841828141753,1.1138395817868383,1.6137808857549825,1.4118608941379285,-0.16607551831569306,-1.1861199658299424,1.6450640110508839,0.74263110418926526,1.6958148273154232,0.34670767856142826,-0.7110901390370401,-0.16175455700687802,-0.60191321374821161,1.8450228738808181,-1.9069210029705059,1.2096745275006047,0.52837148985284,-0.075562375632842183,-1.2521053561950595,-0.32730906192553655,-1.6239627262689,1.5661053071106346,-1.5318189857210121,-1.7886545545368708,1.4067418106863006,-0.21175587745930802,1.5683032872939031,-0.99473898717888576,0.21352296798188375,-1.2210482429811025,1.5867242587668469,1.0954907197018575,-1.2810917232563215,0.33986669142724324,0.4768725172581606,-1.6652817743203052,0.81503091697349728,1.5661937331623368,-0.98660686527104446,-1.4342078880566209,0.45433842645399763,-1.4769130803071491,-0.78541911150581156,-1.81442609793247,0.05799663535225974,-0.52896913212210372,1.1808691821903312,1.354440175627563,-1.98343890159551,-0.64856300533216593,-0.78950782343256654,1.1979716886174734,-0.22034478104689376,0.49623971734952166,0.32396392842007987,-0.81703469288397335,0.88555255852898229,1.6042289233786189,-0.13934215854890605,-0.73752182042663761,0.066922455125917768,1.1023539775036673,0.023533846262625335,-0.58030070764026642,1.1851618900826022,-1.3549451769119805,0.68368660224773281,0.271994335034161,1.9105980488986698,-1.244001604730264,-0.021130188378100323,0.58791305524665549,0.0074172606144180461,-0.38596366876082666,-1.1930626701531293,0.57122046061382648,-0.044598669765795851,1.2470999254133086,0.055667920995349007,-0.85263420029200343,1.6382306738003298,0.35496894566107962,0.49332459084378766,0.16850982567691702,-0.2051129276888039,0.65419129636396933,0.84984320162322513,-0.058778870223336374,1.464163316164242,0.59327342947631778,0.96705719594240991,1.2310303725446716,0.51086714970512181,-1.061146667721284,-0.42879402378052189,0.042155603199338282,0.87029171868706656,-0.17038478151447356,-0.9787623126997016,-1.5512050285708183,-0.74058637336855115,-0.51780369622530587,-0.74447930173225674,-0.8180724486843558,1.5701631603623567,0.16902770063328909,-1.821350239134091,-1.9395042583064661,-1.4716174991203554,0.88427702099284033,-0.053448478563373536,1.1948343286965204,-0.14309119020732641,-0.80768289547771355,-0.82056743363876239,1.1995751556007077,-0.92264077436301883,0.325554650017406,-0.95739489745227391,0.8651834963193088,1.583902202352836,-0.9385607964073126,0.92913154946583332],"Bias":0.34228352706054388,"Output":0.0,"Threshold":0.94579777817511834,"Type":"GT"},{"Weight":[-0.26831497590444758,1.9762606229522546,0.58196445674726949,0.49707629647901097,-0.1071711164466902,-0.0853377897689761,0.50888085109595238,-0.12485380476566677,0.61534153233065325,1.0166733930896377,-1.0312090194929433,0.6325541900040369,-0.031431163675818219,-0.79455100176602189,-0.16000284139765553,-0.0018435560059005957,-1.3919003193228972,0.066031772674076061,-0.42799990178458391,-1.4979718325184526,-0.65583779757597682,-0.39531325415955554,-1.466792469595928,0.97406450424998292,-0.81804160951545546,1.1822811563882423,0.16584904988568694,0.94044946486384107,-0.31396924439536844,-0.1984815372903746,-0.55518000505640175,-0.19728210944322971,-1.2075206019019338,0.49984416807994447,0.55536148024506926,-0.90819759336681938,-1.2213117383519707,0.11964211897907884,0.35604400553556348,0.10147025868714327,0.98493833978890366,0.91993811862540342,-1.4684279204664881,0.51499008655780476,-1.2003998696805909,0.2953488042323611,-1.5423345815121823,-0.66376589409251041,-0.39527681115794772,-1.0376562564809138,-0.9376894938469349,-0.70596055998744478,1.8889651130367837,0.93803039888759621,-0.16321442376971906,1.9187401886651014,0.78503382708180414,-0.48589284088736995,0.0068871762228139288,0.17304648327317396,1.5546643878005746,-0.57930562020247123,1.1230882458030655,0.19204328311236729,1.7314349346474907,-0.21920056692054524,0.10716919012235918,0.32935466818947096,1.5107144673870478,-1.1799781536357374,0.568889369617201,-0.24752893776052121,-1.4432734047031373,-0.0061781797004762384,-0.857844721955386,1.6594715824627651,-0.23454563412095678,0.38204534090219311,1.3485927619499121,0.57920854099989338,0.51015423567623563,-0.80070418622377515,-1.3057200644657576,-1.1096219482789151,-1.2064992115863129,1.169531862734448,-1.26252898446402,-1.8083153533788003,-0.69951525642514012,-1.7295151612393163,1.5772757083537408,0.40606844366985295,-0.6567753193233048,-0.95403341714014922,0.46644462853038893,-0.95405346550294357,1.7259141993596749,-0.24555532529277502,-0.037052514980105977,-0.21105408084627908,-0.86123016004507891,-0.81288055834028894,-1.7722502107602778,1.6724739222193481,