{"Input":[0.0,0.0,0.0,0.0,0.0,0.0,0.0,0.0,0.0,0.0,0.0,0.0,0.0,0.0,0.0,0.0,0.0,0.0,0.0,0.0,0.0,0.0,0.0,0.0,0.0,0.0,0.0,0.0,0.0,0.0,0.0,0.0,0.0,0.0,0.0,0.0,0.0,0.0,0.0,0.0,0.0,0.0,0.0,0.0,0.0,0.0,0.0,0.0,0.0,0.0,0.0,0.0,0.0,0.0,0.0,0.0,0.0,0.0,0.0,0.0,0.0,0.0,0.0,0.0,0.0,0.0,0.0,0.0,0.0,0.0,0.0,0.0,0.0,0.0,0.0,0.0,0.0,0.0,0.0,0.0,0.0,0.0,0.0,0.0,0.0,0.0,0.0,0.0,0.0,0.0,0.0,0.0,0.0,0.0,0.0,0.0,0.0,0.0,0.0,0.0,0.0,0.0,0.0,0.0,0.0,0.0,0.0,0.0,0.0,0.0,0.0,0.0,0.0,0.0,0.0,0.0,0.0,0.0,0.0,0.0,0.0,0.0,0.0,0.0,0.0,0.0,0.0,0.0,0.0,0.0,0.0,0.0,0.0,0.0,0.0,0.0,0.0,0.0,0.0,0.0,0.0,0.0,0.0,0.0,0.0,0.0,0.0,0.0,0.0,0.0,0.0,0.0,0.0,0.0,0.0,0.0,0.0,0.0,0.0,0.0,0.0,0.0,0.0,0.0,0.0,0.0,0.0,0.0,0.0,0.0,0.0,0.0,0.0,0.0,0.0,0.0,0.0,0.0,0.0,0.0,0.0,0.0,0.0,0.0,0.0,0.0,0.0,0.0,0.0,0.0,0.0,0.0,0.0,0.0,0.0,0.0,0.0,0.0,0.0,0.0,0.0,0.0,0.0,0.0,0.0,0.0,0.0,0.0,0.0,0.0,0.0,0.0,0.0,0.0,0.0,0.0,0.0,0.0,0.0,0.0,0.0,0.0,0.0,0.0,0.0,0.0,0.0,0.0,0.0,0.0,0.0,0.0,0.0,0.0,0.0,0.0,0.0,0.0,0.0,0.0,0.0,0.0,0.0,0.0,0.0,0.0,0.0,0.0,0.0,0.0,0.0,0.0,0.0,0.0,0.0,0.0,0.0,0.0,0.0,0.0,0.0,0.0,0.0,0.0,0.0,0.0,0.0,0.0,0.0,0.0,0.0,0.0,0.0,0.0,0.0,0.0,0.0,0.0,0.0,0.0,0.0,0.0,0.0,0.0,0.0,0.0,0.0,0.0,0.0,0.0,0.0,0.0,0.0,0.0,0.0,0.0,0.0,0.0,0.0,0.0,0.0,0.0,0.0,0.0,0.0,0.0,0.0,0.0,0.0,0.0,0.0,0.0,0.0,0.0,0.0,0.0,0.0,0.0,0.0,0.0,0.0,0.0,0.0,0.0,0.0,0.0,0.0,0.0,0.0,0.0,0.0,0.0,0.0,0.0,0.0,0.0,0.0,0.0,0.0,0.0,0.0,0.0,0.0,0.0,0.0,0.0,0.0,0.0,0.0,0.0,0.0,0.0,0.0,0.0,0.0,0.0,0.0,0.0,0.0,0.0,0.0,0.0,0.0,0.0,0.0,0.0,0.0,0.0,0.0,0.0,0.0,0.0,0.0,0.0,0.0,0.0,0.0,0.0,0.0,0.0,0.0,0.0,0.0,0.0,0.0,0.0,0.0,0.0,0.0,0.0,0.0,0.0,0.0,0.0,0.0,0.0,0.0,0.0,0.0,0.0,0.0,0.0,0.0,0.0,0.0,0.0,0.0,0.0,0.0,0.0,0.0,0.0,0.0,0.0,0.0,0.0,0.0,0.0,0.0,0.0,0.0,0.0,0.0,0.0,0.0,0.0,0.0,0.0,0.0,0.0,0.0,0.0,0.0,0.0,0.0,0.0,0.0,0.0,0.0,0.0,0.0,0.0,0.0,0.0,0.0,0.0,0.0,0.0,0.0,0.0,0.0,0.0,0.0,0.0,0.0,0.0,0.0,0.0,0.0,0.0,0.0,0.0,0.0,0.0,0.0,0.0,0.0,0.0,0.0,0.0,0.0,0.0,0.0,0.0,0.0,0.0,0.0,0.0,0.0,0.0,0.0,0.0,0.0,0.0,0.0,0.0,0.0,0.0,0.0,0.0,0.0,0.0,0.0,0.0,0.0,0.0,0.0,0.0,0.0,0.0,0.0,0.0,0.0,0.0,0.0,0.0,0.0,0.0,0.0,0.0,0.0,0.0,0.0,0.0,0.0,0.0,0.0,0.0,0.0,0.0,0.0,0.0,0.0,0.0,0.0,0.0,0.0,0.0,0.0,0.0,0.0,0.0,0.0,0.0,0.0,0.0,0.0,0.0,0.0,0.0,0.0,0.0,0.0,0.0,0.0,0.0,0.0,0.0,0.0,0.0,0.0,0.0,0.0,0.0,0.0,0.0,0.0,0.0,0.0,0.0,0.0,0.0,0.0,0.0,0.0,0.0,0.0,0.0,0.0,0.0,0.0,0.0,0.0,0.0,0.0,0.0,0.0,0.0,0.0,0.0,0.0,0.0,0.0,0.0,0.0,0.0,0.0,0.0,0.0,0.0,0.0,0.0,0.0,0.0,0.0,0.0,0.0,0.0,0.0,0.0,0.0,0.0,0.0,0.0,0.0,0.0,0.0,0.0,0.0,0.0,0.0,0.0,0.0,0.0,0.0,0.0,0.0,0.0,0.0,0.0,0.0,0.0,0.0,0.0,0.0,0.0,0.0,0.0,0.0,0.0,0.0,0.0,0.0,0.0,0.0,0.0,0.0,0.0,0.0,0.0,0.0,0.0,0.0,0.0,0.0,0.0,0.0,0.0,0.0,0.0,0.0,0.0,0.0,0.0,0.0,0.0,0.0,0.0,0.0,0.0,0.0,0.0,0.0,0.0,0.0,0.0,0.0,0.0,0.0,0.0,0.0,0.0,0.0,0.0,0.0,0.0,0.0,0.0,0.0,0.0,0.0,0.0,0.0,0.0,0.0,0.0,0.0,0.0,0.0,0.0,0.0,0.0,0.0,0.0,0.0,0.0,0.0,0.0,0.0,0.0,0.0,0.0,0.0,0.0,0.0,0.0,0.0,0.0,0.0,0.0,0.0,0.0,0.0,0.0,0.0,0.0,0.0,0.0,0.0,0.0,0.0,0.0,0.0,0.0,0.0,0.0,0.0,0.0,0.0,0.0,0.0,0.0,0.0,0.0,0.0,0.0,0.0,0.0,0.0,0.0,0.0,0.0,0.0,0.0,0.0,0.0,0.0,0.0,0.0,0.0,0.0,0.0,0.0,0.0,0.0,0.0,0.0,0.0,0.0,0.0,0.0,0.0,0.0,0.0,0.0,0.0,0.0,0.0,0.0,0.0,0.0,0.0,0.0,0.0,0.0,0.0,0.0,0.0,0.0,0.0,0.0,0.0,0.0,0.0],"Output":[0.0,0.0,0.0,0.0,0.0,0.0,0.0,0.0,0.0,0.0],"DLayers":[{"Neurons":[{"Weight":[0.29709764304435704,0.91396470643298922,0.28984796967815979,-0.60045173047131473,-0.22579586283573688,-0.51090619876557319,0.086686429142340288,-0.52999198694247385,0.835946826187869,-0.856495408274464,0.15835294507367209,-0.70830302159688574,-0.62476023501938216,-0.53714345746540626,-0.8267414140639554,0.82499532533110831,0.88995003974528519,-0.856667948820008,0.035361293254122739,0.52326911293122413,0.985278904896825,-0.67650458061904861,0.80747795421978363,0.51659563813200016,0.20241193575896879,0.22792936732430447,-0.096980893563935952,-0.11029643244589513,0.23207471297684812,0.9935511108457814,-0.46210003060386518,0.21155258883328762,0.3544823566239711,-0.1958812168780161,-0.71115045934503451,-0.2050362584204582,0.44669350024624427,0.26522068691683032,0.28552983388562214,-0.451256240462538,-0.83246805464498141,-0.13467778551144422,0.21250442099408454,0.47620916249053979,0.847358423214107,-0.052859957820205,0.64167247416529449,0.47402169391234483,0.37948745832754649,0.66144475418210247,-0.39836360067052934,0.80817505196117567,-0.40876617534494314,-0.47548576652793484,0.93236596739495448,0.049533394654064158,0.20397427128812962,-0.10831622225619676,0.12868422368945751,-0.57285765352326334,0.46150698022055764,-0.28167315026823114,0.1921973583252157,0.55905076701149847,0.44635198984590918,-0.18782543958529152,0.030931156608709674,-0.63215181680030741,-0.2096428941980204,-0.80417280495361088,-0.42733029202899442,-0.75999741803854581,0.47207132562625748,0.17615651021532552,-0.47416861377384917,-0.59323267200646579,-0.31828485257843736,0.40825483128812856,0.1058909143814309,0.76515726128833239,0.468155359136013,-0.73025521995977272,0.35515809494776562,0.50876764557732623,0.3308838765746373,0.2346391902466487,-0.19444080358112267,-0.024336006038047375,0.74352041340597,0.71747441343845542,0.64874896670167748,-0.39004005044234918,0.95007111921444121,0.076102475205484063,0.17323959766572322,0.33901307561388849,-0.4121659046095637,0.71714293571056,-0.56934673272508507,0.94921679373328427,0.0043935100568428219,0.34775290421571253,0.795100419221027,0.18643304621169018,-0.18544245007701332,-0.15132535582004364,-0.90115489945800742,0.93511173172626261,-0.2212370518693873,0.43899105695960627,0.57904359166465869,0.44924024466855461,0.32439915664698887,0.53919515318199762,-0.67041642296613024,-0.59255829481061473,0.028081467853897004,-0.67464269263420384,0.53266108200543616,-0.62151196115720642,-0.6205185435807884,0.63571025041663565,-0.58598069175425016,-0.68985868184355026,-0.28520037479940819,-0.59481613784787069,-0.93194418490489206,-0.23788166709145608,0.10443642321249304,-0.48635722486598287,-0.10267646103290676,0.26030907093561678,0.653791508941814,-0.10051118494035266,0.411478365963082,0.055080290909428287,-0.69213087842433285,-0.92768796157449851,0.051904694667041625,-0.007597137246093311,-0.95376692710154076,0.68892832225604372,-0.6134666784729188,0.44064098663657952,-0.66266748759088456,0.99063587560813682,-0.092926444063394537,-0.20552304396663002,0.88506791036812027,0.27309828497148037,0.10990923787928617,-0.91456648004919594,0.074321271886267359,0.563573014719213,0.47332232700349869,0.26487387030612392,-0.74657793796927574,0.19770788317439514,0.52337602690019458,-0.36369295528330514,-0.33809919764199259,-0.33793825718478221,-0.849403557297496,-0.54902693887661536,0.9252685079934394,-0.54859869999280142,-0.24925216578377976,-0.0040694959480639063,-0.29858382712052384,0.46669358828416729,0.773281386947856,0.15374885227240104,-0.092990257354914327,0.031908068820791349,-0.27232926770687532,-0.88483816752435551,0.29485766137710662,0.46914130983368557,0.35131467988310133,0.59575738459627958,-0.40383581603124541,0.87588412495138313,0.25561635673773303,0.33283380667345308,0.36830899509056891,-0.59094232674266323,0.25260062248101489,0.54365572032688914,-0.3196911533920519,-0.96062398094712942,0.24468621529856985,0.94976445983618707,-0.63463559962559291,-0.098496416629523229,-0.73121531993672961,-0.913199310150556,0.64800999576598872,-0.25676810753381257,-0.7636042287403737,-0.60283607412261708,-0.075716096477450853,-0.35223895793419285,0.72505456336077978,0.91317307712192319,0.41250545736984606,0.31677807882278136,-0.90032826080002271,0.55304077246833627,-0.39171482733996343,0.31921296022795742,-0.77302337566997081,-0.81500598826213089,-0.019994582990181906,0.63159865077193766,-0.44632092418443453,-0.935006615209862,0.87664975220181507,0.36513755766914113,0.47624002791766079,-0.88421705452921662,0.46965192326794003,0.88058553071719847,-0.050822184910449285,-0.53730332457334884,0.11592582804892483,-0.040087272431742059,0.88068733219089324,-0.44844708938544947,-0.6706807723598,0.3191407915759556,-0.97363087021449157,-0.14544770547442498,-0.83552385067358792,-0.99517910135685428,0.78976617278054639,0.09911680226173103,-0.38239545253217011,-0.40313943307992978,0.15915728786921002,0.949886546446889,-0.61600741679594262,0.46770819391482893,-0.071766348123441612,-0.2391035287823079,-0.29070642650625966,-0.088318682316839078,-0.29148829369409396,-0.055775208424672117,0.36128008149623875,0.12516100337969185,-0.046191355235032434,-0.70334009253575469,-0.58229447509268972,0.11459626914681693,-0.3269052846948175,0.8768159900218323,-0.4016436801299656,0.95573640519554559,-0.86183086124334063,-0.22888548869122075,0.95788368906727228,-0.870468318402054,0.70572263547485814,-0.48959744837581992,-0.23403167316412166,0.90501550720306834,-0.7291601308291592,-0.93243277116326273,-0.43515229291988178,0.18261517173732406,0.323418624384058,-0.81969974973225024,-0.45234828975626651,0.72306612121084057,-0.35673682734218276,0.27828200686642995,0.35104820521131541,-0.89595127799359675,-0.50566026126298136,0.61616187478236939,-0.76940408198600829,-0.35684877743797788,-0.277135993483074,-0.087199507321789632,0.4080838940143976,0.39998619183897327,-0.19792288690708712,-0.074090332758655,0.028874317197536265,-0.0082536032461810876,0.25134087971008423,-0.71318539265225889,0.9847445581037293,-0.22817538875535848,0.20010030139242313,-0.734218575867926,0.529661808875232,-0.043360735775605189,0.29137430074223053,-0.83141893233704334,-0.1847595368441006,0.542887734502036,0.82065053182684378,0.7828191359447404,0.65356171347832392,0.16874297110770967,-0.234484596287126,-0.35654659446168069,-0.33148865650011627,-0.079134161620928983,-0.069417007299799938,0.1054917993515226,-0.98163899219671213,0.18634536871050733,0.37275993515400213,-0.018286310144833434,0.93049446024489335,0.24900405446486737,-0.99573808535735031,-0.19274441767146086,-0.14145434840650034,0.34794637111385651,0.56607251175030715,-0.95792949709944875,0.21818110310387848,0.94725591873156645,-0.67668686838666292,-0.085338886401308184,0.31198222111537227,0.65924026708083239,-0.37592946057018334,0.562167599127706,0.56800435696169937,-0.81325240843615143,0.93339422900853408,-0.23504017676927158,0.15070941026821239,0.21140816072533286,-0.73774505161575277,0.10719589940607358,0.24964260135294991,0.40501408623764945,-0.84808983879540578,-0.59636641880328134,-0.76815882314376482,-0.52188463812781716,0.413065866293882,0.046540268252855295,-0.73108025534594445,0.045805277324190957,0.17721929875072989,0.41386929639329634,0.5775422968797117,-0.79721106253434493,-0.26714826247987722,0.36132306249873858,0.76242342393958173,0.36343583202149526,-0.754609860365563,-0.010126117155945915,-0.29932326511448404,0.61282806359828823,-0.00079509709067414379,0.84611665683151993,-0.610124164545035,-0.045088897480205122,-0.4458768877414413,0.81394798625910092,0.42521254691538052,-0.9826351646253072,0.27315477480793127,-0.184789774559806,0.78861287785163747,0.36369533807211341,0.21623015227552045,0.22722054143772485,0.4796042980065589,0.37105956271805779,0.96411454675910735,-0.694706270794713,-0.84195673877464461,-0.40989827104373755,-0.26408083609495353,-0.37442316830829864,0.8541249958119006,-0.1116350703461259,0.019354972997379941,0.22448374481149191,-0.17652459683666219,-0.99484541080652056,-0.74522607668546315,-0.35481327369567622,-0.0023572174843201495,0.768410338446689,0.065753508855473958,0.70858544423644687,0.014806447557549202,-0.31805970441459663,-0.1664457121707712,0.19490825347365265,-0.32716141376977853,0.89086788841097986,-0.39805758064522295,0.7097351447258774,0.32368301289327583,0.63938033051759946,-0.63556559692861769,0.72339480543667212,-0.87135436286747192,0.035213286073512068,-0.34489808759880164,0.259856843510576,-0.98215039678949412,0.030290694455751541,-0.532049969552108,-0.55653356972920409,-0.95893072055602946,0.9720491012428184,0.21025588419765973,0.70237393290846328,-0.60626363503107039,-0.57402711714339771,0.35866272838723973,0.15923594225162452,0.79061947706649982,0.17563277537731117,-0.11200598492846171,0.3304063642073452,-0.77822814219548742,-0.54334391446008534,-0.15183270496867257,-0.097444654487746141,0.091546711088878435,-0.85134485217339584,-0.42344665453929764,-0.5305770819683453,-0.60709282458158809,-0.34181842130693535,0.90268592112822732,-0.49741920851982163,-0.15759758891425915,0.71472121342770811,0.0018638311893976439,0.91729934090622667,-0.98913459479302845,-0.92891294878391217,0.28597504798601153,-0.66840111309122341,-0.041471059919088643,0.326126516948513,0.046965019333625686,0.19586403723613546,-0.0466496562802464,0.2498861300991318,-0.90500777582871161,0.94776245436992612,-0.53736674298409681,0.92362646056508013,-0.4896732408039613,-0.14432257513716937,-0.69277566377668442,-0.32689004313521552,-0.087340765673360216,0.75606035243536363,0.5465783549223926,-0.16451131327287821,0.51605709852467152,-0.036875505948846928,0.21511596544418296,0.90817357502327,-0.44966848494935246,0.80709674759167094,0.1738382713747389,0.63810318970964441,0.69752342286404378,0.91219593999543969,0.28351813567966133,0.055812059927644236,0.5163212611881649,0.68702499693586727,-0.37753702252057242,0.3504481619924531,-0.95991267774250022,0.41998742819763135,0.42262788322876577,0.52573673684417122,-0.2344478481609597,0.94232361109104179,-0.33214358116134235,-0.12800765741989373,0.71700395956495966,0.28841951828842027,-0.027753300512094656,0.19132707463173526,-0.69301942488784873,-0.79806502340271368,-0.25333045388261344,-0.49072943371288918,0.66982466199892787,0.90479792603515,0.572880993863978,-0.40384377557963308,-0.40181167395869816,-0.6644017885738992,-0.991810809817077,-0.57558110941927,0.76601045102160914,-0.9745385474406828,0.97552367065824741,0.93730523480908257,0.28159016942679427,-0.095515833280755136,-0.81117515257148776,-0.2959873361028672,0.78532668519081861,-0.002678177786375479,-0.55738151332241559,0.521591349747773,-0.5257449180473317,0.21721827016082512,-0.60125988796412011,-0.59011186779947578,0.5535697059489646,0.555087405981071,-0.24209252057694483,0.21020162534443737,-0.90473297746141113,0.41933085788941515,-0.75405209826028541,-0.27710809431835454,0.066890813907091881,-0.222135331585135,-0.3806310423559654,-0.49676030850818392,-0.070961303576343365,0.92220341084627588,-0.51419994771210475,-0.0929911132403608,0.24795288278160285,-0.73990736191156659,0.64955147386042,0.77572425956638724,-0.54639668974391964,-0.58537239142943753,0.007755772214269159,-0.11338392976363372,-0.92302817708022344,0.59798433659504369,-0.96172972627064668,-0.92907916238954247,-0.24716289306393027,-0.58981649698215377,-0.12057769397300561,0.4242064964138933,-0.11755581159030823,0.48686336050129653,-0.37045934580753526,-0.547621320256787,-0.87086074886417986,-0.68881580498480044,-0.5001033490989838,-0.33116804870365563,0.99371858965313,-0.852359222179446,-0.67444574771190324,0.13599538530036592,-0.85672646614570469,-0.82008905793544329,0.045393038562216347,-0.6219678863985314,0.64006523724648412,0.22927877690143828,-0.29991174596357706,0.044918864520694532,-0.472424155786831,-0.083814130669373155,0.66608356808595526,-0.96799061632155936,-0.88499553635949058,0.14127141150705116,0.5824550039053219,0.95785714544256084,0.18561036101803666,-0.11152000357933342,-0.38976708538353771,-0.38628823980050547,0.85762186481506653,0.67629407144910381,0.92064694311499917,0.98427445114789269,-0.46190633599735159,0.0217303158816557,0.054502103037434677,-0.22696994162489192,0.30382278016946407,0.54839235243778317,-0.499462846899155,0.52912745975382969,-0.99521235283241249,0.50053966487783,0.033617456459262153,-0.32340494837770467,0.78001481843181641,-0.62451811024198223,-0.93642578224485074,-0.17659022993249363,-0.32135584872279122,-0.15184615745760788,-0.90832170886375085,0.92473747484606572,0.36683990916555742,0.79482316914704776,0.56584107902173009,0.73066364355881863,0.048105881571819019,0.551821497991598,-0.14447835792995914,0.81496367315527218,0.81578224004049893,-0.728127871047765,-0.029337300001335005,0.30758083020689936,-0.54626165495545675,-0.41840688996874115,-0.85636923548596411,0.80169150363732666,0.32530172417187214,-0.33926198600757029,0.15144974605713493,-0.79234964530558771,0.12302399665258079,0.040744345188487484,0.86913526750595094,-0.095499155621742438,0.47772660873724454,-0.62748557544661943,0.72158658491521444,-0.50241765077338441,0.55993256092068389,-0.12065354554013048,0.22811861114023188,0.99303723638553043,-0.1645893553106996,-0.34530601992518922,0.93891056996719469,-0.36418367473603397,0.87118994624875012,-0.0777904661734544,-0.097375369676097931,-0.013730747165964332,-0.21291568326433918,-0.72904595626939361,0.45837406882009191,0.82391131195421863,-0.466367063329726,-0.606171504410995,0.53583620234198692,0.90537070618261151,-0.78207440198495726,0.80555556798612493,0.16067646591024309,0.1042727227808315,-0.272029061928405,-0.37359217106066278,-0.64613254584657609,-0.13134482462487407,-0.89822640730916825,0.044510556871309205,0.79484512228278681,0.5038721684850157,0.18241228916794633,0.70932658049712261,-0.042688103412598419,-0.62345628981639456,-0.68926784754231007,-0.47215125964589011,-0.53188033892394992,-0.8796027032097814,0.27095087443988347,0.94812743689312018,0.18331721526725089,-0.95524616630526549,-0.97919696708172421,-0.34126618427283417,-0.49041284829863013,-0.80428779581761356,-0.57462593939836415,-0.68039937721583965,-0.21047893129777112,-0.78617889750105274,-0.84473679347184338,-0.43768018364798283,-0.776040729496647,0.69061631508665922,0.20077167321032458,0.58194413947963353,0.82475330067088515,-0.42436275371553506,-0.7886811414680821,0.8491718111788723,-0.78342489888119737,0.84585369278018074,-0.6743697522554406,-0.44425132239435394,-0.47051970356633871,0.082631240171674281,0.11400005785468968,-0.14544419206001061,0.25928309711594277,0.44213434469054191,0.69305853531372663,0.25469015271155637,0.47053155278346109,-0.18444036375006678,-0.773512845287804,0.62806801666881329,-0.42673213334136278,0.363913079893176,0.19147193720167127,-0.49310524551808149,-0.668216240437802,0.27678762296065113,0.66876914523018949,-0.78066610907235467,-0.36824699089315116,-0.22616591128807789,0.049017161619391833,-0.965954717698486,-0.9133043111829573,0.16626060249575442,-0.2785172314748714,-0.56049189463280691,-0.83478552840407261,0.56831479657828565,-0.43687637822557074,-0.95451964808372769,-0.29466592301366196,-0.19851316381176615,0.31717123478519321,0.070243317666576863,-0.12895551981821449,-0.69268776555205125,0.96878445752374109,-0.67031026336844557,-0.16121092679035429,-0.76343801839437242,0.63462742587301291,-0.034565902796837453,-0.79611968053324134,-0.903132599733366,0.018582412981699412,0.58708746432656767,0.32385152034640846,0.70624404992267675,0.783929243117538,-0.87229480635015988,-0.036597912216837475,-0.6357926035466569,-0.69062880039710028,-0.30678487723077874,-0.69299355181539135,-0.82562348657549522,0.70526384408830844,0.82376764287416249,0.0944853076219956,-0.540327279614437,0.61363942484075173,-0.86505193024177662,0.57338905687136066,-0.17129015651125934,0.92091399380979777,0.66036048329452079,-0.30215223240766315,-0.048032795101419459,0.0925645186065531,0.59427087409155022,0.69443341097535261,0.61247177823096133,-0.96820820913101,-0.19428128432216182,-0.94400319966674,0.82548064357856321,0.089180477936370517,-0.78289286176808781],"Bias":0.41757432903050179,"Output":0.0,"Threshold":0.30066877943494769,"Type":"O"},{"Weight":[-0.89406006126387982,0.28671349086180026,-0.4636645868717062,-0.96027710706008462,-0.8218561456640513,-0.47374428225389881,0.31934261523156549,0.62151953560370932,0.15230620938926293,-0.3669156149806993,0.59886135281941921,0.25701041531609858,0.92486366858932356,0.44252269130317617,0.58401287001744517,0.9344268375702327,0.37187353911431204,0.83670940149422246,0.40879162419996767,0.43089275594376619,0.36438101779873533,-0.63210643391688659,0.666190966808326,-0.55097313856285679,0.93482232416738864,-0.11951371520735031,-0.93375316445424839,-0.29862481043610012,0.84876084693184162,0.017785571058180915,-0.85139762603277225,-0.7543452422853304,0.53733963870319523,0.8060865759877891,-0.97284841536211242,-0.50934268557901619,0.53960183148253793,0.88434991421380538,0.085221143013435016,-0.11478777793924687,-0.23907159093724173,0.81098804846917649,-0.65669915529745593,-0.85814257471735711,0.39815990039993071,0.73990130179557079,0.65203696752527585,-0.82289026576228919,0.10157792973405586,0.9348970846901169,0.84143395248867292,0.30677424571792328,0.35541586641008771,-0.90747791012165968,0.41157080717923622,-0.091511341320123216,0.39094696817498048,0.434548266434366,-0.40347868595434294,-0.38894411986178912,0.82370596836493626,-0.22439800399560389,0.29295608508072613,0.83044670328053027,0.86973745742334863,-0.641360251065977,-0.84987660723266967,-0.43590918762418868,0.85612578450521726,-0.36383845161825346,0.57986918584437541,0.66438201054203416,0.56846557584054092,0.51210990991075989,-0.32272463213779246,-0.746435597420873,0.19751903889585243,-0.16063645536109641,0.70401723017171824,0.6090088522103656,-0.80658334112101393,0.37138798384526184,0.91432637857009025,-0.21411054777638547,-0.30453324332113063,-0.83237181130441451,-0.67125247263873578,-0.47012335689278478,-0.065751747724484541,0.7444059223609073,0.09417589758251603,0.45960430077258696,0.98800003341771658,0.30123894535994106,-0.96980889885211774,0.60663912659820129,0.30001425896771916,-0.21308576977489785,0.24562914960348473,0.92814689219377322,-0.46180359901013018,-0.607061293258826,-0.30202085864824285,0.39523453283833088,0.414781185060172,-0.045548446497669648,0.24949682515556776,0.65495416133429585,0.66554467643869331,-0.68913514292293,-0.29151441170438863,0.2906927151096485,0.51725278306624511,-0.19444131580853896,-0.15618923919097952,-0.96105968531270491,0.45377784103796714,0.15523833928408024,-0.31179087344174777,0.43332392882244847,-0.17963871275057955,-0.550190880219541,-0.27906054690436488,-0.61272621183317444,-0.95975423136714577,0.78917553219440184,0.29811169127845749,-0.68419780707182265,0.960915580839345,-0.68157993940710082,-0.057538706836075849,-0.67205479073899554,0.99288793513220175,-0.86831465590201073,0.836728574632075,-0.57594030097869242,0.20271926755212213,0.15981442023060025,-0.6989476022771316,-0.70086370301473122,0.35742256248249793,0.096789848570148385,-0.2262276160652878,0.78039322224463947,0.084495896512873425,0.88165202079417748,-0.57919163889214009,0.678481303937026,-0.80094012469097042,-0.022973343275009349,-0.41623197375621274,-0.471318770419489,-0.74941429437576523,-0.406866685676792,0.42887933898199321,0.51371751423632606,-0.92627334032499853,-0.97444952185007261,0.24190060433088831,0.17315042073519454,-0.18665031072993313,0.39630722505799831,0.930734538906596,-0.8255814592473123,-0.27463382821280224,0.017579371583452155,-0.2518580934274281,-0.816474179651809,0.41507520033748596,0.081420349460756575,-0.94460704640699877,-0.43620474284338057,-0.42885570853429644,-0.75838048977701944,0.1270023226398054,0.59904765551865458,-0.977662422683864,-0.1253667031998591,0.73561586520430444,0.2166331327597765,-0.55882097480763726,-0.070362730915827079,0.84809893921394786,0.43422605070947951,0.6323996063472701,-0.75606953574161484,-0.75979979744171711,0.69680715664141213,-0.56702583123325645,0.4652996433271559,0.1329059810996549,0.97426510042243875,-0.71981850486240284,0.57047233617420878,-0.26347998588507993,0.48988360701589084,-0.73278904414399948,0.283004207202701,-0.36503393220018315,-0.37071864650152558,-0.76134182594779032,-0.49791824654579081,-0.75126703211631018,0.19992018034677961,-0.6847519835851863,0.84597556844631938,-0.11186377523088072,0.725221842399436,-0.33133416219210909,0.390194673738533,0.39511041920404433,-0.27394666535497952,0.25906644261398654,0.5596893832831128,-0.048321031522155292,-0.38621971541373978,-0.80677099284099929,0.97382483630153571,0.19734535980846052,-0.016030228238566886,0.85793921344817581,0.18554696961564338,0.55749721152591392,-0.7260480065485686,-0.49807068356222972,-0.30767362160034178,0.93599689050391177,-0.068162533951998935,-0.94700717318198047,0.11898583039594154,0.74687984480842939,0.59801615243685258,0.98789334017219643,-0.75135523302078022,0.50764163420891462,0.66621200864492547,0.28703524232238309,-0.93230033197081663,-0.37838012789300651,-0.671429614849123,-0.19210974741359696,0.038436587917821757,-0.75012575124861935,-0.30483737648689996,0.93386415621911367,0.9649449693807145,-0.47722699701656912,-0.66636943196243115,0.32611899977834846,0.90147359012694728,0.18040214813333105,0.74368093942463442,0.75323483010438963,0.77493321931685011,0.64817876911171657,0.819034600546134,0.597561805321631,-0.64099953074054772,0.62497632094890643,0.87682685948760564,0.30030392496860769,0.17597292884065441,0.84832473045602663,-0.25789433776302934,0.31057596500524132,0.14485626721049486,0.48310614492888848,0.14690691332654418,-0.56468587022492933,-0.87563936266845066,-0.54931803445765659,-0.57811312264674952,-0.95737550731626131,0.33079213431607568,-0.5419214193438745,-0.56954998363254128,-0.68176749939181258,0.65205198510179851,-0.44023799264814611,-0.83647625326946207,0.31465794905771405,0.648475528530998,0.45233099975266072,0.079321293197256185,-0.64476985560952216,-0.87382716493393631,0.093502596995561668,0.11432405194003324,0.94695021861556461,-0.773856019030258,0.40706593469114322,-0.56219287289408637,0.16822404375682773,-0.1380182696217756,-0.067021719676918223,0.13566083327665032,0.51715935092287113,0.862915515370162,0.69731035441966283,0.8843458895032974,-0.32319623805731362,-0.04078037247098068,-0.3540292318696292,0.26347444311877455,0.12350745178922426,0.70838858825545226,-0.23859339404785698,0.60831082640602763,0.10862605418480284,0.74218069796551978,0.86123056191077019,-0.811466380865996,-0.9294398715391009,-0.75418136583370221,-0.83633787968956763,-0.25720768759828416,0.95495015008139894,0.12261096114414323,-0.53156373721154582,0.72869033633204661,-0.5244047839773841,-0.12176718941040672,0.783179518200075,-0.31364306309895734,-0.2519517751652523,-0.7698730531939646,-0.9255276829588821,-0.096896113872945361,0.64083765290716554,-0.54738084298902234,-0.54402790104226573,0.14617622464251528,-0.44032625548556736,-0.64599180298205083,0.26805809292386196,-0.21075010216364176,0.83706562399727558,0.140046988679118,-0.71227946258721853,-0.37002223095391978,0.00794764468816465,0.98128822025902951,-0.46595189136730131,0.35371415473228046,0.71883322937359717,0.31392424801081614,0.53799131537694078,-0.325986875838594,-0.00932794064717737,-0.92916152110749928,0.88872707723114974,0.858432203931004,0.90985157383133264,-0.29448877009306512,-0.079847128167677264,-0.77687012347246986,-0.517556392363066,0.0244908793943426,-0.048946227435463216,-0.42173061586065713,0.075432595832009147,0.70403082142771722,0.33962467747722969,-0.48526258044189896,0.54617904524606609,-0.69639845597390015,-0.51281708316543007,-0.5059939140947507,-0.76925886504783247,0.80588462986326059,-0.83116452341487845,-0.65520890506692642,-0.85659125161198491,-0.12642872153149393,-0.67176093285519678,0.44522410884742819,0.81235406632179119,0.27860017180377628,-0.18674819086992564,-0.25877817219997673,-0.26135657693322589,-0.507182716628156,-0.69477126127796773,0.68604196546880625,0.64666593756837121,0.14707796701559703,0.6245553910846614,0.48350843856274545,-0.25572686468052064,-0.77800546622742217,-0.44033626673758786,-0.46905287889253949,-0.20065254354879844,0.665840714082979,0.73738929151435817,0.93042044152059611,-0.1241071983818464,0.45797615705895056,-0.79316967622990242,0.63289225084376155,0.42902323390777375,0.73866552614544778,0.26257207675956751,-0.954332528614594,0.13098012056713,0.72206444280318194,-0.44583001986417453,-0.902750318824663,-0.68462207945278941,0.23331793222265221,0.63283462898472076,-0.76417763753057344,0.97690180548322469,-0.54195365847179366,0.24442172480953006,-0.98191052674404833,-0.74347505846222628,0.795536244192876,0.36126559058263225,-0.873956924711334,0.16317800766005089,-0.76734840346842459,-0.80613816380786629,-0.099593359092061115,-0.56004772547634674,-0.99286748561676008,-0.98792049707282359,0.92508127955956443,0.86068415495598882,0.78753688036815117,0.23720959352199436,-0.86553445964378051,0.5216094420857772,-0.066905823101711379,-0.23868244990645091,0.80015986962251362,0.49669679044592047,-0.41408271734327207,0.020365037964826933,0.31232516714945674,-0.50206122896730021,0.60170962130730488,0.81315138787643582,0.046567938312221287,-0.29500827812357261,0.95479031929503677,-0.9170773126730124,-0.18427969803301603,-0.690350069985888,-0.71225988059875545,0.053133736854947052,-0.85120605437606855,-0.49639082723129113,-0.92581917062672747,0.64154880849716667,-0.62094475450969522,0.307877028038668,0.1588562597329059,0.19086556052363737,0.51180985919749822,-0.64100806910591579,-0.93073218405746494,-0.13248552527860064,-0.062930573738613438,-0.62754894263462579,0.38660002936916427,-0.81804843424728535,0.80372850867161927,-0.60085909981320573,0.45148020072443418,0.633575395044673,-0.046294724124621,0.5332816972086587,0.43318636735583954,-0.054183176278221966,0.17973726530547127,0.93057729719699234,0.47755408728381343,0.9431207128535587,-0.34028635562410875,0.9499290254665208,0.548542913770556,-0.4615311508353479,-0.51232740586266268,0.12694612616996567,-0.1842853395195144,0.46618323096362091,0.32863948136970378,-0.33276756635530275,0.55117430097943843,-0.62591010687216653,-0.22947417815657062,0.86374262620869213,-0.647400584373344,-0.71620892347591414,0.685087619202718,-0.7886513847804868,0.85036276320478077,-0.32193316813648359,-0.98534594708371248,-0.1120870733224261,0.85945655166146184,-0.21484991918078156,-0.30650340733421194,0.421405522814675,-0.34130388001972056,0.21557575520853314,0.81138424613111848,-0.41268763803536429,0.73432629077431111,-0.39556628856601489,0.3979050938030263,-0.84556030847391128,-0.27327643533855511,-0.86115530732141587,0.44859881906239263,-0.49850913905469196,-0.39598397277108577,0.21707134424572408,0.013563764753548318,-0.30740998373711947,-0.64659790724823152,-0.78835318227687534,0.61853328841670108,0.20280160159003063,-0.57872594081737383,-0.71389951636730675,0.094748535703284911,0.92116725627387286,0.67797494012768145,0.84453300984787427,-0.35790391934937982,-0.25842328102254464,-0.96075648766046229,0.43623133675951109,0.65632978531361086,0.30656546508267779,0.54020777602689707,-0.79772606855152461,0.2089358815964944,-0.73164300747757915,0.24919578165244113,-0.75849996169959188,-0.17064224284637825,0.96611094100685369,-0.38567050052139468,-0.027963989427296439,-0.90140017117438842,0.070437438353168513,-0.75076354236843235,-0.26506550482710151,0.52020473849037885,0.32063184833183506,0.69523847321757981,-0.597520411292799,0.87003702897114543,-0.6532316061915977,0.13303061580892214,-0.605310242439299,0.32567965859811737,0.28611987795965738,0.18860533749154085,-0.11887598881445638,-0.6787847190530899,-0.08699293857765987,-0.896787492510298,0.63795472804361708,-0.35467281115924604,0.79663562159828638,0.563561825344135,-0.75155640754455533,0.76326054044219693,0.8581838462772704,0.7016722502660343,-0.015859525658124839,0.84759371720608034,0.23673862835240486,0.045471183511182282,0.27521167242676564,-0.5793791234397232,0.19319251328389744,0.63851346803759856,0.23073611232952035,0.89449425781820635,0.70356381298208792,-0.73105702816092266,-0.91014842032927479,0.060071992715854193,-0.83671499548326944,-0.84982661523382486,0.59975367858994455,0.14181579795750593,-0.2397100991754374,0.99856915324859752,0.83187363661447244,0.992614325132507,0.97156154595853828,-0.69333021607870715,-0.80662236819352129,-0.607851223837515,0.958727256841365,-0.26616355230387467,0.64265049325425672,0.68657877235048392,-0.87906314939216856,0.82837497341836563,-0.96236766174545874,-0.4194522408859116,0.395747351644443,0.2705064957358439,-0.63616009412154562,-0.94401314945147052,0.87259029311714242,-0.082808027082499125,0.74582671315680571,0.034361673535016214,0.74216677748699056,0.30692721731352024,0.44289380146325275,-0.070634923908223832,-0.61348152748005536,0.81975643654342578,-0.86120786883924527,0.022073682873544137,-0.12490366498236716,0.81824590629816329,0.98253744979507174,0.58729450478558176,-0.98177231474862081,0.27806461429133295,-0.71041611708254371,-0.051754985960086333,-0.17012546824762853,-0.18302689361526953,0.0067974319713178244,-0.041241358053517231,0.85459312696689416,-0.31719428501892571,-0.37591823533918628,0.15277310188523172,-0.72454200066837571,0.24088884947862888,-0.027832828475084542,-0.60113360015728212,0.039077511541115821,-0.69219589964123251,-0.71309627625769767,-0.73606983792785086,0.14923246817161909,0.4572610265841992,0.88439376041497741,-0.65103946470238239,-0.16795369850841987,-0.026801190351509113,-0.35998112631960827,0.38713434961956661,-0.099409479694165984,-0.17149280904396103,0.079897408410859017,-0.0051515861438361866,-0.64357032330872976,-0.29691813387764532,0.053288126854825826,0.69149018483771485,-0.087950702797598534,0.28594017181822107,0.8593656280354437,-0.920775878671918,0.77393166570641647,0.36867795808644871,-0.12616616586510379,0.70501023982884836,-0.15674028273520074,-0.09130174018968909,-0.0031073051519260302,0.21279786117970845,-0.78162043578066887,0.97293362206450362,-0.3891599035771377,-0.32613151163148296,-0.72216926036503593,-0.070566206272023826,0.86618169297752046,0.80578003209353422,-0.55211909653251945,-0.51151332096732838,-0.14644537127876905,-0.89099194616591182,-0.41302528763796448,-0.30618251688134973,-0.7592283979799731,0.67688570761908107,0.81170115424864975,-0.80752577763401245,-0.56333553444749462,0.6493040596364551,-0.53533769936083708,0.89200412290729769,-0.37205048481563596,-0.020773953767853768,0.22127020741872033,0.68808220452074065,0.93911153028677752,-0.4876637675276323,0.54911096838727169,0.3533329453102001,-0.88193414820448224,-0.55819516235878464,-0.6699224699614208,-0.52378095664260027,-0.990462358570873,-0.99980478873467293,0.48372478619391324,-0.68309049805770183,-0.49897407996420473,-0.828903147405434,0.38918853336441728,-0.80496767992385088,0.76320667926371411,0.698214321256715,-0.16416726548418742,0.87015174509498838,0.8010847004135534,-0.70388085241610221,0.49305923538890634,0.10943551832318098,0.84574717229499818,0.36828978795944239,-0.52835662827284846,-0.38635367312764457,-0.31127916570346764,-0.8916681529449616,-0.94307684243799972,0.59000888308044941,-0.49492594436506088,0.50767369731686718,0.73502603347181628,0.05018339448151337,-0.51636557351628576,0.59661675039521267,-0.22181746793064172,0.6021317381421718,0.0021984395581290308,0.19774998640536795,0.579140582391592,-0.70271035269960314,0.4204535751698788,0.50605232478401263,-0.52521539177988441,-0.84827870216606127,0.080097760111139046,-0.74051813070686445,-0.11345004900984934,-0.20378409661528846,0.75623989932063962,-0.31838731529116038,0.69376400331676191,0.79159574200939187,-0.79034105585438252,-0.43527857094783268,-0.112085800204466,0.35536319546185585,-0.6244178286867299,-0.44266164649401868,-0.20039714137110726,-0.048363422066142511,-0.36017054196455073,-0.73352038289118571,-0.707128292278912,0.76440028462763887,-0.68630892070304084,0.82652534024162472,-0.65182747582524436,0.77906192223497761,0.89320536930728955,0.98135341563325074,0.997396163641194,-0.37916311359925342,-0.41401387910079857,-0.54151322531584334,-0.80365865016526483,-0.93890056476877093,-0.746347552047273,0.95973684217768573],"Bias":0.83921514723413393,"Output":0.0,"Threshold":-0.33915534864140456,"Type":"LT"},{"Weight":[0.24941753467983452,-0.36667490441662953,0.18071830327656041,-0.87288367742341177,0.2557858495301501,0.15701955284784527,0.29713550736062949,0.086294675286065173,0.72620472299223982,-0.038426514267188738,0.89468745882375511,0.95221949273358075,-0.11955171549671875,-0.038082056230903633,-0.42306612637968088,0.0085028978104250957,0.48591513162754252,-0.2619800377925765,-0.42861997262976131,0.89213581331639358,-0.34292330003479649,-0.82281642771457153,-0.99653962161230836,-0.18061546896612993,-0.1484018010778361,-0.86219144373302881,0.30072883437421583,0.45945291289102885,0.7271809353154064,0.93408180444225752,-0.5328515309527756,-0.8185487337496824,0.58644070363903456,0.072062427677243218,0.274985811801155,-0.13625569228839859,-0.7685304529818382,0.14839801478590725,0.86298157966834566,0.53621012463057882,0.16815889494873532,-0.26872919838350695,0.32847431177668007,0.25332118629166911,0.16776013102743781,0.59081480027680044,-0.39144778921801959,0.31022876096434365,0.4813496314367976,-0.62227434507677071,0.30886057778674203,-0.93439589065238637,-0.25860548497112723,-0.41001842795406396,0.5167851208321681,0.70063794762857168,-0.29771503354316348,0.66378504441295982,0.18702347957856183,0.73664578224376109,-0.3496483458902912,0.502162332414725,0.17748413941705793,0.009227340113943135,-0.88511746138572578,-0.11343946220047747,-0.12123009894100488,0.42976813224599142,0.8943044631249758,0.7695994641490278,-0.41993558892045896,-0.30394687517729907,0.9977225628670876,-0.29697978091285554,0.39640682954173856,0.70014714249416588,0.021050551450369204,-0.04392174354005686,-0.0085306731092420745,0.20261872196691982,0.45228897428712295,-0.22026515063842067,0.75122435705327628,-0.8624463923566259,-0.76568496216353255,-0.80984671405043762,0.020744320480499567,-0.33655109784405263,-0.947383556490477,0.57890273843840823,0.24458109691952407,-0.31193174948540131,-0.56108025021901364,-0.084234694523846118,-0.098718291660173929,0.6489352163155262,-0.68600761503260932,0.41466902308849107,-0.927673423629102,-0.55187195472040773,-0.74469191662254364,-0.430309732644963,-0.79623086973849255,-0.67026152632677072,0.52923656046820644,0.11014658962848903,0.77886785090848243,0.47246351021922356,0.38974809944152278,-0.69447747789997494,0.51111800713051014,-0.056356706682758738,-0.35738393867266549,0.61238952754642328,0.45501876177965606,0.2740363479936665,-0.64719406592063333,-0.8256539138153447,0.38292291266048462,-0.48280900785830294,0.75217208906643651,-0.72620588016053933,0.26209139649853641,-0.75766602286960283,0.58009134679105656,0.32850764055201209,-0.35391166915833561,-0.89125185408222107,-0.085548075887164135,0.032703735880881428,0.78936047236871,0.696344004802566,-0.56817562392362186,0.16227058654756779,-0.80661897771368685,-0.25613341632119074,0.45841626518332224,0.57661865259363254,0.8807980715673408,0.13135557953797075,0.51564681740274976,0.38809811667916277,-0.28978771729850572,-0.54508274027383086,0.28528102314345588,-0.017128238462437054,0.889140339050973,-0.36996977793517044,0.23652792313905802,-0.68833069581926365,-0.67719997729975734,-0.24711574578989098,0.519479277785625,0.52803188540415458,-0.64646256046670614,-0.25688989332732276,0.905507177070485,-0.0072712120633903945,-0.3139739461773885,-0.621153485319183,0.66606943992249179,-0.31705395053934954,0.35265895740718534,-0.57876368545869539,0.16517744966092401,-0.34171815604982814,-0.1115196911206095,-0.84071339752558316,-0.31153905825295442,-0.15992678988721537,0.759556312002035,0.77765029239358863,0.43107605559335838,-0.44055297898154377,-0.95261976632877243,-0.7361260800324968,-0.19411119222366771,0.38486977637972208,-0.83827709864744782,0.857645193514249,-0.28183993058364837,-0.65358699190131719,-0.97128761884350689,0.17417799782668147,0.67407696352995794,-0.91916661007291012,-0.85701114724251026,0.5210311145153973,-0.96050744129368448,0.68757697319964739,-0.46952028128761814,-0.545905520462387,-0.79039254635125056,0.87142220180082242,0.69554658685603488,-0.52203866956850453,0.32014877224347965,0.14734417067251363,0.072731306810272539,-0.00098762940661405651,0.55725255168846466,-0.70027301446547408,0.22009749953639576,-0.36257883876682206,-0.88671215478643406,-0.97853480231879963,-0.44088574379723788,-0.13988573622884495,0.48360107815060815,0.32955138773170828,-0.31993429750201025,0.12954422697869325,0.12491677427893354,-0.81603120817618036,0.044625213390507366,-0.86701983440062957,-0.34379107288261462,0.063975856203574627,-0.5041406929977893,-0.80581584051522237,0.75954933127367374,-0.817064267032344,-0.92313635159429919,-0.74219059745883131,-0.41063503614190733,-0.24644863523843169,-0.32815497057892146,-0.91978525878851547,0.4859179381681224,-0.18074754820240083,-0.78391489143665638,-0.9575165947701394,0.57809880076819042,0.14970732347560456,-0.17244092941863506,-0.57328553012259564,-0.82185781133447677,-0.089610117529337355,0.65333730897555931,-0.84926945802255971,0.99389967135800961,0.89585533872985068,-0.54453276588792576,-0.97464611240413324,0.52807215812060615,0.36814017797268006,-0.05949364977865184,0.40653155530175733,0.91176379887003633,-0.67232915091902445,0.87883294973468085,-0.91129105720263492,-0.49663241742953307,-0.62319984362609682,-0.062218063074265639,0.43351366670500191,-0.078597746826055345,-0.49010755936154515,0.16023312516521343,-0.5511979877721509,0.70108760693161176,-0.46495616876751006,0.91768744211536246,0.18386623039090363,-0.73257338569153718,0.53889010499179835,0.20678712437245395,-0.21754355133396738,0.82100816435227553,0.47807484840884562,0.79876233581395928,-0.12974482920474598,0.54361121381801147,0.49767574132311893,-0.83170105043412235,0.5432277422133962,0.17013552560011647,0.54631502532694254,0.28420610180320505,-0.20711997393850237,-0.81922252467797252,0.45647664389408971,0.93024124993488255,-0.40001453850419005,-0.86682749579978524,-0.23060750552947051,-0.504734480522915,0.35737428551417511,-0.827999601991847,-0.65170483507761023,-0.49933630065030243,-0.66834815110468682,0.84292150793733145,0.76186827000317547,-0.055551800437062884,-0.96053129898408951,0.56392794873748342,0.722221486141077,-0.32911943892441664,-0.12869955325904281,-0.36132397659184595,0.10829510684511397,-0.12430837989054079,-0.4242199894153606,0.15881824407671497,0.09308891654624088,-0.064270173229402941,0.00028407480580921974,-0.45480249098260073,-0.83314730498620648,0.7396416010985345,0.421179120624987,-0.28483885959016109,0.82525725375174419,0.28753249081202431,-0.58637208518868877,0.27731581231454194,-0.79502495042748045,-0.10044852090089047,0.25334912038098512,0.18571564563816212,-0.531776350704849,-0.20336611624963866,0.040762982815859362,-0.97817039814692475,-0.220809202744071,0.62052871129500153,0.302459741617767,0.59976569963608206,0.30149203226971066,0.32878528597242446,-0.87284905783499078,0.044451416025148432,-0.60087492391507835,0.25574609649169544,-0.51003037603107759,-0.82547002324157859,-0.13458996924319769,0.17764359301777724,-0.367006346754267,-0.084811366668348834,-0.54810960942325626,-0.46095338904343236,-0.75379487441563742,-0.30714375074354178,0.87862578075315145,-0.7805252269751044,-0.3600936822407384,-0.72863766352116954,-0.38027688319807729,0.48146563883939092,-0.25741080532661209,0.60171221317803125,-0.42483027206027429,-0.67380396913448537,0.47426043985144256,-0.17091629708694123,-0.9139226637379837,0.34983037242192327,0.016102263245779212,-0.96497045641996448,-0.14752293012455242,0.64326681366342442,0.59226000476268126,0.78417465453230528,-0.40951721622120457,0.616173938203684,-0.7210326579963009,-0.05468954660682452,0.57407768842488416,-0.9112415178265616,-0.79511790480237354,-0.66886047770681811,0.391609579972741,-0.34069242623666879,-0.93794529137105931,0.038618435169858127,-0.51963032899407224,-0.43857337182321277,0.81301099006692457,0.2557639662436042,0.69208571998965263,-0.75478764565418832,-0.98714094003063668,-0.37796107743771795,-0.96199538743216328,-0.12298146780719117,0.797138108311751,-0.3368351451758459,-0.4437647012266166,0.5558949189986544,-0.23016250703025726,-0.90886901407915588,0.084304459432281764,-0.36277523234615811,0.060141692897370876,0.27882081562598277,-0.35716545179354281,0.58544877990402688,-0.38805124321396056,-0.288169962488194,0.30357041410336755,0.38141336076958726,0.908597039481903,0.87475914874801375,-0.012677443685325534,-0.70102092516656078,-0.09831279520798139,-0.623812831763091,-0.9181206496051143,-0.2670330858170209,-0.92573550340055277,-0.35506590612002925,-0.97917775110303318,0.046007393415089415,-0.10198717662225812,-0.616632798042443,-0.079785948656399708,-0.60715809911822816,-0.059352545560967432,-0.46934166945020744,0.069517532395905593,0.35884262544980394,0.20888299504708638,-0.821557179010267,-0.43345334727012241,-0.050007591512989065,-0.050489846640494579,-0.17736334082547731,-0.57041892109923942,0.70076897353901013,-0.58943819654613649,0.73020719584552907,0.81725653252436614,0.36526913026593122,-0.7378773539037804,0.19196726809813047,0.90750726727187037,-0.97334672649081178,0.64759838285278448,-0.8432084721714298,-0.38155431457867584,0.30641858200841515,0.31869931254475348,0.075751922128606555,-0.275432733947147,0.73425875871174906,0.52815331589810244,0.85942067292491942,0.80037366403284182,0.80899582980619544,-0.46849660643772062,-0.27425264486775391,-0.14216169814679852,-0.10369503922001228,0.2719589771106648,0.64953102294799459,0.48611342137964136,0.32393123131428436,0.82846863746106092,-0.32527122708282957,0.49902723426885309,-0.37008398648821,-0.58487639324035323,-0.16104504426989938,-0.95875354342104568,0.59478097948934,-0.91981771398327206,-0.67691540796166072,-0.75962474977580119,0.62569651223053058,0.50173545233054806,-0.56252126794425827,0.6604976703694545,0.24391723063025494,-0.43992489224296288,0.10616167546536852,0.38960085873939138,0.13507660438077365,0.80595647208669985,0.52944180207766678,0.19976418707508789,-0.27356208687348388,0.18742771781395548,-0.92178766332649986,-0.87844155117796807,0.7959360521267802,-0.33665247323766934,0.7100905886432578,0.96826761726674981,0.7673509902168768,-0.21801938545797922,0.70372625147166024,0.93255473809901379,-0.54312543829117221,0.07402802914102935,0.39955738391706597,0.66265858461272842,0.75812589412467823,-0.56987420496059316,0.30579631882989605,0.97086571807547739,-0.094354805580505546,-0.50792381889555782,-0.50137220532697258,-0.88707920018913189,0.96944010395996283,0.079052994064545717,-0.46220569660058508,0.25631764403372892,-0.30068782544726869,0.1736792876262587,-0.20298075871680898,0.71885999139345247,-0.97370966615793741,-0.60925525175838513,0.085716737474182958,0.57106363101446234,-0.7213572937628987,-0.093893881930920242,-0.14696985350314987,0.2553840955977254,0.43556872496175053,-0.76976758277498536,0.83416777142983289,0.4832657335713812,0.28537391279143,0.028590878950707093,-0.77001365682576484,0.76392768405560763,0.60264752553899192,-0.49608375853676523,0.41296446109794288,-0.39376892447181461,-0.35803289122787907,-0.11586149647639203,0.91762161763274186,0.47169856097162632,0.17528732129153204,0.16357101321386686,-0.36946628166803452,-0.048547515202568621,0.90791530949432186,-0.88302511902666891,0.61039803391806691,-0.053644388939088392,-0.487183258629955,0.77957120900022392,-0.96667755486754592,0.10794126433690138,-0.20077344272321715,0.11242797044684551,-0.70957829789704563,-0.82898877692827433,-0.47950722951419056,-0.69983758064910662,-0.20815496668599312,-0.58565465946945117,-0.5766610170605877,0.20227585276694776,-0.83565504934436408,0.7200531571731219,0.20175055936060407,0.72391149528506749,0.094527700494289255,-0.87124895717541173,-0.544832297854513,0.40766494879856,-0.13597115927188247,0.43869157388745417,-0.033656080269094592,-0.65500371747417552,0.9961011484247172,-0.14147634717704558,-0.55311828132398344,0.94510030417940594,0.94291708056950807,0.88123350724635341,-0.71926323451067475,0.3770222637695364,-0.54825948437129124,0.31674730280262758,0.31941540973233778,0.57240779677983733,0.7478243437352704,-0.21827723654838149,0.90912231286481127,-0.51666352363147938,-0.60425426000927307,-0.66599301372933806,-0.6247538354363078,0.22573039551532381,-0.0048369355522268152,0.087177307385568184,-0.56544894937679591,0.2108866554735632,-0.092752428302891751,0.0874848454666719,-0.15500281292712448,-0.10031825727797963,-0.3639964975249006,0.58386962236085427,0.20704557663157841,-0.70974135525046911,0.040958136804848042,-0.33726120523049552,-0.78434079456345218,-0.31859427984738459,0.82440970457364326,-0.524733054230331,0.58256588530846209,-0.19602356068604793,0.44461811401165,-0.014133896685267751,0.47904667746231272,-0.20890212068748759,-0.20000123288482485,-0.90134976753096552,-0.80834790682808866,-0.4621593106827509,0.54264393380966225,-0.94625250061333765,0.12888827832829591,0.9012965564156401,0.17674917875637727,0.15910627560648427,-0.60070067346128664,0.74379207042222473,-0.18398027642815387,0.45299539782712023,-0.82408008250597864,0.89733888017821073,0.3084264529442538,-0.21894251146304539,-0.2103262311827048,-0.34769404835425971,-0.18538310480554732,0.52438618686254423,-0.63894465874831408,0.15278658184818297,-0.63134332915364921,0.23702967550467219,0.37404126784486758,-0.87811985885636878,-0.59584298757642651,0.0607697218939521,0.87512148584943339,-0.34254287385500171,-0.813452869566834,-0.73969392280080071,-0.5730003996626476,-0.77075019840651671,0.58374884193006382,-0.32207729263327889,0.50890194974322889,-0.13985467941493479,0.14940818033619233,0.043062361908639948,-0.058932825484747452,0.13376932550862866,-0.98032081405647142,-0.84886274898837444,0.013074559631326496,-0.62117133504765631,-0.015567224014348921,-0.058321265996583396,0.40820926214019265,-0.079674803223309484,-0.26230726868952964,0.96385494524792537,0.37936443061538244,0.65781114653582273,-0.98269574995278186,-0.356744964307521,0.74469125771182187,-0.18774860733549512,-0.30467258175121276,0.29012679135898445,0.60772807086246461,0.089830337599772186,0.041642119661738218,-0.22702335157758713,0.81369666886222392,-0.62786782934696783,0.72064539171785369,0.52871534672040277,-0.38588014775229623,-0.22762029908020995,-0.394418268648171,0.10508005186220633,0.4847959394030254,-0.65293822747326369,0.089956146706806558,-0.89583016973725993,0.59221218507374274,0.56702443844034545,-0.044294440673801325,-0.66958569347373476,-0.40850593168684557,-0.91012838385539518,-0.39682480105982387,0.35415589919041651,-0.022804911724666557,0.077837628814316176,0.90508889402499837,-0.12635271583048288,-0.57789434472932222,-0.257411998816492,0.27150957997492958,-0.14124104899412071,-0.043521758189202175,-0.67485701882972238,0.30128541416548443,-0.88051360653737265,0.752955818899421,0.936285599105193,-0.21490931241536015,-0.591557128164711,0.19221414494896966,0.44124205384461307,-0.51676586061565477,0.370411175009986,-0.43255110291417276,0.0014385273686789569,-0.96423500821191588,0.18340704319225953,0.28537290184077474,-0.99982206383711758,-0.4148187415743334,-0.57509599094050745,0.38242695358694856,-0.12917525047863612,-0.0090496614617526817,0.26778106217634912,0.50989128021052632,-0.30305793057338237,-0.32173433216369446,-0.70232731881659816,-0.98195658530199736,-0.72919047005902538,0.94794394725372266,0.19999813251197252,-0.58929663272076127,0.68243141597250079,0.061914165998769068,0.98030143742463616,-0.2014608314267643,0.44458863299553686,-0.88452384988056676,-0.63782726304504422,-0.81655300167228706,-0.43295475208803769,0.8712556873780003,0.32379521351484358,0.988707885606544,-0.062500455445843026,-0.46322385615819311,-0.12547848984854226,0.71360635557845531,0.54308858539121629,0.47611698204470659,0.45424394889466646,-0.8819903823928863,0.29349192618089354,-0.86963682941609843,0.14529880794943254,-0.3901528312778812,-0.40039834864456131,-0.504712822150771,0.7073865135700379,0.96696083991181148,-0.53516622238567391,0.48459963197102751,0.53657596257355811,0.24234112689380585,-0.88955501694677164,0.69493737150679225,-0.79788572285225878,-0.03103646358057692,0.21995280600150713,-0.39496235940370816,0.101510610013041,-0.8247005980576857,-0.99668581597352668],"Bias":0.95774629197909789,"Output":0.0,"Threshold":0.66281495507006294,"Type":"O"},{"Weight":[0.84314653596056,0.7513327681232862,-0.20874073179845731,-0.47819156082262826,-0.7666821492680731,0.71157358852754049,0.20961092934459957,-0.04899325689719676,-0.65730204230980116,-0.43162707119790233,-0.878102138116072,0.50587998773245135,0.60977336653032033,-0.26721416193396513,0.59677697419970155,0.88556989882400716,-0.059782696450027963,-0.49084426438940887,-0.16820088688666043,0.86390531568969853,0.99197199847175366,0.801315426268296,-0.65830690956595672,-0.67993100997057321,0.2695765701446573,0.35073404868633207,0.23118788387216063,0.73744927334480415,-0.13636625052260526,0.15505963897102496,-0.09511502696905054,-0.69175061801995641,-0.56460583655378127,0.81002487931867362,0.32046374321005483,0.30241828938127413,0.46384698546670705,0.042577264384635383,0.3380735117653727,-0.93877343225235743,-0.96569327309992781,-0.89645323478451611,-0.17780582289109279,-0.34833828795158223,0.53655433214109127,-0.91632488272913026,-0.8779930783798886,0.57359224770851069,0.23967459576189265,0.38018078747213857,0.4216781549256659,-0.69292884724816717,0.22364835032431799,-0.16614700535598537,0.86292002995634454,0.36568408616151848,0.21547899405261456,0.59742317562802838,0.41570852110893863,-0.060336454799555454,0.78370912875221532,0.39905299171761283,-0.079977240916330947,-0.746256246578999,-0.18932754881183037,0.70700232857233025,-0.18091257623439308,-0.956392177360315,0.560892724227576,-0.84706198416979139,0.089428902645329433,0.29136537215270353,-0.42140258030099914,-0.79846946652907391,0.70336569133371385,0.26410172146936028,-0.50283669377809237,0.74255036410994379,-0.34527069439425634,0.19329720558286515,-0.98022847714844552,0.27894053853998918,0.083770020438251089,0.39436031058168053,-0.82059712932472917,0.28040073126573151,0.77397829935605555,0.21960102590713698,0.364374105056922,0.11197449644653802,0.49000036227051186,-0.45969242717125103,-0.098665300336976208,-0.2720636694096325,-0.66996357528025452,-0.87609889259380236,0.42988158270245491,-0.47109262201520269,0.60112966205977358,0.66201196269225882,0.94669168533137615,-0.28040664237011531,-0.45189806094947182,0.84465601287999,0.85154983301253517,0.40156457265911838,-0.047577274054092018,-0.44517815925422038,0.54339645967976957,0.40148770781303184,-0.31872005356416111,0.13300147938216175,0.49995469604616738,0.36264815012116364,-0.13792273362070448,0.30250926609267914,-0.991259045894844,-0.79223355967189812,-0.36484583251403918,0.0051306956471552584,-0.24371200345629454,0.25821188430218578,-0.78888892698515622,0.35376367967285388,-0.46670530339083882,0.54294355611453926,0.38972465618966362,0.51189880376304442,0.86250293248449583,0.82735740664757662,0.10892383852457807,0.75589860452148072,0.536402169864812,0.70074063991230939,0.66213840090769271,-0.9701301697502519,0.81678108629620683,0.75169000064567193,-0.026386708964773783,-0.84125470269529834,-0.52529609786593179,-0.39538953332015758,0.59031745399828883,-0.18343708486456289,-0.76945683535628806,0.63199301791935836,-0.3050229178299303,-0.5181694731666564,0.62234372674596672,0.29464996945795136,0.48335856687433953,0.31337122121517136,-0.16598645000065979,0.96243679382020453,0.91491995794462033,0.63570638309964278,0.80900830999436246,0.047542185544754464,0.587171642848836,-0.12797136890141822,-0.64496574674032892,0.99676479957847153,-0.31868919093100784,-0.10599321737233233,-0.25622492295514088,-0.318133995550747,0.0072993706014470063,0.83249692238517892,0.0737673067831282,-0.83581966386913309,0.56085459215606315,-0.40972912935993128,-0.49443408450783888,0.905574509830016,0.3847502266917146,0.67397918443846483,-0.41195169250106051,-0.31552034863993544,0.59077724515962282,0.19733390360946485,0.025934203539944349,-0.35910533711272541,-0.25328708591558369,0.55325422182365047,-0.67900499500287925,0.64801800374315033,0.91827282678255473,-0.45225619173248122,0.96636242324782651,-0.0375638487923722,-0.34997284009585755,-0.9997384473680232,-0.81655998891990633,0.074511955061234508,0.56524825867509854,-0.34697680796821451,0.68203253517022011,0.43245582954606776,0.20900148768397117,-0.94474866797437362,0.51818520367061027,-0.11451600543899276,0.14836615889722768,0.94997840931172406,-0.82928299383692583,0.14090459101875527,0.74380943912258812,0.56046625997892874,0.57820967239244359,0.607820795666343,0.074730780476113215,0.36299144400422995,-0.76281132444870259,0.025772668898931084,-0.23712550626933832,0.86785743425966122,0.85398037771414048,-0.72906456176613665,0.19795621149146753,0.31147460141753525,-0.4999043501447441,-0.89647719119511415,0.58432531709984192,0.54858457974557973,0.36491430381541806,-0.40469680000315272,-0.37752754910733904,0.27046056849437794,-0.61434336314645754,0.512150769826095,0.94040131147038253,-0.50524485041631606,-0.3708039924366418,-0.93806782175696823,-0.22101957640658113,0.51550577511801654,0.58778997538042721,0.30349997631437142,-0.93101684559649645,-0.36944976978444016,-0.80703940512940264,0.62797795917278987,0.064652919333732184,0.60348652936680547,-0.42191193132750315,-0.75829466979871252,0.21262558326713069,0.90998469708021013,0.82689674795926393,-0.95578283954215371,-0.61686078674013767,-0.51092882059092115,0.20348806781856718,0.72194693550558153,0.83784436520088668,0.75967432128250334,-0.79129114877027051,0.9857027688928427,0.32910818715072621,0.29528035516630874,-0.55640398317780526,-0.62952500797320388,-0.4295335572350461,-0.64080773603208718,0.84745009003554006,-0.91569243414126911,0.080621772483280757,-0.59102192921145913,-0.78289545131050775,0.31464359551418741,0.83617358786807094,0.87479167099799571,-0.27869907360463358,0.24592414416648639,-0.53302965850244721,0.2137100166705018,-0.24126356152876446,-0.86803082137742582,-0.86762263247166882,0.74755251954661339,0.91045574467184753,-0.77264267195604863,-0.61217895225257568,0.49731697863774232,0.71324612466303916,0.863681588258446,0.67246959156937414,0.97650988119491833,0.35064011456009003,-0.90394710791481059,0.23236633801477324,0.53602788948269,-0.54697175582264168,0.15320936737265875,-0.076984143851783191,-0.442269132212861,0.70333936284451715,-0.60293369395794982,0.21075109541916806,0.28186159268108268,-0.68303894003994714,0.19511140472959326,-0.39972606925281046,-0.16731396930632833,-0.166589489284246,-0.040788886621961784,-0.42433553115666633,-0.49283124762253427,-0.11686149803775432,0.5301908368851016,0.2119920250084214,0.76929203968927828,-0.23354187199545179,-0.17487694191507852,0.1789572225785615,0.36225912038342056,0.45362287035846283,0.5661386985174095,0.5373388019098615,-0.18431636327147313,0.90859490395923836,0.77093291271987041,-0.15880404140744547,-0.030277281082364396,-0.096614762254345579,-0.06642270230987235,0.267438241405151,-0.70150565621513206,0.63035592093614667,0.62367678229868262,-0.16061676999582758,-0.28041542241369161,-0.93276148519141666,-0.67851529907366037,0.93223618247184725,-0.64066673612253122,-0.0042838761602918968,0.62767517502777048,0.78886166391375556,0.35484915522618643,0.37879149493705083,0.98640881943814862,-0.72680297853741938,0.28557279486468656,-0.28894377047612507,0.20236245645320158,-0.055132452889872924,0.050861273915907959,-0.413421299966714,0.84920205308552932,0.63161566370707733,-0.2727282993834132,0.78426141980302588,0.01786697982711111,-0.11791633866630324,0.33438269949256566,0.32660905286977487,-0.61186579829634435,0.097881568175685385,0.646560829899535,0.20220505548743767,-0.14494233398928416,0.45775041377998443,0.38291980995932584,0.267851519057458,-0.10473400266130176,0.13812644832680301,0.29179524550763669,0.69718416067640487,-0.96976764684997852,-0.32224128456890644,-0.59011501799808586,0.10851163561852259,-0.52927154094412532,0.58179327174173356,0.726422948169719,-0.75100827438338114,0.46882113556788357,0.451448842627671,0.97875147824117514,-0.24545062950134772,-0.68087392937432689,0.078616350925814524,0.50490097119701138,0.4084706275763319,0.49352014925960458,0.55661870891070864,0.27041193622649273,-0.38036892441118553,0.38083021174223636,-0.25551460136450577,-0.22883153438048043,-0.076947710512647274,0.64028428524745828,0.21500182860298167,0.33095147569242467,0.571155449175814,-0.852981909575398,-0.6559734170585747,-0.026977065963194269,0.054434065732375747,0.9463959522295724,-0.36663681472029391,-0.33041623529531816,0.98613689606363741,-0.28076279688662048,-0.40255624028041781,-0.743960676129889,-0.97841063932441674,0.23759796947128975,0.302805854614268,0.42778426009592796,0.49851400428382403,0.97681919158288244,-0.69514638124739114,-0.20938429199596134,-0.012371851137081093,-0.8439813111182215,-0.081657277923849081,0.041057740357265685,-0.88728282315995677,0.89544071997303554,0.3499007273232102,-0.51124146837333284,0.22633169322569469,-0.13658847153959258,-0.037971368542859034,-0.86261564114252831,-0.45870119214928762,0.25381378748166084,0.20162911582814022,0.50773360231320075,-0.39407913451738613,-0.39972807439031455,-0.23635479027235637,0.13574012142407713,-0.23212163393950167,0.97363446931058284,0.727882635187303,0.427906376043291,-0.068480972232521031,-0.35999464632943023,0.018824353822890834,0.066828217854177682,-0.35279307484291172,0.91032795697000246,-0.2226899551333347,-0.69687028727348443,-0.92967069937366564,-0.217459267572248,-0.51912347577471452,0.25446455751287961,0.49984438880339471,0.1506724088223057,0.19242530418207185,0.7032280753847342,0.74068247281978017,0.718433401881919,-0.384095249410763,0.81189971687826312,0.10913499263540609,0.834354449452066,-0.46460357004059644,0.2792169415760864,0.64222827909618074,0.93573085355373609,-0.59878659043404581,0.060538978344080494,0.23153528628476677,-0.55971748221652462,-0.67591784041184833,-0.65388677346235458,-0.70964252516145,0.17238595624099762,0.53570996436090668,-0.75909767800900041,0.25281693239361835,0.064802524198220357,-0.489739494626289,-0.3867965961744993,-0.355464633254085,-0.056644523077013217,-0.061483234661390648,-0.043668743708948021,0.61361235501878542,0.4840939857457271,-0.88845424907675674,0.89157104487138383,-0.89952922328353357,-0.11384166456472206,0.050285736122301659,0.44226830333576922,-0.071343863881818889,0.41034905352180312,-0.1891663350114442,0.25464753352787695,-0.12179788393983519,0.02867814573863435,-0.31131089260397055,0.29409575196639437,0.22420387911806064,0.93492626675168344,0.49714702949726353,0.59304471900362743,-0.758399337417632,-0.066178255745292763,-0.31713870322198545,0.22688696031779376,-0.73042583778986048,0.29063989840943361,-0.6297130359475096,0.29754727859867142,0.719398840199876,0.75370288535659336,-0.39907879214690944,0.42986868435045178,-0.18467971085788668,-0.97252706809552714,0.79575205305393415,-0.16384023435592662,0.86118716646972449,0.19041687072739791,-0.028653243569961396,0.48341621527607376,-0.055657825458635492,0.7727978614963581,0.0012631127616684478,-0.039867399744627718,-0.38812506403221053,0.84226475043327764,0.12989402335597855,-0.42598120236116516,-0.89375426289334625,0.8262843209441213,0.21753858086538436,0.82903426039453332,-0.23181702486789646,-0.74606418271831432,-0.90443566483652016,-0.49012761213356981,0.20012285197159407,0.55025163784169207,0.61554948408880716,-0.606363099350763,0.404393829127957,-0.97648832945920916,-0.038339962269337828,0.057852931813268428,0.15930785665256336,0.97178912487429991,0.41739918078174776,-0.7141936541135393,0.57485757189563358,0.683836608512251,0.94078022006004125,0.22491567871762239,-0.92601779891458236,-0.61348511027800157,-0.43688361786160784,-0.75450250774365968,-0.85218894428209813,-0.4684836452214437,-0.885785237367165,0.81148116281790716,0.045040011426918214,-0.88511612028121767,0.46021476595672534,0.05831615769225925,-0.10777699626413034,0.42032938796110886,0.83037844245805337,-0.55705508801948977,-0.61826004582376226,0.45358884309119957,0.73674716182832944,0.43716829290481668,0.065862371151271443,-0.71791225565500194,-0.14205509570522937,-0.30759902126509653,0.11149557359120603,-0.85333015809456358,-0.110327302529629,-0.49590640724445989,-0.30823325426701143,-0.20014637671417854,-0.010464854543313782,-0.5491607694649886,-0.77139392484510039,0.75610281050023753,-0.99583877529755183,-0.14483759093323612,-0.43484397904707306,0.018208414790317609,0.20211415654146772,0.44752901533969164,-0.049268357944334096,-0.58107717408848791,-0.85466277173471761,-0.29862310378748136,-0.524460749013564,0.36355729604305576,-0.549783182120781,-0.718048759604827,0.043089143486269348,-0.31755624307205726,-0.58372798728930209,0.1295911782093305,0.65741426481744936,0.63392396906107851,0.12263647798571571,-0.80387723017664492,-0.57637198389338884,0.030747880707843175,0.48085258597547775,-0.28953324271809927,-0.7609101351168519,0.34095733209557705,-0.77613331646478423,-0.74532727047117764,-0.43855374652825,0.824875709519198,-0.65180974670304437,0.18421821118528872,0.16530825624489609,-0.37071232188991843,-0.85436317085025981,0.35477867506201316,-0.64372022619644187,-0.13647417870186,-0.32640417354479628,0.523080025111828,-0.28418299848408579,-0.32161172168404412,0.1012236080603784,-0.1956716446185818,0.81289243503142727,-0.515171049868302,-0.80306584471979447,-0.68705751778886537,-0.24798196705429906,0.5502571638441911,0.15032186086770233,-0.42874361408350226,-0.92390898239049546,0.904521092728023,0.29551724963612724,-0.75128775124963731,-0.49119577859118385,0.3442149168551969,0.043395436854751515,0.50586380972800027,-0.41360056838654008,-0.48355063120068548,-0.82972725752262733,-0.093453350054776924,0.33763251376228059,0.86960103682689416,0.45222617567154866,-0.37173309986094621,0.60570584405479289,0.3811313474462979,-0.67682876655684265,-0.92990558684333491,-0.80494429301700754,0.61716489569152,-0.83126439798216545,-0.16796938849984175,0.91779665319146431,-0.45797980458381576,-0.5095395452853011,0.58628457020329527,-0.35098478726622873,-0.41381077115135767,0.75814322976309023,0.98384423134096166,-0.93108764892960327,-0.011654444509956261,0.49804653390219739,0.90712963040318784,-0.21538389856712142,0.49318683356660736,0.62925310508778931,-0.63697651337691419,0.757139964847425,-0.98494705743386735,-0.19351984755765639,-0.78155327671279817,0.31931532375482624,-0.30580068347314404,0.030417588553585853,0.4270049386783526,0.095256411514830039,0.56915744699964177,-0.058042784714159919,-0.87075755180360637,-0.0591691364809727,-0.78964847689012463,0.63742565393328,0.048237876523396873,-0.79930366799202923,-0.61326793144143554,-0.86359698319043821,0.64617627889205531,0.27156881814429945,0.8184802191418038,0.54327765551548346,0.93895462012801068,0.87139752408089,0.65537020315200567,0.024050807125890073,0.20989249982400449,0.63003939931748409,0.42675827230641539,0.57705224751357564,-0.8376677026216256,0.65540248931171485,0.44124491719587006,-0.94622975911303875,0.092803269202263686,-0.13129249034975304,0.50657348498076826,-0.21169362646140794,-0.52544065868735346,-0.54965297577420857,-0.33973955844516845,-0.18028775238445391,0.73372572601480679,0.93598298678918879,0.62730687932451579,0.071158550247158184,0.98733467701232747,-0.698893385333425,0.13900367875537076,-0.22533612801941863,0.70965644889960833,-0.44398331197164176,-0.72049184549622791,0.35226072527107816,0.51527249278280529,-0.39078808454367708,-0.15525927588122862,0.23067663574157127,-0.30336961583391281,0.81429842431764043,-0.94855911515120372,-0.542351780711837,-0.52618103871409827,0.017435845461411331,0.82258831142568412,0.93734770498114994,-0.1672519632462654,0.42410581997786917,-0.6566557607877328,0.475961695181188,-0.58820873246910454,-0.37102931941441697,-0.55658015541573058,0.7860047513553895,0.47047598821598852,0.031453235089524294,0.18095508086539575,0.10585340303641437,-0.15938708333270024,0.5318495754766509,0.0018444391907399703,0.8658224916392111,0.61634031059981342,0.866918217794466,0.019184158658228888,-0.080372869074518266,-0.98298725345311089,0.9125667269865827,-0.68889862750139952,-0.58885487382712531,-0.40402371175774549,0.33494487280722,-0.84541754044844653,-0.34923207263892148,0.389387054550176,-0.478613611067931,0.59040756271705386,-0.71260100217191547,0.38174969208508253],"Bias":0.45727855314373905,"Output":0.0,"Threshold":-0.69597922437637072,"Type":"GT"},{"Weight":[0.52486053971800051,0.88149188639665577,-0.69706747666796087,-0.81199394157714855,0.96082987448239232,-0.70969340890166044,0.1264396706253475,-0.21189499144064961,-0.792984176796388,-0.51136885840043833,-0.27063176374446218,0.11406233027300906,-0.59070491492315425,0.38725198078306949,0.31923723934182768,0.011454363824545575,-0.31912251809571057,-0.94853060736718153,0.97923166955785435,-0.56022549819211731,0.63069735310538544,0.81354744351168506,0.64841406915728661,-0.8190586421727476,-0.82947387678058537,-0.93964342537319445,0.18461036597593239,-0.855354169316289,-0.76373771660203937,0.25963584252616195,0.69385011712734124,-0.085629232267676492,0.67919980253987,0.72353438787326885,0.57992268473837649,0.025867266126846554,-0.79882183754761793,-0.79352957000654634,-0.43125939715246642,-0.073851321858284677,-0.21843029848226825,0.041723981984762466,0.016627599958622643,0.7082652834748222,0.42268360938070509,0.69340710933013217,0.73544094047296837,0.5742798576011694,0.89889135067299542,0.10875964216364531,0.82421626887480559,-0.604225025327981,-0.350783490273535,0.29940937985638594,0.95231365829348269,-0.8487943019013825,-0.085375173522799816,-0.44114823753067678,-0.89907210082703837,0.98793124919195252,-0.10855247597608365,0.42571828254764821,-0.061343056178345838,0.062466453324289274,-0.6689590260707583,0.38721983013079492,-0.2173432434058484,-0.21873798930027427,0.598879245388731,0.59180299266791114,0.61381376656415587,0.62096563150219886,-0.81968260641195,0.73463000065397011,-0.45949872464849556,0.79082916946654636,-0.8210573451691574,0.72304383373029713,0.54493846769674614,-0.013380655093761466,-0.079269578251647571,0.27241245623324645,-0.18202315838170385,0.22029158762669732,-0.99794359505080787,0.8918666010218983,-0.55123975665831926,-0.15216288955517249,0.52928946657538856,0.091763170013093934,0.4712320912961066,0.43867615071995003,0.31279913024641531,0.80121345762219909,0.51921117842160691,0.70283508054112787,-0.95361961561889375,-0.79562199013103818,0.494481344937571,0.67141746248650247,0.035480690670889194,-0.52081576107107841,0.19166741016864192,0.20460884468844573,-0.19062009648914455,0.14467170422182962,-0.6010160788898431,0.67368930702735175,0.96255835376799026,0.53588622833410571,-0.425310041487827,-0.323908982949289,0.4905396087516749,-0.97845221449548947,0.3174176906782285,0.84717732986769512,-0.90086019919293947,0.77009008720987016,-0.022891336131324682,-0.39375760471157617,-0.4267623840955842,-0.68394016087238685,0.40010511428122647,0.30508391759595083,-0.7731922873171011,0.25002090830822515,-0.23639404458757213,0.16784906581409698,-0.56760085633378521,-0.77558442660401783,-0.88030512485667367,-0.39059997368166222,-0.53420782905733577,-0.0718006068243648,-0.437719790003132,0.51267114491791987,-0.29322983664145219,-0.12388954550208968,-0.661791169392779,0.053061662266525284,-0.68068268694015344,-0.33116587499676547,-0.68956271917073186,0.52061514906613859,-0.330754996897073,0.012121395679247284,-0.39696768876023947,-0.57373666603757845,-0.7025958195806461,-0.60361819043924014,-0.65837366769945882,0.30808994840275961,-0.74738836416387389,-0.51426406694309046,0.99687598738673888,-0.027958191012944184,-0.014587322256801334,0.52521811869238411,-0.76908480737781371,-0.56147374983945575,-0.86704736150198025,-0.77165701928160013,0.081845659335072,-0.3930385496434935,0.508107771402275,-0.62951842864487251,-0.58246477301347288,-0.10199166652839242,0.92455252768683827,-0.30996981743256086,-0.52541935934006212,-0.783218678917372,0.052382535791202695,-0.94065502935119671,0.66263868038665441,-0.55742689434319126,-0.8714299420227436,-0.14539524221112729,0.43101488213567757,-0.59737957296770983,-0.066976120260998667,-0.64644183574544356,0.20621638894370589,0.79905311986759919,-0.913227425847774,-0.72311012108023753,-0.023271974652666588,0.96910504343412118,-0.50848726160288193,-0.30499652740778238,-0.61677376395872507,0.44273435717575921,-0.23995094943789344,-0.35745753550783615,0.89522381634229042,0.046995903387198182,-0.054561069726273913,-0.16257192900524098,0.71962370617297655,-0.28880379036478876,0.831550382930576,0.46852117053629883,-0.20296389619026514,0.34608205284275212,0.13998874423093569,-0.858180465576323,-0.64571435779599207,-0.57318580689522713,-0.96615667220491763,0.9595471941677608,-0.44161317797452826,-0.07874444736109322,0.00021142978231023521,0.062583094957556151,0.16935377156797507,0.7813581134105837,-0.98783304960831675,0.61969177360632077,0.54276878272312168,0.37906985794150727,0.91408234830670165,-0.33338224111748033,0.8771434737728645,0.3281272846870717,-0.54682443968338168,0.15037165775446765,-0.62417334114395706,0.81169864433431,-0.88794231828671988,-0.61521991743483573,-0.377699634701805,-0.37015046988155248,0.86305530921698326,0.16654499255425528,0.52644564282449224,-0.51291738427845635,-0.68533822367216379,0.031969639487550425,0.99229989340170277,-0.30076001272572206,-0.42114119391010196,-0.35643728839067618,-0.70220505572026826,0.30059338514720713,-0.23998606076463408,-0.762144680024192,0.21208309252377744,-0.42196858507672724,-0.4478028241767561,0.38775508449774004,0.7260728686703708,0.38197801047096869,-0.5939683777252065,-0.96987740088714169,-0.31078216308298623,-0.51356835500969011,0.98985767131199021,-0.032554223682989471,-0.086383036378018113,0.58520697503593144,0.63282035413795168,-0.35404359193241391,-0.16095412856012309,0.926770569722527,0.73791038931250119,0.17585705973946353,-0.44017896914862981,0.3815206998873133,0.77218143119112659,0.4684996318391057,0.15626508796413666,-0.33429908395479391,0.60025517018523777,0.26229342737341926,-0.89282021666542632,-0.38487898715998931,0.46076323532534913,-0.31090938034975407,0.38005404005760979,-0.46277150253894345,-0.084747425785636266,0.72638397744222727,0.012181700678626867,0.61982929549172017,-0.12610564898983839,-0.45135876184858326,0.83918282847813463,0.58064773240156831,-0.18716466156168127,-0.81236694744432669,-0.99847285821962772,0.8671435666583216,-0.17582862878955372,0.48556644771507312,-0.046120897888262243,0.30698952186246847,-0.26994015475266619,0.60593963442646881,0.1099150409502513,-0.039765599667916818,0.082307119892121819,0.57835109465678736,-0.7470696301884342,0.30093753538138118,0.070194531730466775,-0.017444461592214397,-0.15698894539707756,0.33472923391253184,-0.34277005090507218,0.57424591834388949,0.08167222425419475,0.58670649518571161,0.038521139900442744,0.083731224333742277,0.28858028039735756,0.68660629479522184,0.26233069191795338,-0.37651059328415926,-0.64396273141911375,-0.79241236708704954,0.73479916049856653,0.719142173286128,-0.15946711514120321,-0.64583659295264473,0.80056830579441429,0.60358141949567079,-0.0099786184774612163,-0.95134427396177512,0.0427595391137337,-0.50878841500207239,0.94747638373983856,-0.2776630401041652,-0.82778174980905916,-0.8156270565537862,0.62744319607850318,-0.21847086829062126,-0.39448961307969393,-0.24164584430011263,-0.11135041718899758,0.78972695711521756,0.0026966305462162153,0.90331698297677421,0.030714842505154591,-0.59296150626286936,-0.82800617526658171,-0.32624728480644866,0.811045596753734,-0.19714463697613432,-0.641660087109385,0.70395110347492207,-0.41340471683694269,0.63854316931150068,0.52503516642611248,0.52852344770381388,0.82167475056912509,0.14046411222799873,0.83943006528514907,-0.09583977614335705,0.69373526363341853,-0.4051834272244868,0.82154283058901445,0.54963232090213909,-0.63947512518590088,0.21189044239553179,-0.23248026065178229,0.52068900993125933,-0.35102253842680831,0.39608464967277118,-0.17920168963223773,-0.020039079254511316,-0.23506978630790013,-0.37733534647959066,-0.98423195163916422,-0.17537564373359812,-0.59803618425411931,0.44401165025495537,0.8780604763319998,0.92341994770030489,-0.71856577588178483,-0.19537077061616387,0.36875493795087327,0.34787346019776233,-0.26830616698987136,0.636763358785195,-0.30321439881958739,0.95052983516386236,0.7125497151690301,0.82911872948944509,0.23928161302547976,-0.51851518057217594,-0.028289515538275946,-0.10257746842809835,0.65988728015678344,0.95004603730051129,0.1213442311255933,-0.015932757880507391,0.87310031655854559,-0.081314524207876313,0.66473432521556242,0.77070483135557954,-0.70169802880925036,-0.80853214944178808,0.11688327701617185,0.19652157751681357,-0.81064385818813178,-0.55750614430639245,0.61728085652798459,-0.29308049161596245,-0.72533232659349789,0.057888540000602853,0.36231156129497644,0.67332165533365762,0.34540848450055739,-0.75216385990016343,-0.87379944085786088,0.14420071996012737,0.73991649120110858,0.59931570878220519,0.29161174469236834,0.048183871455576212,-0.4150961397286021,-0.90061609256109976,0.041790748034506456,0.4261247960040927,0.40558858048431046,-0.68182766469280587,-0.60167098632160154,0.30956279174870011,-0.70738810194068968,-0.891286457372497,-0.0665836138960829,-0.049147070408401577,0.97028418256448778,0.46802796212398817,0.29504132424250307,0.97699929912434857,-0.13462244027043807,-0.24159231001585363,0.024887315474863777,0.662126758444182,0.48099938662769243,-0.60829206258444679,0.74013107351033536,0.97805110038167387,0.5370780357797994,-0.94019165632323909,0.97459606918254682,-0.77455619246445417,0.97795245562584721,-0.0365751460364904,0.33996034243142248,0.68370195929133426,0.83570418126681079,-0.34730557321911004,0.87242407159527025,-0.751307305298423,-0.44248788451891757,-0.7287597077566943,0.57434887186360961,-0.6485540464746552,0.99973295722144329,-0.23356199321968574,0.70530907702879475,-0.88485373085590724,-0.44219254117561158,0.35725957963488048,0.629887180696189,0.19745983751372426,0.08971861707499186,0.2253917791998907,0.31496713325146919,0.75347603799471452,0.071813782710495308,0.74450921721035113,-0.10966506931449523,0.65810633341693614,0.863376926101454,-0.064273733209946074,-0.42192277378492188,-0.054778770103481957,-0.93752413379844468,0.94272971150592422,-0.617091176853092,0.41103859451182123,0.15640643991362604,0.20344442045476494,0.76265933074180936,-0.99304434284243936,0.088651814539289012,0.40010645352308938,-0.045492980184728735,0.18653259388475335,-0.35103077131837179,0.64957941679730058,0.5338463348028466,0.403591845838163,-0.7934254453486882,-0.98022907505753876,0.65039913619421386,0.94563610243873486,0.48822728660340758,-0.46432335184157053,0.27794873447993246,-0.22724201494233776,0.73551932710014256,0.40918067535812996,-0.81167526953466018,0.00020900368700223215,0.86457531613510818,-0.51225619554159052,0.588771545602368,-0.31052148170327837,-0.49965324229544644,0.93271921106275135,0.750571762561133,-0.75620497332709147,0.7251986114891239,-0.3178159093101583,0.79980058725914016,-0.6828506517609817,0.14011621900839555,0.16580418365346464,0.29044667225817528,0.066261624482582146,-0.17948079164115749,0.39928390709649952,0.37793287559316163,0.24469127470845881,-0.58961991900094779,0.70676673888543939,0.99924246594274535,-0.38200432592164929,-0.90146465036154944,-0.025889448367939074,0.93091966487975775,0.87359960743859388,-0.29907967350402831,-0.10961672389396314,-0.34391090010474945,0.16633242003914547,-0.25924590195494046,-0.40348874377249216,-0.32990121251433213,-0.82052986781137527,-0.32195235850380377,0.5557316604795548,0.27334587381842818,-0.4198266283701298,-0.13499900239286897,-0.97471206075265637,0.62661433761316088,-0.61377020627901435,0.43322927292121077,-0.36938913742517548,-0.58628643564241312,-0.63460130274044413,0.84121183950510425,0.69319530608746938,0.24078373575619597,0.67643299497497877,0.39018806414221791,0.92307927781859378,-0.29912576372694494,0.61111682961281244,0.67336047285858569,-0.93676921489498077,-0.4596327098364163,-0.22053511870118561,-0.7742591336249649,0.010513609280117606,0.71834702497271219,-0.44300901631033468,-0.70470240372452064,-0.95104448820978615,0.037214137631102526,-0.25506000372351145,-0.48303698118917504,0.68954067616236425,-0.89815071034159077,-0.025497603707712889,0.90370437405244652,0.61138530150586057,-0.23615384252562832,0.69564243857545893,-0.63908216386990724,-0.83695399241380108,0.92774783444020326,0.095381462990949614,0.55358498010485668,0.88691355469027233,-0.13029879151391741,0.53145609215435385,0.35871298069074425,-0.70140394275142059,0.39706300357219904,0.53986520345316513,0.053367772630121456,0.91137563479662664,-0.92439879194106855,-0.91287545855756635,-0.70481407349222058,0.77464642737742817,-0.97165950991756256,0.26898972423234474,0.065602109798044955,-0.0764353610931129,-0.135240693173949,0.22158720168358981,0.26926281548536513,-0.61380047053741316,-0.74875643604842779,-0.35754515619834193,-0.71531418883954834,-0.10855058678824016,-0.94997735132927885,-0.93000517875422029,0.86117451817783275,0.19385517816704473,0.42274181098804892,-0.89308746060965927,-0.47104193199008793,0.23304702724937676,-0.51407941641010313,0.61686419258679459,-0.43704041439902058,-0.648365301847628,-0.85669509454476422,-0.50578558887624447,0.83889117224090326,0.0667205564988407,0.98459105751690967,0.67170664373399069,0.90513152671285513,0.262926215428359,-0.93297317388140277,0.28357432469892052,-0.85355087036897936,0.0250802543131077,0.16394627427866043,-0.534487969956588,-0.46798491406626297,0.83207980395857239,0.52938804381032845,-0.22639432047791513,0.12658594088935571,0.09497129083376904,-0.68270079031712416,-0.28098027886868465,-0.40801330395416047,0.65679477139226849,-0.15283825441861443,-0.99356624670027116,-0.92148517441073674,0.3242095905934505,0.391673017941263,-0.14387449768552302,0.191591071054149,0.41882548919824208,0.16778970191617948,-0.35846072032975995,0.76695162559251839,-0.37628322251899315,0.19275344777514852,0.83714067835227612,0.067248855283134082,0.26102318440611622,-0.13882408670094987,-0.1467114645739605,0.18844491950629508,-0.82343267780888485,0.42803512719833997,-0.052748227982198928,-0.74215990851733826,0.505071698923163,-0.58745156814691213,-0.30338272419915663,0.9867375427795283,-0.75378184474715115,0.73771180665945257,-0.9565622280149545,-0.29138315482595151,0.44121710510981133,-0.57572591610985158,-0.904448227446735,-0.62045937293230524,-0.61413497180404841,0.10335611370548425,-0.72485168172272463,-0.76575674152269813,-0.30477885916120318,0.081839855798445577,0.25982224487691291,0.250525103998615,0.83201046838984383,0.25997265486976723,-0.61627807822836478,-0.72620190015351493,0.10948105580614929,-0.27671125497515836,-0.7141109242635364,-0.14725074923934917,0.29507057987855306,0.86426541575429283,-0.37786839873430711,0.77905628074847921,0.56857654339101937,0.64184861986052644,-0.25273376389068258,0.21711353269271252,0.58724008574487641,-0.49311601812630707,0.91786391656746336,-0.44855752608206007,0.75882367359419522,0.84811545389150989,0.77231201053239029,0.37233545788206879,0.99380372184971522,0.62654014566286476,-0.7245830519705001,0.4019302732320178,0.85585984348126676,0.24380163626922372,0.599968820624039,0.23612529422907405,-0.73398581693600207,0.627742952493831,0.92391740387488031,-0.409371210918469,-0.074058437754427289,0.059533476857251244,-0.18102557919035925,-0.9324465687072121,0.27892996663177849,-0.821704035076175,-0.74323228362166893,-0.1277855854145184,0.39399697091150887,-0.41367225973572219,-0.56427955700283849,0.772348710695444,-0.37837176135665351,-0.039766515158008095,-0.92303075079015962,-0.96382803328513544,-0.34523351739404423,-0.6631478432859983,0.37263447668991728,0.62184385611761539,-0.62276750692295257,0.6860826870827389,0.088990108151449879,-0.99647634289994669,-0.29655703217562152,-0.52418670920850086,-0.46404638628663791,0.92270982960365244,-0.71959917373936588,-0.384999581791926,0.965537433496461,0.0947720893168692,0.79027514941537524,0.1528955181841252,0.81675940836628869,0.78243765550779065,0.068402726700717,-0.739882334014346,0.79746218528480373,0.75913942221512065,0.11193048446994763,-0.051412360766628924,0.92996506855355809,-0.65203868954071709,-0.21684092945272146,-0.51303599379632436,0.25355934829151228,-0.88501846133033668,0.13122670684532575,-0.055590488508153006,-0.5851007404667794,-0.43731915691742634,0.69023316478833241,0.16526809435583098,0.30683903596682427],"Bias":0.793051380102081,"Output":0.0,"Threshold":-0.79311610096745011,"Type":"A"},{"Weight":[-0.96068826735051738,0.5330648149983328,-0.89481312031616134,0.053580269708102694,0.38684059511257363,0.38211442408250385,0.50187869253655837,0.67809790357858779,0.20705405399531782,-0.8708925842637627,0.055274762238969447,0.34836879295686668,-0.76012676570570414,0.56488911787275653,0.99167311144604953,0.27958289779703266,0.70896600592367631,0.58853683694663306,-0.505225516159658,0.96649137789685813,0.32979087919452732,0.0059542232220779279,-0.019292190214289441,0.26686997584387195,0.22283211779912568,0.37737501476769103,-0.92222351670368741,-0.68934931684720768,0.83148069066530128,0.88428539311712862,-0.49522881931403129,0.86271025932520173,0.46454223267014244,0.912241119384878,0.93064078545693341,0.19636648669669707,0.96966630917492613,-0.04597739411796322,0.71318144291321817,0.63071355625554615,0.89434642432925593,-0.528276550363878,-0.25503684592202158,0.79769637612518685,-0.81958595235812759,0.8736882870428675,-0.60252915490536441,-0.50024373200733385,-0.86800711037032641,-0.22865179378010883,-0.15678492009490025,-0.71544968649533092,0.40888054641377208,-0.88722738385537048,-0.0305188568451064,-0.5283711583020031,-0.252345512272951,0.83925029581377764,-0.77419505118122089,-0.49939188850083943,-0.86449815512844275,0.17335747097309562,0.09924063882755145,0.11771035106746031,-0.37517630093506366,-0.45655028217311494,-0.42652297272650663,0.53431580613102569,-0.2033489594251611,0.97754553192180837,0.53546182091136552,-0.60195089811550029,0.8186130774294087,-0.36982093535821,0.39364436194004693,-0.25312422646820742,-0.7521336002983775,0.49259950383221707,-0.10056908153955316,0.15066255310115523,-0.539425157727406,-0.67162718282622624,-0.90824164213065139,0.74978295143217921,-0.65886886076017692,-0.37308121396837812,0.4987386490678129,-0.506391206992041,0.67782046630877091,-0.76504347229611291,0.20437910370732615,-0.34312728948105464,-0.76553389000032745,-0.70952235381562367,0.78101639346266927,-0.51985079027705394,-0.12771080533401613,-0.058476179399749348,0.079265709537670814,0.54655238592370992,-0.94759941145200255,-0.75047562725398487,0.55073234464541654,0.89298428031289223,-0.68040755888466142,-0.19919308936185812,0.36674966447369645,0.63030140364090981,-0.80732844295321426,0.24632685037624411,0.35719285037237819,-0.1977132215153953,-0.69897963372011651,-0.36811088741203346,-0.84301437197393481,-0.03433955322687493,-0.17201105699502448,0.45425886449136721,-0.95789023579931365,-0.90063039767585251,0.17184307247951769,-0.5593166479651428,-0.4581091610985385,-0.70480615818165526,-0.51256362093266272,0.57767764552388234,0.34376330736268468,-0.39470502286902864,0.19337809886475005,-0.47583430422275991,0.38919164631012437,0.0076286769507586385,-0.34465468784079639,-0.20999458162579432,0.29454541266641832,0.87316905887479379,-0.31963404282910474,-0.67157121685872379,0.95074209661723208,0.54345744920124184,0.5967192331313711,0.84331000356157781,-0.543707472991062,-0.74396700120715753,-0.61844057618567749,-0.61990968446243078,0.69247904731541832,0.61903970996804525,-0.8512506279401717,-0.05736746455420156,-0.9278505700304408,0.0843611155098123,0.354247825850848,-0.53936722620360888,0.031566879726744664,-0.48679857025239548,0.20545156775296272,-0.65248772020101908,-0.693800652257074,-0.015314967378654967,0.36749577958485846,-0.73516348923331287,0.19710393585129823,0.94653604409961778,-0.61905578413002926,0.64706291754127621,-0.73832360456619583,-0.63328391203344048,-0.90484324372599056,0.26134966139744487,0.63597105799055242,0.43730608068281135,-0.52991962736934406,0.0035296510921463608,-0.99893572414244325,-0.940931764403792,0.98497924021677075,-0.979150600721664,0.616038603529352,0.49844606476763548,0.99212651000922847,0.4866120291345809,0.24932855984630462,-0.65936342517815694,-0.2814159101254381,0.495144043348331,-0.13068152830502089,0.53334534565608271,-0.30381554053342691,0.74790758767533472,-0.66065818893753836,-0.6692748743431991,-0.095907035794065815,0.96546864880503558,-0.21766046817305521,-0.62947853683935406,0.6493139381750086,0.61291840887298732,-0.15168715880796646,0.47272053895179206,0.56285922953992118,0.49636331503110159,-0.72390837954539267,0.32853790993268506,-0.35470571525148381,0.88291340828077558,0.058626312789798858,0.029401796883624882,-0.20188175337476738,-0.89882104373482108,0.57088203242555358,0.7909800306851883,-0.77749204299295882,0.89672671113942126,0.79735163962345179,0.57750943283434464,0.54039385148342411,0.412022051593299,-0.6723935039119765,0.676094981690913,-0.8593055693708852,0.4955668284071455,-0.56364155493846235,-0.03968303047105811,0.54188787869265664,-0.56293267689781856,-0.54375695741910346,0.42268691371320138,0.20390912154871463,-0.81447310131717154,0.49816440394994077,0.77735755209687984,-0.67244457624500831,-0.062530361610711724,-0.11154273204111621,-0.15097618715417394,-0.41051368620736228,-0.20217951117184921,0.31352405311238207,0.27121939196773776,0.35715166961641592,-0.017503974036082615,0.20559823848567821,-0.31748058196039897,0.33165172782337837,-0.46185991515492086,-0.26283662871589725,-0.20285151675476298,0.6134019049878241,0.29526188284869392,0.96402396213450658,-0.01420642249947713,-0.638572530652663,-0.65456480470232892,-0.20905594723720847,-0.44024429490801148,-0.39028297615716373,0.96992200984150267,0.75164208316786307,-0.38057656138230889,0.70419528694087419,-0.97263594342984072,-0.90177284502506849,-0.86173539462580129,-0.99495360627535434,-0.56672067035302554,0.52801168874279214,0.78691375711323408,0.75677113409935082,0.3692303911639519,0.85786613722232452,-0.920102445837158,-0.21800940866489402,-0.62060815962991123,-0.3790992923914917,0.33851742899907633,-0.52881546715684957,-0.837770399096315,0.76275941578799833,-0.27648227348759874,0.57662525893031868,-0.35099822811363185,-0.67584366801932627,0.85262386121443656,-0.27662162495619691,0.970415713251762,0.40032423911631304,0.30214749709803029,0.013269522699187287,0.23527961980331671,0.5194768917371877,0.6823930915828762,0.77350257000583345,-0.87531655741637415,0.8914833068342336,-0.8589968946105786,0.56276658203581653,-0.19061232599923961,0.620530519457781,-0.41324372143170041,0.22860050398325571,-0.9226796216902694,-0.50524895615188825,0.44352303559124612,-0.83310075143030882,0.017382470898973976,-0.32563777422794971,0.97901058754837633,0.91067932914508476,0.32353337822646527,-0.16079571291841366,0.76954596339238157,0.48916880483234709,0.34962664560863127,-0.422726650453511,-0.11213601991168037,-0.47030483254711369,0.59194797584412062,0.73975452628906557,-0.014039980719815931,0.27935036005422026,0.55966268878414416,0.73887929261609875,-0.87021596584013472,-0.89173232433001148,0.35411438734927886,-0.49953311937839406,0.021101425411692552,-0.19003292601091457,0.54176478811621886,0.076497555745997259,0.49274984025058793,0.99296783981517323,-0.40890602926207054,-0.86398581781610184,-0.17443658466191803,0.81766931052211178,-0.67361991231963969,0.90019773221583932,0.78148056882502537,-0.90434600734354276,-0.63784900290791369,-0.68323939325438787,-0.690669905715934,0.032281056061517939,-0.369865076322977,-0.10969471051809132,-0.27088081290520766,0.46709022646168724,0.79341160729220672,0.57088000353932378,-0.24284697055949223,-0.10198463038633793,0.97115191769374154,0.78665353673820082,-0.86854235076743291,-0.62083919142411981,0.82634097562466791,-0.27609270544540726,0.11250757757225427,-0.13650954008871202,-0.23997423669322127,0.049247508891507752,0.14952511999268323,-0.70527419667005264,-0.7338654197444513,0.18975490899279476,-0.938502768491629,-0.99994688667354492,0.0443208050189171,-0.35216287400208546,-0.22337784675107236,-0.95466554209341559,-0.71659557461580059,-0.45701202212693731,-0.089315946255492024,-0.65140814038524786,-0.77519030672274081,-0.35798643639217431,-0.42337223022401904,-0.94536943684582109,-0.81810391313308106,0.0862803594611028,0.017111500733118273,0.093879247593637208,-0.83375681183941519,0.30212359982641579,0.31749017411726072,-0.175496799021725,0.086112382861837922,-0.12040624400619708,-0.077304290643569223,0.21889531436324833,-0.48487387387308939,0.094590415290831786,0.94839889786597287,0.74185703356836785,0.64297539957006244,0.34918788277971924,-0.12585491739486107,0.14588716586394568,0.983433446839188,0.60342030255283241,-0.8185222217899385,0.8062683850556,-0.99650855874480149,0.11595666274240085,0.1445765677581432,0.35953131427966584,-0.25954696175621217,0.24738646263600628,-0.65646805411971554,-0.57155674350054786,0.36900640808465257,-0.88118734158630829,-0.62002986139619254,0.90198404244239627,-0.74036167643049811,-0.088778978720670088,-0.66467677972497263,-0.7946973763381584,-0.25972796476433424,0.769988851980301,-0.68192117832690535,0.63476142549643355,0.55579595479918453,0.48538860887539975,-0.97501874294831359,0.30906905108553778,0.36549963725986873,-0.609446096517819,-0.24605805764256886,0.18594270115063652,-0.42816343411252061,0.79676171149907715,-0.78437803256529293,-0.88533005113030316,0.67836338499484738,-0.69138718614884986,0.55739298488823374,-0.35395779244320363,-0.88802418107540537,0.8463669502392257,-0.94517261951471332,0.88868843432920441,-0.845800087715406,-0.77474827262328394,-0.6309967132429577,0.11157041700164341,-0.10267515159336624,-0.19008798719853534,0.4079719341397155,-0.9854403557188065,-0.91385100079414017,-0.97443077106700782,0.50338482880191171,-0.098658625082419543,-0.21358353933951982,-0.40771243414269409,-0.5577385297779639,-0.620774710839975,-0.36356105113567833,-0.14390734124179341,0.44453513177322929,-0.38810743875247772,0.77818757099015057,-0.26517504978234652,0.76321733499095656,-0.75630082830614453,0.12592859758340222,-0.906997808677609,0.27475911531353331,0.042204832677824808,-0.33406874366759731,-0.88355190860272936,0.091248326977364874,0.29788395496918074,-0.58326681078563758,-0.066110641726344191,0.50114665529744074,-0.891977418629442,0.078177018127486578,0.307073183966369,0.67604379992747854,-0.6489769800794204,-0.6888725057658146,-0.008760506756957857,-0.45809608300127835,0.90421443241844623,-0.2089672173415158,-0.017581920147678776,-0.90464269458532454,0.088154296897423587,0.53788074643252448,0.77008465247698343,0.858175457854837,-0.74182352923873041,0.61787698120711232,-0.40071114450726247,-0.49635449540631588,0.2285374380781024,0.7135769774734867,0.49695087340518407,-0.96812080590432548,-0.27948517691320052,0.10690000704810955,-0.947832666778859,0.61620777175585173,0.22101370302076159,0.70687385029479577,-0.12973938096768195,0.97522250934281507,-0.43112198190350176,0.42291872036779238,0.43000714873429718,-0.74117540369796353,0.063778876356677561,-0.010788665158110049,-0.36840419674683555,-0.705333186176295,-0.83318545242454178,-0.24810861295466713,-0.64520288847629115,-0.65166827740691058,0.87593113392402,0.56032770805076126,0.77285711782651823,-0.24484532430993641,0.61353907250498374,-0.16313248694088892,-0.50358735700304957,0.819992676293474,0.7002048588824481,-0.44219839360667318,-0.25103188690311828,0.44159204766228427,0.17055977236971248,0.67258147321295991,0.90034139710494387,-0.25167119607872851,0.43770328417313437,0.6406904671530661,-0.11642696387899433,-0.65162634647061413,0.589537187753961,0.81528126579489613,-0.14725573880004497,-0.65806086252353191,0.4678882451112793,0.6284995310141237,0.909999794284813,0.22897109027438381,0.36628868913570822,-0.35425841359154248,-0.31800609655585421,0.17974603091354763,-0.56503169683973853,0.96987602765200476,-0.81080873767417327,-0.48630354110445062,-0.030790196280363107,-0.52391296696100054,0.37210616766107557,0.76336973847978273,-0.88716476824468227,-0.37397021445164935,-0.018018588432119502,0.16892399972720257,0.71394465291590647,-0.25583772280059647,-0.862098804145166,-0.75518521003200911,0.75095520622607093,-0.98666960698863,-0.32787784669915115,-0.57087750992312913,-0.15907456686677157,0.93199614944495079,0.01430515573094839,-0.31643753280697273,-0.88633249229115085,-0.34046671881362178,0.029016650295358454,-0.949002364626621,-0.91528469320167072,0.84672696089685284,-0.94202854155657278,0.62174883700057348,-0.61382187698680069,0.56937544353742875,0.9032211368452856,0.54492805131940547,-0.72001771569252837,0.095888722266950055,0.35688870090846375,0.885180005750237,0.635709233878045,-0.58039224081690988,0.083528140598688336,0.1575336727115948,0.89925794810953452,-0.14776235266950091,0.25066228781391975,-0.32799343919753721,-0.52290305286781069,0.92717083027920255,0.33926499697345541,-0.573176808456507,0.93652446425358038,0.30709315524766834,-0.828894019512876,-0.91925814557786012,-0.1852108604205823,-0.22295273711111058,-0.4391865671794799,0.52326719626936469,0.17982897124245248,-0.62458790681538545,-0.55256033993911013,-0.53911323171998993,0.775954794500002,-0.35046364569592459,-0.70076046218199672,0.4660392154315669,-0.20626296904229696,0.44412182431859981,-0.42098118384414407,0.997278444933369,0.791264614924446,-0.072276120107749531,-0.48926280182286297,-0.70030919169090189,-0.80193361630753313,0.49711354053444862,-0.16800377106666742,0.6334494597434297,-0.011577967559722237,0.14911362209781706,0.72517202036696116,0.58659293855847461,-0.57538353306026357,-0.95632579501547188,0.79698072410979337,0.46476635405084415,0.74592453415781468,0.40143376141853337,-0.21516495068332411,0.51853937493569191,-0.25608377170566643,0.22975427202403279,0.71112395343888735,0.67511378492932472,0.76093298139094045,-0.521258973759254,-0.083351634015958589,0.098450261679687665,-0.27381601337055489,-0.63385600626182559,0.20907888012429648,0.48481978032962408,0.57665693833337028,-0.850137483724457,0.97904467069499412,0.43391844277918268,0.78075160355342166,0.61641728441064114,0.65781598522226137,0.265849413008359,-0.70472139618579366,-0.28387114465416929,-0.46917128119113449,0.86401208111271821,-0.70251536308904894,-0.41833537463952569,-0.69601768613607518,0.40147123923593725,-0.583843360926883,-0.082680231464412168,-0.019839713824838266,0.84673986623377528,0.36111998807691037,0.34093860180160895,-0.50836010440642021,-0.24587837245589048,0.82945334065214416,-0.40470622452195093,-0.37163392099162279,-0.34233208016601024,-0.68573774429305356,-0.66452278320888192,-0.52296269709382337,-0.98568658902574635,-0.13709226350164613,-0.07266551818357106,-0.8445755372962801,-0.68556662168613014,-0.28380139185292713,0.64082230517679006,-0.002137546894204592,-0.11278704093433313,-0.25186103128449105,0.2904088563706767,-0.0044055297059964063,-0.22894478506825156,0.075918830500877846,0.47563638374006206,-0.64355285542251206,-0.29667221256376813,0.853868109571686,-0.40769586777672912,-0.36927586438566251,0.50198470731358258,-0.24288304906472705,0.79473623018466688,0.84205518189913364,-0.23144324274335207,-0.11620329744937052,-0.22944423567012151,-0.023647389385685041,0.36723431961947789,0.7868937932825153,0.16364624405449546,0.62883890123518138,0.75309290213188762,0.16756402243280971,-0.775748473022016,0.91152808205761393,-0.89129811613415277,0.56979042271608038,0.52468496632049089,-0.52819738701367624,-0.25891069195182559,-0.61765619908350344,-0.67464607799176413,0.13599036360904127,0.023416352934863584,0.60206443285665678,-0.70562773277313806,0.8426670538460217,-0.096139154441719485,0.25496756483566368,-0.73983366356223523,-0.93696702455029224,-0.45498571240109659,0.51265068655491375,-0.88139714434807992,-0.69343360732003745,-0.28596125928962662,0.71278895238078621,0.37781989638592112,0.22007116825323142,-0.78237642896472315,-0.57034220992137785,-0.43077436156141308,-0.9146377821055417,-0.40288067953795226,-0.46929164625205644,0.74137749790278151,-0.58171343551097132,-0.42623630837827747,-0.654136876880255,-0.72695336617853179,0.964087501151528,-0.94231592861112012,-0.30757596218379957,-0.68478726767226461,0.12868871545823696,0.12809463456650014,-0.09399300864617946,0.6779544091215145,-0.7678300867638691,-0.58130000046514907,0.5810158227481953,0.98892494243985274,0.62951175897825129,0.88363325869833742,0.37420660274764828,-0.86557943507357471,0.78653548321991018,-0.35799187578167391,-0.19768300847973816,0.010414898400388145,-0.80893462840883745,0.9345930954136854],"Bias":0.048424528934259213,"Output":0.0,"Threshold":0.99989878246555974,"Type":"GT"},{"Weight":[0.33265966378741885,0.65122166399435222,0.59740829495592429,-0.57107803857469841,-0.57627482180310174,0.6016634169973728,0.356647779865492,-0.66801753997244762,-0.710843407414315,-0.95494323221731148,0.059762410847359532,0.59928507897969574,0.1265799534165207,-0.20999416206497426,-0.88352223806247221,0.4684899148850189,0.076298369130258614,0.369515215684434,-0.30754648163334769,-0.44395457787623377,-0.059204529067131008,0.42886762387532162,