{"Input":[0.0,0.0],"Output":[0.0,0.0],"DLayers":[{"neurons":[{"Weight":[0.45973686196829044,0.30491142547918082],"Bias":0.19359237383752706,"Output":0.0,"Threshold":-0.90453443252692667,"Type":"GT"},{"Weight":[-0.63716944942119036,0.094416017688073228],"Bias":0.70169405997809675,"Output":0.0,"Threshold":-0.21663918402820787,"Type":"GT"},{"Weight":[0.83797880580554662,0.22089172770310739],"Bias":0.27151852067165005,"Output":0.0,"Threshold":0.9260578374034063,"Type":"O"},{"Weight":[-0.64912571322597834,-0.27681724972874727],"Bias":0.52208830254249661,"Output":0.0,"Threshold":0.87600795220397787,"Type":"A"},{"Weight":[0.91243781005611546,0.66890573486169136],"Bias":0.81205466241205793,"Output":0.0,"Threshold":-0.60973581420711043,"Type":"GT"},{"Weight":[0.22859641733979638,0.26096292504154284],"Bias":0.35822108311495793,"Output":0.0,"Threshold":0.23855334484882343,"Type":"A"}],"output":null,"numNeurons":6},{"neurons":[{"Weight":[0.46219717034241053,-0.44191083751707844,0.7019867355478866,-0.53367902456488414,-0.15549973685084831,0.76067976968394579],"Bias":0.35173804701852524,"Output":0.0,"Threshold":0.27433137468729696,"Type":"O"},{"Weight":[-0.29600561330840253,0.75858065055617163,0.40933763813662233,-0.22824299159843614,-0.93024170255765393,0.302393294546005],"Bias":0.060583489975232392,"Output":0.0,"Threshold":-0.79119060551337461,"Type":"A"},{"Weight":[0.7890418045171731,-0.059891132200086086,0.51396690705510173,-0.21045107450822884,-0.13522671029680722,0.65655492556120965],"Bias":0.65340045124916379,"Output":0.0,"Threshold":0.662932842347274,"Type":"GT"},{"Weight":[0.49980142782433024,-0.062215469806555415,0.86207273130401629,0.037064994702611584,-0.64299708914151277,-0.28892218428148059],"Bias":0.41059183907257013,"Output":0.0,"Threshold":-0.86858411220302068,"Type":"GT"},{"Weight":[0.6445285876488912,0.83867537828100625,0.21444024248721089,0.53506359762282274,0.85340494050337234,0.41250673886970929],"Bias":0.88793365978073968,"Output":0.0,"Threshold":-0.67360813341737169,"Type":"O"},{"Weight":[0.54701821391797545,0.16529348453753323,-0.72897513570681916,0.950186490989377,-0.55718395884948968,-0.36177078232251608],"Bias":0.29032433325905554,"Output":0.0,"Threshold":0.93234092319958883,"Type":"A"},{"Weight":[-0.27470543108633971,0.91010627053217319,-0.82425746406626765,0.48035360895113721,-0.99169273860365748,-0.32129238933384996],"Bias":0.52753525717534833,"Output":0.0,"Threshold":-0.050952795916680615,"Type":"A"},{"Weight":[-0.88130915718214087,0.73109193739066458,0.70329062766548744,-0.63533399563065451,0.99823405640117546,-0.20030513461693431],"Bias":0.39462284343066756,"Output":0.0,"Threshold":-0.35600646229274874,"Type":"GT"}],"output":null,"numNeurons":8},{"neurons":[{"Weight":[0.14586414077592275,0.5956878655570037,-0.7486207106842756,-0.42764893706312818,0.42188568246638669,0.3835187616681302,-0.61656613443818231,-0.506231162932809],"Bias":0.392381826598375,"Output":0.0,"Threshold":-0.29774797814793325,"Type":"GT"},{"Weight":[0.016544040765866658,0.66001257657074019,0.50145272142321462,0.83458189425737683,-0.40809591366355119,0.63568627631090868,0.4002283720300665,-0.38167111639942558],"Bias":0.43408705966271788,"Output":0.0,"Threshold":-0.20588709283894258,"Type":"A"},{"Weight":[0.30344300032753635,-0.28140494519910075,-0.25181523396252431,0.38166792196299321,0.69407397168412521,-0.0022410168322925536,0.15772375332085589,0.692371897256175],"Bias":0.051394191128851005,"Output":0.0,"Threshold":-0.93877606696392224,"Type":"O"},{"Weight":[0.60846950188673543,-0.71914992049296844,-0.906448138834186,0.51435427717601612,-0.93979343489734146,-0.6783205623171854,0.165059531650068,-0.8978059854813879],"Bias":0.2819470252291984,"Output":0.0,"Threshold":-0.58745413720023543,"Type":"A"},{"Weight":[-0.32507792549444264,-0.2249901705537877,0.34654394180818643,0.76129785820902229,0.932332521272978,-0.28815183708823838,-0.94383795137695869,0.97009242604025292],"Bias":0.9565966413154251,"Output":0.0,"Threshold":-0.20830422137319307,"Type":"A"},{"Weight":[-0.97971662272685978,0.72841758361478226,0.28152951099049744,-0.89319895249474746,-0.82200904601347125,-0.30056514511842519,-0.53367950233336514,-0.716796937732397],"Bias":0.28359462427142756,"Output":0.0,"Threshold":0.2709040801371001,"Type":"GT"},{"Weight":[0.70319929192922981,-0.059529194636051171,-0.87853329762748134,-0.24265678238247371,-0.72005665522071383,-0.38420083764204793,0.42134383666391662,0.027665198793478868],"Bias":0.43795329213047085,"Output":0.0,"Threshold":-0.69760133358538212,"Type":"A"},{"Weight":[-0.68422883967134585,0.85840429452173617,0.4985938009333768,0.9616314903654305,0.3740166455386284,0.51126358123089355,0.48174743935547182,-0.084118791895042538],"Bias":0.33027701141791277,"Output":0.0,"Threshold":0.58778309476924273,"Type":"O"},{"Weight":[0.57308950069038644,0.74751801683917551,-0.967373580656654,0.042596217264698921,0.22700212114816631,0.0041453340110114466,-0.10418775077172916,-0.64479150699674692],"Bias":0.97553664211907265,"Output":0.0,"Threshold":0.47877109166177506,"Type":"A"},{"Weight":[0.22137807925295927,-0.70022930284041418,0.59168419874817324,0.59189536450053348,0.53365968891124227,0.60499470802256594,-0.048745794244457873,0.95770815804493992],"Bias":0.54620516930995755,"Output":0.0,"Threshold":0.13934302848733171,"Type":"A"},{"Weight":[-0.78161556589492387,0.46216851028714723,0.52384846588775913,-0.58150481040659585,0.19229844687147926,0.17023904396697834,0.94574240685708,-0.87714186211914846],"Bias":0.11872370127529078,"Output":0.0,"Threshold":-0.55545516151723229,"Type":"A"},{"Weight":[-0.63502697676188635,-0.38224133261583809,-0.17653051026935246,-0.53724749644158754,0.23805096523745495,0.86327093647013931,-0.86538656934415292,-0.27270594857293456],"Bias":0.091317640660012911,"Output":0.0,"Threshold":0.10773787559370411,"Type":"A"},{"Weight":[-0.1170034660571271,0.39195543592421128,0.71165046874044946,-0.90442779050414812,0.19105452587411484,0.74655213428035017,-0.011965961201100592,-0.6366444829090705],"Bias":0.663489136222512,"Output":0.0,"Threshold":-0.11705590184640879,"Type":"O"},{"Weight":[0.38802279410326052,-0.047937350835621985,-0.81137174964480652,0.98611935041198473,0.32182807630013122,-0.92828570908321328,-0.88724077208304819,-0.15186183813580398],"Bias":0.066386898544797165,"Output":0.0,"Threshold":0.52322432981954159,"Type":"O"},{"Weight":[-0.24954734614563517,-0.84493683690435106,0.032963537160755854,0.82422765243064033,0.73372474533213528,0.512158474192097,-0.69177695861634658,0.27839111410006467],"Bias":0.25796969759183458,"Output":0.0,"Threshold":-0.979172660493838,"Type":"O"}],"output":null,"numNeurons":15}],"OLayer":{"neurons":[{"Weight":[0.22324897964636281,0.55879438927341,0.27605475358481274,0.742004792085851,0.95798481719474538,0.4763908113708677,0.12976932950772779,0.81466699848634516,0.034783859753414921,0.8190737244761892,0.34779812737731175,0.015703853227060222,0.437249317968846,0.4582443383793553,0.55837432786746621],"Bias":0.093904998197176029,"Output":0.0,"Threshold":-0.071150230742595272,"Type":"OT"},{"Weight":[0.707510258866246,0.92035585824416755,0.78183603835377657,0.11002887371463183,0.03029329843367138,0.30897837705396969,0.23802245512512626,0.66522414268237728,0.43486989775433665,0.80536699798208056,0.51032479410540532,0.815866042308447,0.98855066811132741,0.86981012293594429,0.39587018191622114],"Bias":0.38592079579174554,"Output":0.0,"Threshold":-0.61228556028208025,"Type":"OT"}],"output":null,"numNeurons":2},"NumLayers":3,"Breedibility":0.16967209483015913,"Mutibility":6.6468572973491895,"Repetition":0}
