{"Input":[0.0,0.0],"Output":[0.0,0.0,0.0,0.0,0.0,0.0,0.0,0.0,0.0,0.0,0.0],"DLayers":[{"neurons":[{"Weight":[0.11418585298312169,-0.11679863702356752],"Bias":0.893576236392174,"Output":0.0,"Threshold":-0.837034683133026,"Type":"A"},{"Weight":[-1.5681868142300224,-0.4583134933879196],"Bias":0.38326571224409423,"Output":0.0,"Threshold":-1.4636539218312381,"Type":"O"},{"Weight":[-0.26612072357261585,-0.09871014759350108],"Bias":0.17464087911631954,"Output":0.0,"Threshold":0.99116640584132,"Type":"A"},{"Weight":[0.39276864165103464,0.77971067129620852],"Bias":0.4587461005238565,"Output":0.0,"Threshold":0.80915369247512592,"Type":"A"},{"Weight":[-0.62573177815681869,0.48226286563196352],"Bias":0.27422689472987638,"Output":0.0,"Threshold":0.26479925367273355,"Type":"GT"},{"Weight":[-0.87255653220813556,-0.71568612415142641],"Bias":0.23436710901296098,"Output":0.0,"Threshold":0.99160455306601,"Type":"A"},{"Weight":[0.139303712704826,0.10679561603199483],"Bias":0.23095193143512677,"Output":0.0,"Threshold":-0.49257636372585623,"Type":"GT"},{"Weight":[0.67968692010254,-0.26135530102129806],"Bias":0.868227569790663,"Output":0.0,"Threshold":0.0021121671898812859,"Type":"GT"},{"Weight":[0.57088897988096066,-1.6295840645346718],"Bias":0.43203487602040869,"Output":0.0,"Threshold":0.91437026807776212,"Type":"A"},{"Weight":[-0.21797646871673709,-0.47721530146767166],"Bias":0.81242983081025533,"Output":0.0,"Threshold":-1.3018436223742755,"Type":"A"},{"Weight":[0.11418585298312169,-0.11679863702356752],"Bias":0.893576236392174,"Output":0.0,"Threshold":-0.5248723330557683,"Type":"O"}],"output":null,"numNeurons":11},{"neurons":[{"Weight":[0.45936927732982175,-0.0851928944863346,0.65244997043742337,0.33923118600586016,0.99243437451889471,-0.1128034093942509,0.91735345074783714,-0.689068967448114,-1.2858274128687697,0.062581433478082316,0.16949360336619129],"Bias":0.2353598569684475,"Output":0.0,"Threshold":1.8605974185562682,"Type":"A"},{"Weight":[-0.84993216295257779,-1.2172014424424624,-0.915534063435874,0.14747379820210549,0.52282527439427806,0.57591467330973345,0.502493848152223,0.77255526110416051,-1.7609205636013861,0.81083758771924186,-0.629168854620852],"Bias":0.59479775400590051,"Output":0.0,"Threshold":-0.57782504967312565,"Type":"A"}],"output":null,"numNeurons":2},{"neurons":[{"Weight":[-0.078256986373223869,-0.79207988108605143],"Bias":0.89882356948164455,"Output":0.0,"Threshold":-1.4439905059728728,"Type":"O"},{"Weight":[0.48097211144909824,0.31430328931394186],"Bias":0.023740356333432886,"Output":0.0,"Threshold":-0.52010587953035992,"Type":"A"},{"Weight":[0.054905534281817048,-0.3262375236145395],"Bias":0.01528094663064971,"Output":0.0,"Threshold":0.27586884343804252,"Type":"A"},{"Weight":[-0.22588861883892147,-0.30679427939783516],"Bias":0.88785109756880021,"Output":0.0,"Threshold":0.014005472657273255,"Type":"GT"},{"Weight":[0.56049419086682328,-0.8349974108673619],"Bias":0.40566406045372788,"Output":0.0,"Threshold":-1.2981756510204523,"Type":"A"}],"output":null,"numNeurons":5},{"neurons":[{"Weight":[-0.77187563235493184,0.77391013259715891,0.90258829360948334,0.674379547207793,0.80597386872674048],"Bias":0.85310878504678089,"Output":0.0,"Threshold":0.30039793080668803,"Type":"O"},{"Weight":[-0.42475402281840985,1.7155839371101855,-0.42475402281840985,-0.963899947220413,0.32731555976314253],"Bias":0.803620467802333,"Output":0.0,"Threshold":-1.5674582997185449,"Type":"GT"},{"Weight":[0.4688052427227633,-0.71684307312445861,-0.747834384323952,0.695027875106329,-0.083426610925666389],"Bias":0.22204676699919942,"Output":0.0,"Threshold":0.37532237329302454,"Type":"O"}],"output":null,"numNeurons":3},{"neurons":[{"Weight":[0.14232135105054888,-0.6440724142101,-1.7040699365102081],"Bias":0.59989896886977323,"Output":0.0,"Threshold":-0.28000995436683751,"Type":"A"},{"Weight":[-0.14630162489893922,0.31430328931394186,0.19153429437034497],"Bias":0.22695427864182474,"Output":0.0,"Threshold":-0.77359709459058812,"Type":"A"},{"Weight":[-0.65206313995973342,0.60331910969844049,-0.26612072357261585],"Bias":0.5969545639105861,"Output":0.0,"Threshold":1.3428371303448627,"Type":"A"}],"output":null,"numNeurons":3},{"neurons":[{"Weight":[-0.13254027237768298,0.26438221068325563,0.25516262359691905],"Bias":0.91131490162169326,"Output":0.0,"Threshold":0.66217946245436532,"Type":"A"},{"Weight":[-1.8133701941992018,-0.69456905857406981,-1.8133701941992018],"Bias":0.003321354278978591,"Output":0.0,"Threshold":-0.88964894734772337,"Type":"O"},{"Weight":[0.422163026603946,0.5835458452736707,0.12604127690477357],"Bias":0.22906918764536696,"Output":0.0,"Threshold":0.99116640584132,"Type":"A"},{"Weight":[0.39276864165103464,0.71713421480596728,-0.039874122962297004],"Bias":0.51375263464346188,"Output":0.0,"Threshold":-0.59801732427348253,"Type":"GT"},{"Weight":[0.015041398822814855,-0.41851210706798003,0.17811874378384965],"Bias":0.45096969392661457,"Output":0.0,"Threshold":-0.1344367056779735,"Type":"GT"},{"Weight":[-0.87255653220813556,-0.71398452423232817,-0.87255653220813556],"Bias":0.23436710901296098,"Output":0.0,"Threshold":1.6796927022187469,"Type":"A"},{"Weight":[0.46793488155488605,-0.08900843634689623,-0.564689815190942],"Bias":0.602098183753946,"Output":0.0,"Threshold":-0.044694346163745208,"Type":"GT"},{"Weight":[0.75206830015036663,-0.32564136307949265,0.51981719002119131],"Bias":0.868227569790663,"Output":0.0,"Threshold":0.36215683078028116,"Type":"GT"},{"Weight":[0.05512778856448259,-0.052356008100838416,0.93044878958279675],"Bias":0.14713574335777002,"Output":0.0,"Threshold":-1.5837547125219156,"Type":"O"},{"Weight":[-0.19163469466922559,0.043849897591327271,1.3636415784077913],"Bias":0.47573582710499679,"Output":0.0,"Threshold":-0.0047045187115224629,"Type":"A"}],"output":null,"numNeurons":10},{"neurons":[{"Weight":[-0.3375448956329119,-0.63642908010465515,0.99120562476627794,-0.039897375293028281,0.17932721212474961,-0.1128034093942509,0.13133833563483241,-0.32182449955578174,0.31885429114049968,-0.6264484904829638],"Bias":0.20848408816777359,"Output":0.0,"Threshold":0.16922962580305967,"Type":"A"},{"Weight":[0.064832200093582343,-0.11741891555367919,-0.70589469452663078,-0.21077040499577784,-0.033411536148475252,0.38751992310281841,-0.7838590772747337,0.73790416784486923,0.038523471233678663,-0.13687052537541394],"Bias":0.46483542512396137,"Output":0.0,"Threshold":-0.57782504967312565,"Type":"GT"}],"output":null,"numNeurons":2},{"neurons":[{"Weight":[0.70119415256250373,-0.90024831793282567],"Bias":0.89619990293690921,"Output":0.0,"Threshold":0.78332114535538544,"Type":"O"},{"Weight":[1.3086400121956321,-0.44235097160206688],"Bias":0.003321354278978591,"Output":0.0,"Threshold":-0.88964894734772337,"Type":"O"},{"Weight":[0.70119415256250373,0.3870948750465617],"Bias":0.2277608566115428,"Output":0.0,"Threshold":0.99116640584132,"Type":"A"},{"Weight":[0.60079931775145212,0.10844468295501761],"Bias":0.861798328283149,"Output":0.0,"Threshold":0.4547511957142274,"Type":"O"},{"Weight":[-0.068063130401104274,0.271787887041824],"Bias":0.40566406045372788,"Output":0.0,"Threshold":-1.024550400220114,"Type":"GT"},{"Weight":[0.077661477298318127,-0.28876359657792539],"Bias":0.84026803953585594,"Output":0.0,"Threshold":0.16093569349541129,"Type":"A"},{"Weight":[0.139303712704826,0.6465769599408735],"Bias":0.39410680754534289,"Output":0.0,"Threshold":-0.68398786461166483,"Type":"GT"},{"Weight":[-0.59247119612641219,-0.71761506549902965],"Bias":0.3005307900256155,"Output":0.0,"Threshold":0.88748515531769279,"Type":"O"},{"Weight":[0.43735869167715252,0.24910533125470635],"Bias":0.44071546360068742,"Output":0.0,"Threshold":0.70783300078838751,"Type":"O"},{"Weight":[-0.26612072357261585,0.043849897591327271],"Bias":0.01528094663064971,"Output":0.0,"Threshold":0.99116640584132,"Type":"A"}],"output":null,"numNeurons":10},{"neurons":[{"Weight":[-0.14686758357419985,-0.71136181660059927,0.059753925101716954,1.1885127253776942,0.15048907995246771,0.14842347691227842,0.018714061597694683,0.96904204179022546,0.35392512676954507,-0.33974230351845841],"Bias":0.6126043580531163,"Output":0.0,"Threshold":-0.11562912823428828,"Type":"GT"},{"Weight":[0.36201896814723433,-0.89934597171346931,1.8539461567317814,0.28536357441235505,0.52577344789205738,0.47967625952659931,0.54620244332878032,0.73790416784486923,0.43679096337258394,0.67529411924783789],"Bias":0.53174448090453841,"Output":0.0,"Threshold":-1.0567990599930281,"Type":"GT"},{"Weight":[-0.26612072357261585,0.043849897591327271,-0.26612072357261585,0.043849897591327271,-0.26612072357261585,0.10305451827731658,-0.26612072357261585,0.13893624168771143,-0.26612072357261585,-0.33974230351845841],"Bias":0.50265969522421228,"Output":0.0,"Threshold":0.99116640584132,"Type":"A"},{"Weight":[0.1229505290384174,-1.2226147673663752,-0.53885077337680887,0.77971067129620852,0.51773896898619776,1.5062737872387628,-0.13721144566648241,0.874376356543217,0.37334688421028983,-0.33974230351845841],"Bias":0.4587461005238565,"Output":0.0,"Threshold":0.80915369247512592,"Type":"A"},{"Weight":[-0.872365096990189,-0.14431857347689503,0.63265662390396793,0.22804226864969462,0.527542351990725,0.17661007857025138,0.21387675420328822,0.73790416784486923,-0.83825063278817136,1.918637022338173],"Bias":0.46869120780317636,"Output":0.0,"Threshold":-0.34649577380460495,"Type":"GT"},{"Weight":[-0.352618949884837,-0.57151892030798779,0.88348485384298725,-0.278134225298713,0.52518381319250151,0.34032035099357372,-0.38509027322758471,0.42383903494283515,0.35392512676954507,-0.28986177932930257],"Bias":0.30920782596359858,"Output":0.0,"Threshold":0.011998641775920355,"Type":"A"},{"Weight":[-0.14686758357419985,-1.2226147673663752,0.65835862358024277,0.39728969284207083,0.642709296321361,0.13458781486125093,-0.66719153298399947,0.60153231378716054,0.35392512676954507,-0.33974230351845841],"Bias":0.80132140093544568,"Output":0.0,"Threshold":-0.32099728929856669,"Type":"GT"}],"output":null,"numNeurons":7},{"neurons":[{"Weight":[0.14232135105054888,-0.77216036607146288,0.36452008987056095,0.70119415256250373,0.17418098015439737,0.14232135105054888,0.16423056678112155],"Bias":0.59989896886977323,"Output":0.0,"Threshold":-0.077313727735222187,"Type":"A"},{"Weight":[-0.872365096990189,0.16024621117871551,-0.82953293450620635,1.0916652563454887,0.52282527439427806,0.57591467330973345,0.032328055429890784],"Bias":0.59479775400590051,"Output":0.0,"Threshold":-0.55882483438301123,"Type":"A"},{"Weight":[0.70119415256250373,-0.06047542815118815,0.70119415256250373,0.70119415256250373,0.64611010749177555,-0.08513208529219593,1.3711931460402873],"Bias":0.24316908628361722,"Output":0.0,"Threshold":0.27586884343804252,"Type":"A"},{"Weight":[0.0016379696324645421,-0.59724462246394,-0.70589469452663078,-0.025734219712081466,0.49135469970822088,-0.11935665365045739,0.71092173979194917],"Bias":0.59479775400590051,"Output":0.0,"Threshold":-0.48510938509605328,"Type":"A"},{"Weight":[1.8253321851721651,-0.90024831793282567,0.62071081186677812,-0.90024831793282567,-0.35087924513541124,-0.90024831793282567,-0.51392183243945322],"Bias":0.40566406045372788,"Output":0.0,"Threshold":-1.2557452234931967,"Type":"A"},{"Weight":[-0.872365096990189,-1.230114172785596,1.7436915169207805,-0.066710118875703828,-0.93471362392171908,1.7436915169207805,0.54620244332878032],"Bias":0.64319569037735724,"Output":0.0,"Threshold":-0.57782504967312565,"Type":"A"},{"Weight":[0.47881685196366941,-0.33923840806318373,0.25643955136483509,-0.33923840806318373,0.25643955136483509,1.3002738316079014,0.25643955136483509],"Bias":0.23616660234339842,"Output":0.0,"Threshold":0.19436008585354303,"Type":"A"}],"output":null,"numNeurons":7}],"OLayer":{"neurons":[{"Weight":[0.0353208366014626,0.22639861247800225,0.29486105162411042,0.0353208366014626,0.22639861247800225,0.0353208366014626,0.22639861247800225],"Bias":0.76236477203777286,"Output":0.76236477203777286,"Threshold":0.32445724928959141,"Type":"OT"},{"Weight":[1.5600737722404645,0.79923021690884144,0.26585453900781209,0.61399386758636387,0.49190428526695085,0.79923021690884144,-0.2017566869974865],"Bias":0.36966263333785471,"Output":0.0,"Threshold":-0.643355690009592,"Type":"OT"},{"Weight":[0.49424459901370321,0.11594272410308137,0.5657635135882364,1.4501376838656785,0.49424459901370321,0.84027964893741514,0.30509366155839229],"Bias":0.049970288318568042,"Output":0.049970288318568042,"Threshold":-0.61785723577153751,"Type":"OT"},{"Weight":[0.48096740244932817,0.76791523386161553,0.251088761841454,0.44269181168297855,0.26934240177243129,1.6119168547968923,0.26934240177243129],"Bias":0.66993234989695827,"Output":0.66993234989695827,"Threshold":0.0,"Type":"OT"},{"Weight":[0.46394971733165424,0.33331916263947226,0.21367176213007036,0.39863443998556325,0.46394971733165424,0.33331916263947226,0.46394971733165424],"Bias":0.968004926442171,"Output":0.968004926442171,"Threshold":0.0,"Type":"OT"},{"Weight":[0.52700089361844626,0.2753363807105163,-1.1742108218251777,0.45924747075617661,-1.4408157074082717,0.60990533656901924,0.11701308498951282],"Bias":0.91580239306939881,"Output":0.91580239306939881,"Threshold":0.4446580104737814,"Type":"OT"},{"Weight":[0.54125590187788752,0.39592501004036751,0.61608148627732018,0.7149575241911027,0.61608148627732018,0.25177971611347966,0.61608148627732018],"Bias":0.37869110441705728,"Output":0.37869110441705728,"Threshold":0.85326445608086177,"Type":"OT"},{"Weight":[0.89882692829651145,0.49793702480287161,-1.8502957708436512,0.74770072230496476,0.62519815569985571,0.660441464586389,0.44948078573191574],"Bias":0.17407285569891,"Output":0.17407285569891,"Threshold":0.0,"Type":"OT"},{"Weight":[0.70939112208289634,-1.0805384754578298,0.2919509461112092,0.22848440321557428,0.39202192164586025,0.73539877251507679,0.33275496556086231],"Bias":0.12998523662331757,"Output":0.12998523662331757,"Threshold":1.7455567027188637,"Type":"OT"},{"Weight":[0.11077530314716291,0.57340937926127078,1.0545758749612495,0.57340937926127078,0.11077530314716291,0.57340937926127078,0.22643382217568986],"Bias":5.9836078463045917E-05,"Output":0.0,"Threshold":-0.95687210697535052,"Type":"OT"},{"Weight":[1.414779724280713,0.518417372609683,1.414779724280713,0.40041280041351579,1.414779724280713,0.518417372609683,0.085861666168021822],"Bias":0.013508709619524289,"Output":0.0,"Threshold":-0.78990995082534377,"Type":"OT"}],"output":null,"numNeurons":11},"NumLayers":10,"Breedibility":0.89286928060132509,"Mutibility":3.7078167259263886,"Repetition":0}
