{"Input":[0.0,0.0,0.0,0.0,0.0,0.0,0.0,0.0,0.0,0.0,0.0,0.0,0.0,0.0,0.0,0.0,0.0,0.0,0.0,0.0,0.0,0.0,0.0,0.0,0.0,0.0,0.0,0.0,0.0,0.0,0.0,0.0,0.0,0.0,0.0,0.0,0.0,0.0,0.0,0.0,0.0,0.0,0.0,0.0,0.0,0.0,0.0,0.0,0.0,0.0,0.0,0.0,0.0,0.0,0.0,0.0,0.0,0.0,0.0,0.0,0.0,0.0,0.0,0.0,0.0,0.0,0.0,0.0,0.0,0.0,0.0,0.0,0.0,0.0,0.0,0.0,0.0,0.0,0.0,0.0,0.0,0.0,0.0,0.0,0.0,0.0,0.0,0.0,0.0,0.0,0.0,0.0,0.0,0.0,0.0,0.0,0.0,0.0,0.0,0.0,0.0,0.0,0.0,0.0,0.0,0.0,0.0,0.0,0.0,0.0,0.0,0.0,0.0,0.0,0.0,0.0,0.0,0.0,0.0,0.0,0.0,0.0,0.0,0.0,0.0,0.0,0.0,0.0,0.0,0.0,0.0,0.0,0.0,0.0,0.0,0.0,0.0,0.0,0.0,0.0,0.0,0.0,0.0,0.0,0.0,0.0,0.0,0.0,0.0,0.0,0.0,0.0,0.0,0.0,0.0,0.0,0.0,0.0,0.0,0.0,0.0,0.0,0.0,0.0,0.0,0.0,0.0,0.0,0.0,0.0,0.0,0.0,0.0,0.0,0.0,0.0,0.0,0.0,0.0,0.0,0.0,0.0,0.0,0.0,0.0,0.0,0.0,0.0,0.0,0.0,0.0,0.0,0.0,0.0,0.0,0.0,0.0,0.0,0.0,0.0,0.0,0.0,0.0,0.0,0.0,0.0,0.0,0.0,0.0,0.0,0.0,0.0,0.0,0.0,0.0,0.0,0.0,0.0,0.0,0.0,0.0,0.0,0.0,0.0,0.0,0.0,0.0,0.0,0.0,0.0,0.0,0.0,0.0,0.0,0.0,0.0,0.0,0.0,0.0,0.0,0.0,0.0,0.0,0.0,0.0,0.0,0.0,0.0,0.0,0.0,0.0,0.0,0.0,0.0,0.0,0.0,0.0,0.0,0.0,0.0,0.0,0.0,0.0,0.0,0.0,0.0,0.0,0.0,0.0,0.0,0.0,0.0,0.0,0.0,0.0,0.0,0.0,0.0,0.0,0.0,0.0,0.0,0.0,0.0,0.0,0.0,0.0,0.0,0.0,0.0,0.0,0.0,0.0,0.0,0.0,0.0,0.0,0.0,0.0,0.0,0.0,0.0,0.0,0.0,0.0,0.0,0.0,0.0,0.0,0.0,0.0,0.0,0.0,0.0,0.0,0.0,0.0,0.0,0.0,0.0,0.0,0.0,0.0,0.0,0.0,0.0,0.0,0.0,0.0,0.0,0.0,0.0,0.0,0.0,0.0,0.0,0.0,0.0,0.0,0.0,0.0,0.0,0.0,0.0,0.0,0.0,0.0,0.0,0.0,0.0,0.0,0.0,0.0,0.0,0.0,0.0,0.0,0.0,0.0,0.0,0.0,0.0,0.0,0.0,0.0,0.0,0.0,0.0,0.0,0.0,0.0,0.0,0.0,0.0,0.0,0.0,0.0,0.0,0.0,0.0,0.0,0.0,0.0,0.0,0.0,0.0,0.0,0.0,0.0,0.0,0.0,0.0,0.0,0.0,0.0,0.0,0.0,0.0,0.0,0.0,0.0,0.0,0.0,0.0,0.0,0.0,0.0,0.0,0.0,0.0,0.0,0.0,0.0,0.0,0.0,0.0,0.0,0.0,0.0,0.0,0.0,0.0,0.0,0.0,0.0,0.0,0.0,0.0,0.0,0.0,0.0,0.0,0.0,0.0,0.0,0.0,0.0,0.0,0.0,0.0,0.0,0.0,0.0,0.0,0.0,0.0,0.0,0.0,0.0,0.0,0.0,0.0,0.0,0.0,0.0,0.0,0.0,0.0,0.0,0.0,0.0,0.0,0.0,0.0,0.0,0.0,0.0,0.0,0.0,0.0,0.0,0.0,0.0,0.0,0.0,0.0,0.0,0.0,0.0,0.0,0.0,0.0,0.0,0.0,0.0,0.0,0.0,0.0,0.0,0.0,0.0,0.0,0.0,0.0,0.0,0.0,0.0,0.0,0.0,0.0,0.0,0.0,0.0,0.0,0.0,0.0,0.0,0.0,0.0,0.0,0.0,0.0,0.0,0.0,0.0,0.0,0.0,0.0,0.0,0.0,0.0,0.0,0.0,0.0,0.0,0.0,0.0,0.0,0.0,0.0,0.0,0.0,0.0,0.0,0.0,0.0,0.0,0.0,0.0,0.0,0.0,0.0,0.0,0.0,0.0,0.0,0.0,0.0,0.0,0.0,0.0,0.0,0.0,0.0,0.0,0.0,0.0,0.0,0.0,0.0,0.0,0.0,0.0,0.0,0.0,0.0,0.0,0.0,0.0,0.0,0.0,0.0,0.0,0.0,0.0,0.0,0.0,0.0,0.0,0.0,0.0,0.0,0.0,0.0,0.0,0.0,0.0,0.0,0.0,0.0,0.0,0.0,0.0,0.0,0.0,0.0,0.0,0.0,0.0,0.0,0.0,0.0,0.0,0.0,0.0,0.0,0.0,0.0,0.0,0.0,0.0,0.0,0.0,0.0,0.0,0.0,0.0,0.0,0.0,0.0,0.0,0.0,0.0,0.0,0.0,0.0,0.0,0.0,0.0,0.0,0.0,0.0,0.0,0.0,0.0,0.0,0.0,0.0,0.0,0.0,0.0,0.0,0.0,0.0,0.0,0.0,0.0,0.0,0.0,0.0,0.0,0.0,0.0,0.0,0.0,0.0,0.0,0.0,0.0,0.0,0.0,0.0,0.0,0.0,0.0,0.0,0.0,0.0,0.0,0.0,0.0,0.0,0.0,0.0,0.0,0.0,0.0,0.0,0.0,0.0,0.0,0.0,0.0,0.0,0.0,0.0,0.0,0.0,0.0,0.0,0.0,0.0,0.0,0.0,0.0,0.0,0.0,0.0,0.0,0.0,0.0,0.0,0.0,0.0,0.0,0.0,0.0,0.0,0.0,0.0,0.0,0.0,0.0,0.0,0.0,0.0,0.0,0.0,0.0,0.0,0.0,0.0,0.0,0.0,0.0,0.0,0.0,0.0,0.0,0.0,0.0,0.0,0.0,0.0,0.0,0.0,0.0,0.0,0.0,0.0,0.0,0.0,0.0,0.0,0.0,0.0,0.0,0.0,0.0,0.0,0.0,0.0,0.0,0.0,0.0,0.0,0.0,0.0,0.0,0.0,0.0,0.0,0.0,0.0,0.0,0.0,0.0,0.0,0.0,0.0,0.0,0.0,0.0,0.0,0.0,0.0,0.0,0.0,0.0,0.0,0.0,0.0,0.0,0.0],"Output":[0.0,0.0,0.0,0.0,0.0,0.0,0.0,0.0,0.0,0.0],"DLayers":[{"neurons":[{"Weight":[0.81409245487958781,0.55034563436654649,1.1008088492559309,-0.13815390045668652,0.7511109471093449,-0.82491891980895016,-0.94336496069036269,0.37702642957541455,0.46266189786263823,-1.3594947212187083,-1.1151951531273698,0.15424739937495768,-0.88132741436424089,0.56984454000827145,0.79163495581207544,0.18948827785881617,-1.3791139456480834,1.8318390957228092,-0.57581046529850477,-0.093420678734975449,-0.42121248250592619,-1.2046700600556424,1.1249898938112846,-0.79152476726745646,-0.18499328146455488,0.51638533117546936,0.77231495770267911,0.10346663843067672,-0.062575394782505511,-0.66627752718808009,0.50131600466618131,0.24224563256941989,-0.16757213425243833,0.42670078246234955,0.13712879916984988,-0.45847724446024618,-1.2748381086973653,-0.54332380860267382,0.12002908219933922,0.21361976388777609,-0.53472054867759367,0.042793983613510611,0.31161868715530439,-1.6611472633253539,0.064202387832548613,0.19516865929829366,-0.0042541155145755516,-0.30156584936267028,-0.68220331272212942,0.830289977057972,-1.6138791067590375,1.0465720570863093,-1.1043403367997802,0.2942416740640641,0.13691812760053113,-0.83059321103179506,0.072129958808482553,0.48772691678615621,1.7507498561175305,-0.077978604527675036,0.82586511356097891,-0.48637968417554145,0.12350920593529444,-0.41987885833712246,-0.091140731687041038,0.48967824247185066,-0.21947577140269592,-1.041569926329688,0.049110704124490923,-1.7532296663863722,-1.7316865584494949,0.079648322462871679,-0.306721880243496,-0.66996268586719532,-0.92264295784879613,-1.569951324523404,0.19004605228683763,0.556761859687924,0.19327732333018322,0.662035570788214,1.3909417797769148,0.893659517847076,-0.50710140657941882,0.897605769055712,-0.016319931492358331,0.782598851613048,-0.72993719052986106,1.1474977578723329,0.56201110996494186,1.0582522875900624,-0.75021043400930265,0.76228157093854687,0.52949736198852637,0.38037700084055637,0.67242896914129568,-0.31000818419736276,1.3800350275729016,-0.25917368580548739,0.22968790597733474,-0.417281005725861,-0.18484524902181937,-0.53083494795990882,-0.26489492372604784,1.5330112537057192,0.81084640780968886,1.21541305967393,-0.57339966137586151,0.19004468912844733,0.057021106619863371,-0.5199815735779616,-0.3120370047688657,-1.0138926515420401,0.21233150000326873,0.62789192918124215,-0.26875943303239624,-0.58342312361738791,-0.8929586864043767,1.1184979810174545,-1.3087843467056679,1.0820111609445937,0.2777394428541835,-1.7779799233088176,0.41784000136788935,-0.33713178259187004,-0.46632764411220673,0.27183277752756985,0.70017279531247234,-0.73401795385126856,0.69341394058122008,-0.92864018168207974,-0.91066311994132731,0.36905856814442206,-1.727774537973001,1.3554460217037452,-1.7294981850914182,0.705055334002271,-0.62465730617971027,0.52755925922075253,-1.1832116186540627,0.58100859944577343,0.39898567572188837,0.21254817126903136,0.52353936528020517,0.80832004383346179,-0.13547392993256169,-0.72136474711518428,-1.5902362842591185,0.70560915309604011,-0.95281864281409356,-0.083868960423334027,0.39784766936254334,-1.0278782689840897,-0.30861705251483,1.7602850069863654,-0.79568298104949442,-0.38006975849347857,0.52233003556414848,0.39326313760760029,-0.60453346492933746,-0.14237632652738885,0.84061203320097189,-1.7122991754265033,-0.017818150817331874,0.097534623973785983,-0.32178686853581417,0.97828768965462876,-0.0999108730349274,1.8295480105232205,-1.5638566816057342,-0.92606566423832692,1.1458727080122908,-0.33627513619664817,-1.0491184541252991,1.0643883989841625,-0.17362411372132147,-0.45403428862524886,0.41446649651716755,1.5705271070656726,0.39441242972128671,-0.69458513562460911,1.2039796724934035,-0.48077562008089181,1.7819585855034918,0.64433624737093864,-0.10041603049879816,-1.3455020042284986,0.28548148938448265,0.33820580872012335,0.49584432854123606,1.9567298795826407,0.69712014346728268,0.24752760195291024,-0.18751128864824374,0.366964848882968,-0.095600047658942588,-0.65768705711592323,-0.97912831650074961,-0.021076000305393805,0.21695471285700574,-0.18528208983376726,0.25100698613142924,1.1073212340042558,0.81749157366226033,-0.64019624080518089,-0.8031955122962573,0.69627774166701273,-1.1815297413531365,0.9810126832365117,0.86037994227855452,-0.414752203232959,1.2246319899450207,-0.47460179891185916,0.074871287439540579,-0.63361380106121967,-0.39112584404234119,-0.39597594104519851,1.8923758062964193,1.8121125883479197,-0.92293648185345178,-1.5430074238884297,1.1806660261759143,-0.36004585696386437,0.11768680855698742,-1.9584676287874894,0.49780944152633161,-1.1105140536606843,-0.18856017393458635,-0.51268522511918335,-0.51639010628459048,0.039128174092214696,1.9564451612329319,0.42806424860934289,1.2438641294182693,1.2409970571565197,-0.86244092936391992,0.4576550994336861,-1.4573117827332167,0.56681707777689572,0.38054824464310572,-1.1027178089612713,-1.3807292417067705,-0.85594001638513983,-0.24457251967143853,-0.36456199403133338,-1.2222738523722039,0.17416153576884508,0.48926221508964085,0.31716322782666573,-0.30402378752083681,0.529957642676289,-0.96435481949970348,-0.20169354206088164,0.37916895671708906,0.0824262095067772,1.8868407364407744,0.084246387781726509,1.3143398645406177,1.2444753196297564,-0.032972654721454192,-0.68698221942735016,-1.0221867901376387,-0.27758124157673736,-1.157217660468173,-0.62450639094435911,-0.43880102803874815,-0.56129697922677591,0.88638527080714,0.083687298970151369,-1.7867105490466164,-0.12924898817634628,0.12306371616342293,-0.65669022996755788,-0.93957691310885216,1.82868585355053,-1.6593774029330244,-0.34691234414787608,1.2408071473430877,0.92661046865616714,-0.98624553856730712,1.1158572310189983,-0.587718350155148,-0.792286201655907,1.7652286087684816,-0.2896471939641736,0.3741356033711396,0.24229042871961848,0.63752546097968033,-1.4856614279250118,-1.3615250048979766,0.53499796359566876,-1.6107152652045316,0.68905622264792044,-0.23231032222151304,0.14978113544629002,0.952482734901124,0.65753715673114044,-0.019650214593694648,-0.68672654344082185,-0.54847394607424449,0.18303668468928064,0.35987710791984207,-0.22050319668860333,-0.031287202626134852,-1.4020415159883171,0.58737759198900985,0.15301183432015203,0.59253513584497175,-0.076707652105391683,-0.28989434454017637,0.37813873327250547,-1.6761356702428942,0.14869602939518917,0.18022590930584165,0.28938258074428086,0.070088932439726359,0.62934699043601139,-0.57869193171090072,-0.45359442477758283,0.77629186901091218,0.77859028930710172,0.68842594947861824,0.41093683497169414,0.66855170888293136,1.8804844491558543,1.3674118944292013,-0.31049047052417444,-0.17250858102518063,0.59673380437154966,-1.3715891838639924,-0.17925914776222332,-1.1285136188396783,-0.1905107119542131,-0.46822908216539272,-0.79584136549189743,0.38008722028699105,0.1453871979123853,-0.30968953590359982,-1.3686778464650735,-1.4389616751293475,-1.2636352643666953,1.0914830021054871,0.30062482473469571,1.1670032400484214,-1.412135185400087,-1.4472361223060806,-1.2754053414219084,-0.88663916359651851,1.1168937133942105,0.32570181659571906,-0.48964374255838039,1.2072973564301139,-1.3245447535647754,-0.3000751508167363,0.33200034778381826,-1.8982393871518966,-1.8780765495626612,-1.2317378703652593,0.065526868014375989,-1.7743948641113914,0.19009699401915858,-0.36273506580048021,-0.46878247543647078,-1.7138682136842367,0.88733772136612687,-0.99259341647503585,0.71981681788797325,0.65938436177530546,-0.34194218290128853,0.57866916273658586,-0.14840655128863023,-0.534988186571276,0.061485855635947495,-1.2607231788619995,1.55964899787663,-1.1276752730494715,0.099184588633563761,0.81817136230793375,0.57877099447826441,0.35147286542265105,-0.4514376650323686,1.1678993953009598,-0.47882153791320592,-0.51341578787457254,-0.6030038048527222,0.3205170679467344,-1.1433253191147583,-0.93306049532632374,0.47315556298622674,1.4960367572475397,0.98190019232309433,-0.31832741460219371,-0.021331683742502605,-1.3842120204687642,-1.1599313529021718,-0.087919298597213091,-0.85814435908047937,0.6731538196551401,-1.1438099451567092,1.2815631093837148,-0.31561559252586013,-0.40226582328428784,0.85050088812154745,-0.96460703246509982,-0.497883404429482,0.16518171322656874,-1.1151233516238273,0.86231736785840107,-0.26354753002436737,0.42801513822191151,1.9673341661539552,1.1499406427481242,-0.11808370385229766,1.466958423828221,-0.65060387488948357,1.1595445099098349,-0.95667360616190578,0.1281983084880069,0.44533389408389745,-0.468155087189821,-1.6427890153801017,-0.056879613528977732,1.2363652173599067,-1.1021356075546405,-0.37397422938327041,1.0163256223389532,0.97124030951933937,1.0379336294101194,-1.8939333259565445,-1.0602190099005675,0.40138291865651632,1.241906424631321,0.11395909033157936,-1.7604526019471012,0.269362234635913,1.3577023406316071,0.57770303864507133,-0.66113061101554993,-0.18637072187213735,1.2683681235152147,0.92104301178876469,1.2779807825653631,-1.5588900306885551,-0.5879800070625113,0.31430439747139077,0.15636773876036414,0.54325935688952876,1.2392122211117354,-1.4644003203893798,0.38479067123718125,1.0417065038539963,-1.3894605704184904,1.071067422195835,-0.55935262449055556,1.9979775324454425,-0.831343836538188,0.52158210584734677,-1.4462569474458029,1.8874078578722702,1.017350996386889,-0.6035117980109117,-0.29766979548040307,-1.4491937157927053,1.6108423115736072,-0.63012880976259655,-0.56947851207548683,-0.67816165726546274,-1.255186291064688,-0.16749553820933003,-0.35045334767658654,-0.26684070335670407,-0.28989901872812718,1.0308105736183051,0.75098653994694808,0.25001403224997115,1.4928652362399109,1.4651365873707163,-0.059336144039098149,-0.56191127328174717,0.28654239475482396,1.9872304163813732,1.1948411852097329,0.92723919564263846,0.053404296715000896,0.8013838336576633,0.93525439078698591,0.88304306607835148,-0.730301105757384,-1.2175099152221858,-1.7299410476023056,0.32714755275401286,1.3708223333941179,-0.59615768706247108,-1.2023919221024921,-1.7649579326459011,-1.5670880524288342,0.24001373059116932,0.97238083322177693,-0.54549379672179654,-0.22683347679061505,0.63096972584303912,-0.14382079343489407,0.80689658355288962,-1.2937762303830946,0.21021762720159271,0.91485018046333,1.427142392577204,0.9796705879176365,1.9482820313183042,-0.12249016346205735,-0.98299015452293226,1.413676803331148,0.99372010351797568,0.98693113773452623,0.52092608554331887,-0.62762148800660933,-0.99056154249698714,-1.4616581683334236,-0.091584113469153738,0.028451475328044706,-1.1581909224196294,1.9080939429713397,0.12252017186140657,-1.2374756705190406,0.41918920081536709,0.41176320724737048,-0.76601757424232431,1.134156457676625,0.14206270204953042,-0.95648363556549132,-0.032718415707451542,0.0358430440704538,1.8231973591368633,0.59603625051492659,0.88826080639299987,1.0301906070812561,-0.064476698550617662,-1.2912487924523879,-1.5270761677655746,0.91984672421582347,-0.21633197842926344,1.0030265408582177,0.72750920603401448,-0.4970288465251349,-0.76309430378633292,-1.1503801770277229,-1.9284946452493288,0.63981047449655737,-0.19382418832153164,0.23422848613283806,0.69282049904243115,1.8301328554889806,0.46722506660373186,0.43369515731869979,0.82219874478047672,-0.10435060276852487,-0.30928854379304149,-0.39790832362971651,0.34168108382340578,-0.72369402764391566,-0.80331288199094719,1.4944551361233254,0.30768961502830017,1.1280946504199272,1.0526270496438384,0.9784449462212832,1.5700784353865673,1.6099618690134778,0.37395610409973024,0.25767650685605115,-0.54966687395840785,0.042590870541795667,0.602021812741655,-1.3455461111597464,-0.39298811293811919,-0.77419994015907867,0.847354521438179,-1.621576443138335,0.98094746795527055,0.032837213764480788,0.35434924105850474,-0.4490280488734264,-1.1204651706481656,1.0983652644375641,0.6779802673910007,-0.73081573247696052,1.7161459493060343,1.285166610019592,-1.3084993601859893,-0.22195628388875921,1.4283577424606113,-1.1952844405059162,-0.7030783447916984,-0.68127419924422838,-0.10808988945004061,1.4321381223537673,1.0636482914274785,0.51067911937613431,-0.98839174702339438,0.046518274011593655,-0.664736860741273,-0.64776357898850168,-0.046604783295935315,-1.1052638665331824,-0.841432202067893,0.076465706376575682,0.702857375472252,0.2171568316254564,0.52267723598525728,0.2739158711740356,-1.103060805752436,1.2689488913253644,-0.91007213284133914,0.35376299841039005,-1.7053530792264979,-0.56786073904617729,-0.50420561779369877,0.69411287610217709,1.3373488252807169,-0.8491441155081354,-0.56217164479297188,1.9743011873095768,1.5604006296770652,-0.64352262702003249,0.28755100622513619,-0.15220374295124955,-1.3938238208153395,1.7871294337264865,-0.18223960054211297,0.86668594012348277,-0.58799233649761129,-0.31171833831431273,-1.2081344315761859,-0.13323626758594132,-1.281364173992241,-0.16650740460795693,1.0033296855414893,1.0853481940391232,0.12351438487461502,-1.3912302681204074,-0.87689397245500889,0.35229293925328786,0.63906548295126564,-1.1888530307630323,1.3517594623154774,-1.4563994628639889,-0.623528707131524,-0.66817115930289539,-0.88738061278703662,-1.4038317908550759,0.52108011325871573,0.84186841493559461,-0.74575298707243343,-1.4292007533038038,-0.28336326040387749,-0.0073205898549969506,0.76631414502071249,0.27784345777604891,-1.1869073022095986,-0.14527064102947285,1.0728396118862067,0.39055404066649652,-0.32630233016158572,-1.6861449050186876,-1.6686277443862649,0.99071840429246349,-0.93011434454476194,0.22727498888376863,-1.1122393333875758,0.033705057009917327,1.9825503732927845,-1.9885238036459889,-0.32090843763244736,1.8446276261679024,-0.46554761122239174,-1.8446929882488647,0.817312357446748,-0.97329299104087652,1.2878120258859416,-1.2144116047836895,1.7378597686709183,-1.2592185615837659,1.2838321604225005,0.20639360484499186,-0.46296968053233334,0.60972223549213389,0.12584196747087051,-0.043069852783493776,-0.82723442016462645,-0.33012515810789778,1.4576519054629151,-0.14113683607889654,1.4491942534568691,-0.7344232326068092,1.301335485326748,-0.63005663976454251,0.063665661059164325,-0.89997910063622311,-0.10828200546478939,0.29413892883767334,-0.33356789985081081,1.6417628073328003,-0.53247353552490173,-0.334278026638481,-0.2237848861310138,-0.53014188517357308,-1.0917386818173056,1.233160927534644,-0.028481302243183043,0.26858972022957273,-0.83214262026927543,-0.82521255725306109,0.70711121987776848,0.019714108677447939,-1.1049877633829546,-0.086058105528137863,-0.5410260926171353,-1.1083394819210932,-1.3344351655498312,0.44352620581329172,-0.11347486817439773,0.0023523159827203433,-1.22701415523282,-0.99770448251986155,-1.1617545723737006,0.37461944312945428,-1.4896714331068433,1.4675902665907472,0.6515766756543665,0.83649069947958488,1.5268193556018845,-1.590958867031596,-0.98154731792469851,-0.56599346881720414,-1.005177910151043,-0.92647336588775431,-0.43970766963423591,-0.270658295888622,0.41678730860202912,-1.9405895098767194,-1.6276190041693015,-0.13018030679327453,-0.4880455783512655,-1.2478752563755844,-0.66715088820417923,0.944144220531054,-0.54160147558040983,1.3766836576986514,0.090000311257414464,-0.06418150804062045,0.8787220077955733,-0.081404960752187838,-0.4230297647523833,0.89203097210767734,0.753094171962195,-0.751683846466096,0.52052923036763854,-1.2478306778929338,0.82613751796360013,1.5066760981020873,-1.1165126818774793,0.6937660941359427,-1.1383668487604552,-0.018547870227390739,0.098010496282023629,-0.38028134004226016,1.4479433474892605,-0.62185740173880821,-0.63930203213146286,-0.56144617778162109,1.1955543408149643,0.2714283076738605,0.37303192083617642,1.7899609933560532,0.77571184174591,0.86391379699700677,0.15139990842500706,-1.3127938170511246,1.8092125951355382,0.26757581137007846,-0.0471951663713881,-1.4789288954245525,-0.081057282551684123,0.20242667012611712,0.88032142765835],"Bias":0.32976175706502364,"Output":0.32976175706502364,"Threshold":-1.4918727481234226,"Type":"GT"},{"Weight":[-1.1874559608695359,-1.3510608851390709,0.42005883828739587,0.98651185677690045,1.1196895768491968,-1.0339421886177465,-0.22768947958372976,0.026117016893633216,1.0126214209071462,0.9084766092284009,-0.21985348789945874,0.25763365452067633,-0.95006217944904336,-0.12957626192141397,1.0329424585369149,0.31655464196417227,-0.616615906703107,-0.86787878669233942,-0.86149072602809906,-0.54001574336551861,-0.13159777458796212,0.57381484684246353,0.327869094129591,0.63554292108656041,0.43662513905979017,-0.31457841760226446,1.2269477468109447,-1.5906324123920093,-0.40707969963880242,0.17998259057290023,-0.057634526264800034,-0.87741591729103408,-0.094251032031258175,0.82950880510244,-0.97505488347381108,-1.6056355552774089,-0.72420843072431551,0.83686100823658549,-0.21782279862920895,0.69865882079985875,1.9395735598819206,0.55069203607304562,-0.99245403101316365,0.71717027836820413,-1.1128924633901995,0.44620696196621612,1.1160974339831609,-0.065203512117826934,0.12036055145801994,-1.4231735446598257,0.40580653581107345,0.67656358456079069,-0.56907805175011883,-0.3193469877910553,1.0157522976006161,-1.6012057227088166,0.051327793882846695,0.29155306904183387,-1.3511661381233326,-0.019356860788239727,-0.15537156125315071,0.604159210515108,-0.086443836841007649,0.95485444035956379,-1.1634422741660115,-0.510527598909348,-0.43873545462032104,-0.70395619920639141,-1.0678331847618487,-0.17755798762201241,-1.6111923667094112,0.25300670706341366,-0.720671865493372,0.73187036939518091,-1.470163449398318,1.9394895676241672,-0.0012165596714320826,0.89695094288184807,1.1658868767162258,0.8935830271307299,-1.0714263744053554,0.33040329601616714,0.85287335182208257,0.23169623295780512,0.77103904684442748,-1.8976397066831774,0.19832132233993033,0.46935985663759505,-0.17661435063421455,1.6131895331727293,-1.0032558436520658,1.970203075544072,-1.7771657804386529,-0.87372761272067567,0.7236624165548301,1.434748632570146,-0.40676399872724056,-1.4363204815594108,0.67077591580840579,-1.711084840684703,0.03247700347913296,-0.96368317630313483,-0.75850517244939941,0.20844807997739323,1.9071990660890932,1.6811479573050272,0.86938796884817426,1.512083720188627,1.0801918576844929,-0.43792993502595,-1.0686972700379311,0.27614653589024507,-0.39713428385887956,0.000409762375247702,-0.27560751141310091,0.21166630657933006,0.21231622235491698,0.62970125401844346,0.30061258110246269,-1.6048540443204595,0.33726922158956008,1.3081411213186296,-1.6221685488113056,-1.3042075197697653,0.43815462627106355,0.15969325330094142,-1.4248510708216817,-1.5979451234326443,0.99226322075995887,0.56849154498474275,0.54849157228529988,-0.15805808671659702,0.04418287288592343,0.78397347948466112,-0.384228151819775,-0.45392373132236474,1.794021477826881,-1.0271356566935479,1.9106278959245553,-1.0983205228570478,1.3235972660237909,1.5718880032989606,1.45448508763429,0.16851167574921233,0.77045505250359669,1.5744309684142617,-0.505481994946246,1.6794637477395422,-0.46431663188353017,-1.3832592877481409,0.60396059351226361,1.8493233639045261,-1.3339293579146867,1.9664028659306481,-1.6076773468440759,0.2002046910115538,0.64945750341259756,-0.25473353679665123,-0.5530165600140613,-0.54940796273267267,0.091192011763896963,0.93814347169275569,-0.51669559977794788,-0.27154385404267534,0.30218374091302214,-1.8587722554145252,0.65998091300017236,-0.89205352854120246,1.2619532670415719,-1.9342955946616343,1.7059456946821632,0.49819661125969139,-0.098514055831800951,-1.7733678686308525,1.8731986022895195,0.23132898017360326,-0.32458763119046941,-0.75752661547071842,-0.4189159526927006,0.49656088859614012,0.88697087712910516,-0.2503017924028923,1.194286351255391,-0.19016215085990829,-0.25559137866627024,1.0163521048892765,-0.33805551092981156,-1.1953760158249065,0.96244645070398516,-0.83092738889666617,-0.511401945031901,0.55534886082053947,-0.66519576528351554,-0.4901175324293402,0.80992550906256111,1.4401475710049958,-0.710278499270919,0.28793810041990975,-1.9846169464218508,-0.18007547602992291,0.3167966488128513,0.32904203856784942,1.6245090978334233,1.3447213691401863,-1.3807277364566586,0.16731864641557612,-0.033218797045556643,-0.58046417824967955,-0.42266563844205374,-0.87231610104083823,0.303440523478156,-0.93637635881843817,1.1155664264762617,0.90049183503747532,0.66928570585757763,0.10474037104506984,-0.2118920810576026,-0.4027002166969238,0.59333896338629488,-0.95873293744341148,-0.78803345318326423,-0.37592581141550357,-0.54091606221204447,-0.59294822414775761,-0.49482308630590466,-1.0436554094979798,1.9607081394459622,-0.46938867050660238,1.1171708992296696,0.63664837211214409,1.2919946663510031,0.26677839563543815,-0.027171014820770889,0.970358822073489,-1.3145522798013651,-0.4997117419260142,-0.82234330327359184,-0.69610587778552713,-1.3406544790326871,0.17638140645640976,-0.56056527540114032,0.42524533272965126,0.48025543823850136,-0.27166823589786349,-0.02226694127184671,1.9590662270593766,0.27801760997530889,0.77578358597322783,-1.717561606186238,0.93735900890890467,0.95144367448587142,-0.49810739548323096,0.82544183117590908,0.59932454627674281,1.689503926639214,1.0776669024851486,0.9008375037931079,-0.20652771983599638,1.4782215279891258,-0.26812402078328834,0.13853604446097112,0.42508575443357033,1.8818713221148919,-1.3289754210640563,-0.32038851376641009,0.38988276309793957,-0.80376081252645726,1.9506118446358536,-0.32052277974808718,0.47213548048033155,-0.51236957854810783,-0.0073144375380661542,1.277887360787898,-0.95149345891983539,-0.36842953524013489,-0.0039847671014652253,1.8680008220802997,0.15264895192936479,0.35917217301166238,-0.91761783576459532,-0.99137900839158288,0.25693016379686751,-0.59282086351552077,-1.0949544865148861,-0.62224913976259966,-0.47003004918283786,1.259321840135065,1.6572814917458603,0.86776951461460883,0.92131574960486784,0.86654604359834719,-0.25890657131509232,1.8027495536034692,-1.5480678358804751,-1.6134103311288219,-1.7120260043125721,-0.67041566347257042,-1.106506080881928,-0.41919057090729039,0.89992315433915859,1.8069187120101036,-1.3951153677865469,-0.38363549771422317,0.48839325678459977,-0.79977588858444992,1.07535599408455,-0.06710925969160586,-1.7613077292969952,0.46187981519004317,-0.34258280058511659,-0.91568831248873483,0.10335954015446988,-0.019272142098877731,-0.55800469411560549,0.6730254439977118,-1.6794832384583929,1.1202546950058334,0.047192409991259843,0.30944629991284872,0.85318056999388192,1.0129857952766987,1.1332083694325799,-0.40468672342758477,1.8942169006421308,-0.52851820016676476,0.29058604142190236,-0.598977783973784,1.333288097443659,0.701003572997173,0.43279975346885624,-1.5115554134880918,-0.72841391094420749,0.41237599608133357,-0.64071611141848417,0.92237466151005354,-0.8404560867768972,-0.8042043532730101,1.6606035547613183,0.20710607907134371,0.29787976215494805,0.14923702443448692,0.25163682189380604,0.44768189217321663,-0.35577771759395382,-0.76746804768567345,-0.91504340009533025,0.9524908377567729,0.2076449104016142,-0.3191742678786042,-0.21670728466320188,-0.81040873643262734,0.74261540209064991,-0.70698088187973485,0.17451579038729692,-1.4102069322998667,-1.356794303914902,1.1911684550303821,0.48774064820620255,-1.0256899739735248,0.18809302555774021,-0.695185655120381,1.0718269138349346,0.15681782791242827,1.1683114446552056,-0.67866430939054778,-0.539641246450898,-0.81234016586669733,1.0864349961596007,0.64763008367625519,-0.18917674184272845,0.835896843683648,0.52775788472191554,0.36348158976225253,0.66377806415026,1.7499579674331276,0.024763857026008917,-0.25576800492395091,-0.024077094636893337,0.34128434605985392,0.78551367241214654,-1.1277749627492275,0.79753452253529544,0.20922728986909009,0.3229344488694027,0.32817382660143712,1.6622420035592476,-1.2671098138751042,1.0370193382431843,-0.4944979820840516,-0.05904887991913077,-1.3808157701887263,-0.295030095751877,-1.0548347621480165,-0.8432626318387979,0.20127855390369842,0.14628633817019232,0.69460113285789316,-0.96211946148524041,1.1727841194592343,-0.83262487260281337,1.9462404008704426,0.56095926101325966,0.53773793184093122,-0.36576077824726738,-1.5106579333127748,-0.69490828676843464,0.39094758983279931,-0.53166038451327968,-0.71305785547618639,1.2995137345509202,-0.44560998111060351,-0.42141343300296619,1.6759529406109213,-1.7657662535858183,0.10451336675533707,1.4691301414133655,0.19600317100808179,-1.9067764970971162,1.1581055697324247,-1.5315558815056254,1.0984328170910864,0.64069146040859248,-0.56961298975842678,0.12358629150483114,-0.82901833369438227,-0.2218607283299141,-1.6757848037759704,0.62914387049670206,-0.41059485935168116,0.59252777024755621,0.9333062703643491,0.22108532219244426,-0.33215014372586738,-0.28554053780880773,-0.36412773787236208,0.91124110990727392,0.73976399806884663,0.073795683949159252,0.92196123810576314,1.0601363950689027,-1.1373887868306547,-0.31222877479727795,-1.8647970370318727,0.28124560335709026,-0.44111093561682424,0.3053379236483425,-0.14452840825288005,0.97747215348178151,0.98851900077545141,0.26302787487536095,0.72435370028221691,0.42580021697541259,1.46105515186724,-0.91914995849092951,1.8596120774092211,-1.0099351154686582,-0.30786317321838036,-0.782190963990144,0.72594596758761742,-1.4899399073281976,-1.5629724597385957,-1.3244311433864904,-0.016569436901078635,-0.20261744326102427,0.33118113410597727,1.2165058344679447,0.15646377678795909,1.1753502167646541,-1.7221168576377057,-0.12634218664669525,0.037785961310279337,-0.42418474816912077,-1.0877831499501052,-0.50501828112071845,-0.45108933302158927,1.6052669918189135,0.5516570837011826,0.13310164651900147,1.6340963727022038,-0.648477251943423,0.92347428338763948,0.80811183285345867,0.46722520280965846,0.47090600359761448,1.102061718284181,1.5483476498855033,-1.1417475376006903,-0.862336686740165,-1.0282217103289892,-1.1778024916084495,0.069245873051344331,-0.87116697277637045,0.38452021190175806,-0.19895659116979525,-1.609241505844631,0.20972032237784943,-0.82552246359652381,0.70834528958873566,-0.287657772150197,0.025121740077213239,-0.80962520502955893,0.045527036322992043,-0.30243215921913846,-0.5753136978369735,-1.0327060683782707,1.8638981635979834,-0.94370634245858831,-0.46424888934206621,1.9224435165163332,1.1570549538159067,0.329982200195628,-0.552704961660297,0.38744552344030314,0.76683353476082916,0.91827536230826512,-1.4600515623856576,1.60476343129052,-1.489042581752428,-0.39022716246090239,1.3822998830034861,-0.61932237288883074,0.04313999882114139,1.3321828280259775,-0.21561403955128694,-0.5998098780865827,1.1879993590703228,-0.47356412430459816,-1.0496938214868745,-0.048285796329512243,1.9569003358282617,0.24013964563614687,-0.50097162020437969,0.28879782247382946,0.19854643708609349,-1.0724100484849932,-0.049525246978516346,-1.0585217024409366,0.50189811666584472,-1.2764524627832941,-1.5406809731692455,0.018933451218066555,-0.70006211251023331,-0.52842901473791759,-0.57460560984891174,0.65853092943249791,0.74005951301197515,-0.2592113000616485,-1.119198914207145,-0.91539463350334893,-0.81821143944664465,1.0560318301692755,0.6342941143709675,-0.55142515644031809,1.0654047099246666,1.5602009215206842,-0.67536242896475007,1.0233482014845814,1.9355516251807807,-0.30888306554461276,0.16310920661954875,-1.1653998974549584,1.2395843643240414,-1.5286490933637364,1.5121284124963585,-0.020236129881924025,0.22842645760552327,0.50319740665294121,0.5429917918718381,-0.36410259099868258,0.013091135077686777,0.44988095874426914,-0.21663591368898549,-0.010102922101552947,0.65306323703986724,-0.33417302818549194,0.051898226049681195,0.91384681380067323,0.700067307078311,0.26544165681835352,0.71929482310977533,0.40411179065895819,0.60643809223847356,-0.39611659298935736,1.8390729314829564,0.54357744126747232,1.71486970210209,1.2466299213686165,1.7271944078277772,1.4229733978505124,-1.6826148813975113,-0.073984951350046513,0.75447683700103174,-1.4082588164174272,-0.15670577490548876,-0.031666356502876858,0.71002677966456185,-1.6377159970056807,0.717366741372909,-0.040439660679753686,0.58363046179403577,-0.86586557462153291,-1.0874891705287104,-1.4301775250735327,-1.8962880260759443,-0.18467767824636672,1.6702332010819729,0.644753354901964,-0.30680659846719671,1.8568484475169556,-0.30459499652711441,-0.97393540242288057,-1.0044976272641204,0.18547659096563063,-0.26877514751105336,-0.4348908867529318,1.0800345498400725,0.075401161832456043,0.44744217090655219,-0.60358568029645165,1.76577614236892,-1.2864490297094218,-0.05625442138698622,-0.0141452439195221,-0.36186219268099518,0.6025790705357581,1.4838771202992076,0.15894327226977012,0.137852944813448,0.46563675462530763,0.060742200147706121,-1.8285602870530264,0.97685558021853491,1.1256452734235887,-1.1890574133015412,1.3897981678088187,0.51217417070277682,-1.0783169426941623,1.1754933852588261,0.11158678383174669,-1.0320846880935526,-0.48842101473753385,-1.4103250550161524,-1.0734578534371488,-0.2055172967750194,-0.73909199168921536,-0.630055521908242,-0.73597737715392242,0.32711279640305446,0.17081597921010838,0.39892735630223886,0.67428850624968217,-0.14981902103746259,0.22125063101819292,-0.44305072838582588,-0.32058648500618836,-0.44596217686588036,0.61507711122514541,0.10681759198513707,-0.66761653435771184,0.16622694030694052,0.13269158223641903,-1.4122731105481616,1.3071109015993359,0.66135264684509165,-1.3196043946405893,0.66146731314317675,-1.2709535599085287,-0.14985533903811832,-0.014612560167262645,0.5316489278398433,-1.5284701094629569,0.65633921783596239,1.3433078924861308,-1.3309347682310895,-1.8118229321259181,0.21851491658879185,-0.89736217558261111,-1.4368423705160816,1.7426766249084271,-0.13845076139012846,0.008284752261026096,-0.40999410527539754,0.43096411155116021,1.7247014677732724,-0.11374237690528027,-0.54946489238620955,-0.67213112715228918,-0.36316902646371307,1.1625579670828572,-1.0052725190404996,-0.059357946533410755,1.4774350135016419,-0.28912201723508635,1.3894030001896449,-0.30780398161513911,0.72292441256480489,0.91979907821854523,1.5571607330614516,-0.059638199424202787,0.88924665749736442,1.5567806283625685,0.17328506809346633,0.2804848342615659,-0.26088814542670186,-1.0024586464289849,-0.60526657412073881,-0.090503820260289913,-0.19337751259718905,1.1488778402092297,-0.29590266259993064,-1.2854606077472961,-0.25760349084511558,0.82165000346566086,0.45305658432331697,-0.22872734685834831,-0.70093751451975561,-0.029723552069497949,-0.7270731664796235,1.4076818596374623,-0.042671908644340784,-0.15042237665058234,-0.430042295916957,0.41393778771811052,-1.4118763430332189,0.85288563969213782,-1.2713729810302019,-0.22213201142015504,-1.1260169171150851,-0.29383286487967997,-0.1154646194146316,0.778345698038277,-1.1802189912089234,1.6213477308029995,-0.012590046977899005,-0.68406688872914156,0.088465980295308722,-1.6245463190714577,0.25556096900513436,1.2376313522633311,1.0472246313840323,1.5490877737985402,0.9367009265984878,0.520868816655534,-0.82275904660241639,-0.6586562118888265,-0.0038977123282354365,0.52345861425784368,1.3378366564111022,0.8934359768840654,0.95131400830639246,1.1346535352685738,-0.835449921356258,-1.2552482989873961,0.71487768912449368,-0.3951500302158063,-0.25568202999503165,-0.5318487847837845,0.023079865102606047,0.1293953667066039,0.24235044177847459,0.364094625396698,1.4924666734842895,-0.46455869906444969,0.72784497902162615,0.19943171469468224,0.65771194112380571,-0.635681604331211,-0.24215871223349061,0.52353981860510657,1.3615715072311327,-0.76168713660989285,0.15559485655072836,0.20576276546612518,1.8912987205625038,-0.50980031420933092,-1.0732864118522434,0.454460942747286,1.084145808165961,0.80906408783470463,1.0624298631482489,-1.5545074602377169,-0.3706381081408533,-0.80527195185668377,-0.93977494581592025],"Bias":0.66740578396066841,"Output":0.0,"Threshold":0.698071359981816,"Type":"A"},{"Weight":[1.8576126563631057,1.1063402961503437,-0.085485804865828685,-0.23394440963582341,0.14014695931087329,0.44496103490002492,0.81409961104583883,-1.0117115299271939,1.0257426514410146,0.73683122358603015,1.2785473369427711,0.82922846769412439,-0.8729761461135821,0.015201479203627244,-0.66256289680607749,1.3746356681802476,0.330626874384762,-0.71085696048608837,0.22435784816013538,-0.054085636070969278,-1.9346900749647478,1.9839819334372795,1.0025874616091355,0.3539586297021986,0.78550905677746474,-1.6480706406981083,0.22971802122412161,0.09582643867275964,1.3852828104911756,0.99272923968444715,-0.067957362191731763,0.35553737532231716,0.56650342049720148,0.63281829591506078,-0.16037792813050467,0.174689288332448,-0.7261582774697608,-0.88075979793479653,0.24600479206124382,-0.28970536157824356,-0.96267957774115709,1.0672407239057313,0.5485959083533829,0.75008929963227788,0.2956503305098277,0.39766259044299934,0.2126535732358012,-0.50511930578306519,-0.31134076617254908,-0.48747135255833696,-0.20125022446794905,-0.62169057066631073,-1.1168205901593065,-0.19153010568885592,-0.260391580993492,-0.0666347169627597,0.18997242776210088,0.20603379151133539,1.7157357184755315,-0.36546488961459356,-0.50389126804838491,1.1033506996363172,1.4148759299027156,1.9269023425536709,-1.60091365948362,-0.79132085982305966,0.14473142481629342,0.13400676753791363,-0.0872999434761346,1.4515659431701367,1.360328916075094,-0.27731416480490667,0.70952730379511009,-1.4707119294771514,-0.63266767684028835,0.24408230569403733,-1.7378739825160587,0.28448031390294437,-0.579572701620001,1.2837506492080868,-0.64314151981060463,1.1510671284462171,-0.030290910056927745,1.1789283818467187,-0.47856457670152397,1.118196329273375,-0.78560874041121065,0.28688004533149325,-0.39959925711136268,1.2259999584527686,0.699632490191072,-1.7904243207492048,-0.35409956162520673,-0.9968569162287082,-1.7143643590222877,-1.1096329216599152,0.52654920310087006,0.2778084344592916,0.748541685169815,1.1216134126864437,1.9968494381740918,0.52380796010783315,0.77398818591089535,0.47837814804091039,0.13761470380128094,1.1998399077913908,0.37397038151855011,1.1938049984748691,-0.34719777458828083,1.4091485922267419,-1.5291768183951158,1.3935850352950325,0.6358627055938646,-0.12952762592096229,-0.65051277234766769,0.33391832855246895,-0.38989742653905307,-0.91100415542080926,-1.011728305025831,1.2759592194463867,1.4191874642480107,-0.24078457909789147,0.12979507359200859,0.18564274636360034,0.31137059743871009,-1.5661813037312502,0.28640625628362626,0.19278285381979449,0.061828581645073655,0.33476706237288534,-0.45156806821542239,0.66063660320855533,-1.028775920639176,0.19912976594601295,1.5054654383591681,0.731777339583159,-0.68567596128474739,-0.99587700655491884,-0.74278331972328038,-1.1918899785689496,0.51994209172899919,0.66396712461205531,0.12702486955189382,-1.1922336575539008,-0.67013487134600758,1.5544801370960104,0.54459676637528309,0.72440748078488171,0.014804304094313742,-0.60017901500695336,-0.9443133580239087,-0.594884407672924,-1.46173354306339,-0.77875287028902807,-0.843999243734404,0.56329445557722191,1.3304564297806736,1.0553637440574186,-0.87629870692095657,1.0002840671951576,-0.76542242745190037,-1.1641034499807765,-0.24487339943641484,0.6594454858146821,-0.36384317915468428,0.38313737063814779,1.0047857309713892,0.027084019862620129,1.1216827154842592,-0.46867572258630563,1.0283723711168267,-0.74908131419627322,-0.72916660584936221,1.8253203964910099,-0.0050301217148220889,0.17894747572392702,-1.6570244113248887,1.4501990524354387,-0.70413990492717815,1.7036922945192514,-0.41998011545277203,-0.36730207682927224,0.35441716590636274,-0.36097683423473004,0.70931643443615944,0.80872897024336576,-0.84512642437830876,0.095053118334059966,1.2076330972870966,0.30423797029267918,-1.011076620203013,0.10734134152243668,0.94053119371669869,-1.5036061124427271,0.33055284169062638,-0.54390334456409484,-0.35560839913348125,-0.62536237138573192,-1.0979907592283518,-1.4565403309914005,0.88618696987917023,0.10538051189173983,-0.89490966074862976,1.4753869601876413,0.58741785333837271,0.2217374845509128,0.30701015489215533,1.1510559707652106,1.4558734413962222,-1.0446607298425681,-0.98741288342858324,-0.49599633482098415,1.8537917574186771,-0.091161632952821314,0.31931652609227057,1.228419467585764,1.2817101149268959,-0.73379302210351116,-0.20520721847725876,0.82703618944055268,-1.6831559532709215,-1.5799356622527985,0.39453501668504209,1.391519343197122,0.60006816992539358,1.4782806297197384,0.5876938647533273,1.9247000869012902,0.51822493194954955,-0.21938570505910815,1.928293464671957,0.76496610174186808,-0.26146917978428258,0.48728277184408292,0.90810207971748991,-0.075512978283461651,1.3620003216722982,-0.69014302393893856,0.032586729169165163,-0.85322708862518293,-0.65035546508168585,0.91298765312553742,-1.2406367693285629,-0.059772759994851779,-0.78657385464132479,-1.1121321289332733,0.15790551163158628,-0.45759005778589756,-1.031090943972157,0.41154767126382674,-0.043697790004783493,1.4829212787947252,1.5389560790681078,0.957072127124794,1.420375257460575,-0.31894935402970259,-1.2433711584859393,1.5091774666258959,-1.6411686780122894,-1.2587637394940312,-0.21145277736310517,1.2359204632746619,0.042760416419599379,-0.25932830211675184,1.5792140029739654,-0.81117794048561609,0.41683359513573925,-0.691065535882178,0.063514382142347614,-1.2991163652851787,-0.33066393171002351,1.8232094607424036,-0.15440710102262195,-0.64868067274721808,0.88352557243012164,0.083420490635113628,-0.12238144769677034,-0.74597893783169744,0.34680685859490512,0.41881262064856128,-0.627360820265684,-1.1908949535297673,-1.4996332710141471,-0.20929259602448402,0.593573225472855,-1.3074978959315913,-0.57143307883650207,0.31055117738924509,0.9597104257367135,-0.71268087203215391,0.8450145455286906,-0.12720830670253291,1.5573565771604687,1.7106029371314695,1.3697909300074871,0.73533179831473716,-0.13094808074224185,-0.0858434057262929,-0.74818038882137294,1.7799121438432075,1.7792689757325075,-0.5784658224221626,0.1224614160007152,1.4550436857225417,-0.18025598497141893,1.5492746446045462,-0.90935676307853153,0.092185489380291391,0.26585022279333792,-0.46968912261989404,-1.6970669886549317,-1.0119842304903941,0.691355715376607,-1.9203454218433915,0.39120798296817011,1.1662901040009643,-0.051805687161071923,-0.66629404885056154,0.68245655702541419,-0.75070573610752156,0.65255566541064458,-0.22932948006329448,0.6887361249834002,0.22884141056253329,-0.665015156690504,-0.78580795241790269,1.0171065614638415,0.87520344278537232,0.1433040891509989,-0.33862592901039207,1.4939105042693721,0.8237764233834,-0.75280089059509381,-0.75466321723287133,-0.66240822089016826,-0.0946399568772614,0.41856516824037082,0.26044738770483411,0.65832965898249751,0.24178942909547563,0.536946220629789,-0.901001241417646,0.20716165295204225,-1.0241164970323986,-0.27210925252740692,0.42821838354143249,-1.4892809779798988,0.026596929890381482,1.0657036952049022,0.41428400595406256,-0.46892144552847442,0.64271352376915214,-1.2274960459221602,-0.523065930475977,0.68987877605942938,-1.5647615210920394,-1.4749988051946268,-1.9446070845912244,-0.345146280990516,-1.2200367502961478,0.084751898462303077,-1.4438446683082007,-0.24517970264199174,-1.7089206053451265,0.033393680133574577,0.72023459836851567,0.13209026732113682,0.83261950818478114,-0.45740825964657505,0.09250297308550362,0.94022280859771312,0.10516959526816838,1.1625838620224804,0.66051129189343716,1.774112880124763,1.2016028199352338,0.28679504421856017,0.94601261752937571,0.6161119834973301,-1.6534077132369429,0.4857571393096875,0.28732210545568182,0.61442531673909417,-0.0019879685724097929,-0.068177825337358583,-0.40758833773787528,1.9266573004083045,-0.53584416701264881,-0.83502957543126755,-0.1200613967352832,-0.18543499996207413,1.5851427240228015,1.1486100848524878,0.12178116111167758,-0.89876511110484691,0.45620007938994095,0.06362381888955071,-0.14882646751011547,-0.58425433536025428,-0.62614009791339753,-0.38740591629753163,-1.3610657692705588,1.2275896960750523,1.0144306793876137,0.39266103623325993,0.74823399574879268,-0.12980909977565014,-0.31559799099940045,0.53276069207711174,0.35608530381415737,-1.9456761292860267,0.54878431770428293,0.018885458828362456,0.50537570310075575,0.14497563808456793,-1.2182956166650614,0.64159606240764067,-1.4407912005860317,-1.6105054391596958,-0.46247037335413987,0.49721036595162493,-0.64241186576342879,0.32306597194602515,1.5138290987880105,0.32106705397417168,0.22006498350735754,1.6657048536770533,0.80081802737005914,-0.78895046561951188,1.14715291007755,1.665157403640988,1.0760654691029643,-0.6972666730625865,0.17788875687536265,0.19653309075931702,1.65348592011886,0.44819315916308811,0.15291763453414539,-0.73438059479667839,0.70778962631665143,-0.74554261835567026,-0.051980128535991543,-0.10096243820198009,-0.60113008603709994,0.72032891154304579,-0.34732632294823684,0.28995515279935447,0.4879799981079902,-1.1018002876554618,-1.0581698425410919,0.44024121626104612,-0.80708351908581488,-0.081958438773620162,-0.551885018371254,-0.32102650884586692,0.033364456744568713,1.4632122770246174,-0.35777343360603475,-1.3418466117282382,0.74368715972811339,0.64632857714143044,0.95079543918728371,0.71297769677498279,1.3674141717166239,-0.31337910812039826,1.6197594756352527,1.2361170068551401,0.1276204949839137,0.0828074803961476,1.0320686265044232,-1.6581177747147706,0.07064768582146963,-0.94896344162941126,-0.920018575582662,0.092830797700598322,-0.50228641159007625,0.39453429392051614,-0.51201117528230466,0.74197415110747056,0.84969088259371506,-0.36185307119127974,-0.647211245562514,1.2087860681157494,0.528204794287777,-1.1467308863749404,0.16184575583871741,-0.38090879208450623,-1.0395338870042359,0.8533661306618554,1.8781781810699862,-0.056476612601651155,-1.8076562023757288,0.0067563410879840635,-0.45755644244333682,-1.8817555512682327,-0.4796870672049407,-1.0363254710269745,1.5293969081985677,-0.55328028022930043,0.3488126277685224,-0.07449984390963782,1.575296500499964,0.80097170849521482,-0.808597644236217,1.266765765504337,-0.25616855277181294,-0.42078284845723912,1.8368860929444835,-0.56774901904526587,-0.36966233717727581,0.94166238929222446,0.61963579366897958,-0.36415448394331812,0.34621057023583468,-1.6273992208891546,-0.29672144832868208,-0.16964123312832835,-1.6885011846611748,-0.50284269623939992,0.73831635214698321,0.25004049799174521,-1.4067560692349246,1.2198217637929236,-1.0189542766955113,0.50715234982241053,0.41184932216389547,-1.4029040004082045,-1.6945320273258406,-1.2345068823706855,-0.27579307091692129,0.13247139664947594,-0.26214854245174141,1.3621448703865262,-0.64290682722018411,-1.1717790715264991,1.5335081450331529,0.20224578559968887,-0.19960900312271379,-0.17966735278240748,-0.93795780478158974,1.06480095620025,0.47326162013842787,1.4362247844395344,1.202725436167198,-0.0953923437490094,0.36297158261899432,1.4950146505120276,-0.81734014713081549,1.1918567806444396,0.12594794301593115,0.794549902339722,-1.0991281173653564,0.312714528903698,0.532424711404566,0.27612262977106616,-0.540052890097747,-0.61562015455025176,-0.034191452914006826,-0.21373508042364153,0.6637308852112529,0.76210543429005884,1.425000134704169,-0.36134798748481467,-1.1432157490138037,-0.34594895287739358,0.29126148707757782,-0.74484524538034824,-1.0328746470775803,1.5154662735366573,1.8292219265500185,1.6092523250771931,1.5597168534620856,-1.8026798105811142,-0.71274093851109077,0.34455101394306453,1.9816801678304001,1.5491711569713296,-1.2544192500665874,0.904978678051838,-1.0430230838446986,0.76156194822935486,0.11903444217473025,1.8902115448798105,0.68713595098216818,1.8719224947839614,0.051242614654471552,-0.14519419807251266,-1.3538494032592743,0.61940829950357257,0.64202047448699373,1.0577158755891563,-0.14822887245817873,-1.3086078182368577,-0.64029755659415266,1.6744492741648336,-0.12914867612027958,-0.15629831732078381,0.44587439598789169,-0.598696713614602,-0.71005208543969878,0.60241259569414529,0.058068911572019211,0.98654346120848491,0.8286950061231364,-0.36585107841102926,1.2554800309482568,0.0826194343174404,-0.77436074319527748,1.462579660798693,0.52700717068371694,-1.3617206563077511,-1.4638248277183066,1.6327949726255531,0.21515216187813885,0.55783531188102353,-1.6420814225646114,1.0645449660087678,0.29093547603857495,-1.0515017058008824,-0.47385513106074895,0.38453011494573663,-0.16279657099526212,0.98074758028646336,-0.704741132773804,1.7698127942950523,-0.70455919611480045,-1.932410253180382,-0.036541788855819934,0.36121540056132484,-1.1101517959545142,0.20649330048192915,0.8628843905697039,0.25478277739825794,-0.82193039675333091,-0.6896497545249991,0.50370900251609685,1.2833413620401832,0.22936949260969158,-0.74487753712799276,0.49220296985546247,-0.236961019350314,-0.24583962991306829,-0.51779180717959161,0.29738395996193634,0.02515633856535715,0.42279489078689148,0.461408928939128,-1.719188306349883,-0.30705660130225887,0.26095837459944105,-1.5622134337025757,-0.93263206767506524,-0.027515358304379234,0.75329491659221,-1.0086607201996543,1.0027589439427289,-1.581685631806816,-0.50850557584758893,0.87760571082011118,0.47679389220513113,0.78528867232859545,-0.17246509863644144,-0.019932488920135549,0.79117060000597039,-0.65472262266777581,-0.95823501747019346,-0.72826056868222566,-0.84343329679890111,-0.2511768211848926,-0.20858272361037433,0.0697405549323841,1.5088453607209238,0.96399863761104587,0.5182879604484365,-1.7170798218422942,-0.95183233978544934,1.1905943383186095,-0.96634023472030639,-1.3828502182768891,0.084398460613749116,-0.17009340001740186,0.2491620491342208,0.17496512186479052,-1.1826243378141077,-1.2520516250524909,1.9708704613013519,0.6762749030842794,-1.1278123944661638,-0.53455574183471311,-0.14111024217731805,-0.22871852321723407,-0.56618942812373363,-1.1273242994804513,-0.83586369028122331,-0.92646275783258614,-1.7848410959284944,0.32280923225814928,0.37275338108779543,0.34969966711928119,1.7032249568510918,-0.25728376594245617,0.70069740465874675,0.309206114294569,-1.2001583516598484,1.2005055300893752,0.67038127345516418,0.6220853173276808,-0.26754460496247967,-0.34649448019754825,0.031810604981989954,-1.9649412464187206,0.062058921000947453,1.6058489063781916,-0.81218009722928053,-1.007249235644587,0.015736819252249123,-1.3344934980516525,-1.3312948943727161,0.12426232441759788,1.6439307330380804,0.55027918636346218,1.9872005190640691,1.2989742473228714,-1.215452842049046,-0.18678755228723754,0.74593772494510624,-1.8610832895436711,0.049418442789194356,0.43368755953092464,1.0106272307506889,-0.33055254087343466,-1.8322452473604332,-1.1561395408206803,0.85598037292062323,1.4132379011312675,1.0524634230194907,-0.2818842857526076,1.6832925023898913,-0.38633222523440247,0.1525300360063695,0.69359677233057626,0.51725209807849115,1.6623277792997322,-0.88516252994777767,-0.28602929541598038,-1.3217851424458367,-0.86287865557259824,0.84292873593183648,-0.97116526005378234,-1.5789370423084763,0.12789561040106726,-0.73838677915232809,-0.74995269940698184,0.61818103055385,-1.1666984870874781,1.5768344716992391,0.3578389987153181,0.87808424554676,-0.67363646378444342,0.04152714148882472,-1.2953213524517238,1.2602677975130585,1.353640997481365,-1.7072645983226897,1.5425529962138054,-1.3341639355449768,0.394300754089165,0.543196270495279,1.2878430538288517,1.4463326853915737,0.70210988479764669,-0.56227796271549435,-0.095595387340786014,-0.83115781451129156,0.18019123849467911,0.73832152611614288,-1.7451122904872114,1.4182430298152582,1.6645560188519561,0.93981737349639538,1.9340272172978277,0.5478200365546253,-1.1236850261332863,1.2694694061155754],"Bias":0.21908088364595588,"Output":1.0,"Threshold":-1.8119975197184819,"Type":"A"},{"Weight":[-0.38301798253460695,0.77984796221360941,-0.45194490740631932,1.2659882997469922,0.57705539212425,1.5538435669400932,0.093771846077298715,0.79688636250648925,-1.1558068930896961,0.014269367798356969,-1.8952961284179688,-1.3220908079864882,0.89086499199777158,1.7087937759742111,-1.9590102210450033,0.31212406899413292,-0.44226620623016089,0.34513648149796605,-1.1484708729622226,1.2826046809938756,0.63011376437736377,0.727385336871904,-0.45983136001035163,0.87596436165085256,-0.070846620980113073,-1.2432398680798895,1.0325215417111857,-0.014274858410598168,-0.0077744219488344868,-1.3539737180592368,-0.74071951431255756,0.30351551235153229,1.7724208234680914,-0.8323392210678846,1.9235315713675374,-0.19572106199139788,-0.59395882922409038,1.0436625830101143,-0.905196033374032,0.553559589457493,-1.2274294734128888,-1.4951336400095063,0.80752152894042506,-0.54646436243619034,1.1798319701011439,-0.6144191821172923,-1.445742035026542,-1.647913534030278,-1.4081947893873763,-0.94302941029566778,-0.59223760598908992,-1.1295509222566853,-0.2821372683542489,-0.68768127760276254,-1.2445315361230316,-1.078078446480482,0.15167371190696666,-0.14163081075140771,-0.56217560477656114,0.79121826998480527,0.5312139347806637,-0.9915186669638002,1.1195296249909,0.064932634851398274,-1.7727661895438871,-1.4808193647679033,-1.9103944543331837,-1.4783669316574777,-0.88354274578557468,0.19052256932040779,0.41900632084301037,-1.771473031384625,0.564393064269979,0.17543566514525377,1.1434788215642229,0.42216173672217971,1.6807262560728593,0.65052435577405832,-1.9663124848000297,-0.43444403758479466,-1.300816159369804,-1.8331426642058151,0.30765825431219218,0.81473138035029713,-1.5966067442654663,-0.25882004120332186,1.5652055924596291,0.71680087981713037,-1.427286142216663,-1.2179325684988558,-1.0489510969464964,1.839727068245284,1.5833485535585596,0.19032238153290093,0.54079652682856949,-0.51705958811429309,-1.0652437466500531,-0.27606207797120419,-1.1725305613002417,-1.5984357109286058,1.2638926740101972,0.092041616370921009,1.1157337166907888,-0.97627300348890622,-1.2212522836501023,0.97716753323430527,-0.62533542729231306,-1.294305441106812,-1.7351346182334864,-1.2818733408497056,0.92370255986400984,-1.0662039905163478,0.92647502893883482,0.42535626721817821,-0.44100455494644342,-1.4523549282235815,0.15964587412758058,1.9796906784082253,0.99892471870357369,-0.71101340405224511,0.92562061498203363,-1.1343700624463939,0.85357945172748506,0.505597389538585,0.41300728936354036,0.42742357702340161,1.6902353799390772,-0.49055655602857312,-1.5489443463966923,0.35496108134042537,-0.51138277655066111,-0.32277656734119009,-0.75049106997926307,0.0054719122152180333,0.216704988021732,-1.7620975467199913,-0.21466239831161804,-1.8097558877476285,-1.7963437902724109,0.88997874171006419,-0.80511729736119375,0.73093241766604233,-0.067389835634916073,-0.626694889914568,-1.4269310377372575,-0.1059892131509208,1.4566063356849393,-0.83030334246824644,0.77938755917334346,0.71246021739787446,1.8052459470020823,0.098234967374352333,1.2194633107723032,-0.60846961038581537,0.47177204092581371,1.3439976271912446,1.9225423950341263,1.0190718743777003,0.95834581795377116,0.7467978087937448,-0.37632354401346468,1.7712267673440403,-0.39125484898279184,1.1042977772207454,0.21158043770658797,-0.83757316639533874,0.055671750302739326,0.04377481576231057,1.4903851426161756,-1.0022262912253972,-1.176253912586837,-0.78659037164719336,-0.43780911978697823,0.81893175971644538,0.37924831657635449,1.3389119567996413,-0.10131103177615952,-0.38371674687774704,0.79172250385942045,1.1850087082409342,0.017225264579628391,0.022706083265461918,1.4458791387481051,1.1471719216309357,0.929444161676543,-0.82161788401269265,-0.030634324080606179,-0.39897845610928639,-0.5570312247411493,-1.6470591193749846,1.103892664939115,0.72178399223917333,0.21175026647362416,1.6253027914209768,0.026449062873818374,0.96277653843293742,1.5506103856259075,1.0856130919817897,-1.2999237642157469,1.6305951679267898,-0.54920579943536119,-0.52919385162108212,0.70450458522164483,-0.066313289136771758,-1.0985600215958244,0.6783213271367462,-0.806311132528964,-0.996847604865603,1.0430974508836388,0.94986784572241245,0.51859790483424351,-1.8628474324302968,0.11807032773181359,0.090423634317900792,1.2155333884132715,0.9087442396715022,-0.79864124595124331,0.87759198568649222,0.40397016350364789,1.1265133242711953,-1.1454033419235625,-0.53817435192790564,0.46642636343204719,0.034442151912693841,0.685522438346186,-1.9133474118604079,-0.056903594199988694,0.16313414655771763,0.940494296316986,0.83098652252507721,1.2243527039998923,-1.2543030681574268,-0.15185806860768142,-0.88272830023557325,0.44111145960218812,0.8016296805821499,-0.64850863937684733,-0.3793924233616498,-0.03993858934377259,-0.5369043324780205,-0.97087989228120075,1.6937005127285145,-0.86261081828857344,0.25141962536211127,-0.012676932854893019,-1.1182414820037043,1.6513744777307728,0.33717343750743839,0.39042100607902785,0.24024258472036708,0.45813709332520947,-0.83725245056545949,-0.43859535941788708,-0.27566506074539632,1.9187901764729944,-1.6941791044986709,0.49589586187894241,0.52128053946480168,0.75592494663126986,-0.97945243538331828,-0.20160640171454591,-1.288614231761831,-0.23527047700959747,-0.39518576971962394,-1.9553019385576722,0.47602859627270533,-0.85428019280279066,0.39213654696575206,1.6965581587034082,-1.8716021235434348,1.7331484983363881,0.547656153234493,1.53095941782508,-1.0479619945622805,0.74709260917598974,-0.56522757120673894,0.71413513678784257,0.9325396078324597,0.908435359554568,0.36630033904979942,-1.7013809679548166,-0.3208924784888012,-0.87647447310223914,0.26594472199955244,-0.891710253847628,0.21306714984265496,-1.9559511281344812,0.4967643499824983,-0.74162343225517469,0.77455196845091523,0.88946839556538881,-0.78692461354049148,0.093288558695134083,-0.2682267139983488,-0.64215066453542113,0.54762599802814693,-1.7298989052557847,0.926033033489265,-0.30827746461531036,1.0329203840964103,-1.9563625659590413,-1.3795894754024174,-1.2516092471785887,-0.36781954316786458,-0.83428910506623288,1.1594897001793094,1.3213531767583235,-1.062375697801996,1.0415235299344747,-0.77311857313528587,-0.55559396862778532,-1.334503449189711,-0.59037604303582381,-1.2053857944930837,-0.331837554616778,0.055585363905683804,0.64367674973033218,-1.7515161762719584,0.31134648682146648,-0.58995898724066043,-0.33453494582070736,1.3159597380743175,-1.4541712978175707,0.60237507363891929,1.1683122400046848,-1.2152520451765749,0.9394652152805123,1.1421585498108335,-1.4166265630240675,-0.50509495591050713,1.4575055816478586,-0.87269599171015244,1.1450421396387007,-1.1106327507228744,0.61123678675444659,0.28798879523897114,0.492942426117576,0.45694829707823165,-0.35844962513467737,0.085908099583307335,0.31117322170695905,-0.098993995273017221,1.9685384668263319,0.75565425760841654,1.7838240357971862,-0.097903297328345129,1.4380831874153033,1.1088230300735791,1.0299339876649594,1.0024907006893729,0.84099699689121765,-0.37738800159533892,1.7790472115292433,1.7121516781450024,-0.5986650185536897,0.43713563322654708,0.838175123947754,-0.90533486516463335,-0.52491991712009534,1.880132120046826,0.80901608234691247,1.1020688233441063,-0.73801446274761784,0.053883994488922837,-0.34244475389944617,-1.7957359886708371,1.6478358207493256,-0.1866847538327262,-0.32111754190228758,0.0863055596529998,-1.1029293548096575,0.21120899791652761,-0.061299596941703838,1.8867515250513103,1.1238996233436742,-0.49045083601514383,0.10967811202149758,0.58656786409512529,0.19037623246683566,-1.157880053463336,0.34453527932819461,-0.061411896497195723,0.88116020284647134,-1.6518732382226145,1.7637525535019827,-1.5571370960217377,-0.47417322475191814,0.26452789561102552,0.6561206591576898,0.87461536884057134,-1.3257723934428172,1.5874846743361486,0.049939137091831835,0.090503262398067608,0.36627158167132712,0.90380460345363467,1.9803027305660317,-0.0415779562293101,-0.30420756424041828,1.4303735864490148,-0.40235099494566717,-0.58870809273268465,-1.3050194267672577,0.81891513979943253,-0.47378919902492278,1.3419981204634524,1.5248134245745901,-1.8165390751401609,-0.85175047481979727,0.62843247625438137,0.026476007898559861,1.8853532000842286,1.5724838839715738,0.78839627270977786,1.0275223194749663,-1.0240861284658713,-0.57477728769871272,1.4019901144327549,-1.3025790524215339,-0.46616811466690533,-0.44568862321120151,0.8316692327296682,-1.3633338504532975,0.090725633357989555,1.3969993122839366,0.94378605109815772,1.6044066080844059,1.1613220922468797,0.1603469197453683,-0.15821842949754483,1.2958604597001617,-0.65662338801502418,-0.9206123412217071,-0.63511865180742522,1.1111389319929943,1.2905303646300594,0.86787267349095654,0.62242334225327867,-1.0672608168624151,-1.9408507710047303,1.3522019313425766,1.1756621652111234,0.38706744506469348,1.7164994886687488,1.3111188864852856,0.64859131288183436,0.3704291346345232,0.82322242987492222,-0.51188442041719528,-0.037965045328235636,1.6008693257350797,-1.5898449656506277,-0.82775821668457161,-0.12474995950458112,0.083126515848390065,1.2390448931786442,-1.4250550565426494,0.9431472620662058,-1.1528742718640128,-1.3765686076956656,-0.77020496445251863,1.0243662349061884,-0.27094209206800079,-1.1804171964434986,0.75556542852686981,-0.086269899486223989,-1.75263696152374,1.8286443687177472,-0.88774508931103391,0.493812077908689,-0.07853925045511656,0.32674801731563552,-1.1058376315542673,-1.5982935389495889,0.20396695481798011,-1.6008838403974117,1.3294839297092911,0.9967024993950977,0.36936347669426528,0.4957108385840947,-1.1787881269952227,-0.1362754557683484,-0.24215001581977122,0.75482797909578214,-1.2028935771448972,1.6583386313441857,0.74353167169891821,-1.0925753075129236,1.1352017126675702,1.4560288141742483,-0.51890393836372706,-1.8333770222186003,-1.6816071102775667,0.36322642646880204,0.27522460384072012,-1.6875508165394657,-1.548532234294588,-0.27273104385007013,-0.19114259359945662,-1.8617703820866396,0.963589234260651,-0.10862719179532832,0.98640588577203736,-0.96945313502543284,-1.7300999759370925,-0.56375676512893147,-1.1628694753920983,-0.90295106773402123,-0.443740020297987,1.3560481730294638,-1.5878394653964041,1.3272508327277615,-0.089986729710356622,1.2944338884760782,0.65878926077975852,0.37404905802624228,-0.51295031310895012,-0.71898239791345886,0.75557967589962294,0.91171179707707439,-1.5112333258200592,-1.3420058709299219,-0.095226230726217012,1.4102659334476413,-0.26574729511781925,-0.48607603296920465,1.7578030898039243,-0.64374342311348,1.7328748475267566,-0.946961005863017,0.21224737406566457,-1.9311336092330205,0.20880385032333626,1.4416525566213077,0.86115043464170316,1.0437636242917567,-0.19878859408143379,0.32408327903788692,-0.19762177308910622,0.835279134491123,-0.9594126450640208,-0.62190388451419021,-0.780358582167122,-0.095277871980926854,-0.64786530409374521,1.7520513784848393,0.18458441094708844,-0.024820300761992264,1.7097887693484259,-0.78527663312166773,0.19950295342109303,0.31588130086468591,0.71879681419525143,1.7179576045451488,-0.43797956299408319,-0.8461775215557672,0.027559175168890171,0.82988897895202474,-1.0666979360704767,0.27536828921892154,-0.37460205348888503,-0.058158333556800279,-0.92377518812370263,1.2021098226318649,0.331949548484734,0.3545891674489664,0.84418451359690394,-0.73844310768807442,1.196973360700986,-0.51072122646063622,-0.20914556375199256,-0.60676911594661376,-0.39773282986028713,-1.025975409441616,1.7748302928054844,-1.1488807756215711,1.6465375608049975,-1.6008340956647107,0.45279718677177883,-0.10331558440966338,-0.772106609433939,0.070279794777873938,0.5327983752511436,-0.36866365483434116,-0.56689801838570175,0.79625898543571072,0.52587289853294994,-0.99813846824604013,0.64310485713328458,-1.5938182912505319,0.21908776286015663,-1.0600251881685225,-1.4953606415052716,-0.71080885170880181,-0.45742696638099245,-0.65729691258505774,0.54197388260717216,0.363768465055045,-1.4971244593603186,0.64925006050581568,-0.85249950964906,-0.537276572798042,1.9600203241966758,-0.49991384689924956,0.32475581873429737,-1.2708356265308503,-0.95080783774648225,1.3776592703664949,0.9860253161685657,0.51527311956289834,-0.55627901691770132,-0.27632788488470394,0.56750857390813,0.0691528758356128,0.97803329163139363,-0.37700482568564109,0.57015476809821786,-1.5581892279713365,-0.8181804012591859,0.029065711364302547,-1.797954570407958,-1.2276414456905991,0.98301968004380424,0.20257330974683807,-0.4799308266862905,-0.13099500217055671,-1.2014932814992467,-0.09286446848959401,-0.95375244736380527,1.3917549342809967,0.67393812196046965,1.7591277676444164,0.59412978896597857,-0.12076963268721919,-0.93692847478060437,-0.66926666473470009,-0.047420141309229669,-0.86918012186381044,-0.83962655385938789,1.6178228317842924,1.3100850327453042,-0.088725351478776554,-0.625654553354557,-0.021251106178970608,0.74356631503606518,0.50249908235971752,1.0057102934251121,0.32410777189028817,-0.26199704141449054,-0.64886693884565816,0.15355684429107086,1.0474903914803826,-1.300807572575662,-0.77227312502091428,-0.43674169873667024,0.010221607434899492,-1.9096430223014407,1.1522798231580667,-0.920653007887608,1.2533658902409326,-1.8020893534655169,-1.0511510200105381,-0.669019238170711,0.14787837776722324,0.27113190026540851,1.1677296604810885,0.68223107637941427,-1.5000933480915117,0.39117667935377742,0.96038162846135977,-1.25450528777065,0.56937984776188622,-1.2056524563607072,-1.1224329910461943,0.032832657002300536,1.6883266864755782,0.041582479161015762,0.19731563664847784,-0.3383619162898332,1.1463531938597342,1.9285690523351398,-0.81957802307772354,-1.8477330132609853,-1.6596087215745863,0.22973652660368771,0.607630300618536,0.50130911191506156,1.3212721027998589,-0.99167514504709975,-1.1024756688170487,-0.051581684523998583,0.51884646924158861,-0.44012720396980987,-0.15460377473132869,0.04496223760999829,0.5949819975509224,1.6903866355728296,0.85693236573456444,1.9703364502500449,0.9685613601322105,-1.1180109954988635,1.9019559304704683,-0.46765581074527263,0.020862692045449688,-0.54605018745458223,-0.24840587575380024,0.41606441625210655,-1.8337928021018359,-0.70307480483459073,0.60318902023285126,-0.586236409184633,-0.611708945879577,-1.8785613625676192,0.38660869020345079,-0.34621586946128668,1.6132115123855004,-0.61819190965299109,-1.0148572544636472,1.1294366359382106,-0.46697179433166591,0.68832426829651194,1.7056630457312161,0.58623919680772318,-0.019046156676042036,-0.63246744434929791,0.99077562568279731,-0.02374311630788406,-0.31538522165053773,-1.8878748826160445,0.084149052428151183,1.40220898920773,0.33219133239807164,-1.1887994982250032,-0.81673116368089382,-0.36823632503413772,0.2808074980419164,-1.3982038318171184,-0.28035964521363366,1.9111440516594538,0.0080454192540122538,-0.17006881915501726,0.28373790545563127,-0.1905681366056986,0.46001722591929939,0.15200617078319478,0.46503784622300337,0.28256808513895049,-0.2341577048572514,0.78487461818609117,0.72792297169935116,-0.36351158629815283,0.6138746322197256,0.79227364938346367,1.2333647409609354,0.43555144892798348,-1.0656866464138435,-0.45238419689814752,-0.39707302832839686,-0.98309009940507364,-1.2579162936927362,0.42012422103207747,1.8395488950608061,0.76022853272046342,0.37856236210957261,1.4439823755267924,-1.0467447720220058,-1.4781656132443648,0.8364543713799,-1.126095072890676,1.6066066250701465,-0.98464898717806171,1.0117007545250005,0.9313539628318297,-0.0613868995855501,1.9218343942993479,0.11862065089802276,1.9789659622958702,0.27793092101665073,0.95907919526057284,0.33962334522028614,-1.8810694817831133,-1.3037318975216392,-0.55073533512220507,-1.3228009470378983],"Bias":0.56805358853566157,"Output":0.0,"Threshold":0.27756969364246808,"Type":"A"},{"Weight":[-1.0585995461133306,-0.97542011748320423,0.010180349679296857,1.8822241071063206,0.92173383707261358,0.98631050576749768,-0.90363686109529884,-0.42594569033288654,-0.933325588293758,0.42875958719698692,-1.3187698569701845,-0.43274767623876587,-1.1572475056896208,-0.75129035522755716,-0.35394459886194429,-1.4687857737153702,-1.2711943319398884,0.83867949752075566,0.078563415511075332,-0.083694952579073112,0.093488913072966362,-1.5319188959719658,-0.6784043331359435,-0.99185002962970181,0.16543672194957582,0.247003325958272,-0.9113132296648403,-0.86959110546488827,0.873960754393436,0.57295084864504231,0.55204865641521694,-0.48703712268558141,-0.44531025478863628,0.90296013532344266,1.4834632573106621,-0.063429311878713479,-1.8803702983448143,-1.6992874479383637,-0.764072396857232,0.64530242823311246,0.010470097423750158,-1.8110362169384193,-0.26416440739490293,1.6260354233095589,0.44679190975580924,-0.85673203079809057,-0.3849669668753477,0.84925086411732675,-0.70598155397734674,1.4694519580665286,-0.49014768353204596,-0.1434966452156643,-0.76769820149462387,-1.5250242489972263,0.15361742519476332,-0.99464444757655468,0.42921915018429013,-1.3760626406297378,-0.2912398128406628,0.082222230552449982,1.6240830284655481,-1.2365454864858396,-0.28435138160565465,-1.287378292664596,-1.1921463195197966,-0.53963157524803262,0.59388281339494631,0.61034953482930976,-1.2637530040292782,1.3522480425202512,-1.129517751806191,-1.215694352735623,0.38462975546001932,0.54014035618870526,1.5264715978533361,1.8207122086643763,-0.28778078141053243,-1.1665077186964954,0.56150320752679539,0.59781837211820221,0.67027488032834359,0.60727957571264346,1.8935955631982515,-1.1039911392629105,1.0970185860511932,-1.6485681997838282,0.711760368995257,-0.60997582814189411,-0.058771512032845752,1.2458227049772734,0.321773250879003,0.787458881171168,-1.2693864979172993,0.12720005129915665,-1.0446547470263461,0.79434831946373952,-1.3180932399435403,1.4114858823256153,-0.64431060088999126,0.27353747168313125,-0.251714415237873,1.3652430490428782,0.29567800898122376,-1.6504530905049542,1.2172142859628492,-0.44806581151115976,0.10854173363584163,1.2975110091723088,0.27907657725269219,0.0725747420121099,-1.344504267399667,1.0361872562375794,0.99394505424143054,0.77968589439042191,0.55750501088681859,0.26531673997655369,-1.1015906841967211,-1.2701002542255915,1.2427253440221424,-0.069364632279316163,1.0500629269751083,-0.45395343958118628,1.4420149975651944,0.21916906356707572,-1.7461762743751408,0.65641579714436826,-0.733204053487862,-1.1978845473252631,0.59268784342517056,-0.18752482635319456,-0.22957270096734755,1.3795032684595805,-0.48328406002059765,0.056896515217095822,-0.070907278979852509,1.8284000306522472,-1.28551882067603,-0.83253947404797168,1.5960467274282344,-1.074670877808086,-1.035843271313162,1.1762020360567616,-0.18348461291856805,-1.5090333239683105,0.61702236464054161,-1.5472810303546867,0.76954414079410238,0.25519722968116276,-0.0093008047013081185,-0.0057418299865636957,0.65835314926614652,-0.45727481434926154,-1.6874056419764671,0.02009659354579485,1.0314261610766065,1.6113273723103698,-0.558259289040351,-0.74529501877040361,-0.629622834794979,-0.22575732982985552,0.71347113708661447,0.29136409903474325,1.5267627590926192,0.48638784069865393,-0.015437872156239152,0.010177011606365749,1.7597583736105626,0.84613978436502624,1.1001562658232433,1.47349474368314,-1.2422237169194146,-1.4624603737436515,0.8834478766114674,0.42897057819539708,-1.4158263632170047,1.8436994309740604,-1.3881358804125972,-0.13296404261571085,1.1092499157238636,-0.16713391114951492,0.5183807869993059,0.46682263885942421,-0.42761064433847129,-1.3487685031164522,-0.62186591821809578,-1.5479443704467009,-0.71016450951035892,-0.15990540648806154,-1.04427301839193,-0.98245930298346062,0.077336673544410872,0.53907952994996655,-1.6459621319761324,-0.2467736472593498,-0.27198023082314993,-0.20262919259380044,0.91556040578122233,-0.86454574428594011,-1.9293720200328957,-0.52667721292314917,0.35206283412504136,-1.67821855083025,-0.67137191008236408,1.177033664275442,-0.8812876695612607,0.19475843580195618,-1.7593271898847664,-0.81695041191622164,0.71966751605256807,1.2435999863052742,-1.5565652987251828,-0.3523241795377452,-1.7637005000206179,-0.90516280518153813,-1.1070073896601884,-1.3728207719385721,0.12165945385581051,0.24535589793015095,-1.1088312536519167,1.6128756122723575,0.57464312247449689,-1.2362470590678263,1.2700701770320628,-0.46963694675692219,0.47282100677155925,1.2500803690636904,-1.2720392510630374,-0.36011796927085049,0.96777644146595909,-1.9865856934276343,-0.96170383364041512,-0.033371170066935574,0.07316929690639444,0.67912163523916247,-0.34480518025569851,0.79250202085473676,1.9028727225507018,1.1710985746100073,-0.023908990089913887,0.046238114933361329,-1.1217613370957604,0.45612516275426618,-0.54760475520049434,-0.13587881095515514,1.4766389282195078,-0.37377618842344729,-1.2231665933379747,0.0965056429135176,0.73560456779580785,-0.1522507276213923,0.61769799264971992,-1.3730454721362542,1.436979236051896,0.45005672120026152,0.22353651757516735,1.1492963384484389,0.13489843419399047,-0.75710849059727436,1.4528585796796174,-1.1421383689819549,0.29060767325135295,0.66125817115477215,-1.542108470360799,-0.651320166257825,0.0755003819128034,-0.58055067700592389,1.686172021406783,0.78782197823180911,-0.68434860960259025,-0.66209990113471917,-0.40393948900970561,-1.3486613684094797,1.937586341024184,-0.0061171222506636314,0.47780765545452369,-1.0343003268513364,-1.1100529484031969,1.799676772113739,0.72523874450718928,-1.5792292391784626,0.81073363628738271,0.54674390475016765,1.3908015866837473,0.38297904580038944,-0.64751639605267741,1.2541454122054438,0.741816655525154,1.1763759642729423,-1.5915835101467482,1.3538944699586808,-1.7385277821396141,0.5501140256180026,-0.96828363787768579,0.40890321806487773,0.939239749190975,-0.45593928846341525,-0.93484170370960684,-0.011795976612156256,0.91412444039090746,0.15518064588782404,1.7072213439770141,-0.17133983674987216,0.47358361513986419,0.24323653560074898,0.013652160784649703,-0.89933531262291544,-0.63411590972524878,-1.1576114814531111,0.69608257650215277,0.92223476788984426,-0.330166648717791,-1.3522323366963456,-1.1087034117005317,-0.79222001614618121,0.14463762772725619,-0.48082970291414751,-0.73572931007283238,1.14472744154964,-1.6011080944915805,-1.9625826068048284,-1.2194451797844121,0.836534156853582,-0.39681748412401308,0.15510232241596206,1.0295732781661551,-1.79351571565192,0.11130274744299351,0.68897902853564774,-1.3677994643188081,-1.9770356658739203,-0.26141024765624216,-0.21404362852407791,-0.79159935926627334,-0.59280150411315335,-1.2784018699444839,0.13706562301938685,1.0169162840544788,-1.68319351956397,-1.4752614551574279,1.5310831479172653,-1.0341662536534324,0.059255614191296324,-1.0116739901768388,-1.6015042455873938,0.12278933176900697,-0.62484051001949259,-0.53716215248553167,-0.43548247052146238,1.8470599059234654,-0.92578318851337915,0.32054163320946583,0.055634818880648751,-0.549879495310541,-0.056470544103752074,-0.040797717422618424,-0.73085277095942414,0.99625299451698224,1.2298238879208565,-0.45070407150093206,-0.81059217397616812,0.73801122875907987,-0.97079429727550326,0.19949302552244319,1.2595649749317976,0.531983685927458,0.59479707414042071,-0.30462209728099565,-0.013641077100132071,0.907443111253643,1.618167413220819,1.2213676679978927,-0.95050216495897732,-0.82399577825334358,0.22702035458154057,0.50533736770988313,1.06419433877533,0.72168170394570641,-0.55530073612709563,0.14976202712266806,-0.81146206837681212,-0.97111257304023613,-0.67291853557120174,-1.3191495020031692,-1.3725814509077843,-0.94307051549808618,0.61954162182265038,-1.4913182759151413,-0.26143014099748341,1.918555170259697,-1.183080676562656,-0.38651506900159416,-1.0365890968921427,1.5340800804710391,0.24929362944352609,-1.4231304099272553,1.2292894523901816,0.042058071141158226,1.9441102910526609,1.8284680321013873,0.96311572758633268,-1.1670537433433599,-1.1795230634415164,0.50588221685303481,-0.90099160880827878,0.12157576164304074,-1.3855350796997246,-0.61838655000302778,0.22100237586337543,0.21695886562436773,-1.324986474739847,-0.040254574753462558,0.42419443636862303,-0.97038145664631459,-0.051691836701562632,-0.23669817775334145,1.1983080968252886,-0.07146718496059401,0.49408226576358194,-0.80080089010335553,1.9207096732783642,0.73474626975820689,1.1555507011504616,0.85820883179931373,-0.46358667710624685,1.0193682436455824,0.046912441983312458,-0.80635431756022946,-0.94913608159364027,0.67866107014876853,0.79136787112400309,-0.56517721832039636,-1.7802858165373494,0.75118063361706344,1.4824007206980143,-0.4133125063559564,1.827599588701315,-0.38605720195270016,0.58994238501877627,-0.16295745921109683,1.6911926155679709,-0.066366639950483419,-0.12241989286729127,0.31936744336009371,-1.4292838049257566,1.10001184912399,0.033799546269897493,0.051962560881843145,-0.66154518620415836,1.0450333331455632,0.091877198820876527,-0.23352764837142442,0.23788337996829456,0.46521816144940376,-0.40817267187320283,-1.4265475084197463,1.2287194557621701,-0.64702743655865125,-0.998233871067983,0.87420767632974683,-0.26811091733659209,1.0917399279269109,-0.41096574744953107,0.68835190529392642,-0.1122841217452237,1.1635561842301656,-0.9019222813201706,1.9979915413996165,0.10595931303964906,-1.0238902976382014,-0.22890299522732532,1.851525315945747,1.6058270650011615,1.2956479337511806,0.61478175158369419,0.25375724933285132,0.092719692980128887,-0.073625363443803549,-0.65537447862111708,1.0150769907120041,-0.23175230027723703,0.7031760992031435,0.41260960442776307,-1.5349562338250486,1.5079798901025114,-0.592826287538198,1.3868511269739137,0.34133196544895528,-0.30662713121000085,0.056631935641230938,1.197374822198122,-0.28199665634054538,1.5300550421374175,-0.34233143720418752,0.57776801478013773,0.2556084106935228,-1.9461774565028853,-0.77304917609926749,-0.7034152560082918,0.97850318065774766,0.92862114446639143,0.59333051209958754,1.0472166068140494,0.30662059272889541,0.14294474671731905,0.92608057533484778,0.57390172925610183,-0.14174688846885544,1.5191241018563155,-0.49132016230901709,-1.4015594177886654,-1.6106004098479638,-0.60053190989444583,-1.0901617273176842,0.93691287559313352,-0.15159702773745964,0.85743786580042824,0.20215204013902782,-0.56087805659551082,-0.84425138348911477,-0.070917022447528844,0.25648007646970439,-0.53826450814412186,-1.4429652241258721,-0.77869556042304988,-0.089693763198668564,0.586654788156345,-1.415964683245851,-0.80675530209287782,-0.92139190385182945,-1.5718764424425906,1.6093884956135363,-1.2324973341228893,-0.95701250757882961,1.8068432229602909,-1.411487795138493,-1.1192048107223245,-1.7179557344494181,1.9190420321743198,0.74864000396274033,-0.3138985303528134,-0.24525444500392979,1.3080586014818674,-0.13975532638828977,-0.043673824539256334,-0.25683693879136671,0.51095361752014323,0.34311441161814815,1.2557655867448849,1.9795195194797217,0.20709060490665293,-0.56767294439728044,-0.75004998679608037,-1.0193537969697983,-1.0729810590031468,-0.47937169227719845,0.5280339431613843,0.80498829808507621,0.32357696214391718,-0.3347230765315346,-0.54793530634973919,0.24251942720381525,-0.54871705293129991,0.16555278476586233,-0.027538419248321344,-0.065116246261222477,-0.058200569441611276,-1.57528348247301,1.3739032239531648,-0.29169465545178153,-0.3549914610828232,0.61752912668468962,-0.63842917449699221,-1.8600762485806255,1.7776458951540506,-0.1833923577049944,-1.9565456546640703,-0.68753628744163375,-1.7888129129022421,-1.3286846651829243,-0.40989682797395943,-0.85757687262146587,0.24644628458025242,0.10083208656908571,-1.3068593588223958,0.826171604369847,0.406058274398585,1.1153192683660049,1.7698435000003516,-1.8947083279000168,0.83506612691558413,-1.7994783221741573,0.3194053854418013,1.7095994975928215,1.3187045856931734,-1.5478427482526018,-1.3455210772089292,0.18058555861030967,-0.24823712662245945,0.66432542850464849,-1.5836489198653254,1.0505440904179328,0.9643298839052814,-0.31534048271846987,1.3793038145542629,-0.10681239986178115,0.26701344620297351,-0.80485584860442594,-0.0757508082668068,1.8299108016443957,-0.4960257441252589,0.16069200432891587,0.47632670145310768,-0.26937128406454391,1.0747929583651912,-0.87735177826944355,1.0349388129124133,0.11031280044015168,-0.0040214927885782181,1.5532055502073865,1.0360595634433252,-0.8535130745049162,-0.044435453621873566,0.45650565895787709,1.5349238643119687,-1.6172067261031859,1.0148780848900221,0.16874641365429693,-1.5849185891379223,0.96720799802206814,0.48871792786005563,-1.4418081860369107,-0.551503935929186,0.53090022715316165,-0.63130513887447548,0.035082978212779059,-0.86017461813063112,0.81178151388269937,-1.331072584574494,0.461504896386296,-0.14707756887519619,0.20538443988439825,-1.2144826232523112,-0.65724878136871778,0.94258226259498956,-1.82577198162589,1.2247946797752729,-0.065401029803511257,0.48148077841917081,-1.115356573423071,0.97001160633285144,-0.60475259334669629,-0.94930351104089228,-0.35033853748188748,1.8089034107089526,-1.4919535273182922,-1.0863494710467521,0.26309524023118191,-0.35644127631394251,0.52923833696601852,-0.010742822606062408,-0.75106232741431445,-1.245611850597935,0.79751246832195322,0.45635930513677148,-0.14118563669788919,-0.028944414588131295,-0.31952386736847649,1.5788509080088002,-0.11372561810478837,1.0600036687962726,0.0014025415300404354,-0.44709558223704593,-0.10099710808181994,0.58837166549096409,1.0240947711393678,0.40912700772011978,0.56292147215591815,-0.30326787023957247,-1.526449888724112,-0.68370294882157023,0.7050392199939598,-0.80995690394656594,1.9807710368096694,-0.96805396255480769,0.12938030063946168,-0.014985237801440621,0.46536787068022772,1.5719086488578045,1.9649430066183875,1.6032298838734764,0.670070335755623,0.18645585569853704,0.95594491760988953,0.48405283991436132,0.41358145066238094,0.52912191591068258,1.2249325666663622,0.4114776339435382,-0.76106901528479953,1.0577985152172849,1.1575102858047517,0.28492534453278662,-0.32302526120237318,0.4386611960077012,-1.0008541303690774,-0.1062181685614485,0.3225045961199815,0.3730370568073294,0.551233022439402,-0.15665208287846855,0.42861270039743393,-1.2676584400551665,-1.570588806444122,-0.043842388337404725,-0.12264984013636116,1.8828021399131054,0.13207286229919313,1.9287148527469089,-0.70500238365726653,-0.24038209265115756,-1.2855416374679383,1.7346353604153895,-0.00802064198442766,0.46207408535390826,-0.18572211553609108,-0.034802484342270734,1.3843807233104626,0.45730010161981927,-0.63827548147564528,-0.14066673914932948,0.48845640156113368,-0.028932416228429625,0.70439588776994311,0.82037994303758255,-1.9948279168432708,-0.84165947271588237,-0.87666204612546694,-0.62368651974186606,0.23073002613649241,-1.7691761812982969,-0.27545468801420858,-0.41537083797872576,-1.1396417371647627,-1.5048673243750201,0.12860831158636543,0.70640286556743215,-1.9726018439850779,-0.33190110533353928,1.7455175108022605,0.11901854800538557,1.0146633680046833,1.3691603165907602,-0.091938967859344078,0.16357255082743838,-0.41617879989379031,0.18655964903838912,-1.5370583811481755,-1.6498560363658965,0.81416483168218523,0.15915579263081586,-0.909419915509373,1.7384159396115764,-0.099389690020768751,0.58390126974969236,0.28120073248280708,0.74237043258844437,0.72172561787149192,0.030759871446501802,0.19652674542578241,-0.093338757913251788,0.40499642044538486,-1.4855234601933152,-0.77765590826871622,1.4179812667043792,-1.5652448514314576,-1.7318535930159751,0.43477614990352353,-0.12876481720188851,1.792860878535016,0.42826750941028235,-0.909979831155542,0.32858452612002587,-0.43008797915190822,-0.11544735362541281],"Bias":0.012206582358203169,"Output":0.0,"Threshold":-0.41998132896608736,"Type":"O"},{"Weight":[0.7773481084859688,-0.57452371068043806,0.018539868303825868,0.63499550271546257,0.8651833081921485,0.33834112184215942,0.2659490435691314,-0.47118497009909954,0.024843775678819124,0.78755063053106444,1.4048731249779802,-0.73470351087614127,-0.2848604392655476,1.691542619695674,-0.95763369787374208,0.33765052554088204,-0.82725276091473765,1.5063906551834152,-0.55280215063568172,-1.8772759511495363,0.089499141131294646,1.8847284949779177,0.15091222458546968,-0.17122057454950196,0.740425446109928,-0.0719618935623606,-0.14175508713431423,1.1809805961004063,0.261815150390293,-0.6638405796437713,-0.39726167470089235,-0.021083830516358759,0.7784934587676513,-1.5103033518000988,0.739317040303404,-0.36362495755945567,1.3650638795760757,-1.4204910990877502,0.68506201295417823,1.0422728109603157,-0.87911259703296829,-0.20510061839832947,-1.1041402563961991,-0.38018070574858259,-0.73248548001632341,-0.48027877066297409,0.78391492589559164,0.087152631528280788,0.98595690866278352,0.77767698596123447,-0.2673213008173374,-1.1457715701059306,-1.2035309016721,0.4996723115908317,-1.5084511188363894,-0.59320579913742466,-0.25340582581861215,-1.8429542220397639,-1.1954065212958525,0.69328333376594031,1.339359473129436,0.54016829563312641,1.2550014533358631,1.9165513068048989,-0.37105546070777606,1.0238657952397436,-0.72077168092167554,1.4591624585837881,-1.4606588182322025,-0.13815246930492686,0.920358696449715,-0.28085256439207706,1.5124537532741456,-1.13840522018187,0.96886738131257522,-0.24982200106379321,1.2563388362789243,-0.082160520405583415,-1.0295724305461964,0.49244929966165207,0.65771972791185584,-1.179741441821559,-1.2726330413821307,-1.3420860354518918,-0.96531664951020679,0.40877924622445327,1.3796438665034452,0.561305721551788,-0.43539798931935714,0.89503067121609625,-1.1491620615819291,0.7695131622112884,-1.4324008167872209,-0.8223867955721853,0.76198679523635038,0.62566122511665379,-0.031226416132984047,-0.037747346533662116,-1.1782839797336067,0.59286733837466077,0.479656068831522,0.27324365185259092,1.0635114494075588,-0.95612770519252011,0.419397982964012,1.7812953571701868,1.0653196196375974,0.904739897188144,-0.78749318085028464,-0.17280525442809114,-0.94673620301612482,-0.50986537454177872,-1.8753427266494105,0.56280687570702614,0.92979647169345836,1.777846414492394,-0.21476423447707868,0.16539197329682853,-1.2900965274498315,0.96270900357640765,-0.2308405219720866,-0.71120485417135282,1.7775515000231339,-1.9527397546697127,-0.5550247740722376,0.35117779583725045,-0.77612681443622655,1.8242090045587203,-0.99805831992762784,0.48798233013971837,1.627249048849218,1.108612828240084,-1.7508041000695918,1.6483702706863967,-1.0460066157607393,0.55699458092311138,0.1717838207245708,-1.7155922258811036,-0.073600108769536154,0.55689631521557281,0.65417285387132917,1.215423050902515,0.55555369503821872,-0.77490813647159751,-1.1256706794377744,-1.061326166177786,-0.0088262527756514664,0.27629940015091514,0.36852398124454722,1.8550903088669712,-0.868469297824646,0.52811947496151979,-0.52671509633153457,0.36778653220636143,-0.83643695099113358,-0.74568107293251962,0.086158010173779,0.081161667164956014,-1.0833253092520523,1.1336515075967597,0.38851525186957581,0.025919904944449512,-0.61251615854563,-1.1842876184658555,1.7771375103747182,0.86691075676559037,0.85955355822087887,-0.14392632159587282,-1.3694601065337007,-1.8333014342157643,-1.1660752851358034,-0.0037267301248975482,-1.075957645231838,1.739213939634717,-0.050545399158981347,0.553524898273649,1.4367119536906072,-0.77371809714181272,-0.58975606904819422,-0.40372435301715703,-0.83213855318359031,0.95778473790631846,-0.36471503591766169,-0.36022381687547256,-0.73950502916216154,-1.1236997261288109,-1.1419417742369427,0.10980445244806092,-1.3771111068209221,-1.4233997596536763,0.19027884033987252,-0.12589756090934282,0.73637052077631027,0.8756930785315078,1.373173884580924,-1.4343203843731063,1.17604761701126,0.72692913689041916,-0.17923444747919709,0.2567006076018794,0.65758312431051547,-1.3905396062836704,-0.21597635430096482,1.5202801076324097,-0.019056775616042687,-0.3072149633929202,-0.21761696330160696,1.1030945308055238,-1.2327146638337125,-0.60159665839820953,1.1076428737061297,0.06949067957209909,-0.78408820985482919,1.0945509516608674,-1.1552339418117115,-0.1069509229189487,-0.094992703802414535,0.60604152284240009,-1.8520058281030534,-0.71492082529770362,-1.5567192135177177,-1.2658846095511152,-0.13838401930738892,0.38149687386187559,-1.90245760227668,-1.328119443416651,0.269371125972537,-0.11524724220635707,-0.547645491104408,-0.14602391428594652,-1.1238922499464323,0.13291626709183513,0.17664635143086604,0.639131183529785,0.74343122368260606,-0.25988625188352843,-0.35459934098394563,-1.5928678082269,-0.46270399445793775,0.14000289160292734,0.3721395537127461,1.0710089817042503,-1.1146036829401758,-1.2172835991798356,1.9911411963361974,-0.15731495533013473,-0.0882010316537698,-1.0588495708344734,0.68596851764524747,-0.76254127489521228,0.73326640563703438,-0.50754980207772449,1.3398439415450412,-0.051518061222284084,-0.60876350240840749,1.0544909010895021,1.2675653003470813,0.44968417994663312,0.54420341669777583,1.3221543670269449,0.44019065028521959,0.44598555399383677,0.546599510380346,-0.96675664173288123,-1.2401235677488725,1.03775106372207,-1.3042288829126529,-0.68239212719834974,-0.074839619954507608,0.64802205531649371,-1.0312212420831068,-1.2175457619048922,0.060096585219770904,1.4945000072449912,1.8699302449216741,-0.56906271845524325,-0.95981018196782575,1.9016628916848744,0.42940983618232886,-0.12969491171170722,0.97871746447808938,-0.27353598818813263,-0.27877801949101411,-0.20170926467769748,0.85132550487822178,0.587919895840073,-0.92877196656948513,0.11689587222267672,0.67487954100355463,1.0578338504252414,0.90037855641002684,0.92074742164497614,-0.37253593251692874,0.017650847331458053,0.8297322964434195,1.1060240025892965,0.11277963691986148,-0.9852728820337322,0.10054165781500846,1.6064781973168616,-0.25224649079714268,1.1524860990449022,-0.28257196130350792,1.5181899925312914,1.0024846536118932,-0.47332631911771661,1.3044960689984708,1.8739215172240145,0.79121202220435471,0.14151920240438612,-1.0326699493605038,-0.63786686520924185,1.7245257476924571,0.65883752664497,-0.91965921917914373,1.2603980616016304,-0.86284011130353444,-1.5395066251696585,-0.7969989296034905,0.78928643781192909,0.22343324706743967,-0.14934806253265043,0.51056346507303574,0.81721528564450119,-0.66892249925011893,-0.541900982012024,-1.8530742693008269,-0.024029185758137395,-0.2780763703761977,-0.40962589519697623,0.43438275085500555,-0.76054946461718043,1.891664078408696,-1.9061106387088591,-1.7472362573012878,-0.25578144763399913,-1.6396345908938137,0.32831476301689433,0.29241633605837897,-0.20452684802214011,1.0228493171850448,-0.05510485716169003,1.616240914348523,0.059120276970379138,-0.18401461676532147,-0.091785817915474022,-0.4682286784370564,-1.4339442101465278,-1.0742224115292647,0.68906944929113134,-1.7586092836030802,1.1103479862726982,1.8651487696287914,1.103233646183849,-0.48135181119728454,0.3940398182692193,0.57395970941239938,-0.22202373655607166,0.19007971938237528,1.2692930444071662,0.46871880277465983,0.16674235005245652,-1.0490809348640409,1.056831326827794,1.5953336011596646,0.73537597397127,1.2274123072751857,-0.72934992546418209,1.0086123528930417,1.7320246546212696,-0.71262596487655583,0.76727249517793417,-1.6210387589507918,1.1920674411543026,-0.042060469413204182,-0.91380642622731911,1.1800876902395474,1.1262879362917915,1.2701214397478018,0.3894230691433993,-0.4370207684075964,-0.46597684475871581,1.678118713515866,1.6507340481741046,-0.35946852963393011,0.49669761187243167,-0.36223422473400557,1.5709577750279371,-0.091225537513953459,0.58374837533745394,0.88917188300479766,-0.038843983453160091,-0.81371867228938188,-1.1772684786362893,-0.25097219006675503,0.63858796779000571,-0.23624864883546182,0.64879965905509884,0.3793026853256406,0.88820088975513389,-0.4862547733291307,-0.24281433189418833,1.5800202319305483,0.74428490675661485,-0.010917026089000081,-0.60411830996354965,0.58958203093594985,0.54203101365921591,-0.20691419123062604,-0.99302541245054177,-1.1882297579144265,1.7267652990886782,-1.8936440161865409,-0.55842510357425779,1.6496230079325025,-0.27023041332416975,-1.4767995519688351,0.096190254248767371,0.79445339194240683,-0.31404053159420869,-1.6562695147731665,-0.65223398462507587,-1.0860664323373075,0.88229347735953911,-0.60613913489791527,-1.8819656408773575,1.33198021321184,1.5522230246813145,1.3916499900956523,1.3897139706600989,-1.0037519803505992,-1.3129310045917197,0.35267657151104737,-0.5304814838014924,-0.41058157589779309,0.092972713565906862,0.415857003031232,-0.51816551620986573,1.0610432178066314,0.079796257465982734,-1.2504365831848405,-0.76018155680977806,-1.8433043285474666,-0.76142242010050565,-0.24358725558941452,0.1533862986384828,-0.18353162621312391,0.52635570733172621,1.5677796206970955,0.93842553297915732,1.1537251766555596,-1.0575817334733819,1.6957996020539663,-1.0317440363726318,-1.7097353375096505,0.69839554591961006,-1.0360939870756556,-1.0917764823379816,0.59428897620844134,-0.25705972977776992,-0.05460381417283966,0.23154419000870874,0.67492632948557185,-1.1311222850955662,-0.73462843649770515,-1.577048063081246,-0.39220424922751462,-1.2737289309844975,-0.78289690557070868,0.40698814317909449,1.5432089385252521,-0.843537982014724,-1.1512851557467529,-0.70743763107221469,-0.11699331464105911,0.18106767077979979,0.415322217818034,0.41495233211431293,-1.1358234654813182,-1.30233521913287,1.49919909960553,1.5624855754722307,1.5944717803944237,0.53391889973260431,-1.3122811947540758,1.551162477373687,1.2940067124059453,0.41211933196155304,1.0523297298011975,-0.36481477989108058,0.85189339278819665,-1.2676516757428886,-0.48314553093893708,1.3939533864119804,-1.2625120334909352,-0.9720586935379234,0.57222031735452816,1.6159224527030824,0.23233652684480732,-0.945107986077251,-1.2909182697957933,-0.69253558418365924,-0.12019409314738302,0.51550808479800247,0.60397124970516725,-1.1054424932717546,-0.54921596383173776,0.95275697622110922,-1.6241537032761395,1.1582891117587169,-0.93260946889995111,-1.2002486443148221,0.77014117258141823,0.37185364327014137,0.28801702395454859,-0.59320187875684449,-0.986926321981906,0.6070641704052987,-1.9414853546495947,-0.614194701711738,-0.14711901645507619,0.30940743084503675,1.13294082280851,-1.0539826113050723,-1.350673546712228,0.28421182291778369,0.094642867378258444,-1.6134302120718314,0.13399753260146718,-0.837595748173816,-0.86001569473258133,1.1720988207017531,1.0877960562183504,-0.29047634315995663,-0.70781747983201293,-1.0624956170867088,-1.2213509880105735,-0.19979119030749004,-0.59800143230147729,-0.14481948695369973,-0.22681181003656781,-0.86048702516615716,0.46848157372720622,-0.68247421769540484,0.12803367624433421,0.24005804879973836,0.0710912038670346,0.028192355310634021,-1.2627079539292994,0.5765857801663623,1.338963159983495,0.00077334110428284308,0.98710937736691462,1.5635627412998874,0.089388239239057476,1.3801378940139606,0.039270118828523159,-0.83339676951682051,1.3241537433695765,1.2738512364560046,-0.12770672846944384,0.84283733127770821,-1.7751563618775255,-0.5354270455592437,0.39995958717898183,0.046358563944282283,1.8985591530327497,0.42360445783641376,1.6683793364411126,-0.8568230559673734,0.85066214150314323,-0.68796101151404954,0.56850717150071051,1.6617596045424043,-0.791819029856389,0.5596471584859517,0.0028791287927324438,-0.30416566753431906,-0.8069890520102293,-1.2320479444595627,-1.218102516708012,-0.2668883531665841,-1.5207283084842973,-0.549040600563884,1.3386262130637774,-1.4460617468906856,0.35916695946788735,-0.71778531452537764,-0.79043322139905448,0.96025001022976353,0.09054231298647003,-0.15634086083450394,-0.24629020236725463,0.95407839676089512,-0.55006861467848944,-0.04293037301065894,0.176845737815297,0.80119922398645393,-0.64878099814466239,0.51653729962023787,-1.0696267525187511,-1.218376123913739,0.68070710388976474,-1.2615081370512529,-1.3006975815169035,-0.48477990368720136,0.052309293332261864,-1.6767675930991617,-0.68824493637692408,-1.3329610488530999,1.499657867243354,-0.26403942995892815,0.676738570526586,-0.976725806005637,0.8222023867174062,0.9148871521069144,1.4755492971630533,-0.830279194205198,-0.9863194166618956,-0.7501967785648056,-1.486085904522839,-0.02483880913925296,0.33490354852129822,0.695234933260472,-0.959776766113833,0.49525146395678232,0.68056238614048914,0.014506293700312339,1.2130000438601711,1.5529651174102748,0.091650566128851141,0.89061499894159635,-0.42889553794120239,-1.3583540280155624,-0.77936167096689424,0.56684307402085665,-0.86870686936597663,-0.31760503801580281,-1.3056292656528807,0.45442862550468588,0.56532113367706582,0.54137986830499951,-0.667069185009986,-0.21557051025376692,-0.90240181279480547,1.4214194406593075,-1.6887733487825716,0.53239232050017093,-1.7878841011728552,0.42625375711417479,0.53570531779112662,-0.65717694845850438,0.34542295927051925,0.83445572667846246,0.35978909726710473,-1.3736706503544331,0.083717717828097449,1.2413288817002108,0.42551488821651556,-0.86255001875690651,-1.4634985442189066,1.8506119567205253,0.11705490486559211,-1.0758701639268524,0.29391050374986866,-0.77536417999088969,-0.94540035372851428,-0.46082252564878318,0.10010479302150419,1.0113822566398336,-0.51507677767196514,0.18855523139385716,0.50650830311072426,0.78308760504382091,-0.45653208087036945,-0.43374467568180752,0.49419430378932483,-0.1784261829119298,1.3683218729534754,-0.38318497769450066,0.14819050110031512,1.9496945589546555,1.2048851987136926,-0.26625867666036762,-1.3417391829852663,-1.454161527312436,-1.6607862001568015,1.5249750022892723,0.13234178634935123,0.71674454338696991,-0.68091480884743616,-1.460636747749819,0.36815807892389518,1.1152017578087756,0.90780520667685438,-1.4321730991043955,0.4666052937817784,1.4669398402175586,1.3955707528607784,0.23345886926793447,-0.74442237929646971,1.6034389471651238,-1.0337771321804157,0.19071361012324398,0.40306875221574145,-0.057480009585873959,-0.098892130935048783,1.1246971223152693,-0.96346221789660158,0.73470958075010584,0.044864290414780683,0.2369402419947742,-1.1016767486472041,0.16474066589248393,1.3097428638999085,-0.10563948662282874,-0.51774260332702782,1.2426717850578353,0.079373250752395652,-1.1128834835779311,-0.022020660351040222,-1.6540126631287917,-1.995655532924298,-0.48364866198210438,-0.601124344557116,-1.0153570058827088,-1.9353326670524351,-0.636427690571373,-0.53830135126519085,-0.69253436694505355,0.20765493540449764,-0.81237573731044577,-0.27089152344445555,-1.6495376339412935,1.1148408913500576,-0.638848479297931,-0.58632892490659327,-1.7138090057828506,-0.76083536947184949,0.84412350824294791,0.038176181278273713,-1.1923614550346329,0.61965860501847159,1.3888571729249586,-0.86155392735337566,1.1476704474294888,-0.24385308578789844,-0.20566532304774277,0.67741341545009692,0.79063300126727343,-0.66788956940188315,-0.23196792792329479,1.0650313408416841,0.97797159896137731,0.052813611483580325,-1.6162545679212803,1.0889717876394149,-0.65368998223738273,-0.16865150975931967,-1.8255613315038204,0.65513199691434032,1.8982730470124043,-0.72527270355507389,0.085756889584361229,0.501651316183457,0.16821037799502281,0.53302570550377748,0.10576954256080529,1.8478607385642176,0.81245948132707735,-0.64299267653515213,0.12792587193098193,0.45892188160630021,1.027842217603625,-0.30529195280933857,0.84809833915117117,0.13908651244784079,-1.511804632615207,-1.478695686663825,0.9117311918697,0.82688805359736461,-0.92818275044121912,-0.86441318637896947,1.2757251971753898],"Bias":0.34228352706054388,"Output":0.34228352706054388,"Threshold":-1.7223498093534027,"Type":"GT"},{"Weight":[0.4996617153518188,-1.1467638668356295,1.0694100832657005,-1.4215493870068106,-1.6626703160175449,0.29594002267051223,-0.19863944088565708,0.90952769988660132,-0.0018528103837057719,-0.16374396819795667,0.16527562686875588,-0.12734295526861361,-1.4069478192399014,-1.4089928061743233,-0.81830439553866363,-0.6963356764504387,-0.96070445559951689,-1.1173341285285232,0.36209669993822308,-0.26544090515315005,-0.7119750076494995,0.63367384422275874,-0.98278920863884933,0.21246101810245843,-0.91469050707048294,0.10975811356201692,0.091991723093135941,-0.17257193955479744,-1.1781672673198242,-1.4806864594485081,1.0902144622652394,-1.9838362932129932,-0.60073086554218591,-1.0333942040025228,-1.1233551479519135,0.98702452470875546,0.403040786461458,-0.64146027715261078,0.093516436449026852,-0.666009034340274,0.90514176474192265,0.2000775221881119,0.0350359423482027,0.96126483518689154,0.020958218500464421,0.2667300711696643,0.067862273855691213,-0.12615793081258103,-0.57578987088754574,-0.03162438517046362,0.42313901075308147,-1.16435429414937,1.1737153170042278,-0.011792195551641002,-0.41828790915148,-0.33648375716827994,-1.79820138672283,-0.18231403929289147,-1.4461685640021083,0.81323669236769724,0.14005810122008366,0.88953627928953449,0.22246371161773051,-0.5879038779940009,-0.58459918321324467,1.1890356841911727,-1.7186983058781822,1.0030845906308781,-1.4974554206698461,-0.039607963032180449,0.23082742641252824,1.5079554223958196,0.1616953443142739,-0.42745824328436222,0.40304130613217892,-0.7560844650171159,0.24938561592688105,-0.23944536337248429,-1.1073124912135828,-0.522459813753357,-0.54867416552671888,-1.3255271107542921,0.55049241099514079,-0.90499472577299223,-0.90100933187688215,-1.5944247839946415,-1.5835004186180888,0.020795083614436383,-0.74158090247846253,-0.58427000166115817,1.2945270348780449,-0.215906894151471,-0.72172947069477722,-0.16805997219312008,-0.020644384445922537,1.3774783757410378,1.1302399445000291,-0.059560227944980282,