{"Input":[0.0,0.0],"Output":[0.0,0.0,0.0,0.0,0.0,0.0,0.0,0.0,0.0,0.0,0.0],"DLayers":[{"neurons":[{"Weight":[0.11418585298312169,-0.11679863702356752],"Bias":0.893576236392174,"Output":0.0,"Threshold":-0.837034683133026,"Type":"A"},{"Weight":[-1.5681868142300224,-0.4583134933879196],"Bias":0.38326571224409423,"Output":0.0,"Threshold":-1.4636539218312381,"Type":"O"},{"Weight":[-0.26612072357261585,-0.02350586560718057],"Bias":0.01528094663064971,"Output":0.0,"Threshold":0.45774035642749666,"Type":"A"},{"Weight":[0.39276864165103464,0.77971067129620852],"Bias":0.4587461005238565,"Output":0.0,"Threshold":0.80915369247512592,"Type":"A"},{"Weight":[-0.62573177815681869,0.48226286563196352],"Bias":0.27422689472987638,"Output":0.0,"Threshold":0.26479925367273355,"Type":"GT"},{"Weight":[-0.15989302507829531,-0.503075660324225],"Bias":0.38584234164368475,"Output":0.0,"Threshold":0.5762701232807107,"Type":"A"},{"Weight":[0.139303712704826,-0.1630950559224445],"Bias":0.32960842052922046,"Output":0.0,"Threshold":-0.49880149890612885,"Type":"GT"},{"Weight":[0.36164739104530191,0.2609068631478153],"Bias":0.868227569790663,"Output":0.0,"Threshold":0.59844414789622857,"Type":"GT"},{"Weight":[0.55179080861354746,-1.6295840645346718],"Bias":0.43203487602040869,"Output":0.0,"Threshold":1.0866418457993503,"Type":"A"},{"Weight":[-0.21797646871673709,-0.47721530146767166],"Bias":0.81242983081025533,"Output":0.0,"Threshold":-0.79792963331468847,"Type":"A"},{"Weight":[0.11418585298312169,-0.11679863702356752],"Bias":0.893576236392174,"Output":0.0,"Threshold":-0.5248723330557683,"Type":"O"}],"output":null,"numNeurons":11},{"neurons":[{"Weight":[0.45936927732982175,-0.0851928944863346,0.65244997043742337,0.33923118600586016,0.99243437451889471,-0.1128034093942509,0.91735345074783714,-0.689068967448114,-1.2858274128687697,0.062581433478082316,0.16949360336619129],"Bias":0.2353598569684475,"Output":0.0,"Threshold":1.8605974185562682,"Type":"A"},{"Weight":[-0.84993216295257779,-1.2172014424424624,-0.915534063435874,0.14747379820210549,0.52282527439427806,0.57591467330973345,0.502493848152223,0.77255526110416051,-1.7609205636013861,0.81083758771924186,-0.629168854620852],"Bias":0.59479775400590051,"Output":0.0,"Threshold":-0.57782504967312565,"Type":"A"}],"output":null,"numNeurons":2},{"neurons":[{"Weight":[-0.46798255584108767,-0.79207988108605143],"Bias":0.89882356948164455,"Output":0.0,"Threshold":-1.4439905059728728,"Type":"O"},{"Weight":[0.48097211144909824,0.31430328931394186],"Bias":0.023740356333432886,"Output":0.0,"Threshold":-0.52010587953035992,"Type":"A"},{"Weight":[0.054905534281817048,0.91907501356633148],"Bias":0.01528094663064971,"Output":0.0,"Threshold":0.27586884343804252,"Type":"A"},{"Weight":[1.6249126976471917,0.02862752253591434],"Bias":0.88785109756880021,"Output":0.0,"Threshold":0.014005472657273255,"Type":"GT"},{"Weight":[-0.35087924513541124,-0.90024831793282567],"Bias":0.40566406045372788,"Output":0.0,"Threshold":-1.5009583381474756,"Type":"A"}],"output":null,"numNeurons":5},{"neurons":[{"Weight":[-0.77187563235493184,0.63145400543299235,0.80799912087758963,0.046364271394612355,0.80597386872674048],"Bias":0.85310878504678089,"Output":0.0,"Threshold":0.47912209340330314,"Type":"O"},{"Weight":[-0.42475402281840985,-0.963899947220413,-0.42475402281840985,-0.963899947220413,-0.42475402281840985],"Bias":0.803620467802333,"Output":0.0,"Threshold":0.985168503124811,"Type":"GT"},{"Weight":[-1.8692080862211102,-0.36267767956605068,-0.747834384323952,0.695027875106329,-0.39244533716640223],"Bias":0.22204676699919942,"Output":0.0,"Threshold":0.745568701413259,"Type":"O"}],"output":null,"numNeurons":3},{"neurons":[{"Weight":[-1.2270559515930042,-0.81200136305391857,0.42685660215879628],"Bias":0.59989896886977323,"Output":0.0,"Threshold":0.0075332373415740728,"Type":"A"},{"Weight":[-0.14630162489893922,0.31430328931394186,0.19153429437034497],"Bias":0.22695427864182474,"Output":0.0,"Threshold":-0.77359709459058812,"Type":"A"},{"Weight":[-0.65206313995973342,0.60331910969844049,-0.26612072357261585],"Bias":0.5969545639105861,"Output":0.0,"Threshold":-1.1345160245590451,"Type":"GT"}],"output":null,"numNeurons":3},{"neurons":[{"Weight":[-0.13254027237768298,0.26438221068325563,0.25516262359691905],"Bias":0.91131490162169326,"Output":0.0,"Threshold":0.16244141392523492,"Type":"A"},{"Weight":[-1.8133701941992018,-1.5135866922855314,-1.8133701941992018],"Bias":0.003321354278978591,"Output":0.0,"Threshold":-0.88964894734772337,"Type":"O"},{"Weight":[0.092007779355397348,0.313697871432499,-0.26612072357261585],"Bias":0.22906918764536696,"Output":0.0,"Threshold":0.99116640584132,"Type":"A"},{"Weight":[-0.59013153360697057,0.17617238786824627,-0.039874122962297004],"Bias":0.4587461005238565,"Output":0.0,"Threshold":0.57667720391260335,"Type":"GT"},{"Weight":[0.17811874378384965,0.076388309745298866,0.17811874378384965],"Bias":0.42105390418835631,"Output":0.0,"Threshold":0.67399186486098528,"Type":"GT"},{"Weight":[-0.87255653220813556,-0.71398452423232817,-0.87255653220813556],"Bias":0.23436710901296098,"Output":0.0,"Threshold":0.44131962323622753,"Type":"A"},{"Weight":[0.3751410291880094,-0.08900843634689623,-0.88591233682162707],"Bias":0.602098183753946,"Output":0.0,"Threshold":-0.044694346163745208,"Type":"GT"},{"Weight":[0.71587761012645323,0.29765876117053375,0.579768338801697],"Bias":0.077311371489107314,"Output":0.0,"Threshold":0.36215683078028116,"Type":"GT"},{"Weight":[0.20943385413123006,-0.56897253977086981,0.93044878958279675],"Bias":0.13804528513599434,"Output":0.0,"Threshold":0.1819488816810535,"Type":"A"},{"Weight":[-0.2288777091209207,-0.46159857695996692,-0.26612072357261585],"Bias":0.01528094663064971,"Output":0.0,"Threshold":-0.0047045187115224629,"Type":"A"}],"output":null,"numNeurons":10},{"neurons":[{"Weight":[-0.3375448956329119,-0.63642908010465515,0.99120562476627794,-0.039897375293028281,0.17932721212474961,-0.1128034093942509,0.13133833563483241,-0.32182449955578174,0.31885429114049968,-0.6264484904829638],"Bias":0.20848408816777359,"Output":0.0,"Threshold":0.16922962580305967,"Type":"A"},{"Weight":[-0.85777243359841981,-0.11741891555367919,-0.70589469452663078,-0.11825231235392966,-0.033411536148475252,0.48171729820627596,-0.7838590772747337,0.73790416784486923,-0.61384537006441753,-0.13687052537541394],"Bias":0.59479775400590051,"Output":0.0,"Threshold":-0.57782504967312565,"Type":"A"}],"output":null,"numNeurons":2},{"neurons":[{"Weight":[0.12015720229603216,0.87839752010926508],"Bias":0.89619990293690921,"Output":0.0,"Threshold":0.78332114535538544,"Type":"A"},{"Weight":[1.3086400121956321,-0.44235097160206688],"Bias":0.003321354278978591,"Output":0.0,"Threshold":-0.88964894734772337,"Type":"O"},{"Weight":[0.70119415256250373,-0.046464291917609181],"Bias":0.2277608566115428,"Output":0.0,"Threshold":0.99116640584132,"Type":"A"},{"Weight":[0.70333781219242986,0.10844468295501761],"Bias":0.861798328283149,"Output":0.0,"Threshold":-0.29323296210180638,"Type":"O"},{"Weight":[-0.068063130401104274,0.48226286563196352],"Bias":0.40566406045372788,"Output":0.0,"Threshold":-1.5009583381474756,"Type":"A"},{"Weight":[0.077661477298318127,-0.28876359657792539],"Bias":0.84026803953585594,"Output":0.0,"Threshold":0.16093569349541129,"Type":"A"},{"Weight":[0.139303712704826,1.4634163246785366],"Bias":0.23095193143512677,"Output":0.0,"Threshold":0.30341532293400508,"Type":"GT"},{"Weight":[-0.59247119612641219,-0.71761506549902965],"Bias":0.3005307900256155,"Output":0.0,"Threshold":0.88748515531769279,"Type":"O"},{"Weight":[0.43735869167715252,0.24910533125470635],"Bias":0.31370143001605821,"Output":0.0,"Threshold":-0.78454470764125928,"Type":"O"},{"Weight":[-0.26612072357261585,-0.47721530146767166],"Bias":0.01528094663064971,"Output":0.0,"Threshold":-0.79792963331468847,"Type":"A"}],"output":null,"numNeurons":10},{"neurons":[{"Weight":[-0.14686758357419985,1.2876534402778619,-0.53885077337680887,0.39728969284207083,0.15048907995246771,0.13458781486125093,0.018714061597694683,0.2340225857840956,0.35392512676954507,-0.33974230351845841],"Bias":0.80132140093544568,"Output":0.0,"Threshold":-0.32099728929856669,"Type":"GT"},{"Weight":[-0.872365096990189,-0.52183227259518217,0.87358818057625953,0.40960787535161147,0.527542351990725,0.66104873952504661,0.54620244332878032,0.73790416784486923,0.20700631579710471,0.81083758771924186],"Bias":0.53174448090453841,"Output":0.0,"Threshold":-0.311158661875482,"Type":"A"},{"Weight":[-0.26612072357261585,0.043849897591327271,-0.26612072357261585,0.043849897591327271,-0.26612072357261585,0.10305451827731658,-0.26612072357261585,0.13893624168771143,-0.26612072357261585,-0.33974230351845841],"Bias":0.50265969522421228,"Output":0.0,"Threshold":0.99116640584132,"Type":"A"},{"Weight":[0.1229505290384174,-1.2226147673663752,-0.53885077337680887,0.77971067129620852,0.51773896898619776,1.5062737872387628,-0.13721144566648241,0.874376356543217,0.37334688421028983,-0.33974230351845841],"Bias":0.4587461005238565,"Output":0.0,"Threshold":0.80915369247512592,"Type":"A"},{"Weight":[-0.872365096990189,-0.14431857347689503,0.66426727672306229,0.40960787535161147,0.527542351990725,0.17661007857025138,0.21387675420328822,0.48596337681448243,-1.6708236633198446,1.918637022338173],"Bias":0.46869120780317636,"Output":0.0,"Threshold":0.2762845732626899,"Type":"GT"},{"Weight":[-0.092745876332160956,-0.45309495651598319,0.88348485384298725,0.233801584217605,0.52518381319250151,-0.1128034093942509,-0.30898182015352971,-0.0996849408138939,0.35392512676954507,-0.45815513490613319],"Bias":0.30920782596359858,"Output":0.0,"Threshold":0.96830346014737323,"Type":"A"},{"Weight":[-0.14686758357419985,-0.20010886583482329,0.65835862358024277,0.30558150741531581,0.15048907995246771,0.1622591389633059,0.018714061597694683,0.2340225857840956,0.35392512676954507,-0.33974230351845841],"Bias":0.990038443817775,"Output":0.0,"Threshold":-0.11562912823428828,"Type":"GT"}],"output":null,"numNeurons":7},{"neurons":[{"Weight":[-0.016442842090708593,-0.90024831793282567,0.70119415256250373,0.70119415256250373,0.99243437451889471,-0.08513208529219593,0.70119415256250373],"Bias":0.18022041729661656,"Output":0.0,"Threshold":-0.38357065868730222,"Type":"O"},{"Weight":[-0.872365096990189,0.36378962842924034,-0.82953293450620635,-0.025734219712081466,0.52282527439427806,0.30412136436981213,0.28926524937933557],"Bias":0.59479775400590051,"Output":0.0,"Threshold":0.238376257120807,"Type":"A"},{"Weight":[-1.8751884232625311,0.64611010749177555,0.70119415256250373,1.6956768742276713,0.64611010749177555,0.70119415256250373,0.70119415256250373],"Bias":0.30611775527061791,"Output":0.0,"Threshold":0.27586884343804252,"Type":"A"},{"Weight":[-0.872365096990189,-1.6543733699500436,-0.70589469452663078,-0.025734219712081466,0.52282527439427806,0.57591467330973345,-1.3394387044661857],"Bias":0.59479775400590051,"Output":0.0,"Threshold":-0.57782504967312565,"Type":"A"},{"Weight":[0.70119415256250373,-0.90024831793282567,0.62071081186677812,-0.871897810544771,-0.90024831793282567,0.037815185514192634,-0.51392183243945322],"Bias":0.65224381496768624,"Output":0.0,"Threshold":-1.5009583381474756,"Type":"A"},{"Weight":[-0.872365096990189,-1.6543733699500436,-0.70589469452663078,-0.025734219712081466,0.52282527439427806,0.57591467330973345,0.54620244332878032],"Bias":0.59479775400590051,"Output":0.0,"Threshold":-0.57782504967312565,"Type":"A"},{"Weight":[0.70119415256250373,-0.40387002266541588,0.47881685196366941,0.18097787224966,-0.48089186031412878,-0.33923840806318373,0.47881685196366941],"Bias":0.5969545639105861,"Output":0.0,"Threshold":-0.50157592096439385,"Type":"A"}],"output":null,"numNeurons":7}],"OLayer":{"neurons":[{"Weight":[0.0353208366014626,0.22639861247800225,0.29486105162411042,0.22639861247800225,0.13085972453973244,0.55440126664675826,1.06969363199067],"Bias":0.76236477203777286,"Output":0.76236477203777286,"Threshold":1.3091840051622987,"Type":"OT"},{"Weight":[1.3403546609172388,0.74232383572604688,0.26585453900781209,0.61399386758636387,0.034812344487203474,0.79923021690884144,-0.2017566869974865],"Bias":0.36966263333785471,"Output":0.36966263333785471,"Threshold":-0.643355690009592,"Type":"OT"},{"Weight":[0.49424459901370321,0.11594272410308137,0.65460573632950236,1.4501376838656785,0.49424459901370321,0.84027964893741514,0.30509366155839229],"Bias":0.049970288318568042,"Output":0.0,"Threshold":-0.61785723577153751,"Type":"OT"},{"Weight":[0.48096740244932817,0.015060420155087684,-0.72550060726958354,0.493416077687133,0.26934240177243129,1.9957576524446523,0.26934240177243129],"Bias":0.66993234989695827,"Output":0.66993234989695827,"Threshold":0.0,"Type":"OT"},{"Weight":[0.46394971733165424,0.33331916263947226,0.21367176213007036,0.39863443998556325,0.46394971733165424,0.33331916263947226,0.46394971733165424],"Bias":0.968004926442171,"Output":0.968004926442171,"Threshold":0.0,"Type":"OT"},{"Weight":[0.52700089361844626,0.2753363807105163,0.52722756228280609,0.45924747075617661,0.2753363807105163,0.2753363807105163,-0.59434026228000425],"Bias":0.91580239306939881,"Output":0.0,"Threshold":0.2223290052368907,"Type":"OT"},{"Weight":[0.54125590187788752,0.39592501004036751,0.61608148627732018,0.7149575241911027,0.61608148627732018,0.25177971611347966,0.61608148627732018],"Bias":0.37869110441705728,"Output":0.0,"Threshold":0.85326445608086177,"Type":"OT"},{"Weight":[0.89882692829651145,0.49793702480287161,0.44948078573191574,0.74770072230496476,0.62519815569985571,1.6767750101521495,0.44948078573191574],"Bias":0.17407285569891,"Output":0.0,"Threshold":0.0,"Type":"OT"},{"Weight":[0.33275496556086231,1.1268404638985361,0.2919509461112092,0.22848440321557428,0.38603570679483734,0.73539877251507679,0.33275496556086231],"Bias":0.12998523662331757,"Output":0.12998523662331757,"Threshold":-0.044597451130206411,"Type":"OT"},{"Weight":[0.11077530314716291,0.57340937926127078,0.11077530314716291,0.57340937926127078,0.11077530314716291,0.57340937926127078,0.22643382217568986],"Bias":5.9836078463045917E-05,"Output":5.9836078463045917E-05,"Threshold":-0.95687210697535052,"Type":"OT"},{"Weight":[1.414779724280713,0.518417372609683,1.414779724280713,0.518417372609683,1.414779724280713,0.518417372609683,1.414779724280713],"Bias":0.013508709619524289,"Output":0.013508709619524289,"Threshold":0.93967025677658178,"Type":"OT"}],"output":null,"numNeurons":11},"NumLayers":10,"Breedibility":0.89286928060132509,"Mutibility":3.8071093072623992,"Repetition":0}
