{"Input":[0.0,0.0,0.0,0.0,0.0,0.0,0.0,0.0,0.0,0.0,0.0,0.0,0.0,0.0,0.0,0.0,0.0,0.0,0.0,0.0,0.0,0.0,0.0,0.0,0.0,0.0,0.0,0.0,0.0,0.0,0.0,0.0,0.0,0.0,0.0,0.0,0.0,0.0,0.0,0.0,0.0,0.0,0.0,0.0,0.0,0.0,0.0,0.0,0.0,0.0,0.0,0.0,0.0,0.0,0.0,0.0,0.0,0.0,0.0,0.0,0.0,0.0,0.0,0.0,0.0,0.0,0.0,0.0,0.0,0.0,0.0,0.0,0.0,0.0,0.0,0.0,0.0,0.0,0.0,0.0,0.0,0.0,0.0,0.0,0.0,0.0,0.0,0.0,0.0,0.0,0.0,0.0,0.0,0.0,0.0,0.0,0.0,0.0,0.0,0.0,0.0,0.0,0.0,0.0,0.0,0.0,0.0,0.0,0.0,0.0,0.0,0.0,0.0,0.0,0.0,0.0,0.0,0.0,0.0,0.0,0.0,0.0,0.0,0.0,0.0,0.0,0.0,0.0,0.0,0.0,0.0,0.0,0.0,0.0,0.0,0.0,0.0,0.0,0.0,0.0,0.0,0.0,0.0,0.0,0.0,0.0,0.0,0.0,0.0,0.0,0.0,0.0,0.0,0.0,0.0,0.0,0.0,0.0,0.0,0.0,0.0,0.0,0.0,0.0,0.0,0.0,0.0,0.0,0.0,0.0,0.0,0.0,0.0,0.0,0.0,0.0,0.0,0.0,0.0,0.0,0.0,0.0,0.0,0.0,0.0,0.0,0.0,0.0,0.0,0.0,0.0,0.0,0.0,0.0,0.0,0.0,0.0,0.0,0.0,0.0,0.0,0.0,0.0,0.0,0.0,0.0,0.0,0.0,0.0,0.0,0.0,0.0,0.0,0.0,0.0,0.0,0.0,0.0,0.0,0.0,0.0,0.0,0.0,0.0,0.0,0.0,0.0,0.0,0.0,0.0,0.0,0.0,0.0,0.0,0.0,0.0,0.0,0.0,0.0,0.0,0.0,0.0,0.0,0.0,0.0,0.0,0.0,0.0,0.0,0.0,0.0,0.0,0.0,0.0,0.0,0.0,0.0,0.0,0.0,0.0,0.0,0.0,0.0,0.0,0.0,0.0,0.0,0.0,0.0,0.0,0.0,0.0,0.0,0.0,0.0,0.0,0.0,0.0,0.0,0.0,0.0,0.0,0.0,0.0,0.0,0.0,0.0,0.0,0.0,0.0,0.0,0.0,0.0,0.0,0.0,0.0,0.0,0.0,0.0,0.0,0.0,0.0,0.0,0.0,0.0,0.0,0.0,0.0,0.0,0.0,0.0,0.0,0.0,0.0,0.0,0.0,0.0,0.0,0.0,0.0,0.0,0.0,0.0,0.0,0.0,0.0,0.0,0.0,0.0,0.0,0.0,0.0,0.0,0.0,0.0,0.0,0.0,0.0,0.0,0.0,0.0,0.0,0.0,0.0,0.0,0.0,0.0,0.0,0.0,0.0,0.0,0.0,0.0,0.0,0.0,0.0,0.0,0.0,0.0,0.0,0.0,0.0,0.0,0.0,0.0,0.0,0.0,0.0,0.0,0.0,0.0,0.0,0.0,0.0,0.0,0.0,0.0,0.0,0.0,0.0,0.0,0.0,0.0,0.0,0.0,0.0,0.0,0.0,0.0,0.0,0.0,0.0,0.0,0.0,0.0,0.0,0.0,0.0,0.0,0.0,0.0,0.0,0.0,0.0,0.0,0.0,0.0,0.0,0.0,0.0,0.0,0.0,0.0,0.0,0.0,0.0,0.0,0.0,0.0,0.0,0.0,0.0,0.0,0.0,0.0,0.0,0.0,0.0,0.0,0.0,0.0,0.0,0.0,0.0,0.0,0.0,0.0,0.0,0.0,0.0,0.0,0.0,0.0,0.0,0.0,0.0,0.0,0.0,0.0,0.0,0.0,0.0,0.0,0.0,0.0,0.0,0.0,0.0,0.0,0.0,0.0,0.0,0.0,0.0,0.0,0.0,0.0,0.0,0.0,0.0,0.0,0.0,0.0,0.0,0.0,0.0,0.0,0.0,0.0,0.0,0.0,0.0,0.0,0.0,0.0,0.0,0.0,0.0,0.0,0.0,0.0,0.0,0.0,0.0,0.0,0.0,0.0,0.0,0.0,0.0,0.0,0.0,0.0,0.0,0.0,0.0,0.0,0.0,0.0,0.0,0.0,0.0,0.0,0.0,0.0,0.0,0.0,0.0,0.0,0.0,0.0,0.0,0.0,0.0,0.0,0.0,0.0,0.0,0.0,0.0,0.0,0.0,0.0,0.0,0.0,0.0,0.0,0.0,0.0,0.0,0.0,0.0,0.0,0.0,0.0,0.0,0.0,0.0,0.0,0.0,0.0,0.0,0.0,0.0,0.0,0.0,0.0,0.0,0.0,0.0,0.0,0.0,0.0,0.0,0.0,0.0,0.0,0.0,0.0,0.0,0.0,0.0,0.0,0.0,0.0,0.0,0.0,0.0,0.0,0.0,0.0,0.0,0.0,0.0,0.0,0.0,0.0,0.0,0.0,0.0,0.0,0.0,0.0,0.0,0.0,0.0,0.0,0.0,0.0,0.0,0.0,0.0,0.0,0.0,0.0,0.0,0.0,0.0,0.0,0.0,0.0,0.0,0.0,0.0,0.0,0.0,0.0,0.0,0.0,0.0,0.0,0.0,0.0,0.0,0.0,0.0,0.0,0.0,0.0,0.0,0.0,0.0,0.0,0.0,0.0,0.0,0.0,0.0,0.0,0.0,0.0,0.0,0.0,0.0,0.0,0.0,0.0,0.0,0.0,0.0,0.0,0.0,0.0,0.0,0.0,0.0,0.0,0.0,0.0,0.0,0.0,0.0,0.0,0.0,0.0,0.0,0.0,0.0,0.0,0.0,0.0,0.0,0.0,0.0,0.0,0.0,0.0,0.0,0.0,0.0,0.0,0.0,0.0,0.0,0.0,0.0,0.0,0.0,0.0,0.0,0.0,0.0,0.0,0.0,0.0,0.0,0.0,0.0,0.0,0.0,0.0,0.0,0.0,0.0,0.0,0.0,0.0,0.0,0.0,0.0,0.0,0.0,0.0,0.0,0.0,0.0,0.0,0.0,0.0,0.0,0.0,0.0,0.0,0.0,0.0,0.0,0.0,0.0,0.0,0.0,0.0,0.0,0.0,0.0,0.0,0.0,0.0,0.0,0.0,0.0,0.0,0.0,0.0,0.0,0.0,0.0,0.0,0.0,0.0,0.0,0.0,0.0,0.0,0.0,0.0,0.0,0.0,0.0,0.0,0.0,0.0,0.0,0.0,0.0,0.0,0.0,0.0,0.0,0.0,0.0,0.0,0.0,0.0,0.0,0.0,0.0,0.0,0.0,0.0,0.0,0.0,0.0,0.0,0.0],"Output":[0.0,0.0,0.0,0.0,0.0,0.0,0.0,0.0,0.0,0.0],"DLayers":[{"Neurons":[{"Weight":[-1.004843972053759,1.2023486303874984,-0.64817324683450783,0.32801042326167706,0.29746467588180858,-1.4373413191350835,0.61162947829248349,-1.27473878454172,0.2968190348983365,-0.065801308520976987,0.073775795963022861,-0.1259109584638887,-0.036216132970860251,-1.5654131693604463,-0.28407136298362695,0.44209060682110296,0.047807596433442928,-1.0268335209276924,-1.8234152942073603,-0.54369645684198309,-0.52674841858760846,-0.57716783256138116,1.2161034956649428,1.2071093787181233,1.5539993348317216,1.6921267801393414,-0.19175622752134508,-0.26599934740292253,0.5513720547553953,0.052461463051131751,-0.36376966459852156,-0.33824304586976772,-0.14617550840452331,-0.061947614914713345,-1.2773377077082815,1.1302899812023575,0.2634530957938187,-0.77519286460019321,-0.10539539539467406,-0.3860513309824985,-0.031290459375943019,1.2050325677782683,-0.70490005258710875,1.227718444181475,-0.2950615173068038,0.31061924915323935,1.4023000222641509,1.6200087552983353,-0.49381090454470494,0.015612779395430459,0.34593580376633243,0.5043133602032035,-0.081884550900144681,0.98942775977283137,-1.3580197763433772,-0.17672895098301997,-1.2388758624968472,1.6070770719587231,0.065180934995962753,0.047369055888883516,-0.51676668343914989,0.62038474846043479,0.71800490222778413,-0.77785564063948376,-0.3400636319089867,0.84165372831823948,-0.057429162346492091,-0.38709652995036559,-0.99692915331330856,-0.15875397376774525,0.80949567575449866,1.3650805433075413,-0.54793978880529282,-0.22739403017583371,1.7636111861856705,1.1489835694194697,-0.48344692144703449,-1.4077183620108844,-0.36509822215423837,-1.2348597455932104,0.94415838222213022,-0.54369632831946779,-0.0579782220572132,0.041043265858219657,-0.16279430162464981,-1.9040675526038127,0.50194148463287469,-0.27993698384609861,0.943704073141977,0.68840707684327263,0.56818086261310641,1.8272303379267596,-0.71229210063456194,1.1646890880841248,0.5698424906329449,-1.1218719496959224,0.72444936165243767,-0.44881428799071077,-0.73453778039409667,0.41628925303406528,0.9563164184597861,-1.2640284317669126,1.74131664697375,1.146598236237931,0.51331371595711417,1.43542897488709,-0.16391230491633679,-1.3867733475690582,-1.3927452614089684,0.61243117908594735,-1.1763005902414681,1.6704949753687228,1.1863382333825987,0.90403505219443658,-0.056278147266142983,0.39549771630538078,0.30295306365143171,0.67521287066639069,-0.48104454260530438,0.678232935402098,-0.67056099077247122,0.615053004871613,-1.6458608208437733,-0.701703806734506,0.52986046824597777,0.52528755298130569,0.71050178691418941,1.9341364334962035,0.94142684596045956,-0.78089670448372916,-1.1548726666508582,0.15920751083605333,0.82417504917064222,0.38171969008559925,-0.8284013917801909,0.022053241972836424,1.399036108701972,-0.84660643039750272,0.55227846035519779,0.14125485445431174,0.29590890477220944,0.090811238666442584,-0.58644801871220031,0.55184143155433318,-0.86565307847487416,0.064909827925688557,1.1382826748947998,0.75156426937023824,0.030204286725588246,0.38830581791154373,-1.4908767936243101,-0.87383634156876322,0.41538268067659012,-0.37160050131059008,0.010744557720955505,-1.991047848011855,-1.7839419468231228,0.91193532520529574,-0.5104059076450792,-0.721640561117265,1.139424213738844,-0.33148661550669312,-1.0003767455929782,0.56161200657294164,0.63940914608501365,-0.63856490638040242,0.48724219505081034,0.84629856555084615,1.1943837977919651,0.066219174799611508,0.1882075435427053,-0.27287563414912475,-1.264319243551046,0.66388643657038271,1.0080365137678304,-1.9420553762195889,-0.84788022311305633,0.18532265195870917,1.1230802301227683,-0.66863041835486114,-0.99849006671792773,-0.605812619722361,-0.0957244458122759,0.45035638727729987,1.9183338563508978,1.4980141685800694,-1.4074386485886941,-1.0417947751897363,-0.30279158929661587,0.84910330757224162,0.18225550451808409,0.071124524842539838,0.40807343013960562,1.07723730573302,1.0596349793763995,0.23722658038010192,-1.4521102242343282,-0.22521133493394852,-1.1485393946750739,-1.0662865331662881,-0.94686189803614362,1.1732912022496067,0.583040577630997,-1.0799315902776696,-1.7138381412782884,-0.45522153226511469,-0.24153283423803695,0.22987944949635142,0.00801544916257979,-0.21984488511936912,1.1018306771303625,-1.8289729747124821,-1.597266828021521,-0.7469113295650629,-1.6036521194519717,-0.83020753405532233,-1.6117813417742872,1.7049454351444475,-0.54778447026746657,-1.0231768191856852,0.88460781868063287,-1.2054603897912062,-0.48126180952240794,1.9632022268898797,0.43246498895079838,-0.671537162746815,-1.5795436127016058,0.816644533917608,0.726864218119003,-0.24638802260778575,-1.7223772390151293,1.8210247586579178,1.6452403772367354,0.42789912895667337,-1.4204655515125326,-0.22527690521687127,0.73943229752566308,1.1322124275063223,-0.92141045025284218,1.3282943830491485,-1.3070030712089515,-0.059533575228198354,-0.638120608974907,1.2450575601519351,-0.61473213583917,-0.14470248489859633,0.017639438629913684,-0.2519215177154176,-0.78438839073497268,0.63316083612966567,-0.10133345100974361,-0.043542544377754622,1.0503405386487197,1.2330157604222258,0.09163281232660303,1.5095447101674717,1.2429700516438937,0.21899110089009211,0.051128895045783995,1.2126537962900095,-0.92289360562474176,-0.54114185205713938,0.74617835448411229,0.72824735880282121,0.31716707029630342,-0.33752045330476044,1.12639158364683,-1.1424747373143391,-0.0014940304688615402,0.39979159198691683,0.8741560088815894,-1.7732653002130172,1.9654252510356836,-0.40583115094321826,1.4588244647992887,0.40997128440531505,-1.0300425848721551,0.14138456027775548,0.156358200198206,0.16928978863932243,-0.2831140410855878,-0.2197604036632741,1.3148869067965481,-0.43324907982407557,0.91625643657346112,0.51073243133617563,1.0909439811353545,1.5110912525612354,0.60524664071079881,-0.25376849774589455,-0.022960270765684632,-0.26739702106797925,-0.89426180715405468,0.92438592641818629,-0.75236294872703169,-0.81735692863229525,-0.99135757988265,0.23177536769132445,-0.47022718492440285,0.77660890836907837,0.93978540619825279,0.46981050747903541,0.028074485670344158,1.8091801844114346,-0.88295524345455578,0.87891267374107285,0.5838691509371674,-1.209146164222223,-0.3135282603621149,0.84111129060206524,-0.10507051171388963,-1.4425993615028445,-0.43895625250365411,-0.737384574802073,0.6897860305752237,0.372486122817202,0.74041357484665415,0.15640900966544125,-0.53876685718191641,0.35552648114279439,-0.5819136409464678,-0.15394216783062653,-1.0488675493043229,1.7881541120764584,0.33233095185990641,0.46471195596489689,-0.18295462531175222,0.22397872309618566,-0.3129118755896157,1.3961311490339363,1.5958593774567635,0.80351467770688,0.59478967400039662,-0.38125104325002945,0.31599383420124372,0.63555484132808515,1.8506037517686393,0.525770376028901,-0.58052447930934115,-0.50567069623766969,-0.017213253020263043,1.231514477337019,0.13730243556192243,-1.6336310373775804,1.7636856957169649,-0.2791022842092391,-0.064786298376175652,-1.5186141099634645,0.79590937020066621,-1.8862724750704469,-1.8129621426635245,-0.3136333706793995,-0.7842370638550431,-0.0337104480870582,0.98136827454415043,0.00046219024828753064,0.69609818546851088,-0.564412378303113,-0.18636424274968089,0.48584577734505091,-1.4272936207369407,0.28481026326438535,-0.27867240276140137,-0.729964665206125,0.90461183022087011,-1.0016516814947369,-1.4259210300752525,-0.045548374914297446,0.44119527327883767,-0.47284785866404322,1.2120692819413121,1.2963389583380609,0.28500793142477421,-0.84015643643407489,0.532124210464142,0.40651945928415278,0.73044616010166785,-0.0013324162339018817,0.46172766327472758,-0.9960182714257475,-0.15702116621868734,0.37342362076669167,0.27132741281358852,1.4777971913469012,0.9535819696977651,-0.29274057107057455,0.48315782706602711,0.37266084727780485,-1.9384046643685571,-0.062028360117553971,0.33692812655909377,-1.7169334468336,-1.2174785960226919,0.24355127999724424,0.11433971110407265,1.7476119379269015,-0.26297527495502737,-1.6218188440528787,0.85900515451049664,1.1436180095857091,1.1596516441365943,-0.68772071166323534,-0.13029091956248881,-1.2682064508713267,-0.75091413493920744,-0.65596010473368693,1.5843985414059825,0.61989059690439163,0.45970212410190259,-0.98932037502737269,-1.8478066343105428,0.22911664714529956,-0.39776707115711973,0.093425090468220784,1.3038912971056491,-0.06815915360802817,-0.072866260340840761,-1.5002645344940315,-0.25762087491230146,0.25820179225793194,-1.5729245966025132,-0.15306893420687134,0.2988941462939203,-0.81694909316345532,-0.17898604747792057,-0.11065798909899693,0.47647286024944535,0.040422097798633594,0.082086388991254644,0.266788303510653,0.77183046032917813,-0.9022141317381589,-1.0948555483924483,-1.8816534913525234,1.3737875071232149,0.52121718403474293,-0.41206925241838649,-0.15462547157873657,-1.2851265983270719,0.87216019484780749,1.6678659430089713,0.84964004291670392,1.1388802878274027,0.43506140002750859,1.456066637977989,-1.2414723591606469,-1.4741325897509849,-0.64182764414782989,-0.52816174092496915,0.19340377030587019,-1.1345011899746758,1.0677465039365746,-1.0071116196956074,1.7664590405260485,1.1557333186062673,-0.18511962643131585,0.85797160438167452,0.89418871835534874,-0.71202240964026287,1.4347752467425423,-0.5131748612100141,0.72845450752808438,1.2747197687973828,-1.6971475908985116,-0.362152742732562,0.9321115489267332,1.6905214505691646,0.7327658357872654,0.21014790526132465,0.054417432311185454,-0.15461197191153336,-0.049521221802347,0.848125863283931,-1.881385788266261,0.66635542953570059,-0.86671857564557275,0.37933177425494957,0.66343073484647608,-0.72307884648963994,1.7428819070304193,-0.61348662879946014,0.5685207073430163,1.1016809382018078,0.43341911324924753,-0.40866534844211566,0.14952359211002292,-0.92642531330996447,1.5764094067627608,1.3392498859008775,-0.013258849275202364,0.4387296547915448,1.1223450597014022,0.46795190240626772,0.36839830997325407,-0.49370087799322837,0.10532953525210255,-1.674346674082031,1.3134487789652538,0.98463544481649778,-1.4317978375739409,1.1093475907618866,-0.12852224247926958,-1.1176750599954626,-1.9085994548670013,-1.5873783247486588,0.81062480218478417,-0.60353508782737664,-0.44129918400535212,-1.1412792289123308,0.2337764309092506,-0.32999266420025042,1.3672281631115957,-0.76345940680390179,1.16315396566487,-1.6627651991614911,0.78261460679705008,0.19947593678865047,-0.97348412683861518,1.1112644432223235,0.63061114024369713,0.33396456155183385,0.52288360094254727,1.6203070895840912,-0.55216344794540939,0.89277567616327469,1.0286967971980043,-1.3644007292410363,0.26408000582087787,-0.55005108218176813,0.091530329590444826,-1.1573369852999864,-0.48952954518593694,0.126940819493933,1.1937604994192999,-0.17627331470055371,-0.08675616988163623,0.12218831019577947,1.9408538080476476,0.088232453511568568,-0.90240741097480415,-0.46307418102182418,0.79560065377095035,0.39070001384974451,0.84522960001846292,-0.80556786225902277,0.84065207459062907,1.3371321680182313,0.44017194069542415,-0.22966058418895619,-0.61993350583125528,-0.12632266288598748,1.4423690156277127,1.9872934110403495,1.1534282840571497,0.67527194259468093,0.33934655405550751,-0.97442464469857781,-1.193250377667467,0.014709468006486759,1.4386694428691031,-1.1093151259738936,-1.0402100547404074,0.60482643502989153,-1.8227950445482484,-0.77129219239531133,1.2074349521228276,-1.6748911792761141,0.95281739575861346,-0.96250965397921839,-0.2681709128749421,-1.3390213415674035,0.33824645743623682,0.0940906648030927,0.70544634792276018,-1.2443995913464576,-0.21482579952679845,-0.32711667652573273,-0.56320871718377274,-1.3597049896417675,0.38571247939202685,0.836413165012567,-1.8874017055553392,1.2239933945650252,-0.38488135784160415,-0.4676395386772414,0.69084293706847477,1.6000732097993367,-0.29185454666497168,0.22939873602213268,0.72896413254691617,1.5358613913580128,-0.3545749420787091,1.7684530838245771,-0.68159780159201377,0.47630464680320805,-0.33380010553346962,-1.73529418545556,0.792686042744986,0.0073966470897967734,1.4973490738763235,0.49431013478632552,-0.24589903089238335,1.1792499614782865,-0.12839915050584794,-0.5873821340908213,-0.36934908975954994,1.1180194185548553,-0.74075166263652581,0.54497801304117155,-1.3927840685438291,0.43940747922258805,0.25366497144739375,0.43625889090536896,-1.0593335847646621,-0.4125817159249362,0.4667484669409015,-0.59173637692717329,0.20476260697690885,-0.29010443682321563,-0.912302460014961,0.011493417759888464,0.61271450418082085,0.93735923568595148,-0.581580876177913,-0.14180853690104955,0.97545053300466933,-1.6747093189855615,1.3457187262110963,-1.9485420584439031,-0.43944693842877025,0.33645298465559237,0.49882661667597805,1.3514290168422409,1.5469411793383499,-0.58002306367504564,-0.29958510838801433,0.41000884650741187,-0.40783190280563741,0.01421363355555285,0.652685802023963,0.53994161381383488,-1.5727606767661686,-0.45840594974170368,0.25063194253045695,0.061100448160944731,1.6169596778307853,0.79933140929757229,-0.399422907456487,-1.4199138914327669,0.9800101513881283,0.10129695298508212,1.24417054284664,-0.71964088954014738,-0.9113985360187471,-0.52031112701942284,-0.39960481693251287,0.25906259823081212,1.9559972323272366,1.6294248754295637,-0.76127088198497472,0.45131188067552708,-1.5925018077681314,1.3267907869661184,1.3818415493619822,-1.2055681213762464,-0.077355499415358242,-0.056300423387097787,1.257058694612728,1.0073178461786907,1.601401131821983,-0.92832022499958389,-0.49351474380517135,0.735620276413681,-0.21736349792562593,0.36371493635872143,1.3404380676059229,-0.087814117822709648,-1.0041055285883904,1.230293502672712,-1.81428109287018,0.27054996229209927,-0.1325334702304255,-0.38226530811854875,-0.14105489949744898,1.7678657955340418,-1.1391660837173303,0.23414976994940581,0.33170164482276426,0.35672948619198497,0.79087753533111149,0.14064606471948615,-1.0296690534007125,-0.19552175804004246,0.589899240336334,-1.8665841724102312,1.9199681859090778,1.8653116914747803,1.9307161885922386,1.4458823629868602,-0.75608344875339162,-0.42099655419183368,-0.11403183981236378,0.254064922339313,1.2446628879963715,-1.8207806930042714,0.084782742861906429,0.53528152710538413,-0.88097312097948666,1.3227502085840097,1.9090261999094049,0.4800508565875008,0.26779255987740697,-1.8747283927512952,-1.8500783545198285,-1.8271416424900022,-0.354094081723175,-1.9851094409754078,0.56160833992138892,0.65769673404865481,1.5445992180819621,-0.52824054380025154,0.47697983872206856,0.014467833104761296,0.94890183394257988,0.10338424476952479,0.84526617198528253,-1.3976471365418504,1.4228461028183093,1.8703306652001714,-0.8541935199791173,1.6170412020837151,0.071457290589556577,0.42797243355681752,0.2863319623525985,-0.61889363743546122,-1.0543884764976241,0.090955936392282943,-0.46100445348299696,0.50832059035770749,-1.3348319825703894,-0.28047240676850327,-0.54462692017105541,-1.577558865573983,-0.28704195948645572,-0.44518379535156472,-1.5964933240769865,-0.512471446074765,0.58530791812125027,-1.0867243144133707,1.8021101857545365,-0.21528218976002278,0.47963731478882826,0.089441373054609308,1.5761873943329263,1.0238987668528683,0.57771705122631012,1.050039592168287,1.9045347128550216,0.50536998664278987,-1.7979656959874395,-0.21801026877859336,-1.4142407399668548,0.48308938112253763,-0.46675380061695054,-0.96502596650506645,0.12248912286187495,0.2458852292019339,-1.0200761552062241,0.26746489585724875,1.0113457144523719,-0.62624966393569548,-1.01959461673144,1.1825405709364176,0.6185581815504535,-0.879991692551408,1.2475362171620541,1.1890687305429339,1.0531570269042425,0.045763965717406818,-1.2297639857330638,0.38305605919242652,-0.23071557081687055,-1.132010902805259,-0.445910951330285],"Bias":0.37731669806924961,"Output":0.0,"Threshold":0.11033533611816138,"Type":"O"},{"Weight":[-0.69292693826971907,0.2310632701405628,0.95603709715350393,-1.1135406109916701,-1.6976401674084554,1.3381336961584789,0.95695375602550525,1.8430788423135311,1.4830831366774313,0.37431012570927757,1.9779264517025679,0.49527103596263156,-0.9908902493728744,0.30990923629603778,-0.23754329152290854,0.86941669269903388,0.20826182675466964,0.29370383316336429,-1.3007220343224342,0.33597219285367608,0.014641844979902646,0.92477771869151737,1.2082831092217394,0.4397677832177227,-0.40341258844505057,1.0956254541387902,0.2635435745168565,0.15820176860233864,-0.391446696776639,-0.14556428517474052,0.30274155750067044,-1.3880344142150294,0.038150238880491905,-0.28787340169754622,0.88623034995339356,-0.32729137983512668,0.33870962743587318,-0.44708939238062906,0.7873609824047243,0.75420598264755268,-1.2798474264702981,-0.55712484501168358,-1.1399501539487158,0.98422885805841842,-0.17170102064111315,0.046869796256939766,1.2665096525528981,-0.68577511547402259,0.681354223398424,-0.98094633546701937,-0.46153021479795225,-0.15019021636262325,-1.027247574658714,-0.29063653739609063,0.46800505671091619,0.53725620430766408,-1.6109369053599945,-1.3356521100903174,-1.1912828214425979,0.83607875035893131,-0.49582235207855641,-0.31916971332558641,-0.12696074036694327,-0.64598108545646238,1.013009143533655,-0.6677218859166475,-1.3622715540054586,-0.3767382474042188,0.44104197315920224,1.5395379474105027,0.86624675191298461,-0.90175264743238348,0.69109224439111072,-0.5888832990901115,-0.42205047381133848,-0.70064049566711029,0.52585542074779179,-0.32481591650772312,0.091401216616575187,-0.24662855372141523,-0.80306501630836391,-0.0305771521447291,-0.19902319936036272,0.72095531686284531,-0.24308801353465093,0.049518979410416941,1.1329235449120976,-0.17639485475439343,-1.9910377301233997,-0.7236772433266403,-1.03509743466745,1.510404098550977,0.30594829730639095,-0.011641151191429389,0.45740706960549904,1.7439648209810095,-0.12151394542726404,-1.0185249634609908,-0.62417040608086183,-0.21118050378583977,-0.079448172401453937,-0.0091489283410595146,0.86919793410655011,0.6290807930527893,-0.09919610918840438,0.74321526416727135,-1.3532564804671594,-0.24663865764003187,0.43565707548719396,-1.1635869998315289,0.361071109744324,-1.6465371640615805,-1.3541319013359638,0.957967069446094,1.0474727505518839,1.4551091904077258,-1.1612457815377255,0.23747464034166754,0.1155940560091123,-1.8015069290071293,0.44581508611032156,1.3817357352849728,-1.5215497927374904,1.0730585507457415,-0.837407031337309,1.1285281116908528,-1.120817942135417,0.78793314974193152,-1.9618129227132597,0.24781547638020274,0.62702588005304549,1.1752429656569117,0.37137499934592044,0.10199749214194412,-1.5067756248203925,-1.7444864645341816,-0.37317005149003579,-0.16783411324131503,-0.39959277976285323,-0.10181005923743827,0.23975466296065348,0.91833812553358174,-0.016203465719384989,1.6338791566127346,-0.80557571132927,-0.40185767890739155,-0.6301535696862981,0.035307765954783077,0.41968408684922603,1.7014765253763069,0.67131739834413973,0.58902517326289927,1.0919471211228271,1.0324273179436232,1.1292014918236886,-0.09116679527385485,0.013923688332514561,1.3870297816521626,0.34174823870032467,1.083685014901536,0.048996328399049272,0.21724354951514102,-0.21079077492140386,-1.678738334997901,-1.4385485553362165,0.80168169122267585,0.57852867784841377,0.75594909244959663,-0.670986361182754,-0.31267828555436727,-0.0782526797048062,0.945519804463498,-0.63747852232189772,0.33315654582754728,-0.6964391449915428,1.4426923943998722,0.12366141111981865,1.0177975958296086,0.71389997257530613,0.25873431482293396,-0.77823565732838385,-0.025196886633148896,-0.83607616407614016,0.90136076831322187,0.047025444939278627,0.85950330591737456,1.5833563113507609,-0.51069929817956827,-0.73544980588717435,1.9585426933870385,-1.1551006786316171,-0.67032588619327149,1.549573901830974,-0.14291405405053581,1.3172178302506068,0.055535810946324121,-0.34412711569911436,1.2451299555809841,-1.2653954419473688,-1.1085615341318515,1.1695711068043693,-1.1071329187169359,1.8296866732787747,-0.75498324853338228,1.2274162337311618,-0.30142662365172362,-0.98478432597774079,-0.17677063431490453,0.1464859249344963,1.5697460712724114,0.25068023949146284,1.424618276710957,-0.910771600394869,1.8892817589870106,0.56892701544283275,-1.2814084809652568,0.35665977110930713,0.76241877431162575,-0.37689194752690014,0.5451914466313047,1.1659654613137498,1.7032572588432848,-1.4521445778441358,1.2701356873242817,-0.6521666341704162,0.5279890739023636,-0.00605832506253301,-0.13171571468659815,0.37354951394559732,1.0910204132511376,-0.74903182813386993,-0.58317609903550516,-1.0800348180718882,-0.44487849457416606,-0.49292612243466327,1.0250552627374674,-0.0712726618262346,0.52622423435189081,-1.9616872761220145,-0.95782822252150079,-0.0026770241343530982,1.3958837629276717,-0.82287003857828456,-1.075708517374335,-1.7163573725690866,-1.0096082533754447,0.44998282942687295,1.5461793968203383,-0.40823404282947728,-0.58335493066504363,0.03486023379250458,0.56311422333266314,0.73679393843598362,1.6199587078857975,0.69117511960747091,-0.080418461039857281,-0.26301905105962364,-0.34082306357345377,-1.3321477813970519,-0.50630368147106086,-0.30643841356950036,0.24654176380338808,-1.2138212808472204,0.911973757162678,1.2259211154775325,-1.5376549435489135,-0.681616828162976,-1.2905596323733031,-1.4411140326136323,-0.27683265194149342,0.81167520317792663,-0.11259774962095448,-0.056912860903562977,-0.66839987908881149,1.9020153078725635,-0.27537506319367094,0.64584810746644061,-1.3702002496552654,0.12241783338929781,0.82267796193374232,-0.25667582557381863,0.63257906917635909,1.575738206308213,0.0085841016883887455,-1.3223357180295678,-0.61199349853432006,0.78829634579197561,-0.66584676069479753,-0.12655065074868069,-1.9669122863406838,0.20014414945624037,1.6554825401541231,0.83341508461827163,-0.98371173440651594,0.17968323813695772,-1.4532654320137879,0.68415678557202053,1.3738946146352729,0.58164253974409885,1.3790816326528237,1.6503561174731498,0.84089614321101824,0.8762707895954468,0.41449273885902616,0.9741836124328821,0.76549297699960572,0.026522933517826086,1.3729205962144402,0.023249222907819611,0.619442223219407,0.42237596512882769,-0.38915363350610882,0.67333662820669682,0.42661529945637733,-0.12605093482901619,0.509084765466437,-0.38014257146517877,0.54465461471929877,0.23770545340967619,-0.14339275653166356,0.13301074336423116,-1.6236647850012709,0.1844573683033035,0.40072810656890656,0.34730561167072704,-0.91143893810368271,-0.17627806461701251,0.1272918086043987,0.52879742278195785,-0.41495110902583748,0.18612888473335085,-1.4861584377876289,-0.47934742119962348,-0.3031545594698975,1.4701658759592873,1.2770589968548431,-1.119921555332803,-0.368717709569006,0.098941842838629085,-0.5630527666998002,0.92558655227085673,-1.8999989516567435,1.1251364290365653,-0.096193453696963083,-1.7140450364509807,1.9062313716421979,0.070454550939823779,0.13109087641634543,0.019629024796859223,1.4309874230208748,0.50549044014661482,0.242979744562404,0.2104125303264765,-1.9873243477136475,0.3724080165599597,0.37134469317800578,0.68146074501865561,-0.38301277644141241,-1.0387228643701985,-1.1432066787566071,-1.8874973877740546,-0.91986982386240324,0.11761860089265674,0.24551149003464312,-1.2613534681784704,1.624499400902772,0.41954868725479971,-1.0182874775576813,0.64995522207462009,1.8115341438965564,0.75058199228367184,1.7342252599700472,1.49137248011137,-0.32057605652165422,0.82331576888603886,1.0440974473227269,0.40382574948194683,1.4036165983040081,-1.2679512814003746,-0.10014599566354698,1.8795107146163987,-0.2907474018749111,0.51099843625491426,0.5242696658355509,0.81679915773766076,1.6273520829283408,1.5849810426984825,-1.209113932777715,0.094508559557831509,0.0023537737894389742,0.15760097310766608,-1.2855353761862662,0.057166117380976045,1.8274316172243243,-1.1509681377331578,-1.6248656300012327,-0.46909356139092406,-0.87628134264562607,-1.0448883464768941,-1.4025740546186334,-1.0505709289808622,-1.4427990221617739,-0.87795713303923,0.10801074865917276,-0.32438067084540451,-0.61504960368156891,0.754025378965308,-0.46381206226712657,-1.2139788675099745,-1.3615849164135685,-1.1435435554681082,0.838165362231976,1.6496276723452041,-0.31494848165425871,0.4344119359433708,-0.10604220540544129,-0.165381164832684,0.45909138431584751,-0.24850547796994293,1.2158348572397768,-0.91846034810694743,0.27168591053769253,-0.24023375013621226,-1.5778726568768167,0.57616012058042,-0.51332151017306438,1.3915808961687519,-0.69520216249288169,-0.67518235413598948,-0.042937405536562528,0.11851196876425832,-1.28624214198731,0.15433117206977631,-0.85881152742486988,0.7876263348328072,-0.77131696290863538,1.2006691020303539,-1.6223929876565901,0.611223724518774,1.6711069083172396,0.68762698822084412,-1.3766111214943748,-0.4042725699391555,1.2011829308239663,-1.4501442929381248,1.8796201031094513,-1.7498137111541878,1.4285820626786827,0.40522013329561796,-0.691376453798632,-0.37329303342187453,-0.32918599170129093,-0.18334458691049105,1.8196324612105417,-0.011582525452404541,-0.081501984042669423,-0.29572256668271613,1.1103293998680679,-0.14418253937930925,-0.39873587300476432,-1.5551068985625669,-0.062067891499990591,-1.133933372392288,-0.8956442693693768,0.12132498482071108,0.34203721319420133,1.0061422511381759,0.36641948966608373,0.78888253066171066,1.2806527805248105,0.043124302776122447,1.5308132951757,0.057054898728176262,-1.4809202456292325,0.064257402934253971,0.75535272679075272,0.30582839357938063,0.35572952805353764,1.0448454381175552,-1.9361411682032705,-1.8694154470550899,1.5564502512833336,-0.06001844911836951,-0.28768927019253,-1.6430740317530344,-0.261681110341652,-1.1778348423204545,-0.24092570796652035,1.6693543715725441,0.11504020954716976,-1.1016448713381051,1.8677745535354013,0.38230873024535467,-1.8962963595503459,1.0296637362473011,-0.6722678073785584,0.92117548311183972,-0.98551108189765879,-0.64099754492798711,-1.088841125061196,-0.54473633437638,-1.0617971748539641,1.0110872252895902,-1.3113658611249952,-1.7112189343717037,0.047742343064277576,-1.2261132650198943,-1.1674177717265755,-0.80720593452478107,0.51430825867271834,-0.16125168938248025,-0.14050519472942935,-0.028742765089842859,1.3214467220573902,1.1159026593043948,-0.032057066812206436,0.43681758031864082,0.29185023265511267,0.68420489530245754,0.88204935385475369,0.6995488810654652,0.3112825720157858,-1.2235383480896886,0.59991243655090787,0.26939036430296959,0.57591533446095911,-0.76632340940009969,0.40254982300221442,0.17235986799528141,-1.2923320435417498,1.6920948939826781,0.34771729850220362,-0.50530242996566344,1.131388479439257,0.258169341254127,-1.927472228150569,0.87192664913601514,-1.35066321089429,0.48789320077439824,0.031292187180971848,-0.17101000909274911,-1.1393337290936145,-0.19079319333132941,1.2939674124559235,0.12043370697378281,0.86254914181665765,-0.36784556944288571,0.0041358498875685434,0.18486546304361684,0.23663563012920097,1.7965701146966637,0.56989305187361,1.0402807656397488,-0.61653442616413079,0.98080172901079132,-0.47722826908679139,-0.67612453853034893,-0.58310471222880511,0.56239327552276719,0.28131888572537284,0.029200173666095453,-0.52065242618352747,-0.58942914280604575,-0.12075846586930249,-0.051450263267126983,-0.41589435488725757,0.87187818763632241,-0.82081361618862192,-1.3162280481937241,-0.15056854586609109,-0.55554056344287217,0.82523765296220675,-0.32015644421691841,1.1378802826789931,0.86402459555245581,-1.2396951700163514,-0.632956987308784,-1.0038573109795608,-0.53871897959090709,0.91167130130886642,-1.2110643141023183,-1.6054462192605465,1.2770557083548306,-0.74027844197828263,0.14008767468785371,0.13890616637225445,-0.28381563643171259,-0.377510574007179,-0.86955980203103045,-0.19106626931972467,0.38930058828914821,-0.27098508389712556,-0.46163933559397208,-0.58541575235334031,0.27354799553546083,-0.17689768605721074,1.433055009428903,0.85804883339053428,-0.0477509549131796,-0.98053959150823744,0.18287578022615275,1.6054897734920912,1.487739002093551,-1.1032969276901787,1.6545416369982606,-0.58232264237099041,-0.39932608529893976,-0.86747227742684641,-0.055875776827277512,-0.26071647314175783,0.19924113485468445,1.146026877288719,0.89399643831141118,-1.0853337175610167,1.6447302494872038,0.18859188713764441,-1.9049083012644705,-0.27873018082683287,0.3988928002693074,-0.586020962206443,-0.82886948381963632,0.68460298268338793,-0.47140795602295921,0.6341759449030161,-1.3547797851985226,-0.013729900377283999,-0.020436223523768948,0.24500297673279547,0.52253580279560841,1.42254064950279,-0.1466223085981897,-1.2446042649655622,0.58812670716462989,1.0639285889095973,-1.3677440694557708,-0.55738837396837226,-0.75032839033848653,1.2527720968632088,-1.2099059132069412,0.21280440698042724,-0.71784477106078737,0.862080300628245,0.01510638884040838,-0.61173857497597983,1.7427538967424789,-1.0432936488852342,1.2462105924478781,-0.33478925113323577,-1.4242452659757088,0.37639179067056144,1.5191233831081183,-0.032639361933171296,-0.14665758150939712,0.1759448229223235,-0.33061305989510748,1.0640471163504044,0.67647640531718567,0.46860980459307788,1.4525975535868656,0.45873464991279639,-1.1789994685347189,-1.2223065955559678,-0.38767302519999114,0.026170408831057423,0.053332620551586954,0.31730091493451074,1.0285965982583043,0.85570873441440476,-0.949644520389682,0.730873306622204,-0.21229875944545423,-1.0655624693222925,0.07747379027538645,0.1796178366821225,-0.0679694479647881,-0.12895585553817485,-1.2881473986376766,1.1955598160603826,-1.9797172155136789,-0.43188687713438967,-0.53722450022456447,0.91564578209800906,0.26305447624207234,0.79158618244882017,0.88096147164747185,0.045526065884868849,-0.60037052854978168,0.22381447780273264,-0.74839145985639688,-1.2265895433847742,0.58359303631987114,-0.75233112403765845,0.27287762924108916,-0.3973050023829563,-0.020176491037134592,0.22906813292982681,0.90342952073711436,0.26225989187517107,0.28485778373326176,-0.11106728745914229,-1.3882669598740838,1.0354606672355255,-1.2862842145564879,-0.50059547158917206,-0.49866146244741771,0.92428780390149334,-1.2758447263743005,0.8413434619276523,-1.2202791195457239,1.2614604156750535,-0.46334556791155856,-0.45172960518474214,-1.1877590524092125,0.79891784246960551,-1.304677102390992,1.0691538236946205,-1.24777824489762,1.0035409096433914,0.398663037642214,-1.1729050181679916,1.283152312902661,-1.8427705428762224,-0.14970427101129513,0.021454951735890848,0.57619142652311872,1.1991235889490337,-0.63255751226449275,1.4626812466712114,1.0441863439251606,-1.8087368438992355,1.63568515197173,-0.8255902979642108,0.37411839066730757,-0.30654666206881021,0.29297424866490729,0.56759344172551929,-1.2226661430866035,-0.01971089933985426,-0.17334926782564697,-0.28604398960529087,-0.11700106138223831,1.0197918642608179,1.4390287117282994,1.0463091149210508,0.89422535924117574,1.0887825154181487,-0.12145282892577947,1.0707359715927094,-0.14331899450315111,0.078156104622408629,0.68183183608661935,-1.4488141794916309,-0.65771035668219957,0.242227342092538,-0.29747442966646021,-1.039962407336553,0.74912446791090737,-0.33831850734461033,-0.79686234090331109,1.6686066573805207,-0.5828814114597074,-1.9063874184649379,0.50640696219696157,0.35218312654280248,0.024060445538803259,-0.49769327575674588,-0.088032544834343557,-0.53534280999346762,1.722635080908721,-0.11539603775152751,-0.2680856590243455,-0.10481474739723584,-0.50511593758948892,-1.3592565466460105,0.42596809192954938,0.51182548092224778,0.42104553914380216,1.402668349807906,0.3828256560063954,0.30177929106195583,0.10816674514211683,0.33511299655545174,-0.30966371777917434,-1.446052483956354],"Bias":0.68353466766527138,"Output":0.0,"Threshold":1.9731194544458388,"Type":"GT"},{"Weight":[1.0648809806745878,0.526862508862681,-1.3628023494327453,-0.92799389405548283,-0.21120700482800925,1.6897859674365194,-0.61710043798298608,0.0044256634448774507,-0.48575231996319884,-0.21553715235345861,0.6808553431643285,-1.4216890816677776,-0.38951312239208224,-0.57878211388773382,-0.18330033580227767,-1.2441144923585787,0.47815556380811852,-0.21748339767450631,0.47805860008954015,0.25821822497910718,-0.11025136062421437,-0.12546288647011991,-1.1924245621508103,1.9198391809686268,-0.60885261074120756,-0.61058023467970024,-0.66094121317646759,0.48726760618727066,-1.9903049934610282,1.8310058507281384,0.56471351883477217,0.81692217194246419,1.4688370560616426,-1.2802581373975883,-0.52389834727185058,1.1077598887997493,-0.91763370619976592,-0.086989425521586464,0.46758246618210453,0.08908896431750124,-1.4315151507998376,-0.46565768821051295,1.0172635260176675,0.85653690987105346,0.77256175794379534,0.76206689642838521,0.36337920760893239,0.24104135774124469,0.36902849346819733,-0.65945405683454794,1.4320595321161953,-0.59649287191987643,0.45718253378625151,-0.25714507991304641,0.89988403250457916,1.3457142707638976,0.043952981030546567,-0.47269767265426821,0.93881311683232049,0.84563911838719585,0.72460962985042021,-0.084935592478911026,0.66498405534773342,-0.63649293389415518,-0.082455500998746323,0.24540803687917678,1.0146087156340213,0.22762206859310252,0.78043583516922632,0.45775940197415621,-0.1868687291131908,0.35474981470873168,1.0913302912802112,0.68489786676959918,-1.1438976708538355,-0.27007011429875627,0.33833836005690437,-1.292502653222765,1.2528411066156155,1.1191126206513089,1.4470070715659564,-0.065017230839011009,-0.98838713531772937,0.69339554399813874,0.34871651388179337,-0.99714693987565561,-0.16915752839723486,-0.98429160993983822,0.99648915650159542,0.55430733918893149,-0.086711717892616,0.78939174059284456,-1.4171839931128472,0.53067601055743074,0.070825540493626882,-0.43607366597534392,0.635183210054332,0.64049344500875349,-0.305555339812094,-1.0918426826092613,-1.2864288013830914,-0.86641778715020878,-1.1802061922756053,-1.0110525947581293,0.99637059075588841,0.76953566389602424,1.036344191251017,1.1708114504212568,0.19754263944118228,0.9547711009880393,-1.2713707309548608,0.19424711144866216,-0.034038754545170136,0.9412897177407471,-0.24110792495361894,1.2501884039375877,0.729239733297955,-0.29903515259057351,0.5426828996331583,-0.50663593248773187,-0.64258842339859723,1.6360860763285712,-0.50332344951534791,-1.2704319000572115,-0.10062654632885899,0.586360640864056,0.049387243599345432,1.2911560215480422,-0.56995239857116364,1.4068394249336977,-1.1940412666620879,-1.1194256055724927,-1.870460104136942,0.046934671721856391,1.0405628862979648,1.132665325483617,-1.0378805103422517,-1.2012439762247933,0.62618616904420144,0.18229707595977382,-0.982907481017945,0.89191028796691008,1.4416324216600658,0.49473037780017148,-0.08406711839328862,-1.4875494574604322,-0.51613322576327869,-0.38063080801101296,0.51181211160114592,-0.88959751692116129,-0.81795576346011645,1.4324281697312502,-0.34527091046109382,1.0463408446519009,0.44171647643284695,-0.90074000977363444,-1.192400230650045,-1.7018113955002274,0.78762179894262085,1.3011910018051003,1.584630515232976,1.7054785432785184,-1.7739547769417776,0.63803578408898853,0.67439792540362,0.34399074797704388,0.46212031160949274,-0.90999535664915832,-1.2571675326941385,-0.96852239408679763,-1.3814786986361625,-1.5942306106883244,0.70928619555630057,-1.3245348182155445,-1.2182908666288903,0.97878875594064074,1.3609487467263586,0.039932467993317289,-1.0065433729936104,0.27162305385997665,0.20608273437529912,1.7785425278258242,-0.29809526833616906,-0.35389663947461947,-0.70883835006218332,-1.1903261684000854,0.4449783574999211,-0.71144675962228643,0.27753864975065856,-0.23965773649497779,1.4142772291853452,-1.6074748093297122,-0.53696478835165717,-1.3608927451939752,-1.5377227829479252,-0.38458952605006724,-0.24189634171697291,0.97628852677358724,-1.7887061144172709,-0.14810921695228163,-0.63721542001332354,0.24212623119453269,1.6970500572105172,-0.51042390638516466,0.9281795252484043,0.58638339211277368,0.9166398688296975,0.6011945375246901,0.30093580964064959,-0.28866656883091968,1.1288951538172061,-0.16692807245041633,1.1082832282313038,0.14823431924368921,-0.49305062214895479,0.29925006429513462,-1.1626819911357809,0.25884212286157626,-1.040525747016317,0.074447543394960292,-1.1464024927217524,1.0759703545253587,0.25848478475555264,-0.025119318638518129,-0.976399838098511,0.97141725545349389,-0.62692295847317348,-0.54402423029254388,-0.33610489558494527,1.8372363261120563,-0.22928209259170443,0.848368856796119,0.60104889171246834,-1.9321690238696379,-1.738831937191464,1.2621185273221314,0.61056684610649459,-0.39004819998054208,-0.81571125183986093,0.791034581508038,-0.87249249889165748,-1.5137004160851708,0.90609595669950149,-0.48506197683846175,1.5574918207980191,1.4702012648201555,-0.79471750571146493,0.024684242915680832,-0.548628325829575,-0.39134340285851782,1.5184138243870873,-1.643266934735359,-0.53613284162065611,-1.0817174162648748,-0.375851110402428,-0.75720408019123031,-0.029117214617970677,0.51840481381229742,1.6201760506351366,0.35609591303211446,-0.080634232193264932,-0.53176416691009143,1.3681051168573228,0.26487276762747114,-0.0078489598854673,1.7562222833541328,-0.65563820780295079,-0.49245840147717779,1.9468562807640324,-0.574408574995775,0.20866462132365649,1.1386882286233306,0.37612847928592391,-0.67546257873785809,1.0160989812650247,-1.594568256099973,-0.37961257752827959,0.694822471563156,1.7478852922785495,1.2357508148860967,0.26969217574181342,0.32448535893321306,-1.63746487006427,0.873456602391534,-0.8828746205581699,-0.0026423055690909525,0.83831578625287673,0.8439412957221557,0.032566097195315932,-0.75880526404162341,-0.5037778730056145,0.014526134363620602,0.34191803740211629,0.82066306789436538,0.36815911269195345,1.5067989768026391,1.9525696616398962,1.2224962828785631,-1.4925537023192987,-0.96256845768660693,0.5548473664194693,-1.1825005586410411,-0.43585356810868414,0.76142195368251864,-0.49153428183212133,-0.01377529931374084,1.3641524409708343,-0.60177271131042986,0.79433912355189173,-0.26047990522680786,-0.56690159885534153,0.85055475139550629,0.024706783516785263,-0.18486787853057862,-0.69201272478886544,-1.1264103181317497,-1.2628364261532372,0.84702209607683043,0.06053647146017694,-0.30918769955806169,0.12530517257997081,-0.81448258468391488,0.41156683056781013,1.6211712302738666,-0.76405907054613476,-0.11524498002382222,0.26122735313197,-0.62455240293617931,-0.38950335205975151,-1.8548943585971809,0.13329220868130731,-0.052758122818897579,-0.0051911748184081674,-0.59209361806929506,0.94307633347021236,-0.13516623463256572,0.90757540562542882,1.8917491156103785,-0.23078079894354853,-1.4875628461537711,-1.1056733928181572,1.9255677703421412,-0.096452919178212887,0.14707467711860056,1.3454644453289602,-0.41486587842920131,-0.12582745844740534,0.29953690166563574,0.913629969076081,0.37199059891141495,1.6553947830830675,1.1101301683746723,0.52372692052463043,-0.57654660709448924,-0.28226035855233683,-0.69461206658492425,0.088639329228847874,-0.437195777165329,-1.2820929984013052,1.031959654312562,-0.32574338760494426,-1.6744793782357497,0.70176439951256131,1.3258413757783556,0.58253534907476767,1.6464216483973067,0.19071648337544495,-0.055700663503120085,0.36259856371330024,0.5380048540132143,-0.55069078462251553,-1.1375590144365835,-0.87993497608342908,-0.78812674723098963,0.17164614702404193,1.0429552377255447,0.065789465357451338,-1.6596274392956996,-1.1312649394996766,0.61185087359807322,0.398785986221063,-0.47224814027794348,1.5591402647826542,-0.011592018423411954,-1.1737104549443478,-1.1745970522050184,1.009231617212869,0.98431000624984044,1.5475252510304332,-0.71358423728313958,0.90886271637258331,-0.69618509742253709,1.0836856365029663,-0.14407797371641459,1.0924423761164968,-0.15558408292114012,-0.50170287699517924,-0.76490049192910115,0.397926002218117,0.24553657919542715,-0.51413514372619562,1.2042947790256211,0.066799382870341484,-0.589027919149505,-0.49428333970601274,-0.32909465969032364,-1.4132659411660014,-0.48241715339008578,1.4442704745774486,-0.22063216065086061,0.28272018478378658,1.4933225649843562,-1.0248086974899549,0.3934904199627155,0.63742616334284019,-1.6745762674485223,-0.89156696148755343,-0.16623681418888125,0.29628270964773717,0.88573701720951936,0.27723080025856889,-0.69547921254792022,-0.46152946460189065,0.21528725801747628,0.9015962924000791,1.4046318900793007,-0.53832456532267969,0.39433483982399142,0.40499386117094849,-1.2098865171414825,-0.9512176825437777,0.056003943840489331,-0.71019293400933636,-1.732588579753688,-0.96937715981068417,0.10497238850444618,-0.23244876776062834,0.47621571566907955,1.9362260865449095,0.82199202981870245,1.8980293515594813,-0.71679345714710341,1.2056395176125876,-0.737670374446395,0.9052891670285208,0.98342865838596072,0.19763989848906149,0.586944681865603,-0.6624853595450918,-0.3595678109487368,0.32782058838844685,-0.014831325781045665,-1.1533084037337535,-1.8830643928996587,0.18142851916208347,0.77940457909340255,0.954069715088266,-0.94207461129039272,0.92040177316041727,0.93893004659979151,-0.5310612861138938,-1.4255355393632947,1.150849905866594,0.575645334355368,-0.12645020699571952,1.4593563673362864,1.8861853535688415,0.63306845800628353,1.1135984059020871,0.2901161015802603,-0.30375726709055356,1.9153845160805547,1.0521386395745265,0.41185362122252112,-0.68067238232152172,-0.28257536389053589,1.3457590857733781,-0.013995972468515916,1.8087420183274623,0.11842291571941374,-0.05570407006554931,0.64132977958830528,-0.59100211290078108,0.897289717347496,0.96674369972513219,-0.074848688725817319,-0.91339642503922636,0.77606425004827972,1.4611610600078295,-0.750706873696219,0.95643120586709562,-0.71876240386155255,-0.84826533332153464,-0.20231494039088396,-1.6834893932954824,0.29508411214108765,-1.5926191301982007,-1.9560329224709574,-1.3277564660309611,0.044778215021257339,-0.931294196718975,-1.1965145744367105,-0.3687514841411037,-0.60339939017007094,1.0242607032527498,0.027646531014993286,-0.96372942785372806,-0.10116459148757373,-0.51429623451560458,1.1601822204702452,-0.91624758737918333,-0.031700714909430439,-1.0813957988663558,-0.77382913639524742,0.7651554936380851,-1.8596537894847123,1.0308964993017242,0.046179515331135956,-0.843607821894627,-0.77251971872975278,-0.75069414766072029,0.44119741924225253,-0.85031672186700169,0.064081476612554755,-0.68674832696714927,-0.39696126170314905,1.238737979549327,0.827789654379319,-0.72149506224505366,0.21372546731202169,-0.43998489721095413,-1.13813398086379,0.36640658779615487,-1.5402718314622863,-0.76893672848536476,-0.23132669825867125,0.92725998858328,0.083610647396934468,-0.66874719724582843,-0.47576144010562516,-0.02618051694062562,-0.2223713652800636,-0.19992141722386864,0.794119268094245,1.664731275134129,-1.1097236764546128,-0.31696935135031545,1.2619542829980861,0.32184248525735115,-1.8070144536006332,1.6870660431157174,1.035615827439174,-0.62672231934346367,1.435140350570502,1.8131137247258398,0.12782813893995648,0.83297768084820256,-0.1354587730651064,-1.4973023773624106,0.62580978899533379,1.0543730859897904,-1.1975773529603973,-1.1481508179856261,1.5551747416868689,-0.42234420330372835,0.1518329076769655,0.781212780057086,-0.0033393731589146658,-0.48917634878485694,0.2180832321924675,-1.7943937330480635,-1.1216976862036145,-1.6858370824185371,-0.047049316599522495,-0.70968982098144007,0.890472400220389,1.6103375403258657,0.38796078602606804,-0.70891647353252241,0.04062970403611188,1.3992092989614278,-1.4904534162443381,1.8030934947557253,0.68479265397637734,0.35103865637353648,-0.17213437434850931,0.5635845412330629,-0.92273855880961686,0.54883489373975491,-0.43107786887841204,0.76541312353937574,-1.6255298776670963,0.8794876724735311,0.661359461332373,1.9478676970805355,0.50583098336481747,0.25865049951646979,-0.51243307930996318,0.61446745819067217,0.53699492164937013,-1.3887723830476275,0.75869490462760192,-1.2762574289349176,-0.3896316934328673,-0.25268842105413247,0.43439285756759016,0.32371331926491731,-1.229609387102355,-0.70999475229065623,0.086316245182564644,-1.5002995689866596,-1.2109057724864976,-1.1976067289698902,0.2272625642153018,0.2480226318575548,-0.29147672995501067,-0.47845837474548786,1.2451770948223662,-0.36532992308916534,-1.2094956725880017,-0.67109096733438367,0.51762269033158093,0.734092877588278,0.3848763035278342,-0.25727737427562358,-1.7746310549670044,-0.35457969911719356,-0.15243128787373705,-1.1800566255953426,-0.089462108486081493,0.59862108463357266,-0.63057120453127258,-0.89737985229063133,-0.11894364433546725,-0.18173652789066555,-0.80739089791075824,-0.40655382892887743,0.66693293462364611,1.491479031970482,1.0390133760119849,-0.31760319244004931,1.6351356839924751,-1.0849323477991542,-0.85809391291968407,-0.39435868821775477,-0.84291340286979144,-1.7696717808813192,-0.18889941733638493,1.5428790180292842,0.79247051921788181,0.24561113689356073,0.33057459045926796,-0.87397887132781515,-1.0285581957444352,-0.34349781167875504,-0.23204454254919865,1.8049141074553665,-0.58387089617896626,-1.8863702061988275,0.33450774817471746,0.38541453617411409,0.14430737595274445,-1.0507083288630044,0.7022874837635491,0.99993611662645643,1.7857239506140927,-0.49857433373042115,0.26172147493889625,-0.85826936443612245,-0.75837367543950762,0.74947163776935632,-0.47076239848777768,1.5064807587799061,0.46396296760626593,0.48372548142621552,-1.1853749822757091,-0.35877953174543165,1.7468029184950531,-0.87580741912862636,1.6258188838259406,1.4059441664283834,-0.13386712735840778,-1.9020123406788392,-0.065093230952086467,-1.17176256523084,0.9461329338122777,-1.6829924079044687,1.892384679033118,0.87152937374614625,-1.2387803808035238,-0.56948215447807793,0.39547001123217385,-0.56956619516460516,-0.22423419365405131,-0.43468836156404034,-0.15143451194811353,-0.14771506236468671,-0.53576387909043766,1.5404790302461382,0.53469753150581278,1.6400767283552917,0.28116363064687511,0.31167772333681487,0.62787803571106782,0.18055865456376141,-0.31400355804432345,-0.75869858439951143,-1.5015874092940182,-1.3239970539342598,-1.6229879723968859,-0.22868136327186656,0.59113667094667277,0.49811188620427238,1.3112567380588764,0.10542852015894759,-0.70638991832099385,0.80202885661368661,1.1720586862284963,0.042386800419719317,-0.82740974371666542,-0.89017603494700781,-0.904644755136522,-0.22853897429468995,0.8527328338893817,-0.76086900595561469,-0.10033123292975654,0.25468586117713032,-1.7152976969793894,-0.2640372983361769,-0.28585772322763581,-1.5846781244430124,1.6463878898166064,1.4067785960653696,1.3202004988306206,0.23382707860975011,-0.84857959432926933,1.2907837514256983,-0.628139483062041,0.32747450818370449,0.26237670437543503,-1.6821230844045632,-1.1394932498873645,-0.34588080753846118,-1.1207880448181127,-1.371194253382829,-0.46459686270952594,1.0915328567342519,0.95235861270303523,-0.24410121247363326,0.2075505266932538,1.8378985115005015,1.4451445599296804,0.41270819884385368,-0.79366358685943461,0.4907314472322965,-0.2090229770210679,-1.0907492391256379,-0.42080752786519349,-0.90657819570348519,-0.23359615324613992,-0.40886516608710632,0.30308930124300038,0.80246550720299847,-0.96703166280269226,-1.7047336752082845,1.1335922289330478,0.32325978499057673,-0.26669383713355943,-1.4608739798240709,1.3309322182698793,1.3722537268755275,1.3448350817639545,0.1043185841312515,-1.0147449376595881,0.34044348206708225,-0.7413322238676866,-0.17078569803231941,1.2868425112367667,-0.10308600553687937,-0.538618252863464,1.5353097345378761,0.41412516423227519,-0.0685026535384834,-0.61320279660318167],"Bias":0.65069941321886116,"Output":1.0,"Threshold":-0.77428343648756082,"Type":"O"}],"Output":null,"NumNeurons":3},{"Neurons":[{"Weight":[0.53647068586967461,-1.1213781051902929,-0.78249109665979222],"Bias":0.8085467684122486,"Output":0.0,"Threshold":-0.37525836713997007,"Type":"GT"},{"Weight":[-1.7984217441633446,0.69201948293113125,0.27604792045016113],"Bias":0.29556541205177334,"Output":0.0,"Threshold":1.1648656572982974,"Type":"A"}],"Output":null,"NumNeurons":2},{"Neurons":[{"Weight":[0.48870749910767552,-0.11153096617736424],"Bias":0.2737149473506561,"Output":0.0,"Threshold":1.0131407617652513,"Type":"A"},{"Weight":[-1.1399243822867367,0.28144471309181762],"Bias":0.70583958900660027,"Output":0.0,"Threshold":-1.2187251594004804,"Type":"O"},{"Weight":[1.6875361947750376,0.71604185910711138],"Bias":0.45650349060609163,"Output":1.0,"Threshold":-0.25434723042619756,"Type":"A"}],"Output":null,"NumNeurons":3},{"Neurons":[{"Weight":[-0.19935675242420139,0.91964115478255049,-1.01999800199177],"Bias":0.18642433787995219,"Output":0.0,"Threshold":-1.6535644008096142,"Type":"A"},{"Weight":[0.52480008756965413,-1.4427571475704932,-0.81485021245426048],"Bias":0.39305958146837516,"Output":0.0,"Threshold":-0.68532153157765108,"Type":"A"}],"Output":null,"NumNeurons":2},{"Neurons":[{"Weight":[-0.4762853656319368,0.99922772045533859],"Bias":0.41933954992300809,"Output":1.0,"Threshold":1.9770416673165938,"Type":"O"},{"Weight":[0.032341688134687949,1.034329261857762],"Bias":0.26060797030134497,"Output":0.29294965843603293,"Threshold":-0.22914902780070542,"Type":"GT"},{"Weight":[0.87650344337523123,-1.7384824621204671],"Bias":0.35182567469395032,"Output":0.0,"Threshold":0.96114052457788057,"Type":"GT"},{"Weight":[-1.8348116650408188,-0.078410641166689055],"Bias":0.519893761617082,"Output":0.519893761617082,"Threshold":-0.43991042511446188,"Type":"GT"}],"Output":null,"NumNeurons":4},{"Neurons":[{"Weight":[-0.578655978002891,-1.2036747439781552,-1.1123490319419243,0.9571539167809251],"Bias":0.68342376625324774,"Output":0.0,"Threshold":-1.2892433774141798,"Type":"O"},{"Weight":[-0.054331920134989442,0.42462741806974952,-0.85203293657490664,-0.615599456995539],"Bias":0.10683408587528817,"Output":1.0,"Threshold":0.99245504056683531,"Type":"O"}],"Output":null,"NumNeurons":2},{"Neurons":[{"Weight":[-1.4108737220106988,0.51476606071042652],"Bias":0.47115251211037512,"Output":0.0,"Threshold":-1.5470292510218124,"Type":"GT"},{"Weight":[-0.32992593628380029,-0.41932482172587182],"Bias":0.28377220769588474,"Output":0.28377220769588474,"Threshold":-0.8404349269533693,"Type":"GT"},{"Weight":[0.41233718405831665,-0.77204301709870027],"Bias":0.5322480548789017,"Output":0.0,"Threshold":0.45090529288988912,"Type":"A"},{"Weight":[1.5599262211168774,-1.55007296407133],"Bias":0.35511574538197171,"Output":0.0,"Threshold":-0.39681263565868718,"Type":"O"},{"Weight":[-0.27623241731316855,-1.029335147226579],"Bias":0.87813209410669846,"Output":0.0,"Threshold":-1.080804874692487,"Type":"O"},{"Weight":[-0.41714141816699013,-0.50173622579394661],"Bias":0.46863469697558774,"Output":0.0,"Threshold":0.81795369592399991,"Type":"GT"}],"Output":null,"NumNeurons":6},{"Neurons":[{"Weight":[1.2903130777600746,-0.17555784503724925,-0.11429642844679588,0.44849472636054022,0.12666588748184304,0.791408171256263],"Bias":0.93573364845278373,"Output":0.0,"Threshold":-0.75431562343347625,"Type":"O"},{"Weight":[0.035658008435581756,0.38794054274933437,0.43012847063215232,0.89908715294980768,-1.3380086408306493,-0.71223735120717313],"Bias":0.44733958153395892,"Output":0.0,"Threshold":-0.093569537277205711,"Type":"A"},{"Weight":[-0.13964985270968169,0.79459639861928133,-0.25147498289948567,-0.9877687200657761,-0.97766224247294575,-0.049737605798750834],"Bias":0.93573364845278373,"Output":1.0,"Threshold":0.87626837167845739,"Type":"O"}],"Output":null,"NumNeurons":3},{"Neurons":[{"Weight":[-0.66687170354038083,-0.041772616115292927,1.3343046601977804],"Bias":0.40144171770729203,"Output":1.0271020582493986,"Threshold":-0.10098336734854763,"Type":"GT"},{"Weight":[0.57981827610080194,-0.63673186308552121,0.21181046134410919],"Bias":0.68300344078643116,"Output":0.0,"Threshold":0.21620346103618093,"Type":"O"},{"Weight":[-0.14813896692780604,-0.535507834669661,0.17063098985032688],"Bias":0.44091325786007252,"Output":0.0,"Threshold":0.45355138429314884,"Type":"GT"},{"Weight":[0.92197526196109836,-0.690040653339839,-0.47528506930697945],"Bias":0.32556746075869392,"Output":1.0,"Threshold":-1.4230399650628864,"Type":"A"},{"Weight":[0.17199057921248753,1.4269353024197615,0.81019313305097873],"Bias":0.48915562020051556,"Output":0.0,"Threshold":-0.75616523701060645,"Type":"GT"}],"Output":null,"NumNeurons":5},{"Neurons":[{"Weight":[0.11411896906286433,1.6469688930767445,-1.035630605034378,0.066889176583797477,0.43132473096825164],"Bias":0.91209023115788135,"Output":1.0,"Threshold":-0.35471044707593297,"Type":"A"},{"Weight":[1.5366752946454452,1.9560099113527731,1.8584926761027858,-0.14030803653425908,-1.0607145722306868],"Bias":0.54935933954518257,"Output":0.0,"Threshold":1.2832028676211849,"Type":"GT"},{"Weight":[-0.056708644970788868,0.62843919213418986,0.593736932525638,0.56654431759503909,1.0818613622831634],"Bias":0.41962149543437244,"Output":0.0,"Threshold":-1.5614694485261429,"Type":"O"}],"Output":null,"NumNeurons":3},{"Neurons":[{"Weight":[0.5792987326136434,0.38092224695995563,0.54046185991748308],"Bias":0.45583296000530615,"Output":1.0,"Threshold":1.6684786191529031,"Type":"O"},{"Weight":[0.10437596597815692,0.43848059333929135,-1.272798997477069],"Bias":0.46812352344539176,"Output":0.0,"Threshold":-0.012729874817994258,"Type":"O"},{"Weight":[-1.2025311832328005,-1.6736497262835735,0.96649432035543836],"Bias":0.1602600795031805,"Output":1.0,"Threshold":0.31918801009617193,"Type":"O"},{"Weight":[0.38184799830515304,0.429579278125096,1.3918093374892182],"Bias":0.49770772107770095,"Output":0.0,"Threshold":-1.532519133078176,"Type":"O"},{"Weight":[-0.3254432600813662,-0.39753456909560347,0.25940885977326378],"Bias":0.74826991837391155,"Output":0.42282665829254534,"Threshold":-0.32508796902329845,"Type":"GT"},{"Weight":[-1.0473924535547348,0.35862488299815526,-0.18531828568564657],"Bias":0.37911962688859535,"Output":-0.66827282666613941,"Threshold":-0.77678470137262923,"Type":"GT"}],"Output":null,"NumNeurons":6},{"Neurons":[{"Weight":[-0.70342429108145854,1.1751081718542085,1.2158240368254285,-0.14747525292796793,0.0949531021038783,-1.8520025298699909],"Bias":0.39915506257636246,"Output":2.3016054108466362,"Threshold":-0.64039414638671754,"Type":"GT"},{"Weight":[-0.50911756164320487,1.12338420509984,0.35974162926885356,1.0699633973702669,1.5186236368113306,0.0047352099813220416],"Bias":0.24732779769568136,"Output":1.0,"Threshold":0.76478329330672656,"Type":"O"}],"Output":null,"NumNeurons":2},{"Neurons":[{"Weight":[0.50009060659795257,0.58872442335316344],"Bias":0.48235084301901554,"Output":0.0,"Threshold":0.21408175379257036,"Type":"GT"},{"Weight":[0.48368198947686791,-0.7707974822066247],"Bias":0.50758203701469207,"Output":1.0,"Threshold":1.5967865230500635,"Type":"O"}],"Output":null,"NumNeurons":2},{"Neurons":[{"Weight":[-0.6117283274881673,1.7414076643723098],"Bias":0.86211874841811076,"Output":1.0,"Threshold":1.0715224608180685,"Type":"O"},{"Weight":[-1.3074123576783632,0.69753208951909662],"Bias":0.403767473747147,"Output":0.0,"Threshold":1.2034552540646191,"Type":"A"},{"Weight":[-1.0129308650563149,1.5351075807284134],"Bias":0.928629531491841,"Output":1.0,"Threshold":0.44166666080321493,"Type":"O"},{"Weight":[-1.148852128441253,-0.21860886394860124],"Bias":0.63823058363666307,"Output":1.0,"Threshold":-1.2945557829432914,"Type":"O"},{"Weight":[0.37532431989496651,0.268111155353897],"Bias":0.88673222525358764,"Output":0.0,"Threshold":0.38426476269227683,"Type":"A"},{"Weight":[0.66584843930187565,-0.086086484367184468],"Bias":0.182280665115584,"Output":0.0,"Threshold":1.5296773442671063,"Type":"O"},{"Weight":[0.91810242749313,0.70741796340207475],"Bias":0.43228801581183829,"Output":1.0,"Threshold":1.3912614935037033,"Type":"O"},{"Weight":[-0.4719295332957954,0.065445400793812974],"Bias":0.726619691391333,"Output":0.0,"Threshold":1.0202651633975401,"Type":"GT"}],"Output":null,"NumNeurons":8},{"Neurons":[{"Weight":[-0.88584452159301952,-0.4490424091690417,-0.79184950016990752,-0.64347857627713989,-0.8688582566363543,0.60338613791548945,1.5639639289881866,-0.41986114784137413],"Bias":0.25881538218142253,"Output":0.10499285104503153,"Threshold":-0.94939194448496778,"Type":"GT"},{"Weight":[-0.4377936720558413,0.73762840323039724,-0.30087655540596536,-0.48802503718786178,1.3366566907319506,0.9457247974534867,-0.9755576583443013,0.77410452522994233],"Bias":0.22812895161478267,"Output":0.0,"Threshold":-0.0030795917860604316,"Type":"A"}],"Output":null,"NumNeurons":2},{"Neurons":[{"Weight":[1.8370352312163614,0.10958304243841355],"Bias":0.6015219151049489,"Output":0.79439748150052336,"Threshold":-1.2326018545928421,"Type":"GT"},{"Weight":[0.41349539383710138,-1.5684337632419902],"Bias":0.82855492636028438,"Output":0.0,"Threshold":1.9024125877313374,"Type":"GT"},{"Weight":[-0.46929408166059017,0.59651456149132676],"Bias":0.63602752460214651,"Output":0.0,"Threshold":0.913495325908761,"Type":"GT"},{"Weight":[-0.45279136916911444,-0.51238738862443123],"Bias":0.69086637193843092,"Output":0.0,"Threshold":1.1827161431697737,"Type":"A"}],"Output":null,"NumNeurons":4},{"Neurons":[{"Weight":[-1.1032982762152539,1.4445033778643719,-0.66641036219262073,0.2004546588056042],"Bias":0.33258134468113137,"Output":0.0,"Threshold":-1.3566445960453637,"Type":"O"},{"Weight":[-0.9331900739561515,0.78998967637423878,-0.99181799824992689,-0.017204248354399709],"Bias":0.73518252610521206,"Output":-0.0061413184068418447,"Threshold":-1.4183683355424406,"Type":"GT"},{"Weight":[0.84896137686034134,-1.6592153774850142,-0.54369544356302157,1.2039648006993318],"Bias":0.68178530930624592,"Output":0.0,"Threshold":-0.873422473733801,"Type":"O"}],"Output":null,"NumNeurons":3}],"OLayer":{"Neurons":[{"Weight":[-1.5103633484689507,0.71436767300179449,0.3570229617678668],"Bias":0.71678712485208518,"Output":0.71239996551262652,"Threshold":0.30279762032572055,"Type":"OT"},{"Weight":[-0.27449995012697759,0.33948078063059633,-0.53261072679078714],"Bias":0.68146285399862694,"Output":0.70997780461354065,"Threshold":-0.41604945408927724,"Type":"OT"},{"Weight":[0.21491225865432628,0.88883454114610094,0.97003512164579486],"Bias":0.35247812937129197,"Output":0.42713647379518338,"Threshold":-0.00076191314327850312,"Type":"OT"},{"Weight":[-0.78715946468858033,1.0961800353700202,1.777128865954992],"Bias":0.90492022312475384,"Output":0.99699471263066541,"Threshold":-0.0063870963715728923,"Type":"OT"},{"Weight":[-0.78126874136797564,1.8278407993856076,-0.34297942567574685],"Bias":0.53576104494487442,"Output":0.0,"Threshold":0.34555764122085347,"Type":"OT"},{"Weight":[0.9458396355369314,-1.6575832831010144,1.8323819040471605],"Bias":0.14924144751822643,"Output":0.010011458209452956,"Threshold":-1.0341157480301875,"Type":"OT"},{"Weight":[-0.81774367337010045,-1.4022855705825079,1.0095214746587544],"Bias":0.11074738675297582,"Output":0.1193592689392429,"Threshold":0.012268108787139909,"Type":"OT"},{"Weight":[1.0024919422187628,1.5401363482420036,-1.5585053225785983],"Bias":0.37646085646770006,"Output":0.36700238876319524,"Threshold":-0.2248213983722131,"Type":"OT"},{"Weight":[0.48237136168515837,1.0236052307410191,0.48139252457665221],"Bias":0.079811082258732569,"Output":0.07352479661384316,"Threshold":-1.9602151810937631,"Type":"OT"},{"Weight":[-0.92877539942449672,0.27155788709482065,-0.54032189743579229],"Bias":0.28065008044331341,"Output":0.30345979510585014,"Threshold":1.6758054232577817,"Type":"OT"}],"Output":null,"NumNeurons":10},"NumLayers":17,"Breedibility":0.696401761916202,"Mutibility":2.1265172760054103,"Repetition":0}
