{"Input":[0.0,0.0],"Output":[0.0,0.0],"DLayers":[{"neurons":[{"Weight":[-0.81715092799493616,0.80474805589986409],"Bias":0.889324704133591,"Output":0.0,"Threshold":0.76693429833600968,"Type":"GT"},{"Weight":[0.32052253713855638,0.060482612839193366],"Bias":0.88305144472189778,"Output":0.0,"Threshold":-0.53757233151121642,"Type":"GT"},{"Weight":[0.0406660749766352,0.9107909989127847],"Bias":0.88900608424516681,"Output":0.0,"Threshold":-0.54993988692292006,"Type":"A"},{"Weight":[-0.37058726156623439,-0.58125716754293866],"Bias":0.40057694138985916,"Output":0.0,"Threshold":0.13497662503969699,"Type":"A"},{"Weight":[0.86069712222586248,0.64352033084422366],"Bias":0.943271594095636,"Output":0.0,"Threshold":0.23650558443577288,"Type":"A"},{"Weight":[-0.31614229889406931,-0.7710238605602755],"Bias":0.66358227639625889,"Output":0.0,"Threshold":0.69454900440506129,"Type":"GT"},{"Weight":[-0.66731408176352924,0.865948484682454],"Bias":0.77856716363624068,"Output":0.0,"Threshold":0.49937577010103307,"Type":"GT"}],"output":null,"numNeurons":7},{"neurons":[{"Weight":[-0.79393182685316155,-0.72196709724234742,-0.6861302613681789,0.1855459120988594,0.78088169069070446,0.0794243617353143,-0.555381221955354],"Bias":0.80416049054086236,"Output":0.0,"Threshold":-0.80199800748471073,"Type":"A"},{"Weight":[0.7940161352949292,-0.11947613308181806,-0.67603825716117316,-0.64148609789157574,-0.35710475098206884,0.02276490350382631,0.36132135212482946],"Bias":0.37630928977220751,"Output":0.0,"Threshold":-0.760010248404001,"Type":"O"},{"Weight":[0.11915449989920227,0.63001203752589041,-0.5854779484614161,0.88270058570555443,-0.6853422623525105,0.1119328598081753,-0.061787994141591709],"Bias":0.735248755540349,"Output":0.0,"Threshold":-0.88289406703919826,"Type":"GT"},{"Weight":[-0.8977550379455812,-0.72758589951674724,-0.54419103290149529,0.91009035935163984,-0.91625985964958545,-0.37103622563697219,0.51774271089478519],"Bias":0.95724351934960272,"Output":0.0,"Threshold":0.97127906278300991,"Type":"O"}],"output":null,"numNeurons":4},{"neurons":[{"Weight":[-0.96622129667840029,-0.70138804460940329,0.71384683051791364,-0.59576702890720545],"Bias":0.42021584716635563,"Output":0.0,"Threshold":0.20724014621565126,"Type":"GT"},{"Weight":[0.4784272850856312,0.88801427506283592,-0.70264189303975644,-0.79977838546027358],"Bias":0.2829943826808568,"Output":0.0,"Threshold":0.91770447926488918,"Type":"GT"},{"Weight":[0.602852653527098,0.45738370784436527,0.31656188625682236,-0.090508931358581846],"Bias":0.37372580746827916,"Output":0.0,"Threshold":-0.89642440150325386,"Type":"O"},{"Weight":[0.19636699333617788,0.013739068998833684,-0.94842400399428983,0.48987451218528416],"Bias":0.93489357081004121,"Output":0.0,"Threshold":0.514062929206557,"Type":"A"},{"Weight":[0.62972843583194926,0.25460162630984634,-0.883065122125235,-0.70347528285508754],"Bias":0.52447790118142867,"Output":0.0,"Threshold":0.19955981578657395,"Type":"O"},{"Weight":[-0.25986501260654304,-0.91061786045814763,0.11673121485706942,0.39205919550362006],"Bias":0.50139682297659893,"Output":0.0,"Threshold":0.59315733825469263,"Type":"A"}],"output":null,"numNeurons":6},{"neurons":[{"Weight":[-0.1976509914722531,-0.16315647455079316,0.9596825511938345,0.088789724320541011,0.92274582009890382,0.38344612316388921],"Bias":0.22452539681667713,"Output":0.0,"Threshold":-0.4754899849535385,"Type":"A"},{"Weight":[0.14340702637257383,-0.99680717754960391,-0.89104743948720744,-0.88063333317666936,0.049304049485038991,-0.31208238904927038],"Bias":0.31060605696896371,"Output":0.0,"Threshold":-0.033241064768862474,"Type":"A"},{"Weight":[0.53412424052791863,-0.68541413065298185,0.54031880830429435,0.56479534998759406,-0.77289098909725018,-0.33711919250763916],"Bias":0.52717173729425848,"Output":0.0,"Threshold":0.71552670454398115,"Type":"A"},{"Weight":[-0.24225190898508389,0.35798979660402508,0.669081039572638,0.20050901975506405,0.30854708995136765,-0.378525917594566],"Bias":0.25485226896351776,"Output":0.0,"Threshold":-0.966785990617604,"Type":"A"},{"Weight":[-0.86167682468037909,-0.19091951762834541,-0.7900758543005566,0.652630310343872,-0.2055836856391205,-0.34759280474278742],"Bias":0.0051431888738382552,"Output":0.0,"Threshold":0.71109058461668462,"Type":"GT"},{"Weight":[-0.70034059262850346,0.87975182471785318,-0.67525126816483738,0.59814650639805311,0.57391805554456921,0.72619100787033841],"Bias":0.2421609327393402,"Output":0.0,"Threshold":-0.19765920946265533,"Type":"O"},{"Weight":[-0.036205165570697362,-0.30786592387960571,-0.52460718691563568,-0.35724534250667567,0.736423454590339,-0.61719461698885758],"Bias":0.25240078719910269,"Output":0.0,"Threshold":0.73360694932453663,"Type":"GT"},{"Weight":[-0.27188811650121963,-0.66679554789643525,-0.087034165899750854,0.214253487165204,-0.518072070795145,0.87618026597247467],"Bias":0.38887818082649178,"Output":0.0,"Threshold":-0.066247928918454768,"Type":"O"},{"Weight":[0.98640913096555,0.43069690485983014,-0.40322466073707897,-0.80917015802542225,0.80751584973536239,0.18512883744441383],"Bias":0.596598177960421,"Output":0.0,"Threshold":0.29324748660123323,"Type":"A"},{"Weight":[-0.97978009934526877,-0.31449426492419758,-0.53086366156622011,0.71907083257989535,0.23336095001239374,-0.89288108930591548],"Bias":0.56592723055087368,"Output":0.0,"Threshold":0.3971950087683252,"Type":"GT"},{"Weight":[0.55471037726603,0.31848988883126989,-0.30291004446470648,-0.19423184459760406,-0.23557841462808588,-0.28257522698611731],"Bias":0.28125907400681593,"Output":0.0,"Threshold":-0.37427183956572407,"Type":"GT"},{"Weight":[-0.575059007655391,-0.9802702343930817,-0.75175366399425714,0.47706081461024508,0.822416973683246,0.32416780168384679],"Bias":0.37821406097068172,"Output":0.0,"Threshold":0.54135184015210336,"Type":"A"}],"output":null,"numNeurons":12},{"neurons":[{"Weight":[-0.51495331177252968,0.98732803714802864,0.97081688045096437,0.6870634298245718,0.31370129869957514,-0.12230120977493991,-0.38460577110974387,0.85908911044666969,0.66805650511200376,-0.53005807079843159,0.4781608611709256,-0.47156349405253467],"Bias":0.61976256995450829,"Output":0.0,"Threshold":-0.88849600725271549,"Type":"A"},{"Weight":[0.45098907800903038,0.69422657447598246,-0.87225438601908012,-0.76630576223428626,-0.063957814622650766,-0.6042421272044266,-0.29320680456850995,-0.43805236529468206,0.35475960483530516,0.43781120257350209,-0.4650786912371771,0.710157555858678],"Bias":0.16224779475584988,"Output":0.0,"Threshold":0.99339606659179369,"Type":"GT"},{"Weight":[0.81370777628091528,-0.35499502781545511,0.095370668030982222,0.483513579929021,-0.26760737098176374,-0.13285219908359097,0.52225241787836529,-0.54473822775517511,-0.0885171830135012,-0.12371796980673352,-0.48036949638294496,0.77744972136684209],"Bias":0.45068480467921346,"Output":0.0,"Threshold":0.86970892309663306,"Type":"O"},{"Weight":[0.91242134939526276,0.55400879148114879,-0.78409679270540211,-0.27529279295135883,0.8950719586084932,0.40309742996613374,0.842127440423764,0.85370556677398535,-0.56076853469049959,0.050069052749345568,-0.58980849645557276,-0.76007534692067436],"Bias":0.86967809678506014,"Output":0.0,"Threshold":-0.38358386297877128,"Type":"A"},{"Weight":[-0.077668989579039158,-0.63163606851903542,-0.21504438538804854,-0.77870104405037177,-0.85203583205679234,-0.28030848190202773,-0.49479574826303674,0.52291756007956225,0.62849254283518186,0.31039240039437654,0.4965449895228003,-0.36537330148991815],"Bias":0.81963987034728747,"Output":0.0,"Threshold":0.80848002657689155,"Type":"O"},{"Weight":[-0.085558697621132579,-0.0091802226422262479,0.05361235842742601,-0.1311701140977303,-0.89028518548714242,0.35964785719273978,-0.96822892779867575,-0.09667914924057161,0.093097446064044465,-0.20019440175974482,-0.7692504770910602,-0.50216527911935249],"Bias":0.073191462584394712,"Output":0.0,"Threshold":0.38272242917806021,"Type":"O"}],"output":null,"numNeurons":6},{"neurons":[{"Weight":[-0.55435719180589416,-0.406564358811157,-0.15844773182573158,-0.42868486253017785,-0.87979555217539684,-0.68296017529580755],"Bias":0.056698793106106482,"Output":0.0,"Threshold":-0.67631074352018106,"Type":"A"},{"Weight":[0.635336186101351,0.06481274918877182,0.058598646455723165,0.12204892333692355,0.47272448496554254,0.89207927970778167],"Bias":0.68852785308311126,"Output":0.0,"Threshold":0.32732146714223614,"Type":"A"},{"Weight":[-0.88223586458816927,0.33592799368124826,-0.95308349838158279,-0.80978119597294429,-0.66799428671039374,-0.21330189388864762],"Bias":0.51723422646393735,"Output":0.0,"Threshold":0.049180362396491858,"Type":"GT"},{"Weight":[-0.051108421315955194,0.43785527648304368,0.90209948127255746,0.0048812436893960667,0.28397295125013822,-0.96771288382248621],"Bias":0.44433534911104261,"Output":0.0,"Threshold":0.50749917212291584,"Type":"O"}],"output":null,"numNeurons":4},{"neurons":[{"Weight":[-0.83803683278990759,-0.65395991627777,-0.67964304735867453,0.40071734059635428],"Bias":0.96949513767356754,"Output":0.0,"Threshold":0.06406130411851281,"Type":"O"},{"Weight":[-0.72332372363811537,-0.42354412256905072,0.37491060531461173,0.55725335355720174],"Bias":0.053378096806527157,"Output":0.0,"Threshold":-0.94282386123334239,"Type":"GT"},{"Weight":[-0.765752232524451,-0.15480476438757254,0.5023362992807926,0.16049511458747792],"Bias":0.660827808855487,"Output":0.0,"Threshold":0.77074938163661832,"Type":"O"},{"Weight":[-0.058591767707183849,0.37146537395728069,0.037137935886689434,-0.93260434359898992],"Bias":0.0082435952537896085,"Output":0.0,"Threshold":0.79929622439634807,"Type":"GT"},{"Weight":[-0.5441687612534355,0.069424743796430877,0.99903245037376531,0.57459772125566277],"Bias":0.95713593948499109,"Output":0.0,"Threshold":0.25610228313882943,"Type":"GT"},{"Weight":[-0.081489607264050093,-0.45309310148148474,-0.90356618953103485,0.11005172790496225],"Bias":0.41185400467917976,"Output":0.0,"Threshold":-0.69685690556506485,"Type":"A"},{"Weight":[0.49861189513402615,-0.85232825477250307,0.010219517634352445,0.38961403788515087],"Bias":0.92679163158256173,"Output":0.0,"Threshold":0.44757742874677175,"Type":"A"},{"Weight":[0.58155751860773075,0.50664274371538442,0.19615166038095563,0.76955127751899477],"Bias":0.60215540723975536,"Output":0.0,"Threshold":0.17926318579319081,"Type":"O"},{"Weight":[0.20898933019907648,0.54925116503110671,0.68924449649138586,0.29537333096162105],"Bias":0.0891343621020831,"Output":0.0,"Threshold":-0.87130006303605623,"Type":"GT"}],"output":null,"numNeurons":9}],"OLayer":{"neurons":[{"Weight":[0.7431813738044265,0.47574363903875633,0.69357480001336658,0.22455080609049219,0.63555563084574218,0.98603946901207762,0.1692685322692937,0.85419875562852188,0.964261541592079],"Bias":0.88845396688601652,"Output":0.0,"Threshold":-0.59596927352061924,"Type":"OT"},{"Weight":[0.026975858037814431,0.53053699411942479,0.49592758365717138,0.43403608791252418,0.0973981549485578,0.60152620803635859,0.20367642687804829,0.43332608669685485,0.32541539209215686],"Bias":0.34091169961770612,"Output":0.0,"Threshold":0.99398089805337642,"Type":"OT"}],"output":null,"numNeurons":2},"NumLayers":7,"Breedibility":0.17957834209295845,"Mutibility":4.92252378488077,"Repetition":0}
