{"Input":[0.0,0.0],"Output":[0.0,0.0],"DLayers":[{"neurons":[{"Weight":[-0.36313446628075768,-0.15927253438125949],"Bias":0.55869301248280934,"Output":0.0,"Threshold":-0.77285088448452344,"Type":"A"},{"Weight":[0.40148533340612674,-0.65875440959760656],"Bias":0.057080937576052239,"Output":0.0,"Threshold":-0.057571830254780049,"Type":"A"},{"Weight":[-0.815624259326432,0.96611404743330276],"Bias":0.1231445605508725,"Output":0.0,"Threshold":-0.62608483323179409,"Type":"O"},{"Weight":[-0.57419866350209281,0.11728711943947111],"Bias":0.7507168924206481,"Output":0.0,"Threshold":0.34579202176341417,"Type":"A"},{"Weight":[-0.021743692933462417,-0.87782962940532228],"Bias":0.38219151710262128,"Output":0.0,"Threshold":0.47726179402194069,"Type":"A"},{"Weight":[-0.86901941703121155,-0.65865228542063958],"Bias":0.14782380878358326,"Output":0.0,"Threshold":0.66266690225464608,"Type":"GT"},{"Weight":[0.86393379506838219,-0.35506026230522442],"Bias":0.72390242792847681,"Output":0.0,"Threshold":0.067877367170470465,"Type":"A"},{"Weight":[-0.31135382052108357,-0.58904150714587489],"Bias":0.65556376504505232,"Output":0.0,"Threshold":-0.505163153403049,"Type":"GT"},{"Weight":[-0.87938120955572519,0.20805138545485744],"Bias":0.17974220084945775,"Output":0.0,"Threshold":0.862280479102526,"Type":"A"},{"Weight":[-0.63266523956910947,-0.04489821011428638],"Bias":0.96743254781115451,"Output":0.0,"Threshold":0.97972444117987734,"Type":"O"},{"Weight":[0.12180990917692422,-0.95473247112461013],"Bias":0.9907317594581897,"Output":0.0,"Threshold":-0.61965069110489013,"Type":"GT"},{"Weight":[-0.48170551121314314,-0.073733446688267146],"Bias":0.8882202868760658,"Output":0.0,"Threshold":-0.28916588811630656,"Type":"GT"},{"Weight":[0.559440134353675,0.28069316282900664],"Bias":0.45461551679978868,"Output":0.0,"Threshold":-0.39135847631439497,"Type":"O"},{"Weight":[-0.75597601838222517,0.45557369871790226],"Bias":0.022979157056184092,"Output":0.0,"Threshold":0.86649724555504382,"Type":"A"},{"Weight":[0.08758233351986032,0.31820147359659962],"Bias":0.55043068227843883,"Output":0.0,"Threshold":-0.452916039364839,"Type":"A"},{"Weight":[-0.063988351758564058,-0.1238077330048232],"Bias":0.78854703241425894,"Output":0.0,"Threshold":-0.65464143625211035,"Type":"A"}],"output":null,"numNeurons":16},{"neurons":[{"Weight":[0.68104194648612382,0.36447357403322755,-0.31352955396917165,0.73045143286252923,-0.95307915515875408,-0.97403396245745666,0.875247596704982,-0.61520826565809927,-0.74210406734706091,0.21071054097763753,0.3851849424583767,0.10652409498883603,0.0209626443781716,-0.2004304571079232,-0.0046660793035598839,0.10133458213011481],"Bias":0.11207434726509934,"Output":0.0,"Threshold":-0.54329808128219936,"Type":"A"},{"Weight":[0.40514351120458147,-0.77405277955068874,0.58775004073407033,-0.59735152711968476,-0.090927589727066271,-0.188740755053582,0.5085994673467239,-0.046442965067198021,-0.239431637450788,0.63170119450972473,0.43740070724738794,0.67806863397269912,-0.25648578733973476,0.84562227169313575,-0.15011284973011951,-0.052002645121888555],"Bias":0.58894995813674755,"Output":0.0,"Threshold":0.29263582233927948,"Type":"A"},{"Weight":[0.47104087447330395,-0.38321437378563655,0.21607405423003903,0.44706983186633786,0.39567453525759028,-0.75895127596284784,0.16666331848439914,0.32712398112151958,-0.91159688677247463,0.88517173607143185,-0.95452946701763641,-0.96410771411103557,0.065736507561866428,0.051355757774485165,0.043650880941958577,-0.73434793284831],"Bias":0.701779893460581,"Output":0.0,"Threshold":0.93693699871047265,"Type":"A"},{"Weight":[-0.98932056314745942,0.651542310906361,0.37940632057348561,-0.33343972840040909,0.70394941359010965,-0.57330955312275778,-0.080354362763629464,-0.42035262865030792,-0.40746408626784758,-0.15497649933908902,-0.026009325415831678,-0.40808965564150812,0.85369972970974617,0.88165823737236593,0.14278463327455551,-0.63508689246842953],"Bias":0.75327989214718338,"Output":0.0,"Threshold":0.077809383197598808,"Type":"A"},{"Weight":[-0.82277853452729921,-0.19926103819127242,0.71149878749228024,0.42089993759100325,0.28406910238977012,0.60309488307828774,0.43643861098049141,-0.80849955873959678,0.78196049937138357,0.2233052725080891,-0.749785375664842,0.67864549005341035,0.87110127828600881,-0.23656858794231367,-0.87366859329569557,-0.705046157680939],"Bias":0.56224438760534134,"Output":0.0,"Threshold":-0.6666307731841834,"Type":"GT"}],"output":null,"numNeurons":5},{"neurons":[{"Weight":[0.95320654797982729,0.44125483252166531,-0.85110863384376678,-0.26067002176338344,-0.15047059122029255],"Bias":0.52306581312933276,"Output":0.0,"Threshold":-0.7344880722158067,"Type":"A"},{"Weight":[0.24087534297298424,-0.019263306641608153,0.52993162233844937,-0.58347530364220745,-0.916942354718662],"Bias":0.25993815495629707,"Output":0.0,"Threshold":0.68331242850204577,"Type":"O"}],"output":null,"numNeurons":2},{"neurons":[{"Weight":[0.16894325854673203,0.32786824196943465],"Bias":0.12633684935343306,"Output":0.0,"Threshold":0.82875395139155628,"Type":"O"},{"Weight":[0.89349045552941531,-0.2182206158611088],"Bias":0.45526003160293216,"Output":0.0,"Threshold":0.7206306870657162,"Type":"GT"},{"Weight":[0.42647371041889942,-0.89581741294628825],"Bias":0.14804086887652096,"Output":0.0,"Threshold":0.54298108096373321,"Type":"GT"},{"Weight":[0.38045654370470744,0.62253787490657431],"Bias":0.0930689275698126,"Output":0.0,"Threshold":-0.57752693005722344,"Type":"GT"},{"Weight":[0.37268647149795969,-0.98152733267356052],"Bias":0.19519757115989811,"Output":0.0,"Threshold":-0.98062608343578228,"Type":"A"},{"Weight":[-0.44307436488711943,-0.12577285111219289],"Bias":0.31171100647734057,"Output":0.0,"Threshold":-0.2562055579648379,"Type":"O"},{"Weight":[0.22483060659134324,-0.83346444453739765],"Bias":0.044668456094650762,"Output":0.0,"Threshold":-0.42381273555746896,"Type":"O"},{"Weight":[0.10711354441340712,0.37340544507531703],"Bias":0.20621607648498197,"Output":0.0,"Threshold":0.00013976171619247725,"Type":"O"},{"Weight":[-0.73088053647935414,0.045288996792067306],"Bias":0.73910335439215569,"Output":0.0,"Threshold":0.3594749012773274,"Type":"A"},{"Weight":[-0.35868736233501108,-0.021096449820835354],"Bias":0.41720822985154027,"Output":0.0,"Threshold":-0.5574345554026936,"Type":"O"},{"Weight":[-0.47640042727645504,-0.57283060977832911],"Bias":0.74406248551982568,"Output":0.0,"Threshold":-0.037493329978312055,"Type":"A"},{"Weight":[-0.10746676479813958,0.22552330243658428],"Bias":0.60722063836046525,"Output":0.0,"Threshold":-0.672601040765923,"Type":"GT"},{"Weight":[0.38347215828647474,-0.37437920150085313],"Bias":0.21091656117277061,"Output":0.0,"Threshold":0.23293103987021885,"Type":"O"},{"Weight":[-0.11637792648578897,0.77161551302839793],"Bias":0.40271628573663359,"Output":0.0,"Threshold":-0.37692183646230115,"Type":"GT"},{"Weight":[-0.1157413367720979,-0.045320722761247642],"Bias":0.4273091519378634,"Output":0.0,"Threshold":0.23059571498567039,"Type":"O"}],"output":null,"numNeurons":15},{"neurons":[{"Weight":[0.096415260851576576,-0.38353819930159405,0.88905691862528069,0.68608632156908811,0.57816184664990844,-0.6073989042115393,0.22257713145696426,-0.24346938740623619,-0.70747490446431327,-0.35644566796554517,0.321609059032802,-0.73054492833583851,0.67584431342587081,0.35806617902501775,-0.21907960494006035],"Bias":0.15287644330080433,"Output":0.0,"Threshold":0.23790828568763486,"Type":"GT"},{"Weight":[-0.11450130032119402,0.48739643231378704,0.2273210078605083,0.085529191459309858,0.82455443908672521,-0.60135504351991931,-0.89316420531513363,-0.80185133535501141,0.71983424747355018,-0.215455371986821,0.67299915834935342,-0.057272539035078389,-0.45810728541487233,-0.48056080959763414,0.64493014646923641],"Bias":0.539238596586156,"Output":0.0,"Threshold":0.36949061852390441,"Type":"A"},{"Weight":[0.79883312424590491,0.6541688249698695,0.11468686308464356,-0.18034862549060426,-0.72160301111713188,-0.54545616383918383,-0.62034274294057057,-0.82542898264966391,-0.2957912037595134,-0.022452913700813853,0.560023442171525,-0.38784103346422361,0.27329682105840036,-0.068429019333994492,-0.2589230142808161],"Bias":0.14556819998918483,"Output":0.0,"Threshold":0.2318644249960149,"Type":"GT"},{"Weight":[-0.53698691052244363,0.3979821053324184,-0.773900980955875,-0.24716076406052373,-0.82865479953058752,-0.69127082810330709,-0.75520722742900592,-0.2333770209147488,-0.2667451916573314,-0.34703770482309054,-0.42953108876456092,-0.41051478144271059,-0.70277397693264021,-0.739026819699922,-0.15883288400193346],"Bias":0.90016993177131277,"Output":0.0,"Threshold":-0.31359173884316893,"Type":"GT"},{"Weight":[0.48525923373422547,0.7689465693053541,0.49038761830441074,-0.0063218413881593579,-0.73558869014288708,-0.559398612267989,0.096563810061925937,0.79334616698014837,0.995272852012549,0.8848267201729243,-0.47407858561448685,0.59298073900536663,0.040989472549869434,-0.66897271325298246,-0.096410376064670442],"Bias":0.11136447550326795,"Output":0.0,"Threshold":0.37767908926013816,"Type":"GT"},{"Weight":[-0.97305543160673946,0.70905490252610992,0.78456237902145942,-0.24225891206518696,-0.49900094442954329,0.84410077233058434,-0.1663520155317858,-0.36027927061555876,-0.46431211543470252,0.42876501867024464,-0.24265448294703593,0.22895272319621998,0.51103828172713439,0.94548066749492687,-0.2083698060402506],"Bias":0.26494215068637494,"Output":0.0,"Threshold":-0.18171952300785088,"Type":"A"},{"Weight":[-0.63705892238629,-0.071866639923242215,-0.086055823641855184,-0.37372061068831042,0.80339633152047,-0.15038194840326064,0.34463313983037747,0.7332560558492579,-0.90475771664863347,0.94891407058989352,0.79581967592044722,0.18249083551694212,0.2036791556531932,-0.78710365658025427,-0.91638110061938927],"Bias":0.7692660045666927,"Output":0.0,"Threshold":-0.66238124932273346,"Type":"A"},{"Weight":[0.49185354332060255,-0.30604470162933911,-0.943495905466143,0.45496026866834621,0.37946562626374214,-0.62408190016824838,-0.63476932311187007,-0.17953045907408485,-0.46176114141091756,0.23280545241795733,0.26226997527399565,-0.19941177275004413,-0.076876258979028209,-0.36513873951748888,0.43294657833545774],"Bias":0.78950657918560629,"Output":0.0,"Threshold":-0.48800069908052718,"Type":"A"},{"Weight":[0.0482067042254874,0.41245433288275,0.13831684092912677,0.42058505696271781,0.41072784755878516,-0.31050915378635247,-0.17039059296734194,-0.14994193806775935,0.67072094495907475,0.42957579690477615,0.84599238906334728,-0.77896488959852839,0.10688044182345292,-0.91138388305501261,0.46038022565673115],"Bias":0.88067356025831478,"Output":0.0,"Threshold":0.13608120108772126,"Type":"A"},{"Weight":[-0.35721371572334959,0.077416438645411492,0.044812563361978419,-0.12405362637902313,0.4361376010049775,0.826766432182289,0.11050531459530132,-0.89430627547870678,-0.00019330019140304075,0.058424902175751005,-0.3903783864296872,-0.97591450390215706,-0.61412057402269937,-0.76100756496237942,0.44211264627152713],"Bias":0.63163713581470637,"Output":0.0,"Threshold":-0.17442795269863118,"Type":"O"},{"Weight":[0.024469520908067713,0.34909389044581629,0.5413240369136092,-0.4894874442785454,-0.20885049375186232,-0.34200268347840879,0.55209468330819844,-0.51640577964317325,0.70835808092186137,-0.077656298911970248,0.0080201611891482782,0.44873656167124237,0.12663955154206583,-0.7994064394381859,0.91766445707421029],"Bias":0.05546394086231661,"Output":0.0,"Threshold":0.65233847948365775,"Type":"GT"}],"output":null,"numNeurons":11},{"neurons":[{"Weight":[0.16901540298434692,0.070232480797093585,-0.18926310967154014,-0.90416310071207728,0.8840506909806517,0.42884980767446096,-0.83307918479343834,0.988168669859026,-0.95433355446641033,0.35823823528282261,-0.0704744146533657],"Bias":0.51536266902245709,"Output":0.0,"Threshold":0.80332126785224367,"Type":"GT"},{"Weight":[0.37530681974036006,-0.47488935919240555,0.689664203994751,0.21358141406140357,0.34739037665882633,-0.63812560012476782,0.88839318924043009,0.10385706047707101,0.56468587069059062,0.69778974386760484,0.96632725464474745],"Bias":0.92949578721518433,"Output":0.0,"Threshold":-0.74014274903579746,"Type":"A"},{"Weight":[0.15207147325951209,0.88851156732463821,-0.14197968977595665,-0.68981762541915181,-0.8261106209019714,0.71947875652437976,0.21201832974889237,0.710040745656025,-0.14607684553883824,0.35569278539889154,0.20837846454623085],"Bias":0.66011482368228713,"Output":0.0,"Threshold":0.31084742411544891,"Type":"O"},{"Weight":[-0.10553152398463875,0.10342809842127752,0.63905504142821534,-0.9352694856632825,0.52288958454639167,-0.080430830866299027,-0.65462192783813078,0.32544001393273475,0.025533670105754244,0.040148234013537051,0.72003035793082337],"Bias":0.93543281496289787,"Output":0.0,"Threshold":-0.10219046804224628,"Type":"O"},{"Weight":[-0.38444996363690587,0.34718836115076596,0.91442656140514955,0.18059265202870251,-0.16137968896021121,-0.016079658184237618,0.69655723064046227,-0.9123813332581806,-0.23099916532216555,0.78370595573620216,0.53694512440680764],"Bias":0.61363590118178912,"Output":0.0,"Threshold":-0.43949303191131589,"Type":"GT"}],"output":null,"numNeurons":5},{"neurons":[{"Weight":[0.9948333883633993,-0.16163052998559108,-0.0012376303790312402,-0.90112630645796954,0.7732150143819],"Bias":0.87741205556197654,"Output":0.0,"Threshold":0.72461346756881728,"Type":"A"},{"Weight":[-0.095956219404915444,0.9623771444719178,-0.954016466603622,0.055416087645765437,0.64210940647968529],"Bias":0.86443209828083967,"Output":0.0,"Threshold":0.31848451230604413,"Type":"A"},{"Weight":[0.39997156541793216,-0.90769532923945007,-0.022556526131255798,0.18575926366530324,0.99974915897462013],"Bias":0.014842027805206378,"Output":0.0,"Threshold":0.79156034290397559,"Type":"A"},{"Weight":[-0.13916631887628059,-0.35358710976018903,-0.28093926807909236,0.4409889050018922,0.65125875670987121],"Bias":0.52704380756572067,"Output":0.0,"Threshold":-0.82018247750596263,"Type":"O"},{"Weight":[-0.2211742169322326,0.52688984271459738,0.49646786483771532,-0.95032508110177,0.87921368790753818],"Bias":0.70205694143756148,"Output":0.0,"Threshold":-0.19580173454983241,"Type":"A"},{"Weight":[0.21008553924508649,-0.73796374664547093,-0.27625663358543845,-0.66548739963466641,0.35931471891669309],"Bias":0.037545244226951734,"Output":0.0,"Threshold":0.36667806718809443,"Type":"O"},{"Weight":[-0.89715981338972217,-0.63737344724935174,0.091681850651130936,0.4742078680890649,-0.44485108575078242],"Bias":0.29509247806626021,"Output":0.0,"Threshold":0.095288228287961435,"Type":"O"},{"Weight":[0.41179824639661156,-0.64433030767567934,-0.32823355976875573,0.56455816075418064,-0.94872351081516759],"Bias":0.54392584392052412,"Output":0.0,"Threshold":0.79430251465845036,"Type":"GT"},{"Weight":[-0.089413982392015853,-0.6452078738460354,-0.94014799033298524,0.32763663089258438,-0.07562135349755239],"Bias":0.10411988389870147,"Output":0.0,"Threshold":0.092997774990740134,"Type":"GT"},{"Weight":[-0.54578513025575559,-0.8673636456333863,0.73687016905139668,0.93929922577892389,0.87371454149191941],"Bias":0.038444507419338685,"Output":0.0,"Threshold":-0.71957993494327177,"Type":"O"},{"Weight":[-0.27228456096364395,-0.65844820470476906,0.4708873235950653,-0.46160647527389531,-0.68688103588618388],"Bias":0.15514023795497614,"Output":0.0,"Threshold":0.35911320306319428,"Type":"A"},{"Weight":[-0.56497095551573251,-0.98101764963055849,0.11404850432372117,0.11483741044757767,-0.4972240382326879],"Bias":0.057432345607053646,"Output":0.0,"Threshold":0.77357474517709335,"Type":"GT"},{"Weight":[0.13513045205507915,-0.091345290230282247,-0.26422751101862058,0.38592105516508268,0.84123468810749924],"Bias":0.62211045139567478,"Output":0.0,"Threshold":-0.32223514296218525,"Type":"O"},{"Weight":[0.71899380102706789,-0.025828167342500839,-0.1643842813393028,0.15375145438767571,0.97139006106713321],"Bias":0.60553143061955061,"Output":0.0,"Threshold":-0.15527662548947921,"Type":"A"},{"Weight":[-0.77556172515058974,0.23994699038562689,-0.67335360435459468,0.30087564014870471,0.073957390186357025],"Bias":0.0948856920445737,"Output":0.0,"Threshold":-0.49563388549519416,"Type":"GT"}],"output":null,"numNeurons":15}],"OLayer":{"neurons":[{"Weight":[0.040436353553289714,0.18489488362562603,0.84852253638604769,0.33026528886066064,0.70567662907097328,0.717171760609919,0.56993393533394388,0.26008833770644307,0.79422223698078764,0.94701892041928082,0.30417263242610387,0.99128707497906265,0.445876399728412,0.5035598480624891,0.35986378805705521],"Bias":0.42494456117271656,"Output":0.0,"Threshold":0.28287127394362876,"Type":"OT"},{"Weight":[0.5315472919175156,0.952388150129648,0.1228688238760777,0.9131183805470906,0.62212920078175571,0.79070127931921808,0.42268728857053783,0.96500557985389868,0.76398742001689379,0.30120921148974877,0.38383550075061412,0.89800371411163538,0.27629881085655594,0.42235621503664006,0.672393946755861],"Bias":0.80805023378136109,"Output":0.0,"Threshold":-0.24587328650330811,"Type":"OT"}],"output":null,"numNeurons":2},"NumLayers":7,"Breedibility":0.940440067993682,"Mutibility":9.2703590305849719,"Repetition":0}
