{"Input":[0.0,0.0],"Output":[0.0,0.0],"DLayers":[{"neurons":[{"Weight":[-0.41894104211541872,0.51034871186611652],"Bias":0.78265161010560191,"Output":0.0,"Threshold":0.947964504802583,"Type":"A"},{"Weight":[0.8455885508309996,0.95074966547579953],"Bias":0.682550686729397,"Output":0.0,"Threshold":-0.85342859376847213,"Type":"O"},{"Weight":[0.03990041280160677,0.18523739938868089],"Bias":0.70324948742205717,"Output":0.0,"Threshold":-0.895032664712068,"Type":"O"}],"output":null,"numNeurons":3},{"neurons":[{"Weight":[-0.0082756127269359367,-0.0906448751178779,0.34620130217922912],"Bias":0.4926604835748023,"Output":0.0,"Threshold":-0.32064790014207734,"Type":"A"},{"Weight":[-0.72800510317459943,0.27587218269513558,0.32278897069524459],"Bias":0.56495113184906132,"Output":0.0,"Threshold":0.68140221744841067,"Type":"A"},{"Weight":[-0.35479347657169841,-0.80083801355251949,0.8680178713370198],"Bias":0.36691105010309771,"Output":0.0,"Threshold":0.452361980663781,"Type":"GT"},{"Weight":[-0.52390837740335072,0.665156757303121,0.77437599737866591],"Bias":0.857508752894359,"Output":0.0,"Threshold":-0.90500018275575722,"Type":"O"},{"Weight":[0.45808918190099729,0.33481479079221133,0.50191162643111853],"Bias":0.76402823010647125,"Output":0.0,"Threshold":0.020025276122626511,"Type":"GT"},{"Weight":[-0.13829835557299589,-0.2073973516036744,0.65012220835784551],"Bias":0.27627940675070484,"Output":0.0,"Threshold":0.76234849950408023,"Type":"GT"},{"Weight":[-0.41165068625083689,0.78554469802675053,0.51603675471434218],"Bias":0.80708322665052634,"Output":0.0,"Threshold":0.75384180562283931,"Type":"O"},{"Weight":[0.95262902740045874,0.18201496879664014,0.22637047629168744],"Bias":0.98990920558101925,"Output":0.0,"Threshold":0.98735455190174026,"Type":"O"},{"Weight":[-0.18767729969121391,0.58991355197034478,-0.2442525863853528],"Bias":0.85084965212775843,"Output":0.0,"Threshold":0.50442446093281013,"Type":"GT"},{"Weight":[-0.59456767774865393,-0.27964522749169041,-0.41765442044364959],"Bias":0.86028855939409166,"Output":0.0,"Threshold":-0.36962983681337436,"Type":"A"},{"Weight":[-0.16101893557283045,-0.2434762000308727,-0.92629251858512518],"Bias":0.03161547846701717,"Output":0.0,"Threshold":0.22688145201042362,"Type":"GT"},{"Weight":[-0.69364241077268607,0.93596375032140111,-0.2068184726903301],"Bias":0.45038495094067649,"Output":0.0,"Threshold":0.12936304189700776,"Type":"GT"},{"Weight":[-0.81890844731540813,0.88193363690838855,0.857374208447232],"Bias":0.38030572160161369,"Output":0.0,"Threshold":0.077123492526413637,"Type":"A"},{"Weight":[0.84867165975676462,0.68990784496530322,-0.7388967735408325],"Bias":0.10340957394959852,"Output":0.0,"Threshold":0.17940700947279437,"Type":"GT"}],"output":null,"numNeurons":14},{"neurons":[{"Weight":[0.62396820011733478,-0.93074617950746141,-0.30564282289968936,0.55420598134128651,0.35288950817328391,0.7309255174970839,-0.09168788236178825,-0.8583601698551141,0.55775150496407944,-0.0688237445749453,0.95449198594060358,-0.12578202277691197,0.073363042005041165,0.94173252812667407],"Bias":0.029327597482748144,"Output":0.0,"Threshold":-0.96135533832076725,"Type":"A"},{"Weight":[0.95502718768782313,0.19494024719807332,-0.951187457400927,0.55173138554754264,-0.82609974026032706,0.20997197097631729,0.11774614225968073,0.598219962603515,-0.88053660368571829,0.545658068985519,0.66106539296967226,0.3241704657320727,0.4442806180772747,0.32381892824723335],"Bias":0.2174639749422036,"Output":0.0,"Threshold":0.56766350873171512,"Type":"O"},{"Weight":[-0.69642778658141746,-0.693670281532067,-0.8183048324744705,-0.17706533017431633,-0.0014009485027757234,0.271941944617751,-0.45404800188450517,-0.9747441871905439,0.00079704728014629673,0.10600586892385309,0.41569726933524814,-0.7384085113827179,-0.60292590716989991,-0.28831550678625495],"Bias":0.96472379656728535,"Output":0.0,"Threshold":-0.84510557253151464,"Type":"O"},{"Weight":[0.310305082849369,0.14474628267099443,-0.27791161801568776,0.16268131004771277,-0.87217275745802225,-0.62487372691970022,0.39592155040983185,-0.50590022537200718,-0.86351166286669279,-0.70582876573588171,0.46165763980786206,-0.97583690051726857,-0.59304310176197583,0.5616656022899158],"Bias":0.83744853820532961,"Output":0.0,"Threshold":-0.064133722830626058,"Type":"A"},{"Weight":[-0.88974317763454425,0.46513641414471735,-0.13986167085350568,0.82386952444159867,-0.798065075556778,-0.10791675239238736,-0.019829539125705856,-0.89124214225040843,-0.72909179456955375,0.24941994447699745,-0.13927680679563284,-0.79677859172074994,-0.842600900606532,0.19325142735301118],"Bias":0.87196285085378344,"Output":0.0,"Threshold":0.57936849751480324,"Type":"A"},{"Weight":[-0.97196430525368283,-0.400770741701485,0.083592554593269044,0.019810993699268902,-0.39816826134834821,-0.45865251378093497,0.78073914385435128,-0.031894981410305473,0.51526444662141824,0.85422101796335592,0.81471377835362857,0.01701856917562828,-0.21672712136838918,-0.79300930015417248],"Bias":0.99519823072254576,"Output":0.0,"Threshold":0.95246449529773769,"Type":"GT"},{"Weight":[-0.43390928974091508,0.16728367524560711,0.047123850345203583,0.97060438383864445,0.10883184853421145,-0.34451774942899016,0.76543819288045079,-0.640910042748279,-0.061126780724677622,-0.35614058252244285,-0.72514747955144732,-0.99332525627376755,0.45155978177281086,-0.16568871595230358],"Bias":0.077280724457130176,"Output":0.0,"Threshold":0.97297108498074636,"Type":"A"},{"Weight":[-0.44345442831677123,-0.67651503983722772,-0.66930524477237152,-0.098024659370083672,0.53686428001935793,-0.59997384743763782,-0.21728122337594685,0.9002142780927076,0.40257718479380811,0.985713127993845,-0.59632391277529484,-0.49354909849052742,0.30655246149122362,-0.099691406404455854],"Bias":0.34313758897741214,"Output":0.0,"Threshold":0.93049905678746248,"Type":"O"},{"Weight":[0.89449416561727135,0.55716220687942686,-0.0098392223053794456,0.336706735816182,-0.95007825826764025,0.82762990697642314,0.60854447707931725,-0.1928841090727989,0.83490399263561887,-0.63752814225737386,0.98725795698690133,-0.84937985327531573,-0.74640683724843282,0.17430896459813647],"Bias":0.3809523868285829,"Output":0.0,"Threshold":0.78601907975320662,"Type":"A"},{"Weight":[-0.21389820250398395,-0.34586167305049564,-0.45923972710000338,-0.52053363692040255,-0.45029058374943703,-0.99701705481718161,0.50308164931045918,0.61684648814464293,0.56423423372406245,0.47710158698125815,-0.29297091453008861,-0.1486028065665638,-0.049434130103063828,0.77907541989305773],"Bias":0.9857396520607824,"Output":0.0,"Threshold":-0.42451983384067182,"Type":"O"},{"Weight":[-0.68640188811645,-0.51583002904235853,0.40710774455550486,-0.97591812069337724,-0.11478221980611897,0.83999282114207408,0.73575140616658674,0.60966122271942969,0.83427758646862471,0.34795266825144772,0.30891749277194847,0.31339430870180685,-0.31551027731760883,-0.26903310989450341],"Bias":0.59565660105815932,"Output":0.0,"Threshold":-0.96181848922829072,"Type":"A"},{"Weight":[0.20569953983915018,-0.56021958382810444,-0.24799083790182641,0.14647529932971826,-0.68861543791769786,0.5930395124447716,0.65124481946753565,-0.42597429846691631,0.83475811213010831,-0.72443756122348713,-0.076567165589224162,0.85514168574248517,0.90787037504272083,-0.8289211158775357],"Bias":0.60538375918072829,"Output":0.0,"Threshold":0.96109772844291186,"Type":"A"},{"Weight":[0.13821065804837768,0.376328276645545,-0.042538797502656836,-0.73459513240242147,0.47425062138319513,-0.027803390299809813,-0.36243930801862817,0.07141574242683861,0.75816166995007628,0.18006228012035708,0.23738092800480357,0.949203584319541,0.9778161905602627,-0.37394659052321061],"Bias":0.6434939790719626,"Output":0.0,"Threshold":-0.923503523191206,"Type":"A"}],"output":null,"numNeurons":13},{"neurons":[{"Weight":[0.44007578186694335,-0.83702274823422673,-0.5231807686030775,-0.50691385497661023,0.36257506970436082,-0.41843186198660726,-0.563153808267393,0.49244740674851806,-0.079985828641795473,0.78302639805852736,0.065348219156893067,0.2464354733221398,0.653740509251943],"Bias":0.21324228132760259,"Output":0.0,"Threshold":-0.95389766663028752,"Type":"A"},{"Weight":[0.55074709819198919,-0.30028568082502377,0.92236352615168482,0.23439299419261189,-0.2349809013469987,0.67314842514374684,-0.87480585830044277,-0.53077172233293379,-0.41466238229286967,0.88149918377469261,-0.56350815043016711,0.30140720740957522,0.08706602551372071],"Bias":0.51332520903708656,"Output":0.0,"Threshold":0.97200426132045881,"Type":"GT"},{"Weight":[0.1908946699420431,0.7821205555378089,0.34001601177268476,-0.15502270132071463,0.44612023348273722,0.48736073052853379,-0.22982920484143737,-0.10788702317880794,-0.040776944272581925,-0.33424676458083408,0.51031495701070639,0.072398482855594942,-0.15486036201699654],"Bias":0.27229449072493916,"Output":0.0,"Threshold":-0.3538034196727925,"Type":"O"},{"Weight":[-0.14233707689788988,0.022182369615036234,-0.22732573991051211,-0.95515227874515218,0.66099606298887914,0.1122566839271489,-0.014692523057895025,-0.24570691550416263,0.22886421216133246,0.83859523797342328,-0.48371603502133675,-0.63775749673962479,-0.087888472288795039],"Bias":0.4806177054907278,"Output":0.0,"Threshold":-0.23541443992192598,"Type":"O"},{"Weight":[0.57243567312715371,-0.37107256817215706,-0.69444804391565174,0.49911488522734254,0.13748024829546002,0.37292310612877977,0.58442733557169668,0.27420444007693068,-0.7377370017290753,-0.30099920011172032,-0.86318946902788685,-0.51520818169936922,0.91415451183642937],"Bias":0.62463123613252824,"Output":0.0,"Threshold":0.87213728943473534,"Type":"A"},{"Weight":[0.63951453130669633,-0.741253105803045,-0.11360588535368717,0.6200096386577979,-0.35026601904549914,0.54309601036044586,0.799120970908143,0.386067534511009,0.683474474904814,0.87584064010337026,-0.70072814342599743,-0.93441523981020569,-0.3847728615555786],"Bias":0.28601109994855295,"Output":0.0,"Threshold":-0.0775556015211882,"Type":"GT"},{"Weight":[0.60034076152385252,-0.044162733035237871,0.34824025507468742,-0.068924537426291288,0.534599320746306,0.89922311152295353,-0.67741840084894489,-0.56955345606876229,0.53657230061319294,-0.90744943213995988,0.19096079151656514,0.99629664933136508,-0.088132451329441946],"Bias":0.78532259901302059,"Output":0.0,"Threshold":-0.36455637699205262,"Type":"GT"},{"Weight":[0.025026302330673812,0.83234766164438223,0.4203941563239294,-0.5916497463321545,0.5026001965173521,0.60461385436570914,0.45495296989332557,0.66943261058509007,0.77551488474733887,-0.80714327274223008,0.70017010099262467,0.17010616938122836,0.6290519859777074],"Bias":0.63068094646124218,"Output":0.0,"Threshold":-0.06392945538457924,"Type":"GT"},{"Weight":[0.867862668292533,0.14313273231644777,-0.93814073546703,-0.93894650365176913,0.85987012594000911,-0.63572724332834,-0.16176753358997756,0.63600226567871976,-0.18012597559957111,-0.31080066706556858,-0.41106636096307375,0.55741310424982249,-0.17669338275524479],"Bias":0.37234786775538131,"Output":0.0,"Threshold":0.93886860690026941,"Type":"A"},{"Weight":[0.28543746810659648,-0.19001411515754374,0.86501959891292246,0.36894813942208332,-0.97453286683863627,0.990487474478077,-0.79428083160625806,0.52166862856674412,0.45987583625124573,0.25747678906539306,0.78513584043138462,-0.75312878831901064,0.7505926484012011],"Bias":0.14695505618441621,"Output":0.0,"Threshold":-0.27226773336169668,"Type":"O"},{"Weight":[-0.98442120663096255,-0.24596390372419913,-0.3679975733943272,0.89605686808752683,0.3095475660215819,-0.3099317803559507,0.10909018018706244,0.168210998721519,-0.3368908098604953,0.34919637038800694,-0.94350709623820483,0.68139181783487635,0.66999649986158893],"Bias":0.77459150262856458,"Output":0.0,"Threshold":0.088225386146560961,"Type":"O"},{"Weight":[-0.75329063774705429,-0.31617467865169729,0.32824232956778365,-0.38238582172542152,-0.78571065784697913,0.71804224966002728,0.6859914384251421,-0.64024028584372261,0.437967719248481,0.93357773028946378,0.39980021696528428,0.92307136297368975,0.59125070673937474],"Bias":0.31868607891662332,"Output":0.0,"Threshold":0.29493471435035334,"Type":"A"}],"output":null,"numNeurons":12},{"neurons":[{"Weight":[-0.80783148194096588,0.18121899393443902,-0.21325137429556407,0.66931511632600571,-0.17780142099494181,0.94734776390127273,0.93553469420202762,0.30445760642385933,-0.1596716005167326,-0.26776950213488632,-0.019599845176376331,0.62247252586412827],"Bias":0.01004045457115418,"Output":0.0,"Threshold":-0.17360904308669689,"Type":"O"},{"Weight":[0.72062998624547847,0.087451107375068171,-0.15609265312370502,-0.91021076771906151,0.504772444490703,-0.4269889115481586,-0.76865260292247528,0.755776309294522,-0.45245245306401161,-0.98753666877166213,0.28679310031551547,0.15901447839989069],"Bias":0.46697178365056019,"Output":0.0,"Threshold":-0.329206155300702,"Type":"GT"},{"Weight":[-0.60800528182089575,-0.97242547942904078,0.66900767463678856,0.9492648150535602,-0.31287970641296342,0.46190156203783189,0.93434124762860182,0.18604498039281228,0.88379999198196457,0.53175924650009687,-0.39887134656257522,0.276075902057847],"Bias":0.18607237431503476,"Output":0.0,"Threshold":0.3238303155283585,"Type":"O"},{"Weight":[-0.51270902041006317,0.18782997652321587,-0.76643062185795541,-0.80056640030842574,-0.566828803888908,0.66648515903692929,-0.13583204109958932,-0.25466549268675293,-0.66335440597653128,-0.13955492625923591,0.73074993804597754,0.10034581883826564],"Bias":0.7974469088006052,"Output":0.0,"Threshold":-0.37931261555259704,"Type":"GT"},{"Weight":[-0.17661473675473349,-0.85356995689383242,-0.25905950239815728,-0.99336890177492465,0.10471602720428073,0.088857845910292985,-0.0953195239861121,-0.05358851330987574,0.26579150942423918,-0.79867094792363746,-0.80026183407765894,-0.2214300805802597],"Bias":0.18427538926912257,"Output":0.0,"Threshold":-0.17082408078518885,"Type":"O"},{"Weight":[0.0029594777165723395,-0.029439589022397804,-0.0027144621138993942,-0.8754670689233891,-0.533776623445459,0.68880234131999418,-0.25632948533460942,-0.055190422132234289,-0.04339035509312076,0.29558765203486553,0.48500864789123116,-0.26890360576515254],"Bias":0.58064166762895963,"Output":0.0,"Threshold":0.10513952006825224,"Type":"GT"},{"Weight":[0.8662109122919901,-0.16090196983930746,-0.072344617486160542,-0.2066149321415531,0.60557547519243116,0.67459984387950966,0.25849610579130056,0.96267678819721414,0.89509506146195117,0.89284347411843179,-0.060979030589097656,0.010433818218500269],"Bias":0.87523642875032337,"Output":0.0,"Threshold":-0.47629836642942314,"Type":"A"},{"Weight":[0.3842312555686716,0.80647633867639879,0.494672324273117,0.6129768987246681,0.16040583008919182,-0.91805767636655722,0.83847615068707437,-0.42276386656927123,-0.78764077638631724,0.33829065753998733,-0.64121561899837831,0.31845444455670868],"Bias":0.21229604594982046,"Output":0.0,"Threshold":0.99764536972979334,"Type":"O"},{"Weight":[-0.78931196536371107,0.21299899286264507,0.53015383124824322,0.067349910301784943,0.89526350092853579,-0.35315875446105316,-0.9614238035685494,-0.784077879406548,0.89021097770436242,-0.91669460056195717,0.77032687224928609,-0.93439399261697842],"Bias":0.13800770888943584,"Output":0.0,"Threshold":0.57849526571971144,"Type":"GT"},{"Weight":[-0.49743563844702937,-0.68527889609582671,0.81555553144568371,0.94471887449953651,-0.38756792684438074,-0.70691861152039781,0.53625934595999281,-0.44638701455965035,0.094597818839642134,-0.94918414202946433,-0.54034201686286465,0.88216203585367747],"Bias":0.080950769167836181,"Output":0.0,"Threshold":0.54209647911698389,"Type":"A"}],"output":null,"numNeurons":10},{"neurons":[{"Weight":[-0.785519137413017,-0.95165856552853179,-0.0075385510025259813,-0.861160175810177,0.85613179991772947,-0.021567078317313956,0.06253925015336799,0.56819955239454267,0.885766311495456,-0.13724839786870796],"Bias":0.9237781180645237,"Output":0.0,"Threshold":-0.33288203660998589,"Type":"O"},{"Weight":[0.34528178085818972,-0.473509335645246,-0.12875388149579703,-0.27345905232869977,-0.8241902118661395,0.60204878943136375,0.75526004599186591,-0.52872079495746682,0.58522683874947334,-0.23846601892191266],"Bias":0.92761706371215036,"Output":0.0,"Threshold":-0.12864259682998183,"Type":"O"}],"output":null,"numNeurons":2}],"OLayer":{"neurons":[{"Weight":[0.51713996497781012,0.61663433612167573],"Bias":0.91641393486243394,"Output":0.0,"Threshold":0.76554490335543868,"Type":"OT"},{"Weight":[0.73414888220566743,0.013641379314307766],"Bias":0.91218278133877684,"Output":0.0,"Threshold":0.48806920856613162,"Type":"OT"}],"output":null,"numNeurons":2},"NumLayers":6,"Breedibility":0.70921888654549559,"Mutibility":9.6299212424223875,"Repetition":0}
