{"Input":[0.0,0.0],"Output":[0.0,0.0],"DLayers":[{"neurons":[{"Weight":[0.5819095650603574,0.79974811794224576],"Bias":0.5239803402330635,"Output":0.0,"Threshold":0.7217214953721135,"Type":"A"},{"Weight":[0.717431279233392,-0.7077348975966381],"Bias":0.7871260041311039,"Output":0.0,"Threshold":0.40570729850125836,"Type":"GT"},{"Weight":[-0.28927396297886687,0.9384633474696723],"Bias":0.091409815983571951,"Output":0.0,"Threshold":0.68155351266337261,"Type":"A"},{"Weight":[-0.13670268009263215,0.56409299725857243],"Bias":0.058643157155552489,"Output":0.0,"Threshold":0.73003144177144,"Type":"O"},{"Weight":[0.86545438871972935,0.44497151227899434],"Bias":0.72215070795367975,"Output":0.0,"Threshold":0.86573207092738336,"Type":"GT"},{"Weight":[0.53513959307928549,-0.73323118068893955],"Bias":0.78409963743020761,"Output":0.0,"Threshold":0.93010378998243426,"Type":"A"},{"Weight":[0.251406665542818,-0.8127619241423728],"Bias":0.93261784079140886,"Output":0.0,"Threshold":-0.89331394941234676,"Type":"O"},{"Weight":[-0.8852250598767889,-0.83511218746896465],"Bias":0.15762849811354115,"Output":0.0,"Threshold":0.226433234860391,"Type":"GT"},{"Weight":[0.81405974636509071,-0.14622603969007081],"Bias":0.96073578622226408,"Output":0.0,"Threshold":-0.053672891600836485,"Type":"GT"},{"Weight":[0.5714578049124488,-0.356228334995093],"Bias":0.94832233197443294,"Output":0.0,"Threshold":0.50960960868262206,"Type":"O"},{"Weight":[-0.85262825193471659,-0.44217144439098027],"Bias":0.91726951762906717,"Output":0.0,"Threshold":0.41687136488820953,"Type":"A"},{"Weight":[0.58446536380074232,-0.92899760926561314],"Bias":0.030619883458418717,"Output":0.0,"Threshold":-0.76063557516813074,"Type":"GT"},{"Weight":[0.1262209197162748,0.35010489465208022],"Bias":0.78387775029236351,"Output":0.0,"Threshold":-0.48179316636258418,"Type":"A"}],"output":null,"numNeurons":13},{"neurons":[{"Weight":[0.38922003209088929,0.25776200986363085,0.81178760240403358,-0.37561545119416689,-0.62851329735876682,0.97438308502285886,-0.535678121045082,-0.39718838147688118,0.17408560038268828,-0.41612032634025453,-0.022153782202933812,0.81082222974431806,-0.047521976776198474],"Bias":0.20249098874744539,"Output":0.0,"Threshold":0.15950471403054181,"Type":"O"},{"Weight":[0.37083508557213241,0.24443767044899878,0.52804948553817788,-0.51740299608437479,0.77267776139670874,0.55338215807144631,0.40210658609965194,0.13159593340549428,0.59054279867119286,0.9529165131751991,0.60979214990967523,-0.0039914716053714378,0.41688117637153771],"Bias":0.99353539524298873,"Output":0.0,"Threshold":-0.68888519736420606,"Type":"O"},{"Weight":[-0.74954273167510643,-0.5065917598579972,-0.87818256853063714,0.53982412002041191,0.542080834294707,0.70738404882484307,0.73076989070082543,-0.571293124263777,-0.99081542249341281,0.43728087909393054,0.58619630364058373,-0.20658820085534277,-0.81292898990815921],"Bias":0.7591421435396849,"Output":0.0,"Threshold":-0.17137917884224058,"Type":"O"}],"output":null,"numNeurons":3},{"neurons":[{"Weight":[0.82851779872016884,0.13762926130445174,-0.33727142090782125],"Bias":0.19631442855871956,"Output":0.0,"Threshold":0.633435352534724,"Type":"O"},{"Weight":[-0.74238047224580328,0.16824187159922061,-0.87076137441711565],"Bias":0.18045288472457458,"Output":0.0,"Threshold":-0.50176536734298116,"Type":"GT"},{"Weight":[-0.694331086564032,-0.96648622861434064,-0.22275276632176375],"Bias":0.085698452352405738,"Output":0.0,"Threshold":-0.39286316763277312,"Type":"A"},{"Weight":[0.36844494117817139,-0.010329372254353656,0.87886625010467423],"Bias":0.59314062939637369,"Output":0.0,"Threshold":-0.98049957909644558,"Type":"O"},{"Weight":[0.79450099393469331,0.51693441556623876,-0.84381583139478034],"Bias":0.038346329256122157,"Output":0.0,"Threshold":0.56891681466666832,"Type":"O"},{"Weight":[0.57868925881511035,0.8918491699229224,0.924647258093882],"Bias":0.97900495863473269,"Output":0.0,"Threshold":0.088777064852778365,"Type":"A"},{"Weight":[0.39176784194622555,-0.14774235531116944,-0.61617550655090036],"Bias":0.12329081684504208,"Output":0.0,"Threshold":0.0025455746811561169,"Type":"A"},{"Weight":[-0.65443499416785078,0.26774366398702548,-0.21098160706971847],"Bias":0.73466990270403676,"Output":0.0,"Threshold":-0.42802926731669777,"Type":"A"},{"Weight":[0.97117620705216012,-0.45069555214172952,0.87341806752300732],"Bias":0.68567853825431246,"Output":0.0,"Threshold":-0.48406051121841209,"Type":"GT"}],"output":null,"numNeurons":9},{"neurons":[{"Weight":[-0.50436356454359532,-0.90627281875641685,0.99104973300874688,0.048695278376664632,-0.67896306732621192,0.035800754574966037,-0.86494582931741415,-0.37873595318698133,-0.073693155345364081],"Bias":0.89608512767408277,"Output":0.0,"Threshold":0.84224357774585656,"Type":"GT"},{"Weight":[-0.79070325139477071,-0.87498620426048812,0.80696330583047271,-0.91734437687198833,0.63923030562663,-0.67115747307946783,0.15007142962425549,0.36147084523060863,0.21993187406097162],"Bias":0.68597462432737211,"Output":0.0,"Threshold":0.50574781256995527,"Type":"GT"},{"Weight":[0.93537545247719411,0.58574972282431537,-0.49468211433602594,-0.61198538290894844,-0.34496391115009967,0.26355893829071847,0.56951008623908739,0.29387538754096038,-0.71106329500259058],"Bias":0.0049370778747541266,"Output":0.0,"Threshold":0.19978884151195589,"Type":"O"},{"Weight":[0.92464909885295155,0.34040752395075163,-0.040399302281625242,-0.0953553799052515,-0.1562689534184844,-0.3576674020652042,0.42119722507018464,0.76700598595990144,0.10013895533054087],"Bias":0.86718884290530762,"Output":0.0,"Threshold":-0.470457048374441,"Type":"A"},{"Weight":[0.99912821827415754,0.27022988175518342,0.35541903523514934,-0.7994722345841454,-0.5008107346952011,0.92905537687663708,0.99632596690036634,0.50989257195493787,-0.25656167988505291],"Bias":0.073417877346937485,"Output":0.0,"Threshold":-0.95941431306275271,"Type":"A"}],"output":null,"numNeurons":5},{"neurons":[{"Weight":[-0.33851086550322868,0.3398642490337902,-0.75440008507780731,-0.38455368316944394,0.16019160540783387],"Bias":0.71320081768240817,"Output":0.0,"Threshold":0.60313045447838043,"Type":"A"},{"Weight":[-0.22862859826005463,0.51371753006880982,0.92416853780121011,-0.031382945846478896,0.76012599131098291],"Bias":0.78351493588812415,"Output":0.0,"Threshold":-0.44677063796984529,"Type":"A"},{"Weight":[-0.67960219256561349,0.4571183116441212,-0.78079715873151889,0.93171901625195475,0.015554786201359139],"Bias":0.045072149506338012,"Output":0.0,"Threshold":-0.87836516223771743,"Type":"O"}],"output":null,"numNeurons":3},{"neurons":[{"Weight":[-0.80329963974808327,0.38036059559339686,-0.68692002570578825],"Bias":0.11860695300558906,"Output":0.0,"Threshold":-0.55970034727812756,"Type":"GT"},{"Weight":[-0.67391391548976021,-0.036567021644006957,-0.38217907742698631],"Bias":0.30762944710796208,"Output":0.0,"Threshold":-0.20928242719233148,"Type":"O"},{"Weight":[-0.76315243438033031,0.80519277500230479,-0.54446585688016647],"Bias":0.54536081037733741,"Output":0.0,"Threshold":0.053424911132745868,"Type":"O"},{"Weight":[-0.045803375563492704,0.03769848823440191,0.95682635156289975],"Bias":0.4031543402947273,"Output":0.0,"Threshold":-0.74783702508911354,"Type":"O"},{"Weight":[0.56099523956002451,0.083781362084570044,-0.10688324324175867],"Bias":0.89515199460794781,"Output":0.0,"Threshold":0.31489086305484681,"Type":"O"},{"Weight":[0.737442702398376,-0.095525083176570519,-0.0057113370884728327],"Bias":0.47793237421565332,"Output":0.0,"Threshold":-0.55802729984653521,"Type":"O"},{"Weight":[-0.48257227124766089,0.75633262878113083,-0.33346832512573726],"Bias":0.193874028601625,"Output":0.0,"Threshold":-0.50348694925358839,"Type":"O"},{"Weight":[0.68461876208177708,0.75174962671089429,0.092002566481010323],"Bias":0.31687192028242717,"Output":0.0,"Threshold":0.27645643301143147,"Type":"GT"},{"Weight":[-0.44189509257762466,-0.42004920235837306,-0.80356251159848757],"Bias":0.33263500935055085,"Output":0.0,"Threshold":0.69701183666335975,"Type":"O"},{"Weight":[0.19662764817319237,-0.59336926908854826,-0.85331636194759808],"Bias":0.081006194968245085,"Output":0.0,"Threshold":-0.25144962652188241,"Type":"O"},{"Weight":[-0.84104655675638773,0.90334028978987613,-0.93795794711353164],"Bias":0.91733310833449155,"Output":0.0,"Threshold":-0.41068174802264279,"Type":"GT"},{"Weight":[-0.085774437098658854,0.84257724734143224,-0.90797784594259123],"Bias":0.64513283951447009,"Output":0.0,"Threshold":-0.57554161947944282,"Type":"A"},{"Weight":[-0.913118813612088,0.97611821395164278,0.51099140686494826],"Bias":0.96642315293030023,"Output":0.0,"Threshold":0.644089764749673,"Type":"GT"},{"Weight":[-0.84480741566270934,0.081188416146295336,-0.66849871476576606],"Bias":0.32712965753261447,"Output":0.0,"Threshold":-0.49429254862214089,"Type":"O"},{"Weight":[0.45938753218361528,-0.44832775157332783,0.46840555708315484],"Bias":0.0025497931067598022,"Output":0.0,"Threshold":-0.94844678461013676,"Type":"O"},{"Weight":[0.85068035817271115,-0.22268040255768243,-0.94801060666703185],"Bias":0.41554683140271659,"Output":0.0,"Threshold":-0.045969710706719062,"Type":"O"}],"output":null,"numNeurons":16},{"neurons":[{"Weight":[0.27324334358481844,-0.65249471629620281,-0.020352143338114088,0.98825661511544916,0.85774779871932594,-0.1508402908923292,-0.40285699274523973,-0.99116555228418,-0.52864720510721541,0.51583969989597789,-0.01797636832016351,0.23031293518390178,0.33934284017390703,0.84266808388878967,0.32431434994764363,-0.28115994682589546],"Bias":0.14436683670820988,"Output":0.0,"Threshold":-0.41468510376973317,"Type":"A"},{"Weight":[-0.795833035277125,0.44805341374504071,0.014293177991310684,0.34193421729930407,-0.699840067280382,0.81982340981244273,-0.95684505438285183,0.88689962629550123,-0.898925546975306,0.19325075912906359,0.34884183963241139,-0.895747470620902,-0.27761944116913689,-0.65210941976500181,-0.64381271956666031,0.18834172058307647],"Bias":0.31121596382521838,"Output":0.0,"Threshold":-0.64836706577258518,"Type":"O"}],"output":null,"numNeurons":2},{"neurons":[{"Weight":[0.64097551798493391,-0.045953353422672184],"Bias":0.55407156355402976,"Output":0.0,"Threshold":-0.04566894334073595,"Type":"GT"},{"Weight":[0.10150790405529919,0.028664425494458724],"Bias":0.6241552581191786,"Output":0.0,"Threshold":0.18060175477555104,"Type":"A"},{"Weight":[0.35730859374502144,-0.88884732960204],"Bias":0.270443161609789,"Output":0.0,"Threshold":0.597244740741907,"Type":"A"},{"Weight":[-0.11886963440052682,0.62852707813890984],"Bias":0.831651520836936,"Output":0.0,"Threshold":-0.4299442160082721,"Type":"A"},{"Weight":[0.570633119237904,-0.25795002899037212],"Bias":0.14729740570639138,"Output":0.0,"Threshold":0.72636206342203635,"Type":"A"}],"output":null,"numNeurons":5},{"neurons":[{"Weight":[-0.15469177074483212,0.13248161838039832,-0.47528099337372975,-0.89071123436592115,0.766737544334837],"Bias":0.65441041889340168,"Output":0.0,"Threshold":0.36385407548577248,"Type":"GT"},{"Weight":[0.043730777243026896,0.72603975829018264,-0.521642911490818,-0.18217252436195153,0.671563688047027],"Bias":0.98571590612908633,"Output":0.0,"Threshold":0.17715047028714348,"Type":"GT"},{"Weight":[-0.44396699333748174,-0.63094653032298509,0.027530567267691049,-0.11575139086495684,0.79986497005441459],"Bias":0.643588641026797,"Output":0.0,"Threshold":0.012771190615729983,"Type":"GT"},{"Weight":[-0.064913976502099069,0.654067569716865,-0.57099983960902312,0.21421925174734521,0.42125764741620869],"Bias":0.2731273645875637,"Output":0.0,"Threshold":0.44417489713252284,"Type":"GT"},{"Weight":[-0.50454784906681061,-0.63772908814145679,0.11159528378005851,0.8615321874905062,-0.3229608397572119],"Bias":0.33632350821808144,"Output":0.0,"Threshold":0.41216070084467565,"Type":"GT"},{"Weight":[-0.0904371920462871,0.34001525600441512,0.67932602142883747,-0.12635298405138448,-0.98691941284896778],"Bias":0.60615063067812036,"Output":0.0,"Threshold":0.86243754386084037,"Type":"O"},{"Weight":[0.65287929151806945,0.926059006213238,-0.040484454501645853,-0.91658535456125878,-0.058739512720489648],"Bias":0.9011759068356715,"Output":0.0,"Threshold":0.76975633519224651,"Type":"GT"},{"Weight":[-0.15307600617086328,-0.34277093566151845,0.49090757802636714,-0.458136192270618,0.40274291038640908],"Bias":0.76484887570368543,"Output":0.0,"Threshold":0.043730716707059518,"Type":"O"},{"Weight":[-0.50457522296559776,-0.69197989240846591,0.25962703454290842,-0.039721313882489367,0.529165041879362],"Bias":0.37167624634302976,"Output":0.0,"Threshold":0.40239047510660741,"Type":"A"},{"Weight":[0.97083164470774663,0.60769581403941653,0.6858744782795545,0.042450835948088593,-0.963850526587968],"Bias":0.37152996583447323,"Output":0.0,"Threshold":-0.11681079590544607,"Type":"GT"},{"Weight":[-0.48544545354575175,0.81850679443148278,0.31525475453364421,0.80379511127425129,0.65347822553174484],"Bias":0.510129300649338,"Output":0.0,"Threshold":-0.85124435082601591,"Type":"A"},{"Weight":[0.669678479744903,-0.78716289242131765,0.88560945907868882,-0.42085484528022576,0.1565598296730592],"Bias":0.357856238427505,"Output":0.0,"Threshold":-0.083032213190119816,"Type":"GT"},{"Weight":[-0.3672570993040023,-0.8776277740847449,0.5288811617199709,-0.94932702227929933,-0.93446104365143046],"Bias":0.087135720572963232,"Output":0.0,"Threshold":0.09844787144029879,"Type":"GT"},{"Weight":[0.34107891253245942,0.39944038558725287,-0.4214475557307934,-0.11839741147979974,-0.66014859949245519],"Bias":0.23120133682675723,"Output":0.0,"Threshold":0.76118808228577861,"Type":"A"}],"output":null,"numNeurons":14},{"neurons":[{"Weight":[0.96322760496438831,-0.23222254134352438,-0.087295779533356321,0.40880982503705182,-0.36731306201187569,0.55406354486665854,0.30231680036630332,-0.41224038387287426,0.78716158763839006,-0.1776550874009985,-0.20088218255009605,0.52322611097396632,0.94242286539749376,0.99320967029463947],"Bias":0.5946149111700314,"Output":0.0,"Threshold":0.91161490181070515,"Type":"A"},{"Weight":[-0.87206734105575245,0.971233438687042,0.85491317922943888,0.89097596699883042,-0.9322690874954076,0.032127323575377148,0.86738401086413486,0.81608061111349639,-0.24790821561958093,-0.44403974918836714,-0.66268286884887273,0.804361350277607,0.11567138839311497,-0.39857131121613609],"Bias":0.36716511722987755,"Output":0.0,"Threshold":-0.824290024034814,"Type":"GT"}],"output":null,"numNeurons":2}],"OLayer":{"neurons":[{"Weight":[0.7888895784452975,0.56522305801754025],"Bias":0.1683330639118017,"Output":0.0,"Threshold":0.68410861524013278,"Type":"OT"},{"Weight":[0.20869316822322698,0.59230746356412189],"Bias":0.46536793674592297,"Output":0.0,"Threshold":-0.019594928258841359,"Type":"OT"}],"output":null,"numNeurons":2},"NumLayers":10,"Breedibility":0.010959172626472623,"Mutibility":7.9420064659519154,"Repetition":0}
