{"Input":[0.0,0.0],"Output":[0.0,0.0],"DLayers":[{"neurons":[{"Weight":[-0.93676976949757418,0.091648455751896118],"Bias":0.52525377623981506,"Output":0.0,"Threshold":0.074232380406107926,"Type":"GT"},{"Weight":[0.47494414796817308,-0.012225520337105505],"Bias":0.088559140492491029,"Output":0.0,"Threshold":-0.17715879863927084,"Type":"O"},{"Weight":[-0.61572906915830872,0.10022207167941243],"Bias":0.91634500535034813,"Output":0.0,"Threshold":-0.95792738346286466,"Type":"GT"},{"Weight":[0.98720964230001418,0.29591636978830971],"Bias":0.16299382185702857,"Output":0.0,"Threshold":-0.76966167370307337,"Type":"GT"},{"Weight":[0.59798429747949555,-0.28276151431853025],"Bias":0.83894078519146,"Output":0.0,"Threshold":-0.28435035156288668,"Type":"GT"},{"Weight":[0.65925618152099486,0.52550714301201851],"Bias":0.51633882220664007,"Output":0.0,"Threshold":-0.16269378883889588,"Type":"O"},{"Weight":[0.82295986582662906,0.94720794304609668],"Bias":0.80292720059069211,"Output":0.0,"Threshold":-0.86544692742891938,"Type":"A"},{"Weight":[-0.68553557092581674,0.99685811530652368],"Bias":0.7783160106177982,"Output":0.0,"Threshold":-0.23169343556821972,"Type":"GT"},{"Weight":[-0.47423088758915238,-0.61377243633092027],"Bias":0.89439728432074062,"Output":0.0,"Threshold":-0.053121642234326173,"Type":"GT"},{"Weight":[0.5689790237550526,0.30228554331803953],"Bias":0.43242024045084615,"Output":0.0,"Threshold":-0.73812798538158086,"Type":"A"},{"Weight":[-0.55318278845082169,0.88292669545995384],"Bias":0.82245373065697669,"Output":0.0,"Threshold":0.33896968110416537,"Type":"GT"},{"Weight":[-0.867074431789608,0.46437448890152133],"Bias":0.287492236256363,"Output":0.0,"Threshold":0.70145650333792742,"Type":"GT"},{"Weight":[0.70606231349802684,-0.28206491204074813],"Bias":0.54892135250797558,"Output":0.0,"Threshold":-0.0090019968380229531,"Type":"O"},{"Weight":[0.4224923795193864,-0.3806349986142642],"Bias":0.56316138411087979,"Output":0.0,"Threshold":0.070294060777078407,"Type":"GT"}],"output":null,"numNeurons":14},{"neurons":[{"Weight":[-0.17234226184540533,-0.668045351592845,0.59872915530518123,-0.13526120648498702,-0.88123506628034409,0.59047815603692,-0.46627238367976265,0.86752252041712519,-0.87472279736526437,-0.61219557170392735,-0.085907649754503573,0.54418079161279875,-0.11308847186765096,0.20662450520630205],"Bias":0.720504649784651,"Output":0.0,"Threshold":0.16937598593969644,"Type":"GT"},{"Weight":[0.51696690335728546,-0.11514997441095765,-0.1008370756641203,0.1073331581928456,-0.14680370555576108,0.66768628622763149,-0.700770270405696,0.95621999583962369,-0.513112478197139,0.68843858674561542,-0.934226573879936,0.76268924621990386,0.67882676128243413,-0.23567826824061491],"Bias":0.676204238401821,"Output":0.0,"Threshold":0.17692652399508588,"Type":"GT"},{"Weight":[0.52302384680277847,0.071780249975519378,-0.92873650692810139,0.68330413088356334,0.15091652663001628,-0.30925936778507168,0.60790821472551126,0.11825196217664143,0.26852916286724116,-0.44522220429276221,0.480937399194081,-0.82327040882002112,-0.015701378237317026,-0.79962218916026051],"Bias":0.8431177376038943,"Output":0.0,"Threshold":-0.73335316159452923,"Type":"GT"},{"Weight":[0.46098959560552127,0.16617393221993648,-0.10931082028397862,-0.64320623718351411,0.78245822935479614,-0.66112784932420021,0.1820851444183314,0.28883954616675134,-0.73077115683386618,-0.10545083373107521,-0.73170431970232364,0.23092168114656661,-0.0097107645169416286,0.67218038098522481],"Bias":0.58945138081417014,"Output":0.0,"Threshold":0.43149017422995073,"Type":"GT"},{"Weight":[-0.41360795982815696,0.61595122172308681,-0.68880908037014732,-0.82268658132417438,-0.99147552391117233,0.47228406019149538,0.32360814573411278,-0.84353724673555108,0.92956266735194371,0.52104279981974644,-0.627902327863454,-0.23817286185835157,0.72490552474041725,-0.85807833255179145],"Bias":0.59615785563185708,"Output":0.0,"Threshold":0.93287194377410787,"Type":"O"},{"Weight":[-0.93970274130799936,0.84581896748664742,0.069797207168209,-0.13503466832220307,-0.48099428530828764,-0.050046953395962226,0.82095088708258745,-0.21467970601035269,-0.20262061208608589,0.78077162605746264,-0.91044737441020429,-0.789661037172033,-0.10120932436604486,-0.92717548409811013],"Bias":0.39238453255611683,"Output":0.0,"Threshold":-0.75953361986183265,"Type":"O"},{"Weight":[-0.7865957686615157,-0.64872286266122148,-0.71802451401856937,-0.26015574217781229,-0.84074377214570706,0.058442585663144753,0.16962225603387796,-0.34680376124885109,-0.41320637446511832,-0.86053234937625578,0.15210031771664523,0.44052068071464107,0.45390344711668018,0.74149363382789013],"Bias":0.70958305323011384,"Output":0.0,"Threshold":-0.0741116684275268,"Type":"A"},{"Weight":[0.70122683686261389,0.62392525497075413,-0.99377321451612433,-0.72784276899315548,-0.082071689461391276,0.772929168200553,-0.35492959728228374,-0.02431649436443881,0.10139281214279719,0.64771662542955788,-0.89900127048557688,0.90650326242041923,-0.680795324352009,-0.62614021432871936],"Bias":0.25934065471372597,"Output":0.0,"Threshold":0.63855510840125151,"Type":"GT"},{"Weight":[-0.95281074892394746,-0.82141558351992428,0.20372658325532758,-0.088636233046947149,0.68436828054691123,0.1718587345312623,0.14798541886172509,-0.1714009610802871,-0.62756372272389183,0.52020782163376356,-0.42639504299796888,0.82245939496087817,0.08494011083847848,0.018839557663928513],"Bias":0.50849583023623368,"Output":0.0,"Threshold":0.66169847206291676,"Type":"GT"},{"Weight":[-0.90474641924013688,-0.9169021173924683,0.44560303326957068,-0.06983090288463556,-0.75612980348809145,-0.295805202469139,-0.97824391209438621,-0.71769576273751245,-0.95099134321836354,0.43858057420634694,0.11834728676748801,0.34023706072021137,-0.51452252525581166,-0.093238771936501735],"Bias":0.62832932156898513,"Output":0.0,"Threshold":0.21725532282947344,"Type":"O"},{"Weight":[0.71630035700104211,-0.75938640244276556,-0.653905697005757,0.74128179705761454,-0.3981052448032914,-0.10868721320698374,0.81194507368465185,0.572880278142579,0.040548310634004096,-0.92038956699911023,-0.2231178978565698,-0.32516929429265173,-0.66606000376216135,-0.50342515180978231],"Bias":0.7528988396529569,"Output":0.0,"Threshold":0.62434839300082456,"Type":"A"},{"Weight":[-0.59907179586546111,-0.52395488765274867,0.48298403829475123,0.45608181294802663,0.69797358694391953,-0.39329926222250761,-0.609716846891547,0.033115399085504656,-0.6974111151403799,0.40493419924980689,0.29686575583036323,0.7995519106274247,0.40317285917847084,0.475628350617191],"Bias":0.65002813220491085,"Output":0.0,"Threshold":-0.56597015707100284,"Type":"O"},{"Weight":[0.24008927738298164,0.45817695160311506,-0.058249262654338621,-0.35958563180621045,-0.45277023476211831,0.37126685929077996,-0.75774189958243721,-0.57662551225005909,0.038726245536807105,0.4779005248462318,-0.21941419375101764,0.24200872482825478,0.47358348335771983,0.84672889944479279],"Bias":0.10037905774096914,"Output":0.0,"Threshold":-0.87401776056458136,"Type":"GT"},{"Weight":[0.62862719159043734,-0.81227412066062643,-0.8248113616485202,-0.87406911229438577,0.89108347002932964,-0.26670703909672194,-0.32956719413845204,-0.80751729561366015,-0.99641853105110045,-0.54333780684663813,0.088069632224771016,-0.55434265805144922,0.32780400772011092,-0.065226196341787557],"Bias":0.47624962007452248,"Output":0.0,"Threshold":-0.44964563681261877,"Type":"A"},{"Weight":[-0.97534158079668021,-0.93733624319421882,0.46053177558841735,0.558260328862006,-0.69703766456667227,-0.61114626778808712,-0.83971029838533617,-0.56867054829777708,0.1511783968429912,-0.91352146394249123,-0.33067995371794329,-0.043933797648145721,0.065199752368591615,-0.71210010662307033],"Bias":0.42907952304420971,"Output":0.0,"Threshold":0.77451554209669848,"Type":"O"},{"Weight":[0.57623145243908813,-0.19867266723824323,0.29625223264854972,-0.66983518734100977,0.53429633124465881,0.3818836907771806,-0.91515126587597251,-0.29396164151558729,0.99126866086910881,0.94837517335469612,-0.53612417287012759,0.24807252047959366,0.19532963176971749,0.0729997367938048],"Bias":0.82462129128380734,"Output":0.0,"Threshold":-0.29338817638037173,"Type":"O"}],"output":null,"numNeurons":16},{"neurons":[{"Weight":[0.16970843457137627,0.15175573348615121,0.47836678357718826,-0.48186059039172746,-0.45382433079826845,0.331762673022115,-0.059332094648541923,-0.7898779910941971,-0.45229057569629072,0.60384833421737338,0.13829529198738527,-0.21989200553851762,0.2919196580964698,0.46124564738070856,0.88790559251229539,0.24090815486428707],"Bias":0.45936156830720676,"Output":0.0,"Threshold":0.77931674932097861,"Type":"A"},{"Weight":[-0.14220590802943608,0.51290187729192049,0.46651458296296866,0.082299842071859086,-0.91630984745747868,0.13599753712117557,-0.28312174569960763,-0.37233071558751663,-0.51149266888922673,-0.066989661691239877,0.48289743879944896,0.57740215145861828,0.482497127485693,0.15862115666206048,-0.23261791152535841,-0.22734331257051943],"Bias":0.441735560745809,"Output":0.0,"Threshold":-0.21734567415776926,"Type":"O"},{"Weight":[0.7607016143206049,-0.3596257857790337,-0.8230138182747242,-0.52357219696211266,0.75897659582969579,-0.3131963239578513,-0.2627451262728987,-0.37208360870000146,-0.71232708762973873,-0.089634878136978888,0.81308556991307324,0.39899128647474164,-0.55473977772274041,-0.65019546898556657,0.99270481569352786,-0.20609263247162693],"Bias":0.15485442436991931,"Output":0.0,"Threshold":-0.31052786126291743,"Type":"A"},{"Weight":[0.73675596794893783,-0.44138095595006877,0.18830149210444722,0.82441605479662128,0.57234619677641718,-0.55600336266495443,0.076102786732885425,0.56768825769782449,0.12771079602079039,0.24871728441152596,0.3233686337821971,0.87019457987984394,-0.686883156042026,0.079166714138894673,-0.6073248216916457,0.33576211255777727],"Bias":0.9620403996491993,"Output":0.0,"Threshold":0.58295086006771346,"Type":"GT"},{"Weight":[0.039667101129734469,-0.24203072685842902,0.10509317186898234,0.008625865452283,0.70754799046905148,-0.39202066529170643,-0.2882939340957878,-0.938065275521048,-0.061810576851391505,0.46576411485009089,0.77186072420881169,-0.45893565772983042,0.42636390748730113,-0.061754851630774724,0.33224250717658665,-0.049454041779718384],"Bias":0.23813965136098658,"Output":0.0,"Threshold":0.49741647415674128,"Type":"A"},{"Weight":[0.57007168539337427,0.726099215786019,0.77002785809805052,-0.8519144746716667,0.66342807964581441,-0.6147004699402957,0.30935497689496494,0.8904066881585897,0.11718674521762261,-0.29841105933227158,-0.48488040663529208,-0.88119104079957633,0.66815676152154657,-0.55449265081178989,0.58924698577693058,0.89020166634125708],"Bias":0.32438472626934978,"Output":0.0,"Threshold":0.75417054386538018,"Type":"A"},{"Weight":[0.70179146700622119,0.18807438630055376,-0.030004016137683772,-0.469424667521112,0.30672118082024213,-0.015570967465439331,0.71337940949638345,0.37596518144754937,0.19900541482446968,-0.69901432502037586,0.059971295325072158,-0.92530025910832936,0.42896677107967751,0.45893514270844643,0.060623730095393832,0.037534966616674777],"Bias":0.22032977371491946,"Output":0.0,"Threshold":0.76975844743184674,"Type":"A"},{"Weight":[0.48004721593113953,-0.12774459418270021,-0.63975331217039066,0.8769503402882024,-0.66812895362643943,-0.39038248331769487,-0.52290355717898507,0.59187204511457681,-0.055156218845004316,-0.060676945401670852,-0.94700683511188577,-0.35943453123766672,0.951818386536007,-0.4149147809552563,-0.66230019212807534,0.11890263302200596],"Bias":0.68294607507202121,"Output":0.0,"Threshold":-0.13108553045014176,"Type":"A"},{"Weight":[0.63552719803318714,0.82114039353148094,0.665477354389372,-0.41819898337973233,-0.35777009853989356,0.24165578384029482,-0.2319509648866723,0.50002821418458043,0.70908150203017584,-0.29787281588552184,0.1505752257772606,0.12230849085483164,-0.99073774879366983,-0.306021410648721,-0.096357611052858463,-0.39099658578215007],"Bias":0.23021278401381,"Output":0.0,"Threshold":0.9028763873050345,"Type":"GT"},{"Weight":[-0.49064622749138914,0.49388641793927479,-0.68354746591464965,0.92408133574020179,0.46320954266153719,-0.25094720593232067,-0.9603583202512741,-0.23453946003436085,0.83321271456461987,0.53842043203228174,0.50257895677470554,-0.66358101678247616,-0.650957245682812,0.11734891595195462,0.993995896072125,-0.51022732886962008],"Bias":0.55083629654293709,"Output":0.0,"Threshold":-0.069759442969113322,"Type":"O"},{"Weight":[-0.17910805958281648,-0.694753300722108,0.921811824162403,-0.47167844300702144,-0.14310496353688881,0.24738409893931079,-0.21222206121879725,0.55860531216422338,-0.36445595527275276,0.9276898144407616,-0.74277716304304875,-0.33907093309754083,-0.028379088280899026,0.57283000860960687,0.16424733920220627,0.635041863021926],"Bias":0.79246255512929642,"Output":0.0,"Threshold":0.93181613782970985,"Type":"A"},{"Weight":[0.016916765839288368,0.86782221396817927,-0.41457396485590092,0.1283202213832737,-0.9630724652498367,0.69878651606793818,0.29123244494722805,-0.96461862230888507,0.14206962852835173,0.55994615916160217,-0.96877370400762819,0.9764681332635079,0.98265257756349289,-0.15201574151963729,-0.485101388061932,-0.093535575593605438],"Bias":0.55020145026510647,"Output":0.0,"Threshold":0.033237234704772585,"Type":"O"},{"Weight":[0.26812948392151364,-0.18981985477256583,0.094141011635838545,0.51001843647566547,0.31428624238552816,-0.3221393406028577,-0.95725400604179778,0.748529248753809,0.37186997866810761,0.55659437345182261,0.55710507722436686,0.9644437930381129,0.19530219454099526,0.045712606537021978,-0.13781520963544736,-0.062749457574798467],"Bias":0.49005865980408092,"Output":0.0,"Threshold":-0.13373587752400706,"Type":"GT"},{"Weight":[-0.62368325079962761,-0.86250581492786571,-0.7116439625209402,-0.59445282332340854,0.536167316854078,-0.26397832914440816,-0.608255972903341,0.90853594472097976,0.47664286125294997,-0.27377766756051114,0.016149650801042862,-0.20015703244142097,0.7625443319615649,0.65921309341639889,-0.8971296431949034,0.68250406798091912],"Bias":0.073402149636951339,"Output":0.0,"Threshold":-0.58705306406461311,"Type":"A"},{"Weight":[-0.011690896475543685,-0.083610404321742438,0.36463032493583408,-0.020099990544887255,0.6431095570526596,-0.99803127068934561,-0.509844647957871,0.78135234898950545,0.85995820996349592,0.14532653388815306,0.96432989973776506,0.39797243354747652,0.52022673679526277,-0.12564383359888748,-0.29694894575371822,-0.19154197405629883],"Bias":0.75929992727902718,"Output":0.0,"Threshold":0.70115289823205806,"Type":"A"}],"output":null,"numNeurons":15},{"neurons":[{"Weight":[0.89611242054780593,0.074479334556720844,0.984307851635063,0.981775849117793,-0.635974009817454,-0.51038492448180217,0.8988169929472809,-0.23569337056749193,-0.36514549533144824,0.33623820698644885,0.27569763468378111,0.6660831513191029,0.54807680405121151,0.2026493564260422,-0.97682836185061761],"Bias":0.80869174972581293,"Output":0.0,"Threshold":0.72243087632694791,"Type":"O"},{"Weight":[0.96384578941569,-0.070847199331432215,-0.980022048102702,0.41619658442968344,-0.88425272697780877,-0.61525890911708536,-0.39813195280643737,0.955848603488807,-0.39415443194757888,-0.32807563539970463,-0.34706354576491916,-0.27833285940733404,-0.065375752777501822,-0.341294211960069,-0.92887156034301577],"Bias":0.57736925202299338,"Output":0.0,"Threshold":0.78795404815485426,"Type":"A"}],"output":null,"numNeurons":2},{"neurons":[{"Weight":[-0.34240060222446944,-0.98846734873413455],"Bias":0.20472908588346517,"Output":0.0,"Threshold":-0.58190858996562134,"Type":"GT"},{"Weight":[-0.35359697945117807,0.35884539892843242],"Bias":0.7257490743537196,"Output":0.0,"Threshold":-0.633377905298666,"Type":"GT"},{"Weight":[-0.35059199824491144,0.61832701676447266],"Bias":0.9251718790853265,"Output":0.0,"Threshold":0.61495990893568842,"Type":"GT"},{"Weight":[0.91461443152027877,0.023647244099363331],"Bias":0.51221787348027237,"Output":0.0,"Threshold":0.73511691984493144,"Type":"A"},{"Weight":[-0.66024085444409442,-0.61344800126433741],"Bias":0.40568708321344438,"Output":0.0,"Threshold":-0.19506865283244693,"Type":"O"},{"Weight":[-0.97357875852546594,-0.92473587995615592],"Bias":0.70653035384906937,"Output":0.0,"Threshold":0.54463933433622091,"Type":"O"},{"Weight":[0.531519577154666,-0.22677725377808197],"Bias":0.96367766892708728,"Output":0.0,"Threshold":-0.92402874954232417,"Type":"GT"},{"Weight":[0.558484983424882,-0.34841666712817582],"Bias":0.558261345866258,"Output":0.0,"Threshold":-0.400143500138141,"Type":"GT"},{"Weight":[0.37346271256611807,-0.860527427802108],"Bias":0.0199299040343286,"Output":0.0,"Threshold":-0.18875493537110971,"Type":"O"},{"Weight":[-0.27100869141100381,0.8402835902945528],"Bias":0.69022402897953239,"Output":0.0,"Threshold":0.7547090690372088,"Type":"A"},{"Weight":[-0.17466977153656527,-0.44182170994664621],"Bias":0.50833966606684944,"Output":0.0,"Threshold":0.43370605373462012,"Type":"O"},{"Weight":[0.4026439028804395,0.65011206439235814],"Bias":0.84665198570427114,"Output":0.0,"Threshold":0.70883237277568889,"Type":"GT"}],"output":null,"numNeurons":12},{"neurons":[{"Weight":[0.30625582034990928,0.954911674351856,0.36698221618634752,-0.34276464178355626,-0.071253908365617458,-0.84590214111185735,-0.2148584980586816,-0.80377591438767315,-0.97844156994411791,0.29378553679854869,-0.45100016540428634,-0.939756658831498],"Bias":0.12431532290033778,"Output":0.0,"Threshold":-0.84591901853956242,"Type":"O"},{"Weight":[-0.73557551285977263,-0.56217631863531481,-0.26684833190722779,-0.38396820862962316,0.6498603656188866,0.80768755535021775,0.099057068163089956,-0.437085757701232,0.79764690939227445,0.18778540482175787,0.846336150004685,-0.86821041576015312],"Bias":0.64850460628443607,"Output":0.0,"Threshold":-0.61511346819583024,"Type":"O"},{"Weight":[0.744465906985321,0.55979658363377516,0.60531893493855327,0.30257697510653037,0.56041379718129236,0.8168968273405437,0.65324845567962553,-0.42253254932469342,0.43215684985376746,-0.85926472202840476,0.67305463583816527,-0.31042271960080731],"Bias":0.65813361371780443,"Output":0.0,"Threshold":0.28513195239246447,"Type":"A"},{"Weight":[-0.44066094394804023,0.52698077844780911,-0.10164348273614583,0.32602059623506879,-0.12606660701616976,-0.91991534313183065,0.66923828128224161,-0.75070214073672059,-0.83557011831345507,-0.19554218798668227,0.23359666403084839,0.036831117717936221],"Bias":0.75584874616742537,"Output":0.0,"Threshold":0.67433514291156793,"Type":"A"},{"Weight":[-0.536419325757967,-0.86292958392898067,-0.111815049830738,-0.32172160470938382,-0.14343597793180307,-0.8580514806593077,0.40726881493221445,-0.16651177227800329,0.84863591559633422,0.80994662773327275,-0.8779385801767644,-0.63627825893288392],"Bias":0.08958976440578223,"Output":0.0,"Threshold":0.57925998213666485,"Type":"A"},{"Weight":[0.056357233345674926,-0.89588611754397218,-0.66479199084676432,-0.2665989945021453,0.42369477377445192,-0.1831202475275473,-0.35298160433442405,0.9837941750808592,0.37003896076699672,0.70577792390518723,0.40912026418797687,-0.03131743195993706],"Bias":0.86438851517829507,"Output":0.0,"Threshold":-0.52470936417798952,"Type":"GT"},{"Weight":[-0.45166994745455213,0.23059721814030651,-0.377281040128917,-0.41086821277200625,-0.26927584608517396,-0.80060368301375007,-0.35291523456243579,-0.721837718375883,-0.38120917714257219,0.64536982245993324,0.19939839150728583,-0.0600042115245034],"Bias":0.87348205823147762,"Output":0.0,"Threshold":-0.23176720050711519,"Type":"O"},{"Weight":[0.61570999893160072,-0.56291982464628287,0.97230880426816124,0.58644845317418148,0.36913114244543532,0.068826565551025121,-0.8726084818470331,0.40113230859913507,0.92954283111241776,-0.26116720040383151,0.16946090719171841,0.8103101443547337],"Bias":0.87933954171805617,"Output":0.0,"Threshold":-0.64342472033734655,"Type":"A"},{"Weight":[0.37288220011297718,-0.6590730094625955,-0.00078405393324049838,0.88069854810866455,0.86782331618844688,-0.22476460050082048,0.54194491847508819,0.879776412565157,0.29501245650230556,0.721853403710692,-0.56473779564943993,-0.42990041916719657],"Bias":0.97060000010328362,"Output":0.0,"Threshold":0.17518175075537606,"Type":"O"}],"output":null,"numNeurons":9},{"neurons":[{"Weight":[-0.062370331521318448,0.3288840839308147,0.10064860996820434,0.49797717458474317,0.92331272592922331,0.62679887685310043,-0.8362232585606274,-0.26902177476744249,0.82162420117371915],"Bias":0.43843155095280684,"Output":0.0,"Threshold":-0.90263346438418768,"Type":"GT"},{"Weight":[0.13025862636522326,0.4418156041958442,-0.25217380852074073,-0.29429547036732334,-0.82560230317786443,0.047398426126408592,-0.80545298466712845,0.89588051657000578,-0.44129630850688384],"Bias":0.38179923798041382,"Output":0.0,"Threshold":-0.73915182693821924,"Type":"A"},{"Weight":[-0.095054526857591484,-0.72851453708881253,-0.16087864439975408,-0.14897579892956456,0.55716614963354827,0.81439050464629681,-0.13048445858549534,-0.317728263473943,-0.36575235350325347],"Bias":0.69719670000355538,"Output":0.0,"Threshold":-0.74839888641070518,"Type":"GT"},{"Weight":[-0.55928865380552073,0.26601951907669169,-0.38805940206537926,-0.29748566555673522,-0.52083422640377386,-0.83383730604957662,-0.82651678976906318,-0.19254751046772464,-0.28037490429374151],"Bias":0.025938040588953552,"Output":0.0,"Threshold":0.38920252648610737,"Type":"O"},{"Weight":[0.85646189370027836,-0.26929351280876135,-0.3622708680863822,-0.74735084071166391,0.041955126934663918,0.78367351218297776,0.546037029729242,-0.78321636877172462,-0.69277821839450771],"Bias":0.13891411113502183,"Output":0.0,"Threshold":-0.23183779289565878,"Type":"A"},{"Weight":[0.022995988849082955,0.58079597753509693,-0.98703905194394248,-0.77634872159750612,0.72246084582175163,-0.68354121767149367,-0.30890896651377386,0.5999502905644245,-0.77935420152701163],"Bias":0.5779775160262256,"Output":0.0,"Threshold":-0.19575861431460764,"Type":"O"},{"Weight":[-0.49300905200327239,0.79045289093183957,0.4197215519005999,-0.52067963151292862,-0.25028841535108554,-0.70689933733404586,-0.92562370091938584,-0.90777177173074886,0.27467069415127426],"Bias":0.54872689049166012,"Output":0.0,"Threshold":0.55821627683854491,"Type":"A"},{"Weight":[-0.034926336740574958,-0.25423471036098649,0.69168455046214372,-0.227996527789159,-0.65386027686943315,0.17531699136612797,-0.36079284239597287,-0.19078545188102195,0.7430928809303291],"Bias":0.96305921858319044,"Output":0.0,"Threshold":-0.70387353454896884,"Type":"A"},{"Weight":[0.73565754794313454,-0.391776128388837,-0.99171988106878473,0.76110522531024427,0.64703172382294749,-0.30969646354657432,0.073122898616419588,0.37516912323197776,0.29705551280502951],"Bias":0.79059078348362388,"Output":0.0,"Threshold":0.14715022367758221,"Type":"A"},{"Weight":[-0.2072687177952699,-0.054698776013543261,0.1902470733924988,0.8414435269504057,-0.59515705825535448,0.67256188051428734,-0.367822596508927,0.074040411074664636,0.80156668452618951],"Bias":0.34203296636325908,"Output":0.0,"Threshold":0.66041916872394235,"Type":"O"},{"Weight":[0.502763063415309,0.39962384356168279,0.9824660951190004,-0.49055314552530327,-0.91328275106534484,-0.4149855707841858,-0.71905453955710608,0.12975989614136513,0.20807460286099214],"Bias":0.15199758119508511,"Output":0.0,"Threshold":-0.88591349166162,"Type":"O"},{"Weight":[-0.7174736828158953,-0.319150149970851,0.87986460136243361,0.92582638139176476,-0.80511725731432315,0.92578342739761965,-0.61040111054219359,0.035401185990963681,-0.93456938068129558],"Bias":0.27056508663602408,"Output":0.0,"Threshold":-0.35949090559011831,"Type":"A"},{"Weight":[-0.397607510163266,0.60885691345150439,-0.37746598216587024,-0.62160024867467589,0.50842158752885724,-0.28978821695306722,-0.253283596249895,0.184662555430393,0.90932326713079736],"Bias":0.30983977127347129,"Output":0.0,"Threshold":-0.95236681911738907,"Type":"O"},{"Weight":[0.31704860009115587,-0.66821084388914087,0.52129366552517453,-0.90950036882865259,0.615348405025596,-0.82904628702860617,-0.86292230750570176,-0.43840075677186285,0.4123636523319239],"Bias":0.33931568327327988,"Output":0.0,"Threshold":0.30715404046101219,"Type":"A"}],"output":null,"numNeurons":14},{"neurons":[{"Weight":[0.22036804688180239,0.89630716009824873,-0.99936095578566242,-0.569841575608515,0.33131689360892258,0.12955045566407519,-0.66209701665774778,0.33164758297225816,0.099960013804938644,-0.40867966479094686,0.50409326446433234,-0.9251104094670668,-0.99050297447969349,-0.82488712241169393],"Bias":0.62888522289175786,"Output":0.0,"Threshold":-0.6130511358441092,"Type":"O"},{"Weight":[-0.0723937740886555,-0.44784279700733853,-0.6249865054269258,0.91013941304299018,0.045506829417081007,-0.49772939341968364,-0.73337185184162657,0.77630374011411507,0.080716069359665771,0.23935566946834125,-0.229827263965191,0.97841316134594991,0.90554749123079115,0.51126883808116841],"Bias":0.31804526891468338,"Output":0.0,"Threshold":-0.28148171691292978,"Type":"O"},{"Weight":[0.740166282160285,-0.73554819484034006,-0.67937481574685077,-0.098591662057950932,-0.67832343498166814,0.020273366952442268,0.063257383212101365,0.54279986654538659,0.72050392800965535,0.20764378933591945,-0.37369546637576795,0.399722861777862,0.48584030963752434,-0.30961300726496288],"Bias":0.508599584227707,"Output":0.0,"Threshold":0.40758612538109817,"Type":"GT"},{"Weight":[0.31527790674719863,-0.67685053575637311,0.650669417181364,0.27784371621806347,-0.85878471883888574,0.040367757454685751,-0.15860126268053487,-0.59612388703791608,0.077335575165848977,-0.78204935965223676,0.073837927577010326,-0.34457029138904544,0.1002774681431602,0.7120032360367492],"Bias":0.80687407721154114,"Output":0.0,"Threshold":0.093740598342260631,"Type":"GT"}],"output":null,"numNeurons":4},{"neurons":[{"Weight":[-0.256248254448291,0.28379374755723108,0.30942834462478214,0.14204373356981376],"Bias":0.24341480445275773,"Output":0.0,"Threshold":-0.81272412315603537,"Type":"GT"},{"Weight":[0.62176573119208478,-0.27547659458381896,0.91215910758458041,0.60161610860452808],"Bias":0.18838758402894604,"Output":0.0,"Threshold":0.69018718492714093,"Type":"O"},{"Weight":[-0.38898314786561911,0.80864036679670237,-0.38693042722853388,0.76504412049662518],"Bias":0.76963044785411583,"Output":0.0,"Threshold":0.964851259703213,"Type":"O"},{"Weight":[0.31233013948068494,0.7679072305410668,0.640005626082423,0.83042312312425259],"Bias":0.13013890298555553,"Output":0.0,"Threshold":-0.87593625107590867,"Type":"GT"}],"output":null,"numNeurons":4},{"neurons":[{"Weight":[0.69857564927012461,0.16622510979241931,0.64520054387170844,0.5660610695211501],"Bias":0.84890040329140626,"Output":0.0,"Threshold":-0.44225990792841646,"Type":"O"},{"Weight":[-0.27558677516672142,-0.086059896781137166,0.62665931769956806,0.65691447148887183],"Bias":0.51788441907515959,"Output":0.0,"Threshold":-0.8800075002387201,"Type":"A"}],"output":null,"numNeurons":2},{"neurons":[{"Weight":[-0.98553113964643846,0.85976406180288834],"Bias":0.30475444128026929,"Output":0.0,"Threshold":0.51304689678971049,"Type":"O"},{"Weight":[0.42993031695016209,0.26263993804465974],"Bias":0.61789617204009373,"Output":0.0,"Threshold":-0.12442990398240737,"Type":"GT"}],"output":null,"numNeurons":2}],"OLayer":{"neurons":[{"Weight":[0.85580961539214928,0.42747917279018049],"Bias":0.79400571426097566,"Output":0.0,"Threshold":-0.80839195186663049,"Type":"OT"},{"Weight":[0.48149403020809128,0.58609779532351425],"Bias":0.50916529004888855,"Output":0.0,"Threshold":-0.82159726546220357,"Type":"OT"}],"output":null,"numNeurons":2},"NumLayers":11,"Breedibility":0.91864222237777071,"Mutibility":8.185681490314046,"Repetition":0}
