{"Input":[0.0,0.0],"Output":[0.0,0.0,0.0,0.0,0.0,0.0,0.0,0.0,0.0,0.0,0.0,0.0,0.0,0.0,0.0,0.0,0.0,0.0,0.0,0.0,0.0],"DLayers":[{"neurons":[{"Weight":[-1.3595665690300831,0.42923404948284571],"Bias":0.81770383464996876,"Output":0.0,"Threshold":-0.64337300632306049,"Type":"GT"},{"Weight":[0.41073190533124471,-1.2494222135571402],"Bias":0.37737184896942777,"Output":0.0,"Threshold":-0.86848464741766662,"Type":"A"},{"Weight":[-0.12779387959874872,-0.49591723876611427],"Bias":0.78235611309407094,"Output":0.0,"Threshold":-0.089641370852310942,"Type":"O"},{"Weight":[-0.52835225632453908,0.079222360340792664],"Bias":0.7101674165129277,"Output":1.0,"Threshold":1.0084680910261663,"Type":"O"},{"Weight":[-0.30524650084797594,1.5543914140542694],"Bias":0.45609474715594889,"Output":1.0,"Threshold":-0.9771636179542,"Type":"O"},{"Weight":[0.48647984093356877,1.2514956976526863],"Bias":0.26684892190007908,"Output":0.0,"Threshold":-0.30039473264496519,"Type":"A"},{"Weight":[1.9858665000581492,-0.42364089303819497],"Bias":0.70959260208047581,"Output":0.0,"Threshold":1.3154405538530276,"Type":"GT"},{"Weight":[0.30556640328400142,1.2848593785182385],"Bias":0.13228214445164527,"Output":0.0,"Threshold":1.4708075446406412,"Type":"A"},{"Weight":[0.27320863598641409,0.73528110991943674],"Bias":0.48790305332823336,"Output":0.0,"Threshold":1.5546009115896191,"Type":"A"},{"Weight":[-1.0161582580842814,-0.83165277300013818],"Bias":0.58069710600222324,"Output":0.0,"Threshold":1.7431770003136142,"Type":"O"},{"Weight":[-0.84105564676849132,-0.12159220041781294],"Bias":0.46405780243876293,"Output":0.0,"Threshold":0.95987347837531645,"Type":"O"},{"Weight":[1.9103977828800667,0.67070752745294371],"Bias":0.78235611309407094,"Output":9.0946547720672815,"Threshold":1.1786560915311126,"Type":"GT"},{"Weight":[1.2155842870546434,-0.96616189692456356],"Bias":0.66052931228677236,"Output":0.0,"Threshold":0.030520352549161966,"Type":"GT"}],"output":null,"numNeurons":13},{"neurons":[{"Weight":[-0.624815651040904,1.6480801159739866,-0.70216299346748889,-1.6510346064581696,0.83471196649349855,-0.8391117296829409,-0.14096562732463502,-0.60510948561369893,0.55859981451613128,-0.6086983724304933,0.38534011430355708,-1.3156473950090106,0.67455214479684455],"Bias":0.96944835827194542,"Output":0.0,"Threshold":-0.61155775497274378,"Type":"A"},{"Weight":[1.9448617100458878,0.44768811038121958,0.47994338650253754,-0.18944041905432951,0.0466058519885903,-0.47868533268509672,0.59387159095791686,-0.4635193731931595,-0.49285043263474959,-0.59565941233720654,-0.6043649160323501,-1.2667254299236115,0.24133624517304642],"Bias":0.61079952009525129,"Output":0.0,"Threshold":0.681693468560322,"Type":"GT"},{"Weight":[1.1445199344543602,1.3270226844251152,0.12939359090728389,-0.92548189057001462,-1.0914056420568157,0.81587896906578861,0.4598816514294044,0.41333117262149743,0.94319960612021347,0.1468511052182182,-1.5096610651862161,-1.17501130708261,-1.909449316519056],"Bias":0.79044110248351518,"Output":0.0,"Threshold":-1.057263994063141,"Type":"A"},{"Weight":[-1.442811927382281,-0.33431541749011517,-1.156920531372037,0.7504386765651585,0.13000724936370145,0.51265288936563436,-1.6274875754618494,0.71196873612327893,0.91836114480083852,-1.9587007947073787,0.02353215591215152,1.8675309232750585,0.592556768372914],"Bias":0.77172198275650017,"Output":1.0,"Threshold":0.80118044409955891,"Type":"O"},{"Weight":[0.30226496714272777,1.4213506229495865,1.5541919896165801,0.260967776533667,-1.2548040464775656,0.35459288878114581,1.3216370732158596,0.36487916035804879,0.28477987325623627,-1.8569740820010072,-1.1429124591606261,-1.0535461227658884,0.22918057650289528],"Bias":0.84722395792939886,"Output":0.0,"Threshold":0.95116748984491784,"Type":"GT"},{"Weight":[0.020520034954194053,0.3632766186146888,-0.17772454172154076,-0.30561979594902122,-0.23698968416405361,-1.0306823789284949,-0.26389466666215777,-0.45104603408884547,0.21956394413465818,0.63822523580781421,-1.4066765193858539,0.71210488617052548,-0.83227626924974663],"Bias":0.528248616274562,"Output":0.0,"Threshold":0.055846301952072686,"Type":"A"},{"Weight":[-0.46108738564369267,1.0429430618150826,-0.061919480591043574,1.4573556464185151,-0.0731109297243463,1.1103050108581338,0.096732462801380259,0.071274787608210988,-0.78922674189751352,0.1358355675525198,-0.21639858196321815,1.82257722472892,0.58969101057839168],"Bias":0.4951361899707169,"Output":1.0,"Threshold":0.010906801564109836,"Type":"O"},{"Weight":[-0.23350359603460102,-0.78969389493097264,-0.741200530315377,-0.25601108291000652,-1.7408496922537915,1.7577675821994281,1.4309100506039849,-0.040732179787351,0.1341924733175861,-1.7640071100387755,0.56973618708771478,1.031018020133962,0.58837849115411678],"Bias":0.92235302176436085,"Output":1.0,"Threshold":0.010509294288004317,"Type":"O"},{"Weight":[-1.1863494310231644,-0.28450431728712477,0.1282155273380762,0.6969928493243609,-0.82614133615332719,-0.261226753825893,0.71243603840118108,0.85511456840851552,1.242756630989144,-0.46720942224711615,-0.68966760611611777,-1.3053980019434346,-1.7131945191478331],"Bias":0.52714002156962647,"Output":0.0,"Threshold":0.66800412101112494,"Type":"A"}],"output":null,"numNeurons":9},{"neurons":[{"Weight":[0.61077804659063828,0.12937353836808985,0.45552292440809455,0.72359915903005712,1.1814741041425028,1.0481572062932687,-0.24240440607182889,-0.20651579054696065,-1.6584472221594524],"Bias":0.40230067221089294,"Output":1.0,"Threshold":-1.4188484937971684,"Type":"A"},{"Weight":[-1.5710268074511675,0.12494778545803742,0.35425845119369148,-0.908827391876293,-0.48067970689417772,0.89193198052877887,1.3298334457584811,0.17034286320923975,-1.1614308053564424],"Bias":0.29535821326792155,"Output":0.0,"Threshold":-0.83162837234867193,"Type":"GT"},{"Weight":[-0.33720738828983504,0.75006184427186939,-1.0078345038964574,-0.49965117429366845,1.1347104224596223,-0.93073734963812749,0.67429335865857709,1.7353101781268188,0.77037837857863778],"Bias":0.62629763764622515,"Output":16.312854232683755,"Threshold":-0.45063548672508236,"Type":"GT"},{"Weight":[0.98248186101321222,-0.95049106676620021,0.65558218707124816,-1.6232161482904182,-0.33698546219327369,-0.06575758892146763,1.5588482336880865,-0.24871745437789583,0.85401350299548984],"Bias":0.38897293637924496,"Output":0.0,"Threshold":0.54567119411456932,"Type":"A"},{"Weight":[-0.41655453034516171,-1.7250533810467708,0.39093531267295373,-1.3419944883054096,-1.6015108449391606,-0.17792045682571855,0.91569295847587906,-1.9698827545949644,0.78125481623283344],"Bias":0.016399070628173217,"Output":0.0,"Threshold":-1.1900616936339352,"Type":"A"},{"Weight":[-1.4596920532452371,-0.0046775322429264965,-0.39386907331359988,-0.0652085595951456,0.23673106701717761,-0.01346170809746805,1.0334616687770288,1.635562579909136,-1.4571598405983113],"Bias":0.56733170643790243,"Output":0.0,"Threshold":0.86380773636689767,"Type":"A"},{"Weight":[0.383410755101346,1.4763277096097953,-0.71443558749551,-1.2462282140023206,-1.5431291943151173,-0.96348605070425486,0.20303909018544439,-1.9110515079978163,0.19456896567464288],"Bias":0.574693855165827,"Output":0.0,"Threshold":-0.2030174753544497,"Type":"A"},{"Weight":[-0.48717752727082825,-0.12249195633804978,-0.41412157864036103,-1.7581955044335664,0.19750014096382096,0.68611646490107114,0.055239135101403436,-1.4701711449167558,-0.61186387907334794],"Bias":0.75239679485205413,"Output":0.0,"Threshold":0.32216834385048987,"Type":"A"},{"Weight":[0.14820569667415962,-0.44741773451558209,0.15091630357825947,-1.6899267135606737,1.4503345193284725,-1.1645746134056592,-0.4998994457491322,0.77809785668649623,-0.62237385107314858],"Bias":0.70098186782606964,"Output":0.0,"Threshold":-1.4454498530577169,"Type":"GT"},{"Weight":[1.0577869755485034,-0.36150904296036307,-0.833089505710215,-1.0076126395760163,0.48947958345035059,0.5260747496625755,-1.4432777685314779,-1.8815711680248246,-0.032384000733673535],"Bias":0.041616415624328149,"Output":0.0,"Threshold":-0.65949020472331443,"Type":"O"},{"Weight":[0.023234694828621505,-1.1051719119330739,1.0884204474689534,-1.0169947277597213,-0.95250032234587723,-0.70313357770647089,0.0839707469958677,0.48300974256499185,0.59526642867492807],"Bias":0.24662160745198913,"Output":0.0,"Threshold":-1.3886392113699762,"Type":"A"},{"Weight":[1.9471069071195588,1.2593285531081859,-0.17637824741023511,0.25180436961902508,0.8383496267899635,-0.14221074287416924,0.31330024512172688,0.26572832780225597,-1.4063694902725374],"Bias":0.53366047285201978,"Output":0.0,"Threshold":-0.67517938147074519,"Type":"O"},{"Weight":[0.47329515613303297,-1.4145812722420177,-1.6066136507348221,-0.10721885324791958,-1.3770057872761998,1.4752021353954692,-0.42077363302035886,-0.084660494739497438,-0.28912319436861361],"Bias":0.430001224824228,"Output":0.0,"Threshold":-0.35072749403804893,"Type":"GT"},{"Weight":[-0.0868767612086967,-0.43877228649275946,0.1776830480475598,-0.62218921101754032,-1.2447875231712997,0.55281009737067388,1.2393564264589716,-0.664279830951374,-0.13047916774194646],"Bias":0.38897293637924496,"Output":0.0,"Threshold":0.8476285146771132,"Type":"A"}],"output":null,"numNeurons":14},{"neurons":[{"Weight":[0.71162104802747317,-0.72938072133314824,1.0670594268034024,0.76845699696009429,0.6801790272259054,0.11170247761146279,-1.7979062142772164,0.3530557860401719,-0.57827225913213209,-0.12036734731885024,0.26789674719581225,0.82791428539339174,-0.43225321100664016,-1.0546537819572976],"Bias":0.055035932015178694,"Output":0.0,"Threshold":-1.9985500853501959,"Type":"A"},{"Weight":[0.96556145434293961,0.76951549983095169,-0.70432323157057319,-0.52767216683257012,1.1064997963171916,0.350321894674712,-0.010430394415916811,1.2688608706318125,-0.15802748543584139,-0.55283811551185236,0.049484984040951918,-0.760439102892037,-1.2291780073331566,1.7587987909832963],"Bias":0.87616645445868668,"Output":0.0,"Threshold":-0.59397639129030355,"Type":"GT"},{"Weight":[-0.17066317571823642,0.525439118512645,-1.0151066696341646,1.4089556929697076,1.6762718743068499,-1.39239673288185,0.254464969623119,-0.2251372349885698,0.85912968907894016,-1.4456379057120707,-1.4737190278373662,0.6321560878456367,1.2124177442353883,0.16880780373178772],"Bias":0.18381746261558377,"Output":1.0,"Threshold":0.37377751007386373,"Type":"O"},{"Weight":[0.57395907681154035,0.51821865444919979,0.94401155735552855,0.39823101502760827,1.0970710791841163,1.4071323370512077,1.3179657847238544,0.045031258391696638,-0.046642501860224783,-0.83636334976128457,0.18763298084383484,0.56478209167941573,-0.13999192829350107,0.37397891725365962],"Bias":0.76927697519738092,"Output":1.0,"Threshold":-0.27850551636819976,"Type":"O"},{"Weight":[-1.037068893684572,-1.3320605304707125,0.63033904024881249,0.98822684538933769,0.13779529842445415,-0.5527588129289257,-0.83770532569624734,-0.19576984746184656,0.31434773761515844,0.86030569340116614,0.31135688934538375,-1.1051334566853515,-1.8094520456201639,-0.34378499088053815],"Bias":0.6508590321293376,"Output":0.0,"Threshold":1.5107439772741607,"Type":"A"},{"Weight":[-0.53679658718723633,0.83919951638169543,0.38585029822348166,0.97026792865724687,1.1410603617043515,1.0192523792010042,-1.6224046459525845,-0.63114672090445967,0.49450135905970893,0.63106655638248954,1.4518420743182499,0.26340235642315935,-0.045078087328038252,-0.76325454877841026],"Bias":0.53443008918987123,"Output":0.0,"Threshold":-1.484588127343258,"Type":"GT"},{"Weight":[0.94032486385680947,-0.60268004546066756,1.3942588043372419,-0.590120171457003,1.3846917391683404,-0.53616413126521,-0.77319484355746293,-1.9538268577092453,1.6699784526927295,-0.24993177564462263,-1.2954402748939768,0.49501534481300746,-0.031550225816457722,1.507001351335552],"Bias":0.28019797186376433,"Output":0.0,"Threshold":1.0888597774733135,"Type":"A"},{"Weight":[1.042537154183973,0.0040282700229568036,-1.2419597256192749,0.63398051012027112,-1.6966291590112397,-1.9029688722933498,0.48543240245684638,-0.82968647839952558,-1.8375372103590226,-1.51163654757507,0.92340484583908911,0.82309327964815,0.65550374363339658,-1.4414226395911176],"Bias":0.096626271538728048,"Output":1.0,"Threshold":-0.39828521311203269,"Type":"O"},{"Weight":[0.824666442284278,0.61647269437856611,-0.92403763203138367,0.66787981924967843,-1.4585069489937774,0.031148475434700271,1.0833083200656382,1.8448419737838404,1.0584581359561804,-0.9822721532463432,0.30213160547527096,1.4028976979446122,-0.54490406557214632,-1.1061583422618724],"Bias":0.32359832307491376,"Output":0.0,"Threshold":0.2873306825232369,"Type":"A"},{"Weight":[0.689590038121487,-1.108768691825107,0.98164684667575275,0.70792705831487068,-0.14582714901272406,-0.662888256210316,0.09104566745974374,0.68579592820526847,-0.5244562006125959,0.74769918795102241,0.038093662838495135,-0.14472173067960958,0.038668691373275874,1.4602372774203483],"Bias":0.47482794126254874,"Output":9.07515057743677,"Threshold":-1.3906839412593675,"Type":"GT"},{"Weight":[0.78821623315485945,-0.56847967233903685,-0.20737229204148622,-0.061709829867682364,1.5144891736630766,1.1398815601784182,1.6187269937334241,0.66387387489149052,-1.9468454792848069,-1.5797461958507757,-0.0848741820477294,-1.6043909991180483,-0.02717108979223809,1.0493019907964869],"Bias":0.55462496939796258,"Output":1.0,"Threshold":-1.1173489648463897,"Type":"O"},{"Weight":[-0.59788348147880943,-0.27588523192139591,-0.53779120023259486,-1.5147857972256773,0.91706625321743385,0.31740322511951524,-0.47902980432014675,-0.32427962005570515,-0.16045396622407904,-0.3604691318983535,-0.40684488294964882,1.4559586287736699,0.26774354064675415,1.1569207325377131],"Bias":0.21283715088518204,"Output":0.0,"Threshold":-1.0568578368084776,"Type":"O"},{"Weight":[1.3638596550393194,-1.3896605742115811,0.10827680030291731,1.2387674950243754,1.9107910971673165,0.22180150925265696,-0.40503608826782378,0.95266821931706192,-0.38288658968307376,-0.92893445808623654,1.3617713746436739,-0.42583759987067316,-1.2670929987295962,-0.14478417958355694],"Bias":0.6945488824018039,"Output":0.0,"Threshold":1.4596639068143742,"Type":"GT"},{"Weight":[-0.50433937856198252,-1.1113090417866172,0.9845408401380018,1.0098974653565778,1.7040148357413778,-1.1358431480526194,-1.1055186903595544,-0.64817351971202219,-0.531838788565129,1.8768900837175968,-1.8012571669189526,0.54802894315844519,-1.8663854710135541,0.097299030197807113],"Bias":0.90663626971963618,"Output":0.0,"Threshold":1.9468846209099908,"Type":"A"},{"Weight":[0.44995501006485661,-0.6772593644807392,-0.93848486567776868,-0.92713542698283458,-0.26584204764377417,0.15726554866752851,0.31474304213875115,1.0784911798911594,-0.30238900068327268,0.402593344637469,0.90372324870141374,1.4149840614886415,0.73223614191274911,0.027300386702316104],"Bias":0.44805983102324409,"Output":0.0,"Threshold":1.2787420560041172,"Type":"GT"},{"Weight":[-1.1670978531088205,-1.0847729533374184,-0.64564227063471558,-0.31824977734044646,0.869569942760081,1.9628061840603155,-1.2816167638085863,0.32051258735382571,0.16564707631806522,-0.56580848645689352,-1.1530475891907921,0.75430406199502942,1.8926284629351593,1.3316367344612425],"Bias":0.055035932015178694,"Output":0.0,"Threshold":-0.508464382266842,"Type":"A"},{"Weight":[-0.16515466671677048,1.7166950943491863,-0.29349472310584057,-0.76181734214155816,1.9302108231606945,-0.38776045776333679,0.93451132641607271,-0.28311559873778169,-0.11429942218321354,-0.71630484178490228,1.223958212288077,-1.9230722169964911,-0.1074977040907823,0.52056375030454416],"Bias":0.055035932015178694,"Output":0.0,"Threshold":-0.53603605485336681,"Type":"A"},{"Weight":[-0.29243822502551509,-0.019541964409659718,-1.11653490323412,0.29696614215940542,-1.7579221724336605,-1.0340723588755691,1.092941297727144,-0.051497238502967391,-0.1225267155666494,1.8257079254024236,-0.41922020521327863,-0.018995541156733048,-0.4211860654974291,-1.5359834020659251],"Bias":0.32824787466239552,"Output":0.0,"Threshold":0.82055845673687688,"Type":"O"},{"Weight":[-1.4678997748847584,0.096182144990275553,-0.25733466551515027,-0.92906561769967233,0.078409283458445778,0.72447314240246685,0.41957031303065362,-0.39682760061548439,-1.0605141143596333,-1.648772593424084,0.44101110959472667,-0.44130193008636215,-0.1378392889806252,0.59018890726854512],"Bias":0.24825597938534616,"Output":0.0,"Threshold":-0.90138286300999249,"Type":"GT"},{"Weight":[1.2031254310641089,0.063875549036951612,0.14224700077541508,-0.064334219817227756,-0.70296710855465716,1.6958810741528314,-0.59934455277367715,-0.50234612193999162,-1.061332918266455,-0.68932714867781719,-0.325231456349246,0.38792121149037095,0.91728676991410874,-0.35790090713930589],"Bias":0.87616645445868668,"Output":0.22420555096168227,"Threshold":-0.93119980539338409,"Type":"GT"}],"output":null,"numNeurons":20},{"neurons":[{"Weight":[1.2928066026851566,0.32761595879104721,-0.89549649478657933,0.42372854641746094,0.26653927204503647,0.21793211741352822,1.5562704240699627,1.5937155874416771,1.4103090834851884,0.19283242905178682,0.30636396191844895,-1.780840726467241,1.3483231865560277,-1.2785773236670424,0.1987705892877516,-0.34603029039969213,0.34530251361210956,-1.9702669344703978,-1.1766599524657522,0.8194212022581665],"Bias":0.85844049479739759,"Output":0.0,"Threshold":0.7488394390087757,"Type":"O"},{"Weight":[-1.5936369018599563,1.8105430173736732,0.19718609526622394,-0.60183511609297025,0.4388287013577431,-0.16634707533118642,1.3391064816802305,0.33936035928286623,-0.32470909893732003,-1.2014411535120759,-0.71351643405552778,0.32672594402473232,-0.34002093404532457,0.033499041587812473,-0.20833837755132592,0.048376843222985286,0.61442734795363041,0.40509516299008164,0.016122885288727767,-0.14710120817045741],"Bias":0.11860314529324097,"Output":0.0,"Threshold":0.202056528163169,"Type":"GT"},{"Weight":[-1.6264936121304023,-0.74687145660427468,0.649859122303249,-1.8229945059041468,-1.5989204606036285,-0.096699848448688785,1.7720258160364004,0.47308696176534859,0.57087371245532914,-1.2432095777444587,0.49066790123035586,-1.460317155094965,-1.4977286371857526,-0.089816884179514389,1.1925664018804985,-0.27378714004242188,0.630769326645308,-1.7576504274074223,-1.5053220519355135,-1.4711947103362506],"Bias":0.86526797891839768,"Output":0.0,"Threshold":-1.6184908159163274,"Type":"A"},{"Weight":[1.351249837014475,-0.45399722571205225,0.97214193594276077,-0.0913036279805487,-0.32739362166432828,0.10231724293079081,0.86781141667990536,1.5802213556972431,-0.65111239185841407,-0.84376510551374651,0.20158225254382164,0.20211871257150471,0.13657745189805384,-1.0392172255925098,1.9128923788261099,-1.1951289750612941,-0.18744224295366657,-1.3537023939507851,-0.38234141358749074,0.42181875302773836],"Bias":0.57374627961485936,"Output":0.0,"Threshold":0.93169430034779666,"Type":"GT"},{"Weight":[-0.73789320830274063,-0.19863957269053878,1.0308220992008326,1.00246733566861,1.1239516441705413,1.3652179399459707,-1.4452079997608476,0.050828581932386659,0.41537779484194604,-0.16073800724034104,-1.1088935537770825,1.4685445730427955,-1.8153327404592805,-1.3837373505270749,-1.4886371677222834,0.72872372284937814,0.62106861109895117,0.53864273640263949,1.4148907528328198,-1.0964448057797014],"Bias":0.79608669332046378,"Output":0.0,"Threshold":1.7772890551841303,"Type":"O"},{"Weight":[-1.541266148696312,1.2168275978028902,1.5643493586985158,0.1168349804900749,-0.53027373629402086,-0.68641742452695842,0.88968590688411431,0.73135892871364894,0.26764807117527717,-1.3902390438086534,-0.34553878677335503,-1.5006323426499182,-1.4012616665108415,0.9765376496197743,0.47036163437662726,-0.441312615965173,1.2451661103637206,0.553077652376647,0.11610032969332995,0.00819054845869091],"Bias":0.39026287029975226,"Output":1.0,"Threshold":0.1827064799995658,"Type":"O"},{"Weight":[0.2234049878192157,-1.1134162522449234,0.71326257973595641,0.61101185652008816,-0.77091136144982242,0.45183007067620284,0.89072837518329184,0.25335760705795041,-1.98284032753801,-1.9986558537923991,-0.50176865747280819,0.60631031757514475,-0.488107190330912,-0.59960886095632282,1.7750651183422028,0.15611738532600805,0.86753564461485277,-1.0305359247282779,-1.1804430518208271,0.01413193811389224],"Bias":0.40098223434806907,"Output":1.0,"Threshold":1.2954960015115775,"Type":"O"},{"Weight":[-1.1734077214430587,0.8093069506852455,0.027288619761722449,0.14340589481564514,0.65386205010761611,-0.38079796497456164,-1.8729944768701654,-0.85077160310501787,-0.59725652430078791,0.5233510600091501,-0.58095940322659878,-0.18854505670654831,-1.3480413739327535,0.15276910278609446,-1.0510750836930587,0.93701296063932271,-0.21035791244840169,-0.572048905310011,-1.7379700931431588,1.3259051830162782],"Bias":0.48536296537395707,"Output":0.0,"Threshold":0.13456923986532232,"Type":"O"},{"Weight":[-0.21840966791189731,0.47781591977822391,-1.2536705356341185,-0.0984121175009813,1.7082674818617605,-1.4457722424742636,-0.54471554038800085,-0.47620307513335863,0.36837294482084582,0.43851996885543709,-1.1668459173137535,-0.16610901717381049,1.4022529066550793,1.4832484682478238,0.69232418909311488,-0.10458339260871674,0.69235301306115127,0.866600977922371,-0.61818823596378247,-1.5508912080204538],"Bias":0.63432582357634137,"Output":0.0,"Threshold":0.42715212722641982,"Type":"A"},{"Weight":[-1.949369411891964,1.2888122083276101,-0.91019103777400034,1.5664320707164854,-0.21457471699328584,1.731962086508033,-1.6818406915673245,1.4504890178565351,0.29214264559193648,-0.75144412682924611,1.4625575130165358,-0.61097592257630784,-0.15769427300323463,0.34644042996058255,-0.82598741670417941,-0.42185646594588477,-1.5355845376491009,1.0510690033207968,0.40457055366927308,0.0788973132515779],"Bias":0.87991810863833786,"Output":3.1422133546644422,"Threshold":-1.0379554839050189,"Type":"GT"},{"Weight":[-1.3648992755286857,-1.093205252240042,-1.9682191721947022,0.36408210469599922,1.3281460159123624,0.99443406937384715,-0.66792067823369083,1.0167457745488482,0.52844862757644107,-1.6480299921929977,1.1301132939430483,0.87647492945030114,1.1078331531527605,1.1981263985848645,0.21548834685957458,0.76775133459258416,-0.50881603383869689,0.49091594812839412,0.66244170775750733,0.65604728688767533],"Bias":0.70243457225264727,"Output":0.0,"Threshold":0.35563608368655464,"Type":"O"},{"Weight":[-1.7161544690449511,-0.42112311990751095,-0.68837129382922857,-0.69751887483164832,0.35442767122500934,-1.0795029788648258,-0.48961223032773105,1.5219818072030238,1.2931794856177548,-0.4858209261953928,1.0372076398517043,-0.64041626296956855,0.012316332204414859,0.82173271614440391,-1.0929248109892593,-0.76843780268376594,0.59526375650673347,0.84188451936556241,1.6101804038557135,-0.35809983609155749],"Bias":0.26769311040066796,"Output":0.0,"Threshold":0.45246383964664483,"Type":"O"},{"Weight":[-0.458558161956518,0.71584066316291706,0.75880904810447669,-0.56475650993630122,0.10630285069639933,0.21323591151047072,1.1990749060938701,1.8888590279449051,1.099291391251279,-0.87621392229045048,0.50107747755878485,-0.61650425876327986,-0.23563387456364987,-0.21408611778825804,0.070852371897013988,-0.31693840693539865,1.86304428422034,-0.8215849375452775,1.620800934555382,0.41114911549312483],"Bias":0.77266458923586856,"Output":0.0,"Threshold":-0.66723336403594979,"Type":"O"},{"Weight":[0.45819437432018773,-1.34996368705759,0.732631982645314,0.24481945589409193,-0.82277301690670324,-1.629242336204854,-0.26467590139465225,-0.7754299932976394,-1.099554309667812,-1.5115236381588149,-0.308646618532318,0.45728963914201126,1.5819336322983419,1.3214255996613882,-0.038604759629166013,0.83089381215669844,0.10952683543298725,1.2360878490079603,1.5736789924901347,0.41829232984142961],"Bias":0.13023392303392009,"Output":1.0,"Threshold":0.97791199711054211,"Type":"O"},{"Weight":[1.1620082162143701,-0.41072858796023226,-1.3224870242748814,-0.49757175985974456,1.7442262059749227,-0.96457028620157881,0.64077395521606029,0.02509537619775859,-0.10153599251133205,0.5113897782337804,-0.29036925558209,1.0704911687099334,-1.0925427502473957,0.6205519061747713,0.57930217218436408,-1.5237427165376687,0.4120798957073793,0.5565946570395468,-1.365975217598479,-0.43261513846937216],"Bias":0.37344587519892619,"Output":1.0,"Threshold":-0.0488959227450638,"Type":"O"},{"Weight":[0.69702659101287856,0.43321853803154964,1.3993916266594972,0.56843603521978281,0.50188520294701933,-0.51477013459185617,-1.8935338649402995,0.27772622195897911,-1.1248508007555971,1.054599869556073,-0.35775879640202435,0.28056635627549431,-0.9031713394928591,0.34252402668005033,1.4002125167288875,0.5799403792197424,-0.057424666386761081,-0.1029700031983527,-0.0011231973772510839,0.88273848895642826],"Bias":0.41339391070110443,"Output":3.2881622960149461,"Threshold":1.3705940113265971,"Type":"GT"},{"Weight":[1.8790948353144783,1.2463997934229671,0.059570510666617407,-0.18414213505300797,-0.58290384597280243,-0.28587699373462694,1.7473677712247557,-0.12125057220517216,0.80172349476059246,0.75173513719427154,-0.605464383310389,-0.39762110328191008,-0.21501352333697182,-0.18811514488362713,0.3377740452241963,0.68716186596414164,1.6792845258858447,0.2512986798543943,0.009677049679298444,1.2221403949676968],"Bias":0.69243561136184051,"Output":0.0,"Threshold":-0.7776439914724993,"Type":"GT"},{"Weight":[0.87837990600540294,0.83078735267314485,-0.62749767240282273,-1.5053871029547357,0.019879630776066137,-0.071709645145088263,1.6222434023498757,-0.87315516272706672,0.47177733263963534,1.4468871557372096,-1.9266125931994116,1.1269472758876846,-0.70024643169611067,-1.1375784441538055,-1.107204118211383,0.59765315399519481,-1.2248799219843374,-0.23711910843249373,-0.81802272182797209,-0.7848333189193315],"Bias":0.76821840078021331,"Output":0.0,"Threshold":-0.25219053833381766,"Type":"A"},{"Weight":[0.89289458184172144,0.94194640728735646,-1.1692450287142977,-0.67234832359121566,0.66317550403213854,1.1995551619011642,-0.29741394906184349,0.1232481403850243,1.3608975481991181,1.3276127461938247,-1.0294677151772134,-0.23565972351266981,0.84573708886547816,0.83355397583616608,1.6720350122414693,-1.6733345276086287,0.77335710271650793,-0.73745999223463454,-1.757489770537936,0.84807245565954226],"Bias":0.94310093435603237,"Output":0.0,"Threshold":-0.99165605892970032,"Type":"A"}],"output":null,"numNeurons":19},{"neurons":[{"Weight":[-0.41342794169365804,0.60840806902485145,0.24426023338770503,0.43101185347466342,0.58784171372551541,0.10284787328115108,-0.86415112850449571,1.4193560292103125,-0.74795042478849672,1.0010758913127127,-0.81001342591364556,-0.79124367506766868,-0.34062348787701846,-1.9234915719942616,-0.5490484696575666,1.8541748020118916,-1.9604043625110781,-1.2178081633606033,1.7985077555284406],"Bias":0.17879592682178874,"Output":0.0,"Threshold":-0.88301052473625652,"Type":"A"},{"Weight":[-1.0030350056491022,0.33159378995312722,0.15623738350404304,0.77096671917637183,-1.9372757933741789,-0.926193561836236,-0.10755846933813684,-0.146484687876182,-0.097283762924970874,0.332785652174049,0.51906277601097828,1.2381767235874088,-0.15792365158345706,0.81855126601576389,0.92351536961436054,-0.18188238990580774,1.305251402456896,0.3541770017958138,-0.60348428062023585],"Bias":0.11037548031209758,"Output":0.0,"Threshold":-0.8241206532456542,"Type":"O"},{"Weight":[0.23822442732668669,-1.0456678658005165,0.035741536821933206,-0.8602109322604774,0.25724362500814868,-0.41619510129848264,-0.55124737906793475,-0.86598550242650585,-0.41817651987922222,1.1171203554221991,-0.33100923602749094,0.2034686823391676,0.46090892560822377,0.55862428180809331,-0.24876071617415207,-0.51010769815654855,-0.1185481623367165,-1.2548884366428892,1.0304515618041399],"Bias":0.16785525817789848,"Output":0.0,"Threshold":-0.5400913406815806,"Type":"A"},{"Weight":[1.17247184327453,0.38763812295516864,0.48733900044455147,-0.52320769826099633,-1.3292938188320462,-1.901537898882077,-0.4681804978606201,0.8391198789883032,0.532586799251189,-1.8964843805397322,0.16291008617864478,-0.35772134093818142,0.70358246866111052,0.73454249882350786,-0.26677916851005279,0.67843463812674476,-0.646544558297165,0.59935282967023218,-1.2954983917509664],"Bias":0.13112838386144879,"Output":0.0,"Threshold":-0.37649245298304246,"Type":"A"},{"Weight":[0.81481368691418954,0.70946367583678294,0.94242973518205342,-1.2831951003909088,0.22383922628305797,-1.4207237714066747,-0.877924868314492,0.25187956134410561,-0.21773355184948695,0.70881195118537266,-1.3577771351476093,-1.493820843982427,1.6982615812207857,-1.6674403826088833,0.80318444725274318,-0.99250680533820157,-1.1720773182679327,-0.490274931268478,0.42213650672796021],"Bias":0.34477430039307766,"Output":0.0,"Threshold":0.58943079718827773,"Type":"A"},{"Weight":[-1.1755993790810924,0.46613008271256939,-1.187286826287064,0.671733326940673,-1.9121521412917191,1.1797235911617632,1.2208918338447772,-0.7585482191101407,1.2634057119783972,0.81395903640145384,-0.85847718588005628,0.14632295358289182,0.013437175198196094,-1.9092439412648063,-1.7004220931327074,0.70020525703376291,0.4594241056867987,0.8854363443727773,0.47703766124345137],"Bias":0.1182523142165748,"Output":0.0,"Threshold":1.6804352438451886,"Type":"A"},{"Weight":[0.098179474053056687,0.86024951136682626,0.31742388426439083,1.7125933727773806,-1.9792620427809944,-0.70100291199097553,1.26361845222252,1.1636558056143638,0.013336268492665171,-0.95800290580745928,0.025509274576561936,-0.81574282181251,-0.1207832785420041,-1.5144085304413031,-1.0116645521538632,0.061611700831731675,0.19830434685494014,-0.56811678063502391,0.97797363654965241],"Bias":0.37466877483514549,"Output":0.0,"Threshold":-1.6474028824117979,"Type":"A"},{"Weight":[0.599691925849622,1.52446165166159,0.23434014396478431,1.6910943294368193,0.297293286094113,0.98752752830624946,-0.36366904916412612,-0.5077471651638612,1.4890320317302979,-1.4600486995000619,0.74664631427575179,-0.57470426123677376,-0.75574532553122631,-0.35338057500933318,0.1089355913498139,1.080086781214963,0.97467807818887664,-0.27476144315430973,-0.70055742134598886],"Bias":0.12116785865331435,"Output":0.0,"Threshold":-1.6758166754971335,"Type":"A"},{"Weight":[0.29367701909210386,0.46820172037379892,-0.0032592071235455489,0.2422354050177315,-1.3588678312296363,-1.5786248545994166,-0.47243345526102165,0.91780965724857966,0.74547780013898268,0.506998052823822,0.847966908872112,0.99955465133805066,-0.29648295361384891,0.25846438296533392,0.99923588568309141,0.57232755169846472,-0.87182984076059888,-0.393708365221372,-0.92610434113354623],"Bias":0.86548168671572656,"Output":0.0,"Threshold":-0.27004358464388334,"Type":"A"},{"Weight":[0.85475283062772478,1.7392817543318526,-0.12783309592982778,1.62744005193349,-0.39908190742092287,-1.6969440801520572,1.8960302844159447,0.86654052644341273,0.694228387964763,0.93884622937247442,-0.758938172254217,0.0039018219849801528,1.6606694663225996,-1.2109752293727245,1.9222022425021055,-1.8063059336535194,0.39349019336211044,-1.9127275552194227,0.80889163902443439],"Bias":0.66696255475606891,"Output":0.0,"Threshold":-0.44843844345232403,"Type":"A"},{"Weight":[-0.92534254441286556,0.98909317654980944,0.52416991415391845,0.60901800571429443,0.34243399060444624,-0.23116700629758041,0.068731128968638977,0.8692707171986207,-1.444048225766303,0.31337817307253291,-0.97933463063593007,-0.44933952225807106,0.029862677294467788,1.8038992620091414,0.1833605580178011,-0.94170794214201536,0.694298357094777,-1.23421398048951,0.47950755908596682],"Bias":0.30161609537974748,"Output":1.1116422685361702,"Threshold":0.29365557911510365,"Type":"GT"},{"Weight":[-0.96384681713015163,1.8041676747632063,0.12916617194617475,0.32632323462810531,-0.7993599710983037,0.0792382443692713,0.20235094158088374,-0.6129377701380001,0.58805587822015193,-0.7404065312540189,-0.34130511821308407,1.3232256711103143,0.28810089746867362,0.08555429793687272,1.7512196636531594,-0.7045417924898405,0.19530374338864526,0.63768889489239555,-0.36011325305333042],"Bias":0.36949530587042462,"Output":0.0,"Threshold":-0.90689716064692338,"Type":"O"},{"Weight":[-0.35861164324852252,-0.055364097596199306,1.2478700462951653,1.6039958622325194,-0.81943187435131137,-1.5370446925689674,-0.19839220782667044,-0.72845233405402521,0.8486392933868987,1.8027367684071591,-0.5158716872372805,1.2961720634699669,-1.7675489037146555,0.90857759067256838,-0.57905285366766757,0.24789179593692146,-1.4466519278691392,0.19146739421015013,0.73046578780303983],"Bias":0.55947907062223134,"Output":0.0,"Threshold":-1.2614190928923987,"Type":"A"},{"Weight":[0.87679200194626672,-1.82953683465232,-0.0066709222768763926,0.600151763577085,-0.053150395887508306,0.46961859356128555,-0.16045582866550234,0.028949074460635438,0.2660064964513324,-0.37099142384063061,-1.2088334053795942,1.9125270042161118,0.30050009037391279,0.27841758997105892,1.3086605432017988,0.41063561402756532,0.11789951758361383,0.89054883406057428,1.3921382685155321],"Bias":0.43304560842599982,"Output":9.0789187123165735,"Threshold":1.246327694154497,"Type":"GT"},{"Weight":[-0.97812528674403443,0.76615920675273963,0.65188477870630335,-0.5407977689363983,-0.91276824144309765,1.3301244672993779,0.087200480553880411,-0.12998646561987062,1.769841419425719,0.40702223860752873,1.329024206534505,1.0114013692417188,1.0160593367256499,0.44312841931503666,1.1777826227144259,0.22431144524566427,-1.5204513871671872,-0.28367758462376785,1.6975172739231572],"Bias":0.98497036471263055,"Output":1.7502424348910584,"Threshold":1.0032683513142486,"Type":"GT"},{"Weight":[-1.210497770134475,0.86464503610722954,-1.2737635761842894,0.80194367889871054,-0.18423596987698032,-0.87805402622467565,0.19284091596158259,-0.7087980763562014,-0.47987920809618856,-0.68179250633427535,1.2350010889279661,0.15093593678946421,-0.79308037962442279,0.11091905860738782,-1.4873406623314791,1.9920161087028756,-0.95266584063189363,-1.046525803416281,-1.4049257173332816],"Bias":0.53660340213058677,"Output":1.0,"Threshold":0.10854696429266914,"Type":"O"},{"Weight":[-0.030235220692230058,0.17161805053603385,0.32826706468046979,-1.3532552008299414,0.50897846488041687,-0.447282650843598,-1.0163611732499491,0.016111248180322058,-1.8943101502462802,0.060800613863766451,0.752707512468429,-0.20387638090358884,-0.29651557132439488,-0.15178289574188308,1.3575662886060618,-1.1320858314317119,1.0396574367953733,-0.2623208345669884,1.3858449989154931],"Bias":0.71522220816240756,"Output":0.0,"Threshold":1.6295653971049773,"Type":"A"},{"Weight":[0.10872477810304837,-0.22442115923595685,1.4154989139249077,0.34787558622530218,-0.12086736323352304,-1.3109640954346227,-1.9752889647964802,0.1112070894386652,-0.8251116903615705,0.31868855111239869,-0.45126336554589841,0.0749067616379556,0.22900083578610841,-0.7604958930800183,0.86550557374279258,-0.73772721306315026,-1.7603511492537107,-1.954254126154936,0.79590136874276274],"Bias":0.52839293541777554,"Output":0.0,"Threshold":0.954256982986935,"Type":"A"},{"Weight":[0.59269422320308829,-1.0753497551546198,0.86867461580255756,-0.16488171097118487,-0.19642161901407954,0.65926450987312224,1.4403917749600448,-1.555534409152127,-0.79330325198513618,0.098005344205538414,1.7691019865540332,-0.33794658181161918,0.14304580068823214,-0.34817426574797095,0.11595140961741635,1.2527873307712318,-0.18479416537103555,-0.22465969525640123,-1.76222410600736],"Bias":0.72842807473075943,"Output":0.0,"Threshold":-0.60346417809066555,"Type":"A"}],"output":null,"numNeurons":19},{"neurons":[{"Weight":[0.81485744952916028,-1.6590828516795686,0.053308719666017981,-1.2623826317779638,-0.14242568793353883,1.8387268706405195,1.553419666156834,-0.55771579526258441,-0.88959110290258714,-0.59636336639354159,1.4647443832199762,1.5946404429127652,-0.21029826729106627,0.20882926425376391,-0.629723058375401,1.8530343863428729,-0.26339549304144239,0.52492971835887525,-1.1125755101035235],"Bias":0.32808099702376919,"Output":0.0,"Threshold":1.4610370376431554,"Type":"A"},{"Weight":[1.5485016310347719,-0.85936946531728342,-0.17715450011992562,-0.45742070044270744,0.92819001471063967,1.0027446323087181,-0.12484818609657156,1.1460458837198306,-1.3721850865391012,0.93733008715199784,-0.56037374705093623,0.058040414963867804,-0.992964839675913,0.16370276648723658,1.7652729264298794,0.38809821307104908,0.064637621894775787,1.8068228661114456,-1.5967383028924178],"Bias":0.54134753185387119,"Output":0.0,"Threshold":-1.1401108027273375,"Type":"O"},{"Weight":[-1.3036205187922438,1.5013550815644465,1.1895729318212591,0.33018083513257124,1.2789488524566166,-0.61284267407043025,0.93132208040045672,0.46403896131740829,0.94449656017566874,0.92825985091191709,0.2193566477947666,-1.3766958828499523,-0.064077048679616819,-0.21312177391984577,0.27646498301833189,1.6104007938925182,-1.3233335545424296,-0.16962442461849392,0.033180214480115211],"Bias":0.41980605917973723,"Output":0.0,"Threshold":1.1277775816283087,"Type":"GT"},{"Weight":[-1.4341956504779847,-0.5507366054461974,0.30792460744638217,-1.4637865030503769,-0.50241071736298415,-0.49357659113294283,0.26913955540821854,0.81902369116445706,-0.34040717144515686,1.2963129288034108,-0.65313529746927568,-0.37107259145522153,0.88363519258966461,1.2210261575975578,0.43045403269606364,0.019785667313163169,0.5410250679315185,0.26378987695266942,1.4028840173980615],"Bias":0.88900918694632558,"Output":1.305988369130954,"Threshold":-0.66665110116202908,"Type":"GT"},{"Weight":[0.66297787267780639,0.885768258425299,0.14516057878274502,0.20017473315828238,-0.47643029386011437,-0.9075971734279753,1.3270517957057115,0.43201790211350566,1.1362459832505538,-0.28236171062491772,0.37555581814402539,0.84327271154302785,0.35793752333053286,-0.69899482405697677,-0.49647097592077727,0.97509830583590018,0.6084848691748852,-0.36267375110191008,-1.4375848569616605],"Bias":0.061457154835321548,"Output":0.0,"Threshold":0.21556021935099734,"Type":"A"},{"Weight":[1.1354224743166346,-0.869256175527934,0.197232911746126,1.3606456794592763,0.10652848012118071,-0.83470894807703289,-1.145497487972984,-0.8493839813626296,-0.16098247685515435,-1.1757641523963605,-1.3920129143595754,0.49994449806397068,-0.50421929476047844,1.2460382900880829,1.2334636651135345,1.3347051606209508,-1.5393347477257879,-0.84213196059788209,1.3205013774896512],"Bias":0.91997293984516193,"Output":0.0,"Threshold":0.731491645207392,"Type":"A"},{"Weight":[-0.75340570404818552,1.7977026662778588,-1.4669006725153424,1.5679519705325142,-0.9935312434069492,-0.87451103090984328,-0.70077361283510631,0.60563770011329932,-0.42503745221767453,1.4063749440975371,0.57501984228148117,-1.4494161468229332,-0.71494189217451121,0.18497597388223563,1.7225505838741317,-0.55881970867459652,-0.25271517515774589,-0.93181031147568028,1.6990565209179449],"Bias":0.14635624674968714,"Output":1.0,"Threshold":-0.075187814456963764,"Type":"O"},{"Weight":[-1.2313819030445916,-1.5638244131411541,0.85847494139265024,1.8378438147892449,1.0895794863443957,0.47707229537105467,0.46613654050330489,-0.68497443440601891,0.81221926715794,-0.83804099379365382,-1.9349346253717945,0.56333560988462317,1.1250743126147773,-1.1650200519547891,0.2360249498095478,-0.29900583964726224,-0.46243521397515619,0.53099808028479956,0.354960581453033],"Bias":0.59344373065672984,"Output":0.0,"Threshold":0.38780079520670752,"Type":"O"},{"Weight":[-1.1046839163660462,0.39723739791532853,-0.73071394242845189,0.59026810176712141,-1.030706549543285,0.24419307335940804,-0.39529066647300048,-0.3100698556797904,-0.77927320021170809,-0.71083241105584061,0.638375045395922,-0.38102412334691005,0.62537471606646422,0.65308635078418342,0.66931233399981283,-0.81481568832640339,-0.56749441413790647,-1.6903335208493906,1.9411817900562576],"Bias":0.86852860933566867,"Output":12.615088439887868,"Threshold":0.0722624357194932,"Type":"GT"},{"Weight":[0.62334143678813314,0.94428612139697576,-0.2355374052354775,-0.87444242107423142,0.06850219585164552,0.16475785251928388,1.0221628821558144,-0.80333073847150938,-0.43525063671845454,-0.088858480606627932,1.2607587195793788,-0.20275966180616978,-0.38564945123421474,-1.5811315400438064,1.0881776470170252,-0.058883414820364355,-0.5772761099866015,-1.5946532784004943,1.0184478007808551],"Bias":0.10236654249130121,"Output":0.0,"Threshold":-1.3860994015755594,"Type":"GT"},{"Weight":[1.0960467881970324,-1.8990446310020259,-1.4684586503861745,-0.73724475304467818,-0.356144975105368,0.67550620374991865,1.1419869471071227,-0.94624533082649354,0.44300963284587924,-0.4689904982825493,-1.6490313502256906,-0.75704626494881055,-1.6695572229426154,-1.3074536115431477,-0.19102768981411475,-0.10540935685091393,-1.4030939952484771,1.0944276429221165,0.0836888300644647],"Bias":0.28599419690947708,"Output":0.0,"Threshold":0.31112031559977682,"Type":"A"},{"Weight":[-0.75690719986190413,-0.8566301161687031,-1.439435324021352,1.2357882276344059,0.51656413602948392,-1.7188539969356982,-0.39066345355970022,0.026630175312343241,0.49909827788318417,1.2305179234736219,-0.3553927052325534,1.0721170590594955,0.52201645510874306,0.01939795539686362,-0.91634397679733248,0.16176614033140535,1.8666565007840545,0.34944430004080956,0.45407045327384343],"Bias":0.61737011215527082,"Output":1.0,"Threshold":-0.75625389383931352,"Type":"O"},{"Weight":[1.8383846244953501,0.18947769669558751,-1.4052079484822264,-1.1611770671611543,0.40524751432484374,-0.27660153167164014,-0.3897931695751814,-1.1191260130699379,0.54001756223850761,-1.3154225621487934,0.31236968762817308,0.960592032857515,0.1341774827494181,-1.7814238144929631,1.5843197155437989,-1.6195392504425437,-1.1713540736452464,1.9730477053546567,-1.7311859055101806],"Bias":0.77071559325359551,"Output":0.0,"Threshold":1.1637453780893681,"Type":"GT"},{"Weight":[-0.921267901994442,-1.2162495600484542,-0.7536299409128866,-0.61680557700656613,-1.1169116288036629,0.28901770072477762,0.6204541039748368,-1.9810158274979404,0.84547410479070351,1.298346805990835,1.4482175425850867,-0.071121091987528473,-0.92363266174734227,-0.75798750517796143,-1.3079319742079507,-0.084114966021904158,-1.0502437618795053,-0.51220948430113933,-0.79240026367707173],"Bias":0.61625130660424532,"Output":0.0,"Threshold":0.48674117796436933,"Type":"GT"},{"Weight":[-0.57716505908275262,0.28566225811869933,0.52559500805828485,-0.20918203539176936,-0.10921726500957386,0.6466967969418953,0.44035893978567753,1.4298401323286072,-0.590947564035164,0.61389732307208345,-1.6009778378535891,0.57806143497845031,-0.17758059894451544,-0.83793272955246856,0.75362580013630254,-0.13255075744006351,-1.6692526180619618,0.78170210647134053,-1.0889294720668947],"Bias":0.60533405952258468,"Output":0.0,"Threshold":1.8266450482544698,"Type":"A"},{"Weight":[0.093368965244557955,-0.035811911353753834,-0.24729193758559043,-0.24711995129794145,0.88465869630903882,0.83264239892952263,-1.06466592432217,-1.0723098564822271,0.535726034331939,-1.4389817637572913,0.7831945283260171,-1.6376490963798245,-0.42913157978520333,0.26427833386997951,-0.07437691561615889,-0.47402032405325228,0.9224375130945992,1.6105406822685806,-1.0809978149277146],"Bias":0.29992540567178533,"Output":0.0,"Threshold":-1.0653533847375556,"Type":"A"},{"Weight":[0.031337067266617447,0.26522458822709716,0.97239751693438614,1.614718567400574,-0.49515894381103975,0.0736115100204997,0.32170410096724711,0.74063727707398952,0.0052082045028023494,-0.45670560861784293,-0.43647228108554725,-0.96275954272726527,0.5012077589059285,1.0692094702130226,-1.8437918647396341,0.6973420806216738,-1.5651479761885239,-0.95956488138044471,-0.10181702585044183],"Bias":0.88900918694632558,"Output":6.883798380097617,"Threshold":0.20038183485175565,"Type":"GT"},{"Weight":[-1.6661604250158,1.0353175657965792,1.5866700967711722,-0.51389310641126329,-1.9463075734424906,-1.6040400451068022,1.1303276732239533,1.6758120356480646,0.88505577616628983,-1.4470613968777757,0.10479727671705064,0.50107901915958108,0.6331803065879178,-0.55279416967911676,1.114736078826122,-0.20771629466103225,0.42684724667428409,-0.39227279503469953,-1.7851560282451828],"Bias":0.061457154835321548,"Output":1.0,"Threshold":-0.45270839424464304,"Type":"A"},{"Weight":[0.94001158091240189,0.31778292093322735,0.40475401021761526,-0.657849510113755,-0.44207011016109382,-0.21683179410958275,1.6702755092039125,-1.1173850908490759,-1.1358177751003846,1.2887375649477995,-0.53303726065579682,-1.5575438940699882,0.46275334780232691,1.3775397219590562,0.62021669308665039,-1.5741488363473439,-0.89178356849205853,0.83089420517482537,-0.73718443454112126],"Bias":0.690080550005697,"Output":0.0,"Threshold":-0.60463891672186509,"Type":"A"},{"Weight":[0.41858466437730874,0.67456498727676928,-0.72847756777353467,0.788968453783993,0.75120707473308179,0.7556136064257537,0.022585616457548641,0.31331353417628316,-0.029259008369063588,-1.6225874291838087,-1.8741853571842357,-0.71566189789011225,-0.49925925535043686,1.0620512212915583,-0.16135444033954027,-0.62083556811364171,1.8329087513652205,-0.85448113798838154,1.5538980506204059],"Bias":0.89070004472890862,"Output":0.0,"Threshold":-0.85347157849626232,"Type":"A"},{"Weight":[0.89661192446789317,-1.586576928192087,1.8124017658701175,-0.10716598905025332,1.2741351815751449,0.89089489443734993,-0.10719260921803889,-1.2607628559976642,-1.8253587204149733,0.3149687211564598,0.40049682017438892,-0.59460767882450383,1.7317404708507191,-1.5101094001485542,-0.51105833112311472,0.85364085819043256,0.71359744328707342,-1.1848076354641504,0.68641580971031824],"Bias":0.24045881127959992,"Output":0.0,"Threshold":0.085488422813587039,"Type":"A"},{"Weight":[1.1247399664133506,0.023004322323484594,0.37260284524997811,-0.5499623737064947,0.43656888658622239,-0.17341535825907029,-0.5519593276791086,-0.30203980314640311,0.54476618326491044,1.3758347888364617,1.2484245176885391,-0.064207680909816545,-1.0871853786926649,1.727278517432175,0.30279663504464388,-0.61711030092188635,1.0069337706113857,-1.0871888150401361,0.011273026742769324],"Bias":0.78552519694693623,"Output":0.0,"Threshold":-1.8910340517251911,"Type":"O"},{"Weight":[-0.55634568631362424,0.34189351338050034,-0.88928556192633024,-0.27529160598073688,0.1623198500193283,-0.7156754473530107,-0.98844701173410143,-0.032879260151125106,-0.970015924024345,-0.11979387892400548,0.069403441771586985,-0.049899522238364247,-0.70418607627702234,0.22746239982776459,1.4453231596598974,-0.657551960394509,0.59575452232732118,-1.4414782633266776,1.7110608442272342],"Bias":0.86852860933566867,"Output":0.0,"Threshold":1.1736573610332131,"Type":"GT"},{"Weight":[0.34260369760105547,1.1338984487270465,0.015053231664939909,0.05574195368948498,0.70703781149677836,-0.7182151307331206,-0.34225166552572117,-0.4537202972936073,-0.058514040922054145,1.3761191979870757,-0.23446197405432445,-0.8057117605608477,0.768965115081037,-0.16229365517492109,0.039088449852000093,-0.25822500337763926,-1.4936644004162702,1.1012741481425585,0.92175435224629654],"Bias":0.638182525969341,"Output":0.0,"Threshold":0.027527992626432241,"Type":"GT"}],"output":null,"numNeurons":24},{"neurons":[{"Weight":[0.6775885385822451,-0.41010861443826396,-0.29812397774789079,1.6947577985444839,0.14742751007314187,-1.9051269664918664,-0.78628240189396448,0.079863605243090441,-0.63616049598723667,1.170236644880025,-0.063860923081571652,-0.49173481878439662,0.8918793561248477,0.41888219814288058,0.5507652957403405,-0.4338657962781684,1.06002643559303,0.93217400225446267,-1.1377576827713092,-0.921852452178417,-1.3718912638418335,-0.53535186663984868,0.19904682142615648,0.673174926393281],"Bias":0.66950032704952189,"Output":0.0,"Threshold":0.60984980436500624,"Type":"A"},{"Weight":[-1.6526717430225908,0.24566199083144874,-0.91402271613638253,0.11237946437316904,1.1939954847069436,1.8851885403903146,0.67953486306571165,1.7007690554953969,-1.7898623029654204,1.847933471132039,0.4156228962427112,-0.9203483661032974,1.6823925184302289,0.35288322543244838,0.088478785631469825,1.9744389224678458,1.84108696457282,-0.86696383682636724,-0.0701950136898994,-0.67899157115211328,-0.88447349652856277,1.7005517323038315,-0.71659965380867918,1.95498999578645],"Bias":0.40770460870475722,"Output":0.0,"Threshold":1.9384327325683239,"Type":"A"},{"Weight":[1.8600166364852417,0.013525668532284332,-0.14730516921137693,0.3959995794091371,-0.24880630255155567,-0.053383530142429914,-0.5398515921737308,0.69777740384348552,1.1688934877369988,-1.2991961200252158,-0.91539780675219262,0.9534853989973131,-0.65506657522873324,-0.17019552326304632,-0.27642902247692236,-1.4191266016192392,1.1464240949526077,0.70678850575666319,1.4056090896043969,-0.534076524215786,-1.460922293113974,-1.4028551538488152,0.056122282458759165,-0.36384320997812003],"Bias":0.105503000833794,"Output":22.350406006368708,"Threshold":1.8457838296172135,"Type":"GT"},{"Weight":[0.086400235228426853,-0.39907186776356385,0.21109245773921365,0.699838222330361,-0.013508220209511146,-0.37796383554952384,-0.468558891894556,-0.16645997677299196,-0.043172382304059564,1.2896816801697395,0.61144991713177876,-0.21979493797747179,0.83805237138320343,-0.75429166050362006,-1.337375813786581,1.5671688185851878,-0.38788970857294736,-1.4362137855199229,0.7265938831151435,-0.37770182005022734,-0.682610431843838,0.95096017185177661,0.4375477786816413,-1.6014837564907427],"Bias":0.93006219245961974,"Output":1.0,"Threshold":-0.22240890107229761,"Type":"O"},{"Weight":[-0.014893056220557976,-0.40340903721384658,-0.648569790017125,-1.0232678721767234,-0.73760238789841637,-1.7078657018523038,-1.0346785814197168,-1.094119094774896,0.0041967853050198373,-0.26766403008609257,-1.0688375044003302,0.51821560273795186,0.23545832062568908,1.6078390440008783,-0.31690243458306389,0.10897351038128769,-0.0213975561882358,-1.1880547456387687,0.15073543514624965,1.5987247375765463,-0.94993811983146625,1.0060618328890119,-0.87457774899647456,1.2136587776307288],"Bias":0.16148427089745376,"Output":0.0,"Threshold":-0.33327896070353646,"Type":"O"},{"Weight":[0.00655094627596009,-0.28621031045032258,-0.41875604652741738,1.3454617072574151,-0.17700344600109544,-1.7907969359265628,0.17177521483240424,-0.53481485655431726,-0.11453170427797899,1.6964111494349368,0.82218634841134142,0.47143787074435384,-1.0311984471190714,0.34101916888776196,-0.27486193844809281,-0.03593467298414782,-0.31052362595709215,0.77930296900649676,-1.5840465947212867,0.82316581058463356,0.17003163889517614,1.3458907359027728,0.84917465357537125,-0.910534254699263],"Bias":0.0226384834491827,"Output":16.826951686295153,"Threshold":-1.5560062804985821,"Type":"GT"},{"Weight":[-1.473278952517211,-0.95517003115041654,-0.22585886028868102,-0.49560486397035652,1.7528436126899178,-0.0072769215364367756,1.4819719323338809,0.78884715175435294,0.887147757637849,0.41141616246263318,0.9898176575032146,0.86813923850103247,0.91878865608889093,-0.19356949648054767,-0.79368995260153419,-0.22362047723663059,-1.3174149318679305,-0.012516568478902923,1.2144385982372046,-0.12546439567835277,-0.589803786761574,-0.50702089560545094,-0.015531499877353805,1.9509257469097738],"Bias":0.5468791057574,"Output":0.0,"Threshold":1.8347368705248166,"Type":"GT"},{"Weight":[-0.34537993501074615,0.058482532416694877,-1.7709423209405235,1.1186610754200541,-0.42077537692188072,-0.59617859152899055,0.6333804887874892,-0.3591315901647934,-0.69582174471384917,-1.016840882607196,-1.0317898173964535,0.2385093713547729,-1.6228203436466029,-0.26278303547910115,-0.575014301377821,1.7592049463462107,1.8194908219480377,-0.054262526660552091,0.94271304653254362,1.3449692974542127,-0.70864821195830507,0.16247842375304478,-0.49673125916008432,1.7325242821744293],"Bias":0.2031772569535194,"Output":0.0,"Threshold":0.089745032642849054,"Type":"A"},{"Weight":[1.7873735045024071,-0.12616914726149714,1.6106302326594619,-0.52911420097999007,-0.62588291178731392,1.3096967913721209,0.27735695896081491,0.33953885284230978,-1.9441702849903007,1.6555767001842972,-0.41739732884680736,-0.50555617665199382,0.51893186500246236,0.22552074968140617,1.3299816564330746,-0.39408859163247456,-0.4229146830844297,-0.15437637835479179,0.55768788631897781,1.7675283457001338,-1.9158888458813954,-0.30755873690711266,-1.2836240210028476,-0.267508497935491],"Bias":0.47769175596893382,"Output":1.0,"Threshold":-1.591378319818237,"Type":"O"},{"Weight":[-0.6360340421234385,1.400129640195579,0.65186249326302792,-0.47350409160065654,0.12463927041955275,-0.80259450676732647,0.42093794416679897,1.7535776289895071,-0.037415969472164856,1.3460822164017605,1.5740636809550055,0.27944292234230933,-1.8620741757853303,-0.7198873854072938,-1.104010678410535,0.38640367909632789,-0.91702458904054307,-0.34222254266134589,0.03626073202298187,-0.095301226757141366,-1.4455955305349062,-0.0051206492740874104,0.068850536576381738,0.37308216135626748],"Bias":0.82999000573995985,"Output":0.0,"Threshold":-0.13763703132869531,"Type":"GT"},{"Weight":[1.6680938115660537,-0.32098008654824461,0.10679097629934128,1.4635157202589606,0.48397195082342792,1.1966133141874398,-1.0917706391546624,-0.49216992223227046,-0.48037438489514128,-0.87821035221135735,0.17283108173477513,-0.354471594725955,-1.1613003086118496,-0.46416306796677564,1.6493356071018388,1.0010406133356198,-0.54189608323708927,0.29433168391433151,-1.2514994005912448,0.12229550860012317,-0.4109649324840704,1.8778169080046085,-0.964420031273933,-0.44402524219307538],"Bias":0.40770460870475722,"Output":0.0,"Threshold":0.73761931841150818,"Type":"A"}],"output":null,"numNeurons":11},{"neurons":[{"Weight":[-1.9330817665593147,-1.9113312307332322,0.8752740404453474,-1.5335902550879821,-1.1338017038692727,0.33076771922910941,0.0803565681354872,0.900659226606092,0.39079615771341869,-0.054675654751912578,0.45426575786617285],"Bias":0.75260470609767582,"Output":0.0,"Threshold":0.39897982305799606,"Type":"GT"},{"Weight":[-0.30711345388885269,-1.5394225240159161,-0.068204486912618989,-1.1212424445530598,-0.715117313424471,-0.36122819704992137,-0.6371358134985835,0.17558124608253592,-0.41754684616697341,0.028069427249985512,-0.063551262050658086],"Bias":0.38351496047504013,"Output":0.0,"Threshold":-0.052319250661446381,"Type":"GT"},{"Weight":[0.065812262737104887,0.225940982916365,-1.8072870996814627,-1.5632753528483563,-0.25637184002267754,-1.4062548537767747,0.12603620216436373,-0.82422342562313355,0.91901864666446054,-1.5517241393922476,0.928009490448986],"Bias":0.7650886065164062,"Output":0.0,"Threshold":0.37016822321813958,"Type":"GT"},{"Weight":[0.6421761413301228,-1.1109434373727736,-0.23491836350174544,0.21901214226103027,0.21057756860301735,-0.76506325515921381,-1.6198136329743142,0.16656077940322511,-0.011496900095618434,-0.560196909383031,0.61100082407286416],"Bias":0.27566547192431312,"Output":0.0,"Threshold":0.50056961900581132,"Type":"O"},{"Weight":[0.98698082705353407,-0.75112073996622142,-0.25243744636941123,0.17428050725105243,0.5586888541275119,1.771458873418839,-0.69710586531884322,-0.42924687286338148,-0.59259295398024525,0.29372527929662029,0.028309741267089156],"Bias":0.81972391522476629,"Output":0.0,"Threshold":0.45936243257455645,"Type":"A"},{"Weight":[0.31271033841777163,-1.3990789942439084,-0.25930274290000221,-0.31301399521204376,1.9402050636430293,0.38367681688800315,-1.4497562821254864,0.63551578281238486,-0.96926317688509034,0.41251486093388623,-0.52527396125964532],"Bias":0.60088783390861367,"Output":0.0,"Threshold":0.70885582766908017,"Type":"GT"},{"Weight":[0.31215081168904463,-1.8371347430335054,0.38120033330339975,1.2590532858199688,-0.13051827164856644,-1.1974738385516561,-0.3860898662293748,0.95730991612994565,-1.7486599179677014,-0.94022687195810806,-0.064657896787234492],"Bias":0.3561715545859987,"Output":0.0,"Threshold":-0.33714502041095173,"Type":"A"},{"Weight":[0.59341150829261713,0.94278376500251859,-1.3811362010338977,0.1786948383141786,-1.1315354835854543,0.57470935330479833,-1.2413827396190644,0.43119203785024229,1.4368518197149278,0.85032307675589025,-0.45137303231522585],"Bias":0.88473324914683271,"Output":1.0,"Threshold":-1.1708918470753784,"Type":"O"},{"Weight":[-1.3381977134096426,-0.77046541393290524,0.053835255118941494,1.8535819500730522,1.3868356847142969,-0.53470195947899568,0.90766741284526287,0.01805729047304816,1.2834298225508209,0.11905859445774514,-1.9836501628084342],"Bias":0.96523012220331816,"Output":0.0,"Threshold":-0.72652808517521628,"Type":"A"},{"Weight":[0.20402449658327937,-0.076285842842221063,-0.34019415934579178,0.20958039092811784,-1.1951748762257282,-1.2844261654114473,-0.38953058067221691,1.2929085704508627,-0.022223343151725583,-0.53582004855192267,1.1503377506226153],"Bias":0.49406020133479506,"Output":0.0,"Threshold":0.21441469956860632,"Type":"A"},{"Weight":[-0.53235062143409184,0.74492304387731612,0.44279370139948721,-0.15793919139911389,-0.13374100166081493,-1.8831155951521899,-0.37344019504889858,-0.5431163648809848,-0.094236176242929154,-0.40240894818092182,-0.080304278134568308],"Bias":0.69176572500344635,"Output":0.0,"Threshold":0.82634985951071127,"Type":"A"},{"Weight":[0.10084064961450212,-1.4239115581959074,0.76150249852425,0.11038878309092887,0.40745695769202739,1.310759072802383,-0.13692933234243165,-0.30088940928731556,0.92769273594147206,0.22597196670876452,0.29623281858918865],"Bias":0.813980366016729,"Output":0.0,"Threshold":1.6520342085985624,"Type":"A"},{"Weight":[0.21247600593486613,-0.79464525533590713,-1.305581492979816,1.1679781485199827,-0.01379979262771075,0.1405829114155297,-0.88944576070152492,-1.0845484263657352,0.030163786155248035,-0.72529330045231311,0.48415552681354951],"Bias":0.52338124102604633,"Output":1.0,"Threshold":-0.26315787470115248,"Type":"O"},{"Weight":[-0.63882003195528858,0.94199917881842676,-0.36220887879012553,1.061920935782567,0.97840734826326725,0.15366601112935041,0.62386712367826469,-0.61142014647434473,1.1999552637338429,-0.44883096332141714,-0.297690499712569],"Bias":0.46462684239476304,"Output":1.0,"Threshold":-1.1433732617382768,"Type":"O"},{"Weight":[0.023960848350059627,0.48318968153707204,-0.54855463446516284,0.0155010966772684,-0.26628156670661718,0.54208059929582786,0.22089330024127518,-0.80958919357954962,1.0407359779536427,-1.4603141152580799,1.9980001449575648],"Bias":0.64738347784028549,"Output":0.0,"Threshold":0.63067300460798348,"Type":"GT"},{"Weight":[-0.37519984430409953,-1.6365596277809513,0.5694283631487882,-1.129733128067913,1.4883713864201549,0.13965350861644998,0.067919557130858135,-1.1819062395148123,-0.85684962144906152,-0.853525579263992,-0.88297278754551556],"Bias":0.088739893440501719,"Output":0.0,"Threshold":0.68352988114744884,"Type":"O"},{"Weight":[-0.47854402031681686,0.59036563504038631,0.4031142726147614,0.504131062656702,-1.4762131755595158,-1.9132010079516102,-0.5987994976336134,0.095391605792283812,-0.5790439551387595,-1.1572980504284138,1.4253411464614143],"Bias":0.74226429161721108,"Output":1.0,"Threshold":0.66600282218586782,"Type":"O"},{"Weight":[0.76111300697601991,0.31736130002763163,-1.4060865507489473,-0.474804645741733,-0.56504201449688618,-1.9586381502256907,-0.16281307123732419,-0.89777898821890867,0.508801799620875,0.19333169638683637,0.88110791909559993],"Bias":0.62249820289318358,"Output":0.0,"Threshold":0.062911839253693813,"Type":"A"}],"output":null,"numNeurons":18},{"neurons":[{"Weight":[-1.3516000319978221,-1.4272604488894625,-0.26074422628653426,-0.810184813263563,-1.0767996407005933,-0.59053362840345769,0.17554000493862665,0.60639453063411031,0.22823999890248059,1.668302504191316,0.2984972267812106,0.024317416199164978,0.0070100380140405427,1.0245358082580083,1.0745505664728352,-0.28913100822322568,1.6118685508202151,0.43237352556187159],"Bias":0.69579114657630736,"Output":0.0,"Threshold":-0.1649444215767758,"Type":"A"},{"Weight":[0.17246289873610393,-0.89634421835483236,1.3381129248128798,0.49680950157777848,1.2007519487295078,-1.73815073060717,0.11853341111845014,0.36025638022006323,0.83625475169916386,0.61075346852222134,1.0027272074961697,0.47089055481873965,-0.010223910450108287,-1.3535303433209334,-0.072081974508279023,-0.45024756642535679,1.676187975181354,-0.0964109236823445],"Bias":0.063435716118400778,"Output":0.0,"Threshold":-0.080692900382304922,"Type":"O"},{"Weight":[-1.4487431102659287,0.30791099535204036,-1.2564596679324562,1.7732169943736946,-0.34314379391406846,-1.1087487482506542,-0.99288227175962285,-0.28700497480435527,1.4912791526835783,-0.32089624475729472,-0.2239477136051039,-1.5584830937713772,-0.259072340563439,0.79835338229236807,-0.086267376358745262,-0.50512570445664484,-1.8655691700361525,-0.9857819084943189],"Bias":0.90748849553404776,"Output":0.0,"Threshold":0.15071935679331383,"Type":"O"},{"Weight":[1.0625607497350131,-0.37075132241973252,0.044800865461127735,-1.0934893261145287,1.0057621519108126,0.30327550615336518,1.5894844772245196,1.4862518769159223,0.54073066382702928,-0.2256325895155204,-0.11000140361768061,-0.81446601687051823,0.89933359012908021,-0.58184572457852712,1.0002346611582833,-0.43312228584341805,0.39714861353726538,1.6782246931791187],"Bias":0.56290704783187573,"Output":0.0,"Threshold":-0.60389334829705454,"Type":"A"},{"Weight":[0.10035278978774004,-0.803160793521982,0.36887672281306072,0.8650662092794974,1.5593823788498447,0.65894812096792643,0.65499019932699865,1.082857120355059,-1.1740550264595333,-1.5208312885467108,0.13650292606861467,-0.020016955221079658,1.5860286800125749,-1.1979581832241406,-0.38874065218900355,-0.61740090819886007,1.53295542277999,0.43052203693917113],"Bias":0.61176258068846656,"Output":0.0,"Threshold":0.91619710014955924,"Type":"A"},{"Weight":[-1.3820494727147974,-1.3109226614753355,-1.7867817058166404,-1.2017989366789341,0.28645548959563283,-1.8307972996639075,-1.2184130955573234,1.3252652321594138,-1.8963546659314794,1.758691703788327,0.32355253879146306,-1.4708626491347618,1.14470310469377,0.10976982773736577,0.22937239065271459,-0.21417488214288596,-1.0743083372126838,0.10797591931558015],"Bias":0.3124490209447448,"Output":1.0,"Threshold":-0.42144400715895181,"Type":"O"},{"Weight":[0.10121515491102606,0.38087219390127436,-0.30632541668895874,1.8137317634251584,0.094282207763419626,-0.83958627375056327,-0.84467333577092418,-1.2081081266974718,0.47802653092799074,0.5602492432798023,0.704673960201756,-1.3610646338428207,-1.9747707061352071,-0.42377528847371004,0.54426931280057445,-0.94678679804633692,-1.5029156801770047,1.6847175488642963],"Bias":0.34420749747390278,"Output":0.0,"Threshold":1.9674615412798997,"Type":"A"},{"Weight":[-0.0869368855314967,-0.3003420567490821,1.151198373712226,-0.68609896939531856,-0.15537741321855103,1.0837738882209052,1.1259234897447392,0.50644799997399,0.8358441027048249,0.77448892955411652,0.34770478684137035,-1.7876050042862095,0.45001011968125137,-0.25327468768380346,0.86456994799178566,1.1331551015793369,-0.3528683946248462,0.25649419206031321],"Bias":0.94577990702622561,"Output":1.0,"Threshold":-0.84200390746910314,"Type":"O"},{"Weight":[0.092752399257269025,-0.60658863121950468,0.298098842752212,-1.3306864522540414,0.18370661427439483,1.732126677284076,-1.8319772015474631,0.97084504690526274,-1.1640618122946758,0.35881226619650253,0.012272740719966979,0.53641654602201494,-1.4265594945412872,1.1970079090432302,1.3436279200686272,0.89317968110236334,1.3175479356746878,1.6783654762796898],"Bias":0.51853825734860182,"Output":0.0,"Threshold":-0.86548162478277535,"Type":"A"},{"Weight":[0.043329996543829935,-1.5533683446950133,0.81428038459936181,0.51430662838477037,-0.66895642814643519,1.3619144779452657,0.80574609283625431,0.83548060505451394,0.1891092214799063,1.0505492720057021,-1.4412529646378256,1.1430971171441939,-1.1500558849191553,-1.0366010226014075,0.6176284349605573,-0.37225397497658747,0.077967807877866613,0.89577179536957852],"Bias":0.035119602473042723,"Output":0.0,"Threshold":0.010480994363539331,"Type":"A"},{"Weight":[-1.7784745766681036,1.38073527784121,1.5583550667196304,1.7541970069306889,0.91583705642998092,-0.91048055463958555,1.3948250540508074,0.024831322033345593,-0.691212757346785,-0.21840418233461878,0.31403061197559856,-0.66423994054283941,-1.8461363519756757,-0.13761176082194404,-0.48543966956689943,-1.6124938231019741,-0.054907855224985536,1.3495014948884498],"Bias":0.69579114657630736,"Output":0.0,"Threshold":-1.3940048252204456,"Type":"A"},{"Weight":[-0.0079723042473067163,1.53793727771283,1.1160421865637669,-0.83846752477738429,0.31659123223116215,-0.49054484022340977,-0.14125119389093072,-1.1876705545874642,-0.23653882473546029,0.868332484210065,0.49943351608803882,1.7840198370553644,-0.0409358749356753,-1.869767691879425,-1.0365002812056336,0.29916145014537587,-0.032329636291754421,-0.97840828214697928],"Bias":0.088700522156991313,"Output":0.0,"Threshold":-1.4292315446907802,"Type":"A"},{"Weight":[-1.1157215408231873,0.94596804070564344,1.4610986390435596,-0.14373689104976928,-0.49429031507777532,-0.55888348394196175,-0.80975568984158142,0.31442311141380247,-1.0612411178002326,0.098220987018329847,0.58847955734863855,-1.7694588190733729,-0.95034022394117912,1.0349878384894633,-0.3440531829111525,-1.6510397678478805,0.57001762642525955,1.7113830855634915],"Bias":0.23316022303277167,"Output":0.0,"Threshold":1.6393873615373797,"Type":"O"},{"Weight":[0.31079380735093443,-0.90563933500351346,-1.1027145865851615,-0.10175064827862707,-0.64601943875710455,0.015947210609888351,-0.040009782668207761,0.523818967176517,-1.2884432260358909,-0.50091343371647579,-0.83204289285095545,0.47785784605790749,-0.21453038240528222,0.061904912843324666,-0.93786381495027515,0.61436922236071689,1.823497714392607,0.40482279770300833],"Bias":0.0022485596138278763,"Output":29.975819025192894,"Threshold":-1.4072317590039372,"Type":"GT"}],"output":null,"numNeurons":14},{"neurons":[{"Weight":[0.93247446065418149,-1.6030315047144106,0.54858598231737776,-0.98164967074135767,-0.38889954722900844,-1.372298375411098,0.49437816370948129,1.692443398615552,0.38636213171577527,-0.54106604903520361,1.46324288261274,1.9695240855075067,0.74606944469086356,1.8983252923462191],"Bias":0.70206154263674359,"Output":0.0,"Threshold":1.4805901010896032,"Type":"A"},{"Weight":[0.41917992484251965,0.370295240716215,-0.83984517065800968,0.016836299568804058,-0.57545332992697884,-0.23535776149265358,0.94860349919116294,-0.19097802517515516,-0.677110038081701,-1.6259250844018185,-1.7500964066712634,-0.6949656921170605,1.4666056414561373,-1.1769180582728787],"Bias":0.53672891368005837,"Output":0.0,"Threshold":-1.2270605337000733,"Type":"GT"},{"Weight":[0.95858806986761647,-0.33698377098747695,-1.36043162893524,0.83464390519233134,0.6550314029003641,-1.6339359263116196,-0.539663058956928,0.047131236013348066,0.78302093259199568,0.13570400029291463,0.31346221701868904,-0.43517522717484969,-0.098776756831806423,-0.6528180775478567],"Bias":0.89828239423142853,"Output":0.0,"Threshold":-0.20570735156918282,"Type":"GT"},{"Weight":[1.7852634116007309,-0.94475357837265062,-1.6771096604303968,0.75825696194463266,-1.9131971560014398,-0.079834472425204916,1.1391104623391808,-1.2295433620361349,-0.72419440686898051,0.13281599484980861,-0.64191443968653417,0.73928034433130208,-0.79007200095340235,-1.428537843017158],"Bias":0.68788185637840393,"Output":0.0,"Threshold":-0.7577314035770164,"Type":"O"},{"Weight":[-0.024052745673829978,-0.564631935661138,-0.607665346064209,0.71470911819590688,-0.071934307696965613,-1.0302649499058094,1.0495497598543531,0.33711820716835472,-0.526911768609151,-1.3855177645504093,-1.8822662550407769,-0.47482929819954067,0.0943625756047492,1.4852637534426822],"Bias":0.28541533382861656,"Output":0.0,"Threshold":-1.1422309731795597,"Type":"A"},{"Weight":[-1.3836392571142127,-1.7834967466925722,-0.92389458367782384,-0.028682530870979051,-1.2699231483367846,-0.42264170498710207,0.50909097632816591,-0.47757268626129856,1.6947385853597607,-0.79533045869103181,0.5144727707442236,-1.1818007319207773,1.2337810766109176,-1.794185755678539],"Bias":0.643598121890611,"Output":1.0,"Threshold":-0.58432441325128281,"Type":"O"},{"Weight":[-0.6761845442186516,-0.81875006520131133,1.3002849348356413,-0.40726179927925665,-0.25729203143030954,1.4945372340709611,0.48889568855003246,-1.2912494164385131,0.55603579764027966,0.17671311375531973,0.35459057537586913,-0.39985965018852609,-1.8458223491189174,1.1854637663918377],"Bias":0.60442135790568841,"Output":-0.95643795413497712,"Threshold":-1.7989268998144787,"Type":"GT"},{"Weight":[0.49996751849538068,-0.79981906784332291,-1.343416049770739,0.78550406488846258,-1.0754240244046898,-0.34808860486568027,-1.0946752853201121,1.6857968287941985,-0.095488169100362785,-0.065001598589588649,0.48253968566774375,1.1514199921635071,0.4204087300961411,-0.21181283040068427],"Bias":0.037182244955181257,"Output":0.80348407352928575,"Threshold":0.62916011299433183,"Type":"GT"},{"Weight":[0.60654485998979979,0.29034063489657869,0.65936728504456932,-1.1794680362471697,1.0146834268303047,-0.53777912936069971,1.4365501827264906,0.29923261141012236,1.4912760693073626,-0.36360772995446244,-0.869139339248249,-0.8212215866046475,-1.9419095553187233,0.60390425780969892],"Bias":0.32697224830136273,"Output":1.0,"Threshold":0.61045187647009813,"Type":"O"},{"Weight":[0.01221536845537613,0.13955696958096564,-0.87951402526203859,0.09319658861178759,-0.23791764268554627,-0.39186897520961511,-1.3432696849774894,-0.91921624504460742,-0.83412646447966177,-0.45464268302955774,-0.080169408619482629,0.03230784043311502,0.13516554103007805,-1.9560907222126103],"Bias":0.81770383464996876,"Output":0.0,"Threshold":-1.7821265234528698,"Type":"GT"},{"Weight":[1.9074407945887377,0.53732716734804087,-0.37551386951259991,-1.0354644167402127,0.45851312133414357,1.8917624484243629,0.70175546044565529,0.98625061427534133,-0.05468036888850869,0.27513889143017067,-0.20779692344730577,0.793692167257514,1.2303766064487287,0.56641264565587623],"Bias":0.53672891368005837,"Output":0.0,"Threshold":0.27999192518414562,"Type":"GT"},{"Weight":[0.44831881041094607,-1.24509605450793,-0.50944661483375664,-0.25285173542807615,0.40582671175050844,0.54087152077857015,-0.040986177530598966,-0.57112094320874707,0.32901126580732476,-0.66803806011483524,-0.22225704333850049,0.79495355617019992,0.37055147735893312,-1.1535999869944527],"Bias":0.13366991986225821,"Output":1.0,"Threshold":0.40696589202013134,"Type":"O"},{"Weight":[1.1886058725363604,-0.75786280946706563,-0.8212626943509227,-0.31400045487750339,-0.33440558907315387,0.32668020312054091,1.5701435560221522,0.39646748858921588,0.15626858135511551,-0.77296508331688352,1.3802530930285588,1.9892169572362755,-1.4969456361126832,0.94133327107007281],"Bias":0.67024242536641765,"Output":0.3065359343817784,"Threshold":-1.7019845478711577,"Type":"GT"}],"output":null,"numNeurons":13},{"neurons":[{"Weight":[0.64189711149870288,-0.38523527619439879,-0.42331301859734244,-0.59413392729784076,-0.54502921437147511,1.1701654319746402,1.1374470010108535,-1.0595874705163704,-0.16629512144312958,0.45509123713237087,0.91327732768295222,-0.35047317219454488,0.73399968432732554],"Bias":0.6424285709589852,"Output":1.0,"Threshold":-0.78211226048046356,"Type":"O"},{"Weight":[-0.51696794876687591,-0.75810569466934807,0.13997137087395961,0.25126879953372683,-1.8494904729768125,0.534640466344841,-0.27471975529320525,-0.41269612249236659,-1.4370520857335309,0.80400743186660462,0.51339416881715616,-0.10261299570678406,0.53323275206561471],"Bias":0.70833482253753344,"Output":0.0,"Threshold":1.6303890420265443,"Type":"O"},{"Weight":[0.2461154801985786,1.3938289446029015,-0.055429848635303647,-0.99321715254020737,-1.5805021075441046,-1.444288562724501,-0.60931624779911542,-1.9947260506426572,-0.78678480665515393,-0.98121245457730844,-1.2329751677964698,0.909186332015,1.7323968334740014],"Bias":0.3514985313413192,"Output":1.0,"Threshold":-1.6411562094656547,"Type":"O"},{"Weight":[0.79592748675305736,-0.25862907909724342,1.3721655935719799,-0.2624879285052828,1.6490466425423729,-1.4771160844141227,0.14790037188115557,0.18976755169675097,0.16134326633128504,-0.890366708343088,-0.027370269888718768,1.9395439531372598,-1.2120466154124805],"Bias":0.66925700505695163,"Output":0.0,"Threshold":0.93462322788993957,"Type":"A"},{"Weight":[-0.16350741389370871,1.221652755005822,-0.21711417204566019,-0.6017919502229393,1.7212469067174228,-0.10105274471037687,0.5250336113071179,-0.69392736078888517,0.047103861485190551,0.010917161767192429,-0.93061601053020726,-0.068714121550494084,1.1239951975289708],"Bias":0.39333814633699982,"Output":0.0,"Threshold":-0.41873164378047534,"Type":"A"},{"Weight":[-0.97988030825736017,1.0305960658148845,0.67479500625040145,0.7685624905075239,0.22188021773909228,0.2337144595727858,0.34179070811569245,-0.622223426877625,0.78416364583380693,0.89281989582479948,1.2345481343728251,0.47977920529014867,-1.0699634491791779],"Bias":0.57319592944029529,"Output":0.0,"Threshold":0.23814631916496287,"Type":"O"},{"Weight":[-0.11866837652338136,-1.4375011974188969,-0.89592811856229237,-1.1100675431592704,-1.9169323853761575,-0.48885241266752233,-1.1798262856464783,-1.0139551530657127,-1.9993878602978716,-0.23533785354128944,0.8293308268554187,0.35561761555989158,-0.54538076742686359],"Bias":0.59229475591496783,"Output":0.0,"Threshold":-0.29497186573919454,"Type":"O"},{"Weight":[-0.1742555560424251,-1.4156814101923636,-1.286934226922231,-0.40122954007295397,-0.92937154103659692,-1.2735112175687733,-1.417711520296387,-0.20008869560181358,0.7562698338908469,0.79655638839889154,-0.7601975601912464,-0.40031482717036965,1.3926923152840194],"Bias":0.7367968762930468,"Output":0.0,"Threshold":-0.72343129791479144,"Type":"A"},{"Weight":[-0.38202540990059519,-0.34818276348439164,-0.09968975842915917,0.38441373218558506,0.91931348988754369,-1.002240353730619,1.2135778554778445,0.027713949863200166,0.76447755227073921,1.3967654888503094,-1.6010437624533864,-0.84999382535461043,0.99277354403993745],"Bias":0.041316018459068619,"Output":0.0,"Threshold":0.47569890621849265,"Type":"O"},{"Weight":[0.080217273943227418,0.30710868644859124,-0.44604289831875032,0.61757091182170942,-1.0081051764319908,-0.49622085195557247,1.2395172003840642,1.5472775844611588,1.6466730067723772,-0.20400267569534614,0.79523585540951969,-0.029561192043852547,0.42163072464597923],"Bias":0.6448265088930849,"Output":88.733198578739177,"Threshold":0.81499858797294955,"Type":"GT"},{"Weight":[-0.89769297880013144,-0.038216846030597384,-0.12282935946030982,-0.27308353142490782,0.15287135641689931,0.33549202786868765,-0.39083293005397213,-0.88313398830738565,0.83790135326581139,0.93429043907449938,-0.18361897588250742,-0.13426908106043431,-0.29072342947288288],"Bias":0.91171210301654049,"Output":1.0,"Threshold":1.6777109576751061,"Type":"O"},{"Weight":[0.952152438905161,-0.7453517864214475,1.078619870859487,-0.51095011800212553,1.8531152530820645,-1.8488329145353442,-0.18708521974602954,-1.6706493495361179,-0.79692656909903814,-0.44438545892219317,-0.17984529406756411,-0.33036360718792468,-0.48908269335007409],"Bias":0.29640071992594785,"Output":1.0,"Threshold":-0.09972980349544891,"Type":"O"},{"Weight":[-0.18768702793895109,-0.21152982777521479,0.80600566827040443,0.0473392298665547,1.1274266052653204,0.56535042010496861,1.1820887286132615,0.28012237431487197,-0.31083591017445356,1.1989326250385182,-1.9517418946846117,-0.94061924141860542,1.7582300918913587],"Bias":0.71345016090825675,"Output":0.0,"Threshold":1.1477298220376158,"Type":"GT"},{"Weight":[-1.4198368580172942,1.4109495214237597,-0.075345346564587939,-0.053653511243711094,0.13674598878243505,0.29744906818841077,-1.2738658465789006,-0.78057300615151093,-0.65002411463939314,0.19796621529290759,-1.4034206305646433,-1.0577523629450019,-0.67389828743128954],"Bias":0.41767903553213881,"Output":0.0,"Threshold":0.24721946578809029,"Type":"GT"},{"Weight":[-1.9765742793570154,0.97712524723127736,-0.22014038998974517,-1.1440259922035159,-1.3426537119516422,0.87102436134406558,-0.029228548532924004,0.735750661574188,1.0859489734684811,-1.8717061075715842,0.64550750688295,-1.9678849018960656,0.72600800112169628],"Bias":0.55934480696886069,"Output":1.0,"Threshold":-0.60579453716324383,"Type":"O"}],"output":null,"numNeurons":15},{"neurons":[{"Weight":[1.1850989811053028,-0.3762960025930292,-0.38628058293195466,-1.2888960648742021,-0.19729777900376244,0.36912016680888837,0.40386937298060832,0.68842344643823949,1.5840264668613795,-1.1816243804905677,-0.59669981865000443,0.7988429920742488,1.0439559086430612,-0.57020460002599493,1.1049386761639912],"Bias":0.21932611973924848,"Output":0.0,"Threshold":-0.26669005596390472,"Type":"A"},{"Weight":[-1.5776601990580839,0.26138180110667908,1.3161875694367047,1.7214540111466561,-0.052607595013737463,-0.073702473227727383,0.76404004300201311,-1.1766071706901338,-0.31636775957484164,-0.21419902350832659,-1.9043404142858182,-0.15774623521447531,-0.82824110371444415,0.020222281115233276,1.3474141380373803],"Bias":0.29535821326792155,"Output":0.0,"Threshold":0.41321888177805527,"Type":"GT"},{"Weight":[-0.97892597456412667,-0.14723909001203206,0.35341747645447841,0.43721841947977369,-0.25334887870277689,0.72772570453943952,-0.658341189221638,0.075566219201109452,-1.5786361189459619,1.1141181784282057,-0.19579615598581554,1.4020731949257073,-0.85188987075904843,0.70043507157845208,-0.048110122349164508],"Bias":0.47523692924307515,"Output":3.2051175458022811,"Threshold":-0.631423595655441,"Type":"GT"},{"Weight":[-0.52038024110737258,0.97812662971118769,-0.67714921695978814,0.8469988502780903,-0.38917003683241558,-1.9258260484439442,-1.6874919346009809,-0.9440832487047105,1.0617421662751549,-0.71462576403963651,-0.099542117723981915,-1.9629396647042314,1.0378437731591257,-0.080263818651560515,0.064292131953077369],"Bias":0.56049086272739379,"Output":0.0,"Threshold":-0.820894751148715,"Type":"A"},{"Weight":[0.11710944311558702,0.055100086079811456,-0.54775310333247906,0.52992857272267735,1.1978800442059896,-0.93019187028063088,-0.15137028049275747,-1.4272959106263219,1.6339697146946421,0.46814586335717506,-0.17485654641634607,-0.97058873668806112,-0.0056709805529895352,0.39195079166591207,-1.3992372450415218],"Bias":0.016399070628173217,"Output":0.0,"Threshold":0.32136266134742769,"Type":"A"},{"Weight":[-0.018860171557804728,-0.33716383871490307,0.62164725788014363,0.85980561811467893,0.48782503720737291,0.79752341857996,1.0847400034939589,-1.1477435823286621,-1.8596422063930156,0.36848783603333324,0.1723196243621965,-0.071531404774417884,-0.6553865925666813,1.9684385061117067,-1.7125231883081251],"Bias":0.56733170643790243,"Output":1.0,"Threshold":-0.25615880929686086,"Type":"O"},{"Weight":[0.19138823737920641,-1.0707020215088046,-0.33802158506029356,0.47405112649968417,-0.27926384662622061,-1.527051143127983,-0.039406557585767832,1.4419689730005194,0.3795940682196961,0.084827815222007885,-0.51387208444712318,-1.6343876866783891,-1.8575590587489117,0.81698988644011372,-1.0269753316622985],"Bias":0.19119082586429587,"Output":0.0,"Threshold":-1.462194639938974,"Type":"A"},{"Weight":[-0.90967900864212037,0.43126637601818274,-1.0882190498934217,1.3064181726921436,0.40912112333305228,1.3930088148419788,-1.2802081533149854,0.95477516072318835,0.32990625795438255,0.79342638945875887,0.359646248216576,-0.16028471298529051,0.64282674651724614,-1.45102723056964,0.25084112875668385],"Bias":0.67555169001514737,"Output":0.0,"Threshold":-0.512498104252153,"Type":"A"},{"Weight":[1.017096208947581,1.3194767457058081,-0.67051122403727437,-1.9726329613349554,0.71326096249430482,0.51627778146242631,-0.84292789122226086,-0.83393017148316373,-0.11326360428392124,-0.23803776802913057,1.7184017526304358,0.61496319114927345,-0.41833060347397377,1.7178378685926263,0.93046067535433008],"Bias":0.27416846168887266,"Output":2.1028076456107607,"Threshold":-1.1604329138809968,"Type":"GT"},{"Weight":[0.655761404384748,1.3448669758368594,1.4335252276777872,-0.99055540235273321,-0.37933019927205996,-1.4503543076339898,-1.0101031134883423,0.19068448906330593,-0.096284613058103541,0.087063036433916108,0.72231467637341207,-0.838021935353997,-1.0313416990830291,-0.73160005253483118,0.71666768692278682],"Bias":0.71885102624951447,"Output":0.0,"Threshold":-0.048576232068509029,"Type":"GT"},{"Weight":[-0.440888856742945,-0.8460914422623308,-1.6080257201604664,-0.080866330340908066,-0.019271669918332179,1.0940706446273583,-0.61519435728676353,-1.1179381325458819,0.80113842655026279,1.083720782345031,1.378962730699667,-1.7718544433693655,-0.71990442443401748,0.53023142019763192,0.72813328319607917],"Bias":0.46254455505988767,"Output":0.0,"Threshold":-0.684791425561901,"Type":"A"},{"Weight":[-0.589450779645448,-0.45349149535485389,-0.30326055132470114,-0.21221274836014167,-0.90727767111141122,0.65460632655518425,-0.90855106391352658,0.25909934839424653,-0.88083680009275533,0.49854845330924635,0.22655880470483503,0.2281098442515869,-0.10908826835643883,1.624386709008546,1.5066302323279111],"Bias":0.12673042068571339,"Output":2.1646113684951453,"Threshold":-0.53091286613182764,"Type":"GT"},{"Weight":[0.45415972951062011,0.53148308351239315,0.17756121578978434,-0.51260172998668363,0.62209442822360161,1.0423818133037455,1.4651106409566062,-1.5291133772251726,0.78990360432765616,0.1007135464361138,-0.65281393223107509,-0.66555386905817038,0.49250942916493379,0.18804616256991685,1.5192571019377827],"Bias":0.22180311089465538,"Output":6.9752576756845217,"Threshold":-1.7360306390263283,"Type":"GT"},{"Weight":[0.14621339093251784,-0.061036865223059927,0.37000271066557733,1.6585874150634452,1.2667366393221249,0.21495569041695228,0.72167350478548231,-0.36693927010844418,1.514099024009937,0.70742891286427378,1.4093236934437061,-0.37148768134484422,1.2419145327256596,0.49334479508711249,0.86978300608218806],"Bias":0.24662160745198913,"Output":0.0,"Threshold":1.643111899328936,"Type":"GT"},{"Weight":[-0.49875735508918639,0.329697099784248,-0.46426563848008667,0.10825181120110289,-1.1037229369877477,-0.52554444341247186,-0.13217253337249746,-1.4296339861720959,-0.24531045940020613,-1.6418498119534224,-0.74472304095734065,-1.8198726306761954,0.16551132042217587,-1.2030943206991509,-0.552492640704146],"Bias":0.52465141181584984,"Output":0.0,"Threshold":0.28317931610307623,"Type":"O"},{"Weight":[1.214972359694062,0.70997218913863058,-0.5286815740534484,1.8180798887359351,0.914722294041292,-0.10553160751263224,-0.96445995587946842,-0.49917342071382942,0.57202168766968953,-1.3380020921877596,0.788337656663888,0.40780000445446934,1.8808745014857848,0.66947655632136227,-0.12977679114778373],"Bias":0.30643726480493194,"Output":0.0,"Threshold":0.5102371696896093,"Type":"A"},{"Weight":[-0.210081630484239,0.94475504357589191,-0.6139420796410725,-1.3496135414343389,0.26969187160473879,-0.30440770150367535,-1.3507046035261381,-0.37779910699594715,-1.0683012311664881,0.32792681564014714,-1.3214014784066945,0.23004572197331363,0.43330220805169195,1.0560558071052646,-1.9895034059833285],"Bias":0.62054864683679711,"Output":0.0,"Threshold":-0.15254077974359548,"Type":"A"},{"Weight":[0.83663423817448046,1.8853707797291555,1.4793605187346044,-1.5695666668794894,-0.87700599193433582,1.2897497645065885,0.68858529400068236,1.0994685686190933,-1.3126491454023166,-0.4362576866691269,0.10017954655931316,0.30266590896186685,0.42431684507141676,-0.64130035803293783,-1.2654854330746079],"Bias":0.65415618404124687,"Output":0.0,"Threshold":-0.825230258901245,"Type":"O"}],"output":null,"numNeurons":18},{"neurons":[{"Weight":[-0.71382907601717349,-1.4740874988371915,0.51797810966054814,-0.46716766308162722,1.9103684331804365,0.18056699362609852,-1.7124217598291216,-0.58840299576446564,1.8467002566189974,-1.2902408425185088,-0.82114237678290447,0.97438009594305441,1.1126061487535974,0.29377426313877786,-0.94664577445983233,-0.36312329692911516,-0.25117692828698868,-1.1602910834645344],"Bias":0.24383746657699229,"Output":0.0,"Threshold":1.6076131207365487,"Type":"A"},{"Weight":[0.87799023318942182,0.6007911519151139,-0.44719259615609425,-1.8322073499822091,-1.2570116739985586,-1.7918129879011833,0.86394885490366669,-1.2909127160919045,-1.2416388016388003,-0.08813532122906087,-0.36905129671591047,0.16554442148913828,1.6897453087450682,0.60012001479050125,-0.66280829937328034,1.6344142475325678,-1.0093020978427036,-1.0368104212855969],"Bias":0.29945425330635822,"Output":0.0,"Threshold":-0.40337839834549394,"Type":"O"},{"Weight":[-0.53492358957180908,-0.058572101434027912,1.291116064084282,0.34292175962725735,1.1692498136168577,1.0889624464739871,0.94671491955588682,-0.81675884445046942,1.4898596552619057,-1.2140610554502922,0.28804983305188347,-0.072570137713369953,-1.405777450374224,-0.097830993168908559,1.4563191362918908,0.47871505567045636,0.20152197135683236,-1.4188772632828344],"Bias":0.30314482669492476,"Output":1.0,"Threshold":0.34951229956909646,"Type":"O"},{"Weight":[-1.2549926933157223,0.884931490935819,-1.0987705761095372,0.020511124292626581,0.69242902411726726,-1.5436099895944866,0.18875803527830071,0.466701346783294,0.4837831330875787,1.724643820768522,-0.78661518215107851,0.45365827567891837,-1.1683043498398291,-0.090610509780519849,0.32199942556768618,-1.922626007312269,0.10809836076018309,1.2977389156807859],"Bias":0.31800228639878436,"Output":0.0,"Threshold":1.2034816845336378,"Type":"GT"},{"Weight":[0.5958551478552887,0.44320619685724671,-1.5741667466117846,0.25648472563199931,0.838287062402017,-1.2154212646258162,1.5729432010897169,-0.14423820871225981,1.446685447565599,-0.14611612919071515,-1.1146514758535902,1.9842610713021185,0.60728228679265928,1.069978851391924,0.070340253746521045,-1.3080354124810711,0.65094356961825084,0.64405061567390831],"Bias":0.6508590321293376,"Output":1.0,"Threshold":-1.4244749813454574,"Type":"A"},{"Weight":[0.647797507535572,0.79423087010822757,-0.68958014060723594,-0.76974024566344,-0.0863457433934709,-0.25633992182269705,1.9628509674048287,-0.76989479147067519,0.044384134954020493,0.90515753389576314,0.52694540961037628,-0.20195980391090723,-0.30479273816677394,0.79918215274772719,1.7403367328179704,1.9576045740198365,-0.63233003887922035,0.54873642071557049],"Bias":0.80952630788531443,"Output":1.0,"Threshold":1.065301984462562,"Type":"O"},{"Weight":[0.75569579318645652,-0.70440146691603656,-0.5809025050051988,0.71524225726007351,-1.2149845209042469,0.018088630045223333,0.81368801640984045,0.072807424852069147,0.37824106234043886,-1.7739504686435454,1.2244357528278771,0.92030650699525429,-0.10837999235763218,0.71079982943404474,0.51926852880011731,-0.081109689295343013,0.66963992857823129,0.62901946672542008],"Bias":0.5589050355176,"Output":0.0,"Threshold":0.45793840403572572,"Type":"A"},{"Weight":[-0.27660347877610636,-1.2736560605809353,0.377579300374528,-0.7403525368964079,-0.37345712509632906,1.4922738315035935,0.157853045574321,0.27314237704181221,-0.28454178651707968,0.10372797602495554,0.590431277915105,-0.22384605182979539,0.45829915742310645,0.31745876409926393,1.1813732585577732,-0.31658671318345327,-0.25989316322835765,-0.92637929642870054],"Bias":0.63769532094602255,"Output":4.6102027039235942,"Threshold":-0.25156222202422196,"Type":"GT"},{"Weight":[-1.1653750630982103,0.11043780022786809,0.20179200274953235,-0.86512553071825149,0.69826400778175524,0.8455208962995191,-0.91423000717266922,-1.7284238318579384,-1.3259842560281903,-1.6834847236440911,-0.880139355957573,1.2893392403094746,-0.36332248168220854,1.6783757019996561,-0.20816179095216181,0.27574298636789552,-0.603559632833842,0.94350121866143377],"Bias":0.61426072573022017,"Output":1.0,"Threshold":-1.3605907146635421,"Type":"O"},{"Weight":[0.0987369202790008,-0.97834721957489257,0.94998694907407621,-0.48543810916783531,-0.657798063898365,0.21184560200751079,-1.1549467035723251,0.57113607347530149,1.006281459445032,1.537261590146116,-0.016397881329244912,-1.1560867175721037,-0.60449160231564725,-0.32649852448882233,0.6825824941142693,-0.99791053722486156,-0.91093112611124238,0.073037984582147664],"Bias":0.24383746657699229,"Output":0.0,"Threshold":-1.2807287123430189,"Type":"A"},{"Weight":[0.079857674464517192,1.9551379754930447,0.92588512176921833,-0.47303492691043536,-0.10814529010473994,0.87680595129579586,1.3278814569711135,0.974050516909041,0.505093665097418,-0.66409731093519242,-0.20689753173240355,-1.4044810959158842,0.69954039992413952,0.09753604478640987,1.8436393928277024,-0.07735415831085013,-0.0411810735432343,0.67829310087407624],"Bias":0.29945425330635822,"Output":1.0,"Threshold":-0.67065571186628925,"Type":"O"},{"Weight":[-0.52595243161821381,-0.18802463748967835,0.5774743298895072,0.27617429675356231,-0.19025131184153776,-0.93215719960177412,0.198854432533893,-1.036230232583466,1.1028514444375652,-1.5761929357313518,0.45112037586566089,-1.2914570473560398,-1.1779422440332441,1.5472311762788944,1.0476841510029904,-0.020433028238095785,-0.52320467591551345,0.28096625408202691],"Bias":0.53545081733514122,"Output":1.0,"Threshold":-0.21138362503209329,"Type":"O"},{"Weight":[1.9842975586579636,0.34176209491759657,1.8107907901568296,0.91419509317742942,0.094212442971399246,-1.3362315796950046,0.60827323249344389,0.019541247756938107,-0.32207681969967178,1.8268745764283811,0.92657953078233612,-0.87860897503728475,1.5315765666456784,-1.0935854404669188,0.89818390099014334,0.67571517020691907,0.088078593876249389,0.076866336901144416],"Bias":0.20128064053192765,"Output":1.0,"Threshold":0.066147885316120369,"Type":"O"},{"Weight":[1.3364454802761068,1.8493656794770459,-0.37817004387181719,0.96974131115030771,0.32937087064113979,1.2595557436624336,-1.89675556118449,-1.2398024457750387,-1.1113827232921065,1.4740715531977227,0.028163685476483735,0.58592560891337953,-0.35250238066190032,0.032701646458684452,0.709347761566447,-0.020358185293319675,1.6102261820855675,1.3280151786238492],"Bias":0.6518045750687852,"Output":4.1323289215290746,"Threshold":-1.5196469274906659,"Type":"GT"},{"Weight":[-0.74874564201978289,0.88032804656789088,0.86668603487100271,-0.72168353140432551,0.36680699773915443,0.63420815143464493,0.16503736570712047,1.60700992290257,1.2041226137448673,0.45901398847765007,-0.63408422965280908,1.9886287394858098,-0.075215767172731374,-1.7027081883059387,-0.2351854779921404,1.8097239620097558,-0.40770054208473328,-0.918520761150178],"Bias":0.52362732543778945,"Output":0.0,"Threshold":-1.4286270893312185,"Type":"GT"},{"Weight":[0.79935822859376593,-0.54040075025539891,-0.44105172089331829,1.1744581661999498,1.6479143219291763,-0.083416541145842737,1.1274520098825227,1.2841464466801562,-1.5555874088572279,-0.88704624720245884,-1.2429059684476376,0.63826396997937174,0.3930888858242374,-0.58809161510462493,0.22527601487248949,0.28691304453504884,0.80511186588793615,1.4145414416745963],"Bias":0.5589050355176,"Output":0.0,"Threshold":0.47999346371739815,"Type":"A"},{"Weight":[-0.4247963172033411,-1.1225074749079103,1.0030288376033703,-0.76191709691747889,1.3638668830338245,0.0358327380548385,1.2333295192724698,0.40604197086098526,0.60887673597899084,-1.4503280741396956,0.708214002991195,0.93836920752114117,1.8788137919636507,0.33485251108749664,0.23913445986767057,-0.62182788859206628,-1.0438461178186564,0.095986560031765422],"Bias":0.4540410276390221,"Output":19.859367447627353,"Threshold":1.0029779835035924,"Type":"GT"},{"Weight":[0.32975320812768905,-0.865445168160575,-0.39108177478941242,-0.02549172613094175,1.0981945093247081,-1.161378917825119,0.46028188684037052,-0.53978577095073921,-0.42390730158607814,-1.4181358569386116,-0.61343257250889782,-0.733705935410087,1.3422784653223485,0.40935045686054528,1.8046521152391342,-1.8953107892979453,-0.16536903074726894,-1.0441012599372515],"Bias":0.35491190926128624,"Output":0.0,"Threshold":-0.26269730472131503,"Type":"O"},{"Weight":[1.8758749775010508,0.83258682921433491,0.30384282995470813,0.49665920622491244,-0.46166976295876327,0.54104858382653864,0.65794702743084477,0.37855878210559446,1.4673959628992694,-0.89330973424637206,0.0078801349773445217,-0.20296174762908459,0.044914521385177347,0.34025500148546656,1.4355306473726084,-0.83012509733909989,1.7697315848291533,-0.76062889525696109],"Bias":0.31800228639878436,"Output":0.0,"Threshold":-0.84659020362728743,"Type":"GT"},{"Weight":[-1.5121170987897168,-0.94446402159843779,1.2489329498489075,0.41210363731351851,1.5084779521024219,1.9831880666237267,-1.538060559676057,-0.40423560533869818,-0.76815272251523692,1.7767428158674123,0.60998350130858991,1.590580493952418,-0.7283104861752645,0.65952091508522659,-1.0034756599941643,1.9496975578133471,0.7343148238651056,-1.8002734425478957],"Bias":0.6508590321293376,"Output":0.0,"Threshold":-0.27220071399221224,"Type":"A"},{"Weight":[-0.085399907122086727,1.2425724671886176,0.0575530241162298,-1.5297721678064076,1.1855791859261593,-1.6212205922329894,1.5482273900640324,-0.3287265134352384,-0.27448963666078141,0.065524417006189051,-0.61967622144779066,0.58586457466831021,0.216849219154962,0.9321241114568326,0.769939522438298,0.048824897058692307,-0.65130418848772731,0.95186816759028869],"Bias":0.41242723977771922,"Output":1.0,"Threshold":-0.77603456169647833,"Type":"O"},{"Weight":[-0.64250843163696514,-1.3986995813430752,-1.6640688104853354,1.1889274346765257,0.89445466496723469,-0.34536855870176514,1.6081088537388055,-0.43946821938244085,0.70244583921853709,-0.72156723529173394,-1.4767773875392867,-0.2201760207396819,-0.72008120791059049,-1.5160419156383918,-1.2227690286109079,-0.54011447566566739,0.69347386560098911,-0.55641305006873476],"Bias":0.24598368990513669,"Output":1.0,"Threshold":1.0250689122011274,"Type":"O"}],"output":null,"numNeurons":22},{"neurons":[{"Weight":[-0.3924996780196669,-0.42218274146594703,1.1414914395040285,0.35143181046072014,-0.38688150904461804,0.83602480489575526,0.96492206746010212,1.7012932296266285,-0.34725631649943833,1.3684402626792158,-1.2123941680008519,-0.80675549935864077,-1.4893322379744296,1.0782372742324311,-1.2263873681548922,-0.4021678242842518,-0.064371988207275077,0.94535531799558337,0.0091038959423360086,1.6135001590538307,-0.088213391070593561,0.87533019058188888],"Bias":0.26437485230359009,"Output":10.743737694799773,"Threshold":-0.38637578598520528,"Type":"GT"},{"Weight":[-0.57470758181284531,-1.080674805250333,-1.1270808852869463,-0.66684143183140143,-0.64267719301919968,0.87384885683369307,0.64462826524145367,0.25384379842031923,1.7380511386962847,-0.49717300594652669,0.63874935109110043,0.73015593119438549,0.921496987742836,0.024816726345949114,-0.9995623278989807,-0.20704014145849631,1.2009554781024137,-0.80245896926031413,-0.3168578326314957,-1.0599756400090628,0.15282847273760858,-0.626667552919438],"Bias":0.53672891368005837,"Output":26.147176430251445,"Threshold":0.95963913526369238,"Type":"GT"},{"Weight":[-0.29142103730301416,-0.54565796933400357,0.026036011998558539,-1.368182091319349,-1.2224951289698924,0.028966133496242552,0.76287994476169363,-1.8729353681546335,0.33536562158743188,1.2449996160552836,-1.8169918674123435,0.57703571327823944,-0.921519841496609,1.6449051013425482,0.17119455252364002,0.26283124327762342,0.99691215855856985,1.0076192002778963,1.0230728997956371,0.96545738073320009,0.989141528955261,-0.16481447506920177],"Bias":0.450093393423638,"Output":0.0,"Threshold":0.76673323650226621,"Type":"GT"},{"Weight":[-0.81451871935954268,0.071715803457138128,-1.5754833908637442,-0.96130919571095586,-0.12464629533838027,0.80308047253781956,1.1388310203975212,0.19262303851667,-0.46062170974240718,-1.5485726052655711,-0.92070442264998575,-0.6074473013204742,0.21079224578652489,-1.997745975850963,1.4460221545053749,1.1655866015542236,0.48123837377933709,-1.0846621240883425,-0.03555711869758417,-0.597626296150324,0.68878402360192681,-0.49972762656385439],"Bias":0.17426168298081574,"Output":0.0,"Threshold":0.13330573687949476,"Type":"GT"},{"Weight":[0.69528870037537471,-0.1771642124173996,-0.57796126677559745,-0.65424813267507032,-1.3418252483670718,0.83661456165677617,-1.2420449403161249,0.1893923567558603,-0.68616635384325231,-0.41057522188404111,-0.25003208324780318,-0.76166770961387908,0.30401954348386262,-0.11964493529854581,0.42889618104854432,-1.520747996643534,0.96364882935091378,0.160927460603848,-0.18510782354749167,0.60270399535200747,0.82398562884725879,1.0197685596159514],"Bias":0.9953936226644523,"Output":168.45262149934487,"Threshold":-0.52683562716787469,"Type":"GT"},{"Weight":[-0.25746034836613013,1.593751003776561,0.139432836054211,-0.570714417328605,0.56754133224838466,0.31109320485782488,1.8954582809915106,-0.37978700659227882,1.6680797336940092,-0.57324095003923436,-1.5001469699200927,-0.9981125776239731,-0.0096251079857465616,0.080079590240530629,1.5169580414519102,0.9538637432054915,0.9918372533246117,1.3720555637832992,-0.14093969862020561,-0.11145926551495655,-1.2808655944098093,-0.84156830927430115],"Bias":0.27504885139644558,"Output":190.37172879773129,"Threshold":0.54558989151641235,"Type":"GT"},{"Weight":[-0.17998023986742739,-0.097238165837357837,-0.19272358404366458,-0.4089032749064776,-0.259828582527036,-1.9594795759578605,0.85977780207049914,1.060852717520135,-1.0769575820662816,0.038879615272804813,0.61057892935843161,-0.26783250220717525,0.16330416228776068,0.3429355390252562,0.0804470638187822,1.9048193376068117,0.057062202159809949,0.44263928939711278,-0.23353233106133164,0.71466959534760521,0.53590893118451777,1.3832190863942815],"Bias":0.96474982889590311,"Output":0.0,"Threshold":0.36277017293626923,"Type":"A"},{"Weight":[1.5509834734494721,0.67901473430870785,0.9683449074944227,0.99906973959834766,0.0606776327177313,-0.65499236488481638,0.843037193102314,1.656623886738263,-1.0332371551931079,0.71785640098054726,-1.5626940278162687,1.550169642805201,-0.52273587720596026,1.0735964286411048,1.1149091910873117,-0.84801719481964455,0.48329762834277812,1.2149248315090895,-0.36009047383446735,0.93240300231026618,-0.97845827926809825,0.03814791051584665],"Bias":0.78386716418148361,"Output":0.0,"Threshold":-1.2662312813411614,"Type":"A"},{"Weight":[0.36103925985194307,1.1071192245497925,0.95554353061855923,1.713996553660369,-0.71467106356968679,0.44584175871957177,0.51879869332481121,0.13474228332505689,-0.41339313007816347,1.1459002341823186,-0.039538767530979291,1.4860091335075016,0.798620974085583,-1.8078501856922407,-1.2498701937728889,1.3657418107861847,1.146249631953542,-0.79155692401880251,0.71367361423053877,-1.7036724978609348,-1.6391240505683813,0.82455957405015812],"Bias":0.29539897772269275,"Output":0.0,"Threshold":-1.2071164023164269,"Type":"A"},{"Weight":[-1.4482266471945806,0.60385661320940454,1.5843721487719435,-0.48213151096238227,-1.4414040425053818,0.91048244615573548,1.5202140582353874,-0.987514048343298,1.1161313968727513,-0.95405216466358489,-0.0713774445701304,-1.7529381102663177,0.19293971648110997,0.9932973976688737,0.40221628565444445,-0.046301225571102056,-0.25218254991443012,1.0280481119592519,0.18116631693261032,0.065279630741700179,0.94222919221139945,0.97733871218624468],"Bias":0.36143359478695847,"Output":1.0,"Threshold":-0.8624542722769335,"Type":"O"},{"Weight":[-0.18655657660521405,-1.1406774293355073,1.0172996050758751,-0.55200471623777636,-0.31479235482508883,-0.93287595498043863,0.00980748833264583,-0.063746651053077891,0.29569792238853304,-0.25979408075092081,-0.9644400025261286,0.24206614971257112,-1.4025448986340989,0.19311211529099948,1.6298207517852172,-1.1102633919149,-0.46855466788101691,0.064664709240886076,1.1375373823743022,-1.1618269091294273,-0.31972478506231627,-0.61094916838265445],"Bias":0.94370030003772132,"Output":0.0,"Threshold":-0.47681000804380053,"Type":"GT"},{"Weight":[-0.07544303037014,-1.120478368886038,0.35565372479877144,0.88154220575538556,-0.96445022661446145,0.32202421609406551,-0.19910085676196077,0.76091050702014962,-0.052241683030613495,1.9085655957034629,1.1370311505799329,-1.6286583187192019,-0.23362595435866429,0.90085888044017315,-0.27930638859016188,0.33907682185018295,0.97568247745543824,0.81450651441539523,0.10013726451440608,-1.3099402037029808,0.85000879694708109,1.6945835872062407],"Bias":0.66012059718376048,"Output":0.0,"Threshold":-0.72159530907943625,"Type":"A"},{"Weight":[-0.42693562639268856,0.85292400005409685,-1.3331845334419907,1.9384161308121013,-1.1786942939174803,0.219614981113812,-0.651105047972456,-0.88953435101524658,1.4205903552568471,