{"Input":[0.0,0.0],"Output":[0.0,0.0],"DLayers":[{"neurons":[{"Weight":[-0.10046123112573346,-0.041929336749915655],"Bias":0.032231125064301827,"Output":0.0,"Threshold":0.8497718069002832,"Type":"GT"},{"Weight":[-0.42348549581295136,-0.68159380586892082],"Bias":0.65131138016065182,"Output":0.0,"Threshold":0.050421559275324254,"Type":"O"},{"Weight":[0.58640555133410055,0.9807655452661056],"Bias":0.0052703470016225926,"Output":0.0,"Threshold":0.55844960667120735,"Type":"A"},{"Weight":[0.14969191614058425,-0.2432140867427057],"Bias":0.63448528928425407,"Output":0.0,"Threshold":-0.71361224293411352,"Type":"O"},{"Weight":[0.29682162976675741,0.7512575205188512],"Bias":0.96553336594511441,"Output":0.0,"Threshold":-0.59257475360882228,"Type":"O"},{"Weight":[0.72876179578190758,-0.571680030586049],"Bias":0.11211371194204023,"Output":0.0,"Threshold":0.59365600794258344,"Type":"O"},{"Weight":[0.0896172859191975,0.209139019813919],"Bias":0.10186582482506792,"Output":0.0,"Threshold":0.94673032171406335,"Type":"GT"},{"Weight":[-0.61569601512313632,-0.27053799632496106],"Bias":0.60655772015757747,"Output":0.0,"Threshold":0.48615266870993779,"Type":"O"},{"Weight":[-0.8859457494159908,0.75745587924376867],"Bias":0.299164038756473,"Output":0.0,"Threshold":-0.97138098719128452,"Type":"GT"},{"Weight":[-0.69578952141841388,-0.095325851391686992],"Bias":0.98676957608515847,"Output":0.0,"Threshold":-0.21810266991057559,"Type":"GT"},{"Weight":[-0.16294383963707082,-0.082262230609665726],"Bias":0.50447322312019449,"Output":0.0,"Threshold":-0.68044288022464272,"Type":"O"},{"Weight":[-0.0075517636758982033,0.3838055992423583],"Bias":0.32203675728386116,"Output":0.0,"Threshold":0.067735965860884623,"Type":"O"},{"Weight":[0.77250379359931864,0.39770105313402648],"Bias":0.83620012869881477,"Output":0.0,"Threshold":0.9129273201864806,"Type":"A"}],"output":null,"numNeurons":13},{"neurons":[{"Weight":[0.21530822208864067,0.66879161990657054,0.40824244376655783,0.39759334521256079,-0.71450208812696026,-0.31558096609803893,-0.657182962939694,-0.20550286919134803,0.40736457119107461,0.089918142692147818,0.76769342821449671,-0.62805355555752929,0.85271672431971723],"Bias":0.12496279837794733,"Output":0.0,"Threshold":0.8204016167765491,"Type":"A"},{"Weight":[0.25001651945059028,0.96402593188175278,0.28916500103155385,-0.61304617142912288,0.59930931990934033,0.98621225402979751,-0.60753466915690091,0.62555265409199179,0.11532083065962458,0.19219818394267846,-0.42883555750774011,0.56315515123454629,0.47539676096075995],"Bias":0.36695951380159686,"Output":0.0,"Threshold":0.17685103517810397,"Type":"GT"}],"output":null,"numNeurons":2}],"OLayer":{"neurons":[{"Weight":[0.31373443562245668,0.87646366277544929],"Bias":0.14218822547336493,"Output":0.0,"Threshold":0.78033305089004945,"Type":"OT"},{"Weight":[0.0092762704050523559,0.0262925378169364],"Bias":0.24453937040853285,"Output":0.0,"Threshold":-0.90867773346075686,"Type":"OT"}],"output":null,"numNeurons":2},"NumLayers":2,"Breedibility":0.43591429499719025,"Mutibility":6.0136313391912877,"Repetition":0}
