{"Input":[0.0,0.0],"Output":[0.0,0.0,0.0,0.0,0.0,0.0,0.0,0.0,0.0,0.0,0.0],"DLayers":[{"neurons":[{"Weight":[-0.39744639880836319,-1.8069470449383125],"Bias":0.893576236392174,"Output":0.0,"Threshold":-1.2365892544559154,"Type":"A"},{"Weight":[-1.8133701941992018,-0.69456905857406981],"Bias":0.003321354278978591,"Output":0.0,"Threshold":-0.88964894734772337,"Type":"O"},{"Weight":[-0.26612072357261585,-0.02350586560718057],"Bias":0.17464087911631954,"Output":0.0,"Threshold":0.99116640584132,"Type":"A"},{"Weight":[0.39276864165103464,0.77971067129620852],"Bias":0.4587461005238565,"Output":0.0,"Threshold":0.80915369247512592,"Type":"A"},{"Weight":[-0.62573177815681869,0.48226286563196352],"Bias":0.36259829432824547,"Output":0.0,"Threshold":0.82684523697329926,"Type":"GT"},{"Weight":[-0.87255653220813556,-0.503075660324225],"Bias":0.53731757427440852,"Output":0.0,"Threshold":0.99160455306601,"Type":"A"},{"Weight":[-0.011598983784950796,-0.43298572787688383],"Bias":0.32960842052922046,"Output":0.0,"Threshold":-0.50502663408640147,"Type":"GT"},{"Weight":[0.36164739104530191,-0.26135530102129806],"Bias":0.58437917990813926,"Output":0.0,"Threshold":0.0021121671898812859,"Type":"GT"},{"Weight":[0.55179080861354746,1.3901998900762758],"Bias":0.43203487602040869,"Output":0.0,"Threshold":1.0866418457993503,"Type":"A"},{"Weight":[-0.21797646871673709,-0.47721530146767166],"Bias":0.81242983081025533,"Output":0.0,"Threshold":-0.79792963331468847,"Type":"A"},{"Weight":[0.11418585298312169,-0.11679863702356752],"Bias":0.893576236392174,"Output":0.0,"Threshold":-0.5248723330557683,"Type":"O"}],"output":null,"numNeurons":11},{"neurons":[{"Weight":[0.45936927732982175,-0.0851928944863346,0.65244997043742337,0.33923118600586016,0.99243437451889471,-0.1128034093942509,0.91735345074783714,-0.689068967448114,-1.2858274128687697,0.062581433478082316,0.16949360336619129],"Bias":0.2353598569684475,"Output":0.0,"Threshold":1.8605974185562682,"Type":"A"},{"Weight":[-0.872365096990189,-1.6543733699500436,-0.70589469452663078,-0.025734219712081466,0.52282527439427806,0.57591467330973345,0.54620244332878032,0.73790416784486923,0.43679096337258394,0.81083758771924186,-0.872365096990189],"Bias":0.59479775400590051,"Output":0.0,"Threshold":-0.57782504967312565,"Type":"A"}],"output":null,"numNeurons":2},{"neurons":[{"Weight":[1.1772993394067972,-0.90024831793282567],"Bias":0.83361992360261272,"Output":0.0,"Threshold":-0.68982758963938229,"Type":"O"},{"Weight":[0.48097211144909824,-1.7270575499753735],"Bias":0.027574285761254973,"Output":0.0,"Threshold":-0.87619678460815764,"Type":"A"},{"Weight":[0.054905534281817048,-0.3262375236145395],"Bias":0.01528094663064971,"Output":0.0,"Threshold":0.3232329982906732,"Type":"A"},{"Weight":[0.69951203940413509,-0.11512467829283545],"Bias":0.47113144466240492,"Output":0.0,"Threshold":0.014005472657273255,"Type":"GT"},{"Weight":[0.70119415256250373,-0.90024831793282567],"Bias":0.40566406045372788,"Output":0.0,"Threshold":1.8171641863031147,"Type":"A"}],"output":null,"numNeurons":5},{"neurons":[{"Weight":[1.6250226942938859,0.63145400543299235,0.76070453451164277,-0.42571151555781794,0.85428108116811186],"Bias":0.46689721457282884,"Output":0.0,"Threshold":1.0152945811931486,"Type":"O"},{"Weight":[-0.42475402281840985,0.30410551200812019,-0.30004578563386841,-0.963899947220413,-0.42475402281840985],"Bias":0.803620467802333,"Output":0.0,"Threshold":0.33977373379272113,"Type":"GT"},{"Weight":[0.4688052427227633,-0.71684307312445861,-0.747834384323952,0.695027875106329,0.8900834670709834],"Bias":0.22204676699919942,"Output":0.0,"Threshold":0.745568701413259,"Type":"O"}],"output":null,"numNeurons":3},{"neurons":[{"Weight":[0.14232135105054888,-0.81200136305391857,0.42685660215879628],"Bias":0.59989896886977323,"Output":0.0,"Threshold":0.29507642904998566,"Type":"A"},{"Weight":[-0.14630162489893922,0.31430328931394186,0.19153429437034497],"Bias":0.22695427864182474,"Output":0.0,"Threshold":-0.91817218014885316,"Type":"A"},{"Weight":[-0.48558740235659636,-0.45983184662639714,-0.26612072357261585],"Bias":0.5969545639105861,"Output":0.0,"Threshold":1.0822688523131743,"Type":"A"}],"output":null,"numNeurons":3},{"neurons":[{"Weight":[-0.13254027237768298,-0.11679863702356752,0.18467423829002036],"Bias":0.91131490162169326,"Output":0.0,"Threshold":1.2442697730121526,"Type":"A"},{"Weight":[-1.8133701941992018,-0.69456905857406981,1.2087459076236682],"Bias":0.003321354278978591,"Output":0.0,"Threshold":-0.88964894734772337,"Type":"O"},{"Weight":[0.422163026603946,-1.2431260995767666,-0.26612072357261585],"Bias":0.22906918764536696,"Output":0.0,"Threshold":0.99116640584132,"Type":"A"},{"Weight":[0.39276864165103464,0.63502104831161965,-0.039874122962297004],"Bias":0.51375263464346188,"Output":0.0,"Threshold":0.57667720391260335,"Type":"GT"},{"Weight":[0.17811874378384965,-0.041868263176581016,0.0090769586428427057],"Bias":0.45096969392661457,"Output":0.0,"Threshold":0.67399186486098528,"Type":"GT"},{"Weight":[-0.79338594691054243,-0.71398452423232817,-0.87255653220813556],"Bias":0.23436710901296098,"Output":0.0,"Threshold":1.6796927022187469,"Type":"A"},{"Weight":[0.28234717682113275,0.48556649311704858,-0.88591233682162707],"Bias":0.602098183753946,"Output":0.0,"Threshold":0.50103693013127737,"Type":"GT"},{"Weight":[0.71587761012645323,-0.32564136307949265,0.63971948758220276],"Bias":0.077311371489107314,"Output":0.0,"Threshold":-0.4384506713545186,"Type":"GT"},{"Weight":[0.088872611913305033,-0.052356008100838416,0.93044878958279675],"Bias":0.12895482691421864,"Output":0.0,"Threshold":-0.24938869953592713,"Type":"O"},{"Weight":[-0.19163469466922559,-0.96704705151126114,1.9424524344235903],"Bias":0.93619070757934386,"Output":0.0,"Threshold":-0.0047045187115224629,"Type":"GT"}],"output":null,"numNeurons":10},{"neurons":[{"Weight":[-0.3375448956329119,-0.63642908010465515,0.99120562476627794,0.0074936948693327746,0.38260400272328587,-0.1128034093942509,0.052838831640704909,0.6919207976627727,0.31885429114049968,-0.6264484904829638],"Bias":0.21520303036794206,"Output":0.0,"Threshold":-1.2149353358964135,"Type":"A"},{"Weight":[0.064832200093582343,-0.11741891555367919,-0.70589469452663078,-0.21077040499577784,-0.033411536148475252,0.38751992310281841,-0.7838590772747337,0.73790416784486923,0.038523471233678663,-0.13687052537541394],"Bias":0.46483542512396137,"Output":0.0,"Threshold":-0.57782504967312565,"Type":"GT"}],"output":null,"numNeurons":2},{"neurons":[{"Weight":[0.70119415256250373,-0.90024831793282567],"Bias":0.89619990293690921,"Output":0.0,"Threshold":0.78332114535538544,"Type":"O"},{"Weight":[0.12754174630508838,0.59883383689393943],"Bias":0.039076074044721236,"Output":0.0,"Threshold":0.061537046712607624,"Type":"A"},{"Weight":[0.70119415256250373,-0.034985078762394872],"Bias":0.2277608566115428,"Output":0.0,"Threshold":0.99116640584132,"Type":"A"},{"Weight":[0.54873257289814426,0.10844468295501761],"Bias":0.86831152060456174,"Output":0.0,"Threshold":-0.29323296210180638,"Type":"GT"},{"Weight":[0.17811874378384965,0.45512471337226446],"Bias":0.43126037888287583,"Output":0.0,"Threshold":0.58857688614566683,"Type":"A"}],"output":null,"numNeurons":5},{"neurons":[{"Weight":[-0.016340865295539082,-0.15845375142919541,0.65835862358024277,0.094391435195874146,0.13233746646779471],"Bias":0.94180734010497447,"Output":0.0,"Threshold":-0.47633190568365713,"Type":"A"},{"Weight":[-0.872365096990189,-1.4986757969011906,0.99405395891240533,0.40960787535161147,0.52577344789205738],"Bias":0.53174448090453841,"Output":0.0,"Threshold":-1.0408843434606139,"Type":"A"},{"Weight":[-0.26612072357261585,0.043849897591327271,-0.38654913876044988,0.45623688991471978,-0.17039900374151729],"Bias":0.29552827154776468,"Output":0.0,"Threshold":-1.5172819586085538,"Type":"O"},{"Weight":[-0.14686758357419985,-0.59816626463931344,0.65835862358024277,-1.4722017103211031,0.15048907995246771],"Bias":0.990038443817775,"Output":0.0,"Threshold":-0.349547569220675,"Type":"GT"},{"Weight":[-0.872365096990189,-1.8537710550491564,0.63265662390396793,0.40960787535161147,-0.13015935156967462],"Bias":0.630554653357507,"Output":0.0,"Threshold":-0.311158661875482,"Type":"GT"},{"Weight":[0.397660819067462,-0.57151892030798779,-0.50697755394828392,0.29524482846969963,0.5298973273741534],"Bias":0.30236804875568163,"Output":0.0,"Threshold":0.0085373434743552142,"Type":"A"},{"Weight":[-0.14686758357419985,-0.20010886583482329,0.65835862358024277,0.30558150741531581,0.15048907995246771],"Bias":0.990038443817775,"Output":0.0,"Threshold":-0.11562912823428828,"Type":"GT"}],"output":null,"numNeurons":7},{"neurons":[{"Weight":[0.34237565523589758,-0.90024831793282567,0.36452008987056095,0.70119415256250373,0.99243437451889471,-0.08513208529219593,0.16423056678112155],"Bias":0.18022041729661656,"Output":0.0,"Threshold":-0.077313727735222187,"Type":"A"},{"Weight":[-0.872365096990189,-1.6543733699500436,-0.70589469452663078,-0.025734219712081466,0.52282527439427806,0.57591467330973345,0.54620244332878032],"Bias":0.59479775400590051,"Output":0.0,"Threshold":-0.57782504967312565,"Type":"A"},{"Weight":[0.70119415256250373,0.47693306881791608,0.36452008987056095,0.70119415256250373,0.47693306881791608,0.36452008987056095,0.70119415256250373],"Bias":0.18022041729661656,"Output":0.0,"Threshold":0.099277557851410167,"Type":"A"},{"Weight":[0.87564103625511813,0.45988412502216369,0.87564103625511813,0.87564103625511813,0.45988412502216369,0.87564103625511813,0.87564103625511813],"Bias":0.47113144466240492,"Output":0.0,"Threshold":-0.39239372051898092,"Type":"GT"},{"Weight":[-0.35087924513541124,-0.90024831793282567,-0.35087924513541124,-0.90024831793282567,-0.35087924513541124,-0.90024831793282567,-0.35087924513541124],"Bias":0.40566406045372788,"Output":0.0,"Threshold":-1.2557452234931967,"Type":"A"},{"Weight":[-0.099215248267499362,-0.427460579400631,1.068853059990263,0.11244247105202754,-0.427460579400631,0.8223838666499983,0.16659137643482136],"Bias":0.59479775400590051,"Output":0.0,"Threshold":-0.37464000092569738,"Type":"GT"}],"output":null,"numNeurons":6}],"OLayer":{"neurons":[{"Weight":[0.62670591409630427,0.22639861247800225,0.29486105162411042,0.22639861247800225,-0.33286627199634267,0.55440126664675826],"Bias":0.76236477203777286,"Output":0.76236477203777286,"Threshold":-1.3348736797156156,"Type":"OT"},{"Weight":[1.5600737722404645,0.79923021690884144,1.1489182669431521,0.61399386758636387,0.72256005379490562,0.79923021690884144],"Bias":0.36966263333785471,"Output":0.36966263333785471,"Threshold":-0.931210868959879,"Type":"OT"},{"Weight":[0.49424459901370321,0.11594272410308137,0.5657635135882364,1.4501376838656785,0.49424459901370321,0.84027964893741514],"Bias":0.049970288318568042,"Output":0.049970288318568042,"Threshold":-0.61785723577153751,"Type":"OT"},{"Weight":[0.48096740244932817,0.76791523386161553,0.485379607118843,0.5527043603024,0.26934240177243129,1.2851451785700139],"Bias":0.66993234989695827,"Output":0.66993234989695827,"Threshold":-1.3959499762374676,"Type":"OT"},{"Weight":[-1.4440162402782666,0.33331916263947226,0.21367176213007036,0.39863443998556325,0.46394971733165424,-0.7923485798725618],"Bias":0.968004926442171,"Output":0.0,"Threshold":1.2256834037721545,"Type":"OT"},{"Weight":[0.52700089361844626,0.2753363807105163,-1.1742108218251777,0.45924747075617661,-1.4408157074082717,0.60990533656901924],"Bias":0.91580239306939881,"Output":0.91580239306939881,"Threshold":0.4446580104737814,"Type":"OT"},{"Weight":[0.54125590187788752,0.32385236307692356,0.61608148627732018,0.764395543147994,0.61608148627732018,0.25177971611347966],"Bias":0.37869110441705728,"Output":0.0,"Threshold":0.0,"Type":"OT"},{"Weight":[0.89882692829651145,0.64208674158066825,0.44948078573191574,0.74770072230496476,0.62519815569985571,-1.3862217680486952],"Bias":0.17407285569891,"Output":0.0,"Threshold":-0.97352041116613919,"Type":"OT"},{"Weight":[0.33275496556086231,1.1268404638985361,0.2919509461112092,0.22848440321557428,0.38603570679483734,0.73539877251507679],"Bias":0.12998523662331757,"Output":0.12998523662331757,"Threshold":-0.044597451130206411,"Type":"OT"},{"Weight":[0.11077530314716291,0.73557686630430474,0.34672544610068456,0.57340937926127078,0.11077530314716291,0.57340937926127078],"Bias":5.9836078463045917E-05,"Output":0.0,"Threshold":-1.3651382345078225,"Type":"OT"},{"Weight":[1.414779724280713,0.89180770697621992,1.414779724280713,0.28240822821734857,1.414779724280713,0.518417372609683],"Bias":0.013508709619524289,"Output":0.013508709619524289,"Threshold":1.9840945750400865,"Type":"OT"}],"output":null,"numNeurons":11},"NumLayers":10,"Breedibility":0.89286928060132509,"Mutibility":3.8071093072623992,"Repetition":0}
