{"Input":[0.0,0.0],"Output":[0.0,0.0,0.0,0.0,0.0,0.0,0.0,0.0,0.0,0.0,0.0],"DLayers":[{"neurons":[{"Weight":[0.11418585298312169,-0.11679863702356752],"Bias":0.893576236392174,"Output":0.0,"Threshold":-0.837034683133026,"Type":"A"},{"Weight":[-1.6907785042146122,-0.57644127598099471],"Bias":0.003321354278978591,"Output":0.0,"Threshold":-0.88964894734772337,"Type":"O"},{"Weight":[-0.26612072357261585,0.1810139558189614],"Bias":0.17464087911631954,"Output":0.0,"Threshold":-0.40460049100434436,"Type":"A"},{"Weight":[0.39276864165103464,0.77971067129620852],"Bias":0.4587461005238565,"Output":0.0,"Threshold":0.80915369247512592,"Type":"A"},{"Weight":[-0.62573177815681869,0.137075810291374],"Bias":0.27422689472987638,"Output":0.0,"Threshold":0.54582224532301638,"Type":"GT"},{"Weight":[-0.15989302507829531,-0.503075660324225],"Bias":0.53731757427440852,"Output":0.0,"Threshold":0.16093569349541129,"Type":"A"},{"Weight":[-0.011598983784950796,0.6465769599408735],"Bias":0.28028017598217358,"Output":0.0,"Threshold":1.5531920322930404,"Type":"GT"},{"Weight":[0.67968692010254,-0.26135530102129806],"Bias":0.868227569790663,"Output":0.0,"Threshold":0.0021121671898812859,"Type":"GT"},{"Weight":[0.518045985264725,0.35633350832217081],"Bias":0.41513009801978717,"Output":0.0,"Threshold":-0.72741350157997275,"Type":"A"},{"Weight":[-0.21797646871673709,-0.47721530146767166],"Bias":0.81242983081025533,"Output":0.0,"Threshold":-0.79792963331468847,"Type":"A"},{"Weight":[0.11418585298312169,-0.11679863702356752],"Bias":0.893576236392174,"Output":0.0,"Threshold":-0.5248723330557683,"Type":"O"}],"output":null,"numNeurons":11},{"neurons":[{"Weight":[0.45936927732982175,-0.0851928944863346,0.65244997043742337,0.33923118600586016,0.99243437451889471,-0.1128034093942509,0.91735345074783714,-0.689068967448114,-1.2858274128687697,0.062581433478082316,0.16949360336619129],"Bias":0.2353598569684475,"Output":0.0,"Threshold":1.8605974185562682,"Type":"A"},{"Weight":[-0.82749922891496652,-0.78002951493488126,-0.70589469452663078,0.14747379820210549,0.52282527439427806,0.57591467330973345,0.54620244332878032,0.77255526110416051,0.3298434008983166,0.81083758771924186,-0.096390605716216687],"Bias":0.59479775400590051,"Output":0.0,"Threshold":-0.57782504967312565,"Type":"A"}],"output":null,"numNeurons":2},{"neurons":[{"Weight":[-0.85770812530895146,-0.90024831793282567],"Bias":0.83361992360261272,"Output":0.0,"Threshold":-0.80151919429261209,"Type":"O"},{"Weight":[-0.2828465170612775,0.31430328931394186],"Bias":0.027574285761254973,"Output":0.0,"Threshold":-0.87619678460815764,"Type":"A"},{"Weight":[0.054905534281817048,-0.3262375236145395],"Bias":0.01528094663064971,"Output":0.0,"Threshold":0.3232329982906732,"Type":"A"},{"Weight":[1.6249126976471917,0.076544922812164268],"Bias":0.47113144466240492,"Output":0.0,"Threshold":0.014005472657273255,"Type":"GT"},{"Weight":[-0.35087924513541124,-0.90024831793282567],"Bias":0.40566406045372788,"Output":0.0,"Threshold":-1.5009583381474756,"Type":"A"}],"output":null,"numNeurons":5},{"neurons":[{"Weight":[-0.77187563235493184,0.63145400543299235,0.76070453451164277,-1.2096662802317488,0.83012747494742611],"Bias":0.23517027228845761,"Output":0.0,"Threshold":0.30039793080668803,"Type":"O"},{"Weight":[-0.42475402281840985,-0.963899947220413,-0.42475402281840985,-0.963899947220413,-1.2935033120650348],"Bias":0.803620467802333,"Output":0.0,"Threshold":-0.3056210355393687,"Type":"GT"},{"Weight":[0.4688052427227633,-0.71684307312445861,-0.747834384323952,0.695027875106329,-0.70146406340713807],"Bias":0.22204676699919942,"Output":0.0,"Threshold":0.745568701413259,"Type":"O"}],"output":null,"numNeurons":3},{"neurons":[{"Weight":[0.14232135105054888,-0.6440724142101,-1.9435546472405805],"Bias":0.59989896886977323,"Output":0.0,"Threshold":-0.21335625379036938,"Type":"A"},{"Weight":[-0.14630162489893922,0.31430328931394186,-0.051011303929151652],"Bias":0.22695427864182474,"Output":0.0,"Threshold":-0.51582910423904149,"Type":"A"},{"Weight":[-0.48558740235659636,-0.45983184662639714,-0.26612072357261585],"Bias":0.5969545639105861,"Output":0.0,"Threshold":1.0822688523131743,"Type":"A"}],"output":null,"numNeurons":3},{"neurons":[{"Weight":[-0.13254027237768298,0.26438221068325563,0.11418585298312169],"Bias":0.91131490162169326,"Output":0.0,"Threshold":0.66217946245436532,"Type":"A"},{"Weight":[-1.8133701941992018,-0.69456905857406981,-0.30231214328776679],"Bias":0.003321354278978591,"Output":0.0,"Threshold":-0.88964894734772337,"Type":"O"},{"Weight":[0.092007779355397348,-1.2431260995767666,-0.26612072357261585],"Bias":0.22906918764536696,"Output":0.0,"Threshold":0.99116640584132,"Type":"A"},{"Weight":[-0.098681445977967963,0.71713421480596728,-0.039874122962297004],"Bias":0.51375263464346188,"Output":0.0,"Threshold":0.57667720391260335,"Type":"GT"},{"Weight":[0.17811874378384965,-0.041868263176581016,0.0090769586428427057],"Bias":0.45096969392661457,"Output":0.0,"Threshold":0.67399186486098528,"Type":"GT"},{"Weight":[-0.87255653220813556,-0.71398452423232817,-0.87255653220813556],"Bias":0.23436710901296098,"Output":0.0,"Threshold":1.6796927022187469,"Type":"A"},{"Weight":[0.28234717682113275,0.48556649311704858,-0.88591233682162707],"Bias":0.602098183753946,"Output":0.0,"Threshold":0.03678146029672652,"Type":"GT"},{"Weight":[0.67968692010254,0.92095888542056015,0.63971948758220276],"Bias":0.077311371489107314,"Output":0.0,"Threshold":-0.4384506713545186,"Type":"GT"},{"Weight":[0.088872611913305033,-0.052356008100838416,0.93044878958279675],"Bias":0.12895482691421864,"Output":0.0,"Threshold":-0.34342955534506103,"Type":"O"},{"Weight":[-0.19163469466922559,0.043849897591327271,1.3636415784077913],"Bias":0.47573582710499679,"Output":0.0,"Threshold":-0.0047045187115224629,"Type":"A"}],"output":null,"numNeurons":10},{"neurons":[{"Weight":[-0.3375448956329119,-0.63642908010465515,0.99120562476627794,0.0074936948693327746,0.38260400272328587,-0.1128034093942509,0.052838831640704909,0.6919207976627727,0.31885429114049968,-0.6264484904829638],"Bias":0.21520303036794206,"Output":0.0,"Threshold":-1.2149353358964135,"Type":"A"},{"Weight":[0.064832200093582343,-0.11741891555367919,-0.70589469452663078,0.33716840592081132,0.24470686912290141,0.38751992310281841,-0.7838590772747337,0.73790416784486923,1.6996378804089676,-0.13687052537541394],"Bias":0.59479775400590051,"Output":0.0,"Threshold":-0.57782504967312565,"Type":"GT"}],"output":null,"numNeurons":2},{"neurons":[{"Weight":[0.70119415256250373,-0.90024831793282567],"Bias":0.89619990293690921,"Output":0.0,"Threshold":1.8782609030037469,"Type":"O"},{"Weight":[0.12754174630508838,0.59883383689393943],"Bias":0.039076074044721236,"Output":0.0,"Threshold":0.061537046712607624,"Type":"A"},{"Weight":[0.70119415256250373,-0.02350586560718057],"Bias":0.2277608566115428,"Output":0.0,"Threshold":0.99116640584132,"Type":"A"},{"Weight":[0.49666582804483644,0.10844468295501761],"Bias":0.86831152060456174,"Output":0.0,"Threshold":-1.3065539725621016,"Type":"O"},{"Weight":[-0.068063130401104274,0.79466021377344642],"Bias":0.43126037888287583,"Output":0.0,"Threshold":0.58857688614566683,"Type":"A"},{"Weight":[0.611330081993402,-0.21155713415311514],"Bias":0.89619990293690921,"Output":0.0,"Threshold":0.78332114535538544,"Type":"A"},{"Weight":[0.139303712704826,0.6465769599408735],"Bias":0.23095193143512677,"Output":0.0,"Threshold":0.71292315270422169,"Type":"GT"},{"Weight":[0.3724010072752838,-0.034985078762394872],"Bias":0.26414582331857916,"Output":0.0,"Threshold":0.365342462023414,"Type":"A"},{"Weight":[0.43735869167715252,0.24910533125470635],"Bias":0.31370143001605821,"Output":0.0,"Threshold":0.12421567743840425,"Type":"O"},{"Weight":[-0.26612072357261585,-0.47721530146767166],"Bias":0.01528094663064971,"Output":0.0,"Threshold":-0.79792963331468847,"Type":"A"}],"output":null,"numNeurons":10},{"neurons":[{"Weight":[-0.14686758357419985,-0.59816626463931344,0.38627223828168222,0.60297764027629874,0.15048907995246771,-0.13183311029888367,0.11418585298312169,-0.11679863702356752,-0.67900792866899073,-0.11679863702356752],"Bias":0.893576236392174,"Output":0.0,"Threshold":-0.837034683133026,"Type":"GT"},{"Weight":[-0.872365096990189,-0.52183227259518217,0.87358818057625953,0.40960787535161147,0.527542351990725,-0.872365096990189,-0.52183227259518217,0.87358818057625953,0.40960787535161147,0.527542351990725],"Bias":0.53174448090453841,"Output":0.0,"Threshold":-0.311158661875482,"Type":"A"},{"Weight":[-0.26612072357261585,0.043849897591327271,-0.26612072357261585,0.043849897591327271,-0.26612072357261585,0.10305451827731658,-0.26612072357261585,0.13893624168771143,-0.26612072357261585,-0.33974230351845841],"Bias":0.50265969522421228,"Output":0.0,"Threshold":0.99116640584132,"Type":"A"},{"Weight":[0.1229505290384174,-0.59816626463931344,0.39276864165103464,-1.4722017103211031,0.27162886080175119,0.77971067129620852,-1.9510967805753912,0.77971067129620852,-1.4722017103211031,0.77971067129620852],"Bias":0.990038443817775,"Output":0.0,"Threshold":0.80915369247512592,"Type":"A"},{"Weight":[-0.872365096990189,-0.52183227259518217,0.87358818057625953,0.40960787535161147,0.527542351990725,-0.872365096990189,-0.52183227259518217,0.87358818057625953,0.40960787535161147,0.527542351990725],"Bias":0.53174448090453841,"Output":0.0,"Threshold":-0.311158661875482,"Type":"A"},{"Weight":[0.28239400814398852,-0.13820711261974977,-0.78161182954516806,0.55121273322785869,0.75880909385569817,0.59555246522443017,-0.5257570329242186,-0.50697755394828392,-0.021761200342681836,0.53461084155580529],"Bias":0.2353598569684475,"Output":0.0,"Threshold":-0.28462237272626834,"Type":"O"},{"Weight":[-0.14686758357419985,-0.20010886583482329,0.65835862358024277,0.30558150741531581,0.15048907995246771,0.1622591389633059,0.018714061597694683,0.2340225857840956,0.35392512676954507,-0.33974230351845841],"Bias":0.990038443817775,"Output":0.0,"Threshold":-0.11562912823428828,"Type":"GT"},{"Weight":[-0.872365096990189,-0.52183227259518217,0.87358818057625953,0.40960787535161147,0.527542351990725,-0.872365096990189,-0.52183227259518217,0.87358818057625953,0.40960787535161147,0.527542351990725],"Bias":0.53174448090453841,"Output":0.0,"Threshold":-0.311158661875482,"Type":"A"},{"Weight":[0.397660819067462,-0.5257570329242186,-0.50697755394828392,0.86862388223811227,0.53461084155580529,0.397660819067462,-0.5257570329242186,-0.50697755394828392,0.86862388223811227,0.53461084155580529],"Bias":0.29552827154776468,"Output":0.0,"Threshold":0.0050760451727900752,"Type":"O"},{"Weight":[-0.14686758357419985,-0.59816626463931344,0.65835862358024277,-1.4722017103211031,0.15048907995246771,0.0076957776945530271,-0.28972610152080935,0.4461906046821692,0.35392512676954507,0.15048907995246771],"Bias":0.990038443817775,"Output":0.0,"Threshold":-0.349547569220675,"Type":"GT"},{"Weight":[-0.872365096990189,-0.3330754230360386,0.768927728649661,0.40960787535161147,0.19869150021052517,-1.5182718911758959,-0.17014784229751576,-0.94300280275894455,0.40960787535161147,1.918637022338173],"Bias":0.990038443817775,"Output":0.0,"Threshold":-0.32882721784004348,"Type":"A"}],"output":null,"numNeurons":11},{"neurons":[{"Weight":[-0.016442842090708593,-0.48036187304200689,0.70119415256250373,-0.0965766082967523,0.046093028293034521,0.70119415256250373,-0.37273301900026062,-0.90024831793282567,0.4414345978020851,-0.22054402074801915,-0.016442842090708593],"Bias":0.18022041729661656,"Output":0.0,"Threshold":-0.077313727735222187,"Type":"A"},{"Weight":[-0.872365096990189,-1.6543733699500436,-0.70589469452663078,-0.025734219712081466,0.52282527439427806,0.57591467330973345,0.54620244332878032,0.73790416784486923,0.43679096337258394,0.81083758771924186,-0.872365096990189],"Bias":0.59479775400590051,"Output":0.0,"Threshold":-0.57782504967312565,"Type":"A"},{"Weight":[0.70119415256250373,0.47693306881791608,0.36452008987056095,0.70119415256250373,0.47693306881791608,0.36452008987056095,0.70119415256250373,0.47693306881791608,0.36452008987056095,0.70119415256250373,0.47693306881791608],"Bias":0.18022041729661656,"Output":0.0,"Threshold":0.099277557851410167,"Type":"A"},{"Weight":[0.87564103625511813,0.45988412502216369,0.87564103625511813,0.87564103625511813,0.45988412502216369,0.87564103625511813,0.87564103625511813,0.45988412502216369,0.87564103625511813,0.87564103625511813,0.45988412502216369],"Bias":0.47113144466240492,"Output":0.0,"Threshold":-0.39239372051898092,"Type":"GT"},{"Weight":[-0.29973484007629325,-0.84200417825114182,1.9356353841422291,-0.24859043501717523,-0.78376003856945786,-0.22520316391028611,-0.98881412622929277,-0.78376003856945786,-0.35087924513541124,0.85971233009347348,-0.70466191005178813],"Bias":0.65224381496768624,"Output":0.0,"Threshold":-1.2557452234931967,"Type":"A"},{"Weight":[0.14232135105054888,-1.230114172785596,1.068853059990263,0.14232135105054888,-0.427460579400631,1.068853059990263,-0.21509287795754739,1.0160241141058615,1.068853059990263,0.18789145266073337,-0.82878737609311348],"Bias":0.622516979171204,"Output":0.0,"Threshold":0.02869047284065307,"Type":"GT"}],"output":null,"numNeurons":6}],"OLayer":{"neurons":[{"Weight":[0.62670591409630427,0.22639861247800225,0.29486105162411042,0.22639861247800225,-0.33286627199634267,0.55440126664675826],"Bias":0.76236477203777286,"Output":0.76236477203777286,"Threshold":-1.3348736797156156,"Type":"OT"},{"Weight":[1.5600737722404645,0.79923021690884144,0.26585453900781209,0.2592511001318929,0.72256005379490562,0.79923021690884144],"Bias":0.36966263333785471,"Output":0.0,"Threshold":-0.931210868959879,"Type":"OT"},{"Weight":[0.49424459901370321,0.11594272410308137,0.5657635135882364,1.4501376838656785,0.49424459901370321,0.84027964893741514],"Bias":0.049970288318568042,"Output":0.049970288318568042,"Threshold":-0.61785723577153751,"Type":"OT"},{"Weight":[0.48096740244932817,0.76791523386161553,0.719670452396232,0.5527043603024,0.37987970403855653,0.95837350234313567],"Bias":0.66993234989695827,"Output":0.66993234989695827,"Threshold":0.0,"Type":"OT"},{"Weight":[0.46394971733165424,0.33331916263947226,0.21367176213007036,0.51327997050866481,0.46394971733165424,-0.7923485798725618],"Bias":0.968004926442171,"Output":0.0,"Threshold":0.0,"Type":"OT"},{"Weight":[0.52700089361844626,0.2753363807105163,0.69280977951959233,0.52700089361844626,0.2753363807105163,0.52700089361844626],"Bias":0.91580239306939881,"Output":0.91580239306939881,"Threshold":-0.42136867131170286,"Type":"OT"},{"Weight":[0.54125590187788752,0.32385236307692356,0.93888632670924366,0.764395543147994,0.61608148627732018,0.25177971611347966],"Bias":0.37869110441705728,"Output":0.37869110441705728,"Threshold":0.0,"Type":"OT"},{"Weight":[0.89882692829651145,0.57001188319177,-0.70040749255586765,0.74770072230496476,-0.94360904532652778,0.660441464586389],"Bias":0.17407285569891,"Output":0.0,"Threshold":0.0,"Type":"OT"},{"Weight":[0.33275496556086231,1.1268404638985361,0.57843501240873474,0.22848440321557428,0.38603570679483734,0.73539877251507679],"Bias":0.12998523662331757,"Output":0.0,"Threshold":-0.044597451130206411,"Type":"OT"},{"Weight":[0.11077530314716291,0.65449312278278771,0.11077530314716291,0.57340937926127078,0.11077530314716291,0.57340937926127078],"Bias":5.9836078463045917E-05,"Output":0.0,"Threshold":-0.032145003803141892,"Type":"OT"},{"Weight":[1.414779724280713,0.89180770697621992,1.414779724280713,0.28240822821734857,1.414779724280713,0.518417372609683],"Bias":0.013508709619524289,"Output":0.013508709619524289,"Threshold":1.9840945750400865,"Type":"OT"}],"output":null,"numNeurons":11},"NumLayers":10,"Breedibility":0.76020239442479909,"Mutibility":3.7574630165943939,"Repetition":0}
