{"Input":[0.0,0.0],"Output":[0.0,0.0],"DLayers":[{"neurons":[{"Weight":[-0.33594129669291029,-0.90536793689493456],"Bias":0.52212784510204935,"Output":0.0,"Threshold":0.801939357445547,"Type":"GT"},{"Weight":[0.71336101308155853,0.480591527410127],"Bias":0.25345268065736287,"Output":0.0,"Threshold":0.096441092014518143,"Type":"GT"},{"Weight":[-0.81781028528595823,0.072685094118437307],"Bias":0.080250376872834928,"Output":0.0,"Threshold":-0.73799354431125963,"Type":"A"},{"Weight":[-0.056698386118141181,0.17762395142466944],"Bias":0.019375774552754951,"Output":0.0,"Threshold":0.28805874487760419,"Type":"O"},{"Weight":[0.56122105129119992,-0.74522802082133854],"Bias":0.028666830635008789,"Output":0.0,"Threshold":0.466514270969906,"Type":"GT"},{"Weight":[-0.19846648964959499,-0.15466319078331031],"Bias":0.85493048320288323,"Output":0.0,"Threshold":0.7961012952942873,"Type":"O"},{"Weight":[-0.896195084273906,0.33412736530142245],"Bias":0.058359784101303568,"Output":0.0,"Threshold":0.8694804845701346,"Type":"A"},{"Weight":[-0.056732868802143663,-0.021883499818799786],"Bias":0.62431540602087765,"Output":0.0,"Threshold":0.73223475447494291,"Type":"O"},{"Weight":[0.010005882480184494,-0.31723255539184092],"Bias":0.35121307119317963,"Output":0.0,"Threshold":-0.10416500042386585,"Type":"O"},{"Weight":[0.49932288820823789,0.67347981858694916],"Bias":0.58333035352794937,"Output":0.0,"Threshold":0.00740866409959675,"Type":"O"},{"Weight":[0.52310357686276709,0.0747609143493515],"Bias":0.95393137957618168,"Output":0.0,"Threshold":0.077297668940060613,"Type":"A"},{"Weight":[-0.16392290879223631,0.40294877085972053],"Bias":0.44463077115110622,"Output":0.0,"Threshold":0.79818483432670351,"Type":"GT"}],"output":null,"numNeurons":12},{"neurons":[{"Weight":[-0.72936092257935592,-0.34199133577849311,0.50158430007360144,-0.79203008385004015,-0.98283135098537022,-0.52844163380956355,-0.77452951193532416,0.049324204702546913,0.76128640899494593,0.70180761008607573,-0.98126542939863426,0.9327082135401239],"Bias":0.62549198867077571,"Output":0.0,"Threshold":-0.3051350080897729,"Type":"O"},{"Weight":[0.529475795351656,0.70113805388153438,-0.20724808341229711,0.85396943094859334,0.2678430286552026,-0.021519276789165695,0.28273083049931136,-0.97110002859081146,-0.38085096207486974,-0.38939339685691216,0.35362456615717364,-0.68334436215616035],"Bias":0.21664392771974389,"Output":0.0,"Threshold":-0.80875789504906059,"Type":"GT"},{"Weight":[0.29858547090486875,-0.85337675123167078,-0.69997028154319629,-0.543447732247155,0.332138482170244,-0.98875258257088838,-0.16064796790510788,0.5629256961694572,0.48375919763173869,-0.37474300962628004,0.5002708600369612,-0.2227955894650871],"Bias":0.9157416112328608,"Output":0.0,"Threshold":-0.071269933167505045,"Type":"A"},{"Weight":[-0.22332088100878564,-0.39482268476617649,0.97894798404488148,0.47752950874973532,0.9283515996897368,-0.31863443009491749,0.21254145037966848,-0.71188265071803825,-0.50698731816699139,-0.97201490168087878,0.19436932038253607,0.80914716227406036],"Bias":0.43401488542278061,"Output":0.0,"Threshold":0.21758821803032805,"Type":"GT"},{"Weight":[0.51554919477344918,0.2807076807509678,0.74322219087892316,0.85284522681163866,0.52215233655746673,0.37376907904342238,-0.79567971629820755,0.051206458383801605,-0.36456846835304446,0.012734796392142212,0.17680442993380335,0.62276476976590456],"Bias":0.099255031486626261,"Output":0.0,"Threshold":0.26717632229774085,"Type":"O"},{"Weight":[0.599084531701675,0.96447530294045591,-0.8382602230823879,-0.013949049643217144,0.54436230405436936,-0.44869478533449342,0.042088693958748452,0.94172360419375989,-0.66290725472518586,-0.28473562481102332,-0.65257984569882033,-0.16887256091873745],"Bias":0.20485342163818582,"Output":0.0,"Threshold":-0.15238223464804807,"Type":"O"},{"Weight":[-0.10085989353287028,-0.529445316889065,-0.19345549503036566,0.32482225649283375,0.625787091267196,0.72640834782570984,0.019478402109573783,0.11432690877203219,0.73413124807837016,-0.56324824530782558,0.81719604452010064,0.21615802273906676],"Bias":0.98244069748671758,"Output":0.0,"Threshold":0.41686958978738153,"Type":"GT"}],"output":null,"numNeurons":7}],"OLayer":{"neurons":[{"Weight":[0.6161650976241404,0.21205818476716903,0.39185053314634161,0.1038956335298231,0.98485258779714469,0.049294802383191325,0.947944668563057],"Bias":0.92710465096268091,"Output":0.0,"Threshold":-0.29093783269214341,"Type":"OT"},{"Weight":[0.1140342294769521,0.65881135065984509,0.1141301543051983,0.61156603536175846,0.93499483025399732,0.35573480900178422,0.9124041851202046],"Bias":0.59959913119655062,"Output":0.0,"Threshold":-0.7765859052429841,"Type":"OT"}],"output":null,"numNeurons":2},"NumLayers":2,"Breedibility":0.87619567423881761,"Mutibility":9.68261586487415,"Repetition":0}
