{"Input":[0.0,0.0],"Output":[0.0,0.0],"DLayers":[{"neurons":[{"Weight":[0.15261459823353896,0.21056916434809991],"Bias":0.17409508310914743,"Output":0.0,"Threshold":-0.30769051160090161,"Type":"GT"},{"Weight":[0.6220206681741498,-0.72801040286571272],"Bias":0.81521902597286688,"Output":0.0,"Threshold":0.67224221801024031,"Type":"O"},{"Weight":[0.359439119863994,0.37031470675501726],"Bias":0.28016309732578837,"Output":0.0,"Threshold":-0.81090972237796977,"Type":"O"},{"Weight":[-0.87633452977814452,0.82442795104553357],"Bias":0.47925822040031579,"Output":0.0,"Threshold":0.062418136774757008,"Type":"A"},{"Weight":[0.7833747038540313,-0.55498735911910768],"Bias":0.81244467655776287,"Output":0.0,"Threshold":-0.3044047813417412,"Type":"A"},{"Weight":[-0.87132139404831521,-0.96845220493546325],"Bias":0.37409091618568213,"Output":0.0,"Threshold":0.13599621510878029,"Type":"GT"},{"Weight":[0.97105058420964074,-0.9849169272859194],"Bias":0.22411013079067232,"Output":0.0,"Threshold":0.0035744966024414153,"Type":"O"},{"Weight":[-0.36502303758870019,0.86733346053740634],"Bias":0.483262560555368,"Output":0.0,"Threshold":-0.51314097108,"Type":"O"},{"Weight":[-0.252289992408962,-0.493879781334605],"Bias":0.11725485889113269,"Output":0.0,"Threshold":0.74022559250715447,"Type":"O"},{"Weight":[-0.5778134304926793,-0.74859865370606937],"Bias":0.84245751744250652,"Output":0.0,"Threshold":0.040415040236159709,"Type":"A"}],"output":null,"numNeurons":10},{"neurons":[{"Weight":[0.4832141918517715,-0.64555410465484209,-0.55086314331314667,-0.77980020725158983,0.21328248326353844,-0.63023279636643492,-0.31855539759553753,0.35818042296831515,-0.40884967353607049,0.95052433896368571],"Bias":0.537836552848032,"Output":0.0,"Threshold":-0.22395890030262941,"Type":"GT"},{"Weight":[-0.92988258876366658,-0.73099084185948171,-0.46197153276855663,0.32460799735254048,-0.12699514586804209,4.8368703596465617E-05,-0.46546510721811329,-0.70142684909581521,-0.71407957408301514,0.90397237562759425],"Bias":0.040989205260290394,"Output":0.0,"Threshold":-0.617963017717918,"Type":"A"},{"Weight":[-0.39041823073775422,0.43360784390643603,-0.70374202900740412,-0.22703467413179329,-0.581980852215542,-0.14761862072517099,0.34934285299356227,0.60556729119530284,-0.47338433213223907,-0.31007617493629275],"Bias":0.39388448856486219,"Output":0.0,"Threshold":-0.65784529580634332,"Type":"A"},{"Weight":[0.45555969302335741,0.92803685969116023,-0.31998652467503519,-0.12149290885845801,0.19464934207249868,-0.86455761215861771,-0.065639514506626653,-0.824203483212834,0.79782719947296532,0.11835427494642989],"Bias":0.33448270118538415,"Output":0.0,"Threshold":0.60447108075230893,"Type":"GT"},{"Weight":[-0.4085480875375439,0.46884893089013591,0.30788684278162515,0.70530194309786987,0.739340735943681,-0.42786880509362968,0.17018502120402876,-0.939268766874107,0.36157908167763569,0.90230642627100754],"Bias":0.6602667521966,"Output":0.0,"Threshold":0.38256080606140236,"Type":"A"},{"Weight":[-0.27808380093336282,0.49586632451781365,0.53949102085991341,0.59226565044013113,0.6134014272193431,-0.11517308657764136,-0.81974279778997539,-0.00403272826412354,-0.92650246709887984,0.48366574919021954],"Bias":0.013310694141923773,"Output":0.0,"Threshold":0.72775291080016313,"Type":"A"},{"Weight":[0.80152431028034743,-0.62081403500438392,-0.70216465448130139,-0.52898845753119716,-0.54154164043326936,-0.66061812018073074,-0.46969818438854916,-0.19308191407149747,0.91459384184078962,-0.48304914519332776],"Bias":0.58814041343896672,"Output":0.0,"Threshold":-0.80921949297619034,"Type":"A"},{"Weight":[0.83166632141529873,0.79103597569793271,-0.89889505687118276,0.018894138754761841,-0.42271466619461529,0.8515671011300604,-0.89641716000457161,-0.148923957789747,-0.20979319243216571,-0.5885076334646473],"Bias":0.52217286756363368,"Output":0.0,"Threshold":0.977448795445938,"Type":"A"},{"Weight":[-0.93890276315570942,-0.64418618038491637,-0.24470376560683538,0.50637328601739051,-0.35131882566554418,-0.6671173300906631,-0.48531561088064479,-0.12709222460495878,-0.41774995923868846,-0.60386926662357021],"Bias":0.20064343055740158,"Output":0.0,"Threshold":-0.47855604462258333,"Type":"GT"},{"Weight":[-0.42785623503283421,-0.22161017880850015,-0.220711859511543,0.65661522636963765,0.91383494432728507,0.58937931181368386,0.44542940773322687,0.30562712452636431,0.89497933904406579,-0.36320704378337],"Bias":0.42636466884350621,"Output":0.0,"Threshold":0.11998089641331737,"Type":"GT"},{"Weight":[-0.962093580496541,-0.9653487405578367,0.37357952882236778,-0.67364850485401628,0.93586382732534024,-0.0086742662865083048,-0.20557469371965839,-0.771592957792614,0.78541071470147494,0.11510811704914463],"Bias":0.41132707074812014,"Output":0.0,"Threshold":-0.4897533759892701,"Type":"A"},{"Weight":[0.80466010552116674,-0.17336622028302692,0.11534900083921337,-0.39474717406311405,-0.29426507479244146,-0.53686102784092582,-0.12519888539109328,-0.48063799714699296,-0.24309553543249868,0.70147502129034833],"Bias":0.573689371148911,"Output":0.0,"Threshold":0.20692266347209115,"Type":"GT"}],"output":null,"numNeurons":12},{"neurons":[{"Weight":[0.10243584406675578,-0.61346486472220385,0.28316265916599087,-0.47234020450727093,0.1299624187545676,0.76524005586525423,-0.332267358122518,-0.064562665328645463,0.70079892766699148,-0.19305132478151998,-0.68746267943059214,-0.54068112584793993],"Bias":0.89231426217235354,"Output":0.0,"Threshold":-0.32547603516163121,"Type":"A"},{"Weight":[-0.38414157432696855,0.59773744204907564,-0.28580555891888476,-0.012913156772457602,-0.78128230934091025,-0.011102415626450635,0.064520823333654942,0.99523646663652565,0.71539794128173861,0.91082817730998067,-0.63691235596170293,-0.87289044348191958],"Bias":0.59690377516527837,"Output":0.0,"Threshold":-0.41700301152514435,"Type":"GT"},{"Weight":[-0.12829937838404409,0.11255851719181916,0.51546526165467932,0.74594336224065316,0.00948808994586025,-0.23186931024858232,0.33208456092145505,-0.64704485407427181,0.793336970635381,0.4060368265053429,0.14033584768899524,-0.61686386569257079],"Bias":0.41464785785165048,"Output":0.0,"Threshold":-0.49825960188091711,"Type":"GT"},{"Weight":[-0.38880650717243853,0.22148059784503682,-0.853505174095512,0.074021279380666688,-0.19044404206352497,-0.69929836816121749,-0.20810197955374699,0.628015966912739,0.4732496754607417,0.45195031466519009,-0.546983052765477,0.60914630657487845],"Bias":0.010966185019801457,"Output":0.0,"Threshold":0.666789308966505,"Type":"A"},{"Weight":[0.66433919205532377,-0.54303876615270918,0.53269585107113038,0.47945896092777091,-0.72537508500990233,-0.225050363328797,-0.78822072818326794,0.20735232634812237,-0.27898932680440569,-0.525315358082445,0.27516110207660177,0.71394560100228788],"Bias":0.046309287215727052,"Output":0.0,"Threshold":0.37669565033945052,"Type":"A"},{"Weight":[0.58610785826393774,-0.8578363623739389,0.21952194497898311,-0.835740059537692,0.5103770254693818,0.84776312245417529,0.64751203760854525,-0.04316717341689727,-0.60722227655687477,-0.98644962021450033,0.2677417487221499,0.3396267533952495],"Bias":0.14147395088405998,"Output":0.0,"Threshold":0.81316283289956059,"Type":"GT"},{"Weight":[0.21141763972650171,-0.97089637255803518,0.91269908003169065,-0.22812606684310643,-0.505230400480903,0.06651298891124921,0.311225542943564,0.22954415354390823,0.17781473052586183,-0.36585281154413374,0.80515443384887386,0.975152941409104],"Bias":0.39024603012495024,"Output":0.0,"Threshold":0.24311316443752179,"Type":"GT"},{"Weight":[0.26323776425013212,-0.04524191424494698,-0.89893776266786163,0.053663161608233659,0.71119633582942021,-0.73957320476862287,0.58565597496258837,0.6049525121249969,-0.09940239186370857,-0.088791907340656923,0.63968097401768009,-0.80757360151390245],"Bias":0.44731002135542686,"Output":0.0,"Threshold":-0.48858214704719471,"Type":"GT"},{"Weight":[-0.98551060677762636,0.76575417060672968,0.91977584544558821,0.85927280311438847,0.993092583954843,-0.040383995529443023,0.88860836340515337,-0.8857002825875302,-0.13346986851350864,0.87572308530831855,-0.99881017627139124,-0.78099151457706073],"Bias":0.15432125709686487,"Output":0.0,"Threshold":-0.32050045967125357,"Type":"O"},{"Weight":[0.064874428820272181,-0.95904909072399558,-0.008859323807460873,0.564202870505025,-0.92600875111576575,-0.16198966333735254,0.0613838029379881,-0.57579519440224169,0.0067438664877525843,0.43686186030360957,-0.8570298523907689,-0.13496100908841985],"Bias":0.61285906173887617,"Output":0.0,"Threshold":0.12636532314418131,"Type":"O"},{"Weight":[-0.30951095154020514,0.51526465849730407,-0.43404157945608796,-0.56790794132645617,0.70110478610783111,-0.28264374438796369,-0.11562780575623168,-0.56004305768760065,0.12209763942384051,-0.82311402485850915,-0.83046996864977762,-0.33637430162000204],"Bias":0.883638599367644,"Output":0.0,"Threshold":0.11735145892824581,"Type":"O"},{"Weight":[0.64185002755459863,0.79749655388179075,0.83716343521939751,0.31118291817194921,0.55472263067714989,0.64037105936574334,-0.40426220065181245,-0.73814372892405078,0.51464509475726872,0.84422249200019173,-0.76147873502293539,0.041125079170393326],"Bias":0.3032512982856721,"Output":0.0,"Threshold":0.58220474076559992,"Type":"GT"},{"Weight":[-0.086261700878972974,-0.71563678640669059,0.67528739696149132,0.57443151975722584,-0.83253182602698539,-0.60543671790763587,-0.95382349470342676,0.50875994866190477,-0.16093938712074393,-0.62237783364131016,0.60359927062112806,0.84238732319436382],"Bias":0.27312896692805411,"Output":0.0,"Threshold":0.071454337365671222,"Type":"GT"},{"Weight":[0.7547012929593685,-0.57924270237760744,-0.23618195170358847,-0.41711104773781776,-0.84707749115632736,0.047331232133941366,0.78508212733319127,-0.54418366055199119,0.38882498926894038,0.63819994481196629,-0.56271848108746036,-0.650609228131645],"Bias":0.95982690712428975,"Output":0.0,"Threshold":-0.27781915351646913,"Type":"O"},{"Weight":[0.31584491735130776,0.043561153599788044,-0.84268140412991932,0.15057712101870083,-0.8209070413470767,0.8944884272732252,-0.63955926133299212,0.71230587070449525,-0.053164163629135196,0.68587419422616913,0.41547515448903438,0.50055190292212737],"Bias":0.43325439255370496,"Output":0.0,"Threshold":-0.27706547513467517,"Type":"A"}],"output":null,"numNeurons":15},{"neurons":[{"Weight":[-0.37648679985501188,0.95836279818711934,-0.29050816189987033,-0.020817596940704435,0.44349817253812129,0.78102220538119893,-0.69759977315440769,0.0383469658151022,-0.027791416285462407,0.450448922557034,-0.81335077984880222,0.917155968918072,0.59343472569875177,-0.58795294518952856,-0.483984299695112],"Bias":0.56561592899524415,"Output":0.0,"Threshold":0.99640680523421932,"Type":"O"},{"Weight":[-0.44442024149206477,0.93612562908610586,-0.34905109943312179,0.69148827376379085,-0.60966599109101394,-0.9048519888449702,-0.71787538133462681,0.46220493710702515,-0.40546297626824257,0.55720419416073907,-0.52198793064895455,-0.37797581841143585,0.38581155910427289,0.49269252759064197,-0.79613548554300118],"Bias":0.17140956230992896,"Output":0.0,"Threshold":0.78461540014697961,"Type":"O"},{"Weight":[0.84916806819344315,-0.8829380566640469,-0.71619806518601159,-0.0779475728412846,0.53992574780244651,0.6870929704453298,-0.99325235001428624,0.86350305418647033,-0.76511569077387254,-0.4392026110734803,-0.98925724625087219,0.67737041771289441,0.24535068461920631,0.5389315581596138,-0.76100317750172841],"Bias":0.13423588459111557,"Output":0.0,"Threshold":-0.12023658869799067,"Type":"A"},{"Weight":[-0.58513559428282813,-0.85757511149047649,-0.49561824532953008,-0.42557615620343769,0.686969313159105,0.67932486845148954,-0.586128080536671,-0.83160655146073859,0.50780381472213376,-0.34541278907349926,0.19709735000370879,-0.30563031197787743,0.15127848794277687,-0.87989327864716449,-0.49520893930234433],"Bias":0.47727463742591192,"Output":0.0,"Threshold":-0.5668563817473391,"Type":"O"}],"output":null,"numNeurons":4},{"neurons":[{"Weight":[0.38429884677021708,0.75628188706761312,0.30082325371951946,0.72348143240599028],"Bias":0.91090512131848611,"Output":0.0,"Threshold":-0.8903829217377971,"Type":"O"},{"Weight":[-0.19988831328222914,0.70833882349931576,0.31662594076088907,-0.85319828095529149],"Bias":0.95349270661989816,"Output":0.0,"Threshold":0.17357389543837584,"Type":"A"},{"Weight":[-0.549090849025683,0.344007251478735,-0.48379005095166622,0.11246848670415044],"Bias":0.12439651560243056,"Output":0.0,"Threshold":-0.77052955644695531,"Type":"GT"},{"Weight":[0.75152192765452053,-0.04458953535397981,-0.47361591759771848,-0.39472519065939132],"Bias":0.78675039847695749,"Output":0.0,"Threshold":0.76298480795835366,"Type":"A"},{"Weight":[-0.78687011580302846,0.16064869666502285,-0.36801556980610617,-0.61502098181053111],"Bias":0.34155117503439597,"Output":0.0,"Threshold":-0.89872657130413058,"Type":"GT"},{"Weight":[0.60451040864200811,0.046765816419741986,0.77791443503364666,-0.0591460727430629],"Bias":0.717464411965322,"Output":0.0,"Threshold":-0.54157048954701537,"Type":"A"},{"Weight":[-0.73023426427051152,0.8608075174786185,-0.77884870477898449,0.070804917286524979],"Bias":0.578481113341861,"Output":0.0,"Threshold":0.42721046340987573,"Type":"O"}],"output":null,"numNeurons":7},{"neurons":[{"Weight":[-0.32043590458130272,-0.99708838574452718,0.23658275335868018,0.85279535635038994,0.0022523603412566524,-0.52070135973426579,0.77301072830940165],"Bias":0.0818310534031275,"Output":0.0,"Threshold":-0.70383873521529083,"Type":"A"},{"Weight":[-0.24529962625601312,-0.80345132658418794,-0.9968764609642683,-0.76261529548215456,0.22005367475564297,-0.52298448305716017,0.17729994523213241],"Bias":0.9372123568026407,"Output":0.0,"Threshold":-0.49317250004651608,"Type":"A"}],"output":null,"numNeurons":2}],"OLayer":{"neurons":[{"Weight":[0.11918239906392172,0.58071739998679484],"Bias":0.75716656155752327,"Output":0.0,"Threshold":0.22462538686796343,"Type":"OT"},{"Weight":[0.09092983514579471,0.0745185776960657],"Bias":0.60501179127256,"Output":0.0,"Threshold":0.47656459057543643,"Type":"OT"}],"output":null,"numNeurons":2},"NumLayers":6,"Breedibility":0.082267305852038466,"Mutibility":3.2783490481219952,"Repetition":0}
