{"Input":[0.0,0.0],"Output":[0.0,0.0],"DLayers":[{"neurons":[{"Weight":[0.889089559618891,-0.79782112445580822],"Bias":0.19960072832163459,"Output":0.0,"Threshold":-0.31716879378872403,"Type":"O"},{"Weight":[0.41226292094786787,0.22515703189426894],"Bias":0.722218473778208,"Output":0.0,"Threshold":0.82770025489279075,"Type":"GT"},{"Weight":[-0.69956511664184051,0.921096470635895],"Bias":0.54141160405306687,"Output":0.0,"Threshold":0.30508815744197376,"Type":"O"},{"Weight":[0.63663274917594748,0.59198751840367336],"Bias":0.0353836347513756,"Output":0.0,"Threshold":-0.17961564389039558,"Type":"GT"},{"Weight":[0.2630204438525347,-0.020614464311215313],"Bias":0.15948810948035125,"Output":0.0,"Threshold":0.54617185403880286,"Type":"GT"},{"Weight":[0.83638523557986377,0.354520118029099],"Bias":0.49107417673388226,"Output":0.0,"Threshold":-0.89038965985662755,"Type":"A"},{"Weight":[0.39718462917822628,0.747111869392503],"Bias":0.55165678334965218,"Output":0.0,"Threshold":0.0065516447678914506,"Type":"A"},{"Weight":[-0.37116650509236682,0.627834034444687],"Bias":0.72518127538505073,"Output":0.0,"Threshold":0.554007173773836,"Type":"O"},{"Weight":[-0.16125056341348709,0.62448293372266128],"Bias":0.80708579058157548,"Output":0.0,"Threshold":-0.27113621508289881,"Type":"A"},{"Weight":[0.52324233321623981,0.84604844909442978],"Bias":0.95056803941287471,"Output":0.0,"Threshold":-0.75454846990972224,"Type":"A"},{"Weight":[-0.38001989637502465,0.37249113403842371],"Bias":0.43250377449789262,"Output":0.0,"Threshold":-0.93310861146687929,"Type":"GT"}],"output":null,"numNeurons":11},{"neurons":[{"Weight":[0.43661306213429807,0.098069873218457157,0.93887497807800535,-0.28237806180602781,0.12187284097162673,-0.069300058330083292,0.32721638974138367,-0.12604841409532744,-0.59371860678946531,-0.94379616526132271,0.19537480417423639],"Bias":0.61661803518264457,"Output":0.0,"Threshold":0.81608952480186225,"Type":"GT"},{"Weight":[-0.46099615863570764,0.16200846767146535,-0.22814195194660777,0.368014134638018,-0.37047272844727741,-0.27147196618442981,-0.58436735513823446,0.563670387288402,-0.82869519844124806,-0.17602865312994862,0.052803506633640966],"Bias":0.24644271994309627,"Output":0.0,"Threshold":0.36214075580338984,"Type":"A"},{"Weight":[-0.30792996487949509,0.73303737572070093,-0.29813106185669597,0.036746874468748865,-0.12705841852680708,-0.0048807226144153264,0.38986152335529284,-0.89789259149594813,0.15024388262547733,-0.88037855358811956,0.45506901454882187],"Bias":0.59683280838505959,"Output":0.0,"Threshold":0.66374132394033547,"Type":"GT"},{"Weight":[-0.64006087167191361,0.15963222000730792,0.935073319792316,-0.96135833485115241,-0.86211802338348609,0.23845926357361455,0.058256056186862318,0.19830856854017293,-0.89274762239900773,0.52675275761948559,-0.74668347125252865],"Bias":0.58244377168940553,"Output":0.0,"Threshold":0.6970837561865727,"Type":"O"}],"output":null,"numNeurons":4},{"neurons":[{"Weight":[-0.48012200392788368,-0.38393984054398717,0.069296051780365436,0.81805802128187288],"Bias":0.63549229252873562,"Output":0.0,"Threshold":-0.56680703142974853,"Type":"O"},{"Weight":[-0.20501301074633982,-0.055391813188508068,-0.62584406026911177,0.58295085354845544],"Bias":0.89088693582028478,"Output":0.0,"Threshold":0.16035459524037066,"Type":"A"},{"Weight":[-0.13402444316727316,0.29777230429359353,0.36328428860906709,-0.46254846382073522],"Bias":0.4582918959009889,"Output":0.0,"Threshold":-0.31810550965280526,"Type":"A"},{"Weight":[0.47817818283949892,0.16916321179324911,-0.24019803490498942,-0.56281627601143736],"Bias":0.48321685683132004,"Output":0.0,"Threshold":-0.29701966293948689,"Type":"GT"},{"Weight":[-0.6912916580640206,0.95659971142029376,0.010273769502655496,-0.59087526639498544],"Bias":0.84146231638335733,"Output":0.0,"Threshold":-0.352697338607487,"Type":"A"},{"Weight":[-0.70066923075386756,0.27863518813561422,-0.10425856760901332,0.70749680637731072],"Bias":0.8791346726376259,"Output":0.0,"Threshold":0.15952533025272439,"Type":"GT"},{"Weight":[-0.94809727508020458,0.47120720495991747,-0.5975383192289333,0.54802564510518015],"Bias":0.815248819447704,"Output":0.0,"Threshold":-0.15117744782528722,"Type":"GT"},{"Weight":[0.86221109883031388,0.11402926040535293,-0.72723024325781982,-0.054404166552426372],"Bias":0.40780738434186548,"Output":0.0,"Threshold":0.23685572633373353,"Type":"A"}],"output":null,"numNeurons":8},{"neurons":[{"Weight":[-0.74613479373330938,0.19798912117164075,-0.43483224577961127,0.53176632781129629,0.10367138735189634,-0.99617440998376083,0.047560471597854266,0.535442477807143],"Bias":0.52810357163106258,"Output":0.0,"Threshold":0.11705866601181154,"Type":"A"},{"Weight":[0.15499343590577758,-0.22153337310139712,-0.014581094502741981,-0.71766575040187019,-0.43347501961210511,-0.711241548746471,-0.31567762201450655,-0.85140352549562393],"Bias":0.3500365239335394,"Output":0.0,"Threshold":-0.24748192366561012,"Type":"A"}],"output":null,"numNeurons":2}],"OLayer":{"neurons":[{"Weight":[0.68119118999745287,0.77817805054512712],"Bias":0.85957115602659584,"Output":0.0,"Threshold":-0.11785485042159206,"Type":"OT"},{"Weight":[0.8404080764578693,0.095811820167960512],"Bias":0.9841656754650947,"Output":0.0,"Threshold":-0.11979706032192197,"Type":"OT"}],"output":null,"numNeurons":2},"NumLayers":4,"Breedibility":0.11295904224410608,"Mutibility":9.1394351698176166,"Repetition":0}
