{"Input":[0.0,0.0],"Output":[0.0,0.0],"DLayers":[{"neurons":[{"Weight":[0.11012312402488809,-0.91418461264771622],"Bias":0.9857304310359668,"Output":0.0,"Threshold":0.79881207076777339,"Type":"O"},{"Weight":[0.67861945306817972,0.11007331735923576],"Bias":0.61803852981796414,"Output":0.0,"Threshold":0.8193962363616546,"Type":"GT"},{"Weight":[0.24001379834488676,0.27335978684637685],"Bias":0.11596837598642724,"Output":0.0,"Threshold":0.57448934743855584,"Type":"A"},{"Weight":[0.34637419057375479,0.7108766141863897],"Bias":0.702631624277044,"Output":0.0,"Threshold":0.47334271831127944,"Type":"GT"},{"Weight":[-0.65272736812603072,0.9927349537577177],"Bias":0.75282929360532636,"Output":0.0,"Threshold":0.58454326846848392,"Type":"O"},{"Weight":[0.26962425712012883,-0.880654161740399],"Bias":0.10040060482006548,"Output":0.0,"Threshold":-0.66184466828678024,"Type":"O"},{"Weight":[0.79288789853122454,0.41155587994100334],"Bias":0.33576590490330288,"Output":0.0,"Threshold":0.23416862601142779,"Type":"GT"},{"Weight":[-0.89697581385121483,-0.025262263615272132],"Bias":0.087935456581383686,"Output":0.0,"Threshold":-0.13405278703852222,"Type":"O"},{"Weight":[0.30411559823160789,-0.26396196115015164],"Bias":0.8266612826039369,"Output":0.0,"Threshold":-0.67623199460852523,"Type":"A"},{"Weight":[0.45617294565596289,0.23738410521176834],"Bias":0.69383518569815683,"Output":0.0,"Threshold":0.8767326902024134,"Type":"O"},{"Weight":[0.54117951846736456,-0.82805352091232942],"Bias":0.061786838370276077,"Output":0.0,"Threshold":-0.99651023512543657,"Type":"GT"},{"Weight":[-0.76483145158962884,0.0497923256129922],"Bias":0.55928100485321186,"Output":0.0,"Threshold":-0.50388379558170393,"Type":"O"}],"output":null,"numNeurons":12},{"neurons":[{"Weight":[0.67537742698349867,-0.36612772679241734,-0.0731439986606799,-0.11665590392269935,-0.75608535006460054,0.59730453118556392,0.9983781040638583,0.02024312364880141,-0.34073274132829751,-0.23178672801320754,-0.87313410028495553,0.30760536310617131],"Bias":0.84540321903554871,"Output":0.0,"Threshold":-0.58051158281998316,"Type":"O"},{"Weight":[-0.75159253401290282,-0.952289150074259,0.10181263513016171,-0.018457758714658094,-0.26897285332389775,0.46803551980668473,0.71139761698963011,0.30570148830567556,-0.44273000324272083,0.76645334752577043,-0.02954920196419079,-0.21854826352491427],"Bias":0.21517622853404667,"Output":0.0,"Threshold":0.82957220395541387,"Type":"O"}],"output":null,"numNeurons":2},{"neurons":[{"Weight":[0.67188938319305391,0.49263241584069672],"Bias":0.49021623492716637,"Output":0.0,"Threshold":0.44395719442700837,"Type":"O"},{"Weight":[0.30580611401507918,0.040897004325360531],"Bias":0.93875084814557375,"Output":0.0,"Threshold":-0.27460999427112287,"Type":"A"},{"Weight":[0.40370460245930806,0.88734033279462732],"Bias":0.43781110059368011,"Output":0.0,"Threshold":-0.25150834035664255,"Type":"A"},{"Weight":[0.75425751914934136,0.7210295157139327],"Bias":0.93328971552350082,"Output":0.0,"Threshold":-0.076322188636438082,"Type":"GT"},{"Weight":[0.48657022811778367,0.59708347013084384],"Bias":0.975403103965988,"Output":0.0,"Threshold":-0.16957562797217426,"Type":"A"},{"Weight":[0.645805663264266,0.1369238892276417],"Bias":0.72555634320041,"Output":0.0,"Threshold":-0.79196175410969261,"Type":"O"},{"Weight":[-0.16446233734696281,-0.81147162607473866],"Bias":0.79153040693678445,"Output":0.0,"Threshold":-0.69409912251592576,"Type":"GT"},{"Weight":[0.12885049038047461,0.90424897843238383],"Bias":0.72292767871307562,"Output":0.0,"Threshold":-0.78225456354313272,"Type":"O"},{"Weight":[0.62273145449474987,-0.33677060405573372],"Bias":0.677526524140279,"Output":0.0,"Threshold":-0.31991859912868525,"Type":"A"}],"output":null,"numNeurons":9},{"neurons":[{"Weight":[-0.34550375973130754,-0.74244366061987521,-0.89682666207515949,0.96229576503964875,0.96507649168608545,-0.93113912219700368,-0.037269876355896646,0.792471105601858,0.17670242729443239],"Bias":0.2968289234195039,"Output":0.0,"Threshold":-0.2653266495397904,"Type":"O"},{"Weight":[-0.86355109972113331,0.90743996384900061,-0.96326969888213543,-0.74590472958325627,0.84454373821827755,0.57734265158760489,0.44602664720547697,-0.30738029037945919,0.23202382830531515],"Bias":0.94195321339273508,"Output":0.0,"Threshold":0.38723365468309895,"Type":"GT"},{"Weight":[0.30999798481818197,-0.58546157813885324,0.54429949845387582,0.50082409684584672,0.7446168138387691,0.045564652907459369,-0.32843164509554934,0.20714448728000023,0.12523219321166734],"Bias":0.76018738362946892,"Output":0.0,"Threshold":0.88664999179851733,"Type":"A"}],"output":null,"numNeurons":3},{"neurons":[{"Weight":[-0.17571958861114437,-0.29035472790261485,-0.87090583558702184],"Bias":0.70675663496682262,"Output":0.0,"Threshold":0.32337343614705533,"Type":"GT"},{"Weight":[-0.79447546032931449,-0.94280660103205893,0.68806300763416239],"Bias":0.94504437825877419,"Output":0.0,"Threshold":-0.5776024030417215,"Type":"A"},{"Weight":[0.60854032664026148,-0.91943178182441354,-0.01916696271820318],"Bias":0.23926804738085161,"Output":0.0,"Threshold":-0.46484009524101394,"Type":"A"},{"Weight":[-0.871201195228473,-0.33956371868940244,-0.40974198952770885],"Bias":0.25394477055126091,"Output":0.0,"Threshold":0.56420736879306255,"Type":"O"},{"Weight":[0.037860178871946495,-0.10494269342391877,-0.533956184766235],"Bias":0.26433788624794124,"Output":0.0,"Threshold":-0.67414647791262083,"Type":"O"},{"Weight":[-0.81514300537069473,0.73869321017465239,-0.078967584333833107],"Bias":0.121621524040411,"Output":0.0,"Threshold":-0.11666999529892112,"Type":"O"},{"Weight":[-0.1340249609826249,-0.88852483774001,0.18985651209478105],"Bias":0.8046686294510349,"Output":0.0,"Threshold":0.665681149189212,"Type":"GT"},{"Weight":[-0.65694688104882226,0.94768414178289662,0.17822786335750848],"Bias":0.7110429414133741,"Output":0.0,"Threshold":0.45389462376660417,"Type":"O"},{"Weight":[0.834314218179469,0.027670909663509071,0.81190326568293536],"Bias":0.46174724328413014,"Output":0.0,"Threshold":-0.5852174947900779,"Type":"GT"},{"Weight":[-0.11253186134273739,0.34672134897984624,0.20728379311379222],"Bias":0.756904051060278,"Output":0.0,"Threshold":-0.79136700499400825,"Type":"A"},{"Weight":[0.33931235006978377,0.765279164428487,-0.93926608233678432],"Bias":0.36136344697389911,"Output":0.0,"Threshold":0.95005998851268547,"Type":"GT"},{"Weight":[0.64869101236047733,-0.47694144746146233,0.93793951298014233],"Bias":0.2142456300622996,"Output":0.0,"Threshold":0.04988920271857139,"Type":"A"},{"Weight":[-0.13228776358640182,0.46752328168019808,0.34137776090827665],"Bias":0.034115660485865389,"Output":0.0,"Threshold":0.09001961168368329,"Type":"O"},{"Weight":[0.20620738677969547,0.17821397780357579,-0.53587363312760072],"Bias":0.79984240503974369,"Output":0.0,"Threshold":0.04441134633701823,"Type":"O"},{"Weight":[0.200790159497778,-0.0090991342482618677,-0.40131702339338],"Bias":0.6603333277908775,"Output":0.0,"Threshold":0.0044213123640144767,"Type":"O"},{"Weight":[0.58169800908383817,0.28969458224703304,-0.80763341430930113],"Bias":0.13113345537853122,"Output":0.0,"Threshold":0.90641988669821061,"Type":"O"}],"output":null,"numNeurons":16},{"neurons":[{"Weight":[-0.27134383529021583,0.19383413633044536,-0.72901507594111148,0.77713407751970653,0.70228203185940252,-0.16983428372528137,-0.12407515296902281,-0.62060050881495721,-0.38522156066504382,0.89657279983934612,-0.029694348121850914,0.9429690269487766,0.49919253843798889,0.53023623746365134,-0.4160124177187739,-0.89342251834153319],"Bias":0.47977557614435234,"Output":0.0,"Threshold":0.97740693435883474,"Type":"O"},{"Weight":[-0.81526499791781648,0.67230194745226857,-0.883199250271171,0.21744298525966843,0.41186372535855681,-0.16561942927801024,0.1870329054943439,-0.7459118947134874,0.74530900257886812,-0.37049598729726674,-0.42574153301573431,-0.41045622127617531,0.9592766850065797,0.39041398576945718,0.8756384681331173,-0.67074407388956481],"Bias":0.49746642191776375,"Output":0.0,"Threshold":-0.47762381400802351,"Type":"A"},{"Weight":[0.785240306884628,0.976139527734434,-0.95285160930494384,0.38872248976897567,-0.4643619248943226,0.70514105013811079,-0.35861213102872119,0.657220541339936,0.606910947061568,-0.71723516179119939,0.76219674002481475,0.99601535359211979,0.80758092310632623,0.99368094699163034,-0.88575112441822468,0.72359857229683477],"Bias":0.51442221250125308,"Output":0.0,"Threshold":0.5333432953494337,"Type":"A"},{"Weight":[0.58411567080026294,-0.14819763142065967,-0.0045254314339372471,0.634671796874456,0.179819071749141,-0.23914587508847279,0.11008419846654134,0.53975727154862008,0.76038865221682406,-0.450371859339239,0.94526540764852673,-0.024118516139741294,0.0799686648323986,-0.05694621571197464,0.585572670952218,0.99208099022138907],"Bias":0.78090756050353294,"Output":0.0,"Threshold":-0.85319230000171453,"Type":"GT"},{"Weight":[-0.680199452061299,-0.41749164528096638,-0.93859642880903393,0.81842005663477824,0.38053910405400165,-0.53447478708553819,-0.47919393911920205,0.94902043926949631,-0.082971436010194674,0.85876283368969464,0.51467803191145789,-0.27212325635930673,-0.4108126654340013,-0.064532770805308948,-0.89182979282542585,-0.65018602164936534],"Bias":0.41581898947051676,"Output":0.0,"Threshold":0.47164287253825127,"Type":"A"},{"Weight":[-0.55557828049900859,0.2733756523921041,-0.15948034271573663,0.95262752610846768,0.20968871713135798,0.96621677510729842,-0.046711519382294044,-0.74229739966909281,0.99442946631201978,0.55343636709891086,-0.093019984240187328,0.88362519344483748,0.28137714102928396,0.031840347234085367,-0.91240134318936683,-0.71870843866779865],"Bias":0.0656593474865236,"Output":0.0,"Threshold":0.55377502765216635,"Type":"O"},{"Weight":[-0.17828959188344404,-0.44673492873401144,0.86240347514972249,-0.050673210085683137,0.22304430754065716,-0.13737559371505659,-0.67157963974009249,0.26246243215280696,-0.91820650543934035,-0.3022254273771427,0.27230880701556281,0.31797835478465,0.068608028846144684,0.60497995680429972,0.20371034890586062,-0.46538408960466465],"Bias":0.4649546972778415,"Output":0.0,"Threshold":-0.81525996411929835,"Type":"GT"}],"output":null,"numNeurons":7}],"OLayer":{"neurons":[{"Weight":[0.5833202090968006,0.59822029229170659,0.31605686075801814,0.0089826476802037317,0.43395978698225685,0.94753780818895339,0.52409825358730655],"Bias":0.67007585227027344,"Output":0.0,"Threshold":0.0893445611416104,"Type":"OT"},{"Weight":[0.13131564861690423,0.13180573709858848,0.40954325320643525,0.93421475167116841,0.060505896834892173,0.3353461811017926,0.99421868100493149],"Bias":0.26264214621048521,"Output":0.0,"Threshold":-0.85631967562079414,"Type":"OT"}],"output":null,"numNeurons":2},"NumLayers":6,"Breedibility":0.52744030371654793,"Mutibility":4.0417504748523934,"Repetition":0}
