{"Input":[0.0,0.0,0.0,0.0,0.0,0.0,0.0,0.0,0.0,0.0,0.0,0.0,0.0,0.0,0.0,0.0,0.0,0.0,0.0,0.0,0.0,0.0,0.0,0.0,0.0,0.0,0.0,0.0,0.0,0.0,0.0,0.0,0.0,0.0,0.0,0.0,0.0,0.0,0.0,0.0,0.0,0.0,0.0,0.0,0.0,0.0,0.0,0.0,0.0,0.0,0.0,0.0,0.0,0.0,0.0,0.0,0.0,0.0,0.0,0.0,0.0,0.0,0.0,0.0,0.0,0.0,0.0,0.0,0.0,0.0,0.0,0.0,0.0,0.0,0.0,0.0,0.0,0.0,0.0,0.0,0.0,0.0,0.0,0.0,0.0,0.0,0.0,0.0,0.0,0.0,0.0,0.0,0.0,0.0,0.0,0.0,0.0,0.0,0.0,0.0,0.0,0.0,0.0,0.0,0.0,0.0,0.0,0.0,0.0,0.0,0.0,0.0,0.0,0.0,0.0,0.0,0.0,0.0,0.0,0.0,0.0,0.0,0.0,0.0,0.0,0.0,0.0,0.0,0.0,0.0,0.0,0.0,0.0,0.0,0.0,0.0,0.0,0.0,0.0,0.0,0.0,0.0,0.0,0.0,0.0,0.0,0.0,0.0,0.0,0.0,0.0,0.0,0.0,0.0,0.0,0.0,0.0,0.0,0.0,0.0,0.0,0.0,0.0,0.0,0.0,0.0,0.0,0.0,0.0,0.0,0.0,0.0,0.0,0.0,0.0,0.0,0.0,0.0,0.0,0.0,0.0,0.0,0.0,0.0,0.0,0.0,0.0,0.0,0.0,0.0,0.0,0.0,0.0,0.0,0.0,0.0,0.0,0.0,0.0,0.0,0.0,0.0,0.0,0.0,0.0,0.0,0.0,0.0,0.0,0.0,0.0,0.0,0.0,0.0,0.0,0.0,0.0,0.0,0.0,0.0,0.0,0.0,0.0,0.0,0.0,0.0,0.0,0.0,0.0,0.0,0.0,0.0,0.0,0.0,0.0,0.0,0.0,0.0,0.0,0.0,0.0,0.0,0.0,0.0,0.0,0.0,0.0,0.0,0.0,0.0,0.0,0.0,0.0,0.0,0.0,0.0,0.0,0.0,0.0,0.0,0.0,0.0,0.0,0.0,0.0,0.0,0.0,0.0,0.0,0.0,0.0,0.0,0.0,0.0,0.0,0.0,0.0,0.0,0.0,0.0,0.0,0.0,0.0,0.0,0.0,0.0,0.0,0.0,0.0,0.0,0.0,0.0,0.0,0.0,0.0,0.0,0.0,0.0,0.0,0.0,0.0,0.0,0.0,0.0,0.0,0.0,0.0,0.0,0.0,0.0,0.0,0.0,0.0,0.0,0.0,0.0,0.0,0.0,0.0,0.0,0.0,0.0,0.0,0.0,0.0,0.0,0.0,0.0,0.0,0.0,0.0,0.0,0.0,0.0,0.0,0.0,0.0,0.0,0.0,0.0,0.0,0.0,0.0,0.0,0.0,0.0,0.0,0.0,0.0,0.0,0.0,0.0,0.0,0.0,0.0,0.0,0.0,0.0,0.0,0.0,0.0,0.0,0.0,0.0,0.0,0.0,0.0,0.0,0.0,0.0,0.0,0.0,0.0,0.0,0.0,0.0,0.0,0.0,0.0,0.0,0.0,0.0,0.0,0.0,0.0,0.0,0.0,0.0,0.0,0.0,0.0,0.0,0.0,0.0,0.0,0.0,0.0,0.0,0.0,0.0,0.0,0.0,0.0,0.0,0.0,0.0,0.0,0.0,0.0,0.0,0.0,0.0,0.0,0.0,0.0,0.0,0.0,0.0,0.0,0.0,0.0,0.0,0.0,0.0,0.0,0.0,0.0,0.0,0.0,0.0,0.0,0.0,0.0,0.0,0.0,0.0,0.0,0.0,0.0,0.0,0.0,0.0,0.0,0.0,0.0,0.0,0.0,0.0,0.0,0.0,0.0,0.0,0.0,0.0,0.0,0.0,0.0,0.0,0.0,0.0,0.0,0.0,0.0,0.0,0.0,0.0,0.0,0.0,0.0,0.0,0.0,0.0,0.0,0.0,0.0,0.0,0.0,0.0,0.0,0.0,0.0,0.0,0.0,0.0,0.0,0.0,0.0,0.0,0.0,0.0,0.0,0.0,0.0,0.0,0.0,0.0,0.0,0.0,0.0,0.0,0.0,0.0,0.0,0.0,0.0,0.0,0.0,0.0,0.0,0.0,0.0,0.0,0.0,0.0,0.0,0.0,0.0,0.0,0.0,0.0,0.0,0.0,0.0,0.0,0.0,0.0,0.0,0.0,0.0,0.0,0.0,0.0,0.0,0.0,0.0,0.0,0.0,0.0,0.0,0.0,0.0,0.0,0.0,0.0,0.0,0.0,0.0,0.0,0.0,0.0,0.0,0.0,0.0,0.0,0.0,0.0,0.0,0.0,0.0,0.0,0.0,0.0,0.0,0.0,0.0,0.0,0.0,0.0,0.0,0.0,0.0,0.0,0.0,0.0,0.0,0.0,0.0,0.0,0.0,0.0,0.0,0.0,0.0,0.0,0.0,0.0,0.0,0.0,0.0,0.0,0.0,0.0,0.0,0.0,0.0,0.0,0.0,0.0,0.0,0.0,0.0,0.0,0.0,0.0,0.0,0.0,0.0,0.0,0.0,0.0,0.0,0.0,0.0,0.0,0.0,0.0,0.0,0.0,0.0,0.0,0.0,0.0,0.0,0.0,0.0,0.0,0.0,0.0,0.0,0.0,0.0,0.0,0.0,0.0,0.0,0.0,0.0,0.0,0.0,0.0,0.0,0.0,0.0,0.0,0.0,0.0,0.0,0.0,0.0,0.0,0.0,0.0,0.0,0.0,0.0,0.0,0.0,0.0,0.0,0.0,0.0,0.0,0.0,0.0,0.0,0.0,0.0,0.0,0.0,0.0,0.0,0.0,0.0,0.0,0.0,0.0,0.0,0.0,0.0,0.0,0.0,0.0,0.0,0.0,0.0,0.0,0.0,0.0,0.0,0.0,0.0,0.0,0.0,0.0,0.0,0.0,0.0,0.0,0.0,0.0,0.0,0.0,0.0,0.0,0.0,0.0,0.0,0.0,0.0,0.0,0.0,0.0,0.0,0.0,0.0,0.0,0.0,0.0,0.0,0.0,0.0,0.0,0.0,0.0,0.0,0.0,0.0,0.0,0.0,0.0,0.0,0.0,0.0,0.0,0.0,0.0,0.0,0.0,0.0,0.0,0.0,0.0,0.0,0.0,0.0,0.0,0.0,0.0,0.0,0.0,0.0,0.0,0.0,0.0,0.0,0.0,0.0,0.0,0.0,0.0,0.0,0.0,0.0,0.0,0.0,0.0,0.0,0.0,0.0,0.0,0.0,0.0,0.0,0.0,0.0,0.0,0.0,0.0,0.0,0.0,0.0,0.0,0.0,0.0],"Output":[0.0,0.0,0.0,0.0,0.0,0.0,0.0,0.0,0.0,0.0],"DLayers":[{"Neurons":[{"Weight":[0.56306263271861834,-0.3829016785057735,-0.63840277289897329,-0.81416723309744488,0.74309967539417543,-0.92158736657425178,-0.79730388326444845,0.74913271458313457,0.42406443246829528,0.35858537273415614,-0.91381311552310973,-0.1493604640240597,-0.56865710279376114,0.84532009104514494,-0.94594189987794586,-0.49424944654770636,-0.698920741071422,0.31077846061008912,0.3588763626100851,0.47752969594557287,0.75868870213566753,-0.29596904958410608,0.40459622694393443,-0.054705396785729284,0.98495824820592914,-0.23077528096305919,-0.43983043937004657,-0.12113402556680795,-0.37305044307049851,-0.75268040353091448,-0.56253921173631172,0.14555762947795803,0.45660111888153532,0.40294369142639624,-0.01283998275773599,0.39229781245454115,-0.26535147813397997,-0.038637316338083386,0.89840199281387123,0.61698063538269166,0.435500375663629,-0.53344276479140051,-0.95795975297594427,0.561751589440625,0.92790760003398531,0.3570843298719657,-0.10840430441703848,-0.30653791004164976,0.51042160648406554,-0.99990554573009982,-0.3852715223959049,0.12124995660095007,0.539811246348457,0.92637168333231079,0.032654392548210169,0.47028959750676974,0.7443441807964557,0.712696624785986,-0.76232345530871459,-0.59640488847922757,0.3582537483229552,-0.82035465762967,-0.66191361176870467,0.45457542010330382,0.18297034091454481,-0.74741227307702052,-0.69294825368232482,-0.3951703665755551,0.58998019508550881,-0.47402159472649058,0.37615460174910476,-0.59497463963691832,0.47179727278267836,-0.25320736563448204,-0.61663607070997173,-0.70059902672683771,0.14519951964970657,0.12633714085739906,-0.48608848149240413,-0.30404669479655416,0.21322013633941306,-0.76735184749930718,-0.11588787292870129,0.98724838997574915,0.57706814798389938,-0.261328864964344,-0.65770319367651975,0.777920232051015,0.18034001960434951,0.5989558396856095,-0.14153890038912134,0.31938271192805034,-0.87511580757569329,0.011598065035230511,0.0060526053449383964,0.64296875504915074,-0.26343576342958758,-0.076944060193814362,-0.84407755352746583,-0.94871958109956211,0.68963929623814268,-0.55909764187368449,0.19389998502745293,0.7209936244045354,-0.067910479878965063,0.42961684355028756,-0.4515410044470527,0.003526079935732335,-0.67097018876623837,0.58182375066998593,-0.30189394778660217,0.60590182924917979,0.94067063319528044,-0.93140523365298533,-0.22929663175218581,-0.90274679376871636,-0.80702762250184434,0.2953866293166702,-0.75931198837203528,-0.533841505895295,-0.64772183059142985,0.77920706187337962,0.35559665987063044,0.0879423465057939,-0.32543053446590459,0.71483151228857766,-0.55621133072125317,0.85641131217424349,0.035351101791183975,-0.092326049270260169,-0.57435279599127953,0.6096621959515206,-0.47676599979250039,-0.92331365538915322,0.023634139925071105,-0.13549851772165789,-0.50576885068126431,-0.099450587341306074,0.36092378635002476,-0.43625798469235094,0.63390316750570352,-0.0033160448089782357,-0.67728701870762142,0.4860936074918572,0.58423926755052025,0.46493486755757352,-0.19405998019224963,-0.7950049819401489,-0.5629770413800036,0.1497738119912212,-0.989313821769,0.92078085426277523,-0.046635036378463279,-0.29869834626964215,0.10209657582552013,-0.18858466166471349,-0.33098501261835223,0.838151303510252,0.3889310003206744,-0.99850493017514463,-0.90121829784532,-0.42665115717176866,-0.038305243029401283,-0.19052417911147893,0.41746099079840865,-0.56627766907507449,-0.82958820547423706,0.038729334268127261,-0.066209385202363774,-0.00052804127360137239,-0.79958125054816775,0.503383883509498,-0.5572935196372184,-0.66108397844298,-0.22363573136908735,-0.86654378514110286,0.10491018281546896,0.067066456688133283,0.65040076461173635,0.78388518084952852,0.13972317387337013,-0.92628436718428708,0.16087893264409106,0.22640087885148863,-0.025553558965005708,-0.52115317132377681,0.56197107702585458,0.57890515242652274,0.814449312544637,0.72046243898592066,-0.48234554821734577,-0.2203460844328376,0.977432016738426,-0.1525984905439422,-0.40090677347076442,-0.90645048111046223,-0.39724044008051995,0.20731649184940221,-0.21606388232487434,0.6962037331872637,0.18254490438035917,0.10422352799411096,0.68648925409023154,-0.43850684605469314,-0.19238225659000793,-0.85703131317022785,-0.92256245665371528,-0.4208599615007918,0.63437044603487958,0.28068875720756536,-0.7784774977613601,0.46210500898869011,-0.37484957667759133,-0.810564939310106,0.44414877260297014,0.54280616601128417,-0.87336475815315018,0.44681455541719428,-0.95652356415825135,-0.52332931129416882,0.12729289993983362,-0.86591853986769851,0.51021739538303457,-0.50062203290901242,-0.676462570054672,-0.31049427404557089,-0.96457435235594136,-0.84774003357055594,-0.33596718699483535,0.56748609690344243,0.848173466440371,0.00929614576012648,-0.76539024234069053,0.20746751511817216,0.70771116563478076,-0.12245251756275656,0.19313649050571793,-0.46778628670973066,-0.30218154252608381,0.14808745502870876,0.59734664885203659,-0.78818597541571878,-0.32354615830050137,0.604611850625189,-0.24650487408344862,0.34830616523898494,0.71052431394836135,-0.470520144547578,-0.68985742642071912,-0.32732012277809908,0.61815069272096768,0.53500355339376426,0.0058878925656377767,-0.30646159001926965,0.63333825982796876,0.71226327946049317,-0.29783122255365885,-0.99117392347714584,0.1856723251685837,0.23479566594343432,-0.68323325956390857,-0.5818126749162621,0.38828044402798656,-0.64583572123471444,-0.49147500167203834,0.38946649915979548,0.042074521091801355,0.9310806761174838,0.032846666887796791,-0.309920469908938,0.736746495467027,-0.138901951787482,-0.72010645397012418,0.21277366402222481,-0.94363481548784056,0.96776227418694749,0.072781049680328488,-0.53913902563002847,-0.09049180899303956,-0.55159551675971386,-0.30829851762778054,-0.51110420446428662,0.378949608830246,-0.92449802203313358,-0.0871740519475071,-0.24747657927101319,0.38356731337661265,-0.985435661387367,-0.29632535171523938,-0.55523497823403911,0.39907396696464809,-0.31469293605289095,-0.34658941316725195,-0.92182377722199249,0.38657614420474329,0.8345503559496954,0.29671449786830439,0.061113401810225752,0.090928440024577284,-0.099139157263161221,0.45723560008091646,0.60509553393586335,0.94272031911775489,-0.61280232975855575,-0.61970230453633812,0.88659803750300692,0.70442714295556175,-0.99496629461411679,-0.73344090242564719,0.97239715930651738,-0.79583467533617969,-0.98553990851414386,-0.23158140258471546,-0.040647812672261065,-0.8042703446952022,-0.99027217505046738,0.0045847515596937165,0.54931122183302006,-0.34847060141548075,0.35855778416551548,0.78029452626607121,0.81723425063175814,0.86155924939623063,0.068757402742634255,0.92091391371605635,0.95517175456284165,-0.84751822000719523,0.20661332607577243,-0.85511770278919386,-0.64592165436871429,-0.589752150974121,-0.40312695847969826,-0.46766623550451653,-0.98218314861049094,-0.99573747301275728,-0.0062617808609557249,-0.85126831701550087,-0.20555822653954767,-0.67032721623327918,-0.47745751565203887,-0.405534630830183,-0.54677319133038316,-0.34165124983603656,0.62889175239433148,0.34617365074631462,-0.70329865287211657,0.79126822473074687,0.12643729854674884,-0.31129951556739377,-0.46097149814524291,0.86559930716901989,-0.75592833000976978,0.70011923867283354,0.02983402182806005,-0.90772817791799465,0.29934691698259996,-0.78862125323555488,-0.062893654714754624,-0.59834203338173308,-0.98122805030142335,-0.78129631270714861,-0.80546651538716,0.73325128608068979,0.504982798595439,0.12977041123889871,-0.77010868572169389,-0.59593067671914146,-0.51819963963618487,-0.5330536796399642,0.39777008648857942,-0.079335814378846348,-0.98357016918415674,0.28029017163454095,0.29377057929233208,0.82723584390582328,-0.036837268172221847,-0.51312690019287488,0.67007487158760193,-0.11165072122199961,0.7511126886825602,-0.15393793264121652,-0.46154009898264897,-0.35509643906499094,0.20228485120566789,0.74392306792732465,0.76771646168442276,-0.90746754682970587,0.27916058491876378,0.10731463232418273,0.13581021276107533,0.6300993690407366,-0.1339029744890998,0.53354165681337085,-0.66284536554610607,0.35601145976968646,-0.37676667299902378,0.311296527884573,-0.52879258595816447,0.57604114319013489,-0.8658720868946389,0.70279827374163939,-0.78522244923991269,0.057950695537939058,-0.098594335419402615,0.823314513928869,0.66739987333649764,0.20401773285307817,-0.14614992129902818,-0.93479222894403724,0.80380759611903108,0.46052928569751295,-0.40652346210858015,0.19770958749470746,-0.22463628893002696,-0.76970494574387793,-0.16767392734422998,0.71862590253289127,-0.12536988739174321,0.19061483218828906,-0.24615255847859782,-0.66545246805318281,-0.67014106394263961,0.076085260639006863,-0.98920800117273255,-0.47537087484978646,-0.075848382001672113,-0.84241332013272374,0.6963862346934091,0.12471219530548537,-0.055049995917384513,0.27626816242759494,0.44492442274695471,-0.75868587370900709,-0.808526829261578,-0.79757464015743451,-0.98748581902472576,0.91128428648751425,-0.92559716753922272,0.038688209391519526,-0.92435267331281334,0.58528272648587953,-0.8105758758311048,0.19267159197138231,-0.61868039593970425,-0.28250845767674432,-0.9741515163211858,0.82609339515962332,0.756369043028154,-0.0032915743083188191,0.67096578500744219,0.0410871119429763,-0.5907773601779609,-0.36320611572042394,-0.50732001173650842,0.34922528376301065,-0.95528079101596064,0.86043184197527911,-0.89817724139344746,-0.0020717089074066414,-0.36212294798443229,-0.5876257613243655,0.94261458280618049,0.0731346933511713,-0.2275554427074061,-0.014801347635128231,0.0090217143339206066,-0.30590601838468856,0.30700853434717679,-0.24550692841667074,-0.0558068952783043,0.24174961738369877,0.094578167467647314,0.17612009596830239,-0.54539847492491755,-0.86451534920582329,0.85073317440726481,0.75322357600239276,0.28215334205057163,0.8214703778836272,0.35494997182625809,-0.79464410142723663,-0.056441581834313262,-0.675051231717249,0.84193437352866607,-0.39994581528005463,0.19447694541629262,-0.97010451646992213,-0.76786662720510113,-0.27014521056327279,-0.49005365720486904,-0.036257027199611547,0.28407634668242016,-0.22205910981728655,0.17011810940230177,0.77242022788730458,-0.99972738791244453,-0.027541238827417248,0.37582794640950296,0.49099588463594945,-0.92338427990832561,0.9843767508791651,0.71919323025233728,-0.121908223778898,0.007275646090170204,-0.89348291321354123,-0.40621852334878339,-0.4345499497999204,0.74529358639628329,-0.074651969165844823,0.054373889721172811,-0.86182099620896435,0.033438044150098246,0.077252087684931275,0.59203925942631408,0.81582295373818969,-0.54919241021815335,-0.4207947912722802,-0.26244681806417497,-0.38922316692267694,0.57650795466103966,0.02436590568365804,0.751073564752505,0.22442627708633722,0.88635337161196082,0.52896269528612616,-0.808369332369589,-0.76377127820801516,0.28235999414807184,0.70610215873741644,-0.71028378592351626,-0.63911341672721944,-0.74574972211651025,0.69277263697831548,-0.056496515430741252,-0.845679584818743,0.29700453732954551,-0.78151744873333606,-0.61904377425976276,0.44630433081011489,0.54487473775859674,0.98722025239245048,-0.16688553950138649,-0.07647599330007844,-0.68822876442606973,-0.063512672699760964,-0.59061466557468034,-0.78625668715045638,0.35179301693653364,0.86279571143109157,-0.83768254371252027,0.46593956577868179,-0.0737352511257563,-0.39259570482773504,0.35145303250823778,-0.66093082570514217,-0.3406945245064304,-0.40501747764880652,0.2611143473820362,0.14454187180127104,-0.93216159424379541,0.26598971628862883,-0.025164610252326639,0.85796209650950606,-0.79185480894141591,0.71167443912088613,0.39047985123027107,-0.6653003197467422,-0.0888764406968264,-0.59888917235605843,0.73362700675317416,0.064768896468341774,-0.47988936560223316,-0.13475343824119934,0.034313473866467117,-0.067059007504516752,-0.56839662257972945,0.81027438296483567,0.0042180800830098238,0.77251147840754664,0.22242383669243374,0.43840302733630082,0.98862938302970926,0.63860458025643818,-0.53781897553141178,-0.066591338751181658,-0.36759982088934623,-0.885900003782427,-0.21178181153339418,0.43578695852113281,-0.23547818382991392,-0.82336011194780478,-0.38628508634226633,-0.33770865729903277,-0.89359397063664814,0.27044886130394824,0.41703268532503057,-0.86407576960701293,-0.40781512968606087,0.999295559245765,-0.39582366095661359,0.84967639476511458,0.5641975689512666,0.017704202801782733,0.35736869711306352,0.34935002417739014,0.11447628313418305,0.46802544522472911,-0.71156200706565842,0.51182385231918837,-0.41711688852734718,-0.7432322002682985,0.85990167495790015,-0.65453749832442842,0.19396649589481135,-0.67812830753537279,0.27876921476738958,0.59491270808266139,0.620790331447865,-0.596868332287701,0.30866621262797445,-0.78984245322171709,0.75481845985856766,0.42413691590732749,-0.42736009807668629,-0.48714288067405248,-0.65483610548769877,0.30794693124850603,-0.75469506706795431,-0.044061262646718537,0.34095132553062929,0.31638786118309381,-0.046202638208029161,-0.4473840913024657,0.18686240128561035,0.13116677903158905,-0.68046879380963221,0.35359275497197767,0.70155097669994038,-0.67883203163688632,-0.10384122380234358,-0.044854179511244492,0.20005223536866357,0.39028574823880835,0.40277620749677356,-0.98285584942570692,0.87533591169646752,0.0498449369565793,-0.51096643903803385,-0.12306038668521697,-0.09691146393162732,0.44839517467114848,0.98095188009596979,0.45000920977909548,0.98344383667383517,-0.20287925433501566,0.73719387163277428,-0.932378205439252,-0.50063574570260749,-0.47012134570168396,0.91394242221207467,-0.00097693689212991711,0.747618679305361,-0.91682892102600488,0.071182652875400446,0.078796149268185789,-0.45090878868983536,-0.21869465579217981,-0.57088474769652109,0.10089595667128264,0.097641094167549666,0.9582887864477414,0.48760322271268963,-0.46757055654543012,0.6282706976068535,-0.26254054171151509,0.64954752644968572,0.53664786719560986,0.019406834626294129,-0.94926689004025744,-0.77814912692557514,-0.46262586278031853,0.6393881936741006,0.72981710300306657,0.50976048713073152,-0.75078665546643852,0.1336440677445587,-0.40091124009383433,-0.5473626817331475,0.0087767015252153864,0.45883179430795451,-0.49154919315667317,0.32787592584634012,0.93233457809888509,0.69159387503359182,0.0640506176576254,-0.39870172012536864,0.7269250604915084,0.39385136980277086,0.045203670880386453,0.072312854729738488,0.63712028164282453,-0.97738687832718107,0.14278234687763375,-0.22359681232999862,0.043897314017590748,-0.943238548908028,-0.59571773493463065,-0.83864012585889558,0.065151443269639953,0.68866257168755984,0.81735825436998077,-0.784870135497707,-0.75396541541161266,0.23812209779309207,0.66361381982621448,-0.27118140145725633,0.87317586684281745,0.13282787060962426,-0.36562224075459981,-0.65958738776835957,-0.60280392393600379,-0.58353734602385077,-0.67563094835524962,0.45062869249406673,-0.92881164929308535,-0.50010997406212143,-0.17794350123868488,0.14126017277187675,0.99447980895381416,-0.35590799076292107,0.44637827037199318,-0.8155688577404101,0.431840360831395,-0.13060230162488404,-0.87537310406350211,0.75399450294393788,-0.17743107125974775,0.30061244280106036,-0.29878848106543926,-0.45628620984791135,0.63666894782179451,-0.704647815648768,-0.48199129033926469,0.96422712736028582,-0.35895319439422024,0.717719439751338,0.86209452890888538,-0.80145593956180661,0.39684233972655719,0.92918849453757912,-0.26432125003278312,0.84335098175487988,0.52024012316029522,0.030754140592531367,0.868284045191614,0.45600597348809518,0.38918351027610876,0.41881575873997795,-0.88548953173937717,-0.57980475927693986,-0.83684079294877167,-0.73655117337431353,-0.40872143740240552,0.98505439468894829,-0.63937242219195345,0.20810471717645634,0.49465278559115378,-0.094720613721162361,0.67604703021983015,0.869139070561686,-0.032242049012445866,0.83599533365852918,-0.92202744256799452,0.13096901035447092,0.18528692246660913,0.12717704480848138,0.94193653713070624,0.037722235097420509,-0.6185731513512196,-0.39364933473693642,-0.6679066557753397,0.0977427172929713,0.32820839869240692,0.0759857432339274],"Bias":0.90214551328781323,"Output":0.0,"Threshold":-0.13727113564371649,"Type":"A"},{"Weight":[0.55705059345674268,0.33660212221397184,0.59032758911621175,-0.57531224543941772,-0.10287297195888728,0.38804146758655156,-0.16076882144472041,0.83511064752708686,-0.54400094670429866,-0.6629714717450419,0.50862770877248964,0.16112358409963715,-0.12936927058238967,-0.49443167983295011,-0.071095167692329347,-0.96308288861209657,-0.62354245298707045,-0.41360208225138584,-0.22374220109718954,0.24767073814183041,-0.77069904830804981,0.18352516888804973,-0.069384282952819148,-0.41956935749369179,-0.84384814130321528,0.26345938177009082,0.47429966389867462,0.47458477945746147,0.58965093530232593,-0.480359534491021,-0.41947941501600639,0.19054535878381942,-0.15674310417694184,-0.14135428804035963,0.823849959216942,-0.71056626118280286,0.00905154832128973,-0.5593366881643127,0.39921576082669935,0.50543201552025607,-0.83608779722642512,0.3992205124344772,-0.060049300109990544,0.573716122924218,-0.66937977712106878,-0.60151108242641715,0.94763389553298893,-0.28518264148625666,-0.94146344947696825,0.39133755880935933,-0.19149168822518162,-0.26690639800713695,-0.43111101977113214,0.63637167850340326,-0.3615608035407778,0.57509390291529427,0.25635380822064069,-0.49858263716966966,-0.933023079267248,0.71931498996881538,-0.76630955783944088,-0.34742448774512136,-0.04243754737192651,-0.16837362114729995,-0.67312677375652208,0.43515545103473374,0.22170536230397661,-0.60503160609166673,-0.13676892460173412,0.49830686696726217,-0.68128798328400031,0.3410841577412021,0.864198515594098,-0.2056025691356522,-0.41441766657606588,0.50543237733907642,0.68484588884042852,0.96304904434971927,0.055340604882380275,-0.15746196413294503,0.97907824394250209,-0.84286347489937374,0.66281042791102562,-0.75490265188501338,-0.078804634082505778,0.87903516780540125,0.762820605078163,0.15779545910553794,0.097625169017177618,-0.52035902511345178,0.043007314690857806,-0.6816335779994882,0.61544885421891182,0.310208993177027,0.81302436898137642,-0.37798209971654328,-0.041859036796660642,-0.93351919107768644,-0.21486239936894849,-0.90860347026428367,0.87000041635241376,-0.18499302127631057,0.39034338127372015,0.91751537235338021,-0.39445865731428315,-0.65515719244962423,0.3619898321861354,-0.13949382125376436,-0.85868685592836091,0.62523071776387784,-0.26983002772081177,-0.66725602590816846,0.68727783285420285,-0.69184304154098175,-0.8731983638709403,0.49372128420217021,-0.86740711930552827,-0.5475340627820855,-0.71958294451217308,0.013404843403680642,-0.83730410124981036,0.27499258856987235,-0.19709205217524062,-0.89243023511601161,0.17631190976887565,0.28228069342779027,-0.4751738679945347,0.014329466975447474,0.05806614833793889,0.661879901151117,-0.079887257460452277,-0.0049299700208613514,0.76074407657643039,-0.41192289600704,0.19239342221636019,0.35491933364184541,0.42571040681829231,0.0706868530580247,-0.81045881743098558,0.029463337282400269,-0.7321848653872427,-0.27070296428664725,0.73454721632159647,0.52204671526423041,0.22187006344174504,0.25961899210681161,-0.67059594284305157,-0.76383129775702552,0.42715068926436395,0.79781493162634542,0.686729188396935,-0.10953812958185474,0.50409757928182253,0.35003674232868326,-0.92992566289842393,0.97409019292057031,-0.92897429453626945,0.033543415383223169,0.19979753401121009,-0.64308353124329987,0.13588989392662881,-0.90392023832719781,0.56218968870220221,-0.85561506909114082,0.017680864789374577,0.41059867917122256,-0.3108820860790471,0.90189656005329288,0.28037336016091208,0.51008387166544977,0.36793739272651144,-0.93686894045065572,-0.7888948595099593,0.83217101815723393,-0.21413314724999161,-0.16700606894074291,0.25427830976167615,-0.40326554905775264,0.86271969501987089,0.79231354025765954,-0.900454612402457,-0.67598084065876007,-0.76598141936863839,-0.63848704455349925,-0.17135759264759606,-0.40960240755677335,0.48066464740813925,-0.67483254879472432,0.60825935220730465,-0.64051351027587122,-0.76160300279110815,0.963900696935086,0.53687718116532879,0.65881866666433342,0.087042345240266217,0.10282523702030313,0.12388619506912595,-0.078022922425541527,0.15240416915733562,0.27930854553324569,-0.671762816920766,-0.42598419749456651,0.66425312248256674,0.95573752278263568,-0.080212441310385449,-0.53334154353167007,0.039616249520152927,0.14872055554237243,0.20810220120851986,0.68916523162702337,-0.40217454983022743,-0.35162405499798433,0.965173246322746,0.15971160361529868,-0.58658307398975973,0.15510071495319749,0.579321727892068,-0.580177010307171,0.83228908145441161,0.27957221226746787,-0.01845898619781201,0.47562465466355192,-0.22695412078264826,0.560627350844735,-0.45103975778959682,-0.98783229337438583,-0.021661296031280093,0.32572709318517107,-0.041880562920999044,0.1809614175841964,-0.72369666664101961,0.0030892393566152266,0.940659949994022,-0.424767693702489,0.96019670272255164,-0.80989225199906723,-0.45258329364125771,-0.77332592419037871,-0.60702529391601,0.1841078075506295,0.24873145634715047,-0.42986457628657321,0.49106576083743281,-0.875771528517721,0.58688477407530171,0.32621782195112564,-0.63680461544394706,0.92977224426799088,0.066057113961343242,0.050621730299024718,-0.673968121723257,0.62331577931685178,0.62594933697299537,0.96766536960735239,0.71419771095467621,0.98208757442519423,-0.83081446161065919,-0.60616285894353072,0.64496861241989234,-0.11024862626113399,-0.76013719046494788,0.54011960818437843,0.45440434871912205,-0.75353155273642924,0.10592407645002197,0.26697108255092572,0.3097206444059129,0.19246930917374291,0.95288334225904348,0.52479214804470176,0.76718668209723506,0.3776003817923369,0.0089765675407725235,-0.98655235068246361,0.81851503803325587,-0.298657185071454,0.76406164130385112,-0.83090821133503145,0.89350336040067646,0.21601323840022704,0.84396457245758016,0.88004089886324521,-0.7257278141219764,-0.37181754381014853,0.12205467751345349,0.1946142028060808,-0.32755560629421643,0.43862121619219946,0.955369219163139,0.96015599321581235,-0.0059730890234806992,-0.20939035863121522,-0.53104294162757837,-0.9686533850471738,0.76215419441561871,-0.9216051273614192,0.54343375076699707,0.0496050631858432,-0.0097656543412085878,0.86845806328042319,0.27286208992491573,-0.20022595124329717,-0.58766049639678586,0.88615375332820867,0.40619261581739069,0.38562930160464221,-0.69402722534445449,-0.62745080824357025,0.730369614311666,0.35345464262806559,0.28071916302699557,-0.47559786144439031,0.86944924382001587,-0.34208787248567113,0.16707392743186741,-0.86056498291928551,-0.0774756675015556,-0.53686262505914206,-0.23102497273638145,-0.73598888085036951,-0.1671079696002919,0.058714196578932086,0.46584148680131954,-0.60467289835432214,0.26391744253408045,-0.097057094842687763,-0.13964815490862734,-0.4788848564396076,0.27320243337806427,0.15801142303180482,-0.07104768933311463,0.38030872325427306,0.10001259115525177,-0.87009396211714207,-0.86942589835702722,0.18168867574152009,-0.82040264076572034,0.50535812159318394,0.84819653483489366,0.80474240230617222,-0.291241180752982,0.17226991298248523,-0.514137412195158,0.32261826671781868,-0.72166711730960154,-0.98397036082296185,-0.023918268747589677,0.04685969047567793,-0.040962011106760246,0.70156402918582972,-0.10394153562557955,0.26771932899380074,0.45520273896642155,0.63297149195939839,0.69063385049376347,0.5177548236761963,-0.12489965982963315,0.40050523653649966,0.27769648482915782,0.28086069658438706,0.60074461326037754,0.77180813428564377,0.38630765321958233,0.52452165378468185,0.18868757234359512,0.818486417559202,-0.97245721191747914,-0.79147221045171479,-0.9372233161410426,0.0749797737575042,-0.7742193582347684,-0.1908498449208447,-0.65315644287185581,0.1764832507709429,-0.64373722702438818,-0.43944508695949108,-0.982855391215,-0.9417339935627459,0.33938951247343307,0.50733177527195394,0.02409551852573432,0.71541331974575917,0.80095001021444334,0.62672398035727628,-0.47112546650279569,0.92888172805722879,-0.77514643677284312,-0.91860238272631656,0.79776042178168916,-0.0453581889371193,0.70382251437000121,-0.13242295018044437,0.34877146284504396,0.60162505582050652,0.32052980192030306,-0.84065402152047219,0.771298709218995,0.94142472135900734,-0.70310405488270522,0.30128067932151292,-0.75806518819093016,-0.29019512529028352,-0.25187291822017771,0.41568936380356986,0.090139905498428222,0.31757084714135658,0.5238465082477064,-0.87107445945547635,0.72438836457412148,-0.55364583784418453,0.33164932082018317,0.54210606242628123,0.37980768102212237,-0.22776729111921382,-0.373915735340638,0.47912318374920787,-0.36829676542817463,-0.24345329648044581,0.47300593670131913,0.75606000784601091,0.21196125317921921,0.87357501819430616,-0.35857009438731247,-0.8441721107085105,0.6290083404765503,0.1930196789060811,-0.73478670638743171,-0.38823274541098285,-0.77174132399807749,0.043467843459671293,-0.21261179550206838,-0.29359919917471672,0.28038357118162494,-0.30151530229557089,-0.26235999412013217,-0.7878885198328125,0.9514203858335597,-0.961338140052435,0.78943403847023563,-0.43641443058681417,0.71669099839250139,0.64605529636426606,-0.80817466034003282,-0.77454117116264121,-0.93724337729497043,0.61823380394756511,-0.66567958223897949,-0.69578058072169335,0.64051092213043526,0.28063947580784537,0.86932665150115573,-0.0031254244982848989,-0.89264174499206328,-0.044203275369574913,0.16664314603742358,0.30562209305615262,0.058796169729342762,-0.97431881072666437,0.49457043059848732,0.28077090591228143,-0.033701798428642467,-0.2611270082467827,0.86286552756226875,0.34956135663649129,0.94947288089872939,-0.7570282773845961,0.70044353962896555,-0.33963907572423996,-0.95915644800251187,0.800743725523699,0.43929624717649829,0.073672333300892415,0.8427750718979049,0.91899916665581949,-0.090731388000180657,-0.5767650956179784,-0.50385854602971047,0.51662532636738634,0.38467471691997474,-0.28504348140444768,-0.828217383394119,-0.14006036386827955,-0.23366526851135552,-0.090214768932300973,0.4948630405100356,0.29117347499875978,0.79947000313525551,-0.35758780145905344,-0.98752748965636239,-0.27118775726816979,0.89109401679183076,0.795638799106534,0.3132375182179909,-0.50094604049853331,0.36946197942339909,-0.68621455630576911,0.21310280599310194,-0.8021785369153035,0.54494756252735277,0.71288456288766333,0.73736072645399753,-0.33631442549466828,0.15427718272166197,0.24082719033622518,-0.1261676257132402,-0.82059933888753844,-0.61797483806404041,-0.19145454475258222,0.36219428915632623,0.9634030139834634,0.79987146602937553,0.80324688451515835,-0.21721498119515134,-0.78332133720783581,-0.8481964486875555,-0.8037463095056574,0.60169261396010065,-0.29792930572197274,0.18206946513711916,0.34974504045664567,0.47590389357689017,-0.090520486743431772,0.71091290829280063,0.45201901460626115,-0.52674061922670368,0.91926886975731181,-0.83362878711597477,0.74208609934062053,-0.9430434182021038,0.97008686930410881,-0.797019615209205,-0.005287111739296052,0.36418514482871867,0.46840492611211021,-0.95182414350650468,0.12776402762521247,-0.28629310023332627,-0.041030291021349974,0.78300616973219728,0.2524378850368959,0.769160607722197,-0.55453421992926588,0.15685577278810356,-0.35686690144094962,-0.9871440925575532,0.20176029587246491,-0.638250079303165,-0.93587695059174525,-0.64217536833238575,-0.83734538026030425,0.14771209012144809,-0.011525213258119865,-0.36458101652775937,0.62261632160405456,0.15492008726807316,-0.08082790024617123,-0.1205257471280758,0.16393695267100678,0.60501813125098969,-0.89318721037972126,-0.27323674888966454,0.90160055360831348,-0.84489053480554865,0.11560726124588738,0.2946294975907679,0.51023361762530806,-0.76437097916583108,-0.45338587484014492,-0.80844676718509145,0.99127038800682421,0.27222056606422207,-0.25082214840260436,0.353267335497433,-0.6885800858440716,0.25271052739243516,0.711333411145645,-0.14729029319588574,-0.807572509072522,-0.661673814832081,-0.63519925374314157,0.049804267962372056,-0.30849284134269361,-0.079443495757618679,0.57695607961013728,0.91560302950237082,0.16860086758090223,0.65816531919788812,0.19712769109622003,0.81184054203882838,0.1644615722654674,0.6300781088089934,-0.61693509277744918,0.013345337479070452,-0.59523837296070459,-0.36405611800218751,-0.54421242444972151,0.4392451776374342,0.941639975617472,0.4452517211647945,-0.31802348341700781,0.28347715748635921,-0.35365814545827834,-0.79022844824484939,-0.33457434192978514,-0.17086943200364216,-0.27320885764118696,0.32933473322975204,-0.41584471306570092,0.136035608656721,0.41689600116428732,-0.74306086112887637,0.58484100205117884,0.41383828893948266,0.091328522232979784,0.960102991182405,0.074240465217381937,-0.18611009101667911,0.700980140222693,-0.49268794082695988,0.54557173352016686,-0.18291961456784961,-0.22550442406232674,-0.095127617518942623,0.98531572846011994,0.529502853066429,-0.38321425597333081,0.40368480859495925,-0.27190724027897567,0.15484196373952644,0.88082152506374822,0.089431189042251183,-0.28544433521360363,-0.21383985747296355,-0.9714301493817149,0.94976181581139651,0.71077024085017393,0.42712092605751051,-0.37902992469213431,0.95507779948184168,-0.45213893682329864,-0.86863467743091038,-0.18331489999932932,0.29466357049283737,-0.58757492368462261,0.8775862305786396,0.73555317927876174,0.44145375371047,0.74315443716158835,0.0642467113510923,0.86213593783887843,0.41524203466961257,-0.83874140579194822,0.027411553090164228,0.045438135529606669,0.37704401946488952,0.14781713446034916,0.35425265429273839,0.067643364922908775,-0.43844168886469753,0.19832803504463659,0.69437420167698249,-0.30225503179349705,-0.78989639076865115,0.37230657617203267,0.84115593779885955,-0.32912310321308819,0.64672926890045834,-0.61192407021854267,-0.46408389483768675,0.19450964415190258,0.556243268100658,0.052992127394765672,-0.45026807182015294,0.33204369541818446,0.5416503262434389,-0.12272133683912519,-0.53418478348021614,0.11880429048035493,-0.50321943429448612,-0.21415689225036505,-0.19714734991879546,0.9782184958356519,0.54941432250170708,0.9992474880997313,-0.24173134995705045,-0.32252199357492944,-0.86901349381963422,0.05591518574204072,-0.48840187512729405,0.90140853771074136,0.69243019572106668,0.27617690864772393,-0.69514556214918644,-0.6883801974767727,0.52015615418560623,0.559940777048441,-0.96510472472994813,-0.52806229448321385,-0.78998199421445936,0.44963448236213738,0.0903289341788408,0.3460669835778265,0.63402655517404272,-0.13171007955992131,-0.19406229825413893,-0.38544615702025881,0.58565625855031245,-0.31050746622984643,-0.95143399199071987,-0.86403155832739154,0.23687195602658762,0.19513605544117096,-0.44454237653154061,0.29407534715443634,0.94505609615941355,0.13619171741241204,-0.85357174456751517,-0.60999103431123824,0.43844125905932918,0.25058083387584462,0.19668945027361132,-0.20268948665013978,-0.352629881050731,-0.39136284002632032,-0.881064515971143,0.37719837547149432,-0.62978344859079616,-0.28814396229020506,0.42161543035023635,-0.092624796131916709,-0.56946591780030442,-0.11601029667817536,-0.056438861441071547,-0.34644146279731836,-0.90384588944904776,-0.97419784822231059,-0.84303027290991983,0.024325342394563063,0.39980621654531279,-0.15102543083532966,0.95414005497197618,0.79637699564750164,-0.35008444280833212,0.36480341961831014,-0.088248657103743716,0.654063279579423,0.6463849398523499,0.2621383793941412,0.51130350796100843,0.2710867138910511,-0.013486106886289132,0.54742191152061426,-0.14122533897926348,0.853340614518775,0.20429434729939994,0.088027014438075479,-0.69138624085643618,0.33438360520376992,-0.65789157229377493,0.11669503716598034,0.026055869192842335,0.12101498205262003,-0.58076547672076406,0.56603931615410341,-0.77028888173880472,0.098254643426395324,-0.59652376621799719,0.07112869996164399,-0.29538563466416,-0.688407569978576,0.58648021546494222,-0.42065770757415227,-0.034130788889774485,0.9046433465111271,0.6276735684963286,-0.084529310038559749,0.619214969509847,-0.9357147230467362,0.06108421881733659,0.065470282950191888,0.59873480331093765,0.82706730571904563,-0.5803311674764059,0.95748118402319082],"Bias":0.93688128932233961,"Output":0.0,"Threshold":-0.56234275110175025,"Type":"LT"},{"Weight":[0.59796981774176,-0.030137815992412071,0.30083170034961387,-0.74755729723142339,0.47352491434362015,-0.25329953071349276,0.19737515002366862,0.044681240359638462,0.25354011554901495,0.710956635284683,0.084670953026353829,0.58657552003235347,-0.94037992644141422,0.8293316787245365,-0.14257714531504417,-0.70149366124602675,0.10420727082724091,0.62695630249891254,0.62433086644128466,-0.99116499861290908,0.018176528167993075,0.28953216378089608,0.71906798459546084,0.725014737213503,-0.3794495642089516,-0.24859128671167013,0.85138611581706725,0.42307938329087541,-0.34480919379033576,0.31822871059096824,-0.882020457127141,-0.33813000206748489,-0.2261707043397104,0.13060160313295274,-0.2463722206868102,0.3177242173430157,-0.78796700238621187,-0.51147528109675056,0.63581832807316363,-0.89504471556052789,-0.77325308312347762,-0.23055042011223287,0.15392065753877193,-0.213944701577511,0.15369959043045509,-0.34302106189682197,-0.35887737542338549,0.46771162583851794,-0.24663313350017793,0.4448997333854901,-0.46165682862589918,-0.46063042360387296,0.69770188289587476,-0.36978228593700674,0.390145646589876,-0.036800997814536558,0.52098040027589554,0.029310796889155544,-0.90700689279800606,0.91709231255440615,0.97402401174140352,-0.466896585871883,-0.013829922775658744,0.21755665411127576,0.89351292648050606,-0.25327468395851305,-0.47060534892166284,0.88646466605666308,-0.66169861082998038,-0.429449162180279,0.1739620869858014,-0.81244069655073836,0.91753597879667581,-0.68732535032896569,0.15929032171112034,-0.97361232245974816,0.30142688113331184,0.55707525953514281,-0.63752197503928187,0.0087686567608121109,0.45460060306573313,0.59664863701753723,0.66989688187367136,-0.95869876256152,-0.083642549851742826,0.097992811863307286,-0.78152979481105223,-0.50846424443110094,-0.11557456344159998,-0.37449926527892208,0.42209311640918867,-0.44007556207481563,-0.65724374337924818,0.11587225325213385,-0.80687018474883876,-0.031312547173030926,0.1991831838149499,-0.027162797296029887,-0.12713450106193056,-0.56063114272459924,0.95501818785211923,0.30512760966323671,-0.610027391281923,0.25412438169779461,-0.25400915753748693,-0.41806700519196083,0.79409591424935311,0.1661902997485317,-0.33034084007625508,-0.10204583737163145,-0.50362961017695707,0.35016477124307527,0.32916372750381179,0.49987186840729408,-0.40816611489661325,-0.12310637260000518,-0.675737418549013,0.1450947845099004,0.52365888493305957,-0.57546533205335282,-0.96349612575187171,0.45412278941558804,0.93475609223114142,-0.6990075170523522,-0.674975446274027,0.073204844758475593,-0.95110527842822734,0.79440450519062789,0.18012562309397645,-0.46965031953046577,-0.77468540183021006,-0.45793185404405551,-0.1837280132732019,0.72541599521665645,-0.7635608998888922,0.1021552235363774,0.83569058162890864,-0.48878024867213343,0.79644402619285692,0.79606336019749913,-0.90588186350924982,-0.26538860251446655,-0.03171371483789464,0.11131816921351392,-0.28206064472070924,0.71167709897816045,0.17161119551007226,0.60800107131153391,-0.79184243026740964,0.31630778560242978,0.904743138190705,-0.52696659952726521,-0.29919346529021557,-0.88028800575076049,0.61957451962846077,-0.90800734605081723,0.778244797037097,0.099256147211071177,-0.048371730394834528,0.11737688310322207,-0.2443253883367057,-0.43557011961730668,-0.56271047869823432,-0.5174681295256448,0.11135829291835347,-0.46201289559808228,-0.53382118676501378,0.79426145590574548,0.68237776946387152,0.70762396077980472,0.52683977946957561,0.94780813061995806,-0.532636066215409,-0.17110593066136628,-0.47107117412196059,-0.6013640624477361,0.18765530837124927,0.33478714634421614,-0.54580663309702959,-0.83787738989939786,0.86665739019711385,0.1203876212799864,-0.07853628372705368,0.79617546396151906,-0.97638426952826984,-0.88296326337520181,-0.74349046719423051,-0.24976044858329019,0.21022521434827951,-0.790281421407257,-0.98169856517654774,-0.79429208617391622,-0.23768039338182675,0.30375652634713635,-0.88216367917236116,-0.37869847769788395,0.026923344017436422,0.78093080491802225,-0.75918463373518763,-0.66297518166851954,0.58550498429010855,-0.424581200547787,-0.15969677509725874,0.5972375350991439,0.28994710896627379,0.53648457887418777,0.41376769049734236,0.16469040427575371,-0.82063265928096729,0.54284967041707122,0.11283898498529521,0.67913029234815869,-0.79605255871827363,-0.15664765246056378,-0.68885788307006368,-0.605568499586344,0.031083472553213812,-0.59552504615649815,-0.6919214589018009,0.90900147934863418,0.524047358205564,0.704166520249176,0.51106708380909038,-0.064560967061929861,-0.3965445870517495,0.0912823747337248,0.62442839640398906,0.0032015698976822059,-0.93068166679268782,0.50026757898752927,-0.26114541350917214,0.029008737313099549,-0.36446551343634048,0.82066450632208232,0.061322313296293056,-0.058233271845725028,0.14268788748545941,0.43320403221678178,0.097895314496893121,-0.41776552303590136,0.34007363875399976,0.78571088881497775,0.24656303983487329,-0.41851875112323034,0.67103929662659734,-0.44120493924301346,-0.99770436948058394,-0.55874191390291872,0.55688116865087356,-0.54766415271333613,-0.70628599250050539,0.30875367126835218,0.9725428023247713,0.56480737941563475,-0.272519759029392,-0.68554783504714623,-0.077983070666893889,-0.41498853052732931,-0.62927117041743885,-0.7055386545628024,-0.075018680223738157,-0.068487527346465515,0.35159885899703897,0.32495634133226997,-0.16422042910206153,-0.97006791037044859,-0.21933647348514593,-0.56281606739518053,-0.47781799662756641,-0.685539006574796,0.33326585326961516,-0.052839922277647965,-0.12653406156531258,0.11818979453211174,-0.73895077953997568,-0.47979412855570863,-0.046526171288698057,-0.94251097223838376,-0.25654661574240151,-0.25214192981465811,0.44366532258860081,0.73724562429694718,-0.50618458050591153,0.94434456710905978,-0.66834945169666293,-0.9967557489856872,-0.68538792183873609,0.13312642748147549,0.44246490273739442,-0.12270635511852165,0.74387061211460759,-0.24979779787817869,0.84434460468792572,-0.29930431735669466,-0.45772489833539581,-0.75849287992273129,0.92982817018862263,0.034276053325401644,-0.7798070734272744,0.68860222524432568,-0.33317933153974794,-0.098189398692077684,-0.087412419303978056,0.50056631839860521,-0.94814544448077,-0.76851626474806867,-0.93680689946599627,0.36661178356344432,0.3262610041193017,0.104036421097832,0.04041302904505889,-0.22002230175771859,0.64145615493946528,-0.51747290022553549,-0.19332122532339824,-0.77815890907224217,-0.18509849635190259,-0.74089562880848325,0.46022809225145173,0.99263984150841822,-0.28354735173450196,-0.18991915704213044,-0.58331863516164884,0.48149784257705225,-0.20844482733329983,-0.43094604715283308,0.00042247539405826265,0.74640368611850016,0.2204202926812788,0.69754558973831382,-0.51502015791601508,0.6256076673165,-0.606386080666625,0.19774739779427061,-0.43717134065794355,-0.4250197393936197,-0.6645535219761326,0.43852355863830239,-0.616360808544029,-0.73319591662529671,0.096953164365586431,-0.90188648360869217,0.94497332905650755,-0.33758353085144588,-0.58948595383646241,0.083007724994331469,-0.21325046346208568,0.29683138863036007,0.85476775740029654,-0.46679382792990365,0.17789958798228744,-0.31458986006425221,-0.72400848228671055,0.45806018796659081,-0.52800775623321894,-0.91053855740955969,-0.048478930279835561,0.412008247995753,0.48834852384792105,0.62725273921492175,0.092926727651118646,-0.011431305674571221,0.98017604089350252,-0.20221448745681647,0.99535348592109674,0.7052698469279659,0.68004856523128621,-0.087909581180619811,0.45112183943908746,0.32028452135635749,0.19748501116292785,-0.6905594252471623,-0.30345770544533512,0.63007431506648393,0.0716701811513259,-0.40496382042996765,0.99044034955577942,-0.059881649007965644,-0.86914927739144732,0.16508502055196325,-0.81326660877711443,0.71288411492150472,0.48109623486227182,-0.3935293342888026,-0.34382683939478681,0.29818661897358795,0.26103014231707444,-0.7533558703741785,0.28862079106672706,0.91971737235771367,-0.11639217898081623,-0.1092049116777279,-0.14024739393044608,-0.00822737021754839,0.52050589095824673,-0.34722330390812051,-0.59154040161126309,0.11622562404546218,0.9164618150873397,-0.92202363718395286,-0.61590049118544,0.43768720349189227,0.24933631124409675,-0.012422951409790177,0.76259707601861892,-0.910098580601671,-0.17169740990348972,-0.86114980925859408,-0.16798018345980914,-0.84254914794235913,-0.9036434674186834,-0.9475854993553765,0.84841236278806453,0.14018270007343156,0.58153488234688289,0.54711898255493441,0.68628779644439364,0.35484572423382,-0.98301324107824506,-0.19849424445931532,0.41939380179131114,0.40149854281986996,-0.97909162891055068,-0.18800964727439434,0.48159272385835311,0.75231973256558171,0.86521373543199787,-0.48794340039041983,0.2143974253974843,-0.027622151667076232,-0.53305801867184133,0.71114496081655143,-0.049181868810757,0.57455004731870729,0.8394930808988833,0.409552923128732,-0.0665593147587773,-0.62988567986985933,-0.82793517263044381,0.47554500097201441,0.75046991452130951,0.43669488534177414,0.080736221783205969,0.715644172260372,0.040187104158190594,0.74001182883047123,0.20554824555551085,-0.93394865651333181,-0.0044025662375626,0.87502317078179825,0.5118354128263124,0.55770851557967649,0.31410653670975314,-0.58484894111046981,-0.2428584756529231,-0.55853160310468242,-0.50750557263731289,0.56038683492708341,0.65744045686788877,-0.84880489988662533,0.613596500648929,0.60337980119668866,-0.16672872620016743,-0.72926154068171123,-0.44159381624385424,-0.18369337412700679,0.14835728898102291,-0.25019148981673245,0.18527258801519525,-0.54376888579864469,-0.31086178557521749,0.57068516526868807,0.4098473453940113,0.49245709483160505,-0.32725066008383907,-0.66781800271375946,0.62315252126341336,0.036254455352320546,0.94106294072282637,0.40812344262754707,-0.088248405646648445,0.04807744643095762,-0.11615408589884363,0.042659676653640191,-0.015403759207298867,0.60480432706177434,0.309500652509509,-0.84260935654985225,0.190321241128408,0.46126678700617829,0.91713316082820906,-0.85167115966401585,-0.63680921757445164,-0.73282523021699175,-0.78943958961844429,-0.26496423187896806,0.45371927388651262,0.17497786980819791,0.17789546315460256,-0.62418555823349653,0.50633518654216791,0.92454923732418071,0.53906741437458783,-0.8416323754199,0.87894267210687638,-0.56050776530080837,0.22532759617330861,-0.98738312022172992,0.55425596169859914,-0.30142203779026028,0.46972862140728561,0.89237193804810377,-0.089395430446320881,0.34187846646731646,0.41060075462358109,0.20972812790876633,-0.238854598830852,-0.11139867646219147,0.864759306826051,0.7586546604329043,0.19092797077769785,-0.547862588217418,-0.93885471808670773,0.27335060866239974,0.6518694845269758,-0.35067870251400335,0.33103187211371582,0.73756487236244828,-0.9182736291169532,-0.88349556731222922,-0.53034179589261388,0.62697314220805334,-0.43890273638018534,0.83916818482762578,0.6789909031609962,0.43418055467036576,0.99170071119056113,0.892665768923548,0.067991828111927874,0.577186557733075,0.8327755135636663,0.018378563233827503,0.58699598982324641,0.22683545911071609,-0.51640842087399608,-0.18821396454619893,-0.99528459459323648,-0.23424715932190751,0.068278191177303993,0.70190598894930722,-0.34777326339286441,0.98433879110232869,0.44185745364141532,0.4358393803405759,0.64792604960870281,-0.82248894210089418,0.83132140377132291,0.60016577858485554,-0.15300576442526923,0.35427198994638026,-0.77580497496566037,-0.45494588206286818,0.69268156201237885,0.680191205199897,0.30258592325383143,-0.70619909684462434,0.049657223769303982,0.55468071883296632,-0.69420998110166288,0.092705292670384645,-0.34634865603705339,0.050336730689898475,-0.39842896414847528,-0.62492994155033021,-0.725547589699527,0.86653787869333188,-0.25232261850141113,-0.16040930904467093,0.84705042366266736,-0.078292395956019126,0.99501169752097307,0.49161286628414547,-0.25688848749589571,-0.11705319262903798,-0.42636086625343228,0.15758304258695946,-0.9997051032258687,-0.31036604396550266,0.09056867383912609,0.059644032763151465,0.35299926779838242,0.94043975320665152,0.0065842471116149088,-0.20907460116272542,-0.4805629646780728,-0.68372878417546334,0.1691122093094104,0.91678138958140343,-0.94102380328859381,-0.29643234903758037,-0.904450355518819,0.5878821432534056,0.22487109304632577,0.97616269205518191,0.73482524498124846,0.11629918502471372,-0.46662176142755046,-0.11092897649432019,0.82941228422774571,0.76821967669214108,-0.15201712127403222,-0.70978616537050632,0.38565778657126137,-0.73648894985042934,0.52569751326260039,0.40214450210432734,-0.60519269649181173,0.76672765834570289,-0.078066052439653338,-0.69526069457422046,-0.75416860950839171,0.26964068984130429,0.23151367494441275,0.70132242548341039,0.51784807188336179,-0.7470843343749104,0.50731313019400137,0.88532012043768549,0.72479464613124478,-0.27050323238154095,0.22444776968306293,-0.28414620239480687,-0.4150965015474225,-0.34023268164146353,-0.64038672374579442,0.25099744938826068,0.87622038408937886,0.77238857642393022,-0.84294656796518086,0.847034331339893,0.28831643019258812,0.8530799829648249,-0.98678509098793621,0.30772273675898215,0.13698667061374834,0.19362381016538655,-0.01377550187230832,-0.82119975789505972,-0.11508468311051125,0.24822545947890051,-0.39807072440072461,-0.12161110347211879,-0.33672043836522869,0.49332234053561574,-0.99748658668132806,0.9489165297471529,0.66229980562920676,-0.94691580717773916,-0.75215465424217032,-0.014170728630465795,0.99354058131274792,0.30732829976236836,0.99888671003230234,-0.53135804810158815,0.90137239121895862,0.63770155265820283,0.79823874486528279,-0.24928365612834863,0.85288001916039735,0.60125918714388238,0.539279436943717,-0.8378309467052254,0.025948030886216104,-0.90643210984134681,0.513112650026154,0.39677931805922617,0.25451414159243652,0.93670977555993473,-0.94967915534492542,0.32645084165337068,-0.67059273629942573,-0.8833685898610244,-0.49483233201076848,0.88009169692177869,0.37386519572411908,-0.39707662789014941,-0.74490738974181347,-0.84321528712437266,-0.66708420154968473,-0.63957413222620918,-0.77583342407636036,-0.90307927685933154,0.22667528606330756,0.319747556149842,-0.98007419890727576,-0.0816298197403689,0.2012915896257812,-0.11424157028749658,-0.63961316581797467,0.50962045393400845,-0.63520167145654638,0.016761454295721581,-0.17416648295436357,-0.024010716483001932,-0.022515448286438103,0.2260713745961298,0.8165148081334842,0.87862148037116117,0.17405113679079859,0.14735669649548674,0.054907275855032391,-0.76544163225472051,-0.83397701235207589,0.023120633337237236,-0.11509485175604692,-0.83094565981577417,0.79325505988358291,0.84839167019743089,-0.12396994378602595,-0.15596279742008207,-0.84477272995038555,0.90999256116803384,-0.13005670538640426,-0.58027627066721965,0.068182802325199729,-0.28809788650278834,0.3164422676509443,0.59638592302630933,0.39547464642463004,-0.76352880558163339,-0.14924646175897049,0.91008286779284608,-0.63520529011041171,0.85354858164375114,-0.99446582980196263,0.40589139443165223,-0.39727651206649678,0.78127615562699559,-0.037591126299272817,-0.88768041035518064,0.42000927842222585,0.72992030472025293,0.092968377327997412,0.88684296975230936,-0.39189501031855822,-0.21944249897237983,0.54204465334398888,0.90506172920812933,-0.38448696880810285,-0.87871795887067816,0.58127759656928368,0.3639682598244251,-0.1784888376381662,-0.6890973442648991,0.10229541272963183,-0.65002685768996682,-0.11134392819895592,-0.75387165544269219,-0.49598730471729641,0.5484808071276549,0.13594316744056678,0.43633886447005854,-0.044261836001771429,-0.32643302452118744,-0.18798677632025759,0.37585047044598052,0.37280042440295241,0.81787323756975738,0.30071828388642441,0.35222578204806232,0.055474459219479216,0.80738807879732366,-0.51074682851822428,-0.013601677032933419,-0.22821020811247184,-0.12287781579553979,0.72006256958472659,0.97132740075296131,0.3157035314085444,0.76021663134927708,-0.093187184116424612,0.035406985802299805,0.46019801332624538,-0.771155838748047],"Bias":0.54650473387283494,"Output":0.0,"Threshold":-0.085904772899069254,"Type":"GT"},{"Weight":[0.027142466058555276,-0.83515902740655423,0.13647701131947199,0.32294531507554713,-0.26734411216682946,0.18698444039886092,-0.039533219318619563,-0.048985180002164647,-0.80908244140869123,0.35226335113507851,-0.16522520601992738,0.58016098457396081,0.62804222182745217,0.095648513220086939,0.30433039707333331,-0.63116194802856163,0.23666017699831174,0.97797625464293,-0.15292544483809054,-0.500935495133016,0.20733080115510655,0.63019893627157386,-0.08691825535470539,-0.90035115829685286,-0.83199392810091088,-0.52185164462861211,-0.73364142176399072,0.40532026132816462,-0.29497165386330881,-0.84445173798336259,0.78484382470363934,0.66444520310705768,-0.5176043945912292,-0.53082478816193757,-0.39275549510156527,-0.23179050732021708,0.6795252359842533,-0.56311136650066418,0.82448379733808519,-0.69465350811120752,-0.9671525428849983,0.79777379231423784,-0.1608159463670179,0.40866401344941183,-0.14701208711928321,-0.54995827728414826,-0.654381702958784,0.65036736878117885,-0.1269958280618283,-0.42681644690540455,-0.737097232480113,0.69671076848018487,-0.15464937926952233,0.68651876677131218,-0.85028810000526167,0.74797593511081106,-0.35893375582943382,0.30182076725262252,0.89540380234616057,-0.42386057480418149,0.63601499173604648,0.34018878375188855,-0.65409697157055935,-0.65586729750776074,-0.26668478886908142,0.24678834678921305,0.20892369617192247,0.62302296870528862,-0.309471481158152,0.76324113121407156,0.57859917850168385,-0.97297261048712425,0.65754058708322261,-0.7404044250680154,0.9301414177427727,-0.61874940414854762,-0.621661840296193,-0.40622425843320054,0.072961503673792588,-0.973841707675644,-0.55573534665430679,0.549904475244649,0.78474773968791023,0.45030781461405933,0.86130856809267242,0.4691900939071505,-0.98331356140939219,-0.67388727081654931,-0.7345914671824274,0.32969838582430894,-0.39204790135475243,-0.51742163324608548,0.43020875585740842,-0.15729954194151774,0.24618999950875994,0.48104075178552452,0.19599340539239041,-0.39347795555064358,-0.04217027409103246,0.33072826095424979,-0.44041895188410718,-0.30874159806815049,0.40251569980872592,-0.39712757402897236,-0.50044272677062207,0.294941687628134,-0.37977340974834439,-0.630149151492002,-0.72153408253636864,0.37112118414189721,-0.81171501093158271,-0.4603294983787134,0.26677776000778086,-0.52957528388573571,-0.081169317048587514,0.0017699683093326019,0.89398452215547886,-0.3229512531882856,-0.17707553327878728,0.99246329534447908,-0.46921963732187622,0.53415097181412907,0.29854812626659316,0.22022627583715426,-0.1108949268753151,0.6181093801828611,-0.80052148634592135,-0.87681102327853955,-0.57355542880182875,0.91554514594168646,-0.36360543098468584,-0.065845250648374321,0.36051404772350287,0.95426419840858512,-0.88752024941496566,-0.89284268202858175,0.16246218474696492,0.44918089101518544,0.88156314421517923,0.9692706279313521,0.64896413248449758,0.13137455616675994,-0.71613442791445847,-0.76242731034868738,-0.76436132833564718,-0.78460754537238164,-0.41955358135493176,-0.173422610002301,-0.94443972359618156,0.5233919357524216,-0.67852783281287543,0.09800165337417352,-0.43071705821469292,0.72478260925262361,-0.9631468416020027,0.14314169163961973,-0.0716522159388532,0.88436115900257661,-0.02348353482013733,-0.45006449075884397,-0.96956558058483788,0.97423972979851059,0.48737863194541009,0.96688177388481877,-0.66067053315260937,0.85699031309084517,-0.053031579150367332,-0.95545789597344488,-0.446051727722423,-0.32689251859062,0.38974256505712057,0.518509947936288,0.15510472569386694,-0.064500473469728828,-0.57477684485482838,0.29087801151484161,-0.91788756238198255,-0.59698965474823007,0.507385487904486,0.35153011761211328,-0.26479225105829174,0.30575781003840163,0.21839067350066765,0.9441003347486725,0.32610152118192126,0.37350032216566631,0.98134315525244142,-0.85624630835663818,-0.95409746093400638,0.43416910638761197,0.69218951915027083,-0.12854733603473162,-0.843941333165365,0.59572352869237011,0.80572573785005408,0.659953426877015,0.94093568899712321,-0.21966815191305622,0.49024115711927468,0.47058966824346671,-0.84337529672466927,0.81189264301764441,0.98037023794854539,0.65486089450067886,-0.42115675398202462,-0.25182296300857465,0.074558714905082576,-0.98183754644442234,0.892911092328332,0.98438616375643118,-0.033807071872897013,0.86321108549051506,-0.057068817344060552,-0.79008203921377751,-0.74593593587443974,-0.68332545630788688,0.81466971981090941,-0.85652770374739906,-0.016994966667608809,-0.32642973508985235,0.56592536883704614,-0.3544717628296799,-0.4977145090222892,-0.86276519152464581,0.67102790655150446,-0.47537304436572503,-0.70579628725806076,0.49176705325570286,-0.53235256463864467,0.80068578328969231,-0.76977824409016327,0.20634753872004688,0.74009758501318168,-0.40745638003920037,0.795099413392646,0.41890967470542978,0.67252810191015155,-0.43167904132589652,-0.81400005510728812,0.078849540128768214,0.573411224211292,0.65744979570501,-0.012589127296856198,-0.55811872266145368,-0.41682792800330926,0.76427330438246643,0.47010695211128656,-0.51430280577126086,-0.43709251537783655,0.64220511151580373,0.030370946987704817,0.49420915846443231,0.36485383583458786,-0.81875521820911912,-0.041306216754627513,-0.86090342368041328,-0.15647905373781876,-0.9707825980013155,-0.66893339653915418,0.92060545502258717,-0.42978923042760658,0.74913580564276117,0.92093837304084492,0.15201140481606656,-0.1860023081237461,-0.953274502397177,0.83870327744572581,0.58887054332945055,0.0065643088922669682,-0.5973185894998343,0.373286917979497,-0.30037824497575788,0.32072080127928443,-0.62518731906320313,-0.81145331487592931,-0.57060878005372773,-0.50067172548764927,0.08001732550562235,0.94766565223581423,0.064877856087348362,0.7012432826223054,0.81948886523930764,-0.14812553308351223,0.21274089823138942,-0.59257374964308629,0.262440467841197,0.64685652388579051,0.17476853084506863,-0.76539367333305708,-0.29275438715366386,0.012055982841204843,0.078838874156977462,0.621528084679287,0.89205114910940231,0.48902565868991693,-0.92894411409690236,0.60675571048946852,-0.45809115723617894,-0.73313868405909222,0.16730235943910776,-0.50008823047396178,0.69608890949566327,0.98285756119659984,0.54606087810642123,-0.91938113184616954,0.19920535534583281,0.58797958287782015,0.715554551088975,0.84962415501923494,-0.2276412673423259,-0.5761293999739594,0.098410410852362587,-0.1652287175716966,0.39054411947286882,0.30317985792792396,-0.1440229970701146,-0.26640555368103347,0.70802101386153182,-0.16725983618165358,-0.95784671788934928,-0.214296222298544,-0.825172482908318,-0.42506615930472785,0.53785075598296284,0.1541535044806793,0.59519973378404967,0.22356762561181914,-0.27641085222196338,0.939340838668561,0.55205176563563374,0.18276483061852158,-0.43622085239562247,0.058832647306301,-0.24755218543463953,0.14874759789032285,-0.67063470076333487,-0.92093786826400914,-0.17347221038000296,0.64301480056858384,0.54323607568779775,0.5987593729974513,0.62299496383545683,-0.13474490825773444,-0.090617154767092853,0.16380328273577768,-0.03496389465172025,-0.80950662531401341,-0.865454303969375,0.71642958639023335,0.22733736700720031,-0.16743418954658984,-0.60123950084729094,-0.94956191952785562,-0.93341622964172444,0.60606171638055784,-0.38888614642847613,0.18455059881533989,0.24748805921873454,0.14591744595482828,0.054691581546651005,0.7944034201998279,-0.98396216518430135,-0.70628592311697358,0.67855913875557439,0.3139678287850543,-0.70704937479787011,-0.584903029531661,-0.58280815304387745,-0.039317519887964017,-0.73342131810887778,-0.35625266952265644,-0.88080991053991486,0.28723392043599577,-0.254922562863176,-0.864111226454429,0.29946636655343062,-0.58104441155728159,-0.74564216413797912,-0.40612314287858231,0.70661776359501194,-0.42857483095888738,0.73017766407233553,-0.14588251623598975,-0.54219741259803877,-0.21900127000128911,0.50289028999530261,-0.019816296650011229,0.41291107861926363,0.87987064797425207,0.18539361058985518,0.97623897622164291,0.94522735613641673,0.42862203131831345,-0.42623439590736961,-0.2575483272120116,0.80255092205598533,-0.50347351352845948,-0.5990361075843853,-0.31629399783736745,0.16498887546592805,-0.36566603992398178,0.78869593226755785,-0.82035620409080579,0.94337567498133312,0.0452625402460166,0.52688298305817083,0.94321835923158492,0.74216140422139387,0.17885029091446208,-0.44935128719050033,-0.95537294305645537,-0.92381178025333754,0.23626307222818169,-0.4323526553028974,-0.42804453541899312,0.43163776045275748,-0.50810189801645556,0.43275643067097125,-0.88216600421916969,-0.1703651306081401,0.80048172818519259,-0.081466870420364143,-0.64917153895328361,0.96748719083493906,0.27285953344444724,0.053324731557315555,0.55348530484060077,0.95025363841571553,0.14975067514448923,-0.5890341599420803,0.93128754241917633,0.1259192331349101,0.56607264539509672,0.22493047137974317,0.47543886232908761,-0.87554689025299015,-0.5690911987652495,-0.6015433848842715,0.3340011315112939,-0.39377520903655105,0.62469754909383945,0.73193582553972292,0.12741132459017043,0.32354875110255032,-0.32951339070196889,-0.75292584567932686,0.53089596402407435,0.13369429117706339,-0.74635139421855634,0.69376527596906068,-0.84458808128004337,-0.11983935819931299,0.9657763228592352,-0.0077464696987282807,0.16142037751219254,-0.61619690648102987,-0.35197397524117213,-0.60347391506818771,0.20664449045744002,0.73711515950836015,-0.32630017601246952,0.33393793941193162,0.0865590377182509,0.528024202924233,0.25067516241719723,-0.33675092148443259,-0.97020858292011947,-0.32215643828835172,-0.71723507657518382,-0.62094499944753245,-0.84705362229005132,-0.583717758107799,-0.86636148619761755,-0.78444284470027448,-0.33871975137792515,-0.65525692173058958,0.47982522681347339,-0.67302243582579424,-0.970097921309107,-0.34681561232861857,-0.46638036168477515,-0.91844068882914287,-0.530400401228294,0.51556823333518964,-0.10013320208533351,0.37697803106949573,0.91825291138060994,-0.86421893111626569,0.89607457765195264,0.12651898345282253,-0.95468722561126906,-0.28817778094121149,-0.084385050965652353,0.63723551837598691,0.721430161372493,0.35056376706369397,-0.95174556316423486,-0.66662639829638715,-0.23599221102706725,-0.93196166676094838,0.75158079608882811,-0.0084731215650556239,0.66250315246288816,0.288900572009804,0.11827379144647801,-0.46872116786833906,0.00043990509605030766,-0.2719590269364226,0.092671156438380087,-0.33739335385029828,0.86190064291558255,-0.23609121667039171,0.93224845963169278,0.95633775180035163,-0.93748200123081082,0.93587506512919216,0.93961420466174106,-0.067829212205404985,-0.41094475770878824,-0.54869082642192524,0.84069686608421468,-0.8694420689108977,-0.4886395248997209,-0.58983628293026069,0.12233971996341819,0.37353352847207966,0.82454599944155016,-0.50532468199046543,0.590830249986998,0.12365906505084554,0.79083585496565134,0.93823482605546471,0.56528009454034278,-0.15890784522467658,-0.45957639182898047,0.636017724702143,-0.1585558835224043,-0.56010609705006054,-0.65841030406691614,0.65413298441755263,0.19686556011292411,-0.40161444451735095,-0.024480717733726239,-0.90958922491855421,0.253968976556309,0.53693550896688158,0.10861119120782763,-0.546375589233998,-0.82328386503424678,0.65499490716261555,-0.093133871952599784,0.964763567300869,0.98364619118331287,0.37018961756033342,-0.97105260657661252,0.56531811904409812,-0.21156762783022953,-0.67893574930677925,0.36333196301168386,-0.69577882750694586,0.8249967185896806,0.98717726999296684,-0.60725775901566159,-0.75178970897187936,-0.45380632041665087,0.27709808679162434,0.36082130780481797,0.58707287050181667,-0.5672342253696333,0.334171894162042,-0.03693994648612102,0.43740289445845543,0.27878267005029261,0.33367651763077666,-0.99395376769544264,-0.712418495543496,-0.4534036961632798,-0.92905686280180555,-0.36151276638801805,0.37088869296521354,0.76134291932049347,-0.37055776937425033,-0.12784464337297,-0.21419272721474653,0.85637945209461241,0.69160383692551586,-0.28624484654806781,0.1212105840077673,-0.31304944973115317,0.33669293268429717,-0.75709706161036017,-0.49171259882473972,-0.77193714295138471,0.055824084233410697,-0.97102254022426093,-0.48666275734392123,-0.052579299571262346,-0.7500051701208601,0.71466736575340262,-0.72118160301874468,-0.74772874673257061,-0.8087794165167862,0.59593369001333307,-0.91662227777606908,-0.37563379266095992,-0.029632078031837976,0.01259503188198201,0.13577555033181588,-0.39281065221541128,-0.71475982513034708,-0.0002662544139969416,0.34046568457990217,-0.34409746823091875,0.88728467090394569,0.4344255679447323,-0.025104217708625,-0.41696942058250747,0.89760753833577389,-0.2778514238436946,0.57033510346446892,0.15760868469141828,0.48834313847513083,-0.21475926470698756,-0.20535122892137209,-0.3055237318880501,0.7596060432305588,0.23594610124637658,-0.222426076988888,-0.68172260824671138,-0.819096073889684,-0.88526985416434234,-0.83454739015295509,0.1641810616311529,0.80639232220425849,-0.82794486956109514,-0.39686065511631807,0.63395387243197943,-0.89600499621406426,0.86187265760352494,-0.39722884464879932,0.26830634720078966,-0.53942183244015174,0.20918784533123852,0.12639742210805297,0.89157452429252426,-0.053186160537035281,-0.50942298281445308,-0.11411276371875441,-0.95230373598276807,0.61755619925333,-0.45690869235289688,0.49908202211329805,0.6784324360445293,0.87642451742497485,-0.77156292589919773,-0.53564029305038985,0.7995624625122,-0.85396976669038172,-0.53225488100771556,0.19765205876792411,-0.5408911325693555,-0.0070199063080455676,-0.34768062101103392,-0.5548686126968212,0.601264443528496,0.26111139229550556,0.941172224442089,0.62388776132086654,0.061175757116254309,0.68070004073935564,0.63830131042669591,0.97783857257004758,0.96445429463146926,0.28149765417049527,0.59408922288291588,-0.55367709023583545,0.88385117560804416,-0.0065795774602236123,-0.29973689201275672,-0.55697632932894692,0.14044583502246338,0.91930445047063025,0.74789955641510875,0.1818219601092031,0.11441185889505402,0.26383631781853562,0.79471487262971463,0.011153923352786303,-0.079152251164965451,-0.36339598724776689,0.034302884263127525,0.59180565997576606,0.25639593473467787,0.8965182476195126,-0.84317855715899659,0.66181265686723056,-0.07778855277122397,0.37342756258949056,-0.68652407763829648,-0.13466401916680112,-0.74837001587654,0.65671150370347853,0.52526437096542877,-0.68217394998398329,-0.95694704212106163,-0.32076561745291837,-0.80783575298629506,-0.32832901334777892,-0.098723974590526883,0.70509396619400655,-0.8587526222033206,0.10662577073398315,-0.23060756094316373,-0.81970144613632068,-0.31035109856647958,-0.24853852682213232,-0.98979231155933456,0.66911862914875087,0.12703374639481016,0.28689938377910262,0.1020486196978244,0.016124216847179559,-0.9032042752500643,0.082108263895897315,-0.98973912978067025,0.849047701269876,-0.31125470544735656,0.35043080260531551,0.22506755554353239,-0.4710614441293578,-0.83648564519197011,0.88972141588559439,-0.82297844617766258,0.1854882497272865,0.47036905515490524,-0.22966683852936459,-0.82024131194699612,-0.86162836703547663,-0.19262648429378237,0.987237690942007,0.291784037040446,-0.48690759972059522,0.21433454622250728,0.75154887407624571,-0.80378175983381539,-0.47754200244207962,-0.41907521077388676,0.76372319821441692,-0.80672431728184424,0.94868313798153914,-0.30104384585332306,-0.4679318133126627,0.78706013913595119,-0.7591420699652015,-0.30935866539802342,0.34699283044179569,0.77903184656940017,0.85958803298863962,0.7186196207621226,-0.679230248406171,-0.50641316385307034,-0.84984143071334872,0.14817745292008736,0.78951210891339563,0.3411619245732026,-0.35558257175403768,-0.38628104859324219,0.44303161950923114,-0.41346876435609009,0.50656398176521245,0.91001307494473316,0.50944661372781108,0.78250648397137712,0.58173236231400272,0.27593928076137753,-0.17790177845298397,0.44332917381233033,0.13882907346767795,-0.57864364263538437,0.21584222149841592,-0.85094827266919815,-0.86520765808653444,-0.83254134181539585,-0.50382232037550878],"Bias":0.28395435925757251,"Output":0.0,"Threshold":0.99628906929692673,"Type":"GT"},{"Weight":[-0.089533313219218189,0.24381022632299468,-0.857236356873641,0.55836325677035525,-0.28717026733195888,0.40877471743560151,-0.78720518936738615,0.62673788826295074,0.20316638015358074,-0.2846553210563284,0.907045703803676,0.72292589197071544,-0.67997163332997435,0.783116504448986,-0.083616313097819833,-0.4081348727495106,0.26702182752407239,-0.12109370907819538,-0.55104961039081668,-0.077124518378230048,0.568698815800575,0.6309872421580307,-0.665653354332621,0.55704650821026713,0.65018788010356388,0.23387001279456077,-0.71163374824059833,0.68868599165635458,-0.382430191795542,0.28126223910658726,-0.451067079999981,-0.47712250634893894,-0.6892880041568018,-0.26550196635793055,-0.023861840378428735,-0.040371601488614267,0.43154622587913005,-0.71770787598458485,0.9574192301171921,-0.16993164884388989,-0.60814840793989056,-0.85539283550129874,0.9108259565713005,-0.56801646322385246,0.89348409133659867,-0.95554289825053085,-0.89633296192452916,0.89339297818643648,-0.17798089570271825,0.064237391606083785,-0.067181897846600919,-0.66372395198034306,-0.87202950700746362,0.34373738912108232,-0.53750173539738255,-0.54370761082680319,0.23829357430259399,-0.0838930327835926,-0.19738970566419406,-0.23164834139479712,-0.56110804274729831,-0.31155101503783417,0.333221899966347,-0.12923821719793519,-0.046802284683474471,-0.07396140604930064,0.905163104601746,-0.2801058712788419,-0.43180676010987107,0.29918569759427838,0.28911386862821592,-0.47431048074472254,0.076259257307396855,0.90453081294173876,0.30119004487115425,0.31852656897088821,-0.25686460279713597,0.97542080561417188,-0.040460386798000146,0.028201181920338974,-0.079060616474161211,-0.724636200687213,-0.36278228385503508,0.5078665909859662,0.65386859870230252,0.92372960779989588,0.0067216041529186091,0.76732287777928765,0.779379269471103,0.32763571493683186,-0.99301640130254276,0.74527310335322894,-0.88326503237861442,0.21204168312812302,-0.65798199486824782,-0.21567661930605611,-0.46576857169427377,0.62346650642504287,-0.071941777165952028,-0.093958117577227815,-0.034646611676852505,-0.30848989324108228,0.61412700247677365,0.86535198980260264,-0.24047776741929247,-0.034112878159672427,-0.93219326479928255,0.98146589146063934,-0.55200113754347024,-0.45244510166926549,0.86275964177342113,-0.94690877895192649,0.61207940737348021,0.23765138035530756,0.90565471207055015,0.69258828772818126,-0.76085249602834348,0.75606208562667576,-0.85838983201346819,-0.89481867193003128,-0.33653582229117668,-0.65688469198387334,-0.43250084548839407,-0.23978451557447414,0.34323751337045688,0.4398384901880466,0.68615524502757719,-0.13869829063243153,-0.35273126016963796,0.86135461081813769,-0.37745523656599933,-0.8220886722309928,-0.5183024529918574,0.42479727716408544,-0.4814303989901349,-0.053791059206142584,-0.3208718543503768,-0.82435864947007909,-0.953619439598927,0.75475402956584192,-0.51196731185166511,-0.33878068595136546,0.33564475985972431,0.95462367774668322,-0.18747949189854762,0.34064510201134024,-0.41048447434347329,-0.89070317889130823,-0.66220962659558724,-0.92878880115635176,0.60522956894954183,-0.74684568808732821,-0.65749455599928952,0.5353793965351672,0.108704996345893,0.47052304049512511,-0.36648098862100437,-0.35040786319896944,0.84455310452941479,0.12934975751179725,0.43871027763872888,-0.41853599036975575,-0.9474444272683209,-0.86967757803838586,0.29358350732064969,0.71625171635125373,0.57102872364736568,0.97682299231031122,-0.26252960519051627,-0.53687454086582853,-0.30095764030747008,-0.71908385386647833,-0.86139656503749851,-0.37067382520561748,0.6820356336804273,-0.30864892728098153,-0.062540417100554524,-0.60045661246425319,0.21523304293641496,-0.10770355682247484,-0.28999885976780154,-0.20828505149496954,0.043985231334336676,0.2818850117185549,-0.30247905724797353,0.10555033809763861,0.09084503450004619,0.38100777584175011,0.87792457308523575,-0.28811422842001272,0.9459624201739032,0.60639272379055276,0.36250769037870118,-0.69918884788602076,0.11513052699860675,0.66296523560907938,-0.1759291450380949,-0.88596946228573537,-0.24447006743609442,-0.38325731287862047,0.20584635492686479,-0.82870336753721507,0.41707289750551474,-0.94364501672966639,0.86581560916538147,-0.13029656891259206,0.30922066620980421,0.39489589044586565,-0.64055831527363427,-0.075040688307509151,0.0096049276225291785,-0.5357633221595377,-0.80924434904439579,0.38499125763075021,-0.067411973172524925,0.74148509127157047,-0.60803613327817807,-0.25386670569603642,-0.90979178571598218,0.35388737421198158,0.73811664839187485,0.45838972947485268,-0.83830528139989136,0.35597404435089514,-0.801120339800194,0.41344828596964867,-0.20649478687275891,-0.14299786190641944,-0.18401665388793528,0.40058169998255638,-0.36273726698138625,0.041747008469769267,0.87301636248501779,-0.61590346350143821,-0.39412379050353719,-0.641711920798622,-0.0834374055654916,-0.62410691782092065,-0.49928994360346812,-0.49557192553559876,0.084381583186044162,0.093708464453792412,0.91355288862881856,0.38989431103220878,-0.99251357698464471,-0.042165790238494885,-0.99598497478104431,0.25204189878517852,0.54828285777395724,-0.62761271075700076,-0.82312217532802479,0.13381485833498411,-0.69275383497250909,0.72370788209312964,0.39692682884490438,-0.748876738245076,-0.99925423506612621,0.89233568678253128,-0.95510774802188747,0.6252615459380958,-0.14401315997541564,-0.18119565033409543,-0.12654765608094057,0.24800666572898936,0.20821962375576592,0.87129220360484538,-0.4075215381605185,0.547096534886908,-0.72323775045724481,0.040192382428884683,0.2106319215198196,-0.19007555776744875,0.25682328560241652,0.41571139004813107,0.48483441746087486,-0.73419268789430736,0.29431374896984258,0.16038465041685135,0.0010691666980596104,-0.505859237399818,-0.92144997973062559,-0.53801364057604861,-0.85213059692277138,0.74136086680989755,0.48326645488071557,-0.7824469077319125,0.26860840863949081,0.728044637352249,0.83882551912163639,-0.13160048105362826,-0.8110349056362337,-0.2214328838612106,0.20061379401041837,0.28540089972568716,0.030789464726480406,0.90104759945582957,0.95544233357321584,-0.82264626343857794,0.10564740612434569,-0.41696017953425651,0.15192251845818131,-0.4823555301327051,-0.96391033286410865,-0.97087365806609094,0.96089151453268318,-0.95539557931730312,-0.613790610625311,0.65497263365191061,-0.79600769690983353,-0.26150655292976022,-0.883761189823859,0.777290655196314,0.089171321172812637,0.53836384347563793,0.058519039330314396,-0.39470470715067568,-0.495144694342811,-0.081341752354680441,0.8000291505828635,0.49795205029563611,0.66093647883317275,-0.75769387174290315,0.79747985713066527,0.36405604815299436,-0.91921220948882965,-0.39718364383894189,-0.46644865789750994,-0.20390000622901133,0.83034061492902256,-0.40544417565942004,-0.70202266736981578,-0.35462940687063588,0.26532782999115428,0.59381959847818111,-0.19125321423227581,-0.83903614843219343,-0.57819920712066775,-0.559383981190335,-0.26508160879140796,-0.93291116130208185,0.44054420080061268,0.77521135600992075,-0.13766965276453164,-0.64442165039685628,0.84003927877174656,-0.37306302058187452,-0.32137321136955788,-0.25820461579514881,-0.517623046654101,0.10542909759349613,0.21826370815665633,-0.49159415275398372,-0.34454481599132752,-0.45129694158737405,-0.63725573832041382,-0.8640654291324622,-0.81905335039787619,0.718765883109889,-0.5012387365574198,0.28836856516467807,-0.20010362062608061,-0.72981204685280665,0.078505977559139,-0.74781709851129774,-0.043074653969646735,0.49388568964502105,0.30110463001816751,0.058824306381318858,-0.36392232373539468,0.530393258915466,-0.91391161685525979,0.66124923651164824,0.08812928529834807,-0.22901128848502939,-0.61987608327524557,-0.88324764970841241,-0.043287088649015447,0.75285096548164776,-0.064392675675634614,0.38913723378867715,-0.58017623544678854,-0.12209473416306764,0.6985055802848682,0.12270225729919145,-0.069531854740125992,-0.48258386714504281,-0.94929807304837654,0.98620765469326066,-0.63406538713447069,-0.15092921450311747,0.56196022106425847,0.61968115746028773,-0.29164994521609039,-0.890138866328699,-0.22710560971270577,-0.58194680259653686,0.91843091087342743,0.22950008335965688,-0.35715752810107426,-0.94914242855698916,-0.82655387596532415,0.12348519550798703,0.92911455776966856,0.088633641641882088,-0.21910217135171506,0.28888369737606667,-0.10160643844940068,-0.99161308537778126,-0.59205854339155306,-0.17070819817982064,-0.040500607826048793,0.61199116549081689,-0.49047960224118065,0.27523968102188767,-0.2491921629985758,-0.36369383026086438,0.13302160945396013,-0.30269596832929924,-0.43131485275519771,0.70226167128526684,-0.36732033331288039,-0.87669263262147668,0.84699152449471482,0.0097802323334758318,-0.985206867095645,0.11011337261186605,0.028182894935916594,0.1169892033175515,-0.77792334779068983,0.0569700761963474,-0.41433737679120963,0.31540267929220694,0.66830577685884474,-0.84920702821072513,0.95719142116475453,0.594061334428406,0.78845683382286547,0.87523127201722528,-0.15021482070452291,0.086665108374629679,0.36141696402869045,-0.98727125347930533,-0.17392236607797554,-0.40699139908281684,0.87645020004196572,-0.39412235999206191,-0.015261402826412304,-0.18773551061178348,0.010141344745709255,0.526800225734152,0.75051113672112635,-0.70135210021461925,0.61006256174764717,-0.0779821891700766,-0.83135955120965821,-0.64943160193480165,-0.10316345426401284,0.19650039737881181,-0.12888426758762647,-0.761144066583898,-0.44671800427451636,-0.23171683504791782,-0.42544501760296755,0.504565661542381,0.38089980016504404,-0.70481523904242327,-0.89008493716366821,-0.14025030058820281,0.91534405942789465,0.43500570507487546,0.41927261809784577,-0.59507123501741854,-0.85361794375517308,0.13832283585254235,-0.94784391249895283,0.12228054465832214,-0.18048213337570529,-0.54656411686286521,-0.6698963621956745,-0.740194471897648,-0.085720646700691738,-0.078647783994045012,-0.69721738048699566,-0.47095324772920144,0.025958338298815459,-0.882297157720801,-0.83532870739480891,-0.75177835149307659,0.82770500696623,-0.60052393171960672,0.21425220845930848,0.696268611446148,0.50178591511295456,0.028106487369214412,0.54681887037438293,0.78990740458942366,-0.081437292081041862,0.49791541113421106,-0.86879603092968283,-0.77720020002555112,-0.56213092736999082,-0.82309442564057855,0.5077971357422868,-0.9044782248812161,-0.60397090465015313,0.50002988777124779,-0.64668629302023273,-0.043235308976487863,-0.73760105377882768,0.705507176325427,0.41273649382066752,-0.46296159665238185,-0.94678922600429,0.22581521152789483,0.67959259761478408,-0.63047815842110577,-0.98009905450981993,-0.83022991513378452,-0.83241847196240837,0.48300837095966953,-0.060530081885182337,-0.93036477637028547,0.31248551807947716,0.021447541667822534,-0.13428287866259128,0.24780189909404232,-0.68227096725361,3.8468744623693053E-05,0.66558077217339573,-0.26435805590094907,-0.58921282952149068,0.32338152701192607,-0.4168117690909709,-0.9324980531504834,0.51760371426008811,-0.59778927713529639,-0.60483390633241918,-0.67167899183541491,0.0062527903384774876,-0.90095741436861332,-0.19271578136492323,0.52352764109313843,0.51857349952616427,0.757655896133583,-0.18771050040969184,-0.42012906746013512,-0.22076327363995987,0.097545044542078421,-0.70175083573057817,-0.082717173771335362,0.94481224377863682,-0.21599994842708109,0.46991838490120991,0.17611984730517485,0.373312134469539,0.61926057032275039,-0.7086940788238747,-0.10091803134461773,0.72314006403234787,0.31902200650378226,0.30244712825047182,-0.2712268234562254,-0.53739640188282189,-0.031716450597958849,0.92120425771977954,0.685853295347585,0.88071548001874023,0.12466668529653302,-0.27621160041364451,0.14196655067706784,-0.67340455747833683,0.56179579373532706,0.58545598414980615,-0.51407289994604555,-0.088456526905510827,0.0907223127273481,0.77374726383655668,0.9499353654449505,0.29128339434567996,-0.63936100743681235,0.96360572425816471,0.7423174072719726,0.9265810423188755,-0.8214326383645798,-0.070212441529246258,-0.82078968026712051,0.56953004075658042,-0.89388280682912225,0.43559433121029023,0.7274311756377253,-0.8609493984193306,0.32700282117677981,0.76709430234837084,-0.13973625616158183,-0.69863955522824062,-0.33892216921733792,-0.70740922433669173,0.55964560041187594,-0.3518168238698583,0.648695120424356,-0.89654831071223517,0.95567170528493439,0.17975408359419279,0.42072420354034945,0.62154700263475393,0.51182778762272918,0.17568161300182417,0.23394668811650327,0.43365767804610433,-0.74840121704544926,-0.56604079416303,0.36147960292244313,-0.13179029856426189,0.668960607922152,0.23612508142186564,-0.85649607323878263,0.047255540288638112,-0.92286714209377163,0.05016059849884389,-0.7409064102642734,-0.27487484751030561,0.74373866792011012,0.66541677884078432,0.19741719877227079,0.81312377602473074,0.47908638020934835,-0.2978990572960577,-0.31363813966216431,-0.092474138872918735,0.48595376055964912,0.045391872546352387,0.74185150058094951,-0.88512639509752689,-0.54807719334404781,0.89707841253703391,0.90761282197554261,0.080750503149233058,-0.95610714375791472,-0.71240829988960563,-0.22755109622494835,0.25027366972075482,0.70933580059061563,-0.50205236836432121,0.0913949995727255,-0.5341141021503667,0.31452151775105,-0.22330500149321975,-0.0073499493335140633,-0.41990817357781723,0.071890691794404146,0.19551224224060412,0.9903852571688524,0.69425935796194682,0.44940940730711881,0.46160598539822084,0.72799304301291379,-0.83515273399425327,-0.48178954538041241,-0.18892882633438746,0.13835588569676313,0.031138731181220493,-0.79381526903892652,0.5124295137414846,-0.50109391450001572,0.68830944583206877,0.984372946426446,0.33257182423610793,-0.19268862073900581,0.79111168104741336,0.93999354352242948,-0.87692675547531185,0.16793642573428175,0.75447275617833842,-0.15230403428538891,0.52705364978269376,-0.1876813942509151,0.9649745281622627,-0.51174431690561784,0.075672558544051166,0.47374323079071157,-0.2535935497160971,0.9139302162984061,-0.92498407323145493,-0.35543979860629876,-0.90506427684103341,-0.47278325328267329,-0.16760505557414379,0.68186347683978432,-0.75059835647726358,0.66013985716744317,-0.76785201941051151,0.54485365820343312,0.39181552892169708,0.64410335786831718,0.17292373123249213,-0.305113283593726,-0.24941982526770784,-0.49377135443211129,-0.5752251211438445,0.69977300926101071,-0.27107009630234452,-0.2204878270721472,0.27067176172075408,0.14470451890710021,0.83123698263952372,0.52637910355179529,0.91563278665562753,0.0062512848555349209,0.83264844111755887,-0.49029353330391157,0.47481179911401672,0.97756095462365122,-0.79589041964890916,-0.21634594500826018,-0.89721962711644343,-0.96675827259512537,-0.46928517728545011,0.61484952253049685,-0.15505398351468797,0.67418266910788727,-0.52735885303810182,-0.98823438211727621,-0.38933205715815167,0.299706250568715,0.1596389544008481,0.6667762150367611,-0.79553383020476154,0.16074580008198777,-0.024258393805594365,-0.6301595268911494,-0.50556967896668692,0.67676391949726455,-0.0030026505715226061,0.43732919471214021,-0.9729740894273734,0.72299775561457391,0.29489311636187748,-0.72556184824815106,0.54773405173222256,-0.60002105897293478,0.95773796548961565,-0.84207586191691264,-0.51566260564870325,-0.66923716276382894,0.863836457889451,0.74177427717567157,0.48864418477222521,-0.16433022598006308,-0.39335589175734476,-0.20016015749432153,-0.96116971688399544,0.68862212388246424,0.89272185968827544,0.31125621931220226,0.72129045972660666,-0.18736761072062311,-0.63111365196812608,0.055489580172807716,-0.30091384067242677,0.13313555630535612,-0.39237094781937587,-0.027214070794737932,0.49844433669859745,0.2252005446819591,-0.65606340237709848,-0.011336096102062657,-0.57423798906348555,0.43622179116877813,0.86612760781595832,0.38877815212531863,0.049352717608843334,-0.30114240958408567,-0.692380249357028,-0.29280562060550119,-0.60546554327265623,0.08345530977633564,0.20630066385786081,0.935352998755571,0.38144165108978823,-0.42097600382798167,0.72773094090061774,-0.31907679947050138,0.74471771612051763,-0.67562225818430177],"Bias":0.79654622766959771,"Output":0.0,"Threshold":-0.50640733656771819,"Type":"GT"},{"Weight":[0.0064857555583518727,0.59304099604163363,0.11375391581736222,-0.40084597999269422,0.50627286243544556,-0.028472449643757405,-0.257737388023053,-0.0019971677111448568,0.33694411364241694,-0.16764059251530122,-0.50167951756235185,-0.83500017916550873,0.37502016144572764,0.36306492954635289,0.81629177174358247,-0.45932993826425167,0.12881793925949275,0.99160622851532243,-0.96472544780221092,-0.43251947566518534,-0.19454991454004772,0.587370514211883,0.64884577675203126,0.12236037390416506,0.97707261144047264,0.021872425927721161,0.33876674405241697,0.87657880171974134,-0.735404257073721,-0.32325382545741921,0.55636649558151441,0.19023853502713076,0.50999444048385811,0.313735184405807,-0.021637883513065934,-0.051746097417430068,0.45742892402104518,-0.07618179874316873,-0.70776426126610681,-0.72318871446102329,0.79868427375270257,-0.736237858764938,0.912116655107642,-0.760291462652521,-0.82861818877450111,0.90049197054491,-0.913825186395005,0.90564373038040646,-0.22420716203013769,0.2484121216686499,0.56278849139939457,0.70983572057906341,0.6074046155472308,0.449168903962322,0.73777882742592082,0.0035867188142550731,0.49781779036755569,0.3940249944077921,-0.95129765102234565,0.66016712629244068,0.16912278028629849,0.72392220875430957,-0.46560896954760372,-0.18603991539498788,0.79998663617297383,0.86302665847494575,-0.82818149534435082,-0.93570799424113149,-0.92175560487516017,0.54973644323169091,-0.10356320631856249,-0.5770784856644825,-0.27666852962070543,-0.24590115260607617,0.84578521309689858,-0.55571675373041851,-0.35491960651935989,0.55030875352691333,0.84589776762104485,-0.14536270180035507,-0.73596740874274047,-0.83314974132606279,-0.92631832273971215,-0.83062914471636951,-0.88904934557576165,0.0030195652521306489,0.48336103301651823,-0.85369912388441116,0.42179938565092134,-0.4647141054574,-0.062126001837722024,0.37183350341945587,0.013450640259986111,0.33775792193494641,-0.45344842712089811,0.38296652975630319,-0.9799034856166241,0.25414192222717308,-0.29400534382742149,0.11295488482013107,0.41105218576782021,0.20001850100235014,0.977848995000985,0.70774865276541032,0.43745066758126516,-0.14211123443306947,0.50373898004355788,0.23725145926571054,-0.85971668402651169,-0.15516079317553005,-0.97315126842500232,0.040612182598846115,-0.78219416727414082,-0.84612797798874229,0.415915873095354,-0.74796235130539268,-0.57169411637433531,-0.81287545329559385,0.896953567814526,-0.8412690809188732,0.96416831992760688,0.099581036297409345,-0.2296861397240712,-0.4495635393306443,0.013107522862547787,-0.01229633484608323,0.25330625905343623,-0.99260807083575431,0.71122836028748582,0.89843034879231376,-0.88355731213630984,-0.26894593810147882,-0.76037870708870636,-0.58955465005224317,0.10855960944134724,-0.74204177211133848,0.17276258448733137,-0.290233030119088,-0.19401640454028565,0.2875658316945498,0.600153506547284,0.21989452802571213,-0.96938977016573291,0.76002607436851877,0.506346695360889,-0.59905709866390433,0.79277863856068753,-0.40020803799862414,0.38395017263663472,-0.18472866163809257,-0.63216311327748143,-0.94990881343833578,0.87310481018997022,-0.10721109393388549,0.56832050465434814,0.92343834038983952,-0.39520069788917933,-0.32797844257577252,-0.25485207385143827,-0.486374792403716,0.36875282664259562,-0.49843751848602552,0.32790890165041614,-0.375729058112823,0.47118740504197187,0.93630498505025406,-0.91077615223395458,-0.92831329066693469,-0.83775074167072339,-0.92766448060407514,-0.36077757895029039,0.14482007694655102,0.77198236797562914,-0.81898634034161755,-0.5851586892200441,0.23456964419901821,0.15744168132424433,0.73215441207036114,0.9463418069977042,-0.75823262089781118,0.46805958005974979,0.91072341097086829,-0.73604792809861153,-0.70494739418148411,-0.4096406541809629,-0.25814701535652718,-0.54051216670335833,0.93161245525424019,0.7315939915047931,-0.64115653310024945,0.70886839353892417,-0.67446676347147061,-0.56624166786961339,-0.39275824948808097,-0.45450418091123185,-0.2090323740658501,0.37552038457967357,0.65754155193341035,-0.46739184738481038,-0.097945854113412029,0.27838615806698153,-0.045184039531826994,-0.046163265614846377,0.37526135862584287,0.96072617217932188,-0.024155053321344336,-0.89561337926220774,0.63638168277050444,0.17311887777090021,0.20126752471610324,0.98048016008943328,-0.75403792399635439,0.963571887446368,0.74557868379427994,-0.70323210847714546,-0.52324572090210664,-0.56649788216058994,-0.066189191334968991,-0.87572032486820606,-0.12071385845575196,0.64527010109520988,0.057711352621070737,0.14840919251945298,0.40536745004605851,-0.94603272152414208,0.34007305993701942,-0.1760433596447312,0.4182637983086816,0.85640631143767676,-0.44898254026145795,-0.36789189203078482,0.093435912436542992,0.2182711228813376,0.71540018856311227,0.3474680801608917,0.67143489079151064,0.623132428444518,-0.070246367282348857,-0.62879851676002074,-0.0886672158207126,0.55179873600220253,0.012065040884569772,0.078347457609301174,-0.17823974749922741,-0.82414877639345308,-0.2420178466672161,-0.81292979550218669,-0.084879200013763825,0.5026543161378495,-0.49471621424645007,0.21173411477903562,-0.6143950329229213,-0.438951445482183,-0.10041313204002247,-0.31218301845350444,0.9630777719258693,-0.71944041537094883,0.5371983435643829,0.40509855533256128,-0.46395819702370006,0.49163219867815833,0.82905202816662,0.29593967799839549,0.098276746505068957,0.66361723265779071,-0.88173561537719125,0.54633437262211659,0.82470346932518457,0.16932053778754572,0.15389432672126885,0.69928702837754364,0.87188547797123228,-0.5112351307232097,-0.34817227830559588,0.49451843532478362,-0.82300794954551759,-0.05144750096436939,0.986905047663909,0.92311461731936528,0.11213551886013501,0.33058977142469481,-0.76392969431538582,0.15213825141644954,-0.26902135194699345,0.58784148683205317,0.41485578353277214,0.34669581351182227,0.71928393408622771,-0.65944621416714333,0.36192004678860307,0.2556499188093701,-0.096897214230567782,0.019131912858752494,-0.06194531780758189,-0.62322492181473643,-0.8765174731968518,-0.49185432516590427,-0.31889116825484259,-0.986763126210665,0.63813665818336263,-0.15764077015111258,0.81254335251289578,-0.085847095160673889,-0.655368362392936,-0.35686131769645091,0.020956208473516726,-0.37931980862250542,0.57947932955784687,0.41210026825410329,-0.45091124319048193,0.78773963534633618,-0.48608552407756705,0.861048779851314,-0.30925438614061773,0.49558608908932006,-0.75417625194144255,0.40064046038344525,-0.71163678574917688,-0.88534855464722428,0.077067258803670879,0.22430307707949684,-0.1133278031429871,0.12334483821100781,-0.048760873753931781,0.7392857487962049,-0.77818927763876933,-0.95093107873151594,-0.87381054222295551,-0.7527763083357254,-0.89590340242530375,0.7126448520983778,0.74138415453088669,0.49178941757035882,0.48369703836911221,0.53122117721066864,-0.74734930961735047,-0.52394808154737027,0.048163734864519789,-0.68550442796456834,0.3201956019365208,-0.93801422740240314,0.28864498636156555,-0.75080511055458576,-0.30667281351362952,-0.82655932699635593,0.26401177806035231,0.44404162952864618,0.28458782252137915,-0.083590919656488544,-0.88546983473257623,-0.50848293607518213,-0.71777518499539006,0.93884399437291732,-0.86179970431225361,0.31750611137482621,0.6733041110789888,-0.048807310428846305,0.16105776660193585,0.33879264087360011,-0.077061818948510025,-0.45667950271474173,-0.852390612406838,-0.29867946510141691,0.62811360677150707,-0.16909074604934582,-0.87917364150247246,0.22335643704205585,0.36038586933183758,-0.34248283893916887,-0.87054879072613489,0.50662876176956517,0.717464502769273,0.67952413562663094,-0.46753833185301086,0.816937498197396,-0.25807280897073115,0.20839905469138131,-0.90331301926789476,0.51742032194389975,0.87791504053301883,-0.077920434567108954,0.32816176411144515,-0.031872339561522162,-0.42059359951903746,0.66664872768644645,-0.30990398922464996,-0.061442578705699455,0.61673218971897481,0.73126192145574,0.498868794878418,-0.76346533548248252,0.72901531855064228,0.19322547604945745,-0.19164449963329569,-0.056890060685989473,0.050782971107765557,-0.23413544019411106,-0.96685063464886067,0.48125853924139333,-0.8836410063708392,-0.19946814198022156,-0.75035830482391563,-0.32229700513291032,-0.090156971518954715,-0.14537669352506133,0.32849459039442919,-0.04051345961192318,0.94437499155494153,0.586831569013573,-0.67298235030518028,0.0816160571210161,-0.031714169788972554,0.542071502442505,0.99260671995235916,-0.065440115083679612,0.16600066012050987,-0.053236260103637474,-0.47914958162193633,0.46074826943722941,-0.2145927465588752,-0.6374171197588635,0.31587086027295835,-0.97213476708723923,-0.7625871248369045,-0.21833347213376941,0.60395030519177684,0.17827432610945512,-0.324647521751303,-0.34721993158907627,0.68201152220462058,-0.038723928871901674,0.11066818987516136,-0.090053159785481715,0.52730679536578562,0.72014773530892462,-0.40606559086873456,0.57667926586078444,-0.66688112852484038,-0.64347518544805948,-0.39388460311753892,0.7442162799389177,0.68040064288321911,-0.82200001032184811,-0.70173091893164952,-0.76795769425479588,-0.037311302515357407,-0.82292077169889621,-0.12317089835329489,0.9048680047992933,0.71078308099451615,0.94293312027255682,0.31469038795432558,0.6939711834741622,0.11330726096094924,-0.91246162956229482,-0.5966469108111444,0.99045433150159867,-0.071277320418170337,-0.51102221361874711,0.89742636768958828,-0.74675842642167511,-0.17995054935102842,-0.52253245493515044,-0.25897850341116008,-0.38791662472668875,-0.16121185764726803,0.52009484801445849,0.12889846653160567,-0.6430782087347835,-0.27143215726662062,-0.36270687233782695,0.56143187245420734,0.64238057455158815,-0.085955003316493236,-0.32782182578361679,0.93497204963815028,-0.69901811457193364,0.77688699531223948,0.63472833188005184,-0.13595725974811113,0.26307252667056047,0.27927017830278267,0.097355801657473581,-0.59624715456564314,-0.48128146886885237,-0.43787712344800922,0.87383269186775792,0.25133215414887861,0.49198142089507607,0.83873967539460381,-0.24370125273414947,-0.8497582938753806,-0.28591481562979276,-0.34801258861460377,-0.093352186071384791,0.29480906682778574,0.88595366845184642,-0.036876453569567043,0.75527393759939532,-0.41203423329258071,0.32472214536961269,-0.73145936742958584,-0.604338442722493,-0.885770463797157,-0.8454119003589321,0.39753840602819734,0.9948304626135297,-0.12061367468937005,0.085968847426571349,0.405659948664559,-0.20160361901000309,-0.026862964046589548,0.846930854882547,0.603157616966943,0.56060093387989374,0.9569403729201017,0.25852628110839349,-0.27684100963028196,0.31477829968313609,0.74136261583369345,-0.51583823818519625,-0.57793889314771574,-0.84184023358013493,-0.81467760811312018,0.786503555153731,0.34101088360930371,0.4641971594952965,-0.89116074791697819,-0.93887688915192935,0.33915104919073685,0.84270314725241768,-0.54093979324257924,0.10773231187264078,-0.70564153637068416,0.25755309511793456,-0.90205655987470246,0.19220650391290267,0.17990886148992408,0.59495746791127946,0.40006259568038516,-0.81369144460823917,0.18021190687092575,-0.4833415395036999,0.15792715323992407,-0.85481456055064431,0.33908451038370119,0.32452534061135974,0.99735090415801431,0.70553206824955161,-0.92094718940600151,0.62499971297802392,0.094006468585695363,0.91798503413702592,0.62949831393989653,0.5363782721275363,0.55686831639933787,0.089493942488680561,0.16227794539289453,0.7388430949015744,0.53771793774222854,-0.61748694005305271,-0.39404059359526289,-0.50356776477003828,-0.097767117013115024,0.56825499309611271,-0.24959968926832066,-0.077236273361945648,-0.89128989255581514,-0.1575915846776178,0.82257430573113932,-0.50573724112740592,0.0058608753633968887,-0.56814690892032671,0.73572781902538975,-0.60311528043966522,0.85794014151112186,0.019161478159558716,-0.44893920023410544,0.17178186037195,0.44028351522995324,-0.82095130897171387,0.3303362691450567,0.68642930113078526,0.86345715302203652,0.9315715511010827,0.43351350931148674,0.97780614764327467,-0.46675951567793245,-0.15754151351635415,-0.56439096087794327,0.34110697933524242,-0.82369799764067775,-0.725185483566106,-0.018916573849933491,-0.88469725515912156,-0.076087130269076264,0.79607711164098094,-0.74367180454715709,-0.92899962185369789,-0.2323562690207531,0.5349339309776826,0.5700923458533792,-0.972732300857423,-0.927345467231863,-0.48169091692273081,0.30405581058191872,-0.39707763790948208,-0.50004325644115133,-0.37898703821887592,-0.22806716348420231,0.49987369053991215,0.871160231936332,-0.838321824482792,0.70640535638965918,-0.2294230196762006,-0.42915142720060023,0.2428987544229714,-0.57024274979263667,-0.026010874205273982,-0.18927688206977997,0.41710260716132008,0.64709492383855161,-0.12563675787562353,-0.79904534798071036,0.48138081351359413,0.92406516704897634,0.82454106482888623,0.5494829539905689,-0.10871009999360429,0.850384501205005,0.64905231709082256,-0.81664363426000053,-0.66163672397920714,0.4536280825052541,-0.76486408466699718,-0.19883721470778679,0.97905020414807375,0.92487861957628215,-0.0875763884222025,-0.37624222476791697,-0.43834517544058393,0.51500126417493508,0.23964214336110379,-0.28039222037437939,0.96555136235689343,0.25252654741170188,-0.28460717074787578,-0.72067549299480183,-0.15620628565373193,0.13227238000010716,0.92593221083559663,-0.6961061925143498,0.31998650092630948,0.78162233148777038,-0.96549642270686875,-0.712686230294726,-0.69197113844192171,-0.29699660199554478,-0.41596212536839866,0.078341463151546872,-0.91873030500427366,0.91649195920512638,-0.8862800616241433,0.95938819551811938,-0.1376638604037761,0.37081748497244788,-0.9449787479569105,0.53282932030634456,-0.54932888669396229,0.39061280311579483,-0.88685656007698577,0.38702728943295184,-0.057293900780982294,0.26582637255351355,-0.15693850263810646,-0.07017709224958768,-0.25076985417435405,0.0077839274926967579,0.00051006721356421114,-0.45629414285360564,-0.72068160526486191,0.82853785102653221,0.65164169839194119,-0.08648022407967608,0.85879364975671924,-0.85428835118854807,0.71543152710210134,0.10630127233746521,0.71407708093248168,0.93759005281030672,-0.9752133311588379,0.36817659687631604,-0.36856230970870812,0.50769521692194752,0.44194406477824977,0.5208330818083291,-0.71613291684358049,0.83889073731326069,0.485652657917539,-0.29145048060056311,-0.13458735129543922,-0.034190550928092818,0.46276990392374334,0.33473042833373434,-0.032813275248190985,-0.11075075953768136,0.76363218611275419,0.1037334660551201,-0.88833063509703181,-0.15819471103986479,-0.44652594227647685,-0.80029908139272554,-0.2548203711653223,-0.527402148827632,-0.6798783832601637,0.11888713814266358,0.681949299612059,0.53062513495358876,0.032213443905214523,0.35783570136774129,0.9859251012028778,-0.77305092512306339,-0.59725072029850013,0.084474461658147384,-0.2079325398467167,-0.74201869300660617,0.70207555764451413,0.65654679930608106,0.22328414498981281,-0.1264646784991327,0.29923987775074312,0.052122350340766066,-0.28435699328983061,0.34516098738888323,-0.26045652165098887,0.62206416652634,0.65009654436730624,0.34506106765245137,0.50756509858535837,0.55354144962203755,0.92170724175949914,-0.19583298135354788,0.73393325122722108,0.15173125460358861,0.17797051192166774,-0.72834595978648675,0.86042686871272833,-0.24268040537958985,-0.72357213298025169,-0.754342940055925,-0.14856180741850372,-0.664594738588014,0.56254896035536606,-0.82762386781518527,0.61540324409278258,-0.34640622900165907,-0.32985693138551753,0.53488095874659758,0.73513192577992192,0.82292807978714266,0.10521269268598998,0.75114436296333764,-0.42375740149233371,0.041012219172442431,-0.373594022529942,-0.94725932597520734,-0.0072562079910450652,0.61253576893943162,-0.93775615000061507,0.93271629602309147,-0.81354285814498684,-0.10608174377404235,-0.3302475783649122,-0.81895813151214181,0.36636654211504688,-0.31982826828948607,-0.39326151432155704,0.23509408032293155,-0.4042152238098044,-0.6320717770755625,-0.799567385948993,-0.71220710720504032,-0.0384560143754147,-0.45442878895179778],"Bias":0.75283133320176565,"Output":0.0,"Threshold":0.76853330376024043,"Type":"O"},{"Weight":[0.62414079793921706,-0.82964740918467161,0.517594255748016,-0.25355513591950535,0.65429097211653875,0.38248250139061479,0.9702726052935573,0.89811399015510174,-0.97814059629018446,0.36213243117655275,0.50793202571008911,0.093786260156792714,0.35372301766356595,-0.15379915719563103,0.81223217389184621,0.74222843336976529,0.786658577055977,-0.54257424107872609,-0.28150526354159472,