{"Input":[0.0,0.0],"Output":[0.0,0.0],"DLayers":[{"neurons":[{"Weight":[0.74465318803892155,0.99125284701178451],"Bias":0.043344232739575314,"Output":0.0,"Threshold":-0.20406912416409195,"Type":"GT"},{"Weight":[0.77198999969847037,0.26598811907041264],"Bias":0.49428332387203505,"Output":0.0,"Threshold":-0.21569669582680645,"Type":"GT"},{"Weight":[-0.56502692660550913,-0.47757631795367989],"Bias":0.87488119391486108,"Output":0.0,"Threshold":-0.64262006368610081,"Type":"A"},{"Weight":[0.79797472702244987,-0.89991711354810611],"Bias":0.41923994311096147,"Output":0.0,"Threshold":0.652702769102856,"Type":"A"},{"Weight":[0.39563343832065978,-0.10873465477895675],"Bias":0.79313147943147067,"Output":0.0,"Threshold":0.98844598233161773,"Type":"GT"}],"output":null,"numNeurons":5},{"neurons":[{"Weight":[-0.53875348276400636,0.59370241248686906,-0.17444850559087866,0.54955173588802653,0.81378941927747306],"Bias":0.85218680224017562,"Output":0.0,"Threshold":0.27793351294376584,"Type":"O"},{"Weight":[-0.10203312435282075,0.82857031506885326,-0.36441313119810687,-0.021727858587041432,0.1192872305956144],"Bias":0.58910303171216649,"Output":0.0,"Threshold":0.16849094357736918,"Type":"A"},{"Weight":[-0.95732966948176257,0.57658094427389139,0.18917441144081504,-0.33612771115085471,-0.76589822199470281],"Bias":0.62352622143157121,"Output":0.0,"Threshold":-0.57009790352084577,"Type":"A"},{"Weight":[0.60545052383348841,-0.1360831815451771,-0.55958209166283812,-0.0067015304261359996,-0.96456116436261741],"Bias":0.14691929851980848,"Output":0.0,"Threshold":-0.984249895896879,"Type":"A"}],"output":null,"numNeurons":4},{"neurons":[{"Weight":[-0.031594013809968721,-0.00595756201350948,0.44258969484017679,-0.5026993725927078],"Bias":0.98932506842041623,"Output":0.0,"Threshold":0.088759101502950813,"Type":"O"},{"Weight":[-0.92700603554351535,-0.40633450607132843,0.79431522767726115,0.89968812274732068],"Bias":0.1339290729416204,"Output":0.0,"Threshold":-0.42602521713172331,"Type":"GT"},{"Weight":[-0.50249387812916835,-0.64967215883064655,0.46541125209322726,-0.20492451554393606],"Bias":0.13942657231326522,"Output":0.0,"Threshold":0.8267213445281244,"Type":"O"}],"output":null,"numNeurons":3},{"neurons":[{"Weight":[0.45089530732990024,-0.15781726974892302,-0.8945944904790234],"Bias":0.31019247291152946,"Output":0.0,"Threshold":0.69973506717930323,"Type":"O"},{"Weight":[0.932929925589324,-0.85741962346128175,0.0304632629409727],"Bias":0.460099318744661,"Output":0.0,"Threshold":0.21437667133956062,"Type":"A"},{"Weight":[0.39704871009897846,-0.34232918421846309,0.1561704902705599],"Bias":0.2733826331204654,"Output":0.0,"Threshold":-0.88383458595901476,"Type":"GT"},{"Weight":[0.100284691015391,0.13544238830704353,-0.34341992034736085],"Bias":0.74187085299839772,"Output":0.0,"Threshold":-0.63385066885214791,"Type":"O"}],"output":null,"numNeurons":4},{"neurons":[{"Weight":[0.90917378473522781,0.020565015739093077,0.78830222403085892,-0.36333836445740347],"Bias":0.88644107332753064,"Output":0.0,"Threshold":0.67932725356860424,"Type":"GT"},{"Weight":[-0.3096998838287312,0.83418658926812306,0.84326696248877187,0.26924207539728007],"Bias":0.4263578869525147,"Output":0.0,"Threshold":-0.32136667907301647,"Type":"A"},{"Weight":[-0.29250654871226595,-0.22123821415996095,0.98445231280496914,0.826248649892513],"Bias":0.326301692671283,"Output":0.0,"Threshold":-0.081233249549396924,"Type":"GT"},{"Weight":[0.32176416847937,-0.367868266239701,0.91004426866306187,0.491927314778756],"Bias":0.48794001782682728,"Output":0.0,"Threshold":0.51168796537056938,"Type":"GT"}],"output":null,"numNeurons":4},{"neurons":[{"Weight":[0.4805644515345639,0.68727000788192727,-0.405891624002667,-0.58780710566221139],"Bias":0.041154211871863439,"Output":0.0,"Threshold":-0.42423568452905663,"Type":"O"},{"Weight":[-0.35415421396221697,0.033274363276210785,0.63730258431160014,0.22846663427933428],"Bias":0.91422331282599978,"Output":0.0,"Threshold":-0.24368233012206961,"Type":"O"},{"Weight":[0.25188128894748224,0.71698455359646329,-0.40115226032266033,0.78081858334169663],"Bias":0.80557675417772345,"Output":0.0,"Threshold":0.49995081941594871,"Type":"O"},{"Weight":[-0.13897864201058571,0.92041006866861608,-0.90006781970153926,-0.28060995660750659],"Bias":0.0023503121930874473,"Output":0.0,"Threshold":0.63060737197781325,"Type":"GT"},{"Weight":[-0.45865295150254526,0.85063743351522714,0.5972758701989781,-0.595010018253238],"Bias":0.65314500203968262,"Output":0.0,"Threshold":0.10855761315140762,"Type":"O"},{"Weight":[0.73661654383717878,0.031806459665208335,0.64341710118736006,0.58117666029426118],"Bias":0.68612107852758886,"Output":0.0,"Threshold":0.078711543734516734,"Type":"O"},{"Weight":[0.88202365016658957,-0.83257720425379333,-0.963072373514563,0.57636208253743226],"Bias":0.4074411566403886,"Output":0.0,"Threshold":-0.1976201600384061,"Type":"O"}],"output":null,"numNeurons":7},{"neurons":[{"Weight":[0.071564336806332854,0.1225603181508185,-0.267005739857911,-0.030421028859178082,0.4778496560071826,-0.14170007833358836,0.73092653077604552],"Bias":0.23387412365240703,"Output":0.0,"Threshold":0.049430711683552113,"Type":"O"},{"Weight":[-0.37994140776802854,0.21828443101527376,0.99644138803539861,-0.16779126188149268,0.58125850305951132,-0.096937301148165622,-0.53899638379877268],"Bias":0.64021005697558175,"Output":0.0,"Threshold":0.90885007330628576,"Type":"GT"},{"Weight":[0.45861634214344266,0.41911533866967787,-0.68367893280632741,0.40417399415940697,0.690877125920205,0.23214584273851749,0.3424879588850252],"Bias":0.7057544964858119,"Output":0.0,"Threshold":0.36437684500793782,"Type":"GT"},{"Weight":[-0.42254892150990148,-0.0033245072715564197,0.73714953928121807,-0.72015931444250014,-0.18980106254564647,0.35201922447980344,0.81498803981346457],"Bias":0.95830252392138471,"Output":0.0,"Threshold":0.46516383041868165,"Type":"A"},{"Weight":[0.41412797636079041,0.61177696316120078,-0.42305660220936714,-0.15956210585290664,-0.041663905159413768,0.18970757172895017,-0.32936475953523292],"Bias":0.396736323552549,"Output":0.0,"Threshold":-0.54406955025348325,"Type":"GT"},{"Weight":[-0.765385785962169,-0.21211305410233936,-0.05713441179000512,0.1558135762604948,0.35779964940519987,-0.15703261976923449,0.5834286867563746],"Bias":0.98102883574600741,"Output":0.0,"Threshold":0.95333042971479265,"Type":"A"}],"output":null,"numNeurons":6},{"neurons":[{"Weight":[0.549879129300769,-0.71670199312116112,0.54137893698242445,-0.68063202206074824,-0.66470696668359774,-0.17739968568896861],"Bias":0.27091848955998127,"Output":0.0,"Threshold":0.33577530567337538,"Type":"O"},{"Weight":[0.40431911377437374,0.98820862965109224,0.426323528600076,0.461613008036098,-0.2228037296900543,-0.631594519890656],"Bias":0.31238344326260659,"Output":0.0,"Threshold":-0.54406526011604128,"Type":"GT"},{"Weight":[-0.0085390000643855886,0.93642202249561535,-0.048683792841007836,-0.67073411711991493,0.37650238972925693,0.49110660957689706],"Bias":0.18039996371623127,"Output":0.0,"Threshold":0.57937594995804875,"Type":"A"},{"Weight":[-0.95264518677845844,-0.57670972197163373,0.96204023899605506,0.058040014960821722,0.35966413019209359,0.88975525083474594],"Bias":0.31993756690991,"Output":0.0,"Threshold":0.22453341643537089,"Type":"A"},{"Weight":[0.73733131063046464,-0.348843426140418,-0.39935328317776009,-0.65109425161550483,0.869576895548765,0.16901088001626119],"Bias":0.22574960637174063,"Output":0.0,"Threshold":0.61353505431373379,"Type":"A"},{"Weight":[0.15262385232030593,-0.503453418846919,0.96735553814440756,-0.26233043114763238,-0.0016659917317638135,-0.14657775552318328],"Bias":0.18418102440618958,"Output":0.0,"Threshold":-0.16809316266704963,"Type":"O"}],"output":null,"numNeurons":6}],"OLayer":{"neurons":[{"Weight":[0.26285417669585637,0.819118334827534,0.92712530397210513,0.18227558638075161,0.18712334157299407,0.97245326590372871],"Bias":0.8591039501405805,"Output":0.0,"Threshold":0.67367317372638413,"Type":"OT"},{"Weight":[0.4982053635167914,0.900321531994418,0.91195860268173679,0.088724212762305618,0.85047812613215212,0.0097874030516424231],"Bias":0.739258799580512,"Output":0.0,"Threshold":0.29595417403427615,"Type":"OT"}],"output":null,"numNeurons":2},"NumLayers":8,"Breedibility":0.39028958715046269,"Mutibility":1.4620181412724862,"Repetition":0}
