{"Input":[0.0,0.0],"Output":[0.0,0.0],"DLayers":[{"neurons":[{"Weight":[0.90210433532581868,0.40439131455700439],"Bias":0.93318373054879888,"Output":0.0,"Threshold":-0.979065253389564,"Type":"O"},{"Weight":[0.94713753086847141,-0.36371477151462567],"Bias":0.40375689109962287,"Output":0.0,"Threshold":0.29925773772376485,"Type":"O"},{"Weight":[-0.55118875417448054,0.27077800280916414],"Bias":0.6800211270712414,"Output":0.0,"Threshold":-0.28774429638299359,"Type":"O"},{"Weight":[0.44782806953779797,-0.49374425527348381],"Bias":0.65271297220732694,"Output":0.0,"Threshold":0.056040754102189443,"Type":"GT"},{"Weight":[0.60594080230497793,-0.79261108152224269],"Bias":0.61178017529276207,"Output":0.0,"Threshold":-0.81960534016583364,"Type":"A"},{"Weight":[-0.12955518119482098,0.45803661200126478],"Bias":0.224316930968462,"Output":0.0,"Threshold":-0.98569670179192759,"Type":"A"}],"output":null,"numNeurons":6},{"neurons":[{"Weight":[0.86788818699675063,0.64265444392462,0.69137822961964557,-0.61436003894282509,-0.65735053953591294,-0.15092624172145791],"Bias":0.80498510869452033,"Output":0.0,"Threshold":0.7396908764446577,"Type":"O"},{"Weight":[-0.047368882246021593,0.85768200403902772,0.43669707394982554,0.7315834140086469,0.94090062563349519,0.20383729329511396],"Bias":0.84328878849897948,"Output":0.0,"Threshold":-0.5227238440526295,"Type":"A"}],"output":null,"numNeurons":2},{"neurons":[{"Weight":[0.63865560788598641,-0.36049029527254883],"Bias":0.75075931136997387,"Output":0.0,"Threshold":0.91456257268533225,"Type":"O"},{"Weight":[0.79255377305324826,-0.67285081542695446],"Bias":0.84455637905958869,"Output":0.0,"Threshold":0.32457007250030062,"Type":"A"},{"Weight":[-0.58563712965028225,-0.52535309247921835],"Bias":0.58168970215213,"Output":0.0,"Threshold":-0.13454612769863852,"Type":"O"},{"Weight":[0.719558727331254,0.1539160568052512],"Bias":0.78465235456109628,"Output":0.0,"Threshold":-0.48582281241464559,"Type":"GT"},{"Weight":[-0.65290636646231,0.16632950080853398],"Bias":0.53060648149373313,"Output":0.0,"Threshold":-0.75784734764967454,"Type":"GT"},{"Weight":[-0.21784977485325643,0.64414330089657723],"Bias":0.058732598581692483,"Output":0.0,"Threshold":-0.89596022334693015,"Type":"O"},{"Weight":[-0.46734433596364422,-0.25765165884869717],"Bias":0.93677827526665214,"Output":0.0,"Threshold":0.071464265729982532,"Type":"A"},{"Weight":[-0.6592693145662869,-0.53837949807680185],"Bias":0.76064651588008114,"Output":0.0,"Threshold":-0.93742686460606139,"Type":"O"}],"output":null,"numNeurons":8},{"neurons":[{"Weight":[-0.98822765843394567,-0.76464327786334008,-0.7816268660973883,0.82778978200060771,-0.97957205585184137,-0.2532940885300255,0.33765239004867731,0.82359850398432388],"Bias":0.94102395649115744,"Output":0.0,"Threshold":0.23506102861606565,"Type":"GT"},{"Weight":[0.78885090015309434,-0.58144210073232749,-0.66222002062118612,-0.13408323104217798,0.1705362117712089,0.280422910247195,0.33741234025797451,0.070504940147746789],"Bias":0.33170096871056637,"Output":0.0,"Threshold":0.054651528622327153,"Type":"A"},{"Weight":[-0.42986187684808946,0.95720621941481077,-0.570424106237676,-0.32161692451760959,0.714780994092478,0.8196225593889237,-0.87171418260397116,-0.030952040120471286],"Bias":0.7927870260517984,"Output":0.0,"Threshold":-0.508448371434793,"Type":"A"},{"Weight":[0.90225012269907168,-0.70980226607518371,-0.928282924428714,-0.15299048654408681,-0.83472950609155439,0.19664073698066209,-0.54934355874980967,-0.798309276717859],"Bias":0.79063866231154589,"Output":0.0,"Threshold":0.71868366967825392,"Type":"O"},{"Weight":[0.973979852150185,0.50468685548039471,0.96551196135837214,-0.063082742999812008,0.93714810020157513,0.72894407051100585,-0.55863097755174662,0.32418437270642464],"Bias":0.75563505140861265,"Output":0.0,"Threshold":0.76276868431026523,"Type":"O"}],"output":null,"numNeurons":5},{"neurons":[{"Weight":[0.95206467479097878,-0.41291358667095823,-0.93325013152009351,-0.57626417259511731,-0.70753845745117327],"Bias":0.074103356373544482,"Output":0.0,"Threshold":0.822677571243922,"Type":"GT"},{"Weight":[-0.25945569586914763,-0.13699770771758524,-0.3502258501715147,-0.89413795335876656,0.0046073426513966835],"Bias":0.37338813970488877,"Output":0.0,"Threshold":-0.32774145031708363,"Type":"O"},{"Weight":[0.97676933229750462,0.027869978001280677,0.43384385687943727,0.021915177359206218,-0.091773268809436481],"Bias":0.032261829838278626,"Output":0.0,"Threshold":-0.42503479701701308,"Type":"GT"},{"Weight":[-0.22960964275040183,-0.65484071413746137,0.71112379371706569,0.064728676837276983,0.61863734369102741],"Bias":0.584249656453845,"Output":0.0,"Threshold":0.9965125233850034,"Type":"GT"}],"output":null,"numNeurons":4},{"neurons":[{"Weight":[-0.83999024976044434,0.60550868120300982,-0.6049985352926881,-0.139759926190488],"Bias":0.28989519332065022,"Output":0.0,"Threshold":-0.38883371436448477,"Type":"O"},{"Weight":[-0.27322056715992304,-0.965284065792935,0.92519105315450167,-0.91553595052824166],"Bias":0.62422929360728208,"Output":0.0,"Threshold":-0.91808262277305253,"Type":"O"},{"Weight":[0.66201903515589378,0.25886446482449049,-0.49402686743718893,0.43733133349443382],"Bias":0.50225465209328324,"Output":0.0,"Threshold":-0.33428317323992174,"Type":"O"},{"Weight":[0.42675314863526875,0.88182003511200657,0.0898497165599138,0.36494552081681114],"Bias":0.65141381027708478,"Output":0.0,"Threshold":0.19750208323705107,"Type":"A"},{"Weight":[-0.65335327789809239,-0.65905860329934329,-0.051042262954191425,0.02772266186202069],"Bias":0.654889663055022,"Output":0.0,"Threshold":-0.988891024602992,"Type":"GT"},{"Weight":[-0.044616733232800257,-0.92784726895757363,-0.9515023808700509,0.98788040782691933],"Bias":0.7600787890889118,"Output":0.0,"Threshold":0.82127320059634423,"Type":"GT"},{"Weight":[-0.886775814409729,0.1129447902147401,0.55313710195624133,-0.9652038463229331],"Bias":0.11502885078779834,"Output":0.0,"Threshold":-0.55282140548938019,"Type":"A"},{"Weight":[-0.540899903299706,-0.77017672395807535,-0.30656051137790108,-0.48912120214156862],"Bias":0.48032163431882935,"Output":0.0,"Threshold":0.18335846028447078,"Type":"A"}],"output":null,"numNeurons":8},{"neurons":[{"Weight":[0.27500883409521021,-0.41292281374937057,0.85257071575735266,0.83208007730174816,-0.355536248234816,-0.810627117199184,-0.36199728090409061,-0.89381786104935124],"Bias":0.67683011185230224,"Output":0.0,"Threshold":-0.58343272403973745,"Type":"A"},{"Weight":[0.77099976817658156,-0.74208772123888489,0.80249177422490514,-0.43020339702731158,0.33204847124034931,0.70341735412525819,0.21371381227565642,-0.27812826786103112],"Bias":0.55228103257356265,"Output":0.0,"Threshold":-0.25489527650871097,"Type":"GT"},{"Weight":[0.46370783236981733,0.18536365506489,0.95954960675889145,0.94456323047381041,-0.59530334109221739,0.80349152246652711,-0.1387087437970139,0.25965687551519689],"Bias":0.91815120955843066,"Output":0.0,"Threshold":-0.9446085411797317,"Type":"O"},{"Weight":[-0.515760873218887,0.23522030014322154,-0.63772350532828059,0.99020741600087259,0.090642257170119436,-0.47140614570649625,0.32097458900929177,-0.4311229965794473],"Bias":0.36367312835700488,"Output":0.0,"Threshold":0.87381392106125777,"Type":"A"},{"Weight":[-0.68781365206828982,0.73684865736255822,-0.019709198279170878,-0.47120233041755966,0.3754118617509547,0.18268166164992455,-0.84776537532348439,0.0910962620242947],"Bias":0.35435842925419958,"Output":0.0,"Threshold":-0.65302812757577189,"Type":"GT"},{"Weight":[-0.99125998932461257,0.87046260986033019,-0.94276880004572161,-0.27895114723544157,-0.5732771524103718,-0.36229892231631045,0.43584387536898433,-0.53238018114696262],"Bias":0.76307942148441421,"Output":0.0,"Threshold":0.31734677465509009,"Type":"GT"},{"Weight":[0.72951371256705078,0.35151668188698437,0.61030332819107147,-0.57416946002010694,-0.79384193047594365,0.82706260952496091,0.64326362621191124,-0.82976437957480753],"Bias":0.59863592013653177,"Output":0.0,"Threshold":0.93453030611133681,"Type":"O"},{"Weight":[-0.82454047064508329,-0.63603651087546553,-0.18985729487140537,-0.1718286160248465,-0.50988412066823063,-0.20070033203843066,0.14040179836582475,-0.029319851207230171],"Bias":0.866118004948887,"Output":0.0,"Threshold":-0.33197656987792651,"Type":"O"},{"Weight":[-0.80738722710282873,-0.4599286208208318,0.25117322721107549,0.40107366228526165,-0.756341152710999,0.44802642308549323,0.3422420492126802,0.70969141680267245],"Bias":0.14485724183956963,"Output":0.0,"Threshold":-0.054340656872066045,"Type":"A"},{"Weight":[-0.69190503828781891,0.76882616652586788,0.26664291101817178,0.57024320241540816,0.72061125082923627,-0.60406096028353129,0.74251528305118686,0.83076528405340633],"Bias":0.75750315829995241,"Output":0.0,"Threshold":-0.53010260152169619,"Type":"O"},{"Weight":[-0.73727071086749,-0.50531869032667887,-0.59640749571677643,-0.69476960538642929,0.98662699059891845,0.06550899477000767,0.98334782476692828,-0.38713010744523729],"Bias":0.23141469351547522,"Output":0.0,"Threshold":0.71052060914715776,"Type":"O"},{"Weight":[-0.081410719119669267,-0.96530152250328172,-0.45814025563101296,-0.086033832321890547,0.043708534000305707,0.75457877514631433,0.00833785906822321,-0.73468824417082979],"Bias":0.80719092665575021,"Output":0.0,"Threshold":-0.3211432617721815,"Type":"O"},{"Weight":[-0.095281349539422133,-0.96031822821140211,0.5538891481952225,-0.283311525491677,-0.5089394722641164,-0.59288491708826507,0.69081160318609869,-0.45679265421665866],"Bias":0.52061432018904685,"Output":0.0,"Threshold":0.36837568058091014,"Type":"GT"},{"Weight":[-0.28611738434346273,-0.222219446311807,-0.76265914261464918,-0.80343948900859774,-0.98536782385100041,0.68768668346464945,0.5575200931902603,0.36584092274580193],"Bias":0.49381021526353908,"Output":0.0,"Threshold":0.761928189435009,"Type":"O"},{"Weight":[-0.898055547335211,0.93723299723921016,0.29250688911066713,-0.92394303713177472,-0.35363271755801173,-0.6853748754064436,0.33160061264950813,0.60837431000935582],"Bias":0.082095775791488482,"Output":0.0,"Threshold":-0.85908304381141576,"Type":"O"}],"output":null,"numNeurons":15},{"neurons":[{"Weight":[-0.11038907249941914,0.3277985604143695,-0.68261348534497124,-0.74601229920331957,0.6796971572002849,0.75868613075403779,0.32368600569837075,-0.22254276705092879,0.514398586244508,0.055062916621129457,0.37998215545899333,-0.53382184707271951,0.24887143738980938,-0.81956000012325125,0.51915670908948253],"Bias":0.63472717145212332,"Output":0.0,"Threshold":-0.32121399898138547,"Type":"GT"},{"Weight":[-0.78766647483579189,-0.60943443682484066,-0.60989340376569579,-0.1779307379284551,0.673935560357727,0.92668874465240569,-0.0079146069511373558,0.38583154295842703,-0.56769718954698056,0.38565127383249403,-0.60886196773911916,0.50326954410563662,-0.39932955307854784,-0.6699024558392831,0.69988289368333434],"Bias":0.15460488067688646,"Output":0.0,"Threshold":-0.43747213177265232,"Type":"GT"}],"output":null,"numNeurons":2},{"neurons":[{"Weight":[0.19605954093675107,-0.45477871664556613],"Bias":0.836929146590144,"Output":0.0,"Threshold":-0.34888057939190442,"Type":"GT"},{"Weight":[0.87160792242344842,0.59537801034533322],"Bias":0.59858478261091974,"Output":0.0,"Threshold":0.95059345101499626,"Type":"A"},{"Weight":[0.58437242293002667,-0.90359559138472922],"Bias":0.49656713777061884,"Output":0.0,"Threshold":0.523213682008541,"Type":"A"},{"Weight":[0.50595073751451014,0.76834343269855876],"Bias":0.68923812438232734,"Output":0.0,"Threshold":-0.50760904397238471,"Type":"O"},{"Weight":[-0.36124112147895671,0.18977200202167593],"Bias":0.11291847290141437,"Output":0.0,"Threshold":0.85151985699847332,"Type":"O"},{"Weight":[-0.43329754305691343,-0.63166162168218831],"Bias":0.80395154273321456,"Output":0.0,"Threshold":-0.53318645410853738,"Type":"A"},{"Weight":[0.71604625960627866,0.57023245774685982],"Bias":0.40180715983817689,"Output":0.0,"Threshold":-0.57852293298510971,"Type":"O"},{"Weight":[0.92452778896527732,-0.69288415400911318],"Bias":0.58053714669334566,"Output":0.0,"Threshold":-0.67102958758875242,"Type":"GT"},{"Weight":[-0.079860678911144234,-0.20951509066369156],"Bias":0.76082144899332027,"Output":0.0,"Threshold":-0.15044626088368066,"Type":"O"},{"Weight":[0.38684059790654135,-0.63485300943015754],"Bias":0.8915520603263527,"Output":0.0,"Threshold":0.5144466806736061,"Type":"GT"}],"output":null,"numNeurons":10},{"neurons":[{"Weight":[0.30934957848365863,0.83184322008483258,0.98730720625599255,-0.782718188493847,0.51692614309346585,-0.31843007277624219,0.26002429484390854,0.76226795546816106,-0.2676627432311246,-0.55666420820945139],"Bias":0.96438970741088959,"Output":0.0,"Threshold":0.69817240522157975,"Type":"O"},{"Weight":[-0.83737989181530659,0.72565446548427193,0.88192928716630181,0.41008110829167121,0.72011987060314042,0.27118756820968704,-0.62427283060935923,-0.092553472655151722,0.42679690216984456,-0.24389530589985442],"Bias":0.69595398600024827,"Output":0.0,"Threshold":-0.5742168629421931,"Type":"GT"},{"Weight":[0.87258505396199648,-0.6238893170952281,0.299674565577728,0.51252393355244952,0.22288857876457674,0.099996694410218245,0.22062905049912121,0.37697626667887729,-0.49878147593642652,-0.43851583238621977],"Bias":0.37571818212779157,"Output":0.0,"Threshold":-0.87972694536658325,"Type":"A"},{"Weight":[-0.090541080613872546,-0.89687446127500126,-0.45427709932172539,-0.14705685952075612,0.98825250565458667,-0.071084869592955735,-0.15740448150662914,-0.63847506076026472,0.29926025788265292,0.659652431337001],"Bias":0.32662559781532063,"Output":0.0,"Threshold":-0.22031507511637877,"Type":"GT"},{"Weight":[0.47104614529341743,-0.74280220071915637,0.13570103055597332,0.65352876188863473,0.59583658380240045,-0.24081104679070928,-0.75221845868612569,0.15690007394035349,0.84177551504307213,0.8839858918841863],"Bias":0.767963395345939,"Output":0.0,"Threshold":0.15623984400007868,"Type":"O"},{"Weight":[-0.7418053856779846,0.14897984552615315,-0.22007451402958228,0.514414853190265,-0.17528562162783259,0.64532115014517732,0.58121412134785866,-0.12746199831714014,-0.0428787595792109,-0.62489983887639822],"Bias":0.83791793409638016,"Output":0.0,"Threshold":-0.59446088485161819,"Type":"O"},{"Weight":[0.50311032100725472,-0.79366494100245877,0.33632918323219252,-0.81978524188501078,-0.93003509842326637,0.57386815388401413,0.52959635412767359,-0.7727835945658309,-0.26843401289937741,-0.86872855428081408],"Bias":0.75083548796867738,"Output":0.0,"Threshold":-0.21088593602687397,"Type":"GT"},{"Weight":[0.70937166721996459,0.48134276945206467,-0.53134000512368051,-0.582134560952957,-0.048680389788318609,-0.21259746617292868,-0.636250883637113,0.53389682226530133,-0.48934058215904075,-0.015979039490213169],"Bias":0.25751516607474312,"Output":0.0,"Threshold":0.3592498495053732,"Type":"A"},{"Weight":[-0.3054431664317116,-0.1061216025176093,0.72573233057080411,-0.15226813180012075,0.4431220392897362,0.78042026505825124,-0.074810469557908585,0.78346629616965835,-0.74061514471686218,-0.71953175902344835],"Bias":0.72522350853552275,"Output":0.0,"Threshold":0.31348925517568793,"Type":"A"},{"Weight":[-0.83668821902791424,-0.95375205248303341,-0.1949068965366608,-0.75287702900957176,-0.79422963401034,-0.38429346791668489,-0.097550645050383467,-0.42161217025556236,0.093608093957234212,0.01617230010040677],"Bias":0.244202655853798,"Output":0.0,"Threshold":0.7718772249165351,"Type":"A"},{"Weight":[-0.54704855268218022,0.51784927096117717,-0.63971809048192485,0.37983427633523675,0.92930920418785379,-0.63064467377525035,0.92196380483078011,-0.097317488443719916,-0.03039571690857211,0.96778996333842626],"Bias":0.74575513961992934,"Output":0.0,"Threshold":0.71110537075954738,"Type":"O"},{"Weight":[0.0049114828020853374,0.19011203441308441,0.29731695507528116,-0.99960843613353023,0.705274258603004,0.8732720864346587,0.54134444871048648,-0.71040372723266654,-0.99645070824606841,-0.14305172122225712],"Bias":0.484156994374542,"Output":0.0,"Threshold":-0.945476011347713,"Type":"O"},{"Weight":[0.823055592748828,0.822582420810397,0.80408726157810873,0.61353683500249723,0.66080398283004949,-0.82608003021501009,0.30624778908968336,-0.6946369561807425,0.862702074396751,-0.77086190030484547],"Bias":0.85867540624862326,"Output":0.0,"Threshold":0.1920267805419987,"Type":"O"},{"Weight":[0.7198947201109932,-0.702074776730535,-0.56805364953729032,-0.14165648219252772,0.29556649890521841,0.98179483459414674,-0.85410931699634962,0.26072373253327036,-0.98092324285810961,0.24448672507167177],"Bias":0.095805485777466323,"Output":0.0,"Threshold":0.617252863299685,"Type":"A"},{"Weight":[0.69770260047991883,0.37253806012335144,0.17461411104286748,0.50298519502532912,0.7896601095747483,-0.094009488399144955,-0.14372165135281237,-0.26788953238534252,0.75037931220157972,-0.79758436502776309],"Bias":0.59318901439811522,"Output":0.0,"Threshold":-0.029563981587795531,"Type":"O"},{"Weight":[0.30510994713060091,0.34658048411206366,-0.94754005547032694,-0.012704715138629412,-0.67829813141296535,0.65571298247934928,-0.021034011161436331,-0.88482136041150494,-0.325466238113803,-0.8754128650181987],"Bias":0.091694739224247049,"Output":0.0,"Threshold":0.12655662378601573,"Type":"GT"}],"output":null,"numNeurons":16}],"OLayer":{"neurons":[{"Weight":[0.61160273505915086,0.16209203804009223,0.096543274864807391,0.27128919273209257,0.23453861346214014,0.048451634612144731,0.13328856142856579,0.78266191938084639,0.90685243713988573,0.029979216414494074,0.30133770885939604,0.86823412304196235,0.69434677236450215,0.94591307916953837,0.74136868479725382,0.444409128485438],"Bias":0.60832681674897993,"Output":0.0,"Threshold":0.19562789061834471,"Type":"OT"},{"Weight":[0.55999948855489468,0.76107301272501848,0.570487751425471,0.01691788296071714,0.43280904993080022,0.76971378352945385,0.22942515240489744,0.28451676819683835,0.63452856365336507,0.2501153122867063,0.96497437495969907,0.066238844798057736,0.81772590373536846,0.056393606148843471,0.084978646172666289,0.051174154994624736],"Bias":0.64300618723174841,"Output":0.0,"Threshold":0.95113802326430474,"Type":"OT"}],"output":null,"numNeurons":2},"NumLayers":10,"Breedibility":0.71320351479258548,"Mutibility":3.0203901850713373,"Repetition":0}
