{"Input":[0.0,0.0],"Output":[0.0,0.0],"DLayers":[{"neurons":[{"Weight":[0.30002925372683875,0.43094713586892336],"Bias":0.38594613568202879,"Output":0.0,"Threshold":-0.61549193813255609,"Type":"A"},{"Weight":[-0.57975029972370262,0.78897027335547387],"Bias":0.43137209230632151,"Output":0.0,"Threshold":0.541809070176356,"Type":"A"},{"Weight":[0.684996208494993,0.77556789749095589],"Bias":0.57817408841949613,"Output":0.0,"Threshold":-0.941521289731153,"Type":"A"},{"Weight":[-0.35466164832686153,0.32354717018247914],"Bias":0.33251247430802905,"Output":0.0,"Threshold":0.64970406407942249,"Type":"GT"},{"Weight":[-0.051205758029225168,0.44211730102175723],"Bias":0.82475062404980448,"Output":0.0,"Threshold":-0.80529682329171193,"Type":"GT"},{"Weight":[0.35813907224598296,0.175574265502195],"Bias":0.40914233979263454,"Output":0.0,"Threshold":-0.043367460855919616,"Type":"O"},{"Weight":[-0.36575508134707579,0.81486560442245826],"Bias":0.146830400520391,"Output":0.0,"Threshold":-0.63436025410627961,"Type":"A"},{"Weight":[0.6366801167077758,-0.40809242399786244],"Bias":0.29194476795007696,"Output":0.0,"Threshold":0.4219808082198635,"Type":"O"},{"Weight":[-0.44383677581503839,-0.73440656891763512],"Bias":0.099691769154598833,"Output":0.0,"Threshold":-0.22379843807956132,"Type":"GT"},{"Weight":[-0.42706155424335113,-0.63236489129828521],"Bias":0.765947024228958,"Output":0.0,"Threshold":-0.65560386360418232,"Type":"GT"}],"output":null,"numNeurons":10},{"neurons":[{"Weight":[-0.20554749630649924,0.84057327259358638,0.11502701142571262,0.41684550392294561,0.083609337026071429,-0.091433470179994342,-0.95906254926652768,0.93615826402611946,-0.24552802985791492,-0.2957835413030272],"Bias":0.03663018952898224,"Output":0.0,"Threshold":-0.018307904721381097,"Type":"GT"},{"Weight":[-0.93516621921917709,-0.7993062011894333,0.42624907448247495,-0.98107625310359348,-0.096798236526920572,-0.08639727164357773,-0.91459839181723,0.32880976438932574,0.31756106499468956,-0.016082432128527405],"Bias":0.092976245141111427,"Output":0.0,"Threshold":-0.48249498590943168,"Type":"A"},{"Weight":[-0.69620662727216565,-0.520418994371043,-0.99270410090345151,-0.75472989480697084,0.12640070734843645,0.89967224043778715,-0.7294748731560422,-0.28328805197183415,0.97275779069064083,-0.30040616276692889],"Bias":0.04970165856634344,"Output":0.0,"Threshold":0.782534806422207,"Type":"A"},{"Weight":[0.86286696505866334,-0.99139982694359485,0.0022254725928536954,-0.21455324125222547,0.75624945329327575,-0.30578873553582875,0.072141945395684776,-0.45212541075987994,0.739605119796286,-0.027222750255476102],"Bias":0.19553553554952868,"Output":0.0,"Threshold":0.43803121123371236,"Type":"A"},{"Weight":[0.27943558445174044,-0.2972066035946862,-0.18208882314250285,0.16172361055469309,-0.3385689292748314,-0.6010601690975298,-0.010933468589062556,-0.18501411899226444,-0.318490544948024,-0.13452909986233763],"Bias":0.10906140557912245,"Output":0.0,"Threshold":-0.080686810463986736,"Type":"GT"}],"output":null,"numNeurons":5},{"neurons":[{"Weight":[0.20594122177266572,0.15054397850788384,0.50352429808281562,0.42483575382495103,-0.088688903063856489],"Bias":0.4771914377236699,"Output":0.0,"Threshold":0.57478564538750132,"Type":"A"},{"Weight":[-0.75297798297972329,0.39211691468587,0.70204320489524086,-0.1706271270153239,0.45878177809472276],"Bias":0.77281429188922712,"Output":0.0,"Threshold":0.06306406066895652,"Type":"A"},{"Weight":[0.713508909900444,-0.19874877398775367,-0.84159793185144571,-0.97614760136983714,-0.011179632046809249],"Bias":0.83504463119201577,"Output":0.0,"Threshold":-0.41531402217937358,"Type":"A"},{"Weight":[-0.92224456552520606,0.7078226812685946,-0.55030959032024707,0.38155111688261439,-0.71694449089325241],"Bias":0.716863246968418,"Output":0.0,"Threshold":-0.53951972189337,"Type":"O"},{"Weight":[-0.26634063677226222,-0.98249776427750368,-0.20625018989958344,-0.1425940562703619,-0.99572219466591361],"Bias":0.73318771353605561,"Output":0.0,"Threshold":-0.5162872157601115,"Type":"A"},{"Weight":[-0.41497768946689445,-0.028987681041000263,0.73986453457729173,-0.1612869068799945,-0.006320879797600619],"Bias":0.51275447034870947,"Output":0.0,"Threshold":0.57211593146068784,"Type":"O"},{"Weight":[0.076705027407363541,-0.389264336037107,0.22804231812620643,0.011808418674305276,-0.17586200040572417],"Bias":0.20906383227979011,"Output":0.0,"Threshold":-0.054890772819002516,"Type":"GT"}],"output":null,"numNeurons":7},{"neurons":[{"Weight":[0.33675882655044964,0.034022374560135592,-0.9067221893494587,-0.48318734089061027,0.43013406425255074,0.27861961129988527,-0.8939112317254353],"Bias":0.88930628536702427,"Output":0.0,"Threshold":0.92770576706514962,"Type":"A"},{"Weight":[-0.1445217659438596,0.013627918909130581,-0.43110950357798,-0.44069695679503351,-0.8401984748617739,-0.63440328726284356,-0.68497376175828917],"Bias":0.534081726118029,"Output":0.0,"Threshold":0.28179922666484453,"Type":"A"},{"Weight":[0.4787320957885739,0.015228805139301719,0.5935176865167533,0.95913027178455623,0.94942270682632113,-0.11789718694886993,-0.28655571503869992],"Bias":0.57492957384089449,"Output":0.0,"Threshold":-0.85550812485418659,"Type":"A"},{"Weight":[-0.077002259472851761,0.515325595864712,-0.44128683136836011,-0.46026045524527343,-0.5532635299271268,0.11468142555778912,0.4270411163694417],"Bias":0.76051748439693712,"Output":0.0,"Threshold":-0.74254990589923686,"Type":"O"},{"Weight":[-0.1841538428255142,-0.62481667083912373,0.022669246896481723,0.33882219080758386,0.34512332190998052,-0.77133943455821807,0.50273577659518265],"Bias":0.32415105277865708,"Output":0.0,"Threshold":-0.12521090271194041,"Type":"GT"},{"Weight":[0.63143078360307536,0.24884531192893411,-0.23735290497418163,0.24116392863968569,-0.38774159708420819,0.46557389314545966,0.38418219256409547],"Bias":0.017904955436431315,"Output":0.0,"Threshold":0.63092745869929323,"Type":"A"},{"Weight":[0.78405415256696476,0.33229006097292996,0.40695528611864673,0.098578358580627648,-0.65395275673547426,-0.849732937221291,-0.49203801038304251],"Bias":0.407315037868598,"Output":0.0,"Threshold":-0.44591473901919776,"Type":"GT"},{"Weight":[0.69515680321266726,-0.20955550075022295,-0.97803653170263238,-0.54094488385177442,0.082508054134672534,-0.3113166053366459,0.14961970511340522],"Bias":0.15811135487543016,"Output":0.0,"Threshold":-0.63277996314353313,"Type":"GT"},{"Weight":[-0.98231268440480934,-0.32599933274369658,-0.47294876606806591,0.5142727384875867,-0.75692862074679168,-0.641195633281579,0.0984701440196811],"Bias":0.4328866868433015,"Output":0.0,"Threshold":0.30188590302219886,"Type":"O"},{"Weight":[-0.48181558888490106,0.8797652674279014,-0.045694231076954972,-0.81069682995355541,-0.45344505200788615,0.23611916426388507,0.12710443377825639],"Bias":0.96067346351252569,"Output":0.0,"Threshold":-0.060319869807138979,"Type":"A"}],"output":null,"numNeurons":10},{"neurons":[{"Weight":[-0.33951637537196111,0.73696425312057334,0.12261147244023693,0.4384190754212528,0.91876437464671412,0.37304915179174819,0.8477338020912063,-0.0993837910235784,-0.013693773194073593,0.066030312360278481],"Bias":0.12463259376801206,"Output":0.0,"Threshold":-0.54494359788715074,"Type":"O"},{"Weight":[0.087653607170867551,0.77900400142139015,-0.78193758604206964,-0.038150274212542121,0.36655923322148587,0.59625428011466486,-0.74485133576432772,-0.75715379498766444,0.60727515565570223,0.89193245530684129],"Bias":0.080395900216137947,"Output":0.0,"Threshold":-0.63217219274126557,"Type":"A"}],"output":null,"numNeurons":2},{"neurons":[{"Weight":[0.70829367298087742,-0.59308996917358137],"Bias":0.0672300160244247,"Output":0.0,"Threshold":0.26538712590252383,"Type":"A"},{"Weight":[0.71781805749880989,0.50330557744172666],"Bias":0.4629977007689875,"Output":0.0,"Threshold":0.7824553278193136,"Type":"GT"}],"output":null,"numNeurons":2},{"neurons":[{"Weight":[0.4278877053539677,-0.3397833822945987],"Bias":0.4061130384943043,"Output":0.0,"Threshold":0.6285492333716477,"Type":"GT"},{"Weight":[-0.39182228194168878,0.65301114258030946],"Bias":0.93875029540562549,"Output":0.0,"Threshold":-0.45548141442960194,"Type":"GT"},{"Weight":[-0.9477007318975873,-0.25609052565698071],"Bias":0.077093656676399364,"Output":0.0,"Threshold":0.29932921719706113,"Type":"GT"},{"Weight":[-0.99308020714348189,-0.53047970986481741],"Bias":0.3771282371027061,"Output":0.0,"Threshold":0.14427745488671467,"Type":"GT"},{"Weight":[-0.81565450076742774,-0.2042844873872979],"Bias":0.70210357462153938,"Output":0.0,"Threshold":-0.84738646347419655,"Type":"A"},{"Weight":[0.88301386352768818,0.67540773408273591],"Bias":0.14156163490450086,"Output":0.0,"Threshold":0.23063307964738136,"Type":"A"},{"Weight":[-0.272385044615895,0.5152969688714002],"Bias":0.45960363301430068,"Output":0.0,"Threshold":0.2576574167505174,"Type":"O"},{"Weight":[0.28938856129040408,-0.18725397213699946],"Bias":0.098069523506830222,"Output":0.0,"Threshold":-0.45622788809995535,"Type":"A"},{"Weight":[-0.633140271358723,0.879681824184806],"Bias":0.25119692704230406,"Output":0.0,"Threshold":-0.77840278939269614,"Type":"A"},{"Weight":[0.77146327857461916,-0.5620464415112727],"Bias":0.62392148311432516,"Output":0.0,"Threshold":0.86875070020032619,"Type":"A"},{"Weight":[-0.24796551617233339,-0.98146317293004282],"Bias":0.62898048601531442,"Output":0.0,"Threshold":0.14570708253686646,"Type":"GT"}],"output":null,"numNeurons":11},{"neurons":[{"Weight":[-0.075725999230391347,0.16400169495679517,-0.92310087425778664,-0.42678597542773278,-0.42786290702776186,-0.66478878895975124,-0.022329614042457945,-0.49398225522319889,0.4149827004480095,0.52194356430412436,0.33294117326519507],"Bias":0.42063786109007795,"Output":0.0,"Threshold":-0.87798201193939052,"Type":"O"},{"Weight":[-0.9667732291700194,0.19752855654690812,0.48743318882185649,-0.32168474016789567,0.1754709278119127,-0.8710117749269175,0.84836240431683252,-0.13526046608353987,0.19605857608656332,-0.99533107876560234,0.22563590212987544],"Bias":0.48748091770684387,"Output":0.0,"Threshold":-0.12622566247648823,"Type":"A"},{"Weight":[0.19469109931713488,0.027780877904864436,-0.74249132105265336,0.23532564669629821,0.25358770426995481,0.95951740581519784,0.6571548970682336,0.02926651529467968,0.97251556067378986,0.23693277744433505,0.088985731866669721],"Bias":0.56035050915570483,"Output":0.0,"Threshold":-0.0016382127076565347,"Type":"A"},{"Weight":[-0.88265093317378818,0.90547834192657761,-0.9872837974630686,-0.40456655547235465,-0.56544708300635549,0.36823521897580253,0.87278228619731135,-0.20485613038989536,-0.46371143100024731,-0.37178555474234071,-0.067007717242002357],"Bias":0.3822293567388455,"Output":0.0,"Threshold":-0.59932238496808443,"Type":"GT"},{"Weight":[-0.8892928850321532,-0.11937321448669452,-0.30203559962196069,-0.26251056523179195,-0.40336874984361637,-0.88650828827475581,0.96473746279475159,-0.40473201051574759,0.33920352362990541,-0.25807829818598849,0.0059263617759227573],"Bias":0.76994479297192064,"Output":0.0,"Threshold":-0.032609957751170711,"Type":"O"},{"Weight":[0.62985265796531587,0.62946752953783958,-0.63108161586852818,-0.97266917814159259,-0.18201000903826672,-0.15970102798179772,-0.15726303176826939,0.34187136839231075,0.18162334206589653,-0.16986748584074318,-0.218501743030968],"Bias":0.98202799958271347,"Output":0.0,"Threshold":0.688927062642261,"Type":"O"},{"Weight":[0.341244086782096,-0.602845907957687,-0.46925206923356844,0.049113672249537742,-0.39629000723189212,0.41654854473497183,0.59093305822039632,0.29745510280945109,-0.70620450270651114,-0.21837962661794369,0.41270485213618019],"Bias":0.026262258657376403,"Output":0.0,"Threshold":-0.17916014985142284,"Type":"GT"},{"Weight":[-0.86274247191042752,-0.15860956029901727,0.93979041927484352,0.040493512545010782,-0.96491187017639724,0.77566561977177184,-0.69611762403329724,-0.12628674047360511,-0.94580254654670248,0.41021766718952807,0.39190839808057454],"Bias":0.89613204723975248,"Output":0.0,"Threshold":0.63227580796567528,"Type":"GT"},{"Weight":[0.47054743602431726,-0.39955662069821574,-0.6163983594702549,0.76703485602840538,0.22402078482509627,-0.76631473599295818,-0.40090172709939148,0.57090477625415881,0.61544046113986539,0.81056031529352079,-0.54324469321558466],"Bias":0.037516370433157482,"Output":0.0,"Threshold":0.18036611665988625,"Type":"GT"}],"output":null,"numNeurons":9},{"neurons":[{"Weight":[-0.90009229020219872,-0.273227317385947,-0.526333752333342,-0.19712473694101196,-0.45281967495233738,0.53965352780169507,-0.35197986166550771,0.013968891470678566,-0.22451891620853864],"Bias":0.69579415428256342,"Output":0.0,"Threshold":0.60027749491868421,"Type":"GT"},{"Weight":[0.61979548289431052,0.92868550444426268,-0.015819847125476155,0.32510558065264744,-0.21919050403832946,0.59131532283095423,-0.86694256582620677,0.95079346743914928,0.2399809836596162],"Bias":0.20377699015837955,"Output":0.0,"Threshold":-0.0060150469681318139,"Type":"GT"}],"output":null,"numNeurons":2},{"neurons":[{"Weight":[-0.25383634225178342,0.58392373965304523],"Bias":0.29652486895049218,"Output":0.0,"Threshold":0.81299745422461878,"Type":"A"},{"Weight":[0.42480554172061641,0.90077201318963063],"Bias":0.29915262400133191,"Output":0.0,"Threshold":0.32252829630045604,"Type":"A"},{"Weight":[-0.99770374782276516,-0.90266220779282147],"Bias":0.084578383287684245,"Output":0.0,"Threshold":0.12229487771275215,"Type":"O"},{"Weight":[0.72701509749843507,-0.573964892688191],"Bias":0.81470083669512572,"Output":0.0,"Threshold":0.39650050476030468,"Type":"A"},{"Weight":[0.26694609004396297,-0.67484916219247937],"Bias":0.43189610747243096,"Output":0.0,"Threshold":-0.67014518737334072,"Type":"GT"}],"output":null,"numNeurons":5},{"neurons":[{"Weight":[-0.18068610093588294,0.82001038213260957,0.51155433827617869,0.32802572721989159,-0.52799809003621245],"Bias":0.86112759674951789,"Output":0.0,"Threshold":-0.215422893509,"Type":"O"},{"Weight":[0.13154146453903126,0.27324335196672161,-0.39840134996846382,-0.48829910135283094,0.028305036960311718],"Bias":0.019536837478883955,"Output":0.0,"Threshold":-0.50845336565210175,"Type":"GT"},{"Weight":[0.34148322061704622,-0.32755856044942444,0.16550219485792433,0.9038922823518013,-0.87722620408852869],"Bias":0.21546075922225638,"Output":0.0,"Threshold":-0.24648267554421102,"Type":"O"},{"Weight":[-0.28670274665891321,0.067066945632485178,0.11416971549120253,0.54330769765344811,0.15865275550570934],"Bias":0.63017936173369149,"Output":0.0,"Threshold":-0.49812745139846926,"Type":"GT"},{"Weight":[0.13820474415002612,-0.94663371515769223,0.25077597948293012,0.19387950338138243,0.87851468188619],"Bias":0.049920698651075686,"Output":0.0,"Threshold":-0.45755174311695235,"Type":"GT"},{"Weight":[0.88411766331834607,-0.58679994502421462,0.99309339606812852,0.17298546022408895,-0.8394714052972716],"Bias":0.39428365016089922,"Output":0.0,"Threshold":-0.49378565395892859,"Type":"A"},{"Weight":[-0.76254636457308489,0.48612737678276718,-0.67867534592686007,0.81758035245238825,-0.39787611989205524],"Bias":0.99570669606128093,"Output":0.0,"Threshold":-0.56559257235638449,"Type":"GT"},{"Weight":[-0.31191258053850035,0.615891583550671,-0.81976294229727376,-0.71767350831892041,-0.281084538102655],"Bias":0.50503405533034074,"Output":0.0,"Threshold":0.21893047598140802,"Type":"GT"},{"Weight":[0.074000625905581111,0.60881732246317777,-0.57597515665738619,-0.84425260538433333,-0.25869348145029203],"Bias":0.77887639719009227,"Output":0.0,"Threshold":-0.90442187939976426,"Type":"A"},{"Weight":[-0.530857397024919,-0.1562119783629719,-0.30081802108363154,0.525965193997121,0.73783297172646645],"Bias":0.67402271166165484,"Output":0.0,"Threshold":-0.7368201067376976,"Type":"GT"},{"Weight":[-0.17858953921989981,-0.16234068812911431,0.63488195447012874,0.8897535469800949,-0.60354246413500168],"Bias":0.9896174156989983,"Output":0.0,"Threshold":0.042613334042305745,"Type":"O"},{"Weight":[-0.063552605949133922,0.87774157518415785,0.0093753142326023966,0.69906184156381612,-0.32204870894646676],"Bias":0.91811245489777649,"Output":0.0,"Threshold":0.05493075030619779,"Type":"GT"}],"output":null,"numNeurons":12}],"OLayer":{"neurons":[{"Weight":[0.57840582569055532,0.1409981852122574,0.37639382219705442,0.68874516183917656,0.90652842582507454,0.62427618849290356,0.80992633421436244,0.34081288210154181,0.25773291441506374,0.06370525856674894,0.89296303451664882,0.061279683402404042],"Bias":0.9252628488118122,"Output":0.0,"Threshold":-0.72744479250509519,"Type":"OT"},{"Weight":[0.027285133501181908,0.73999465710483248,0.039650284237996811,0.60069943480226184,0.86492025287119678,0.53361911258363126,0.6154186602753674,0.3242036408391798,0.72060613553999275,0.52559244750328016,0.79580061733527141,0.34546116615899891],"Bias":0.51064982009616211,"Output":0.0,"Threshold":-0.65990776785645067,"Type":"OT"}],"output":null,"numNeurons":2},"NumLayers":11,"Breedibility":0.14146855759502788,"Mutibility":1.0310259605902368,"Repetition":0}
