{"Input":[0.0,0.0,0.0,0.0,0.0,0.0,0.0,0.0,0.0,0.0,0.0,0.0,0.0,0.0,0.0,0.0,0.0,0.0,0.0,0.0,0.0,0.0,0.0,0.0,0.0,0.0,0.0,0.0,0.0,0.0,0.0,0.0,0.0,0.0,0.0,0.0,0.0,0.0,0.0,0.0,0.0,0.0,0.0,0.0,0.0,0.0,0.0,0.0,0.0,0.0,0.0,0.0,0.0,0.0,0.0,0.0,0.0,0.0,0.0,0.0,0.0,0.0,0.0,0.0,0.0,0.0,0.0,0.0,0.0,0.0,0.0,0.0,0.0,0.0,0.0,0.0,0.0,0.0,0.0,0.0,0.0,0.0,0.0,0.0,0.0,0.0,0.0,0.0,0.0,0.0,0.0,0.0,0.0,0.0,0.0,0.0,0.0,0.0,0.0,0.0,0.0,0.0,0.0,0.0,0.0,0.0,0.0,0.0,0.0,0.0,0.0,0.0,0.0,0.0,0.0,0.0,0.0,0.0,0.0,0.0,0.0,0.0,0.0,0.0,0.0,0.0,0.0,0.0,0.0,0.0,0.0,0.0,0.0,0.0,0.0,0.0,0.0,0.0,0.0,0.0,0.0,0.0,0.0,0.0,0.0,0.0,0.0,0.0,0.0,0.0,0.0,0.0,0.0,0.0,0.0,0.0,0.0,0.0,0.0,0.0,0.0,0.0,0.0,0.0,0.0,0.0,0.0,0.0,0.0,0.0,0.0,0.0,0.0,0.0,0.0,0.0,0.0,0.0,0.0,0.0,0.0,0.0,0.0,0.0,0.0,0.0,0.0,0.0,0.0,0.0,0.0,0.0,0.0,0.0,0.0,0.0,0.0,0.0,0.0,0.0,0.0,0.0,0.0,0.0,0.0,0.0,0.0,0.0,0.0,0.0,0.0,0.0,0.0,0.0,0.0,0.0,0.0,0.0,0.0,0.0,0.0,0.0,0.0,0.0,0.0,0.0,0.0,0.0,0.0,0.0,0.0,0.0,0.0,0.0,0.0,0.0,0.0,0.0,0.0,0.0,0.0,0.0,0.0,0.0,0.0,0.0,0.0,0.0,0.0,0.0,0.0,0.0,0.0,0.0,0.0,0.0,0.0,0.0,0.0,0.0,0.0,0.0,0.0,0.0,0.0,0.0,0.0,0.0,0.0,0.0,0.0,0.0,0.0,0.0,0.0,0.0,0.0,0.0,0.0,0.0,0.0,0.0,0.0,0.0,0.0,0.0,0.0,0.0,0.0,0.0,0.0,0.0,0.0,0.0,0.0,0.0,0.0,0.0,0.0,0.0,0.0,0.0,0.0,0.0,0.0,0.0,0.0,0.0,0.0,0.0,0.0,0.0,0.0,0.0,0.0,0.0,0.0,0.0,0.0,0.0,0.0,0.0,0.0,0.0,0.0,0.0,0.0,0.0,0.0,0.0,0.0,0.0,0.0,0.0,0.0,0.0,0.0,0.0,0.0,0.0,0.0,0.0,0.0,0.0,0.0,0.0,0.0,0.0,0.0,0.0,0.0,0.0,0.0,0.0,0.0,0.0,0.0,0.0,0.0,0.0,0.0,0.0,0.0,0.0,0.0,0.0,0.0,0.0,0.0,0.0,0.0,0.0,0.0,0.0,0.0,0.0,0.0,0.0,0.0,0.0,0.0,0.0,0.0,0.0,0.0,0.0,0.0,0.0,0.0,0.0,0.0,0.0,0.0,0.0,0.0,0.0,0.0,0.0,0.0,0.0,0.0,0.0,0.0,0.0,0.0,0.0,0.0,0.0,0.0,0.0,0.0,0.0,0.0,0.0,0.0,0.0,0.0,0.0,0.0,0.0,0.0,0.0,0.0,0.0,0.0,0.0,0.0,0.0,0.0,0.0,0.0,0.0,0.0,0.0,0.0,0.0,0.0,0.0,0.0,0.0,0.0,0.0,0.0,0.0,0.0,0.0,0.0,0.0,0.0,0.0,0.0,0.0,0.0,0.0,0.0,0.0,0.0,0.0,0.0,0.0,0.0,0.0,0.0,0.0,0.0,0.0,0.0,0.0,0.0,0.0,0.0,0.0,0.0,0.0,0.0,0.0,0.0,0.0,0.0,0.0,0.0,0.0,0.0,0.0,0.0,0.0,0.0,0.0,0.0,0.0,0.0,0.0,0.0,0.0,0.0,0.0,0.0,0.0,0.0,0.0,0.0,0.0,0.0,0.0,0.0,0.0,0.0,0.0,0.0,0.0,0.0,0.0,0.0,0.0,0.0,0.0,0.0,0.0,0.0,0.0,0.0,0.0,0.0,0.0,0.0,0.0,0.0,0.0,0.0,0.0,0.0,0.0,0.0,0.0,0.0,0.0,0.0,0.0,0.0,0.0,0.0,0.0,0.0,0.0,0.0,0.0,0.0,0.0,0.0,0.0,0.0,0.0,0.0,0.0,0.0,0.0,0.0,0.0,0.0,0.0,0.0,0.0,0.0,0.0,0.0,0.0,0.0,0.0,0.0,0.0,0.0,0.0,0.0,0.0,0.0,0.0,0.0,0.0,0.0,0.0,0.0,0.0,0.0,0.0,0.0,0.0,0.0,0.0,0.0,0.0,0.0,0.0,0.0,0.0,0.0,0.0,0.0,0.0,0.0,0.0,0.0,0.0,0.0,0.0,0.0,0.0,0.0,0.0,0.0,0.0,0.0,0.0,0.0,0.0,0.0,0.0,0.0,0.0,0.0,0.0,0.0,0.0,0.0,0.0,0.0,0.0,0.0,0.0,0.0,0.0,0.0,0.0,0.0,0.0,0.0,0.0,0.0,0.0,0.0,0.0,0.0,0.0,0.0,0.0,0.0,0.0,0.0,0.0,0.0,0.0,0.0,0.0,0.0,0.0,0.0,0.0,0.0,0.0,0.0,0.0,0.0,0.0,0.0,0.0,0.0,0.0,0.0,0.0,0.0,0.0,0.0,0.0,0.0,0.0,0.0,0.0,0.0,0.0,0.0,0.0,0.0,0.0,0.0,0.0,0.0,0.0,0.0,0.0,0.0,0.0,0.0,0.0,0.0,0.0,0.0,0.0,0.0,0.0,0.0,0.0,0.0,0.0,0.0,0.0,0.0,0.0,0.0,0.0,0.0,0.0,0.0,0.0,0.0,0.0,0.0,0.0,0.0,0.0,0.0,0.0,0.0,0.0,0.0,0.0,0.0,0.0,0.0,0.0,0.0,0.0,0.0,0.0,0.0,0.0,0.0,0.0,0.0,0.0,0.0,0.0,0.0,0.0,0.0,0.0,0.0,0.0,0.0,0.0,0.0,0.0,0.0,0.0,0.0,0.0,0.0,0.0,0.0,0.0,0.0,0.0,0.0,0.0,0.0,0.0,0.0,0.0,0.0,0.0,0.0,0.0,0.0,0.0,0.0,0.0,0.0,0.0,0.0,0.0,0.0,0.0,0.0,0.0,0.0,0.0],"Output":[0.0,0.0,0.0,0.0,0.0,0.0,0.0,0.0,0.0,0.0],"DLayers":[{"neurons":[{"Weight":[0.81409245487958781,-0.70570579855968518,0.32995837127322247,0.606899351164186,0.7511109471093449,-0.81026490351255742,-0.94245380322857852,0.37702642957541455,0.46266189786263823,-1.3594947212187083,-1.1151951531273698,0.15424739937495768,-0.88132741436424089,0.56984454000827145,0.79163495581207544,-0.0478212991952065,-1.3791139456480834,1.8318390957228092,-0.57581046529850477,-0.093420678734975449,-0.42121248250592619,-1.2046700600556424,1.1249898938112846,-0.79152476726745646,-0.18499328146455488,0.51638533117546936,0.77231495770267911,-0.25852040016365685,-0.062575394782505511,-0.66627752718808009,1.0642512719213271,0.13446157152506588,-0.16757213425243833,0.42670078246234955,0.1379247217270107,-0.98227689926618567,-1.2748381086973653,-0.62635803717484606,0.086500114743364942,0.011950322334195046,-0.53472054867759367,0.042793983613510611,0.04444072707588359,-1.565836436145863,0.017478162285395955,0.28994655459651103,0.10588420420227762,-0.30156584936267028,-0.68220331272212942,0.830289977057972,-1.6138791067590375,1.0465720570863093,-0.055086787306849683,0.2942416740640641,0.13691812760053113,-0.83059321103179506,0.072129958808482553,0.48772691678615621,1.0399947668961225,-0.077978604527675036,1.5127248910780646,-0.48637968417554145,0.12350920593529444,-0.34355399680489396,-0.091140731687041038,0.48967824247185066,-1.5000825708266732,-1.041569926329688,0.0041840460636578258,-1.7532296663863722,-1.7316865584494949,0.079648322462871679,-0.306721880243496,-0.66996268586719532,-0.92264295784879613,-1.5766388771946724,0.19004605228683763,0.0996176526268795,0.19327732333018322,-1.5869243236197739,-0.52655082965574729,0.893659517847076,-0.86713961598795808,0.897605769055712,0.19253946104670849,0.782598851613048,-0.72993719052986106,1.1474977578723329,0.56201110996494186,0.5188099469611468,-0.75021043400930265,0.76228157093854687,0.52949736198852637,0.38037700084055637,0.67242896914129568,-0.31000818419736276,1.3800350275729016,-0.25917368580548739,0.6559675553142873,-0.417281005725861,-0.2813500116026727,-0.53083494795990882,-0.26489492372604784,1.5330112537057192,0.81084640780968886,1.21541305967393,-0.57339966137586151,0.19004468912844733,0.057021106619863371,-0.5199815735779616,-0.3120370047688657,-1.0138926515420401,0.21233150000326873,0.47251713111648208,-0.26875943303239624,-0.58342312361738791,-0.8929586864043767,1.1184979810174545,-1.3087843467056679,1.0820111609445937,0.2777394428541835,-1.7779799233088176,0.41784000136788935,-0.33713178259187004,-0.46632764411220673,0.27183277752756985,0.41292633725553812,-0.62372586858632317,0.68975887227040311,-0.92864018168207974,-0.91066311994132731,0.37470525467232596,-1.733217633670763,1.3554460217037452,-0.6554790820124301,0.705055334002271,-0.62465730617971027,0.52755925922075253,-1.1832116186540627,1.8209002575934399,-1.1211780286958337,0.21254817126903136,0.52353936528020517,0.80832004383346179,0.2565212808579771,-0.539127033017424,-1.5902362842591185,0.70560915309604011,-0.051061688946123063,0.01783855167116899,0.39784766936254334,-0.54882969150730865,-0.30861705251483,1.7602850069863654,-0.79568298104949442,0.47782406220530538,0.52233003556414848,0.39326313760760029,0.33919619505256243,-0.14237632652738885,0.84778416974865256,-1.7122991754265033,-0.017818150817331874,-0.434852131844895,-0.32178686853581417,0.97828768965462876,-1.1671795892012562,1.5113559311774354,-1.5638566816057342,0.28098780069546203,-0.99471352235313426,-0.0823845923097731,-1.0491184541252991,0.290775060672674,-0.37659805937511748,0.95026624176583585,0.41446649651716755,1.5705271070656726,0.11067847167638989,-0.69458513562460911,1.2039796724934035,-0.48077562008089181,-0.13727025414689931,-0.60062108300691575,-0.10041603049879816,-0.88859865614372213,0.28548148938448265,0.33820580872012335,0.86294720920871337,1.9567298795826407,0.69712014346728268,0.24752760195291024,-0.18751128864824374,0.366964848882968,-0.63250210538157359,-0.65768705711592323,-0.97912831650074961,-0.021076000305393805,0.21695471285700574,-0.18528208983376726,-0.73205940738881914,0.335989642184383,0.81749157366226033,-1.8965667802358823,-0.8031955122962573,0.69627774166701273,-1.1815297413531365,1.372590252837441,0.86037994227855452,-0.414752203232959,1.2246319899450207,-0.47460179891185916,0.078893984151721885,-0.63361380106121967,-0.39112584404234119,-0.39597594104519851,1.8923758062964193,0.671700713537494,-0.63480276903011967,-1.5430074238884297,1.1806660261759143,-0.36004585696386437,-0.0062898195203345553,-0.99619672063095355,0.42516470382696236,-1.0544135597719877,-0.18856017393458635,-0.51268522511918335,-0.4375209745194395,-0.25977353927828895,0.37520315981246677,0.42806424860934289,1.2438641294182693,1.2409970571565197,-0.86244092936391992,0.52567331443846765,0.80291648991541775,0.56681707777689572,-0.017551529564103885,-1.0407634314686298,-0.74958420055899033,-0.85594001638513983,-1.0593869841235628,-0.36456199403133338,-1.0512627084192414,0.17416153576884508,-0.92020988286971939,0.31716322782666573,-0.30402378752083681,0.529957642676289,-1.6085496040100928,-0.20169354206088164,0.75884787214866256,0.0824262095067772,1.8868407364407744,0.14841961306046042,1.3143398645406177,1.2444753196297564,0.14719950315644931,-0.68698221942735016,-1.0221867901376387,-0.27758124157673736,-0.57045283283884762,-0.015996373411499121,-0.43880102803874815,0.2059955439558232,0.88638527080714,0.083687298970151369,-1.7867105490466164,0.70990305834445311,0.12306371616342293,0.36915788039867181,-0.93957691310885216,0.31274569049139767,-1.6593774029330244,0.446495409331515,1.2408071473430877,0.92661046865616714,-0.98624553856730712,-0.43079156402069685,-0.587718350155148,0.05692592549930503,1.7652286087684816,-0.2896471939641736,0.3741356033711396,0.24229042871961848,0.63752546097968033,-1.4856614279250118,-1.3615250048979766,0.53499796359566876,-1.6107152652045316,0.68905622264792044,-0.23231032222151304,0.14978113544629002,-0.43429770265207523,0.64758105547986045,-0.019650214593694648,-0.68672654344082185,-0.47701530285506288,0.18303668468928064,0.25306431034217391,-0.22050319668860333,0.019254320310081507,-1.4020415159883171,0.49457898402891753,0.15301183432015203,0.5205738398458688,-0.076707652105391683,-0.28989434454017637,0.37813873327250547,-1.6761356702428942,0.36939350020577832,0.18022590930584165,0.28938258074428086,0.070088932439726359,0.8163787104731326,-0.57869193171090072,-0.45359442477758283,0.77629186901091218,0.77859028930710172,0.68842594947861824,0.8275324563473927,0.66855170888293136,1.8459750636694836,-1.785113008592796,-0.31049047052417444,-0.17250858102518063,0.80744835771967116,-0.95206269456635351,-0.17925914776222332,-1.1285136188396783,-0.06746978176174212,-0.46822908216539272,-0.17656682573797503,0.38008722028699105,0.1453871979123853,-0.30968953590359982,0.230413130591816,-1.4389616751293475,-1.2636352643666953,1.0914830021054871,0.30062482473469571,1.1670032400484214,-1.412135185400087,-1.4472361223060806,-1.893802585030814,-1.4197295510301968,1.8670305888480647,0.32570181659571906,0.4214218083868837,1.2072973564301139,-1.3245447535647754,-0.37652851430246531,0.33200034778381826,-1.0842153109070916,-1.7956878411563522,-1.2915404734981479,0.13351661066222764,-1.7743948641113914,0.19009699401915858,-0.36273506580048021,1.6551473362628126,0.23535779874555662,0.88733772136612687,-0.99259341647503585,0.29436374850476033,0.41768926634345649,0.28612629896315123,0.35114325293742266,-0.14840655128863023,-0.534988186571276,0.061485855635947495,-1.1731264312480931,1.55964899787663,-1.1276752730494715,0.099184588633563761,0.81817136230793375,-0.79843722227888048,0.35147286542265105,-0.4514376650323686,1.1678993953009598,-0.47882153791320592,-0.51341578787457254,-0.6030038048527222,0.3205170679467344,-1.1433253191147583,-0.93306049532632374,0.47315556298622674,1.4960367572475397,0.86472678504173039,-1.959832506235611,0.75018725113486262,-1.4716156324588767,-1.1599313529021718,-0.087919298597213091,-0.85814435908047937,0.681784107783709,-1.5702367795492693,1.2815631093837148,-0.73091798827793353,-0.40226582328428784,0.0048583447955820036,-0.96460703246509982,-0.497883404429482,-0.250114539463592,-0.52477607434837892,0.86231736785840107,-0.26354753002436737,0.42801513822191151,-0.040228295376979875,1.1499406427481242,-0.11808370385229766,1.466958423828221,-0.746203061307875,1.1595445099098349,-0.95667360616190578,-0.094591016680497214,0.44533389408389745,-0.468155087189821,-1.6427890153801017,-0.056879613528977732,1.2363652173599067,-1.0360795124601943,-0.37397422938327041,1.0163256223389532,0.97124030951933937,0.91518685742819406,-0.33227115652164041,-1.0602190099005675,0.40138291865651632,1.241906424631321,0.11395909033157936,-1.7604526019471012,-1.1705525364589655,1.3577023406316071,0.57770303864507133,-0.91883803409377385,-0.2880223371498391,1.2683681235152147,0.92104301178876469,1.1510588828600405,-1.5588900306885551,-0.5879800070625113,0.31430439747139077,0.15636773876036414,0.54325935688952876,1.2392122211117354,-1.192127958605733,0.28897413176669462,1.0417065038539963,-0.90197044850884489,1.071067422195835,-0.55935262449055556,-0.26087521666278746,-0.831343836538188,1.1852652335645471,-1.4462569474458029,1.8874078578722702,1.0687085572018793,-0.65387817688932559,1.863461704861122,-0.48571075894204463,-0.069353918344412985,0.15858090106593714,-0.56947851207548683,-0.67816165726546274,-1.255186291064688,-0.16749553820933003,-1.3296476189650817,-1.6010541578759692,-0.28989901872812718,-0.76241885952764143,0.75098653994694808,0.13872956204707362,1.1318561318944471,1.4651365873707163,-0.059336144039098149,-0.56191127328174717,0.29960737121600589,1.9872304163813732,1.1948411852097329,0.70823789467487375,-0.63231523460467121,0.8013838336576633,0.91921549705751948,0.69311593412101091,-0.730301105757384,-1.1509023807714238,-0.052248810442280358,0.32714755275401286,1.3708223333941179,-0.59615768706247108,-1.2023919221024921,-0.041451591086318462,-1.5670880524288342,0.24001373059116932,0.97238083322177693,-0.54549379672179654,-0.1493233848127179,0.11005034395961566,0.3527172973159316,0.80689658355288962,-1.2937762303830946,0.21021762720159271,0.91485018046333,1.427142392577204,0.9796705879176365,1.9482820313183042,-0.12249016346205735,-0.98299015452293226,1.413676803331148,1.1919407314583383,0.98693113773452623,0.52092608554331887,-0.0796408397516426,-0.99056154249698714,-1.4616581683334236,-1.8157978941760016,0.028451475328044706,-1.1581909224196294,1.9080939429713397,0.12252017186140657,-1.2374756705190406,0.41918920081536709,-1.466132210318992,-1.3466269985524133,1.1754623838586094,0.14206270204953042,-1.170366781610235,-0.032718415707451542,0.0358430440704538,1.0930768575807683,0.59603625051492659,0.88826080639299987,1.0301906070812561,-0.064476698550617662,-0.91411108170361777,-1.5270761677655746,-0.21029293919461456,-0.21633197842926344,0.71355558004628661,0.72750920603401448,-0.4970288465251349,-0.76309430378633292,-1.1503801770277229,-1.9284946452493288,0.39787304684070329,-0.19382418832153164,0.23422848613283806,1.0415451596684497,1.8301328554889806,0.46722506660373186,0.43369515731869979,0.82219874478047672,-0.10435060276852487,-0.30928854379304149,-0.39790832362971651,1.9855993147872386,-0.7174585590540471,0.38592029671926065,1.4944551361233254,0.30768961502830017,1.1280946504199272,0.75053152849456828,0.9784449462212832,1.5700784353865673,1.6099618690134778,0.37395610409973024,0.048958176830371722,-0.54966687395840785,0.042590870541795667,0.602021812741655,-1.3455461111597464,-0.39298811293811919,-0.77419994015907867,0.42253934751382988,0.26392615133147967,0.98094746795527055,0.032837213764480788,0.35434924105850474,-0.4490280488734264,-1.1204651706481656,1.0983652644375641,0.0770195136205385,-0.73081573247696052,1.7161459493060343,1.285166610019592,-1.3084993601859893,0.83976297399018085,1.4283577424606113,-1.1032301116982615,-0.7030783447916984,-0.98431731238813025,-0.10808988945004061,-0.19309672070345685,1.3992772565219913,0.51067911937613431,-0.98839174702339438,0.046518274011593655,-0.664736860741273,-1.5090440732934718,-0.046604783295935315,-1.1052638665331824,-0.841432202067893,0.36553136928264562,0.0017272132689726272,0.21544166268568565,0.52267723598525728,0.2739158711740356,-1.103060805752436,1.2689488913253644,-0.91007213284133914,0.35376299841039005,-1.7053530792264979,-0.92026588980586543,-0.50420561779369877,0.69411287610217709,1.3373488252807169,-0.8491441155081354,0.5407780689865862,1.9743011873095768,1.5604006296770652,-0.64352262702003249,0.28755100622513619,-0.23134920756861066,-1.3938238208153395,0.3358198936729786,-0.18223960054211297,0.86668594012348277,-0.60295959122137477,-0.31171833831431273,-1.2081344315761859,-0.13323626758594132,-0.9398800702485629,0.72410323737380244,1.0033296855414893,1.0853481940391232,0.12351438487461502,0.60897255996659982,-0.87689397245500889,0.35229293925328786,0.63906548295126564,-1.1888530307630323,1.3517594623154774,-1.4563994628639889,-0.623528707131524,-0.66817115930289539,-1.4209688154146862,1.9993745386597581,0.52108011325871573,0.74658176717753111,-0.74575298707243343,-1.4292007533038038,-0.15931454050639238,-0.0073205898549969506,0.53101800397250354,0.27784345777604891,-1.1869073022095986,-0.14527064102947285,1.0728396118862067,0.39055404066649652,0.93192296425435828,-1.6861449050186876,-0.8782467296711387,0.99071840429246349,-0.93011434454476194,0.22727498888376863,-0.60029697166769624,0.033705057009917327,1.7812730325531554,1.2360658758487859,-0.32090843763244736,1.8446276261679024,-0.46554761122239174,-1.8446929882488647,0.817312357446748,-0.78288844473794494,1.3352910025675273,-1.2004770259851687,1.7378597686709183,0.36524203925637622,1.2838321604225005,0.20639360484499186,-0.12428926402902674,0.69679310401148375,0.12584196747087051,-0.043069852783493776,-0.82723442016462645,-0.33012515810789778,1.4576519054629151,-0.14113683607889654,1.4491942534568691,-0.7344232326068092,1.5386767155903749,-0.63005663976454251,0.063665661059164325,-0.036152289265837689,-0.12946860218861533,0.29413892883767334,-0.33356789985081081,1.6417628073328003,-0.53247353552490173,-0.334278026638481,-0.2237848861310138,-0.53014188517357308,-1.0917386818173056,1.1968347296103996,-0.028481302243183043,0.26858972022957273,-0.91356006214095276,-0.31329250629678951,0.70711121987776848,0.019714108677447939,-0.91219555349657111,-0.642070263959672,-0.5410260926171353,-1.3919196964203937,-1.3344351655498312,-0.34817813818723803,-0.20849008099571331,0.0023523159827203433,-1.22701415523282,-1.3215358070198147,-0.58466372846610093,0.37461944312945428,-1.4896714331068433,-0.56688756242715166,0.79180720355853307,1.0790357697191815,1.5268193556018845,1.4667345785846631,-0.98154731792469851,-0.48183442636827689,-0.00128777007981562,-0.92647336588775431,-0.43970766963423591,-0.270658295888622,0.41678730860202912,0.18578591342281686,-1.6276190041693015,-0.27395562328116763,-0.4880455783512655,-1.2478752563755844,-0.66715088820417923,0.944144220531054,-0.54160147558040983,1.0743992212574924,0.090000311257414464,0.56363131630185226,1.1493036322321526,-0.081404960752187838,-0.4230297647523833,0.89203097210767734,0.753094171962195,-1.6703577319487732,0.10360553492959851,-1.4956064156701818,-0.78315755283663435,1.5066760981020873,-1.1165126818774793,-1.1142069115835276,-1.1383668487604552,-0.018547870227390739,0.52313697269332449,-0.38028134004226016,1.4406296817920543,-0.62185740173880821,-0.63930203213146286,-0.65015538985771049,1.1955543408149643,-0.16184215470535784,0.37303192083617642,1.7899609933560532,0.47229151137236225,1.5402330158000033,1.0680725509617817,-0.47194813306999772,1.4903529724061271,0.26757581137007846,-0.0471951663713881,-1.4789288954245525,-0.081057282551684123,0.20242667012611712,0.88032142765835],"Bias":0.32976175706502364,"Output":0.32976175706502364,"Threshold":-1.5543589031111258,"Type":"GT"},{"Weight":[-1.1874559608695359,-1.3182535788245748,-1.0193603704773637,0.98651185677690045,1.1196895768491968,-0.64057297568794946,0.61637790995481323,-0.76663893031265529,1.0126214209071462,0.9084766092284009,-0.083509085738802835,0.25763365452067633,-0.95006217944904336,1.0022858600142812,1.0329424585369149,0.31655464196417227,-0.616615906703107,-0.86787878669233942,-0.86149072602809906,-0.54001574336551861,0.30984985258625608,0.57381484684246353,0.38030392845641087,0.63554292108656041,0.43662513905979017,-0.31457841760226446,0.53923075671271925,-1.5906324123920093,-0.52221646556733947,0.17998259057290023,0.44299523646151417,-0.87741591729103408,-0.094251032031258175,0.78046423419400313,-0.97505488347381108,-0.894562443843839,-0.72420843072431551,0.071563878129964564,-0.21782279862920895,0.69865882079985875,1.9395735598819206,0.92153347818368725,-0.18704549045630042,0.71717027836820413,0.36944281233914333,0.44620696196621612,0.86285377093898308,-0.065203512117826934,0.12036055145801994,-1.4231735446598257,-1.0589373908280102,1.3605080411585551,-0.56907805175011883,-0.3193469877910553,1.0157522976006161,-1.6012057227088166,0.051327793882846695,1.7469165528877251,-1.3511661381233326,0.75071508379220742,-0.15537156125315071,0.56067480164262218,-0.99026364692964763,0.95485444035956379,-1.1634422741660115,-1.8522380142715937,-0.43873545462032104,-0.70395619920639141,-1.0678331847618487,-0.17755798762201241,-1.6111923667094112,0.25300670706341366,-0.720671865493372,0.73187036939518091,-1.8835355899685693,1.9394895676241672,-0.0012165596714320826,-0.12481642613411714,1.1658868767162258,0.8935830271307299,-1.0714263744053554,0.33040329601616714,0.95778281006858812,-1.8367350249722296,-1.2488686867285841,-0.12469402520204609,0.19832132233993033,0.46935985663759505,-0.17661435063421455,1.6131895331727293,-1.0032558436520658,-0.64599416341911731,-0.81790293858172491,-0.87372761272067567,0.7236624165548301,0.283054288608513,0.31510766906588761,-0.8279426334555926,1.1748230825992407,-0.028279940610881904,0.03247700347913296,-0.36789468145831239,-0.75850517244939941,1.1759832022599799,1.9071990660890932,1.4276378417516304,0.86938796884817426,1.512083720188627,1.0801918576844929,-0.25641617842783043,-1.0686972700379311,0.18095213090113915,-0.3219222160158316,0.000409762375247702,-0.27560751141310091,0.21166630657933006,0.21231622235491698,0.62970125401844346,-0.26593238313958634,-1.6048540443204595,0.33726922158956008,1.3081411213186296,-1.6221685488113056,-1.414589765209048,0.43815462627106355,-0.84693105185727169,-1.5629554081535693,0.23314593277552431,0.99226322075995887,0.56849154498474275,0.54849157228529988,-0.15805808671659702,0.04418287288592343,0.78397347948466112,-0.76217049488898847,-0.45392373132236474,1.794021477826881,-1.0271356566935479,1.9106278959245553,-0.066538129032840065,1.3235972660237909,1.3300288526015489,1.45448508763429,-0.3855110939524653,0.77045505250359669,1.5744309684142617,-0.59876189874427488,0.60962903621123576,-0.46431663188353017,-1.3832592877481409,0.32322101682574533,1.8493233639045261,1.375029824383105,1.7420672698607982,-1.3204456508720506,-1.9708844479037841,0.64945750341259756,0.54283243479033461,-0.5530165600140613,-0.69807981359682969,0.068450138936029026,0.93814347169275569,-0.51669559977794788,0.20328517034802823,0.30218374091302214,-1.8587722554145252,0.65998091300017236,1.9130324106258492,1.2619532670415719,-1.9342955946616343,0.84422029221626949,0.49819661125969139,-0.098514055831800951,-1.7733678686308525,1.8731986022895195,-1.1496413923565489,-0.32458763119046941,-0.80204007621309259,-0.4189159526927006,0.49656088859614012,0.43692839538535488,-0.2503017924028923,1.1228957339762227,-0.19016215085990829,-0.25559137866627024,0.88977359931556221,-0.33805551092981156,1.9183109718925837,0.96244645070398516,-0.83092738889666617,-0.511401945031901,0.55534886082053947,-0.44533046774814394,-0.4901175324293402,1.7560926227625893,1.4401475710049958,-0.710278499270919,1.7996684051117247,-1.9846169464218508,-0.18007547602992291,0.3167966488128513,0.32904203856784942,-0.25198080225255953,1.3447213691401863,-1.3807277364566586,0.16731864641557612,0.051600601149102171,-0.58046417824967955,-0.42266563844205374,-0.87231610104083823,0.64326547582004934,-0.93637635881843817,1.1155664264762617,0.90049183503747532,0.44838577995467288,0.10474037104506984,-0.9578328397859972,-0.4027002166969238,0.59333896338629488,-1.8434661309437204,-0.78803345318326423,-0.37592581141550357,-0.613303005049612,-0.67050221744948169,-0.49482308630590466,-0.90713672195893558,1.9607081394459622,-0.46938867050660238,1.1171708992296696,0.63664837211214409,1.2919946663510031,0.26677839563543815,-0.027171014820770889,-0.41595944033631088,-1.3145522798013651,-0.4997117419260142,0.7328092412710232,-0.69610587778552713,-1.3406544790326871,0.17638140645640976,0.8490339231891133,0.40613666347048094,0.48025543823850136,-0.27166823589786349,-0.044259467648463169,1.9590662270593766,0.27801760997530889,0.77578358597322783,-1.4684794333150981,1.7285965866076745,0.95144367448587142,-0.49810739548323096,0.82544183117590908,0.59932454627674281,1.1849885196413326,1.0776669024851486,0.9008375037931079,0.17814400521020612,1.4782215279891258,-0.26812402078328834,0.13853604446097112,0.42508575443357033,1.8818713221148919,-1.3289754210640563,-0.887593024823625,0.38988276309793957,-0.80376081252645726,-0.58324664020130723,-0.32052277974808718,0.47213548048033155,-0.51236957854810783,0.21005010800904134,-0.038641184499087267,-1.041572361738222,-0.36842953524013489,0.60522054629643485,1.8680008220802997,0.15264895192936479,0.15669858369822531,-0.88372634997764909,-0.47902658103454226,0.25693016379686751,0.0463263369381085,-1.0949544865148861,-0.62224913976259966,0.86375741401047335,1.259321840135065,1.6572814917458603,0.86776951461460883,0.92131574960486784,0.86654604359834719,-0.9518257337398015,1.8027495536034692,-1.5480678358804751,-1.6134103311288219,-1.4808701786589205,-0.67041566347257042,-0.87168306851372268,-0.18441280149128889,0.89992315433915859,1.8069187120101036,-1.3951153677865469,0.030707035693669171,0.48839325678459977,-0.79977588858444992,1.07535599408455,-0.14947284104394387,-1.7613077292969952,0.46187981519004317,-0.70560242897160463,-0.91568831248873483,0.49164530773552756,0.18797443769312205,-1.0824547759641217,0.69094473341989571,-1.6794832384583929,1.1202546950058334,-0.36674284236848725,0.30944629991284872,0.85318056999388192,1.0129857952766987,1.0031634520579424,-0.53193456221229152,1.8942169006421308,-0.52851820016676476,-0.69137159627460487,-0.598977783973784,1.333288097443659,0.701003572997173,0.43279975346885624,0.54850325665832633,-0.39084197878411125,-1.0604394427782107,-0.9200037028704553,1.1393526080713388,-0.57694109142848327,-0.33394459638928276,1.6092270717344257,0.20710607907134371,0.29787976215494805,0.14923702443448692,0.449006282933525,0.44768189217321663,-0.35577771759395382,-0.76746804768567345,-0.91504340009533025,1.0054652522340333,0.2076449104016142,-0.82478503521114355,-0.21670728466320188,-0.78681720058634752,0.74261540209064991,-0.70698088187973485,1.773473109944478,0.028863124562829356,-1.356794303914902,1.1911684550303821,0.48774064820620255,-1.0256899739735248,0.18809302555774021,0.55962593227607482,1.0718269138349346,0.15681782791242827,1.1683114446552056,-0.67866430939054778,-0.539641246450898,-0.81234016586669733,1.0766911598687021,0.64763008367625519,-0.19590903920862313,-1.9948526658093801,0.52775788472191554,0.36348158976225253,0.66377806415026,1.7499579674331276,0.024763857026008917,-0.25576800492395091,-0.024077094636893337,0.539967207169378,0.78551367241214654,-1.1277749627492275,1.7750988657470321,0.20922728986909009,0.3229344488694027,0.32817382660143712,1.6622420035592476,-1.2671098138751042,1.0370193382431843,1.8487757480930425,-0.05904887991913077,-1.0096484473951386,-0.295030095751877,-0.96550381507980809,-0.8432626318387979,0.20127855390369842,-0.97370764658493347,0.245625341658306,-0.75182058930016149,1.1627802025353446,-0.83262487260281337,1.619505567298972,0.56095926101325966,0.53773793184093122,-0.36576077824726738,-1.5106579333127748,0.363743577321872,0.39094758983279931,-0.38836503792012345,-0.64611725006653786,0.62495198036774635,-0.35742165677129367,-0.064042666025479589,1.6531036510936146,1.9770534187448461,0.10451336675533707,1.4691301414133655,0.19600317100808179,-1.9067764970971162,1.1723344311687791,-1.5315558815056254,1.0984328170910864,0.64069146040859248,-0.56961298975842678,0.12358629150483114,-0.82901833369438227,-0.2218607283299141,-1.2263557490404256,0.66313455063666427,-0.15714815545694366,0.59252777024755621,0.9333062703643491,0.22108532219244426,-0.33215014372586738,-0.18430250379457247,-0.36412773787236208,0.36860739992400982,-1.3374804776802103,0.076563071495184154,0.92196123810576314,1.4738017797813758,-1.1373887868306547,-0.025221577857258648,-0.303643014423383,0.28124560335709026,-0.23925692110287816,-0.044290698918008964,-1.393600118296966,1.2368705986239343,-1.9083577040156152,0.32043652903308928,0.45334217420402645,0.42580021697541259,1.0691019543768381,-0.94619431018186473,1.8596120774092211,-0.76649241755553177,-0.30786317321838036,-0.782190963990144,0.72594596758761742,-1.4899399073281976,-1.5629724597385957,-1.3244311433864904,-0.016569436901078635,-0.20261744326102427,1.3375614599034011,1.5030358231174925,0.15646377678795909,1.1753502167646541,-1.4735492884523931,-0.32541783937505336,1.1619984187008807,-0.42418474816912077,1.6632992493283467,-0.062119762941038159,0.68997375792356852,1.6052669918189135,0.75722725445275518,0.13310164651900147,0.42823080283643011,-0.648477251943423,0.92347428338763948,0.80811183285345867,0.64006056247281873,0.47090600359761448,1.102061718284181,1.5483476498855033,-1.1417475376006903,-0.862336686740165,0.34353614521377551,-1.1778024916084495,0.62251106212963858,-0.87116697277637045,0.89075628057623124,-0.19895659116979525,-1.5470250437284236,-0.25348411029134144,-0.82552246359652381,-0.24987028554977186,-0.29268783834946244,0.41273939256218228,-0.80962520502955893,0.045527036322992043,-0.3633588267785306,-0.5753136978369735,-1.0327060683782707,1.8638981635979834,-0.94370634245858831,-0.46424888934206621,1.9224435165163332,1.1570549538159067,0.329982200195628,-0.552704961660297,0.38744552344030314,1.6128789017036924,0.91827536230826512,-1.4600515623856576,-0.31974106017488113,1.1113796509389671,-0.39022716246090239,1.3822998830034861,-0.61932237288883074,0.04313999882114139,1.3321828280259775,-0.13096012833107262,-0.5998098780865827,0.99379210872286583,-1.1056753623325728,-0.58605811306557531,-0.62129860493414979,1.9569003358282617,-0.43579495066581053,-0.50097162020437969,0.28879782247382946,0.19854643708609349,-1.0724100484849932,0.072947523295032624,-1.0585217024409366,-1.0649696975317644,-1.2764524627832941,-1.5406809731692455,0.61027303354554507,1.5270844360473959,-0.52842901473791759,-0.57460560984891174,0.90104681248825358,0.74005951301197515,-0.2592113000616485,-1.119198914207145,-0.91539463350334893,-0.53793289071784023,1.0560318301692755,0.6342941143709675,-0.45712201411701825,1.1055875327929796,1.5602009215206842,-0.67536242896475007,1.0233482014845814,1.9774770699336552,-0.30888306554461276,0.16310920661954875,-1.4664830283571422,1.3530278565935991,-1.2840514999274404,-0.62645429495091287,-0.020236129881924025,0.22842645760552327,0.50319740665294121,0.3390454947198952,0.45654028768490074,0.013091135077686777,0.44988095874426914,-0.21663591368898549,-0.010102922101552947,0.25890151237086456,-1.5285775826911339,-0.29224084005329809,0.91384681380067323,1.2043045182732421,0.26544165681835352,0.71929482310977533,0.40411179065895819,0.60643809223847356,-0.39611659298935736,1.8390729314829564,0.54357744126747232,1.71486970210209,1.2466299213686165,1.7271944078277772,0.35845355519952893,-0.69822354181586932,-0.073984951350046513,0.75447683700103174,-1.6266763944303042,-0.15670577490548876,-0.031666356502876858,-0.36117361869211972,-1.6377159970056807,1.7886670417099571,-0.040439660679753686,0.58363046179403577,-0.86586557462153291,-1.0874891705287104,-1.3764854487797136,-1.8962880260759443,-0.65277276684193541,1.1308745388551029,0.49368104641042543,-0.30680659846719671,1.8621762040360719,-0.9996700682675792,-0.97393540242288057,-1.0044976272641204,0.18547659096563063,-0.859203616557272,-0.071807018223594477,1.0800345498400725,1.2163441717700771,0.44744217090655219,-0.60358568029645165,1.76577614236892,-0.675454777048647,-0.05625442138698622,0.70334549932896406,-0.36186219268099518,1.6737497037620051,1.4838771202992076,0.15894327226977012,0.137852944813448,0.46563675462530763,0.060742200147706121,-1.8285602870530264,0.97685558021853491,1.3742247442129185,-1.2996946016041364,1.3897981678088187,0.0986787025344924,-1.0783169426941623,-0.25201319845021386,0.11158678383174669,-1.0320846880935526,-0.48842101473753385,-1.4103250550161524,-1.0734578534371488,-0.2055172967750194,-0.73909199168921536,-0.26030109276077762,0.9016729411211204,0.32711279640305446,0.3354718509761021,0.39892735630223886,0.67428850624968217,-0.11617485737540982,0.22125063101819292,-0.335313572238811,-0.32058648500618836,-0.44596217686588036,0.61507711122514541,0.10681759198513707,-0.66761653435771184,0.050064737931855507,0.13269158223641903,-1.403148465511924,1.3071109015993359,0.66135264684509165,-1.3196043946405893,0.66146731314317675,-1.2709535599085287,-0.14985533903811832,-0.014612560167262645,0.452798645671034,-1.5284701094629569,-0.42185318955306572,1.3433078924861308,-1.3309347682310895,-1.8118229321259181,0.21851491658879185,-1.0735510336577665,-1.4368423705160816,1.7426766249084271,-0.50346823432644283,0.008284752261026096,-0.40999410527539754,-0.12952813321630963,1.7247014677732724,-0.82450846679252965,-0.54946489238620955,-0.67213112715228918,-0.36316902646371307,1.9719100780654282,-0.589360013006401,0.18896333090447048,-0.38727236836555989,0.84675149379612469,1.3894030001896449,-0.30212789508613191,-0.40770375375063317,1.0089887350373847,1.5571607330614516,-0.059638199424202787,-0.12522722961158833,1.5567806283625685,0.17328506809346633,0.2804848342615659,-1.0251724715461825,-1.0024586464289849,-0.60526657412073881,-0.090503820260289913,-0.19337751259718905,0.51627354091791133,-0.29590266259993064,-1.2854606077472961,-0.25760349084511558,0.936981334787319,1.6475129174755481,-0.22872734685834831,-0.8123139900502836,-1.8676399550715648,-0.21259680045191065,1.3551285019401127,-0.042671908644340784,0.49170297942669261,-0.430042295916957,1.8498608841792965,-1.4118763430332189,0.85288563969213782,-1.2713729810302019,-0.22213201142015504,-1.1260169171150851,-0.41994314380918785,-0.1154646194146316,1.1049464378063316,-0.93408043947260844,1.5782891263152887,-0.012590046977899005,-0.68406688872914156,0.088465980295308722,-1.6245463190714577,0.5669302505287015,0.13450468244706482,1.0472246313840323,1.5490877737985402,0.9367009265984878,0.520868816655534,-0.82275904660241639,-0.95024884492894812,-0.0038977123282354365,0.68941374248332066,1.3686922264139596,0.8934359768840654,0.95131400830639246,1.1346535352685738,-0.835449921356258,1.7681761736833379,-0.43944031742375367,-0.3951500302158063,0.21309737399688483,-0.5318487847837845,0.023079865102606047,-1.6357855441215381,0.29253995561501178,0.364094625396698,1.4924666734842895,-0.46455869906444969,0.039442596044131917,0.19943171469468224,0.99611334642214378,-0.635681604331211,-0.24215871223349061,0.52353981860510657,-0.071396258692907333,-0.76896863745943111,0.90282560275067825,0.20576276546612518,0.49918761244005877,-0.50980031420933092,-1.0732864118522434,0.454460942747286,1.084145808165961,1.6505890496310729,1.1192344389465216,-0.1963812672516243,-0.3706381081408533,-0.80527195185668377,-0.93977494581592025],"Bias":0.66740578396066841,"Output":0.0,"Threshold":0.840126532521158,"Type":"A"},{"Weight":[1.8576126563631057,1.1450230680150089,0.6838916031103075,-0.23394440963582341,0.14014695931087329,0.97249543060199128,0.81409961104583883,-0.062074090383050007,1.2341474086205229,0.73683122358603015,1.2785473369427711,0.51850342215900458,-0.8729761461135821,-0.77867703827967727,-0.63326563249959866,1.3746356681802476,0.330626874384762,-0.030617497875642719,0.22435784816013538,0.791532145250371,-1.9346900749647478,-0.27496251197297239,1.0735221502783527,1.144033638361857,0.78550905677746474,-1.4127853118874065,-1.3116786253227288,-0.66337590974912786,1.6585230881620774,0.99272923968444715,-0.067957362191731763,0.35553737532231716,0.56650342049720148,0.63281829591506078,-0.86890153394495218,-0.68789456164831964,0.011448807088401569,-0.88075979793479653,0.32279502188364056,0.075706672889975124,-0.96267957774115709,1.0672407239057313,0.5485959083533829,0.78517532341539642,-0.55047991431806231,-0.017818898203698474,0.2126535732358012,-0.50511930578306519,0.11531336145257276,-0.48747135255833696,-0.51507327905684863,-0.62169057066631073,-0.71573996297816733,1.4889940058295585,-1.4388046578684843,-0.0666347169627597,-0.19337996445382788,0.20603379151133539,-0.46126724707953048,-0.36546488961459356,-0.50389126804838491,1.1266019110924574,0.26735985943458962,-0.575905800090244,-1.6444585670924088,-0.79132085982305966,-0.78690415005521119,0.2880555579354081,-0.0872999434761346,1.4515659431701367,1.4034172649976879,0.93812253788957489,0.70952730379511009,-0.17927042927093359,-0.63266767684028835,0.24408230569403733,-1.7378739825160587,0.28448031390294437,-0.579572701620001,-1.6332926524958074,-1.0925101335591219,1.54357259943782,0.0717143449334961,1.1200286229699983,-0.47856457670152397,1.1090068505653212,-0.97192802977372339,0.28688004533149325,-0.39959925711136268,1.2259999584527686,0.699632490191072,0.9659230443490312,-1.1672634753246156,-0.9968569162287082,-1.7143643590222877,-1.5238965784776475,0.52654920310087006,0.2778084344592916,0.748541685169815,1.1216134126864437,1.9968494381740918,0.54122221914176938,0.77398818591089535,-1.0510421082673325,0.13761470380128094,1.1998399077913908,-0.62474902655219156,1.6753810927819317,-0.61221072539360821,-0.80325326793810348,-1.2655193760364871,1.3935850352950325,-1.2755576089376386,-0.12952762592096229,-0.65051277234766769,0.33391832855246895,-0.38989742653905307,-0.91100415542080926,-1.011728305025831,0.84642163051591313,1.4191874642480107,-0.24078457909789147,0.12979507359200859,-0.1741731675221459,1.0194852125514231,-1.6134636754232754,0.083871215677338268,-0.88383560761987956,0.061828581645073655,0.33476706237288534,0.17832054927866919,0.66063660320855533,-1.028775920639176,-0.68095371391668613,-1.9736523982014751,-0.0020255623394742628,-0.31016183938372976,-0.99587700655491884,-0.74278331972328038,-1.1918899785689496,0.51994209172899919,0.766945256044597,0.43564168977813883,-1.4405273769239557,-0.67013487134600758,1.5544801370960104,1.1871118262350149,1.7911556380759719,0.014804304094313742,-0.60017901500695336,-0.43573282062342988,-0.42567962831430844,-1.46173354306339,-0.77875287028902807,-1.2692939374918555,0.58551611549754345,0.53300254351133614,1.0553637440574186,-0.87629870692095657,1.0002840671951576,-0.864966615797005,-1.1641034499807765,-0.24487339943641484,1.9407999869160353,-0.36384317915468428,1.4920258668679867,1.0047857309713892,0.027084019862620129,1.1463220988615985,0.37313801509939959,0.75825933320832406,-0.74908131419627322,-0.95788024689903484,-0.61667400790223581,1.5723572198522078,0.17894747572392702,-0.26447557319707954,1.4501990524354387,0.2980843969786468,0.18361506871589062,0.7806169645770531,-0.36730207682927224,-0.81248822752967853,-0.36097683423473004,-1.3995379467492635,-0.20133007564385164,-1.9756229333466027,0.10256534173505613,1.3904214275024931,0.30423797029267918,-0.91370144115700469,0.10734134152243668,0.94053119371669869,-1.5036061124427271,1.5393303891361367,-0.54390334456409484,-0.70495989113345736,-0.21571120327138865,-1.0979907592283518,-0.0096144229218431132,-0.097704011061091056,0.21851338921976915,-1.8651394508151056,-0.27696598706625686,1.2430649527781945,0.59095269562255259,0.30701015489215533,1.1510559707652106,1.4558734413962222,0.80887026563699838,-0.98741288342858324,-0.49599633482098415,1.3213621467917049,-0.091161632952821314,0.31931652609227057,0.95569232171448171,-0.14440607845057074,-0.73379302210351116,-0.20520721847725876,0.82703618944055268,-1.6831559532709215,0.10132359904298716,0.48744191205475579,1.391519343197122,0.60006816992539358,-1.8776933997299956,-1.0214943192067996,1.9247000869012902,0.51822493194954955,0.12611921230616002,1.9613821804343639,1.2677257831902131,-0.18629691300100965,0.054071671354617767,0.90810207971748991,-0.075512978283461651,-0.3014249607461621,-0.69014302393893856,0.032586729169165163,-0.85322708862518293,-0.99185276543342171,-0.77809103358448062,-1.2406367693285629,-0.059772759994851779,0.27087850415654413,-1.1121321289332733,0.95072008247986428,-0.45759005778589756,-0.733277419457807,0.41154767126382674,-1.990833822633528,1.4829212787947252,1.4917675433642081,0.957072127124794,1.420375257460575,1.7776762513805537,-1.5048018908150502,-0.415519618971981,-1.9782945830273881,0.38454625400926268,-0.21145277736310517,0.68452130560624491,0.042760416419599379,-0.25932830211675184,1.6454114074098931,-0.77627808008169674,0.64775788448573812,-0.691065535882178,0.059796440210098778,-1.2052210845077509,-0.30946717518822631,1.8232094607424036,-0.15440710102262195,-0.64868067274721808,0.43165068301914772,0.085323872093054781,-0.12238144769677034,-0.81115253773105911,0.34680685859490512,0.41881262064856128,1.8255008309266998,-1.1908949535297673,0.2301607716270539,-0.20929259602448402,0.593573225472855,-1.3074978959315913,-0.57143307883650207,0.8031214702888958,0.906960043547191,-0.37789375594136954,0.8450145455286906,-0.12661463811021045,1.5573565771604687,1.7106029371314695,1.3697909300074871,0.73533179831473716,-0.13094808074224185,-0.0858434057262929,-1.5141660177680505,1.9378449655779848,1.7792689757325075,-0.5784658224221626,-0.32539356771176375,1.231807969860425,-0.18025598497141893,1.5492746446045462,-0.90935676307853153,0.092185489380291391,0.26585022279333792,-0.46968912261989404,-1.6970669886549317,-0.982748129862709,1.3220261581417412,-1.9203454218433915,1.0646632234867024,1.470289343721368,-0.051805687161071923,-0.66629404885056154,0.67863807765703554,-0.75070573610752156,0.65255566541064458,-0.22932948006329448,0.13055275200426242,0.0055420033321184614,-0.665015156690504,-0.32808286944780629,1.0171065614638415,0.87520344278537232,0.675210601964598,-0.3198955582081785,1.489861551376461,0.84683965837901454,-0.167076594126723,-0.75466321723287133,-0.66240822089016826,-0.0946399568772614,0.79912337511737064,0.26044738770483411,-0.28448358005121527,0.72298421604697782,0.499913735157423,-0.901001241417646,-1.1081670146007869,-0.63694323908395289,0.37608269340176248,1.0024306899879272,-1.8445158618709612,0.15137484769866549,1.0657036952049022,0.088272487785794,-0.3136027326405062,-1.4642343611755568,-1.2241681158364135,-0.523065930475977,0.68987877605942938,1.3333998182558398,-1.4749988051946268,-1.9446070845912244,-0.44135048912900987,1.5559106914121244,0.5558714207987635,-1.4438446683082007,0.321235685989425,0.39823843565752487,0.23721851768773916,-1.9390842541768607,0.13209026732113682,-0.544628391295964,-0.45740825964657505,0.029559112167711954,0.94022280859771312,0.10516959526816838,1.1961779125017009,-0.66792540376443665,1.774112880124763,1.2016028199352338,0.28679504421856017,0.94601261752937571,0.24520462043942171,-1.6534077132369429,0.4857571393096875,0.33993823830023256,-0.037481573427786019,-0.7536479005374237,-0.04110596610284678,0.05468072372240973,1.9266573004083045,-0.53584416701264881,0.32101671878295779,-0.26927614271141403,1.53153652303458,0.70146871390820886,1.1486100848524878,-0.97757463109566589,-0.89876511110484691,0.83428918341374447,0.06362381888955071,-0.14882646751011547,-0.67156157918347115,-0.62614009791339753,-0.38740591629753163,1.0855494677487525,0.24687867530010577,1.0144306793876137,1.0706706154780326,-0.89699756681808385,-0.12980909977565014,-0.86229793509801,0.53276069207711174,0.25173069612004484,-0.993893458941669,0.54878431770428293,-1.8512380792997956,0.50537570310075575,0.48219541994957038,-1.2182956166650614,0.64159606240764067,-1.4407912005860317,-1.2155806399954394,-0.46247037335413987,-1.4097676982217318,-0.64241186576342879,0.32306597194602515,1.5138290987880105,0.32106705397417168,-1.0339152678073922,0.90246157203915589,0.80081802737005914,-0.93845801587348476,0.84297648949687209,-0.22730438197357211,1.0760654691029643,0.11037165480457611,0.310823294828098,0.44657027835332341,-0.34562490430922477,0.44819315916308811,-0.34088799559552607,-0.533306066602611,0.70778962631665143,-0.74554261835567026,-0.051980128535991543,1.3384603743154835,-0.56843794686123172,0.39471061546109182,-0.34732632294823684,0.28995515279935447,1.3162207507138235,-1.1018002876554618,-0.96154745944744469,0.44024121626104612,-1.25162515940686,-0.081958438773620162,-0.551885018371254,-0.60287743928044923,0.324947481078537,1.3104278730742762,-0.35777343360603475,-1.3418466117282382,0.74368715972811339,0.90823949263814807,0.95079543918728371,0.71297769677498279,1.3674141717166239,0.63037158019392359,1.6197594756352527,1.2361170068551401,1.0663249525550405,-0.39782651282047221,1.0320686265044232,-0.44595689626687995,0.07064768582146963,-1.5783990740675473,-0.920018575582662,0.092830797700598322,-0.50228641159007625,0.31162354085204358,0.63792183745555686,1.6511241661622766,1.5594500414139825,-0.06462891402869908,-0.29874524394923141,1.2087860681157494,0.528204794287777,-1.1467308863749404,0.16184575583871741,-0.42427307293949323,-1.0395338870042359,0.77356610716020968,1.8781781810699862,-1.6704772392616036,-1.8076562023757288,1.3851720259455833,-0.07988218299296905,0.92903858849485832,-0.4796870672049407,-0.79205379578846213,1.5293969081985677,-0.55328028022930043,0.3488126277685224,-0.07449984390963782,-0.18145016857024754,1.2046386790250607,0.2354104286114582,0.64081470791288409,-0.27291797354312974,-1.3815194365482402,-1.0451926202814672,0.056764874168096391,-1.208805260811376,0.83708992546288741,1.1649097360972824,-0.36415448394331812,0.34621057023583468,-0.46928773073912028,0.588601772947517,-0.16964123312832835,-0.44873212671314,-0.50284269623939992,0.65248878519839693,0.25004049799174521,-1.4067560692349246,-0.24390754861531661,-1.0189542766955113,0.50715234982241053,0.39762972488423343,-1.351361974073277,-1.6945320273258406,-1.2345068823706855,0.49731390597173664,0.13247139664947594,0.41039713025577251,1.3621448703865262,0.25911823951598167,1.6029556708424146,1.5335081450331529,0.20224578559968887,-0.19960900312271379,-0.17966735278240748,0.66526535866818526,0.83589909590589784,0.47326162013842787,-0.12772354501193556,-0.91714469851793012,-0.0953923437490094,0.36297158261899432,-0.4846943048689023,-0.81734014713081549,1.1918567806444396,0.61258285428051962,0.794549902339722,1.0909770294516239,0.312714528903698,0.81280420106500584,0.27612262977106616,-0.540052890097747,-0.61562015455025176,-1.9819292090749039,-0.21373508042364153,0.6637308852112529,0.45225506523052406,1.425000134704169,-0.36134798748481467,-0.05348303613880788,-1.5922729538717646,0.29126148707757782,-0.74484524538034824,-1.0328746470775803,1.5154662735366573,1.8292219265500185,1.6092523250771931,1.5597168534620856,1.2526717778540553,-0.482411827185383,0.7633226545356786,1.9816801678304001,1.5491711569713296,-0.16385517696098206,0.904978678051838,-1.8817646670535975,0.76156194822935486,0.11903444217473025,0.087181470397478478,0.68713595098216818,-0.4450921418682694,0.942600509590749,-0.30120666478816732,-0.2546340489883484,0.64252925368143665,0.73210809739870386,1.5461692323657541,0.62633877928663928,-1.7951981182187786,-1.61537255887658,-0.62331224494767945,1.475587270909728,-0.15629831732078381,0.6416291927585136,-0.34644971245268819,-0.71005208543969878,1.3110969212423531,1.5758914051465185,1.1482289122176492,0.8286950061231364,-0.36585107841102926,1.3488112256623857,-0.72327349264225271,-0.77436074319527748,1.5696445943646342,0.512240900896602,-1.3634344869871173,-1.4019514692752628,1.6402861225577241,0.21515216187813885,0.55783531188102353,-0.43879092784542162,-0.6632105691419965,0.29093547603857495,-0.60464775417331529,0.26295633626308113,0.367559244910981,-0.16279657099526212,0.98074758028646336,-0.1967900840925326,1.7698127942950523,-0.718017944469125,0.2667667813444356,-0.036541788855819934,0.36121540056132484,-0.97203424082698031,0.20649330048192915,-1.49254533194124,0.25478277739825794,0.631735185688238,-0.29223530287492805,0.50370900251609685,1.2833413620401832,-1.6899088452057489,1.4430840217709,0.76398691655115158,-0.36063952096505758,-0.24583962991306829,-0.59249773625866409,0.6664487063491854,0.02515633856535715,0.42279489078689148,0.461408928939128,-1.719188306349883,-0.64726187970827431,-0.14411591046681443,-1.5622134337025757,-0.93263206767506524,0.75796007007381871,0.75329491659221,-1.0086607201996543,-1.9389761406644137,-1.581685631806816,0.62002071115189272,0.73055689163997606,0.47679389220513113,0.78528867232859545,-0.13365085033404212,0.833591194280233,0.84031030667960183,-0.28288696952298609,1.1372276666281873,-0.72826056868222566,-0.14090958716419266,0.66805363756979519,-0.20858272361037433,-0.0022787007048161306,1.5088453607209238,0.96399863761104587,0.5182879604484365,0.97244050203415966,-0.95183233978544934,1.1905943383186095,-0.96634023472030639,-1.3828502182768891,0.084398460613749116,-0.64024525165569279,0.30102764840751295,0.17496512186479052,-1.1826243378141077,-1.2520516250524909,1.9708704613013519,0.6762749030842794,1.8630702383178615,-0.53455574183471311,-0.14111024217731805,-0.22871852321723407,0.611699576774472,0.25940033822445263,-0.83586369028122331,-0.92646275783258614,-1.2118096049930014,0.55503894507653984,0.16676162982674381,0.076158854680209775,0.94990371446269883,-0.25728376594245617,0.70069740465874675,0.309206114294569,-0.12257445373575882,-0.88038709893840694,1.4134136566023408,0.6220853173276808,0.070443580891212054,-1.5002987439512736,1.0038506966102174,-1.9649412464187206,0.53867614014943888,1.6058489063781916,-0.416908746983115,0.5106677901980784,-1.2718116022980825,-1.3157550552001944,-0.99895601393606326,0.12426232441759788,1.6439307330380804,0.82857137863923391,1.9872005190640691,1.2989742473228714,-1.215452842049046,-0.18678755228723754,0.74593772494510624,-1.5414905825357375,0.061092915274711779,-0.32416795861170056,0.32296743614038803,-0.33055254087343466,1.481824674591457,-1.1561395408206803,0.7069094901470977,1.4132379011312675,1.0524634230194907,-1.3761603568569574,1.6832925023898913,-0.38633222523440247,0.1525300360063695,0.72494011889618326,0.51725209807849115,1.6623277792997322,-1.8336102719575216,-0.28640115920519504,-1.2732069204902308,-0.56823710116708526,0.84292873593183648,-1.2548619621688788,-1.3969177470528138,0.19190216352786038,-0.919053274576577,-0.41212726682989276,-0.17362247834616462,0.11885639413672333,-1.3717127276452783,0.085091053556827168,0.87808424554676,-1.3248824446112302,0.42958210785941092,-1.2953213524517238,-0.24248176731284787,0.67083174828300418,1.4214784392022892,-0.14877477621136914,1.0610102857747163,0.394300754089165,-0.70331163644013528,1.2878430538288517,-0.360931690019058,-0.19744054889187246,-0.27566042022693915,-0.095595387340786014,1.8168631940227296,0.18019123849467911,0.73832152611614288,-1.7451122904872114,1.4182430298152582,1.6645560188519561,0.93981737349639538,-0.94348747618193152,-1.9133058357580126,-0.052351326706051582,1.2694694061155754],"Bias":0.21908088364595588,"Output":1.0,"Threshold":-1.8119975197184819,"Type":"A"},{"Weight":[-1.7521779666432078,0.35808041056528728,1.9490076005221382,1.6392389478344653,1.8040623906087423,1.5538435669400932,0.093771846077298715,0.91900487938849462,-1.1558068930896961,0.53704467906479,-1.5745172368243883,-1.3220908079864882,0.23464241762861715,0.55820392750119963,-1.9590102210450033,1.1816272415135183,0.88700776728196429,0.34513648149796605,-1.1484708729622226,1.2826046809938756,0.63011376437736377,1.4224472099088352,1.2352227043524491,0.87596436165085256,-0.21371912873057619,1.9742470495282891,1.0325215417111857,-0.54274207099468552,-0.0077744219488344868,-1.3539737180592368,-0.74071951431255756,0.18688572572290046,0.82042808542979329,-0.8323392210678846,1.9235315713675374,-0.19572106199139788,-0.56403080120870408,1.0436625830101143,-0.905196033374032,-0.54318638764208249,0.552891434427766,-0.012143497360937117,0.80752152894042506,0.16509587045996277,1.5855921672590039,-1.730271851518318,-1.445742035026542,0.92087038183625358,1.0380077636977694,1.9543105717535645,0.57188958794432221,-1.1295509222566853,-0.2821372683542489,-0.68768127760276254,-1.2445315361230316,1.5462177915248172,0.2783421866029232,-0.14163081075140771,1.3155769851596917,-0.076027435285983325,0.5312139347806637,-0.9915186669638002,-1.0541208437895966,0.89586021839448271,-1.7727661895438871,-1.4808193647679033,-1.9103944543331837,-1.4783669316574777,0.25737126462970439,0.19052256932040779,0.36554673983042463,-0.616984574877184,0.564393064269979,0.17543566514525377,1.1434788215642229,0.42216173672217971,1.1944009322647009,0.65052435577405832,1.865131489869734,-1.1173347705590235,-1.300816159369804,0.061362435138487381,0.30765825431219218,1.9532737396439881,-1.5966067442654663,0.53216469964578972,1.5652055924596291,-1.623885625798202,-0.50034413191331273,-1.2179325684988558,-1.0991299438708251,1.5628524979403489,1.5833485535585596,1.6500370091060348,-0.26364580114658265,-0.51705958811429309,-1.0652437466500531,0.45716825987080512,-1.1725305613002417,-1.24796609359233,1.1817937862043242,0.092041616370921009,1.1157337166907888,-0.97627300348890622,-1.8660797550650685,0.97716753323430527,0.45721587466877711,-1.294305441106812,0.040214122291754251,-0.12398390757105493,0.92370255986400984,-1.9564236104285455,0.92647502893883482,1.1650869823829675,0.62547861348161415,-1.4523549282235815,0.15964587412758058,1.6251752565732109,1.6242977077487377,-0.71101340405224511,0.92562061498203363,-0.46568827701997395,0.85357945172748506,-0.57143510066505288,-0.03271792923692507,0.42742357702340161,1.6902353799390772,-0.49055655602857312,-1.5489443463966923,0.16148821551422055,-0.51138277655066111,-0.32277656734119009,-1.6060876676841116,-0.61349909688043369,0.216704988021732,-0.33310119171305619,-0.21466239831161804,-1.8097558877476285,-1.6570119520914797,0.88997874171006419,-0.42260272913733621,1.8804298173079408,0.61081305267792807,0.11595228622478992,-1.3841197187472694,-0.1059892131509208,1.2516363967450506,0.58577998475440785,0.48518393490704881,0.71246021739787446,1.8052459470020823,0.098234967374352333,1.2194633107723032,-0.53319216265026115,0.47177204092581371,1.3439976271912446,1.9225423950341263,1.0190718743777003,0.95834581795377116,0.7467978087937448,-0.62416916649051446,1.7712267673440403,-0.036353684498511174,-0.64224916086171246,0.21158043770658797,-0.83757316639533874,-1.4022046660083367,0.04377481576231057,1.4903851426161756,-1.2454041797879172,-1.176253912586837,0.412886795780103,-0.37695594149499939,-1.0595852951796658,1.1866316903320291,-1.3265103471123196,-0.10131103177615952,0.16238764029107422,-1.189704930032466,1.1850087082409342,0.017225264579628391,0.022706083265461918,1.4458791387481051,-0.59669570000688354,0.068971405769219452,-0.82161788401269265,-0.030634324080606179,-0.39897845610928639,-0.1835376276557974,-0.8813382922119174,1.7737072835553938,-0.31307871747439675,0.21175026647362416,-1.7199067844636304,0.026449062873818374,0.96277653843293742,-0.07546926013914379,-0.8909592017954957,-1.2999237642157469,-1.995591377837393,-0.59525691838714145,-0.52919385162108212,1.71490568840639,1.7936661261104354,0.27073567163699097,0.6783213271367462,-0.89196860924920474,-0.996847604865603,-1.5247043923124226,0.94986784572241245,0.51859790483424351,-0.12847080204098982,0.021328701647617132,0.090423634317900792,-0.22820718736769968,0.9087442396715022,0.79044817890527108,-0.673997364320791,0.40397016350364789,1.1265133242711953,-1.8396304211763808,-0.53817435192790564,-1.759129499904406,0.034442151912693841,0.31482021432128748,0.92354645157398041,-0.056903594199988694,1.2927273992880841,-1.5235818585025063,0.83098652252507721,1.2243527039998923,-1.2543030681574268,-0.15185806860768142,-1.546550748658623,0.44111145960218812,1.0685113589598383,-0.64850863937684733,0.04533274271599147,-0.03993858934377259,-0.5369043324780205,-0.97087989228120075,1.6937005127285145,-0.86261081828857344,-0.30432150259349566,0.64703660581588585,-0.0383921368226372,1.6513744777307728,0.21841479754932935,-1.3527624473687085,-0.702377084038396,-0.66138120119524246,1.4429587272195885,-0.43859535941788708,-1.8706281072789004,0.88862199098273287,-1.6941791044986709,-0.7702005592967387,0.49077845294530453,0.78095262650444752,-0.97945243538331828,-0.20160640171454591,-1.8114258590207555,-0.23527047700959747,-0.39518576971962394,-1.0707368259647567,0.02254918311841303,-1.7150434868945943,0.39213654696575206,1.6965581587034082,-0.24594142951347942,1.5595303902214068,0.84474296231974977,-1.6443913204802159,-1.0479619945622805,0.80484775025623279,-0.27677178116364942,0.6414566722891557,-1.764701165614976,0.908435359554568,0.36630033904979942,-1.7013809679548166,-0.841095704045657,-1.4029088222435251,-0.61403691331578281,-0.891710253847628,0.21306714984265496,0.15919550880926919,0.4967643499824983,-1.0184259223837526,0.77455196845091523,0.88946839556538881,-1.6787021587037958,0.093288558695134083,-0.2682267139983488,-1.3467475666416564,0.54762599802814693,-1.7298989052557847,0.926033033489265,-0.30827746461531036,1.0329203840964103,-0.048229399159657405,-0.76132731640773232,-1.2516092471785887,0.55635409548708914,-0.83428910506623288,1.1594897001793094,1.3213531767583235,-1.062375697801996,1.0415235299344747,1.0817501540676457,-1.5040148242861102,1.1887338530219784,-0.59037604303582381,-0.61063865507516946,0.87269734352486994,0.81276321169583277,0.64367674973033218,-1.7515161762719584,0.10462792036339091,1.4758748204800649,-1.1475377637648665,1.4543882731601543,0.049243199661953008,0.66008065392267,-1.0239531076624773,-1.2152520451765749,0.15210057474348615,1.275745756586895,-1.4166265630240675,-0.5130635958691423,1.4575055816478586,-0.87269599171015244,-1.8376755620528364,-1.0539813353931444,1.1259219046337168,-0.033634546381309416,0.492942426117576,0.32946250137382282,-0.35844962513467737,-0.16389987159701991,-0.52793406626579076,-0.098993995273017221,1.9685384668263319,0.20610706890286262,1.7838240357971862,-0.097903297328345129,1.4380831874153033,1.9151446520887059,0.29832673738632653,1.0024907006893729,0.84099699689121765,-0.15824667371727835,0.31835428733302029,0.059281726395376877,-0.5986650185536897,0.616636672344355,0.838175123947754,-0.90533486516463335,-0.407928492132541,0.93357106434813275,0.80901608234691247,1.0662478017929233,-0.73801446274761784,-1.4766263866222587,-0.17329247583322816,-1.7957359886708371,1.6478358207493256,1.1411427627974855,-1.1637419272045335,0.0863055596529998,-1.1111993822786954,-0.14181180107025976,-0.061299596941703838,0.7636148644441807,-0.19126716608473432,0.85585339057997489,0.10967811202149758,0.58656786409512529,-1.6931746023209646,-1.57782370949994,-0.67081886654292178,-0.061411896497195723,-0.671010596058802,-1.6518732382226145,1.7637525535019827,-1.5571370960217377,-0.47417322475191814,0.32980020266482635,1.5951728241495662,-1.9165402743576747,-0.569426812613116,1.5874846743361486,0.21803706289177624,0.79817257765595473,-0.27347014205226206,0.58075119582039836,1.9803027305660317,-0.0415779562293101,-0.30420756424041828,1.4303735864490148,-0.40235099494566717,-0.036157692799418051,-1.3050194267672577,0.81891513979943253,-0.47378919902492278,1.8801306243427707,-0.2700030572107075,-1.8165390751401609,-0.85175047481979727,0.62843247625438137,-0.74500242562266172,1.8853532000842286,1.5724838839715738,0.78839627270977786,1.0275223194749663,0.8015721825890112,0.41492482387224427,1.4019901144327549,-1.3025790524215339,0.65867798899238839,1.2956214450745014,1.9998963661491387,-1.2914172500797627,0.090725633357989555,1.3969993122839366,0.94378605109815772,1.6044066080844059,-1.4885350984933483,0.44837106505798685,1.2155141025853875,1.2958604597001617,-0.65662338801502418,-0.58448910088487382,-0.63511865180742522,1.1111389319929943,-0.50218018633415,-0.023099177993414655,0.89178680763197438,-1.0672608168624151,-1.9576450697880448,1.3522019313425766,-0.14574224788031653,0.38706744506469348,1.7164994886687488,1.2965016399028255,-0.605272409787994,-0.38311075157630747,-0.56317129384873965,-0.030748697943402847,-1.363212279678887,1.6008693257350797,-1.9771205708277972,-0.82775821668457161,0.14187928761443081,-0.52457715737644639,-0.97377400797501856,-1.4250550565426494,-1.9291328321812362,-1.1528742718640128,-1.3765686076956656,-0.41633794382975342,1.0243662349061884,-1.2037016037868809,0.94190212476155821,-0.83032261735309043,-0.086269899486223989,-1.3311588947340654,1.8286443687177472,-0.88774508931103391,0.493812077908689,1.6697781624597394,0.32674801731563552,-1.1058376315542673,-1.5982935389495889,1.331357737691774,-1.8787264413566918,1.3294839297092911,1.1532699651565728,0.36936347669426528,0.4957108385840947,-1.1787881269952227,-0.1362754557683484,-0.14455823676872914,0.75482797909578214,-1.2028935771448972,1.6583386313441857,1.2647423684898493,-1.0925753075129236,1.5123931893670899,1.1876699734421772,-0.51890393836372706,0.84405508397335893,-1.6816071102775667,0.53511113418969858,1.1783434074271209,-0.26271295839115649,-1.548532234294588,-0.27273104385007013,-1.7480582649577681,-1.8617703820866396,0.78721702042371833,-0.10862719179532832,-1.324239214567579,-0.96945313502543284,0.64015487248139769,-0.56375676512893147,-1.3886174584685906,-1.9090335350060061,-0.11615495585599217,1.3560481730294638,1.2804983906822738,1.3741499457387953,1.5327058320551674,-1.7334225660811282,0.65878926077975852,0.8151178784658808,-0.53126558965596637,-1.1725340854248656,0.75557967589962294,0.91171179707707439,-1.5112333258200592,-1.3420058709299219,-0.14801831969433382,-1.1607919098626784,-0.26990861551366208,0.10159565233699786,1.7578030898039243,1.6489127109055,1.7328748475267566,0.23600883059483435,-0.66738487073125874,-1.9311336092330205,-0.22346835213321883,1.4416525566213077,0.61127580451372809,1.0437636242917567,-1.7343544716641095,0.32408327903788692,-0.19762177308910622,0.32647414823364179,0.80349742192937867,-0.62190388451419021,-0.780358582167122,0.69359672940038,-0.64786530409374521,1.8335744570165753,0.7039695227071503,0.60251422347618,1.7097887693484259,0.331456829948098,-1.7885283901302742,1.657666098167033,0.71879681419525143,1.7179576045451488,-0.43797956299408319,-0.16101396836387649,0.53689929402288961,0.82988897895202474,0.64955434885320917,-1.3233323578365763,-0.37460205348888503,0.59346365094811826,-0.92377518812370263,0.6125667768589067,1.6129208540604081,-0.60059413807494288,0.84418451359690394,-0.10903840610247029,1.0321253086589861,-0.51072122646063622,-0.20914556375199256,0.36917884758169706,0.32148281406680246,-1.025975409441616,1.7748302928054844,-0.60014604711911912,1.6465375608049975,-1.6008340956647107,0.45279718677177883,0.8680137837622377,-0.772106609433939,0.070279794777873938,0.5327983752511436,0.444986380145413,-1.2197097592147577,0.79625898543571072,0.52587289853294994,-0.99813846824604013,0.64310485713328458,-1.8485154397080259,0.21908776286015663,-0.937517025944552,-1.78080261674747,-0.71080885170880181,-0.45742696638099245,-1.383984667893492,0.54197388260717216,0.363768465055045,1.2288409635558915,0.64925006050581568,-0.93427125876619066,0.8139852223982964,1.9600203241966758,-0.43833158569798419,0.32475581873429737,-0.053483937968278994,-0.95080783774648225,1.218532705781298,1.556335828991763,0.51527311956289834,-0.55627901691770132,0.97055968687429994,0.56750857390813,0.25896202610291624,0.97803329163139363,-0.37700482568564109,0.57015476809821786,-0.52239197051263964,0.885111543762084,0.033406237110379176,-1.797954570407958,-1.3301076997677366,0.95547429480684765,0.20257330974683807,-0.37631762091830256,-0.13099500217055671,-1.2014932814992467,-0.73398740746033719,-0.95375244736380527,1.0094734847342357,0.67393812196046965,1.0707548954853576,0.818413298026851,-0.031755615273376669,-0.93692847478060437,-0.66926666473470009,0.877515689878499,-0.24452382616909407,0.29468838791115592,1.4655053454756295,1.3100850327453042,-0.088725351478776554,0.70302792578145312,0.47742695476739971,0.74356631503606518,0.50249908235971752,1.0057102934251121,1.3785456285712057,-1.0280117763762444,-0.64886693884565816,1.9939165841759725,1.0474903914803826,-1.300807572575662,-1.0639242488257235,-0.43674169873667024,-0.02895706258898452,-1.9096430223014407,0.24415174603655565,-0.73395816643441014,1.1192249800633753,-1.8020893534655169,-1.0511510200105381,-1.4051930692071064,1.3026532806934106,0.27113190026540851,-1.2550634552049746,-1.6773117406653761,1.4312531782459717,1.3101780728018739,-0.82383476869818273,-1.25450528777065,0.56937984776188622,0.39091713279062734,-1.1224329910461943,0.032832657002300536,-1.707139363376023,-0.068325192699360215,0.19731563664847784,-0.0453508673446954,0.69156118607686867,1.9285690523351398,-1.7196079100107811,-1.1390310387425269,-1.6596087215745863,0.22973652660368771,-0.54158700748420641,1.2118444606716952,-0.82188141663646386,-0.791372092576405,0.33401593488362424,1.2632149230983178,-0.89885913901909209,-1.6235533392166501,1.500267591094723,0.04496223760999829,0.5949819975509224,1.3210197590855044,0.85693236573456444,-0.053369191500064472,0.44086586983914744,-1.1180109954988635,1.9019559304704683,-0.46765581074527263,0.020862692045449688,-0.54605018745458223,0.14778114210245263,1.8111913687601646,-1.8906652628866327,-0.70307480483459073,0.41160298623684932,-0.47196206367666,-0.611708945879577,-1.8785613625676192,0.38660869020345079,-0.11436167430252064,1.5582234179872199,-0.5854650689686951,-1.0148572544636472,1.2463744372345387,-0.10353529079749028,0.43354752959383069,1.7056630457312161,0.58623919680772318,1.8689999151364898,-0.63246744434929791,0.99077562568279731,-0.02374311630788406,-0.31538522165053773,-1.8438372238743293,0.30413208264118619,1.40220898920773,-0.857214144830226,-0.857670479853484,-0.81673116368089382,0.71157868332768714,-1.1367086056325158,-1.0308689470546641,-0.28035964521363366,1.7001987545286301,-0.84447585338818643,-0.17006881915501726,0.893312051376939,-0.1905681366056986,-0.91200970993936514,0.15200617078319478,-1.9773823879553854,0.28256808513895049,-1.5448871085163611,0.78487461818609117,1.8506162594308222,-0.36720274219624821,-0.19713184339792078,0.79227364938346367,1.2333647409609354,-0.75578397454497592,-1.0656866464138435,-0.5336030435439213,-0.39707302832839686,0.57230550543046821,-1.2579162936927362,-0.18845547418503816,1.8395488950608061,-0.37287636514421379,0.37856236210957261,0.17703802565906102,-1.0467447720220058,-1.4781656132443648,0.8364543713799,-0.39403033181746983,1.6754348984339438,0.41359187029935063,1.0117007545250005,-0.7501294653630487,-1.0159108466542843,1.9218343942993479,0.11862065089802276,1.4363065750507205,-0.7223882017295753,0.79755683187281567,-0.46533765944900818,-1.8810694817831133,-1.3037318975216392,-0.4866332786561145,-1.3228009470378983],"Bias":0.56805358853566157,"Output":1.0,"Threshold":-0.68229960216316377,"Type":"A"},{"Weight":[-0.5214624141653883,-0.97542011748320423,0.015504867936614321,1.6941538470304356,1.6778016722192064,0.98631050576749768,-1.1520009670449096,-0.42594569033288654,-0.81960698640945218,1.0514295338892516,0.048322483621396864,-0.38885853542078219,-1.1572475056896208,0.053011127306619166,0.79174708891275669,-0.75504898267191489,-1.2711943319398884,0.64609347500190772,0.078563415511075332,-1.079981450727201,0.1147463118493306,-0.98535458506647178,-1.4175169334828466,-0.99185002962970181,0.85689056914154937,0.247003325958272,-0.9113132296648403,-1.18538694431383,1.0775878457277257,-0.68061427151812914,1.0486361966112798,-0.48703712268558141,0.60449803370693478,0.0977275590867398,-1.8348882774984876,-0.91188200090153593,-1.0585331315796509,-0.77579947355589807,-0.764072396857232,-0.84378931617540731,0.98836720408330092,-1.8110362169384193,-0.55050806074892544,1.6260354233095589,0.44679190975580924,-0.20775950849417568,-0.31389082319284356,0.81849125221248653,-1.9163373335806362,-0.87952866911866168,-0.49014768353204596,-0.1434966452156643,-0.855984639454404,1.7458348235794503,-0.47126292878355031,-1.0281083943394982,0.17487216469592992,0.35655949211519194,-0.2912398128406628,-0.27324958774616215,1.5471307623885249,-1.2365454864858396,-0.28435138160565465,-1.6785239389531892,-1.1921463195197966,-0.53963157524803262,-1.1388564664585779,-1.6578198632494638,-1.2637530040292782,-0.17574314190504126,-1.539215964981921,-0.63568909868397239,-0.52603053761897867,1.8902851826931748,-0.45910108285448559,-0.4024442315113006,-0.35134482679485579,0.31209715935964955,-0.97624444355081974,-0.7698347912029524,0.67027488032834359,-0.853217603104756,-0.31231680254987271,1.2549746260179262,0.65984234803348873,-0.84515353296657725,0.711760368995257,-0.39986730688245375,1.8259790967339553,0.615805269505738,-0.71296064681977067,0.51949323807819436,0.7832976567743104,0.28621689899823016,-1.0446547470263461,0.79434831946373952,0.558502205907601,-1.2093139305754164,-1.2924190781975256,0.27353747168313125,-0.28072521202532813,1.3652430490428782,-0.67303521496850771,-1.6504530905049542,-0.26981770399483745,-1.1657394660477243,-0.33089233787306227,1.5733715107540469,0.56873600423177129,0.78837023269047268,-1.2671287650671457,1.0361872562375794,0.99394505424143054,0.77968589439042191,1.9052554219519977,-0.37461129127750703,-1.1015906841967211,1.7241300827470281,1.0637434809765516,0.51173027733421428,1.4820324962409366,-1.9976727142919193,1.4420149975651944,1.6088040469255316,0.67866606203777069,0.65641579714436826,-0.733204053487862,-1.0718270965487822,0.59268784342517056,0.88737465389416315,0.49939408793551576,1.3795032684595805,1.2918410987089581,0.056896515217095822,-0.6906709449555124,0.46426565442898571,-0.13890172717867033,-0.38425633463406417,0.33566051812873238,-1.7353323771317175,-1.035843271313162,0.83345456367053772,1.4754777734519347,0.8671513997796696,0.83555533114505187,-1.1777657452867207,0.76954414079410238,0.046757181080410756,0.923616513108656,-0.31285317640884452,1.2719051648266173,0.0874359282140787,-1.6874056419764671,1.6993064674079914,0.212197697820234,1.6113273723103698,-0.835634124214125,-1.0745698879820154,-0.63712530147150415,-0.22575732982985552,0.67307263964231712,-1.9457373562947555,1.1063013966690289,0.1494663051094236,0.70253038345953911,-0.56840301052127185,1.7597583736105626,0.84613978436502624,0.030384130790077291,1.47349474368314,-1.2422237169194146,-1.4207185718327382,-0.13069024175903304,0.42897057819539708,0.37760175502747384,1.1329582530925788,-0.93536914928600623,-0.21335992762509737,1.1092499157238636,1.0636468366525036,0.3521219420838736,0.46682263885942421,0.20613543186622468,-0.77686619332030693,-0.62186591821809578,0.22903233160219724,-1.155916786054449,-0.15990540648806154,0.3187457261694342,-0.89537649317429235,0.077336673544410872,1.3035299644356266,-0.70341072543683025,-1.0943545601770071,-0.77939840535605254,-0.21967506465486958,1.1178161963437758,-1.9791803490273563,-0.57242446885091458,-0.52667721292314917,-0.23427921800607787,0.27392346691646763,-0.67137191008236408,1.0200326671503097,-0.8812876695612607,0.19475843580195618,-1.7593271898847664,-1.2412219546927241,0.13565678947402948,1.7641317414884137,-1.7010565749141651,0.5418915731328966,1.7386854960297633,0.19626934556116793,0.087243386608901075,-1.3728207719385721,0.11393226540791071,0.24535589793015095,0.24610035831392757,-1.5701391341025657,1.76763203915564,-1.7487429556198153,1.2700701770320628,-1.2160253961616081,0.34798762684128581,1.2136814870586066,1.3090966361280676,-0.55995241526279238,0.96777644146595909,-1.9865856934276343,-0.021373736980370615,-0.82775081732671274,0.13227388605193868,-0.42375856564555248,-0.34480518025569851,-0.2029598935986682,1.5869188697947743,1.3479529089983333,-0.023908990089913887,0.2450698550069097,-1.1004245437683651,1.6263603603590093,0.20080666346513043,-0.13587881095515514,1.4766389282195078,-0.53566860603519884,-0.9214186552196828,0.4635789722500272,0.73560456779580785,-0.073921065384045193,0.61769799264971992,-0.71470844359822028,1.41998708779923,0.45005672120026152,-0.63583095634162012,1.9954737033673906,0.90064514563448972,-0.75710849059727436,1.4528585796796174,-0.20011496468899451,0.014538118309650183,-0.00787221454450493,-0.31125115617702304,-0.069904465056234766,0.0755003819128034,0.67712692295998655,-0.12187733972532544,-1.6374413034121698,-0.68648041696676754,-0.70238292269510327,-1.0270476655755132,1.2644611034842495,1.937586341024184,-0.01592673315476939,1.0062103192350875,-0.31895148106405324,-1.4892638211554212,0.7129666035589608,0.72523874450718928,-1.5086881925858036,0.82916313727813007,0.80707109029579882,1.3908015866837473,-0.89718516562002948,0.32377963929845927,1.3853996633354879,0.741816655525154,0.90081027937159408,-1.5915835101467482,-0.029444732716979782,-0.52516645015283325,1.2215292878549215,1.6626730894961734,-0.60567952161919314,0.87489294394612926,-0.20843480909635992,-0.93484170370960684,0.5034211278268701,0.91412444039090746,0.15518064588782404,0.77680594062051089,-0.1811079526348543,0.20897244322531508,-0.13500949281035424,1.0557175143881317,-0.89933531262291544,-0.63411590972524878,-1.1576114814531111,0.57408490354822,0.98002934849662338,-0.330166648717791,-1.7648460342385088,-1.1087034117005317,-0.54625196624663741,0.57121344615776382,-0.48082970291414751,-0.12363947095518912,1.14472744154964,-1.6011080944915805,0.98442588538457676,-0.84493889792120969,0.47085915993473471,-1.9222958795364462,0.15510232241596206,-0.94898754495614557,0.30096691395201114,0.18742333826954649,0.68897902853564774,-1.3677994643188081,-1.9770356658739203,-0.26141024765624216,-0.23725970007351588,1.9037986434548158,0.25926999340731183,-1.0899192649358507,-0.91377484189056557,0.028751833814313482,-0.14412025648361082,0.433152030598443,0.744476249869578,0.69276125807909361,1.0554311494601105,0.4845185085651551,-0.780195853104906,-0.22692419680623532,0.10329905878906098,-0.53716215248553167,-0.55005979749842537,1.8470599059234654,-0.92578318851337915,0.24931395059652345,0.27707311419168162,-1.3626439549786245,-0.056470544103752074,1.4258971211621057,0.77557077109199068,0.99625299451698224,-0.57555945523807761,-0.45070407150093206,-1.2572874819049786,-0.5111027876752674,1.9954347368308505,0.19949302552244319,0.075548713130666467,-0.0329773016427537,-0.14914519253612735,-0.30462209728099565,0.91716350750865583,-0.68158326236604871,0.20448140530124359,1.4885798904525953,-1.274608360265665,-0.37631049955659457,0.56213899634878084,-1.9679620023667634,1.06419433877533,0.72168170394570641,-0.55530073612709563,-1.4394328815114839,-1.3882772342247316,-0.0596777824962873,-0.67291853557120174,1.0310356947737911,-0.15548103635920252,-0.16225572229002405,0.68043813746442927,0.16761665985342877,-0.26143014099748341,0.10309334265801572,1.9957401715199183,-0.35009208110863904,-1.6279196402188016,1.9395185205803807,0.26570990591430332,-1.4231304099272553,1.3954276080425725,0.042058071141158226,1.9441102910526609,0.22092457777863594,0.96311572758633268,-1.1670537433433599,1.3804231357669567,0.50588221685303481,0.81981607972170023,1.8283013067340019,-1.3855350796997246,-0.34538375559062523,0.22100237586337543,1.9687229599658043,-0.014725248336198371,0.030490781194759009,0.42419443636862303,-0.97038145664631459,0.2707159846419076,-1.6418571246982818,1.1983080968252886,-0.07146718496059401,0.49408226576358194,-0.71549693248956325,1.1868140854927776,0.44638837056531955,1.1555507011504616,0.59146511366891907,-0.65762665760776584,1.1005040379709119,-0.13621413807208382,-0.80635431756022946,1.1835293169987988,0.67866107014876853,0.79136787112400309,0.38900378830218857,-1.36171753116032,-0.29665860953981721,-1.3246184127985585,-0.4133125063559564,0.2098928701629712,-0.45817473412406384,0.58994238501877627,-0.16295745921109683,1.4112270619394154,-0.066366639950483419,0.48440436540842269,0.31936744336009371,0.99313076352380714,1.10001184912399,0.61760346340835248,-0.22783848816893926,-0.66154518620415836,-1.339522868087293,-0.146845601567461,-1.1915324196180013,0.11521156626530527,0.46521816144940376,-0.9779361314037518,-1.5320703515466629,-0.45747841822797353,-0.6452204508245053,-0.998233871067983,-0.068460762532642438,-0.26811091733659209,1.0917399279269109,-0.54157506085656348,0.912059453507913,0.18756876678893175,1.1635561842301656,-1.6133683680618967,-0.30932102095573311,-1.7055789677917859,1.2997286633121448,0.62310897029149748,0.77173601406241576,0.19989580437536147,0.77150891501061092,0.94621784953457211,0.21168054091356714,0.17459907165666178,0.23615452361346911,-0.77739445621957737,1.0150769907120041,-0.1924659250967512,0.32897872027427832,0.41260960442776307,0.70104671395432527,-0.13939150113525878,1.0970004885909148,1.3868511269739137,-0.2268756433515231,-0.26685332193358496,0.37426853069303018,0.9966360661185516,0.59332819333920628,1.6279715372379737,-0.34233143720418752,0.25030943425386659,0.2556084106935228,-1.9461774565028853,-1.0301036345912626,0.38779735366056423,-1.2509297203509742,-0.242038861961122,0.59333051209958754,-1.4969518834245168,0.30662059272889541,-1.727364875249269,0.92608057533484778,0.48657484760872322,-0.14174688846885544,1.8357417619953593,0.84224504551023482,1.9889190569468398,1.1049578036670376,0.18531657112078581,0.47250768874975979,0.93691287559313352,-0.052312915936258142,1.0989654751780749,0.31198790363281448,-0.087660412461338766,-1.6687338145769823,-0.28649071337957444,0.11970238206894235,-0.341239215033706,-1.4429652241258721,-0.17841460181020752,1.5325713267235885,0.026854408451753853,-0.58021539901626085,-1.8455014358486521,1.044611634037975,-1.0731532249241849,1.6093884956135363,-1.767745502184958,0.070476735043561334,1.8068432229602909,0.2041258505564767,-1.1192048107223245,-1.7179557344494181,1.9190420321743198,-1.02570263437261,1.4623531901567954,-1.0144816357709847,0.74800162644076118,-0.414956116310766,-0.043673824539256334,-1.8628816492217042,1.6775519064057396,0.35906964836598831,0.826945101296038,1.9959993418287483,0.20709060490665293,0.068624966198636728,-0.75890734490400114,-0.68153228502791952,-1.0729810590031468,-0.47937169227719845,-0.17996540883554393,0.80498829808507621,-0.3523964928357845,0.82243924928942669,-0.37241266592052424,0.24251942720381525,0.62005411769265972,0.16555278476586233,1.5370823198636447,-0.67868047457112368,-0.023950590950616531,1.1867513876346645,-0.91720182277968654,-1.2430637587062381,-0.46186674326279503,0.49553759834608646,-0.7653667189950899,1.3136669058882013,0.21907536748055156,0.58035830175608072,-1.0062353736750014,0.93841563115753956,-0.44077009137406487,-1.3286846651829243,0.94935003291727038,1.5590194750386381,0.31666807006889419,0.10083208656908571,-1.3068593588223958,0.051518693854066072,0.74335768387809287,-0.14986306435887853,-0.88865556126892586,-0.16434443097763896,0.63664474427829376,-1.666527896964237,1.2909703288650936,1.0808457173783546,0.98781745880274907,-1.462186248722573,-0.8324983594159121,-0.23776818182681131,-0.0071182055431968649,-0.73133126913166191,0.58868664055676756,1.0505440904179328,-1.3199403934739253,-0.23454209334894172,1.3793038145542629,0.11351271799696275,-0.0637204313831034,-1.0102048583710028,-0.0757508082668068,-0.96385991548367778,-0.38505607581932844,0.29073833827429374,0.47632670145310768,-0.26937128406454391,0.26174815514788397,-0.79191116606439982,0.5042153707201199,0.14481495362465041,0.24747490289037805,-1.5618511566714621,1.0360595634433252,-0.8535130745049162,-0.044435453621873566,0.59971864302047462,0.61265017586417958,-1.6172067261031859,1.0148780848900221,-0.1688165557556513,-1.5849185891379223,0.032151928186487266,0.48871792786005563,-1.5547635487128344,-0.20307612335452641,0.53090022715316165,1.868328452048976,-0.43793318277696175,-0.86017461813063112,1.964458882792135,-0.88373388548322673,-0.35479952877145238,-0.14707756887519619,1.08350999610662,-0.336271731805183,-0.31132422052851128,0.94258226259498956,-1.3027176913119756,0.75416511879496517,-0.065401029803511257,0.48148077841917081,-0.92467510091358562,0.010381121193236198,1.5928482057493403,0.87808973476201757,-0.35033853748188748,1.3402511054138893,-1.4919535273182922,1.6069893201845646,0.94543699032880224,-1.1019643317451533,0.49264338076703407,0.37680007325700116,-0.30952713187296266,0.62125240015855621,0.58985226721961626,0.45635930513677148,0.86467187985064076,-0.37821415293878613,-0.32651146360801608,-0.42238412258326263,0.2053375509941659,1.0600036687962726,0.0014025415300404354,-0.76123832620737986,-0.10099710808181994,-0.042556465623228013,-0.56800488129630922,-0.00093057868114238,0.390033931653031,-0.1029714951771179,0.66449443561234256,-0.50161017378634309,0.7050392199939598,-0.80995690394656594,-0.81536230017215128,-0.54002364326924379,0.22584604170845818,0.56412885562243353,1.4253452380305833,-1.1406177499520676,1.0610672519826643,-0.0841001659092028,0.670070335755623,0.45009347165473435,1.3639977459628123,-0.061486813268385232,0.2726805574599096,0.52912191591068258,1.3301286036740074,-0.12828622857494576,-0.793576490619954,0.57025935838825959,1.21426294707426,0.28492534453278662,0.42382701040423809,0.4386611960077012,0.96122449521148778,-1.3880645704400094,0.23787891234114247,0.220348869938624,0.44157206962889617,0.99486469966120317,-1.0610205768891707,-0.86427563562257,1.2679382205325824,-0.043842388337404725,0.32416049871787456,1.28893975414752,0.13207286229919313,0.27827293159359723,1.9178205057595954,-0.45294162733617305,-1.2855416374679383,-1.495966678192358,0.82475508706399936,0.46207408535390826,-0.18572211553609108,-1.6499834152171311,1.3094166383656751,0.45730010161981927,-1.3628476650281098,-0.90940955044208527,0.48845640156113368,-0.028932416228429625,0.70439588776994311,0.927734428168151,0.64214628685365716,1.1512588530162653,-0.95871498387247089,-0.72726356365124856,0.23073002613649241,0.85080346271898755,-0.70341906903936491,-0.63536936539940969,1.2802287523077003,-1.5048673243750201,-1.426091282797787,-1.332290226282687,-1.9726018439850779,-0.33190110533353928,1.7455175108022605,0.094554015304685574,-0.732640760360584,1.3691603165907602,-0.75641853058121911,-1.5902033502190389,-0.2870958065786845,-1.6716151515355404,-0.22754936210231375,-1.6498560363658965,0.81416483168218523,-0.035497824677963585,-0.909419915509373,1.7384159396115764,-0.14782912570416418,0.58390126974969236,0.286479224147731,0.92033793571973821,-1.6726247368718612,1.1213103323808453,1.3965298679641123,-0.17674500922520881,1.0727488515306025,-0.199428522120895,-0.77765590826871622,0.0043914606815165236,-0.29637485133548036,-1.7318535930159751,0.43477614990352353,-0.12876481720188851,1.792860878535016,-1.0601263563428662,-1.1032080236371644,-0.4050326520367678,0.29852475053562083,-0.11544735362541281],"Bias":0.012206582358203169,"Output":0.0,"Threshold":-0.66686886836163173,"Type":"O"},{"Weight":[0.29861695612716344,-0.57452371068043806,0.018539868303825868,-0.0950874234992487,1.4803047475778985,-1.8877189661784652,0.2659490435691314,-0.47118497009909954,0.024843775678819124,0.67834303559658249,1.4048731249779802,-0.82812125926284175,1.1046582353788699,1.0407473310086632,-0.5767180391478901,0.33765052554088204,-0.82725276091473765,1.5063906551834152,-0.89641158573879909,0.65030929755899547,0.089499141131294646,1.8847284949779177,0.080228064406652949,-0.0752193341381937,0.73601812004275535,-0.0719618935623606,0.2197620255033309,1.1809805961004063,-1.7202608397790513,-0.6638405796437713,-0.39726167470089235,-0.021083830516358759,0.7784934587676513,-1.5103033518000988,-1.7573590314748506,1.1491773869605628,1.3650638795760757,-0.66692886037841848,0.68506201295417823,1.0422728109603157,0.34422510878379708,0.021329949619867894,-1.1041402563961991,-0.38018070574858259,-0.73248548001632341,-0.0346789658231097,-0.25331340835118366,0.087152631528280788,0.8394053237696204,0.77767698596123447,-0.2673213008173374,-1.1457715701059306,-1.2035309016721,-0.47553757972807509,0.27550993220671538,0.14655421401679236,-0.25340582581861215,0.8554394072179865,-1.7899015563493137,0.69328333376594031,1.339359473129436,-0.31084026038220158,-1.9717110078650113,1.7022147326274846,-0.37105546070777606,0.65906203103208072,-1.8681680838894881,1.3612939663516794,-1.4606588182322025,-0.13815246930492686,0.920358696449715,-0.55995581557972163,-0.80995748462619133,-1.13840522018187,0.96886738131257522,-0.23753369698680882,1.3071961193583479,-0.42428816036520911,0.19305890637210377,0.49244929966165207,0.65771972791185584,-1.2613028768735486,-0.33083696865049972,-1.1474943306052565,-0.96531664951020679,1.6578170846485612,-0.8542860717765457,1.5155165304967744,0.48351792361751089,0.89503067121609625,-0.63887019671447109,0.7695131622112884,-1.4324008167872209,-0.8223867955721853,0.76198679523635038,0.37673125107620431,-0.031226416132984047,-0.037747346533662116,-1.1782839797336067,0.59286733837466077,0.479656068831522,0.27324365185259092,0.45377018044412631,-0.95612770519252011,0.419397982964012,1.3935211875445774,1.0653196196375974,0.904739897188144,-0.78749318085028464,0.41416364834372121,-0.14967925481017652,-0.50986537454177872,-1.8753427266494105,0.56280687570702614,0.282852850054788,-0.15122151102461912,-0.27567975980959825,0.52271297934533234,-0.63598407159372417,1.3850208400446089,-0.2308405219720866,-0.36422680614712971,1.7775515000231339,0.1671328872958584,-0.5550247740722376,0.35117779583725045,-0.77612681443622655,-0.048951083817030783,-0.4934797864813496,-1.0895359754047989,1.2337328591091668,1.108612828240084,0.024455859337214392,1.5920065839737685,-0.78818595352963827,0.55699458092311138,-0.024481587488057344,-1.7155922258811036,0.20077120801469839,1.2164720023127607,0.919207466262955,1.215423050902515,0.74258374923029136,-1.5930919067901987,-1.1256706794377744,-1.061326166177786,-0.45656132626187107,0.27082197660152874,0.36852398124454722,1.8550903088669712,-0.868469297824646,1.155227813476337,-0.52671509633153457,0.55288248115819061,-0.51026764628955512,0.25322876509895031,0.74698198519623,0.081161667164956014,-1.0833253092520523,1.117298000976058,0.43201691025496336,0.088555294188463626,-0.54060114665916237,1.6881454864927314,0.64924903337343087,0.86691075676559037,0.85955355822087887,-0.60462033497384771,-1.5302747783857746,0.17042543712318936,-1.1660752851358034,1.3304468855869245,-1.3101779591805198,-0.30973447780578134,-0.052262059553648432,1.1778546390951865,0.073704632964779027,-0.580798223885148,-0.58975606904819422,-0.16755434249879525,-0.83213855318359031,0.21958242751172855,-0.36471503591766169,-0.36022381687547256,-1.1350851185317548,-0.24313610138823216,-0.98887291317287507,0.10980445244806092,-1.3771111068209221,-1.8877491484804774,0.79418143328922119,-0.53467830202294442,0.73637052077631027,0.55165890350549418,-0.146899528637016,-1.4343203843731063,1.17604761701126,-1.346025719934155,-0.17923444747919709,0.2567006076018794,0.65758312431051547,-0.1895843400571422,-0.21597635430096482,1.5202801076324097,-0.045732189922468858,-0.3072149633929202,-0.21761696330160696,1.1030945308055238,-1.2327146638337125,-0.3752740997880577,1.0283362376635599,-0.43052988798847891,-0.030443045761409791,1.0945509516608674,-1.1552339418117115,0.59735777256887312,-0.094992703802414535,1.4145300143466004,-0.27129015653454236,-1.1337733618606689,-1.5567192135177177,-0.93270446682940444,0.53331809655452067,0.38149687386187559,-1.90245760227668,-0.053403697001470185,0.269371125972537,-0.11524724220635707,-0.61633336089613544,-1.5752145217616178,-1.1238922499464323,0.13291626709183513,0.17664635143086604,0.68986851385235493,0.79249656142474878,0.23407119616590011,0.62218208174322842,-1.5928678082269,-0.28888464173715778,0.11627214221110205,0.43196596830709177,0.79663676246844084,-1.1146036829401758,-1.3123457233013331,1.9911411963361974,-0.089671897743675788,-0.0882010316537698,-1.7431245445008969,0.68596851764524747,-0.76254127489521228,0.7951590748481262,-0.50754980207772449,1.3398439415450412,1.4221093894085424,-0.73922401637035628,1.0544909010895021,1.185560168319177,0.6956105907776442,0.54420341669777583,0.681122425329463,0.44019065028521959,1.3089584686369442,0.72052015677118675,-0.21659843290299102,0.32982973016794204,1.03775106372207,-1.3042288829126529,-1.6875458246504635,0.17387760345538972,1.3859057051064005,-1.0312212420831068,-1.2175457619048922,0.950009585800585,1.0901170899579846,1.8699302449216741,-0.14211244503600179,-0.95981018196782575,1.9016628916848744,-0.024728954664770875,0.072052897424228823,1.6434024908316334,-0.27353598818813263,-0.27877801949101411,-0.20170926467769748,0.80588833559578665,0.587919895840073,0.14812679690279842,0.42957171386791804,0.67487954100355463,1.0578338504252414,0.90037855641002684,0.86883358884082806,-0.73362347983458243,0.017650847331458053,0.71226662896213444,0.62082318780982093,-1.1869154493649154,-0.26488755376305773,0.88399607729352825,1.6064781973168616,-0.28605172301691573,1.1524860990449022,-0.28257196130350792,1.5181899925312914,1.0024846536118932,-1.8273257444739928,1.3044960689984708,1.8739215172240145,0.80799050201102629,0.14151920240438612,-1.1816565139133748,-1.0507153268208334,1.1596801705470683,0.94032506409116312,-0.91965921917914373,1.2603980616016304,-0.94585377813589466,-1.5395066251696585,-0.7969989296034905,0.78928643781192909,0.25119655949639541,-1.1060522120008489,0.51056346507303574,0.36139211541106564,-0.8175447887357068,-0.541900982012024,-1.8530742693008269,-1.8684987741841463,-0.2780763703761977,0.69709772432717187,0.89121188544259033,-0.76054946461718043,-0.94162432660424356,-0.50194097706207119,-1.7472362573012878,-0.25578144763399913,-1.6396345908938137,0.023946882236724143,0.29241633605837897,-0.20452684802214011,1.0228493171850448,-0.05510485716169003,1.616240914348523,0.353641481303443,-0.18401461676532147,0.7438221335149473,0.30972998696832454,-1.4339442101465278,0.5024863530427619,0.68906944929113134,-0.3060706063667642,0.78198635055776045,1.8651487696287914,-1.3437918049021587,-0.50946422690035043,-0.036690553841968378,-0.38487744611978292,0.89881318802890053,-0.052613169910671775,1.8191558233551475,0.46871880277465983,0.33212457333324696,-1.0490809348640409,1.6833854595587523,1.5039530748054166,0.73537597397127,1.2274123072751857,-0.13811051374678993,1.0086123528930417,1.7320246546212696,-0.95524372298048976,0.76727249517793417,-1.1863199956853427,1.1920674411543026,-0.042060469413204182,-1.3477187600674661,0.90430850374287353,1.1262879362917915,1.2701214397478018,0.3894230691433993,-1.6686459703690586,-0.46597684475871581,1.687899799872143,0.532217408429001,0.17619959738859903,0.49669761187243167,-0.75431698130179048,1.5709577750279371,-0.091225537513953459,0.58374837533745394,0.88917188300479766,-0.038843983453160091,-0.024354945879594747,-1.3029828757527204,-0.25097219006675503,0.63858796779000571,-0.23624864883546182,1.9551886021882243,-0.39976388141501884,0.88820088975513389,0.99451936085114889,-1.3572470626594717,0.882116326541694,1.0699593636998719,-0.02147945948945329,-0.79391237850948815,-0.72833811618775979,0.88919659465979617,-0.36402940673941253,-1.139336880081228,-0.79585016276494147,1.7267652990886782,-1.8936440161865409,-0.55842510357425779,1.5693211714128599,0.0045761660817612015,-1.4767995519688351,0.096190254248767371,0.637091233691709,-0.38036701447231092,1.6424633747164457,0.60907160053452092,-1.0860664323373075,0.88229347735953911,0.4408697776686723,-1.8819656408773575,1.33198021321184,1.5522230246813145,1.3916499900956523,1.4468964419546055,-0.54125023513790449,-1.3129310045917197,0.23381291433880724,-0.17508414814951107,-0.41058157589779309,0.092972713565906862,-0.042483225018942306,-1.6281319878195095,0.98108295303819837,0.079796257465982734,-1.0712223439809039,1.2201790712867766,-1.7914491928142724,-0.91405598512573916,-0.58980916561084284,-0.4887206398363787,-0.18353162621312391,1.1789035867801418,1.5677796206970955,0.93842553297915732,-0.3927378370509193,1.7917378003670543,1.6957996020539663,-0.81238369588385506,0.31999306023120544,1.8170545046762816,-1.0360939870756556,-1.0917764823379816,0.59428897620844134,-1.2762383088824518,-0.05460381417283966,0.96573360191401281,0.67492632948557185,0.11367741807062237,-0.73462843649770515,1.9826580379077505,-0.39220424922751462,-0.58411932670703126,-0.78289690557070868,0.40698814317909449,1.5432089385252521,0.56806582285466889,-0.98568534617577,-1.6793845331665989,-0.54763220402254564,0.18106767077979979,-1.0065294201516217,0.41495233211431293,-1.1358234654813182,0.63325954910053861,1.49919909960553,1.8061413596412823,-1.6254355887069534,0.18833024296366152,-1.3122811947540758,1.551162477373687,1.2940067124059453,0.41211933196155304,1.0523297298011975,-0.36481477989108058,-0.45854104611023372,-1.2555368175988724,-0.48709531348994711,0.62612053734535378,-1.2625120334909352,-1.1414726827574069,-1.0966327670480278,-0.8709433590419603,0.23233652684480732,-0.54506240973484821,-1.2909182697957933,0.0033979810557318579,-0.12019409314738302,-0.033759543687924554,0.60397124970516725,-1.1054424932717546,-0.73184518829539669,0.067440747533082379,-0.2706234651946573,1.1582891117587169,-0.93260946889995111,-1.2002486443148221,0.77014117258141823,0.37185364327014137,0.28801702395454859,-1.0941579050124426,-0.986926321981906,0.50926706556196666,-0.64832157578706806,-0.69676466132363524,0.15764420952538227,0.30940743084503675,1.3625241291534733,-0.22165161067231165,-1.350673546712228,1.2695532549496522,1.617411514566006,-1.6268663367381628,0.97406269934683243,-1.9046730268302714,-0.85303903509771406,0.83550309344334661,-1.3748874344746058,0.60265109550669638,-0.70781747983201293,-1.0624956170867088,-1.2213509880105735,-1.7894273045423568,-0.38539470726875347,-0.15450584988785243,-0.23889232746506678,-0.86048702516615716,0.46848157372720622,-0.028905446654607259,-0.061254230356427936,0.24005804879973836,0.0710912038670346,-1.455145334571202,0.22873272478055817,0.5765857801663623,1.338963159983495,0.0089784115594712111,0.98710937736691462,0.045077160953114426,-0.053056876464177227,0.28938076565478976,0.039270118828523159,-0.83339676951682051,-0.52384893648214592,-1.9503063987709146,-0.12770672846944384,0.84283733127770821,-1.7751563618775255,-0.5354270455592437,0.39995958717898183,0.046358563944282283,1.8985591530327497,0.0096981485885094809,1.6683793364411126,-0.8568230559673734,0.33795061373987723,-1.1141610295112063,0.56850717150071051,1.6617596045424043,0.60469179628635372,0.5596471584859517,0.0028791287927324438,-0.30416566753431906,-1.5794958866105862,-1.3825388529256633,-1.218102516708012,0.12795071402934877,1.9973335452365379,-0.48196932300085632,1.3386262130637774,-0.99154159845390433,0.35916695946788735,0.021132441829486037,-0.79043322139905448,0.30413292828208416,-0.34102626253898549,-0.15634086083450394,-1.2357089255171405,0.95407839676089512,-0.55006861467848944,-0.04293037301065894,0.176845737815297,0.80119922398645393,-1.4006797295998221,0.51653729962023787,-1.0696267525187511,-0.091065756087687744,0.68070710388976474,-1.2706677344491091,-1.3006975815169035,-0.60957448119743463,1.0706880908017071,0.045219537823097566,-0.49825359165479849,-1.3329610488530999,1.499657867243354,1.415455826984465,-0.65327574098635277,-1.3371813126547174,0.8222023867174062,-0.395895942298647,0.566277939158621,-0.830279194205198,0.052342256089831785,-0.7501967785648056,-1.486085904522839,-0.02483880913925296,-0.58949600860754869,0.695234933260472,-0.85352384059388364,0.49525146395678232,0.63307781081324332,-0.22100993628660687,0.67508998451525826,0.30539255669678916,1.4694985111567651,-0.33583038967839929,-0.42889553794120239,0.97275869873015153,-0.77936167096689424,-0.1559155109133179,-0.86870686936597663,-0.31760503801580281,-1.3056292656528807,0.45442862550468588,-0.65525572696014123,-1.707275371862238,-1.4084831100928053,-0.15918016532305074,-1.7721917684060484,1.7020837272061424,1.0238134446664775,1.0685584317862793,-1.7878841011728552,0.42625375711417479,0.53570531779112662,-0.739787018271064,0.34542295927051925,0.83445572667846246,0.35978909726710473,0.59688106719259215,0.37884782272061368,-0.74279815645087433,0.42551488821651556,-1.2277445286641571,-1.4634985442189066,1.3833730758090379,0.11705490486559211,-0.757350554831431,-0.71165634833993685,-0.77536417999088969,-0.4024343256151463,-0.28394832568427,0.10010479302150419,-0.064968833730075948,-0.022975198935240138,0.18855523139385716,0.021007194193549239,1.1657171524901488,1.471593074254502,-0.025293037300783888,0.54084049804524548,-0.1784261829119298,0.85441631770432735,-0.38318497769450066,0.14819050110031512,-1.081551903431095,1.4949838730948901,1.5142703920203591,-1.0761051549697784,-1.1409681100123414,-1.6988616640208576,1.5779118535937329,0.13234178634935123,0.60289252856881026,0.3352925434407279,-1.460636747749819,0.2967785290893068,1.1152017578087756,1.0879148967042167,-1.4321730991043955,1.0099214459815629,1.4669398402175586,1.3955707528607784,0.23345886926793447,1.1683628648372193,-0.45769156816308,-0.432940120079061,-1.4290235412442236,-1.0181081793355329,-0.057480009585873959,1.2235049545874377,0.85552226512484353,-0.96346221789660158,0.64840315607942312,-0.37798882945347062,0.15986292071634123,-1.1016767486472041,0.16474066589248393,1.0356537136415271,-0.42378528901552093,-0.51774260332702782,1.2426717850578353,0.13885658054559336,-1.1128834835779311,-0.022020660351040222,-1.4608471428327481,-0.85949765092669872,-0.77118610533475218,0.72914474980400157,-1.0153570058827088,-1.9353326670524351,-0.636427690571373,-0.8493502442023485,-0.26536144049156518,-0.65382739466327577,-0.81237573731044577,-0.86826634047740958,-0.87586272828088263,0.27530568681546053,-0.638848479297931,-1.4745009869684005,-0.56209985286095177,-0.76083536947184949,0.84412350824294791,0.49956856598126187,0.39769183769714644,0.61965860501847159,1.485045667497928,-0.86155392735337566,1.9665271919064815,-0.19444911705902185,-0.20566532304774277,1.1278454843572554,1.4809294936624027,-0.73183941706599731,-1.34598538807872,1.0916845496239533,0.97797159896137731,1.8776165060129095,1.0954799424370192,1.2786954172322038,-1.0835189827291849,0.22410538570215249,-1.5323962445987371,0.65513199691434032,1.8982730470124043,0.66127225880570339,-0.359552662055731,-0.40153292864632473,0.939410788910189,0.53302570550377748,-0.13995537820270076,0.17407864060908507,-0.18153152898316344,-0.64299267653515213,-1.182304887069531,0.45892188160630021,1.027842217603625,-0.30529195280933857,0.04108510482641177,0.13908651244784079,0.66806668633039434,0.041682966538557409,0.6595916276143825,0.82688805359736461,-0.60759963030349451,-0.24510130763291449,1.2757251971753898],"Bias":0.34228352706054388,"Output":0.34228352706054388,"Threshold":-1.7223498093534027,"Type":"GT"},{"Weight":[0.4996617153518188,-0.47255967986889169,1.0551546637691347,-0.98698597067535654,-0.7992932278659628,0.29594002267051223,-0.19863944088565708,1.3082833845672586,-0.0018528103837057719,-0.16374396819795667,-1.7116594052462184,-0.12734295526861361,-1.792731659390373,-1.2600112162809871,-0.81830439553866363,-0.6963356764504387,-0.96070445559951689,-1.0924596236867177,0.36209669993822308,-0.26544090515315005,-0.7119750076494995,-1.0616570706766364,-0.13552753167949971,0.21246101810245843,-0.32734553996815607,0.21994215912182913,0.091991723093135941,-1.1269163708793542,-1.9922625124418467,-1.4806864594485081,1.644953319637549,-1.9838362932129932,-0.60073086554218591,-1.0333942040025228,-0.58565301661642866,0.98702452470875546,-0.032440505936946917,-0.54671715075027028,1.7145723792326506,-0.666009034340274,0.99569393088840608,0.2990302770859703,0.0350359423482027,1.6478425840138655,0.184164051808959,0.2667300711696643,-1.1368604689542485,-0.12615793081258103,0.028049957380576918,-0.03162438517046362,0.42313901075308147,-1.16435429414937,1.0653566485575199,-0.18962567215302295,-0.41828790915148,-0.33648375716827994,-0.28816515872635184,-0.45573988857480685,1.4174762160598657,-1.3840650894604927,0.14005810122008366,0.85081289282572126,0.22246371161773051,-0.5879038779940009,-0.58459918321324467,1.1890356841911727,0.050249834568355967,1.0030845906308781,-1.4974554206698461,0.041233644810221487,0.8258035228707844,1.2876773599012186,0.86900024435902035,-0.42745824328436222,0.40304130613217892,-0.7560844650171159,0.24938561592688105,-0.23944536337248429,-1.1073124912135828,1.8924992549663871,-0.54867416552671888,-1.3255271107542921,-0.1108554164463913,-0.90499472577299223,-0.90100933187688215,-1.5944247839946415,-1.5835004186180888,0.020795083614436383,-0.74158090247846253,-0.58427000166115817,1.2945270348780449,-1.0666996869569179,1.1630739174611278,0.33980728608547112,-0.020644384445922537,0.58855690741378686,1.1613511294877861,-0.87358197331129661,0.036870008933762938,-0.70704280338578052,0.37443068124599688,-1.2950957237254341,-0.36075106983829869,