{"Input":[0.0,0.0],"Output":[0.0,0.0],"DLayers":[{"neurons":[{"Weight":[0.59615750126361733,0.41839954928420464],"Bias":0.66046716862379906,"Output":0.0,"Threshold":-0.23155382332930055,"Type":"GT"},{"Weight":[-0.27018310887281927,-0.460637993393763],"Bias":0.87466031679634948,"Output":0.0,"Threshold":0.48732560895724486,"Type":"A"},{"Weight":[-0.032598388396482166,0.68831021510451573],"Bias":0.33910826423163909,"Output":0.0,"Threshold":-0.83770515482765862,"Type":"O"},{"Weight":[0.69073603567235919,0.64853606589536],"Bias":0.36472459526952572,"Output":0.0,"Threshold":-0.70181739130142018,"Type":"O"},{"Weight":[0.27784168733183373,-0.85930580359851283],"Bias":0.79795221602448829,"Output":0.0,"Threshold":0.52208870953046194,"Type":"O"}],"output":null,"numNeurons":5},{"neurons":[{"Weight":[-0.86218850866993357,-0.63105509180159081,0.96351741718292117,-0.040900006909342486,0.97489711920493149],"Bias":0.47831566793765673,"Output":0.0,"Threshold":-0.5751275879215112,"Type":"A"},{"Weight":[-0.75845234643595871,-0.075213809998339889,0.11158555239047183,0.32787615308904844,-0.56836571757139909],"Bias":0.89812218020582668,"Output":0.0,"Threshold":-0.0085591459686677647,"Type":"O"},{"Weight":[0.78907179589805743,0.51050967886602028,0.83070128915398445,0.47691975556170557,-0.71166202598794459],"Bias":0.727218618489438,"Output":0.0,"Threshold":0.90352228931315348,"Type":"O"},{"Weight":[-0.38982747606459422,0.6350602128706222,-0.83002860929352629,0.10085345716255412,-0.72273840602614847],"Bias":0.60815212810791663,"Output":0.0,"Threshold":0.27459116851659082,"Type":"GT"},{"Weight":[0.62029021774432169,0.1129570147548602,-0.61834889353176059,-0.21249474548385233,0.99868261255262536],"Bias":0.74442629876752675,"Output":0.0,"Threshold":-0.58999541243072384,"Type":"A"},{"Weight":[0.74142444261416074,-0.57235106200554919,-0.975381698447923,-0.25488831207849472,0.43438681747502966],"Bias":0.17853053667514143,"Output":0.0,"Threshold":0.69753387230333586,"Type":"A"},{"Weight":[-0.050175197445869069,0.085421348496070762,-0.17124981394561464,-0.028759001767616255,0.21914952957031761],"Bias":0.28517339578139289,"Output":0.0,"Threshold":0.19475585743540705,"Type":"A"},{"Weight":[0.19394248733014916,-0.24296192649889828,0.28822299432392373,0.98315849107837239,-0.65016796702992541],"Bias":0.29920947006866777,"Output":0.0,"Threshold":0.23046102897751192,"Type":"A"},{"Weight":[-0.12722124398090934,0.776427734539112,-0.88571385335443253,0.15180831828704491,-0.69932084283759854],"Bias":0.41874559848510923,"Output":0.0,"Threshold":-0.78180653172629255,"Type":"A"},{"Weight":[0.52395773610284446,0.92288986729592548,-0.79683223776371792,0.18179813035847531,0.66777202844050343],"Bias":0.40931087797941218,"Output":0.0,"Threshold":-0.53571601795764456,"Type":"O"},{"Weight":[0.63782268280062016,0.25690065056872585,0.29686262658651108,-0.022832720551096239,-0.99583261273607271],"Bias":0.30904200408097449,"Output":0.0,"Threshold":-0.51126870164241112,"Type":"A"},{"Weight":[-0.15099717869935425,0.82128759837769327,-0.91080620508212884,0.45567340425014191,0.47719899773467284],"Bias":0.43362879121379405,"Output":0.0,"Threshold":-0.89554005670153536,"Type":"O"},{"Weight":[0.53445103137495509,-0.51150414324901261,-0.066675512151175884,-0.072869279921459626,-0.93141552756140733],"Bias":0.48494390513978147,"Output":0.0,"Threshold":0.29643472344448546,"Type":"O"},{"Weight":[0.80425810199429193,-0.47158383693154149,0.031008709702179168,0.43307161723872256,0.11720974143464571],"Bias":0.62490981287551572,"Output":0.0,"Threshold":0.68954235813093478,"Type":"O"}],"output":null,"numNeurons":14}],"OLayer":{"neurons":[{"Weight":[0.70373912933456673,0.22613902260835236,0.89527415013652023,0.65447095160115087,0.54754794181676025,0.70781574850334583,0.994631473438177,0.96035730278136078,0.92785294024639431,0.43887846564821825,0.6762014150974347,0.67682379562259831,0.37650269985967444,0.3769631997574881],"Bias":0.44919056605975638,"Output":0.0,"Threshold":0.72072065329212731,"Type":"OT"},{"Weight":[0.98381999460226854,0.83949912518239544,0.49489401210793016,0.42693070574986314,0.7924621844629115,0.98277852404060706,0.683791640067376,0.92895882759660431,0.27805950784965394,0.93817537554454777,0.5654735139410354,0.83660002464270222,0.015980783857396236,0.11451974469913158],"Bias":0.30207521203070659,"Output":0.0,"Threshold":-0.35725406806788129,"Type":"OT"}],"output":null,"numNeurons":2},"NumLayers":2,"Breedibility":0.56115068707668725,"Mutibility":4.3718156471717249,"Repetition":0}
