{"Input":[0.0,0.0,0.0,0.0,0.0,0.0,0.0,0.0,0.0,0.0,0.0,0.0,0.0,0.0,0.0,0.0,0.0,0.0,0.0,0.0,0.0,0.0,0.0,0.0,0.0,0.0,0.0,0.0,0.0,0.0,0.0,0.0,0.0,0.0,0.0,0.0,0.0,0.0,0.0,0.0,0.0,0.0,0.0,0.0,0.0,0.0,0.0,0.0,0.0,0.0,0.0,0.0,0.0,0.0,0.0,0.0,0.0,0.0,0.0,0.0,0.0,0.0,0.0,0.0,0.0,0.0,0.0,0.0,0.0,0.0,0.0,0.0,0.0,0.0,0.0,0.0,0.0,0.0,0.0,0.0,0.0,0.0,0.0,0.0,0.0,0.0,0.0,0.0,0.0,0.0,0.0,0.0,0.0,0.0,0.0,0.0,0.0,0.0,0.0,0.0,0.0,0.0,0.0,0.0,0.0,0.0,0.0,0.0,0.0,0.0,0.0,0.0,0.0,0.0,0.0,0.0,0.0,0.0,0.0,0.0,0.0,0.0,0.0,0.0,0.0,0.0,0.0,0.0,0.0,0.0,0.0,0.0,0.0,0.0,0.0,0.0,0.0,0.0,0.0,0.0,0.0,0.0,0.0,0.0,0.0,0.0,0.0,0.0,0.0,0.0,0.0,0.0,0.0,0.0,0.0,0.0,0.0,0.0,0.0,0.0,0.0,0.0,0.0,0.0,0.0,0.0,0.0,0.0,0.0,0.0,0.0,0.0,0.0,0.0,0.0,0.0,0.0,0.0,0.0,0.0,0.0,0.0,0.0,0.0,0.0,0.0,0.0,0.0,0.0,0.0,0.0,0.0,0.0,0.0,0.0,0.0,0.0,0.0,0.0,0.0,0.0,0.0,0.0,0.0,0.0,0.0,0.0,0.0,0.0,0.0,0.0,0.0,0.0,0.0,0.0,0.0,0.0,0.0,0.0,0.0,0.0,0.0,0.0,0.0,0.0,0.0,0.0,0.0,0.0,0.0,0.0,0.0,0.0,0.0,0.0,0.0,0.0,0.0,0.0,0.0,0.0,0.0,0.0,0.0,0.0,0.0,0.0,0.0,0.0,0.0,0.0,0.0,0.0,0.0,0.0,0.0,0.0,0.0,0.0,0.0,0.0,0.0,0.0,0.0,0.0,0.0,0.0,0.0,0.0,0.0,0.0,0.0,0.0,0.0,0.0,0.0,0.0,0.0,0.0,0.0,0.0,0.0,0.0,0.0,0.0,0.0,0.0,0.0,0.0,0.0,0.0,0.0,0.0,0.0,0.0,0.0,0.0,0.0,0.0,0.0,0.0,0.0,0.0,0.0,0.0,0.0,0.0,0.0,0.0,0.0,0.0,0.0,0.0,0.0,0.0,0.0,0.0,0.0,0.0,0.0,0.0,0.0,0.0,0.0,0.0,0.0,0.0,0.0,0.0,0.0,0.0,0.0,0.0,0.0,0.0,0.0,0.0,0.0,0.0,0.0,0.0,0.0,0.0,0.0,0.0,0.0,0.0,0.0,0.0,0.0,0.0,0.0,0.0,0.0,0.0,0.0,0.0,0.0,0.0,0.0,0.0,0.0,0.0,0.0,0.0,0.0,0.0,0.0,0.0,0.0,0.0,0.0,0.0,0.0,0.0,0.0,0.0,0.0,0.0,0.0,0.0,0.0,0.0,0.0,0.0,0.0,0.0,0.0,0.0,0.0,0.0,0.0,0.0,0.0,0.0,0.0,0.0,0.0,0.0,0.0,0.0,0.0,0.0,0.0,0.0,0.0,0.0,0.0,0.0,0.0,0.0,0.0,0.0,0.0,0.0,0.0,0.0,0.0,0.0,0.0,0.0,0.0,0.0,0.0,0.0,0.0,0.0,0.0,0.0,0.0,0.0,0.0,0.0,0.0,0.0,0.0,0.0,0.0,0.0,0.0,0.0,0.0,0.0,0.0,0.0,0.0,0.0,0.0,0.0,0.0,0.0,0.0,0.0,0.0,0.0,0.0,0.0,0.0,0.0,0.0,0.0,0.0,0.0,0.0,0.0,0.0,0.0,0.0,0.0,0.0,0.0,0.0,0.0,0.0,0.0,0.0,0.0,0.0,0.0,0.0,0.0,0.0,0.0,0.0,0.0,0.0,0.0,0.0,0.0,0.0,0.0,0.0,0.0,0.0,0.0,0.0,0.0,0.0,0.0,0.0,0.0,0.0,0.0,0.0,0.0,0.0,0.0,0.0,0.0,0.0,0.0,0.0,0.0,0.0,0.0,0.0,0.0,0.0,0.0,0.0,0.0,0.0,0.0,0.0,0.0,0.0,0.0,0.0,0.0,0.0,0.0,0.0,0.0,0.0,0.0,0.0,0.0,0.0,0.0,0.0,0.0,0.0,0.0,0.0,0.0,0.0,0.0,0.0,0.0,0.0,0.0,0.0,0.0,0.0,0.0,0.0,0.0,0.0,0.0,0.0,0.0,0.0,0.0,0.0,0.0,0.0,0.0,0.0,0.0,0.0,0.0,0.0,0.0,0.0,0.0,0.0,0.0,0.0,0.0,0.0,0.0,0.0,0.0,0.0,0.0,0.0,0.0,0.0,0.0,0.0,0.0,0.0,0.0,0.0,0.0,0.0,0.0,0.0,0.0,0.0,0.0,0.0,0.0,0.0,0.0,0.0,0.0,0.0,0.0,0.0,0.0,0.0,0.0,0.0,0.0,0.0,0.0,0.0,0.0,0.0,0.0,0.0,0.0,0.0,0.0,0.0,0.0,0.0,0.0,0.0,0.0,0.0,0.0,0.0,0.0,0.0,0.0,0.0,0.0,0.0,0.0,0.0,0.0,0.0,0.0,0.0,0.0,0.0,0.0,0.0,0.0,0.0,0.0,0.0,0.0,0.0,0.0,0.0,0.0,0.0,0.0,0.0,0.0,0.0,0.0,0.0,0.0,0.0,0.0,0.0,0.0,0.0,0.0,0.0,0.0,0.0,0.0,0.0,0.0,0.0,0.0,0.0,0.0,0.0,0.0,0.0,0.0,0.0,0.0,0.0,0.0,0.0,0.0,0.0,0.0,0.0,0.0,0.0,0.0,0.0,0.0,0.0,0.0,0.0,0.0,0.0,0.0,0.0,0.0,0.0,0.0,0.0,0.0,0.0,0.0,0.0,0.0,0.0,0.0,0.0,0.0,0.0,0.0,0.0,0.0,0.0,0.0,0.0,0.0,0.0,0.0,0.0,0.0,0.0,0.0,0.0,0.0,0.0,0.0,0.0,0.0,0.0,0.0,0.0,0.0,0.0,0.0,0.0,0.0,0.0,0.0,0.0,0.0,0.0,0.0,0.0,0.0,0.0,0.0,0.0,0.0,0.0,0.0,0.0,0.0,0.0,0.0,0.0,0.0,0.0,0.0,0.0,0.0,0.0,0.0,0.0,0.0,0.0,0.0,0.0,0.0,0.0,0.0,0.0],"Output":[0.0,0.0,0.0,0.0,0.0,0.0,0.0,0.0,0.0,0.0],"DLayers":[{"Neurons":[{"Weight":[-1.004843972053759,1.2023486303874984,-0.64817324683450783,0.19829932865607516,0.29746467588180858,-1.4373413191350835,0.19171353531615498,-0.17533361245967216,0.2968190348983365,-0.065801308520976987,0.073775795963022861,0.48402550227212571,-0.036216132970860251,-1.5654131693604463,-0.44972539620926866,0.44209060682110296,1.4142909941330046,-1.0268335209276924,1.0039268690179695,-0.54369645684198309,-0.52674841858760846,-0.57716783256138116,1.2289721477911679,1.3203080330604258,1.5539993348317216,1.5730428907894729,-0.19175622752134508,-0.26599934740292253,0.5513720547553953,1.0414278437576388,1.6387334333913093,-0.31766600481764279,-0.14617550840452331,-1.1345675639503483,-1.2773377077082815,1.1302899812023575,0.2634530957938187,-0.77519286460019321,-0.10539539539467406,-0.3860513309824985,-0.031290459375943019,0.77125256768602535,-0.70490005258710875,1.227718444181475,-0.57334422665815332,0.31061924915323935,1.4023000222641509,1.6200087552983353,-0.49381090454470494,0.015612779395430459,0.490161595977918,0.5043133602032035,-0.081884550900144681,0.98942775977283137,-1.3580197763433772,-0.17672895098301997,-1.2388758624968472,1.6070770719587231,0.303842871358545,1.3296881706126444,-0.51676668343914989,0.87024903621233307,0.0360889155585733,-1.4748755113570371,-0.3400636319089867,0.84165372831823948,-0.057429162346492091,-0.44724393257432565,-1.0031345104254217,-0.15875397376774525,-0.091169663747385887,1.5318861308472385,-0.53703722452606883,-0.22739403017583371,1.7636111861856705,-0.33818660107240384,0.26427700548202648,-0.27516150206298884,-0.36509822215423837,0.97364242420235747,-0.26178740442813719,-0.54369632831946779,-1.3041627422460183,-0.63379173377006859,-0.16279430162464981,-1.9040675526038127,0.50194148463287469,-0.27993698384609861,0.943704073141977,0.68840707684327263,0.56818086261310641,0.90327937477420983,0.49193176929463256,1.1646890880841248,-1.0184445972640275,-1.1218719496959224,0.48379576995046492,-0.44881428799071077,-0.27947256401156662,0.41628925303406528,-0.30496356656307511,-1.2640284317669126,1.6738092205132402,1.146598236237931,0.51331371595711417,1.43542897488709,-0.16391230491633679,-1.3867733475690582,-1.3473610430390623,0.23513961314928711,-1.5374749803624466,-0.078420423007766055,1.113939975907067,0.90403505219443658,-0.056278147266142983,0.39549771630538078,0.30295306365143171,0.3748808634699699,-1.6073099577833478,0.678232935402098,-0.67056099077247122,0.92226237567246994,-0.28318533966466108,1.8943542837604666,0.52986046824597777,-0.64427690517356484,-1.4861789827636345,0.7877688849287896,0.94142684596045956,-1.0438943561334546,-0.9171006281590558,0.15920751083605333,0.82417504917064222,0.38171969008559925,0.044592770302944312,0.022053241972836424,1.399036108701972,-0.84660643039750272,0.55227846035519779,0.14125485445431174,0.945542772613712,0.090811238666442584,-0.58644801871220031,0.55184143155433318,-0.86565307847487416,1.2143395911968962,1.1382826748947998,0.75156426937023824,-1.3789255075989875,-0.96710789714339551,-1.4908767936243101,-0.87383634156876322,0.60704002278253455,-0.37160050131059008,0.66561410415205324,-1.991047848011855,-0.23592595627341706,0.91193532520529574,-0.5104059076450792,-0.721640561117265,1.139424213738844,-0.33148661550669312,-1.0003767455929782,0.56161200657294164,0.63940914608501365,0.20536413891490746,-0.0094638671770057581,-0.13891100683315236,1.1943837977919651,0.066219174799611508,-0.84428616052925876,1.4255411999696452,-1.264319243551046,0.66388643657038271,1.1839586061572711,-1.9420553762195889,1.7355173526962835,0.18532265195870917,1.1230802301227683,-0.66863041835486114,-0.99849006671792773,0.065402138744035124,-0.0957244458122759,0.45035638727729987,1.9183338563508978,1.4980141685800694,-1.4074386485886941,-0.1929658385077333,-0.30279158929661587,0.73598579910396866,0.18225550451808409,0.071124524842539838,0.40807343013960562,-0.76570071384618976,1.0596349793763995,0.23722658038010192,-1.4521102242343282,-0.22521133493394852,-1.1485393946750739,-0.95173043646211719,-0.94686189803614362,1.1732912022496067,0.583040577630997,-1.0799315902776696,0.54741810194562079,-0.45522153226511469,-0.24153283423803695,0.400969137094512,1.537213768594532,-0.13783870736967718,1.0802033148953014,0.01652049812260753,-1.597266828021521,-0.7469113295650629,-1.6036521194519717,-1.1915672399064374,-1.6117813417742872,1.7049454351444475,-0.54778447026746657,-1.0231768191856852,1.4319643512109594,-1.0461925693843117,0.28617450515095832,0.95566385296062883,-0.50172920827834355,-0.671537162746815,-0.39753278083984411,-0.057622418765734262,0.726864218119003,-0.24638802260778575,-1.7223772390151293,-1.7322589322492754,1.6452403772367354,-1.8646925668533392,0.23158056020344642,1.3802164398972954,0.73943229752566308,1.1322124275063223,-0.92141045025284218,1.3282943830491485,-1.3070030712089515,-0.059533575228198354,-0.638120608974907,1.2450575601519351,-0.61473213583917,-0.14470248489859633,-0.80877352264187,-0.23695533706600563,-1.1959185028429695,0.70867796591420207,-0.10133345100974361,-0.043542544377754622,1.0503405386487197,1.2330157604222258,0.09163281232660303,1.5095447101674717,0.58578650738010252,0.21899110089009211,0.44198126459586495,1.2126537962900095,-0.92289360562474176,-0.54114185205713938,0.74617835448411229,0.72824735880282121,0.18658512850706541,1.6204810606411106,-0.60453508915590826,-1.1424747373143391,-0.0014940304688615402,0.515644244142434,0.8741560088815894,-0.21662335014744821,-1.7450181747530671,-0.46673097026265731,1.4588244647992887,0.40997128440531505,-1.0221273313103021,0.14138456027775548,0.156358200198206,0.16928978863932243,0.60819375077644056,-0.2197604036632741,1.3148869067965481,-1.9295824989348569,1.5927824543755418,1.9582564681574035,0.73016902678304785,1.5110912525612354,0.56267701774421819,-0.25376849774589455,-0.022960270765684632,-0.26739702106797925,-0.30645941864068593,0.92438592641818629,-1.0479231742433846,0.359078962930515,-0.99135757988265,0.23177536769132445,-0.47022718492440285,1.4022707470703266,-1.9181850831574692,0.46981050747903541,-1.4377315377060937,1.8091801844114346,1.1811244521202169,1.056569410980013,0.5838691509371674,-1.209146164222223,-0.3135282603621149,0.84111129060206524,-0.10507051171388963,-1.4425993615028445,-0.70647286749746319,-0.737384574802073,0.53385015028594407,0.372486122817202,-1.2502091225470458,0.89824169333942316,-0.53876685718191641,0.35552648114279439,-0.5819136409464678,-0.15394216783062653,-1.0488675493043229,0.23950462320945712,0.33233095185990641,0.46471195596489689,-0.18295462531175222,0.22397872309618566,-0.34802055632544937,1.3961311490339363,1.5958593774567635,-0.68847300051174742,0.59478967400039662,-0.38125104325002945,0.31599383420124372,0.63555484132808515,1.8506037517686393,0.525770376028901,0.3034311827753815,-0.50567069623766969,-0.017213253020263043,1.231514477337019,-1.79747614441322,0.97805482760638052,1.5386396476713196,-0.2791022842092391,-0.064786298376175652,-1.5186141099634645,0.79590937020066621,-1.7796985468732651,0.58353596580379463,-0.3136333706793995,-0.7842370638550431,-0.0337104480870582,0.98136827454415043,0.00046219024828753064,0.69609818546851088,-0.564412378303113,-0.18636424274968089,0.35889641660447069,-1.4272936207369407,0.35043344986902991,-0.27867240276140137,-0.76571270195929242,0.90461183022087011,-0.88713901158754671,-1.4259210300752525,-0.045548374914297446,-0.62688978278398966,0.15037442797346712,1.2120692819413121,1.2963389583380609,0.28500793142477421,-0.84015643643407489,0.532124210464142,0.40651945928415278,0.73044616010166785,0.032335917480446508,0.46172766327472758,-1.8798688295669244,-0.15702116621868734,1.1625558683474342,0.27132741281358852,1.4777971913469012,1.2552213823679934,-0.29274057107057455,0.48315782706602711,0.49032511491809272,1.3237040468136332,-0.062028360117553971,1.5035217302872097,-1.7169334468336,-0.0770541666274327,0.24355127999724424,0.11433971110407265,0.21155680073963334,-0.30948221112926588,-1.05160311402362,-0.31675684262068204,1.1436180095857091,1.1596516441365943,1.1305626757119609,-0.55192330531237732,-1.0641608211508593,-0.67643124485041,-0.20897961255238107,0.470663652673291,0.61989059690439163,-0.996748224957478,-0.98932037502737269,-1.8478066343105428,0.22911664714529956,-0.37445606134108089,-0.73654866485695769,1.3038912971056491,0.18357975641537708,-0.072866260340840761,-1.5002645344940315,0.7663921689458153,0.25820179225793194,-0.80259836781890992,-0.08212499603728074,0.2464239030361286,-0.81694909316345532,0.65135131224587139,-0.11065798909899693,0.47647286024944535,0.040422097798633594,0.082086388991254644,0.266788303510653,0.77183046032917813,-0.9022141317381589,-1.0948555483924483,-1.8816534913525234,1.3737875071232149,0.61461870482406522,0.55469691499820772,-0.50252566454700454,-1.5455471200614921,1.3684432876149395,1.6678659430089713,0.84964004291670392,1.5498465623473035,-1.1845747910833797,1.456066637977989,-1.2414723591606469,-1.4741325897509849,-0.035684376040326704,-1.5051390742579598,-0.93030623110491151,-1.1345011899746758,1.0677465039365746,-1.0071116196956074,0.34994568892868494,1.1557333186062673,-0.91782776588472892,-0.22498372760964389,0.7940276315044158,-0.71202240964026287,1.4347752467425423,-0.3059789232471859,0.59755104191021569,1.2747197687973828,-1.6971475908985116,0.53350888310629374,0.9321115489267332,1.6905214505691646,0.7327658357872654,0.21014790526132465,0.054417432311185454,-0.96355658348815365,0.26491630369094954,0.848125863283931,-1.881385788266261,0.676357866125086,-0.86671857564557275,1.5428225582199278,0.66343073484647608,-0.72307884648963994,1.7428819070304193,-0.61348662879946014,0.5685207073430163,1.5105506756857738,-0.13591486019456131,-0.40866534844211566,1.0732119905397755,-0.92642531330996447,1.5764094067627608,-0.89391225524894535,-0.013258849275202364,0.4387296547915448,0.38694628370841788,0.46795190240626772,0.36839830997325407,-0.49370087799322837,0.086678823030869961,0.78282743771051866,-0.43682690334358576,-0.0282027861234746,-0.985723452112043,-0.58827265825279818,0.68085982216562124,-0.31069786767973473,-1.9085994548670013,-1.5873783247486588,0.81062480218478417,-0.76194884977859856,-0.44129918400535212,-1.1412792289123308,0.23630195517033531,-0.63723719408268642,-0.42637017642691855,-0.76345940680390179,1.16315396566487,-1.6627651991614911,-0.018203849912715953,0.19947593678865047,-0.97206691069159046,0.0830530030748588,0.63061114024369713,0.33396456155183385,-1.7868309392532478,0.35161791013163413,-0.55216344794540939,0.89277567616327469,-1.6977807933919973,-0.13113041321333974,0.26408000582087787,-0.33752630788950544,-0.16790378310023424,0.02417007182918951,-0.48952954518593694,-0.059068343629626652,1.3008070746455023,-0.17627331470055371,-0.08675616988163623,0.18187373791908545,1.9408538080476476,0.088232453511568568,-1.0691907392205629,-0.46307418102182418,0.79560065377095035,0.41046278093031729,0.84522960001846292,-1.3054917172088714,0.84065207459062907,0.69163347970938749,0.44017194069542415,-0.22966058418895619,-0.61993350583125528,-0.71572297863037893,1.4423690156277127,0.31991408213607375,-0.1288829846907793,0.67527194259468093,0.372464599851116,-0.97442464469857781,-1.193250377667467,0.014709468006486759,1.4386694428691031,-0.33790067654752431,-1.0402100547404074,0.60482643502989153,0.440813168925339,-0.77129219239531133,1.2074349521228276,1.0084279325768104,0.95281739575861346,0.43388442249683878,0.2656926877171234,0.49329854291551678,-0.19029776807422644,-0.284573740458383,0.70544634792276018,-1.2443995913464576,-0.11808549279199702,0.090072359000366475,-0.56320871718377274,-1.3597049896417675,0.38571247939202685,0.18987577921617818,-1.8143033384412077,1.2239933945650252,-0.38488135784160415,-0.4676395386772414,1.1087965104304238,1.6000732097993367,-0.29185454666497168,1.2017558550935963,0.72896413254691617,1.5358613913580128,-1.82169856122774,1.7684530838245771,-0.058542782235212032,-0.0046481953489818373,-0.33380010553346962,-1.73529418545556,0.37493166624332375,0.15516895502100531,-0.73612903862635126,0.49431013478632552,0.16713546046843253,1.1792499614782865,-0.12839915050584794,-0.5873821340908213,0.24140499423046941,1.1180194185548553,-0.74075166263652581,-0.305352673094913,-1.3927840685438291,0.43940747922258805,0.25366497144739375,0.43625889090536896,-1.0593335847646621,-1.1252963040607498,0.4667484669409015,-0.59173637692717329,-0.44369874032206447,-0.29010443682321563,1.0626090954789673,-1.7593271768462504,0.61271450418082085,0.93735923568595148,-0.581580876177913,-0.73990657479847144,0.97545053300466933,-1.7450426853005974,0.062311438406962627,-1.9485420584439031,-0.43944693842877025,0.09164856100135152,-0.88263433141756542,0.47434148493890715,1.5469411793383499,-0.58002306367504564,-0.29958510838801433,0.41000884650741187,-0.40783190280563741,0.01421363355555285,0.652685802023963,0.83114540895034794,0.44903721401888763,0.81822790709241655,1.5330025570155135,0.061100448160944731,1.6169596778307853,0.79933140929757229,-0.399422907456487,0.072698179777236346,0.9800101513881283,0.10129695298508212,1.24417054284664,-0.71964088954014738,-0.9113985360187471,-0.52031112701942284,1.9515755548847724,0.25906259823081212,-0.61327351751424075,1.1856792406170531,-0.76127088198497472,0.45131188067552708,-1.5925018077681314,-1.2250273000565484,1.3818415493619822,-1.2055681213762464,-0.077355499415358242,-0.056300423387097787,1.257058694612728,0.17015722751159093,1.60538125345734,-1.2931459047395861,-0.49351474380517135,0.735620276413681,-0.21736349792562593,0.36371493635872143,0.42033829296255321,-0.087814117822709648,-1.0041055285883904,1.230293502672712,-0.80996349305378434,0.051871090620405069,-0.1768633087290746,-0.38226530811854875,1.4391994045298544,1.3802371078078808,-1.1391660837173303,0.23414976994940581,0.33170164482276426,-0.76756607869992322,-1.315090385878035,0.14064606471948615,0.59523850336831341,-0.19552175804004246,0.99568731320156711,-1.8665841724102312,1.9199681859090778,1.8653116914747803,1.9307161885922386,1.4458823629868602,-0.75608344875339162,-0.6929848312764153,-0.11403183981236378,0.254064922339313,1.2446628879963715,-1.8207806930042714,0.084782742861906429,0.53528152710538413,-0.889898037370247,0.42739608372400806,1.9090261999094049,0.4800508565875008,0.8960727373585442,1.1666819770665291,-1.8500783545198285,1.3259612989267153,0.70781391184950793,-1.9851094409754078,0.56160833992138892,0.65769673404865481,-0.823882869828438,-0.52824054380025154,0.47697983872206856,0.014467833104761296,0.94890183394257988,0.45813319760287774,0.84526617198528253,-1.0849740382213955,1.4228461028183093,1.8703306652001714,1.8308418429600271,1.6170412020837151,0.071457290589556577,0.42797243355681752,0.2863319623525985,-0.61889363743546122,-1.0543884764976241,0.090955936392282943,-0.95125202138399179,0.50832059035770749,-1.3348319825703894,-1.4445391928053177,0.48740351874726073,-1.577558865573983,-0.28704195948645572,-0.44576650195454981,-1.5964933240769865,-0.512471446074765,0.82056337307233518,-0.749505322186137,-0.56158723132158761,0.61703791591200874,0.47963731478882826,-1.683106083275334,0.87035356407943332,0.091341714941124363,0.57771705122631012,1.050039592168287,1.9045347128550216,0.36927581828519496,-0.52306921897598968,-0.21801026877859336,-1.4142407399668548,0.48308938112253763,-0.46675380061695054,-0.96502596650506645,-0.18742139921228923,0.2458852292019339,-1.0200761552062241,0.26746489585724875,1.0113457144523719,-0.62624966393569548,-0.87404859665504131,-1.1498686741804094,0.6185581815504535,-0.857250067280722,1.4682543778178534,-1.622589653182118,1.0531570269042425,0.045763965717406818,-1.1917902152947104,0.38305605919242652,-0.23071557081687055,-1.132010902805259,0.5241672706437146],"Bias":0.37731669806924961,"Output":1.0,"Threshold":0.11033533611816138,"Type":"O"},{"Weight":[-0.69292693826971907,0.15130986373466904,0.60439239344982421,-1.2078334141500915,-1.6976401674084554,1.3381336961584789,-0.155612298240628,1.2042578083279112,1.3898519173159039,0.37431012570927757,1.9779264517025679,0.49527103596263156,-1.0138406112156067,0.50363456458022571,1.9200335926935233,0.86941669269903388,0.14015779970919617,0.30439081088941977,-1.3007220343224342,-0.85473212592989778,0.014641844979902646,0.92477771869151737,1.2082831092217394,0.4397677832177227,-0.94037613658244712,1.0956254541387902,0.2635435745168565,1.7265104706056929,-0.10319933532886172,-0.14556428517474052,0.30274155750067044,-1.3880344142150294,0.038150238880491905,-0.28787340169754622,0.87963720443292392,-1.858635909789538,-1.9523690584825209,-1.0672678253926653,0.7873609824047243,1.2774826722995949,-1.2798474264702981,-0.55712484501168358,-1.1399501539487158,1.0931345723071764,-0.051440794030293266,0.046869796256939766,1.2665096525528981,-1.2142570182924823,0.681354223398424,-0.028964339768963177,-0.46153021479795225,-0.15019021636262325,0.15659309837808522,-0.15060450080316923,-0.34185525325213328,0.7197366920158903,-1.6109369053599945,-1.1908785388529668,-0.62294871435637988,0.83607875035893131,0.30244141909588651,-0.29586388327866842,-0.12696074036694327,-0.64598108545646238,-0.48878127545527239,-0.6677218859166475,-1.1578946444941194,-0.099585065897360978,0.44104197315920224,0.20921556009408815,0.86624675191298461,-0.771708389637856,0.69109224439111072,-0.16676740001421425,-0.42205047381133848,-0.70064049566711029,0.52585542074779179,0.45001078547216883,-0.64341906557950146,-0.527770261255881,-0.544834397928712,-0.39375989293139535,0.23477684251720882,0.72095531686284531,-0.10913697050509853,0.049518979410416941,0.75172248634124283,-1.4489185152031916,-0.27232788866552415,-0.12158866226514264,-1.03509743466745,-0.31277856850660346,0.30594829730639095,-0.011641151191429389,1.9692321363693255,-0.74088816938031843,-0.12151394542726404,-0.43281022191658747,-0.62417040608086183,-0.21118050378583977,-0.079448172401453937,-1.7375270276039498,0.86919793410655011,0.52268556263981281,-0.333015089192944,1.1329006930500738,-0.84836738589489324,-0.67884743175415674,0.43565707548719396,-1.1635869998315289,0.361071109744324,-1.6465371640615805,-0.2783612656771956,0.99058501928373477,1.0474727505518839,1.4551091904077258,-0.98358522136513393,0.23747464034166754,0.20241263199026574,-1.8015069290071293,0.41352982221608481,1.3817357352849728,-1.5215497927374904,1.2373384941223706,-0.61979123595150043,1.1285281116908528,-1.1332821898265222,0.44200089501310191,-1.448082554828414,0.24781547638020274,0.62702588005304549,1.1752429656569117,0.37137499934592044,-0.74331115104563628,-1.5067756248203925,-1.7444864645341816,-0.36920586750514606,-0.16783411324131503,-0.39959277976285323,-0.10181005923743827,0.23975466296065348,0.91883759359775,0.041595713843925533,0.70261600820935133,-0.80557571132927,-0.40185767890739155,0.40151397110872777,0.035307765954783077,0.64682015693185413,-0.47601755078696534,-0.56786868726953688,0.58902517326289927,1.0919471211228271,1.0324273179436232,1.1292014918236886,-0.09116679527385485,0.013923688332514561,1.620965497391748,0.34174823870032467,1.083685014901536,-0.85345103724554694,0.21724354951514102,-0.21079077492140386,-0.74476688171200367,-1.3542782862108562,0.69460823605517308,0.57852867784841377,0.75594909244959663,-0.820037057073804,-0.31267828555436727,-0.0782526797048062,0.945519804463498,-0.63747852232189772,0.33315654582754728,-0.6964391449915428,1.4379748663125094,0.12366141111981865,1.0177975958296086,1.315739495675333,0.1128057325784142,-0.29259451606941034,0.41631525029256711,-0.83607616407614016,0.4846957985284136,0.033685789459238613,0.60995576233135351,0.24494401376924657,-0.51069929817956827,-1.2157477248533386,-1.9859834555471239,-0.8746564429600987,-1.2945556834689214,1.549573901830974,-0.14291405405053581,1.3172178302506068,1.6332645414552021,-0.34412711569911436,0.51548354724211776,-1.2653954419473688,-1.1085615341318515,1.1695711068043693,-0.53343706786210521,-0.19096274589698892,-0.75498324853338228,0.98747340286498575,-0.8793031791594359,-1.0915643444848815,-0.17677063431490453,0.1464859249344963,-0.922400084753707,0.25068023949146284,1.4241747723351259,-0.84117449963985691,0.87515191213203125,0.56983751316051379,-1.2115002315079329,0.26822743111673164,0.16087665295823855,-0.37689194752690014,0.5451914466313047,-0.00795228696587963,1.7032572588432848,-1.4521445778441358,-1.0743836346428766,0.054876036036236364,0.5279890739023636,-0.00605832506253301,-0.13171571468659815,0.37354951394559732,1.3428003914155067,-0.74903182813386993,-0.58317609903550516,-0.42352651016776288,-0.44487849457416606,-1.5030267757843374,0.92686846030833048,-0.24625769177335669,0.52622423435189081,-0.22671190058106422,-0.95782822252150079,0.71589654075928166,-0.32530071728420307,-0.82287003857828456,0.80368131622843508,-1.7163573725690866,-0.57544816675488442,0.51460618970257066,1.22068706584195,-0.37307726599011914,-0.52569034494549982,0.11263782163739111,0.56311422333266314,0.73679393843598362,0.71556052785160051,0.69117511960747091,0.12575268611579793,-0.26301905105962364,-0.34082306357345377,-1.2878029978559016,-0.50630368147106086,0.30816671640221216,0.086264794770766054,-1.2040530777671621,0.60382767887964262,0.90233936808180948,-1.5376549435489135,-0.91908873171503136,-1.2905596323733031,-1.4411140326136323,-0.27683265194149342,-1.3265286643647256,-0.37679245061091726,-0.056912860903562977,1.6269057875624418,1.9020153078725635,-0.98820805502506348,0.45371070618448339,-1.3702002496552654,0.20916368567313098,0.82267796193374232,0.28426404632211827,0.63257906917635909,1.575738206308213,-0.45663826095715088,-1.3223357180295678,-0.61199349853432006,0.71449628560532985,-0.66584676069479753,-0.12655065074868069,-1.7902677868447583,-1.8132937940830802,-1.0696611212803568,0.83341508461827163,-0.98371173440651594,0.17968323813695772,0.0839730399120473,-0.67002590974794041,1.3738946146352729,0.58164253974409885,-0.27733086900661275,1.6503561174731498,0.84089614321101824,0.8762707895954468,0.41449273885902616,0.79585694148725339,0.76549297699960572,1.0375317479658555,1.3729205962144402,-0.097936146006889713,0.619442223219407,0.40605131928159444,-0.38915363350610882,-1.2334261533028568,0.55238138577403273,-0.12605093482901619,0.509084765466437,-0.38014257146517877,0.54465461471929877,0.23770545340967619,-0.14339275653166356,0.20568141988161093,-1.6236647850012709,0.1844573683033035,0.40072810656890656,0.34730561167072704,-0.76316529932779931,-0.17627806461701251,0.9225650257070388,-1.8077367124183741,-1.3931746554529176,0.18612888473335085,-1.0259458827906967,-0.47934742119962348,-0.3031545594698975,-0.17630365522406233,1.4879670564494876,-1.119921555332803,-0.368717709569006,0.098941842838629085,-0.5630527666998002,0.92558655227085673,-1.8999989516567435,1.470360531225037,0.66024678911962864,-1.0192232490606714,1.2550712778489435,0.070454550939823779,0.13109087641634543,0.53099209933122271,0.1457546997868362,0.50549044014661482,0.242979744562404,0.2104125303264765,-0.68846514691312588,-0.038670674573995145,0.37134469317800578,0.68146074501865561,-0.38301277644141241,-1.2407486190743504,-1.1432066787566071,-1.178751044524252,-0.91986982386240324,0.11761860089265674,-1.7722624800038815,0.90185045251359364,1.9815760347906388,0.41954868725479971,0.046357308215860815,0.17065959152330645,-0.19215771768575432,0.75722979704310822,1.7342252599700472,1.327357123991175,-0.32057605652165422,0.82331576888603886,-0.256330448322152,0.40382574948194683,1.4036165983040081,0.812749014730914,-0.6949870203132682,1.8795107146163987,-0.2907474018749111,0.51099843625491426,0.5242696658355509,0.81679915773766076,1.6273520829283408,-0.37486463895759758,-1.209113932777715,0.094508559557831509,0.59654238995953079,0.15760097310766608,-0.44036619234381535,-0.0348271560210649,1.8274316172243243,-1.1509681377331578,-1.6248656300012327,-0.010924554667866099,-0.87628134264562607,-0.96170825097614832,-1.9333857986765848,-1.0505709289808622,0.039958238909840418,-0.87606951988122772,0.10801074865917276,1.7031716218698638,-0.61504960368156891,0.97088533740426852,-0.24483519687542471,-1.2139788675099745,-1.6619985232418397,-1.1435435554681082,0.838165362231976,1.6496276723452041,-0.31494848165425871,0.4344119359433708,0.5652767608711855,-0.165381164832684,0.45909138431584751,1.760815303661309,0.86377359021048694,-1.1248754957262768,-0.15061444563354121,-0.69723485349548731,-1.5778726568768167,-1.934869307994316,-0.51332151017306438,0.99980353587297888,-0.69520216249288169,1.1841743919924714,0.012223220727044598,0.11851196876425832,0.045505265726477617,0.15433117206977631,-1.2786601983377059,0.7876263348328072,-0.77131696290863538,1.7555233537012356,-0.99380075977826521,-0.12712975898565709,-0.63018117408742258,0.38055382182734987,0.16969302890255039,-0.4042725699391555,1.2011829308239663,-1.4501442929381248,-0.86264229140367465,-1.7498137111541878,0.021257777271679504,0.41712155864439993,-0.691376453798632,0.087828337601393414,-0.19449520584892671,-0.18334458691049105,1.8196324612105417,-0.011582525452404541,-0.081501984042669423,-0.29572256668271613,1.1103293998680679,0.40892180924253629,-0.699264487373533,-0.49918487970679304,0.049642608465926039,-1.01431425326139,-0.11389479139535452,0.12132498482071108,0.28166028742290117,1.0061422511381759,0.36641948966608373,0.78888253066171066,1.3064253082920911,0.043124302776122447,1.5308132951757,0.59573402002480713,-0.7616450659752102,-0.40467733675831796,0.75535272679075272,0.12273240095131666,0.35572952805353764,-0.28974500358558486,-1.9361411682032705,-1.8694154470550899,1.5564502512833336,-0.12604501221405318,-0.28768927019253,-1.6430740317530344,0.16424526589625516,-1.1778348423204545,-0.61675290719338371,0.57697625228994354,0.11504020954716976,-1.1016448713381051,0.28768492503449561,0.38230873024535467,-1.3787439369527119,1.0296637362473011,-0.6722678073785584,0.92117548311183972,-0.98551108189765879,-0.99338253168081048,-1.8294304533998624,-0.47461339178244272,-1.0617971748539641,1.0110872252895902,-1.3113658611249952,0.86955199338009193,-0.56854484186905663,-0.42427145430085778,0.32185200151142279,-0.7985752005495883,0.51430825867271834,0.25366846713530172,-0.14050519472942935,0.53843368335554076,1.6269374714474831,0.98276237447059833,-0.0601230350428367,-1.5386929211852574,0.22407790864951932,-1.0569171342332462,1.7812358568335118,-0.61724239049229079,0.3112825720157858,-0.06900642850935701,0.65753859491147493,0.26939036430296959,0.57591533446095911,-0.48983198962632191,0.42827071949934592,0.20624938516139058,-1.2923320435417498,-0.41763106261880889,0.34771729850220362,-0.50530242996566344,1.131388479439257,0.19129400627747825,-1.1410459468099503,-0.62175344984128755,-1.8024477678362503,0.48789320077439824,0.031292187180971848,-0.17101000909274911,-1.1393337290936145,-0.19079319333132941,-0.14864195424534477,0.11243640411297577,1.7642087544147898,-0.36784556944288571,-0.14290871570953567,0.18486546304361684,0.24005248688163805,1.7965701146966637,0.56989305187361,1.0402807656397488,0.081908039711462433,0.98080172901079132,-0.47722826908679139,-1.107507091491567,0.28526580635121351,0.56239327552276719,0.50628698166221409,-0.061360348975919354,-0.52065242618352747,-0.58942914280604575,-0.12075846586930249,1.8688992373034821,-0.41589435488725757,-1.9211127087106521,-0.82081361618862192,-1.3162280481937241,-0.15056854586609109,-0.55554056344287217,0.82523765296220675,-0.32015644421691841,1.1421162747044615,1.1092333723262779,-1.2396951700163514,-0.69840658407118483,-1.0038573109795608,-0.53871897959090709,0.80497825378201837,-0.60133662073811389,-1.6054462192605465,1.2770557083548306,-0.20790664581950136,0.21445998747501602,0.18887316343819671,-0.28381563643171259,-0.377510574007179,1.1487590424477863,-0.19106626931972467,-0.12503523952681295,-0.27098508389712556,-0.46163933559397208,-0.71928390937707576,0.26839236292100105,-0.87610220344555667,1.0040283736980769,0.85804883339053428,0.30952577092964678,-0.98053959150823744,0.18287578022615275,1.6054897734920912,1.487739002093551,-0.39427075180889615,1.6545416369982606,-0.065434452893443878,-1.110961274761223,-0.613203840085957,-0.055875776827277512,-0.54245976024944764,0.26203644366220286,1.146026877288719,0.89399643831141118,-0.18434740332157706,1.6447302494872038,0.18859188713764441,1.9102541235788977,-0.27873018082683287,0.3988928002693074,-0.586020962206443,-0.82886948381963632,0.73049598477338251,-0.63159840620517427,-1.7929630055059507,-1.3547797851985226,0.050241534621567219,-0.020436223523768948,-0.73151714295685166,0.52253580279560841,0.98526115947648,-0.2918878241115383,0.52670873715166033,0.58369763641790362,1.0639285889095973,-1.3677440694557708,-0.58019884907940811,-0.27650615504941506,1.2527720968632088,-1.9386332053405386,0.89879213641341416,-0.75831783924901042,0.862080300628245,-0.094173063684335367,-0.16414713494672778,1.7427538967424789,-0.3243473623061307,1.2462105924478781,0.8147028660470168,1.3244802315367759,0.37639179067056144,1.2853733393295546,-0.032639361933171296,-1.5595313839425944,0.1759448229223235,-0.36344173810086394,-0.354249145127597,-0.20111844571242085,0.46860980459307788,1.4525975535868656,0.45873464991279639,-1.1789994685347189,-1.2223065955559678,-0.38767302519999114,-0.32597307587902663,0.053332620551586954,0.31730091493451074,1.0285965982583043,0.85570873441440476,0.076477642206697616,-1.0212143319757723,-0.21229875944545423,0.13513946921847619,0.07747379027538645,0.1796178366821225,1.0550653487700341,-0.12895585553817485,-1.2881473986376766,0.55347380999171814,-1.4288120251981598,0.045553236289673116,-0.32285356936818155,1.9746696743996206,0.264727603767406,0.79158618244882017,0.50658816774682514,0.045526065884868849,-0.67275282010613235,0.22381447780273264,-0.74839145985639688,-1.2265895433847742,0.58359303631987114,-0.75233112403765845,0.25061808924800744,0.780205825360426,-0.036393516377749735,0.18596849987735917,0.90342952073711436,0.26225989187517107,0.28232495481511305,-0.61834197425181725,1.0390836983169818,1.3199656729446565,-1.2862842145564879,-1.0614997337392995,-0.49866146244741771,0.019174272901925388,-1.2758447263743005,-1.642250370067661,0.56110892424411563,1.2614604156750535,-0.46334556791155856,1.0825828626205132,-1.1958075026343553,-0.60453275526153516,-0.90331904050117306,0.9092080486938261,-1.24777824489762,1.0035409096433914,0.398663037642214,-1.1729050181679916,1.283152312902661,-1.0336616096927465,-0.14970427101129513,0.021454951735890848,0.040018815225452253,-0.2141494402367953,-0.13105694070245696,0.70932622566322134,0.79099355071141086,-1.8087368438992355,1.5839976759552945,0.83927485851537176,-1.2187997900037093,-0.30654666206881021,0.29254421349267667,0.56759344172551929,-1.2226661430866035,-0.01971089933985426,-0.17334926782564697,-0.55118067165997253,0.63535852459717979,1.0197918642608179,0.98779020195047318,0.79543581467374969,0.95004084657413923,1.0887825154181487,-0.12145282892577947,1.0707359715927094,-0.14331899450315111,0.078156104622408629,-1.6813411878800677,-1.4488141794916309,-0.65771035668219957,0.242227342092538,-0.30724545997855751,-1.039962407336553,0.8042980462703786,-0.45379554780842524,-0.72830879058610121,0.47937000704899896,-0.5828814114597074,-1.6937749914606801,0.91991629214953452,0.22426689647802475,0.024060445538803259,-0.49769327575674588,-0.088032544834343557,-0.25770578498845254,0.660386302495788,-1.8957489598056996,-0.27264328875352783,-0.39038575464644731,-0.46115341846244573,-0.97535459849280559,0.42596809192954938,-0.060160060302043294,0.31823546823517213,1.3291349401779529,-0.18005159039984076,0.0890320399813981,0.10816674514211683,0.41166220740958215,-0.30966371777917434,-1.6794539399815043],"Bias":0.68353466766527138,"Output":0.0,"Threshold":1.0866468985844797,"Type":"GT"},{"Weight":[1.0648809806745878,0.526862508862681,-1.3628023494327453,-0.92799389405548283,-0.21120700482800925,1.6897859674365194,-0.61710043798298608,0.0044256634448774507,-0.48575231996319884,-0.21553715235345861,0.6808553431643285,-1.4216890816677776,-0.38951312239208224,-0.57878211388773382,-0.18330033580227767,-1.2441144923585787,0.47815556380811852,-0.21748339767450631,0.47805860008954015,0.25821822497910718,-0.11025136062421437,-0.12546288647011991,-1.1924245621508103,1.9198391809686268,-0.60885261074120756,-0.61058023467970024,-0.66094121317646759,0.48726760618727066,-1.9903049934610282,1.8310058507281384,0.56471351883477217,0.81692217194246419,1.4688370560616426,-1.2802581373975883,-0.52389834727185058,1.1077598887997493,-0.91763370619976592,-0.086989425521586464,0.46758246618210453,0.08908896431750124,-1.4315151507998376,-0.46565768821051295,1.0172635260176675,0.85653690987105346,0.77256175794379534,0.76206689642838521,0.36337920760893239,0.24104135774124469,0.36902849346819733,-0.65945405683454794,1.4320595321161953,-0.59649287191987643,0.45718253378625151,-0.25714507991304641,0.89988403250457916,1.3457142707638976,0.043952981030546567,-0.47269767265426821,0.93881311683232049,0.84563911838719585,0.72460962985042021,-0.084935592478911026,0.66498405534773342,-0.63649293389415518,-0.082455500998746323,0.24540803687917678,1.0146087156340213,0.22762206859310252,0.78043583516922632,0.45775940197415621,-0.1868687291131908,0.35474981470873168,1.0913302912802112,0.68489786676959918,-1.1438976708538355,-0.27007011429875627,0.33833836005690437,-1.292502653222765,1.2528411066156155,1.1191126206513089,1.4470070715659564,-0.065017230839011009,-0.98838713531772937,0.69339554399813874,0.34871651388179337,-0.99714693987565561,-0.16915752839723486,-0.98429160993983822,0.99648915650159542,0.55430733918893149,-0.086711717892616,0.78939174059284456,-1.4171839931128472,0.53067601055743074,0.070825540493626882,-0.43607366597534392,0.635183210054332,0.64049344500875349,-0.305555339812094,-1.0918426826092613,-1.2864288013830914,-0.86641778715020878,-1.1802061922756053,-1.0110525947581293,0.99637059075588841,0.76953566389602424,1.036344191251017,1.1708114504212568,0.19754263944118228,0.9547711009880393,-1.2713707309548608,0.19424711144866216,-0.034038754545170136,0.9412897177407471,-0.24110792495361894,1.2501884039375877,0.729239733297955,-0.29903515259057351,0.5426828996331583,-0.50663593248773187,-0.64258842339859723,1.6360860763285712,-0.50332344951534791,-1.2704319000572115,-0.10062654632885899,0.586360640864056,0.049387243599345432,1.2911560215480422,-0.56995239857116364,1.4068394249336977,-1.1940412666620879,-1.1194256055724927,-1.870460104136942,0.046934671721856391,1.0405628862979648,1.132665325483617,-1.0378805103422517,-1.2012439762247933,0.62618616904420144,0.18229707595977382,-0.982907481017945,0.89191028796691008,1.4416324216600658,0.49473037780017148,-0.08406711839328862,-1.4875494574604322,-0.51613322576327869,-0.38063080801101296,0.51181211160114592,-0.88959751692116129,-0.81795576346011645,1.4324281697312502,-0.34527091046109382,1.0463408446519009,0.44171647643284695,-0.90074000977363444,-1.192400230650045,-1.7018113955002274,0.78762179894262085,1.3011910018051003,1.584630515232976,1.7054785432785184,-1.7739547769417776,0.63803578408898853,0.67439792540362,0.34399074797704388,0.46212031160949274,-0.90999535664915832,-1.2571675326941385,-0.96852239408679763,-1.3814786986361625,-1.5942306106883244,0.70928619555630057,-1.3245348182155445,-1.2182908666288903,0.97878875594064074,1.3609487467263586,0.039932467993317289,-1.0065433729936104,0.27162305385997665,0.20608273437529912,1.7785425278258242,-0.29809526833616906,-0.35389663947461947,-0.70883835006218332,-1.1903261684000854,0.4449783574999211,-0.71144675962228643,0.27753864975065856,-0.23965773649497779,1.4142772291853452,-1.6074748093297122,-0.53696478835165717,-1.3608927451939752,-1.5377227829479252,-0.38458952605006724,-0.24189634171697291,0.97628852677358724,-1.7887061144172709,-0.14810921695228163,-0.63721542001332354,0.24212623119453269,1.6970500572105172,-0.51042390638516466,0.9281795252484043,0.58638339211277368,0.9166398688296975,0.6011945375246901,0.30093580964064959,-0.28866656883091968,1.1288951538172061,-0.16692807245041633,1.1082832282313038,0.14823431924368921,-0.49305062214895479,0.29925006429513462,-1.1626819911357809,0.25884212286157626,-1.040525747016317,0.074447543394960292,-1.1464024927217524,1.0759703545253587,0.25848478475555264,-0.025119318638518129,-0.976399838098511,0.97141725545349389,-0.62692295847317348,-0.54402423029254388,-0.33610489558494527,1.8372363261120563,-0.22928209259170443,0.848368856796119,0.60104889171246834,-1.9321690238696379,-1.738831937191464,1.2621185273221314,0.61056684610649459,-0.39004819998054208,-0.81571125183986093,0.791034581508038,-0.87249249889165748,-1.5137004160851708,0.90609595669950149,-0.48506197683846175,1.5574918207980191,1.4702012648201555,-0.79471750571146493,0.024684242915680832,-0.548628325829575,-0.39134340285851782,1.5184138243870873,-1.643266934735359,-0.53613284162065611,-1.0817174162648748,-0.375851110402428,-0.75720408019123031,-0.029117214617970677,0.51840481381229742,1.6201760506351366,0.35609591303211446,-0.080634232193264932,-0.53176416691009143,1.3681051168573228,0.26487276762747114,-0.0078489598854673,1.7562222833541328,-0.65563820780295079,-0.49245840147717779,1.9468562807640324,-0.574408574995775,0.20866462132365649,1.1386882286233306,0.37612847928592391,-0.67546257873785809,1.0160989812650247,-1.594568256099973,-0.37961257752827959,0.694822471563156,1.7478852922785495,1.2357508148860967,0.26969217574181342,0.32448535893321306,-1.63746487006427,0.873456602391534,-0.8828746205581699,-0.0026423055690909525,0.83831578625287673,0.8439412957221557,0.032566097195315932,-0.75880526404162341,-0.5037778730056145,0.014526134363620602,0.34191803740211629,0.82066306789436538,0.36815911269195345,1.5067989768026391,1.9525696616398962,1.2224962828785631,-1.4925537023192987,-0.96256845768660693,0.5548473664194693,-1.1825005586410411,-0.43585356810868414,0.76142195368251864,-0.49153428183212133,-0.01377529931374084,1.3641524409708343,-0.60177271131042986,0.79433912355189173,-0.26047990522680786,-0.56690159885534153,0.85055475139550629,0.024706783516785263,-0.18486787853057862,-0.69201272478886544,-1.1264103181317497,-1.2628364261532372,0.84702209607683043,0.06053647146017694,-0.30918769955806169,0.12530517257997081,-0.81448258468391488,0.41156683056781013,1.6211712302738666,-0.76405907054613476,-0.11524498002382222,0.26122735313197,-0.62455240293617931,-0.38950335205975151,-1.8548943585971809,0.13329220868130731,-0.052758122818897579,-0.0051911748184081674,-0.59209361806929506,0.94307633347021236,-0.13516623463256572,0.90757540562542882,1.8917491156103785,-0.23078079894354853,-1.4875628461537711,-1.1056733928181572,1.9255677703421412,-0.096452919178212887,0.14707467711860056,1.3454644453289602,-0.41486587842920131,-0.12582745844740534,0.29953690166563574,0.913629969076081,0.37199059891141495,1.6553947830830675,1.1101301683746723,0.52372692052463043,-0.57654660709448924,-0.28226035855233683,-0.69461206658492425,0.088639329228847874,-0.437195777165329,-1.2820929984013052,1.031959654312562,-0.32574338760494426,-1.6744793782357497,0.70176439951256131,1.3258413757783556,0.58253534907476767,1.6464216483973067,0.19071648337544495,-0.055700663503120085,0.36259856371330024,0.5380048540132143,-0.55069078462251553,-1.1375590144365835,-0.87993497608342908,-0.78812674723098963,0.17164614702404193,1.0429552377255447,0.065789465357451338,-1.6596274392956996,-1.1312649394996766,0.61185087359807322,0.398785986221063,-0.47224814027794348,1.5591402647826542,-0.011592018423411954,-1.1737104549443478,-1.1745970522050184,1.009231617212869,0.98431000624984044,1.5475252510304332,-0.71358423728313958,0.90886271637258331,-0.69618509742253709,1.0836856365029663,-0.14407797371641459,1.0924423761164968,-0.15558408292114012,-0.50170287699517924,-0.76490049192910115,0.397926002218117,0.24553657919542715,-0.51413514372619562,1.2042947790256211,0.066799382870341484,-0.589027919149505,-0.49428333970601274,-0.32909465969032364,-1.4132659411660014,-0.48241715339008578,1.4442704745774486,-0.22063216065086061,0.28272018478378658,1.4933225649843562,-1.0248086974899549,0.3934904199627155,0.63742616334284019,-1.6745762674485223,-0.89156696148755343,-0.16623681418888125,0.29628270964773717,0.88573701720951936,0.27723080025856889,-0.69547921254792022,-0.46152946460189065,0.21528725801747628,0.9015962924000791,1.4046318900793007,-0.53832456532267969,0.39433483982399142,0.40499386117094849,-1.2098865171414825,-0.9512176825437777,0.056003943840489331,-0.71019293400933636,-1.732588579753688,-0.96937715981068417,0.10497238850444618,-0.23244876776062834,0.47621571566907955,1.9362260865449095,0.82199202981870245,1.8980293515594813,-0.71679345714710341,1.2056395176125876,-0.737670374446395,0.9052891670285208,0.98342865838596072,0.19763989848906149,0.586944681865603,-0.6624853595450918,-0.3595678109487368,0.32782058838844685,-0.014831325781045665,-1.1533084037337535,-1.8830643928996587,0.18142851916208347,0.77940457909340255,0.954069715088266,-0.94207461129039272,0.92040177316041727,0.93893004659979151,-0.5310612861138938,-1.4255355393632947,1.150849905866594,0.575645334355368,-0.12645020699571952,1.4593563673362864,1.8861853535688415,0.63306845800628353,1.1135984059020871,0.2901161015802603,-0.30375726709055356,1.9153845160805547,1.0521386395745265,0.41185362122252112,-0.68067238232152172,-0.28257536389053589,1.3457590857733781,-0.013995972468515916,1.8087420183274623,0.11842291571941374,-0.05570407006554931,0.64132977958830528,-0.59100211290078108,0.897289717347496,0.96674369972513219,-0.074848688725817319,-0.91339642503922636,0.77606425004827972,1.4611610600078295,-0.750706873696219,0.95643120586709562,-0.71876240386155255,-0.84826533332153464,-0.20231494039088396,-1.6834893932954824,0.29508411214108765,-1.5926191301982007,-1.9560329224709574,-1.3277564660309611,0.044778215021257339,-0.931294196718975,-1.1965145744367105,-0.3687514841411037,-0.60339939017007094,1.0242607032527498,0.027646531014993286,-0.96372942785372806,-0.10116459148757373,-0.51429623451560458,1.1601822204702452,-0.91624758737918333,-0.031700714909430439,-1.0813957988663558,-0.77382913639524742,0.7651554936380851,-1.8596537894847123,1.0308964993017242,0.046179515331135956,-0.843607821894627,-0.77251971872975278,-0.75069414766072029,0.44119741924225253,-0.85031672186700169,0.064081476612554755,-0.68674832696714927,-0.39696126170314905,1.238737979549327,0.827789654379319,-0.72149506224505366,0.21372546731202169,-0.43998489721095413,-1.13813398086379,0.36640658779615487,-1.5402718314622863,-0.76893672848536476,-0.23132669825867125,0.92725998858328,0.083610647396934468,-0.66874719724582843,-0.47576144010562516,-0.02618051694062562,-0.2223713652800636,-0.19992141722386864,0.794119268094245,1.664731275134129,-1.1097236764546128,-0.31696935135031545,1.2619542829980861,0.32184248525735115,-1.8070144536006332,1.6870660431157174,1.035615827439174,-0.62672231934346367,1.435140350570502,1.8131137247258398,0.12782813893995648,0.83297768084820256,-0.1354587730651064,-1.4973023773624106,0.62580978899533379,1.0543730859897904,-1.1975773529603973,-1.1481508179856261,1.5551747416868689,-0.42234420330372835,0.1518329076769655,0.781212780057086,-0.0033393731589146658,-0.48917634878485694,0.2180832321924675,-1.7943937330480635,-1.1216976862036145,-1.6858370824185371,-0.047049316599522495,-0.70968982098144007,0.890472400220389,1.6103375403258657,0.38796078602606804,-0.70891647353252241,0.04062970403611188,1.3992092989614278,-1.4904534162443381,1.8030934947557253,0.68479265397637734,0.35103865637353648,-0.17213437434850931,0.5635845412330629,-0.92273855880961686,0.54883489373975491,-0.43107786887841204,0.76541312353937574,-1.6255298776670963,0.8794876724735311,0.661359461332373,1.9478676970805355,0.50583098336481747,0.25865049951646979,-0.51243307930996318,0.61446745819067217,0.53699492164937013,-1.3887723830476275,0.75869490462760192,-1.2762574289349176,-0.3896316934328673,-0.25268842105413247,0.43439285756759016,0.32371331926491731,-1.229609387102355,-0.70999475229065623,0.086316245182564644,-1.5002995689866596,-1.2109057724864976,-1.1976067289698902,0.2272625642153018,0.2480226318575548,-0.29147672995501067,-0.47845837474548786,1.2451770948223662,-0.36532992308916534,-1.2094956725880017,-0.67109096733438367,0.51762269033158093,0.734092877588278,0.3848763035278342,-0.25727737427562358,-1.7746310549670044,-0.35457969911719356,-0.15243128787373705,-1.1800566255953426,-0.089462108486081493,0.59862108463357266,-0.63057120453127258,-0.89737985229063133,-0.11894364433546725,-0.18173652789066555,-0.80739089791075824,-0.40655382892887743,0.66693293462364611,1.491479031970482,1.0390133760119849,-0.31760319244004931,1.6351356839924751,-1.0849323477991542,-0.85809391291968407,-0.39435868821775477,-0.84291340286979144,-1.7696717808813192,-0.18889941733638493,1.5428790180292842,0.79247051921788181,0.24561113689356073,0.33057459045926796,-0.87397887132781515,-1.0285581957444352,-0.34349781167875504,-0.23204454254919865,1.8049141074553665,-0.58387089617896626,-1.8863702061988275,0.33450774817471746,0.38541453617411409,0.14430737595274445,-1.0507083288630044,0.7022874837635491,0.99993611662645643,1.7857239506140927,-0.49857433373042115,0.26172147493889625,-0.85826936443612245,-0.75837367543950762,0.74947163776935632,-0.47076239848777768,1.5064807587799061,0.46396296760626593,0.48372548142621552,-1.1853749822757091,-0.35877953174543165,1.7468029184950531,-0.87580741912862636,1.6258188838259406,1.4059441664283834,-0.13386712735840778,-1.9020123406788392,-0.065093230952086467,-1.17176256523084,0.9461329338122777,-1.6829924079044687,1.892384679033118,0.87152937374614625,-1.2387803808035238,-0.56948215447807793,0.39547001123217385,-0.56956619516460516,-0.22423419365405131,-0.43468836156404034,-0.15143451194811353,-0.14771506236468671,-0.53576387909043766,1.5404790302461382,0.53469753150581278,1.6400767283552917,0.28116363064687511,0.31167772333681487,0.62787803571106782,0.18055865456376141,-0.31400355804432345,-0.75869858439951143,-1.5015874092940182,-1.3239970539342598,-1.6229879723968859,-0.22868136327186656,0.59113667094667277,0.49811188620427238,1.3112567380588764,0.10542852015894759,-0.70638991832099385,0.80202885661368661,1.1720586862284963,0.042386800419719317,-0.82740974371666542,-0.89017603494700781,-0.904644755136522,-0.22853897429468995,0.8527328338893817,-0.76086900595561469,-0.10033123292975654,0.25468586117713032,-1.7152976969793894,-0.2640372983361769,-0.28585772322763581,-1.5846781244430124,1.6463878898166064,1.4067785960653696,1.3202004988306206,0.23382707860975011,-0.84857959432926933,1.2907837514256983,-0.628139483062041,0.32747450818370449,0.26237670437543503,-1.6821230844045632,-1.1394932498873645,-0.34588080753846118,-1.1207880448181127,-1.371194253382829,-0.46459686270952594,1.0915328567342519,0.95235861270303523,-0.24410121247363326,0.2075505266932538,1.8378985115005015,1.4451445599296804,0.41270819884385368,-0.79366358685943461,0.4907314472322965,-0.2090229770210679,-1.0907492391256379,-0.42080752786519349,-0.90657819570348519,-0.23359615324613992,-0.40886516608710632,0.30308930124300038,0.80246550720299847,-0.96703166280269226,-1.7047336752082845,1.1335922289330478,0.32325978499057673,-0.26669383713355943,-1.4608739798240709,1.3309322182698793,1.3722537268755275,1.3448350817639545,0.1043185841312515,-1.0147449376595881,0.34044348206708225,-0.7413322238676866,-0.17078569803231941,1.2868425112367667,-0.10308600553687937,-0.538618252863464,1.5353097345378761,0.41412516423227519,-0.0685026535384834,-0.61320279660318167],"Bias":0.65069941321886116,"Output":1.0,"Threshold":-0.77428343648756082,"Type":"O"}],"Output":null,"NumNeurons":3},{"Neurons":[{"Weight":[0.53647068586967461,-1.1213781051902929,-1.0555012147200764],"Bias":0.8085467684122486,"Output":0.2895162395618468,"Threshold":-0.49029806185993285,"Type":"GT"},{"Weight":[-1.7984217441633446,0.56862639010354243,0.27604792045016113],"Bias":0.29556541205177334,"Output":0.0,"Threshold":1.1648656572982974,"Type":"A"}],"Output":null,"NumNeurons":2},{"Neurons":[{"Weight":[0.48870749910767552,-0.11153096617736424],"Bias":0.2737149473506561,"Output":0.0,"Threshold":1.0131407617652513,"Type":"A"},{"Weight":[-1.1399243822867367,0.28144471309181762],"Bias":0.70583958900660027,"Output":0.0,"Threshold":-0.11317199846411685,"Type":"O"},{"Weight":[1.6875361947750376,1.360220134891672],"Bias":0.45650349060609163,"Output":0.0,"Threshold":1.2133989870610642,"Type":"A"}],"Output":null,"NumNeurons":3},{"Neurons":[{"Weight":[-0.42650915760384372,0.91964115478255049,-1.0268488022973057],"Bias":0.18642433787995219,"Output":1.0,"Threshold":-1.6535644008096142,"Type":"A"},{"Weight":[0.52480008756965413,0.069825680260465428,-0.81485021245426048],"Bias":0.39305958146837516,"Output":0.0,"Threshold":-0.45316564033421014,"Type":"A"}],"Output":null,"NumNeurons":2},{"Neurons":[{"Weight":[-0.4762853656319368,0.99922772045533859],"Bias":0.41933954992300809,"Output":1.0,"Threshold":1.9770416673165938,"Type":"O"},{"Weight":[0.032341688134687949,1.034329261857762],"Bias":0.26060797030134497,"Output":1.3272789202937947,"Threshold":-0.22914902780070542,"Type":"GT"},{"Weight":[0.87650344337523123,-1.2650453943130771],"Bias":0.35182567469395032,"Output":0.0,"Threshold":-1.252825492645067,"Type":"GT"},{"Weight":[-1.8348116650408188,-0.078410641166689055],"Bias":0.519893761617082,"Output":0.0,"Threshold":-0.43991042511446188,"Type":"GT"}],"Output":null,"NumNeurons":4},{"Neurons":[{"Weight":[-0.578655978002891,-1.2036747439781552,-1.1123490319419243,0.039857818763636921],"Bias":0.68342376625324774,"Output":1.0,"Threshold":-0.95117230175583267,"Type":"O"},{"Weight":[-0.054331920134989442,0.42462741806974952,-0.85203293657490664,-0.615599456995539],"Bias":0.10683408587528817,"Output":1.0,"Threshold":0.99245504056683531,"Type":"O"}],"Output":null,"NumNeurons":2},{"Neurons":[{"Weight":[-1.4108737220106988,0.51476606071042652],"Bias":0.47115251211037512,"Output":0.98591857282080164,"Threshold":-1.5470292510218124,"Type":"GT"},{"Weight":[-0.32992593628380029,-0.49740438675387044],"Bias":0.28377220769588474,"Output":0.0,"Threshold":-0.19837938630877972,"Type":"GT"},{"Weight":[0.41233718405831665,-1.8321915715151427],"Bias":0.5322480548789017,"Output":0.0,"Threshold":0.45186932933104423,"Type":"A"},{"Weight":[1.5599262211168774,-1.55007296407133],"Bias":0.35511574538197171,"Output":0.0,"Threshold":-0.95442948069164046,"Type":"O"},{"Weight":[-0.38835251650959579,-1.029335147226579],"Bias":0.87813209410669846,"Output":0.0,"Threshold":-0.565281460324899,"Type":"O"},{"Weight":[-1.0377009749238848,-0.50173622579394661],"Bias":0.46863469697558774,"Output":0.0,"Threshold":0.81795369592399991,"Type":"GT"}],"Output":null,"NumNeurons":6},{"Neurons":[{"Weight":[1.2903130777600746,-0.17555784503724925,-0.11429642844679588,0.44849472636054022,0.12666588748184304,-0.33021426123111253],"Bias":0.93573364845278373,"Output":0.0,"Threshold":-0.75431562343347625,"Type":"O"},{"Weight":[0.035658008435581756,0.38794054274933437,0.43012847063215232,0.89908715294980768,-1.3380086408306493,-0.71223735120717313],"Bias":0.44733958153395892,"Output":1.0,"Threshold":-0.08634786849525887,"Type":"A"},{"Weight":[-0.13964985270968169,0.79459639861928133,-0.25147498289948567,-0.9877687200657761,-0.97766224247294575,-0.049737605798750834],"Bias":0.93573364845278373,"Output":1.0,"Threshold":0.87626837167845739,"Type":"O"}],"Output":null,"NumNeurons":3},{"Neurons":[{"Weight":[-0.75842063257397174,-1.2285404443873746,1.3343046601977804],"Bias":0.40144171770729203,"Output":1.7357463779050724,"Threshold":0.3054740138144576,"Type":"GT"},{"Weight":[0.57981827610080194,-1.0538322720927336,0.21181046134410919],"Bias":0.68300344078643116,"Output":1.0,"Threshold":0.21620346103618093,"Type":"O"},{"Weight":[-0.18417594776683288,-0.868019297031599,0.17063098985032688],"Bias":0.44091325786007252,"Output":0.61154424771039939,"Threshold":-0.59279725821353368,"Type":"GT"},{"Weight":[0.92197526196109836,-0.690040653339839,0.0534473276014662],"Bias":0.32556746075869392,"Output":1.0,"Threshold":-1.4230399650628864,"Type":"A"},{"Weight":[0.17199057921248753,1.3920676588011143,0.81019313305097873],"Bias":0.48915562020051556,"Output":1.2993487532514942,"Threshold":-0.78722672937788973,"Type":"GT"}],"Output":null,"NumNeurons":5},{"Neurons":[{"Weight":[0.028385836338687662,1.6469688930767445,-1.035630605034378,0.15033867124018219,0.43132473096825164],"Bias":0.91209023115788135,"Output":0.0,"Threshold":-0.35471044707593297,"Type":"A"},{"Weight":[0.6242844670192732,1.9560099113527731,1.8584926761027858,-0.14030803653425908,-1.0607145722306868],"Bias":0.54935933954518257,"Output":0.0,"Threshold":1.2832028676211849,"Type":"GT"},{"Weight":[-0.056708644970788868,0.62843919213418986,0.096312267954373851,0.56654431759503909,1.0818613622831634],"Bias":0.41962149543437244,"Output":0.0,"Threshold":-1.5614694485261429,"Type":"O"}],"Output":null,"NumNeurons":3},{"Neurons":[{"Weight":[-0.10349069610036832,0.33066307399103567,0.54046185991748308],"Bias":0.45583296000530615,"Output":0.0,"Threshold":1.6684786191529031,"Type":"O"},{"Weight":[0.0445343933448947,-0.15633660269160649,-1.272798997477069],"Bias":0.46812352344539176,"Output":1.0,"Threshold":0.2850927183407907,"Type":"O"},{"Weight":[-0.73568760894038132,-1.6736497262835735,0.82532536369996379],"Bias":0.1602600795031805,"Output":0.0,"Threshold":0.31918801009617193,"Type":"O"},{"Weight":[0.38184799830515304,0.429579278125096,1.3918093374892182],"Bias":0.49770772107770095,"Output":0.0,"Threshold":-1.532519133078176,"Type":"O"},{"Weight":[0.26568505248992436,-0.39753456909560347,0.25940885977326378],"Bias":0.74826991837391155,"Output":0.74826991837391155,"Threshold":-0.26206607413013383,"Type":"GT"},{"Weight":[-0.02492241841970122,0.30292846080771452,0.19741578851706149],"Bias":0.37911962688859535,"Output":0.37911962688859535,"Threshold":-1.6691622695276338,"Type":"GT"}],"Output":null,"NumNeurons":6},{"Neurons":[{"Weight":[-0.70342429108145854,1.1751081718542085,1.2158240368254285,-0.14747525292796793,0.0949531021038783,-1.8520025298699909],"Bias":0.39915506257636246,"Output":1.4555830220141139,"Threshold":-0.64039414638671754,"Type":"GT"},{"Weight":[-0.50911756164320487,1.12338420509984,0.35974162926885356,1.0699633973702669,1.5186236368113306,0.0047352099813220416],"Bias":0.24732779769568136,"Output":1.0,"Threshold":0.76478329330672656,"Type":"O"}],"Output":null,"NumNeurons":2},{"Neurons":[{"Weight":[0.48342171752358465,0.58872442335316344],"Bias":0.48235084301901554,"Output":0.0,"Threshold":0.26227831028726223,"Type":"GT"},{"Weight":[0.26123524189984204,-0.7707974822066247],"Bias":0.50758203701469207,"Output":1.0,"Threshold":1.5967865230500635,"Type":"O"}],"Output":null,"NumNeurons":2},{"Neurons":[{"Weight":[-0.6117283274881673,1.7414076643723098],"Bias":0.86211874841811076,"Output":1.0,"Threshold":1.0715224608180685,"Type":"O"},{"Weight":[-1.3074123576783632,-0.049938221950986517],"Bias":0.403767473747147,"Output":0.0,"Threshold":0.95033532704707957,"Type":"A"},{"Weight":[-1.0129308650563149,0.19172162478404198],"Bias":0.928629531491841,"Output":1.0,"Threshold":0.44166666080321493,"Type":"O"},{"Weight":[-1.148852128441253,-0.17454604326281886],"Bias":0.63823058363666307,"Output":0.0,"Threshold":-1.2945557829432914,"Type":"O"},{"Weight":[0.66466953984723731,0.268111155353897],"Bias":0.88673222525358764,"Output":0.0,"Threshold":0.38426476269227683,"Type":"A"},{"Weight":[0.755482710318399,-0.086086484367184468],"Bias":0.182280665115584,"Output":1.0,"Threshold":1.5296773442671063,"Type":"O"},{"Weight":[0.91810242749313,0.70741796340207475],"Bias":0.43228801581183829,"Output":1.0,"Threshold":1.3912614935037033,"Type":"O"},{"Weight":[-0.4719295332957954,0.065445400793812974],"Bias":0.726619691391333,"Output":0.0,"Threshold":1.0202651633975401,"Type":"GT"}],"Output":null,"NumNeurons":8},{"Neurons":[{"Weight":[-0.88584452159301952,-0.4490424091690417,0.43060038386872057,-0.64347857627713989,-0.8688582566363543,-0.7678056956582372,1.5639639289881866,-0.41986114784137413],"Bias":0.25881538218142253,"Output":-0.043749098490067029,"Threshold":-0.94939194448496778,"Type":"GT"},{"Weight":[-0.54994256249626283,0.73762840323039724,-0.32787278077000415,-0.48802503718786178,0.33367510993670457,0.79355964677806923,1.9626601207827497,0.77410452522994233],"Bias":0.22812895161478267,"Output":0.0,"Threshold":1.3186230172024214,"Type":"A"}],"Output":null,"NumNeurons":2},{"Neurons":[{"Weight":[1.8370352312163614,-0.016578989940615824],"Bias":0.6015219151049489,"Output":0.0,"Threshold":1.0593505031705606,"Type":"GT"},{"Weight":[0.45041495096539841,-1.5684337632419902],"Bias":0.82855492636028438,"Output":0.0,"Threshold":1.9024125877313374,"Type":"GT"},{"Weight":[-0.46929408166059017,0.59651456149132676],"Bias":0.63602752460214651,"Output":0.0,"Threshold":-0.63622434746298206,"Type":"GT"},{"Weight":[-0.45279136916911444,-0.51238738862443123],"Bias":0.69086637193843092,"Output":0.0,"Threshold":1.108474930798856,"Type":"A"}],"Output":null,"NumNeurons":4},{"Neurons":[{"Weight":[-1.1032982762152539,1.4445033778643719,-0.696443123834414,0.2004546588056042],"Bias":0.33258134468113137,"Output":0.0,"Threshold":-1.4319966730810685,"Type":"O"},{"Weight":[-0.9331900739561515,0.78998967637423878,-0.99181799824992689,-0.017204248354399709],"Bias":0.73518252610521206,"Output":0.0,"Threshold":-0.7653757715669347,"Type":"GT"},{"Weight":[0.84896137686034134,-1.6592153774850142,-0.5000435595866497,1.2043797905361244],"Bias":0.68178530930624592,"Output":0.0,"Threshold":-0.873422473733801,"Type":"O"}],"Output":null,"NumNeurons":3}],"OLayer":{"Neurons":[{"Weight":[-1.4061490010426025,0.71436767300179449,0.3570229617678668],"Bias":0.71678712485208518,"Output":0.0,"Threshold":-0.056594115993881283,"Type":"OT"},{"Weight":[-0.27449995012697759,0.33948078063059633,-0.53261072679078714],"Bias":0.68146285399862694,"Output":0.70997780461354065,"Threshold":-0.41604945408927724,"Type":"OT"},{"Weight":[0.60267544111827176,-0.84804695791008267,0.97003512164579486],"Bias":0.35247812937129197,"Output":0.0,"Threshold":0.58293484830434172,"Type":"OT"},{"Weight":[-0.78715946468858033,1.0961800353700202,1.777128865954992],"Bias":0.90492022312475384,"Output":0.99699471263066541,"Threshold":-0.0063870963715728923,"Type":"OT"},{"Weight":[-0.695027787562007,1.8278407993856076,-0.34297942567574685],"Bias":0.53576104494487442,"Output":0.0,"Threshold":0.20686785420722709,"Type":"OT"},{"Weight":[-0.43319200089108051,0.85015879890423207,1.8323819040471605],"Bias":0.14924144751822643,"Output":0.0,"Threshold":-0.86587704455753656,"Type":"OT"},{"Weight":[0.33593547918644528,-1.4022855705825079,0.52739782050596451],"Bias":0.11074738675297582,"Output":0.0,"Threshold":0.24669447832121261,"Type":"OT"},{"Weight":[1.128622107092137,1.5401363482420036,1.1684928625675353],"Bias":0.37646085646770006,"Output":0.505825799687099,"Threshold":-0.2248213983722131,"Type":"OT"},{"Weight":[0.45966608459580038,1.0236052307410191,0.48139252457665221],"Bias":0.079811082258732569,"Output":0.0,"Threshold":1.5601185874827759,"Type":"OT"},{"Weight":[-0.92877539942449672,0.27155788709482065,-0.54032189743579229],"Bias":0.28065008044331341,"Output":0.15655483335226872,"Threshold":1.6758054232577817,"Type":"OT"}],"Output":null,"NumNeurons":10},"NumLayers":17,"Breedibility":0.696401761916202,"Mutibility":2.1265172760054103,"Repetition":0}
