{"Input":[0.0,0.0],"Output":[0.0,0.0],"DLayers":[{"neurons":[{"Weight":[-0.58269604648588968,0.70097788223110968],"Bias":0.91190701346467573,"Output":0.0,"Threshold":0.95455623555674973,"Type":"O"},{"Weight":[0.21540428847791826,-0.95644895544110287],"Bias":0.2430843670121787,"Output":0.0,"Threshold":-0.89928580443341555,"Type":"GT"},{"Weight":[-0.86872373049553653,0.65400122509058622],"Bias":0.34484095654675784,"Output":0.0,"Threshold":0.12838085513952227,"Type":"GT"},{"Weight":[-0.065947358061534983,0.84625944907137163],"Bias":0.85862492530542656,"Output":0.0,"Threshold":-0.98983224294606231,"Type":"GT"},{"Weight":[-0.052566074325035364,-0.40950981080974908],"Bias":0.0070221605743384739,"Output":0.0,"Threshold":-0.66320025858618326,"Type":"O"},{"Weight":[-0.28047668108738805,-0.60466951765337473],"Bias":0.5702045096877052,"Output":0.0,"Threshold":-0.144579233203353,"Type":"A"},{"Weight":[-0.12882709276342164,0.07006819502919362],"Bias":0.86859597166469138,"Output":0.0,"Threshold":-0.96067476270751784,"Type":"GT"},{"Weight":[0.94615983075749122,0.88525344146660223],"Bias":0.10829678648537806,"Output":0.0,"Threshold":0.92221062906189388,"Type":"O"},{"Weight":[-0.77468186652971516,-0.18106897742537267],"Bias":0.48977599362366647,"Output":0.0,"Threshold":0.93782156470130273,"Type":"A"}],"output":null,"numNeurons":9},{"neurons":[{"Weight":[-0.62295930163141311,0.86034401406550032,-0.33703360908526631,0.921368124858182,0.10040247584711876,0.44934315860706531,0.53083382431922188,0.091891311617517527,-0.95519461946338169],"Bias":0.24076053418254503,"Output":0.0,"Threshold":-0.777946817119581,"Type":"A"},{"Weight":[0.35826605202549416,-0.37909747212151879,0.11032069107066872,-0.25788205082429666,0.19100552806211893,-0.86454472311984032,0.24563667003327824,0.39187845280015771,-0.609126221672225],"Bias":0.96388531660842025,"Output":0.0,"Threshold":-0.72323209546656908,"Type":"GT"},{"Weight":[-0.36815847147636044,0.24384804221049325,-0.089177665807855161,0.53458137416028484,-0.58827814813157453,0.78236658302245965,-0.93268897474402979,0.14461386536462878,0.25419105508094236],"Bias":0.6620590084521375,"Output":0.0,"Threshold":0.8443214962465323,"Type":"A"}],"output":null,"numNeurons":3},{"neurons":[{"Weight":[-0.16553892342631654,0.42217157567952368,0.024590765603161775],"Bias":0.83901065394236274,"Output":0.0,"Threshold":0.81406150051116077,"Type":"A"},{"Weight":[-0.26389521884913336,-0.0732894745065316,0.27840603761300725],"Bias":0.066922453728934031,"Output":0.0,"Threshold":0.72149960544030167,"Type":"GT"},{"Weight":[0.43696806833006818,0.54542250537566028,0.19852975113248908],"Bias":0.68693761885489224,"Output":0.0,"Threshold":-0.14755882515923996,"Type":"GT"},{"Weight":[-0.163572814391727,-0.49905839725353679,-0.0783091187841767],"Bias":0.66700609012833145,"Output":0.0,"Threshold":0.68288689836994132,"Type":"A"},{"Weight":[0.7492674941892119,0.052293105075272316,0.66879375589489642],"Bias":0.071324390858097178,"Output":0.0,"Threshold":0.75119163875989226,"Type":"GT"},{"Weight":[-0.59513655472320348,0.949925035214948,0.61825125646696022],"Bias":0.83690998975043651,"Output":0.0,"Threshold":-0.68514081448555963,"Type":"A"},{"Weight":[0.13766142872053266,0.80803405298294217,0.75127801194380872],"Bias":0.79977844366793449,"Output":0.0,"Threshold":-0.82270080168857274,"Type":"A"},{"Weight":[-0.20732649984179366,-0.21150899688317859,0.2426974420634552],"Bias":0.53063521279517334,"Output":0.0,"Threshold":-0.760059167053578,"Type":"GT"},{"Weight":[0.71466559763749393,0.17177380769130485,-0.46603653229122821],"Bias":0.50761153013799876,"Output":0.0,"Threshold":0.62192325928338021,"Type":"A"},{"Weight":[0.61267216858112816,-0.3733439507770091,-0.5418358191576953],"Bias":0.80548110129566919,"Output":0.0,"Threshold":-0.38339271414251658,"Type":"O"},{"Weight":[-0.094733417078262855,-0.65850379348662857,-0.87619877926828282],"Bias":0.911312893923052,"Output":0.0,"Threshold":0.9425130504847099,"Type":"GT"},{"Weight":[-0.051975392760697472,-0.616903809186492,-0.52393517947007673],"Bias":0.51967802109181793,"Output":0.0,"Threshold":-0.88553188456480014,"Type":"GT"},{"Weight":[-0.29874712335818782,0.19036338533757413,-0.21615171070031436],"Bias":0.010691604581983576,"Output":0.0,"Threshold":-0.94011916543362628,"Type":"GT"},{"Weight":[-0.017971812755787658,-0.72597384067530457,-0.20928447330802888],"Bias":0.27724218660837141,"Output":0.0,"Threshold":-0.0248126695048123,"Type":"A"}],"output":null,"numNeurons":14},{"neurons":[{"Weight":[0.56509847965328885,-0.8375390739354952,-0.53582134588426977,0.36781889357036862,0.33992037053216267,-0.919949216730869,0.32355823801996103,-0.91687823269370861,0.061514461441670762,-0.650737555069261,-0.97119372848942587,0.44955591924933525,-0.9047328941080407,0.41110190628613436],"Bias":0.057893171002107287,"Output":0.0,"Threshold":-0.92467326201716127,"Type":"A"},{"Weight":[0.94792832571451013,-0.73364864370489891,-0.35282431140207887,0.68033036481604459,-0.642872711011615,0.1256557950403801,0.098022596024918654,0.40241560265534354,-0.29240624061432025,-0.21572772516670066,-0.39556583408059826,-0.15824430117301844,-0.53792964412734356,-0.53899022635956773],"Bias":0.9538595601701455,"Output":0.0,"Threshold":0.57157830967175693,"Type":"GT"},{"Weight":[-0.04327229272726564,0.23260052978647897,0.83003933533562313,0.70543589242987148,0.25047906267013359,0.55753668377061216,0.351281089871787,0.67880393363479707,0.94846137936621033,0.50383434328429133,-0.70894553685046058,0.44366266133434262,0.42284475752284972,-0.65243997688053179],"Bias":0.61427598521778171,"Output":0.0,"Threshold":0.4953860009533288,"Type":"O"},{"Weight":[0.50310303247678234,-0.60347183961582918,0.73411311336518881,0.81207458852421244,-0.70234591220614773,0.84352417934850055,-0.49698945437417807,0.73688050486933465,0.38190861064098247,-0.23648298449650546,-0.067743966387465576,0.70630157166454088,-0.63705805998158549,-0.31962442180124317],"Bias":0.0740686348053015,"Output":0.0,"Threshold":-0.4133241253035721,"Type":"A"}],"output":null,"numNeurons":4}],"OLayer":{"neurons":[{"Weight":[0.50619547185776548,0.69452370782127781,0.49844710179532276,0.82900769069278968],"Bias":0.12119981279652557,"Output":0.0,"Threshold":0.95691339390208641,"Type":"OT"},{"Weight":[0.96643225800545529,0.87028232676455863,0.25594956067202129,0.70021309270533416],"Bias":0.39535949537314452,"Output":0.0,"Threshold":-0.01330500981458696,"Type":"OT"}],"output":null,"numNeurons":2},"NumLayers":4,"Breedibility":0.72176861982874974,"Mutibility":0.03550434952392445,"Repetition":0}
