{"Input":[0.0,0.0,0.0,0.0,0.0,0.0,0.0,0.0,0.0,0.0,0.0,0.0,0.0,0.0,0.0,0.0,0.0,0.0,0.0,0.0,0.0,0.0,0.0,0.0,0.0,0.0,0.0,0.0,0.0,0.0,0.0,0.0,0.0,0.0,0.0,0.0,0.0,0.0,0.0,0.0,0.0,0.0,0.0,0.0,0.0,0.0,0.0,0.0,0.0,0.0,0.0,0.0,0.0,0.0,0.0,0.0,0.0,0.0,0.0,0.0,0.0,0.0,0.0,0.0,0.0,0.0,0.0,0.0,0.0,0.0,0.0,0.0,0.0,0.0,0.0,0.0,0.0,0.0,0.0,0.0,0.0,0.0,0.0,0.0,0.0,0.0,0.0,0.0,0.0,0.0,0.0,0.0,0.0,0.0,0.0,0.0,0.0,0.0,0.0,0.0,0.0,0.0,0.0,0.0,0.0,0.0,0.0,0.0,0.0,0.0,0.0,0.0,0.0,0.0,0.0,0.0,0.0,0.0,0.0,0.0,0.0,0.0,0.0,0.0,0.0,0.0,0.0,0.0,0.0,0.0,0.0,0.0,0.0,0.0,0.0,0.0,0.0,0.0,0.0,0.0,0.0,0.0,0.0,0.0,0.0,0.0,0.0,0.0,0.0,0.0,0.0,0.0,0.0,0.0,0.0,0.0,0.0,0.0,0.0,0.0,0.0,0.0,0.0,0.0,0.0,0.0,0.0,0.0,0.0,0.0,0.0,0.0,0.0,0.0,0.0,0.0,0.0,0.0,0.0,0.0,0.0,0.0,0.0,0.0,0.0,0.0,0.0,0.0,0.0,0.0,0.0,0.0,0.0,0.0,0.0,0.0,0.0,0.0,0.0,0.0,0.0,0.0,0.0,0.0,0.0,0.0,0.0,0.0,0.0,0.0,0.0,0.0,0.0,0.0,0.0,0.0,0.0,0.0,0.0,0.0,0.0,0.0,0.0,0.0,0.0,0.0,0.0,0.0,0.0,0.0,0.0,0.0,0.0,0.0,0.0,0.0,0.0,0.0,0.0,0.0,0.0,0.0,0.0,0.0,0.0,0.0,0.0,0.0,0.0,0.0,0.0,0.0,0.0,0.0,0.0,0.0,0.0,0.0,0.0,0.0,0.0,0.0,0.0,0.0,0.0,0.0,0.0,0.0,0.0,0.0,0.0,0.0,0.0,0.0,0.0,0.0,0.0,0.0,0.0,0.0,0.0,0.0,0.0,0.0,0.0,0.0,0.0,0.0,0.0,0.0,0.0,0.0,0.0,0.0,0.0,0.0,0.0,0.0,0.0,0.0,0.0,0.0,0.0,0.0,0.0,0.0,0.0,0.0,0.0,0.0,0.0,0.0,0.0,0.0,0.0,0.0,0.0,0.0,0.0,0.0,0.0,0.0,0.0,0.0,0.0,0.0,0.0,0.0,0.0,0.0,0.0,0.0,0.0,0.0,0.0,0.0,0.0,0.0,0.0,0.0,0.0,0.0,0.0,0.0,0.0,0.0,0.0,0.0,0.0,0.0,0.0,0.0,0.0,0.0,0.0,0.0,0.0,0.0,0.0,0.0,0.0,0.0,0.0,0.0,0.0,0.0,0.0,0.0,0.0,0.0,0.0,0.0,0.0,0.0,0.0,0.0,0.0,0.0,0.0,0.0,0.0,0.0,0.0,0.0,0.0,0.0,0.0,0.0,0.0,0.0,0.0,0.0,0.0,0.0,0.0,0.0,0.0,0.0,0.0,0.0,0.0,0.0,0.0,0.0,0.0,0.0,0.0,0.0,0.0,0.0,0.0,0.0,0.0,0.0,0.0,0.0,0.0,0.0,0.0,0.0,0.0,0.0,0.0,0.0,0.0,0.0,0.0,0.0,0.0,0.0,0.0,0.0,0.0,0.0,0.0,0.0,0.0,0.0,0.0,0.0,0.0,0.0,0.0,0.0,0.0,0.0,0.0,0.0,0.0,0.0,0.0,0.0,0.0,0.0,0.0,0.0,0.0,0.0,0.0,0.0,0.0,0.0,0.0,0.0,0.0,0.0,0.0,0.0,0.0,0.0,0.0,0.0,0.0,0.0,0.0,0.0,0.0,0.0,0.0,0.0,0.0,0.0,0.0,0.0,0.0,0.0,0.0,0.0,0.0,0.0,0.0,0.0,0.0,0.0,0.0,0.0,0.0,0.0,0.0,0.0,0.0,0.0,0.0,0.0,0.0,0.0,0.0,0.0,0.0,0.0,0.0,0.0,0.0,0.0,0.0,0.0,0.0,0.0,0.0,0.0,0.0,0.0,0.0,0.0,0.0,0.0,0.0,0.0,0.0,0.0,0.0,0.0,0.0,0.0,0.0,0.0,0.0,0.0,0.0,0.0,0.0,0.0,0.0,0.0,0.0,0.0,0.0,0.0,0.0,0.0,0.0,0.0,0.0,0.0,0.0,0.0,0.0,0.0,0.0,0.0,0.0,0.0,0.0,0.0,0.0,0.0,0.0,0.0,0.0,0.0,0.0,0.0,0.0,0.0,0.0,0.0,0.0,0.0,0.0,0.0,0.0,0.0,0.0,0.0,0.0,0.0,0.0,0.0,0.0,0.0,0.0,0.0,0.0,0.0,0.0,0.0,0.0,0.0,0.0,0.0,0.0,0.0,0.0,0.0,0.0,0.0,0.0,0.0,0.0,0.0,0.0,0.0,0.0,0.0,0.0,0.0,0.0,0.0,0.0,0.0,0.0,0.0,0.0,0.0,0.0,0.0,0.0,0.0,0.0,0.0,0.0,0.0,0.0,0.0,0.0,0.0,0.0,0.0,0.0,0.0,0.0,0.0,0.0,0.0,0.0,0.0,0.0,0.0,0.0,0.0,0.0,0.0,0.0,0.0,0.0,0.0,0.0,0.0,0.0,0.0,0.0,0.0,0.0,0.0,0.0,0.0,0.0,0.0,0.0,0.0,0.0,0.0,0.0,0.0,0.0,0.0,0.0,0.0,0.0,0.0,0.0,0.0,0.0,0.0,0.0,0.0,0.0,0.0,0.0,0.0,0.0,0.0,0.0,0.0,0.0,0.0,0.0,0.0,0.0,0.0,0.0,0.0,0.0,0.0,0.0,0.0,0.0,0.0,0.0,0.0,0.0,0.0,0.0,0.0,0.0,0.0,0.0,0.0,0.0,0.0,0.0,0.0,0.0,0.0,0.0,0.0,0.0,0.0,0.0,0.0,0.0,0.0,0.0,0.0,0.0,0.0,0.0,0.0,0.0,0.0,0.0,0.0,0.0,0.0,0.0,0.0,0.0,0.0,0.0,0.0,0.0,0.0,0.0,0.0,0.0,0.0,0.0,0.0,0.0,0.0,0.0,0.0,0.0,0.0,0.0,0.0,0.0,0.0,0.0,0.0,0.0,0.0,0.0,0.0,0.0,0.0,0.0,0.0,0.0,0.0,0.0,0.0,0.0,0.0],"Output":[0.0,0.0,0.0,0.0,0.0,0.0,0.0,0.0,0.0,0.0],"DLayers":[{"Neurons":[{"Weight":[-0.94414321516833422,0.77082794847471081,0.69867260833209033,0.46544195127926857,-0.16192280788064134,-0.51610672777337341,-0.06421883081282434,0.55663951651968036,-0.085727999958083029,-0.9677885691485314,-0.38470540772411294,0.23322727122960019,-0.12701159442170132,-0.9608251307908563,-0.3589906452032694,0.15151849442697993,-0.17806170190594239,-0.35517956612407209,-0.49358929204456009,0.74987458798562856,0.11711256770282638,0.21844282011428978,0.60353279141873717,0.46925677474087885,-0.84701584831206866,-0.38037185621465175,-0.10901173302392091,0.98985315951977537,0.23563417058234762,-0.55722551166882062,-0.82397493106498143,0.63326285902097024,0.26560998813510406,0.86021760146143733,-0.078164604994545042,-0.30195573684850507,-0.39806451713576191,-0.043391359058856667,0.802379245777791,-0.24819515424230842,-0.75715218240262572,-0.31220126213142707,0.89536652196914257,-0.43381422964567984,-0.23649876575753967,0.016293160624938626,-0.44719176806844385,0.70794388032888245,-0.29723742664663,0.36216681188073324,0.84753213070683742,0.88128651160806726,-0.9738950091292593,0.085128687827442165,0.98480371524803512,0.12094190349846236,-0.67090484857135679,0.71511146878596,0.99402357870434577,0.99081790772770439,0.53946653545809287,0.60136813977796966,0.28841902468745551,-0.63411895215237468,-0.72792587742578507,-0.15696769540988267,0.24328365933302959,-0.571729731546589,0.12008750258017681,0.10924489009624575,0.58319660163633369,0.16506291235101545,-0.31091651334935638,-0.90358444065953814,0.56249946801108286,0.8168641481627078,0.34144048268973848,-0.090785490856871709,-0.030021729427399918,-0.253884638312219,0.66494218384145864,0.94521609784346827,0.37868034205338,-0.38690004003555517,0.56623391786880506,-0.70251341429656067,-0.44087806969921944,0.014088097034994558,0.54528806151137132,0.33538967479737,-0.82388200695807212,0.55795411232763625,-0.4156394840290954,-0.12868037267060967,-0.52715763707047214,0.0957405837698563,0.51601296081953352,0.93136320213385071,-0.81545615653295822,0.32217038624089694,0.9992094212207987,0.74299420078424472,0.18282954915558433,0.30623639715194534,-0.75079401617441044,-0.59189309533307943,-0.899590648663971,-0.422546554553577,-0.40672099516108678,0.33666059902713663,0.52214067546750453,-0.52580408357354069,0.49360857181884749,0.70811301875305965,-0.46314931961854422,-0.96333812454870815,0.57834702524279569,0.903100142210303,0.58189663271508019,0.6597533648180558,-0.10361683140677253,-0.72760752994921407,0.84265547936905894,-0.985516530454865,0.44026977403101969,0.21180049898652384,-0.076102230267646828,-0.13795478974373768,0.3248186364419845,-0.47954174060353161,0.88462514983705487,-0.48377864131879927,-0.34865308522649718,-0.55115729270091152,-0.4484749326708144,0.75815471762705344,0.44287981905177226,-0.86521028208788964,-0.18089096396271651,0.28902986379760776,0.83188970472285972,0.13779196708360314,-0.18376610390086012,-0.056423001948941037,0.53733941984239009,0.64844065050056232,-0.10526205930172562,-0.938276165601926,-0.69797377041446684,-0.86651334206876962,0.4150789731252375,0.71596295326760173,-0.83315713416466353,0.26994315361135784,0.48813299065834514,-0.90981996334615167,0.32227899381997016,-0.53353360925499982,0.59038268895371937,-0.17146130938616641,-0.40294486116755046,0.68695701923545316,0.80084661711046778,-0.716655135954104,-0.57548311798622975,0.64241449331977152,0.44412431420950421,-0.11229333286746095,-0.82771217954704179,0.03868033366216362,-0.98057199827422015,0.73687076183821576,0.90256925155528323,-0.64830878127753211,0.76079644158519644,-0.78505948641573053,0.20091880727602113,-0.980342755085017,-0.074263072141568673,-0.19013588930952172,-0.67322816777659034,0.98685982869326128,-0.15515203268972785,-0.57005666595420645,-0.83987610174337224,-0.51323783747536966,-0.57326083982980847,0.11756593506669902,0.58928277836613485,-0.73351646621409639,0.13925816125201906,0.38775332662637968,0.70470862030270909,0.60759204002450784,-0.9253994924600234,0.9964065412042693,0.95667357135409192,0.12065463239357557,0.5072202265761887,0.58462086114316292,-0.064203004382645243,-0.31321652294752028,-0.084088311104145053,0.5127717570926863,-0.65080947366115149,-0.499642654554752,-0.34636076928412579,-0.90633203038309329,-0.7336400587734021,0.29365626363719638,0.49371707602111486,0.49113725381490647,0.46645745470489258,0.48689965693601389,-0.256923876822425,0.40164457932191183,0.3625632642593995,0.10238394239097086,-0.25034598831569121,-0.8940686583025701,0.043610139304590477,0.024939431820502241,0.52372524539182208,0.40147417476469377,-0.086758111643957955,-0.12553855410103618,0.44484961426111386,-0.30754305948854566,-0.74063478118769577,-0.831474990971142,0.85458660118961083,-0.56641642123759561,0.66983336986500464,-0.76451568247960677,0.92116500014493474,0.85931966819768757,0.11463420098397611,0.55515999698786067,0.86936832865205049,0.29278295640497604,0.36392871866185622,-0.49341258615879929,0.13284876809122448,-0.40592728620671076,0.62471327121589015,0.16685134506172097,0.25834588997920316,-0.50863576098747354,0.21783532072689166,0.18408817340810232,0.1048119119856562,-0.011959628673251545,-0.15166930768250922,0.38388316630566638,0.43069072786285112,-0.300526915258042,-0.20392536474574607,-0.95475669901573879,-0.43918847313112974,0.25957338337766628,-0.24293846788021664,0.78939116736379977,-0.83199455907195552,0.38547328784385382,-0.42179814047263847,-0.49163001332973594,-0.45312753713369719,-0.49231794825397335,-0.541815399444576,0.094265593259719,0.51924404572660288,-0.94602181154583664,-0.63196178322283636,-0.54971230241922309,-0.62062654160923625,0.67182060688353173,-0.37294389697394514,0.631921023424678,-0.19797856882120415,-0.25591764843832593,0.09624608843412534,0.092617572328363346,-0.10644771210218208,0.650291533512199,0.74202718247753907,-0.75899617362720717,0.22621592703564833,-0.24746211210613237,0.44178133152508237,0.35671451844122004,-0.55596969861349543,-0.91862441874976475,0.77233031008966746,-0.86390715132649387,0.78600244167540334,0.1785804136556482,-0.14958273021019192,0.55488330337912,0.79889400107734554,0.92018783368179013,0.41314074090362563,-0.28197357677015178,0.44882801428848318,0.67113787339587594,-0.16991990346923466,-0.27522743738965477,-0.66656880856797507,0.49001760803629535,0.92600778719690058,0.21420950079998444,0.19976871563110907,0.99999945797026135,-0.39961730288323821,-0.88410536427242,0.053560688185301,-0.55253289339716216,0.84256778789803743,0.35542154375250523,0.079498951826011272,-0.765145938268465,-0.9231383395023357,0.86582561808909553,0.50008174194958144,0.85196326386740584,0.55826067857363293,0.748604052583037,-0.74527249985620025,0.3685172006341243,-0.763710944803297,-0.64281152218711168,-0.7540271481284998,0.71093921722422315,0.72796123555300818,0.59265515934333912,0.13193382002968984,-0.655274608011951,-0.11349768150295023,-0.58903315970163472,-0.7487203938647734,0.46663626118872142,-0.38850083732442037,-0.6196769618520872,0.82424621974315782,-0.73702683101269739,0.41991140154186235,0.028548351036640048,0.2333840714923032,-0.38017064956024788,-0.38846802869274655,0.77754707717222493,0.15070230707093249,0.530293546398307,0.16483513552920667,0.80675269980298014,-0.81898317477618487,-0.049874335084983304,0.84861931244312749,0.8198630757722366,-0.87352327111806871,-0.772823411399882,-0.055901275508059782,0.45822880485012607,0.6692099611597182,0.81642812202518256,-0.69984105355098891,-0.71189344102139285,0.71694406807280331,-0.50555752939803411,0.69158445144611613,-0.068615809114936643,-0.82552981228825162,-0.61556827864403285,0.50695247971776525,-0.91562406575103483,0.73691894939957137,0.55641483541411108,0.49593257554617365,0.65125235992076447,0.51559425262529135,-0.19129240521755647,-0.88236373704036875,0.96541974319397461,0.55626228989859217,-0.55227573148546538,-0.48099415632011094,-0.84056469883796048,0.40887246346514322,0.27014891117352474,-0.54253542727908843,0.068154525509176084,0.97540716406675387,0.81979670693157092,0.60268021775534386,-0.98403183137254413,0.1082302658391326,0.89908352722371165,0.56788219025725606,0.24309062363723788,0.10634629107375922,0.59549338072328517,0.20705281999290587,-0.76583822945404711,-0.0074568004382107407,0.50210729264752352,0.41171944253692377,-0.45006317386872285,-0.88703201566218959,-0.29839674164466407,-0.43024033654026705,0.057207903851386112,0.58587809679372149,0.98090642084409785,-0.50610176869952206,0.54646648538600029,0.40427842708503753,0.87778895016656677,-0.71097975350496345,-0.70282858968844109,-0.80375750679697722,-0.844362753836607,-0.29880639226120265,-0.62335627182543107,0.062895754381500066,-0.849365894612561,0.49641516175885458,0.14525243227614668,0.89847225318591684,0.35116445475777819,0.8455809582237066,0.82563188477681571,0.89559967438485455,0.44428509773886071,0.78932816851387178,0.49814136489207922,-0.57858240584776843,0.50901049399236709,0.26923743508254988,-0.45654221272866347,0.89384374529767952,0.905139473688388,-0.25480089395064903,-0.11764539830276995,0.54940371008096434,0.68838301705586868,-0.77994751919989824,-0.303338826775243,0.66243116867841745,-0.26501438359963447,0.69118320880978512,-0.65178497864482221,-0.19182104393458974,-0.707888788873278,-0.42131212885552649,-0.72350866707205241,0.3836025630047557,-0.79600905757211571,-0.89266352769577106,0.64848911792435171,0.770401334283129,0.16765959009884837,0.17482488657106873,0.97597252250461486,0.84613812987047166,-0.27974611440661645,-0.63157946226726258,0.75922658143529043,0.88800829504058154,-0.62431831593826337,0.55210650179167586,-0.052643675381617468,0.16153418093991195,0.48723241476678869,0.2169667292465301,0.11329097771704708,0.29258362403725441,0.64035832539217463,0.73863338154676994,0.024862964183493968,-0.11747333040343287,0.50080007524266845,-0.92332903478449635,-0.37029894505175714,0.14152808307741213,-0.41777938949772131,-0.38517420896569926,0.083497881928224993,0.91768561812009919,-0.74275113956199545,-0.14007397235374616,0.34863988978259258,0.38976501086250182,-0.035581069083689278,-0.40542422766118508,-0.24891739210529132,-0.68058865875033137,-0.043881710639168375,-0.26990711794696148,0.42299952610535524,-0.31620566468509176,-0.7376647716097835,0.57977175273921888,0.2677644348087555,0.54591211795150862,0.80316829718796923,0.0047485185809193736,-0.42444068446030875,0.79364228006156268,-0.52849112941347576,-0.35976290486741946,-0.93239578229021081,-0.55954089181476319,-0.50662324601161446,0.44325236624258213,0.72978702314653765,0.39833150310364157,0.17211461214912804,0.3591148962076357,-0.26881523489431258,-0.35904303582340619,0.45625734443602028,-0.23520436893925273,-0.13576011831674731,-0.63536297466389968,0.61618205188595787,-0.60589640569216408,0.40642730212138373,0.21701662252518192,-0.84896755351171249,0.41945582694348688,0.36219718091292175,-0.910877161152138,-0.51897084923413161,-0.36442807520014608,0.66157876637837787,-0.38339785271482441,-0.93747852832892842,-0.9118721382282079,-0.86795104801093748,-0.14151063428330729,-0.69000757517759115,-0.057491498094746608,-0.17740167732229534,-0.57013363045180854,0.77364494501317149,0.091163890944404483,-0.04423011096391366,0.86793434101526357,-0.85388288221037145,-0.81264419053338666,-0.779617896200911,0.36160928167477685,0.23429617762300009,-0.18899943362409222,-0.03620404379265571,0.766558306648656,-0.16099036585585697,0.25238630978967358,0.81474706987605761,-0.84246853685121448,-0.4580539555559186,0.66013417190878376,-0.76234694466104125,0.020575080542161634,-0.26169704192397047,0.31375285671732989,-0.41528166151385831,-0.58295937840964618,-0.058455036514650581,0.87779681518571306,-0.0828541075265287,0.18783438633560873,-0.95804723489938637,0.80532386889929131,0.16426284106646796,-0.76927170658915844,0.37286561791452844,0.64951857675310154,-0.54144968583316067,0.00032427161947091651,0.52051613364392713,0.015098877258179187,-0.73562802688015072,-0.20576003995060924,0.47391917392328342,0.88367782620884372,-0.92098735315771185,-0.16426320055698193,0.95255525873627289,-0.97892598993094915,-0.61175974906038477,-0.35656653640631891,-0.55858165517383329,0.27975127533066613,0.38441952522118555,0.946974031602486,-0.29449601019476357,-0.11579432949227948,-0.2782388340114797,0.98863603453554028,0.26436214952932768,-0.5134323847077007,-0.0421236520829255,-0.13411136070923477,-0.40126368189289408,0.68667299239275648,0.44571006691349208,-0.20545281060293913,0.31160351974498646,-0.14976902685583057,-0.8341901380727953,0.74263273866038426,-0.8169885607515408,0.22543077786705959,0.090363744222728415,-0.88647741027478011,-0.9472340759575526,0.02786260565177659,0.51979113720347692,-0.29377191154927568,-0.12454278214114847,0.44849109717108826,-0.25705813488786022,0.18810891275671726,0.85513144491944992,0.10308053163023691,0.32971467745011424,0.0099156834231296943,0.93563886635733717,0.58331168796090027,-0.023914140660275772,0.0763437999767921,-0.59832492219206179,-0.65834549938251519,-0.68023691078659,-0.9675014745292726,0.38543140207670229,0.35243110188861893,0.90751416371553861,-0.2731299117548065,0.061749933781917177,-0.0052716527158728115,-0.64649861755152171,-0.14335687698021385,-0.12490448501189448,0.99784927768532616,0.37295459973297762,0.28532259598622217,0.036699931154353514,-0.30129227056228197,0.68304895687990308,0.90615958296980692,0.6610002432302573,-0.21360411830879938,-0.15923104861715393,-0.0008427249271621578,-0.71011442631022748,-0.73051487176237384,0.26843661035803917,-0.0051859151596137859,-0.070244560982214543,0.18598541346657341,-0.27411538887494963,0.98238263231813094,0.55520969422311039,-0.68444647578729623,-0.54172327534375864,-0.79254514760921946,-0.73287470114085573,0.80086178323294122,0.073837771580479,0.27634087683462577,0.11866299208191362,-0.82643237282821558,0.77099223424261076,-0.58239790870919728,0.791620649300339,-0.97321213594321732,-0.691233600811676,-0.30905138948422456,-0.76536066726099727,0.93397269301767116,0.60432280069418387,-0.55090004510753787,0.31517243586255816,0.65200515540875736,-0.81361999028065246,-0.23704526072230436,-0.94643269709610967,-0.44206820169560063,0.60452230256261408,0.11293206182910691,-0.91919867411218525,0.31908694995524683,-0.25646107888615738,-0.49329731869199189,0.11305348487247409,0.13339465071139608,0.720201796721761,-0.23181240783623067,-0.35432591212649173,-0.95006458039864183,0.24843758402785174,0.60859816736010752,0.75336397753719431,-0.51384268585305781,0.903360187496692,-0.62552326527681357,-0.21674776040797483,-0.7384357916835862,0.57104817571632949,0.22398013259469538,-0.052686633566714186,-0.73327825112886647,-0.97303594647582436,-0.69586827452102129,-0.11803779709992827,-0.014563519514428228,0.76708103565828922,-0.40632937075864961,0.65363015078642883,0.79795005954706577,-0.81842707880699406,-0.4840861244518711,-0.9452929501167,-0.52741018893542246,0.88027061935526818,-0.65747969069400791,0.12201102875266738,0.1723216484171905,-0.002787921578990259,-0.71215410563729431,-0.86127379017941363,0.22334559877558871,-0.92559843832887634,-0.28113401554577705,0.87287636747252029,0.6884643317612188,0.20163594847621208,0.16447559239551221,0.78047271900832316,0.29751082477043889,-0.96547712244348471,-0.44745566670198722,0.55606064459125537,0.13652011246258397,-0.71560213142801177,-0.18034457982533825,0.92174279220483391,0.83804522400630876,0.92856832404088618,0.24729308870029315,-0.80404558396155279,-0.56811969101807092,0.20125359352736436,0.1531039556270018,-0.8026863168006233,-0.20340602155933438,0.068283567702529746,0.29499954371480253,0.7386607330938153,-0.13375920762017332,-0.23047201159897821,-0.61322184913476085,-0.37495871045391949,0.015408485669367242,0.68661589440266413,0.97220438670935316,0.31309363539940382,0.083810763006941777,-0.68675252501235928,0.027066278283980803,0.50671965978421252,-0.99723280966153038,0.21904460863165773,-0.21955219061093043,-0.24247384967397612,0.89364994591737634,0.660507064620269,-0.34782881445615965,-0.585364359237889,0.950008618622091,-0.70491992715043938,-0.91073401594103032,-0.29934455095759804],"Bias":0.1293075620798895,"Output":0.0,"Threshold":0.34907356898722869,"Type":"O"},{"Weight":[0.91964904913662426,-0.96795944868026274,0.75905516313344945,-0.48398207942209304,0.23138112864987045,0.1810763828368282,-0.42168870541345732,-0.63851496746694436,-0.32569938214761174,0.37138118425914141,0.18152655483294583,-0.17247971900388587,-0.13081230462100929,0.62843618617785912,-0.14470864280346252,0.60863582026615548,0.35695803787417618,-0.31199460072070107,-0.96558314839637982,0.22246310264918168,-0.83884861545583633,-0.8863128250866722,0.61954863724277753,-0.067252695126111012,-0.63200643594935835,0.89150019264384184,0.97769238472808728,-0.34658207481102182,0.44369267646395261,0.1672146712277153,0.0628656233022295,-0.024460012570237746,-0.028379507841719085,0.56100541425915684,-0.14297764382463771,0.073078641236330677,0.10911226696759102,0.92213145267317609,0.6827457461891443,-0.60689262096159746,-0.95052556411853317,0.094704970295869259,0.11034484119636231,-0.89278623689561443,0.36778314521898664,-0.83378487398558521,-0.19526541754382915,-0.59366138167384142,0.39173569129395097,-0.28461378267249732,-0.22595106075794952,-0.31278412757105384,0.18760412008855684,-0.68861992549552575,0.05737547485966956,0.66784473167166336,0.13462556951429022,0.79075133977027212,-0.66256570288099614,-0.119191253613304,-0.41781152431751206,-0.33954034016446227,0.52725254303182123,0.76795387583223818,0.121192797609229,-0.37359515967480611,-0.57487264581717212,0.11790476884595341,0.85989028721111371,-0.69642176139001821,0.12228370230751284,0.320075635481661,-0.2935593911882301,-0.089439388406201914,0.69043485899010437,-0.41901223939797477,-0.53758547666370193,-0.891139351712139,-0.020388869578199867,-0.74371647590013057,-0.16032702343553631,-0.14164540783578783,0.2076560641674586,0.0093336021571110948,-0.705454072777859,0.030300921308948157,0.44401236970164459,0.0951921777311676,0.86347866843616528,-0.88801412977651417,-0.75957429490963668,-0.93749120921711027,-0.42154127099623029,0.48838353924843647,-0.40680239321980738,0.57020748479767125,-0.080019475463786849,-0.02173691849305151,-0.48830262361480975,0.57887585720926327,-0.24024502385419097,-0.66645250314215776,0.67316925184483134,0.80728919050064363,-0.9719457249026493,-0.17891808840395793,-0.24319647682979539,0.5790161418630817,0.12320264807120089,-0.79528069346923413,0.15349217651108846,0.42988143136253648,-0.62994750059672977,-0.75881027605329188,-0.91539039319166471,0.29956086925210473,-0.974132561578477,0.037428893166328261,-0.72959479677006356,0.744553372610618,0.31500440897187426,-0.53578901828070591,-0.89658992360187229,0.48548320377500875,-0.77881518275421824,0.93838719694800077,-0.30797297754696246,0.49819149891761666,-0.82287413246132157,-0.86033237299897358,0.82137221182760423,0.685067771787321,-0.80371498959311982,-0.49324788921198243,-0.42861366571328308,0.034684926753251313,0.97936941076972028,-0.77035805572306648,-0.96580984069305,0.73335613717015657,-0.81613803692913522,0.30736586233012653,0.095215135763965147,-0.45225201987300628,-0.73813895543019237,0.683944598624457,-0.58687896262243344,0.019986571287730043,0.20285760248212964,-0.499811544781463,-0.60957914479522923,0.18536325087089242,-0.22277226821648527,-0.78501042946475108,-0.7231553367912561,0.772836324187385,-0.30315030519997249,0.55540997421155214,-0.41374228308617245,-0.84312825642671818,-0.966441071110983,-0.26872706705179394,-0.38825281215284618,0.089112349827360521,-0.93393533906616988,-0.062709199759508116,-0.6265433522064906,-0.91754132179428882,0.9594701085982239,0.43516093000544276,-0.75017059955288223,0.75746383227289837,0.52594640409850812,-0.38993804919996206,-0.81759538725837855,-0.18015398046940284,-0.75431736966330432,0.51145576150690009,-0.2098901142412285,0.31836495982406893,-0.17328353467084631,0.42011572812689268,-0.16991549691647082,-0.069975883266877328,-0.41567058461516659,0.71706874376026386,-0.59197364355995019,0.51836336102260439,0.25516488787492964,-0.6038845333288817,0.95165852315335464,0.78876866204141116,0.99630781169808835,-0.61404684493972306,-0.74400354304537342,0.12763074139488431,0.28238313052914249,0.659535716594912,-0.67808522455305109,-0.33559876183774262,-0.91744947988421166,0.83799647159781143,-0.62637897516897834,0.58374938535678633,0.71291422318337216,-0.34178553677247164,0.45164778011462081,-0.92951717270981393,0.38987771812355038,-0.55038573292567661,0.79042526464463458,-0.30368745760232557,0.090258377180555086,-0.53061106220381848,0.35077328856604795,-0.19015489387798817,-0.42761404645983786,0.48337796911754549,-0.99744882201657115,0.96410864496794935,0.30323678548598515,-0.682351544817142,0.9788053603744159,-0.45229001504010058,-0.62446806143246036,0.18164650126437029,-0.66038455472345681,-0.33104902986951595,0.038559590949937508,0.509447891502384,0.83654872553262338,0.39323507593629653,-0.4530607491978727,0.019063259483810168,-0.43415954170476623,-0.34038941903989267,0.86551946302201577,0.97969254058771416,-0.99235857044922127,-0.11627432709386308,-0.36084093356544195,-0.41352034798521564,-0.76519264037031343,-0.38401004550233953,-0.15136120894521532,-0.570851883651154,-0.679614501856088,0.7925992984290231,0.47680340450108211,0.64772715077163989,-0.66189017596742616,-0.93068607800206449,0.98130805649855546,0.98293765354107021,-0.072976895176329132,0.25038079416862724,-0.62664245703566934,0.45240709299799386,-0.13224062795389474,-0.00088244117837512921,0.91338089104433584,-0.81787633235467427,-0.74925381445756822,0.5212008229089905,-0.12863841053500696,-0.44358337970617384,-0.5551724068611732,0.7474147657618927,-0.2350793644949232,0.047767756529044247,0.35876012377383193,0.30196771551946539,0.99025781033106974,0.62788958085136937,-0.69845352540651962,-0.62523518159298,0.91539402209007836,-0.76803353278340469,0.66517614138553671,0.55510854886616978,-0.45963035359030141,0.61050843522441967,-0.96707886595608616,-0.28048762645595132,0.35272818401117256,-0.43570391854071239,-0.31639150637965252,-0.75260284810913858,-0.34215093326855028,-0.20326312687399942,0.45796780030148465,-0.016205319210982564,-0.59698154944785942,-0.16068808509068941,0.66682637048271787,-0.21261231843969428,-0.55404943579530785,-0.3247311102807201,-0.03435476451849321,0.7736200973268692,-0.45470422387807824,-0.22674336807185008,0.68611209685267516,0.79625263521273282,-0.7837613307795307,0.67562059391086016,0.53390201392299586,0.43748287504421679,0.25207348971258547,0.25377861468763024,-0.013610601897170116,0.524956183286829,0.3620063147330686,-0.46903320749710931,0.89178986702663354,0.23416292678292977,-0.30355727174484975,-0.55935774024546037,0.71498590275411766,0.32071029828894432,-0.53468660290105574,-0.23504689719297314,0.05402264467162203,-0.964012209774932,0.714834206139126,-0.83840782513767842,-0.19742893669634543,-0.80234852144604019,0.91115084379499356,0.76182857750068822,0.13311933080345362,-0.80708317775609117,0.265352914699052,-0.284441500568968,-0.98168884449717064,-0.80291518001021589,-0.28297574179385593,0.10145302494124185,-0.026632501290474321,0.56906230075706832,-0.97377748506785256,-0.44924021905718381,0.82371370812119626,-0.69351444518822913,-0.584955482084749,-0.11070992942466863,0.1305418494765376,0.86170968034384288,-0.65473186255187343,-0.90195761430168409,0.3401720455569085,-0.031314006555506028,-0.0039148475061705559,0.14769298264183708,-0.036027444543329741,0.1663923241041565,-0.034596121886091361,0.77454491694203809,0.18293799095923918,-0.2979260893994598,-0.0911627668380564,0.56164252830745776,0.30491217239988605,0.22916121325882208,-0.39723992319649082,0.897063699037332,-0.45568803998440877,-0.39722072305028361,-0.42471634988892654,-0.081044992004076485,0.65580121970539973,-0.13004935771694842,0.19994059074667309,-0.076731358224866611,-0.79784297933701565,0.71957040192539357,-0.81548101027285724,-0.17818266580728007,-0.25577167107526755,-0.99429993191468524,-0.24954354914349669,0.54123940995952091,-0.35348926081950277,0.097817149524491817,0.62721508584321251,-0.25237262447009451,0.64107834624176763,-0.80605749264641546,-0.98831534059174142,0.415415338899668,-0.61485634167439129,-0.9127448661777865,0.4793742301312155,-0.097744391345299969,-0.12153420230445182,-0.9005916146098597,0.15572818282792725,-0.095465396575380765,-0.21379570207269663,0.98091326140841151,-0.45938759039127619,-0.478890954739829,0.93224808151472738,0.29153017806426162,0.63404140930345343,-0.23349200665647724,-0.00054273800949693565,-0.69747080593252131,-0.52436027094924831,-0.35770858235550512,-0.15542253114069929,-0.6133450514699077,-0.71759001664705113,0.87718169338869945,0.85745174710520156,0.12233195273314228,-0.24632674467113183,-0.28831984209284178,0.64416421793595158,0.28037113569694161,-0.672924996667041,-0.38154772873108633,0.94192136914558777,0.0082155349702646655,0.071247038464642615,0.6943358116291164,0.93525796287472263,-0.79135113711997451,-0.72850705298059948,0.46207133143305373,-0.80947883232006745,-0.0051121194870733279,0.71972305826829885,0.78220492032459232,-0.95827265733772549,0.48232415853176458,0.048249057050910336,0.71610908942115914,-0.70068028275886562,0.50988034089555978,0.23539881652006825,0.80111346337996114,-0.89302559843893425,0.760090832486791,0.67729053351901958,0.54449718424328475,0.27101218666462795,-0.98323487210238114,-0.23006840526595171,-0.55975613303471172,-0.08985502928954317,0.95086302605963458,0.48665286157590004,-0.83692645227393436,0.87577008589905225,-0.67647929614245861,0.51720890380312168,0.45323491350432621,-0.61805621283969669,-0.15365440079646855,-0.77805237880817257,-0.85461053385148311,0.87996938446535233,-0.52026456618693873,-0.58176000583067533,-0.69017360112172255,-0.77410972713218529,0.75567503774337241,-0.017182983931704882,0.40182186542163689,-0.40022999113436325,0.77867748345186816,-0.23468096704905897,0.099866069434148289,-0.13850249216822091,-0.63569910760768644,-0.181213328699215,0.62572577904245152,0.6217039337482787,0.76681108529065323,-0.3827944925906111,-0.78850307911099082,-0.18093552961057774,-0.62053146568151729,0.86086622665676582,-0.82424983839702315,-0.71481552706789953,-0.082336623725638089,-0.34907986752180376,0.81243142709714888,0.76538311586034624,-0.31800915921014228,0.82665466136608956,0.18459922456396707,0.4803764040024841,-0.13738041517202762,0.38752190833330241,-0.60717204707077332,-0.601324668434134,0.62524587317614155,0.529324525748065,-0.793604695607724,-0.31755221137662987,-0.39861548570851585,-0.99485289444907232,0.61301781079406747,-0.0913192048162777,0.85602056042105912,-0.062405641685428864,0.58676165555918669,0.12606751831530944,-0.930730316755702,0.55677014941199221,0.076201310882438589,-0.55651581406431083,0.78689996282891372,0.42318325788862221,-0.20078886728770512,0.072188948314724929,0.12240574468039243,-0.17812710263679135,-0.70206731450840243,0.18055954863343368,-0.022113147202000555,-0.9243976287191723,-0.95740954855336324,-0.77849951096740533,0.797946705854473,0.75802903192026028,0.88758177817220885,-0.095774577509506881,0.46100965349982009,0.45060118495049012,-0.15009154479489267,0.835908824967178,-0.44481190035343726,0.22613937837357603,0.42606583862847919,0.22154394221564008,0.88672931859583093,0.68870433917674434,-0.0099997092084957787,0.10511188493348281,-0.20531919002780652,0.090470497072893424,-0.31859473526412374,0.98607545345373238,0.55890419546463721,0.706064103500016,0.7922740712725902,0.41401406769362004,-0.51491539111124141,0.64535929804917391,0.026640167006589551,0.59498709328239185,-0.38416932680838245,0.83958650978262839,-0.9180303858211406,0.454218438572352,0.82721957602874352,0.42387991977104911,-0.11243150481601781,-0.46080205797255136,0.20267295660575524,0.37317868712040536,-0.25292965781545718,-0.89558098926003138,0.57865046922985952,0.21046170369277786,-0.82098531761252569,-0.5074802504421585,-0.80714323269535937,-0.21090627145530017,-0.50628661015363718,-0.5976406338613669,0.25969051628359152,0.9425162775174325,0.12748051906352886,-0.70677964049707154,0.68419877750994584,-0.56598818188812028,0.4732379412619574,0.58602328672354265,0.17459298212760732,-0.31626677201886977,0.15993577901270975,-0.1736797202255948,-0.40900051705958346,0.94081798612178213,-0.029926955248195192,-0.59265217026353445,-0.11282772482970158,0.45246636748894414,-0.50929181115203159,0.2078883606977241,0.16271355336658355,-0.18080009621605281,-0.77046256455148687,0.88566462038348648,-0.665494265810351,-0.073827781748877733,0.77489144018613332,0.02857093374643984,-0.53771934543630073,-0.46679278671126478,0.7252348627546964,-0.24415520915955083,-0.95376834736846772,-0.20334408348581945,-0.43036384202091205,-0.42306942698688688,-0.29632926932365133,-0.885823638590902,0.4084194686303006,-0.72030626503764938,-0.17931273774211889,0.19541968647177316,0.13855351234718855,0.33662330421461878,0.15610104061481592,-0.0038112467172607997,-0.55299489877791841,-0.18736275759868451,0.692224330125481,-0.32079645261205569,0.98796435864081811,0.49394918116459119,0.85547560632949493,-0.70573971080861042,0.66327980331297953,0.26205148280693752,-0.73144118289064675,0.88319042319580465,-0.65044600174317413,-0.333263971066691,0.11785013327274943,0.13246492628588572,-0.040681447852720251,-0.60181039786050583,0.21630639406680427,0.53133190960219689,-0.57831846763301564,0.22972771629212785,0.52255578177168771,-0.89590631560231848,0.88484347932266239,-0.90044447961284058,-0.51994393324476851,-0.32610318033308872,-0.26219477656399587,-0.66640186340846208,0.37571864173548231,-0.19813899379136926,0.4646337271968991,-0.58032012338764971,0.31721208724994776,-0.15491589445384027,0.27368278441656513,-0.060285957558213712,-0.019372995486191005,-0.18617411804672987,-0.59686697162541891,-0.47834167791453269,0.73917532094715876,0.12842449272443748,-0.03942188343006274,0.888749292999855,-0.90257391003080356,0.32371821409264495,0.20617814418216149,0.11758035706243494,-0.99409799184375347,-0.90231893998678725,0.81048512124013394,0.077403562179488863,0.3049208639678177,0.28452119151340854,0.29245873973353709,-0.60258407127232483,-0.479269617460328,0.60916923713366,0.71715626247094766,-0.45052865913628071,-0.66604634824490472,0.19173011984291027,-0.23889641288616528,-0.12094590073495447,0.18339598187403566,-0.081929894668017464,-0.21141400384316872,0.34196399633864127,-0.70397501751034286,-0.37055376235887116,0.013395019347497737,-0.44521479655300022,-0.72929679543212833,-0.14143755479782705,-0.27221392107764908,-0.95981876410535483,0.95542711389969437,-0.664001489832998,-0.61441032989621647,0.718432893379793,-0.87803323468101824,0.77782245575348963,-0.50844408222867366,-0.050571694062357626,0.70372587987395274,0.97928012999672454,-0.53429173470208968,0.0059008570415437483,0.9720275616143027,-0.21250512227998353,0.29814123050223162,0.86577591619723282,0.54938032736507258,-0.23548408468974943,0.48429235000363197,0.31862454131181561,0.45266229307868627,0.16240951333307171,0.14970839961884003,-0.80375585090543877,0.01116082212476098,0.4567623880956147,-0.4550450795586431,0.55496076008070294,0.877122206556202,0.42121520145852825,0.92309652218739335,0.5672008481655274,-0.28075543804129371,0.23387932089803709,0.17618878799313156,0.8466834276200661,-0.35750982461381231,-0.093398782933782218,-0.24767639778911899,-0.588807093253735,0.075774335803358975,-0.16600307457428568,-0.50369524466977234,-0.294025692760025,0.43771663980452186,0.451268733689221,0.52750603180728206,0.64527685085557251,-0.93801083552558484,-0.5861082270676774,-0.42807582739185346,-0.1414351347561158,0.96377834955406294,-0.23856973053820885,0.32035890515910409,0.2976648049883846,-0.3366789037066879,-0.65910580738405966,-0.37526592210646065,-0.41388035724585892,-0.73472599067479649,-0.078050042538926959,-0.2709120201277137,0.22749861480086045,-0.765629906098186,-0.091069215485392707,-0.55292896486489518,0.8819965859325587,0.75344606477462039,0.52390110377403953,-0.03112663050700288,0.81526373411308217,0.39247807692386122,-0.22212744933652107,0.92463859074033727,0.53612737429147928,0.83095355417158157,-0.386230725509222,0.20993912602306303,0.018068048180112636,-0.47425912668661174,-0.27850841650669855,-0.43481149358433274,0.1851560497587342,0.22914620220155743],"Bias":0.27476925788203688,"Output":0.0,"Threshold":0.4982429158400013,"Type":"GT"},{"Weight":[-0.97993244648907918,-0.28299294751276866,0.093567829157024537,0.065749625240336,-0.849126835749078,-0.645878112244363,0.171888932200097,0.081619651560494513,-0.577846041218306,0.8589549580863467,0.32767837649568837,0.971378953648442,-0.47702443715046366,-0.52802766930685741,-0.18721704147160848,-0.34229227031687848,-0.30286914962477479,0.59511670358251623,-0.04682619825323401,-0.56182139951820553,0.61015164973687,-0.61567746829971548,-0.4924753063788988,-0.12293338641660911,0.78720887507647686,-0.29347459892438471,0.63928795775365455,-0.28426447756787038,0.51345966687121414,0.68918967465366687,0.029700631755264769,0.62391832965608607,0.80627610758239221,0.929710625172458,-0.38276311121078355,0.505351241913322,-0.53623543658118478,0.23784817905996375,0.95064485815849387,-0.18443500911092153,-0.974722371890546,0.5660900476230728,-0.75984335167326189,0.39859650069782349,-0.93474622254015238,-0.38793243811835182,0.35453533956526562,0.43063911536272576,0.039205425902831104,0.32366393102503566,-0.27252109361464211,0.82451312375465091,0.17161752012167941,-0.64047698520146168,0.46977228320658782,0.46296526187237597,-0.42164762291202679,0.021189698959323437,-0.14636065491771355,0.035965533478169484,-0.20939715309506149,-0.018132009551921863,-0.79229510845257678,0.17958568743410786,-0.96797609560563047,-0.62534919503394015,-0.51777498401597843,0.0022716247487215438,0.49623831058677209,-0.33863075931492764,-0.52510286333277023,-0.12547640415163544,0.71854132167927054,0.019095943318258944,0.54471962970901266,0.75134029227837007,0.7839030496701147,0.67508449949095239,0.151923144772613,-0.81468622005297164,0.57976788449090344,-0.27269665117966785,-0.99436066159715908,-0.1542457678142217,-0.41212533154158171,-0.21271088682706973,-0.77503929090455137,-0.11559339571539005,0.20898553366259928,-0.48271520597986656,-0.045511732364777353,-0.42560647820383612,0.58880693958551011,0.346873225340095,-0.62486885703395534,0.65274407279339808,-0.14442249906455282,0.42072189525734721,0.88522710273285732,-0.32067570431189413,0.5616659184739301,-0.52801305173338065,0.5089790311218142,0.15049608477880064,0.56737427626148529,-0.729073622137808,0.14054139011564729,-0.061498112073865768,-0.24454439908477682,-0.54081811175719752,-0.98531576152207134,-0.49682540935316377,-0.56377840859991424,0.042829436735636293,-0.61475385847257169,-0.16624629644967909,-0.38241993933097457,-0.514717503690495,-0.71143425242576486,-0.73730714653493234,0.54931773457178745,-0.26743303577761773,-0.3351388468105061,-0.73244032437561091,-0.17012280280241873,0.61040758695938047,-0.45503324105173032,-0.40103657329503289,-0.4005762675779761,-0.76441873971578611,0.52125891974254457,-0.13367343746762417,0.4573648038587369,-0.066407561798769776,0.2235852941980517,-0.62888632790599308,0.28910332698798891,-0.74522910767478356,-0.052005419997500919,-0.012774015782761395,0.60728884796020055,0.37329557322584817,-0.65023382271185226,-0.75810093980194115,-0.69532629786772948,0.74753378785566138,0.33299059017234978,0.50345966336478465,0.464772491932275,0.54389295286680239,0.13750900986488396,-0.18253440697795451,-0.45151498701959614,0.569713302221947,-0.28089975439053949,0.19022204270131049,-0.16732617335735175,0.56196101082580208,0.23378213552468555,-0.6564990438784003,0.75783850148219545,0.34885222108515551,-0.16585426878456691,0.81414447902429121,0.012639865285083589,-0.9220973401898972,-0.951674699760822,0.22235282707137652,-0.45417532858167559,-0.082837556527386211,0.73771636501779614,0.07539132287511198,0.082267998290373012,0.36400788992829985,0.0060962769231276016,0.70845789029656814,-0.30420112530896493,-0.061360904044174082,-0.33940958433757051,-0.090880477377623545,0.64912803873844815,-0.92629384711677853,-0.092069400982963567,0.9533339151895297,0.18220407570814903,-0.430373855601239,-0.51648333739325558,0.41221877160119769,0.6347251616580063,-0.86882725491599522,0.73354437469204159,-0.71494976231593166,-0.094531191556961824,0.78710412550117081,0.13221370621221779,-0.57961745819990407,0.025680349686034186,0.53783326621066463,0.89287338028330043,0.58909015571190515,-0.88919125771577989,-0.74622961168467516,0.18853662358063117,0.3489682606183776,-0.981739044646611,0.79266736367375934,0.36261189885559114,0.620418347707213,0.13371750066695617,-0.3833794809800477,-0.31181266639000393,-0.84153785688874216,-0.063316510088423511,0.091540958774993644,0.93170447271862278,-0.045797893798815971,0.078602508678381575,-0.43413783816347729,-0.13948117994679193,0.20519276252258231,0.7076774815598863,-0.5759778388664023,0.0022929380658515443,-0.86012427595449814,0.10845648642091849,-0.75533160136795208,0.21410116935805473,-0.67153854000919433,-0.54871846993859785,0.29984579854637655,0.49969562306054666,-0.90295891366105474,0.076891736163241672,-0.59311441126890219,-0.33341354333488904,0.62393606716018923,0.32737169849098274,-0.32774617724481325,0.8196391928101141,-0.38495083590268664,0.34751340483665161,-0.67915201684420556,0.76783806819833722,0.82314334196184913,0.21393750850760263,0.79456957792610372,-0.051941655134755023,-0.0035989866608749079,-0.049481825460438535,-0.93263234008691853,-0.31478612698371805,0.92471542485277891,0.15047995194349437,-0.032937220778752684,-0.22592031966239229,0.67393503322914938,-0.97403500181345037,0.63338553795282981,0.88220774050904793,-0.69073130688198436,-0.93227951039200629,-0.26319834183119162,0.4825607219164077,-0.72998839185106956,-0.87648588459775123,0.30989010180807214,-0.89938144055166347,0.84062984485208514,0.90869656573454693,0.0068085016714448578,-0.65255175375032781,0.2990156921087837,-0.26662857889506436,0.8064603404172046,-0.590908281780271,-0.26410998369758482,0.4266771569040963,-0.31459057531998985,0.11979008378451228,-0.34876546466199937,0.24341316253105791,-0.45753041350167728,0.0022765109326115395,0.81732324874835238,0.30379998185848817,-0.75758706673867393,0.73886195837467072,-0.73885100788383329,-0.76916270738894243,-0.12622135231561091,0.036980384512329656,0.51216959697761089,-0.91731846934059569,-0.27555357211993708,0.82349017487070064,-0.84473489543643543,0.49906036560379918,0.55102335128515179,-0.031596630360743325,-0.89949438483430744,0.26054163987773549,0.60371184656569354,-0.57972828744898008,0.56494940703965235,0.80237857056892414,0.47744502009704942,0.40564414132649274,-0.27005884250163048,0.41768974504325995,0.12717339728361621,-0.696150732085179,0.012464076752059197,-0.82412566329544679,-0.53532154463945025,-0.3452714417806228,0.41155583616884234,0.46193306122996519,-0.14415419341258434,0.21876471686119434,0.95944224296111713,0.44112932935409682,0.555773291529982,-0.11657709726904383,0.97118693076595053,-0.42971043215585425,-0.30500266668619713,0.12735042820095571,0.59877354260476934,0.95804201204238548,-0.097922059752942089,0.69440652881488507,0.18511092205769891,0.45988227262156189,0.29642957649027446,-0.79991543795909525,0.20217188224297569,-0.95891764013046288,0.55506844518476561,-0.90339809511946423,0.593200767223351,0.40956906388028014,-0.60938225156133163,-0.71115592946817907,0.38728845370341486,-0.23252353502089324,-0.1084322836754994,0.49219981417627995,0.99318386707137518,0.56006028622391646,-0.49216979345873452,-0.78994268122592137,-0.75507529627302439,-0.92791486993800609,0.15431910713870037,0.34822816511067944,0.89797215810882491,-0.30073321484994758,0.78940322892246917,0.91647447176113472,-0.0750640449463688,0.575517684489264,-0.34182352867993693,0.095152263108246149,-0.3353680569377579,0.44639913432598072,-0.39091923757964708,-0.56824221721302826,-0.94781072435332958,-0.22525551413430622,-0.2872698196616349,0.1439999817609787,0.21040828582384077,-0.44481178207547023,-0.0240975199379481,-0.97106672123589866,0.9987981342704958,-0.69448927216906531,-0.578253274587101,-0.055016338385183522,-0.13097362226386258,0.14206673863440134,0.24136829247761904,0.25687478122155871,0.32938778415759457,0.41235792982036151,0.48882020427324818,0.68265641279642308,0.017563201960904152,0.52738483973191341,0.012319715699329839,-0.8532436275171319,-0.2273809687361964,0.6409977048826393,-0.4393555058349648,0.8611765335598851,0.95771285842997622,-0.25228274392536038,-0.09165439526161849,0.45815273442219606,0.32785473499812873,-0.881414498147282,-0.71967323018222729,-0.79028794439057259,0.90747764096943551,0.31304340777594752,-0.52476471593825369,-0.28562408279889451,0.19733009496579418,-0.72849044843040889,-0.067434621074904971,-0.32477187426983,0.00012687314307637193,0.81896117367733323,-0.28093536164655136,0.74968851578873053,-0.41784392316725288,-0.42923927746212076,0.0029354826560874852,-0.48366366675294176,-0.3770030412715874,0.893307542844353,-0.924592199700229,0.37089645274490884,-0.64168763283718733,-0.039366002212914641,-0.45963811616396444,0.43454133879139151,0.35591252770084542,-0.16266724009191022,-0.37543151545125597,-0.18464466705203272,-0.10345784532998588,-0.28441269383039919,0.8686830484628133,0.24368815880440556,0.45506617494629054,0.69707426554387164,0.56278205456341712,0.16715997698118909,-0.14580030839229016,-0.919820855799979,0.40659431340479957,-0.36979652120256634,0.59086754107422546,-0.975722786027809,-0.527782274190235,-0.65755676415635123,-0.99077300913202249,-0.48275129938626254,0.8745072227318339,0.79110748404222886,0.76197094366046181,0.69785837861609568,0.68700116206286532,0.30898308302694144,-0.6225023444846749,-0.057176160652738138,0.30895859995342728,0.054923011946921708,-0.11381224920685042,-0.90848829499841122,-0.97826598304243106,-0.97909830649341378,0.037945404666450529,-0.90124393575882722,0.255811430167319,-0.96669973384900942,-0.36806315713006221,0.51330531552122227,0.89890558361024853,-0.3467673334976506,-0.24849105684482076,-0.59077081670554854,-0.22351103705517531,-0.83926498556475382,0.37686720554571,0.32717118008396179,-0.9630523216738609,0.70943288072451616,0.553387115035852,-0.72619054267471217,-0.64128045814171453,0.36153836797994487,0.35476054966205756,-0.84819771714890269,-0.39606309234912651,0.60778829949339308,0.90387686477223261,0.062717851746230319,0.4396441809086335,0.95086794018320175,0.70958569446093667,-0.75412463152507536,-0.39900536760641514,0.31120737004615712,0.52268911130851559,-0.32072177683968178,-0.87947003118669154,-0.40706268903196913,0.99683461990060029,-0.85156144101711062,0.59309817272848364,-0.6853415089125473,0.36826911678922786,-0.719986159689718,-0.41718072370494752,0.29191176513764622,-0.57261146119451689,0.42856478757623806,-0.4238666144310807,-0.49732042918788288,0.47170909888656304,0.5541474966118799,-0.86009234323170614,0.62868164415875527,0.45308245879275838,0.62305837526128549,0.921214874797135,0.0035513420605805431,0.13449782558460618,0.9114848970954702,-0.62285054969734077,-0.47098385797393688,0.48983760433729628,0.8028147210380131,0.78005206388423776,0.646633196457584,0.19712459072336769,0.96888546923589214,-0.20828088103247847,-0.335960742242616,-0.19033786057975974,-0.649824715056375,0.46648151030134483,-0.85939592442447132,-0.12598968582506742,0.68694329805995491,0.17029945699977664,-0.3890732905776581,-0.48904927749608146,-0.12447611853688774,0.42954739622285004,0.91520794942751893,0.34558484439998161,-0.54807457027401518,-0.54138790282485438,-0.73887643578409978,0.22211080380813722,0.38964800228814034,-0.55847548114064871,0.96666771544454044,0.68071505319360415,-0.62393931747597609,0.89867826732745315,-0.74475080880557687,0.45056431016445359,-0.1440157597623839,-0.94655166750147546,-0.70635960330551473,0.10951819695044225,0.07937783844740029,0.998638033866248,0.52095018630891576,0.74253103497556,-0.64368426457219019,0.52768656403184244,-0.7049334215488906,-0.15433055542145416,0.63926631242002652,0.25481332338173562,0.96878262607789722,-0.96325730065035509,0.63101296389056971,0.22647054503973133,-0.11691837204476743,-0.069218294261590721,0.48860620636893726,-0.9666433366791547,0.94448696633078477,0.21952644559532705,-0.55611355814901808,-0.13715386350506631,0.75210346037154252,0.00054314499746223213,0.93295205474502974,-0.37671306420895878,-0.056771896340312385,0.81358119557312747,0.79521610019505773,0.14680568647887823,-0.52903283598322093,-0.50655488646894453,-0.32550326517108047,0.30234268088934135,0.47638476569037175,0.23686415200907,-0.46954431872328012,0.0604497981539228,0.42759285281765874,0.51618108549908781,0.83536819128103934,-0.71864177087258629,-0.82941836297019311,0.021290886225779952,-0.96253046391649655,-0.4129782144040699,0.75609071634527791,-0.33940310046980304,0.76865012234479657,-0.024525984201825217,-0.35727274201683362,0.22460289170248568,0.52833639715255065,0.54774452026362741,-0.43250504249357852,-0.087038269307016525,-0.21417240249652994,-0.84967065874937486,-0.37229543848535762,-0.60813447442284529,-0.42833289523997015,-0.96629129814276993,-0.5331580264182566,0.98027919325059243,0.046974286458908714,0.92492749491935944,-0.58870206707562411,0.61412479896756111,0.30087999594438819,-0.823381425730596,-0.50418493501105577,0.5631463232278574,-0.36497394524746291,0.99996107583863714,-0.6848169368155379,0.092880910305716519,0.091466551689182662,-0.87414678366582221,-0.10543008479542569,0.45365778750444657,0.660063961362496,0.623420222952692,-0.19507608338961197,-0.59328598184198422,-0.56128334652692236,0.70266995239195873,-0.33145563785520177,-0.76938887488534158,-0.74354499194004808,-0.65939860588842936,-0.022769597835265845,0.25023978634282934,-0.5023925390571321,0.63652527501644818,0.33955462292747324,-0.658216723547418,-0.27816816944543654,0.52901124699460866,0.72747615386148734,-0.64745080221791318,0.63770418364447734,0.019399224323872116,-0.63318319974149728,0.282357420903797,0.98156329942008635,0.30703643490888011,-0.540831734678164,-0.48283612564338191,0.36244801076243072,0.33483905407359782,0.72252116758493756,0.66091637297576122,0.42780712685911315,-0.362301312090038,0.890048019071132,-0.34996036456430346,0.47631361031733155,-0.6644636772873177,0.38019739807592584,-0.077937934583955412,0.028757015256563673,0.85618659335010994,0.25650693720975282,-0.55981792069963088,-0.83493957660856633,0.52904912714336494,0.39107567602352972,0.2834063350611396,-0.3385737069596414,-0.1709859595498936,-0.090110116680204,-0.78235926655231014,-0.44674990067572795,0.50535206194284932,-0.48702624928533389,0.88026994088677224,-0.83436115404328381,0.85520463197268759,-0.899349495721678,0.74123303719853662,-0.042202376314533122,0.17874035899468715,0.348842609836181,0.62655458581939083,0.37006476818121259,-0.68470581094022176,-0.480460740383929,0.95987099360668615,0.18175872284069597,0.09609445701171386,0.17119898934438776,-0.63965199358745106,0.3882739671451384,-0.98081591119096423,0.90828452301597429,-0.98281859885101142,-0.28042621271704615,0.98896052641280019,-0.089937126305856332,0.75482895260435945,0.66285158724656867,0.5172958632545992,0.77485079680329694,0.23054057044467916,-0.32498695018002155,-0.57664445535123554,0.021977558276605587,-0.58005708622748831,0.595971075629802,0.23323014389408292,0.55396738813909119,0.80453993231269527,-0.79947698386361687,-0.078111935443297,-0.0578145054438219,-0.67014240365016386,-0.99768607830521006,-0.30424917689722458,0.15516142600921981,0.60053217206175069,-0.58750724587007763,0.78123078205680041,0.94835870151797252,0.19852413339471636,0.83967279775052928,-0.25851597183314895,-0.92762501161900579,-0.3579992132065814,0.98798767430148449,-0.90525368270708884,-0.44361985728313208,-0.72977161674283986,0.42498269836650354,0.14914838650689852,-0.46988309615751872,0.21458366104149429,-0.20282521806788872,-0.94328754765134659,0.73910607152576846,0.89670290979403211,0.26567998587418346,-0.22105805865538217,-0.84686797431058625,0.0932785557086014,-0.82612864245945994,-0.39068370842872358,-0.02966764430965653,-0.42292231713557726,0.46345817226146263,-0.38817672263280334,-0.68683574753200438,0.036410843504784088,0.40463177832059177,0.08375451810832811,0.28074661143158869,0.4034086621382314,0.77553134214856256,0.044966691660213609,-0.94875165538338557,-0.37273502972570016,-0.46246233231502692,-0.011721060151104377,0.81070199506855667,0.6313821043034],"Bias":0.94376565233979637,"Output":0.0,"Threshold":0.52559001582003662,"Type":"GT"},{"Weight":[0.603203788680585,0.27665710229270957,0.53540715227621,-0.033967287761144008,0.29980814936561889,0.49290530779068603,-0.75832578109499338,-0.70739583191806255,0.24491880286714007,-0.46894587644792435,-0.1888927482948139,-0.93015548117931723,0.34895337063304771,0.82758509918469236,-0.96608411891669221,0.61717138980383579,-0.099982187198466715,-0.3934033743075111,-0.66510373058966532,-0.33639470922592779,-0.25720526289996004,0.74161188152693769,-0.88259115949393774,-0.54982287182930056,0.024260655056806586,-0.668020920673395,0.056644139372112295,-0.9885855452104404,0.57392961512037066,0.55605218445698368,-0.75518586521744069,-0.28331763217380163,0.91517012376113338,0.72888484118920049,-0.000673171133116433,-0.42280308083761625,-0.21472574640751152,-0.9150803587003985,-0.60514481021330913,-0.42874812075344293,-0.17843931875118954,-0.648714636288916,-0.502793873894398,-0.69851245623943981,-0.23734482342253663,0.697516630728504,0.5839089521131986,0.61079482576381172,0.8400156464614047,-0.014950694988924403,-0.45396919057423679,0.4159522784948127,0.1206722120385022,0.17791945029884551,0.80991344657256892,0.65130228672702906,-0.536569701291886,-0.62870564294453046,0.71227736012650533,0.62619948090342781,-0.039236255939694244,0.29505058903947967,0.73843295534068387,0.52104871418375931,-0.49217035970286016,0.2255438231982029,-0.98508396744033511,-0.71213014829537369,-0.99500737106195059,0.30193661400207161,0.046606742798633291,-0.5650749353529303,-0.48565399064014386,-0.1632162072524504,-0.90054410458567746,0.18393590635803336,-0.986419045825684,-0.10560619137510946,0.72237687032780462,-0.84987811364693477,-0.042014540192677891,0.46150859420258022,0.69748225235263,-0.58881098525077613,-0.6778226972919994,0.34921884459872676,0.55877219213115614,-0.64403718786502129,0.78882152391077087,0.37806290312579965,-0.55980096504082943,-0.78493189429162624,-0.83493118585782644,0.0061072376585133547,0.17829948206352977,-0.4386349890561006,0.21052545365436257,0.897716079325283,0.2833249081314192,0.61683649551907394,0.53481069278661664,-0.51613340923382589,0.91734976550440761,-0.42053464819702069,0.68026957646024855,0.31125120739976464,-0.17417248160306945,0.83785407470439288,-0.70751155712991565,-0.95611516849888267,0.6526687655843183,-0.074364545789717018,0.029058794504524577,0.44134833917084537,-0.788752782060184,-0.011077845474275688,0.36389534564870191,0.08000058451667455,-0.81095919842410791,-0.30825198409531823,0.82570233467300536,-0.98050762665481661,0.30080620958507348,0.26859950473001204,-0.066427499552456429,-0.84665173424717588,-0.81791341249733851,0.17420922181299386,-0.83618763360948656,-0.40379152652052769,0.09071377436198004,0.51119740238003308,-0.80012559229513891,0.37774968351132687,-0.15506625182696909,-0.9039627341106361,0.92765486050753609,0.62554293480959855,0.94752615548089436,-0.7649590707220878,-0.63784735353563327,0.58806311832185043,0.24322216224075396,-0.19687953041721112,-0.37697569391549363,-0.81306115203213936,-0.94829004674604633,-0.212155297963021,-0.19495965083826317,-0.56697045199897622,0.31924027638474495,0.82039236548374983,-0.27883141267990291,-0.11976320302102864,-0.54004829122687148,-0.6592507551700113,-0.68540905820457687,0.37305555370312909,0.1779809120008633,0.34717351773156485,-0.099578734068003827,0.2460118719590883,0.37554413703062767,0.40713993711729529,0.44109079821086061,0.75155206152775889,0.14029804949662558,0.012828558223707862,0.64549735637637662,0.32712722258974203,-0.84389657892468228,-0.65825582838536045,0.81397291869575761,0.67518201129286648,0.92429352315342683,-0.88167739234942821,0.042938428950933007,-0.9047692110318547,-0.39960006689634175,0.50227807345906184,-0.084081813266538921,0.72357651811259638,-0.476145447919213,0.98862108261725912,-0.058894133688367031,-0.979326696125477,0.57811154452064617,-0.99256923142474573,-0.52118973551373449,0.86786965926544257,0.86818965332032627,0.70601226049755339,-0.68420723810987882,-0.51447577984746351,0.85584191459037451,0.5926353477838614,0.20796283437309918,-0.66791859859038083,0.30863569598115781,0.67313273654930883,0.6955209373009954,0.81767322114560437,-0.60800454933569048,-0.71160933920722891,0.73793541022480247,-0.61860497697191541,0.270680128257107,0.86727009474638384,0.783445158872495,-0.28995642265768556,0.58736076652415137,-0.0689560179919731,-0.7881847912390646,0.25977716979560311,0.92725450728426428,0.75873082399309189,-0.4236009509412576,-0.99588117981137758,-0.71289936113771957,-0.24575500341400272,-0.7502218385926549,-0.67185799762227483,-0.25442886876614246,-0.23626744059671995,-0.724397379776648,-0.57099400068213879,0.3941357449601105,-0.12477560579999146,0.68142806071854567,-0.75528859289143635,0.15416021838512281,-0.52051081579202363,0.0786718670645132,-0.87926542846451772,0.81499477653531116,0.84060986984549546,-0.62406196194890051,0.26409243152667417,-0.90696967714790711,-0.93143141918416672,0.23611168667493002,0.26204669022096633,-0.067136071187973059,0.44296182293582792,0.030957681141308362,-0.43637751389126178,-0.40725028347561615,-0.1161096315440301,0.546199640979152,-0.93976735646825627,-0.41050353991356842,0.58209210149109925,0.27379949776167029,-0.8147567686693542,0.3947260349033056,0.20972358538290653,-0.70038151401112858,-0.8995137353891105,0.46311857898864828,0.032669267166717565,-0.33854558614014907,0.083989160174498881,0.3130870062453146,0.21365599902982638,-0.90357694118450249,-0.97445066877382369,-0.11074943799094736,-0.087912282947410034,-0.28059819027809341,-0.53904564191542825,-0.50515532470548308,-0.37005644960797224,0.66946433189765753,-0.38070491393129569,0.2106158459608517,0.56193799039439207,-0.53938339210086661,-0.13437587355001637,0.03733143910641383,0.661845853394757,-0.73643171914687,-0.47087223104707537,0.629674627273192,-0.52016182826839474,0.16896048708304787,-0.01087173633783671,0.16862003419949675,-0.25360444898419288,0.74442649434526753,0.26634252735708958,-0.37881852797177551,-0.30331653463808661,-0.67709787174924174,0.7955336257794563,0.32413408594398485,0.077459648287603461,-0.6252679771861378,-0.38061663386440681,-0.59764041965717474,0.79715775782110065,-0.28530441936352496,-0.98141702636211037,-0.81376796859026324,0.66991393066473026,0.92740313379438744,-0.55159410161506106,-0.37994271487926257,0.13545752788682353,-0.99750785343232928,-0.47859230101043,0.079272941723127363,-0.91773746857314253,-0.70726299970748974,-0.55073677122161568,-0.53500428029103408,0.67239251577872439,-0.85999901725910555,-0.22231633924986996,0.0818614592225577,-0.2651692676661393,-0.46600277324486655,-0.0023387214179796732,0.24029758537202028,-0.25437023316247864,0.88931205817000569,-0.2068230832027379,-0.73577397583787052,0.71538482267194647,0.22109589084102582,-0.71863019825826879,0.83519647076502279,0.088758197654391732,-0.191950422335393,0.520175646767102,0.93190875553149211,-0.59129177433964408,-0.12676572712453349,0.027755150118728703,-0.588081251638048,-0.13677121472394616,-0.12218855513361682,0.25453838997266182,-0.84245042914638779,0.79428624165909656,0.75629994029006919,-0.018889277716581374,0.15879313841405937,0.45596815899758047,-0.083012950179638778,-0.26784072549447452,-0.17710933749429386,0.53913412687328366,-0.11617162596256082,0.07893969774196842,0.2756446843387767,0.10680319466944933,0.46757701154219777,0.315020625160551,-0.27152509254940094,0.035679192298873882,0.22724764245899751,-0.1519580116271777,-0.876583081612635,-0.9612913783459418,-0.7314595122502463,-0.82448884370945807,0.19010559524880052,0.8328686779518,-0.54055976194355626,0.71136925402626827,-0.38774739317025403,0.28095449846282344,-0.42062869827292332,-0.0099362214142159656,0.5129394622114205,0.66841419817340286,0.0885299076738441,-0.99151605879492877,-0.19415426961805404,-0.11725661722815438,0.12544718809679487,-0.81688679233979755,0.9833941850733916,0.57304397484895031,0.87578350486037482,-0.21494282000462656,-0.54984806363929439,0.33751593825291654,-0.6826219655026784,0.983848164316196,0.10384231996901441,-0.78586617754114152,-0.419401661222522,0.37534224399148591,0.9264914546750912,-0.581922004270331,0.14344207390371808,0.63026467460685631,-0.42905314472925532,0.96502272643382792,-0.68269573276988027,0.57435745074150968,0.4855227570447711,0.27194756887478178,-0.20506145581838742,0.53091090802611363,-0.15080909996796824,0.898550764610316,0.994267880448265,0.76842716372032982,0.26758879901263344,-0.62307804339708672,0.957022347001835,0.86738432751381045,0.64970265498836643,0.55225456066068945,-0.23851837368613033,0.938147641223924,0.93679297200254774,0.54547117815607749,0.73074564232060013,0.44246674535910913,0.088424896396894423,0.25509339769142375,-0.81042540483662184,0.61334545473258262,0.32469850979964182,0.51010885625617064,-0.83728867994495138,0.016972763937419637,-0.79020346924206408,-0.15885992309025485,0.45795379274429465,0.75209479581196548,-0.558265602010426,-0.67750379335018984,-0.24042167898287142,0.24995533155740954,0.48304902831234459,-0.1680228040404724,-0.5539469246538109,0.030446489355734779,0.11655714833948629,-0.264797782183065,-0.69604165279122143,0.80618691668202491,0.79489830266446726,-0.97161039522458348,0.40791974282260973,-0.4583293085258125,-0.83921403896026969,0.08876322865894215,-0.33846411590392894,-0.40273860860743493,0.73436642099840865,-0.274130930786082,0.14988694626367044,0.12253551004572562,0.4006291853266904,0.3586017044068322,-0.67661683386034188,-0.2486169381293547,-0.44888825130131482,-0.38749851118191075,0.035002904029098759,0.2928893902771591,-0.24846563360116708,-0.52649947326933011,-0.13159226818550018,0.29527062983031882,0.50635566446294811,0.51983020013190351,0.90683675133941544,-0.46899627543473443,-0.74645323341081538,0.89904078231148454,0.60870618820595845,-0.47039344649314574,0.06181786864149285,-0.10646198555196727,-0.043450129704293856,0.28308230651686073,0.51641033287924265,-0.88202810421680478,0.12475977843848979,0.43825570421212151,0.22985454752568832,0.042503855210963566,-0.97806797454974981,0.470461168545513,-0.58962429621705059,0.62497970211551512,-0.051244581607749959,-0.90703494749359548,-0.55061907719383907,-0.18169424924147049,-0.3686342669504854,-0.64215837774898776,0.6636302651202447,-0.37033159675557709,-0.79366507464724834,0.01887927251815762,0.96350671861484027,0.65294001794091427,0.86696593364093733,0.36324788972886646,-0.24100414022850067,0.69021924803509338,0.40632597096558937,-0.73283647547142416,0.85135484759293256,0.57825534538284662,-0.69732914292129178,-0.55689866587375225,0.030834819204562724,-0.066273997102991672,-0.99154341173895788,-0.97952999779001348,0.22498018770710573,-0.66973376258729667,0.75715480686964221,0.47202991110832893,-0.82193571926184728,-0.17912281918298584,0.32520783754308141,-0.068724020416254181,-0.0029126675813052187,-0.29709210865995478,-0.76186650747520224,0.17010069832676122,-0.41660918361349458,-0.90487817204784515,-0.67421518716691764,0.708399448408,-0.35373691532469209,0.57461048177192475,0.98010806272742712,0.34916070119904385,0.071002348359209641,-0.1176404501859287,0.8390059256176492,-0.889219624404432,-0.4987298434128658,0.23940616391571526,0.024922103632670875,-0.48763593588379955,0.58744916254070079,-0.6611275485070085,-0.066443784193342445,0.13591470575701198,-0.7733519406865127,0.68163043851108773,-0.26795722649803255,-0.033680377078093765,-0.91485538748784712,0.17963046682050007,0.961662652884453,0.10637204819655607,0.54929293158896875,0.80078222639895147,0.88152289431613073,0.89406782430320408,-0.95308086879229215,-0.0613269475574265,-0.99397219484391264,0.81358910715840249,-0.63221074670190491,0.44222581314026649,-0.83990087352688469,-0.9203098844365728,0.018805180219377011,0.8126719355642199,-0.54926671578980368,0.18401443175227122,0.61798374057653538,-0.76934931928727279,0.37173561489756013,0.81948376671387058,-0.36606506694390673,0.93141016407469757,0.35862096276070038,0.35384072938647154,-0.60347011014980734,0.36153030831438038,0.51229713135971555,0.055176998048637529,0.79630117667666689,0.60292444965006986,-0.168200189791713,-0.075573016924584763,-0.2449189653829294,-0.63776853337780037,-0.26116913103552958,-0.52674889216513787,0.59715002244205684,0.21280796742663158,-0.073318427462744723,-0.72016097033403859,0.53775251029885962,-0.0043927761746536832,0.13236457255313386,-0.12062908668100325,-0.71087267888284877,0.55353154640343583,0.91126062623749515,-0.62427962553886684,-0.98121768887211458,0.59410486397990248,-0.14015956974595764,-0.62316780612951506,-0.75439706759266423,0.94787884128646871,-0.31469104639938617,0.47124591258878162,-0.0018393229701739377,-0.45217714433194006,0.28181216180408941,0.32682141537164405,0.30777164283570446,-0.51704983902957746,0.91022483767486406,0.20676504457684469,-0.025466372270819906,0.80189247885807069,0.48718119109383839,-0.10071750734966133,0.30516719226966016,0.51372368843933736,-0.691106726737277,-0.7757936803511315,0.75353906664696479,0.64789599862317371,-0.37737696775113089,-0.79804796716107429,0.14540276077827569,0.62244859040828826,0.60886837244446779,0.22948888839664353,-0.036739592923195841,-0.83708476127920894,0.47017435146038156,-0.2278339305090876,-0.26132986520478962,-0.93469799912287765,-0.2937285724532458,-0.9148266706219067,-0.77149012627615132,-0.28284508515281842,0.22911757194861657,0.39021894260785495,0.33489987130039367,-0.45569149053454933,0.16749214668175771,0.80296592638034647,0.63519016170650267,0.85212034212989751,0.42099319185176548,0.968631497104015,-0.61068249429142218,-0.28788338847825462,-0.44971643502345143,0.88003685552628563,0.073344795998812093,0.82138563684252353,-0.30393856917691353,-0.64826592507225733,-0.790063988319628,0.84684333663752454,0.41446017074140729,0.0444064391983703,-0.23737691912677927,0.78194294999444058,-0.58584113818865324,-0.62870049785296456,-0.10961249336116598,0.46102591858293207,-0.36966840241554583,0.19133550310103945,0.74809019535225363,0.42566492847430748,-0.686456107388463,-0.41444496876301473,-0.9880742663462061,-0.72075980749016622,-0.74720713577568865,0.4689272346296009,0.39159097354467537,-0.099657203117225882,-0.59897190546569035,0.12160014227107174,0.94405440285059361,0.42101188861812089,0.69675455693935717,0.0095193996138495385,0.00469732005367862,0.093957105229588736,-0.3031592775616605,0.067032013585340236,-0.80186949241993455,-0.66931411468857627,-0.6832430673219464,0.43023251808724949,0.9305304451522094,0.40152918566089552,0.95352761724662394,0.35501311037457228,0.62665006780375265,-0.65068284312760594,0.85132965578293873,-0.78065512924485614,0.46341314048665255,0.22026304864336879,0.032627091292583892,0.5786990106937937,-0.46736325391911121,-0.43153248142056749,-0.55333435980292711,0.986098853864753,-0.21371346489233592,-0.9739504442428939,-0.453616580205791,-0.7833515507091543,0.53784521042268962,0.039559892862830258,-0.79898635009256491,-0.11370571894278085,0.52387813456537113,0.64949545760149852,0.18347708051254838,-0.9504012055464095,-0.00046861963368422335,0.36790988099198318,-0.52640104783996988,0.97210736105782325,-0.77022415342285488,-0.82879665951654158,0.53601363512501754,-0.67931192027372866,-0.20052908882523379,-0.31650360455573706,-0.76315738110018772,-0.14293543023193975,-0.02091610944872541,-0.77056050709009194,-0.35919608658142205,0.35683719318212809,0.4875823862327181,0.11711830697819511,0.806336383710772,-0.52036274295317142,-0.59640802331101528,0.77661211685119758,0.19572522965992112,0.75589177792700557,-0.85707369393532806,-0.49883333896232457,-0.25938009855308575,0.36465579008900362,0.31667197510445116,-0.7979896794063922,0.29001396162901721,-0.25876243703941,-0.75353137625080135,0.92576367777109314,0.54594989565478169,-0.48283049207312545,0.65313651489705615,-0.8677036836127302,-0.2552506235685435,-0.24711613508272737,0.38373529044153881,0.15987505165854238,-0.78790308711487012,-0.37844966323042739,-0.48148148296469889,0.67733719976494888,-0.16645608244764437,0.18725678007456323,-0.16283893220258827,-0.93508640440883417,-0.77459597716787643,-0.31486003627761266,-0.87749808974447574,-0.35684130776526468],"Bias":0.61858581500993381,"Output":0.0,"Threshold":0.023099778230814161,"Type":"A"},{"Weight":[-0.67795238116660728,-0.0030386890298867084,-0.79528356380541043,-0.69558464023079,0.812517234502601,-0.20839487910661608,0.00796554563937967,0.069627244523552831,-0.65197608277759334,0.17871707965560121,-0.51923124516347019,-0.54596047734187936,0.59489053888008492,0.1213694150193452,0.99001806275454263,-0.38270707260012027,0.43515717211885246,0.20331548629482998,0.13055007445185915,0.845965844041652,0.59753974927474729,0.19224109742429157,0.85762053674907446,-0.1638054028916198,0.19312276746757456,-0.76817115292333582,0.844382698575213,-0.34312308036867672,0.93147274755475706,0.78537284759123471,-0.13852551725624387,0.41665394297645147,0.5417637175609189,-0.96228029577167717,-0.39824713831685815,0.38899767696345117,-0.38048843172401581,0.36458648478825878,0.050116705731543108,0.46009933783677376,0.82429870023592311,-0.33203030765616814,0.19013127460616233,0.61399900615867176,0.4718597938641253,-0.75755010999625083,-0.021620546012008818,-0.76441848267075529,-0.11176045570138864,-0.30836146944591841,0.95514227261540585,0.87768832681592945,0.44829587938650317,0.011643107520250188,-0.38664253679413468,-0.38547787227922953,-0.22521947660726471,-0.98288076044194439,-0.83840125745087923,0.66408353236694051,-0.13601416821405951,0.72112287754245241,0.623054276976294,-0.82336214316234091,0.51135459705784669,0.87905639078424147,-0.38747382088912363,0.722325697877596,0.96774562307062817,-0.70442862701808506,-0.978932425835604,-0.29728561374232432,0.38224303600482784,0.22001178340055597,-0.055905622921840113,0.58870692671682079,0.67394275808424819,0.97159319416228362,-0.24969985394258976,0.18946410351873566,0.099826320586645187,-0.057255021788764286,0.47324984309880519,0.84816363633059133,-0.38557917922063695,-0.32534594429905805,-0.55950080955377812,-0.57225575836946063,0.9810665314928938,-0.24828319402797297,0.72375463355507452,-0.28579642543839123,-0.348771373903738,0.03814765719610623,-0.38089878129814697,0.6037761148082913,-0.33004782364240282,-0.16711649027053102,0.98813436552329659,0.64630371688227339,-0.67374901644594454,0.528136489693139,-0.14598097100201107,-0.28833020957574723,0.18491752687139321,0.69572359588729382,-0.99887890275515567,-0.78077482887579819,-0.3841446337216276,-0.1003928622698378,-0.6352397998027689,-0.49182871984868715,0.525628676882772,-0.98884150664733794,-0.23002423123923327,-0.10249041537870207,0.95526560067910027,-0.42739260775381355,-0.38150998455542606,-0.89404671075476649,0.74289516207896877,-0.44538300877687659,0.34981197461011448,-0.721704623532344,0.41912433571141416,0.92484673295395758,-0.74772851529891071,-0.073615779203183851,-0.85545556240503473,0.40087215434800466,0.28097608977974209,0.04677780533525059,0.77847799788158289,-0.69286493570211571,-0.660929871565164,-0.8086698617826541,-0.12318062927722029,0.69912930936512041,0.77248009190544487,0.99023163411311421,0.88305779447921451,-0.94047730925515172,-0.33841765873991775,0.38521663862523464,0.4658118358188364,-0.52101478889631792,-0.95842343985960976,0.7979776876969159,0.71456781528637181,0.721452370156279,-0.26278064272495949,-0.58079547275826127,0.16826678214979673,0.84772639621408952,-0.5051499360730638,0.68340582385817816,0.19786124685679621,0.65816075851123812,0.98825125535402969,0.5832354764376001,0.17756180333791385,0.993639451914299,0.88328968867812752,0.066425599654403325,0.22346139709626389,-0.15932636389477475,-0.2704459816545462,0.3072024557307374,0.16632068956565144,-0.084820805156985674,0.28385699367330269,-0.24583641916785223,0.28810086813201236,-0.99555585672871949,-0.69466739925307563,0.82591534211575768,-0.94049439716175864,-0.60947172930905213,0.26861388388490953,0.13153016945884105,-0.8335720937855412,0.502828033409467,-0.040395236127262577,0.59311122893966328,-0.52368660016157043,-0.367539237890178,-0.70886941287148253,0.363037614320888,0.69604216129334739,-0.40132231144296115,0.61969690146841894,0.075685072259830816,-0.059047369779575323,-0.30825582114432742,0.59372637215709612,-0.35219057479509647,0.794127281659342,-0.60484787151443209,0.15609917471003681,0.22569499966953649,-0.064346349362445224,0.60384778380573156,0.89657852235090851,0.21200818438642108,-0.71152014784120032,0.62485990097041233,0.4900499817403266,0.93331712248423937,0.0016888524413522577,0.5611398543981555,-0.12639978440776456,0.40093677323355187,-0.68516572503613571,-0.26846652257650461,-0.53996763962319472,-0.36253542050837329,0.50185421644796346,0.16148576101357384,-0.33504343188136976,-0.062765114504268915,0.026440582250450078,0.48436807165125761,0.36144049249656524,0.78489841464203713,0.59848965872008808,0.20479421653076738,-0.064509340591965864,0.72704547817215581,-0.59995593810451964,0.97214537438570769,-0.49485501530340642,0.25571124640093706,0.72830171358226881,0.039210451319446067,-0.74421229806924816,0.55963744621707012,-0.48071928205002068,0.77550588723994129,0.91285493779594773,0.1759457141980276,-0.30769242686577719,0.57857297294706711,0.951760328818001,-0.00588362571126019,-0.820831570690885,-0.018848252025827884,-0.44622859845227963,0.80087081659625792,0.25686568871925852,0.77458752448418533,0.77191545570824083,-0.14421692450727192,0.15052954719892217,0.13189549610572657,-0.64824264293920375,0.75426840211929214,-0.89051586291311113,-0.496295253977317,-0.45637257977219886,0.60320527367443089,0.54858330895592611,-0.12134136218640085,-0.295664680328064,-0.13708628115108529,0.46454320590223336,0.35695716056831051,-0.12346001068291256,-0.10212436230020801,-0.23582037549271265,-0.67927109900828031,-0.61802514624689942,0.42986304332961472,-0.74009401897904181,-0.37806599185711981,0.76248217968385767,0.53512244975898526,0.32619719548439474,0.2583902488734528,0.72138411957835036,0.98831204603813216,0.48439305577631714,0.33455211219124131,0.75626546831627628,0.57844839225450917,-0.99598119407705088,-0.87899733981070916,-0.74663950118545419,-0.36035592498274333,-0.53124172172101292,0.50975585799187229,0.91298959958971926,0.45945966870498828,0.24888840794977193,-0.65725527315272725,-0.11058190749519593,-0.74358282552267552,0.30628420054273875,0.84588793611428137,0.87223619542654429,0.95134347349002191,0.73849145683389694,0.35214184799796988,-0.80705576148212688,-0.084315587340069748,0.43585052827179921,-0.27956896893660022,-0.38461118954448548,0.94648435616236382,0.45049397901189231,-0.61534337728067456,-0.11356066032944277,0.4109617990492665,0.28774548335361549,0.85549213264858914,0.427036345669551,0.46955880591159632,0.46238894689008081,-0.24023337440576095,0.43682139107809465,0.97143434312727039,0.44168648470271682,-0.89140302915657077,-0.011744702705994576,-0.95684213841186938,-0.87331278709383342,-0.25757751951812652,0.95028788081849358,-0.855717425167429,0.44556048626339084,-0.44340838745395111,-0.51785398391906823,0.62623656803101146,-0.44703644162371586,0.84526275230816694,0.76935384039271337,0.25860842562215797,0.58462766445457359,0.78857691157077292,-0.35979180566956837,0.69292281972846148,0.58070187344248492,-0.053529570835423458,-0.394706906934598,0.015322582803351144,0.68476034732757152,0.610906828013671,0.28489741044347056,-0.35768830746304631,-0.97774579142115348,0.74695021833616781,-0.59066837401626093,0.527343145351551,0.89184969379187085,-0.73154652339012671,-0.93250316564575919,-0.12750481633818933,0.95455150583505233,0.68880987618528766,-0.10394365857538937,-0.38885919488447679,-0.29863592251140436,-0.15937306972191345,-0.27911021387163093,0.43729077067100014,0.38211277843551372,-0.53183250945612437,0.47002492075321495,-0.26114598301292674,-0.03145200155277364,0.38472853246365141,0.42183809467676936,-0.80880570402778951,-0.625431936059814,0.83479555967952845,-0.013112717314210123,0.1802695967165146,-0.71897773245301921,-0.39915027487983473,0.953335651640471,-0.70418553133690054,0.098098567732655712,-0.82837401648441977,0.81430661483402667,0.75856042642079313,-0.3304480474118367,-0.92760683546196987,0.9649298093118378,-0.87181372888005049,0.29514817860682874,0.39098515193489619,0.63446580042804857,0.86959235364086573,0.32409405956235438,-0.53297714587905309,0.59598634745738766,0.51465750043962966,0.36604829428999142,0.76121900079828642,-0.97646177139899781,0.52431460820339371,0.62376105441886975,0.36285533260687036,-0.4710226349863329,-0.66315764033382651,0.58148466589929748,-0.19156631277481387,0.11994090542194476,-0.788122533256245,0.97924909879418509,0.10404544980453581,0.34257279212706387,0.36342853604044234,-0.70615922366555739,-0.667661538658506,-0.76832262555524833,0.517338363228989,0.29643723848109937,0.27302767861309818,-0.38113205804542266,-0.512460673000878,-0.24058741947663362,0.43524186007456939,-0.58286517885647027,0.40058503877398793,-0.1740176655231126,-0.59374754344753344,0.27662074485636351,0.40730920592663306,0.51195214014125623,-0.08613676954346558,0.47889822510951113,-0.42111348054423625,-0.388011777022859,-0.83614656647487851,-0.53436911969183443,0.97297911903493994,0.33243003549633082,0.669974135546933,0.30659204037235677,-0.97315137692408238,-0.0064958524920492675,-0.82877194500936746,-0.70506954319079851,0.63786123908956593,-0.23379394795456621,0.24713298410509385,-0.99115959088837713,0.698636070684826,-0.92242755923533237,-0.3026244301826807,0.54592712900877327,-0.024282376293224456,0.43412870468298381,-0.799141027405458,-0.94377891763289412,0.57533511359958678,0.83368739990223539,-0.057445891228246448,-0.83159608479197888,-0.57759803607016713,-0.63922308973931852,-0.2450438035861793,-0.78190442490480117,0.91079314747396534,-0.22787508332537257,-0.07660419311216296,0.37016789865222194,-0.77815839917313234,0.084727666380222735,-0.92708609715434076,-0.58662627292174208,0.73890526766837816,-0.81576541104156775,-0.74060588131686944,-0.39107303805233584,0.74862330488330842,-0.57497624474343667,-0.6665577602882673,0.67670348364706312,-0.36307583160841644,0.78100165761122553,0.1222345075207923,-0.33167326046697482,-0.46899191265413159,0.98389284218842765,-0.28516051605584125,0.13281258155257095,-0.41561820377391678,-0.414557113505228,-0.32750318400911205,0.65807995649896556,0.49283806816341263,-0.34113144098833736,-0.57904151481531629,-0.000812766608229264,-0.40804508161174369,0.32071585688773352,0.232273080494382,0.16551714072260873,-0.49384323390845358,0.9389812601446087,-0.24521550733838954,0.043587372192920824,-0.72971629897584966,-0.88476174971310506,-0.9779076343299391,0.55351059723343266,-0.37736291036818315,-0.42239185302629689,-0.512892730772911,-0.84227583922551752,0.16550410639750962,-0.5646522443576959,-0.82708853940809546,0.33205021747017754,0.18595430077330874,0.92568407530229724,-0.43494999196145218,-0.43646929060875872,0.85553982288368968,0.48435901360789269,0.18502619545209509,-0.40778601700802614,-0.65020328790424542,-0.51428031991900891,0.24900449870573566,-0.3719883651342189,0.55217221777521641,0.40878490191362093,0.85372346772520036,-0.773730369179384,-0.67860272930869958,-0.12913201801904106,0.33149209913401495,-0.55419458754090345,-0.66284756905531861,0.36756748956049212,-0.63323893427533984,-0.21417777203683638,-0.19041317384243625,-0.4312433430139177,-0.72688903134637006,-0.49521735333614858,0.15768765246387928,0.38088290923316165,0.67500604627421412,0.22073888835531608,0.96658216322147383,-0.88978583872773953,0.55659442979683837,-0.81937680804141644,-0.7773766898444745,0.470108651774986,0.57484233871793489,-0.74300635174988139,0.32559952061884084,-0.4566031426454909,-0.53089739826083993,-0.76165791636410074,0.64532254433507219,0.29054396426796164,0.23957256099189286,0.618565915906134,-0.12719060859046438,0.80599803515057922,-0.38410143246133877,-0.92318322878479175,-0.594406529140848,0.718140572178243,0.72898534486488686,0.668702133776947,-0.80643243752719485,0.56957317868693413,0.3328498314753407,0.36250168334809213,-0.23415414953332123,0.39916375344580213,-0.66901043600822352,-0.790175256687298,0.60214244183252674,-0.77388439316949076,-0.79341013161158658,-0.89418351412479924,-0.0058240145471990176,-0.84553360140208789,-0.56007253497842346,-0.75052338780393979,0.21688541174721224,-0.975620872329744,0.0894487095481943,-0.54054476345914637,-0.11166672460346797,0.40327271884459664,-0.77052772081016,0.56184833755802754,0.61132026864742872,-0.90403823177518239,0.82025795840670257,0.76486935409012691,-0.20841444852222429,-0.74017478839502426,-0.93526515641029229,0.12829652108638384,-0.65975371825497309,0.45412147252546692,0.061702625854733691,0.028906092061151793,-0.056169293381352577,0.98900720616290683,0.70230676452736684,0.38538032555271884,-0.66389603152121235,0.51808160427868444,0.35143901098120911,0.23092223435217618,-0.9673951244761213,0.928560149822645,-0.13239232456888647,0.41112669436779187,-0.989332457999388,-0.31407060814745286,0.79805487198664571,0.49538040510163661,-0.57087967850774513,-0.076101994643035339,-0.57902099684766539,-0.99854618962786446,0.028284806771336497,0.44320943087488851,-0.71501820614329459,-0.62723789579572053,0.11706132633474717,0.969350832965854,-0.7246405085197839,0.59718300429972959,-0.016365848023614776,-0.68644869452642687,0.60628857957492055,-0.95559279804844077,0.79307016534408092,-0.38940708590178147,0.54215010513651651,0.069836211888974625,0.27622172854664817,-0.64749877045280246,0.990229870188157,0.16354870803819444,-0.7973579162719463,0.30548283378848939,0.65575154715019812,-0.23347910178521605,-0.57727989860683671,-0.37639956799168117,0.40263950703788526,-0.68176668122493045,-0.030934320311497114,-0.85374442062049383,-0.77860267077507572,-0.4993515133389046,-0.73542805189985228,-0.51071297913357283,-0.70562374438421038,-0.63250012213015,0.94689158394322337,-0.48035303618775355,0.657353331640993,-0.383042104254962,-0.32648289218846843,-0.599696209467806,0.46175725034519904,0.47566741587392397,0.95873820779786356,0.1149308858974515,-0.91056768778272335,-0.042720030547454969,-0.7732174763331271,0.25736255629796656,-0.1977327182878427,-0.51213341928652178,-0.82087188019457824,0.52168912092302422,-0.240482200980411,-0.40809530970086128,0.021373675214766373,0.82857331998114159,-0.85056557825327184,-0.81714725765266794,0.61537649418012075,-0.12539741169912619,-0.3363869121933295,0.34148605183767439,-0.82240596265644117,0.56050211356976165,0.70543963355265538,-0.88689174963482276,-0.65951650294452746,-0.26790622261721,0.07956638609970286,0.31490429039807261,-0.173954819410087,-0.56444041550366231,-0.17991917588744275,-0.49653055029759674,-0.20943106813795448,-0.9493311429160326,-0.023946070589100043,0.78957518832272622,0.78285977653360916,-0.715107551177548,0.78754497775227994,-0.36269249690821975,0.88222820306300564,-0.94743624559949913,-0.14266718790990635,0.054606158777422344,0.64042219735701666,-0.94961879586317521,-0.48224561590805909,-0.75847991218719624,-0.63672635733928828,0.421343937712416,0.86900332424277593,-0.15319333931114215,-0.684158920629024,-0.55455164544030633,-0.22304635086238681,-0.823146138723542,-0.6841062585283566,0.25921953202188924,-0.48833103640392939,0.21997687789610443,-0.068583852643418985,0.60198403317573668,-0.43894100815008441,0.29194023287479776,-0.82481012066118886,0.4704989360042377,0.35597636613807471,-0.33403588381318183,0.49824057076975731,0.6926725486724975,0.92518419023844611,-0.4541762412777991,0.69156015649976221,-0.6054818982283966,-0.9408187847308902,0.89830764424908327,0.9778811698676465,0.513665769488395,0.042501485926332641,-0.83201569078118343,0.20178014095955535,0.67146623259012883,-0.73718006105030887,0.040658149421521531,-0.027365323634522654,0.030244695036786,0.42702653232357768,0.804511042220756,-0.81793230949804763,0.81767961886603369,-0.89450513333757642,0.64200267504993946,0.43016122627545206,0.6118057601208825,0.26677710528801063,0.19524119803460371,0.84446385588704787,0.44716667311599789,0.88686357293597584,-0.69556313925216118,0.51232613088205747,0.093479084825831976,-0.19974995134386697,-0.09000074401963537,-0.887137663032458,0.77896246396888158,0.82627394507931262,-0.28966675572547446,-0.32972751060953714,0.46441625406239939,-0.62165344861413052,-0.6368862784639403,-0.82623565002634913],"Bias":0.96738763384865023,"Output":0.0,"Threshold":-0.91852587271413111,"Type":"LT"},{"Weight":[-0.62339047418133842,-0.47367769362110534,-0.37363059696444806,0.077616739588611178,-0.39506552293666897,-0.86347091564138934,-0.77718999785240273,-0.958178646377371,0.028013061745098357,-0.21883390388397217,0.62372649396943236,0.0951825068775483,-0.83644749915061867,0.064932236012505473,-0.093106286643588124,-0.11906852066473501,-0.282987715342542,0.38002124818974231,-0.3995829594319607,-0.57242836597023,0.953067576956501,-0.68158523537292393,-0.920237485747895,-0.599140490684258,0.33204556691089904,-0.14794462646727666,0.69969196883015894,0.22733054367235422,0.16315104168055161,-0.52313117195066583,-0.12775438284862525,-0.62955445173641411,0.22463655109733183,0.92196693873124524,-0.88334413472718754,0.922397585549577,-0.32597652698214,-0.46341477961438465,0.12862757925345916,-0.991617252114982,0.53685515166113862,0.47120930462666288,-0.87584763666421528,0.47178290247534538,0.8087500817183173,0.3574778737302301,-0.94356410202736229,0.96922575401571842,-0.97751232049312087,-0.89607463120300068,0.49473185580909806,0.49017676081982292,0.58185751949523457,0.74300621391414023,-0.24396625451928297,-0.68455008030149622,-0.57020570364324641,-0.70077980295791287,-0.80315256342438635,-0.49542562314096167,-0.22021314186053961,-0.932359290743414,-0.0800718572363592,0.617753685739708,0.15262801300390996,0.039147401246776528,0.078396693374215023,0.9250168488011774,0.20123457964567215,-0.00699366210354197,0.30707956585431451,0.33164042668959148,-0.88229350833329068,0.26755430003048586,0.6340136083932657,0.87555314548106544,0.8148863524267852,-0.0080282995514703442,-0.92567182747911281,-0.81442397870795058,0.96887315296049847,-0.42521018880662054,0.1715234206856803,0.11028302372912086,-0.17836561853921304,-0.23510846273745803,-0.033709608034095548,-0.86747120547456258,-0.014719830832779328,0.4342070377591099,0.81708328184535883,0.35716950723769586,-0.90915592522786737,-0.0034292512589270486,0.75534751115150167,-0.75315220595949894,0.7622894899744026,0.32034764500351048,0.46873451185819437,-0.42655583910018013,-0.058515132897773353,0.66181601614775887,0.29777424889513021,0.90309944232138784,0.854052654399561,0.13365176745394794,0.73946917696831249,-0.68013665577403115,0.39465359104548281,-0.55010125858248271,0.86280522535685689,-0.051482381788772708,-0.26880356355980206,0.46414960476763062,-0.88585718017344228,-0.85753392933753037,-0.90772419185737341,-0.85275856771169167,0.11575603490497732,-0.32197105247619145,-0.19923890856990539,-0.50282017910053034,-0.64299348306050219,0.28808918794993738,-0.82963706871012088,0.160602876525653,-0.32228198429675864,-0.15325380636064978,-0.40924202530143877,-0.34325427531416264,-0.1849644459714016,0.72282434707639009,0.82422592901821523,-0.68366760466418586,-0.050391710386793923,0.07554506700278496,-0.48349383495910736,-0.86994616122448176,0.25059001112849916,-0.75872688496426066,0.91946090986927087,0.69429881483982259,-0.15161186137777374,0.82005460365677929,0.2648941996809534,0.94711684945370855,-0.40185739304956858,0.075077428517433542,0.67192337693270454,0.24936172377754085,0.47809280477375388,0.80874750148912311,0.053501476092963234,-0.17977578946378817,0.48742460808131127,-0.054514931540244692,-0.50136876315873524,0.17076324120665121,0.68486474393162167,0.39022605511836056,-0.17126057584363064,0.056426971245755894,-0.37666093156517527,-0.24768452963218304,-0.214981955576214,-0.79613412441505782,-0.72853300521547582,0.62895034934810845,-0.79626289140259054,0.70330916098473084,0.014488515450846643,0.06292881447026917,0.49313869350270306,-0.35429162362324618,-0.060983660193618228,0.13521060586683947,0.57075620748603539,-0.48041772771646163,-0.91034104577747221,0.12919835612606181,0.26337642421171836,-0.81724064462689716,0.88906218059782971,-0.70281429109294635,-0.6072607718441918,-0.78369116167709751,0.26270454901396506,-0.61547310865273375,-0.07038536764233623,0.0095993918411430863,-0.86559305659755736,0.19076327336521973,-0.91466020555918115,-0.71885154103806781,-0.62663085368770677,-0.042351847068570481,0.059241171022523742,-0.37717448332215403,0.97059135882677106,0.69063571407023616,0.81295526205234014,0.55838550001307652,0.711432213760648,0.44320511792004347,-0.0039269910212266215,-0.27439325501881223,-0.29641002430413388,-0.96802373927460228,-0.73726558253973051,0.52289359109610956,0.0460556419780737,-0.76768932806686,-0.175718501292038,-0.4371840457605124,0.37250066426233419,-0.41283721356319136,-0.78609336250745387,0.047936116367548756,-0.52365275776183828,-0.0084263663778204323,0.64701933956100577,0.10520591452028878,0.0097784716681477,0.1938434509531797,-0.90166862583796892,0.34919407700616589,0.10248142671886898,-0.68217586850848788,-0.19228211380181934,-0.66719481054097174,-0.20160134332329097,-0.448580395639213,0.68415194176330785,-0.64751860669232841,-0.22037086133862421,-0.65768540867496539,-0.088955698110608244,-0.15181838355577476,-0.48847547103114214,0.3133105734890842,0.099594235466604231,-0.49134355806342489,0.17981937210067145,0.34252892310848876,0.59919201284609358,-0.71333950092705878,0.6806551509912383,0.074273473152086822,0.44919008549730766,-0.84548975659789971,-0.96122127117645984,0.57056333197772657,0.53815090821038514,0.78425359622773416,0.73997960739768087,0.730798405469767,-0.92198588136676041,0.31840029187425983,-0.55884937595522466,-0.29509416981371778,0.48685398208296576,-0.41585013010345873,-0.34906262361866547,-0.70876047001628228,0.17274530146864489,0.69909507534424542,-0.3925578731077527,0.60575735224678984,0.075686520466435009,-0.63851343916659864,-0.75537432299711482,-0.15431576415631723,0.097863834396872587,0.36637042153923327,0.27203154716269651,-0.037977029587131471,0.33519820279218171,-0.69354158439372737,-0.76295117790016864,-0.49020387767357931,-0.25101798598236308,-0.68271735062949235,0.83479563232268938,0.56167661098841415,-0.49445883487093206,0.47966497041269435,-0.63340260909563051,0.38914969954134415,-0.598907470982013,0.293844787075112,-0.0029586842297383976,0.22649231191095537,0.51701494842628715,0.52298489563306094,-0.43937342261866358,0.15784174956280819,-0.16187317909760082,-0.969022930119663,0.80434892038085914,-0.23050567285646947,0.19742840584247764,0.0859801290025842,-0.03925701186026307,-0.54387142813944789,0.31181603451809659,-0.60909056505611658,0.88500992343063,-0.16586311821167502,-0.05923742524312689,-0.66797268095797513,0.34963041141146345,-0.34969745173570582,0.23976561484847481,-0.74489914008644365,0.10603032359202873,0.19543879069175515,-0.12004315206783039,-0.392529200945296,-0.042341377140181782,-0.61456630733542439,-0.97794960996971914,0.37977610453021532,0.78866875115254365,-0.011821886530063063,0.30382851851351023,0.41040716059990562,0.30135545381407974,-0.87561811594088479,0.22760209544915805,-0.63465856790293873,-0.38630557031664325,-0.15411462548846128,0.498315082629358,0.29235920090803841,0.5077170699405098,0.080355102699415343,-0.41432772409838053,-0.33502498424380317,0.490308367409887,-0.30803076750972808,-0.57101127392193829,-0.859882453856935,-0.50909795309840611,-0.32822388239587835,-0.19297814378187905,-0.19805704159571652,-0.71740956125660316,0.99950466770655688,0.10872532106410959,0.2473044666681925,-0.453080195678901,0.75390983827128533,0.76597134758065055,-0.36112716484867369,0.582506094399144,0.83703556649248845,-0.68124984283058432,0.88541257748632352,0.52027800191206763,-0.88321296772137892,-0.65128734645028008,-0.62343551992598711,-0.542146939571084,-0.98975973482698187,0.28265777522821806,0.978065143794783,-0.35677343576996279,-0.041246022582634365,-0.7293623936033633,0.49373252573131238,-0.058856736896027224,-0.62000597902573928,0.22814970055043218,0.37181092396928506,-0.27272987844083918,-0.077511152288648841,-0.10425221598905149,-0.15787017585610513,-0.57197270289620972,0.021477597775625808,-0.71347812968933866,0.73653523565108669,-0.81076250728720911,-0.26675075724103992,0.099086327058768978,-0.17367094483863141,-0.40067822644518608,-0.019474443988629825,-0.46984114845741592,0.21438210234715702,-0.65548341193026094,-0.98345538973037872,0.65972467775443788,-0.39859096771040509,0.34100306934723773,-0.80363034820353163,0.2747803187345994,0.092381958892746807,0.572495635865487,0.59338798541267779,-0.3077820913436739,0.4779908845564308,0.92280038442593082,-0.81363634244242511,0.14949884179490564,-0.89339191973832988,-0.096995933026539125,-0.083193599750843644,0.12148650694707712,-0.18554558660161941,-0.93560141508262673,-0.84137352828000367,0.70617917818305043,0.949239766667243,-0.98497092024654653,0.76976083906821946,-0.62589704181342243,-0.65983199964269623,-0.93469163865535132,0.26338606153772492,-0.95011423246474669,0.0383013081915217,-0.78462103464855859,-0.320988425203128,0.67186191429936415,-0.83242833327149424,0.58919012806806259,-0.95835590267477366,-0.34806079806203993,-0.056741173871206668,-0.90425130021956346,-0.041928416603211505,-0.045852861854179229,0.72679063385668707,0.39403150714655943,0.36610396782220528,-0.28696272814970591,0.096897699915290667,-0.040649299063090838,-0.63645233802332191,0.43469816140583628,-0.97376079809561411,0.23313127049856414,-0.10591530571967145,-0.362068881914983,0.11798828752617738,-0.16379386380491492,0.901982310648068,0.32976321425743549,0.47953650657065983,0.724152038676735,-0.8268853047987843,0.425482384592985,-0.73518411802835026,-0.44947835311734974,-0.18818218502597053,0.4204651738612285,-0.73241563641113028,0.19425283195183279,-0.85080796752628307,0.092371180230924471,0.4145022665217995,-0.499156226636449,-0.73715760546604059,-0.47732966508591995,-0.23414656996454419,-0.83644765328450488,0.53108446697289335,0.90143764992311493,-0.76790218323837134,0.012429874861813092,0.63004263566343233,-0.24281833052766433,-0.45730895290957252,0.36385662730962814,-0.587847770465467,-0.10355410264039137,-0.4939633684670382,0.129915010244546,0.55556117350028877,0.19431925853449816,-0.73254848724815458,-0.16029954848824979,-0.19562898492237041,0.270420201248685,-0.27449069557454936,0.0806416655334838,-0.28580899410220284,-0.017227009412472606,-0.72021266106526027,-0.031020888141831796,0.82683383711931935,0.7269493270325238,0.98273312625602494,-0.556154420858321,-0.76036587439494485,0.36348222445858747,-0.10733514796352719,-0.16348866613744231,-0.80732321497393922,-0.89028266439693171,0.091868994334651621,-0.45156326957585441,0.40057769995209652,-0.89548864350444113,0.059655384188357453,-0.14364165214059951,0.90613165539974894,0.71765981648008326,-0.407731928586835,0.11916182987352919,0.81419296367754834,-0.081768877376694638,-0.911727209534369,0.44181841306473052,0.032845360707885289,0.63955628808567122,0.5229619129202151,-0.28299941554805236,-0.29971243035966177,-0.35234950452686731,-0.75966137217341989,-0.39454668918370583,-0.89394168457665557,-0.92461798429704178,-0.750276404782327,-0.0876294514572385,-0.021761544524580959,-0.27276860469615488,-0.439952998161294,-0.40091112693814146,-0.11258212854740309,0.26478398091382532,0.043479219099264228,0.61935468326292686,-0.53645143310374177,0.68156035695297656,0.055022839482418651,0.78081759707108955,-0.4216714386929159,0.34296567428063868,-0.32527404153965134,0.067596368057465356,-0.43423617791116059,-0.55752774214256917,-0.67129071507197369,-0.86515896342003673,-0.013399863621871854,0.31575045609648827,0.993741098322785,-0.033851148110745077,0.60181094501251864,-0.75143286620799121,-0.50065552187182727,-0.34492803148223461,0.56898609808133271,-0.85397942776511393,0.87169023643792154,0.825411632575752,-0.0100195026071833,0.10355357690879775,-0.006824623330880247,0.29078162055964657,0.54738889147871583,0.98002107440494979,-0.37507878913314957,0.56192678611815294,-0.97058736205594021,-0.0887506362464049,0.40250124754500632,-0.349973960011254,-0.89467738563878341,0.60417211968646023,-0.15336912132490851,-0.21336628320318007,-0.37625219783571184,0.67202599890158787,-0.75320335745494971,-0.32276469577232597,-0.671764028105775,0.79033965840485865,-0.114187439025467,-0.95585351016179354,-0.155173934137064,0.46492712593866842,-0.621598909432813,-0.55614676724939927,0.064180539019489918,0.9091964163394628,-0.8420243458086738,-0.37573376268881081,0.38313755410869493,-0.4771068112352429,0.42674609666073049,0.81171114687421875,0.69061165940510649,-0.690964364768455,-0.93952815976903226,-0.22584022545527677,-0.27074193268583246,0.79901606067969277,-0.96471734948675958,0.68145140850984087,-0.80095567405268353,0.5154060602725512,0.320780929793036,-0.31359013370871086,0.846596219505461,-0.52101413045125744,0.014462211176036955,-0.04346790585828382,0.47735377656172673,0.16770222185538253,-0.77171887493306723,0.34062352466426021,0.53768568697277719,0.50948724779742172,0.53757556506319693,-0.15302706656652831,0.995519347952455,-0.21702067377838338,0.46693412655356065,-0.41982908613040537,-0.61954602302030937,-0.33357504584527342,0.92480814500004427,-0.38864615205146658,0.090490211309162072,-0.38695042132723628,0.18735018008730847,-0.1418500832011225,0.051250789804035232,0.45199175805411851,0.033048267491649963,-0.79759683729968822,-0.51956817578504244,-0.44169733461071614,-0.7208564885523433,0.70589962075739154,-0.30448802388482171,-0.068916729683483363,-0.042400456053391308,0.69355011856814386,-0.11744190106049268,0.61757601733206591,0.12447914347261151,-0.84073497207869541,0.42168776989993068,0.98362099238839973,0.3700419437932046,-0.11502787662438484,0.55819512510588165,-0.74736474163241906,0.34692620828138954,-0.61200828180276245,0.9202826926113491,-0.93591221558671078,0.92407192612256484,0.38257971610062741,0.20349767813621911,0.69725097562058413,0.98794788773541709,0.21068751123300172,-0.6521940062065581,0.029236588175053049,-0.024975131277449023,0.285278130921199,-0.90459820111496292,-0.85773178742161571,-0.32632586561437971,-0.40213593579928203,0.56461419563955362,-0.99111055908310719,0.976714611508285,0.078458766023842039,-0.40946078552373721,0.36638865171297857,-0.90788523382874453,0.026074230217409428,-0.78772087990665851,0.77968516050823278,0.90848520580142977,0.056918956365864234,-0.44635221569163364,0.26312590123299784,-0.86819138325200951,0.65123431694285683,0.30079367817416491,-0.29181159440978038,0.89509302652212464,0.6302267371817617,-0.36070787644046726,-0.51935520140424152,0.76962463919521529,0.79146658060674857,-0.028820381513247444,-0.25627118500707263,-0.48198579134512032,0.27123490128258004,-0.47876297332288836,0.94649658116814517,-0.40988496849773681,-0.82757321597429612,-0.35482649288830648,-0.36631865164559274,0.96679049216527047,0.77689851297852519,0.5101966557606108,0.547051689376613,-0.16383709347054226,0.014644762507940067,0.44509382054446911,0.84035693287866042,-0.082316466179823716,0.45984093493774575,-0.24629596725399419,0.973502984723776,0.8713421332050777,-0.56929816797808663,-0.50589877297445141,-0.66408782855797921,-0.25184714945584868,-0.67920562237464155,-0.40884173494244075,0.67570581691139653,0.94732468060558883,-0.71758480729422758,-0.19219639487201179,0.29506038981259819,-0.36892451875327364,0.98855666815701715,0.9647209904923667,0.14405839803817608,-0.60030528744696887,0.098540032328357938,-0.23120385605432273,0.069114443878230847,0.3739168063615993,-0.57633926513434353,-0.93792416431844428,0.27360940038860282,0.78962602735945309,0.85909262758637439,0.692804886350783,0.496055474270161,0.59501213701209621,-0.78250190605525949,0.45992539891038342,0.38034172327273608,-0.25705381727640231,-0.8547068218955336,-0.18784898714527906,0.45027991125838829,-0.62710724055166689,0.066841532041710588,-0.54197090144360949,0.85483101748620671,-0.87151268025464967,-0.099868621258003928,0.70080871586725524,-0.863595912169477,-0.5925911695661914,-0.025111991923820222,0.6131233585128204,0.25542962749275827,0.28924032547010126,0.78692778795348839,0.53063800164062436,0.60807845956090767,-0.32807725636664647,0.92296704227242943,0.46590311427875569,-0.21106106518351522,0.92171196868722882,-0.48926401207654924,-0.67472455868251835,0.99113709013496387,0.25920891168490467,0.72760392153989706,0.030469696051659851,0.93857605752468853,-0.74680015339832762,0.23337402065907326,-0.46415099662921905],"Bias":0.45294169357649128,"Output":0.0,"Threshold":0.91809837097213531,"Type":"LT"},{"Weight":[-0.85828656650068547,-0.67101707294165025,0.601657526847747,0.13444700051771802,0.53294890119365834,0.21907373947048267,-0.92459906773855871,-0.89325636899716054,0.555910428779158,0.22581038774261736,-0.70357464333231312,-0.36881715402417686,0.94377495206136952,0.74006710748191318,0.87978235580016972,0.34598051726165252,-0.6827454155696302,0.33569133390471867,-0.99205262912067238,