{"Input":[0.0,0.0],"Output":[0.0,0.0],"DLayers":[{"neurons":[{"Weight":[0.42364281156269962,0.42533037551926933],"Bias":0.21065972475831385,"Output":0.0,"Threshold":0.9387908167852046,"Type":"O"},{"Weight":[0.014213563880982605,-0.76403255423718719],"Bias":0.20770061910511023,"Output":0.0,"Threshold":-0.91080919602457866,"Type":"A"},{"Weight":[0.73003517264967555,-0.9458895171740509],"Bias":0.32968523787785564,"Output":0.0,"Threshold":-0.3302085801634046,"Type":"A"}],"output":null,"numNeurons":3},{"neurons":[{"Weight":[0.11401511035580891,-0.49740016343882315,-0.0063618803426445832],"Bias":0.7190971294041244,"Output":0.0,"Threshold":-0.42209080859184767,"Type":"O"},{"Weight":[-0.98201484465134092,-0.24696562636968011,-0.89342819242432159],"Bias":0.86624561476812023,"Output":0.0,"Threshold":-0.072568445500251114,"Type":"GT"},{"Weight":[-0.0011433442128558383,-0.38008934044283316,0.34258560246908365],"Bias":0.044727113584395087,"Output":0.0,"Threshold":-0.46865128188796867,"Type":"GT"},{"Weight":[-0.093434231399295034,-0.10436391043679971,-0.096644614402504922],"Bias":0.054706781196737095,"Output":0.0,"Threshold":-0.88198767364117669,"Type":"A"},{"Weight":[0.044935424833062766,-0.91207718006897587,0.34770787989148305],"Bias":0.48306954627999549,"Output":0.0,"Threshold":-0.77916424757762082,"Type":"A"}],"output":null,"numNeurons":5},{"neurons":[{"Weight":[-0.2576401346631535,0.5628989341496019,0.92822610304142628,0.18204763540162128,-0.0365927266127396],"Bias":0.25044584751615573,"Output":0.0,"Threshold":-0.34719527063295025,"Type":"O"},{"Weight":[-0.68943449886955066,0.84092840218959763,-0.86682028130945765,-0.98425794112694354,0.8621724582566751],"Bias":0.397077292854468,"Output":0.0,"Threshold":-0.27371182724540671,"Type":"GT"},{"Weight":[-0.57383512313190621,-0.26556286600677431,0.36565502843151571,-0.83579409673614158,0.54146497628719781],"Bias":0.1684185113610786,"Output":0.0,"Threshold":0.4945143458873566,"Type":"GT"},{"Weight":[0.97125895692559838,-0.79448957731690706,-0.68543619135647837,0.65827338102193245,0.6421411440903978],"Bias":0.18564104344027166,"Output":0.0,"Threshold":-0.35183872531719446,"Type":"GT"},{"Weight":[0.41740080593964124,0.12359958240929972,-0.23819920711135456,0.37639521685261057,0.028948904494265515],"Bias":0.98154024220143454,"Output":0.0,"Threshold":0.62109816149859609,"Type":"A"},{"Weight":[0.65600826342404273,-0.78035500868240137,-0.48474263841507148,0.093457805036314678,-0.91864252878289787],"Bias":0.58827563588892839,"Output":0.0,"Threshold":-0.93887935808807577,"Type":"GT"},{"Weight":[-0.84455846335951168,-0.23054891369796773,0.12636114523110964,0.59560627564583268,0.761760766507015],"Bias":0.25631513877600204,"Output":0.0,"Threshold":0.65825615853921327,"Type":"A"},{"Weight":[0.94940174974007618,-0.275330538524003,0.45962911446561527,0.91526897620189418,0.050035718851739408],"Bias":0.867096086902123,"Output":0.0,"Threshold":-0.42668107451250825,"Type":"O"},{"Weight":[0.9311242992668991,-0.066238639907091224,-0.90503172013211608,0.70533465580331844,0.60370697667994866],"Bias":0.4947370162674864,"Output":0.0,"Threshold":-0.25251516152756065,"Type":"O"},{"Weight":[-0.193807286766268,0.11599079664609897,0.49713849066623417,0.93442005428225738,0.86487597360502744],"Bias":0.47925024362246049,"Output":0.0,"Threshold":-0.32752530338593072,"Type":"GT"},{"Weight":[-0.38513641962089407,0.14672021621219825,-0.54340515636997533,0.76057384897050162,0.44766559565796776],"Bias":0.75322443840709719,"Output":0.0,"Threshold":0.18152478345740808,"Type":"A"},{"Weight":[-0.35652671025904209,-0.56960101359039594,0.90102482209961154,0.49276580405084686,-0.69734431137207165],"Bias":0.92954258384627408,"Output":0.0,"Threshold":0.42737360039137939,"Type":"O"}],"output":null,"numNeurons":12}],"OLayer":{"neurons":[{"Weight":[0.26308642712565439,0.20663877679344209,0.083830399477775389,0.86647423769648846,0.944577557940305,0.59047339232194862,0.27877939039784455,0.39046464412960441,0.91073617660940442,0.92818721566730511,0.32066692147435011,0.72659183327415577],"Bias":0.016065572861612577,"Output":0.0,"Threshold":-0.42650048128631918,"Type":"OT"},{"Weight":[0.010735415858559038,0.37382864410701611,0.46016595534056703,0.6130981694967943,0.14740857954482017,0.058357401778156591,0.12555519497280718,0.37692428118406063,0.56149576863343631,0.31642228752208051,0.10107329166544289,0.73581644181898631],"Bias":0.27254383651192476,"Output":0.0,"Threshold":-0.613928876637448,"Type":"OT"}],"output":null,"numNeurons":2},"NumLayers":3,"Breedibility":0.020363877071237133,"Mutibility":3.7083332583812685,"Repetition":0}
