{"Input":[0.0,0.0],"Output":[0.0,0.0],"DLayers":[{"neurons":[{"Weight":[0.365410508758114,0.36030390409766877],"Bias":0.7022173403306945,"Output":0.0,"Threshold":0.70343113630238507,"Type":"GT"},{"Weight":[0.34293350220794488,-0.18112411544710588],"Bias":0.87726855039469365,"Output":0.0,"Threshold":-0.96403787935340679,"Type":"A"},{"Weight":[-0.84323677227051774,0.1535317935764472],"Bias":0.82010484245610649,"Output":0.0,"Threshold":-0.5747219233655938,"Type":"A"},{"Weight":[0.0199824743997224,-0.08024599360313546],"Bias":0.11306370660339654,"Output":0.0,"Threshold":0.74965365219379476,"Type":"GT"},{"Weight":[-0.80369856478818624,-0.58858996563991062],"Bias":0.97856036712348482,"Output":0.0,"Threshold":-0.60295491786811262,"Type":"A"},{"Weight":[-0.022093247166878192,0.17959665003213876],"Bias":0.21732021505819643,"Output":0.0,"Threshold":0.36043691139688572,"Type":"GT"},{"Weight":[-0.4408900041323574,-0.64181025728667629],"Bias":0.38186419167642677,"Output":0.0,"Threshold":0.87976765347633867,"Type":"GT"},{"Weight":[0.55144226623300574,0.91331685330407553],"Bias":0.62318514269924963,"Output":0.0,"Threshold":-0.4597937983739161,"Type":"GT"},{"Weight":[-0.86156005173062911,0.19837078973575067],"Bias":0.37544791371349612,"Output":0.0,"Threshold":-0.89290682128300281,"Type":"O"},{"Weight":[-0.7393131208323469,0.865679974139519],"Bias":0.3951252733334551,"Output":0.0,"Threshold":-0.48588240215828754,"Type":"A"},{"Weight":[-0.30665149879951564,0.72563109021896077],"Bias":0.10784339490711847,"Output":0.0,"Threshold":0.65051754827169583,"Type":"O"},{"Weight":[0.30055488194364816,-0.94216156748224122],"Bias":0.6896380645640372,"Output":0.0,"Threshold":-0.42260559714520612,"Type":"GT"},{"Weight":[0.21062971847626832,-0.67683228183390209],"Bias":0.16206612166113504,"Output":0.0,"Threshold":-0.9119566799662806,"Type":"O"}],"output":null,"numNeurons":13},{"neurons":[{"Weight":[0.40152840288427116,-0.14075305785087544,-0.43725552989042155,-0.065559864074718144,0.25377129030123879,0.33478833657446705,-0.12228386435764091,-0.21104250345893322,-0.27443987842390311,0.57754653346610563,0.79983798870809286,0.31670752368714078,-0.30338052534655691],"Bias":0.80880847331546646,"Output":0.0,"Threshold":-0.80905012032438539,"Type":"A"},{"Weight":[0.39469481883323509,0.17764790736960615,-0.70631499202284731,0.62410106259589138,-0.86329935205322661,-0.87660170340752308,0.43586677426279841,0.95444718047717925,-0.088345854118627429,0.46578977837496893,0.88762624323723194,0.83885474029875118,0.28730261711743782],"Bias":0.28387556703941691,"Output":0.0,"Threshold":0.18887744107697041,"Type":"O"},{"Weight":[-0.58675483874359857,0.967209699548413,-0.19238366474974139,-0.5565148007853491,-0.77912146308418428,-0.64545062028125422,-0.42602494518553136,0.074143550393238458,-0.1147770155755696,-0.99742843629672584,0.25060338678332206,-0.34326034194941646,0.6098531981044697],"Bias":0.033140792061174658,"Output":0.0,"Threshold":0.580409978321013,"Type":"A"},{"Weight":[-0.76605889050572129,0.19913607798476521,0.81558322944472694,0.084071690721470721,-0.64314344881248819,0.2716219398526577,-0.32175888182677276,0.26791210857588432,0.1966074375419912,0.52309437865535469,0.73610759747033361,-0.19144900478024454,0.8477029022051501],"Bias":0.91324940180091629,"Output":0.0,"Threshold":-0.61059070639805435,"Type":"GT"},{"Weight":[0.42965201215336657,0.70864309263818115,-0.39504915540807378,0.16546056846410995,-0.35962523583305311,-0.66448490771673852,0.838036961312423,-0.20362184485589241,-0.38616924657773655,-0.088706884574474246,-0.57545499856372129,-0.057315599665658364,0.11932278150661047],"Bias":0.24377461673867637,"Output":0.0,"Threshold":0.96367270870305255,"Type":"O"},{"Weight":[-0.70684255785627415,-0.53313627444819378,-0.062002364109271374,-0.10789059154125424,-0.90963257705310019,0.35756902832424686,-0.30402103918791795,-0.87426111096249015,0.96465819560208277,-0.031841524425820229,0.49265746376135267,-0.52188382182358006,-0.84486623008030759],"Bias":0.9187892227986777,"Output":0.0,"Threshold":0.68422003401639875,"Type":"GT"},{"Weight":[-0.96645238202365691,-0.74374172126117244,-0.747209032879774,0.9020658158241146,0.44377169592481652,0.32617911106263248,-0.12894603243514244,-0.72925457299186591,0.065473477852285591,0.15016194765929222,0.99870553798913286,0.93183118427723233,0.444099055344285],"Bias":0.95159716249983628,"Output":0.0,"Threshold":-0.47352122490923909,"Type":"O"},{"Weight":[-0.3767278945896439,-0.59369949511890274,-0.09123272778989408,0.79183383416004194,0.32183375503953254,-0.39883969137391062,-0.24190324882134015,0.0874540885386309,-0.74572475987753117,0.33036047654708872,0.99468401726087741,0.5340580863571065,-0.4329798838277254],"Bias":0.269956675483825,"Output":0.0,"Threshold":0.24008476000283135,"Type":"A"},{"Weight":[-0.23940676089348587,-0.23725875105581187,0.53137683287792692,0.39440195373930126,0.93978904697102916,-0.24804560898246506,-0.66643905670681924,0.41957758293467462,0.31619642317117957,0.41620287271971018,-0.086447005666069221,0.1431607483621504,-0.0071608517352309319],"Bias":0.889612471167749,"Output":0.0,"Threshold":-0.60774846682685824,"Type":"GT"}],"output":null,"numNeurons":9},{"neurons":[{"Weight":[0.55174907415721053,-0.40679648770335897,-0.97029510045903511,0.799976421892632,-0.18494553500085395,0.0947258826786307,0.75688707211841222,-0.81036286186909434,0.067153326266982283],"Bias":0.78371780029671168,"Output":0.0,"Threshold":-0.092156286859957637,"Type":"GT"},{"Weight":[0.03922662094199407,-0.77867164545630652,-0.66428954790546069,-0.085165349340608973,0.78665348691244308,0.25690902921227227,-0.69629653482525444,-0.25964256900346028,0.44928248247563957],"Bias":0.51622000127854761,"Output":0.0,"Threshold":-0.21573442323866041,"Type":"GT"},{"Weight":[0.99172112298743853,-0.3862736762437381,-0.19679798986613656,-0.82245914490076677,0.26124947111180491,0.42396220491452247,0.863156040135378,0.66517878121937568,-0.4478951554968465],"Bias":0.5071946147397135,"Output":0.0,"Threshold":-0.17204945263082602,"Type":"GT"},{"Weight":[-0.29416397087935542,0.860644643130081,-0.0044347853420464252,-0.11709096288173039,-0.57593628558141008,-0.592624549564265,0.83686913868266588,0.899110166308987,0.23796798532734065],"Bias":0.19043693746926121,"Output":0.0,"Threshold":-0.74527846544295473,"Type":"O"},{"Weight":[0.26368670643478942,0.41878245417903293,0.35787555219506639,-0.089182224631860027,-0.70853980849894682,0.50588840502588472,-0.61549814446619622,0.15538338206493454,0.17769934384976482],"Bias":0.92428405858775786,"Output":0.0,"Threshold":-0.014609050943799806,"Type":"O"},{"Weight":[0.13524263730982442,0.74133708735058879,0.78580109159732292,0.12724246137181411,0.98161251516156478,0.14391214220966778,0.805551454334311,-0.10964191337565049,-0.68622344065747387],"Bias":0.1574581955361451,"Output":0.0,"Threshold":0.42492673100201728,"Type":"A"},{"Weight":[-0.70394923663882036,0.25351138564455855,0.49287814064551061,-0.72533187629903284,-0.82099440685519687,-0.65139785299608388,0.83318671064134064,0.94009925561961682,-0.97857013297200679],"Bias":0.023767093207578683,"Output":0.0,"Threshold":-0.10437641390803103,"Type":"O"},{"Weight":[0.35911470388952393,-0.51148406114032685,0.55873170893580271,0.092136711390752676,0.85715085540765468,0.640246283561106,-0.9493691618318526,-0.54265786546406236,0.30675549214089082],"Bias":0.878831518291883,"Output":0.0,"Threshold":0.56953572974053013,"Type":"GT"},{"Weight":[0.97658081956979859,-0.059028584537575292,-0.38289918675222395,0.374149605340394,-0.40115963779443858,0.45582129454976938,-0.97472758869395015,-0.070590589694022474,0.010862654080084831],"Bias":0.319940074030282,"Output":0.0,"Threshold":-0.24943008657983973,"Type":"GT"},{"Weight":[-0.4456060828853427,0.81609489387650735,0.019048435622383113,-0.98279309970456785,0.22554489561614807,0.17043859426418254,0.010938652330515278,-0.20413950234844328,0.47180171472570009],"Bias":0.19741471493496313,"Output":0.0,"Threshold":-0.98924125171696831,"Type":"A"},{"Weight":[-0.14600467828382024,-0.43276720607316455,-0.13313585106895112,-0.54678544427584175,0.24959565571024811,0.3407168301477641,0.2740930050025196,0.52808296379078312,0.10546870394864524],"Bias":0.88511650398611863,"Output":0.0,"Threshold":-0.93504064294278655,"Type":"A"}],"output":null,"numNeurons":11},{"neurons":[{"Weight":[-0.42935194327931475,-0.27880561644155794,-0.79630880281157268,-0.35232050221055772,0.48378097661015623,-0.23857144184344051,-0.64300867246604,0.74238248390256545,0.90574766132316908,-0.21734435214537398,-0.66264097889076967],"Bias":0.095894971441428625,"Output":0.0,"Threshold":-0.5176919682499449,"Type":"O"},{"Weight":[0.62150698882597821,-0.59810880180360226,0.25366043357814683,0.19824302391998611,-0.00341526279384981,-0.85433023462739321,0.75047664146426907,-0.89727515349969045,-0.85693585353760782,0.035521563159079089,0.88507429132474325],"Bias":0.36308622004607982,"Output":0.0,"Threshold":0.95759807199127878,"Type":"GT"},{"Weight":[0.99032239475768169,-0.94320336726643306,0.15915828997230078,-0.64909889579242974,-0.77732227126943054,-0.45390656984127431,-0.61917562858163178,-0.88711303560394472,0.096421991985487746,0.78737760651268884,0.16885690911154119],"Bias":0.36118883097599674,"Output":0.0,"Threshold":-0.20685873516223335,"Type":"A"},{"Weight":[0.48217040509086589,0.80139659615298575,0.49906464782499926,-0.12475590506790016,0.0090454993811647875,0.62403850798683169,-0.86245440033378751,0.40237599117792022,-0.83204901210593474,-0.001875673887261969,0.42303199014767634],"Bias":0.8551987516019488,"Output":0.0,"Threshold":0.809307494111968,"Type":"A"},{"Weight":[-0.17022046547859,-0.846850183255435,0.32810883891215026,-0.87697016628318,-0.27894324310074714,0.308441319180858,0.99110498651447942,-0.25490032381140643,-0.2301580483234292,-0.45172828922594355,0.85831539326268969],"Bias":0.45189678317489884,"Output":0.0,"Threshold":0.52821818298111589,"Type":"O"},{"Weight":[0.20498306127497137,0.63065536256444421,0.77896111681077684,0.21701403857069743,0.4702902643337335,0.39110315795573553,0.18083651511968882,0.90175196849822625,-0.8142733433350331,0.33219740694956734,-0.41600053264573239],"Bias":0.22237930084689489,"Output":0.0,"Threshold":0.041809702777215144,"Type":"GT"},{"Weight":[-0.35757920488602446,-0.784001033186913,-0.67319928513523153,-0.60642526932359919,-0.5313615708292283,0.474815574695736,-0.23597791056892736,-0.68925871499313918,-0.34310557569521738,0.99011912941472568,0.19733116645241677],"Bias":0.4159478887058552,"Output":0.0,"Threshold":0.10133193018908236,"Type":"O"},{"Weight":[0.19602077603154852,-0.53808277917005254,0.64806403622406727,-0.1196924225053249,0.63450989715499329,0.072747188188483566,-0.32646055162253818,0.020270904069892553,0.35633230505340374,-0.28216788837787132,-0.15145905322928868],"Bias":0.2365175435489591,"Output":0.0,"Threshold":0.2816437675066496,"Type":"A"},{"Weight":[0.0516905733624895,0.27969990357742641,0.92038773322495993,0.59617176865980581,0.12261122424277068,0.83594274792631285,0.35846279298815076,0.47339843095904144,0.6818423199848469,-0.061609576950599244,0.92877993543109849],"Bias":0.5831909708600449,"Output":0.0,"Threshold":-0.39052017842909331,"Type":"GT"},{"Weight":[0.819164041811211,-0.91300076614739412,-0.61363025457301656,0.17112896925356658,-0.53715508642473964,0.022230143203507243,-0.96029068341492241,0.39805905027224636,-0.94985993343864561,0.97086824009701067,-0.53676234629785746],"Bias":0.74778405891162536,"Output":0.0,"Threshold":-0.21741118944129495,"Type":"O"},{"Weight":[-0.22003419055605036,-0.038358878362159655,0.37950712134107345,-0.5858426832528052,0.86350506118661963,0.69573869961115475,0.142647216628607,0.34372937415900146,-0.34881482848376727,0.91181772058448651,0.84828961493833444],"Bias":0.95081570649091884,"Output":0.0,"Threshold":0.21105884956710919,"Type":"O"},{"Weight":[-0.4196519383320827,-0.9839604031219894,0.91092112795958347,-0.84617271639694125,0.036404821107352534,-0.64256634406864943,-0.77748720896313306,0.25512242235947513,-0.52657302400403327,-0.021982386252834642,-0.121346216239662],"Bias":0.49774458748183426,"Output":0.0,"Threshold":-0.85922477574051581,"Type":"A"},{"Weight":[-0.30559346885680849,0.57964763025736787,0.54568379490900965,-0.16625456333451652,-0.46952778681625046,-0.4157045806831236,-0.026545453829013486,0.096262921624008069,0.54309891515555742,0.034971226488692324,0.53891689169170187],"Bias":0.58575479201309144,"Output":0.0,"Threshold":-0.287663915328525,"Type":"O"},{"Weight":[0.18907646331427455,-0.1978513217521139,-0.86848355916723774,-0.37558292335624943,-0.38999610784929062,-0.60604537911994638,0.12894567294462847,0.23685792146104293,-0.66352263123892374,-0.14492111892668583,-0.43404701465463591],"Bias":0.91116137379368833,"Output":0.0,"Threshold":0.16439200898836925,"Type":"O"},{"Weight":[-0.82425354925182348,0.89246306656508845,-0.90737086343922224,-0.403544231040191,-0.638223565480776,-0.86245826159718364,-0.35113097743649546,0.06495606948852356,0.61015301505576491,-0.35090882813134644,-0.54015423336073487],"Bias":0.70884442222716493,"Output":0.0,"Threshold":-0.8217392660778664,"Type":"GT"},{"Weight":[-0.14274279640183915,-0.056176223352633524,-0.049202369083278984,-0.18002184581943873,-0.30048207812965011,0.58707810313770459,-0.44567619750540527,-0.084357891271057486,-0.17704274979282297,-0.85471936401665183,0.68437690831924647],"Bias":0.021077961670736764,"Output":0.0,"Threshold":-0.88704273052841554,"Type":"O"}],"output":null,"numNeurons":16},{"neurons":[{"Weight":[-0.7930687958342344,-0.60454863803673009,-0.070723800487222058,-0.35712395718187279,0.3446197944435383,-0.47098036551428046,-0.828998948833439,0.31129209944572861,0.79105394742966351,-0.74698307353397042,0.036847163940243031,-0.46666911731784655,0.67787732122367128,0.8929623923697334,-0.28879063077680328,0.169133492824218],"Bias":0.88125685596897119,"Output":0.0,"Threshold":-0.2199761319067218,"Type":"GT"},{"Weight":[0.69593344009292,-0.51635430265048254,-0.088552240323532483,-0.73973809682751912,0.70606238427854251,0.025720415183212803,0.3730848088735178,0.2300240142410733,0.66469717475804369,0.77663601691677986,0.82182133049788941,-0.71495905784655323,-0.5186191026673741,-0.86045028775020049,0.83015084072488865,0.27543159540529905],"Bias":0.87426545651362531,"Output":0.0,"Threshold":-0.55994366927069783,"Type":"GT"}],"output":null,"numNeurons":2}],"OLayer":{"neurons":[{"Weight":[0.1250085277133661,0.86238142608775825],"Bias":0.5383125550757687,"Output":0.0,"Threshold":-0.23110080474573225,"Type":"OT"},{"Weight":[0.69545508581002013,0.33668374472143303],"Bias":0.9364211237693304,"Output":0.0,"Threshold":0.42532534032376734,"Type":"OT"}],"output":null,"numNeurons":2},"NumLayers":5,"Breedibility":0.2420169432843183,"Mutibility":0.9086577691643769,"Repetition":0}
