{"Input":[0.0,0.0],"Output":[0.0,0.0],"DLayers":[{"neurons":[{"Weight":[0.31833000449385962,0.76287222456320758],"Bias":0.912101324606734,"Output":0.0,"Threshold":-0.33692649395061958,"Type":"GT"},{"Weight":[0.11341168410769277,-0.62657902605206661],"Bias":0.0052199638472962958,"Output":0.0,"Threshold":0.33728474720254764,"Type":"GT"},{"Weight":[-0.76169060438950109,0.7611053785128078],"Bias":0.33198105792141569,"Output":0.0,"Threshold":-0.75466279115279333,"Type":"GT"},{"Weight":[-0.22157259295767759,0.78512618215062013],"Bias":0.8275194535160062,"Output":0.0,"Threshold":0.48659265064010054,"Type":"A"},{"Weight":[-0.1626903801982712,0.57514390376170343],"Bias":0.24271994374819098,"Output":0.0,"Threshold":0.76751252113259982,"Type":"A"},{"Weight":[-0.096635069277433247,-0.86484528838882468],"Bias":0.60921067074370139,"Output":0.0,"Threshold":-0.45437882070167868,"Type":"GT"},{"Weight":[0.64468763938391938,-0.5653097590270032],"Bias":0.51504131663359765,"Output":0.0,"Threshold":-0.2993450524748047,"Type":"A"},{"Weight":[0.34029720413512421,-0.49740653321957518],"Bias":0.55180031179999944,"Output":0.0,"Threshold":-0.66732988770461166,"Type":"O"},{"Weight":[-0.998573348856798,0.2204838186597842],"Bias":0.7621408434408441,"Output":0.0,"Threshold":-0.92522724947204216,"Type":"O"},{"Weight":[-0.61025796533108589,-0.60122401667815817],"Bias":0.88981750276396865,"Output":0.0,"Threshold":-0.86297829815325244,"Type":"GT"},{"Weight":[0.44835289774851544,-0.058129852199056115],"Bias":0.9212828916130974,"Output":0.0,"Threshold":0.91952141091205242,"Type":"GT"},{"Weight":[-0.029997730175963477,-0.61372348135976285],"Bias":0.27010598791302459,"Output":0.0,"Threshold":-0.43267026377500512,"Type":"GT"},{"Weight":[-0.097444279630409678,-0.49502542312025344],"Bias":0.23389500204189448,"Output":0.0,"Threshold":-0.47796021284440543,"Type":"O"},{"Weight":[0.28359969858247774,-0.40912029492162183],"Bias":0.69812103579664653,"Output":0.0,"Threshold":0.21421554927444811,"Type":"GT"},{"Weight":[0.33535854114934732,-0.97036161225771611],"Bias":0.60920003550555557,"Output":0.0,"Threshold":0.96251563027618248,"Type":"O"},{"Weight":[-0.72413336752175039,0.5370759738316182],"Bias":0.31150376811227937,"Output":0.0,"Threshold":0.96762169104424389,"Type":"A"}],"output":null,"numNeurons":16},{"neurons":[{"Weight":[-0.17191883510533665,-0.65179124784273623,0.21777637406148778,-0.97039268490411,0.33866946228717892,0.35015121584299541,-0.2299214486172057,-0.81578218090151533,-0.13640457537789111,-0.5398932269494483,0.15636691411787965,0.13492864935422719,-0.41597348517550786,0.87675651110557673,-0.72219843218205426,0.31597800753823391],"Bias":0.231532593365541,"Output":0.0,"Threshold":0.57056460043907375,"Type":"GT"},{"Weight":[-0.022058462734361396,-0.11758216708785955,0.9999689273536061,-0.27053057321837665,0.35538492601149946,-0.49421191890454474,-0.72129379293010276,0.17509919273438826,0.18417886839442835,-0.73684920777420015,-0.96156005140466616,0.9519793898574912,-0.6565422591085277,0.35506173612319947,0.47851046150480886,0.27886852262488965],"Bias":0.63902209123551013,"Output":0.0,"Threshold":-0.69805533238596063,"Type":"A"},{"Weight":[-0.0452691880265573,-0.462339724163683,0.54957457284888933,0.17710518705523815,0.97302984584729646,-0.21959044608268441,0.23285742906520954,0.66288071203179688,-0.83371539266487371,0.15616679711088854,-0.15738664109138151,0.5403717316409441,-0.56935565386403153,0.689516699728331,0.28978229932942534,-0.55289210777398767],"Bias":0.097468656067489015,"Output":0.0,"Threshold":0.14806064830536983,"Type":"A"}],"output":null,"numNeurons":3}],"OLayer":{"neurons":[{"Weight":[0.85518704860247063,0.4418285938174597,0.9166759266130049],"Bias":0.71271452666852364,"Output":0.0,"Threshold":0.77750476346235009,"Type":"OT"},{"Weight":[0.63374989229894707,0.24283465428409848,0.341891120812805],"Bias":0.65533641895993444,"Output":0.0,"Threshold":0.464633579582271,"Type":"OT"}],"output":null,"numNeurons":2},"NumLayers":2,"Breedibility":0.41281118915081544,"Mutibility":8.6965190333763687,"Repetition":0}
