{"Input":[0.0,0.0],"Output":[0.0,0.0],"DLayers":[{"neurons":[{"Weight":[0.098624960565299249,0.60251275804010818],"Bias":0.57345444596067741,"Output":0.0,"Threshold":0.16952023616503936,"Type":"O"},{"Weight":[-0.63870724646314381,-0.83367551669183915],"Bias":0.4923902812844097,"Output":0.0,"Threshold":-0.644392695577998,"Type":"A"},{"Weight":[0.94799353319592472,0.59653167314665934],"Bias":0.050331146945399766,"Output":0.0,"Threshold":-0.70610226630517392,"Type":"GT"},{"Weight":[-0.16459104007323785,-0.38647268311421978],"Bias":0.39301510778861826,"Output":0.0,"Threshold":-0.45941435660208313,"Type":"A"},{"Weight":[-0.51567233517564481,0.24809412483502838],"Bias":0.047201703790203532,"Output":0.0,"Threshold":-0.74523424159047857,"Type":"GT"},{"Weight":[-0.57085977614431627,0.74506225238789914],"Bias":0.19012995678471864,"Output":0.0,"Threshold":-0.30346905174826694,"Type":"A"},{"Weight":[-0.85693869733109074,-0.42097140588842863],"Bias":0.18426739013952548,"Output":0.0,"Threshold":-0.0811462090728554,"Type":"A"},{"Weight":[-0.51137749874562843,-0.80798376761748636],"Bias":0.78304755305081952,"Output":0.0,"Threshold":0.30073100063052538,"Type":"O"},{"Weight":[-0.19598037712088803,-0.58963684299478158],"Bias":0.39629857074296965,"Output":0.0,"Threshold":0.78090586177115606,"Type":"A"},{"Weight":[-0.39041115920544189,0.037796287349330396],"Bias":0.96104001391727478,"Output":0.0,"Threshold":-0.26688178454846229,"Type":"A"},{"Weight":[-0.13392225519470977,-0.51862316975305933],"Bias":0.038442950713654493,"Output":0.0,"Threshold":0.15983731493346268,"Type":"GT"}],"output":null,"numNeurons":11},{"neurons":[{"Weight":[-0.855571430574903,0.72215820929136043,-0.98016897681177084,-0.27012877551379089,0.5657693625268384,0.095838125839754068,0.8861283356724905,-0.076032835559934772,0.21821211428298248,-0.80425582397927331,-0.48250792896491845],"Bias":0.24449571419716612,"Output":0.0,"Threshold":0.23770418774229668,"Type":"GT"},{"Weight":[0.59290765951988644,-0.40678695282283561,0.036143062187425357,-0.15511071689199224,0.54072714016806667,-0.96801503885910611,0.41024218239367111,0.7676675118355395,0.39527065139043643,-0.99150118091679229,-0.2477939195222193],"Bias":0.4425903341931246,"Output":0.0,"Threshold":0.85457612846725439,"Type":"A"},{"Weight":[-0.75086047162807568,-0.29021261925353325,-0.83939153693588053,0.99038869468047686,-0.84056489441570126,-0.976022931270312,0.501029127976405,-0.55872149186149311,-0.25930707867225028,0.45611782672634249,0.32709038738491497],"Bias":0.27568240988798554,"Output":0.0,"Threshold":-0.8832924970813526,"Type":"O"},{"Weight":[0.24620300682550436,-0.916551192252222,0.33951749668434145,0.32061910271673422,0.78831506370953985,-0.19220332065234116,-0.85762707370222879,0.275120122951977,-0.10597411780896322,0.62319250061325382,-0.22868046640822687],"Bias":0.58856828770999248,"Output":0.0,"Threshold":-0.8440815237556033,"Type":"O"},{"Weight":[0.3984583017409119,0.095414357769961641,-0.11549379449127885,-0.38787672127963824,-0.23825101472355939,0.89927267278510736,-0.14850344795198339,0.10430032066269793,0.76834752679259866,-0.21150907511427489,0.52138715121959667],"Bias":0.67758317369855159,"Output":0.0,"Threshold":0.73267207002857326,"Type":"A"},{"Weight":[-0.26009999646809884,0.28610565340430738,-0.21100371201103726,-0.072003388810904415,-0.15375252261466929,0.51822395926258713,0.648440718021449,0.728761668656376,-0.24531000258648303,-0.69514564457123429,-0.13114311924723121],"Bias":0.86605090734830636,"Output":0.0,"Threshold":0.34128965546437057,"Type":"GT"},{"Weight":[0.63257244864132833,-0.54218895805170242,-0.18994436608159188,-0.14140096592782112,-0.14682012570408179,-0.038499763719038925,0.97981298294840991,0.56575952077552649,0.27005958430006149,0.36916685168126917,-0.14634626132731618],"Bias":0.41390702007986,"Output":0.0,"Threshold":0.98836549464071422,"Type":"GT"}],"output":null,"numNeurons":7},{"neurons":[{"Weight":[0.28353148572311337,-0.060719602769575831,-0.94481599793993687,-0.41722240364980995,0.0838734815287746,-0.72785103029005738,0.15548167152119879],"Bias":0.52898276621894114,"Output":0.0,"Threshold":-0.63846307277607872,"Type":"A"},{"Weight":[-0.81842340427377425,0.86834264028274577,0.25858105870829012,0.21484214962219919,0.79331494066552954,0.20634657200721399,0.5538234634109882],"Bias":0.59666462037557022,"Output":0.0,"Threshold":0.32521586228404931,"Type":"O"},{"Weight":[-0.086100522934505958,-0.093683765779102118,-0.5625905792985999,-0.48188603924675194,-0.54220855401000412,-0.21368518016007038,0.61736349510837507],"Bias":0.0071612717617122786,"Output":0.0,"Threshold":0.49384360178087072,"Type":"A"},{"Weight":[-0.16918378517459323,-0.60631166473324949,0.98496774397090436,0.35155841212326588,0.2335506478480765,-0.17992896595035166,0.66648257647942877],"Bias":0.89590095770354428,"Output":0.0,"Threshold":0.27441753785797279,"Type":"O"},{"Weight":[0.4008381270807414,-0.54189986574552018,-0.42056564820025377,0.38711225538845745,0.758437623623031,-0.030071551925536035,-0.56706161544055755],"Bias":0.789831282938752,"Output":0.0,"Threshold":-0.10787531971366858,"Type":"A"},{"Weight":[0.6482535636277188,-0.13723828277422034,0.9304548334006475,0.15335513658512157,0.95888066522724957,-0.72157898439167956,-0.22350472734472934],"Bias":0.23540025401646283,"Output":0.0,"Threshold":-0.72262155018868923,"Type":"O"},{"Weight":[0.94688943491638144,-0.96051415007585383,-0.74428653798265687,0.2142555705338044,0.7397158046903628,-0.94258897888594728,0.2393650618565106],"Bias":0.67423373212769333,"Output":0.0,"Threshold":0.41911127577494423,"Type":"O"},{"Weight":[-0.14730143879880264,0.60595532534921326,-0.32808171926442614,0.16089076230343932,-0.10520160435941145,0.45040452827252658,0.18318351413271553],"Bias":0.96697438692998816,"Output":0.0,"Threshold":-0.41741803913256992,"Type":"O"},{"Weight":[-0.51627553185274622,0.21041519158073477,-0.90673500108846228,-0.053087417992338265,0.02964646603429991,-0.27364714735823087,0.70918563879522756],"Bias":0.71678198302014828,"Output":0.0,"Threshold":0.63773943373828168,"Type":"O"},{"Weight":[-0.76645791845696887,0.35966521006061936,0.32564947489912133,0.052985550860401964,-0.22724462823348335,-0.63178336556618253,0.1529747173902461],"Bias":0.397621371968473,"Output":0.0,"Threshold":0.20594858434328278,"Type":"GT"}],"output":null,"numNeurons":10},{"neurons":[{"Weight":[-0.16825031124439571,0.35314964845457564,-0.98969346237820266,0.321959201396424,0.94222987673349212,0.64601107670274149,-0.54544408039443382,0.15381646768833346,-0.96319309294372479,0.0040915850568989222],"Bias":0.34022869977179387,"Output":0.0,"Threshold":-0.926065576694005,"Type":"O"},{"Weight":[0.00049720797710921987,0.93149755240022092,0.45170012463429016,0.50323705445194478,-0.2523313352150523,-0.40706980014549093,0.41330827000239317,-0.3699717476824167,-0.0036902735026973642,-0.1107556741269099],"Bias":0.58123355153074185,"Output":0.0,"Threshold":-0.082246598360243534,"Type":"A"},{"Weight":[-0.99915824970191258,-0.43442827902474829,0.89874415886529913,-0.047016928925652492,-0.30561487111524438,-0.69551201709337163,0.48718618484548581,-0.14875277418119495,0.16259555945293772,-0.71801227643993326],"Bias":0.86205015371649063,"Output":0.0,"Threshold":-0.71377110281669121,"Type":"GT"},{"Weight":[0.7386481900413745,-0.83237357802333944,0.81530990256709512,0.44432749713041236,-0.62026560614829218,-0.68679859381485664,-0.33092207663269813,0.0028135487822878867,-0.20347687611518284,-0.13443049375639785],"Bias":0.80627154968970993,"Output":0.0,"Threshold":0.086883176624254876,"Type":"O"},{"Weight":[0.12098081881226079,0.010809144475874093,0.3642343219203103,-0.96697880605560671,0.93333505137513162,0.35868045657811709,0.79601321825571969,-0.42687483198329568,0.88326110266300906,-0.66282296490986969],"Bias":0.949203764064798,"Output":0.0,"Threshold":0.86803955159524437,"Type":"O"},{"Weight":[-0.74163982027286657,0.091473399238415715,-0.57934060906029339,0.6551379764709333,-0.30427735080210366,0.9495142879660774,0.88328383485008211,0.55401628769655542,-0.13548978657251679,-0.347378171210819],"Bias":0.04722795125433614,"Output":0.0,"Threshold":0.014660765423747136,"Type":"GT"},{"Weight":[0.73801023361180451,-0.20245856754596278,-0.42406021171438518,-0.4184841515582447,-0.087918708607516577,-0.095140362202720888,-0.6999156105797345,0.7060465378249281,0.31788077639317175,-0.683875432556437],"Bias":0.027007534181237004,"Output":0.0,"Threshold":0.5454410824670648,"Type":"A"}],"output":null,"numNeurons":7},{"neurons":[{"Weight":[-0.83394636857972781,0.54779231713516285,0.48805412067475457,-0.7269790548491194,0.86451834527054727,0.85643200709318368,-0.62612783425772922],"Bias":0.082680918314811266,"Output":0.0,"Threshold":0.046201510842052061,"Type":"A"},{"Weight":[0.62916184199469249,-0.28384970328018522,0.8656760686383006,-0.56597530029992349,-0.34031250809333868,-0.49660376482485036,-0.19256915114473977],"Bias":0.92674477953777867,"Output":0.0,"Threshold":0.80576502243325343,"Type":"GT"},{"Weight":[0.87069183442308185,0.599864587932762,-0.36816130735360147,-0.83539726530918723,0.84961453073174442,-0.69175294213544247,-0.60119451424162584],"Bias":0.33043451343217611,"Output":0.0,"Threshold":0.75192604155835041,"Type":"GT"},{"Weight":[0.93939541649976532,0.38355173700654493,-0.95468608008450184,-0.36914669227280966,0.76953265199881637,0.7665857033648461,0.022728833380494654],"Bias":0.637590958568077,"Output":0.0,"Threshold":-0.11031229147236435,"Type":"GT"}],"output":null,"numNeurons":4},{"neurons":[{"Weight":[-0.084499049505451257,-0.27981953568748175,0.55501720521367026,-0.73404604230730142],"Bias":0.86110186663507571,"Output":0.0,"Threshold":-0.72959081862568431,"Type":"A"},{"Weight":[-0.4406431095863893,0.1634379439816987,0.88512846030533709,0.018264426392626217],"Bias":0.15183301463342877,"Output":0.0,"Threshold":0.1755161002164316,"Type":"GT"},{"Weight":[0.17082643982527146,0.18785306866646423,0.87139013031096668,-0.49088222276926147],"Bias":0.3661413795157063,"Output":0.0,"Threshold":0.55827558858239823,"Type":"A"},{"Weight":[-0.65957588081228358,-0.82853453179287473,-0.22064003777720037,0.5080448256377339],"Bias":0.55805493218733693,"Output":0.0,"Threshold":-0.79505781912946039,"Type":"O"},{"Weight":[0.85929088939879594,0.75246249826273992,-0.15724525002634399,0.0418174383425235],"Bias":0.17227805972671045,"Output":0.0,"Threshold":-0.045322020093594685,"Type":"O"},{"Weight":[0.65789730970649851,-0.47687947492901211,-0.23870859585642285,0.50337162683874914],"Bias":0.48101716464432753,"Output":0.0,"Threshold":-0.54437675352412129,"Type":"A"},{"Weight":[-0.76028235804302724,-0.55695376897088888,-0.66747127457869759,-0.67644258340655017],"Bias":0.21813056628132732,"Output":0.0,"Threshold":0.821685936684574,"Type":"O"},{"Weight":[0.089157184627445971,-0.95237111856805678,0.51645815023987462,0.446783130730867],"Bias":0.28868438177215139,"Output":0.0,"Threshold":-0.81759048663898859,"Type":"GT"},{"Weight":[-0.62288249313034239,-0.42789430749970225,-0.2916861922907113,-0.88514996733756268],"Bias":0.747199480769783,"Output":0.0,"Threshold":0.278755700345503,"Type":"A"},{"Weight":[0.62974555819749156,0.24151167471032203,0.36887943668704454,0.79281347887255882],"Bias":0.97493608248184249,"Output":0.0,"Threshold":0.55948255050903306,"Type":"A"},{"Weight":[-0.14949023264902189,0.36590937076411645,0.097593622793254273,0.18502241614508555],"Bias":0.662807676784139,"Output":0.0,"Threshold":-0.26115934888886255,"Type":"A"},{"Weight":[-0.87747037451596488,0.084082428405099746,0.93653596934701133,0.17019744365019604],"Bias":0.20817377753936395,"Output":0.0,"Threshold":0.80671326527684617,"Type":"A"},{"Weight":[0.66408254143972067,0.24537442403164433,0.024777007766429805,-0.32085833760018384],"Bias":0.55823764277540033,"Output":0.0,"Threshold":-0.15857253277607847,"Type":"O"},{"Weight":[-0.077665702010349238,-0.21732051308142045,0.093733284200417474,-0.48285017650707168],"Bias":0.56055783832471717,"Output":0.0,"Threshold":0.062603042024468564,"Type":"GT"},{"Weight":[-0.66288623151503789,-0.89967540367491328,-0.389285106858837,-0.061147997184259818],"Bias":0.77423308034158922,"Output":0.0,"Threshold":0.839197612292691,"Type":"A"},{"Weight":[0.34716544037087144,-0.91791486363760888,-0.94030101128867871,0.62067098991045311],"Bias":0.91354565411505551,"Output":0.0,"Threshold":0.11632581060581179,"Type":"O"}],"output":null,"numNeurons":16},{"neurons":[{"Weight":[0.015537827282928782,-0.38965260534996754,0.18111028484120512,0.60147949941525214,0.096743989780891687,0.0065190224007326287,0.98091765445699808,-0.43831412793989949,-0.96392638094906058,-0.23846808971765829,0.69959664330798976,0.45042658990734563,-0.33261084665200247,-0.19476922750229445,-0.2705451614551922,-0.54656042090922619],"Bias":0.27286645317117986,"Output":0.0,"Threshold":-0.92226579688594945,"Type":"O"},{"Weight":[-0.6714953918342923,0.593122795500384,0.30986090763931207,0.25042145058997972,0.91139584123687623,0.95938335683168063,0.18235686197055356,0.94961927316599493,-0.45842170177885411,-0.71807824294924649,-0.2662416101741798,0.991252242117772,-0.77138469264441389,0.31988158836955277,0.33226906942774964,-0.34002649008297664],"Bias":0.30036755618656408,"Output":0.0,"Threshold":-0.035058813185924111,"Type":"O"},{"Weight":[-0.60040074195731463,0.088525704149401613,0.55707272540641606,0.98921046731491125,0.46890184118826961,0.25957519014346192,0.28546550696970219,-0.8629464920903307,-0.20418755393670293,-0.13701370457979559,0.027661636484629305,-0.10165899950156873,-0.60741553157913286,-0.43220813452834644,0.19731989651793611,-0.39130621887338635],"Bias":0.19554416239054137,"Output":0.0,"Threshold":-0.0046067708193356033,"Type":"GT"},{"Weight":[0.13989663456561818,0.65097092588011685,-0.49983582948326871,-0.28392324563298527,0.89997225715777474,0.57619370267549241,-0.82220433644121715,-0.85446430363434567,-0.89804510860612852,0.91735086586203,0.26376539807010696,-0.16488399178017116,0.25374125142290316,0.59794456353315362,-0.11178923356895765,-0.45352769291658312],"Bias":0.30135661657031471,"Output":0.0,"Threshold":0.76994918788315225,"Type":"A"},{"Weight":[0.51473270240925839,0.68261326555284363,0.556374463046144,0.25034120318030062,0.81256853826929276,0.40404067626411128,-0.046267195626286416,0.24925294017850092,0.087255904957305591,-0.82923190613707154,-0.78089472780977132,0.3265509728000271,0.5980432185335286,0.1565000066331122,-0.21728204014584518,-0.40715430509632189],"Bias":0.3910348957362747,"Output":0.0,"Threshold":0.59605546928758524,"Type":"A"},{"Weight":[-0.56086678316857053,-0.20372857023204144,-0.68787104063102555,0.35574194619233812,0.3589247783454716,0.521903146301351,0.86302420118033152,0.19360283119306102,0.94071728174608071,-0.47751410653698917,0.23017050755683821,0.23363063588441846,-0.67686975266638671,0.71932375837085949,-0.31654290776538796,-0.51070262515484477],"Bias":0.63671106548826728,"Output":0.0,"Threshold":-0.90792931192923776,"Type":"O"},{"Weight":[-0.35856992768057155,0.51381335012326634,0.12691849522614782,0.37794559652821419,-0.19384975740399665,0.92467091461861084,0.10173213533206477,0.11153786681198416,0.11854136275059607,0.111153120692425,-0.85204637555966456,-0.75352588610422144,0.50895443489260717,-0.21350113079580532,-0.18550441748718938,0.2184358771044928],"Bias":0.11026624874689907,"Output":0.0,"Threshold":-0.19202393767983836,"Type":"A"},{"Weight":[0.1890497390129835,-0.9051537657646247,-0.56779729415094349,-0.64677180193679962,-0.53797517276274742,0.4155014364121023,0.24024766089406222,-0.33167036358810514,0.79677619123681276,0.14953251795355813,-0.645310381262242,-0.04366209965369762,-0.58300580344302855,-0.71633175840430507,0.082917186935859352,0.60555221215149024],"Bias":0.28760799546149,"Output":0.0,"Threshold":-0.56965685243236686,"Type":"O"},{"Weight":[0.6827051987325331,0.047326598338469208,-0.71633520895444569,0.68724978048691987,0.42300693803606876,-0.766891589745363,-0.74002105637454474,-0.15831869801428108,-0.042491419726280226,0.89657063311737528,0.88123547233698674,-0.85065776987497588,0.61546270158861893,0.29259950169017518,0.39795308532097984,0.36083872586527782],"Bias":0.3234087509677786,"Output":0.0,"Threshold":-0.13802657282819347,"Type":"A"},{"Weight":[0.72874683967267484,-0.27912770783488067,0.60133861638667929,-0.865403182741908,-0.60391475614342593,0.382137281066802,-0.811257327353236,0.8672167779259462,0.67308621931499157,-0.31240831842292488,0.8268317774994447,-0.90478921397812162,-0.085409695788011747,0.10749605209915715,-0.20421568360375972,0.03956484796459081],"Bias":0.803436873854807,"Output":0.0,"Threshold":0.039032054151888963,"Type":"A"}],"output":null,"numNeurons":10},{"neurons":[{"Weight":[-0.62926944933332007,0.34302251010342616,0.832706375900985,-0.26210454211668321,0.37926609086769919,0.12659368390524467,0.45825600459159166,0.72474802552012174,-0.30018534851269113,0.87841118959636022],"Bias":0.08740596337588781,"Output":0.0,"Threshold":-0.18189148799604341,"Type":"A"},{"Weight":[0.94818948346571508,-0.50761397485975823,-0.78014279752045068,0.772225273201347,0.45400596058648357,-0.043816769981671486,-0.96938580831949872,-0.99412540159845975,-0.64268467186143841,-0.70614360492031258],"Bias":0.98090236819391252,"Output":0.0,"Threshold":0.27863723844226324,"Type":"O"},{"Weight":[0.31481682244446912,0.50325152534211592,0.72703478146672007,-0.018491602977035382,0.81663474245771517,-0.80315097877902486,0.085462217258970352,-0.36233338590820013,-0.98491654684064744,0.18457050024744612],"Bias":0.95368781916503231,"Output":0.0,"Threshold":0.42521002582516987,"Type":"A"},{"Weight":[0.29832946476448768,-0.0818067165472576,-0.47574788307573079,0.449814541940491,-0.067776031358063232,-0.99897648906287573,-0.60664501162555307,0.93887864888593486,0.77819355194372752,-0.48290325723723659],"Bias":0.51147011272212028,"Output":0.0,"Threshold":-0.97515473606770608,"Type":"GT"},{"Weight":[-0.68691217512214187,0.37679226620904743,-0.09406673819481709,0.14510837297193166,0.92014378305531286,-0.44824772302445381,0.606912712383509,0.9716300782615459,-0.46249105802853174,0.95119463417269035],"Bias":0.94933474154646269,"Output":0.0,"Threshold":0.35856681752883213,"Type":"GT"},{"Weight":[-0.52180160466665482,-0.88337729772710116,0.94230676858793327,-0.47409414428942565,-0.4493544909401585,-0.35124822722340387,0.74398690403624756,0.57548550682863475,-0.26370940975086271,-0.083622785324055135],"Bias":0.57740036238795167,"Output":0.0,"Threshold":-0.832995599057989,"Type":"GT"},{"Weight":[0.6248087303828489,-0.59458915032194426,-0.023960101895015733,-0.74503869970563741,-0.77404950874580514,0.998420509974668,0.20101153161423818,-0.94730002803136593,-0.043593124041144328,-0.65652855888778738],"Bias":0.62908297340808572,"Output":0.0,"Threshold":0.93265624620609744,"Type":"GT"}],"output":null,"numNeurons":7},{"neurons":[{"Weight":[-0.96780743215596654,-0.83996504910288616,-0.57376679897949412,-0.68880600560866578,0.0855149464148632,-0.15525908356311688,-0.096222765322878379],"Bias":0.95420168477771883,"Output":0.0,"Threshold":-0.64239457558952018,"Type":"O"},{"Weight":[0.3264630992554422,0.90070273722554683,-0.47585004729956859,-0.96263124000403621,-0.45232736806027934,-0.93889438218385646,0.69215248417675146],"Bias":0.06169051959258063,"Output":0.0,"Threshold":-0.819758152039609,"Type":"A"},{"Weight":[-0.90507365060275125,-0.20028270976631096,-0.3096145043660023,-0.11549658519937497,0.792040944468249,0.94737035871826591,0.70232687411006856],"Bias":0.6061801037779917,"Output":0.0,"Threshold":0.66773192289645411,"Type":"A"},{"Weight":[-0.65741048970139138,0.93708497748574471,0.31231279220074082,0.929540730980011,0.32201576713566471,-0.040287795961037182,-0.14287256782076907],"Bias":0.24306195706271658,"Output":0.0,"Threshold":0.87198390340059251,"Type":"O"},{"Weight":[-0.06464161354333238,-0.62155741295849787,-0.66687908520311079,-0.37002871994396147,0.09799426053557278,-0.474140166060133,-0.56259927412616051],"Bias":0.20977344792791336,"Output":0.0,"Threshold":-0.45996380618771715,"Type":"GT"},{"Weight":[-0.14513280389138161,0.741088533187792,0.10611497476050397,-0.091856853147902,-0.015131286352468323,0.7735558900859002,0.58279641046318986],"Bias":0.83976393651206227,"Output":0.0,"Threshold":0.63667855953643027,"Type":"GT"},{"Weight":[-0.98016930044636563,0.51855267655037007,-0.30786666474671415,-0.43040791919008264,0.038198799378331191,-0.35413629438455047,0.11030661878655973],"Bias":0.11411695094505182,"Output":0.0,"Threshold":0.3723410490771481,"Type":"O"},{"Weight":[-0.22841301105376938,0.18469241875442324,-0.39497326379407816,0.40529967863359473,-0.27264689201146686,0.043672590071182973,0.522045584172963],"Bias":0.42133025192717566,"Output":0.0,"Threshold":-0.87517527252211014,"Type":"O"},{"Weight":[0.35216823143519843,-0.91931160116536148,0.24147261085057287,-0.759076739549207,0.84462472230411356,-0.36165425896721626,-0.55678879448994467],"Bias":0.1034918712002653,"Output":0.0,"Threshold":-0.329621277437369,"Type":"GT"}],"output":null,"numNeurons":9}],"OLayer":{"neurons":[{"Weight":[0.73109734977180951,0.56273455804341221,0.96472492207061733,0.8025903603074096,0.84005440857263958,0.47591956075090897,0.67355156488416323,0.9639046420175138,0.2593867817238843],"Bias":0.23226181149122391,"Output":0.0,"Threshold":0.59083105790933177,"Type":"OT"},{"Weight":[0.81359861596189376,0.18284255274703845,0.39162173559499053,0.16428407941213066,0.58318186345658352,0.9886389956756676,0.76216940105062414,0.068474348666367285,0.26215224725294495],"Bias":0.070042156646979117,"Output":0.0,"Threshold":-0.50951277860883282,"Type":"OT"}],"output":null,"numNeurons":2},"NumLayers":9,"Breedibility":0.23815320676106644,"Mutibility":5.4364410394041061,"Repetition":0}
