{"Input":[0.0,0.0],"Output":[0.0,0.0],"DLayers":[{"neurons":[{"Weight":[0.91686026887821981,0.9277695417067825],"Bias":0.29871358736358283,"Output":0.0,"Threshold":0.45248702375799743,"Type":"GT"},{"Weight":[0.76412869839189979,-0.830809916756493],"Bias":0.583037291459291,"Output":0.0,"Threshold":-0.60878280718288513,"Type":"GT"},{"Weight":[-0.28753116460867745,0.90006571165289062],"Bias":0.41804513168430196,"Output":0.0,"Threshold":-0.62624187517270535,"Type":"O"},{"Weight":[0.63886567560903063,0.23119790024645529],"Bias":0.83730500463270818,"Output":0.0,"Threshold":-0.55600935665704743,"Type":"O"},{"Weight":[-0.94368116182446538,0.75298593135224],"Bias":0.043998965082689641,"Output":0.0,"Threshold":-0.18834797813945822,"Type":"GT"},{"Weight":[0.46934886624540617,-0.38738656108611569],"Bias":0.028306004138805907,"Output":0.0,"Threshold":-0.9707853691516376,"Type":"A"},{"Weight":[-0.552610703070001,-0.70661112140240667],"Bias":0.81463815309788945,"Output":0.0,"Threshold":-0.82351187561802186,"Type":"O"},{"Weight":[-0.382324217996711,0.13667911344053182],"Bias":0.22128912351154215,"Output":0.0,"Threshold":0.18584478142943456,"Type":"A"},{"Weight":[0.74656471365437127,-0.5120642718449534],"Bias":0.85579687583064512,"Output":0.0,"Threshold":-0.77355661325787972,"Type":"A"},{"Weight":[0.12995342590378292,-0.34086411601904038],"Bias":0.23885531408658964,"Output":0.0,"Threshold":-0.23664084413863759,"Type":"A"}],"output":null,"numNeurons":10},{"neurons":[{"Weight":[-0.60376359457325357,0.46065296254151172,-0.57298949853190662,0.12016928620644346,-0.46236753764672556,-0.62254511733657913,-0.67665265112959438,0.28350408481597161,-0.17926721935126336,-0.1256698193613765],"Bias":0.070628644931422846,"Output":0.0,"Threshold":0.77163742984255657,"Type":"A"},{"Weight":[-0.60742793493318736,-0.19232842102289591,-0.87089613167145108,0.14568337385807342,-0.46859880698313883,-0.6175255289382886,-0.50715452642513181,0.17357521512246468,-0.39189498563850994,0.39342933818391956],"Bias":0.76292281959341968,"Output":0.0,"Threshold":-0.047514321770292856,"Type":"GT"},{"Weight":[-0.057360031203068811,0.059588094735326287,-0.3523398704604897,0.1562380432878798,-0.27460623312490351,-0.24197030032145339,0.92120715785827822,-0.033610363506530579,0.12413123861147614,-0.58307005771578757],"Bias":0.43894132712806638,"Output":0.0,"Threshold":-0.15131962632356194,"Type":"O"},{"Weight":[-0.24441011401098692,0.0668261116681742,-0.37820809165863695,0.22826128556777783,0.865465791367677,-0.42528772839591267,-0.99217498488359857,-0.59110428746375454,0.27002454421949784,-0.85757822536750616],"Bias":0.11675080615875814,"Output":0.0,"Threshold":0.91935228273242353,"Type":"GT"},{"Weight":[0.40997211980166476,-0.37961076217685397,-0.46444426405450528,0.12690154888057223,-0.98531629936085841,-0.57424540099419907,0.14253309748253465,0.45391807307206006,0.24120757181253638,-0.38875714102236419],"Bias":0.21223379821154931,"Output":0.0,"Threshold":-0.63156796136478333,"Type":"GT"},{"Weight":[-0.087996671948580379,0.98036551940271888,-0.29374140095605578,-0.70379530671229362,-0.46867576542714412,-0.2170740418215627,-0.89570132684693737,0.095469349108389279,0.49958399613368509,0.41672610278088884],"Bias":0.75278245785868836,"Output":0.0,"Threshold":-0.575333630468386,"Type":"GT"},{"Weight":[0.33148129113553154,-0.79647809723228125,0.53059514171005928,0.54213966081949871,0.56439540701191659,-0.99582518823250443,-0.22254519174925294,0.612299003923451,-0.53524667515198077,0.54709489156822433],"Bias":0.31211783984308961,"Output":0.0,"Threshold":-0.058534861569541907,"Type":"GT"},{"Weight":[0.5865873380501696,0.79513761671033578,0.21484185858389449,0.044320921899900272,-0.20712395953346227,-0.3220606717849433,-0.64937366389174656,0.79446268956850408,-0.77031299181762758,-0.8309878044906015],"Bias":0.14861423715418867,"Output":0.0,"Threshold":-0.95485554493724156,"Type":"A"},{"Weight":[0.90694831959295474,0.21788632786734324,-0.028238738900161691,-0.42871482271175593,0.75469126401221909,0.84810678095002978,0.77803421848362042,0.563562299852987,-0.538186460518365,0.93348984463768536],"Bias":0.15129891417515415,"Output":0.0,"Threshold":0.17684168423378918,"Type":"A"},{"Weight":[0.45472488014713158,0.059767453027780845,0.22754705707894035,0.94815390927165466,0.28619217234020689,-0.78603815510218877,0.44741014225753495,0.48442430258003266,-0.81081803413611742,0.68076605567744286],"Bias":0.42099440676206462,"Output":0.0,"Threshold":-0.99006960866510385,"Type":"A"},{"Weight":[0.87510758353169427,0.775007483910307,-0.021365700299556228,0.87492549599843361,0.98717069019897408,-0.048870007995921193,0.22685860247670608,0.045399372487049255,-0.75155604153478339,-0.51820090856319334],"Bias":0.063115031022166382,"Output":0.0,"Threshold":-0.22598200581315067,"Type":"GT"}],"output":null,"numNeurons":11},{"neurons":[{"Weight":[-0.012991940608710024,-0.10218467195620047,0.94042716125977555,0.46465527148202773,0.13860764733450842,-0.2956581894753772,0.282701818869776,0.82919461877513423,-0.055931519743023218,-0.49566930183007812,0.10777652501490737],"Bias":0.25555116788276994,"Output":0.0,"Threshold":0.0037148697319044125,"Type":"GT"},{"Weight":[-0.20461941892496283,0.10834869980269517,-0.64912557771854362,0.77754705714878958,-0.0083737596908462046,-0.7727408240422331,-0.046743528939198482,0.58421473651389344,0.088250955142197648,0.749741183011672,0.46885422266500731],"Bias":0.68900628978805911,"Output":0.0,"Threshold":-0.11513330140855783,"Type":"A"},{"Weight":[0.95601949279942522,-0.89096131915737009,-0.91664313288249222,0.77960196406561977,0.640531661752859,-0.42577254978277373,0.34921479520817045,0.23784433176640624,0.60199233312252554,0.12124688649608142,-0.30366607490166375],"Bias":0.9076412892470328,"Output":0.0,"Threshold":0.265249997035251,"Type":"GT"},{"Weight":[0.25397368672023235,0.72925344888551791,0.7828624103138514,0.85086126339196289,-0.52418058017463454,0.7757529270722312,0.36816011991731828,-0.45442904273719947,0.46605809799677606,0.41675397819688265,0.20771169811846302],"Bias":0.71105667050511423,"Output":0.0,"Threshold":-0.85286665002483253,"Type":"GT"},{"Weight":[-0.99388641491247642,0.57190632707062472,0.59796311175355832,-0.71396429264636907,-0.84449611550406367,-0.013066040823732522,-0.20992416106626585,0.42970160927143952,0.29127753632668291,0.84023464556794369,-0.1762312460580055],"Bias":0.36747147020300452,"Output":0.0,"Threshold":0.99924203567171566,"Type":"A"},{"Weight":[0.84849601883836834,-0.49091297643767345,0.056515991714091968,0.59459396200002823,0.999328983481661,0.20164684867563046,-0.67397954439464,-0.97505682798803639,-0.8297749063138733,-0.29135799840621557,0.38150400406751039],"Bias":0.37798647320735568,"Output":0.0,"Threshold":0.63205007865654772,"Type":"A"},{"Weight":[-0.012632004456888887,0.96838367775472989,0.81781152813593461,-0.643918506635315,0.77721530328375066,0.72710548188868229,-0.95551331013232155,0.447327175851598,0.43322816790697544,-0.37401477078628481,0.2919221312235678],"Bias":0.93791438450008369,"Output":0.0,"Threshold":0.026089584467042976,"Type":"GT"},{"Weight":[-0.70788403726550009,0.93470912004574624,0.41971379072392068,-0.67668509002620592,0.86375479440379643,-0.66986380874638618,0.847766736917089,-0.31332212282033733,-0.37282630166636144,-0.42303617970228019,-0.48688643075846433],"Bias":0.97680978429355181,"Output":0.0,"Threshold":0.80982732950236058,"Type":"GT"},{"Weight":[-0.25803530787026291,-0.45323286366333854,0.15313096491300079,0.929709591870061,-0.864780254133409,0.34704086759455544,0.496550237991172,0.84812040526798016,0.27292444755925072,0.90181286581876352,0.91635660730132673],"Bias":0.020714784050693168,"Output":0.0,"Threshold":-0.89969257446922946,"Type":"O"},{"Weight":[-0.60305340476476277,0.43818529855375427,-0.52207469964496545,0.31333053312885134,-0.60082758991086282,0.85812813316384706,0.3504176476739429,0.522708841377268,-0.76420230314331239,-0.045188689159782927,0.56224256128177164],"Bias":0.45684900575170712,"Output":0.0,"Threshold":0.84273411745332838,"Type":"GT"},{"Weight":[0.90801446368359706,0.69750652168761307,0.28825383926194803,-0.0050722248875872348,0.33924068852292405,-0.4545545002699618,-0.62295932305183233,0.5995855781247772,-0.2674149941966939,0.78602418014128883,-0.59336091559071136],"Bias":0.45810089328237852,"Output":0.0,"Threshold":0.96132966920795371,"Type":"A"},{"Weight":[0.85450388530944654,-0.31687902394536838,0.85538254159287663,-0.671450971938414,0.21686732685978866,-0.10834414004736773,-0.079462627451616627,-0.5362436056771519,0.38832902693577531,-0.50047243782341133,0.54532877707170735],"Bias":0.86032461228795565,"Output":0.0,"Threshold":-0.87154298502558047,"Type":"GT"},{"Weight":[-0.056709937312039514,0.43967030543818619,0.11205803095924577,-0.53217318399444835,-0.69903640388466248,-0.95713035574049243,0.76209550293260042,-0.64012400137266334,0.005291750191381085,-0.58235543620882346,-0.40094131110279879],"Bias":0.19536501131735976,"Output":0.0,"Threshold":0.51695264760262927,"Type":"GT"},{"Weight":[0.46085723138454243,-0.30709790685544625,-0.99713193625078156,0.76088120777200963,0.53874124378838639,-0.049373173177881716,-0.63111357792798128,0.555651311555715,-0.60555144008507555,-0.11927791224758975,0.14313529391919044],"Bias":0.81250332845957174,"Output":0.0,"Threshold":0.41141293263594292,"Type":"O"},{"Weight":[-0.28918754881675707,0.57550375609449289,0.95478068057204624,0.947857189899244,-0.275319621095117,0.12872924847934825,0.15048374009806836,0.53009967158087512,-0.32036207538114958,0.084542671257882687,-0.22530039130956883],"Bias":0.62393918709081564,"Output":0.0,"Threshold":0.7573058389859767,"Type":"A"},{"Weight":[0.39767473535503944,0.40973480251139721,0.71569925207444429,0.21373641128360127,0.15614849010303081,0.30343371830109217,-0.56652459947696165,-0.53523882363701181,0.0968476664725913,0.51490622363747385,0.23814418923023351],"Bias":0.56724847600201544,"Output":0.0,"Threshold":-0.25997726538217497,"Type":"GT"}],"output":null,"numNeurons":16},{"neurons":[{"Weight":[0.29554212526210683,-0.078999400175641943,0.81819791710851619,0.14804359858298841,-0.25929121405784561,-0.45583150836444997,-0.23304427425984492,-0.15726244689769225,0.87700656656036458,0.35689443273325189,0.957887155915558,-0.15337474791024566,-0.072258478995532949,0.93789558668522888,-0.79019113992815426,-0.14975753712922221],"Bias":0.022014644938527908,"Output":0.0,"Threshold":0.56881471284144314,"Type":"A"},{"Weight":[-0.077149089927388864,-0.485235801192576,0.41848100089397328,0.2759476095791662,-0.64101615810814139,-0.28186194937762893,-0.080881742332541265,0.69024190944165076,-0.96411261053947384,-0.36898310546250229,0.625235503830591,0.41159043666515055,0.76149311836878453,-0.73485178255236328,0.99969559488803872,0.26625670644746008],"Bias":0.53563143337873342,"Output":0.0,"Threshold":-0.94265140543815285,"Type":"A"},{"Weight":[-0.094488509043347324,-0.13381312095272036,-0.71100930343894719,0.47232432406038249,-0.96053766597087387,0.4877111504262831,-0.43107559039773213,0.5343684589184674,0.19983160737894085,-0.58937553762894845,0.7576537526946765,0.50258581922509982,-0.866760810309444,0.92277691649402349,0.99715265026183453,-0.94853215662228507],"Bias":0.97334103191892662,"Output":0.0,"Threshold":0.98247953224111328,"Type":"GT"},{"Weight":[-0.0075773643365024419,-0.59757590880504619,0.49333459394673568,-0.61526063578913948,-0.091739555397880992,0.70689812382073058,-0.42298197998804132,0.46439795403946094,-0.35327586780920434,-0.950108624505861,-0.59022967591426789,0.4895137527443067,0.30812532003416,-0.81169647202440376,-0.50519984006192531,-0.56501233930001615],"Bias":0.88374013588006617,"Output":0.0,"Threshold":0.66307134351836117,"Type":"GT"},{"Weight":[-0.012033164972454852,-0.618155577973535,-0.2941768636434231,0.74729073967192827,-0.431075771539973,0.26068373921359134,-0.15323443391976618,0.78495446908518418,-0.032370907735252245,0.2810674394858384,-0.52319478966444488,0.086207947268247584,-0.79104484235450856,0.80256128162264884,-0.63148607203340446,0.646450877025002],"Bias":0.51258575148535224,"Output":0.0,"Threshold":0.27727488906927167,"Type":"A"},{"Weight":[0.548850986896479,-0.89087414596736159,0.54749208621098289,0.14195963653827068,-0.5279748656451585,-0.18967084409188054,0.56452634444671046,-0.41622515042136665,-0.38200390403252277,0.66392827530574439,0.10883432305829335,-0.36386759596125579,-0.39226341591787683,-0.038776326942619087,0.74613502656395314,0.098934351978327312],"Bias":0.10852060239227516,"Output":0.0,"Threshold":-0.62672087160252077,"Type":"A"},{"Weight":[0.50983929052475807,0.16530245224260839,-0.88258086418853177,0.17670112344282732,-0.082684513685612249,0.17773239741927591,-0.84207691524274508,-0.37790673243715739,0.61334661376352728,0.049399274424370039,0.43132859022884096,0.0031415624558653508,0.78047502682566416,-0.16940438988125156,-0.10124201658239682,0.37416944064859742],"Bias":0.50119439209867012,"Output":0.0,"Threshold":0.17905042887621114,"Type":"A"},{"Weight":[0.994949804616603,0.10491180005712053,0.736778465442722,-0.9391369921803181,-0.827299600386666,0.3306967906331163,0.12286637030675372,-0.26261293108696721,0.57732159717815068,0.80584613131631455,0.88252089865623085,0.92346840907049754,-0.001264140941791302,0.48962645721138753,-0.94570179793317888,0.37161380768363078],"Bias":0.19023676877386717,"Output":0.0,"Threshold":-0.88156528951673085,"Type":"O"},{"Weight":[-0.82158473032600465,0.89859293256820782,0.92991564792111314,0.71516048801837506,0.63848914002929313,-0.90433539259449369,-0.051098368154418823,0.360483875666039,-0.37320429755989665,-0.61382054426419574,-0.036516430339085137,0.93690165129345915,-0.28337266495608382,0.12669037940292172,0.79435431947668744,-0.39247408015303037],"Bias":0.38921716734264844,"Output":0.0,"Threshold":-0.60925115673302266,"Type":"O"},{"Weight":[-0.72351914957329588,0.71087100250221369,-0.90768187581919224,-0.27490579349682936,-0.24516396794708631,0.71787484628980736,-0.87944304890904712,0.28982218880663729,0.26774474525253511,0.61684534401485946,-0.17433183089566037,0.37495680310528579,-0.80405900571684308,0.82015258018865833,0.19421946080132363,-0.965423991887562],"Bias":0.83170602695630214,"Output":0.0,"Threshold":-0.89439576067700788,"Type":"O"},{"Weight":[0.62152975593764792,0.46442556495984344,0.91661107303416867,-0.34211513695405571,-0.45228893144628451,-0.70792962690253258,0.37784811545994512,-0.97355633553748777,0.99240581271816319,-0.29175628409337079,0.77255986014965916,0.147712507819623,-0.48880892921649333,0.22035113918611368,-0.16956130609361517,0.92185040233742932],"Bias":0.33696833734259396,"Output":0.0,"Threshold":-0.064134554501685578,"Type":"A"}],"output":null,"numNeurons":11},{"neurons":[{"Weight":[0.889290423080926,0.65200077958963842,-0.22656943613037905,-0.43092505560765276,0.51832975843843532,0.65958139098229884,-0.56148307377541584,0.1013345490681634,-0.74335783847764036,0.67041062362045545,-0.68453150134744656],"Bias":0.61252411530005,"Output":0.0,"Threshold":0.30197991211990821,"Type":"O"},{"Weight":[-0.17626129657787332,0.72288233867049323,-0.31371356095825953,0.36786062101268241,-0.10311538963723713,-0.63975550450373231,0.54599042401928011,-0.71678745221197016,0.97047917077805812,0.56076974820381487,0.60807823231819935],"Bias":0.8205158532692659,"Output":0.0,"Threshold":0.38240781164840226,"Type":"GT"},{"Weight":[-0.56589563077590221,0.83631918292321228,-0.10093267546078781,-0.20921320990156997,0.13120164216086344,0.69697584663376955,-0.27925715934450607,0.32161735525430057,-0.34632600906599592,-0.96288397207990473,-0.90713735013601249],"Bias":0.79754907069613645,"Output":0.0,"Threshold":-0.32449562303931251,"Type":"O"},{"Weight":[0.7412101639160934,-0.37074782856309219,-0.630767694502495,0.37124398554267546,-0.73243618464676485,-0.046771050918275048,-0.915982011666513,-0.23379342129165,0.51245455141759222,-0.66306003167436456,-0.43185907808684704],"Bias":0.57103432462133208,"Output":0.0,"Threshold":-0.92968539238427084,"Type":"GT"},{"Weight":[-0.41952383956849754,0.70386943021038051,0.29381012092056225,-0.38227761042410396,-0.60881070355363687,0.87699554668599533,-0.34887381333339673,0.18223128848813069,-0.62881339091286692,0.63162178901565347,0.16843785027434949],"Bias":0.06655778599277036,"Output":0.0,"Threshold":0.6088903013658199,"Type":"GT"},{"Weight":[0.66143559136494789,0.46954879978185,-0.29629947631447551,0.869414833313513,-0.92095068745359343,-0.99883735040148591,0.98269130847542141,0.0702933478496472,0.68092393348036517,0.42125150208419726,-0.38827213104268171],"Bias":0.23477260825912125,"Output":0.0,"Threshold":0.8553086993542075,"Type":"A"},{"Weight":[0.29806360336861742,0.56765814105405388,-0.22670150558776292,-0.024841322109494975,0.85038796851895193,-0.72997599781024081,-0.045579932651286917,-0.91211174843465526,-0.43555063215808509,-0.57771302833115357,-0.062424617382895488],"Bias":0.82346170294259757,"Output":0.0,"Threshold":0.45198063619992723,"Type":"O"},{"Weight":[0.18763879928162267,-0.67213099527737641,0.61649031593300885,0.970983209540594,-0.14299883281020392,-0.3270135621200379,0.85128318837437922,0.16845366180336738,0.6845595225154234,0.98648121626418139,0.84633407967460061],"Bias":0.81881622123476872,"Output":0.0,"Threshold":0.93407002088337676,"Type":"A"},{"Weight":[-0.27759567102305388,-0.46349378138011965,-0.76304347336433986,-0.75414910295705739,-0.907340329562938,-0.56127599932312777,-0.914524370298965,-0.096137502741132627,0.29293427769697006,-0.1271885480392671,0.25296340615160923],"Bias":0.26706474519663709,"Output":0.0,"Threshold":-0.31314030350797822,"Type":"A"},{"Weight":[-0.46549941993574584,-0.3283096939922821,0.96455568772021483,-0.48386879939766081,0.33664442940458861,0.30688729617134075,-0.51986618364223569,0.42042707997394124,0.99651789199398733,-0.18800831455178946,0.62475429131870819],"Bias":0.51766571845750586,"Output":0.0,"Threshold":0.57113522457477417,"Type":"A"}],"output":null,"numNeurons":10},{"neurons":[{"Weight":[0.61003363067751448,0.60374086424882567,0.1503534778721414,0.47886043203941564,0.37572692259015839,-0.70501992185833862,-0.82321502492912813,0.428560068099089,0.2603426679318504,-0.35132475027410537],"Bias":0.91585249077335584,"Output":0.0,"Threshold":-0.84054736925314522,"Type":"GT"},{"Weight":[-0.34008049654778116,0.22306634216712151,0.59475410105416282,0.757174469417508,0.7749415579135257,0.87383516872014622,0.73290356515576294,-0.15653381829919938,0.04100575160282,-0.044700157383782864],"Bias":0.29149797013564871,"Output":0.0,"Threshold":-0.65007052321455927,"Type":"GT"},{"Weight":[-0.19619422321961924,0.25732305052565552,-0.34105936360594785,0.89102898207075376,0.42382465788341345,-0.52804313298689343,0.56620818775436288,0.055423983864217992,-0.96657356851109,0.5019721675207709],"Bias":0.13780712109888305,"Output":0.0,"Threshold":-0.8201583734807365,"Type":"A"}],"output":null,"numNeurons":3},{"neurons":[{"Weight":[-0.19898975277272507,0.35469451842582528,-0.37826053117320896],"Bias":0.69000997333322189,"Output":0.0,"Threshold":-0.76033869933352749,"Type":"GT"},{"Weight":[0.50310025015058935,-0.1543508037712196,-0.6946633358926807],"Bias":0.10434890729577695,"Output":0.0,"Threshold":0.18457703673493911,"Type":"O"},{"Weight":[0.13131232938324675,0.22157406956962034,-0.52972969670301751],"Bias":0.096414342101856287,"Output":0.0,"Threshold":-0.14809835569378843,"Type":"O"},{"Weight":[-0.37603584973888277,0.96465158786841276,-0.14206961083322281],"Bias":0.53633446364492854,"Output":0.0,"Threshold":-0.97363904955500691,"Type":"A"}],"output":null,"numNeurons":4},{"neurons":[{"Weight":[0.26488278958242517,0.35619715524660289,0.91153704929702772,0.026206697815194118],"Bias":0.85188500390010191,"Output":0.0,"Threshold":0.033458213803106089,"Type":"GT"},{"Weight":[0.85304339036952859,0.61286294302570765,-0.84896052994251281,-0.26935668115939793],"Bias":0.54191161763943341,"Output":0.0,"Threshold":-0.28758093309010424,"Type":"A"},{"Weight":[0.45763430206926276,-0.36330487875421758,0.68271527005485966,-0.13070985774077004],"Bias":0.26593461086318576,"Output":0.0,"Threshold":0.60159491263404252,"Type":"A"},{"Weight":[0.86537691432301744,-0.61819264740598978,-0.07020764428666218,-0.62087276234332134],"Bias":0.7404545129930854,"Output":0.0,"Threshold":-0.80577766094625813,"Type":"A"},{"Weight":[-0.52920666780751513,0.68737393370241573,-0.77620744555080656,0.29612154201423824],"Bias":0.5144868127603488,"Output":0.0,"Threshold":-0.26899847819888895,"Type":"A"},{"Weight":[0.44891788598565285,-0.12459356157323046,-0.902748356062336,-0.9737536762718827],"Bias":0.814035871445218,"Output":0.0,"Threshold":0.54728412234563573,"Type":"A"},{"Weight":[0.64792486776035507,-0.21921695825607374,0.6667081707467829,0.34674416405462855],"Bias":0.52717362601644058,"Output":0.0,"Threshold":-0.25272436498325523,"Type":"GT"},{"Weight":[-0.8164421221317919,-0.36280546447392809,0.30547337061980429,0.55109200791972313],"Bias":0.85872082312531806,"Output":0.0,"Threshold":0.34543742162428676,"Type":"O"},{"Weight":[-0.21619596249246781,-0.10339245251537881,0.83202398467437555,0.29654464232574435],"Bias":0.1838128069340311,"Output":0.0,"Threshold":-0.79182365852958692,"Type":"A"}],"output":null,"numNeurons":9}],"OLayer":{"neurons":[{"Weight":[0.91087776651181174,0.28656169599227688,0.27116286441272258,0.79786134501819561,0.13684849540556246,0.83924363313207573,0.2059041914557592,0.99006480164363275,0.12254959397136681],"Bias":0.028345890822050111,"Output":0.0,"Threshold":-0.036829452047510751,"Type":"OT"},{"Weight":[0.89682896290758107,0.19595676902493311,0.32238710407278831,0.90862785927421774,0.30470859692651248,0.96032079167678985,0.072804138563947823,0.12200351903308347,0.30666637667765206],"Bias":0.0070782960425495615,"Output":0.0,"Threshold":0.41588803260395679,"Type":"OT"}],"output":null,"numNeurons":2},"NumLayers":8,"Breedibility":0.65156967828589007,"Mutibility":5.690095390048854,"Repetition":0}
