{"Input":[0.0,0.0],"Output":[0.0,0.0],"DLayers":[{"neurons":[{"Weight":[0.55537201676302217,0.97636588382365452],"Bias":0.13881501561906889,"Output":0.0,"Threshold":0.19189913021023344,"Type":"A"},{"Weight":[-0.967405286602399,0.14473149559680909],"Bias":0.05925569127279133,"Output":0.0,"Threshold":-0.817483868830597,"Type":"A"},{"Weight":[-0.49365419312084757,0.981685463330562],"Bias":0.46677438517416564,"Output":0.0,"Threshold":-0.024256343498945395,"Type":"O"},{"Weight":[0.83299223558650926,-0.98105735330891675],"Bias":0.66826771743049274,"Output":0.0,"Threshold":-0.37297594750904289,"Type":"O"},{"Weight":[0.87071093305512837,-0.51118673920221014],"Bias":0.12190680118366461,"Output":0.0,"Threshold":-0.086944474413499451,"Type":"O"},{"Weight":[-0.72190526627092866,-0.07593180382434829],"Bias":0.936695371724989,"Output":0.0,"Threshold":0.056972871561056411,"Type":"A"},{"Weight":[-0.63562559831683785,-0.087490342132509849],"Bias":0.44745261429224753,"Output":0.0,"Threshold":0.86145806911469347,"Type":"A"},{"Weight":[0.94984224762294545,0.079806608650743308],"Bias":0.21084177690131672,"Output":0.0,"Threshold":0.56348210273472688,"Type":"O"},{"Weight":[0.17854739361374983,-0.99218110646688429],"Bias":0.3062971296283869,"Output":0.0,"Threshold":0.99651499464945636,"Type":"O"},{"Weight":[0.31092914534310306,0.24884384369889454],"Bias":0.94832453967459707,"Output":0.0,"Threshold":0.58897391920395847,"Type":"O"},{"Weight":[0.706182818257335,0.54949121668445466],"Bias":0.28548560537653306,"Output":0.0,"Threshold":-0.71726316107309573,"Type":"GT"},{"Weight":[0.95134323507144269,0.23190716432030648],"Bias":0.0071378657627561432,"Output":0.0,"Threshold":-0.507560864327271,"Type":"A"},{"Weight":[-0.97056027267619982,-0.2554893192162222],"Bias":0.0647917650941721,"Output":0.0,"Threshold":0.37688551814150323,"Type":"A"},{"Weight":[0.56168118983585447,0.098680240613725143],"Bias":0.61261422541579891,"Output":0.0,"Threshold":0.66655376118913,"Type":"O"}],"output":null,"numNeurons":14},{"neurons":[{"Weight":[0.3037872446252905,-0.34664142054814912,-0.93011863619560309,-0.46128423254065415,-0.98292824252644939,0.32622606369025359,-0.93174379967699938,0.80336828101583213,-0.090420680162692765,-0.46682207494360489,0.13069416588670302,-0.3292973001158318,-0.91038061301707318,0.60470498195137135],"Bias":0.39296315675273685,"Output":0.0,"Threshold":-0.396638638524636,"Type":"A"},{"Weight":[0.87103883590131947,0.7033506211374656,-0.73059507027761783,-0.040441636480596677,0.79420508667556811,0.081863522567722724,0.48433380363710865,-0.62993739015885508,-0.295311959597893,0.52219354525310613,-0.11596905864587476,0.87513788271468962,-0.56931613505320444,0.10361027303319903],"Bias":0.7042387517654517,"Output":0.0,"Threshold":-0.84270131208128352,"Type":"O"},{"Weight":[0.21481771684010406,-0.89356899442783044,-0.69622123180712625,0.88577563450009356,-0.97940636006156279,-0.53927951331216817,-0.629364076363558,-0.56930668538869666,-0.38406862708929396,-0.3232709608614775,0.87444509327152986,0.28131087370277891,-0.71818558951755318,-0.039631294105030267],"Bias":0.040822004452730529,"Output":0.0,"Threshold":-0.1243290175331426,"Type":"O"},{"Weight":[-0.97186476177157122,0.66246061057898242,-0.98093377891040112,-0.58498753867344355,0.2516990794109642,0.66729940458540782,0.48810421511908259,-0.96319556933045181,-0.72369424613364708,-0.53204399185816009,0.51943035121980607,0.71184451073028354,-0.647635257638821,0.62023473792720341],"Bias":0.15478955775256714,"Output":0.0,"Threshold":0.44818149574481952,"Type":"GT"},{"Weight":[0.82594336468071838,-0.17626606867474787,-0.78955836211776287,-0.0549440607684404,-0.738508672797358,-0.0037893634307148696,-0.97078430464993426,0.35555089235098608,0.14759540611300404,0.713899892621627,-0.59228502567498242,-0.43207342337447846,-0.78372940783562572,0.90775241465668777],"Bias":0.67128232478689509,"Output":0.0,"Threshold":0.999557282309773,"Type":"GT"},{"Weight":[0.67103874435231026,0.99576235003572067,0.55074098359362267,0.32773880023869628,-0.012788372585917066,-0.64223386749729228,-0.75142076739641872,-0.60594970295482764,0.69436299460677564,-0.43783485025066643,0.73428160312319246,0.26279231685343774,0.15570231534340526,0.35006074996202285],"Bias":0.10616659843650023,"Output":0.0,"Threshold":-0.123924168815801,"Type":"GT"}],"output":null,"numNeurons":6},{"neurons":[{"Weight":[0.2002717797645702,-0.15856224259294674,-0.45522241594978718,0.31818999458020086,0.0041246595811679308,-0.15279259819201779],"Bias":0.13502292527585427,"Output":0.0,"Threshold":-0.46523386354801893,"Type":"A"},{"Weight":[-0.71972231600420655,0.042226124108874295,-0.71364612398373251,0.73896191722665072,0.2573964243090695,-0.59112954586331246],"Bias":0.62390704109515394,"Output":0.0,"Threshold":0.60360863460395886,"Type":"O"},{"Weight":[-0.90328247700970732,0.5511489876318485,0.44738746036188093,-0.23914057865698848,0.11964485567046555,0.73015694354202454],"Bias":0.10999971866141992,"Output":0.0,"Threshold":-0.29302235426987633,"Type":"A"},{"Weight":[-0.97993590216149384,0.38644428243229367,-0.37904311547942604,-0.56263217914972086,0.88823928911622585,0.20644638464154974],"Bias":0.84930800779224747,"Output":0.0,"Threshold":0.83884533300942055,"Type":"O"},{"Weight":[-0.071436994742339943,-0.54206109444706752,0.91408487591617038,0.032389439657511856,0.99751631868887525,-0.44207757638864104],"Bias":0.33907903700092762,"Output":0.0,"Threshold":-0.76718628861344718,"Type":"O"},{"Weight":[-0.72394677099024263,-0.49940875940928642,-0.21716435217166522,0.63918007241523833,-0.45814001581544989,0.8981640645759944],"Bias":0.51774090506031223,"Output":0.0,"Threshold":-0.52854432376499494,"Type":"GT"},{"Weight":[-0.66717180407940024,0.90033863387086366,0.75096125982280881,-0.580292698266121,-0.19166541946663773,0.88975095278106209],"Bias":0.73515138203983721,"Output":0.0,"Threshold":0.48684614966010964,"Type":"A"},{"Weight":[-0.16970247084726695,0.986649483901751,0.33943657360013413,-0.18335167280554385,0.4953893378821152,-0.65611071449523362],"Bias":0.68555742953231436,"Output":0.0,"Threshold":-0.19413447668502781,"Type":"A"},{"Weight":[-0.5142968378562,-0.40861422541021103,-0.86684765474258352,0.21341281021638439,-0.51645927341490017,0.20818676250436657],"Bias":0.11184597951911668,"Output":0.0,"Threshold":0.11374443402222564,"Type":"O"},{"Weight":[0.62815642618954015,-0.66855249212521706,0.54189483986324394,-0.94136294906091078,0.14628924575927166,0.48004097048195127],"Bias":0.25031794526163392,"Output":0.0,"Threshold":0.086321010760181116,"Type":"GT"},{"Weight":[-0.91311513488791651,0.011138800536812656,0.07823192424989861,0.25420534576019521,-0.028659504385972166,-0.23609676269632612],"Bias":0.36264934593935,"Output":0.0,"Threshold":0.35709657676382761,"Type":"GT"},{"Weight":[0.82510543932444669,0.86581526131639963,-0.52558198455981076,0.92707715506063637,-0.21991510466668526,-0.86314887267684048],"Bias":0.98395874769611225,"Output":0.0,"Threshold":0.27845912625941405,"Type":"O"}],"output":null,"numNeurons":12}],"OLayer":{"neurons":[{"Weight":[0.88946423721009127,0.13535780745342271,0.98375342459592663,0.86471015720847533,0.94947251907990893,0.34913996716455553,0.30816281321838629,0.54552396784793766,0.93800240519363542,0.702436970408278,0.38900482672685982,0.75906187098429623],"Bias":0.51312096301145893,"Output":0.0,"Threshold":-0.49370180279654535,"Type":"OT"},{"Weight":[0.17423228881053268,0.9904314014084783,0.90509644751674334,0.54920384220276208,0.093099052129825138,0.72946235059269815,0.69717691684941618,0.62450866942503891,0.88238594116754177,0.55203759835662214,0.38553313230422004,0.54865329645045724],"Bias":0.94048987139970519,"Output":0.0,"Threshold":-0.88556268107405056,"Type":"OT"}],"output":null,"numNeurons":2},"NumLayers":3,"Breedibility":0.001699069050000547,"Mutibility":2.0963251321093761,"Repetition":0}
