{"Input":[0.0,0.0,0.0,0.0,0.0,0.0,0.0,0.0,0.0,0.0,0.0,0.0,0.0,0.0,0.0,0.0,0.0,0.0,0.0,0.0,0.0,0.0,0.0,0.0,0.0,0.0,0.0,0.0,0.0,0.0,0.0,0.0,0.0,0.0,0.0,0.0,0.0,0.0,0.0,0.0,0.0,0.0,0.0,0.0,0.0,0.0,0.0,0.0,0.0,0.0,0.0,0.0,0.0,0.0,0.0,0.0,0.0,0.0,0.0,0.0,0.0,0.0,0.0,0.0,0.0,0.0,0.0,0.0,0.0,0.0,0.0,0.0,0.0,0.0,0.0,0.0,0.0,0.0,0.0,0.0,0.0,0.0,0.0,0.0,0.0,0.0,0.0,0.0,0.0,0.0,0.0,0.0,0.0,0.0,0.0,0.0,0.0,0.0,0.0,0.0,0.0,0.0,0.0,0.0,0.0,0.0,0.0,0.0,0.0,0.0,0.0,0.0,0.0,0.0,0.0,0.0,0.0,0.0,0.0,0.0,0.0,0.0,0.0,0.0,0.0,0.0,0.0,0.0,0.0,0.0,0.0,0.0,0.0,0.0,0.0,0.0,0.0,0.0,0.0,0.0,0.0,0.0,0.0,0.0,0.0,0.0,0.0,0.0,0.0,0.0,0.0,0.0,0.0,0.0,0.0,0.0,0.0,0.0,0.0,0.0,0.0,0.0,0.0,0.0,0.0,0.0,0.0,0.0,0.0,0.0,0.0,0.0,0.0,0.0,0.0,0.0,0.0,0.0,0.0,0.0,0.0,0.0,0.0,0.0,0.0,0.0,0.0,0.0,0.0,0.0,0.0,0.0,0.0,0.0,0.0,0.0,0.0,0.0,0.0,0.0,0.0,0.0,0.0,0.0,0.0,0.0,0.0,0.0,0.0,0.0,0.0,0.0,0.0,0.0,0.0,0.0,0.0,0.0,0.0,0.0,0.0,0.0,0.0,0.0,0.0,0.0,0.0,0.0,0.0,0.0,0.0,0.0,0.0,0.0,0.0,0.0,0.0,0.0,0.0,0.0,0.0,0.0,0.0,0.0,0.0,0.0,0.0,0.0,0.0,0.0,0.0,0.0,0.0,0.0,0.0,0.0,0.0,0.0,0.0,0.0,0.0,0.0,0.0,0.0,0.0,0.0,0.0,0.0,0.0,0.0,0.0,0.0,0.0,0.0,0.0,0.0,0.0,0.0,0.0,0.0,0.0,0.0,0.0,0.0,0.0,0.0,0.0,0.0,0.0,0.0,0.0,0.0,0.0,0.0,0.0,0.0,0.0,0.0,0.0,0.0,0.0,0.0,0.0,0.0,0.0,0.0,0.0,0.0,0.0,0.0,0.0,0.0,0.0,0.0,0.0,0.0,0.0,0.0,0.0,0.0,0.0,0.0,0.0,0.0,0.0,0.0,0.0,0.0,0.0,0.0,0.0,0.0,0.0,0.0,0.0,0.0,0.0,0.0,0.0,0.0,0.0,0.0,0.0,0.0,0.0,0.0,0.0,0.0,0.0,0.0,0.0,0.0,0.0,0.0,0.0,0.0,0.0,0.0,0.0,0.0,0.0,0.0,0.0,0.0,0.0,0.0,0.0,0.0,0.0,0.0,0.0,0.0,0.0,0.0,0.0,0.0,0.0,0.0,0.0,0.0,0.0,0.0,0.0,0.0,0.0,0.0,0.0,0.0,0.0,0.0,0.0,0.0,0.0,0.0,0.0,0.0,0.0,0.0,0.0,0.0,0.0,0.0,0.0,0.0,0.0,0.0,0.0,0.0,0.0,0.0,0.0,0.0,0.0,0.0,0.0,0.0,0.0,0.0,0.0,0.0,0.0,0.0,0.0,0.0,0.0,0.0,0.0,0.0,0.0,0.0,0.0,0.0,0.0,0.0,0.0,0.0,0.0,0.0,0.0,0.0,0.0,0.0,0.0,0.0,0.0,0.0,0.0,0.0,0.0,0.0,0.0,0.0,0.0,0.0,0.0,0.0,0.0,0.0,0.0,0.0,0.0,0.0,0.0,0.0,0.0,0.0,0.0,0.0,0.0,0.0,0.0,0.0,0.0,0.0,0.0,0.0,0.0,0.0,0.0,0.0,0.0,0.0,0.0,0.0,0.0,0.0,0.0,0.0,0.0,0.0,0.0,0.0,0.0,0.0,0.0,0.0,0.0,0.0,0.0,0.0,0.0,0.0,0.0,0.0,0.0,0.0,0.0,0.0,0.0,0.0,0.0,0.0,0.0,0.0,0.0,0.0,0.0,0.0,0.0,0.0,0.0,0.0,0.0,0.0,0.0,0.0,0.0,0.0,0.0,0.0,0.0,0.0,0.0,0.0,0.0,0.0,0.0,0.0,0.0,0.0,0.0,0.0,0.0,0.0,0.0,0.0,0.0,0.0,0.0,0.0,0.0,0.0,0.0,0.0,0.0,0.0,0.0,0.0,0.0,0.0,0.0,0.0,0.0,0.0,0.0,0.0,0.0,0.0,0.0,0.0,0.0,0.0,0.0,0.0,0.0,0.0,0.0,0.0,0.0,0.0,0.0,0.0,0.0,0.0,0.0,0.0,0.0,0.0,0.0,0.0,0.0,0.0,0.0,0.0,0.0,0.0,0.0,0.0,0.0,0.0,0.0,0.0,0.0,0.0,0.0,0.0,0.0,0.0,0.0,0.0,0.0,0.0,0.0,0.0,0.0,0.0,0.0,0.0,0.0,0.0,0.0,0.0,0.0,0.0,0.0,0.0,0.0,0.0,0.0,0.0,0.0,0.0,0.0,0.0,0.0,0.0,0.0,0.0,0.0,0.0,0.0,0.0,0.0,0.0,0.0,0.0,0.0,0.0,0.0,0.0,0.0,0.0,0.0,0.0,0.0,0.0,0.0,0.0,0.0,0.0,0.0,0.0,0.0,0.0,0.0,0.0,0.0,0.0,0.0,0.0,0.0,0.0,0.0,0.0,0.0,0.0,0.0,0.0,0.0,0.0,0.0,0.0,0.0,0.0,0.0,0.0,0.0,0.0,0.0,0.0,0.0,0.0,0.0,0.0,0.0,0.0,0.0,0.0,0.0,0.0,0.0,0.0,0.0,0.0,0.0,0.0,0.0,0.0,0.0,0.0,0.0,0.0,0.0,0.0,0.0,0.0,0.0,0.0,0.0,0.0,0.0,0.0,0.0,0.0,0.0,0.0,0.0,0.0,0.0,0.0,0.0,0.0,0.0,0.0,0.0,0.0,0.0,0.0,0.0,0.0,0.0,0.0,0.0,0.0,0.0,0.0,0.0,0.0,0.0,0.0,0.0,0.0,0.0,0.0,0.0,0.0,0.0,0.0,0.0,0.0,0.0,0.0,0.0,0.0,0.0,0.0,0.0,0.0,0.0,0.0,0.0,0.0,0.0,0.0,0.0,0.0,0.0,0.0,0.0,0.0,0.0,0.0,0.0,0.0],"Output":[0.0,0.0,0.0,0.0,0.0,0.0,0.0,0.0,0.0,0.0],"DLayers":[{"Neurons":[{"Weight":[-1.004843972053759,1.2023486303874984,-0.64817324683450783,0.19829932865607516,0.29746467588180858,-1.4373413191350835,0.61162947829248349,-0.17533361245967216,0.2968190348983365,-0.065801308520976987,0.073775795963022861,0.48402550227212571,-0.036216132970860251,-1.5654131693604463,-0.44972539620926866,0.44209060682110296,1.5699181983107322,-1.0268335209276924,1.0039268690179695,-0.54369645684198309,-0.52674841858760846,-0.57716783256138116,0.58830977724320732,1.1391901861127418,1.5539993348317216,1.6921267801393414,-0.19175622752134508,-0.26599934740292253,0.5513720547553953,1.0414278437576388,0.8225455273105976,-0.31766600481764279,-0.14617550840452331,-0.59825758943253082,-1.2773377077082815,1.1302899812023575,0.2634530957938187,-0.77519286460019321,-0.10539539539467406,-0.3860513309824985,-0.031290459375943019,0.77125256768602535,-0.70490005258710875,1.227718444181475,-0.2950615173068038,0.31061924915323935,1.4023000222641509,-0.44666137846496956,1.253659063602639,0.015612779395430459,0.41804869987212523,0.5043133602032035,-0.081884550900144681,0.98942775977283137,-1.3580197763433772,-0.17672895098301997,-1.2388758624968472,1.6070770719587231,0.303842871358545,1.3296881706126444,-0.65276788857428736,0.62038474846043479,0.68822199417661034,-1.4748755113570371,-0.3400636319089867,0.84165372831823948,-0.057429162346492091,-0.44724393257432565,-1.0000318318693651,-0.15875397376774525,-0.091169663747385887,1.5318861308472385,-0.53703722452606883,-0.22739403017583371,1.7636111861856705,-0.33818660107240384,0.29768332979839568,-1.1109177652248323,-0.36509822215423837,0.97364242420235747,-0.26178740442813719,-0.54369632831946779,-1.3041627422460183,0.041043265858219657,-0.16279430162464981,-1.9040675526038127,0.50194148463287469,-0.27993698384609861,0.943704073141977,0.62451642361679893,0.56818086261310641,0.90327937477420983,-0.63264054368838685,1.1646890880841248,-0.22430105331554129,-1.1218719496959224,0.48379576995046492,-0.37807910813860551,0.7874104731191931,0.41628925303406528,-0.30496356656307511,-0.6627959212959027,1.7075629337434952,1.146598236237931,0.51331371595711417,1.43542897488709,-0.16391230491633679,-1.3867733475690582,-1.3473610430390623,0.23513961314928711,-1.5374749803624466,-0.078420423007766055,1.113939975907067,0.90403505219443658,0.29843699505072424,0.39549771630538078,0.30295306365143171,0.3748808634699699,-1.6073099577833478,0.678232935402098,-1.9556076060773839,0.92226237567246994,-0.28318533966466108,1.8943542837604666,0.52986046824597777,-0.64427690517356484,-1.4861789827636345,0.165373587126552,0.94142684596045956,-1.0300872379297332,-0.9171006281590558,0.15920751083605333,0.82417504917064222,0.38171969008559925,0.044592770302944312,0.022053241972836424,1.399036108701972,-0.84660643039750272,0.55227846035519779,0.14125485445431174,0.945542772613712,0.090811238666442584,-0.58644801871220031,0.55184143155433318,-0.86565307847487416,0.064909827925688557,1.1382826748947998,0.75156426937023824,-0.67436061043669959,-0.8834832827018031,-1.4908767936243101,-0.80812462902275151,0.41538268067659012,-0.37160050131059008,0.66561410415205324,-1.991047848011855,-0.23592595627341706,0.91193532520529574,-0.5104059076450792,-0.721640561117265,1.139424213738844,-0.33148661550669312,-0.39656549803752705,0.56161200657294164,0.63940914608501365,-0.66167565931644079,-0.0094638671770057581,-0.26629496711424783,1.1943837977919651,0.066219174799611508,-0.84428616052925876,1.4255411999696452,-1.264319243551046,0.66388643657038271,1.0959975599625507,-0.9895940348457517,-0.15804913158437658,0.1007515887500495,1.1230802301227683,-0.66863041835486114,-0.99849006671792773,0.065402138744035124,-0.0957244458122759,0.45035638727729987,1.9183338563508978,1.5831197218890858,-1.4074386485886941,-0.1929658385077333,-0.30279158929661587,0.73598579910396866,0.18225550451808409,0.071124524842539838,0.40807343013960562,-0.76570071384618976,1.0596349793763995,0.23722658038010192,1.143439951885231,-0.22521133493394852,-1.1485393946750739,-0.95173043646211719,-0.94686189803614362,1.9173307288053123,0.583040577630997,-1.0799315902776696,0.54741810194562079,-0.45522153226511469,-0.24153283423803695,0.3154242932954317,1.537213768594532,-0.21984488511936912,1.0802033148953014,0.87629184612766176,-1.597266828021521,-0.7469113295650629,-1.6036521194519717,-0.83020753405532233,-1.6117813417742872,-0.5771473863055685,-0.54778447026746657,-1.0231768191856852,1.4319643512109594,-1.0461925693843117,-0.48126180952240794,0.95566385296062883,0.43246498895079838,-0.671537162746815,0.016565141042957504,1.3298798535623959,-0.84876125438546812,0.69410510300384143,-1.5448269830294081,-1.7322589322492754,1.6452403772367354,-0.30668311673527726,0.81684248466828957,0.60927396016627267,0.696363929284906,1.1322124275063223,-0.92141045025284218,1.3282943830491485,-1.0585561557945591,1.127527740144882,-0.57672420768042532,0.55637742666737278,-0.61473213583917,-0.92636213401628764,-0.42600597507600019,-0.2519215177154176,-1.3326077029726504,0.67091940102193393,-0.10133345100974361,-0.043542544377754622,1.0503405386487197,1.2330157604222258,0.09163281232660303,1.5095447101674717,1.2429700516438937,0.21899110089009211,0.24655507982082447,1.2126537962900095,-0.92289360562474176,0.2903795727949493,0.74617835448411229,0.72824735880282121,0.18658512850706541,1.6204810606411106,-0.60453508915590826,-1.1424747373143391,-0.0014940304688615402,0.57357057022019264,0.8741560088815894,-0.21662335014744821,-1.7450181747530671,-0.3449313316237792,1.4588244647992887,0.40997128440531505,-1.0221273313103021,0.14138456027775548,0.156358200198206,0.16928978863932243,0.60819375077644056,1.5005413105248202,1.3148869067965481,0.18048966349962303,1.5927824543755418,1.2344944497467896,0.73016902678304785,1.5110912525612354,0.56267701774421819,-0.25376849774589455,-0.022960270765684632,-0.666232790176865,-1.1224190961208285,0.92438592641818629,-0.40708657326506748,1.2521774326461264,-0.99135757988265,0.23177536769132445,-0.47022718492440285,1.4022707470703266,-0.5774429389636232,0.46981050747903541,-0.11349429055745458,-0.3588760450290871,-0.88295524345455578,1.056569410980013,0.5838691509371674,-1.209146164222223,-1.7470888680532057,0.84111129060206524,-0.10507051171388963,-1.4425993615028445,-0.70647286749746319,-0.737384574802073,0.53385015028594407,0.372486122817202,-0.2548977738501958,0.89824169333942316,-0.53876685718191641,0.35552648114279439,-0.5819136409464678,-0.15394216783062653,-1.0488675493043229,0.23950462320945712,0.33233095185990641,0.46471195596489689,-0.18295462531175222,0.78151795563475124,-0.3129118755896157,1.3961311490339363,1.5958593774567635,-0.68847300051174742,0.59478967400039662,-0.38125104325002945,0.31599383420124372,0.63555484132808515,1.8506037517686393,-1.67196906528993,0.3034311827753815,-0.50567069623766969,-0.017213253020263043,1.231514477337019,-1.79747614441322,1.0834336896242978,1.5386396476713196,-0.2791022842092391,0.090324828676099422,-1.5186141099634645,0.60512248804099955,-1.832985510971856,-0.61471308842986494,-0.30538535826086188,-0.046502928271192623,-0.0337104480870582,1.3469611159437549,0.00046219024828753064,0.69609818546851088,-0.564412378303113,-0.18636424274968089,-0.86447724088303612,-1.4272936207369407,0.33402765321786876,-0.27867240276140137,-0.75975469583376454,0.90461183022087011,-1.0610112021961302,-1.4259210300752525,-0.045548374914297446,-0.18364404243586763,-0.47284785866404322,1.2120692819413121,1.2963389583380609,0.28500793142477421,-0.84015643643407489,1.3793666806907239,0.40651945928415278,0.73044616010166785,0.032335917480446508,0.46172766327472758,0.17529582706060998,-0.15702116621868734,1.1625558683474342,1.4056378209058371,1.4777971913469012,1.2552213823679934,-0.29274057107057455,0.48315782706602711,0.43149298109794876,1.3237040468136332,-0.062028360117553971,1.5035217302872097,-1.7169334468336,-0.0770541666274327,0.24355127999724424,0.11433971110407265,0.38962763472908524,-0.35598914730350439,-0.48138738399436115,-0.31675684262068204,1.1436180095857091,1.1596516441365943,1.1305626757119609,-0.13029091956248881,-1.2682064508713267,-0.82539702502800494,-0.20897961255238107,0.46376003545696687,0.61989059690439163,-0.44701465688796949,-0.98932037502737269,-1.8478066343105428,0.22911664714529956,-0.3278340417090031,-0.73654866485695769,1.3038912971056491,-0.31989806363143342,-0.072866260340840761,-1.5002645344940315,-0.84482668845207742,-0.94914974968375154,-1.5729245966025132,0.70689275707439181,0.2464239030361286,-0.81694909316345532,0.65135131224587139,-0.11065798909899693,0.47647286024944535,0.040422097798633594,0.082086388991254644,0.266788303510653,0.77183046032917813,-0.9022141317381589,-1.0948555483924483,-1.8816534913525234,1.4188604408031611,0.54456756423207353,0.01875746868027256,-0.50252566454700454,-1.2851265983270719,1.1203017412313736,1.6678659430089713,0.84964004291670392,1.5498465623473035,-1.1845747910833797,1.456066637977989,-1.2414723591606469,-1.4741325897509849,-0.035684376040326704,-1.5051390742579598,-0.93030623110491151,1.2215722963314373,1.0677465039365746,-1.0071116196956074,0.34994568892868494,1.1557333186062673,-1.422837808459456,-0.22498372760964389,0.7940276315044158,-0.71202240964026287,1.4347752467425423,-0.7203707991728423,0.46664757629234688,1.2747197687973828,-1.6971475908985116,-0.28936395263386139,0.9321115489267332,1.6905214505691646,0.034557239168583109,0.21014790526132465,0.054417432311185454,-0.15461197191153336,0.26491630369094954,0.848125863283931,-1.881385788266261,0.67302372059529092,-0.86671857564557275,1.4568303169015935,0.29576628017042139,-0.72307884648963994,1.7428819070304193,-0.61348662879946014,0.5685207073430163,1.3061158069437908,-0.13591486019456131,-0.40866534844211566,0.14952359211002292,-0.92642531330996447,1.5764094067627608,-0.89391225524894535,-0.013258849275202364,0.4387296547915448,1.1938147261709973,0.46795190240626772,0.49819303845204094,-0.49370087799322837,0.12398024747333514,0.78282743771051866,-0.55727807598061774,-0.0282027861234746,-0.985723452112043,-0.5851608152975778,0.27616878984317583,-0.76684532139067885,-1.9085994548670013,-0.31805365011936687,0.81062480218478417,0.56769415296972436,-0.44129918400535212,-1.2795507382971936,0.2369333362356065,-0.63723719408268642,-0.058167022680010172,-0.7630229853106324,1.16315396566487,-1.6627651991614911,-0.018203849912715953,0.19947593678865047,-0.97206691069159046,-0.05734454629178834,0.63061114024369713,0.33396456155183385,-0.63197366915535025,1.6203070895840912,-0.55216344794540939,0.89277567616327469,-0.33454199809699647,1.4838353746961035,0.26408000582087787,-0.33752630788950544,-0.16842762032641237,0.02417007182918951,-0.48952954518593694,0.36664717847790917,1.6219468003241095,-0.17627331470055371,-0.08675616988163623,-0.94666325251882122,1.9408538080476476,0.088232453511568568,-1.0691907392205629,-0.46307418102182418,0.79560065377095035,0.41046278093031729,0.84522960001846292,-0.80556786225902277,0.84065207459062907,0.69163347970938749,0.44017194069542415,-0.22966058418895619,-0.61993350583125528,-0.12632266288598748,1.4423690156277127,0.31991408213607375,-0.1288829846907793,0.67527194259468093,0.372464599851116,-0.97442464469857781,-1.193250377667467,0.014709468006486759,1.4386694428691031,-0.723607901260709,-1.0402100547404074,0.60482643502989153,0.440813168925339,-0.77129219239531133,1.2074349521228276,1.0084279325768104,0.95281739575861346,0.2853490432190473,0.2656926877171234,0.19528018979149581,1.3953349084571634,-1.6724005321377891,0.70544634792276018,-1.2443995913464576,-0.11808549279199702,0.090072359000366475,-0.56320871718377274,-1.3597049896417675,0.38571247939202685,0.18987577921617818,-1.4143695036947586,1.1446891125034027,-0.38488135784160415,-0.4676395386772414,-0.17549793523526658,1.6000732097993367,-0.29185454666497168,1.2017558550935963,0.38224294698951183,1.5358613913580128,-1.82169856122774,1.7684530838245771,-0.058542782235212032,0.47630464680320805,-0.33380010553346962,1.6191587409093784,-0.41788957566855922,-1.578446304229296,-0.73612903862635126,0.49431013478632552,-0.50352694210760629,-1.7268664686600057,-0.12839915050584794,-0.5873821340908213,0.24140499423046941,1.1180194185548553,-0.43151106705493814,-0.305352673094913,-1.3927840685438291,-0.13592080452289462,0.25366497144739375,0.43625889090536896,0.19289308812836792,-0.4125817159249362,0.4667484669409015,0.88731825299901823,0.10936201808748891,-0.29010443682321563,1.0626090954789673,-0.75774848703073727,0.61271450418082085,0.93735923568595148,-0.581580876177913,-0.89916579858652113,0.97545053300466933,-1.7450426853005974,0.70401508230902943,-1.9485420584439031,-0.43944693842877025,0.23683363862188234,-0.88263433141756542,0.912885250890574,1.5707795967357374,-0.58002306367504564,-0.29958510838801433,0.41000884650741187,0.71477089576179687,0.01421363355555285,0.652685802023963,1.122349204086861,0.57805079528039838,-1.4381566585219263,-1.0317386719545996,0.061100448160944731,1.8847745302528023,0.79933140929757229,-0.399422907456487,0.072698179777236346,0.9800101513881283,0.10129695298508212,1.24417054284664,-0.71964088954014738,-0.9113985360187471,-0.52031112701942284,1.9515755548847724,0.25906259823081212,-1.7667247018621883,-0.39178694853816975,-0.76127088198497472,0.45131188067552708,-1.5925018077681314,0.59834757720325127,-0.85757325350193914,-1.2055681213762464,-0.077355499415358242,-0.056300423387097787,1.0270796376406586,0.17015722751159093,1.601401131821983,-1.2998770047127319,-0.49351474380517135,0.735620276413681,-0.21736349792562593,0.36371493635872143,0.42033829296255321,-0.087814117822709648,-0.46935859251271861,1.230293502672712,-0.80996349305378434,0.27054996229209927,-0.15469838947975007,-0.38226530811854875,0.64907225251620271,1.3802371078078808,-1.38558014965876,0.23414976994940581,0.33170164482276426,-0.76756607869992322,-1.315090385878035,0.12886846211220543,0.59523850336831341,-0.19552175804004246,0.99568731320156711,-1.8665841724102312,1.9199681859090778,1.8653116914747803,1.9307161885922386,1.4458823629868602,-0.75608344875339162,-0.56037576988356919,-0.11403183981236378,-1.9939296133787974,1.2446628879963715,-1.8207806930042714,0.084782742861906429,0.53528152710538413,-0.26775474078848716,0.42739608372400806,1.9090261999094049,0.4800508565875008,0.8960727373585442,1.1666819770665291,-1.8500783545198285,1.3259612989267153,0.70781391184950793,-1.9851094409754078,0.56160833992138892,0.65769673404865481,-0.823882869828438,-0.52824054380025154,0.30129193454412806,0.014467833104761296,0.94890183394257988,0.45813319760287774,0.84526617198528253,-1.0849740382213955,0.3565236685595119,1.8703306652001714,-1.2149991165916432,1.6170412020837151,0.071457290589556577,0.42797243355681752,0.2863319623525985,-0.53465479194869048,-1.0543884764976241,0.090955936392282943,-0.95125202138399179,0.50832059035770749,-1.3348319825703894,-0.28047240676850327,-1.467743569737181,-1.577558865573983,-0.28704195948645572,-0.44557226642022146,-1.5964933240769865,-0.512471446074765,0.82056337307233518,-0.749505322186137,-0.54962609568216547,1.8203125576583261,0.47963731478882826,-1.683106083275334,1.5761873943329263,0.091341714941124363,0.57771705122631012,1.050039592168287,1.9045347128550216,0.36927581828519496,-0.1639614078048437,-0.21801026877859336,-1.4142407399668548,0.48308938112253763,-0.46675380061695054,-0.96502596650506645,0.39988921339385658,0.2458852292019339,-1.0200761552062241,0.35205910836908005,1.0113457144523719,0.47447756793092832,-1.01959461673144,-0.93607511321831272,0.6185581815504535,-0.834508442010036,-1.36048936255299,-1.622589653182118,1.0531570269042425,0.045763965717406818,-1.1917902152947104,1.6386737542407,-0.23071557081687055,-1.132010902805259,0.5241672706437146],"Bias":0.37731669806924961,"Output":0.0,"Threshold":0.11033533611816138,"Type":"O"},{"Weight":[-0.69292693826971907,0.2310632701405628,0.78021474530166413,-1.1606870125708808,-1.6976401674084554,1.4561622033157211,-0.155612298240628,1.8430788423135311,1.4830831366774313,0.37431012570927757,1.9779264517025679,0.49527103596263156,-0.9908902493728744,0.69735989286441358,-0.23754329152290854,0.86941669269903388,0.17420981323193291,0.29370383316336429,-1.3007220343224342,0.33597219285367608,0.014641844979902646,0.73263199498533815,1.2082831092217394,0.4397677832177227,-0.94037613658244712,1.0956254541387902,0.2635435745168565,0.15820176860233864,-0.24732301605275037,-0.14556428517474052,0.30274155750067044,0.8432306213505707,0.038150238880491905,-0.28787340169754622,0.87963720443292392,0.45032177234549153,0.33870962743587318,-1.0388504282949185,0.7873609824047243,0.75420598264755268,-1.7953932116717999,-0.55712484501168358,-1.1399501539487158,0.98422885805841842,-0.043532465284705377,-0.888969490020056,1.2665096525528981,-0.68577511547402259,0.681354223398424,-0.50495533761799127,-0.46153021479795225,-0.10327271097492097,-1.027247574658714,-0.15060450080316923,0.063074901729391453,0.90221717972411641,0.93548646892210785,-1.3356521100903174,-1.3656722956177183,0.83607875035893131,-0.49582235207855641,-0.30751679830212741,-0.12696074036694327,-0.64598108545646238,0.26211393403919131,-0.6677218859166475,0.27433871327635773,-0.099585065897360978,0.44104197315920224,1.5395379474105027,-1.0832699421249656,-0.8367305185351197,0.69109224439111072,-0.16676740001421425,-0.42205047381133848,-0.70064049566711029,0.52585542074779179,0.19173521814553818,0.091401216616575187,-0.527770261255881,-0.80306501630836391,-0.0305771521447291,-0.19902319936036272,0.72095531686284531,-0.18325666998664691,0.049518979410416941,1.1329235449120976,-0.81265668497879251,-0.27232788866552415,0.480499918796355,-1.03509743466745,0.59881276502218683,0.30594829730639095,-0.011641151191429389,1.9692321363693255,1.7439648209810095,-0.12151394542726404,-1.0185249634609908,-0.62417040608086183,-0.21118050378583977,-0.079448172401453937,-0.0091489283410595146,0.86919793410655011,0.6290807930527893,-0.09919610918840438,1.1329006930500738,-0.84836738589489324,-0.24663865764003187,0.43565707548719396,-1.1635869998315289,0.754289635104052,-1.6465371640615805,-1.3541319013359638,0.957967069446094,1.0474727505518839,1.4551091904077258,-1.1612457815377255,0.23747464034166754,0.2313521573173169,-1.8015069290071293,0.44581508611032156,1.3817357352849728,-1.5215497927374904,1.2373384941223706,-0.837407031337309,1.1285281116908528,-0.78649226989378151,0.78793314974193152,-1.7049477387708367,0.24781547638020274,0.62702588005304549,1.1752429656569117,0.37137499934592044,0.11221985477289087,-1.5067756248203925,-1.7444864645341816,-0.37317005149003579,-0.16783411324131503,-0.39959277976285323,-0.10181005923743827,0.23975466296065348,0.91883759359775,-0.016203465719384989,1.6338791566127346,-0.80557571132927,-0.40185767890739155,-0.074314879369496989,0.035307765954783077,0.41968408684922603,1.7014765253763069,-1.2253632597743362,0.58902517326289927,1.0919471211228271,1.0234683849958091,1.1292014918236886,-0.09116679527385485,1.0075280587223956,1.5039976395219554,0.34174823870032467,1.083685014901536,-0.85345103724554694,0.21724354951514102,-0.21079077492140386,-1.678738334997901,-1.2700080170854962,0.69460823605517308,0.57852867784841377,0.75594909244959663,-0.745511709128279,-0.385081487246827,-0.0782526797048062,0.72259923663111358,-0.63747852232189772,0.33315654582754728,-0.6964391449915428,0.17544425906983407,0.12366141111981865,1.0177975958296086,0.71389997257530613,0.25873431482293396,-0.29259451606941034,-0.025196886633148896,-1.2043801784535777,0.019984486522145684,0.033685789459238613,0.36040821874533241,1.5833563113507609,-0.2672924223669304,-0.73544980588717435,-1.9859834555471239,-0.59421220728858015,-0.98244078483109643,1.549573901830974,-0.67317257899473071,0.953312427804878,0.977874844790378,-0.34412711569911436,-0.954381735508508,-1.2653954419473688,-1.1085615341318515,1.1695711068043693,-0.53343706786210521,-0.95643351238373031,-0.75498324853338228,1.1074448182980738,-0.17154726310748827,-1.0915643444848815,-0.17677063431490453,0.1464859249344963,-0.20722669964383167,0.25068023949146284,1.4168915759071112,-0.910771600394869,1.8892817589870106,0.5110766652368135,-1.2551928874187603,0.35665977110930713,-0.44066546839514864,-0.37689194752690014,0.5451914466313047,0.87248602424384236,1.7032572588432848,-1.4521445778441358,1.2701356873242817,0.054876036036236364,0.5279890739023636,-0.00605832506253301,-0.13171571468659815,0.37354951394559732,1.3428003914155067,-0.74903182813386993,-0.58317609903550516,-0.64236261280247131,-0.44487849457416606,1.9235572255791897,0.82868165787919357,-0.24625769177335669,0.52622423435189081,-1.9616872761220145,-0.95782822252150079,-0.0026770241343530982,1.3958837629276717,-0.82287003857828456,-1.075708517374335,-1.7163573725690866,-0.69160550765682371,0.51460618970257066,1.5461793968203383,-1.8439950178582198,-0.58335493066504363,0.073749027714947846,0.56311422333266314,0.48728618714252142,0.71556052785160051,0.69117511960747091,-0.080418461039857281,-0.26301905105962364,-0.31605083825451674,-1.3321477813970519,0.20386810703383196,0.30816671640221216,0.16640327928707707,-1.2138212808472204,0.60382767887964262,1.064130241779671,-1.5376549435489135,-1.1565606352670868,-1.2905596323733031,-1.4411140326136323,-0.27683265194149342,0.81167520317792663,-0.11259774962095448,-0.056912860903562977,0.47925295423681513,1.9020153078725635,-1.7115897385923145,0.45371070618448339,-1.3702002496552654,0.12241783338929781,0.82267796193374232,-0.25667582557381863,0.63257906917635909,1.575738206308213,0.14083885070077434,-1.3223357180295678,-0.61199349853432006,0.76984633074531417,-0.25227068003838449,-0.12655065074868069,-1.731386287012783,-0.80657482231341993,1.6554825401541231,0.83341508461827163,-0.98371173440651594,0.17968323813695772,-0.68464619605087029,-0.32601112724561765,1.3738946146352729,0.58164253974409885,1.3790816326528237,1.6503561174731498,0.84089614321101824,0.8762707895954468,0.41449273885902616,0.9741836124328821,0.76549297699960572,0.026522933517826086,1.3729205962144402,-0.097936146006889713,0.619442223219407,0.42237596512882769,-0.38915363350610882,0.67333662820669682,0.42661529945637733,-0.12605093482901619,0.509084765466437,-0.38014257146517877,0.54465461471929877,0.23770545340967619,-0.14339275653166356,0.13301074336423116,-1.6236647850012709,0.1844573683033035,0.40072810656890656,0.34730561167072704,-0.91324218224431775,-0.17627806461701251,0.1272918086043987,-0.63946964481820812,-1.3931746554529176,0.18612888473335085,-1.4861584377876289,-0.47934742119962348,-0.3031545594698975,1.4701658759592873,1.2770589968548431,-1.119921555332803,-0.368717709569006,0.098941842838629085,-0.5630527666998002,0.92558655227085673,-1.8999989516567435,1.470360531225037,-0.096193453696963083,-1.3666341427558262,1.9062313716421979,0.070454550939823779,1.9257149565619018,0.019629024796859223,1.4309874230208748,0.50549044014661482,0.242979744562404,0.6576788016397872,-0.68846514691312588,-0.038670674573995145,0.37134469317800578,0.68146074501865561,-0.38301277644141241,-1.4427743737785026,-1.1432066787566071,-0.94250226344098453,-0.91986982386240324,0.11761860089265674,-0.76337549498461921,-1.2613534681784704,1.9815760347906388,0.41954868725479971,-1.0182874775576813,0.64995522207462009,1.8115341438965564,0.75058199228367184,1.7342252599700472,-0.35405242366439316,-0.80624203351616963,0.82331576888603886,-0.256330448322152,0.40382574948194683,1.4036165983040081,-1.2679512814003746,-0.6949870203132682,1.8795107146163987,-0.2907474018749111,0.51099843625491426,0.5242696658355509,0.81679915773766076,1.3134426573819678,1.5849810426984825,0.50162107800209021,0.094508559557831509,0.39847951790283354,0.15760097310766608,0.066735317961655272,0.057166117380976045,0.78178316577420714,-0.94847009506690183,-1.6248656300012327,-0.010924554667866099,-0.87628134264562607,-0.96170825097614832,-1.4025740546186334,-1.0505709289808622,-1.4427990221617739,-0.87795713303923,0.10801074865917276,-0.32438067084540451,-0.61504960368156891,0.754025378965308,-0.35432362957127561,-1.2139788675099745,-1.4742400189741702,-1.1435435554681082,0.838165362231976,0.3886290967411497,-0.31494848165425871,0.4344119359433708,-0.10604220540544129,-0.165381164832684,0.45909138431584751,-0.24850547796994293,1.2158348572397768,-1.021667921916612,0.27168591053769253,-0.24023375013621226,-1.5778726568768167,0.037591874384131196,-0.51332151017306438,0.99980353587297888,-0.69520216249288169,0.254496018928241,-0.042937405536562528,-0.823687645990256,0.045505265726477617,0.15433117206977631,-0.72880358189754368,-0.74557257198988114,-0.77131696290863538,1.7555233537012356,-0.99380075977826521,-0.12712975898565709,-0.63018117408742258,0.68762698822084412,0.35296484751299229,-0.4042725699391555,1.2011829308239663,1.9483337308970903,0.50848890585288831,-1.7498137111541878,1.4285820626786827,0.41117084597000897,-0.691376453798632,0.14646332852406815,-0.32918599170129093,-0.18334458691049105,1.8196324612105417,-0.011582525452404541,-0.081501984042669423,-0.29572256668271613,1.1103293998680679,0.40892180924253629,-0.39873587300476432,-1.02714588913468,-0.062067891499990591,-1.0621619009137493,-0.50476953038236561,0.12132498482071108,0.28166028742290117,1.0061422511381759,0.36641948966608373,0.78888253066171066,1.2935390444084507,0.043124302776122447,1.5308132951757,0.3263944593764917,-0.7616450659752102,-0.8736120764508899,0.75535272679075272,0.12273240095131666,0.35572952805353764,-0.28974500358558486,-1.9361411682032705,-1.8694154470550899,1.5564502512833336,-0.12604501221405318,-0.28768927019253,-1.6430740317530344,-0.261681110341652,-1.1778348423204545,-0.24092570796652035,1.6693543715725441,0.11504020954716976,-1.1016448713381051,0.28768492503449561,0.38230873024535467,-1.5512614111519232,1.0296637362473011,-0.6722678073785584,0.92117548311183972,-0.98551108189765879,-0.81719003830439885,-1.088841125061196,-0.5166871573388051,-1.0617971748539641,1.0110872252895902,-1.3113658611249952,-0.42083347049580588,-1.0119183487314349,-1.2261132650198943,0.32185200151142279,-1.1586854952210617,0.51430825867271834,0.11536174829604107,-0.14050519472942935,0.53843368335554076,1.3214467220573902,0.91210363009576856,-0.0601230350428367,0.43681758031864082,0.29185023265511267,-1.0569171342332462,1.3316426053441328,0.6995488810654652,0.3112825720157858,-0.06900642850935701,0.6287255157311914,0.26939036430296959,0.57591533446095911,-0.48983198962632191,0.11434498868008597,0.189304626578336,-1.2923320435417498,1.6920948939826781,0.34771729850220362,-0.50530242996566344,1.131388479439257,0.258169341254127,-0.15252038005391144,0.12508659964736379,-1.8024477678362503,0.48789320077439824,0.031292187180971848,-0.17101000909274911,-1.1393337290936145,-0.19079319333132941,0.57266272910528937,-1.0074317022261359,0.86254914181665765,-0.36784556944288571,-0.14290871570953567,0.18486546304361684,0.23663563012920097,1.7965701146966637,0.56989305187361,0.61006865039994884,-0.87255237571548316,0.98080172901079132,-0.47722826908679139,-0.67612453853034893,-0.1489194529387958,0.56239327552276719,0.28131888572537284,0.16758232135707857,-0.52065242618352747,-0.58942914280604575,-0.12075846586930249,0.90872448701817754,-0.41589435488725757,0.85974960132097455,-0.82081361618862192,-1.3162280481937241,-0.15056854586609109,-0.55554056344287217,0.77196967962231478,-0.32015644421691841,1.1396957078327652,0.86402459555245581,-0.88992543659300427,-0.632956987308784,-1.0038573109795608,-0.53871897959090709,-0.93831755543980644,-0.80457918519284866,-1.6054462192605465,1.2770557083548306,-0.74027844197828263,0.14008767468785371,0.13890616637225445,-0.28381563643171259,-0.377510574007179,1.1487590424477863,0.857430304799895,-0.2279024050900052,-0.27098508389712556,-0.46163933559397208,-0.71928390937707576,0.26839236292100105,-0.87610220344555667,1.21854169156349,0.85804883339053428,0.30952577092964678,-0.98053959150823744,0.18287578022615275,1.6054897734920912,1.487739002093551,-1.1032969276901787,1.6545416369982606,0.81313134860858849,-0.39932608529893976,-0.613203840085957,-1.0510425823978347,-0.63637418928534428,0.19924113485468445,1.146026877288719,0.89399643831141118,-1.0853337175610167,1.6447302494872038,0.18859188713764441,1.9102541235788977,-0.27873018082683287,0.3988928002693074,-0.586020962206443,-0.82886948381963632,0.68460298268338793,-0.47140795602295921,0.027391207300774434,-1.3547797851985226,-0.013729900377283999,0.18646221896003112,0.24500297673279547,0.52253580279560841,1.1009614230840201,-0.2918878241115383,-1.2446042649655622,1.1970293629900688,1.0639285889095973,-1.3677440694557708,-0.58019884907940811,-0.75032839033848653,1.2527720968632088,-1.2099059132069412,0.21280440698042724,-0.73808130515489889,1.1032765112366882,-0.20345251620907912,0.28344430508252427,1.7427538967424789,-0.73517381177990415,1.2462105924478781,0.23995680745689052,-1.4242452659757088,0.37639179067056144,1.2853733393295546,0.89954007039756523,-0.14665758150939712,0.1759448229223235,-0.33061305989510748,1.0640471163504044,0.41195260638084347,0.46860980459307788,1.4525975535868656,0.45873464991279639,-1.1789994685347189,-1.2223065955559678,-0.38767302519999114,-0.44335423744905467,-0.24732129648524648,0.31730091493451074,1.0285965982583043,0.85570873441440476,-0.949644520389682,0.730873306622204,-0.21229875944545423,-0.46521150005190814,0.07747379027538645,0.1796178366821225,1.9177133086685618,-0.12895585553817485,-1.2881473986376766,0.87451681302605033,-1.9797172155136789,-0.19316682042235828,-0.53722450022456447,1.9746696743996206,0.26389104000473917,1.0078880204855873,0.50658816774682514,0.045526065884868849,-1.1659502122392647,0.22381447780273264,-0.74839145985639688,-1.2265895433847742,0.58359303631987114,-0.75233112403765845,0.25506999724662377,-0.3973050023829563,-0.020176491037134592,0.18596849987735917,0.90342952073711436,0.26225989187517107,0.28359136927418738,-0.11106728745914229,-1.3882669598740838,1.1068288340963557,-1.2862842145564879,-1.6224039958894272,-0.49866146244741771,0.47173103840170938,-1.2758447263743005,-1.642250370067661,-0.032687090352497505,1.2614604156750535,-0.46334556791155856,0.26971175254774815,-1.1877590524092125,0.79891784246960551,-1.304677102390992,0.96252330702742428,-1.24777824489762,1.0035409096433914,0.398663037642214,-1.1729050181679916,1.283152312902661,0.6397961148246174,-0.14970427101129513,0.021454951735890848,-0.49615379607221421,0.49136982506394067,-0.13105694070245696,0.70932622566322134,0.93567514683355357,-1.8087368438992355,1.6098414139635122,-0.8255902979642108,0.37411839066730757,-0.30654666206881021,0.29297424866490729,0.56759344172551929,-1.2226661430866035,-0.01971089933985426,-0.17334926782564697,-0.55118067165997253,0.63535852459717979,1.0197918642608179,1.4390287117282994,0.87906024808951677,0.89422535924117574,1.0887825154181487,-0.12145282892577947,1.0707359715927094,-0.14331899450315111,0.078156104622408629,-1.6813411878800677,-1.4488141794916309,-0.65771035668219957,0.242227342092538,-0.29747442966646021,0.10556394704876659,0.78590685348388822,-0.45379554780842524,-0.7511599740251711,0.87578222382617288,-0.5828814114597074,-1.800081204962809,0.91991629214953452,0.35218312654280248,1.5306901352157305,-0.49769327575674588,-0.088032544834343557,-0.25770578498845254,-1.2095836900219246,-0.11539603775152751,-0.2680856590243455,-0.67595676189565879,-0.41719089933540254,-1.0660776063176234,0.42596809192954938,-0.845526627658646,0.21542539732654215,1.2556015305479997,0.10138703280327732,0.0890320399813981,0.10816674514211683,0.33511299655545174,-0.30966371777917434,-1.6794539399815043],"Bias":0.68353466766527138,"Output":0.0,"Threshold":1.9731194544458388,"Type":"GT"},{"Weight":[1.0648809806745878,0.526862508862681,-1.4065721221997274,-0.92799389405548283,-0.21120700482800925,1.6897859674365194,-0.618796589024736,0.0044256634448774507,-0.48575231996319884,-0.21553715235345861,0.6808553431643285,-1.2428062629153982,-0.38951312239208224,-0.57878211388773382,-0.18330033580227767,-1.2441144923585787,1.8088549225632358,-0.21748339767450631,0.47805860008954015,0.25821822497910718,-0.11025136062421437,-1.545111097183596,-1.1924245621508103,1.9198391809686268,-0.73298899584123345,-0.61058023467970024,-0.66094121317646759,0.48726760618727066,-1.9903049934610282,0.689026682958485,0.56471351883477217,0.81692217194246419,1.4688370560616426,-1.2802581373975883,-0.52389834727185058,1.1077598887997493,-0.91763370619976592,-0.086989425521586464,0.35631543394122989,0.08908896431750124,-1.4315151507998376,-0.46565768821051295,0.24891932785926363,0.17605996885153474,0.77256175794379534,0.76206689642838521,0.36337920760893239,0.24104135774124469,0.36902849346819733,-0.65945405683454794,1.4320595321161953,-0.23890914173745986,0.45718253378625151,-0.49247666751298136,0.89988403250457916,1.3457142707638976,0.47103908214300816,-0.47269767265426821,0.93881311683232049,0.84563911838719585,0.72460962985042021,-0.69339247098408652,1.2543907441452102,-0.30583158519274167,-0.082455500998746323,0.24540803687917678,1.0146087156340213,0.22762206859310252,0.78043583516922632,0.7451256712643084,-0.1868687291131908,0.35474981470873168,1.0913302912802112,0.68489786676959918,0.021305693323400821,-0.27007011429875627,0.33833836005690437,-1.2637044028733877,1.2284589822968908,1.1191126206513089,1.4568639948355797,1.0710223946119761,-0.8507752068577219,0.69339554399813874,0.34871651388179337,-1.0076033000058424,-0.16915752839723486,-0.98429160993983822,0.49035591189300431,0.49631898383824169,1.3700386841641921,0.78939174059284456,-1.1528566674038077,0.53067601055743074,0.070825540493626882,-0.43607366597534392,0.635183210054332,0.93837680990732109,-0.28999248439911396,-1.0918426826092613,-1.2864288013830914,-0.86641778715020878,-1.1802061922756053,-1.0110525947581293,1.2054651985901712,0.76953566389602424,0.47133814972887644,-1.4943367948263591,0.19754263944118228,0.9547711009880393,-1.2713707309548608,0.29183679116788014,-0.034038754545170136,0.9412897177407471,-0.19037452255858778,1.2501884039375877,1.6151473520394171,-0.29903515259057351,0.27185217146251317,-0.50663593248773187,-0.64258842339859723,1.6360860763285712,-0.076537186079405684,-1.2704319000572115,-0.1033864643804317,0.586360640864056,0.049387243599345432,1.2911560215480422,-0.56995239857116364,1.4068394249336977,-1.1940412666620879,0.59010025450573378,-1.870460104136942,0.046934671721856391,1.0405628862979648,1.132665325483617,-0.85707970515688858,-1.2012439762247933,1.2342222925434925,0.26395083310252887,0.55287030644382851,0.89191028796691008,1.4416324216600658,0.49473037780017148,-0.08406711839328862,0.301011418383603,-0.51613322576327869,-0.38063080801101296,0.51181211160114592,-0.82193125822671265,-0.98517839283923547,0.61258660657917463,1.1373546492016664,1.0463408446519009,0.39291601791880826,0.21932578748991993,-1.0875795931031833,-1.7018113955002274,0.7740607384587922,1.3011910018051003,0.82405123478921671,1.7054785432785184,-1.7739547769417776,0.63803578408898853,0.67439792540362,0.34399074797704388,0.46212031160949274,-0.90999535664915832,-0.55129965706716166,-1.3294931181378165,-1.3814786986361625,-0.59540005327457479,0.70999788549262943,-1.0338146253646419,-1.0964628788691597,0.97878875594064074,-0.36759957176055746,0.011282630270013083,-1.0065433729936104,0.64876937244495814,-1.0441494141910921,1.7436147684900161,-0.86590352135985327,-0.35389663947461947,-0.70883835006218332,-1.1903261684000854,0.4449783574999211,-0.71144675962228643,0.27753864975065856,-0.17404315256236264,0.31347723412955064,0.28076994788317605,-0.53696478835165717,-1.3604471698131864,-1.6901510579931323,-0.38458952605006724,-0.24189634171697291,0.13731055433736694,-1.7887061144172709,-0.14810921695228163,-0.63721542001332354,-1.5067810331567775,-0.26558249298975933,-0.69658797359866464,0.9281795252484043,0.58638339211277368,0.9166398688296975,0.6011945375246901,1.0102942480559163,-0.62176196212962354,0.90888988629863121,-0.16692807245041633,1.1082832282313038,0.14823431924368921,-0.41340552071958747,0.29925006429513462,-1.3478260886206153,-0.070526321451424678,-0.9726367010607555,0.074447543394960292,-1.1464024927217524,1.0759703545253587,0.25848478475555264,-0.025119318638518129,-0.976399838098511,0.96365432119399963,1.7608261479813727,0.50274411702539967,-0.18908477424775938,0.55461256883787557,0.32143461775974574,0.848368856796119,0.60104889171246834,-1.1588765453355743,-1.738831937191464,1.2621185273221314,0.61056684610649459,-0.9655467397372921,-0.81571125183986093,0.791034581508038,-0.90028469539260714,-1.298723047272639,0.90609595669950149,-0.48506197683846175,1.7011555543640422,1.4702012648201555,-0.79471750571146493,0.024684242915680832,-0.548628325829575,0.97876769815514209,1.5184138243870873,-1.643266934735359,-0.53613284162065611,-1.1532994317549123,-0.375851110402428,-0.89133185886236066,-0.029117214617970677,0.99095635499485946,1.6201760506351366,0.35609591303211446,-0.080634232193264932,-0.019152874601610304,0.99958768424384181,-0.38916568755599013,-0.31371884714519549,0.93536247775674,-0.65563820780295079,-0.61072972771279965,1.9468562807640324,-0.574408574995775,0.20866462132365649,-0.86111511982097988,0.37612847928592391,-0.79511790422029693,0.87975405428954589,-1.594568256099973,-0.37961257752827959,1.8885708879160559,1.7478852922785495,1.1270533304740356,0.26969217574181342,-0.31775238608013157,-1.63746487006427,0.1930628894795956,0.32782029442736893,-0.0026423055690909525,0.83831578625287673,0.8439412957221557,0.052676090966224262,-0.75880526404162341,-0.5037778730056145,0.014526134363620602,0.34191803740211629,0.82066306789436538,1.7288999949716497,1.5067989768026391,1.0254227994750325,1.2224962828785631,-1.4925537023192987,-0.64590088015638791,0.53241090965807958,-1.1825005586410411,-0.43585356810868414,-0.31152437668561139,0.78035492004436224,-0.01377529931374084,1.5231227574512003,-0.68499857128946973,0.48453999240162782,-0.26047990522680786,-0.56690159885534153,0.85055475139550629,0.024706783516785263,-0.4034481719239188,-0.50099190897936552,0.45231671745531088,-1.2628364261532372,0.84702209607683043,0.06053647146017694,-0.901944687696727,0.12530517257997081,-0.81448258468391488,0.41156683056781013,1.6211712302738666,-0.76405907054613476,-0.11524498002382222,0.26122735313197,-0.62455240293617931,-0.38950335205975151,-1.2722877018490282,0.13329220868130731,-1.9122021607645798,0.010197346336300317,-0.59209361806929506,0.94307633347021236,-0.88897416502655213,0.90757540562542882,-1.2571592457858656,-0.23078079894354853,-1.4875628461537711,-1.1056733928181572,1.9255677703421412,-1.7697648051054054,0.14707467711860056,1.3454644453289602,-0.41486587842920131,-0.12582745844740534,0.29953690166563574,0.913629969076081,0.43408536838092138,1.6553947830830675,1.1101301683746723,0.52372692052463043,-0.57654660709448924,-0.28226035855233683,-0.69461206658492425,0.088639329228847874,-0.437195777165329,-0.29990960066202554,1.031959654312562,-0.32574338760494426,-0.64782732266365894,0.70176439951256131,1.3258413757783556,0.58253534907476767,-0.7893393789892269,0.19071648337544495,-0.87342482147432154,0.36259856371330024,0.5380048540132143,0.75962706920631451,-1.1375590144365835,-0.87993497608342908,-0.78812674723098963,0.17164614702404193,-0.26101029583300006,0.065789465357451338,0.61655839143795732,-1.1312649394996766,0.61185087359807322,0.398785986221063,-0.47224814027794348,0.64971177217071485,-0.011592018423411954,-1.1163600741926754,-0.87532156467219879,1.009231617212869,0.98431000624984044,1.5475252510304332,-0.71358423728313958,1.1177815520064265,-0.69618509742253709,1.0836856365029663,-0.14407797371641459,1.0924423761164968,-0.15558408292114012,-0.50170287699517924,-0.76490049192910115,0.397926002218117,0.24553657919542715,0.66533902621145335,0.58933015409069145,0.066799382870341484,-0.589027919149505,-0.39402739171839568,-0.23115757595801617,-0.32141833990801749,-0.48241715339008578,1.8738239611842782,0.051154350885727617,0.40857822871584359,1.4933225649843562,-1.0248086974899549,0.3934904199627155,0.63742616334284019,-1.6745762674485223,-0.89156696148755343,-0.16623681418888125,0.29628270964773717,0.88573701720951936,0.27723080025856889,-0.08275513427003614,-0.46152946460189065,0.21528725801747628,0.9015962924000791,1.4046318900793007,0.40907415235631878,0.48406718487203071,-1.8701795655629503,-1.2098865171414825,-1.4184961036865116,0.056003943840489331,-0.71019293400933636,-1.732588579753688,-0.96937715981068417,0.10497238850444618,-0.23244876776062834,0.47621571566907955,1.9362260865449095,0.82199202981870245,0.56413960209541936,-0.835666885057309,0.38229177875085346,-0.737670374446395,0.9052891670285208,0.98342865838596072,-1.4070991666089274,-0.49981692922293064,-0.6624853595450918,-0.023821174876681228,0.8587249751276238,-0.014831325781045665,-1.1533084037337535,-0.50298356567648406,-0.36750294320169052,0.77940457909340255,0.954069715088266,-0.94207461129039272,0.92040177316041727,0.93893004659979151,-0.5310612861138938,-1.4255355393632947,1.150849905866594,0.575645334355368,-0.12645020699571952,0.16245052548811345,0.52354377439410582,0.63306845800628353,1.5432579030949891,0.38138522237138128,-1.8923502154147021,1.9153845160805547,1.6359630020502785,0.41185362122252112,-1.2292845082354456,-0.28257536389053589,1.3457590857733781,-0.013995972468515916,1.8087420183274623,0.11842291571941374,-0.05570407006554931,0.64132977958830528,-0.59100211290078108,-0.77425973432802575,0.96674369972513219,-0.074848688725817319,-0.91339642503922636,0.77606425004827972,1.4611610600078295,-0.750706873696219,0.95643120586709562,-0.60390443798059923,-0.84826533332153464,-0.20231494039088396,-1.6834893932954824,-1.1303498207150726,0.011126688686724284,-1.9560329224709574,-1.3277564660309611,-0.095612491525529086,-0.931294196718975,-1.1965145744367105,-0.3687514841411037,-0.60339939017007094,1.0242607032527498,0.027646531014993286,-0.89604849165359779,0.4559658442826317,-0.5705688302442754,1.9545179344501897,-0.91624758737918333,-0.11902629098841906,0.65309195902808215,-0.77382913639524742,0.7651554936380851,-1.8596537894847123,1.0308964993017242,-0.40931581200999939,-0.843607821894627,0.883308819906464,-0.75069414766072029,0.44119741924225253,-1.1990878038104103,0.064081476612554755,-0.68674832696714927,-0.39696126170314905,0.44100936802151119,1.2218905460191381,-0.72149506224505366,0.68837431838478325,-0.43998489721095413,-1.715691966803601,1.07610649199975,-1.1577227279347007,-0.095943367153379755,-0.23959733696635682,0.92725998858328,0.083610647396934468,-0.66874719724582843,-0.60686359675920731,-0.02618051694062562,-0.2223713652800636,-0.19992141722386864,0.49537680693686792,1.004148860929603,-1.1097236764546128,-0.31696935135031545,1.2619542829980861,-0.51429884811597815,-1.8070144536006332,1.6870660431157174,1.035615827439174,-0.62672231934346367,0.93835199202334119,1.0995710934975982,1.0249604727257791,-0.22654238266476534,1.3825695325539305,-1.0003959084862824,0.62580978899533379,1.0543730859897904,-1.1975773529603973,-1.1481508179856261,1.5551747416868689,-0.42234420330372835,0.1518329076769655,0.781212780057086,-0.23613650054258129,-0.48917634878485694,0.2180832321924675,-1.399161622456059,-1.1216976862036145,-1.6858370824185371,-0.047049316599522495,-0.70968982098144007,0.53694092227934886,0.37433823774305081,0.38796078602606804,-0.70891647353252241,0.04062970403611188,1.3992092989614278,0.17889163619301382,1.8030934947557253,-1.7223985752660775,0.35103865637353648,-0.045966937228090643,-0.075713167758990729,-0.92273855880961686,0.54883489373975491,-0.38617951970602366,1.1126945443044858,-1.0994242667683514,0.8794876724735311,0.661359461332373,-0.778584976984926,0.988125439942378,0.25865049951646979,-0.51243307930996318,0.61446745819067217,0.53699492164937013,-1.3887723830476275,0.75869490462760192,0.13110959349717466,0.11800015583541257,-0.25268842105413247,-0.53022158426708621,0.32371331926491731,-1.3287905324617357,-0.70999475229065623,0.086316245182564644,-1.5002995689866596,-0.93287396553990343,-0.89687420283298669,0.2272625642153018,0.2480226318575548,-0.12578931177304553,-0.95537984136276877,1.24436140164936,-0.36532992308916534,-1.2094956725880017,-0.67109096733438367,0.3698901943487849,-0.65321971716043525,0.3848763035278342,-0.0064027085930121741,-1.7746310549670044,-0.35457969911719356,-0.15243128787373705,-1.5895029919173118,-0.089462108486081493,0.077368322795894173,0.71628913386552084,1.0376010663051165,-0.23263090789906263,-0.1802683895583504,-0.80739089791075824,-0.40655382892887743,0.66693293462364611,1.492867030898513,1.0390133760119849,-0.31760319244004931,0.078945206514999922,-1.0849323477991542,0.21140047841830095,1.7851273211581296,-1.0380154373301265,-1.7696717808813192,-0.18889941733638493,1.6881028095670523,0.41379503465201489,-1.3900866338005693,0.46261532160575269,0.99476579902449913,-1.0285581957444352,-0.295865678366211,-0.23204454254919865,0.22955243394929403,0.0053318035804922892,-1.8863702061988275,0.33450774817471746,0.38541453617411409,0.14430737595274445,-0.95835297413821241,0.7022874837635491,0.99993611662645643,0.29642686541025842,-0.1955140597166094,0.26172147493889625,-0.85826936443612245,-0.75837367543950762,1.426490112872091,-1.6547502296300374,1.5064807587799061,0.46396296760626593,-1.0501744463342124,-1.1853749822757091,-0.66090315620507623,1.7468029184950531,0.51138988067926361,1.6258188838259406,-0.54120541482288642,-0.13386712735840778,-1.9020123406788392,-0.43033198007863582,-1.17176256523084,0.9461329338122777,0.033454536805155533,0.20498723266878516,0.87152937374614625,-1.2387803808035238,-0.56948215447807793,0.39547001123217385,0.26228215349923484,-0.22423419365405131,-0.43468836156404034,-0.15143451194811353,-0.14771506236468671,0.21574120512965189,1.5404790302461382,0.53469753150581278,1.6400767283552917,0.32559597789141215,0.31167772333681487,0.62787803571106782,0.18055865456376141,-0.31400355804432345,-0.75869858439951143,-1.5015874092940182,-1.3239970539342598,0.67323151945374282,0.25765995227622807,0.03079049011263546,0.49811188620427238,1.3112567380588764,0.14643677167166561,-0.15736116383101839,0.80202885661368661,0.20235679214929991,0.042386800419719317,-0.82740974371666542,-0.89017603494700781,0.51740594884259883,-0.22853897429468995,-1.6476187499461783,-0.76086900595561469,-1.1205833997207617,0.25468586117713032,0.29933616571797556,-0.2640372983361769,-0.28585772322763581,-1.5846781244430124,0.0714895218812695,1.4067785960653696,0.321665492618361,0.23382707860975011,-0.84857959432926933,-0.25908921019131737,-0.628139483062041,0.32747450818370449,0.26237670437543503,-1.6821230844045632,-1.1394932498873645,-1.2576938137680729,-1.1207880448181127,-1.371194253382829,-0.67805068133308111,-0.31385046723943688,0.95235861270303523,-0.24410121247363326,0.2075505266932538,1.7771507298401967,1.4451445599296804,0.41270819884385368,-0.79366358685943461,0.4907314472322965,-1.1331742886142684,-1.5753076763708647,1.933273771746677,-0.42503603567603793,-0.53891243903847053,-0.25695454434349885,0.30308930124300038,0.80246550720299847,-0.96703166280269226,-1.7047336752082845,1.1335922289330478,0.32325978499057673,-0.26669383713355943,-1.4608739798240709,1.3309322182698793,-0.55328483591009159,1.3448350817639545,-0.7895083106306755,-0.98628305037798492,0.34044348206708225,-0.237670710071768,-0.20563393707454788,1.7515781446134571,-0.10308600553687937,0.68233196270316876,1.5353097345378761,0.41412516423227519,1.1261662650509581,-0.61320279660318167],"Bias":0.65069941321886116,"Output":1.0,"Threshold":-0.77428343648756082,"Type":"O"}],"Output":null,"NumNeurons":3},{"Neurons":[{"Weight":[0.53647068586967461,-0.79605403416606313,0.31550730686425554],"Bias":0.8085467684122486,"Output":1.6605247611461786,"Threshold":-0.26021867242000735,"Type":"GT"},{"Weight":[-1.7984217441633446,0.56862639010354243,0.27604792045016113],"Bias":0.29556541205177334,"Output":0.0,"Threshold":-1.766639023910574,"Type":"A"}],"Output":null,"NumNeurons":2},{"Neurons":[{"Weight":[0.48870749910767552,-0.11153096617736424],"Bias":0.2737149473506561,"Output":0.0,"Threshold":1.0131407617652513,"Type":"A"},{"Weight":[-1.1399243822867367,0.28144471309181762],"Bias":0.70583958900660027,"Output":1.0,"Threshold":-1.2187251594004804,"Type":"O"},{"Weight":[1.4170594752845631,0.93076795103529819],"Bias":0.45650349060609163,"Output":0.0,"Threshold":-0.25434723042619756,"Type":"A"}],"Output":null,"NumNeurons":3},{"Neurons":[{"Weight":[-0.727273748653137,0.91964115478255049,-1.01999800199177],"Bias":0.18642433787995219,"Output":0.0,"Threshold":1.3639463555831211,"Type":"A"},{"Weight":[0.52480008756965413,0.069825680260465428,-0.81485021245426048],"Bias":0.39305958146837516,"Output":0.0,"Threshold":-1.26705451089286,"Type":"A"}],"Output":null,"NumNeurons":2},{"Neurons":[{"Weight":[-0.4762853656319368,0.99922772045533859],"Bias":0.41933954992300809,"Output":1.0,"Threshold":1.9770416673165938,"Type":"O"},{"Weight":[0.032341688134687949,1.034329261857762],"Bias":0.26060797030134497,"Output":0.0,"Threshold":-0.22914902780070542,"Type":"GT"},{"Weight":[0.87650344337523123,-1.7384824621204671],"Bias":0.35182567469395032,"Output":0.0,"Threshold":0.96114052457788057,"Type":"GT"},{"Weight":[-1.8348116650408188,-0.078410641166689055],"Bias":0.519893761617082,"Output":0.0,"Threshold":-0.43991042511446188,"Type":"GT"}],"Output":null,"NumNeurons":4},{"Neurons":[{"Weight":[-0.578655978002891,-1.2036747439781552,-1.1123490319419243,0.9571539167809251],"Bias":0.68342376625324774,"Output":0.0,"Threshold":-1.2892433774141798,"Type":"O"},{"Weight":[-0.054331920134989442,0.42462741806974952,-0.95713532853738192,-0.615599456995539],"Bias":0.10683408587528817,"Output":0.0,"Threshold":-0.45645688821396641,"Type":"O"}],"Output":null,"NumNeurons":2},{"Neurons":[{"Weight":[-1.4108737220106988,0.51476606071042652],"Bias":0.47115251211037512,"Output":0.98591857282080164,"Threshold":-1.5470292510218124,"Type":"GT"},{"Weight":[-0.32992593628380029,-0.49740438675387044],"Bias":0.28377220769588474,"Output":0.0,"Threshold":-0.19837938630877972,"Type":"GT"},{"Weight":[0.41233718405831665,-1.8321915715151427],"Bias":0.5322480548789017,"Output":0.0,"Threshold":0.45283336577219935,"Type":"A"},{"Weight":[1.5599262211168774,-1.55007296407133],"Bias":0.35511574538197171,"Output":1.0,"Threshold":-0.39681263565868718,"Type":"O"},{"Weight":[-0.50047261570602308,-1.029335147226579],"Bias":0.87813209410669846,"Output":0.0,"Threshold":-1.080804874692487,"Type":"O"},{"Weight":[-0.41714141816699013,-0.50173622579394661],"Bias":0.46863469697558774,"Output":0.0,"Threshold":0.544336301528074,"Type":"GT"}],"Output":null,"NumNeurons":6},{"Neurons":[{"Weight":[-0.699687286605913,-0.17555784503724925,0.3884496174931758,0.44849472636054022,0.12666588748184304,1.0517909009891056],"Bias":0.93573364845278373,"Output":0.0,"Threshold":1.9866376146611935,"Type":"O"},{"Weight":[0.035658008435581756,0.38794054274933437,0.43012847063215232,0.89908715294980768,-1.3380086408306493,-0.71223735120717313],"Bias":0.44733958153395892,"Output":1.0,"Threshold":-0.08634786849525887,"Type":"A"},{"Weight":[-0.13964985270968169,0.79459639861928133,-0.25147498289948567,-0.9877687200657761,-0.97766224247294575,-0.049737605798750834],"Bias":0.93573364845278373,"Output":1.0,"Threshold":0.87626837167845739,"Type":"O"}],"Output":null,"NumNeurons":3},{"Neurons":[{"Weight":[-0.75842063257397174,-0.33846457318331336,1.3343046601977804],"Bias":0.40144171770729203,"Output":0.0,"Threshold":-0.10098336734854763,"Type":"GT"},{"Weight":[0.57981827610080194,-1.0538322720927336,0.21181046134410919],"Bias":0.68300344078643116,"Output":1.0,"Threshold":0.21620346103618093,"Type":"O"},{"Weight":[-1.4635487103199347,-0.7848914314411144,0.17063098985032688],"Bias":0.44091325786007252,"Output":0.0,"Threshold":0.14160961024800059,"Type":"GT"},{"Weight":[0.92197526196109836,-0.690040653339839,0.0534473276014662],"Bias":0.32556746075869392,"Output":0.0,"Threshold":-1.4230399650628864,"Type":"A"},{"Weight":[0.17199057921248753,1.357200015182467,0.81019313305097873],"Bias":0.48915562020051556,"Output":0.0,"Threshold":-0.78722672937788973,"Type":"GT"}],"Output":null,"NumNeurons":5},{"Neurons":[{"Weight":[0.22842981269509988,1.6469688930767445,-1.035630605034378,0.129476297576086,0.43132473096825164],"Bias":0.91209023115788135,"Output":0.0,"Threshold":-0.35471044707593297,"Type":"A"},{"Weight":[1.5366752946454452,1.9560099113527731,1.8584926761027858,-0.14030803653425908,-1.0607145722306868],"Bias":0.54935933954518257,"Output":0.0,"Threshold":1.2832028676211849,"Type":"GT"},{"Weight":[-0.056708644970788868,0.62843919213418986,0.46938076638282195,0.56654431759503909,1.0818613622831634],"Bias":0.41962149543437244,"Output":0.0,"Threshold":-1.5614694485261429,"Type":"O"}],"Output":null,"NumNeurons":3},{"Neurons":[{"Weight":[-0.78628012481438,0.38092224695995563,0.54046185991748308],"Bias":0.45583296000530615,"Output":1.0,"Threshold":1.6684786191529031,"Type":"O"},{"Weight":[0.0445343933448947,-1.9407881907842999,-1.272798997477069],"Bias":0.46812352344539176,"Output":1.0,"Threshold":1.8753957002774793,"Type":"O"},{"Weight":[-0.73568760894038132,-1.6736497262835735,1.4530905650244517],"Bias":0.1602600795031805,"Output":1.0,"Threshold":0.31918801009617193,"Type":"O"},{"Weight":[0.38184799830515304,0.429579278125096,1.3918093374892182],"Bias":0.49770772107770095,"Output":0.0,"Threshold":-1.532519133078176,"Type":"O"},{"Weight":[0.85681336506121486,-0.39753456909560347,0.25940885977326378],"Bias":0.74826991837391155,"Output":0.0,"Threshold":-0.32508796902329845,"Type":"GT"},{"Weight":[-1.0473924535547348,0.30292846080771452,0.19741578851706149],"Bias":0.37911962688859535,"Output":0.0,"Threshold":-0.77678470137262923,"Type":"GT"}],"Output":null,"NumNeurons":6},{"Neurons":[{"Weight":[-0.70342429108145854,1.1751081718542085,1.2158240368254285,-0.14747525292796793,0.0949531021038783,-1.8520025298699909],"Bias":0.39915506257636246,"Output":0.0,"Threshold":-0.64039414638671754,"Type":"GT"},{"Weight":[-0.50911756164320487,1.12338420509984,0.35974162926885356,1.0699633973702669,1.5186236368113306,0.0047352099813220416],"Bias":0.24732779769568136,"Output":1.0,"Threshold":0.76478329330672656,"Type":"O"}],"Output":null,"NumNeurons":2},{"Neurons":[{"Weight":[0.48342171752358465,0.58872442335316344],"Bias":0.48235084301901554,"Output":2.1534906297336134,"Threshold":0.24254793057133117,"Type":"GT"},{"Weight":[0.48368198947686791,-0.7707974822066247],"Bias":0.50758203701469207,"Output":1.0,"Threshold":1.5967865230500635,"Type":"O"}],"Output":null,"NumNeurons":2},{"Neurons":[{"Weight":[-0.6117283274881673,1.7414076643723098],"Bias":0.86211874841811076,"Output":0.0,"Threshold":1.0715224608180685,"Type":"O"},{"Weight":[-1.3074123576783632,0.32379693378405505],"Bias":0.403767473747147,"Output":0.0,"Threshold":0.95033532704707957,"Type":"A"},{"Weight":[-0.9562541831488508,1.5351075807284134],"Bias":0.928629531491841,"Output":0.0,"Threshold":1.1392309643045211,"Type":"O"},{"Weight":[-1.148852128441253,-0.21860886394860124],"Bias":0.63823058363666307,"Output":0.0,"Threshold":1.7354174627621739,"Type":"O"},{"Weight":[0.37532431989496651,0.268111155353897],"Bias":0.88673222525358764,"Output":0.0,"Threshold":0.38426476269227683,"Type":"A"},{"Weight":[0.57621416828535232,-0.086086484367184468],"Bias":0.182280665115584,"Output":0.0,"Threshold":1.5296773442671063,"Type":"O"},{"Weight":[0.91810242749313,0.70741796340207475],"Bias":0.43228801581183829,"Output":0.0,"Threshold":1.3912614935037033,"Type":"O"},{"Weight":[-0.4719295332957954,0.065445400793812974],"Bias":0.726619691391333,"Output":0.0,"Threshold":1.0202651633975401,"Type":"GT"}],"Output":null,"NumNeurons":8},{"Neurons":[{"Weight":[-0.88584452159301952,-0.4490424091690417,0.43060038386872057,-0.64347857627713989,-0.8688582566363543,-0.7678056956582372,1.5639639289881866,-0.41986114784137413],"Bias":0.25881538218142253,"Output":-0.043749098490067029,"Threshold":-0.94939194448496778,"Type":"GT"},{"Weight":[-0.4377936720558413,0.73762840323039724,-0.32787278077000415,-0.48802503718786178,1.6709838843303659,1.0978899481289042,-0.9755576583443013,0.77410452522994233],"Bias":0.22812895161478267,"Output":0.0,"Threshold":-0.043997557854278835,"Type":"A"}],"Output":null,"NumNeurons":2},{"Neurons":[{"Weight":[1.8370352312163614,-0.14274102231964519],"Bias":0.6015219151049489,"Output":0.0,"Threshold":1.0593505031705606,"Type":"GT"},{"Weight":[0.45041495096539841,-1.5684337632419902],"Bias":0.82855492636028438,"Output":0.0,"Threshold":1.9024125877313374,"Type":"GT"},{"Weight":[-0.46929408166059017,0.59651456149132676],"Bias":0.63602752460214651,"Output":0.65655871760152118,"Threshold":0.11663743486471345,"Type":"GT"},{"Weight":[-0.45279136916911444,-0.51238738862443123],"Bias":0.69086637193843092,"Output":0.0,"Threshold":1.108474930798856,"Type":"A"}],"Output":null,"NumNeurons":4},{"Neurons":[{"Weight":[-1.1032982762152539,1.4445033778643719,-0.696443123834414,0.2004546588056042],"Bias":0.33258134468113137,"Output":0.0,"Threshold":-1.4319966730810685,"Type":"O"},{"Weight":[-0.9331900739561515,0.78998967637423878,-0.99181799824992689,-0.017204248354399709],"Bias":0.73518252610521206,"Output":0.083995773080132285,"Threshold":-0.7653757715669347,"Type":"GT"},{"Weight":[0.84896137686034134,-1.6592153774850142,-0.45639167561027777,1.204587285454521],"Bias":0.68178530930624592,"Output":0.0,"Threshold":1.0785939875424813,"Type":"O"}],"Output":null,"NumNeurons":3}],"OLayer":{"Neurons":[{"Weight":[-1.5451014642777334,0.71436767300179449,0.3570229617678668],"Bias":0.71678712485208518,"Output":0.41707878029119222,"Threshold":-0.078269894842446008,"Type":"OT"},{"Weight":[-0.27449995012697759,0.33948078063059633,-0.53261072679078714],"Bias":0.68146285399862694,"Output":0.0,"Threshold":-0.41604945408927724,"Type":"OT"},{"Weight":[0.21491225865432628,0.16058055598315812,0.97003512164579486],"Bias":0.35247812937129197,"Output":0.36596621731273482,"Threshold":0.58293484830434172,"Type":"OT"},{"Weight":[-0.78715946468858033,1.0961800353700202,1.777128865954992],"Bias":0.90492022312475384,"Output":0.0,"Threshold":-0.69828188544990577,"Type":"OT"},{"Weight":[-0.43630492614410121,1.8278407993856076,-0.34297942567574685],"Bias":0.53576104494487442,"Output":-0.23109776013342254,"Threshold":0.34555764122085347,"Type":"OT"},{"Weight":[-0.43319200089108051,-1.6575832831010144,-1.9628768134689316],"Bias":0.14924144751822643,"Output":0.84466981098613358,"Threshold":-0.86587704455753656,"Type":"OT"},{"Weight":[1.3406178147255528,-1.4022855705825079,0.52739782050596451],"Bias":0.11074738675297582,"Output":0.0,"Threshold":0.40342627810473852,"Type":"OT"},{"Weight":[1.0024919422187628,1.5401363482420036,1.1684928625675353],"Bias":0.37646085646770006,"Output":0.0,"Threshold":-0.2248213983722131,"Type":"OT"},{"Weight":[0.45966608459580038,1.0236052307410191,0.48139252457665221],"Bias":0.079811082258732569,"Output":0.16578959494369167,"Threshold":-1.9602151810937631,"Type":"OT"},{"Weight":[-0.92877539942449672,0.51481082029166192,-0.7972951993471864],"Bias":0.28065008044331341,"Output":0.32389201328372863,"Threshold":0.79846310559588618,"Type":"OT"}],"Output":null,"NumNeurons":10},"NumLayers":17,"Breedibility":0.696401761916202,"Mutibility":2.1265172760054103,"Repetition":0}
